// Neural Network File Format by Kyle Julian, Stanford 2016
6,4,9,25,
4,25,25,25,25,25,9,
0,
-8000.000000,-100.000000,-100.000000,0.000000
8000.000000,100.000000,100.000000,40.000000
0.000000,0.000000,0.000000,20.000000,-4.683445
16000.000000,200.000000,200.000000,40.000000,30.305804
1.46508e+00,-4.26278e-01,4.42493e-01,-4.11245e-01,
1.92488e+00,8.36531e-02,-1.80072e-01,-1.10176e+00,
2.50268e+00,8.00535e-02,-1.80207e-01,-7.71894e-01,
2.22777e+00,8.39935e-02,-2.13950e-01,3.00949e-01,
-5.42344e+00,1.23015e-02,-1.16789e-02,1.90077e-02,
-4.67451e-02,-1.39313e+00,3.42754e-01,-1.68253e-01,
-1.13151e+00,-1.32052e+00,-2.39083e-01,8.64808e-02,
3.45745e+00,-4.45526e-01,1.52117e-01,-3.88735e-01,
8.91225e-01,-3.85099e-01,5.42380e-01,-6.60853e-01,
-1.24892e+00,7.43353e-01,-3.02991e-01,-2.58258e-01,
-1.70517e+00,1.83758e-01,-3.79093e-01,-5.31583e-01,
-1.70084e+00,1.60003e-01,-1.18899e-01,-8.12979e-01,
-3.58994e+00,-5.84559e-02,5.17130e-02,-6.29923e-01,
5.38094e-01,7.29309e-01,2.81414e-01,1.10510e-01,
-5.90382e-01,-7.98100e-01,-1.62992e-01,2.09158e-02,
2.59035e+00,-2.83409e-02,4.03268e-01,-2.71693e-01,
-1.15374e+00,5.26845e-01,-7.29173e-01,2.80656e-02,
1.95397e-01,1.48579e-01,2.27782e-01,-1.65153e-01,
-3.87963e+00,-8.11418e-03,1.49172e-01,-2.92023e-01,
6.08840e-01,9.14544e-01,-2.67514e-01,6.97465e-02,
-6.78182e-02,-2.83177e-02,-3.91498e-01,-5.21499e-02,
4.53527e-01,5.33982e-01,3.34966e-01,9.34770e-02,
-2.69859e+00,-2.27040e-01,1.95735e-01,1.48924e-01,
2.24453e-01,1.61670e-01,3.23484e-02,3.76497e-02,
-4.81801e+00,-2.42783e-01,2.97625e-01,2.21746e-01,
3.97345e-02,
-5.27098e-01,
-2.92412e-01,
6.25516e-02,
2.78859e-01,
-5.52141e-01,
5.06313e-02,
7.01505e-02,
-2.55452e-01,
4.06047e-01,
3.85226e-02,
-1.77038e-01,
-2.50551e-01,
3.12098e-01,
3.74576e-01,
6.49490e-02,
1.47182e-01,
1.55096e-01,
5.57786e-02,
-9.71652e-02,
-3.14656e-01,
3.75218e-01,
-1.33993e-02,
-2.53326e-01,
-2.66353e-01,
-7.06605e-01,-6.45476e-01,-2.62124e-01,4.62123e-01,2.49319e-01,4.85576e-01,1.20831e-01,-4.43617e-02,2.81499e-01,7.04189e-01,3.24280e-01,2.63844e-01,4.29338e-01,-2.21746e-01,5.17280e-01,2.53757e-01,-2.05033e-02,4.43812e-01,8.31853e-01,5.22772e-01,-2.50399e-01,-1.76051e-01,2.42804e-01,3.32204e-01,4.22560e-01,
1.37550e-01,-3.56366e-01,-5.70339e-02,2.68003e-01,-3.15803e-02,-1.10537e+00,-8.86124e-01,1.01290e-01,-2.61835e-01,-8.95221e-02,-4.84970e-01,-9.40178e-02,8.40415e-01,-6.78202e-01,1.07662e-01,-7.25501e-01,7.41433e-02,-3.34386e-01,5.04773e-01,1.14944e-01,-1.42997e-02,-1.90390e-01,4.27180e-01,-2.53231e-01,1.18375e+00,
-1.94012e+00,7.08972e-01,-3.65591e-01,1.15381e+00,-1.84468e-01,3.18427e+00,1.47413e+00,-8.53529e-02,6.22902e-01,8.27422e-01,-1.08374e-01,-5.10593e-01,2.32053e-01,-2.01156e-01,-4.33693e-01,-8.64147e-01,-2.00671e-02,7.82403e-01,-3.83682e-01,-4.12765e-01,1.25682e-01,-2.21729e-01,-1.26343e+00,-7.16003e-02,1.33596e-01,
2.62783e-01,-6.91966e-01,-5.16994e-01,2.65756e-01,-1.91558e-01,-9.68294e-01,-1.05836e+00,6.38749e-02,4.79034e-01,-4.06634e-01,6.63518e-01,5.53895e-01,-8.62852e-01,-1.30413e+00,8.00820e-01,-5.66448e-01,4.90881e-02,-7.16046e-02,5.58071e-01,5.72037e-03,4.96109e-02,-3.33971e-01,-7.43860e-01,-1.48227e-01,6.08219e-01,
-3.89014e-01,2.59732e-01,1.91307e-01,-2.72214e-02,-1.03886e+00,3.04850e-01,-2.95087e-01,-2.46205e-02,-3.29327e-01,3.20930e-01,-4.64073e-02,-6.15280e-02,-1.83302e-01,-2.46594e-01,2.06856e-01,-1.07525e-02,-4.26098e-01,-8.89889e-01,3.46482e-01,-1.89510e-01,-5.11244e-03,1.12001e+00,5.95916e-01,1.67144e-01,6.08320e-01,
1.46765e-01,-7.52322e-02,-2.87579e-01,1.54225e-01,-2.84229e-01,2.42147e-01,-3.21904e-01,-3.18564e-01,-1.60249e-01,2.39636e-01,2.96155e-02,-5.58687e-02,2.88482e-01,2.08999e-01,-1.00886e-01,2.20946e-01,-3.01501e-01,-3.31481e-01,1.71895e-01,-3.52144e-02,-3.04892e-01,-2.62429e-01,1.61071e-01,1.11562e-01,-2.96164e-01,
3.13305e-01,4.11494e-02,3.96863e-01,-8.85880e-02,-6.56068e-01,-2.19882e-02,6.59309e-01,8.16171e-01,-1.83671e-02,-7.62251e-01,6.89865e-02,-6.50741e-02,-3.90963e-01,6.81298e-01,4.76724e-01,2.93080e-01,-1.59648e-01,4.25189e-01,5.99315e-01,3.17907e-02,-3.30653e-01,1.28409e-01,8.44460e-01,-3.19563e-01,-2.10804e-01,
1.71609e-01,-2.67582e-01,2.52526e-01,-3.19819e-01,-9.00747e-03,1.81090e+00,3.27324e-01,1.73570e-01,1.84603e-01,-4.67967e-01,-1.59219e-01,-7.25575e-01,-2.05019e-01,9.92096e-01,-2.03369e-01,7.62414e-01,-4.95652e-01,4.86908e-01,2.71273e-01,-4.11390e-01,-9.67300e-03,-8.63437e-01,-3.04064e-01,-1.53011e-01,2.49367e-01,
2.98865e-01,-8.69932e-02,-3.19014e-01,3.13720e-01,3.36996e-01,-1.77426e+00,6.03402e-01,2.48353e-01,4.38597e-01,-3.02533e-01,-1.34418e-01,1.01867e-01,-2.41063e-01,-6.38284e-01,2.94580e-01,-7.85814e-01,4.86364e-02,-3.60603e-01,9.38312e-01,-1.11141e+00,-1.29409e-01,6.89967e-02,-5.05267e-01,-7.76466e-02,-5.74639e-01,
-7.96685e-01,3.32986e+00,-1.21223e+00,-1.38720e+00,5.91314e-01,2.11746e-01,7.46569e-01,-1.10558e+00,-8.56591e-02,-1.40006e+00,1.02610e+00,2.04077e-02,4.42192e-03,1.03007e+00,1.11983e-01,9.79569e-01,-8.22634e-01,6.63740e-01,-1.22234e-01,-1.45126e+00,-6.06576e-02,-3.57953e-01,9.02788e-01,-7.99900e-02,-8.55763e-01,
-2.74953e-01,1.10924e-02,-2.69706e-01,2.88587e-02,-2.77944e-01,5.97790e-03,2.95240e-01,-2.72147e-01,-3.22726e-01,1.38185e-01,-2.38950e-01,2.36577e-01,2.16999e-02,-1.45623e-01,5.80774e-02,2.18930e-01,-3.66292e-02,-2.92071e-02,1.08131e-01,-3.17686e-02,1.53010e-01,-2.62733e-01,-2.19020e-01,3.43153e-01,1.47312e-01,
-1.18813e-01,-9.51405e-01,-3.96498e-01,3.78589e-01,-1.09311e+00,-9.60120e-03,-1.45140e-01,2.57215e-02,2.21038e-01,6.74052e-01,6.17032e-01,7.07760e-01,-6.69201e-02,1.78560e-01,1.59875e-01,-2.34990e-01,5.75901e-02,1.82750e-01,9.26058e-01,-2.86333e-01,-3.29250e-01,-9.08170e-01,6.56548e-02,1.41204e-01,4.11950e-01,
-1.42328e-01,3.89250e-02,-1.33707e-01,3.54102e-01,-3.62727e-01,-5.34592e-01,-3.98113e-01,-1.89309e-01,-1.89097e-01,2.75731e-01,-3.02989e-01,-1.05258e-01,-1.87643e-02,3.29472e-01,1.93834e+00,2.19325e-01,4.05933e-01,2.72060e-03,1.84576e-01,5.21556e-01,-2.48164e-01,1.03337e+00,1.75483e-01,2.52337e-02,4.46371e-02,
1.93938e-01,-2.91522e-01,-3.57494e-03,2.34049e-01,-2.27288e-02,2.31829e-02,-9.90047e-02,1.14875e-01,1.46905e-01,-1.78719e-01,-1.28588e-01,1.43829e-01,1.60860e-01,-2.51451e-01,1.97295e-02,-2.70789e-01,-2.76006e-01,2.97874e-01,3.23260e-03,3.16380e-02,-3.22487e-01,-6.42846e-02,-2.33334e-01,-1.32063e-01,-1.47927e-01,
1.88587e-01,1.52330e-01,3.41755e-01,-2.46537e-01,-1.08293e-01,-2.97399e-01,-9.78318e-02,-2.21385e-01,-1.39742e-01,7.79976e-02,-5.37856e-02,2.82784e-01,-3.30512e-02,-1.97949e-01,2.85323e-01,-7.36040e-02,5.43844e-02,-2.76706e-01,-5.83923e-02,4.04643e-02,8.76317e-02,2.13943e-01,-2.15509e-01,1.10484e-01,2.50682e-01,
-1.54041e-01,-2.16937e+00,-5.88379e-01,8.08748e-01,-2.61004e-02,-1.30899e-01,6.98327e-02,-5.32203e-01,4.90440e-01,1.05860e+00,2.55876e-01,-3.58062e-02,5.85064e-01,-3.63735e-02,3.82799e-01,-4.66770e-01,-3.12869e-02,-5.46733e-01,1.27673e+00,1.42894e-02,8.21495e-02,-1.57880e-01,-7.97861e-01,-3.29341e-01,2.10948e+00,
-2.63519e-02,-6.94869e-01,-2.60817e-01,3.31579e-03,-5.79259e-01,-1.54438e-01,6.85271e-01,1.16585e-01,-9.98027e-02,5.55752e-01,4.57226e-01,-2.37283e-01,-1.78128e-01,1.06993e+00,1.03721e-01,1.43635e-01,1.42812e-01,-6.70238e-02,2.04248e-01,-9.47846e-01,-2.06126e-01,-7.27985e-02,3.69239e-01,-1.47934e-01,1.53100e+00,
6.44636e-01,-4.95568e-01,-1.54546e-01,-8.83786e-01,-1.09426e+00,1.14279e+00,4.15021e-01,1.10078e-01,-9.68323e-01,-4.55131e-01,5.73111e-01,8.00282e-01,-3.61309e-01,8.03927e-01,6.37756e-01,6.56632e-01,-7.49714e-01,-2.61511e-01,-3.46826e-01,-7.01433e-01,2.63309e-01,1.67492e-02,-1.23922e-01,-2.03899e-01,1.47945e+00,
4.78486e-01,-3.50999e-01,2.07592e-01,2.21598e-01,-4.08044e-01,-3.98895e-01,-9.87777e-01,1.74538e-01,-2.60577e-01,6.61057e-02,-3.71184e-01,3.82304e-02,-6.79708e-02,-9.87785e-01,9.51664e-02,-7.61736e-02,-4.68199e-01,1.71415e-01,1.33215e-01,-1.58573e-01,-1.76303e-01,8.09375e-01,-5.12035e-02,-3.31573e-01,4.87665e-01,
-3.07629e-01,1.54157e-01,-1.11907e-01,-1.31553e-01,2.24890e-01,-1.84596e-01,6.74631e-02,-2.32541e-01,6.98347e-02,-1.66702e-01,1.06270e-01,1.69509e-02,-1.47818e-01,-1.63858e-01,-1.11697e-01,8.64358e-02,-4.57011e-01,-2.51519e-01,1.05122e-01,2.00272e-01,7.63929e-02,-2.33688e-01,-1.20824e-01,-3.57051e-02,-1.18953e-01,
-3.29975e-02,2.30038e-02,-9.70595e-02,2.49775e-01,-9.57790e-02,-2.68507e-01,-1.14149e-01,-8.62199e-02,-3.34196e-01,2.27194e-01,-1.36983e-01,2.27714e-01,-3.33193e-03,-3.13280e-01,2.99634e-01,5.80064e-02,-2.54266e-01,5.69486e-02,-2.64724e-01,1.69364e-01,2.88446e-01,5.45255e-02,-3.11573e-01,1.17257e-01,2.54404e-01,
1.19387e-01,2.52739e-01,-5.09370e-01,-1.98093e-01,1.34701e+00,8.91857e-01,-3.20334e-01,4.31164e-02,-5.32355e-02,3.79938e-02,2.42919e-01,6.13837e-03,-1.78366e-01,4.72523e-01,8.12582e-02,-1.58754e-01,2.58172e-01,-1.77212e-01,-1.24583e-01,-9.55848e-01,-2.66347e-01,-5.86719e-03,-4.39358e-01,-1.29523e-01,-1.90147e-01,
3.85189e-01,-3.97261e-01,-2.64335e-01,6.67643e-01,5.51758e-01,-1.17473e-01,8.16908e-01,-3.22266e-01,-3.28385e-01,1.00642e+00,3.84595e-01,1.71049e-01,5.84742e-02,7.59525e-02,1.64400e-01,-4.75909e-01,1.86154e-01,3.55603e-01,3.07914e-01,2.87983e-01,-1.34544e-02,4.81924e-02,-1.03355e+00,3.30686e-01,1.34476e+00,
2.86486e-01,5.27696e-02,-2.08851e-01,-2.15671e-01,9.40165e-01,-1.64310e-01,-4.09126e-01,3.89371e-01,7.43918e-01,2.66607e-01,-1.12170e-01,-4.99892e-01,1.22621e+00,1.78268e-01,3.66205e-01,1.64620e-01,1.20025e-01,8.53618e-01,-7.74038e-01,-3.04874e-01,-2.52984e-01,1.58116e-01,8.30682e-01,-2.06712e-01,-6.02378e-01,
4.18538e-01,-6.19315e-03,7.55877e-01,-6.13048e-01,-1.00816e+00,3.81065e-01,-4.98654e-01,1.59474e+00,-5.49619e-01,3.36675e-01,4.38160e-01,4.44951e-01,-1.43229e+00,4.86920e-01,6.54572e-01,-8.36318e-01,-9.56556e-01,3.86780e-01,-7.59497e-02,5.52264e-01,-2.07137e-01,2.53597e-01,2.26122e-01,-2.42199e-01,1.46763e+00,
-4.56373e-01,
9.73599e-01,
-3.05149e-01,
6.65483e-01,
4.29496e-01,
-2.33094e-01,
-5.21028e-01,
4.09871e-01,
-1.55721e-01,
-3.01444e-01,
-3.08369e-01,
4.15653e-01,
-1.14197e+00,
-3.13057e-01,
-3.31945e-01,
-5.67966e-01,
-4.55356e-01,
6.92386e-02,
6.80020e-01,
-2.31984e-01,
-3.12168e-01,
8.87134e-02,
-8.06346e-01,
-3.98695e-01,
-4.56380e-01,
8.10284e-01,-2.69057e-01,2.90619e-01,2.96207e-01,-6.51949e-01,-1.64109e-01,-7.19972e-02,-5.77307e-01,4.44102e-01,-5.98503e-02,9.88876e-02,-8.91787e-02,7.18023e-01,2.51285e-01,1.45598e-01,-7.35637e-01,2.87389e-01,8.84279e-01,6.46591e-01,-2.12269e-01,2.82749e-01,7.91955e-01,1.50031e-02,6.17258e-01,-4.97513e-02,
1.37887e-01,-1.25730e-01,8.24922e-01,-2.00486e-01,3.32329e-01,-2.68462e-01,-4.18692e-01,9.00935e-02,9.84897e-01,8.55255e-02,2.01236e-01,7.26500e-01,9.91988e-01,-5.74100e-02,-4.10931e-01,3.87209e-02,3.30343e-01,2.14227e-02,2.04698e-01,-2.75282e-01,2.25230e-01,6.46177e-01,-6.64781e-01,-2.63929e-01,2.28051e-01,
-1.08498e-01,-3.01078e-01,8.31780e-01,-8.47927e-02,-7.40158e-01,-4.71562e-02,1.62488e-02,4.07873e-01,-1.36845e-02,7.90387e-01,-3.12680e-01,-1.13520e-01,-5.34731e-02,2.52943e-01,2.12014e-01,-2.05732e-01,4.95289e-01,2.68636e-01,9.66963e-01,1.11259e-01,-2.20626e-01,4.04641e-01,1.69706e-01,4.56555e-01,7.97643e-01,
-2.04716e-01,-2.57734e-01,-6.03167e-01,1.94688e-01,5.61533e-01,1.43976e-01,-1.78755e-02,9.43713e-02,-3.32996e-02,2.41248e-01,-3.14016e-01,1.01334e+00,-3.97840e-01,3.17612e-01,-3.44565e-01,-9.15172e-01,-2.31653e-01,2.82752e-01,-5.24846e-01,1.70938e-01,-1.98413e-01,1.68262e-01,-1.74502e-01,3.10930e-01,1.96237e-01,
3.44224e-01,5.87343e-01,-1.92003e-01,-3.37850e-01,5.60606e-01,2.85114e-01,-7.70608e-02,-1.12285e-01,3.48761e-02,1.07171e-01,-2.09377e-01,3.50803e-01,-5.27096e-01,2.80075e-01,2.26521e-01,-1.46741e+00,2.22817e-01,2.53833e-01,1.06959e-01,-1.56182e-01,-2.84003e-01,-9.76370e-02,1.14870e+00,1.60719e-01,-7.84624e-02,
3.95895e-01,4.27131e-01,1.64608e-01,1.61951e-01,-1.17327e-01,-2.79850e-01,2.28660e-01,3.22278e-02,-3.72943e-01,1.59488e+00,-2.01787e-01,-2.96352e-01,5.42582e-01,-1.13060e-03,-2.04361e-01,-8.19470e-01,1.38835e-01,3.83892e-01,3.52879e-02,1.42003e-01,8.46951e-02,-2.54103e-01,6.40537e-01,-1.86145e-01,-7.20585e-01,
4.52055e-01,2.42557e-01,-9.19207e-01,-2.23652e-01,-6.66586e-01,-2.48464e-01,2.22550e-01,1.22402e-01,4.93399e-01,-9.32926e-01,2.04120e-01,-3.93256e-02,-2.64077e-01,3.02192e-01,4.89797e-02,-1.14628e-01,4.84849e-01,3.27475e-01,8.22639e-02,-3.24438e-01,2.61339e-01,-5.91739e-01,-5.05376e-01,-4.01172e-01,-2.54732e-01,
9.83945e-03,2.73931e-01,2.71024e-01,-2.89082e-01,-1.71139e-01,6.07434e-02,-2.28778e-02,6.64682e-01,4.61692e-01,6.08306e-01,-1.47439e-01,-5.29764e-01,-6.20361e-01,-1.42275e-02,-1.90327e-01,-4.14373e-01,3.15361e-01,3.09654e-01,1.48246e+00,-1.28535e-01,3.05494e-01,-3.85140e-01,1.35460e-01,1.33623e-01,5.57922e-01,
-8.02594e-02,-5.34475e-01,-6.41138e-02,1.43895e-01,1.15583e-01,-1.72738e-01,-5.16900e-01,-1.11008e-01,4.56672e-01,-5.52092e-01,2.38867e-01,1.04819e+00,5.34240e-01,-9.30974e-02,-1.08446e-01,1.36107e-01,3.14390e-01,3.49069e-01,-3.68886e-03,1.09456e-01,2.15417e-02,1.31704e-01,-7.74738e-02,6.65249e-01,-3.27441e-01,
9.72607e-02,2.80787e-01,1.24053e-01,2.24356e-01,-1.41557e+00,-1.58473e-01,3.38253e-01,-1.39781e-01,-1.77287e-01,-2.50491e-01,2.58487e-01,2.42797e-01,2.37764e-01,-2.12270e-01,-3.35742e-01,-6.73543e-01,1.36426e-01,6.07899e-01,1.79793e-01,8.95122e-02,3.08821e-01,6.20116e-02,-2.43742e-01,-2.53615e-01,1.53434e-01,
3.88995e-01,-3.88544e-01,4.45507e-02,2.57359e-01,-3.21893e-01,2.24076e-02,1.27080e-01,2.32986e-01,-3.44443e-02,4.40948e-01,-2.37363e-01,-5.50546e-03,-1.35366e-01,2.01277e-01,-3.62830e-02,-2.98361e-01,6.32410e-01,4.41285e-01,1.01573e+00,-2.26823e-01,2.87710e-01,-3.18486e-01,-1.06452e-02,-5.20493e-03,3.25935e-01,
-3.61841e-01,2.35665e-01,-1.78944e+00,3.05577e-02,1.00697e+00,-9.70313e-02,5.00330e-01,-4.40884e-01,1.40492e+00,2.47559e-01,3.18547e-01,-5.02249e-01,-5.20492e-01,-3.20585e-01,-7.48304e-03,-1.37151e+00,-8.53912e-01,8.04586e-01,-3.43433e-01,-3.35022e-01,1.44645e-01,-1.23411e+00,5.11962e-01,7.49799e-01,-2.88764e-01,
-1.54131e-01,-3.05733e-01,-6.10334e-01,1.38199e-01,6.52758e-02,3.84022e-02,-1.24242e-01,-2.37726e-01,-3.11829e-01,6.23821e-01,-8.35960e-02,1.11864e-01,1.42041e+00,2.75376e-03,3.52751e-02,1.77694e-01,-4.20992e-01,-1.03828e-01,-2.73439e-02,1.94373e-01,-1.77288e-01,3.90371e-01,4.15926e-01,1.94085e-01,1.85602e-01,
1.02810e+00,5.19448e-01,-7.84747e-01,2.10228e-02,-4.88124e-01,1.07513e-01,-9.69631e-01,-7.33789e-01,1.04954e-01,-1.03454e-01,1.38223e-01,-8.34727e-02,-1.90951e-01,-2.51602e-01,-1.57467e-01,-1.92999e+00,6.46284e-01,8.18787e-01,-3.08441e-02,8.17443e-02,-1.27853e-01,6.00343e-01,8.04330e-01,8.23032e-02,2.29583e-02,
-3.09567e-01,-8.23352e-01,3.58253e-01,3.76177e-03,5.09758e-01,4.08575e-02,-2.62682e-01,-3.44791e-01,3.41803e-01,-5.83569e-01,2.06089e-01,3.22685e-01,1.05330e+00,3.29451e-01,6.13955e-02,2.31554e-01,-3.01619e-01,1.50483e-01,2.30977e-01,1.00401e-01,-1.17941e-01,1.05947e+00,5.33912e-01,6.03213e-01,1.17368e-01,
-9.88242e-02,7.95334e-01,-9.94321e-01,2.59106e-01,-2.65871e-01,-7.45327e-02,-6.33848e-03,1.97054e-01,5.10149e-01,4.67380e-01,-2.79161e-02,6.13376e-01,-9.20545e-01,1.98784e-01,1.54214e-01,-4.14749e-01,-5.25871e-01,4.04938e-02,-6.46085e-02,-1.40992e-01,9.04834e-02,2.23439e-01,1.32081e-01,-3.57119e-02,-3.64250e-01,
3.61983e-01,3.22485e-01,7.02732e-02,9.56862e-01,1.92685e-01,2.06339e-01,-3.77505e-01,5.98438e-01,-7.56790e-01,3.05081e-02,-1.74408e-01,2.38869e-01,5.24866e-01,2.20507e-01,-2.91214e-01,-1.63110e+00,-2.72842e-01,-2.93485e-01,-1.81808e-01,1.66296e-01,-3.35289e-01,-8.59042e-02,4.20727e-01,-4.92624e-01,7.39156e-02,
3.24848e-01,-1.02795e+00,-1.15203e+00,-2.24421e-01,4.19631e-01,2.58927e-01,-8.26234e-01,5.42527e-01,3.96392e-01,-2.54166e+01,2.12315e-01,4.61677e-01,9.75894e-01,-9.10443e-02,2.70655e-01,-8.45782e-01,-1.07504e-01,-4.33091e-01,3.15509e-01,-1.36132e-01,1.27657e-01,-1.02183e-03,7.22436e-01,-2.58401e-01,4.47502e-01,
-3.44553e-02,2.75181e-02,-7.15921e-01,5.94708e-01,-1.83505e-01,-2.51921e-01,-2.63758e-01,-1.04825e-01,-5.62727e-03,9.90116e-02,2.48690e-01,-1.16089e-01,6.62252e-01,2.08219e-01,2.86291e-01,-1.32782e-01,-6.81863e-01,-6.09147e-02,-2.44713e-01,2.78574e-01,-8.49178e-03,-6.56311e-01,1.09988e+00,5.29399e-01,2.52216e-01,
-3.83318e-01,7.65972e-01,3.74867e-01,1.37771e+00,4.41029e-01,1.27654e-01,1.26517e-01,7.76648e-01,-1.80432e-01,6.88405e-01,3.00904e-01,-2.81248e-01,-2.39873e-01,2.46649e-01,-8.35313e-02,-2.31461e-01,4.90447e-01,5.71341e-01,-1.68376e-01,1.95454e-01,-6.63651e-02,-1.18850e-01,-1.01882e+00,3.64752e-01,2.46849e-01,
1.21375e-01,2.94812e-02,-3.11567e-01,3.06294e-01,-1.97739e-01,-6.28762e-02,3.43854e-02,-2.28316e-01,-3.28516e-01,6.64537e-02,2.69467e-01,-2.42201e-01,-4.73397e-02,-2.49443e-01,3.35335e-02,2.98170e-01,-2.88499e-01,-2.62210e-01,3.12910e-01,-1.08199e-01,3.26940e-01,-1.72565e-01,-1.41925e-01,-3.00447e-01,1.73835e-01,
-2.13796e+00,-6.75248e-01,1.05488e+00,-2.16689e+00,6.99641e-01,4.28875e-02,-2.41018e+00,1.45776e+00,1.69715e+00,1.79577e+00,1.11268e-01,-4.98378e+00,2.33677e-01,-1.61945e-01,1.70894e-01,-4.48917e-01,-2.57382e-01,-7.16906e-02,3.40016e-01,1.01244e-01,3.33072e-01,-3.10924e-01,-4.04178e-02,-7.26152e-01,5.47262e-01,
-1.12743e+00,1.59175e-01,2.54995e-01,-5.39624e-01,3.29842e-01,-2.02219e-02,7.45771e-01,-3.46865e-01,4.12949e-01,4.62972e-01,2.81954e-01,7.31696e-01,-7.00895e-01,2.79628e-01,9.61219e-02,4.83528e-01,1.44620e-01,3.30293e-01,-2.02404e-01,-3.09368e-01,-2.53781e-01,2.66464e-02,-1.64990e-01,-1.74681e-02,-6.22901e-01,
-3.33917e-01,-5.84178e-02,1.27788e-01,1.37612e-01,-3.05803e-01,4.67998e-02,-1.08504e-01,-1.73621e-01,-3.11569e-02,-1.59048e-01,8.73715e-04,3.21170e-01,2.45227e-01,-3.22561e-01,-2.81263e-01,2.30039e-01,1.32775e-02,2.77609e-01,1.31066e-01,-2.47432e-01,-3.12158e-03,-3.44174e-01,1.33992e-01,4.08534e-02,-3.19284e-01,
-4.26293e-01,3.63435e-02,2.67105e-01,2.19467e-02,6.49950e-01,2.09629e-01,-4.83428e-02,3.34263e-01,7.17242e-01,5.21465e-01,1.78595e-01,-6.89801e-01,-3.63360e-01,7.53257e-02,-2.67077e-01,-3.22606e-01,6.45282e-01,6.35798e-01,4.34590e-01,1.82089e-01,-5.44695e-02,-5.38769e-02,-1.46311e-01,6.05685e-01,5.45914e-01,
-1.24353e+00,
-6.97411e-01,
-1.79897e-01,
-1.55373e-01,
-5.34865e-01,
6.57398e-02,
7.90977e-01,
-2.62143e-01,
-2.37964e-01,
-8.48505e-02,
1.77930e-01,
1.61864e-02,
1.95373e-01,
-8.50044e-01,
-7.72385e-01,
2.89021e-01,
-1.66015e-01,
-3.74503e-01,
3.27598e-01,
-6.30348e-01,
-3.67736e-01,
-5.72279e-01,
3.25634e-01,
-3.50327e-01,
-4.93685e-01,
-8.50145e-01,4.39910e-01,4.73146e-01,-3.05198e-01,3.52957e-01,3.70734e-01,1.04750e+00,-1.14196e-01,3.09073e-01,2.97658e-01,-8.50721e-02,6.41266e-01,-6.63518e-01,3.32698e-01,7.62230e-02,-1.47222e-01,-1.18192e-01,4.94480e-01,8.87112e-02,-4.12836e-01,-2.95701e-01,1.45523e-01,-2.77420e-02,-2.02573e-01,-1.54628e-01,
-7.27239e-01,2.57956e-02,-4.43174e-01,-7.35110e-01,-4.42692e-02,4.24984e-01,-3.94883e-01,-1.04755e+00,6.22834e-01,-6.12882e-01,3.27913e-01,-2.41314e-01,-5.53015e-01,6.79897e-01,2.78330e-01,3.09894e-01,8.15683e-03,2.24906e-01,1.28431e-01,-5.61158e-01,2.74371e-01,6.41979e-01,-2.96427e-01,-3.45136e-01,1.63405e-01,
-2.91018e-01,8.90152e-02,1.12813e-01,-2.68132e-01,4.88189e-01,-1.63105e-01,-1.53904e-01,-4.38371e-01,1.95475e-01,-5.66601e-01,5.39759e-01,2.58298e-01,-1.50893e-01,6.35155e-01,-3.10065e-01,2.16521e-01,4.18762e-01,-5.77222e-01,-2.68955e-02,-1.16113e-01,-1.64198e-01,1.15361e-01,-9.42216e-02,-1.97449e-01,1.63492e-02,
-3.60946e-02,-3.33227e-01,4.81205e-01,1.07257e-02,-5.65082e-01,2.31208e-02,-5.04836e-02,3.25476e-02,-6.22589e-02,-4.33171e+00,-5.01589e-01,-1.68035e-01,5.94730e-04,6.67911e-02,1.09514e-01,-9.52488e-02,-1.07791e-01,-4.38738e+00,3.32202e-01,3.43871e-01,2.43915e-01,2.84550e-01,4.12442e-01,-1.98307e-02,-1.47753e+00,
7.41905e-02,1.65500e-01,-6.10339e-02,1.00427e-01,2.62646e-01,-1.69300e-01,-2.99702e-03,1.24422e-01,-2.14453e-01,2.66115e-01,-1.84873e-01,1.86803e-01,-1.81530e-01,1.17374e-02,6.86072e-02,-2.00709e-01,1.70579e-01,-2.50042e-01,-1.08823e-01,1.05854e-02,-1.05370e-01,-2.90054e-01,-2.58813e-01,-8.01772e-03,-1.09911e-01,
7.65227e-01,-1.03820e-01,-2.48610e-01,4.42282e-01,-2.67822e-01,5.21943e-01,1.74737e-01,7.51417e-01,1.98225e-01,-3.04498e-01,1.33163e-01,2.86438e-01,-1.04292e-01,2.68707e-02,8.29949e-01,-5.40325e-01,8.45388e-03,-4.32563e-01,5.47650e-01,-4.08734e-01,-2.44753e-01,-1.25577e-01,-1.80341e-01,2.43127e-01,-3.02394e-01,
-2.77239e-02,-1.21663e-02,-2.56775e-01,2.66452e-01,-1.98502e-01,-1.54928e-01,-1.06233e-01,2.65453e-01,-1.86523e-01,3.94458e-01,6.90091e-01,-3.58765e-01,-2.29273e-01,-3.19681e-02,3.18142e-02,2.38702e-01,-5.22625e-02,-2.05526e-01,-5.42333e-02,-6.31558e-01,-2.73852e-01,-2.82193e-01,7.93231e-02,-2.32778e-01,-1.22396e-01,
-1.04729e+00,6.69161e-01,-5.20536e-01,1.08616e+00,-4.50077e-01,-1.77567e-01,-1.61766e-02,7.56447e-01,-5.88394e-02,4.30528e-01,1.11211e-01,-1.51866e-01,4.68902e-01,-3.35235e-01,-5.42493e-01,-2.94080e-01,-1.23232e-01,4.63277e-01,5.26606e-01,1.31539e-02,-1.11052e-01,-2.15338e-01,3.21994e-01,1.54516e-01,-1.69651e-01,
-8.25765e-01,-1.08007e-02,1.61231e-02,-3.52736e-01,2.04965e-01,4.43786e-01,2.20950e-01,-7.66035e-01,4.94589e-01,-5.66822e-01,-1.45301e-01,-2.06817e-01,-1.92179e-01,5.76280e-01,4.68594e-01,4.11941e-01,1.82464e-01,5.12194e-01,1.56179e-01,-1.61156e-01,-2.45451e-01,-4.75003e-01,1.37628e-01,2.75756e-02,-6.21600e-01,
1.31704e+00,1.00123e+00,-4.00051e-01,5.00839e-01,-2.17986e-01,3.95761e-02,-2.82623e-01,5.56604e-02,5.36292e-01,3.56997e+00,1.09074e-01,-2.66726e+00,4.59344e-01,-1.70839e+00,-1.47230e+00,-1.04713e+00,1.15587e-01,3.05791e-02,8.50532e-02,-4.56915e+00,-4.51332e-03,2.01699e-01,2.29783e-01,1.94194e-01,5.14375e-02,
-1.55088e-01,-1.86838e-01,-2.31062e-01,-7.66035e-02,2.53995e-01,-9.04113e-02,-6.70037e-01,2.64437e-01,3.99281e-01,5.82549e-01,1.29888e-01,4.10690e-01,-2.87139e-01,2.49529e-01,-1.89286e-01,-3.76025e-01,1.28192e-01,4.71892e-01,-6.74340e-02,3.63289e-01,-1.80545e-02,8.70690e-02,-3.41238e-01,-2.07914e-01,-3.20101e-01,
5.87615e-02,2.91502e-01,2.76197e-01,2.89998e-03,-2.21795e-01,8.81399e-02,-2.44949e-01,-4.80832e-01,-4.13306e-01,5.28114e-01,2.00839e-01,3.83544e-01,-5.45585e-01,2.24006e-02,4.32581e-01,2.32828e-01,3.17548e-02,2.45950e-01,6.00465e-01,3.16201e-01,2.25524e-01,6.89292e-02,1.87035e-01,-2.97412e-01,2.98563e-02,
1.02895e-02,-7.29370e-02,-4.59751e-01,2.88074e-01,4.19104e-01,-7.93343e-02,-2.59335e-01,7.55869e-01,-2.29719e-01,1.27716e+00,-5.46003e-01,3.23291e-01,9.10787e-02,-1.36947e+00,1.97868e-01,-6.20622e-02,-4.46951e-01,1.97139e-01,-2.28145e-01,7.68067e-01,-1.35700e-02,4.66814e-01,-3.40745e-02,-5.73413e-02,-4.05408e-01,
-3.16261e-01,3.23526e-01,7.49300e-02,1.94873e-02,3.26749e-02,-1.29770e-01,-3.69200e-02,7.53669e-02,4.14063e-02,-5.90592e-01,1.45125e-01,7.63646e-01,2.57790e-01,3.00941e-01,-5.04215e-02,1.30515e-01,-2.43995e-01,1.64704e-01,-4.07397e-01,3.77536e-01,-3.53952e-01,-1.86348e-01,-4.27389e-01,2.89869e-01,-8.61547e-01,
-7.66096e-03,3.42995e-01,-1.88065e-01,-2.49655e-01,-2.90715e-01,-5.18059e-02,1.50942e-01,-3.26326e-01,-2.63981e-01,-2.70463e-01,-6.03392e-02,1.64724e-01,2.35317e-01,2.13474e-01,1.93936e-02,-2.63431e-01,-1.71098e-01,-1.58623e-01,-4.53119e-02,-3.39263e-01,2.98730e-01,-8.46268e-02,1.38452e-01,1.38587e-01,-2.78107e-01,
-5.55501e-02,4.76255e-02,2.78428e-01,-3.59291e-01,2.77932e-01,1.79328e-02,3.49485e-01,-3.57626e-01,-2.81226e-02,3.90022e-01,6.03332e-01,7.67036e-03,-4.06340e-01,6.62337e-01,2.36020e-01,5.64371e-03,-1.67480e-01,5.55199e-01,3.36862e-02,-5.59481e-01,-6.17434e-02,-1.90123e-01,2.83433e-01,-1.02814e-02,-1.62666e-01,
-8.84739e-02,-1.41351e-01,8.14946e-02,-3.27200e-01,2.38453e-01,-3.02582e-01,-3.84936e-01,6.27841e-02,-2.75380e-01,-1.19555e-01,2.01854e-01,-2.73817e-02,1.54862e-01,4.90939e-02,-1.19323e-01,-3.28839e-01,2.37573e-01,-1.00346e-01,-1.18017e-01,-6.22483e-02,2.47798e-01,-1.28537e-01,1.86412e-01,-2.22644e-01,-2.74776e-01,
-1.40053e-02,-1.52686e-01,2.02238e-01,-2.43679e-01,6.06018e-01,1.05663e-01,-1.44992e-01,-3.41067e-01,-5.66038e-02,-4.61625e-01,5.46999e-01,-4.67922e-01,2.99088e-02,6.60954e-01,-1.34344e-01,2.49209e-01,-3.93246e-01,1.88160e-01,3.17979e-01,4.02146e-01,2.57565e-01,-6.51459e+00,1.40351e-02,-1.45432e-01,-5.68533e-01,
-2.24791e+00,5.49388e-01,-1.23540e-01,-8.79642e-01,1.22507e-01,-8.53422e-01,9.13413e-02,-1.27228e-01,5.16042e-01,5.74416e-01,-4.31436e-01,-4.44356e-01,4.80782e-01,1.17856e+00,6.72025e-01,-1.62580e+00,1.96511e-01,3.27629e-01,7.18154e-01,-2.71387e-01,-2.27012e-01,-4.85407e-01,-5.48913e-01,1.92693e-01,9.16370e-01,
-8.96712e-01,2.59950e-01,4.59772e-02,4.56828e-01,4.24283e-01,1.74417e-01,7.67486e-01,9.38235e-02,4.91282e-01,-1.19888e-02,-2.55147e-01,-4.19191e-01,5.46352e-02,8.55261e-02,-5.59442e-02,2.58953e-01,-1.65829e-01,6.42794e-01,1.91796e-01,-2.11587e-02,-1.12011e-01,-3.36747e-01,-3.98023e-01,2.23075e-01,-7.02569e-02,
-1.01591e+00,2.33918e-02,-6.46013e-01,-1.73592e-01,4.37007e-01,9.93097e-02,1.06389e-01,2.61093e-01,-1.83808e-01,1.16895e-01,7.44167e-02,1.78981e-01,-1.26764e-01,-2.16378e-01,5.26037e-02,2.72161e-01,3.60768e-01,8.35126e-03,-4.32877e-01,9.56400e-02,-1.12088e-01,-3.82273e-01,9.23309e-03,2.91672e-01,5.21557e-01,
-2.50460e-01,-5.43410e-02,3.35014e-01,2.17192e-02,-8.08846e-02,-9.15979e-02,1.14699e-01,-5.38154e-01,-3.86432e-01,-3.00200e-01,-1.46666e-01,-2.81125e-01,1.50316e-01,-5.93707e-02,6.82743e-01,5.48186e-01,3.40401e-01,7.01023e-01,-2.94886e-01,2.62945e-01,-5.23693e-02,-1.11068e-01,1.79754e-01,3.25696e-01,2.21311e-01,
1.61864e-01,6.42746e-01,1.58918e-02,9.77485e-02,-3.24902e-01,1.48485e-01,9.00638e-02,-1.62017e-01,-2.94826e-01,1.85436e-01,3.32531e-01,4.09383e-02,-3.95075e-01,-1.55583e-01,7.00838e-01,3.15178e-01,2.02167e-01,7.57691e-01,5.07543e-02,-7.28907e-01,1.70009e-01,-5.37806e-01,3.48352e-01,4.09880e-02,5.59322e-01,
9.33422e-02,-2.01674e-01,-3.27747e-01,2.95768e-01,-2.42266e-01,-1.08992e-01,9.66323e-02,-1.71840e-01,3.35342e-03,-2.37710e-01,-2.75191e-01,-1.13549e-01,2.39737e-01,5.43398e-02,-2.11934e-01,-3.28950e-01,1.89469e-01,-2.82642e-01,-1.76001e-01,2.46890e-01,-1.00670e-02,-2.57519e-01,-2.59280e-01,-2.14951e-01,-2.14491e-01,
-3.87791e-01,-2.29182e-02,-3.30831e-01,-9.09198e-02,9.79331e-01,-2.83948e-02,4.16949e-01,-1.52617e-01,2.42992e-01,-2.79593e-01,-1.26749e-02,-4.46928e-01,-3.52355e-01,-1.32091e+00,1.01220e-01,3.67292e-01,3.51310e-01,2.69484e-02,-1.54785e-02,-3.35176e-02,-6.57082e-03,7.34224e-02,1.33082e-01,-3.30758e-03,3.24138e-01,
-5.38286e-01,
3.41300e-01,
3.20300e-01,
-1.27130e-01,
-2.33787e-01,
-2.73264e-01,
2.68101e-01,
-4.44342e-01,
-1.61237e-01,
-4.79593e-01,
6.88354e-01,
-3.55991e-02,
6.66337e-03,
1.47586e-01,
-2.80135e-01,
1.37389e-01,
-2.93094e-01,
-3.40853e-01,
-8.02285e-01,
-2.30603e-01,
9.06687e-02,
-3.93281e-01,
-2.29309e-01,
-3.06543e-01,
-5.65317e-01,
1.31375e+00,-7.66919e-01,-1.60161e+00,-1.24270e+00,2.40574e-01,-5.05391e-02,-8.76145e-01,-7.30315e-01,-2.66654e-01,3.25666e-01,-5.18762e-01,3.65838e-02,-7.77767e+00,-1.97033e+00,9.09487e-02,8.74253e-01,-3.33987e-01,-1.11298e-01,9.54221e-01,2.05885e-01,-8.90745e-01,1.07674e+00,8.22095e-01,2.83665e-01,3.87399e-01,
-1.99280e-01,3.47330e-01,-1.69248e-01,6.33398e-01,1.63481e-01,-1.59545e-01,1.63585e-02,4.58612e-01,-1.03845e-01,-3.16368e-01,3.05318e-01,-2.10300e-01,-1.45896e-01,7.61672e-01,-1.44494e-01,3.79828e-01,1.58308e-01,1.59980e-01,7.52717e-02,1.04091e-01,2.11447e-01,-5.94077e-01,-4.07307e-01,2.80791e-01,-9.50081e-02,
5.00988e-02,-6.91161e-01,5.63402e-01,1.48563e-01,-2.82789e-01,-4.22300e-01,1.80981e-01,-4.16960e-01,1.07333e-01,-3.80964e-03,3.00484e-01,-7.61012e-02,2.52208e-01,4.76560e-02,-1.87559e-01,-1.18198e-01,-4.73275e-02,1.94207e-01,3.81150e-01,2.25992e-01,-5.14187e-01,-4.20588e-02,2.87738e-01,-3.12028e-01,3.25401e-02,
-2.03674e-01,-1.22569e-01,-9.45524e-03,3.83388e-02,-2.24961e-01,7.31783e-02,-4.58555e-02,-4.22894e-01,-3.11077e-01,-2.94914e-01,4.83011e-01,1.69989e-01,-4.52561e-02,1.60896e-01,2.73980e-01,2.22436e-01,-5.51809e-02,-2.51407e-01,-1.00908e+00,4.38652e-01,-1.55456e-01,5.77318e-02,-9.39192e-02,1.86365e-01,-6.36120e-03,
1.67308e-01,-7.21885e-02,-1.82636e-02,-1.76190e+00,-1.48363e-01,-8.91612e-03,-5.99475e-02,7.82498e-03,-3.18694e-01,-6.04913e+00,-8.51191e-01,1.11972e+00,-6.06960e-01,-8.13518e-01,-1.98205e-01,-2.16435e-02,2.08352e-01,8.88330e-03,-1.59157e+00,3.21595e-01,4.05804e-01,-3.56270e-01,-1.73022e+00,-1.16402e-01,1.51303e-01,
-2.24091e-01,3.33331e-01,-1.74803e-01,9.09620e-01,-1.28273e-01,3.61214e-02,1.72055e-01,-2.45664e-01,-7.68593e-01,1.04887e-01,2.35991e-01,2.39263e-01,-8.62436e-02,4.66662e-01,2.27365e-01,9.80285e-02,2.84267e-01,-1.16256e+00,-1.13617e+00,5.47067e-01,-1.01657e-01,-2.06654e-01,-2.24511e-01,-5.68332e-02,-9.90380e-02,
1.76126e-01,-3.65648e-01,1.37106e-01,-1.27578e-01,-3.43666e-01,-1.15260e-01,-3.99385e-02,-2.57969e-01,-7.98167e-01,-6.58687e-02,5.83994e-01,-1.73252e+00,-7.48297e-01,3.30824e-01,-2.25448e-02,-3.10751e-01,-4.15836e-02,6.97760e-01,8.59170e-01,-1.41056e-01,-2.53245e-01,-5.51426e-01,6.72124e-01,1.28560e-01,5.03532e-01,
-4.09262e-02,-7.97573e-02,3.71617e-01,2.33893e-02,-4.87256e-02,-7.84242e-02,2.15203e-01,-2.42194e-01,-3.72620e-01,5.91481e-01,1.85694e-01,1.46951e-01,6.24898e-02,-6.53560e-02,-5.02024e-02,2.27473e-02,2.40817e-01,-2.85348e-02,6.16647e-01,2.77027e-01,-4.56221e-01,2.29228e-01,-7.50111e-02,1.45128e-01,2.01059e-01,
-2.18143e-01,2.96819e-01,-2.64192e-01,-3.49986e-01,-2.10104e-01,1.87522e-01,-5.41001e-01,4.59900e-01,1.30459e-01,-1.58749e-01,-3.51429e-01,-1.42552e-01,1.42326e-01,-2.06312e-01,-2.05739e-01,1.03376e-01,-1.31434e-01,-1.31886e-01,-3.02007e-01,-2.69610e-01,4.48144e-01,-7.79002e-02,-4.93272e-02,-3.02166e-01,-1.46517e-01,
-3.73333e-01,-1.82565e-01,2.37034e-01,1.91248e-01,-9.42669e-02,-1.06174e-03,-1.27541e-01,1.93880e-02,-1.00982e-02,6.37442e-01,-1.85472e-01,-3.10784e-02,2.16856e-01,1.18298e-01,3.39500e-01,4.98983e-01,-1.21498e-01,-2.36688e-01,4.76210e-01,1.48226e-01,-1.13597e-01,-7.99148e-02,1.29340e-01,7.19144e-02,-4.30784e-01,
4.72293e-01,5.43041e-02,-3.40989e-03,-9.73220e-01,2.26676e-01,-2.36420e-01,1.94852e-01,-1.76539e-01,-2.77002e-01,-1.04300e+00,4.01892e-01,-1.41824e-01,-1.64114e-01,1.59675e-01,-1.78737e-01,-4.04617e-01,1.70471e-01,3.60228e-01,-2.18660e-01,2.29764e-01,-1.16619e-01,5.38842e-02,-8.33135e-02,3.22490e-01,-5.66084e-01,
8.06877e-02,2.43587e-01,-3.13894e-01,-1.26277e-03,1.97890e-01,-1.46122e-01,1.18724e-01,-5.89476e-02,-4.48037e-02,-5.41801e+00,9.31997e-03,1.46795e-01,-1.89008e-01,1.51620e-01,-2.42979e-01,-1.08362e-01,3.14701e-01,5.61381e-01,1.04876e-01,-5.99193e-03,1.28950e-01,2.21777e-03,-1.64033e-01,2.31080e-01,4.12555e-01,
-7.72755e-01,-3.56305e-01,3.40494e-01,4.56541e-01,-3.19420e-01,-6.72611e-02,-5.08028e-01,2.11214e-01,3.80406e-01,5.18918e-01,-4.70293e-01,-6.23612e-01,2.46471e-01,1.13246e-01,-1.51930e-01,3.64829e-01,-2.57981e-01,-1.20182e-01,-1.87385e-01,-8.61051e-02,-8.94346e-02,-1.99810e-01,4.56678e-01,-2.23755e-01,-1.86102e-01,
6.16571e-02,-7.79876e-02,2.00768e-02,-1.39283e-01,2.87611e-01,4.38621e-03,-5.64107e-02,3.63440e-01,3.59139e-01,3.56718e-01,-5.33285e-01,-7.25485e-02,1.36905e-01,-8.70495e-02,1.75208e-01,-1.33251e-01,1.03605e-01,2.11852e-01,5.49547e-02,-7.18999e-02,1.56598e-01,-7.48245e-02,-2.63382e-02,2.96172e-01,6.44845e-02,
-8.85761e-02,3.99102e-01,-1.48121e-01,2.73137e-01,1.80474e-01,1.76055e-01,-9.82627e-02,-1.14610e-01,-4.69928e-01,7.63310e-01,3.31805e-01,3.77309e-02,-2.26668e-01,-5.60939e-02,2.05842e-01,4.25257e-01,1.60015e-01,-6.29963e-01,-2.68207e-01,1.70863e-01,-5.10084e-02,9.48981e-02,1.93202e-03,2.49741e-01,-4.73309e-01,
2.38460e-01,-9.59426e-01,1.46534e-01,2.15121e-01,-1.67124e-01,-2.09747e-01,-2.89210e-01,2.21647e-01,-5.15182e-02,-8.96989e-01,-5.95721e-01,-3.06150e-01,4.60318e-01,-2.20069e-01,2.81946e-01,-1.17417e-01,7.69781e-02,1.13876e+00,1.01486e+00,-8.78029e-01,-3.47329e-01,-4.37097e-01,1.21338e+00,-2.63369e-01,-6.64278e-01,
1.02298e+00,7.50757e-01,-1.18794e+00,-3.46206e-01,2.64910e-01,-1.71451e-01,-2.82593e+00,-1.55824e-01,-5.76635e-01,9.13252e-02,9.59177e-01,1.94694e-01,-8.79825e-01,-1.93652e-01,2.19261e-01,2.35471e-02,9.86291e-02,7.49085e-01,-8.43534e-01,-3.66435e-02,-1.07989e+00,6.20278e-01,-2.10604e-02,-6.86301e-02,3.56669e-01,
-1.96091e-01,8.14358e-01,6.38082e-01,2.14429e-01,-2.60193e-01,3.15789e-02,-3.11848e-01,6.41538e-01,-1.06599e+00,4.96558e-01,4.31118e-02,-2.73991e-01,1.08748e-01,1.71704e-01,3.13390e-01,6.28741e-01,-1.54677e-01,-8.70273e-01,2.33483e-01,-3.62729e-01,1.67668e-01,4.08953e-01,-2.96174e-02,3.35742e-01,1.82089e-01,
-3.22068e-01,2.63333e-01,3.28820e-01,-1.15155e+00,-4.00580e-02,-3.16915e-01,-2.35158e-02,-3.31715e-01,-1.02543e+00,7.25713e-02,2.79201e-01,6.31376e-02,2.34588e-01,4.84188e-01,1.55373e-01,3.16099e-01,2.45832e-01,-2.44947e-01,4.42399e-01,4.47940e-01,-3.02761e-01,-4.91963e-01,3.52016e-01,1.94818e-01,7.45100e-02,
-4.40646e-02,5.93447e-01,-2.78962e-01,2.32581e-01,7.54874e-02,4.18712e-02,-5.44002e-02,8.21588e-02,-8.25407e-01,1.00704e+00,3.08165e-01,1.21613e-01,-4.95285e-01,3.00630e-01,-1.47757e-01,3.17488e-01,-1.27287e-01,1.67972e-01,-1.63976e-03,3.37343e-01,5.74504e-02,2.16079e-01,-2.47983e-01,-3.57349e-02,2.56815e-01,
8.55883e-01,-2.21406e-01,-4.10540e-01,1.18823e-01,7.51096e-02,-8.35261e-01,1.29559e-01,-6.01095e-01,4.41548e-03,-3.82026e-02,3.75361e-01,3.78979e-02,2.14459e-02,-8.61086e-01,-3.01287e-02,-2.70439e-01,1.78919e-01,7.54724e-01,4.19984e-01,-6.40259e-01,-9.94714e-01,8.77578e-02,3.77946e-01,2.18194e-01,5.48689e-01,
-1.03843e-01,-2.41978e-01,2.38072e-01,-1.28549e-01,2.22621e-01,1.37122e-01,-2.15512e-01,-2.51376e-02,1.92785e-01,-5.45112e+00,-1.73947e-01,-2.84187e-02,2.00788e-01,-1.42124e-01,-3.33568e-01,-5.11532e-03,-3.15957e-01,-3.36007e-01,-1.93319e-01,2.37719e-02,-5.72741e-02,-6.66871e-03,1.51062e-02,6.18323e-02,-3.85071e-01,
-8.23042e+00,-1.93883e-01,2.55541e-01,6.32391e-01,-3.03603e-01,-1.75869e-02,-5.45186e-01,-7.54994e-01,-2.57219e-01,-3.33874e-02,-1.77590e-01,-7.36757e-01,1.99080e-01,2.22244e-01,-2.88477e-01,4.93040e-01,1.88129e-01,-8.92740e-02,1.22452e-01,2.59263e-01,2.05848e-03,9.86473e-02,-6.74495e-01,-2.08374e-01,-9.79840e-01,
1.44339e-02,-1.41040e-01,1.46914e-01,1.83590e-01,2.63539e-01,-7.58829e-02,4.05561e-01,-9.36142e-02,-1.84876e-01,-4.11724e-01,-1.90941e-02,1.84047e-01,-1.03912e-01,2.41897e-01,2.03029e-01,-2.53637e-02,2.70213e-02,7.73505e-02,1.32040e-01,3.75405e-01,-1.91188e-01,-8.82973e-02,-1.06901e-01,1.81128e-01,3.35194e-01,
-1.77995e-01,3.07764e-01,-2.64494e-01,-2.99035e-01,-2.31020e-02,1.19327e-01,-2.25818e-02,1.62004e-01,-2.16404e-01,-2.75722e-01,-2.61079e-01,2.30236e-01,-1.06143e-01,7.40307e-02,3.29514e-02,-1.13992e-03,1.12593e-01,1.16185e-01,7.70904e-01,1.80041e-01,2.33194e-01,-1.33674e-01,-2.88082e-01,1.21135e-01,6.83565e-02,
-8.86481e-01,
-4.72092e-01,
-3.45278e-01,
8.25981e-02,
-6.23188e-02,
2.36084e-01,
-2.33941e-01,
-2.95484e-02,
2.01223e-01,
-4.37169e-03,
2.58207e-02,
1.14739e-01,
2.64476e-02,
9.86132e-03,
-1.37097e-01,
-2.61430e-01,
9.34251e-03,
-5.65643e-01,
-3.06732e-01,
-4.09988e-02,
1.45784e-01,
1.98020e-01,
2.91695e-03,
1.62862e-01,
1.96158e-01,
-3.09211e-01,-3.52075e-02,-1.94459e-01,-1.32750e-02,6.50877e-02,1.76379e-03,-1.89146e-01,-6.58733e-02,-7.34481e-02,-5.13329e-03,-2.82808e-03,-3.55462e-02,2.06704e-02,1.51912e-02,3.08739e-03,9.66086e-02,1.64172e-02,4.08425e-02,-6.42858e-02,-7.83513e-04,-3.31273e-01,-1.41995e-02,2.05193e-02,-9.98408e-02,8.68451e-02,
-3.84056e-01,3.27529e-02,-1.12191e-01,-7.62810e-02,-5.29811e-03,8.62177e-02,-5.66871e-02,-3.46572e-02,-5.82735e-02,-6.66482e-02,-2.81010e-02,-8.25988e-02,-1.20311e-03,4.60225e-02,3.47677e-02,-1.08103e-01,2.61320e-02,-9.47025e-03,-7.12404e-02,-2.32025e-02,-1.19083e-01,4.13924e-02,-1.77016e-01,-8.61647e-02,-2.99236e-02,
-4.25111e-01,1.79679e-02,-1.76986e-01,2.86272e-02,-2.39717e-02,2.02128e-02,-2.93080e-02,-6.65757e-02,-8.57907e-02,4.76430e-02,1.13332e-02,1.63032e-01,-8.55209e-02,-6.36017e-02,-5.89881e-02,-7.95799e-02,-6.76459e-02,1.56259e-02,-8.76474e-02,-3.17528e-02,3.22422e-02,9.45240e-02,-1.97997e-02,-1.47664e-01,-4.51321e-02,
-3.64313e-01,6.60066e-03,-1.37794e-01,-9.42668e-02,-3.94596e-02,9.98506e-02,-6.26955e-02,-3.69094e-02,-4.13959e-02,-6.12614e-02,-9.67501e-03,-3.39440e-03,3.20845e-02,-1.26450e-02,1.98475e-02,-1.02863e-01,4.12346e-02,-5.89308e-03,-4.46665e-02,-2.36642e-02,-1.43085e-01,1.26613e-02,-6.88934e-02,-8.16251e-02,-2.76919e-02,
-3.60455e-01,2.92699e-02,-1.49646e-01,-5.99709e-02,-2.04071e-02,4.40157e-02,-7.63353e-02,-4.45356e-02,-6.81987e-02,-9.67852e-03,1.59847e-02,7.72335e-02,5.05578e-03,-4.33277e-02,7.89806e-02,-1.01577e-01,1.20527e-02,1.18789e-03,-7.08235e-02,-8.24255e-02,-1.09475e-01,1.06035e-01,-6.40883e-03,-6.82318e-02,1.14977e-02,
6.05963e-02,4.72154e-02,-1.57738e-01,-1.19526e-01,8.39337e-03,1.46057e-01,-1.59282e-03,-5.61861e-02,-3.02163e-02,3.44096e-02,-5.51690e-02,-1.01772e-02,-7.45602e-02,-6.35510e-03,5.45618e-03,-1.68515e-01,1.06562e-01,-6.69031e-02,4.41600e-02,-4.05017e-02,-8.69483e-02,-5.81081e-03,8.30121e-03,-8.48281e-02,-6.90584e-02,
-4.17478e-01,6.25316e-02,-1.02569e-01,-8.41338e-02,-6.32833e-02,1.48251e-03,-6.02739e-02,-3.29856e-02,-5.83831e-03,1.61426e-02,1.05235e-02,9.17754e-02,-8.18245e-04,-9.38968e-02,2.22635e-01,-2.64541e-01,7.58970e-03,-1.50612e-02,-1.65609e-01,-1.67165e-01,-4.27257e-02,1.49555e-01,-1.71493e-02,5.01443e-02,-7.98574e-03,
-3.58026e-01,1.77413e-02,-2.01908e-01,-1.06139e-01,-1.59930e-01,7.71821e-02,-8.28056e-02,-8.23601e-03,-2.09478e-02,-1.64154e-01,1.08145e-01,4.15713e-03,1.18497e-01,-5.40749e-02,5.41558e-02,-6.85848e-02,2.97050e-02,-4.62036e-02,4.33427e-03,-8.80250e-03,-9.21961e-02,6.27295e-03,6.27050e-02,-6.50286e-02,4.43141e-02,
-3.50906e-01,2.21674e-02,-1.44224e-01,-6.13606e-02,-2.25591e-02,3.93210e-02,-8.14841e-02,-5.31519e-02,-6.99011e-02,-1.28453e-02,8.01626e-03,6.10263e-02,1.04840e-02,-4.08142e-02,7.27532e-02,-1.04408e-01,2.04384e-02,3.40059e-03,-7.92230e-02,-7.69512e-02,-1.03752e-01,1.01443e-01,-7.89448e-03,-5.64744e-02,2.13745e-02,
1.77410e-01,
1.70693e-01,
1.53798e-01,
-1.67557e-01,
-1.93528e-01,
1.71242e-01,
1.11076e-01,
1.46404e-01,
-1.92944e-01,
