// Neural Network File Format by Kyle Julian, Stanford 2016
6,4,9,25,
4,25,25,25,25,25,9,
0,
-8000.000000,-100.000000,-100.000000,0.000000
8000.000000,100.000000,100.000000,40.000000
0.000000,0.000000,0.000000,20.000000,-4.683445
16000.000000,200.000000,200.000000,40.000000,30.305804
-8.16198e-03,-1.41563e+00,-3.22639e-02,-1.66666e-03,
1.98189e+00,-4.02551e-01,6.98098e-01,1.68755e-01,
7.60397e-01,1.08186e+00,1.64147e-01,-6.01785e-02,
9.43405e-01,5.60341e-02,-7.92032e-02,-5.63280e-01,
1.45441e-01,3.73252e-01,-4.91342e-01,-2.53213e-02,
2.71619e-01,-5.78723e-01,3.73631e-01,1.42308e-01,
-3.32479e+00,2.11637e-01,-2.49856e-01,1.23781e-01,
-5.53324e-02,-9.32925e-01,3.49274e-01,1.51101e-03,
-2.07143e+00,2.20245e-01,-5.91681e-01,-1.24052e-01,
2.53415e+00,3.58499e-02,-1.53130e-01,-9.21211e-01,
1.43204e-01,1.90901e-01,-2.81045e-01,4.73074e-01,
-1.19565e+00,-9.82025e-02,2.49517e-01,-7.04540e-01,
-2.54049e-01,7.26492e-01,-3.40204e-01,2.19568e-01,
-1.02889e-01,1.09957e+00,5.50142e-02,-3.51233e-02,
2.58877e-01,4.64088e-01,-1.96584e-01,3.00231e-01,
2.32477e+00,-1.66924e-01,5.94098e-01,-3.19126e-01,
-2.51014e+00,-1.81107e-01,-4.96413e-01,-2.26671e-01,
5.06198e-01,1.22574e+00,-6.18390e-02,-9.60891e-02,
3.52334e+00,2.21942e-01,-1.14895e-01,1.33381e-03,
-4.79138e+00,1.39207e-02,2.17611e-02,8.08915e-03,
-2.15285e+00,-8.52061e-03,6.84261e-02,4.77559e-01,
4.12880e+00,-3.05129e-01,-6.46866e-02,-9.50902e-02,
-4.04468e+00,-3.28637e-02,1.81148e-02,-2.60799e-01,
2.28285e+00,-1.29748e+00,3.35382e-01,-1.54452e-01,
5.59379e-01,-2.20458e-01,4.63455e-02,4.27451e-01,
6.35918e-01,
1.73096e-01,
4.93874e-01,
-1.75601e-02,
1.90405e-01,
2.59418e-01,
2.32777e-01,
-2.23205e-02,
4.27737e-02,
-3.85093e-01,
1.61945e-01,
-8.89353e-02,
2.44567e-01,
1.91110e-02,
-5.29249e-02,
9.53852e-02,
2.27593e-01,
-2.66045e-01,
4.92789e-02,
2.20975e-01,
1.23444e-01,
1.29113e-01,
-6.49948e-02,
-2.73740e-01,
1.92440e-01,
-7.76327e-01,2.21817e-01,-4.99357e-01,5.64652e-01,1.46444e-01,3.16952e-01,-5.15404e-01,-3.11140e-01,1.52642e-01,-5.79795e-02,-5.36013e-02,-4.53456e-02,-5.51576e-01,-8.91657e-01,2.63871e-02,6.29065e-01,-2.12392e-01,8.97388e-01,-2.46046e-01,2.46064e-01,4.56427e-01,-1.12214e-02,-2.30285e-01,-2.26264e-01,-5.59872e-02,
-8.44326e-01,-8.72945e-01,-8.14279e-02,2.27906e-01,-9.52728e-01,7.88692e-01,2.05209e-01,1.04633e+00,-3.59595e-01,1.21271e-01,5.55039e-01,-1.98779e-01,-1.51103e-01,-4.82229e-02,-1.61366e-01,6.32581e-01,-1.32486e-02,-6.51345e-01,-5.18667e-01,3.81180e-01,-2.00739e-01,8.23425e-01,5.08794e-01,6.38936e-01,-2.17323e-01,
6.77039e-01,-2.46426e-01,4.17005e-01,-7.16530e-01,7.41130e-01,-1.69800e-01,-8.53768e-01,6.44215e-01,-9.72153e-01,-2.19552e-01,9.18864e-01,-3.00460e-01,4.36379e-01,7.32926e-01,2.11268e-02,5.08293e-02,2.22675e-01,-2.42214e-01,-1.16711e+00,-2.74774e-01,1.63437e-01,3.44179e-02,7.21496e-01,-7.99719e-01,-6.50796e-01,
9.13903e-01,-4.08908e-01,1.25665e+00,2.40565e-01,1.91744e-02,3.37771e-01,-6.64175e-01,1.03528e-01,-2.84687e-02,-2.63421e-01,-2.31217e-01,-6.74303e-02,3.26328e-01,2.13591e-01,2.80131e-01,7.58730e-01,1.00344e+00,-1.33299e-01,-2.76359e-01,-3.64458e-01,5.14420e-01,-1.25622e-01,9.37540e-02,1.08626e+00,2.42459e-01,
1.03034e-01,7.50982e-01,1.46263e-01,-5.15199e-03,7.17047e-01,1.71142e-01,6.86855e-02,-9.78417e-01,-4.83707e-01,1.00423e+00,5.53970e-01,2.07338e-01,1.62847e-01,-1.04901e-02,-4.96461e-01,7.45552e-02,-1.00807e-01,1.46031e-01,-1.52410e+00,-2.72246e-01,6.67181e-01,1.39034e-01,1.74745e-01,5.07683e-01,5.12396e-01,
8.11048e-01,-4.73055e-01,7.47614e-01,4.69544e-01,-6.00219e-02,1.94460e-01,-3.07079e-01,1.26191e+00,2.97939e-01,-5.98185e-02,-2.04880e-02,2.41492e-03,2.67856e-01,5.09641e-01,-4.97761e-02,-3.82767e-01,1.46178e-01,1.29685e-02,-3.44704e+00,6.12574e-01,-6.92033e-02,-2.96189e+00,-5.92382e-01,1.25697e-01,2.80449e-02,
5.02477e-01,6.97735e-01,8.82936e-01,-3.06259e-01,-7.13842e-01,-2.41007e-01,-8.55342e-01,-3.99170e-01,-6.16035e-01,1.23012e-01,-6.48343e-01,-4.56155e-01,1.21473e-01,-5.42836e-01,8.62668e-01,7.66272e-01,-5.89867e-03,-3.79869e-01,2.10079e-01,-2.98101e-01,6.55089e-01,2.36446e-01,-9.76561e-01,-2.66997e+00,-1.23800e+00,
7.57467e-03,5.04991e-01,-7.69569e-01,-1.68563e-01,1.12265e-01,2.82959e-01,-1.39885e+00,-4.55839e-01,-4.40043e-01,7.10332e-01,-1.46192e-01,3.21867e-01,-3.28701e-01,1.06371e+00,-4.14991e-01,3.10836e-01,1.51310e+00,1.63481e-02,1.51303e+00,-1.30754e+00,6.05309e-01,-1.36584e+00,-1.11006e+00,1.51848e-01,3.12965e-01,
-2.26649e-01,1.14036e-01,-2.37636e-01,9.99087e-02,-1.95601e-01,2.93503e-01,1.29207e-01,-3.04822e-01,1.47264e-01,9.51883e-02,1.86927e-01,-3.28216e-01,6.59744e-02,2.95023e-01,-5.46334e-02,-1.74540e-01,2.10711e-01,2.18369e-01,-3.02826e-01,-2.89459e-01,1.09513e-01,3.89676e-02,5.32171e-03,1.62371e-01,-2.35463e-01,
1.08840e+00,-1.20516e-01,5.44135e-01,2.73643e-01,-2.35266e-02,-8.27809e-01,-1.03316e-01,-4.10124e-02,6.84278e-01,-4.77181e-01,4.57216e-01,4.99948e-01,6.09512e-01,3.88693e-01,5.69802e-01,-3.47127e-01,-1.68307e-01,4.51151e-01,-5.66413e-01,6.50820e-01,-9.35227e-01,-2.22067e-01,1.29725e-01,-8.46177e-01,-1.18276e-01,
8.55191e-02,1.00295e+00,9.42260e-01,5.29691e-01,3.80845e-01,-2.59792e-01,-1.33333e+00,2.33571e-01,2.28058e-01,-6.79125e-01,-4.78239e-01,9.94387e-01,-9.21156e-01,1.91405e-01,-8.07564e-03,-6.09255e-01,1.22832e+00,-9.96382e-02,-6.59427e-01,3.63021e-01,7.76441e-01,-1.06463e-01,-4.97733e-01,3.37429e-01,-5.90292e-01,
1.99041e-01,-5.36331e-01,4.58501e-01,-7.55373e-02,-2.47038e-02,6.51866e-01,-2.11442e-01,-1.80369e-01,-2.18035e-01,2.25099e-02,3.78928e-01,-5.18447e-02,2.48110e-01,-4.40557e-01,-1.68968e-02,8.45761e-01,3.80408e-01,-3.97430e-02,-3.32712e-01,1.32133e+00,1.94964e-02,-1.97006e-01,7.39270e-01,2.41721e-01,2.73531e-01,
5.19069e-01,5.54669e-01,-4.30670e-02,-3.54124e-01,-1.61543e-03,-1.28998e-01,1.14317e-01,-7.87935e-01,3.92631e-01,5.02412e-01,-6.93281e-01,5.18481e-01,-2.68954e-01,1.29345e+00,3.12990e-01,-5.20499e-01,2.88784e-01,1.48123e+00,-2.19311e-01,6.92346e-01,-9.79429e-02,7.10662e-01,-1.26570e+00,-5.46283e-01,-2.36889e-01,
-1.03325e+00,-2.63025e-01,-7.05810e-01,1.23035e-01,5.41650e-01,-1.05801e+00,5.77898e-01,8.53162e-01,-8.07157e-01,1.68431e-03,1.46021e-01,-3.78404e-02,-2.51967e-01,-6.26146e-01,2.05788e-01,-1.77743e-01,1.35970e-01,5.69961e-01,6.85938e-02,-3.91730e-01,-1.98453e-01,-4.18243e-02,3.01797e-01,8.00702e-01,4.52230e-01,
4.74937e-01,4.46672e-01,5.48556e-01,6.30412e-01,6.34360e-01,1.24280e-01,-3.30380e-01,1.62447e-01,-1.64871e-02,4.05729e-01,6.53272e-02,4.93098e-01,-1.06070e+00,9.55227e-01,1.97527e-02,8.97095e-02,2.95176e-01,-3.98831e-01,-5.37601e-01,6.95609e-01,4.85661e-01,3.94394e-01,-1.12625e+00,-3.38564e-02,3.03545e-01,
2.56819e-01,8.62004e-01,1.10504e-01,3.22086e-01,9.97551e-02,8.20767e-02,-7.03102e-01,1.25915e-01,-5.72699e-01,-5.44498e-01,-2.98761e-01,1.44591e-01,-4.59696e-01,-8.22462e-02,-4.21588e-02,-2.85489e-01,-9.29610e-02,-3.16366e-01,4.76199e-01,1.54132e-01,-6.02243e-02,-7.69833e-02,-1.69921e+00,-7.86559e-01,-1.56057e+00,
-4.89013e-01,-3.75078e-01,-1.35177e-01,5.83183e-01,4.98437e-01,-3.09640e-01,6.22683e-01,1.48416e-01,-8.40910e-01,-5.46175e-01,6.79819e-01,5.47825e-01,2.70792e-01,-8.86696e-02,5.23979e-01,5.55462e-01,1.17177e+00,-6.11443e-01,-3.67277e-01,2.41202e-01,-9.51939e-01,1.25684e-01,-2.11193e-01,-8.80352e-02,7.61862e-02,
8.06235e-01,4.56975e-01,9.45368e-01,1.62717e-02,1.63652e-01,3.38689e-01,-9.67695e-01,-6.33196e-01,-4.72990e-01,3.20745e-01,1.32540e-01,-1.07212e-01,3.85066e-01,2.36751e-01,3.82171e-02,-2.24397e-01,1.01581e+00,3.98180e-01,-3.82209e-01,-1.60269e+00,1.40807e-01,-1.28599e-01,-1.52711e-01,6.13390e-01,4.08658e-02,
-7.05462e-01,2.92555e-01,-9.59819e-01,-9.86073e-02,1.61302e-01,-3.62175e-01,4.27069e-01,-1.88959e-01,6.65622e-01,-1.72967e-01,-1.54926e-02,2.22558e-01,-1.24402e+00,6.92308e-01,1.29282e-01,-2.09443e-01,7.49512e-02,3.62273e-01,-5.11455e-01,3.17846e-01,-2.83912e-02,8.50815e-01,-4.12309e-01,7.50867e-01,6.66511e-02,
4.29350e-01,4.76958e-01,1.71971e-01,-5.77152e-01,1.24267e+00,-1.06814e-01,7.10995e-01,-4.40525e-02,-1.18535e-01,-1.12900e+00,-3.87233e-01,-7.32743e-01,-2.99423e-01,-1.57954e-01,5.03068e-01,-3.33354e-03,-7.36874e-01,1.99951e-01,-2.20664e-01,1.00861e+00,-6.38358e-01,9.59447e-02,-1.42456e+00,-4.61037e-02,4.84335e-01,
-3.47464e-01,-5.34962e-02,3.00905e-02,1.19610e-01,-9.19673e-01,1.00030e+00,-2.22473e-01,-2.03030e-01,5.86560e-01,2.86877e-01,3.53149e-01,-4.10418e-01,1.65137e-01,2.52886e-01,-2.51851e-01,9.61275e-01,-8.11526e-02,-8.68175e-01,-8.43878e-02,4.83450e-02,3.81804e-01,7.91675e-02,1.26465e+00,3.53862e-01,-6.63358e-01,
7.34815e-02,-1.53909e-01,-2.03667e-01,2.67779e-01,-3.08747e-01,-2.63709e-01,2.40182e-01,-2.25809e+01,-4.47681e-01,-6.44926e-02,-4.53849e-02,2.75795e-02,7.04532e-01,1.33103e+00,1.41316e-01,-3.00936e-01,-1.19464e-01,5.87358e-01,1.13624e+00,-4.07361e-02,-6.29235e-02,-7.38375e-01,-1.14769e-01,7.57081e-01,-3.13486e-01,
-3.87256e-01,3.57683e-01,-2.14761e-01,7.08026e-01,-1.35188e-01,-4.39067e-01,1.06867e-01,-1.56245e-01,4.84437e-01,-9.69844e-01,-5.95695e-01,-3.72447e-01,9.67055e-02,8.30227e-01,-2.01177e-01,-1.39835e-01,-2.29370e-02,-7.28434e-01,2.64526e-01,3.28774e-02,-2.29656e-01,-4.85788e-02,-3.98661e-01,7.90575e-01,5.86181e-01,
-2.12521e-01,-1.95714e-01,3.18035e-01,-1.64036e-01,-2.70545e-01,-1.12513e-01,-3.44475e-01,1.06296e-01,1.00333e-01,1.24415e-01,3.00853e-01,4.32929e-02,1.64051e-01,-2.77864e-01,-5.32573e-02,-1.35314e-01,-7.24724e-02,-2.65993e-01,1.57256e-01,1.55596e-01,-7.76722e-02,-1.42009e-01,-7.76742e-02,-2.28350e-01,-3.21350e-01,
1.54641e-01,-2.13333e-01,6.48255e-01,3.48147e-01,1.04997e+00,-6.04897e-01,1.08039e+00,1.27219e+00,-1.92320e-01,-1.23619e-01,9.90829e-01,3.79220e-01,-7.99865e-01,-5.22324e-02,5.76144e-02,3.66478e-01,-2.93192e-01,-7.38552e-01,-7.02950e-01,-2.61419e+00,-8.15555e-01,4.65751e-01,-1.14842e-02,4.43587e-01,4.41333e-01,
1.19659e+00,
6.00552e-01,
-1.93084e-01,
-1.47917e+00,
-2.49910e-01,
-1.20778e+00,
-7.92580e-02,
3.98516e-01,
-3.65988e-01,
-8.12477e-01,
-9.14963e-01,
-5.91705e-01,
-1.29275e-01,
1.22672e+00,
-6.89766e-01,
4.69647e-01,
2.04901e-01,
-3.95658e-01,
1.05216e+00,
-2.29554e-01,
4.10800e-02,
-1.93535e-01,
5.71916e-01,
-2.63181e-01,
-4.81640e-02,
-7.09974e-01,4.19660e-02,-4.99935e-01,-4.53778e-01,1.15254e-01,1.90054e-01,3.02894e-02,4.67826e-01,1.46824e-01,-1.10177e+00,-3.67695e+00,-1.51194e+00,-5.41908e-01,-7.81881e-01,3.22778e-01,4.45338e-01,-1.41403e-01,5.40588e-01,-1.82514e-01,7.46197e-02,4.95852e-02,5.93283e-01,2.09950e-01,-9.62310e-02,-7.44846e-02,
-1.97352e-01,-3.51104e-01,9.86215e-02,-3.42355e-01,7.95361e-02,3.09632e-01,-1.90678e-01,3.42107e-01,2.95751e-01,-2.50501e-01,1.32837e-01,5.91348e-02,-3.78330e-03,1.37262e-01,-1.16499e-01,-2.59289e-01,-3.33389e-01,1.06153e-01,-6.15175e-02,-5.31135e-02,1.87783e-01,-2.04624e-02,6.43743e-02,1.60006e-01,-1.96216e-01,
5.78478e-02,-1.40377e-01,2.63622e-01,-1.39935e-01,-1.41473e-01,-1.31192e-01,-2.23541e-01,9.51039e-02,1.38503e-01,2.19762e-01,-4.99089e-02,-3.11466e-01,5.80133e-02,-1.29116e-01,-1.89346e-01,4.72233e-02,-6.84419e-02,-7.73775e-02,1.17010e-01,-1.41601e-01,5.38877e-02,2.30738e-01,-2.76194e-01,-1.61585e-01,-3.37020e-01,
2.03894e-01,1.42563e-01,6.97505e-02,7.16371e-02,-3.13893e-01,-1.58100e-01,-3.09892e-01,-2.62678e-01,-1.91694e-01,2.16716e-01,-1.86841e-02,-2.18842e-01,-2.71373e-01,-3.21272e-01,8.74292e-02,-3.23712e-01,-3.56437e-01,3.37344e-03,-1.86449e-01,1.57712e-01,-2.53870e-01,-2.76356e-01,-2.26774e-01,-2.51122e-01,4.67510e-02,
3.38783e-01,-5.97742e-01,-1.44150e-01,-8.23812e-02,-2.55717e-01,3.95640e-01,2.80318e-01,-6.59854e-01,2.80071e-01,-3.46357e-03,-1.55468e-01,-1.35976e-01,-4.01191e-01,1.32746e-01,3.63922e-01,-6.12322e-02,-1.40019e-01,-3.38142e-01,3.87734e-01,5.69100e-02,2.49129e-01,-2.29355e-01,2.05436e-01,-1.34307e-01,6.12212e-01,
2.84574e-01,1.82984e-01,1.98726e-01,9.30027e-01,1.58976e-01,1.12121e-01,-2.23970e-01,-1.58395e-01,-8.28431e-02,-1.45513e-01,3.31134e-01,-6.65166e-01,4.18531e-01,1.02994e+00,-7.09690e-02,5.04949e-01,8.55543e-02,4.15322e-02,-9.37461e-02,-1.91490e-01,7.29569e-01,-9.08459e-01,-2.26947e-01,-5.95988e-02,-5.64370e-01,
8.66918e-02,-3.21775e-01,4.92680e-02,-4.02561e-01,3.41058e-01,-1.38767e-01,-1.67282e-01,6.28163e-01,2.99048e-01,-2.79736e-01,4.41381e-01,-9.99885e-02,1.12020e-01,-2.58038e-01,-4.38253e-01,2.84029e-01,3.90127e-01,-8.88682e-01,1.69126e-01,1.71156e-01,3.52581e-01,5.47734e-02,-1.28597e-01,-3.55495e-02,6.56790e-01,
3.87303e-01,-4.45541e-01,-5.17376e-01,9.25285e-01,2.32109e-01,3.87995e-01,-2.88568e-02,-1.20607e+00,-6.99382e-02,-6.82054e-01,-1.17796e+00,-4.22980e-02,2.60778e-01,-1.46266e+00,7.20679e-01,3.07392e-01,5.35863e-01,8.10534e-01,-1.64847e-02,-4.76864e-01,-1.90239e-01,4.04290e-01,-8.19342e-02,-2.70885e-01,4.39573e-01,
5.74364e-01,6.08786e-01,1.35366e-01,5.94800e-01,-1.09151e-01,1.34902e+00,2.84994e-01,-4.05275e-01,2.24923e-01,-8.71798e-01,-8.38870e-01,-5.63104e-01,3.33095e-01,5.99766e-01,6.44961e-02,5.07266e-01,-3.01063e-01,4.34819e-01,8.13787e-02,-4.95061e-01,-1.11832e-01,-4.78891e-01,2.45225e-01,-3.29911e-01,-2.57356e-01,
4.83400e-01,1.13335e+00,8.38841e-02,-3.87517e-01,1.19679e-01,-3.61713e-01,-4.36795e-02,3.41422e-01,6.34789e-06,-9.65991e-01,1.50477e-02,-6.43913e-01,-2.47517e-01,6.05290e-01,2.97203e-01,6.41297e-01,-4.65139e-01,-4.16531e-01,4.88477e-01,-4.00365e-01,-2.35590e-01,-8.57860e-02,4.14206e-01,-3.37814e-01,2.55539e-01,
2.20686e-01,-3.11461e-01,-7.89635e-02,-1.75637e-01,-2.00740e-01,1.80775e-01,2.70131e-01,2.34213e-01,1.03074e-01,-2.12342e-02,3.26526e-02,1.01951e-01,-3.48134e-01,-1.24080e-01,-2.23132e-01,1.31435e-01,-7.88893e-02,3.38208e-02,-2.17398e-01,-3.50464e-01,-4.12898e-02,-9.42511e-02,-1.16546e-01,3.18691e-01,-7.43135e-02,
5.15122e-01,5.43737e-01,-5.33125e-01,1.00643e-01,-3.05068e-01,-2.14938e-01,-1.34734e-01,1.25943e-01,1.78497e-01,2.16880e-01,-6.05317e-03,-1.07209e+00,4.76210e-01,8.67239e-01,5.02103e-01,-2.96121e-01,-3.62913e-01,2.40237e-01,-1.03269e+00,-3.71576e-01,-3.39077e-01,-7.96078e-01,4.58660e-01,3.42809e-01,-3.93544e-01,
5.23741e-01,-2.42477e-01,-2.07839e-01,9.47753e-02,-1.38482e-01,1.72964e+00,-5.62381e-01,-8.36519e-01,-2.22637e-01,1.59350e-01,-2.29087e-01,-2.20630e-01,-3.04351e-01,-2.23896e-02,2.36147e-01,-4.62279e-01,6.31028e-01,-6.95020e-02,5.67474e-01,-4.69991e-01,4.31391e-02,2.84083e-01,-1.99744e-01,2.36047e-01,1.04248e-01,
6.88961e-01,-7.70794e-01,-6.44267e-01,1.67152e-01,-2.36381e-01,2.64395e+00,-1.22146e-01,9.61760e-01,-1.46281e-01,1.87979e-01,1.92973e-01,-2.92824e+00,-6.81678e-01,5.32799e-02,-1.03709e+00,2.09391e-01,-4.99355e-01,7.28794e-01,-5.34846e-01,1.33407e-01,8.28202e-01,3.08360e-01,-2.12177e-01,-2.64315e-01,1.37756e+00,
6.09147e-01,-2.92898e-01,1.85159e-01,1.36163e+00,-2.52637e-01,1.66426e-01,2.02565e-01,-8.92219e-02,2.97969e-01,-4.60102e-02,-2.81311e-01,6.68866e-02,5.14960e-02,-4.86994e-02,3.83891e-01,5.54550e-01,6.27371e-01,-2.10863e-01,3.76323e-02,-6.77619e-01,2.09806e-02,1.01762e-01,1.26167e-01,-4.38574e-02,1.71415e-01,
-7.44824e-02,-6.22492e-01,-6.60433e-01,5.20639e-02,1.55376e-02,2.71870e+00,1.13865e-01,6.29240e-01,-1.46309e-01,2.60997e-01,2.32476e-01,-2.86158e+00,-7.63548e-01,-2.03543e-01,-6.22336e-01,3.61295e-01,-3.30283e-01,1.12283e+00,-5.78302e-01,2.70511e-02,7.91951e-01,7.34295e-01,-8.78412e-02,1.80221e-01,1.08749e+00,
5.09861e-02,-4.76678e-01,-5.62099e-01,1.70121e+00,-3.26065e-01,3.95578e-01,-1.52960e-01,-8.67794e-02,-3.22082e-01,-1.31075e+00,-1.04256e+00,3.78885e-01,2.99183e-01,-5.63984e-01,1.28679e+00,7.33020e-01,-3.46327e-01,5.31952e-01,-1.14479e+00,2.89491e-02,4.64807e-01,-1.29956e-01,-2.05848e-01,-1.35349e-01,-3.32043e-01,
-5.44435e-01,-2.23511e-01,-1.41787e-03,8.90865e-01,3.30890e-01,-5.61229e-01,7.35252e-01,-9.56374e-01,-1.91488e-01,2.60092e-01,-7.00110e-02,2.18021e-01,8.38478e-01,3.00810e-01,2.56635e-01,-1.18531e-01,-1.66497e-02,2.49611e-01,-1.41956e+00,4.69124e-02,4.65751e-01,-3.84570e-01,2.22403e-01,1.81602e-01,4.01824e-01,
-2.19776e-01,-3.61331e-01,1.58159e-01,-8.25005e-01,-3.25061e-01,-2.53692e-01,-4.41745e-01,-1.83439e-01,-7.26621e-02,-3.47383e-01,1.27766e-01,-3.13018e-01,-3.50391e-01,9.04333e-01,4.27429e-01,2.68842e-01,7.64631e-01,9.18012e-02,6.66494e-01,-3.69699e-01,4.49551e-01,-1.13571e+00,-8.13468e-02,-1.46865e-01,-3.46668e-01,
2.44100e-01,1.33435e-01,-2.99466e-01,1.13633e-01,3.82398e-01,6.10755e-01,3.10216e-01,-1.68672e-01,2.31209e-01,1.36420e+00,4.56641e-01,-6.86900e-01,-6.87775e-01,3.63231e-01,-4.16630e-01,-2.24045e-01,-1.08278e-01,-2.11390e-01,5.88001e-01,-4.55437e-02,3.32391e-01,1.28081e-01,-6.67157e-01,-1.85003e-01,1.96008e-02,
-3.03155e-01,-6.56203e-02,-2.28650e-01,8.56855e-01,7.44075e-02,7.43385e-01,3.14012e-01,4.13863e-02,-1.23875e-03,1.48736e-01,1.80068e-01,8.07038e-02,-5.58387e-02,-6.39979e-02,5.89531e-02,-2.32946e-01,-8.26738e-03,6.46314e-01,-3.62504e-01,5.31710e-01,1.37313e-01,2.01896e-01,-8.04326e-01,1.49128e-02,-2.62970e-01,
-2.07389e-01,-2.34884e-01,1.99875e-01,5.18904e-02,-1.56424e-01,2.18925e-01,2.53190e-01,-1.61405e-01,-7.32309e-02,-3.42980e-01,-2.26817e-01,-3.48535e-01,-2.85102e-01,1.62528e-01,-1.70834e-01,2.48130e-01,-2.44687e-02,1.21373e-01,-2.05483e-01,-1.60435e-03,-1.67503e-01,-3.19255e-01,-1.20568e-01,-8.79374e-03,-3.08495e-01,
-7.61430e-01,4.49304e-01,2.42914e-01,-3.03786e-01,3.15106e-01,8.83092e-02,-7.00423e-02,1.77616e-01,-7.08494e-02,2.96472e-02,4.40679e-01,-6.80473e-01,2.18321e-01,5.27667e-01,-2.96435e-04,4.57639e-01,-5.22774e-01,7.49706e-02,6.16224e-01,4.46251e-01,6.38706e-01,-1.18760e-01,-6.08804e-01,-3.38647e-01,8.92350e-03,
-1.17937e-01,-1.97799e-01,2.15406e-01,-1.59363e-01,1.89281e-02,-2.22141e-01,-4.37123e-02,2.65453e-01,-8.73562e-02,-2.91981e-01,6.32709e-02,-3.91757e-01,-1.53991e-01,-3.45439e-01,-3.61277e-01,-6.63081e-02,3.56375e-02,-3.81460e-01,-1.28177e-01,-3.66732e-01,-3.96165e-02,1.00780e-01,-1.88449e-01,-9.62749e-02,-3.44282e-01,
-3.35490e-01,-8.04833e-02,5.66816e-01,8.87470e-01,-8.49547e-02,-5.23905e-01,1.37003e-01,-6.52670e-01,-2.87423e-01,-4.65850e-01,1.96687e-02,2.93988e-01,2.51258e-01,-6.85891e-01,3.86478e-01,2.15149e-01,-4.61193e-02,-4.84825e-01,-2.13893e-01,-4.89155e-02,-6.86085e-02,1.88189e-01,1.19300e-01,2.08880e-01,3.26379e-01,
-2.64318e-01,
-1.86412e-01,
-2.37436e-01,
-1.36846e-02,
5.18886e-01,
2.14772e-01,
4.50940e-01,
-5.23935e-01,
2.18484e-01,
3.73177e-01,
-2.46381e-01,
1.86284e-01,
1.85874e-01,
-1.02229e+00,
1.03997e-01,
-9.89309e-01,
-5.50485e-01,
-1.34227e-01,
4.69305e-01,
6.38777e-01,
3.24300e-01,
-2.31544e-02,
2.44658e-01,
2.20753e-01,
2.90636e-01,
-4.34540e-01,-1.55706e-01,6.72169e-02,-7.83913e-02,-1.19656e-01,6.89635e-01,-2.93691e-01,8.21365e-02,6.02293e-02,8.65964e-01,-1.68410e-01,1.83295e-01,6.03950e-01,-1.06408e+01,-3.14211e-01,-4.38863e+00,-4.13621e-01,-4.51991e-01,-6.99803e-01,3.86815e-01,-8.74817e-02,2.49796e-01,-5.55850e-01,-3.03915e-01,1.20708e-01,
-2.35042e-01,-1.01767e-01,2.09041e-02,2.09086e-01,3.71297e-01,-4.65849e-01,-3.75019e-01,-5.28621e-01,2.15726e-01,4.42637e-01,-9.46208e-02,2.74023e-01,-3.72716e-01,5.18476e-02,2.83805e-01,-6.16398e-02,-1.07027e-01,-5.12051e-02,9.68647e-02,1.98428e-01,2.89217e-01,2.37765e-01,-5.86589e-01,-2.20607e-01,1.75753e-01,
1.43872e+00,-1.76803e-01,-1.51974e-01,-1.85264e-01,-1.58252e-02,4.23255e-01,1.85103e-01,1.14987e+00,7.19808e-02,1.52838e-01,-2.56164e-01,5.32245e-01,3.26955e-02,-2.32626e-02,6.09457e-01,-7.53436e-02,-1.01508e+00,-4.89805e-03,-2.39844e-01,-4.29203e-02,1.51632e-01,-1.22910e-01,-1.22261e-01,3.16196e-01,2.70318e-01,
-1.59033e-02,-2.33161e-01,-2.13520e-01,-1.69041e-01,2.43232e-01,4.31183e-02,3.47679e-01,1.05888e-01,3.86012e-01,-6.15564e-01,-1.67831e-01,3.69532e-01,6.26170e-01,-1.32589e-01,2.14912e-01,1.30644e-01,-2.27895e-01,-4.47790e-01,-6.68135e-02,1.74434e-01,7.18831e-02,3.09732e-02,3.35293e-01,-1.81892e-01,1.49419e-01,
-1.20312e-01,-2.87809e-01,-7.07343e-02,6.07561e-02,6.49018e-02,3.26392e-01,3.00772e-01,2.66075e-01,3.74000e-01,-4.03231e-01,2.89452e-01,-1.96565e-01,4.36912e-01,-7.00716e-01,-3.45758e-01,8.56627e-01,-4.54873e-02,-9.08969e-02,3.38952e-01,8.29335e-02,-2.62068e-01,1.08585e-01,1.57693e-01,7.27238e-02,2.64969e-01,
5.88668e-01,1.82001e-02,6.30082e-02,-1.56601e-01,-5.51369e-02,2.19061e-01,1.87440e-01,-1.75042e-01,3.73707e-01,-7.22991e-02,-3.36088e-01,-2.35475e-01,6.49081e-02,-4.26023e-01,3.56053e-01,3.28475e-01,1.76304e-01,1.84920e-01,-2.85910e-01,3.03243e-01,-8.30976e-02,-3.96168e-02,-2.35377e-01,-4.27445e-02,4.11486e-01,
4.20319e-02,2.63334e-01,1.39433e-01,9.45738e-02,4.26987e-01,1.72961e-01,-3.14003e-01,-8.89007e+00,1.24493e+00,-1.08437e-01,-2.48902e-02,-4.94777e-01,-9.87562e-02,1.73271e-01,-8.07582e-01,-2.04352e-01,-5.60169e+00,6.08431e-01,8.01168e-01,4.43879e-01,-4.18293e-02,1.80370e-01,-3.49462e-01,2.85888e-01,-7.84268e-01,
1.46396e-01,3.16438e-01,1.84328e-01,8.10230e-03,-3.26521e-01,3.72197e-01,3.62437e-02,1.68027e-01,-3.77303e-01,-3.00517e-01,6.67507e-02,-5.38077e-01,2.13703e-01,9.60345e-03,4.70822e-01,1.10161e-01,-3.34585e-01,2.32735e-01,-1.98069e-01,1.87781e-01,-2.46681e-01,-2.84569e-01,1.14725e-01,1.67096e-01,5.84750e-01,
-2.91007e-01,2.54753e-01,-2.42205e-01,-3.13156e-01,7.81985e-01,-1.86215e-01,1.89425e-01,5.97777e-01,3.34206e-01,1.99550e-01,-2.87156e-01,6.52767e-01,-1.59821e+00,-2.68512e-01,3.36042e-01,2.60842e-01,-6.96457e-01,-9.95484e-01,-2.81078e-01,-1.91977e-01,8.24233e-01,4.56164e-03,-4.97329e-01,-1.18487e-01,2.07800e-01,
8.79035e-01,7.48262e-03,-2.76025e-01,3.35817e-01,-3.40340e-01,3.08396e-01,4.85590e-01,4.37667e-01,6.75444e-01,7.64102e-01,6.25147e-03,-1.02551e-01,-2.26053e-02,3.00140e-01,-6.39177e-01,-2.53039e-01,2.27504e-01,1.61970e-01,-4.12565e-01,-3.41937e-01,1.49498e-01,-3.24648e-02,-7.23847e-01,-5.47269e-03,1.03217e-01,
-2.23672e-01,-1.24722e-01,-3.44028e-01,-2.13466e-01,2.20486e-01,-1.64858e-01,-2.54984e-01,2.64082e-01,8.22867e-02,-1.67051e-01,2.86315e-01,-8.23873e-03,-7.47307e-02,-2.14081e-01,-2.30053e-01,1.46313e-01,-3.25757e-01,-1.26106e-01,-2.74839e-01,-3.44572e-01,-1.18280e-01,-5.83633e-02,-1.35636e-01,1.40463e-01,7.66909e-02,
8.21394e-01,-2.66095e-02,1.14977e-01,2.37817e-01,3.99372e-01,4.76571e-02,1.80421e-01,-1.27054e+00,-2.71770e-01,-5.12059e-01,2.13986e-01,-9.05776e-01,-3.02700e-02,-9.38537e-01,-1.28199e-01,7.69520e-01,-1.77439e-01,-3.90718e-01,4.75692e-01,2.55062e-01,5.88888e-02,3.38653e-01,3.03133e-01,1.73969e-01,9.18373e-02,
7.27214e-01,-7.30019e-02,-3.33227e-01,-3.82863e-02,-5.88430e-02,4.15330e-01,-5.43541e-02,5.95759e-01,2.94713e-01,2.58126e-01,-1.58140e-01,-5.05092e-01,-1.60595e-01,9.59550e-01,-3.97383e-02,-7.30895e-01,5.64800e-02,-8.43260e-02,-3.03125e-01,-1.29235e-01,-1.89281e-01,6.75491e-02,-1.56730e-01,2.68657e-01,-9.42124e-02,
-2.30625e+00,2.67979e-01,2.56706e-01,-3.52473e-01,-2.76761e-01,-5.82134e-01,-1.09058e+00,4.46670e-01,-1.31004e-01,-9.82116e-01,-1.15852e-01,-1.31449e+00,-2.49554e-01,-1.55724e+00,5.87982e-01,-3.41031e+01,-2.02454e-01,1.06359e-01,-6.48706e-01,4.81697e-01,3.35705e-01,2.98472e-01,8.41197e-01,-3.09624e-01,8.74539e-01,
8.04912e-02,1.39100e-03,3.29494e-01,2.18702e-01,1.62130e-01,-2.59272e-02,1.86836e-01,-3.82264e-01,2.22548e-01,-1.86152e-01,2.44550e-01,2.92582e-01,-4.23396e-02,4.74058e-02,4.19088e-01,1.57998e-01,4.24298e-01,-9.64657e-02,-1.88520e-02,-4.28705e-01,-2.38885e-04,-1.04081e-02,1.05243e-01,-1.43084e-01,-2.03964e-01,
-7.69859e-03,-1.68066e-01,-1.71643e-01,2.79332e-01,5.14024e-01,-5.85214e-02,-4.53718e-01,3.92440e-01,-7.02259e-02,5.69332e-01,-2.61809e-01,3.01958e-01,4.61690e-01,-9.91573e-01,-9.34194e-01,7.87352e-01,1.34596e-01,-1.36098e-01,-4.24621e-01,-1.12206e-01,2.71815e-01,-2.45599e-01,-1.90974e-01,2.74275e-01,-2.58370e-01,
-1.38111e+00,2.32644e-01,3.19714e-01,1.08805e-02,3.29865e-01,3.90010e-01,-3.11984e-01,5.08255e-01,5.15064e-01,2.14907e-01,-1.21763e-01,-6.85779e-02,5.35630e-02,-6.00886e-01,-1.19608e-01,1.40222e-01,-5.34135e-01,-2.50098e-01,-1.84094e-01,6.69635e-03,-1.95683e-01,-7.77666e-02,8.71831e-02,-1.56273e-01,2.44664e-02,
1.62560e-02,-3.61475e-02,1.24925e-01,-3.28150e-01,5.97714e-02,1.57053e-01,1.25272e-01,3.31531e-01,-1.06440e-01,2.21885e-01,3.07599e-01,3.73785e-01,4.65136e-01,-1.15817e+00,-5.36517e-01,1.07920e+00,1.29729e-01,1.91901e-01,8.46883e-03,-2.43190e-01,4.72362e-01,-1.96823e-01,-9.16634e-02,2.36937e-01,-6.99264e-02,
6.23143e-01,1.34817e-01,-2.17752e-01,-8.16572e-03,4.83265e-02,5.17397e-01,-6.76823e-03,3.22263e-01,-2.37430e-03,-1.51689e-01,-2.96181e-01,-1.33488e-01,-1.91677e-02,2.61177e+00,1.31449e-01,-2.66097e+00,-2.41039e-01,3.43559e-02,1.89034e-01,-1.36308e-01,4.26706e-01,-7.40222e-02,5.30150e-02,-1.98420e-01,-1.07267e-01,
-1.36601e-01,-1.31137e-01,-1.34260e-01,1.43392e-01,2.91711e-01,-2.05462e-01,-3.17721e-01,-7.50000e-02,-3.99506e-01,2.38825e-02,6.17136e-02,-2.11209e-01,-6.95837e-01,-4.08989e-01,8.07300e-01,4.48885e-01,-3.52537e-01,-3.28731e-01,2.26820e-01,2.17914e-01,3.46490e-01,-1.10455e-01,-6.46696e-02,-9.39905e-02,1.66492e-01,
-4.84332e-02,1.71126e-01,3.02996e-01,2.15928e-01,6.57816e-01,3.25231e-01,2.26568e-01,5.18035e-01,7.25172e-01,-5.24861e-01,2.14905e-02,6.00609e-01,-6.86403e-01,-9.73066e-01,-2.21220e-01,3.49444e-01,-5.77215e-01,-2.77709e-01,-2.68166e-01,7.14801e-02,3.01342e-01,-2.24109e-01,1.94608e-01,-2.47105e-01,7.28531e-01,
-5.89214e-01,2.22131e-01,-5.66437e-02,1.09869e-01,-1.04433e+00,-2.96274e-01,-1.26797e+00,1.01829e+00,1.60730e-01,-6.64927e-01,-4.55698e-02,1.88039e-01,6.35314e-01,4.60260e-01,-5.05433e-02,2.36869e-01,-1.30624e+00,6.84981e-01,1.24903e+00,-1.15457e+00,-4.60146e-01,-2.51220e-01,8.75216e-01,2.34832e-02,7.77615e-01,
3.51039e-01,-1.99128e-02,-1.86677e-01,-1.40869e-01,3.74426e-01,-2.51664e-01,1.55122e-01,2.89022e-01,-3.27805e-02,9.36159e-02,3.15635e-02,6.58057e-01,-9.21725e-02,1.04111e-01,3.61351e-01,-1.70027e-02,-7.83526e-02,-7.23611e-01,-5.35020e-02,1.48281e-01,2.64016e-01,-9.13079e-02,-3.81353e-01,3.15679e-01,5.64380e-01,
9.57639e-01,-2.70312e-01,-5.43728e-02,1.38432e-01,3.73999e-02,1.11669e-01,-3.09795e-01,-2.80180e-01,7.06562e-02,-6.41935e-01,-1.48229e-01,-9.45749e-02,1.88992e-01,2.12311e-01,5.65906e-01,-1.09341e-01,-2.26972e-01,-6.68728e-01,-2.32291e-01,-7.54264e-01,-9.18358e-01,-9.84724e-02,3.07340e-01,-2.53883e-01,-3.43602e-01,
-8.33222e-02,3.04303e-01,3.46562e-01,9.39419e-02,3.78604e-01,-1.69238e-01,-2.13863e-01,-6.10187e-01,1.74162e-01,2.99520e-01,-6.55424e-02,-1.21711e-01,-2.16872e-01,4.17516e-01,-4.12783e-02,-4.72497e-01,5.19338e-03,-3.26058e-01,-1.47793e-01,7.56834e-02,1.20209e-01,2.28532e-01,-1.78705e-01,2.14079e-01,1.53385e-01,
-4.27967e-01,
-7.69345e-02,
-3.29553e-01,
-1.83607e-01,
-6.55158e-02,
-3.27248e-01,
-1.06745e+00,
-3.59967e-01,
-7.89428e-01,
-4.92055e-01,
-1.88833e-02,
-1.99234e-01,
2.58985e-02,
-1.08725e+00,
-6.33074e-03,
2.10356e-01,
2.25779e-01,
1.22320e-01,
-3.28951e-02,
6.10521e-03,
-6.39073e-01,
-5.40897e-01,
-2.19192e-01,
7.66820e-01,
3.94906e-01,
4.73683e-02,-1.14054e-01,-5.77350e-01,-4.86428e-02,1.50791e-01,-4.63185e-01,5.59167e-02,-4.12966e-02,5.95122e-01,1.84914e-01,1.82814e-01,3.52775e-02,6.23755e-01,-1.90336e-01,4.95258e-01,1.81072e-01,-2.79768e-01,1.09379e-01,-5.53492e-01,-2.99585e-01,6.17323e-01,-2.10758e-01,-2.80649e-01,4.40141e-01,2.53339e-01,
9.69175e-01,6.79095e-02,-1.54905e-01,-6.83087e-02,-4.84075e-02,1.69465e-01,1.81928e-01,3.20113e-01,4.41188e-02,1.71961e-01,1.55762e-02,-2.05248e-01,-2.86368e-01,1.70502e-01,-1.09360e-01,5.17692e-01,5.04355e-02,-6.15215e-02,1.47336e-01,3.23429e-01,-2.30407e-01,-1.05183e-01,-1.44508e-01,1.60411e-01,7.92626e-02,
3.90359e-01,1.15926e-01,6.07461e-01,1.72477e-02,-1.83794e-01,5.10586e-01,-2.57306e+00,8.64879e-03,-1.57109e+01,-6.72177e-01,1.14937e-01,7.05613e-02,2.93727e-01,2.96751e+00,-4.43281e-01,-8.33488e-01,-1.34623e+00,-2.39356e-01,4.29170e-01,1.09511e-01,-3.46197e+00,-1.72503e-01,4.10780e-01,-3.56398e-01,-5.80037e-01,
2.42709e-01,2.61659e-01,-1.14206e-01,-2.15824e-01,-6.74782e-02,-1.75532e-03,-1.31349e-01,-4.66395e-03,4.92170e-02,-8.49757e-02,8.18850e-02,-4.87394e-02,-1.94730e-01,-1.75458e-01,-2.92565e-02,-2.27528e-01,-8.38237e-02,-2.59174e-02,-3.10335e-01,8.69821e-02,-3.26717e-01,2.89970e-01,-2.61433e-01,-3.44191e-01,-3.06853e-01,
7.15919e-02,-6.81402e-02,5.32057e-02,3.54828e-01,2.48486e-01,-2.15605e-01,1.13545e+00,1.86769e-01,-6.06472e-02,9.64971e-01,-1.80795e-01,-5.88793e-01,-7.28228e-01,-1.21098e+00,-1.61168e-01,1.14025e-01,4.68236e-03,-2.77174e-01,6.18922e-01,1.07854e-01,-7.91693e-02,1.14464e-01,-3.04122e-01,2.31443e-01,7.78391e-02,
2.24489e-01,-2.65111e-01,7.39728e-01,-7.04537e-03,-1.89386e-01,1.42527e-01,-3.62329e-01,-1.39318e-02,-6.43676e-01,-7.47719e-01,-1.21005e-02,1.53502e-01,6.40495e-02,1.58512e+00,2.97646e-01,3.03444e-01,3.26760e-01,-9.48979e-02,1.81746e-01,1.24268e-01,-1.77727e-01,6.25448e-02,-2.75286e-01,-1.77714e-01,8.57511e-02,
2.06665e-01,2.27018e-01,8.43691e-02,-2.49528e-01,9.68105e-02,-2.51037e-01,9.13967e-02,-1.84200e-01,5.71360e-02,-2.23630e-01,-2.93097e-03,2.23955e-01,-4.28956e-02,-2.04446e-01,-2.79774e-01,2.89116e-01,-2.45983e-01,-1.13782e-01,-2.87798e-01,1.12913e-01,-1.53897e-01,3.09780e-02,-7.38185e-02,-2.29539e-01,-1.74635e-01,
5.16225e-01,2.04910e-01,2.18337e-01,-1.02195e-01,6.47013e-01,2.92838e-02,6.12785e-01,-1.66057e-01,8.51913e-02,-4.03602e-01,2.59369e-01,-4.11645e-01,3.44244e-01,1.49391e-01,7.86973e-02,3.67742e-01,1.08957e-01,2.09996e-01,-1.49826e-01,3.01525e-01,-3.05405e-01,-7.23288e-02,-5.82437e-01,-1.23717e-01,-2.35097e-01,
2.08554e-02,-4.59760e-01,4.09470e-02,3.61669e-01,2.99169e-02,1.44212e-01,1.13724e-01,6.31137e-02,-9.18870e+00,-7.15005e-01,7.53953e-02,-4.56798e-01,-8.11884e-01,-6.40151e-02,-4.59534e-01,-2.25977e-01,-5.81401e-01,-2.16186e-01,-5.93392e-02,5.81009e-01,-3.51021e-01,4.27280e-01,-2.67433e-01,6.95481e-01,-7.03223e-02,
-4.47245e-01,-2.79930e-01,-1.90744e-01,9.35491e-03,-9.58981e-02,-2.01134e-01,1.96979e+00,2.99173e-01,-1.61194e-01,8.05732e-01,-1.32595e-01,-1.12144e-01,-8.86607e-01,-1.70144e+00,2.39045e-01,1.56073e-01,-6.99427e-03,-2.06606e-01,4.11325e-01,1.96419e-01,2.27448e-01,2.10258e-01,4.26712e-01,1.39637e-01,3.14205e-01,
-2.06927e-01,-1.00638e+00,3.30770e-01,-4.64130e-01,-3.11523e-01,9.37870e-01,-1.62423e-01,-1.28019e-01,1.72877e-02,-6.73012e-01,2.28578e-01,9.28987e-01,-3.59661e-02,1.57975e-01,-2.76820e-01,-1.21361e-01,-3.24443e-01,-1.69879e-01,1.79045e-01,-3.06493e-01,2.23947e-01,-3.57383e-01,-5.34711e-01,-7.00165e-01,9.47159e-01,
-1.05228e-01,2.34290e-01,-4.24934e-02,-2.35481e-01,1.23528e-01,6.34853e-02,1.07378e-04,-2.67803e-01,-3.42275e-01,1.71054e-01,3.20245e-01,4.20927e-02,-4.51743e-02,-1.19346e-01,-2.48821e-01,-1.98692e-01,-2.84022e-01,-2.46150e-01,-7.95471e-02,2.41682e-01,2.63757e-01,1.91725e-01,1.23141e-01,9.26417e-02,9.51518e-02,
1.71604e-01,-4.42512e-01,-4.14919e-01,-1.29109e-01,-3.51276e-01,2.33408e-01,-2.89315e-03,-5.30585e-01,1.38630e+00,-3.35298e-02,-2.54370e-01,2.25562e-01,1.49617e-01,2.88831e+00,-3.91074e-01,-9.93546e-02,8.41110e-02,-7.18814e-01,5.30781e-01,-4.69784e-01,1.35248e-01,8.40098e-01,-2.03274e+00,2.15442e-02,2.37975e-01,
-1.46280e+00,-2.80496e-01,2.77686e-01,-9.03119e-01,4.51770e-01,-5.44899e-01,-4.55996e+00,9.74818e-01,5.58451e-01,-7.30585e-02,-7.05307e-02,1.07549e+00,5.28365e-01,1.78089e+00,9.91872e-02,-1.24945e+00,-1.25595e-01,5.73341e-01,-1.22794e-01,-3.90349e-01,7.78618e-01,-5.56251e-01,-3.55659e-01,1.04445e+00,3.43563e-01,
5.65111e-01,-9.24693e-02,2.44624e-01,2.61588e-01,-4.64582e-01,3.68191e-01,1.65822e-01,-3.07293e-01,-1.32480e+00,-2.15185e+00,1.44306e-02,3.13111e-01,1.47388e+00,-3.77127e-02,-8.45863e-01,-1.76335e+00,-1.81746e+00,-1.63074e-01,-2.69145e-01,-2.57833e-02,3.06234e+00,7.19863e-01,-1.22382e-01,-1.01483e-02,-7.20348e-01,
2.82993e-01,-2.87427e-01,-2.54314e-01,-3.49464e-01,2.04829e-01,-2.16748e-01,2.42326e-01,-1.57767e-01,2.11584e-01,2.85197e-01,-4.68621e-02,4.77118e-02,-3.41246e-01,-1.99690e-01,-3.08896e-02,-3.37159e-01,1.86187e-01,-9.27842e-02,1.98915e-01,3.53963e-02,-9.16560e-02,2.06834e-01,-1.25345e-02,-3.18267e-01,-8.54502e-03,
-2.90137e-02,3.81642e-02,-1.93914e-02,-1.55427e+00,-9.24012e-01,-4.88871e-01,3.80532e-01,2.35713e-01,2.73085e-01,-3.45021e-01,-1.88951e-01,1.78967e+00,6.66208e-01,-8.06714e-01,-1.53334e-01,-6.80749e-01,-1.04331e-01,1.22210e+00,8.11663e-02,-1.48622e-02,5.66438e-01,1.54585e+00,-1.16586e-01,-2.49998e+01,7.58934e-01,
-5.03349e-01,-3.36607e-01,-7.29811e-03,7.19272e-02,-3.79440e-01,-9.64744e-02,-2.39528e-02,2.27895e-02,1.02476e-01,-2.20549e-01,-2.64163e-01,4.03192e-01,1.38913e-02,-2.32866e-01,5.36024e-01,5.59868e-02,1.49332e-01,4.54736e-02,-3.97794e-02,-2.51788e-01,3.38381e-01,-4.06894e-02,-1.40645e-01,7.06009e-02,2.42887e-01,
-1.04979e-01,-7.32925e-01,-3.96262e-02,-6.83322e-02,1.64396e-02,1.31364e-01,3.26276e-02,1.47979e-01,1.94885e-01,-4.44909e-01,1.38099e-01,2.17753e-01,-4.83370e-02,-5.86896e-02,7.82832e-01,5.62291e-01,6.29246e-02,5.79129e-02,-2.63083e-01,-1.87243e-01,4.00041e-01,-7.83258e-02,-3.52054e-02,1.36349e-01,4.19692e-01,
-1.73524e-01,-1.68210e-01,5.03487e-01,1.06921e-02,6.94234e-03,-3.03912e-01,7.43934e-02,-1.90939e+00,-5.96156e-01,-2.31229e-01,3.21638e-01,7.62059e-02,3.28319e-01,6.78359e-01,1.10949e-01,-1.60162e-01,7.17335e-02,5.19360e-01,8.80449e-02,7.52192e-02,1.16753e-01,7.92615e-02,-5.60334e-02,-2.27178e-01,6.17860e-01,
9.86527e-02,-4.76860e-02,1.12961e-01,4.88923e-01,1.09180e-01,2.21321e-01,1.14928e-02,5.11125e-01,-3.19886e-01,-9.37804e-02,3.01641e-01,-6.14691e-01,-2.47547e-01,1.11982e+00,1.07375e-01,3.42699e-01,1.47616e-01,-1.95677e-01,1.69755e-02,2.84044e-01,-2.41343e-01,3.95990e-01,1.05763e-01,1.01078e+00,-4.52258e-02,
-4.90915e-02,-2.09320e-01,3.64877e-02,6.64515e-02,7.99689e-02,3.43855e-02,-2.32058e-01,1.62201e-02,-2.06142e-01,8.32726e-02,3.33838e-01,1.14155e-02,-2.94062e-01,1.93289e-02,8.07154e-02,-1.33811e-01,-2.85213e-02,-1.51002e-01,-2.37469e-01,-3.03645e-01,-1.80273e-01,-1.14269e-01,2.76827e-02,-2.99062e-01,1.97787e-01,
-1.96426e-01,2.61958e-01,-3.02570e-01,-1.13474e-01,-1.45447e-01,-7.11378e-03,-3.06067e-01,3.26682e-01,2.74513e-01,-2.24364e-01,2.97052e-01,2.17657e-01,-8.72894e-02,9.34698e-02,-1.05836e-01,1.26601e-01,1.49695e-01,4.15833e-02,-1.04669e-01,-3.29089e-01,8.95277e-02,-1.75468e-01,-2.09185e-01,1.11517e-01,6.46296e-03,
-1.34773e-01,9.78860e-02,-2.05903e-01,2.73304e-01,-9.02948e-02,-4.93646e-01,2.53343e+00,7.71930e-02,6.49639e-02,1.87187e+00,-7.40274e-02,-4.31070e-01,-1.22832e+00,-2.09301e+00,-3.21024e-01,-1.52945e-01,-1.95891e-01,-3.94607e-01,9.18803e-01,-7.50920e-02,-2.03817e-02,8.66446e-02,-1.52011e-01,2.39996e-02,1.32416e-01,
1.88887e-01,1.91472e-01,-2.52713e-01,-2.57361e-01,2.95301e-01,1.01340e-02,3.09617e-02,3.58389e-01,3.38439e-01,-2.35212e-01,-8.33469e-02,1.98848e-02,-1.31209e-01,-2.57430e-01,-1.78163e-01,1.03025e-01,8.16251e-02,-1.07550e-01,-2.38415e-01,1.04774e-01,-1.33276e-01,-2.71919e-01,-3.49608e-01,-1.26228e-01,4.64299e-03,
1.82865e-01,
9.68121e-02,
-7.30720e-02,
-2.17742e-01,
7.30476e-02,
2.36323e-02,
-6.99303e-02,
7.35115e-02,
-4.59026e-03,
-1.63767e-02,
-1.43889e-01,
-2.84136e-01,
1.50136e-01,
-7.05233e-01,
1.63849e-01,
-2.06906e-01,
-7.04626e-01,
1.06548e-01,
-1.60684e-02,
-5.68948e-01,
1.40446e-02,
-2.62054e-01,
-3.67864e-01,
-2.65198e-04,
-2.09996e-01,
-1.05076e-01,5.93810e-02,1.28363e-01,2.99958e-01,2.26653e-04,-1.89562e-01,3.96451e-01,3.22279e-02,6.69689e-02,-4.72811e-02,1.17653e-02,-2.20691e-01,-3.96553e-02,-4.06243e-02,-4.08060e-02,1.19556e-01,-7.73002e-03,7.67523e-02,6.46898e-02,1.47132e-01,-3.98863e-02,-5.18942e-02,-3.61298e-01,1.52777e-03,-5.07574e-01,
-5.36405e-02,4.95980e-02,8.24041e-02,-5.96356e-02,6.95124e-02,-9.82667e-02,1.94866e-01,5.34302e-02,1.48026e-01,-5.54740e-02,6.96135e-02,2.50383e-01,-7.54743e-02,-1.48601e-02,-7.03724e-02,-2.80557e-01,-8.96311e-03,1.30250e-01,4.80809e-03,-2.54840e-03,-1.21846e-01,3.30316e-02,1.63332e-01,-1.36323e-02,6.79858e-01,
-8.23431e-02,4.70491e-02,7.14667e-02,1.06647e-01,1.70007e-01,-6.69163e-02,-1.77713e-01,-1.88746e-01,1.03526e-01,-1.44200e-01,-4.99041e-02,2.85227e-01,-6.91701e-02,-4.63135e-02,-1.00580e-01,-2.97501e-01,2.78100e-02,-1.76245e-02,1.45060e-01,2.06766e-02,-1.18188e-01,2.13523e-02,-7.13508e-02,-2.52645e-02,1.14798e+00,
-5.41139e-02,5.86209e-02,7.32755e-02,-2.16927e-01,6.49844e-02,-9.18534e-02,-3.16267e-01,3.84476e-02,1.75595e-01,-2.50829e-02,1.24230e-02,-3.36588e-01,-6.55306e-02,-3.57285e-02,-5.34728e-02,1.90865e-01,-2.37937e-02,9.66391e-02,-4.20958e-03,4.44283e-02,-1.32015e-01,3.20098e-01,7.59195e-02,-3.51111e-02,7.13526e-01,
-6.59565e-02,7.80572e-02,6.54186e-02,-1.42765e-01,1.31644e-01,-1.01532e-01,-7.23581e-02,-7.17572e-02,9.70788e-02,-3.81317e-02,-2.22094e-02,-1.31037e-01,-7.81782e-02,-5.84225e-02,-5.51918e-02,-3.54777e-01,-1.44673e-02,4.76170e-02,2.21860e-02,6.18290e-02,-1.07822e-01,1.14070e-01,6.64010e-03,-7.67464e-02,7.04980e-01,
-5.34521e-02,5.85758e-02,7.24722e-02,-1.29405e-01,6.42925e-02,-9.01589e-02,8.44714e-02,3.75884e-02,1.79021e-01,-2.41683e-02,1.34167e-02,-3.05130e-01,-6.24685e-02,-3.47265e-02,-5.25620e-02,-3.58301e-03,-2.30546e-02,9.44597e-02,-3.03037e-03,4.74401e-02,-1.33714e-01,4.17299e-01,2.33744e-01,-3.32548e-02,7.63000e-01,
-3.73598e-02,7.13935e-02,2.67029e-02,9.98332e-02,2.16287e-01,-1.31851e-01,1.65217e-01,-9.85378e-03,-2.02677e-03,7.84216e-02,2.54340e-02,2.19093e-01,-5.92354e-02,-1.13219e-02,-4.70706e-02,3.45707e-01,-2.93546e-02,4.35955e-02,-4.89012e-02,5.12472e-02,-7.89747e-02,1.65938e-01,-1.14124e-01,-1.78422e-01,9.31794e-01,
-2.58362e-02,8.33359e-02,3.70687e-02,3.47249e-01,-6.83994e-02,4.64295e-02,-3.63012e-01,5.63587e-03,3.24409e-01,4.79238e-02,-4.04310e-02,2.11286e-01,2.81020e-02,-5.21082e-02,3.95023e-02,3.73521e-01,-5.85351e-02,6.23037e-02,-3.83462e-02,1.52024e-02,-2.11325e-01,-3.42235e-01,2.33041e-01,-9.12546e-03,4.84070e-01,
-6.07444e-02,7.78109e-02,6.54502e-02,-3.22432e-01,1.24220e-01,-1.13937e-01,-6.78092e-02,-5.63976e-02,8.59373e-02,-2.47267e-02,-2.23405e-02,2.26624e-01,-7.09941e-02,-5.54720e-02,-5.48460e-02,1.82469e-01,-1.86118e-02,6.33234e-02,4.47929e-03,6.24274e-02,-9.92064e-02,3.70367e-01,2.77375e-01,-7.57366e-02,5.91713e-01,
1.58052e-01,
1.17359e-01,
1.64373e-01,
-2.10876e-01,
-1.91085e-01,
-2.10923e-01,
1.13440e-01,
1.37665e-01,
-1.94076e-01,
