// Neural Network File Format by Kyle Julian, Stanford 2016
6,4,9,25,
4,25,25,25,25,25,9,
0,
-8000.000000,-100.000000,-100.000000,0.000000
8000.000000,100.000000,100.000000,40.000000
0.000000,0.000000,0.000000,20.000000,-4.683445
16000.000000,200.000000,200.000000,40.000000,30.305804
-2.59765e+00,5.61626e-01,-6.32827e-01,1.05098e-01,
1.75248e+00,1.41024e-01,1.54347e-02,-7.51273e-01,
-2.49753e-01,6.51719e-01,-7.93303e-01,8.37121e-02,
-1.33589e+00,-7.99358e-01,-3.73530e-01,1.60503e-01,
-3.05537e+00,1.51127e-01,-1.46735e-01,1.72578e-02,
-9.16784e-01,2.89527e-01,5.74643e-01,-6.08328e-02,
1.98361e+00,-1.87505e-01,8.52205e-01,-1.35198e-01,
-5.07773e+00,-2.51032e-01,2.62696e-01,5.56413e-02,
-2.54681e-01,4.84319e-01,-6.95158e-01,1.73990e-01,
3.70479e-01,4.65122e-01,2.42241e-01,-1.73547e-01,
5.55660e-01,2.26815e+00,-6.71199e-03,-1.02241e-01,
1.96070e+00,-2.98859e-01,3.04209e-01,-2.55959e-01,
-4.07145e-01,-3.14639e-01,4.14628e-01,5.07023e-01,
-4.96465e+00,-1.35403e-02,4.97325e-02,-4.48280e-01,
-4.25977e+00,9.72184e-03,7.58294e-02,-2.54098e-01,
-6.24613e-01,1.20979e+00,-1.41760e-01,1.35509e-02,
2.05106e+00,1.78243e-01,-3.24299e-01,-3.03557e-02,
1.58759e+00,6.90613e-02,7.58874e-01,1.13517e-01,
-2.36405e-01,-7.43661e-02,-2.94835e-03,3.55304e-01,
-1.92010e+00,-1.28448e-01,2.33124e-01,-1.08599e+00,
-5.15322e-01,-1.80342e-02,8.62183e-02,-5.55117e-01,
5.17671e-01,4.75000e-01,1.06276e-01,4.36245e-01,
-1.63288e+00,-6.51500e-02,1.36276e-01,-7.26537e-01,
1.00041e+00,-5.56332e-01,-1.98703e-01,4.79284e-02,
-5.90306e+00,-6.16854e-03,2.50941e-03,9.59723e-03,
2.01160e-01,
2.80251e-02,
-3.08272e-02,
2.86643e-01,
2.14584e-01,
9.91769e-02,
7.49233e-02,
-2.09906e-02,
1.33324e-01,
2.26288e-01,
-3.55853e-01,
2.11427e-01,
2.13670e-01,
-1.48766e-01,
-8.56975e-03,
6.39697e-01,
-8.22541e-02,
4.28508e-01,
2.05820e-01,
-2.76581e-01,
5.66144e-02,
3.30780e-01,
-6.34764e-02,
3.99841e-01,
2.63983e-01,
-5.18535e-02,-3.76780e-01,5.06006e-01,1.13879e+00,1.17268e-01,-2.32353e-01,4.80714e-01,-1.49774e-01,-4.79669e-02,4.38264e-01,3.29302e+00,-4.19758e-01,-2.97799e-02,7.72331e-02,1.62280e-01,-1.61492e+00,-7.08408e-01,-3.01943e-01,-4.28745e-01,-1.76022e-01,-4.67833e-03,-1.09051e-01,1.69519e-01,1.56670e-01,-5.42339e-03,
3.47657e-01,-4.03857e-01,-4.52939e-01,-1.20120e+00,-3.07072e-01,-1.00515e+00,-1.04209e+00,-1.00214e+00,4.94379e-01,1.41381e-01,4.11029e-02,8.39607e-01,1.89040e-01,-2.02750e-01,2.98514e-01,-3.16111e-01,-1.46887e-01,5.41913e-01,3.62478e-01,-2.77368e-01,4.00750e-01,-7.33835e-01,-2.54518e-01,-1.26387e-02,1.16960e+00,
-9.44944e-02,3.15311e-01,-3.78483e-02,-2.30840e-01,5.96973e-01,-3.98478e-01,-5.06042e-02,1.07932e+00,2.44382e-01,1.49720e-01,-1.04140e+00,3.09984e-01,-3.42399e-01,-2.51029e-02,2.03430e-01,1.03813e+00,8.43623e-02,3.53372e-01,-1.82704e-01,-9.61714e-02,-1.87692e-01,8.29989e-01,-2.48822e-01,-9.64820e-01,-1.45342e+00,
1.99342e-01,-2.92788e-01,2.19479e-01,-8.45718e-02,-1.66985e-01,3.03592e-01,1.82796e-01,-1.72699e-01,4.37277e-02,-2.94964e-01,1.83456e-01,1.52022e-02,2.23026e-01,-1.60966e-01,-1.27436e-01,-2.30299e-01,-2.94271e-01,-2.65740e-01,1.12536e-01,1.07933e-01,1.74435e-01,2.42868e-01,-2.97858e-01,7.28170e-02,-1.06708e-01,
-1.38856e-01,-4.65147e-02,1.03797e+00,1.65427e-01,2.28144e-01,-4.17150e-01,1.88247e-01,3.39673e-01,1.67114e-01,9.51505e-02,-1.17579e+00,-4.63683e-01,-3.23046e-01,-2.59054e-01,-4.07046e-01,9.12178e-01,1.65862e-01,2.76679e-01,-4.25300e-01,-5.14108e-01,1.22758e-01,4.33806e-01,2.90471e-01,-3.25414e-01,8.71427e-01,
-4.37468e-01,2.30223e-01,-7.10456e-01,1.36409e-01,-2.13994e-02,-1.04614e-01,3.62702e-01,-1.92222e+00,8.13772e-01,-6.50262e-01,1.30559e+00,-3.10112e-01,-2.10731e-01,-7.21969e-02,-5.60138e-01,1.80774e-01,-3.77645e-01,6.60785e-03,3.08440e-01,3.37912e-01,1.48945e-01,-5.93805e-02,1.06074e-01,-3.55983e-01,2.01426e+00,
-2.29012e-01,1.04402e-01,3.57170e-01,1.22609e+00,4.72894e-01,6.88213e-01,8.54194e-01,-2.98584e-01,9.80041e-03,5.12476e-02,1.56711e-01,-2.71599e-01,1.62659e+00,2.48241e-01,-3.80355e-01,4.98674e-01,1.27590e+00,-2.33734e-01,-7.19041e-01,-1.47714e-01,-3.59977e-01,-9.26745e-01,-7.61368e-02,-9.52142e-01,1.32909e-01,
-8.89867e-01,1.13949e+00,-5.19857e-01,-6.49473e-01,-2.91308e-01,-2.96344e-01,3.25181e-01,-1.33125e-01,-8.79412e-01,9.58026e-01,3.03382e-01,-5.49801e-01,3.80263e-01,-1.17982e+00,-8.27846e-01,-1.76338e-01,5.29874e-02,-1.11983e+00,2.79747e-01,5.35157e-01,3.78672e-01,2.53302e-01,3.82316e-02,8.87941e-01,-3.57667e-01,
-8.91901e-01,5.93051e-02,-9.41690e-01,4.20023e-01,-8.61098e-01,-2.82712e-01,-3.13477e-01,4.62933e-01,1.64155e-02,2.85030e-01,2.30454e+00,4.95032e-01,1.08830e+00,-8.14413e-01,-2.21611e-01,-6.01228e-01,2.94175e-01,2.21310e-02,7.83715e-01,-1.20918e-01,9.84298e-02,-2.03092e+00,-1.97147e-01,6.73067e-01,9.49730e-01,
-1.51213e-01,-2.81023e-01,2.67480e-01,-9.61177e-02,-6.33566e-02,5.65657e-02,5.71403e-02,-1.26653e-01,2.46337e-01,-2.82512e-01,-2.07048e-01,2.61381e-03,2.84788e-01,-3.26766e-01,2.43109e-01,-9.96962e-02,1.40968e-01,-3.38529e-01,6.98785e-02,-4.77562e-02,-2.44550e-01,5.18396e-02,-2.14064e-01,9.96131e-02,-4.52422e-02,
3.80598e-01,-1.07315e-01,-2.48748e-02,3.50470e-01,7.70745e-01,-1.26817e-01,-6.40841e-01,-7.71006e-01,7.31777e-02,1.96234e+00,2.13870e-01,-4.87938e-01,-5.88490e-01,-1.28715e-02,1.09178e-01,-3.36035e-01,-1.57056e+00,-7.07158e-01,9.11350e-01,8.59475e-01,6.19496e-01,-1.09550e-01,4.26616e-01,3.53842e-02,4.95224e-01,
9.50944e-01,-5.36396e-01,-1.71557e-01,1.56211e-01,-3.89214e-01,-9.77315e-01,7.30080e-01,-1.34690e+00,6.84158e-01,3.50630e-01,-1.69787e-01,-1.57052e-01,4.91570e-02,5.40035e-01,6.83621e-01,4.61948e-01,-3.97662e-02,2.82311e-01,5.07187e-02,5.85020e-02,-5.63207e-01,-3.70851e-01,-5.79620e-03,-4.39360e-01,-9.31319e-02,
-2.70020e-02,-7.74021e-02,-4.66170e-02,-2.01076e-01,-5.56702e-01,2.72016e-04,-8.37512e-02,-4.13285e-01,1.96231e-02,3.95023e-02,3.91069e-01,1.87672e-01,6.46005e-02,-8.96781e-01,-8.82854e-01,3.77934e-01,-1.95506e-01,2.83993e-01,-2.31456e-01,7.95063e-02,5.50733e-01,-3.32559e-01,8.26391e-02,8.57318e-01,-9.39070e-01,
2.19203e-03,-9.94017e-02,-4.59219e-01,1.81978e-01,-4.13133e-01,1.72535e-01,2.79706e-01,2.54284e+00,-3.10241e-01,-7.91900e-02,-7.85768e-02,-2.60536e-01,-8.83027e-02,-1.35639e+00,1.71971e+00,1.37869e-01,1.49627e-02,-1.59934e-01,-6.23485e-01,-3.67669e-02,4.27533e-02,4.64692e-01,2.41003e-01,1.09941e-01,-1.99018e+00,
5.46232e-01,-2.25781e-01,-1.03454e+00,-3.85618e-01,-5.87910e-01,-1.46140e-01,-3.58724e-01,2.16804e-02,3.14655e-01,-4.37885e-01,1.50875e+00,-1.99572e-01,3.32218e-01,-9.23023e-02,3.96332e-01,4.28963e-01,2.62208e-01,1.27242e-01,-5.18883e-01,7.23391e-01,1.80659e-01,-1.77890e-01,-1.02127e-02,7.62429e-02,-2.94560e-01,
1.38084e-01,-6.44116e-01,-8.88953e-01,5.97909e-02,2.40592e-01,1.01059e+00,5.10723e-01,-9.82107e-01,2.90494e-01,3.59795e-01,-3.24116e-01,-6.51879e-01,-7.24856e-02,8.68810e-02,4.86238e-01,8.45473e-01,2.10218e-01,-1.27439e+00,1.52598e-02,-2.40517e-02,3.03025e-01,-1.42233e-01,2.24579e-01,2.33742e-01,9.85484e-03,
1.54342e-01,-1.98168e-01,1.11951e-01,-1.24750e+00,4.19827e-01,-1.24380e-01,1.64948e-01,6.62522e-01,2.07359e-01,-2.29834e-01,3.70964e-01,5.00863e-01,-1.09270e-01,1.58874e+00,-3.19495e-01,-4.92357e-01,-1.22591e+00,-4.77804e-01,-3.66544e-01,-1.82481e-01,2.05871e-01,2.06367e-01,-2.65077e-01,1.43891e+00,7.88362e-01,
1.96387e-01,-5.40297e-02,-1.06546e+00,-2.67409e-02,2.17362e-01,3.92519e-01,-3.78075e-01,-8.01365e-01,6.92648e-01,2.10467e-01,4.06681e-01,-3.91835e-01,4.98231e-01,1.72354e-01,-7.63233e-01,7.65327e-01,1.11275e-01,-1.03535e+00,-9.13902e-01,-1.11607e-01,4.20801e-01,-7.88463e-01,8.26810e-01,4.73092e-01,1.27464e+00,
-3.48992e-01,2.52991e-01,1.08321e-01,1.78478e-01,2.70999e-01,-1.70694e-01,-7.17311e-02,-1.71481e-01,-3.11888e-02,2.39018e-02,-1.62859e-01,2.03428e-01,-7.48152e-02,-9.07681e-02,2.43435e-01,1.06043e-01,-3.47359e-01,7.56131e-02,-3.21470e-01,8.79814e-02,1.36358e-01,-2.24439e-01,8.56139e-02,-8.77971e-02,-2.20652e-01,
2.31047e-01,1.46853e-01,9.11134e-01,3.86185e-01,2.41893e-01,-5.79841e-01,-1.29050e-03,-6.58002e-01,-3.08386e-01,2.05237e-01,-5.96298e-01,-3.42870e-01,-1.98593e-02,-1.96932e-01,7.23649e-01,5.45859e-01,2.07761e-01,-2.47162e-01,-1.78703e-01,6.10596e-01,2.91844e-01,-3.35071e-01,7.90441e-01,-6.82876e-02,2.47151e-02,
-1.70865e-01,-1.46517e+00,1.07129e-01,-1.15409e+00,-4.51060e-01,2.52813e-01,-1.68639e-01,-1.28251e+00,4.60312e-01,9.28409e-01,4.06336e-01,-3.05460e-01,-4.84756e-02,1.57748e-03,6.38789e-02,-1.01771e+00,-2.50861e-01,-5.07929e-01,2.53232e-01,1.50786e+00,1.24584e+00,-6.50273e-02,1.54840e+00,6.53628e-01,9.10495e-01,
2.02723e-02,-4.39070e-01,8.94253e-04,6.03804e-01,-2.76205e-01,6.45890e-05,-1.71078e-01,4.69393e-01,-2.37506e-01,-8.44425e-01,-4.49173e-01,-9.27593e-01,-9.30147e-01,-7.44361e-01,6.34493e-01,3.48603e-01,9.24002e-01,1.11298e+00,4.89740e-01,3.99762e-01,6.90152e-01,-6.81600e-01,4.53533e-01,-6.39115e-01,-3.29269e-01,
5.71174e-01,-5.12104e-01,5.50983e-01,7.58890e-01,3.23955e-01,2.92311e-01,3.42386e-01,-6.67432e-01,8.65559e-01,-7.99727e-03,-2.88707e-01,-7.83121e-01,-2.00200e-01,-1.02277e+00,4.21764e-01,1.05038e-01,-3.23055e-02,2.52571e-01,6.87045e-01,7.21898e-03,-4.22999e-01,-5.68409e-01,3.28793e-01,3.59598e-01,1.11570e-01,
5.82799e-01,-7.91971e-01,3.38530e-01,7.06238e-01,9.09886e-01,-5.11068e-02,-1.32717e+00,-1.51266e+00,-3.52624e-02,1.69634e+00,-5.06131e-01,-1.38982e+00,-9.67868e-01,8.04770e-02,-6.43489e-01,-2.31463e-01,1.77076e+00,-4.35235e-01,-8.63226e-02,7.27807e-01,3.24056e-01,-7.97366e-02,6.07918e-01,-4.19587e-01,1.33345e+00,
9.14682e-01,-4.95182e-01,-1.17792e-01,-4.02631e-02,7.82893e-01,-1.20719e+00,-7.40276e-01,-9.88318e-01,-1.29278e-02,-2.21275e-01,4.87576e-01,-6.39078e-01,-4.14087e-01,1.58887e+00,1.27523e+00,6.46938e-01,6.52571e-01,5.94029e-01,-6.22493e-01,3.91248e-01,-1.00402e-01,1.53816e-01,-2.76889e-03,1.50881e-01,-2.08211e-01,
-4.53867e-01,
6.03677e-01,
-3.77742e-01,
-3.12045e-01,
-1.24044e-01,
2.09375e-01,
-8.85865e-02,
3.83771e-01,
-3.01389e-01,
-3.17233e-01,
-3.98531e-01,
-1.50049e-02,
4.65910e-01,
9.58327e-02,
2.28475e-01,
3.53303e-01,
3.64341e-01,
-1.39035e-01,
-3.64873e-01,
2.01520e-01,
-5.77704e-02,
4.51986e-01,
1.12623e-01,
-5.62504e-01,
-1.63150e-01,
8.72969e-01,-7.83259e-01,-5.21185e-01,2.22350e-02,-2.03323e-01,1.09384e+00,5.45294e-01,-3.94236e-01,-6.07971e-01,-3.29452e-02,3.65457e-01,7.78991e-01,3.18205e-01,-1.25403e+00,-3.17680e-01,-2.13266e-01,-1.48913e+00,-1.28045e+00,-1.25361e-01,1.05006e-01,-9.76221e-01,2.22178e-01,-1.59988e-01,-1.70731e-01,-2.11881e-01,
2.83321e-01,9.22609e-01,7.10209e-01,1.82518e-01,-1.06604e+00,-2.22929e-01,6.13967e-02,-1.42047e-02,1.04217e+00,-1.60329e-01,-1.00454e+00,-3.11283e-01,-2.47100e-01,1.77356e+00,4.17346e-01,-1.03545e+00,-1.44211e-01,2.00120e-01,-1.68576e-01,2.50368e-01,-9.05572e-01,-4.13047e-02,4.17232e-01,2.82532e+00,-3.94543e-01,
6.63009e-02,-6.17537e-02,4.34153e-02,1.98431e-01,1.01628e-01,4.88475e-01,-4.05917e-01,-5.79598e-01,-6.13231e-01,-2.32169e-01,-5.69538e-02,-3.47443e-01,-9.35142e-04,9.48050e-02,-3.44097e-02,5.15462e-01,1.36013e-01,-1.84130e-01,-5.14794e-02,2.44981e-01,-1.88352e-01,1.63305e-01,-3.40321e-02,-4.12950e-01,1.29905e-01,
-6.43098e-01,-2.58292e-01,6.73601e-02,6.30959e-03,-4.94562e-01,1.84332e-01,-3.53158e-01,-8.91717e-01,9.67477e-02,1.57486e-02,-3.90568e-01,-5.84978e-01,-9.45462e-02,-4.48311e-01,8.31804e-02,2.76690e-01,3.26400e-01,-3.23348e-02,-1.48659e-01,9.95483e-01,2.13547e-01,-8.87762e-02,-3.38575e-02,-3.65376e-02,2.02205e-01,
-1.90594e-02,-9.94917e-02,2.86590e-01,6.35474e-02,1.20582e-01,-2.02718e-01,-3.14781e-01,-2.15062e-01,1.17405e-01,2.17421e-01,-1.44944e-01,4.69989e-02,1.47255e-01,-2.83805e-01,-1.95119e-01,2.86285e-01,6.02421e-03,-3.46676e-01,2.04801e-01,-2.77320e-01,2.57114e-01,-7.10158e-03,-2.97669e-01,2.31940e-01,-1.61602e-01,
9.99903e-02,1.19869e-01,2.05815e-01,2.00656e-01,-4.92968e-02,-1.17162e-01,1.31089e-01,1.17630e+00,5.43130e-02,7.41986e-02,4.16933e-02,9.89314e-02,2.98708e-01,7.85769e-01,6.93481e-01,-5.27990e-01,-3.33842e-01,7.56267e-01,2.78998e-01,8.07039e-01,-7.20053e-01,5.46251e-01,-2.38806e-01,8.49988e-02,-9.34228e-01,
3.43622e+00,1.06754e-02,6.43265e-01,5.25554e-02,-4.45277e-01,3.26817e-01,7.17787e-02,7.26770e-01,5.26910e-01,-3.25753e-01,6.29995e-02,4.14298e-01,2.71362e-01,-3.66861e-01,-4.37188e-01,-5.14563e-01,-3.79077e-02,-3.38172e-01,1.99225e-01,3.81377e-01,-2.83296e-01,6.02022e-02,-6.84454e-01,-4.06850e+00,-4.42852e-01,
-1.53939e+00,-2.48635e-01,8.94420e-02,3.19999e-01,-3.53366e-01,4.56604e-01,-4.78360e-01,-3.62503e-01,7.97785e-01,7.62127e-02,-5.29777e-01,-3.64245e-01,2.22164e-01,7.70204e-01,-1.26767e-01,5.45175e-01,3.98963e-01,-3.17983e-01,2.57597e-01,7.29797e-02,-3.97692e-01,-7.58887e-02,1.52525e-01,1.25312e-01,-8.33332e-02,
2.58909e+00,6.16115e-01,5.89081e-01,3.92593e-02,7.75687e-01,2.75844e-01,1.13831e+00,-1.09753e+00,-2.79363e+00,-2.26501e-01,-1.37729e+00,4.67818e-01,4.56800e-01,-1.24281e+00,-3.28830e-01,3.77792e-01,7.47743e-02,-8.71376e-01,7.02342e-02,1.76265e-01,3.18765e-01,7.20969e-01,-3.18914e-01,1.06576e+00,-9.40486e-01,
-4.77181e-01,-2.73973e-01,7.02869e-02,-1.22921e-01,-7.59295e-02,2.45785e-01,9.07405e-03,8.16475e-02,2.35700e-01,-3.38811e-03,3.81454e-01,1.19216e-01,6.18105e-02,-4.09452e-01,4.37077e-01,-4.43800e-02,2.43932e-01,1.11548e-01,8.27583e-02,6.32385e-01,-3.05648e-02,4.72432e-01,-4.84090e-01,-3.16177e-01,-2.62577e-01,
2.05331e-01,6.25160e-01,3.31089e-01,-2.61381e-01,-6.21718e-01,-3.77088e-01,7.80178e-01,-2.03384e+00,4.57033e-01,7.26393e-02,-1.87552e-01,1.07292e-01,2.49352e-01,-1.19170e+00,2.68648e-01,8.05341e-01,3.37915e-01,-3.36877e-01,-1.45977e-01,6.27568e-01,-1.48687e-01,-7.84256e-01,-5.94083e-01,4.92792e-01,-6.21678e-01,
2.56877e+00,-6.07218e-01,-7.04466e+00,-2.91438e-01,-1.79235e+00,1.78473e-01,-1.80896e-01,4.60215e-01,6.36533e-01,-2.41288e-01,-3.08880e-02,1.56026e+00,-2.83048e-01,1.10485e-01,-1.00332e+00,-6.38124e-01,5.36021e-01,6.65431e-01,-1.86969e-01,-2.78244e-02,1.80041e-01,9.55684e-02,3.84182e-01,-5.21684e-01,1.85802e-01,
-2.24957e+00,-2.43485e-01,4.91092e-01,1.26719e-01,6.62960e-02,6.71599e-01,3.35641e-01,8.99510e-01,6.60896e-02,-2.11590e-01,-1.06147e+00,4.19851e-01,1.92259e-01,-1.08284e+00,-6.54442e-01,2.40798e-01,2.37734e-01,-4.79853e-01,-3.42323e-01,1.00794e-01,-3.02106e-01,7.66813e-01,-3.27833e-01,6.19971e-01,-6.22288e-01,
-8.83326e-02,-5.73082e-02,9.03299e-01,-2.94251e-02,-5.21318e-01,-1.75834e-02,3.53931e-01,4.71767e-01,1.80665e-01,-5.71905e-02,1.67755e-01,-5.57627e-02,-4.67001e-01,3.57449e-01,-1.48924e-01,-9.61182e-02,-2.02010e-01,-1.27925e-02,-6.40518e-02,-2.56195e-01,-3.99547e-02,5.84450e-01,1.97276e-01,-1.30117e-01,2.64271e-01,
-4.70999e-01,2.86533e-01,-4.71992e-01,5.68050e-02,-3.13197e-01,4.93158e-01,-3.48405e-02,6.96352e-02,-1.67334e-01,-1.84545e-01,-2.77880e-01,-2.04961e-01,-4.53698e-01,-1.57284e-01,-1.79916e-01,-4.55684e-02,2.51156e-01,-9.55114e-02,-2.78953e-01,1.05541e-01,-2.56330e-01,2.87659e-01,2.19725e-01,-1.23851e-01,1.24698e-01,
-2.84554e-01,-1.19299e-01,2.31417e-01,2.42104e-01,-3.06059e-01,-1.23728e-01,-3.45660e-01,-2.27404e-01,7.50161e-02,3.18034e-01,-3.19714e-01,1.57391e-01,-1.36908e-01,-3.42462e-01,-5.80758e-02,1.49526e-01,1.33242e-01,9.25633e-02,-1.76702e-01,-2.39637e-01,-1.48343e-02,-2.22903e-02,1.49673e-01,-2.16515e-01,1.06864e-01,
3.05471e+00,-9.43799e-01,-3.99172e-01,-3.27211e-02,-1.50925e-01,1.31288e+00,9.05926e-01,-5.42188e-01,-3.45356e+00,3.31466e-01,-1.94938e+00,4.46481e-01,-5.54411e-01,-1.64233e-01,7.03194e-01,1.13708e-01,-4.06830e+00,-2.57404e-01,2.73979e-01,1.61198e+00,-4.49515e-01,-2.00649e+00,-2.11676e+00,2.18568e+00,1.54673e-01,
4.08512e-01,-4.28509e-01,4.16281e-01,1.20746e-01,-1.37407e-01,-1.27419e+00,-1.07785e-01,2.57243e-01,-4.10183e-01,-2.64051e-02,-1.66182e+00,-9.21889e-02,6.65076e-01,-1.98095e+00,1.14456e+00,-4.81745e-01,6.00040e-02,-3.53278e-01,-3.32124e-01,4.76098e-01,-1.22360e+00,-1.02680e+00,2.67092e-01,3.25888e-01,-2.73794e-01,
-6.27756e-01,5.57177e-02,4.41061e-01,1.76595e-01,8.86976e-03,-1.41128e-01,2.27333e-01,-4.41340e-01,7.90067e-01,-3.68918e-01,-2.33786e-02,4.73983e-01,2.20455e-01,-3.92113e-01,9.58047e-02,-4.43592e-01,2.53889e-01,9.47680e-04,-1.23708e-01,3.94551e-02,2.02364e-01,2.75124e-01,2.42140e-01,2.74359e-01,-1.40832e-01,
9.73219e-02,-7.66149e-02,-5.71254e-02,2.41798e-01,1.59108e-02,1.49140e-01,-2.83539e-01,7.09972e-02,1.30392e-01,-1.00307e-01,1.56394e-01,-2.06331e-01,1.38736e-01,-5.59785e-02,-1.14595e-02,-7.38583e-02,-7.32182e-02,-1.93967e-01,-3.24557e-01,-2.75460e-01,2.68530e-01,-2.96815e-01,-2.63161e-02,6.33428e-03,5.77013e-02,
-1.53867e-01,-1.84981e-01,2.51355e-02,1.72364e-01,4.83272e-02,2.81941e-01,-4.55698e-01,-1.05401e+00,-5.07923e-01,-3.43413e-01,3.03068e-01,-8.10512e-01,-2.17308e-01,4.04262e-01,7.01443e-02,5.26448e-01,-2.15797e-01,4.51994e-02,-1.45006e-01,-3.22812e-01,1.13988e-01,-2.18719e-02,4.88498e-01,-5.77456e-01,7.41569e-01,
1.74050e-01,-3.45487e-01,-7.16494e-01,1.79300e-01,7.55164e-02,4.17335e-02,6.35838e-02,2.05975e-02,-1.15716e-01,1.14032e-01,-7.87444e-01,1.42607e-02,-1.61638e-02,-1.91985e-01,6.39365e-01,-4.85905e-01,1.75822e-01,-1.91823e-01,2.25616e-01,1.70500e-01,-1.76022e-01,-4.12144e-01,-2.94656e-01,8.95031e-01,-2.40755e-01,
4.39067e-01,3.67437e-02,-1.70514e+00,2.26767e-01,5.05015e-02,1.41903e-01,-4.31757e-02,-1.43961e+01,2.77677e-01,3.42792e-01,-6.16523e-01,-5.41042e-01,-1.14051e+01,7.09163e-01,2.66744e-01,-1.68373e-01,-1.95998e-01,-6.28329e-03,2.63263e-01,3.54970e-01,1.70939e-02,-2.25779e-01,1.69310e-01,5.64182e-02,8.76690e-02,
6.49302e-02,1.39789e-01,-2.49440e-01,-3.44122e-01,-2.45917e-01,-3.09812e-01,1.31416e-01,1.57330e-01,2.30554e-02,7.56341e-02,2.73641e-01,6.90867e-02,-2.78475e-01,-2.30879e-01,4.22475e-02,-1.78741e-01,-2.95087e-02,7.91936e-02,-2.86804e-01,-3.25551e-01,1.45390e-01,-5.46182e-02,2.28440e-01,-2.13574e-01,-2.37005e-01,
2.73099e+00,1.22999e-01,7.09502e-02,1.55378e-01,1.60016e-01,-5.04191e-02,4.21659e-02,6.25244e-01,1.15831e-01,2.57760e-01,-1.74191e-01,7.40422e-01,2.51172e-01,1.36583e-01,-1.08150e-01,-7.22175e-01,5.10733e-01,-6.95533e-01,2.33348e-01,3.86171e-01,-7.80113e-01,-6.27290e-01,-4.78695e-01,-3.19110e+00,-1.00156e+00,
-6.33209e-01,
2.65430e-02,
1.27399e-01,
1.29628e-01,
-3.16868e-01,
-4.81983e-02,
4.06416e-01,
1.30151e-01,
-1.27009e+00,
3.29666e-02,
4.45178e-02,
-1.50431e+00,
1.97002e-01,
5.33289e-01,
7.50211e-01,
-1.85729e-01,
-1.20427e+00,
-7.09337e-01,
-3.72967e-02,
-3.99651e-01,
9.24006e-02,
1.03890e+00,
3.78099e-01,
-2.29362e-01,
-1.06181e-01,
1.83158e+00,-5.89609e-02,3.02648e-01,4.65631e-01,-1.74550e-01,9.13407e-02,-2.64172e-01,2.36214e-01,-7.78898e-01,-6.74821e-01,6.50494e-01,3.39774e-02,-1.18879e+00,2.36293e-01,-3.21169e-01,-5.75135e-02,2.39051e-01,-9.57829e-01,-8.20414e-01,4.54262e-02,-5.65999e-01,-8.10348e-01,-9.94468e+00,-3.19040e-03,-1.66413e+00,
1.88474e-01,-9.07676e-01,3.95626e-01,-6.23939e-01,-2.45962e-01,-1.29338e-02,2.04730e-01,-4.47991e-01,-1.76714e-01,3.64901e-01,-6.54833e-02,-2.21037e+00,-1.20396e-01,2.59996e-01,-6.66977e-01,7.20739e-02,2.65518e-01,-4.61580e-01,-5.92081e-02,2.52434e-01,9.22985e-01,1.22662e+00,-8.36902e-01,1.04458e-01,-6.58341e-01,
6.77002e-01,-9.79502e-01,2.48939e-01,6.45073e-01,-8.84509e-02,-4.43353e-02,9.91952e-02,3.48932e-01,-9.09241e-01,2.42270e-02,1.30404e-01,4.11806e-01,-2.00010e-01,1.97766e-01,-8.07380e-01,-1.49192e-01,-3.83916e-01,-3.27787e-01,2.51194e-01,2.58344e-02,-6.08302e-01,1.14198e+00,2.57464e-01,1.25914e-02,8.34699e-02,
2.13006e-01,9.77414e-02,-2.41578e-01,-1.58777e-01,2.56476e-02,-3.67400e-02,-6.58181e-01,-2.49805e-01,-4.31520e-02,4.83395e-01,2.08203e-01,-1.10430e+00,-5.87932e-01,-1.84802e-01,-1.60892e-01,6.93986e-02,1.13772e+00,-3.26163e-01,7.63003e-02,1.79977e-01,5.26337e-01,-1.41611e-01,-7.97353e-01,1.39181e-01,-1.34152e+01,
7.58504e-01,2.38027e-01,-5.17911e-01,-4.03187e-03,-2.06140e-01,-6.11872e-01,-4.69801e-01,-2.59942e-01,2.03740e-01,-1.33208e-01,8.01923e-02,-3.86181e-01,-4.00954e-01,1.21491e-01,2.11526e-01,-1.96024e-01,1.29238e+00,2.44574e-01,3.46281e-01,-1.10815e-01,8.20390e-01,-5.44625e-02,2.96884e-02,2.22494e-01,1.17729e+00,
3.24031e-01,-1.09415e-01,2.05958e-01,-1.86121e-01,-1.24094e-01,6.97791e-02,-1.83664e-01,-5.87018e-02,2.68476e-01,2.13451e-02,8.31033e-02,4.56927e-01,-2.24029e-01,7.97306e-02,9.06955e-02,2.31747e-01,-3.21482e-01,-2.10109e-01,2.69922e-01,1.41629e-01,-2.23622e-04,2.60703e-01,1.15162e+00,-2.54391e-01,3.99914e-01,
-4.02923e-02,-2.48407e-01,3.69971e-02,-2.28648e-01,2.40435e-01,-1.55515e-01,2.11212e-01,1.66416e-01,3.25166e-01,-2.73743e-01,2.90690e-01,-2.21641e-01,-2.75641e-01,2.41732e-01,4.70239e-02,2.27684e-01,-4.23372e-02,2.32096e-01,-2.87482e-01,3.68922e-02,-1.39279e-01,1.79877e-01,-2.02324e-01,-1.89286e-02,-8.23707e-02,
3.65607e-02,-4.42269e-02,1.82871e-01,3.46353e-01,9.27556e-02,3.61500e-02,-7.59056e-01,2.47471e-02,-8.73197e-04,-1.27637e-01,-2.10919e-01,2.72736e-01,-4.18502e-01,1.61311e-02,4.17158e-01,5.98512e-02,7.97892e-01,3.04667e-01,3.14886e-01,-2.01365e-01,-3.54636e-01,-4.30691e-01,5.30092e-01,2.33674e-01,2.26531e-01,
-9.26978e-02,1.13551e+00,3.63768e-01,-1.20223e-01,5.87411e-02,1.66174e-01,-7.34313e-01,-6.55372e-01,3.16735e-01,-1.04467e-01,6.49928e-02,2.96521e+00,-1.52437e-01,2.06800e-01,-2.76655e-01,-2.23946e-01,2.74569e-01,-8.39084e-01,-5.43187e-01,3.05505e-01,-1.99937e-01,2.71969e-01,-1.16080e-01,1.79027e-01,8.67081e-01,
9.47157e-01,-1.85098e-01,-2.46140e-01,1.30679e-01,1.07932e-01,2.00783e-01,2.87051e-01,2.88773e-01,2.63491e-01,-1.84035e-01,1.86163e-01,2.42778e+00,-3.27475e-01,-5.44024e-02,-2.49386e-02,-2.58149e-01,1.67932e+00,1.21151e-01,-1.90572e-01,-3.34165e-01,2.53723e-01,-6.45344e-02,-5.90070e-02,2.78461e-01,-3.42751e-01,
-3.60447e-01,3.28170e-01,1.74776e-01,9.23284e-02,1.19563e-01,1.06496e-01,-5.01110e-01,-8.81468e-02,2.52576e-02,1.18646e-01,-1.14607e-01,-9.86380e-02,-3.32191e-01,2.86708e-02,1.50306e-01,3.06191e-01,9.10903e-01,-5.27620e-01,4.70465e-01,-1.67624e-01,4.32427e-01,-1.45006e-01,-8.35075e-03,1.64472e-01,6.91512e-01,
-1.36546e+00,-1.30683e+00,6.58319e-01,-4.57284e-01,1.37644e-01,-4.13755e-02,-4.51433e-01,-2.41205e-01,-6.06987e-01,2.62518e-01,-1.21379e-01,1.46055e-01,7.66572e-01,-6.54282e-01,-1.57012e-01,-7.54726e-02,1.03264e+00,3.39133e-01,7.92792e-02,-6.44136e-02,-5.02819e-01,1.87347e-01,-3.16841e-01,4.04485e-02,-3.16563e-01,
-3.09568e+00,-1.13416e-01,-4.01968e-01,6.02739e-01,-1.46483e-01,-1.37748e-01,-1.21288e-01,-3.73181e-01,2.67289e-02,2.93097e-01,-2.10831e-01,1.23243e+00,1.31918e-01,-2.25297e-01,-7.41940e-02,2.27325e-01,4.75653e-01,-1.46569e-02,3.70822e-03,1.33318e-01,3.99129e-01,-8.43225e-02,6.56811e-04,-6.33525e-02,-1.85712e+00,
1.60383e+00,-1.48835e-02,5.90478e-02,-3.77015e-02,-1.16107e-01,6.61132e-01,3.82563e-01,1.53596e-01,2.52218e-01,2.51206e-01,4.36010e-01,-2.20013e-01,-2.87117e-01,-1.67306e-01,1.22920e-01,6.79684e-02,6.39681e-02,-1.69552e-01,-9.63274e-02,7.30537e-02,-2.91291e-01,-2.91745e-01,-9.31312e-02,1.94065e-01,-9.44120e-01,
-1.42941e-01,7.85566e-01,5.53488e-01,-8.39345e-02,2.79384e-01,4.48313e-01,-6.63287e-01,3.75502e-01,-8.95131e-02,-8.67752e-02,-6.53712e-02,-3.02330e+00,-1.20730e-01,5.90768e-01,-2.20501e+00,2.75373e-01,3.53468e-01,8.30893e-01,7.20765e-01,5.07803e-02,1.27443e-01,-5.65699e-01,-5.88742e+00,-1.23209e-01,-1.67731e+01,
-6.75957e-01,3.51666e-01,5.45570e-01,-1.42747e-01,1.27120e-01,1.03582e-01,-7.19409e-01,-3.90724e-01,-8.20668e-01,2.96316e-03,-9.72324e-02,-7.21008e-01,7.99528e-01,1.30033e-01,-1.32845e-01,4.28931e-02,2.27301e+00,-3.40591e-01,5.71643e-01,4.18462e-02,2.15896e-01,1.32566e-02,-7.99654e-02,-3.33355e-02,-8.51762e-02,
9.63109e-01,-1.21442e-01,1.79049e-01,5.55466e-01,-1.07185e-02,3.79121e-01,-4.09216e-01,-9.45686e-02,4.19470e-03,4.72529e-01,-4.83985e-03,2.03890e+00,-8.75189e-02,-8.79127e-03,1.72322e-01,-2.97091e-01,7.19750e-01,-1.66943e-01,1.05612e-01,3.13258e-01,-8.82441e-02,-1.04551e-01,9.32305e-01,5.20075e-02,8.79562e-02,
9.23660e-02,-7.71850e-02,-6.77980e-02,1.77855e-01,1.60924e-01,-1.27232e-01,-2.36187e-01,5.16257e-03,-2.37478e-01,-2.01342e-01,6.14217e-03,2.27542e-01,3.34286e-01,-7.88659e-04,5.85544e-03,3.36317e-01,-2.13444e-01,-1.02965e-02,-2.47934e-01,-3.02340e-01,-8.23208e-02,-1.21594e-01,-1.96186e-01,-3.40414e-01,2.36901e-01,
-4.24265e-01,-1.71056e-01,-6.27894e-01,-5.72959e-02,-3.39722e-01,7.41231e-01,-7.75530e-01,1.00680e+00,-1.58034e-01,5.42957e-01,4.97366e-01,-8.06799e+00,-1.14839e+00,-3.55421e-01,-5.52039e-01,2.99224e-01,5.84788e-01,-2.12811e+00,-8.00287e-02,-1.37258e-01,1.26007e-01,-5.13589e-01,1.39425e+00,7.58187e-02,-3.20328e+00,
1.96066e-01,-3.03443e-01,-4.06841e-01,1.75506e-02,1.13529e-01,-3.61071e-02,2.54418e-01,2.62666e-01,-1.54482e-01,9.37623e-02,-2.44095e-02,-1.09057e+00,2.02299e-01,1.80440e-02,1.56163e-01,5.25517e-02,-1.28201e+00,1.45917e-01,2.34243e-01,2.86065e-01,2.40472e-01,-6.88078e-02,1.45228e-01,8.38060e-03,-3.49401e-01,
9.49737e-01,-1.64681e-01,3.50733e-01,-4.13745e-01,1.46137e-02,3.60658e-01,1.80435e-01,2.86068e-01,-1.49604e-01,-5.46695e-01,3.33028e-01,-3.16873e-01,2.35183e-01,1.26180e-01,5.71972e-02,6.27407e-02,-5.36692e-01,-2.33226e-02,2.63491e-02,-4.09868e-02,-3.07982e-01,1.63914e-01,1.30659e-01,-2.47422e-01,-4.40898e-01,
2.10200e-01,-5.63538e-01,3.32789e-01,-2.73889e-01,2.27796e-01,5.53587e-01,-3.61904e-01,4.16220e-01,-1.60871e-01,-2.08291e-01,-2.80305e-02,5.92243e-01,-3.57269e-01,4.51354e-01,2.88415e-01,-1.95735e-01,1.37504e-01,-1.24170e-01,3.18683e-01,-1.22092e-01,-5.60180e-01,-3.02238e-01,1.36846e+00,-3.46989e-01,3.10221e-01,
8.04162e-01,-3.47043e-02,-7.40940e-01,-9.36396e-02,-1.44342e-01,1.06005e+00,6.95750e-03,-1.25282e-01,3.71895e-01,-2.18942e-01,2.89534e-01,-1.03290e+00,-2.73140e-03,-8.06129e-01,-1.71054e-01,1.75747e-01,7.66218e-02,-3.55026e-01,2.75205e-01,4.77530e-02,-1.60036e-01,-3.75082e-02,5.48525e-01,-2.12659e-01,-7.36336e-01,
9.02305e-01,-4.09890e-01,-5.43850e-01,-4.02398e-01,-6.13517e-03,4.93948e-01,1.67552e-01,3.05619e-01,1.62003e-01,-4.69550e-01,2.27277e-04,-4.22017e-01,-3.85016e-01,-1.90758e-01,-3.83485e-01,-1.02577e-01,4.32090e-02,7.89269e-02,6.51473e-01,2.72658e-01,1.89188e-01,1.59168e-01,-2.62219e+00,-2.66638e-01,-2.46631e-02,
9.89986e-02,2.44142e-01,-8.14565e-02,1.04871e-01,-2.67989e-01,-3.18706e-01,-8.88278e-02,-3.55014e-01,1.03470e-02,-1.48492e-01,-7.47353e-04,-2.61981e-01,-1.35049e-01,-2.14137e-01,6.77583e-02,-1.31175e-01,1.64100e-01,-1.76007e-01,-3.21910e-01,-7.62565e-02,-1.30497e-02,1.11425e-01,1.44960e-02,1.55589e-01,2.67407e-01,
1.19640e+00,
-1.85599e+00,
-1.10844e+00,
-2.44117e-01,
-1.95535e-01,
-1.03015e-01,
-4.24222e-01,
6.01367e-02,
4.26126e-01,
3.38803e-01,
-1.83320e-01,
-4.18360e-01,
-9.31307e-02,
3.46507e-01,
-8.39208e-01,
-6.89991e-01,
-6.28285e-02,
-2.43376e-01,
8.08243e-02,
-1.54525e-01,
-2.84253e-01,
-1.11339e-01,
-3.05881e-01,
-2.49225e-01,
-1.28827e-01,
-2.09745e-01,9.94380e-01,-1.23921e-01,-2.29849e-01,-2.06625e-01,-5.10509e-02,1.33984e-01,-1.72214e-01,1.16157e-01,-1.43524e-02,4.35129e-01,-2.10683e-01,-4.73786e-02,-2.50855e-01,1.31822e+00,-3.59099e-02,2.95063e-02,-1.64269e-01,-9.92694e-02,-3.97471e-03,3.06201e-01,8.50970e-02,2.11272e-01,4.08995e-01,-2.02659e-01,
-5.04448e-01,-5.27720e-02,2.50222e-01,-4.59138e-01,-2.40135e-02,-6.43005e-01,-2.73952e-01,2.09934e-01,-2.53409e-01,2.52654e-02,2.70880e-01,-1.68492e-01,-4.99234e-01,-2.05042e-01,-5.74675e-02,-1.75652e-01,4.90519e-01,-1.20533e-01,3.29020e-01,-3.98094e-02,-1.20646e-01,2.48506e-01,-1.57795e-01,2.36903e-01,-1.15840e-01,
2.72861e+00,-8.40879e-01,-3.85533e+00,-1.32935e-01,1.17732e+00,-9.69725e-01,-5.81583e-02,-3.16454e+00,-5.50105e-01,1.11428e+00,-2.75865e+00,-3.09167e-01,9.81056e-01,-3.96245e-01,2.57151e-01,-8.77328e+00,-4.70133e-01,-3.19452e-02,5.99969e-01,1.16736e+00,-9.01686e+00,1.51779e+00,-1.30858e+00,-2.53365e+00,-2.40063e-01,
2.76247e-02,9.91775e-01,2.39270e-01,8.10115e-01,-1.69227e-01,-2.37233e-01,1.39570e-02,1.57125e-02,-8.16907e-01,-8.57374e-02,3.20451e-01,4.01277e-02,-9.11446e-01,-3.56077e-01,-1.89413e-01,-1.61047e-01,4.09600e-01,-3.18879e-01,1.38738e-01,6.30913e-02,-2.04668e-01,8.31829e-02,5.26069e-01,-2.58461e-01,1.32713e-01,
-2.05790e-01,3.75402e-01,-4.08708e-01,-2.40128e-01,-5.88649e-01,-1.67538e-01,9.63079e-02,-3.91205e-01,1.35886e-02,-2.53493e-01,8.01067e-01,-1.13463e-01,-2.19978e-01,-4.54876e-01,4.26626e-02,-3.85575e-01,3.57712e-02,2.23901e-01,-3.15624e-01,-1.60864e-01,7.72654e-01,2.60951e-01,2.26789e-01,7.49102e-01,-2.51073e-01,
-2.86261e-02,8.15478e-02,7.59725e-03,-1.23955e-01,-1.20120e-01,-4.89496e-01,1.80986e-01,6.06205e-01,-1.03054e-01,1.10913e-01,2.77306e-01,-5.78570e-01,-1.19458e-01,-4.00187e-01,-2.60353e+00,-2.02828e-01,1.16628e-01,1.44011e-01,5.18760e-02,4.68429e-02,-2.49827e-01,2.42940e-01,3.70110e-01,-5.46074e-01,8.57848e-02,
-3.04816e-01,1.31233e-01,1.98038e-01,-1.53718e-01,1.15407e-01,1.70621e-01,-4.00216e-02,4.27621e-02,-1.44385e-01,-8.81685e-02,9.34951e-02,1.67620e-01,-2.80189e-01,-1.55158e-01,-1.72023e-01,2.09879e-01,-2.66045e-01,-1.86943e-01,-8.59407e-02,-1.81012e-01,2.96360e-01,-1.86460e-01,-2.43421e-01,-7.19688e-02,7.22107e-02,
5.83074e-01,3.06714e+00,-5.28047e-01,1.23998e-01,-2.71271e-01,3.17787e-01,-1.26008e-03,-1.58920e-01,1.46315e-01,2.03417e-01,2.14187e-01,-2.61818e-01,6.10013e-01,-9.86465e-02,6.21468e-02,3.61829e-02,-6.80091e-01,-2.04637e-01,9.88134e-02,5.64872e-01,2.21951e-01,3.18231e-02,1.81261e-01,4.23971e-01,1.95441e-01,
-4.08691e-02,-6.66585e-01,1.39364e+00,-1.42271e-01,-5.18286e+00,-2.69947e-01,-1.39306e-01,-4.49850e-01,-5.52528e-01,2.89664e-01,-8.74191e-01,-3.70062e-01,3.71347e-01,-1.76405e-01,-4.90179e-01,6.17248e-02,8.83773e-01,-2.39016e-01,4.20502e-01,3.42893e-01,-1.52462e+00,-4.06262e-01,8.03957e-01,-1.03923e+00,1.21484e-01,
-1.33822e+00,1.92300e+00,6.36879e-02,6.62869e-01,1.42682e-02,3.70850e-01,-8.18721e-02,2.49804e-01,-8.61428e-01,-9.03999e-01,-1.58304e-01,2.16608e-01,-1.06396e-01,8.11717e-02,2.64378e-01,8.43896e-02,-1.28910e-01,-2.81854e-01,5.75795e-01,-7.63304e-01,4.69036e-01,-7.72714e-01,2.55030e-01,1.66795e-01,-5.80047e-02,
2.02995e-01,-2.02242e-01,-3.70184e-01,-2.28040e-01,3.19426e-01,-4.10436e-02,6.91134e-02,9.65880e-02,1.95915e-01,-5.41203e-02,-1.94909e-02,-6.03372e-02,-6.92668e-02,-2.33229e-01,-4.16873e-01,-1.46200e-01,3.27901e-01,-2.79385e-01,-1.86951e-01,1.14936e-01,1.87548e-01,1.63534e-01,2.20226e-02,-3.30221e-02,-2.68415e-01,
-1.31406e-01,2.16074e-01,-1.52309e-01,-1.63648e-01,-4.37780e-01,2.35100e-01,-3.55718e-03,-1.93046e-02,6.57395e-02,-1.77116e-02,5.29061e-01,-4.59000e-02,-1.15443e-01,-5.12854e-01,2.26387e+00,-2.79896e-01,5.24889e-03,-9.97656e-02,3.58362e-01,2.40192e-01,7.70606e-01,-2.18098e-01,3.84979e-01,8.78624e-01,-2.05104e-01,
-3.61983e-01,-5.84647e-01,3.94205e-01,1.19975e-01,-7.93455e-01,-1.52153e-01,-1.19289e-01,-5.50585e-02,9.49582e-02,1.83165e-01,6.33135e-01,-5.41103e-02,-2.84873e-01,9.57241e-02,5.66095e-02,-1.79719e-01,-2.88662e-01,-1.04346e-01,-9.75500e-02,-1.50570e-01,-7.77968e-02,3.32804e-01,-5.55042e-02,1.13564e-01,-1.18504e-01,
1.25928e-01,-1.59823e-01,2.16284e-01,-3.34772e-01,2.26181e-01,-4.25846e-02,-2.16405e-01,2.09802e-01,-1.82627e-01,-7.04865e-02,-2.21172e-01,-2.18267e-01,1.12386e-01,-2.86530e-02,-1.96203e-01,2.53392e-01,-2.39422e-01,-1.30281e-01,1.21832e-01,1.72738e-01,-1.32205e-01,-1.42235e-01,-1.76286e-01,2.39894e-01,-3.31786e-01,
1.43669e-01,2.04193e-01,5.10969e-01,-5.99696e-02,5.37616e-01,-4.31972e-01,-3.81468e-01,-3.48360e-01,5.74777e-02,-1.71750e-04,-5.24114e-01,-3.09383e-01,-2.95891e-01,4.96816e-01,6.42646e-01,4.71672e-01,4.31903e-01,1.84749e-01,-1.83607e-01,-1.27943e-01,-8.44176e-01,3.66534e-01,-4.31767e-01,-3.51873e-01,1.40946e-01,
5.08382e-01,5.48659e-02,-8.73127e-02,9.60413e-02,2.04606e-01,1.95281e-02,1.00681e-01,1.62177e-01,3.25407e-01,4.62476e-01,-2.93216e-01,4.28190e-02,2.29359e-01,1.83139e-02,-1.66504e-01,7.78623e-02,-1.51020e-01,-3.71140e-02,-2.22772e-01,6.23408e-01,-3.51235e-01,2.80265e-02,-2.89689e-03,-2.10781e-01,2.03118e-01,
-7.96939e-02,1.35071e-01,-4.03417e-01,-3.60039e-01,2.54298e-01,1.01130e-02,5.69183e-02,-4.67551e-01,-2.71206e-02,7.40304e-02,-3.80185e-01,-3.80630e-01,5.74972e-01,1.25378e-01,-2.17942e-01,1.14209e-01,-1.32342e-01,2.55808e-01,-4.65610e-01,2.82170e-01,-1.46333e-02,2.05558e-01,-2.08319e-01,3.35733e-01,-1.90971e-01,
-8.13954e-01,1.03059e+00,3.22392e-01,-3.17798e-01,4.42038e-01,2.17858e-01,3.43767e-01,3.02632e-03,-1.80577e-01,1.38098e-01,-2.66411e-01,2.01527e-01,1.39829e-01,-3.55294e-01,-4.51499e-01,-5.79722e-01,2.17080e-01,-1.79307e-01,2.70501e-02,-7.05857e-01,-3.49438e-02,2.08154e-01,3.05659e-01,-9.62607e-02,-1.26157e-01,
2.32183e-01,-1.40762e+00,-1.73484e-02,-5.51617e-01,7.95986e-01,3.96823e-02,-1.64940e-01,-6.55107e+00,-1.06871e-01,2.25791e-01,-7.15252e-01,-1.28360e-01,-3.67922e-01,-3.47304e-02,-6.48655e-01,6.39033e-01,6.70222e-02,1.40611e-01,2.78824e-01,-2.93119e-01,3.67128e-02,9.16395e-02,-6.59095e-02,2.88378e-02,1.52716e-01,
-6.23043e-02,-1.48824e-01,-3.20789e-01,2.06315e-01,9.57732e-02,2.07624e-01,-3.98915e-02,9.14594e-03,-3.64498e-01,-2.73914e-01,-8.37469e-02,3.35573e-01,-2.35677e-02,-2.17159e-01,-2.68224e-01,1.60426e-01,-1.47771e-01,3.40338e-01,2.59532e-01,8.33523e-03,-1.04085e-01,-1.59587e-01,3.44458e-01,-6.75619e-02,-1.41069e-01,
-5.71956e-02,2.40417e-01,2.89340e-01,-2.02059e-01,2.00387e-01,-4.35828e-02,-1.55436e-02,7.66799e-02,-1.95556e-01,-2.44780e-01,-1.04825e-01,1.79903e-01,-8.79081e-02,2.43191e-01,-1.13537e-01,3.70430e-02,-8.13031e-02,1.19908e-01,1.30028e-02,-2.52478e-01,6.67028e-02,-2.39505e-01,-1.21851e-01,2.28894e-01,3.42103e-01,
-5.07170e-01,1.66296e+00,-7.00697e-01,3.55903e-01,1.76023e-03,1.35588e-01,-1.34346e-01,-2.72819e-01,-1.20970e-01,-1.62375e-02,1.95617e-01,-3.39694e-01,-5.83594e-01,-4.49513e-02,2.10820e-01,-2.22828e-01,4.22247e-01,-3.22141e-01,-7.24627e-02,-3.22666e-01,1.97281e-01,-3.09203e-02,-1.22695e-01,-3.13725e-02,2.59654e-01,
2.88949e-01,2.15636e-01,-6.35692e-01,1.07428e+00,-7.91913e-01,5.33684e-01,3.17831e-01,3.74200e-01,-1.41116e-01,-1.71770e-01,6.92245e-01,4.17769e-01,5.63604e-02,-5.66666e-01,5.68593e-01,-6.90766e-01,-5.87388e-01,2.01851e-01,4.24889e-02,1.19605e-01,9.97572e-01,-5.03963e-01,5.70716e-01,4.22647e-01,-3.72474e-02,
-1.70627e-01,-1.52944e+00,2.41980e-01,-3.08635e-01,6.89752e-02,-2.09662e-01,1.95050e-02,-6.24613e-01,-1.72114e-01,3.01151e-01,-5.07096e-03,6.33467e-01,-3.11449e-01,-9.24843e-02,-8.04890e-02,-1.55068e-01,4.10349e-01,-2.87240e-01,2.15671e-01,-7.96180e-02,-4.10852e-02,1.56083e-01,-2.55312e-01,-1.18854e-01,-1.02428e-01,
-3.54000e-01,-6.38580e-02,-4.30189e+00,3.68609e-01,-5.16511e-01,5.93357e-01,-3.20690e-01,3.05523e-01,-7.22327e-02,6.71906e-02,1.19566e+00,2.05101e-01,2.29246e-01,-5.96411e-01,7.17432e-02,-8.18632e-01,-5.74533e-01,-5.98861e-02,-3.26228e-01,7.16125e-02,-1.31385e+01,-2.69372e-01,-2.25328e-01,-5.08895e+00,2.39101e-01,
3.41164e-01,
-4.32658e-03,
-5.72881e-01,
-1.13701e-02,
4.18273e-02,
-4.49603e-02,
-3.43120e-01,
-1.51025e-01,
-6.28474e-01,
1.89525e-01,
1.01468e-01,
4.14898e-02,
9.12294e-02,
-3.06088e-01,
2.63089e-01,
3.54701e-02,
9.20120e-02,
1.05353e-02,
-1.49690e-01,
-2.32377e-01,
-4.44367e-01,
3.75127e-02,
-2.80547e-01,
6.78274e-02,
-5.53024e-01,
3.43656e-01,-8.89429e-02,-2.04643e-01,5.69371e-02,-1.51851e-01,3.71405e-02,-4.81055e-02,-5.59106e-02,1.03003e-01,1.29194e-02,6.64300e-02,-1.12962e-01,4.26414e-02,-7.61110e-01,-1.59521e-01,-3.76687e-02,1.36609e-01,2.33897e-02,1.44460e-01,-1.96018e-01,-2.66727e-01,-4.85172e-02,1.06344e-01,-3.58830e-03,-7.00363e-02,
1.89317e-01,-1.51492e-01,-1.03900e-03,4.33602e-02,1.96487e-02,1.98906e-01,-3.97441e-01,-9.45910e-02,7.03525e-02,-3.98616e-02,-1.86382e-01,-1.00331e-01,-8.21304e-02,6.05501e-01,-1.15200e-01,8.34751e-02,5.87644e-02,-3.77568e-02,6.11145e-02,7.16278e-01,-5.19061e-02,1.79805e-02,9.05638e-02,-7.64436e-02,-1.19124e-01,
6.41123e-02,-2.42869e-03,-2.04437e-01,4.88879e-02,-1.02988e-01,-7.85171e-03,-1.80702e-01,-5.53088e-02,6.69346e-02,-4.44729e-02,2.48666e-02,-8.21642e-02,2.15437e-02,6.47911e-01,-2.82397e-01,7.08204e-02,1.55910e-02,-7.03174e-02,2.12373e-01,4.08180e-01,1.35191e+00,1.14958e-01,1.31555e-01,4.23945e-02,-1.04386e-01,
1.87711e-01,-1.18986e-01,-1.77011e-01,7.33952e-02,-3.14202e-02,1.35457e-01,-2.77569e-01,-5.73098e-02,6.26172e-02,-3.65854e-02,-1.07347e-01,-1.06312e-01,-5.47183e-02,5.84286e-01,-1.41721e-01,-2.68946e-02,5.69836e-02,2.21532e-02,1.26908e-01,2.86292e-01,6.65170e-01,-5.82531e-02,8.66633e-02,-2.61753e-02,-5.01223e-02,
1.17310e-01,-2.19091e-02,-1.79287e-01,7.31365e-02,-6.05196e-02,-3.04779e-03,-3.94624e-01,-3.84571e-02,5.12769e-02,2.97950e-03,1.61929e-02,-1.03995e-01,-2.26160e-02,8.12962e-01,-1.91873e-01,1.07465e-02,-5.27808e-03,-1.85875e-02,1.95233e-01,2.05687e-01,9.31758e-01,-1.32498e-02,8.27052e-02,-6.54785e-02,-7.13202e-02,
4.61267e-02,-3.09698e-01,-1.51333e-01,5.95682e-02,-1.10537e-02,3.05770e-01,4.14505e-01,-5.25046e-02,6.58245e-02,-1.10430e-01,-1.71200e-01,-3.41187e-02,-1.33330e-01,1.13887e+00,-9.93262e-02,-1.55308e-01,1.58645e-02,1.40762e-01,1.48056e-01,4.42940e-01,8.56900e-01,-4.09356e-02,4.66468e-02,-1.89589e-03,-3.82374e-03,
4.77229e-02,1.14023e-01,-1.60768e-01,9.93111e-02,5.23370e-03,-1.49524e-01,-1.26003e-01,2.72181e-02,1.81780e-02,1.62064e-02,5.83000e-02,-1.82198e-01,-3.42833e-03,9.59276e-01,-1.57710e-01,-1.87410e-02,-8.23164e-02,-1.92854e-02,2.37914e-01,1.21375e-01,8.42506e-01,-1.15507e-01,8.84680e-02,-2.02433e-01,-2.58069e-02,
1.81279e-01,-1.40095e-01,-1.72045e-01,7.07435e-02,-4.69647e-02,1.49934e-01,-3.80374e-01,-5.68461e-02,6.82958e-02,-4.22141e-02,-9.63862e-02,-8.90964e-02,-5.86577e-02,5.61666e-01,-1.41514e-01,-4.18756e-02,5.95043e-02,2.78111e-02,1.31474e-01,3.18484e-01,5.89352e-01,-5.41070e-02,8.48966e-02,-2.41623e-02,-5.53881e-02,
1.32671e-01,-1.41823e-02,-1.76535e-01,7.43024e-02,-5.03109e-02,-1.38230e-02,-3.45875e-02,-4.39850e-02,5.20140e-02,6.14290e-03,1.80829e-02,-1.16454e-01,-1.73791e-02,7.91784e-01,-1.83375e-01,6.60236e-03,-5.44113e-03,-1.41489e-02,1.98182e-01,2.37000e-01,9.07377e-01,-2.91445e-02,8.28088e-02,-8.37740e-02,-6.61296e-02,
4.18793e-02,
1.29987e-01,
1.39410e-01,
-1.98367e-01,
-1.92707e-01,
2.12606e-01,
1.86273e-01,
-1.96168e-01,
-1.95921e-01,
