// Neural Network File Format by Kyle Julian, Stanford 2016
6,4,9,25,
4,25,25,25,25,25,9,
0,
-8000.000000,-100.000000,-100.000000,0.000000
8000.000000,100.000000,100.000000,40.000000
0.000000,0.000000,0.000000,20.000000,-4.683445
16000.000000,200.000000,200.000000,40.000000,30.305804
-6.73822e-01,-5.02432e-01,5.48383e-01,1.74275e-02,
-7.29294e+00,1.15751e-02,-7.98597e-03,1.01478e-02,
7.37980e-01,5.32711e-01,2.74993e-01,6.19461e-02,
2.82156e+00,-3.43795e-01,3.02454e-01,-5.02449e-01,
1.05728e+00,-1.26495e-01,1.37525e-01,4.14031e-01,
3.26898e+00,4.57918e-01,2.99583e-02,-1.30403e-01,
-3.06104e+00,1.66007e-01,-4.14790e-01,-3.50310e-01,
2.48593e+00,-8.39806e-02,-1.87918e-01,-4.89672e-01,
2.58559e+00,-1.74945e-01,5.16450e-01,-2.51504e-01,
1.56360e+00,-4.28889e-02,-1.01869e-01,5.52303e-01,
1.50296e+00,-7.57287e-01,-1.84329e-01,-2.13776e-03,
-2.18092e+00,5.24832e-01,-7.42307e-01,1.60350e-01,
-2.04838e+00,5.77326e-02,9.27944e-02,-8.38719e-01,
-1.22082e+00,4.85151e-01,-7.48853e-01,2.06604e-01,
7.33753e-01,8.96272e-02,-9.00534e-02,7.38960e-01,
-6.53696e-02,-1.43248e+00,-1.41061e-02,2.07398e-03,
3.02613e-01,1.36388e+00,6.95456e-02,-5.55069e-02,
-1.01889e+00,-1.25879e-01,1.92220e-01,5.12943e-01,
-6.44781e+00,-3.45784e-02,2.53901e-02,-1.39827e-01,
2.96888e-01,2.50333e+00,1.12127e-01,2.94149e-03,
-1.27318e+00,-4.72659e-02,1.87114e-01,-3.74708e-02,
7.70437e-01,2.99663e-01,2.23438e-01,3.07139e-01,
1.22698e+00,-8.01774e-01,3.28044e-01,1.22589e-01,
-2.58553e+00,1.03566e-01,1.95209e-01,5.18081e-01,
-2.87381e-01,2.60674e-01,-1.10778e-02,-9.36863e-03,
1.17894e-01,
3.22361e-01,
3.77405e-01,
-2.42068e-01,
3.25100e-01,
5.80429e-02,
5.88613e-02,
2.65417e-02,
9.81801e-02,
3.25146e-02,
-1.59970e-01,
2.67161e-01,
-2.23162e-01,
-5.93788e-02,
3.54897e-01,
-8.03888e-03,
-2.06075e-01,
1.90176e-01,
5.41373e-02,
-1.14862e+00,
1.82285e-01,
1.00889e-01,
1.70614e-01,
-2.84242e-02,
-2.86928e-01,
1.93977e+00,-2.09543e-01,1.06253e-01,-1.06210e+00,-6.59029e-01,6.04712e-01,2.88839e-01,-6.94568e-02,7.19033e-01,-4.09846e-01,1.83186e-01,-4.98392e-01,-5.99348e-02,9.50645e-01,-7.22343e-01,-2.00854e+00,1.34485e+00,9.83567e-01,-1.39199e+00,3.35287e+00,-6.41795e-01,4.65182e-01,2.82048e-01,1.28948e+00,1.65977e-01,
-1.80509e-01,1.25538e-01,4.05811e-01,-1.52895e-01,7.38137e-01,1.11658e-01,-5.18828e-01,-1.24197e-01,-1.74047e-01,-8.34162e-01,3.78333e-01,6.66956e-01,-5.36324e-01,1.25371e+00,-3.00375e-01,-6.58898e-02,-1.35095e-01,5.23574e-01,-2.17104e-01,-9.60486e-01,-4.52694e-01,-1.02753e-02,7.22778e-01,3.50408e-02,2.66923e-01,
3.92990e-01,5.76917e-01,-3.04724e-02,-1.15326e-01,-3.47295e-01,-1.48667e-01,5.05913e-01,1.27079e-01,-1.24454e+00,8.54668e-01,-6.14154e-01,1.25795e+00,9.45372e-01,-8.01052e-01,9.62564e-01,-3.75498e-01,9.66978e-01,-1.49383e+00,2.56533e-01,4.35496e+00,3.61956e-01,-5.48854e-01,-8.28594e-02,-1.02179e+00,-4.32224e-02,
1.13656e-01,1.71325e+00,6.69128e-01,4.49147e-01,-3.48710e-01,-1.26782e+00,-1.28987e+00,5.12407e-01,-2.24953e-01,-6.57111e-01,1.14727e+00,9.51385e-01,9.55809e-01,-7.17957e-01,5.07385e-01,1.76386e-01,4.56446e-01,-4.67772e-01,-1.45733e+00,2.06974e+00,2.44825e-02,7.66723e-02,-3.99606e-01,-3.31909e-01,-5.49316e-02,
-2.09847e-01,2.56266e-01,-3.67781e-01,-1.54491e+00,-5.15456e-01,-4.52200e-01,9.28894e-01,4.84450e-01,-8.66845e-01,6.67369e-01,-6.84961e-02,1.00427e+00,7.51033e-01,-6.04279e-01,8.01033e-01,-2.67367e-01,5.34571e-01,-3.87598e-01,2.31643e-01,1.45717e+00,4.37618e-01,-4.53936e-01,2.10398e-02,-1.23117e+00,2.78203e-02,
3.06002e-01,-2.80543e-01,1.55015e-01,1.60711e-01,-2.31053e-01,-1.93309e-01,1.76608e-01,-7.59030e-02,-1.88651e-01,9.73627e-02,-4.05931e-03,5.87598e-02,-2.65678e-01,-2.33437e-01,9.66076e-02,7.96236e-02,1.18835e-01,-3.55975e-01,-2.30592e-01,-1.91476e-01,-8.66225e-02,3.02887e-01,-1.50087e-01,3.03440e-01,8.81257e-02,
2.10107e-01,-1.69907e+00,-3.68991e-01,-2.12423e-01,7.20152e-01,1.47607e+00,4.15247e-01,-1.35838e+00,-3.55174e-01,-9.50352e-01,-6.02247e-02,-6.13189e-01,-8.32326e-02,-2.94353e-01,-4.81829e-01,5.90428e-01,-3.41295e-01,9.93467e-02,8.54888e-01,2.64859e+00,-1.22000e+00,4.37898e-01,1.14280e+00,1.30495e+00,1.80338e-01,
1.25251e-01,1.88694e+00,1.55320e-02,-2.06211e-01,3.11111e-01,-4.36905e-01,1.57205e-02,4.01136e-01,-1.81896e-01,2.30747e-01,1.72682e-01,1.82506e-01,-8.89901e-02,-3.26337e-01,-1.63971e-01,-7.82332e-02,7.33890e-02,-1.70260e-01,-1.40637e+00,-1.28366e+00,5.50728e-01,1.36447e-01,-3.52847e-01,-3.95497e-01,-6.95803e-02,
4.00746e-01,-1.05684e-01,-9.55541e-01,-3.43272e-01,-1.37546e-02,1.41933e-02,-3.28477e-01,4.65544e-01,2.02031e-01,-1.73573e-01,2.76081e-01,2.13205e-01,-7.02026e-02,7.74046e-02,-1.29712e-01,-1.65880e+00,-1.00189e+00,3.79315e-01,2.96168e-01,4.54453e+00,-2.69281e-01,-4.82709e-01,6.30102e-01,-8.50434e-02,-1.46821e-01,
6.11237e-01,1.87058e-01,-4.34745e-01,-3.80342e-01,-2.27865e-01,-8.49126e-02,4.31835e-02,-1.35513e-01,-9.68245e-02,3.00372e-01,1.29121e-01,8.90099e-01,7.90179e-01,1.81707e-01,-1.89062e-01,-6.06802e-02,1.53888e-01,-8.44557e-01,5.20184e-01,4.60115e+00,-1.02353e-01,1.87864e-01,-1.69078e-01,-6.44073e-01,2.53271e-01,
6.20925e-01,1.87065e-01,1.28922e-01,-1.07779e-01,-1.00695e+00,-2.39724e-01,-9.42580e-03,7.54331e-01,-1.58115e-01,1.64476e-01,4.91310e-01,5.38082e-01,5.14163e-01,3.17256e-01,-2.78843e-02,-5.06046e-01,3.92349e-01,1.10942e+00,-1.46337e+00,1.36403e+00,-6.37598e-01,-4.04582e-01,3.37703e-01,-1.05340e+00,6.41201e-02,
1.89747e-01,2.27570e+00,8.66556e-02,1.82801e-01,-2.33299e-02,-5.78097e-01,-1.19496e-02,5.38813e-01,-2.91213e-01,1.98695e-01,1.35193e-01,5.23518e-02,2.36189e-01,-2.66105e-01,-4.44031e-02,-2.65826e-01,1.94279e-01,6.97406e-02,-1.49451e+00,2.10969e-01,2.84176e-02,3.95028e-01,-3.07493e-02,-7.16050e-01,3.28402e-01,
6.13048e-01,-1.21072e-01,4.99582e-01,-9.52937e-01,4.24601e-02,9.43290e-01,-2.38239e-01,-1.46367e-02,-3.76836e-01,-5.92281e-01,6.30458e-01,1.78037e-01,6.56687e-02,2.69841e-01,-7.69752e-01,1.32828e+00,5.89460e-01,7.81642e-01,-2.77881e-01,-1.73011e+00,6.10329e-02,3.21660e-01,1.02220e+00,4.63319e-01,7.49388e-02,
8.64570e-02,1.13038e-01,-2.24037e-01,-2.18091e+00,-6.95090e-01,7.16403e-01,4.85685e-01,1.80789e+00,1.55967e-01,-1.13932e-01,-1.02464e+00,2.27460e-01,2.77664e-01,-4.40259e-01,-5.29303e-01,8.12698e-03,2.54696e-01,7.98760e-01,-9.49329e-01,1.78354e+00,4.02282e-01,-4.26685e-01,1.08012e-01,7.60410e-01,-2.00991e-01,
3.83132e-01,1.83187e-01,-6.69083e-01,-1.09818e-01,-3.72980e-01,-1.76479e-01,-5.75602e-01,-4.89654e-02,3.27672e-01,-2.63812e-01,5.02190e-01,-9.08126e-01,-5.19536e-01,-1.69163e-01,-1.28984e-02,1.71409e-01,-1.66509e-01,-3.88332e-02,-1.82402e-02,2.36984e-01,-4.47441e-01,9.28060e-01,3.39764e-01,4.66911e-01,-9.30268e-02,
8.16808e-01,-4.01078e-01,-3.65816e+00,2.38246e-02,4.91184e-01,7.26602e-01,-1.66984e-01,-3.22861e-01,-2.77313e-02,-5.02253e-01,5.62843e-01,4.49394e-01,-3.26247e-01,-8.44044e-01,-5.70366e-01,1.04645e+00,1.71480e-01,5.43980e-01,4.64203e-01,-1.86112e-01,-3.91694e-01,5.46861e-01,1.18102e+00,4.35846e-01,2.65512e-01,
6.77326e-01,3.31382e-02,-1.35646e+00,-5.19763e-01,1.03863e+00,4.69207e-01,-1.16699e-01,2.93800e-03,-5.06353e-02,-9.08012e-02,-3.44531e-01,3.96908e-01,-3.70316e-01,-6.74882e-01,-1.65436e-02,-8.32377e-01,1.63392e+00,-5.01625e-01,3.52192e-01,2.00636e+00,-6.00747e-03,-7.67620e-01,2.86134e-01,1.58882e-01,1.21452e-01,
-7.05648e-01,8.63004e-02,-2.60458e-01,-6.10804e-01,8.11340e-02,4.69253e-01,3.18917e-01,-5.57912e-01,-2.01247e-01,4.53857e-01,-6.32568e-01,1.32378e-01,3.55113e-01,6.56167e-01,-5.00352e-01,-3.30495e-02,-2.51116e-02,-4.29077e-01,3.95353e-01,-3.93553e+00,4.17244e-01,-2.64154e-01,5.95374e-01,5.85626e-01,3.55719e-02,
6.71531e-01,-2.93377e-02,4.92035e-01,-5.20471e-01,4.54133e-01,-3.79759e-02,-1.09690e-01,7.05507e-01,-5.36490e-01,-9.13924e-01,2.57119e-01,1.17710e-01,-6.55406e-01,-1.13381e-01,1.01194e+00,4.41352e-02,1.63801e-01,3.62548e-01,-4.71074e-01,6.21770e-01,5.17074e-01,-6.90331e-01,-2.52074e-01,-1.05678e+00,2.11781e-02,
-3.39232e+01,-1.19731e+01,-5.73986e-01,7.55036e-01,1.25287e-01,4.63009e-01,1.72286e-01,4.84715e-01,-1.43023e+00,1.46076e-01,-6.33442e-01,-1.01451e-02,-1.92572e+00,-1.09178e+00,8.06740e-01,-7.21154e-01,-1.27930e+00,-2.74120e-01,-2.07412e+00,1.81341e+00,8.39645e-01,-3.35336e-01,-7.46029e-01,4.16141e-02,-2.51281e-01,
-2.01510e-01,-1.50767e+00,-1.38125e-01,6.82098e-02,4.63997e-01,2.56419e-01,1.33803e-01,-1.85711e-01,5.76986e-02,-3.01538e-01,2.33944e-01,-1.47828e-01,2.61865e-03,3.52416e-02,-1.31708e-01,-2.56425e+00,-3.54896e-01,4.34812e-01,1.53758e+00,1.49283e+00,1.11639e-01,-3.52043e-01,-3.86670e-01,2.12180e-01,-7.68112e-02,
-9.74318e-01,-8.33368e-01,-1.09200e+00,4.51052e-01,-2.71122e-01,-1.20354e-01,5.33642e-01,-7.55407e-01,2.40787e-03,2.02416e-01,2.22476e-01,-2.56982e-01,3.25661e-01,1.10829e+00,-9.34064e-02,-4.72032e-02,7.21503e-01,7.36793e-02,6.70475e-01,-1.11777e+00,6.22756e-01,2.96368e-01,5.38976e-01,3.76001e-01,1.36248e-02,
7.25027e-01,6.74383e-01,-4.75015e-01,-1.09453e+00,-2.01599e-01,-5.56839e-02,-7.38761e-01,2.35853e-01,-4.14506e-01,-3.45241e-01,2.50096e-01,2.18253e-01,4.77278e-01,-5.10251e-01,-1.69288e-01,-1.93328e-01,2.54321e-02,9.54460e-01,6.41888e-01,-1.99828e+00,4.15180e-01,1.08888e+00,-3.38679e-01,-8.39515e-01,3.11324e-01,
-2.78354e-01,6.79029e-01,8.23843e-02,1.15587e-01,-1.04601e+00,1.96969e-01,5.85033e-01,-4.13218e-01,8.81500e-01,7.95799e-01,-1.01945e-01,-7.46690e-02,-8.57619e-02,-4.84172e-01,-1.97646e-01,3.16339e-01,-1.05414e-01,-3.15668e-01,7.59430e-01,-6.79753e-01,1.92940e-01,-6.75512e-01,-2.91856e-02,1.56315e+00,2.52730e-01,
-9.89390e-02,-4.60109e-01,5.09992e-01,-4.58115e-01,-6.06030e-02,-5.98037e-02,2.59757e-01,2.50914e-01,-3.24763e-01,2.00104e-01,6.55993e-01,5.40248e-01,2.74209e-01,-2.54782e-01,-1.51116e-01,-1.80713e-01,1.01588e+00,6.42965e-02,1.20203e+00,3.23231e+00,4.80460e-01,-4.46918e-01,-2.45502e-01,1.55974e-02,-1.72985e-01,
-1.03052e+00,
-5.39431e-02,
-4.16731e-01,
-7.81333e-01,
-5.59052e-02,
-2.61077e-01,
1.14350e-01,
-1.36898e-01,
6.84505e-01,
3.70381e-01,
3.33981e-01,
6.56914e-02,
-7.47978e-01,
-9.05922e-02,
-3.42144e-01,
-1.18933e+00,
2.43853e-01,
5.03690e-01,
-3.22493e-01,
1.37166e-01,
5.26976e-01,
8.01997e-01,
-1.36347e-01,
-3.16008e-01,
1.49270e-01,
9.45021e-01,-1.77235e-01,6.62613e-01,1.09070e-01,-8.32568e-01,-8.04037e-02,-3.08513e-01,1.41327e+00,-2.44741e-01,9.09205e-02,1.95183e-01,-1.16587e+00,8.25590e-03,3.31999e-02,6.78916e-01,-2.24036e-01,-1.27198e-01,-6.12223e-01,-1.65359e-01,-2.89607e-01,2.83530e-02,6.89176e-01,1.04552e-01,-3.74937e-03,2.43190e-01,
-1.84699e-01,1.41378e-01,-1.93909e-01,1.90591e+00,2.13812e-01,-1.32298e-01,-3.26262e-01,1.02231e-01,-3.74676e-03,5.20100e-01,-5.07698e-01,1.67476e-01,-2.84978e-02,2.24852e-01,-5.79940e-01,-1.97315e-01,-1.08751e-01,4.28157e-02,1.81069e-02,4.28806e-02,1.54624e-01,-6.41480e-02,-6.82754e-01,2.61054e-01,3.64234e-01,
-9.55783e-01,9.86675e-02,4.97338e-01,2.84327e-01,3.28710e-01,-6.73798e-02,1.06616e-01,-2.22845e-01,1.93726e-02,-7.55706e-02,4.86321e-01,1.66397e-01,-3.56551e-01,1.96136e-01,9.13876e-01,-1.29974e+00,-3.97802e-01,-7.87198e-01,-7.28183e-01,5.79799e-02,2.87610e-01,4.98107e-01,3.28177e-01,1.83773e-01,2.74538e-01,
4.37370e-01,4.12501e-01,8.39709e-01,1.31125e-01,2.54493e-01,1.30083e-01,-2.48373e-01,1.35910e+00,-9.58292e-02,-7.82540e-02,6.52900e-02,-1.06298e+00,-1.01108e-01,1.89696e-01,1.52847e-01,3.39075e-02,3.70713e-01,4.28023e-01,-1.85709e-01,-2.34039e-01,5.86208e-01,4.98029e-01,1.80350e-01,-3.75762e-01,-2.72872e-01,
-1.21733e+00,-1.13334e-01,-1.52283e+00,-8.92686e-01,3.28430e-01,6.26070e-02,3.25269e-01,8.35988e-01,1.46022e-01,2.91038e-01,5.88082e-01,-5.09582e-01,1.67459e-01,-2.04431e-01,7.60646e-01,1.03052e-01,1.06944e+00,5.52333e-01,-3.46127e-01,-8.86283e-02,7.41585e-01,7.76991e-01,2.01233e-01,-6.78681e-02,-6.50838e-01,
-1.29556e+00,-4.56190e-01,1.94383e-01,5.86152e-01,-8.16437e-01,-1.91264e-01,-1.38836e-01,2.52946e-01,-2.14731e-01,2.50623e-01,3.04331e-01,-2.69386e-01,1.05197e-01,1.16619e-01,4.43875e-01,7.33118e-01,-3.44317e-01,-1.20482e-01,6.67250e-02,-6.72356e-01,1.57677e-01,3.44941e-01,4.11003e-01,6.53010e-02,3.57197e-02,
-4.91764e-01,4.22448e-01,-9.47121e+00,-1.66357e-01,-1.05788e+00,-1.35180e-01,4.54488e-01,1.50447e-01,1.54698e+00,1.54115e-01,5.42686e-02,-8.20925e-02,1.21006e-01,-1.63138e-01,4.08645e-01,-7.39047e-01,5.00041e-01,1.95616e-01,-5.86995e-01,4.37752e-01,-8.50005e-02,1.29052e+00,-2.48861e+00,-7.97244e-01,-4.74094e-01,
-2.43318e-01,-6.97300e-03,-3.72251e-01,2.09848e-01,-7.17942e-02,3.00894e-01,-9.02568e-02,2.30801e-01,-2.28122e-01,5.58121e-02,5.39135e-02,2.10187e-01,-2.07380e-01,-3.27900e-01,-3.36815e-01,1.08458e-02,-1.54265e-01,1.83239e-01,-7.49777e-02,-4.01756e-02,7.85919e-02,1.26428e-01,-2.52922e-01,2.23359e-01,-3.58659e-01,
5.88362e-01,-6.30072e-01,-1.17679e+00,6.18673e-03,-5.13554e-02,-4.56391e-02,6.54482e-01,-4.65730e-01,-7.00949e-02,6.78068e-01,5.13171e-01,6.24244e-01,-2.71700e-01,4.12064e-01,5.91674e-01,5.91855e-01,2.55089e-01,3.84282e-01,-4.17376e-01,2.31778e-01,3.04047e-02,-3.82591e-01,-2.39849e-01,-2.02025e-01,4.91246e-01,
3.07947e+00,-5.74453e-02,-9.26070e-01,-1.78981e-01,-4.18732e-01,-3.04518e-01,4.43030e-02,-3.31932e-01,-2.07321e-01,3.70939e-01,5.18109e-01,2.07195e-01,2.48469e-01,5.08083e-01,-1.11081e+00,2.48769e+00,-1.34729e-01,-1.49085e-02,-1.14957e+00,-6.67232e-02,-7.52140e-02,7.43886e-02,2.96182e-01,-6.33914e-01,2.16361e-03,
1.62220e+00,2.32138e-01,-8.38235e-01,-2.10785e+00,1.01027e+00,1.86202e-03,-2.86369e-01,-2.78161e-01,-3.57639e-01,7.39451e-02,1.98409e-01,-5.23794e-01,-4.34095e-01,-1.34019e-01,1.70844e+00,-1.29990e+00,-9.65374e-03,-2.98917e-01,2.80988e-01,-1.04448e-01,-1.03148e+00,2.40984e-01,-1.40827e-01,4.69420e-01,-2.08839e-01,
9.82125e-02,-2.49930e-01,1.83919e-01,2.04331e-01,2.21090e-01,2.72563e-02,-7.18155e-02,1.31216e+00,-1.62552e-04,3.62958e-01,2.02550e-02,-8.12502e-01,2.27001e-01,-6.10006e-02,2.88789e-01,-2.61612e-01,-2.09456e-01,5.49507e-01,-1.43875e-01,-2.66088e-01,3.13363e-01,5.93766e-01,-3.60662e-01,-3.38144e-03,-1.29311e-01,
2.38872e-01,1.81215e-01,-7.78720e-01,1.14571e+00,5.66916e-01,-2.65451e-01,-1.80327e+00,6.31867e-02,-2.60772e+00,3.51845e-01,3.70430e-01,-4.09680e-01,9.67334e-01,-4.00520e-01,9.51910e-02,1.24737e+00,-5.82349e-01,3.69574e-01,-4.86660e-01,-3.29679e-01,-1.69248e-01,5.34667e-01,-1.30867e-01,3.14925e-01,-5.04824e-01,
2.34636e-01,-3.26058e-01,-2.47657e-02,-2.15929e-01,3.08259e-01,-1.69436e-01,-3.27199e-01,-3.38815e-01,3.45720e-01,-2.01526e-01,-2.69532e-01,-1.11278e-01,-3.19768e-01,1.78782e-01,1.04706e-01,2.28291e-01,-1.05028e-01,1.30511e-02,-2.61373e-01,-2.34143e-01,-3.05690e-01,-2.49438e-01,-7.81281e-02,-3.07440e-01,-1.82018e-01,
2.63733e-01,-1.41945e-01,-2.74305e-01,-2.69191e-01,2.92874e-01,2.66316e-01,-2.07704e-01,-2.62072e-01,-8.88943e-02,-2.05919e-01,-9.45009e-02,-1.57511e-01,-3.22876e-01,1.78732e-01,2.38478e-01,3.47352e-03,-9.87421e-02,-2.25012e-01,-2.91689e-01,-3.10356e-01,2.37573e-01,-2.37651e-01,-1.80953e-01,2.78896e-01,-2.78108e-01,
9.11825e-02,-3.27628e-01,-9.19082e-02,2.56101e-01,-1.07208e-01,9.71424e-02,5.52963e-01,4.75909e-01,-2.97290e-01,1.70393e-02,5.73927e-01,-3.36127e-01,4.94256e-01,1.34851e-01,-7.35584e-01,-1.31173e+00,5.21231e-01,4.14300e-01,-4.03897e-01,-6.83223e-01,4.47936e-01,-2.49385e-01,1.30959e-01,-2.84172e-01,-3.84365e-01,
-3.01315e-01,1.85569e-01,-1.30676e-01,7.85115e-02,-2.19034e-01,2.25415e-01,-2.66984e-01,1.19122e-01,-3.39524e-01,-1.29423e-01,-6.67828e-02,-1.42582e-01,-5.43275e-02,-7.49655e-02,-2.26092e-03,4.42749e-02,1.36794e-01,-1.11211e-01,-2.04598e-01,9.20111e-02,5.14829e-02,1.27308e-01,3.87944e-02,1.34143e-02,-2.94567e-01,
1.17436e-01,7.27717e-02,-2.83053e-01,-4.90119e-02,2.00785e-01,-3.07325e-01,-2.59074e-01,-2.89857e-01,1.75673e-01,-1.63935e-01,-3.26439e-01,-3.81402e-01,-9.30311e-02,-9.95100e-02,4.17508e-02,-8.89455e-02,-1.90714e-01,-7.66824e-02,-4.15988e-02,-1.44995e-01,-2.23970e-01,-1.49460e-01,1.32564e-01,-1.95054e-01,-4.70558e-02,
2.73730e+00,-5.56392e-01,-6.61821e-01,2.23725e-01,-2.72700e-01,1.38971e-01,2.24890e-01,3.72683e-01,-1.38725e-01,-4.21993e-01,2.67079e-01,-5.03145e-01,2.79188e-01,5.06974e-01,-1.27297e+00,4.10067e+00,-4.52474e-01,1.97740e-01,-7.56379e-01,6.57515e-02,-1.38306e-01,2.27545e-01,-3.38564e-01,-7.78944e-01,2.39769e-01,
1.96817e+00,4.60606e-02,-3.22935e-01,-9.99677e-02,9.13802e-01,4.10182e-02,-2.97247e-01,-4.59423e-02,-3.84491e-01,1.71954e-01,7.00820e-03,-4.64924e-01,1.96611e-02,-1.22909e-01,3.53250e-01,-4.36376e-01,3.40611e-01,-1.63102e-01,-6.09690e-02,3.57762e-01,-1.15764e+00,7.43824e-01,1.62189e-01,-7.43628e-02,4.30596e-01,
8.60877e-01,1.92280e-02,3.09174e-01,-1.10931e-01,-2.68544e-02,-1.78220e-01,-2.65904e-01,-9.30781e-01,-1.97907e-01,1.99968e-01,-9.64904e-03,1.19524e+00,2.01964e-01,-1.95985e-01,3.81024e-01,-2.92943e-01,3.84185e-01,2.37683e-01,7.47678e-02,-6.24399e-01,4.19905e-01,1.11253e-01,-6.74361e-01,1.21648e-01,-2.53766e-01,
2.42553e+00,-3.60351e-01,-2.12896e-01,3.21111e-01,5.05283e-02,-2.46210e-02,9.98310e-02,-1.06036e-01,-7.56199e-02,9.49813e-02,-2.37016e-02,2.62665e-01,4.62682e-01,4.12759e-01,-6.44203e-01,-2.80970e-01,-2.68553e-03,5.90815e-01,-5.10162e-01,5.41348e-02,3.08557e-01,-3.71423e-01,-7.10843e-01,-1.26601e+00,-1.82092e-01,
-1.13772e+00,-8.24200e-01,-7.56619e-01,8.10056e-02,-1.16437e+00,-2.06492e-01,-2.03290e-01,3.65500e-01,-6.24708e-02,6.26171e-01,-6.57940e-01,-4.84317e-03,5.55044e-01,7.80171e-01,-5.09232e-01,2.57441e-02,2.93869e-01,-6.11765e-01,9.27053e-02,-3.34420e-01,3.18399e-01,-2.09374e-01,-9.92727e-01,-7.72197e-01,-3.87478e-01,
-3.28665e-01,-9.85167e-01,-1.74142e+00,-1.02062e+00,-8.48757e-01,-2.78570e-01,-3.54995e-01,-1.06397e-01,2.68353e-01,7.70367e-01,-4.45490e-01,4.49730e-01,7.25062e-01,-1.46954e-01,5.18111e-01,-1.37764e+00,-5.07434e-01,-1.37903e+00,9.97559e-01,-3.30200e+00,-6.97383e-01,5.91687e-01,-3.78678e-01,1.79645e-01,7.37857e-01,
-1.84029e-01,6.00496e-02,-2.35711e-01,4.36827e-01,8.68594e-01,-9.34904e-02,-5.93248e-01,6.27221e-01,-4.46374e-01,1.87882e-01,1.39053e-01,-4.39400e-01,5.76002e-01,1.06715e-01,7.43416e-01,2.51132e+00,-2.85948e-01,2.12842e-01,-2.49878e-01,2.79907e-01,-1.25182e+00,4.35743e-01,-3.84369e+00,-1.54469e+00,-6.66770e-01,
5.79157e-01,
-3.55674e-01,
-1.98440e-01,
-6.28576e-01,
-4.29923e-01,
3.44105e-01,
-9.99352e-01,
-3.74900e-01,
1.49515e-01,
4.17628e-01,
2.33949e-01,
1.47730e-01,
-8.73687e-01,
-1.19609e-01,
-2.02631e-01,
4.77378e-01,
-2.28920e-01,
-2.24236e-05,
4.29120e-01,
1.81793e-01,
-4.96497e-02,
6.09148e-01,
1.07048e+00,
-1.95210e-01,
-9.85411e-01,
2.10832e-01,1.06301e-01,-7.04608e-02,-2.12479e-01,-1.82161e-01,2.24489e-01,2.30953e-01,6.17385e-02,1.83119e-01,-1.45676e-01,-6.39402e-01,-6.14682e-01,-9.44273e-01,-5.40304e-02,2.05551e-02,4.31076e-02,-2.33469e-01,2.29811e-01,-2.11050e-01,7.72733e-01,3.46801e-01,1.55099e-01,-1.55430e-01,-5.71779e-01,2.19712e+00,
-1.85240e-01,-5.29541e-03,-1.08900e-02,2.88263e-03,-1.31446e-01,-2.55377e-01,1.82106e-01,4.04930e-02,1.86555e-01,1.96271e-01,-1.01494e-01,2.03152e-01,1.69330e+00,-1.11272e-01,-2.56471e-01,-2.70252e-01,2.48771e-01,1.05072e-01,-2.03454e-01,-1.56603e-01,-1.04111e-01,-9.87043e-02,4.32025e-01,-4.14208e-01,-1.87761e+00,
2.57288e-01,-1.22869e-01,1.30573e-01,-1.51280e-01,3.78354e-01,-1.84001e-02,6.02754e-01,-8.52739e-02,-1.06873e-01,2.12133e-01,5.52517e-01,-6.22658e-02,9.80691e-01,-1.43461e-01,-3.19720e-01,3.10683e-01,1.08149e-01,2.97197e-01,-3.12946e-01,1.55444e-01,4.22631e-01,-1.39515e-01,-4.83599e-02,5.03870e-01,1.80504e+00,
9.36372e-02,-1.70505e-01,2.59405e-01,-1.04509e-01,2.85780e-01,1.50053e-01,1.07294e-01,-2.95115e-01,-2.66214e-01,-1.60549e-01,-1.30271e-01,7.34908e-02,-2.72846e-01,-2.20880e-02,3.33595e-01,-3.10488e-01,4.33707e-03,1.06172e-01,-6.12438e-02,-8.51457e-02,-2.90255e-01,4.86705e-02,-2.88042e-02,-4.20105e-02,-2.45884e-02,
3.95649e-01,-7.78508e-02,-2.65767e-01,2.81826e-01,2.07326e-01,-3.67320e-02,5.60339e-02,2.82551e-02,4.70451e-01,3.32238e-01,-4.69400e-01,-1.86406e-01,9.59617e-01,2.99698e-01,2.19943e-01,-3.22994e-01,1.57943e-01,-1.68771e-01,-7.67568e-02,1.34425e-01,-1.81899e-01,8.20636e-02,3.14614e-02,-9.32981e-02,1.11053e+00,
3.26648e-01,9.81918e-02,-2.99854e-01,1.03644e-02,7.87583e-02,-1.95861e-01,-3.96301e-01,6.02702e-02,-1.33588e-01,1.91855e-01,-8.96876e-02,2.49020e-01,-7.37964e-01,-1.39481e-01,-2.09097e-01,-4.69137e-01,3.33042e-01,-1.39475e-01,-1.03984e-01,1.20550e-02,5.47659e-02,-7.71005e-02,-9.17217e-02,2.93388e-01,1.19298e+00,
5.93025e-01,-2.70987e-01,-1.37680e-01,1.86479e-01,1.15366e-01,6.23344e-02,7.14037e-01,1.87963e-01,-2.00957e-02,6.07933e-01,-2.86162e-01,4.49279e-01,2.70318e-01,-2.20601e-01,1.25791e-01,-1.91761e-01,-2.02845e-01,-1.91067e-01,-3.12748e-01,1.00855e-01,-3.71251e-01,-3.57088e-01,5.94266e-01,-6.06670e-01,-6.94291e-01,
2.13081e-01,4.32899e-02,9.40977e-02,-4.88043e-02,-8.51165e-02,-1.64985e-01,7.68197e-01,1.17495e-01,3.07095e-01,4.03121e-01,5.43926e-01,2.88615e-01,-4.87085e-02,-1.37553e-01,-2.89408e-01,-1.48341e-01,-2.23768e-01,3.87247e-02,-2.68450e-01,-3.54388e-01,-5.67863e-02,7.69969e-01,-8.22333e-01,5.85963e-01,2.49963e+00,
-7.65263e-02,-1.84583e+00,6.96188e-01,-6.78260e-02,-1.14485e-01,-7.69963e-01,-5.26765e-01,-1.30711e-01,-1.04030e-01,8.17492e-01,-8.13716e-02,-3.56679e-01,-1.64515e+00,1.40245e-01,-2.29364e-01,5.88332e-01,-3.33495e-01,6.91798e-02,9.15108e-01,1.64455e-01,-2.26867e-01,-4.79441e-02,1.68417e-01,-1.24525e-01,1.67247e+00,
1.49658e-01,3.17359e-01,-2.12978e-01,-2.39464e-02,-1.70498e-01,-3.59324e-01,7.81536e-01,-2.69221e-01,1.05032e-01,2.30516e-01,4.47729e-01,8.20362e-02,-6.13850e-01,-3.22491e-02,2.33748e-01,-2.25169e-01,2.25436e-01,-9.62825e-02,5.08970e-01,-3.50996e-02,8.74750e-02,-3.40228e-01,1.03755e+00,3.70266e-01,-1.31855e+00,
2.91203e-01,-2.48050e-01,-1.94687e-02,8.00010e-01,7.75611e-02,1.67073e-01,-8.66073e-01,-2.29689e-01,4.66373e-02,3.69171e-01,-4.70307e-02,-8.36927e-01,1.61127e-01,1.83850e-02,7.80928e-03,4.14429e-02,-1.51499e-01,3.03849e-02,4.95343e-01,-2.41724e-01,-3.41536e-01,-1.89152e-01,4.95506e-01,2.60261e-01,3.96953e-01,
-4.73643e-02,6.30983e-01,4.35687e-01,-3.68860e+00,-5.74173e-01,-1.70491e+00,-6.01384e-01,-1.70146e-01,5.73376e-01,8.36281e-01,4.99853e-01,-2.01776e-01,-1.25402e+00,-1.56944e-01,-7.22784e-02,5.77168e-01,2.45629e-02,9.92861e-02,8.87062e-01,-1.33104e-01,-1.45508e+00,-2.88621e-01,4.06344e-01,-3.82421e+00,5.18343e-01,
6.56813e-01,1.74939e-01,1.93344e-02,-3.98362e-01,3.01595e-01,-6.74942e-01,-7.59306e-01,-2.27804e-01,2.36068e-01,-3.69258e-01,-6.93678e-01,5.35682e-01,6.04439e-01,1.30137e-02,2.33393e-01,1.03369e-01,-5.38050e-02,4.46583e-02,2.08340e-01,-3.78407e-02,-8.10188e-01,9.46174e-03,-6.55980e-02,3.09135e-01,5.97376e-01,
1.26641e-01,1.06803e-01,1.95970e-01,-1.58578e-02,-1.82376e-02,-4.45519e-02,9.25031e-01,1.23450e-01,8.38221e-02,3.49604e-01,-1.71118e-01,-2.02240e-01,5.34533e-01,6.94934e-02,-3.43722e-01,4.04733e-03,1.27931e-01,-1.82510e-01,-8.20641e-01,2.40777e-01,-9.85162e-02,7.42813e-02,3.71450e-02,1.28788e+00,9.59211e-01,
7.65461e-02,-2.43547e-01,3.95770e-01,-1.44853e-01,-3.48771e-01,-8.43325e-02,-1.20685e+00,2.52109e-01,3.27882e-01,-1.12576e-01,2.88348e-01,-1.94804e-01,7.73850e-01,-8.35534e-02,5.73167e-02,-2.45849e-02,-1.60524e-03,5.37734e-02,6.96488e-01,8.63965e-02,-4.51091e-01,6.14354e-01,6.74375e-01,2.52433e-03,-2.38596e+00,
-1.80643e+00,9.71524e-01,-5.91287e-01,-2.07133e+00,1.17706e+00,6.46323e-01,-7.81014e+00,-4.02173e-02,-4.25483e-01,9.16183e-01,-1.11622e+00,-3.47406e-03,-1.31912e+00,-3.04331e-01,-2.59747e-01,3.67448e-01,9.25196e-02,-1.88480e-01,-2.25824e-01,-4.95272e-02,-1.00777e+00,-9.74816e-01,-2.97242e-01,-2.95926e+00,2.97067e-01,
-9.69549e-02,-1.67790e-01,-1.36812e-01,-2.46433e+00,7.70421e-02,5.42308e-01,-4.58666e-01,-2.67581e-01,-2.13327e-01,4.67506e-01,-1.42963e+00,-5.88999e-01,-7.24894e-01,1.83251e-01,-1.72156e-01,-5.19878e-02,1.65748e-01,-3.33045e-02,-1.95986e-01,7.35078e-02,-3.33263e-01,1.67628e-01,-4.74916e-01,6.40184e-02,2.21101e+00,
-2.82492e-02,1.75579e-01,-5.40242e-01,3.92781e-02,1.68412e-02,-1.43878e-01,-4.57679e-01,-2.81902e-01,3.50092e-01,6.22586e-01,-3.38593e-01,3.33360e-01,1.04795e-01,1.37687e-01,-6.36906e-02,-3.71518e-02,1.59993e-01,1.80526e-01,1.38605e-01,6.09846e-02,-8.79307e-02,-7.92847e-01,2.92242e-01,4.80951e-01,2.38905e+00,
3.58972e-01,-2.78395e-01,7.57751e-03,1.13101e+00,2.21965e-01,3.13271e-01,-2.11156e-01,-4.89196e-02,-3.25348e-01,3.27235e-01,3.56184e-01,-9.07302e-01,1.04850e+00,2.84053e-01,-1.25934e-01,-1.39803e-01,-1.83082e-02,-1.81880e-02,6.37555e-01,-7.04560e-01,-2.51938e-01,2.01517e-02,4.22680e-01,3.45007e-01,1.68831e-01,
5.98498e-01,1.41815e-01,-3.90127e-01,-8.08133e-02,-2.07663e-01,-2.28094e-01,-1.65597e-01,2.67408e-01,4.36101e-01,-4.73711e-01,1.34040e-01,4.10738e-01,2.97819e-02,-2.70094e-01,7.26636e-02,-6.86562e-01,-2.82783e-01,-2.66860e-01,-8.85398e-01,-2.26775e-02,1.14654e-02,3.34444e-01,-1.84676e-01,-4.31815e-01,8.26524e-01,
1.05256e+00,-3.71960e-01,1.11157e-01,2.11142e-01,-2.98797e-01,2.26155e-01,-1.42101e+00,-5.01513e-02,5.37705e-04,-1.58149e-02,5.90809e-01,3.81385e-01,-1.26745e-01,1.99597e-02,1.86024e-01,5.00774e-01,2.16586e-02,6.54432e-02,-7.12202e-01,-6.54508e-01,-4.85031e-01,8.25221e-01,-1.12395e+00,-3.26171e-02,3.87307e+00,
-1.57139e-01,7.64129e-03,-2.80344e-01,2.32138e-02,-1.28375e-01,-1.77395e-01,-4.71393e-02,2.97214e-01,-9.94636e-02,-1.79747e-02,3.21561e-01,1.61290e-01,-3.02830e-01,-3.58253e-02,-2.99289e-01,-3.10294e-01,5.63659e-02,1.72591e-01,2.25973e-01,-9.36801e-02,-2.38280e-01,-1.60944e-01,-2.81630e-01,4.32564e-02,1.41011e-01,
4.33229e-01,1.04959e-01,-2.68983e-02,-5.31798e-02,-2.16707e-01,-1.24206e-01,1.37972e+00,2.22364e-01,1.34634e-01,-1.55435e-01,5.63471e-01,-1.20127e-01,2.82036e-01,-5.99355e-03,-3.39316e-01,-1.85553e-01,2.22505e-01,2.30286e-01,2.99446e-02,1.24504e-01,5.25751e-01,-1.54846e-01,1.56554e-01,-3.91470e-01,-2.31030e+00,
5.35727e-01,2.88896e-01,-1.51587e+00,-2.99157e+00,3.86713e-01,7.72378e-02,3.19026e-01,-2.17880e-01,-3.31170e-01,4.74471e-01,1.20996e+00,-1.82578e+00,1.57418e+00,-1.80377e-01,-1.92798e-01,7.26229e-01,-1.61324e-01,-2.04696e-01,9.17334e-01,1.75332e-01,-1.00736e+00,-8.55280e-01,-2.76237e-01,6.53486e-01,1.44896e+00,
5.32402e-01,-8.71575e-02,-5.22149e-01,5.86219e-01,2.44848e-03,-9.13037e-02,-3.55490e+00,9.62607e-02,5.79434e-01,-3.10551e-01,3.94779e-01,-1.59159e-01,-1.32531e+00,1.88242e-01,1.26769e-01,-5.42230e-01,-1.02190e-01,-1.13805e-01,4.49941e-02,-2.86462e-01,3.95354e-01,7.15785e-01,-6.99094e-01,-3.99021e+00,-6.97881e+00,
7.77633e-03,
2.05593e-01,
-1.73813e-01,
-3.27767e-01,
1.41207e-01,
2.38527e-01,
-1.63879e-01,
5.01262e-02,
7.56524e-02,
1.29441e-01,
3.58602e-01,
-1.39911e+00,
-1.63961e-02,
3.35212e-02,
8.40216e-02,
-6.09743e-02,
3.07675e-01,
1.95026e-01,
2.84413e-01,
-9.20050e-02,
-8.70425e-02,
-2.40273e-01,
-7.32725e-02,
-4.29676e-01,
-4.00399e-01,
-2.01553e-01,-2.41537e-01,-1.25147e-01,-1.58817e-01,1.16446e-01,7.08329e-02,-1.03159e-01,4.44963e-02,-7.98953e-02,9.16475e-02,-5.78121e-03,3.14188e-02,-5.06827e-02,-1.23016e-01,-1.17442e-01,-5.29013e-02,-1.85588e-01,-4.89223e-02,2.91233e-01,-2.14890e-02,4.54842e-03,2.03286e-01,1.11617e-01,-1.13859e-01,-2.26584e-01,
4.25871e-01,7.78067e-01,-1.63433e-03,-1.84627e-01,-4.18796e-01,1.79887e-01,3.82040e-01,-2.05173e-01,1.33630e-01,1.75278e-01,6.93301e-01,1.93930e-02,-1.04239e+00,-4.57625e-01,1.32987e-02,2.20673e-01,-2.21180e-02,-2.46793e-01,-1.07911e+00,-2.29120e-01,2.95710e-01,-2.43007e-02,-4.28531e-01,-1.74919e-01,-5.57481e-01,
2.26307e-01,-3.19245e-01,2.32498e-01,3.35183e-01,4.61322e-02,-7.05334e-02,3.83959e-02,6.85569e-02,-3.10057e-01,3.80360e-02,-7.48972e-01,-3.02125e-01,2.55625e-01,1.29120e-01,2.51715e-01,-1.18367e-01,1.09877e-01,4.41501e-01,5.57462e-01,-1.35624e-01,-6.70096e-02,1.38499e-02,-4.16593e-01,-2.76352e-01,7.09025e-01,
-2.05043e-01,-7.76023e-02,-1.71513e-01,-1.85261e-01,-5.21527e-01,1.02384e-01,-1.54617e-02,8.37782e-02,8.53643e-02,1.67688e-01,1.05491e-01,-4.68075e-02,3.10713e-01,-1.13984e-02,-1.09728e-01,-2.28526e-01,-1.80833e-02,1.12265e-01,1.27752e-01,-8.24284e-02,3.30848e-01,-2.62627e-01,9.13848e-02,-1.06229e-01,3.53109e-01,
2.41017e-01,-1.24429e-01,3.30173e-01,8.98917e-02,4.52591e-02,-8.45309e-02,-2.71471e-01,1.37891e-01,1.47952e-01,-6.95970e-01,-3.77691e-01,1.68063e-01,-2.62413e-02,3.32485e-02,7.20267e-02,6.21294e-02,3.99298e-01,-3.49348e-01,1.19578e+00,4.82255e-01,-8.08273e-01,2.22446e-01,-1.33226e-01,-2.64223e-01,-1.50803e-01,
2.53712e-01,-2.02533e-01,2.24896e-01,-3.03020e-01,2.43524e-01,8.61303e-02,-1.40340e-01,-2.39902e-01,1.08156e-01,7.43902e-02,-1.56104e-01,2.28722e-02,3.43103e-01,2.11423e-01,-5.21625e-02,1.41836e-01,-8.79065e-02,6.69252e-02,-1.95553e-02,1.50018e-01,-1.32413e-01,-3.05966e-01,-1.59795e-01,2.25218e-01,1.32507e-01,
-4.11320e-01,9.06592e-02,2.53800e-01,-3.36183e-01,-1.48470e-01,-2.16440e-01,-2.77574e-01,-6.67178e-01,-3.26062e-01,-1.08971e-01,1.92232e-01,2.47296e-01,-7.75137e-01,1.03242e-01,-9.50241e+00,-1.45827e-01,3.72210e-01,3.06601e-01,-4.89045e-01,5.05864e-02,4.55225e-01,-2.38616e-01,-1.27634e-01,2.33196e-01,-8.01299e+00,
-3.34364e-01,-1.00762e-01,-3.60213e-01,-7.73808e-03,-7.66007e-02,-4.99387e-01,-4.31010e-04,3.56111e-02,-7.33284e-03,-2.26962e-01,3.05149e-01,-7.99554e+00,-2.73217e-01,2.33941e-02,-1.08696e-01,7.01709e-02,-2.43401e-01,2.65646e-01,-1.34409e-01,-1.38844e-01,-4.00894e-01,1.69974e-01,2.50394e-01,-3.38757e+01,-1.13464e-01,
7.21947e-02,1.23481e-01,8.77097e-02,9.59292e-02,2.01212e-01,-1.50627e-01,1.81545e-01,-3.58386e-01,1.38961e-01,3.30977e-01,6.43373e-01,3.08602e-02,1.15662e-01,-3.01148e-02,-2.04151e-01,1.00252e-02,-1.50325e-03,-3.03989e-01,-1.02045e+00,5.64329e-02,2.16876e-01,2.97325e-01,1.29933e-01,5.40177e-01,1.28833e-01,
-2.47667e-01,-1.95875e-01,-6.93341e-02,-2.83720e-01,3.86480e-01,-2.66999e-01,-2.19020e-01,-2.58748e-01,6.48953e-02,4.39322e-01,6.98952e-02,1.47735e-01,-1.75528e-01,-1.60352e-01,-1.42271e-01,1.03867e-01,9.15990e-03,1.30074e-01,-5.20566e-01,9.22681e-02,-3.63990e-03,-2.94746e-01,1.64491e-01,-1.01066e+00,1.43307e-01,
6.14470e-02,-2.08884e-01,3.25139e-01,-2.35198e-01,3.65609e-01,-3.14777e+00,4.74409e-01,7.52621e-01,9.00526e-02,-5.67489e-01,5.58752e-02,-9.23517e-01,-2.25121e-01,7.40567e-01,6.31403e-01,-1.66402e-01,-1.22675e+00,2.00910e-02,-2.99842e-01,-9.48026e-01,1.74258e-01,-5.08645e-02,-4.52684e-01,-3.26312e-01,1.10257e-02,
8.05342e-01,-7.60579e-01,1.13843e-01,-1.16154e-01,6.82303e-01,1.31419e+00,-9.07158e-01,-5.23800e-01,-9.74980e-01,4.06623e-01,6.91930e-01,-2.93274e+00,1.18126e+00,-5.40049e-01,2.47668e-01,-7.41631e-01,-4.12875e-01,-1.00864e-01,-6.58146e-02,-1.17342e+00,-6.38226e-02,-2.72581e-01,-7.10984e-01,-2.12089e+00,-2.94371e-01,
7.05127e-01,-7.05864e-02,3.64977e-01,-2.13627e-01,1.37558e-01,2.01771e-01,1.94241e-01,-2.10210e-01,1.40655e-01,1.51907e-01,2.50345e-01,6.42508e-02,2.38977e-02,1.42451e-01,-6.12502e-02,-4.78970e-02,1.12289e-01,-1.99234e-01,-4.66099e-01,-9.77950e-02,-2.54149e-02,-7.11718e-02,5.69169e-02,7.41884e-01,1.29340e-01,
-5.61587e-02,-1.68040e-01,1.62972e-01,1.71516e-02,-6.94591e-02,1.27408e-01,-1.69675e-01,-9.56813e-02,-6.65547e-02,3.68782e-01,2.50111e-01,-1.63801e+00,-1.39967e-01,1.09423e-01,7.11031e-03,-1.39290e-02,2.87835e-01,-8.49057e-02,-5.65078e-01,2.44749e-01,-1.01363e-01,5.62641e-02,-4.25626e-01,-1.30272e+00,1.88762e-01,
-1.36701e-01,1.96245e-01,9.90287e-02,6.48097e-02,1.81110e-01,2.60459e-01,2.86834e-01,-1.25145e-01,2.50094e-01,1.49061e-01,-4.00535e-01,3.07827e-01,-3.39207e-02,1.78242e-01,-7.70665e-02,3.39493e-02,3.23801e-01,-2.97132e-01,1.36477e-01,2.34459e-01,2.07516e-01,2.98248e-01,-4.38637e-01,-1.32957e+00,-1.33925e-01,
4.54924e-02,3.28114e-01,1.27584e+00,1.70373e-02,1.19718e-01,1.21047e+00,-1.62026e+00,-1.02894e-01,-6.06794e-01,-7.60559e-01,1.27666e+00,-5.75983e-01,-7.42482e-02,-2.79580e-01,9.01651e-01,-3.22234e+00,8.22068e-01,-4.99966e-01,-7.33934e-01,1.07368e+00,-1.15557e+00,-1.10232e-01,-1.21445e+00,-9.76668e+00,-7.81726e-01,
-2.94229e-01,2.08327e-01,4.53958e-03,1.42705e-01,-3.42751e-01,3.21448e-01,-2.61640e-02,1.36144e-01,1.73801e-01,-1.70125e-01,-2.18596e-01,-2.89517e-02,-8.08034e-02,-1.29502e-01,2.48330e-01,2.29961e-02,2.79373e-01,-2.97559e-01,-1.14399e-01,8.97492e-02,-3.26972e-01,6.10544e-02,-2.86048e-01,-8.32713e-02,1.87570e-01,
-3.32593e+00,2.78537e-02,7.77901e-02,1.01562e-01,5.51483e-01,9.87849e-01,-1.73396e+00,-1.79979e-01,-1.93812e+00,1.23252e-01,-3.77655e-02,1.52404e+00,-5.68530e-01,5.48968e-02,5.06147e-01,4.82990e-01,-2.78289e-01,8.56284e-01,5.16402e-01,-1.44547e+00,-2.98609e-01,3.04132e-01,4.35177e-01,-2.34956e-01,-1.89200e+00,
6.45835e-02,3.03431e-02,-8.28574e-04,2.19908e-02,4.24900e-01,-7.72725e-02,-2.22730e-02,1.30560e-01,-1.50386e-01,9.90621e-02,2.68711e-01,-3.66815e-01,-1.41673e-02,-1.43941e-02,1.87800e-01,-6.17659e-02,-1.83125e-01,1.12493e-01,-6.13753e-01,2.67600e-02,3.28749e-01,-1.13627e-01,-2.15991e-01,3.39928e-01,-2.39433e-01,
7.83278e-01,-9.71948e-02,4.12481e-01,-9.47404e-02,2.75962e-01,2.67633e-01,1.62609e-01,-6.60078e-02,3.93385e-02,3.98352e-02,2.20993e-01,-9.66405e-02,-3.20414e-03,1.55756e-01,9.38288e-02,-1.01428e-01,8.12966e-02,-1.19114e-01,-4.04794e-01,-1.17082e-01,1.17593e-02,3.04118e-01,-2.63826e-02,7.67931e-01,-3.47464e-02,
1.80940e-01,1.73514e-01,2.31768e-01,-3.80296e-03,2.33722e-01,-3.65990e-01,-1.81644e-01,2.91499e-01,-4.14253e-01,3.75287e-01,2.52454e-01,-1.47380e-01,-8.00031e-02,-2.75212e-01,3.67084e-02,-8.27609e-02,-2.21047e-01,2.51169e-01,-3.86893e-01,-3.15647e-02,1.51670e-01,-9.56450e-02,-1.83489e-01,-3.29207e-01,-3.33156e-01,
3.45581e-01,-2.00539e-02,4.29487e-01,-7.30361e-02,2.53861e-01,-1.18118e-01,-8.04960e-02,3.12871e-01,-6.03848e-02,-3.83936e-01,1.84070e-01,-8.07843e-02,-2.84631e-01,2.17879e-02,2.21790e-01,-1.19417e-01,4.75959e-01,-4.37839e-01,9.61524e-02,5.52851e-01,-5.16125e-01,1.24499e-01,-5.43355e-01,9.13055e-02,-3.63817e-01,
7.94142e-02,-1.00027e-01,1.49722e-01,-9.54708e-02,-3.57220e-01,8.05661e-02,2.44673e-01,2.68986e-01,-2.09392e-01,2.76565e-01,7.99217e-01,-2.18144e-01,3.40032e-01,1.04915e-02,6.74550e-02,-1.46612e-02,9.46753e-02,-3.92851e-02,-8.79185e-01,3.64862e-02,9.52891e-02,3.04118e-02,-4.75719e-01,1.91116e-01,-2.90787e-02,
8.99418e-02,-4.25893e-01,-4.24722e-02,1.92791e-01,4.54916e-01,-3.84290e-01,2.51949e-01,1.81679e-01,-3.76404e-01,1.36923e-01,-9.05249e-01,-2.59363e-01,-7.96736e-02,-3.83850e-01,4.03098e-01,-2.41891e-01,-9.20283e-02,4.43456e-01,-1.47392e-01,-2.25451e-01,2.48303e-02,2.02560e-02,4.71462e-02,-1.75700e-01,7.00233e-02,
1.94427e-01,-6.08258e-02,5.14366e-02,-7.76256e-02,1.17155e-01,5.68584e-01,-1.33735e-01,6.26915e-01,-7.03500e-01,-2.75662e-01,6.30322e-01,-2.34897e-01,-5.28586e-02,6.57361e-02,4.23592e-01,-3.01490e-02,-6.71590e-01,2.50574e-01,-3.32631e-01,-3.91054e-01,-3.65817e-01,-2.65848e-01,-7.37927e-02,-2.77311e-01,-3.31706e-01,
2.36938e-01,
-1.00210e-01,
2.38232e-02,
-3.37706e-02,
1.69323e-01,
8.79131e-02,
9.86472e-02,
1.18409e-01,
1.11633e-01,
1.39143e-01,
-1.60339e+00,
-6.76832e-01,
-5.70919e-02,
7.02851e-02,
-2.13410e-02,
-7.45329e-01,
-2.57294e-01,
-7.51024e-01,
4.33304e-02,
-1.10799e-01,
-1.71668e-01,
1.83549e-01,
-2.55897e-02,
-1.14813e-01,
-3.09417e-01,
-1.36741e-02,1.60726e-02,-4.87980e-02,2.37038e-02,6.64786e-03,2.60950e-02,6.33688e-02,-7.53422e-03,3.63394e-02,-4.26710e-02,7.23133e-02,-1.86695e-01,-8.21739e-02,3.11736e-02,3.45399e-02,-2.19080e-01,-1.10542e-01,9.90950e-02,-4.50441e-02,6.87668e-02,-7.61520e-02,-2.32167e-02,-2.05751e-02,-1.52045e-01,-1.53513e-01,
2.11561e-01,-1.69578e-02,7.42848e-03,-7.15906e-02,-3.46155e-02,-3.44370e-02,-1.75164e-01,-9.68248e-01,6.88279e-02,-2.73182e-02,1.56103e-02,-1.27910e-01,1.76999e-02,2.50467e-02,1.04566e-02,1.17883e-01,-3.35603e-01,2.96831e-02,-5.61925e-02,-2.44489e-02,-9.40416e-02,9.24831e-02,1.05969e-01,-1.85283e-01,-7.16650e-02,
-4.61661e-02,5.37848e-02,-3.70833e-02,4.84981e-02,-6.38380e-02,-5.14566e-02,-1.34382e-02,-9.75090e-03,-9.32393e-02,3.98371e-02,4.14287e-02,-1.12170e-01,-3.53744e-02,-6.97354e-03,-9.93618e-02,-1.03669e-01,3.49157e-01,1.29682e-02,-1.46965e-01,7.76540e-02,-1.85805e-02,6.27861e-02,-1.67363e-03,-1.78464e-01,-7.16237e-02,
1.39244e-01,3.59256e-02,-5.78537e-02,2.87146e-02,-4.77448e-02,1.65011e-02,-1.49427e-01,-4.17112e-01,3.98942e-02,-2.10666e-02,3.49951e-02,-1.01509e-01,8.65786e-03,-1.39839e-02,-2.83943e-03,-1.09483e-01,3.97199e-01,2.01170e-02,-4.86874e-02,-3.52779e-02,-6.15032e-02,9.23919e-02,2.00719e-02,-1.78455e-01,-2.99660e-02,
-2.74816e-03,4.38290e-02,-4.63267e-02,9.13887e-03,-7.13792e-02,9.20280e-03,-4.76455e-02,-1.07383e-01,-7.15148e-02,1.78938e-02,4.62159e-02,-1.20258e-01,4.98489e-02,-2.97247e-02,-2.54338e-02,-1.69109e-01,-3.42994e-01,2.45518e-02,-9.74484e-02,-3.54533e-02,-3.81765e-02,8.06631e-02,-2.54950e-02,-1.65897e-01,-5.29460e-02,
7.56167e-02,-1.01449e-02,-1.41774e-01,-5.50250e-03,-2.85212e-02,-1.76133e-02,-2.68186e-01,-2.72735e-02,6.90135e-02,1.40310e-02,4.90300e-02,8.14942e-05,-3.24487e-02,-1.50297e-02,-1.58046e-02,-3.45431e-01,1.56848e-01,1.97692e-02,-1.42661e-02,-1.51437e-03,-5.37166e-03,7.27009e-02,-1.40215e-02,-2.29316e-01,2.00030e-02,
8.69827e-02,1.18859e-01,6.31795e-03,3.77671e-02,-1.64378e-01,1.27051e-01,-1.00866e-01,-2.21564e-02,-4.72085e-02,-2.48577e-02,3.55992e-02,-1.44187e-02,-1.07691e-01,-6.25644e-02,-1.21521e-02,-1.20480e-01,1.20554e-01,-1.39018e-02,-1.56957e-01,6.85996e-02,-7.47327e-02,1.74483e-01,-8.61490e-02,-8.92939e-02,2.97529e-03,
1.11902e-01,3.32215e-02,-6.64132e-02,2.57895e-02,-3.74009e-02,1.04472e-02,-1.47880e-01,-8.73223e-02,3.43741e-02,-2.00889e-02,3.96726e-02,-8.36644e-02,6.84361e-03,-1.57886e-02,-1.49521e-03,-1.02626e-01,-1.54853e-01,1.52454e-02,-3.73618e-02,-3.26959e-02,-7.68545e-02,7.31091e-02,1.23248e-02,-1.82476e-01,-2.59583e-02,
4.70302e-02,2.45719e-02,-4.24463e-02,1.52826e-02,-1.01768e-01,2.85848e-02,-3.76941e-02,4.26270e-03,-1.55430e-01,-2.52607e-02,4.93583e-02,-1.00627e-01,3.60497e-01,-3.00991e-02,1.09203e-03,-1.14964e-01,3.68397e-01,2.58054e-02,2.48880e-02,-3.31712e-01,-5.05506e-02,1.12396e-01,-2.41833e-02,-1.51547e-01,-5.30628e-02,
1.60420e-01,
7.49668e-02,
1.73359e-01,
-2.30550e-01,
-1.74815e-01,
1.20230e-01,
1.34414e-01,
-2.22093e-01,
1.37286e-01,
