// Neural Network File Format by Kyle Julian, Stanford 2016
6,4,9,25,
4,25,25,25,25,25,9,
0,
-8000.000000,-100.000000,-100.000000,0.000000
8000.000000,100.000000,100.000000,40.000000
0.000000,0.000000,0.000000,20.000000,-4.683445
16000.000000,200.000000,200.000000,40.000000,30.305804
-3.66736e-01,2.46790e-01,-5.29163e-01,-1.56053e-01,
-5.89605e-01,9.93647e-02,-5.91968e-02,-5.09506e-01,
1.69975e-02,3.45274e-02,-1.27609e-01,-5.96404e-02,
2.80149e+00,-2.59028e-02,6.57263e-02,-7.76367e-01,
-1.02120e+00,-7.79051e-01,-1.17063e-01,-5.08691e-02,
1.72966e+00,-4.40234e-01,5.35579e-01,1.25673e-01,
-1.04496e+00,1.47192e+00,-3.60810e-01,8.56440e-02,
-5.21469e+00,5.58557e-03,3.65461e-03,2.98076e-03,
3.05655e+00,1.74542e-01,-8.80619e-02,-7.26359e-01,
-2.32585e+00,1.26838e-01,-6.57420e-01,6.51998e-02,
4.78053e-02,-3.19456e-01,-4.69880e-03,-2.31031e-01,
3.29145e+00,-2.81353e-01,2.97286e-01,-3.15231e-01,
2.93716e+00,-8.01213e-02,3.58241e-01,-3.13324e-01,
-2.55831e+00,-1.69536e-01,3.17503e-01,-1.01703e+00,
-1.04226e-01,7.92614e-01,4.41350e-02,-2.68201e-02,
2.05588e-01,-1.64928e+00,3.49856e-02,1.78028e-02,
-3.37825e+00,3.22168e-01,-2.58703e-01,-2.88707e-01,
-2.15934e+00,4.04290e-01,4.75428e-01,1.99202e-01,
1.64234e-01,2.55729e-01,-1.12193e-01,-6.94888e-03,
-7.76187e-01,-3.38908e-02,1.81074e-01,5.08636e-01,
3.58829e+00,6.67792e-02,2.80586e-03,-5.09093e-02,
-1.62752e+00,5.70318e-01,-2.35688e-01,-4.13680e-01,
-4.78735e+00,5.62358e-01,-6.53714e-01,-1.57441e-01,
1.49368e+00,5.72116e-02,-2.08433e-01,4.40529e-01,
8.55978e-01,2.29796e+00,1.95039e-01,3.28672e-02,
3.19876e-01,
5.87964e-02,
-1.25530e-01,
-7.10079e-02,
1.54642e-01,
8.69227e-02,
-2.98241e-01,
2.28984e-01,
-2.60721e-01,
8.86264e-02,
1.04143e-01,
-1.52537e-01,
7.14643e-02,
-4.14618e-01,
4.28092e-01,
-5.35357e-02,
1.73566e-01,
-1.83740e-01,
-2.73941e-01,
1.58142e-01,
2.07668e-01,
-2.54476e-02,
8.64383e-02,
1.00575e-01,
-1.09605e+00,
-5.51425e-01,-2.29439e-01,6.36437e-02,-3.85046e-01,-8.05523e-02,-6.82703e-01,-1.07643e+00,4.21340e-01,5.55655e-02,-9.53189e-01,-1.15985e-01,-2.32127e-01,9.44030e-01,-7.67106e-01,3.59091e-01,7.46151e-01,-6.51894e-01,-4.95717e-01,1.06106e-01,3.22886e-01,1.95912e-01,9.54452e-02,-2.56878e-01,-5.37150e-01,-6.69166e-01,
-1.01684e+00,2.53642e-01,2.96046e-01,4.08764e-01,7.80098e-01,8.88468e-01,1.01014e+00,-5.02848e-02,-9.48728e-01,-2.86049e-01,3.73096e-01,1.81640e-01,1.36679e-01,-2.27801e-01,-4.25362e-02,-4.99992e-01,-7.64325e-01,-4.99473e-01,5.30109e-02,-1.31301e-01,-6.06012e-01,8.28469e-01,5.42482e-01,-3.72919e-01,-2.17936e+00,
-3.10111e-01,7.71325e-01,2.65486e-01,-4.05613e-01,5.87051e-01,-2.19489e-01,-5.48616e-02,2.86569e-01,6.15776e-02,3.80716e-01,5.37596e-01,6.09419e-01,1.17002e-01,3.01723e-02,-5.98715e+00,1.87100e+00,-6.45673e-02,5.86964e-01,1.45887e-01,-6.24290e-01,-6.29499e-01,-2.24553e+00,-9.54792e-02,5.64609e-01,1.56631e-01,
-3.12377e-01,-2.96417e-01,-1.69012e-02,-4.06311e-01,2.36250e-01,-3.85889e-01,-2.47076e-01,-1.97826e-01,4.18634e-01,4.76467e-01,2.74646e-01,2.97779e-01,-1.05075e+00,-3.18800e-01,4.64643e-02,3.73016e-01,1.31874e-01,1.01881e+00,2.19177e-01,-3.38138e-01,7.24573e-01,6.84797e-01,6.82359e-01,3.18307e-01,3.12309e-01,
2.30081e-01,7.42552e-01,-2.55684e-01,4.06124e-01,-4.65189e-01,-4.81054e-01,-2.22437e-01,-4.52917e-01,-2.41460e-01,-1.84806e-01,4.55785e-01,-6.57535e-01,6.59383e-01,-3.26607e-01,4.13119e-01,3.18057e-01,1.03898e+00,-1.08707e-02,-1.27548e-02,7.57252e-02,-9.15176e-02,6.89993e-02,-6.78079e-02,-8.43041e-03,-2.29209e+00,
1.19343e-01,-1.21161e-02,2.20819e-01,7.17379e-01,1.51188e+00,-9.95530e-02,8.02521e-01,-7.90053e-01,-4.84576e-01,-1.02034e+00,-8.73051e-01,-3.30055e-01,4.63908e-01,1.09624e-01,7.63435e-01,-2.73125e-01,9.63720e-01,-1.35196e-02,-1.09236e-01,6.14060e-01,-6.13196e-01,2.30738e-01,8.24991e-02,1.34738e-01,6.06484e-01,
3.24360e-01,-2.75623e-01,-1.61771e-01,-8.32124e-01,1.39541e-01,-1.67116e-01,-6.62137e-02,-2.37753e+00,2.26674e-01,-1.55276e-01,-3.30850e-02,7.34529e-01,-2.40265e-01,1.24565e-01,1.97496e-01,-2.31020e-01,-1.93114e-01,-1.05229e-01,-2.21626e-01,-2.56005e-01,-4.39824e-02,1.14712e-01,7.43212e-01,5.83094e-01,-1.17882e+00,
-8.28142e-01,3.08817e-01,2.06273e-02,3.36219e-01,-7.55831e-03,-8.45687e-01,-5.19181e-01,8.00865e-01,3.09233e-01,-3.57506e-01,-1.22164e-01,-3.16389e-01,-2.47120e-01,-2.05093e-01,-5.17269e-02,6.27729e-01,6.89931e-01,2.41759e-01,-3.23190e-01,4.37105e-01,9.11852e-01,3.20363e-01,-1.55625e+00,-5.61439e-01,1.15261e+00,
-2.45090e-01,-6.35130e-02,3.46304e-01,-7.76858e-02,-1.11842e+00,-4.62055e-01,-8.87630e-01,2.68664e-01,1.54644e-02,-2.40156e-01,-8.00087e-02,2.72978e-02,-3.47890e-02,-8.51974e-02,1.33588e-01,1.92418e+00,-4.81789e-01,6.04859e-01,-2.80868e-01,-1.43138e-01,-1.46915e-01,3.22822e-01,9.54215e-01,-1.23595e-01,1.94856e+00,
-2.82726e-01,-5.52316e-03,2.41797e-01,-2.69135e-01,-3.12797e-01,-7.13840e-01,1.05999e+00,1.06298e+00,-1.91628e-01,8.85129e-01,1.47909e-01,-7.20723e-01,3.64095e-01,2.11969e-02,-5.09021e-01,-5.11040e-01,-2.43015e-01,-3.74370e-01,-8.12420e-03,-2.48938e-01,1.06917e-01,-8.30308e-02,-1.67171e+00,-1.74265e-02,3.64950e+00,
2.12910e-01,3.19721e-01,-9.21151e-02,-2.17126e-01,2.17421e-01,-9.85660e-01,3.02178e-01,-7.81890e-01,4.55355e-01,-7.38893e-01,8.31634e-02,-1.03159e+00,2.26239e-01,1.84982e+00,-1.20551e-01,1.91240e-01,3.50764e-01,-3.44758e-02,3.44138e-01,-5.59160e-01,-1.28285e-01,1.06937e-01,6.56256e-02,1.20569e+00,3.61317e+00,
-1.00890e+00,-8.61454e-01,-1.08292e-01,-4.37515e-01,7.24100e-01,-5.71456e-01,-2.48437e-01,-7.74557e-01,5.58567e-01,1.68498e+00,-8.01362e-01,-3.65649e-01,3.66608e-01,4.41862e-01,4.83501e-01,3.96855e-02,-5.27222e-01,4.76161e-02,-5.74201e-02,1.62011e-02,8.15423e-01,2.71075e-01,-7.17405e-01,-3.92699e-01,1.33970e-02,
2.55220e-01,6.58043e-02,1.89288e-01,-1.31882e-01,2.58304e-02,5.39540e-02,2.94617e-01,2.43414e-01,-3.06457e-01,-3.46610e-01,9.64518e-02,-1.11415e-01,-3.27805e-01,-2.01597e-01,-3.64921e-01,-3.31421e-01,1.34266e-01,1.04628e-01,3.14378e-02,2.67425e-01,-5.68618e-02,-2.98089e-01,-3.16963e-01,8.71044e-02,-8.44179e-03,
4.88903e-01,4.31297e-01,-2.85021e-01,-2.58705e-01,1.11289e+00,-1.26756e+00,-7.91876e-02,-6.92619e-02,-7.72012e-01,-5.69269e-01,6.40042e-01,-1.21223e+00,5.58981e-01,-2.15361e-01,2.89781e-01,1.74757e-01,1.18120e-01,-4.35454e-01,-2.77940e-01,-3.17961e-01,-7.99178e-01,8.31558e-01,9.87355e-01,7.49902e-01,2.66990e+00,
-6.10824e-01,4.17722e-01,-1.08778e-01,7.79724e-01,8.06334e-02,-2.95568e-01,-1.57260e+00,-8.90783e-01,7.34425e-01,2.69836e-01,-1.29242e-02,-6.42113e-01,5.72732e-01,-8.88845e-01,-6.86229e-01,-1.34138e-01,-1.30512e-01,1.15842e+00,-1.15976e-01,8.60223e-01,7.74585e-01,1.12884e+00,-2.15552e+00,-1.04488e+00,2.86139e+00,
-5.97247e-01,-5.46124e-02,2.84687e-01,-3.27687e-01,9.01640e-01,5.57337e-01,-1.86284e-01,-4.72631e-01,-1.03515e-02,-2.36981e-01,6.56816e-01,-7.47154e-01,3.04384e-01,9.44775e-02,-5.19881e-02,-5.67759e-01,1.93607e-01,6.02480e-01,3.08475e-01,-5.71907e-01,-7.37379e-02,1.60978e-01,-4.83452e-01,3.49801e-02,6.87502e-01,
1.07686e+00,8.48852e-01,2.58753e-01,-2.89836e-01,-2.76775e-01,-2.03284e-01,-3.83954e-01,-4.68042e-01,7.39974e-02,-2.11796e-01,5.70189e-01,5.45636e-01,-5.42339e-02,3.02265e-01,-5.51827e-02,1.06800e+00,6.98791e-01,6.66460e-02,-3.29708e-01,-1.45858e-01,-3.65568e-01,7.26408e-01,8.59716e-01,2.19039e-01,2.63861e+00,
-1.49043e-01,-1.17140e-01,-2.13920e-01,1.71944e-01,5.41525e-01,-5.99211e-01,6.99528e-01,5.36390e-01,2.18367e-01,-2.08298e-01,1.07045e-01,1.81842e-01,2.51665e-01,-1.25394e-01,7.83267e-01,-2.35920e-01,1.54692e-01,-3.03509e-04,-3.27888e-01,4.08223e-01,3.18520e-01,-1.01151e-01,-2.44485e-01,-2.02793e-01,3.94499e+00,
3.51191e-01,5.57410e-01,-4.58979e-02,1.00202e+00,-4.86971e-01,1.39614e-01,7.37449e-02,-2.20347e+00,-4.91186e-01,4.44018e-01,5.76144e-01,-5.90225e-01,2.34032e-01,-1.96058e-01,5.93271e-01,4.13679e-01,2.86171e-01,4.14910e-01,2.85267e-01,1.99186e-01,-2.71834e-01,4.00309e-02,-4.55662e-01,-1.94226e-01,1.87935e+00,
5.92386e-01,-9.81736e-02,-3.20088e-01,-3.55576e-01,-6.49674e-01,1.68053e-01,1.23625e-01,-2.20363e-01,-5.55376e-01,5.73223e-01,4.00588e-01,1.04891e+00,-1.43986e-01,9.20603e-01,7.68997e-01,-1.43498e-01,7.94553e-01,-6.96379e-01,2.84797e-01,-4.01974e-01,-1.12288e+00,1.92896e-01,4.66234e-02,9.05841e-01,-1.89752e+00,
3.62437e-01,-8.65769e-02,-1.30466e-01,7.06661e-01,8.26396e-01,-3.09620e-01,-2.86689e-02,4.86106e-01,8.35337e-01,-3.45231e-01,-1.75094e-01,-8.69266e-01,1.17246e+00,-5.26066e-02,1.00079e-01,-1.88557e-01,8.04899e-01,-9.81978e-01,1.87621e-01,-3.78451e-01,-1.45282e+00,2.40621e-01,-4.41360e-02,8.52659e-01,-1.09311e+00,
-1.87409e-01,-1.89170e-01,3.39185e-01,-4.79974e-02,-2.31554e-01,-2.14561e-01,6.52811e-02,-2.40629e-01,-1.22249e-01,-1.88631e-01,-5.79897e-02,2.88012e-01,1.88924e-01,1.29956e-01,1.67608e-01,-7.19215e-02,1.18400e-01,-2.40682e-01,-2.72360e-01,-1.60667e-01,-1.82752e-01,-2.85528e-01,6.81349e-02,-2.36106e-02,2.89893e-01,
2.19273e-01,1.68869e-01,1.39800e-01,3.78375e-01,-8.23584e-01,-6.75647e-02,-7.91101e-01,5.76581e-01,2.66011e-01,2.74605e-01,1.05460e+00,-8.01621e-01,1.19905e-01,-1.72416e-01,1.63254e-01,4.42410e-01,-1.48512e-01,1.35367e+00,2.16254e-02,-1.23228e-01,6.22279e-01,4.85113e-01,-1.21636e+00,-1.31461e-01,2.83076e+00,
-5.68850e-01,-2.33311e-02,-3.43364e-01,-8.00916e-02,1.63022e-01,4.71042e-01,-3.16534e-01,-3.41456e-01,2.59620e-01,-5.02125e-01,1.98457e-01,-4.34529e-01,-4.72779e-01,-2.62934e-01,2.16303e-01,1.77983e-01,-5.68491e-01,-4.31955e-01,2.61119e-01,-3.60759e-01,-1.80388e-01,1.66170e+00,1.12806e+00,1.10452e-01,2.85601e+00,
-4.52156e-01,5.11804e-01,-3.46217e-01,4.22417e-01,3.35321e-03,-1.88215e-01,4.80152e-02,-1.24079e+00,6.83062e-01,-3.26462e-01,1.04060e+00,4.66774e-01,3.17310e-01,-6.00873e-01,-1.80893e-01,7.00831e-01,6.13300e-01,1.14060e-01,-5.78671e-02,1.11533e+00,8.02431e-01,4.05062e-01,-8.31372e-01,-1.03944e+00,1.35507e+00,
4.07410e-01,
4.65710e-01,
-1.27153e+00,
3.50197e-01,
1.09136e-01,
-3.43746e-01,
8.93937e-01,
1.33029e-01,
1.19086e-01,
6.05030e-01,
-1.45232e-01,
1.61479e-01,
-3.71578e-01,
-4.89155e-01,
2.59163e-01,
5.37293e-01,
-4.88943e-02,
-4.12816e-01,
1.89786e-01,
-6.19350e-03,
-1.91282e-01,
-3.39353e-01,
-1.45008e-01,
3.70883e-01,
-4.47287e-02,
1.45040e-01,-6.55075e-01,1.62936e-01,1.28770e-01,-9.19883e-01,4.28754e-01,-4.81225e-01,2.88736e-01,-9.81568e-01,2.46150e-01,7.60919e-02,1.64351e-01,-3.11967e-01,3.94205e-02,-1.06299e+00,3.58098e-01,7.06738e-01,5.56837e-02,1.01362e+00,-7.29592e-01,1.47118e-01,2.56732e-01,6.01581e-01,3.82762e-01,-1.44622e-01,
6.30118e-01,1.00811e+00,4.00869e-01,9.74845e-03,-2.36198e-01,4.93566e-01,2.12669e-01,2.46509e-01,1.11670e-01,-7.49177e-02,-2.10778e-01,2.33091e-01,-1.72691e-01,3.45558e-01,-1.41648e-01,-3.70054e-01,-5.94861e-01,3.47116e-01,4.37550e-03,8.88001e-01,4.84136e-01,-9.11907e-02,4.31426e-01,3.38355e-01,-5.91408e-02,
5.24310e-01,-2.19806e-01,3.55695e+00,-4.21979e-01,-2.28367e-01,3.03367e-01,2.69913e-01,-7.07063e-01,5.40669e-01,-5.69630e-01,-1.04015e-01,-4.36793e-01,-1.92870e-01,4.09934e-01,-5.99104e-02,1.56949e-02,-9.13670e-01,1.11411e-01,1.98350e-01,1.27371e-01,7.54608e-01,3.68771e-02,4.55666e-01,7.36410e-01,5.82530e-01,
-9.46148e-02,-1.11597e+00,-5.67777e-01,-5.28270e-02,-2.19094e-01,7.96956e-01,-2.68077e-01,2.14620e-01,-4.34786e-01,1.45788e-01,4.02946e-01,-5.19830e-01,9.20155e-02,-2.82405e-01,-1.17083e+00,1.05236e+00,1.97673e-01,-3.73239e-01,1.10518e-01,-2.27735e-01,2.92694e-01,2.48735e-01,5.87427e-01,1.02977e-01,9.70253e-01,
4.50239e-02,-2.82193e-01,7.75882e-01,-2.97942e-01,-1.93956e-01,-6.11909e-02,1.09701e+00,7.31730e-02,2.67556e-01,-1.34399e-01,4.23280e-01,1.40400e-01,-3.71823e-03,-5.74820e-02,8.33839e-02,2.45717e-01,-1.69051e-01,-1.08946e-01,1.00178e+00,-3.18350e-01,-1.55456e-01,2.04735e-01,-3.53460e-01,2.24293e-01,1.77468e-01,
-5.88121e-01,3.64227e-01,2.14510e-01,3.64644e-01,7.45808e-01,-1.60336e-01,2.75736e-01,3.55814e-01,-4.53965e-01,2.79572e-01,-2.21061e-01,5.08523e-01,-1.46180e-01,6.06862e-02,-5.81570e-01,-2.69416e-01,1.97078e-01,6.34977e-01,1.53776e-01,-6.62275e-01,2.92543e-01,6.93242e-02,2.18181e-01,7.76472e-01,1.19575e-01,
-9.83652e-01,-8.79679e-03,-1.83488e+00,1.08504e+00,-3.29292e-01,-6.55412e-02,-1.39870e-01,-1.49055e-01,-8.94756e-01,3.49572e-01,6.92333e-01,1.32752e+00,2.91203e-01,8.10499e-01,-1.06745e+00,-1.61555e-01,8.60457e-01,-2.41085e-01,-2.98817e-01,1.22467e-01,-4.64877e-02,-2.65357e-01,1.28971e-01,7.46509e-01,-7.63105e-01,
-6.71395e-01,8.76247e-02,3.10014e-01,-6.95665e-01,2.06053e-01,9.32670e-01,-1.50045e-01,6.30412e-01,-3.09960e-01,1.71358e-01,-1.20472e+00,1.46664e+00,6.73530e-02,7.21670e-01,-1.04417e+00,-4.22481e-01,7.86940e-01,5.02752e-01,-2.39446e-01,-2.62365e-01,-2.94683e-01,3.21457e-01,-4.71047e-01,7.80756e-02,-3.59772e-01,
6.28720e-01,2.84527e-01,-2.54114e-01,8.54329e-02,3.27464e-01,3.18896e-01,9.14769e-02,-7.00255e-01,-5.32190e-01,4.96535e-01,5.94650e-01,8.61219e-02,-1.78773e-01,3.43821e-01,-3.23265e-01,3.67715e-01,3.70291e-01,2.57893e-01,-4.19417e-01,3.59438e-01,-7.59772e-01,2.79478e-01,3.72232e-01,-6.12443e-01,-3.12999e-01,
3.77415e-01,-1.88623e-01,1.70526e-01,2.33993e-01,-7.54861e-01,1.05207e+00,4.84629e-02,5.36509e-01,1.87969e-01,8.43923e-01,5.16187e-01,-5.03330e-01,-9.65589e-02,-8.23997e-02,-1.00606e+00,3.27453e-01,-4.17768e-02,-4.98919e-01,5.41564e-01,4.71715e-01,-3.63194e-01,-3.21534e-01,5.06346e-01,-1.12036e-01,1.19143e-01,
-5.10343e-01,-3.28628e-01,-5.39981e-01,-2.43163e-01,-3.24365e-01,5.92054e-01,2.59029e-01,-8.53133e-02,1.37364e+00,5.44390e-02,-6.86723e-01,2.61165e-01,7.09647e-02,5.85280e-01,3.85349e-01,7.31430e-01,-4.19382e-02,-4.57719e-01,3.34960e-01,-3.43384e-01,5.54126e-01,2.27911e-01,4.78709e-01,-9.28592e-04,-1.17093e-01,
-5.90148e-02,-2.24232e-02,1.43898e-01,-3.26779e-02,-1.86889e-01,4.82218e-03,-1.77635e+00,1.05202e-01,-1.79958e-02,-2.88290e-03,-4.31100e-01,2.93987e-02,1.26424e-01,-1.24631e-01,-1.95786e+00,2.54054e-01,2.13742e-01,3.43504e-01,1.61541e+00,8.19374e-01,6.39534e-01,-3.45261e-01,5.12943e-01,-4.20600e-01,3.13031e-01,
1.14379e+00,2.95275e-01,9.98612e-02,-6.37747e-01,-4.08257e-01,6.08144e-04,1.72257e-01,-5.14449e-01,9.73369e-02,-1.57182e-01,-8.22744e-01,-4.13011e-01,2.57627e-01,-1.84156e+00,6.77526e-01,-8.08375e-01,-1.57841e-01,-2.97564e-02,1.93466e-01,-4.03976e-01,4.53236e-01,-2.89756e-01,8.76326e-01,1.21978e+00,-1.48952e+00,
-2.89285e-01,-3.43455e-01,-2.63720e-01,-2.80703e-01,2.49291e-01,1.10547e-01,-1.99105e-01,2.93656e-01,-2.38050e-01,-3.30524e-01,-2.53402e-01,2.85893e-01,6.03133e-03,-3.18343e-01,-1.71216e-01,2.27115e-03,1.98019e-01,-2.42206e-01,-3.29643e-03,-2.19666e-01,3.43304e-02,-1.89043e-01,-2.04479e-01,1.03874e-01,-1.69731e-01,
-1.57060e-01,1.57213e-01,1.13666e-01,-2.85369e-01,-5.52432e-01,6.68963e-02,4.08837e-01,-1.92935e-01,1.91069e-01,8.39327e-01,-1.42352e-01,-6.39655e-02,-2.37372e-01,-2.19717e-01,-6.35479e-01,-7.25235e-01,3.34284e-01,2.78383e-01,6.75094e-01,1.03754e-01,1.29134e+00,1.13296e-02,-6.42171e-02,6.53445e-01,1.00284e+00,
3.26762e-01,3.51635e-01,1.28346e-01,-6.87670e-01,-4.73370e-01,-6.19128e-01,6.44007e-01,5.29871e-01,1.45803e+00,-1.29915e-01,1.04683e+00,-5.11094e-01,3.10071e-01,1.99244e-01,1.28468e+00,1.31629e-01,-4.77762e-01,4.34837e-02,-3.71446e-01,1.19124e+00,-4.30414e-02,-1.00137e-01,-1.18863e+00,-3.46402e-01,1.95774e-01,
3.34898e-01,4.29495e-03,2.46994e-01,1.72165e-01,-4.71009e-01,1.38561e-01,2.42105e-01,6.75949e-01,-2.40048e-01,8.01416e-02,-1.56124e-01,-6.50100e-01,-7.43654e-03,-6.57346e-01,-6.27399e-01,2.95224e-01,-2.04668e-01,-5.84123e-01,3.05389e-01,-6.46042e-01,8.04458e-01,-5.78501e-02,-1.79390e-01,6.26587e-02,1.18166e+00,
-7.25721e-01,4.12962e-01,2.27879e-01,-1.10504e+00,-1.99372e-01,1.30767e+00,5.88432e-01,3.28383e-01,2.60851e-01,-2.74037e-01,1.53389e-01,5.24568e-01,1.22926e-01,6.35562e-01,-1.48015e+00,-9.11470e-01,5.74126e-01,5.44613e-01,-5.94144e-01,5.62687e-01,1.34885e-01,-5.02062e-02,2.97416e-01,-7.29768e-01,5.41876e-03,
-4.30636e-02,8.98860e-01,-2.09028e-01,-3.19643e-01,3.78021e-01,6.56035e-01,6.36936e-01,3.57184e-01,5.32512e-01,-9.37081e-03,-3.36685e-01,1.80049e-01,-1.47706e-01,-4.85191e-02,-7.36263e-02,-9.19802e-03,-5.55335e-01,1.30900e-01,-6.91876e-02,5.71800e-01,4.22928e-01,-8.58381e-02,4.93784e-01,4.63997e-01,9.50048e-02,
1.64176e-01,-1.47630e-01,6.10710e-02,4.60394e-01,2.37744e-01,-4.86671e-01,3.46629e-01,-2.96686e-02,1.98247e-01,2.14033e-01,-1.92425e-01,-2.27104e-01,8.03388e-02,-2.81577e-01,1.08048e+00,3.22604e-02,-7.48342e-01,2.49234e-01,2.83183e-01,-4.46614e-01,-1.66540e-01,3.32282e-01,-6.46971e-01,4.99254e-01,2.04273e-01,
-1.89383e-01,-2.89936e-02,9.24142e-02,-3.89272e-01,-5.30152e-01,4.51135e-01,-1.75665e+00,-2.72067e-01,6.68174e-01,1.75700e-02,-1.07772e+00,1.27934e-01,-2.98299e-01,3.86962e-01,-2.31976e+00,3.79362e-01,3.89131e-01,5.50641e-02,8.50405e-01,3.48718e-01,7.04735e-01,-3.93071e-02,3.67591e-01,-4.53017e-01,-1.75266e+00,
3.97331e-01,5.37662e-01,-9.34598e-01,4.45221e-01,-3.72276e-01,-6.00680e-02,8.06846e-01,-2.59297e-01,-2.90655e-01,1.38842e+00,4.17226e-02,-9.60625e-01,1.34688e-01,-5.34247e-01,7.72043e-01,1.60697e-02,8.19500e-01,1.40316e-01,-1.82413e-01,-5.65047e-01,8.59197e-01,-3.34062e-01,-4.00063e-02,-8.79307e-02,-4.79364e-01,
-6.00892e-01,-4.69071e-02,-2.61259e+00,2.85123e-02,8.82599e-01,6.84373e-02,-6.03846e-03,-6.72142e-02,3.09313e-01,5.59680e-01,2.05878e-01,5.80872e-01,-5.25076e-03,8.16600e-01,9.04382e-02,-8.33117e-02,3.65042e-01,-6.03933e-01,-7.73843e-02,-2.00659e-01,-2.41192e-01,2.37954e-01,-2.74442e-01,6.98369e-02,-3.19607e-01,
-1.92609e-01,8.20475e-01,2.22884e+00,-1.16984e+00,-4.96026e-01,-3.81369e-01,1.14575e+00,1.36895e+00,-1.37781e-01,6.93122e-01,-1.79714e-01,8.55135e-01,2.44662e-01,1.01229e+00,1.49968e-01,-5.13044e-01,-1.04117e+00,-7.39444e-01,7.84174e-01,-1.12295e+00,3.07255e-01,7.29035e-02,1.08191e-01,2.04363e-03,2.65961e-01,
1.59380e-01,-6.99551e-01,9.23417e-01,1.89602e-01,-4.59112e-01,1.36056e+00,4.57914e-01,-1.16383e+00,1.66435e-01,-1.91042e-01,1.89938e-01,1.19874e+00,-1.92776e-01,4.15266e-01,8.00613e-01,-6.33640e-01,7.56897e-01,-1.03404e+00,-1.65134e-01,-1.90984e-01,9.84636e-01,-8.98018e-02,1.85520e-01,-3.85432e-01,-1.44306e+00,
2.68508e-01,
-1.95784e-01,
5.56524e-02,
5.07596e-01,
-1.45063e+00,
-3.22463e-01,
-2.19660e-01,
8.98425e-02,
-1.60172e-01,
-5.15662e-01,
1.91106e-01,
-5.68115e-01,
-2.88988e-02,
-1.60689e-01,
-6.07744e-01,
8.64534e-02,
-7.30741e-02,
-1.96010e-01,
-2.49751e-01,
5.40364e-01,
9.37526e-02,
-6.48025e-01,
1.20481e-01,
-6.32305e-01,
-6.00531e-01,
1.85669e-01,-4.03599e-02,-9.59909e-02,4.48885e-01,3.39226e+00,5.74484e-01,-5.85259e-01,3.04017e-01,-2.16431e-01,-4.06287e-01,-1.22402e-01,3.24941e-02,2.98854e-01,-7.84708e-02,-9.78292e-02,6.20430e-01,-9.07072e-02,-1.87734e-01,-2.28254e-01,-3.52239e-01,1.48610e-01,4.09331e-01,3.35586e-01,-1.52066e-01,-5.74820e-02,
-2.26638e-01,-4.49327e-01,-1.58176e-02,-1.67917e-01,-3.56837e-01,-4.22247e-02,-6.03446e-02,-9.33197e-02,-1.72096e-01,1.78357e-01,1.16820e-01,4.19214e-01,-3.83072e-01,3.07500e-01,2.37745e-02,-7.02079e-02,-1.41493e-01,1.89358e-01,4.54733e-01,2.45158e-01,-4.32159e-02,-7.07969e-02,2.63606e-01,-3.71467e-01,2.73768e-01,
-1.89492e-01,-3.03121e-01,2.01815e-01,-2.33760e-01,-4.16093e-01,2.61443e-01,1.55060e-01,3.52680e-01,2.40713e-01,8.60776e-01,-1.56312e-01,-6.08911e-01,4.29079e-01,2.27943e-01,3.48079e-02,-6.36690e-01,6.99956e-01,1.57935e-01,4.17454e-01,-3.68165e-01,4.04608e-01,3.25714e-01,-6.81270e-01,-7.03212e-01,-2.39871e-01,
-9.93016e-02,-2.94150e-01,-1.35847e+00,-4.34653e-01,2.91302e+00,-4.37178e-01,-2.05377e+00,-6.43523e-02,-2.52392e-01,4.74567e-01,-1.52448e-01,6.56618e-01,-1.56177e+00,-6.01297e-02,1.48092e-01,4.89168e-02,7.09836e-01,-2.95664e-01,1.76806e-01,3.63952e-01,1.08090e+00,3.58023e-01,-5.92436e-01,-3.62678e-02,6.96804e-01,
9.57706e-01,2.39711e-01,6.80381e-02,-5.04326e-01,3.45322e-01,2.73687e-01,-1.09844e+00,-3.67040e-02,-6.88478e-01,6.15254e-01,-3.81995e-01,1.55648e-01,9.94010e-01,6.39145e-02,2.34394e-03,6.68103e-01,-1.43150e-01,1.05600e-01,-7.74046e-02,-7.33566e-01,-6.13337e-02,1.18376e+00,-6.30038e-01,-5.45186e-01,8.49395e-01,
3.27815e-01,-4.38071e-01,3.57516e-01,1.50959e-01,-1.57611e+00,-9.56300e-02,-5.31442e-02,5.26846e-01,-2.21166e-01,-2.58024e-01,1.23319e-01,1.91746e-01,-5.79733e-01,-1.40297e-01,-3.84008e-01,2.27536e-01,-9.11830e-01,-2.01594e-01,4.70617e-01,-1.89242e-01,-2.45185e-01,6.86813e-01,-5.82905e-02,8.20414e-01,-1.97198e-02,
-6.80872e-02,5.47709e-01,-1.41124e-01,8.37195e-03,9.68436e-01,-5.65219e-01,-1.07889e+00,-1.03656e+00,3.82007e-01,2.90994e-01,9.57111e-01,-1.03607e-01,-6.67907e-01,-2.36829e-01,5.16713e-01,-5.89614e-01,4.27115e-01,3.07124e-01,-2.84603e-01,1.81380e-01,-1.66025e-01,-3.64612e-01,3.23804e-01,-8.17071e-02,6.87407e-01,
6.15812e-01,4.07237e-01,-1.00750e+00,2.75156e-01,-5.66058e-01,2.41118e-02,-1.42821e+00,-8.25376e-01,1.02857e-01,-3.49020e-01,5.03756e-02,-7.29485e-02,-8.86441e-01,-3.18998e-02,4.45415e-01,-5.04325e-01,-1.17011e-01,-2.63645e-01,6.46390e-01,2.03835e-01,-4.00039e-01,-2.02601e-01,-6.70540e-01,3.42832e-01,4.02032e-01,
4.76385e-01,4.27666e-01,5.17500e-01,-1.12260e-01,-1.19195e+00,4.68793e-02,5.42017e-02,-1.32696e-01,-1.99318e-01,-9.24778e-03,-2.14406e-01,-6.58369e-02,-1.85206e-01,2.93906e-01,-6.03754e-01,-1.44327e-02,3.22459e-01,2.45570e-01,-2.17369e-01,1.27539e-01,-5.90671e-03,3.57388e-01,8.07386e-02,-2.06967e-01,-9.69077e-03,
-3.31505e-01,-1.06410e+00,6.20342e-01,-9.61201e-01,1.43081e-01,4.29609e-02,-1.31573e+00,-6.06215e-01,7.73321e-01,2.70100e-01,-1.16400e-01,2.44017e-01,1.14691e+00,-2.08029e-01,5.94838e-01,-4.42209e-01,5.81224e-01,-3.57671e-01,6.38179e-01,-1.08212e+00,9.18469e-02,-2.39140e-01,4.77438e-01,8.21051e-02,-7.97170e-01,
-3.38798e-01,-2.05330e-01,-6.72976e-02,-1.61245e-01,2.07023e-01,-1.75605e-02,-1.81466e-01,3.58417e-02,-2.89313e-01,1.63932e-01,-1.34169e-01,9.75183e-02,-1.52069e-01,3.27243e-01,-1.71181e-01,-1.36856e-01,2.68884e-01,-1.93962e-01,5.75081e-02,-3.44012e-01,-1.56906e-01,-2.45985e-01,9.02070e-02,-2.08354e-01,2.33740e-01,
-7.45481e-01,-2.59964e-01,-8.33142e-01,2.27653e-01,7.75631e-01,2.55646e-01,-3.72416e-01,2.34329e-01,-2.66921e-01,-1.57725e-01,-1.30362e-01,1.33639e-01,1.48844e+00,-2.37242e-01,2.72732e-01,-3.27510e-02,1.00708e-01,-6.24576e-01,6.71394e-02,-2.09780e-01,4.84393e-01,-8.99144e-01,2.61403e-01,4.18095e-01,-4.85184e-02,
3.04797e-01,1.30160e-01,-2.76720e-01,7.44064e-01,-3.10445e-01,1.50495e-01,-9.90246e-02,2.05617e-01,-1.66412e+00,-1.50064e+00,5.03561e-01,2.71094e-01,2.62914e+00,-1.57451e-01,1.08640e+00,-3.33823e-01,-9.33456e-01,-2.69605e-01,-6.18505e-02,-1.27187e-01,-3.74934e+00,6.49594e-01,-1.11739e+00,5.03728e-01,1.02462e+00,
2.37556e-01,3.91028e-02,-1.56005e-01,6.63851e-01,4.52076e-01,3.15883e-01,-7.18450e-01,5.65609e-01,-3.95679e-01,-5.07508e-01,2.12225e-01,3.36529e-01,-2.60230e-01,2.14388e-01,-8.69874e-02,5.22971e-01,-5.67557e-01,-8.63800e-01,4.16860e-01,-5.73616e-01,-6.29510e-01,3.59571e-01,-1.47194e-02,1.50689e-01,8.19577e-01,
-1.33094e-01,1.45749e-01,1.95932e-01,5.58503e-01,8.03179e-01,-1.52827e+00,-2.93737e-02,7.09868e-01,-1.08689e+00,-6.14614e-01,-5.65992e-02,-3.95291e-02,-9.71103e-02,1.93340e-01,-9.26479e-01,-8.69751e-02,1.20493e-01,-4.39974e-01,8.56678e-02,-3.52317e-01,-1.38436e+00,8.14697e-01,8.37284e-01,2.19582e-01,-2.05478e-01,
1.05918e-01,-1.31448e-01,-1.98148e-01,-2.75161e-02,1.39176e-01,-7.32195e-02,-2.06729e-02,-1.16089e-01,7.88911e-02,-2.66120e-01,-1.73788e-01,1.42440e-01,-8.55064e-02,-2.80709e-01,-3.61307e-01,2.34548e-01,1.84823e-01,-3.16819e-01,-3.08531e-01,1.78375e-01,-3.34444e-01,2.05054e-01,2.15178e-01,3.31707e-02,-1.30024e-01,
-2.82686e-01,3.94395e-02,-2.23667e-02,-1.23167e-01,-3.14248e-01,-2.91317e-01,8.46930e-02,-3.17656e-01,-6.27599e-02,-1.42404e-01,1.70200e-01,9.78864e-02,-5.72793e-02,-6.81240e-02,1.66805e-01,-9.00070e-03,-1.61532e-01,-1.40145e-01,-2.48898e-01,2.03042e-01,-3.00513e-01,-2.46220e-01,1.93467e-01,-1.83461e-01,-2.26482e-01,
-3.18845e-01,-3.49936e-01,2.36520e-02,-1.61669e-01,1.22755e-01,-3.01439e-01,-2.11449e-01,1.39377e-01,-1.71525e-02,-2.02085e-02,-3.04438e-01,-1.04718e-01,-2.44707e-01,1.05099e-01,-5.36012e-04,-5.62326e-02,9.45276e-02,-1.52754e-02,-2.76996e-01,1.72737e-01,-3.35723e-01,2.49661e-01,-2.86586e-01,1.43183e-01,7.05920e-02,
1.41957e-01,2.07721e-01,-3.49114e-01,2.22701e-01,7.75724e-02,-2.88830e-02,-3.76343e-01,-3.15238e-02,-2.89219e-02,-5.52067e-01,5.27973e-01,1.29064e-01,-6.66377e-01,-1.19399e-01,1.55246e-02,-3.30862e-01,-4.14077e-02,6.56385e-02,-7.19784e-02,-3.54233e-01,-2.06595e-01,-7.10779e-02,-2.74882e-01,1.51334e-01,1.73846e-01,
-4.33438e-01,-2.86651e-01,4.53801e-01,4.81485e-02,-1.43133e-01,-3.69014e-01,7.32957e-01,1.52105e-01,-3.26693e-01,5.70309e-01,-4.64456e-01,-8.83692e-01,3.19007e-01,-1.94474e-01,-4.02411e-01,7.41627e-02,3.58715e-01,9.12815e-02,2.62465e-01,4.97396e-01,1.04876e+00,-2.14865e-01,-2.65857e-01,-6.55685e-01,-1.48911e-01,
2.03869e-01,-2.65945e-01,-2.38238e-01,-6.64364e-01,2.32485e+00,9.94680e-02,-5.24260e-01,-7.10089e-01,6.62786e-02,5.87153e-02,4.52022e-02,5.03587e-01,-4.93772e-01,-3.53046e-02,1.29062e-01,-2.21880e-01,3.75537e-01,-2.99539e-01,1.00361e+00,-4.40410e-01,-3.88204e-01,-1.62903e-01,3.89867e-01,3.54839e-02,2.53646e-01,
3.09913e-01,4.54939e-01,4.30109e-01,1.56553e-01,1.58098e+00,-2.72373e-01,-5.96848e-02,-7.21054e-01,1.86702e-01,-4.80815e-01,-2.36536e-01,-1.05773e+00,-2.15441e-01,2.81385e-01,1.58431e-01,-7.56680e-01,2.88758e-01,4.73874e-01,-3.94485e-01,-1.22534e-01,1.04036e+00,-1.25367e-01,2.57593e-01,3.33167e-02,-2.48247e-01,
3.31410e-01,1.61198e-01,-8.62029e-02,3.19511e-01,-5.31338e-01,4.94516e-01,-7.63361e-01,3.78688e-02,-2.78842e-02,-4.84246e-01,6.55514e-02,6.05221e-01,-4.56998e-01,-1.87144e-01,6.34622e-02,-3.59604e-02,-3.08974e-01,-2.48069e-01,-1.47022e-02,-2.65329e-01,-5.32427e-01,1.88664e-01,6.26341e-01,2.44550e-01,3.48534e-01,
4.45596e-01,-1.71033e-01,5.79506e-01,2.33219e-01,-2.55207e+00,-4.33834e-01,4.75554e-01,1.64952e-01,-1.70247e-01,-3.88076e-01,3.80470e-01,-2.90308e-01,-2.36236e-01,-6.92227e-02,-8.05532e-01,3.40778e-01,-4.53988e-01,1.15196e-02,-1.15643e-03,3.90949e-01,-7.75822e-01,7.39210e-01,-3.33035e-01,-1.72216e-02,4.34049e-02,
-2.65232e-01,6.25420e-01,-1.61410e-01,4.17316e-01,-1.89562e+00,2.29570e-01,-3.20342e-01,9.88691e-02,-5.79546e-02,-2.89383e-02,1.90127e-01,-1.71015e-02,2.10617e-01,-2.06598e-01,-1.98211e-01,3.37142e-02,-1.47851e-01,2.67175e-01,-7.71446e-01,-1.28635e-01,-2.10873e-01,2.64044e-01,3.13671e-01,6.31059e-01,-1.55735e-01,
1.94908e-01,
9.48871e-02,
-8.99428e-01,
-3.77492e-02,
-6.35553e-01,
2.76377e-01,
-4.69595e-01,
7.96818e-03,
2.59904e-02,
1.00515e+00,
-2.54922e-01,
2.87733e-02,
-1.36732e+00,
4.96755e-02,
3.72806e-01,
-3.72544e-01,
-1.81978e-01,
-2.97491e-01,
6.80887e-01,
-1.02008e-01,
3.77804e-01,
1.70570e-01,
2.94274e-01,
-5.72629e-01,
2.76082e-01,
-7.17529e-03,1.60707e-02,-1.32670e-01,1.95655e-01,1.35526e+00,1.01321e-01,2.95289e-01,-5.16611e-01,1.52315e-01,8.17870e-02,-1.96304e-01,1.64294e-01,-1.33293e-01,1.51456e-01,4.96325e-02,-2.49318e-01,-3.18228e-01,9.77134e-02,-2.26433e-02,5.13804e-02,1.62119e-01,1.32168e-01,1.45416e-01,-1.25951e-01,8.74695e-02,
-1.74506e-02,6.67217e-02,3.98708e-01,-6.69838e-03,-2.65385e-01,7.60606e-02,1.10817e-01,-1.42597e-01,2.72390e-01,-3.89378e-01,1.58702e-01,-1.24459e+00,-3.66571e-02,1.51609e-01,9.27780e-02,2.99491e-01,-3.49504e-02,3.02696e-01,-3.00555e-01,-4.33349e-02,2.46171e-02,1.29309e-01,3.68435e-02,-2.43189e-01,-1.81736e-01,
2.71176e-01,2.83016e-02,-4.34632e-01,2.11939e-01,4.14699e-01,-3.27886e-01,-3.88464e-01,-3.53918e-01,5.03375e-01,-3.54650e-01,4.37014e-02,1.95100e-01,-2.95453e-01,-3.29685e-02,-2.75668e-01,-3.13795e-03,-3.21875e-01,4.95193e-02,-1.27052e-01,4.53879e-01,7.42800e-03,4.73383e-01,2.88833e-01,-7.31653e-01,9.65932e-02,
4.54002e-03,-7.86852e-03,3.07287e-02,9.85026e-02,7.06179e-01,3.58886e-02,1.98477e-01,-2.99120e-01,1.11457e-01,-3.71763e-02,-2.70030e-01,-6.67832e-01,4.03893e-02,-4.58750e-02,9.80900e-02,1.55901e-01,-3.10143e-02,-1.57681e-01,1.43168e-02,-1.52419e-02,9.02169e-02,6.45780e-02,-1.73753e-02,-9.59549e-02,-6.01087e-02,
6.71037e-02,-3.50893e-01,-7.30833e+00,1.59147e-02,-2.44232e-01,-8.80622e-02,-8.22830e-02,-1.39610e-02,2.25498e-01,-3.37475e-02,-1.89534e-01,-5.71389e+00,-1.63736e-02,-2.51361e-01,-1.77320e-01,1.99596e-01,-1.22359e-01,3.33696e-02,3.88587e-01,-1.96198e-02,2.49218e-01,1.67636e-01,-2.17834e-01,-2.12273e-01,-3.02434e-01,
2.19106e-02,-1.31377e-01,-2.19421e-01,-1.09350e-02,-1.34154e-01,4.41708e-02,-1.71359e-01,2.27042e-02,-1.80672e-01,8.60196e-02,6.23425e-02,-8.00726e-02,-3.06323e-01,2.59350e-01,-7.04393e-02,2.47055e-01,5.68542e-02,-1.63109e-01,6.08025e-02,1.56576e-01,3.18032e-02,-8.34618e-03,2.89710e-01,7.51182e-02,-7.71290e-03,
1.20496e-01,6.82950e-03,3.44570e-01,2.77955e-03,-1.55168e-01,-1.18175e-01,2.63766e-01,-3.51014e-02,1.23837e-02,2.34924e-01,-1.74480e-01,6.42782e-01,7.74631e-02,-1.28375e-01,9.61148e-02,-5.82273e-02,-3.07280e-01,1.32382e-01,5.92683e-02,4.99935e-03,5.23888e-01,3.44090e-02,8.14698e-02,-3.73217e-02,-1.09041e-01,
2.86736e-02,1.46750e-01,-1.35050e-01,-1.75433e-01,2.03991e-01,3.57410e-01,-6.73464e-02,-1.38511e-01,1.22198e-01,-2.61543e-01,6.82788e-02,-1.44038e-01,4.16754e-01,-6.01274e-01,-4.60206e-02,-1.21124e-01,-3.29450e-01,3.13606e-01,2.13632e-01,-1.75474e-01,-6.72309e-01,-2.15990e-01,1.64277e-01,-4.62558e-01,-3.92318e-02,
-1.92362e-01,2.52559e-01,-8.29128e+00,-5.76309e+00,7.75418e-01,8.28005e-01,7.68552e-01,5.28351e-01,-9.21009e-01,-5.57891e-01,2.68920e-01,-5.82245e-02,1.01660e-01,4.92161e-01,-1.35953e+01,2.04217e-01,-7.34444e-02,1.93839e-01,4.45809e-01,1.77546e-01,4.90243e-01,1.99610e-01,-1.93284e+00,-1.29351e+00,-5.04476e-02,
1.37282e-01,2.84821e-02,2.82497e-01,-1.12335e-01,2.02749e-01,-2.58343e-02,4.64943e-02,1.97925e-01,-3.06683e-01,2.51551e-02,3.29155e-01,1.63397e+00,1.14265e-01,-1.98316e-01,9.44920e-02,1.22737e-01,1.49741e-01,-2.69229e-01,4.79493e-02,4.52747e-02,3.63290e-02,-5.36647e-02,-4.23232e-01,8.35265e-02,3.00469e-01,
-2.67218e-02,-2.30544e-01,2.65203e-01,-1.02247e-01,1.18484e-01,-2.48098e-01,-1.44653e-01,-1.72797e-01,-2.94522e-01,2.07173e-02,1.02934e-01,-9.92785e-01,-2.71485e-01,8.02069e-02,-2.34885e-01,-3.48768e-02,2.05866e-01,1.94784e-01,3.00798e-01,2.54960e-01,2.18958e-01,5.04914e-02,2.06453e-01,3.11686e-01,1.03429e-01,
1.47777e-01,-3.57379e-01,5.09506e-01,-6.18451e-01,9.08066e-01,-5.01347e-01,-1.44469e+00,-1.56331e+00,7.07504e-01,-1.00045e+00,1.38607e-01,3.49739e-01,5.68244e-01,1.65596e-01,1.85469e-01,-3.00696e-01,6.62623e-02,2.84189e-01,-3.85345e-01,3.93216e-01,3.79526e-01,1.78219e-01,-5.67250e-01,-3.46477e+00,-6.15871e+00,
1.16762e-01,3.12341e-02,-5.76154e-01,-1.75433e-01,2.71384e-01,1.71885e-01,-2.90649e-01,3.90977e-02,-3.89953e-01,5.07665e-01,-1.13369e-02,8.58317e-02,-4.01761e-01,3.18322e-01,8.33143e-02,5.00915e-02,-1.00751e-01,2.55321e-01,1.53590e-01,-6.34698e-03,-2.50819e-01,1.23515e-01,5.78499e-02,-1.56464e-01,2.76889e-02,
-5.89385e-02,-5.25190e-02,-2.50359e-01,-1.24907e-01,4.20981e-01,2.83982e-01,-2.61896e-02,-3.21896e-02,-6.37436e-02,4.13505e-02,-2.83238e-01,-9.02952e-01,4.28057e-02,-1.58442e-01,3.26364e-02,8.38444e-02,1.42855e-01,8.86019e-02,1.60000e-01,-5.18003e-02,-5.13603e-02,-9.04478e-02,7.27549e-02,-2.81204e-01,-2.45625e-01,
-2.16246e-01,7.98337e-02,2.37520e-01,3.79491e-01,-2.25706e-01,-9.18154e-02,-1.24462e-01,1.68088e-01,-1.54607e-01,4.42223e-02,7.18289e-02,2.58161e-01,3.50173e-02,-2.26217e-01,-7.32871e-02,1.23947e-01,1.98417e-01,2.13002e-01,2.74339e-01,4.73639e-03,-2.24544e-02,1.89000e-01,-1.48528e-02,-1.24913e-01,4.67229e-02,
1.21073e-01,1.24668e-01,1.57918e-01,-9.28990e-02,8.94162e-02,1.31294e-01,6.04683e-02,-2.80566e-01,8.10676e-02,-1.10672e-01,-8.52123e-02,-2.97884e-01,7.30010e-02,-4.37776e-01,4.12732e-02,2.86009e-03,-3.10845e-01,2.00483e-01,3.03811e-01,-3.48569e-02,1.40311e-01,-9.04842e-02,1.68778e-01,-3.10034e-01,6.66882e-02,
3.36144e-01,-1.85095e+00,-8.73959e-01,-2.95867e-01,-1.75204e-01,1.13769e+00,5.59042e-02,-4.08920e+00,3.92423e-01,-8.97238e-02,-3.37390e-01,1.83683e-01,3.29085e+00,2.40766e-01,-4.73780e-01,-2.52200e-01,1.40238e-01,2.18942e-01,1.02631e+00,-3.73147e-01,-1.10218e+01,-8.39768e-02,-6.58440e-01,1.85300e-01,-1.40517e+00,
-4.33563e-02,-1.41555e-01,-1.95486e-01,1.27237e-01,-1.57032e-01,7.45910e-02,-1.58108e-01,-7.67260e-02,1.09555e-01,4.01501e-02,3.31816e-01,1.05128e-01,-1.74149e-01,4.36615e-02,-5.55560e-02,-2.41060e-01,8.23354e-02,-1.10193e-01,-8.28434e-02,2.20210e-01,1.67722e-02,1.18820e-01,4.60875e-01,-1.25275e-01,-2.96152e-02,
-1.66964e-01,-1.12561e-01,-3.51354e+00,1.10368e-01,-2.21001e-01,-8.45343e-02,2.23435e-01,2.17885e-01,7.56807e-02,3.18593e-01,3.42515e-02,6.56390e-01,1.33264e-01,3.66971e-01,4.70495e-02,-2.63680e-01,1.37516e-01,2.77008e-01,-1.02606e-01,-3.59684e-02,1.25358e-01,8.25929e-02,-2.16296e-01,4.97233e-02,-2.94387e-01,
-4.05635e-01,1.77831e-01,7.45290e-01,5.61462e-01,2.36969e-01,1.21235e-01,2.50393e-01,2.10896e-01,-2.89367e-01,3.03183e-01,3.33000e-01,1.87400e-01,9.75542e-02,-8.61187e-03,-8.14134e-01,-1.79322e-01,2.16178e-01,-2.59618e-01,-2.30556e-01,3.27756e-01,-1.21880e-01,4.34669e-01,3.69829e-01,9.08102e-01,6.59869e-01,
-1.54763e+00,-8.27301e-02,-5.47371e+00,-1.08185e+01,1.39495e+00,1.90900e-03,-7.38437e-01,-1.98025e-01,3.97812e-01,-1.12916e-01,1.20312e-01,-1.86901e-01,-1.07362e-01,6.82508e-01,1.22283e-01,2.40980e-01,2.75230e-01,9.48774e-02,1.10182e+00,-2.68351e+00,-7.98781e-01,-6.59285e-01,6.64798e-01,-2.00066e-01,-2.29341e-02,
5.19313e-02,6.41797e-02,-3.18088e-01,2.35222e-01,-2.79177e-01,-9.41973e-02,1.06930e-01,-3.04947e-01,1.00391e-01,1.72533e-01,4.47561e-02,-2.23293e-01,-3.09934e-01,-3.20335e-01,-2.51620e-01,3.20631e-02,-2.14132e-01,1.19793e-01,-1.48179e-01,-1.72843e-01,-1.47677e-01,-1.25384e-01,-1.73404e-01,-1.81504e-01,1.77230e-01,
-1.43806e+00,-1.52296e+00,-8.83169e-02,-7.53933e-02,1.88056e-01,-2.20046e-01,7.97080e-02,-7.26889e-01,-5.08693e-01,-9.83520e-01,1.77679e-01,-2.69229e-02,7.34790e-01,5.28851e-01,-1.44024e+00,-1.79998e-02,1.37735e-01,1.18883e-01,-5.04748e-01,1.05845e+00,-1.99615e+00,5.83953e-01,-8.36455e-01,1.33228e+00,-2.83513e+00,
2.13540e-01,-6.43283e-01,-2.11705e-01,-3.05257e-01,-9.97893e+00,-3.67211e-01,-1.97245e-01,-2.46551e-02,-2.57753e-01,3.08909e-01,-6.54707e-02,-5.51605e-02,-3.76603e-01,-2.07734e-01,-5.54708e-01,-7.79367e-02,-7.29353e-02,1.30595e-01,1.11549e+00,4.79835e-01,5.74786e-01,1.82930e-01,-3.35876e-01,6.65271e-01,4.67068e-02,
4.74670e-02,8.83569e-02,-4.45081e-02,1.14730e-01,5.87804e-01,4.97580e-03,-2.10554e-01,-2.02439e-01,3.51742e-01,-2.46263e-01,-3.19706e-01,-6.21059e-02,-5.51160e-02,4.15641e-02,-3.58241e-01,1.67745e-01,1.53574e-01,-1.74905e-01,2.20591e-01,2.00217e-01,3.09258e-01,3.16438e-01,-3.58266e-02,-3.40925e-01,1.58562e-01,
-8.42768e-02,
5.81310e-02,
-5.40518e-01,
-2.83915e-02,
-7.42314e-02,
-8.11766e-02,
5.92679e-02,
9.51207e-02,
-7.66354e-01,
-2.87503e-02,
-1.24530e-02,
-3.29122e-01,
-2.13664e-01,
1.75398e-01,
-3.73649e-01,
9.73363e-02,
-7.91821e-01,
-1.21684e-01,
4.08816e-02,
-1.44541e+00,
-7.20091e-01,
-4.68034e-01,
-8.29402e-01,
-4.81454e-01,
-2.37102e-01,
-2.47230e-02,2.13343e-02,1.21481e-02,4.68644e-02,-1.33090e-02,-1.09252e-01,1.28566e-02,-3.29107e-03,6.91380e-02,6.44423e-04,-5.39778e-03,-1.50771e-02,-1.40264e-01,-1.32333e-02,3.56914e-01,-9.55217e-03,-1.41742e-01,-4.49017e-02,-1.54803e-02,3.62120e-01,-1.67742e-01,-1.85875e-01,1.00853e-02,-9.29293e-03,1.27045e-02,
3.48443e-02,-4.31157e-02,1.46462e-01,-4.60338e-02,6.36124e-03,-2.93990e-02,2.85314e-02,2.20427e-02,-7.01849e-03,-2.72965e-02,-1.47391e-02,4.90138e-02,-9.19064e-02,4.65049e-02,3.68542e-01,-6.88096e-02,-1.52346e-01,-1.40695e-01,-4.12026e-02,1.06049e-01,-8.86933e-02,1.15540e-01,2.19343e-01,6.47868e-03,-2.03024e-01,
-2.67930e-02,-2.37628e-02,9.99117e-03,6.16425e-02,5.39723e-02,-8.65273e-02,-1.09665e-01,2.85672e-02,1.03543e-02,1.86303e-02,2.84067e-02,2.26853e-02,-1.15269e-01,-8.30157e-02,9.99466e-01,-1.40579e-02,-1.47548e-01,-1.31601e-02,8.73614e-02,3.21132e-01,-1.22858e-01,-1.53880e-01,7.41590e-02,-1.16757e-02,-2.15317e-02,
-8.94598e-02,1.74086e-04,5.47873e-02,1.77254e-01,3.31642e-02,-7.53708e-02,-5.98732e-04,-6.27488e-03,-5.63482e-03,-3.10638e-02,-1.39796e-02,3.69004e-02,-6.92555e-02,3.95876e-02,4.99382e-01,-2.49520e-02,-1.27127e-01,-3.71907e-02,-1.04162e-03,3.50962e-01,-1.15723e-01,-8.33380e-03,1.42307e-01,8.37443e-03,-1.02383e-01,
-5.10616e-02,-7.14597e-03,2.23587e-02,9.64441e-02,-2.92949e-02,-8.53113e-02,-9.15606e-02,-8.04661e-03,2.73399e-03,-1.42042e-02,-3.77043e-02,3.06119e-02,-7.25581e-02,-5.89360e-02,6.87892e-01,2.98437e-02,-1.42756e-01,-2.42933e-02,8.16008e-02,3.50582e-01,-1.22948e-01,3.23296e-01,1.01665e-01,3.40433e-02,-2.84565e-02,
-2.19617e-01,-2.57305e-02,-2.08829e-03,3.92910e-01,1.18747e-02,-3.67750e-02,2.84566e-02,1.65891e-02,-1.66586e-02,-5.62359e-02,-6.60659e-02,7.65153e-03,-6.11642e-02,2.97398e-02,-5.29127e-01,-6.87012e-02,-1.27312e-01,3.17247e-02,-3.94896e-02,3.48776e-01,-1.07068e-01,-3.60665e-01,1.41744e-01,3.35730e-02,-1.92253e-02,
-4.82781e-02,-6.56125e-03,2.14662e-02,9.69516e-02,-2.49482e-02,-8.52642e-02,-9.40356e-02,-9.24834e-03,2.02122e-03,-1.57226e-02,-3.84377e-02,2.98928e-02,-7.12941e-02,-5.59153e-02,6.78648e-01,3.25717e-02,-1.44352e-01,-2.54590e-02,8.56151e-02,3.48064e-01,-1.17508e-01,1.42014e-01,1.09375e-01,3.18629e-02,-3.05669e-02,
-1.02407e-01,-7.22699e-03,4.14393e-02,1.94679e-01,2.01523e-02,-9.10940e-02,7.09337e-03,-4.01269e-04,-3.98013e-03,-3.41803e-02,-2.64154e-02,3.40912e-02,-6.65265e-02,3.65800e-02,5.04542e-01,-3.55632e-02,-1.26579e-01,-1.24238e-02,-9.98556e-03,3.36747e-01,-1.07904e-01,-1.57557e-01,1.34893e-01,1.34468e-02,-8.08046e-02,
-4.25830e-03,4.32756e-02,-3.20458e-02,6.33564e-03,-1.06289e-01,-7.84707e-02,-1.89734e-01,-1.28498e-01,-5.14967e-02,-2.09876e-02,-9.21592e-02,7.49558e-02,-3.91308e-02,5.44525e-02,8.55556e-01,1.68029e-01,-3.91392e-02,-1.68574e-02,2.18408e-01,1.82689e-01,-4.00286e-02,-1.96799e-01,1.71998e-01,9.25394e-02,-2.92984e-02,
1.55541e-01,
1.54437e-01,
1.60492e-01,
-1.83589e-01,
-1.76325e-01,
1.56626e-01,
-1.76379e-01,
-1.81892e-01,
1.37806e-01,
