// Neural Network File Format by Kyle Julian, Stanford 2016
6,4,9,25,
4,25,25,25,25,25,9,
0,
-8000.000000,-100.000000,-100.000000,0.000000
8000.000000,100.000000,100.000000,40.000000
0.000000,0.000000,0.000000,20.000000,-4.683445
16000.000000,200.000000,200.000000,40.000000,30.305804
-1.45128e+00,-8.73491e-01,-3.03806e-01,-7.47462e-02,
5.49577e+00,2.82248e-02,-9.08947e-02,-1.56756e-01,
3.55357e+00,-2.22907e-01,-1.68420e-01,2.33506e-01,
1.07327e+00,1.91363e-01,4.11701e-01,-5.62943e-01,
-1.16067e+00,6.44335e-01,-5.35032e-01,1.92312e-02,
-2.41852e-01,2.78607e-01,-9.54664e-01,-1.80070e-01,
2.64268e+00,1.23468e-01,7.51953e-01,7.12756e-01,
-6.32558e-01,2.49908e-01,-3.37531e-01,4.41009e-01,
3.05208e+00,1.05471e-02,6.53469e-02,-9.81389e-01,
-2.48052e+00,-1.17318e-01,3.16383e-01,-6.85431e-01,
-1.54625e+00,-7.27489e-01,-2.53109e-01,-1.39599e-01,
-2.80516e+00,-3.86161e-01,3.84845e-01,1.41650e-02,
9.03394e-02,9.28315e-01,5.17715e-02,3.11414e-02,
2.80449e+00,5.65858e-01,-2.88826e-01,1.75009e-01,
4.98371e-02,-6.99288e-03,-5.87657e-02,-5.62442e-02,
3.56861e+00,-8.15387e-01,4.00192e-01,3.78594e-02,
-1.69768e+00,3.53221e-01,-5.92295e-01,2.55083e-01,
-1.05111e+00,-2.15146e-02,4.65214e-01,4.65595e-01,
-4.68472e-01,-6.74283e-01,-7.48921e-01,4.27605e-01,
-1.56651e+00,6.51632e-01,-1.17225e-01,6.87712e-02,
5.31399e+00,1.84877e-01,-9.88930e-02,7.59605e-03,
6.63886e-03,-1.59097e+00,1.21173e-01,1.39281e-01,
-2.60258e+00,6.86452e-01,-7.49962e-01,-1.27727e-01,
-3.04595e+00,-8.60981e-01,-5.51991e-01,2.24582e-01,
-3.28540e+00,2.55747e-01,8.59408e-02,-3.78570e-01,
4.65295e-01,
-2.66875e-02,
-8.72573e-03,
2.37166e-01,
2.88147e-01,
5.15490e-02,
-2.03362e-01,
2.39868e-01,
-1.65839e-01,
-1.98649e-01,
1.65506e-01,
-7.06496e-02,
4.75588e-01,
-1.03688e-01,
-1.03678e-01,
3.72151e-01,
1.28606e-01,
5.00550e-01,
-4.13841e-01,
2.03722e-01,
2.52288e-01,
-1.47392e-01,
1.57904e-01,
-5.30963e-01,
1.30568e-01,
6.79364e-03,2.69108e-02,-2.39025e-02,-5.72270e-02,7.22102e-02,1.36683e-01,-4.63637e-01,9.97202e-02,-3.53792e-01,3.80850e-01,1.61857e-01,-4.26849e-01,-4.93521e+00,1.75696e+00,1.75727e-01,-4.71443e-01,-1.06460e-01,-2.05569e-01,1.58649e-01,-2.35714e+00,4.85536e-02,2.50397e+00,2.29569e-01,4.75922e-01,5.54729e-01,
5.06025e-02,8.67365e-01,3.44960e-01,-3.40968e-01,5.94971e-01,5.99176e-01,-1.00678e-01,2.62246e-01,-7.43187e-01,5.44600e-01,-1.01902e-01,-2.05694e-01,-1.58990e-01,-1.03481e-01,-3.06244e-01,5.70085e-01,-4.00638e-01,3.58241e-02,-2.57965e-02,-9.57417e-02,-1.77954e+00,-6.78928e-01,1.14815e-01,7.83555e-01,-8.80081e-01,
-2.51623e-02,3.09417e-01,1.18597e+00,-5.47940e-01,-1.48344e-01,6.05638e-01,2.34319e-02,-2.16871e-01,-7.59502e-02,-3.79411e-01,1.64548e-01,8.49039e-01,-2.95503e-01,-1.42413e+00,-2.34099e-01,3.28247e-01,3.91378e-02,-6.35412e-01,8.66294e-01,-9.09705e-01,-4.03270e-01,-1.31062e+00,-6.08811e-01,8.36173e-01,-2.16430e-01,
6.92351e-01,1.29602e-01,1.03333e+00,2.64502e-01,-4.05845e-01,6.03941e-01,3.88383e-01,-3.11114e-01,5.42366e-02,-1.44959e-01,-5.95124e-01,-2.03243e+00,-1.37631e-01,-1.57885e+00,3.20388e-01,7.51767e-01,6.51865e-01,-1.54681e-01,-1.06550e+00,-8.54490e-02,-4.52405e-01,-9.47247e-02,-4.22664e-01,1.38895e-01,-1.11878e-01,
-8.68164e-01,-3.51050e-01,-8.79429e-01,-5.71347e-01,1.81753e-01,4.97299e-01,-6.00150e-01,3.31019e-01,-5.41936e-01,4.46736e-01,-2.78878e-01,1.72573e-01,-8.19229e-01,1.48143e-02,1.61442e-01,1.94262e-01,3.05971e-01,2.59066e-01,3.04559e-01,4.71803e-01,-5.29300e-01,-6.19861e-02,-8.61102e-02,2.90909e-01,-2.23639e-01,
3.42491e-01,6.90796e-01,1.15244e-01,-2.14702e-01,-8.64737e-01,1.25554e+00,-8.61394e-01,3.92238e-01,2.87842e-01,-2.04818e-01,3.91718e-02,-3.25106e-01,-3.97376e-01,8.37333e-01,8.85391e-02,-9.44723e-01,-1.11049e-01,1.27418e+00,5.96327e-01,3.57617e-01,-6.95172e-01,-2.73924e-01,7.37968e-01,-5.12258e-01,5.21192e-01,
4.85036e-01,2.66087e-01,1.16109e+00,-1.41918e-01,4.18559e-01,1.97889e-01,-4.08033e-01,5.08470e-01,1.51805e-01,-2.30495e-01,-3.60239e-02,4.42300e-01,5.78117e-01,3.28773e-01,-2.54086e-02,-4.50926e-01,3.73895e-01,-1.91308e-01,-6.54093e-01,1.17844e+00,6.64558e-02,7.76177e-01,-1.59244e-02,-7.63816e-01,1.85062e-01,
3.68303e-01,-5.54271e-01,6.02110e-01,6.68125e-01,2.58924e-01,-7.20400e-02,5.04087e-01,-3.40167e-01,-1.19949e-01,-2.06601e-01,2.11017e+00,-1.63277e-02,7.88420e-01,8.45015e-01,-2.16210e-01,-1.06812e+00,5.38342e-01,-2.17605e-01,2.81651e-01,3.45351e-01,9.08297e-02,-5.23669e-01,-2.46671e-02,-2.61703e-01,-9.34078e-03,
-4.63474e-01,-1.24000e+00,-5.05219e-01,-3.80299e-01,5.35405e-01,2.49669e-01,-5.28873e-01,-1.03940e+00,1.32692e+00,-9.51448e-01,6.99785e-01,7.99558e-01,-1.67930e-01,1.77312e+00,1.30006e-01,2.87600e-01,1.91745e-01,-1.18522e-01,8.64685e-02,-6.13585e-01,-5.03645e-02,3.28888e-02,5.11166e-01,6.17951e-02,8.96358e-01,
1.14418e+00,-7.30712e-01,5.77827e-01,6.46623e-01,-2.33274e-01,3.78192e-01,4.41989e-01,-1.95286e-01,3.45796e-01,-5.72591e-02,-5.69667e-01,-7.78330e-01,8.24896e-01,2.17130e-01,1.24697e-01,-1.60156e-01,-1.00917e-01,1.35153e-01,-5.60927e-01,2.74220e-01,1.02489e-01,1.11319e+00,2.09620e-01,-1.02037e-01,4.04045e-01,
-2.74414e-01,-1.27789e-01,-2.48656e-01,-9.21904e-02,1.26178e-01,-3.12089e-01,2.38158e-01,8.03161e-03,1.32505e-01,-1.46875e-01,-7.43534e-02,2.41089e-01,-3.02297e-01,-1.07775e-01,1.80854e-01,2.24151e-01,-1.54137e-01,-3.27997e-01,-9.13521e-02,-5.44384e-02,-1.25174e-01,1.61809e-01,-3.03993e-01,-1.59799e-01,6.79674e-02,
1.37967e+00,1.69970e-01,-5.10037e-01,7.56044e-02,-4.28963e-01,-9.49016e-01,-2.38701e-01,-8.61207e-02,7.60142e-02,1.35530e-01,5.44389e-01,-3.37184e-01,6.78622e-01,1.02951e+00,1.72719e-01,-1.43537e+00,3.91343e-01,-3.57629e-01,1.27075e+00,6.04246e-01,5.14656e-01,1.25034e-01,-9.51736e-02,-5.82382e-01,3.31517e-01,
3.55743e-02,-2.70203e-01,3.29057e-01,-1.36755e-01,2.03435e-01,-2.37728e-01,1.10866e-01,9.84762e-02,-2.82786e-01,2.58411e-02,-6.84959e-02,-1.86830e-01,1.22672e-01,-8.12250e-02,-1.44612e-01,-3.01481e-02,5.08616e-02,-1.99175e-01,-2.27004e-01,-7.72515e-02,7.21949e-03,-1.73222e-01,-2.88119e-01,-6.61410e-02,-1.49704e-01,
-1.27328e+00,-9.34850e-01,1.72382e+00,3.89554e-01,5.29782e-01,5.43837e-01,3.94446e-01,3.61933e-02,-1.12957e+00,7.80521e-01,1.20896e+00,-1.51370e-01,5.18630e-01,-1.24942e+00,9.22495e-02,-4.90443e+00,3.29605e-02,-2.78944e-01,-4.88037e-01,5.69426e-01,-1.59368e+00,1.85829e+00,3.60506e-01,-1.93524e-01,-6.15872e-01,
1.22592e-01,1.29009e-01,-8.15528e-02,-4.37305e-01,-2.93138e-01,-3.18969e-01,1.19081e-01,-2.72948e-01,1.81920e-01,-2.68002e-02,1.35719e-01,-2.13124e-02,8.75781e-02,1.53522e-01,8.67219e-02,-3.09259e-01,2.12994e-01,-1.10005e-01,1.72653e-01,-7.07245e-02,1.08940e-01,-1.46667e-01,-2.49461e-02,-3.38001e-01,3.29276e-01,
2.35920e-01,1.21220e+00,-5.17394e-01,-5.69487e-04,-6.42389e-01,3.11056e-01,-7.86125e-02,-9.13753e-01,7.89057e-01,-8.12139e-01,-9.83949e-01,-1.13526e-01,-9.75735e-01,-1.45778e+00,5.28202e-02,-2.21018e-01,-7.63838e-01,1.32897e+00,4.05132e-01,4.72421e-01,6.61905e-01,3.36537e-01,-8.43846e-01,3.40414e-01,-5.80721e-01,
2.68733e-01,-1.50626e+00,-2.60194e-01,1.81375e-01,5.15759e-01,1.79771e-02,-9.16013e-04,-6.45347e-02,-3.43491e-02,1.90948e-01,2.51675e-02,-4.85617e-01,1.69207e-01,-1.16399e-01,-2.02973e-01,1.77428e-01,-7.23912e-02,-4.14005e-02,-8.49026e-02,5.33710e-02,-1.40035e+00,3.63342e-02,2.02997e-01,4.04378e-01,3.06940e-02,
-1.50913e-01,5.67241e-01,3.74823e-01,3.44838e-01,-6.01725e-01,6.73700e-01,3.08128e-01,-4.18317e-02,9.07652e-01,-4.13315e-01,-5.71668e-01,-3.60654e-01,4.18671e-01,-3.62833e-01,4.97562e-02,9.01274e-01,-3.34616e-01,-7.33040e-01,6.14972e-01,2.89016e-01,-7.36815e-01,1.11576e+00,-5.91671e-01,-8.59778e-01,-4.67272e-01,
3.83775e-01,1.87221e-01,-1.55122e+00,2.12696e-01,-9.44169e-01,-4.79027e-01,1.86388e-01,4.79976e-01,-1.01291e-01,2.92658e-01,4.68450e-01,1.90836e-01,-2.90931e-01,2.26810e-01,3.06686e-01,4.74218e-01,3.19498e-01,-1.69251e-01,-5.43260e-01,-6.31697e-02,3.09475e-01,2.72206e-01,6.84872e-02,-1.77237e-01,-2.49362e-01,
1.70437e-01,-3.90543e+00,4.31985e-01,6.49754e-01,6.92270e-01,-2.39871e-01,9.70567e-01,5.05576e-01,3.61389e-01,9.47957e-01,6.78891e-01,-1.15474e+00,-1.76269e-01,5.81214e-01,2.06253e-01,-6.65917e-01,-5.20542e-01,-1.60558e-01,7.31860e-02,1.71766e-01,-2.52943e+00,9.01966e-02,1.64308e+00,3.77871e-01,3.12463e-01,
-2.39215e-01,6.41710e-01,-8.75829e-02,-7.75191e-01,-3.61244e-01,2.92546e-01,-2.53513e-01,1.49826e-01,6.79968e-02,-9.62489e-01,-1.18198e+00,-6.67467e-02,-6.36650e-01,-1.16731e+00,1.55208e-01,1.39426e-01,-2.62123e-01,2.12126e-01,-4.08903e-01,6.08797e-01,-1.34778e-01,2.25406e-01,5.20557e-02,-2.46488e-01,9.37464e-01,
3.30928e-01,-1.37788e-01,-5.23572e-01,-1.13639e-01,1.78426e-01,3.25465e-01,7.52855e-01,-5.08141e-01,-1.72278e-01,6.00955e-02,2.87506e-01,2.93120e-01,8.65673e-02,-2.49438e+00,-3.33628e-01,5.00713e-02,2.09098e-01,1.32611e-01,7.03192e-01,-1.90453e-01,1.43718e+00,-8.86691e-01,-4.44906e-01,1.17871e+00,-3.61617e-01,
1.19230e+00,1.11282e+00,-5.87615e-01,6.16208e-01,-9.12929e-01,6.86808e-01,-1.72381e-01,2.10481e-01,1.46966e-01,-1.87656e-01,-2.73548e-01,-5.88557e-01,5.80271e-01,-2.05973e-01,1.44437e-01,-9.41789e-01,-1.19510e+00,1.15026e+00,-1.03316e-01,6.69468e-01,3.01571e-01,2.14293e-02,-7.28810e-01,-5.90025e-01,-4.97901e-01,
-3.95186e-01,-1.12135e+00,4.62929e-02,-6.66790e-01,-2.65892e-01,-1.13846e-01,-1.00791e-02,-3.37915e-01,-3.72674e-01,-5.40826e-01,3.86029e-01,-2.91627e-01,3.44037e-01,1.68757e-01,-3.02613e-02,7.17503e-01,7.92468e-01,9.00150e-01,-9.63074e-01,-6.47338e-03,6.61460e-01,2.35971e-02,5.64511e-01,-5.54950e-01,-1.17820e-01,
7.69886e-01,-4.06547e-01,1.02840e+00,-5.19758e-01,3.54186e-01,1.13700e+00,-1.00668e-01,1.19133e+00,-4.36457e-01,1.01022e+00,5.26139e-02,-7.37816e-01,4.22348e-01,3.48036e-01,1.91687e-01,-8.82367e-01,-1.96114e-01,3.76865e-02,6.65731e-01,-3.24736e-01,-6.23970e-01,-2.89959e-01,1.43799e-01,-7.80399e-01,1.35926e+00,
-9.69945e-01,
5.85203e-01,
7.49625e-01,
1.22172e-01,
1.05738e+00,
-4.22153e-01,
-3.26891e-01,
-1.01987e+00,
-2.91580e-02,
-7.40507e-01,
-2.54899e-01,
-5.42788e-01,
-1.91630e-01,
-4.35857e-01,
-4.18455e-01,
3.55370e-01,
6.02236e-01,
1.17203e-01,
1.16368e-01,
-2.70085e-01,
9.37886e-01,
1.01151e-02,
-7.33458e-01,
-2.43958e-01,
-3.22191e-01,
6.98409e-02,4.93200e-01,4.05206e-01,2.40000e-01,2.40902e-01,3.61375e-01,-8.09994e-01,1.50605e-01,4.33437e-01,2.41158e-01,2.24104e-01,2.03581e-01,1.95522e-01,-2.10037e-01,-7.59930e-02,2.50820e-01,5.72375e-01,1.96243e-01,-2.92189e-01,-1.39846e+00,-1.28035e+00,6.32967e-02,-1.07511e+01,4.34504e-01,5.16949e-02,
-2.17474e-02,5.14619e-01,2.03467e-01,-6.76226e-01,-1.51438e+00,1.83555e-01,-1.23348e-01,-1.55546e-01,2.34223e-01,1.59480e-01,-1.30222e-01,-1.11746e-01,6.69289e-02,-6.56186e-01,-3.05997e-01,8.91619e-01,1.60855e-01,4.70289e-01,-1.46515e-01,1.35736e+00,-2.02926e-01,2.18153e-01,-7.22200e-01,-2.56474e-01,1.15778e-01,
1.10176e-01,-3.73444e-01,1.13549e+00,6.76181e-01,5.18532e-01,4.51731e-01,-8.89176e-01,-4.15797e-01,-1.17250e-01,7.59001e-01,-1.29265e-01,-8.21676e-01,-6.80000e-02,-3.04540e-01,6.14319e-05,1.42346e-01,-3.60300e-01,-5.26700e-01,-2.05802e-01,-2.80949e-01,4.25566e-01,-4.77990e-01,-4.30104e-01,-1.15218e-01,1.80594e-01,
2.48430e-01,1.20196e-01,5.49865e-01,1.18261e-01,-4.99321e-01,4.60006e-02,-1.18610e-01,-1.32990e+00,6.69090e-01,-1.65482e-01,-1.43005e-01,8.12853e-01,2.11361e-01,-2.88641e-01,-1.14708e-01,7.58831e-01,5.97143e-01,1.28741e-01,-1.59809e-01,-1.85503e-01,-3.37272e-01,-5.85692e-02,-2.66708e-01,1.08158e-01,5.42411e-01,
1.73698e+00,-7.58220e-01,9.96491e-02,1.88890e-01,-1.09251e-02,-4.98566e-01,5.64636e-01,1.69404e-01,-3.65150e-02,1.00132e-01,-6.47301e-02,-2.66794e-01,3.03622e-01,-1.12222e-02,-2.02477e-01,8.09710e-02,2.67871e-02,1.48081e-01,-2.49882e-01,-8.56372e-01,-9.37834e-01,7.88539e-01,4.17870e-02,1.50861e-01,4.56869e-01,
7.85045e-01,-1.40434e-01,9.97593e-02,-4.16351e-01,3.27807e-01,1.10274e+00,-5.08132e-01,4.96137e-02,4.45232e-02,4.92996e-01,-1.61259e-01,-9.17439e-01,2.23777e-02,-5.23260e-01,-1.93587e-01,2.35279e-01,-4.32319e-01,1.63900e-01,3.25305e-01,2.20626e-02,-3.17987e-01,-3.11265e-01,-2.16680e-01,-4.71388e-01,-3.68431e-01,
3.20398e-01,1.26052e-01,-9.18053e-02,1.59025e-01,-1.40460e-01,-2.63485e-01,-2.13130e-01,-2.53926e-01,-1.75365e-01,-2.64543e-02,-1.50822e-01,1.20389e-01,3.35358e-01,-8.31049e-02,-2.86173e-01,-3.01008e-01,-1.95743e-01,-8.61695e-02,-1.16215e-01,-3.35754e-01,-1.33669e-01,-2.39011e-01,-7.54493e-02,5.04448e-02,-1.83102e-01,
-3.09520e-01,-2.97653e-02,4.99953e-01,-5.34454e-01,1.80513e-01,-2.68791e-01,6.72396e-01,-1.63799e-01,-1.43456e-02,6.34365e-01,-8.74552e-03,1.52810e-01,1.54978e-01,3.51840e-01,8.40443e-02,8.89716e-01,-3.85922e-01,-2.67369e-01,6.98944e-01,9.63521e-01,-4.87477e-01,-2.50234e-02,6.28291e-01,5.34746e-01,-5.51603e-01,
-4.25546e-01,7.26035e-01,-3.44987e-01,4.02568e-02,1.27053e-03,-6.48432e-03,-7.32747e-01,-2.61660e-01,4.10822e-02,1.58861e-01,-2.74781e-01,6.66084e-01,6.79383e-02,6.09748e-03,3.50011e-01,-1.27467e+00,-2.20942e-01,1.28354e-01,7.34862e-02,-3.78548e-01,9.24010e-02,2.86537e-01,9.99452e-01,-7.35756e-02,6.21501e-01,
3.38779e-01,-1.43512e-01,9.11782e-01,-2.42730e-01,-1.52171e-01,-1.76414e-01,-1.43149e+00,1.15651e-01,-7.92966e-02,8.82581e-01,1.16664e-02,4.16932e-01,-1.79806e-01,-5.39214e-01,1.21884e-01,-4.13976e-01,-1.86167e-01,-5.25802e-02,1.14960e-01,5.40210e-01,-3.55722e-02,2.12612e-01,1.28045e+00,2.86091e-01,6.16269e-01,
-6.20111e-01,-1.00769e+00,4.34675e-01,5.37003e-01,5.22883e-01,-1.12562e+00,3.44542e-01,4.52221e-01,-3.43770e-01,-4.75997e-01,2.86409e-01,-2.80186e-01,2.48350e-01,1.38714e+00,1.30085e-01,-4.62963e-01,-4.41969e-02,1.16352e-01,6.02340e-01,-4.29047e-01,3.82580e-01,8.59796e-02,-5.69886e-01,3.33684e-01,3.71523e-01,
9.67449e-02,-3.66726e-01,1.51202e-01,6.96827e-01,3.16890e-02,2.62784e-01,-1.97096e-02,-1.91521e-01,-2.70277e-01,2.83549e-01,-6.43903e-02,-2.58436e-01,1.82396e-02,5.04752e-01,1.99194e-01,-8.03065e-01,-7.30777e-02,-3.48429e-01,-1.26645e-01,-4.43561e-01,2.74535e-01,-4.37145e-03,-2.32064e-01,-1.11071e+00,-4.48199e-01,
1.55884e-01,-6.57155e-01,7.34557e-01,-7.44017e-01,-8.50692e-01,4.58731e-01,-1.02818e+00,1.00907e-01,-4.08426e-01,9.63115e-01,2.85077e-01,-5.55755e-03,8.24927e-02,-4.46562e-01,2.44043e-01,-1.41044e+00,5.03708e-01,4.80781e-01,3.58597e-01,3.14689e-01,1.60277e-02,3.67167e-01,3.29096e-01,4.85821e-01,7.87818e-01,
1.11139e+00,-3.80232e-01,-3.19579e-01,-1.01189e-02,4.76180e-01,5.59591e-01,-1.96203e-01,-1.90348e-01,2.21775e-01,-1.42621e-01,-2.72323e-01,1.29754e-01,-2.47609e-01,-2.86204e-01,2.31903e-01,1.18323e+00,-3.28558e-01,-3.93324e-01,3.88859e-02,4.84033e-02,-2.14782e-01,1.36361e-01,-3.49962e-01,-4.07683e-03,-1.44615e-01,
1.37286e-01,-9.07372e-01,-5.27325e-01,1.85984e-01,-2.45401e-02,-6.50361e-01,1.58548e-01,1.12540e-02,2.48614e-01,2.27189e-01,-8.26506e-02,-2.88374e-01,-7.45595e-03,-3.99021e-01,-1.18480e-01,1.11291e-01,9.55253e-02,-4.97586e-01,1.29645e-01,-6.12073e-01,1.99886e-01,2.16386e-01,1.82352e-01,-4.67447e-01,1.10185e+00,
1.87055e+00,-4.33677e-02,-1.64715e-01,1.89584e-01,1.28223e-01,1.67387e-01,-2.00823e-02,1.96683e-01,-8.24832e-02,-1.55603e-02,-6.50411e-02,-8.32067e-02,1.50719e-02,-2.52949e+00,-9.11176e-02,-8.41120e-02,1.93428e+00,1.09126e-02,-3.41263e-01,-1.87088e-01,-1.41112e-01,-1.04881e-02,-2.98531e-02,-6.06259e-02,-9.15728e-02,
-1.91393e+00,1.65834e-01,8.01089e-01,8.54497e-01,8.78328e-01,-8.25544e-01,-5.24953e-02,-8.45174e-01,2.18389e-01,-2.10744e-01,1.83870e-01,1.34972e+00,-9.48469e-02,-7.19185e-01,-3.35586e-01,-7.47718e-01,5.90956e-01,-1.39053e+00,-7.77667e-01,-2.17382e-01,6.20500e-01,-3.79486e-01,6.94169e-01,-9.90147e-02,6.88362e-01,
-5.08008e-01,3.97576e-01,-5.00565e-01,4.77025e-01,1.96656e-01,-5.56128e-02,1.24207e-01,8.90317e-01,-7.56420e-01,-7.16659e-01,-7.05117e-03,-8.06074e-02,1.52060e-01,-4.31612e-01,-1.28501e-01,9.27752e-01,5.85749e-01,-9.12835e-02,-1.54656e-01,5.77053e-02,2.96146e-01,-8.27445e-01,-4.46690e-01,-2.86634e-02,5.40015e-01,
-3.45596e-01,-1.15752e+00,-1.75272e-01,-2.38061e-01,-2.21496e-01,8.29899e-01,3.51913e-01,-1.58156e+00,-1.00226e-01,-7.33280e-01,-3.84485e-02,-6.90573e-01,2.74910e-01,7.26464e-01,6.19058e-02,5.21404e-01,-1.32048e-01,-4.94171e-01,2.88573e-01,3.62484e-01,-1.44782e-02,8.09587e-02,-1.41840e-01,6.15774e-02,4.00661e-01,
-1.06667e-01,-1.62649e-01,7.10421e-02,-1.20763e-01,7.78928e-01,-5.04401e-01,5.11363e-01,7.49828e-01,-3.32594e-01,1.38560e-01,2.87466e-01,1.95404e-01,2.14670e-01,1.02392e+00,2.38753e-01,2.25277e-01,-2.73250e-01,-1.51180e-01,1.36598e-01,2.73790e-01,-4.97345e-01,-1.58716e-01,5.23988e-01,4.55760e-01,-1.91467e-01,
-1.43402e+00,2.31257e-01,2.53683e-02,-2.50174e-01,-1.84112e-01,-1.74946e-01,9.06544e-01,-1.10722e+00,-2.78116e-01,2.02464e-01,3.16222e-01,4.17848e-01,2.11300e-02,3.49079e-01,-2.57452e-01,7.41793e-01,-1.04582e-01,-9.55204e-01,5.08283e-01,4.19367e-01,-1.76190e-01,1.56026e-01,-8.56641e-01,-1.46654e-02,5.20549e-01,
2.60448e+00,-5.28189e-01,-8.14773e-01,-5.03760e-01,8.83006e-01,7.60141e-01,-5.96994e-01,6.38355e-01,6.14604e-02,-1.39715e-01,-1.88027e-01,-6.56983e-01,1.58557e-01,-4.31834e-01,-1.84799e-01,8.13508e-01,-4.62879e-01,3.73933e-01,-1.66230e-01,1.40469e-02,-3.57446e-01,-2.73106e-01,-2.61059e-01,-7.18840e-02,-7.71494e-01,
-1.58015e-01,4.53000e-01,-2.39610e-01,2.92852e-01,7.76937e-02,-1.19318e-01,-1.01796e-01,2.95301e-01,-6.83890e-02,7.44732e-02,1.95488e-01,1.87891e-01,-2.88287e-01,-5.09687e+00,-1.74294e-01,-5.81298e-01,7.75778e-01,3.67148e-01,-1.48111e-01,-4.40054e-01,-5.31997e-01,2.20632e-01,6.29321e-01,3.25819e-01,-6.59468e-01,
-2.77601e+00,-2.68154e-01,1.54124e-01,8.48015e-01,-3.77017e-02,-3.32634e-01,-7.08010e-01,-1.07197e+00,1.80129e-01,-8.61028e-01,-2.46571e-01,6.04048e-01,3.42827e-01,6.11805e-01,-1.89672e-01,6.03933e-01,1.59950e-01,1.60928e-01,-8.48910e-01,-1.00486e-01,5.66953e-01,-7.79979e-01,-1.64186e+00,-2.02127e-01,2.87729e-01,
1.93286e+00,-1.16092e-01,-9.67503e-02,-6.36619e-01,-4.69225e-01,-4.90103e-02,4.47181e-01,-1.41990e-01,5.65618e-03,6.11819e-01,-3.84169e-02,-4.78929e-01,2.18920e-01,1.51791e-01,5.90612e-02,3.07573e-01,-2.90396e-01,1.85383e-01,-1.09897e-01,-6.06180e-01,-2.59245e-01,1.06191e+00,4.65910e-01,1.93153e-01,3.25291e-01,
-8.85948e-01,
-6.77029e-01,
6.42946e-01,
5.96550e-02,
6.23853e-01,
1.17413e+00,
1.32200e-02,
-1.44840e+00,
3.70365e-01,
-7.94196e-01,
2.81949e-01,
8.10181e-01,
-8.46663e-01,
6.97404e-01,
5.82735e-02,
1.59424e-01,
-8.98196e-01,
3.64517e-01,
7.41712e-01,
-1.48300e-01,
-8.21103e-02,
9.51586e-01,
-2.18295e-01,
8.24103e-01,
3.35428e-02,
2.64967e-01,2.64771e-01,-7.93027e-01,-8.15778e-01,4.00093e-01,-5.25733e-01,-1.99245e-01,-3.59890e-01,1.07368e-01,-1.12658e+00,-1.03843e+00,-7.24738e-02,6.18079e-01,-3.06343e-02,8.40202e-01,-1.52027e-01,-4.17292e-01,-9.44669e-02,1.73436e-01,7.87446e-01,-7.64371e-01,1.59805e-01,3.33424e-01,-4.01912e-02,-3.16293e-01,
2.32548e+00,1.71396e-01,1.29839e-01,1.77996e-01,-5.41068e-01,1.55768e-01,-5.27342e-02,-4.16403e-01,1.74953e-01,3.67353e-02,3.11663e-01,-3.79676e-01,-1.60924e-01,-5.84403e-02,-1.69544e-02,-3.78560e-02,-1.78365e-01,3.73554e-02,1.97339e-01,4.38484e-01,-1.93861e-01,-3.68875e-02,4.23183e-01,1.28257e-01,6.02889e-01,
7.64049e-01,9.14210e-02,-4.06913e-01,2.48670e-01,3.64462e-02,1.79532e-01,3.02814e-01,-5.06967e-01,1.60980e-01,-6.58501e-01,-5.82401e-01,5.73945e-01,-8.72343e-01,-6.79535e-01,3.34627e-01,2.92027e-01,-5.57604e-02,-9.28397e-01,-1.89683e-01,1.37130e-01,2.97465e-02,-3.81842e-01,2.07750e-01,-6.66597e-01,9.26521e-03,
-4.80036e+00,-1.89518e+01,-1.28562e+00,-2.22786e-01,3.55229e-01,6.61532e-01,1.70837e-01,-1.10989e+00,-3.70057e-01,-1.03749e+00,-1.43102e+00,-3.39418e-01,-3.76126e+00,9.35108e-01,-6.25243e-01,-1.60817e-01,-9.44885e+00,-3.36036e+00,-2.35484e+00,-4.29241e-01,-2.94470e+00,-2.38531e+00,3.19961e-01,2.51678e-02,2.23672e+00,
-1.45645e-01,3.26850e-01,-1.25516e+00,-1.72237e-01,-2.29778e+00,6.37639e-01,1.67512e-01,-1.38913e-01,5.70890e-01,2.07799e-01,7.85748e-02,-2.09547e-01,-2.77245e-01,1.99529e-01,9.30585e-02,1.22494e-02,-2.47002e-01,2.81162e-01,5.17580e-01,-9.06922e-02,-4.37262e-01,-3.52425e-01,-6.47106e-02,3.14072e-01,1.39277e-01,
3.97068e-01,1.35545e-01,-1.13832e+00,5.94139e-01,-1.65309e-01,4.71459e-01,2.23583e-01,-7.53059e-03,2.27790e-01,1.83377e-02,2.97103e-01,7.78744e-01,-2.39135e-01,-1.76585e-01,-7.87176e-02,6.34452e-02,-2.74475e-01,4.47108e-02,3.28928e-01,3.25170e-01,-4.90624e-01,-2.31434e-01,-3.51376e-01,-3.82742e-01,-1.47521e-01,
1.27055e+00,7.78737e-01,-1.80725e-01,-2.60116e-01,-8.46391e-01,1.03705e+00,4.51852e-02,-5.43748e-01,-4.52590e-01,5.21908e-01,1.76453e-01,-5.76847e-02,-7.20826e-01,1.02936e-01,7.79237e-01,3.60036e-01,-1.65907e+00,-4.25868e-01,-3.03672e-01,2.70526e-01,-1.16307e+00,-5.85189e-01,-1.71677e-01,-2.30054e-01,7.47671e-01,
7.70745e-01,-1.01170e+00,8.24791e-02,3.74727e-01,-3.06227e-01,-2.77423e-01,1.33019e-01,-1.02986e-02,-1.68219e-01,-1.23955e-01,9.02570e-02,4.49539e-01,2.27788e-01,-9.84993e-02,2.10502e-01,5.98237e-01,-5.18043e-01,-5.92319e-01,-2.90810e-01,5.14852e-01,-1.18234e-01,1.02243e-02,2.20308e-01,5.97835e-01,3.60532e-01,
3.37395e+00,-2.48742e-01,1.16395e-01,1.69307e-01,-4.30575e-01,3.80843e-01,-2.09050e-01,1.44807e-01,2.00638e-01,6.77991e-02,1.21147e-01,2.28604e-01,-3.59742e-02,-2.84568e-01,2.88550e-01,2.10378e-01,-4.94702e-01,-1.29134e-01,-8.97880e-02,1.74941e-01,3.67940e-01,-2.25432e-01,-9.84687e-02,2.86276e-01,2.58898e-01,
9.15340e-01,8.05936e-01,4.21828e-01,-3.20653e-01,-2.77411e-01,5.40772e-01,-2.70193e-01,-4.12961e-01,-7.36709e-01,-2.59408e-01,-2.68737e-01,3.22051e-02,-3.58868e+00,4.78017e-01,-5.93225e-01,1.00693e-01,9.41460e-01,-1.14304e-01,1.99313e-01,5.59119e-01,-1.14259e+00,-1.30562e+00,3.93920e-01,4.58856e-01,6.87340e-01,
8.26474e-01,5.10750e-01,3.97571e-01,-2.01085e-01,-2.37540e-02,7.06495e-01,1.73123e-01,-4.69869e-02,-6.04266e-01,-3.68072e-01,-2.13473e-01,4.50230e-01,-4.41895e-01,-2.77842e-01,-2.25881e-01,7.60273e-02,4.36965e-01,-1.09910e-01,3.58299e-01,-1.02930e-01,-5.48960e-01,-7.08372e-01,2.48834e-01,5.83635e-02,2.72828e-01,
9.21185e-02,1.25378e-01,1.63127e-01,1.06979e-01,-2.49060e-01,-3.61552e-01,-3.80103e-02,2.15917e-01,-2.15625e-01,-3.30081e-01,-3.75413e-01,-4.40460e-02,1.77108e-01,8.71181e-02,-2.89178e-01,-3.35868e-01,-1.89494e-01,-2.54280e-01,-3.18238e-01,-8.05905e-04,-2.92563e-01,1.73488e-01,-2.24803e-01,-1.51989e-01,-1.03153e-01,
2.13161e-01,-1.08669e-01,-4.95689e-02,-2.64845e-01,-4.78913e-02,-1.90540e-01,8.73214e-03,-1.90560e-01,-3.51742e-01,-2.61102e-01,6.44102e-02,2.03877e-02,-1.27804e-01,-3.20071e-01,-3.09164e-01,1.63928e-01,2.65550e-01,-1.64406e-01,-1.97478e-01,-8.50286e-02,4.20782e-03,-2.93314e-02,4.21499e-02,-8.53477e-02,2.05061e-01,
1.64833e+00,-3.23856e-01,1.28574e-01,3.49998e-01,-5.72617e-02,1.00664e-01,-1.38731e-01,-1.23538e-01,2.27014e-02,1.26655e-01,1.39251e-01,-1.53814e-01,4.42687e-01,1.82543e-01,-4.06467e-01,1.22442e-01,8.70393e-02,3.62739e-02,-1.12584e-01,3.19505e-01,2.59488e-01,1.55203e-01,-2.91827e-01,4.62367e-02,2.05720e-01,
3.50651e+00,-4.34553e-02,3.08669e-01,2.63714e-01,-3.97195e-01,6.71534e-01,-5.07790e-02,-2.42379e-01,-3.74306e-01,-2.31105e-01,-1.82294e-01,4.45271e-01,3.67480e-02,1.76478e-02,-1.25609e-01,-1.04826e-01,3.64797e-01,-1.31906e-01,-3.44298e-01,4.34076e-01,-1.95729e-01,-1.19273e+00,-1.18082e-01,1.55451e-01,6.37399e-01,
1.26366e+00,5.19542e-01,3.33008e-02,-5.01671e-01,4.22473e-01,-1.64576e-01,-3.24498e-01,-1.09490e+00,6.33456e-02,3.40739e-01,-2.80648e-01,6.54303e-02,-7.87685e+00,3.90515e-01,4.04117e-01,-5.76364e+00,-1.12270e+00,1.69324e-01,6.40525e-02,4.00477e-01,2.73020e-02,-2.25492e-01,7.26658e-01,-9.74567e-03,-3.42590e-02,
2.95166e+00,-1.24039e-01,1.06301e-01,4.12298e-01,-1.55019e-01,8.90004e-02,-3.37298e-01,-1.07686e-01,1.96258e-01,-3.62545e-01,3.10929e-01,5.44066e-01,-2.57802e-01,-1.59910e-01,4.63608e-02,1.99038e-01,-4.11306e-01,-4.23179e-01,-9.91623e-02,7.17493e-02,3.88410e-01,3.06325e-01,-4.08276e-01,2.43709e-02,-4.73568e-01,
-1.95805e+00,-1.06562e-01,1.10057e-01,-3.72745e-02,3.33755e-01,2.84593e-01,-1.76580e-01,-2.09868e-01,-1.85026e-01,4.03666e-01,-3.05109e-01,-4.19229e-01,6.27994e-01,1.12699e-01,-8.35271e-01,-2.18754e-02,6.02832e-01,1.67299e-01,1.51096e-01,3.13249e-01,7.35804e-02,4.37337e-02,-2.29858e-01,2.64790e-02,3.41528e-01,
-1.52469e+00,-9.86075e-02,-8.36468e-02,8.40000e-01,9.53515e-01,-1.28314e-01,2.50663e-01,-7.94229e-01,-8.20542e-01,1.66256e+00,-1.48080e+00,3.74902e-01,-4.70168e-01,-1.19673e+00,7.65304e-01,-7.60701e-01,2.56125e-01,-4.55215e-01,-1.47542e-01,6.23452e-03,-8.59129e-01,3.16721e-01,-5.30899e-02,4.47854e-01,-4.30132e-01,
6.40890e-01,-4.42191e-01,2.73167e-01,6.93016e-01,-7.25436e-01,6.73505e-01,1.43716e-02,-2.47085e-01,2.77517e-01,4.77313e-02,1.07903e+00,-1.39637e-01,2.26354e-01,1.71140e-01,1.87420e-01,-5.84138e-02,-3.74291e-01,4.42668e-01,-1.67160e+00,3.40788e-01,-3.58074e-01,-2.96922e-01,-4.17052e-01,8.58200e-02,-2.09746e-01,
-1.48216e+00,-6.99136e-01,-4.28938e-03,-2.96931e-01,8.68494e-01,8.45578e-02,1.48969e-01,8.66392e-01,-2.99459e-01,-7.85474e-01,-2.50794e-01,-1.72987e-02,8.15643e-02,3.37055e-01,2.63533e-02,1.50800e-01,3.57376e-02,-6.19913e-01,-7.87824e-01,-2.29278e-01,3.60532e-01,6.52104e-01,1.46550e-02,-4.97811e-01,-6.90481e-01,
1.99437e+00,-2.88001e-01,-4.93610e-01,4.92258e-01,-4.27133e-01,-2.09167e-01,-1.81217e-01,-1.74132e-01,7.28453e-01,-8.93082e-01,4.71670e-01,-2.53272e-01,-1.46025e-01,1.76290e-01,-6.86340e-02,9.52082e-02,-5.05181e-01,-3.50307e-01,2.17742e-02,4.60146e-01,-6.44359e-02,2.96411e-01,-4.42675e-02,1.99292e-01,2.52390e-01,
5.60934e-01,-7.65455e-02,-4.44140e-02,-2.85405e-01,5.82267e-01,7.61730e-02,-2.07820e-01,4.73043e-01,5.24659e-01,-4.95181e-01,8.23266e-02,8.80194e-02,5.32273e-02,6.36660e-02,-5.85218e-01,2.44350e-01,-4.99656e-01,9.14873e-02,4.93102e-01,-6.97938e-01,-4.47420e-01,-9.82065e-02,-1.07930e-01,-2.74152e-01,-3.41948e-01,
-1.51936e+00,-4.48795e-01,6.20129e-02,5.40436e-01,-4.55645e-01,-5.74366e-01,-1.40939e-01,-2.31814e-01,2.68925e-01,1.40768e-02,4.62243e-01,-2.30422e-01,5.68256e-01,5.67584e-01,-4.92061e-01,1.04203e-01,-7.23784e-02,8.22386e-02,-1.46095e-01,4.39165e-01,1.95088e-01,3.71525e-01,-8.06433e-02,3.67805e-01,5.39133e-01,
8.47368e-01,1.89553e-01,4.54223e-01,-1.75054e-01,4.35170e-01,2.24233e-01,2.11847e-01,-9.01881e-03,1.11815e-01,5.69424e-02,-3.95774e-01,-3.33050e-01,-1.91979e-01,-3.77052e-01,4.37989e-02,1.41107e-01,8.62120e-03,4.02513e-03,4.61182e-01,1.81802e-01,-2.95924e-01,-4.09895e-02,3.50130e-01,1.65966e-01,-4.02138e-01,
2.74128e-02,
5.23178e-02,
5.38517e-01,
-1.45680e+00,
-9.23942e-02,
2.17713e-01,
-3.43678e-01,
-1.08010e+00,
1.45709e-01,
3.16872e-02,
5.60279e-01,
-1.60633e-01,
-1.23939e-01,
-1.02226e-01,
5.68407e-01,
-2.42856e-01,
1.68483e-01,
-5.50027e-01,
2.49753e-01,
-8.13167e-01,
-5.29290e-02,
-1.02256e-01,
7.30835e-02,
-1.04049e+00,
2.69347e-01,
1.40941e+00,-5.75797e-01,-1.00340e+00,-2.56197e-01,6.41190e-02,2.43767e-01,2.75477e-01,4.28776e-02,2.51812e-02,-2.62196e-01,-4.69990e-02,3.33899e-01,1.15410e-02,-4.64389e-01,3.61133e-01,-6.41650e-02,2.15613e-01,-1.55408e-02,6.10401e-02,-3.59239e-02,3.59823e-02,1.54501e-01,-1.60388e-01,3.23386e-01,3.77636e-01,
1.61528e+00,-2.78400e-01,9.71939e-01,-2.72202e-01,1.14176e+00,-8.54221e-01,6.44090e-01,5.59380e-01,-6.14297e-02,-4.77726e-01,-1.68787e-01,-9.09238e-02,-1.10804e-01,4.46566e-02,-4.22123e-02,-2.23322e-01,1.00437e-01,-9.83985e-01,-8.41763e-01,4.26418e-01,-3.18179e-01,4.94637e-01,8.97614e-02,-7.30275e-01,-3.50235e-01,
7.85372e-01,-1.01668e-01,9.60621e-02,5.52295e-01,1.26492e-01,-2.75462e-01,-1.61761e-02,-2.90487e-01,3.67061e-01,-8.62241e-01,-2.98898e-01,-2.39813e-01,-1.87873e-01,1.85262e-01,-1.24537e-01,-2.43759e-02,2.97232e-01,2.48636e-02,-1.79485e-04,-4.76553e-01,-1.04665e-02,7.40068e-02,-2.69961e-01,-2.15674e-01,-3.76169e-02,
-3.07586e-01,4.18695e-01,3.24275e-02,9.11883e-02,7.89449e-02,-1.22170e-01,-1.06840e-01,-2.96849e-03,9.90000e-02,-7.65673e-01,3.24686e-01,-7.95238e-02,3.30415e-01,-4.81475e-01,4.96549e-01,6.91877e-01,2.00885e-01,3.96086e-01,-1.92470e-01,-1.06565e-01,-1.15346e-01,2.10902e-01,-1.62469e-01,7.81469e-02,2.63708e-01,
4.96424e-01,4.53938e-02,2.41272e-01,-4.75286e-02,2.79216e-01,1.11667e-01,-1.35167e-01,-5.22056e-02,3.46004e-01,-1.48667e-01,-1.02475e-01,1.02349e-01,1.83106e-01,3.43468e-01,1.20818e-01,-8.84885e-02,-2.57623e-02,-1.68402e-01,-2.99314e-01,-3.10799e-01,1.44777e-01,-7.80428e-02,1.13037e-01,-1.29551e-01,5.93930e-03,
-2.44348e-01,8.79952e-03,5.50848e-02,-1.52049e-01,-2.04897e-01,8.57532e-02,-1.27457e-02,2.13844e-01,-3.12690e-01,-3.08252e-01,-1.22474e-01,2.14741e-01,-2.93409e-01,-3.28587e-01,7.54184e-02,2.99082e-02,-6.90130e-02,1.44651e-01,-1.21625e-01,-2.00173e-01,1.50475e-01,-3.26829e-03,-5.27974e-02,1.16769e-01,2.09461e-01,
-2.14357e-01,-3.39248e-01,-2.25778e-02,1.14272e-01,5.69184e-02,1.76462e-01,-2.01269e-01,3.35571e-01,4.91160e-02,-1.98945e-01,-2.68999e-01,-2.90490e-01,1.18487e-01,-2.18666e-01,-2.28287e-01,1.63948e-01,-1.91984e-01,-2.04326e-01,3.27482e-01,-2.01965e-02,-5.93871e-02,-1.92420e-02,-2.54138e-01,1.97889e-01,1.29539e-01,
-1.52783e-01,3.38266e-02,1.12787e-01,1.36932e+00,-2.51250e-02,-1.56827e-01,-8.51828e-01,1.19744e+00,1.93291e-01,-2.95184e-01,-3.66140e-01,2.10092e-01,-1.78268e-01,-1.03183e-01,-1.11900e-01,-4.99651e+00,2.67939e-01,1.38111e-01,-1.27103e+01,-1.72680e-01,-1.56396e+00,-1.69037e-01,-1.22174e-01,1.76601e-01,6.38012e-01,
-7.21185e-03,-2.07736e-01,-1.87979e-01,3.44620e-01,-3.16010e-01,-3.26455e-01,1.54767e-01,3.69043e-01,-6.03910e-02,-1.86385e-01,-3.24686e-01,1.63543e-01,-1.94075e-01,-3.79911e-01,1.83216e-01,1.15545e-01,-2.40794e-01,-2.79379e-01,-1.41609e-01,-4.39935e-01,3.10091e-01,-2.74646e-01,2.09871e-01,-2.17886e-01,-1.52378e-01,
3.46214e-01,-5.10817e-01,-2.47877e-01,-1.83688e-01,-7.84594e-02,-4.03065e-01,-4.43114e-02,2.18300e-01,1.96949e-01,4.79195e-02,-9.79082e-02,3.05706e-01,2.08529e-01,-5.54323e-01,-2.79430e-01,3.21233e-01,3.11080e-02,1.54756e-01,5.39737e-01,4.48664e-01,-8.37188e-02,2.22881e-01,-2.97568e-01,-1.97835e-01,5.46306e-02,
3.13549e-01,-2.21383e-02,1.17839e-01,-1.02253e-01,1.38159e-01,-1.38741e-01,-6.15138e-02,-2.45255e-02,5.57119e-01,2.17014e-01,-4.37855e-02,2.87738e-02,-2.55355e-01,-2.18539e-02,-2.69631e-01,-4.46201e-02,4.21103e-01,1.26205e-01,1.84205e-01,-6.19408e-01,-5.34300e-02,1.06236e-01,-4.27025e-01,-1.22471e-01,-9.63960e-02,
2.10168e-01,1.27749e-02,3.45993e-01,-1.15066e-01,-3.19997e-01,-1.72148e-02,8.13133e-02,8.67421e-01,-2.52907e-01,3.33561e-02,-1.80268e-01,2.38158e-01,-3.28110e-01,-5.35446e-02,1.54432e-01,-2.79392e-01,1.06313e-01,8.60898e-02,-4.02258e-03,1.15873e-01,-2.28651e-01,-2.56434e-02,-1.80540e-01,-5.16626e-02,3.92285e-01,
-1.74643e-01,-9.42895e-02,1.06588e-01,-3.24281e-01,-4.62413e-01,1.21692e-01,4.60056e-01,1.06576e+00,-1.82691e-02,8.57005e-02,2.95585e-01,1.72585e-01,-2.43305e-01,1.14163e-02,-2.28265e-01,-5.79018e-01,-2.28428e-01,1.36288e-01,7.21194e-02,2.25480e-01,-2.26181e-01,1.73895e-01,1.80240e-01,-6.48858e-02,-5.13901e-01,
-3.51064e-01,7.28547e-02,-7.53955e-02,-4.15218e-02,2.95612e-02,-6.80572e-03,-3.78779e-02,-6.11105e-01,-2.56458e-01,-5.37289e-02,-8.64830e-02,-6.65775e-03,-1.28484e-01,-5.08752e-02,1.51788e-01,-1.02343e+00,9.37309e-02,5.52686e-02,2.24420e-01,1.47323e-01,-8.59464e-02,-1.47917e-02,9.18560e-02,-6.25038e-02,6.58064e-02,
2.14097e-02,-3.98241e-01,9.38998e-02,1.25150e-02,3.33915e-02,-5.37461e-02,7.84465e-02,-1.33003e-02,1.80944e-01,1.52486e-01,-1.39007e-01,-7.82341e-03,6.94482e-02,-1.15580e-01,-7.82056e-02,1.80445e-01,1.08856e-01,7.79101e-02,-1.99919e-01,-5.50107e-02,8.86965e-02,5.55677e-02,-2.67504e-02,-4.53320e-02,-6.07094e-02,
2.14903e+00,1.21044e-01,2.89862e-01,7.72469e-01,2.49359e-01,-4.45656e-01,1.02502e+00,1.76896e+00,-5.21348e-02,-1.09484e+00,-6.36400e-01,-1.81818e-01,-2.82934e-01,-1.32848e-03,-2.47480e-01,6.18087e-01,3.08292e-01,-1.26417e+00,-6.77386e-02,-9.63874e+00,-3.82046e-01,-5.60277e-01,8.16961e-01,1.86605e-01,-3.10741e-01,
-1.02834e-01,-3.01773e-01,3.14930e-02,-2.80308e-02,-2.78617e-01,-2.05260e-01,-1.69082e-01,-2.46212e-01,-1.51441e-02,-4.67311e-02,-6.54978e-02,-1.72585e-02,-3.00964e-01,-2.65590e-01,-3.29625e-01,-2.14861e-01,-1.09295e-01,1.66183e-01,-2.42229e-01,-1.72858e-02,-1.83740e-01,-3.30985e-01,-7.02691e-02,-1.87003e-01,-2.48233e-01,
1.35550e-01,-3.54921e-01,-2.74071e-01,5.05557e-01,-1.02826e-01,-3.41861e-01,-5.48295e-02,-9.53191e-02,1.41058e-01,4.41149e-02,-2.56299e-01,2.33821e-01,-1.42955e-01,-9.10781e-01,-4.49925e-01,2.41455e-01,4.68584e-01,4.41746e-01,4.79865e-01,6.24665e-01,1.52372e-01,-7.45228e-02,-2.91018e-01,3.06865e-01,1.65769e-01,
3.49207e-01,-2.60453e-01,-1.88854e-01,6.89195e-02,-7.69155e-02,-1.21080e-01,-1.50305e-01,-1.98465e-01,7.08882e-03,2.49206e-02,-5.78784e-02,-1.85153e-01,2.08183e-01,7.34294e-02,5.64229e-02,-2.89722e-01,1.77588e-01,9.35378e-02,4.08947e-03,-2.16517e-02,-2.21160e-02,7.75478e-02,-1.49622e-01,5.13195e-02,2.87780e-01,
3.92220e-01,3.09102e-02,4.02722e-01,-4.47881e-01,6.09590e-01,5.38224e-01,8.61486e-01,1.36550e+00,-5.86603e-01,-6.64721e-01,9.27259e-02,-5.17330e-02,3.82942e-02,-7.50079e-01,6.30486e-01,2.54318e-01,-4.21657e-01,-5.39597e-02,-4.91257e-01,7.49692e-01,-1.75916e-01,2.62033e-01,3.23900e-01,2.50915e-01,1.99064e-02,
2.55069e-01,5.46899e-01,3.03605e-02,-2.75278e-01,-2.39983e-01,-3.07550e-01,1.82676e-01,-9.07238e-01,-6.72786e-01,-2.53214e-01,1.96070e-01,-3.15043e-01,3.00315e-01,-5.03958e-01,3.84941e-01,4.89441e-03,-6.43655e-01,9.47676e-02,-2.82316e-01,-6.16240e-01,-3.46382e-01,1.94034e-01,2.82462e-01,-1.93128e-01,-1.41011e-01,
1.28221e+00,5.65765e-01,-4.91457e-01,-2.81992e-02,9.28849e-01,2.78792e-01,-1.50864e-01,2.04409e+00,9.01534e-02,-2.12543e-01,-1.14371e+00,-3.23720e-01,3.16792e-01,-6.93803e-01,1.18468e+00,-3.56384e-01,-5.66060e-02,9.15259e-03,-9.28748e-02,-7.09073e+00,4.77475e-01,1.08593e-01,-1.83494e+00,-1.13398e+00,1.99626e-01,
-1.25447e-01,5.54730e-02,-3.49166e-01,1.38813e-01,5.62000e-02,-4.86864e-02,-2.37056e-01,8.47504e-02,-1.65372e-02,-9.73032e-02,8.48628e-03,-6.35240e-02,3.11958e-01,8.78491e-02,7.00885e-02,9.16335e-02,-2.77608e-02,1.12496e-02,1.20225e-01,2.72233e-02,9.74898e-02,1.67374e-02,2.77467e-03,-1.82189e-02,5.34016e-02,
-7.64645e-02,5.47282e-02,-3.68419e-02,-2.71139e-02,-8.74216e-02,8.62573e-02,3.23502e-01,2.60148e-01,6.98593e-02,2.68790e-01,-1.26328e-01,2.19363e-01,-2.20598e-02,1.67454e-01,-1.65129e-01,-8.97961e-02,-7.38261e-02,-1.23620e-01,-1.86734e-01,-7.17339e-02,-1.72815e-01,-4.31935e-02,1.41024e-02,-1.29776e-01,-1.35112e-01,
1.02478e+00,-8.55494e-01,3.97497e-01,6.14978e-02,1.89690e-01,-2.94149e-01,3.01254e-01,4.56864e-01,9.28314e-02,-2.66897e-01,-2.54297e-01,-3.23568e-01,3.09981e-01,1.23798e-01,3.51096e-01,-2.11467e-01,-5.60674e-03,-2.57996e-01,-5.59183e-01,1.09206e-01,3.58826e-02,6.02473e-01,5.21377e-01,2.46606e-02,2.15138e-01,
1.56575e-01,
-2.84876e-01,
-8.50360e-02,
-4.45178e-01,
-3.43069e-01,
-2.84094e-01,
-3.08522e-01,
-2.23054e-01,
-6.12929e-02,
-1.82148e-01,
-2.46294e-02,
8.74664e-02,
8.55328e-02,
1.76149e-01,
3.17511e-01,
-9.38711e-01,
-1.11722e-01,
-7.10033e-01,
1.11298e-01,
-3.76073e-01,
-2.48174e-01,
-6.16119e-01,
3.33945e-01,
3.06238e-01,
-2.91718e-01,
-5.20256e-02,-1.26862e-01,2.12495e-02,6.16916e-03,-1.04922e-02,-4.36141e-01,-1.69862e-01,-1.29689e-02,5.37893e-01,-6.91744e-01,-8.41235e-03,-9.46030e-03,3.36907e-02,-1.79614e-02,-2.63720e-02,-2.89263e-01,-1.59040e-01,-5.74906e-01,3.27610e-02,-6.82543e-02,-3.24588e-02,9.87992e-02,2.50491e-01,1.19907e-01,-1.11766e-01,
-1.82800e-02,-1.16205e-01,2.90329e-01,-2.19221e-02,-2.17741e-01,4.43178e-01,-4.10796e-01,-1.57089e-02,8.15373e-01,7.45828e-01,-1.02331e-01,7.27998e-02,-9.22331e-03,-2.78723e-03,-9.39421e-02,-1.16099e-02,4.02492e-01,1.08857e+00,-3.06033e-02,-5.94179e-02,8.27644e-03,-1.76804e-01,1.00828e-01,2.38048e-02,-6.32890e-02,
-3.36226e-02,-1.15592e-01,2.67496e-02,-8.75935e-02,-4.07469e-02,1.18137e+00,-2.01161e-01,-2.82987e-02,1.42269e+00,1.69294e+00,-7.22691e-03,-1.02416e-01,-1.03792e-01,1.38539e-01,-7.30067e-02,-1.01405e-01,-1.31778e-01,2.50348e+00,1.70247e-01,9.35703e-03,5.37451e-02,-1.18751e-01,3.32688e-02,2.15451e-01,-1.12926e-02,
-2.07017e-02,-1.19847e-01,4.73731e-01,-4.37872e-03,-1.43321e-02,3.32095e-01,-3.85268e-01,5.52655e-02,-7.34975e-01,1.26406e+00,-3.25308e-01,-5.64335e-03,-2.01715e-02,4.97737e-02,-1.26394e-01,6.25078e-02,3.57141e-01,1.43613e+00,-3.61420e-02,9.88335e-03,-2.06852e-02,1.43118e-02,1.43261e-02,3.33378e-02,-6.53930e-02,
-3.43579e-02,1.03949e-02,-2.19204e-02,-1.91466e-01,-5.41526e-02,9.08210e-01,3.66055e-01,5.71454e-02,1.41567e+00,2.19569e+00,-7.10492e-03,-1.45811e-02,-7.72206e-02,1.81162e-02,2.59294e-02,-2.37011e-01,1.33213e-01,3.33366e+00,1.69034e-02,-6.68836e-02,6.44307e-02,-1.72894e-01,7.01913e-03,1.60749e-01,-4.75578e-02,
-3.85366e-02,-1.10272e-01,2.41303e-01,-3.64051e-02,-1.28479e-01,4.08302e-01,-4.18691e-01,2.51011e-02,1.03003e+00,1.41900e+00,-1.34762e-01,9.00204e-03,-5.78497e-03,3.05992e-02,-4.89615e-02,-1.72846e-01,-1.36180e-02,1.44722e+00,-2.05271e-02,-3.72489e-02,-1.91740e-02,-3.43572e-02,9.82694e-02,6.60631e-02,-5.79753e-02,
-4.11467e-02,-1.10873e-01,6.34203e-02,-9.60717e-02,-5.20195e-02,6.79669e-01,-2.87080e-01,8.55231e-03,1.46487e+00,1.59087e+00,-3.93211e-02,-6.72825e-02,-6.63633e-02,4.18172e-02,-7.01525e-02,-8.18181e-02,1.13696e-01,2.17785e+00,8.84300e-02,-1.99735e-02,-1.66367e-02,-1.06982e-01,3.07504e-02,1.63874e-01,-4.41540e-02,
-4.25272e-02,-1.02984e-01,2.31789e-01,-3.10313e-02,-1.09614e-01,3.47657e-01,3.27150e-01,2.40608e-02,1.01367e+00,1.38659e+00,-1.44654e-01,2.86391e-04,-3.25418e-03,2.28762e-02,-4.48055e-02,-1.74403e-01,1.76069e-02,1.42402e+00,-9.82371e-03,-3.42066e-02,-9.03225e-03,-2.75228e-02,9.86998e-02,7.43959e-02,-6.80073e-02,
-4.05203e-02,-1.00457e-01,6.10457e-02,-9.76932e-02,-4.99176e-02,5.50245e-01,1.56801e-01,1.66142e-02,1.49283e+00,1.57317e+00,-3.91518e-02,-5.93218e-02,-6.38523e-02,2.22338e-02,-4.94532e-02,-9.15495e-02,1.96552e-01,2.16095e+00,5.47138e-02,-3.02994e-02,-2.70852e-02,-9.21555e-02,5.08523e-02,1.60751e-01,-5.52602e-02,
-1.07375e-03,
9.25376e-02,
2.51926e-02,
1.29963e-01,
8.36580e-02,
-2.53764e-01,
-2.64909e-01,
-2.55972e-01,
-2.68462e-01,
