// Neural Network File Format by Kyle Julian, Stanford 2016
6,4,9,25,
4,25,25,25,25,25,9,
0,
-8000.000000,-100.000000,-100.000000,0.000000
8000.000000,100.000000,100.000000,40.000000
0.000000,0.000000,0.000000,20.000000,-4.683445
16000.000000,200.000000,200.000000,40.000000,30.305804
-1.30745e+00,1.36261e-02,8.05123e-02,5.72729e-01,
-1.20343e+00,1.13572e-01,-8.21651e-01,3.58410e-01,
6.20553e-01,-6.68203e-01,7.21937e-01,-1.52453e-01,
3.60987e+00,6.89196e-01,6.35920e-02,-1.03502e-01,
1.21684e-01,-1.01940e+00,8.24824e-02,8.15376e-02,
-2.91224e+00,-3.22704e-01,-2.11758e-01,-2.45298e-01,
4.75709e+00,1.77578e-03,-5.75313e-03,-5.35654e-03,
-4.78895e+00,-5.81743e-02,6.05787e-02,4.11819e-02,
-5.69276e+00,-2.93076e-03,-1.03938e-03,-2.59754e-03,
1.02341e+00,1.28383e-01,-2.02264e-01,6.61553e-01,
-3.36934e+00,-1.79280e-01,3.35237e-01,-7.26755e-01,
-3.98751e+00,-5.53369e-01,-7.30047e-01,3.23432e-01,
-5.49212e-01,8.57434e-01,-1.24546e-01,1.83524e-02,
-1.75637e+00,-1.47795e-01,2.54036e-01,5.95162e-01,
-1.38634e+00,1.64835e-01,-1.11521e-01,-8.70472e-01,
-1.09619e-01,-1.57303e+00,1.58263e-02,1.37263e-02,
-4.29642e+00,5.02972e-01,-6.34562e-01,6.50489e-02,
2.46824e+00,-5.41691e-01,9.28893e-03,7.73212e-02,
-1.02213e+00,-2.57021e-01,-1.44262e-01,1.31019e-03,
-6.94428e-02,-1.80703e+00,-3.64447e-02,-4.64022e-03,
2.90216e+00,8.53745e-02,-2.09354e-01,-2.09121e-02,
6.31652e-01,-2.06608e-02,2.86376e-01,-2.93083e-01,
6.64161e-01,3.94266e-01,-4.63959e-01,-1.29675e+00,
2.99738e+00,-1.82800e-01,8.21494e-01,-1.18875e-01,
-2.18722e-01,4.29450e-01,-5.12790e-01,-3.00506e-02,
2.42469e-01,
2.31711e-02,
1.08361e-01,
4.41274e-02,
5.32997e-01,
6.28865e-02,
2.03499e-01,
-8.06688e-03,
2.48902e-01,
2.73009e-01,
-1.48338e-01,
-4.48396e-01,
3.25152e-01,
1.36414e-01,
-1.00423e-01,
1.56076e-03,
1.75392e-01,
-5.26824e-03,
2.02923e-01,
-8.20329e-01,
2.51009e-01,
1.16374e-01,
-5.67011e-01,
3.63625e-02,
1.11975e-01,
-3.21102e-01,-3.39957e-01,-1.72915e-01,-8.04648e-03,-1.59053e-01,-2.88616e-01,-7.45840e-02,-2.81144e-02,-9.05511e-02,-1.91568e-01,1.95631e-01,2.80797e-04,-2.76215e-01,2.27878e-01,-2.44216e-01,1.23108e-01,1.98433e-01,-1.64040e-01,1.07705e-01,2.24291e-01,2.40396e-01,-1.66419e-01,-2.64406e-01,-5.86390e-04,-2.12855e-01,
1.46268e-01,7.83450e-01,3.83558e-01,1.71625e-01,-6.71375e-01,7.72211e-01,2.35162e-01,2.28439e-01,-3.88837e+01,2.61934e-01,-4.24724e-01,-8.45535e-01,3.82861e-01,-8.03017e-02,4.94577e-02,-5.70076e+00,1.28649e-01,-1.21352e-01,1.12802e+00,-2.70886e-01,-3.95306e-01,-1.64588e-01,-3.56941e-01,-2.32961e-01,3.83804e-02,
-2.83425e-01,1.14397e-02,5.54851e-01,-1.30348e-01,4.38143e-03,1.26296e+00,-2.13103e-01,-6.64816e-01,3.73959e-01,2.31454e-01,-3.19231e-02,-1.58097e-01,-4.44145e-01,1.91021e-01,2.18846e-02,4.13894e-02,-4.25903e-01,-1.24007e+00,7.94994e-01,3.93052e-01,8.36786e-01,-5.01670e-01,-5.43010e-01,4.89103e-01,8.16322e-01,
-6.41677e-01,9.82474e-01,9.79350e-01,6.30233e-02,-3.18639e-01,1.42095e+00,2.08198e-01,-4.40958e-01,4.45687e-01,-1.42145e-01,-6.83447e-01,-6.66362e-01,-2.70288e-01,2.45437e-01,1.53042e-01,-6.76638e-01,3.26698e-01,-2.54257e-01,-1.08843e-01,-1.68911e+00,3.10301e-01,-3.12012e-01,1.61871e-01,-7.29475e-01,4.81191e-01,
-6.73782e-01,-2.39446e-01,5.81232e-02,6.28209e-01,-3.25563e-02,2.05972e-01,-2.55178e-02,-1.33101e+00,-2.91528e-01,-6.32839e-02,7.50190e-01,2.69651e+00,-7.77865e-01,-3.81068e-01,5.70074e-01,1.84873e-01,2.60557e-01,-5.22436e-01,1.98628e-01,2.02779e+00,-1.24782e-01,6.58464e-01,-7.05445e-01,-5.83903e-01,7.74769e-01,
5.73267e-01,-3.02673e-01,1.72778e-01,8.33830e-01,7.03788e-01,5.14435e-01,-3.40055e-01,-7.26679e-01,6.15277e-01,-3.86032e-01,2.07557e-01,2.70256e-01,2.07888e-01,5.62139e-01,-9.75503e-01,-5.25872e-01,-3.39146e-01,-4.93760e-01,-1.40624e-01,2.37060e+00,4.22596e-01,1.76926e-01,-8.87000e-02,4.25728e-01,4.16480e-01,
5.01262e-01,-1.18600e+00,-5.50443e-01,-4.40245e+00,1.15978e-01,-7.97092e-02,-1.65314e+00,-2.61960e-01,6.36934e-02,-2.43178e-01,3.10463e-01,5.96577e-01,-2.26318e+00,1.16170e-01,-2.79910e-01,2.66386e-01,4.94581e-01,-4.91763e-01,3.88240e-01,-1.25085e+00,1.66305e+00,-8.89393e-01,2.93080e+00,1.02239e+00,-2.81797e+00,
-7.46591e-01,-2.56426e-01,-3.35601e-01,1.95831e-01,-2.10917e-01,-1.75620e-01,-8.60683e-01,-1.03191e+00,4.46763e-01,-1.66057e-01,1.40180e-01,3.68098e-01,1.39709e-01,-3.63198e-01,2.79916e-01,2.62532e-01,2.06243e+00,5.73359e-01,9.80430e-03,-8.14558e-01,-1.68196e-01,5.51988e-01,-4.49575e-01,-6.09153e-01,-1.45389e-01,
5.46264e-01,-3.12777e-01,7.22219e-01,-4.18875e-01,-1.40443e-01,-6.41940e-01,3.47371e-01,-1.27123e+00,1.87703e+00,-3.77028e-01,-1.27106e+00,-8.70317e-01,1.45638e-01,5.23054e-02,4.24024e-01,4.65893e-01,-7.31363e-02,2.88020e-01,-5.28899e-01,-2.63315e-02,1.06599e-01,-4.14986e-01,2.37098e-01,-1.69005e-01,7.25256e-02,
6.79345e-01,2.00829e-01,1.16150e-04,6.50377e-01,6.96631e-01,-3.24731e-01,4.45991e-01,2.58452e-01,-5.70195e-01,-6.96842e-01,-2.06908e-01,-6.28816e-01,-3.80967e-01,3.96253e-01,3.76517e-01,4.03841e-02,-1.41883e+00,2.72500e-01,-7.85023e-02,1.67309e+00,-2.86098e-01,-6.84543e-02,1.23770e+00,5.66705e-01,6.78084e-01,
7.21260e-01,-1.69183e-01,-3.75281e-01,1.27301e+00,5.17559e-01,6.19453e-01,-1.17953e-01,-1.06081e+00,8.90977e-02,-6.35646e-01,4.24273e-01,7.06766e-02,5.24358e-01,2.38301e-02,6.15652e-01,-2.95069e-01,-2.62605e-02,-5.60141e-02,1.13833e-01,-5.59536e+00,-4.21356e-01,2.23026e-01,-3.65399e-01,2.67263e-01,-1.96592e-02,
3.85734e-01,-1.07836e-01,-9.53164e-02,2.35105e-01,9.21401e-01,3.77985e-01,3.78208e-02,-5.34786e-01,-7.34965e-02,-7.68423e-01,-4.41456e-02,2.82685e-02,-1.19568e+00,5.03254e-01,-1.83971e-01,-9.49945e-01,-6.11570e-02,-1.48038e-01,-7.90095e-02,-6.81720e+00,5.35522e-01,-1.15482e-01,2.44853e-01,3.31004e-01,-1.79172e-01,
-1.67737e-01,-3.59797e-01,1.07287e+00,9.81612e-01,2.24629e-01,-1.39875e+00,-1.37467e-01,1.05171e+00,-2.07000e-02,1.89542e-01,-7.60900e-01,4.98977e-01,-3.70125e-01,-1.73601e-01,5.40302e-01,3.76719e-01,4.15038e-01,-7.67235e-01,-3.67818e-01,2.33656e+00,-4.40743e-01,-2.80543e-01,-4.53882e-01,-1.26894e+00,6.68226e-01,
-1.43732e-01,-2.89139e-01,-8.54169e-01,8.04636e-01,5.10934e-01,8.19179e-01,-2.71803e+01,3.81769e-01,-6.59658e-01,2.12403e-02,2.19549e-01,4.00324e-01,-9.72078e-02,5.18876e-01,-6.18581e-03,-1.65183e-01,-5.46087e-01,-9.99981e-01,1.38217e-01,4.98951e-01,-4.91860e-01,2.16253e-01,-6.70326e-01,1.38589e-01,1.69782e+00,
-6.52186e-01,1.12258e+00,4.29958e-01,8.80275e-01,-1.66410e+00,2.45062e+00,4.55719e-01,-1.95498e+00,-4.60093e-01,-5.26774e-01,4.44022e-01,2.32141e-01,4.74511e-01,1.57839e+00,-1.29058e-01,-1.41172e-01,-1.04887e+00,-1.45594e+00,4.08964e+00,-2.72750e-01,-3.67668e-01,3.52976e-01,1.07600e+00,6.73165e-01,-1.47990e+00,
7.41892e-02,-3.58770e-01,1.44403e-01,9.78076e-04,1.27118e-04,3.90502e-01,4.68451e-01,4.62646e-01,-1.06375e+00,-3.74746e-01,-1.19280e+00,1.50184e-01,-4.89480e-01,2.08434e-01,1.47877e+00,2.53357e-01,-3.99946e-01,-1.20578e-01,-6.30873e-01,-2.50900e-02,1.84032e-01,8.84554e-01,8.81815e-02,-1.22330e-01,-1.99007e-01,
3.93583e-01,1.25328e-01,6.97205e-02,1.36809e+00,2.55357e-01,3.47131e-01,-2.02902e-01,-1.27073e-01,-2.05707e-01,-2.98697e-01,6.25307e-01,-1.77335e-01,5.30513e-01,7.39659e-02,1.41335e-01,-6.82482e-02,2.23460e-01,-4.67939e-01,3.72657e-01,4.35224e+00,-6.99778e-01,1.65479e-01,-3.41702e-01,1.65542e-01,-2.85187e-01,
-2.41370e-01,3.25688e-01,2.56638e-01,-2.61600e-01,-5.09436e-01,4.60632e-01,-5.49210e-02,-2.14491e-01,7.27602e-01,1.33767e+00,9.14174e-01,-5.17601e-01,5.33669e-01,-4.81573e-01,-4.63555e-01,4.71527e-02,6.71780e-01,1.68029e-01,7.71251e-01,-3.50200e+00,-4.94917e-01,-4.60209e-01,-1.16562e+00,-3.85253e-01,3.51469e-01,
3.87791e-01,6.16915e-01,-2.20395e-01,8.27643e-01,-1.94148e-01,3.02907e-01,-1.47209e-01,-3.17984e-01,3.60693e-01,4.72696e-01,4.18800e-01,-4.64350e-01,-8.27527e-01,-2.62584e-01,-1.13290e-01,1.05410e+00,-3.53870e-01,-7.73844e-01,-1.56795e-01,3.27264e+00,-2.65759e-01,1.06111e-01,5.04956e-01,-4.30211e-02,4.29072e-01,
-4.40852e-02,4.39287e-01,5.03968e-01,5.23544e-01,4.06566e-01,5.53038e-02,4.60550e-02,1.19796e+00,-1.42762e+00,-6.15735e-01,-3.05712e-01,-9.52367e-01,-3.76616e-02,3.74895e-01,-1.96815e-01,3.76978e-01,-1.60033e-01,-4.52519e-01,-4.66562e-01,-4.72269e-01,3.90377e-01,9.73965e-02,-1.80814e-01,-1.00410e-01,-9.46893e-02,
-5.06247e-01,5.18781e-01,-4.56421e-01,4.91446e-01,-1.79045e-01,4.65270e-01,2.17058e-01,-8.36054e-01,1.32220e+00,-1.18045e-02,8.98745e-01,-5.31903e-01,-7.43864e-01,4.54776e-02,-2.18123e-02,1.38454e-01,-9.07371e-02,4.18285e-02,4.53327e-01,-3.70829e+00,-5.06668e-01,5.92693e-01,6.06299e-02,-7.49535e-02,-2.03610e-02,
-3.29025e-01,-2.23780e-01,-3.10592e-01,-2.04712e-01,1.28278e-01,-1.28661e-01,-1.62113e-01,-2.93547e-02,-6.86063e-02,3.68333e-02,1.72221e-01,-1.62353e-01,2.68923e-01,5.10744e-02,-2.73320e-01,7.82380e-02,-4.41159e-02,3.11699e-01,1.00202e-01,2.86481e-01,2.35487e-01,-1.85528e-02,1.86126e-01,-2.53438e-01,1.83758e-01,
-1.00204e-01,2.85607e-01,-1.19620e-01,1.30992e-01,-2.10066e-01,1.76673e-01,1.19514e-01,-2.89080e-01,3.05933e-01,5.41793e-02,7.89361e-02,-1.26256e-01,-2.61249e-01,-2.04106e-01,-9.27640e-02,-3.21430e-01,-2.54126e-01,-5.35268e-02,1.15541e-01,1.89586e-01,-3.43382e-01,-6.89324e-02,-2.42103e-01,-4.86597e-02,2.01511e-02,
-5.03689e-01,7.54887e-01,-6.06922e-01,3.84274e-01,-4.79673e-01,9.87039e-01,-1.02966e+00,-3.80537e-01,5.29930e-01,1.22390e+00,7.22593e-01,-6.01659e-01,1.91461e-01,-1.54074e+00,4.72653e-01,-3.52159e-01,7.02582e-01,1.24127e+00,-7.14250e-01,-2.19867e+00,-1.06654e+00,-4.04469e-01,1.55132e-02,-1.84501e+00,-5.66661e-03,
-2.02222e-01,7.95693e-02,-1.79539e-01,9.94594e-01,-2.14114e+00,1.14093e+00,-5.35351e-02,5.84823e-02,2.06620e-01,4.18808e-01,-3.05051e-03,-1.08896e+00,1.14647e+00,1.00698e-01,-7.67426e-02,3.85459e+00,9.28368e-02,5.65967e-02,-1.61003e+00,2.55548e+00,-1.19681e+00,-6.98754e-02,1.04507e-01,7.39535e-02,-1.98699e-01,
-3.37856e-01,
-7.26883e-02,
-1.55738e-01,
2.39233e-01,
2.83187e-01,
-1.71534e-01,
-3.96528e-02,
2.46556e-01,
1.31394e-01,
-1.75449e-01,
-7.55077e-02,
4.81111e-01,
3.09197e-01,
1.64426e-01,
-7.10425e-01,
1.53088e-01,
-1.40219e-01,
-1.82022e-01,
2.22976e-01,
4.82146e-01,
5.76301e-01,
-3.71623e-01,
-2.89097e-01,
4.95379e-01,
-6.77401e-01,
9.62165e-03,1.81714e+00,-3.35420e-01,3.95286e-01,-1.11080e-01,8.67872e-02,6.89108e-02,-3.70068e-01,3.49041e-01,5.30405e-01,1.60573e-01,-2.20548e-01,1.05398e-01,1.25842e-01,-6.01979e-01,-4.69044e-01,-1.28018e-01,1.66532e-01,-5.53285e-02,2.01110e-01,3.79649e-01,3.27821e-01,2.13045e-01,-8.60835e-02,1.49249e+00,
2.70828e-01,4.22196e-01,1.72447e-01,-1.91737e-02,1.06727e-01,-2.95248e-01,3.13811e-01,-4.40832e-02,4.97804e-01,-9.40935e-02,8.10399e-01,3.78267e-01,-2.70352e-01,-6.67846e-01,-1.66101e-01,2.24316e-01,1.27695e-01,-2.90711e-01,-4.19707e-01,6.88360e-01,6.96085e-02,-2.54956e-01,1.18896e-01,-6.40604e-01,-2.09974e+00,
-1.30253e-01,2.38479e-01,2.67341e-02,-7.68530e-01,3.95364e-01,3.52514e-01,-1.30782e+00,-8.02844e-02,1.43056e-01,3.97642e-01,5.10212e-01,2.76749e-01,1.92545e-01,-2.38957e-01,-2.27038e-02,-5.76965e-01,-6.25284e-01,-1.49759e-01,2.00769e-01,7.54356e-02,-3.77916e-01,1.87366e-01,5.85265e-02,-9.09992e-02,1.28317e+00,
-2.37601e-01,1.68855e-01,6.70948e-01,4.84288e-02,3.28754e-01,1.03973e-01,2.64990e-01,-1.42118e-01,-5.44118e-03,-9.09516e-01,8.03331e-01,-3.02154e-01,-1.65644e+00,3.09610e-01,-1.10326e+00,1.93146e-01,4.62689e-01,-2.38455e-01,8.74852e-01,-2.62739e-02,-1.65402e-01,-2.18507e-02,2.62276e-01,-1.10762e+00,4.91131e-03,
1.61243e-01,2.71304e+00,-7.24329e-01,2.37461e-01,-2.68222e-01,-8.67373e-04,-7.10929e-01,-7.63128e-01,1.20025e-01,8.24100e-02,-5.82106e-01,1.49479e-02,-7.47049e-01,2.20967e+00,-3.23802e-01,4.62036e-01,5.05733e-01,1.55948e-01,-1.23754e+00,3.76186e-03,-2.12909e-01,8.61100e-02,-9.43442e-02,6.15368e-01,-7.36972e-01,
2.56508e-01,-1.28245e+01,3.88935e-01,-3.16118e-01,1.46956e-02,-4.47520e-01,-6.68505e-01,7.07274e-01,-4.92676e-01,-1.76476e-01,7.75686e-02,3.13641e-01,1.80339e-02,-4.40547e-01,-1.76282e+00,-4.89660e-01,7.58661e-01,-5.07206e-02,3.33708e-02,-9.54394e-01,3.25702e-01,-3.35548e-01,1.60598e-01,3.69679e-02,-1.99658e-01,
1.09040e-01,1.11757e+00,5.58991e-01,4.56076e-01,-6.03236e-01,-4.50948e-01,-1.77503e-02,4.63322e-01,-3.89018e-02,8.18570e-02,3.55827e-01,1.39691e-01,3.16601e-01,6.19619e-01,-1.10346e-01,-4.31644e-01,-6.42397e-02,3.32227e-01,9.10844e-02,3.11237e-01,-1.54757e-01,-3.34270e-02,1.44267e-01,4.97819e-01,1.40881e+00,
-2.21888e-01,1.96816e-01,-6.00432e-01,4.40251e-01,9.44621e-01,-7.02840e-01,-7.64095e-01,-7.36306e-02,9.00647e-01,-1.43804e+00,1.28938e-01,-3.26154e-01,-5.94548e-01,-1.12137e+00,-6.62124e-01,2.21928e-01,5.53170e-02,-6.31967e-01,7.13631e-01,-5.32205e-01,-4.26074e-01,6.59930e-02,-2.07757e-01,-6.33790e-01,1.94942e+00,
-2.32292e-01,2.81995e+00,2.11141e-01,-5.71254e-01,6.93395e-02,-4.22561e-01,2.33534e+00,-6.24467e+00,1.49664e+00,1.28619e+00,-1.93816e+00,-6.19819e-01,1.63275e-01,-2.03704e+01,-2.06461e-01,4.29107e-01,-8.88338e-01,-3.54055e-01,-1.31064e+00,1.74481e-01,-1.23769e-01,-1.40401e-02,-1.65505e-01,-7.74386e-02,4.60430e+00,
-7.94423e-03,-3.04292e-01,1.29637e+00,7.00199e-01,1.30027e+00,3.36950e-01,-2.09351e+00,4.34585e-02,-3.68890e+00,-9.91868e-01,-9.53688e-01,-1.20057e+00,-9.29122e-01,-1.75946e-01,-4.48462e+00,-1.55757e-01,4.90479e-01,-7.26604e-01,1.67128e-01,-1.34859e+00,9.03399e-01,-3.18369e-01,-2.59766e-01,-1.58309e-01,6.30564e-01,
-6.03423e-03,-7.52112e-02,-2.22971e-01,3.75084e-01,-8.38441e-02,-3.32914e-01,2.74751e-01,9.12536e-02,-2.44607e-01,-4.11386e-02,3.11255e-01,4.84812e-01,2.33913e-02,-7.07243e-01,1.81330e-01,-4.76280e-01,-6.15827e-01,3.80441e-01,8.33138e-03,-1.37408e-01,3.34316e-01,-2.79746e-01,-8.01951e-04,-5.83636e-01,-6.98504e-01,
3.67765e-02,5.60737e-01,-2.02017e-01,5.57511e-02,-2.62449e-01,3.54819e-01,3.06684e-01,-9.17298e-02,-3.77010e-03,-3.07912e-01,-9.95802e-03,2.08742e-01,4.08515e-02,4.27798e-03,-2.87516e-02,6.73498e-01,-5.92212e-02,9.49852e-02,1.28264e-01,6.20237e-01,-5.35005e-01,-3.14101e-01,-1.93128e-01,1.94393e-01,2.29825e-01,
1.04762e-01,2.19199e-01,-1.52131e-01,4.72445e-01,-2.22833e-02,-2.15863e-01,-3.20069e-03,4.29540e-01,-3.40876e-01,-5.95663e-01,-3.82035e-01,-4.53058e-01,9.62081e-02,-3.46059e-01,-2.04634e-01,2.06997e-02,5.05113e-02,-7.79579e-01,2.93416e-02,-1.89757e-01,7.30608e-01,2.73733e-01,1.14433e-01,-5.84141e-01,1.27101e+00,
-2.37170e-01,1.70928e+00,8.60661e-02,2.61124e-01,-2.03692e-01,-1.70987e-01,-3.99704e-01,2.44804e-01,-1.98758e-01,-4.29198e-01,5.92853e-01,5.42682e-01,2.16470e-01,1.64931e+00,-1.47124e-01,4.79697e-01,2.24068e-01,-1.14812e-01,1.27029e-01,1.12666e-01,-1.73554e-01,-2.33573e-01,-7.21850e-02,-4.86257e-01,-1.02778e+00,
-8.43264e-02,4.39543e-01,-1.70059e-01,-3.42561e-01,7.82894e-02,6.68859e-02,-4.61346e-01,3.08598e-01,4.47956e-02,-8.75492e-03,-6.84483e-02,7.82644e-01,4.31681e-01,-9.56098e-01,-2.19529e-01,-2.02808e-01,3.77432e-01,-1.37335e-01,2.28010e-02,-8.41172e-02,-3.57445e-01,-1.00393e-01,4.69555e-02,4.98944e-01,1.35391e+00,
-1.84005e-01,9.64236e-02,1.26479e-01,-2.69592e-01,-2.97275e-01,-2.97002e-01,1.46233e-01,-2.22845e-01,-1.52337e-01,-1.33267e-01,-1.64456e-01,-2.08364e-02,-1.42517e-01,-2.25584e-01,1.57498e-01,8.05348e-02,-1.84491e-01,1.88307e-01,-1.33540e-01,-3.90317e-02,-1.64584e-01,-4.39616e-02,6.19015e-02,3.24872e-01,1.46779e-01,
-8.41076e-02,1.07327e+00,1.29860e-01,2.87046e-02,-2.91797e-01,2.64530e-01,3.13979e-01,-9.28772e-02,-1.09636e-01,5.24327e-02,4.75131e-01,-6.99964e-01,2.73466e-01,-9.05088e-01,-2.63738e-01,3.32185e-02,-3.00993e-01,1.30869e-02,-1.93321e-01,3.03784e-01,-3.53619e-02,-2.34227e-01,1.88105e-01,4.73009e-02,-6.11319e-01,
3.17223e-01,1.63595e-01,-1.92345e-01,-1.31362e-01,-1.08239e-01,6.72652e-01,-4.21907e-01,5.02845e-02,-1.07591e-01,-3.28814e-01,3.38265e-01,-1.23680e-01,-9.92046e-02,-1.42582e-01,2.76265e-01,1.64950e-01,-7.62973e-01,9.17058e-02,6.61487e-01,-2.35903e-01,-5.04484e-02,3.44704e-02,-4.43477e-02,1.71877e-01,-7.70859e-01,
-5.49509e-02,-1.63924e-01,-5.18158e-02,2.73970e-01,1.36825e-01,2.01890e-01,-2.10761e-01,2.81905e-01,-3.94386e-01,-5.07099e-01,-1.02618e-01,8.90335e-01,-1.06320e-01,-1.10283e+00,2.95555e-01,1.25771e-01,1.98819e-01,-1.00435e-01,7.38586e-01,-3.54173e-01,-3.55776e-01,1.95538e-01,-1.13494e-01,4.27981e-01,-6.72733e-01,
-2.23765e-01,3.60439e-01,1.26289e+00,-4.13977e-01,-2.93268e-01,-2.41272e-01,2.04486e-01,6.03499e-01,-1.73873e-01,-2.75643e-01,-3.59081e-01,-1.22659e-01,4.78576e-01,-7.73016e-02,-3.75873e+00,-6.57696e-01,5.19317e-01,1.81005e-01,-4.49165e-01,1.46224e-01,-5.37186e-01,2.18005e-01,1.33393e-02,-6.22958e-01,1.39364e+00,
-1.35303e-01,5.33224e-01,-3.33211e-01,-1.14266e-01,9.13608e-03,-3.67177e-01,3.80971e-01,1.36288e-01,-1.55411e+00,3.94867e-01,-2.00398e-02,1.16751e-01,9.69084e-02,-6.37497e+00,3.25694e-02,2.74933e-01,-2.74277e-01,-3.90669e-01,2.62667e-01,1.09054e+00,-1.68772e+00,-1.20795e-01,2.91995e-01,3.01778e-01,3.49986e+00,
1.96230e-01,1.13333e-01,-2.34433e-01,-4.74868e-01,2.11040e-01,4.63159e-01,4.73277e-01,-4.70890e-01,5.30618e-01,1.13061e-01,6.38355e-01,-1.79987e-01,-1.70187e-01,1.55113e-01,-1.20986e-01,2.46954e-01,-2.78921e-01,1.21471e-01,-5.37531e-01,7.38986e-01,6.57500e-02,1.78800e-01,-2.80933e-01,2.47586e-01,8.00500e-01,
-7.60792e-02,-1.24494e-01,2.19876e-01,5.62836e-01,-6.17445e-01,-1.06268e+00,3.14920e-02,1.00771e+00,-5.45267e-01,-3.09026e-01,2.32405e-01,8.86519e-01,4.94185e-02,8.99958e-02,-1.95527e+00,-6.89381e-01,2.41471e-01,3.21610e-01,5.27980e-01,-2.77639e-01,-3.14726e-01,-1.69966e-01,2.37711e-01,7.22129e-02,-1.27537e-01,
-2.34523e-01,-4.01056e-01,5.13846e-01,-1.63845e-01,-1.76359e-01,-5.71981e-01,-3.55081e-01,2.46057e-01,7.01941e-02,-7.02466e-02,-7.17855e-01,8.56958e-01,3.57745e-01,1.48071e+00,5.74503e-03,-1.11933e-02,3.44197e-02,-5.83613e-02,3.65992e-01,-5.18969e-03,4.03613e-01,-5.18713e-02,1.15265e-01,-1.07195e-01,6.48265e-03,
1.53575e-01,4.66517e-01,-9.23921e-01,1.80466e-01,-3.43401e-02,-2.55290e-01,-8.36409e+00,4.10527e-01,4.74524e-01,-2.48902e-01,6.07263e-01,-1.43673e+00,-1.19541e-01,1.00487e-02,-8.28266e-01,-3.78590e-01,-1.15695e-01,9.08483e-02,4.43413e-01,7.69246e-01,3.85019e-02,3.38055e-01,-2.82080e-01,-5.16392e-01,6.16224e-01,
-2.92074e-01,
-5.73547e-01,
-3.52914e-01,
-5.78338e-01,
3.24348e-01,
-1.80947e-01,
1.82117e-02,
4.39202e-01,
-1.55769e-01,
-2.39272e-01,
6.36538e-01,
1.20916e-01,
6.03346e-01,
-5.23462e-02,
1.54290e-02,
-1.19487e-01,
3.59543e-01,
2.72660e-01,
-3.19256e-01,
5.08390e-01,
5.21469e-02,
-7.16505e-01,
-5.07571e-03,
-8.88807e-01,
-2.73012e-01,
1.67238e-01,3.84271e-01,-1.72057e-04,-7.45196e-02,-4.68641e-02,1.01058e-01,-2.15890e-01,4.60191e-01,-1.07381e-01,-9.32501e-02,-5.33516e-01,-6.93482e-02,-1.96935e-02,5.47888e-02,-4.62064e-01,2.42229e-01,1.17779e-01,7.69424e-02,3.11772e-01,-4.27683e-02,-8.29198e-01,-1.80114e-01,-1.73962e-02,-1.37032e-01,6.12964e-01,
6.43047e-02,1.02973e+00,1.93342e-01,-3.75376e-02,9.36084e-02,-1.91060e-01,-4.55941e-01,-5.75837e-02,-1.95877e-01,-5.59788e-03,-2.73869e-01,3.12076e-01,1.74630e-01,-4.11371e-01,3.13670e-01,3.15509e-01,2.49711e-01,-2.06822e-02,7.51507e-02,2.57650e-01,2.12012e-01,-1.50318e+00,-1.51124e+00,1.08771e+00,-1.24234e+00,
4.31125e-02,4.08127e-01,-5.09949e-02,-6.03490e-01,-2.68652e-02,-2.04394e-01,1.19014e-01,-7.17520e-01,3.71480e-02,1.43478e-01,-2.24589e-01,-6.69228e-01,2.49632e-01,3.86393e-01,2.17274e-01,3.13239e-01,3.35966e-01,9.37402e-02,-1.03556e-01,-1.93792e-01,3.72534e-02,-5.78241e-01,-1.57397e-01,-2.96324e-01,-4.46455e-01,
4.41056e-02,1.46610e-01,1.16134e-01,1.02632e-01,2.50108e-01,-3.48994e-01,6.64034e-02,-8.51172e-01,-7.85925e-02,-2.49252e+00,4.82982e-01,7.84807e-02,5.37975e-02,3.02272e-01,5.14608e-01,-1.61006e-02,-2.58330e-02,-3.34692e-01,-4.90358e-01,-5.38429e-01,8.47725e-01,-5.60467e-01,1.54259e-01,-1.26126e-01,-2.29693e+00,
-2.86654e-01,8.59723e-01,8.51502e-01,-6.92318e-01,3.76895e-01,6.43366e-01,-1.84546e-01,-2.14025e-01,2.09039e-01,7.27007e-02,-2.90627e+00,-4.88952e-01,9.23602e-01,-3.48953e-01,-1.71097e-03,2.37762e-01,6.76116e-01,2.34313e-01,-4.76880e+00,-1.26578e+00,1.30083e+00,-9.01821e-01,-1.05085e+00,1.26062e+00,-6.48988e-01,
3.68852e-01,6.05964e-01,5.31467e-01,3.62546e-02,-2.01220e-01,-1.31515e+00,-1.35929e+00,-5.93068e-01,-2.20558e+00,-1.17169e+00,3.31330e-01,-3.92805e-01,6.71253e-01,4.22206e-01,-7.11514e-01,2.56527e-01,6.38319e-01,2.24243e-01,-2.67318e-02,1.86960e-01,2.03663e-01,-1.11173e+00,-1.69117e+00,5.51191e-01,-2.15642e-01,
-2.53598e-02,3.63594e-01,1.01766e-01,-9.66956e-02,7.52334e-01,9.77079e-02,-1.99443e-01,-4.72886e-01,2.47555e-01,1.22025e-01,-4.41809e-02,-3.13334e-01,-1.53683e-01,-3.20365e-01,-1.00492e-01,-9.53102e-02,3.46858e-01,1.93114e-01,-1.47760e-01,1.24827e-02,-5.96381e-01,-6.16437e-02,2.17371e-01,2.58577e-01,-2.17975e-02,
1.12407e-01,-9.07718e-02,8.10831e-02,-4.35391e-01,-7.31530e-02,2.04439e-01,1.32487e-01,-2.05967e-01,7.62856e-02,-1.97099e-01,-3.23480e-02,9.56963e-02,1.04279e-01,7.70119e-02,-9.87848e-02,-5.47274e-02,-7.82681e-02,-2.82344e-02,1.67786e-01,7.37085e-02,5.13733e-01,1.18200e-01,-1.61222e-01,1.89823e+00,2.18048e-01,
3.49169e-01,5.31420e-01,-5.41928e-02,-3.83885e-02,-1.57566e-01,1.91279e-02,-5.63127e-01,-3.13291e-01,-2.45304e-01,-4.41424e-01,-6.44437e-01,1.93206e-01,-1.44538e-01,-4.42787e-02,-6.92706e-02,3.09424e-01,-2.45716e-01,1.58247e-01,3.09914e-01,1.77329e-01,-7.54208e-02,-3.52869e-01,2.18827e-01,7.43882e-02,-2.23612e-01,
2.72062e-01,-8.24100e-02,-2.36956e-01,4.34770e-01,-5.99167e-01,9.56503e-01,-1.37529e-01,3.77377e-01,2.15632e-01,-7.83015e-02,1.75726e-01,7.00594e-01,5.38135e-01,-7.20010e-02,-3.16298e-01,1.58403e-01,-5.11761e-01,2.38000e-01,2.38941e-02,-5.72708e-01,7.34836e-01,1.73230e-01,-3.37404e-01,4.05319e-01,-1.07156e-01,
2.50781e-01,2.61294e-02,1.34760e-01,8.24463e-01,-1.07739e-03,3.73303e-02,-9.96583e-02,3.60547e-01,-2.68187e-01,1.66410e-01,-4.13773e-01,1.46628e-01,-1.06946e-01,1.07997e-01,-1.01778e-01,1.68728e-01,-7.32213e-02,-3.15460e-02,-1.76117e-01,7.12359e-02,1.19265e-01,-6.13175e-01,2.14191e-01,-4.05840e-02,8.70091e-01,
-2.59575e-01,2.43630e-01,2.38504e-01,-8.75058e-01,2.04948e-01,2.88544e-02,2.29522e-01,2.12877e-01,2.96547e-01,2.50647e-01,-7.82788e-02,-2.80816e-01,-1.75866e-02,-1.70042e-01,-1.05282e-01,9.14393e-02,8.14838e-02,2.45222e-01,-2.72350e-01,-1.44492e-01,-1.01213e-01,-1.03577e-01,-7.25055e-02,2.15687e-01,6.68027e-01,
-4.53161e-01,3.87567e-01,8.32599e-01,8.75679e-01,5.47185e-01,-1.15009e-01,-7.37934e-02,2.76356e-01,-7.41349e-01,-3.83191e-01,4.46579e-03,-4.67843e-01,9.46097e-01,3.11634e-01,-4.26438e-01,-9.53392e-02,4.09395e-01,-1.47776e-01,5.40760e-01,-2.24927e-02,9.65540e-01,-5.78794e-01,-5.57382e-01,2.57061e-01,3.90118e-02,
3.25365e-02,-8.61055e-02,1.94268e-01,2.25246e-01,-7.72756e-02,2.64030e-02,1.85623e-01,4.97698e-02,-1.00867e-02,-1.34316e-01,3.81390e-02,5.64896e-02,-2.94601e-02,2.48607e-01,7.92286e-02,2.59407e-01,4.65897e-01,8.48955e-02,2.14825e-01,-1.52285e-01,7.54094e-01,-2.59630e-01,-2.51568e-01,9.66774e-02,-3.93744e-01,
-1.74525e-01,1.48646e-02,-6.77235e-02,2.56890e-01,-3.18327e-01,-1.51436e-01,3.34565e-01,-3.07812e-01,3.00089e-02,4.07978e-01,4.93283e-01,9.52783e-02,2.40112e-01,4.48564e-01,3.32887e-01,8.06301e-03,-4.46792e-01,-2.35942e-02,-7.47840e-01,-2.46503e-01,4.43658e-01,-7.86203e-02,2.94471e-02,-3.55120e-01,6.33500e-01,
2.98105e-01,2.70402e-01,4.61964e-01,9.28884e-01,-6.34042e-01,-1.14321e+01,-5.27401e-01,2.21599e+00,-1.68055e-01,1.77608e+00,-5.37616e-01,9.09640e-01,-1.24088e+00,3.27135e-01,-9.86107e-02,-5.48550e-02,7.47575e-02,3.31530e-01,-1.60504e+00,-5.52030e-01,-1.22746e-01,-9.20363e-01,-7.77184e+00,5.00628e-01,-1.41977e-01,
6.87801e-02,1.69863e-01,-7.47170e-02,5.24919e-02,-1.68976e-01,-1.37914e-01,-3.07605e-01,4.50007e-01,-1.88101e-01,-4.29981e-03,-1.11225e-01,-8.17111e-02,1.36121e-01,9.12340e-02,6.60743e-02,-1.68160e-01,1.64280e-01,-4.46675e-01,3.53081e-01,-1.82641e-01,9.64571e-01,-3.32131e-01,1.31893e-01,-4.19749e-02,4.11245e-01,
4.72911e-01,-2.02015e-01,-2.87598e-01,4.80538e-01,-6.34377e-01,-1.36187e+00,-3.55763e-01,1.20948e-01,-1.82454e+01,-5.30969e+00,-1.79506e+00,-2.97828e-01,7.48971e-01,-7.98215e-01,-3.13652e-01,3.11374e-01,1.27404e+00,-4.74638e-01,1.24240e+00,-1.66382e-01,9.54056e-01,5.74210e-01,5.44261e-01,-6.56110e+00,7.07596e-01,
-8.15749e-02,8.12910e-01,1.40642e-01,1.32467e-01,-8.45809e-01,7.21283e-01,2.16367e-01,-4.41427e-01,-1.62189e-01,-3.88834e-02,-2.31999e-01,4.08297e-01,1.34141e-01,-2.66386e-01,-5.46386e-01,-3.23727e-01,-6.10300e-01,2.47183e-01,-8.81809e-02,-3.82864e-01,1.00949e+00,-2.54646e-01,-4.56934e-01,2.54969e-01,5.31832e-04,
-7.91778e-01,-6.41454e-02,6.51223e-01,-7.03983e-01,5.10951e-01,1.22251e-01,5.49087e-01,5.24135e-01,-6.81566e-01,1.48487e-01,-4.11436e-01,1.43493e-02,-5.68442e-02,-2.46648e-01,-4.42585e-01,3.40402e-01,-2.69464e-01,2.25069e-01,3.81917e-01,-9.26808e-02,-2.10434e-01,-1.47041e+00,-4.72680e-01,-4.22903e-01,1.26047e+00,
-4.44567e-02,-1.03497e-01,-1.42868e-01,-1.13228e-01,-2.49487e-01,8.32823e-02,3.54465e-02,9.41873e-01,1.77574e-01,5.78923e-02,5.15050e-01,-2.29260e-01,1.76112e-01,2.18403e-01,2.35664e-01,2.26894e-01,2.97726e-01,1.26902e-01,-2.07577e-02,-9.28796e-02,-2.99933e-01,3.09830e-01,-1.16319e-01,1.96331e-02,1.36693e-01,
8.63755e-02,3.71488e-02,-9.11553e-02,-1.12056e-01,2.41290e-01,-2.72641e-01,-3.29382e-01,-2.20652e-01,4.94276e-02,-1.91527e-01,-1.14408e-01,-3.49699e-01,2.69065e-02,1.36038e-01,2.01348e-01,3.23356e-01,1.82352e-01,-2.40015e-01,-2.15342e-01,-5.57499e-02,2.69515e-01,-1.44034e-01,1.63334e-01,-2.39444e-01,-7.47329e-02,
-1.36931e-01,-1.99028e-01,2.93144e-01,1.28959e+00,-1.09362e-01,1.52432e-01,4.76948e-01,9.62093e-01,-2.12528e-01,-5.60586e-02,-4.10397e-02,-9.17669e-02,5.84030e-01,3.21695e-01,-2.90127e-01,3.17110e-01,-1.89050e-01,-3.24749e-01,-1.70773e-02,-9.50364e-02,-4.79708e-01,1.47082e-01,-6.20678e-01,-4.15152e-01,-5.52157e-02,
-2.78435e-01,-3.60382e-01,-8.83717e-01,7.21794e-01,6.53764e-01,-7.54726e-01,-1.07773e+00,-1.79725e-03,-6.05411e+00,-4.12478e-01,-2.70945e+00,-8.17815e-04,8.16921e-01,-6.21838e-01,7.02864e-01,-3.26263e-02,8.00656e-01,1.09260e-01,-4.70442e+00,-2.73242e-01,-4.88533e-01,3.83286e-01,2.11557e-01,1.85519e+00,1.21552e+00,
3.39380e-01,-8.61719e-02,-3.52848e-02,3.88124e-02,-4.77771e-01,4.61283e-02,-1.79450e-03,-2.18791e-01,-7.17861e-03,2.16050e-01,-7.88536e-02,2.58783e-01,1.19041e-01,4.05426e-01,-7.16858e-03,5.73195e-02,-1.91102e-01,7.62512e-02,5.88212e-03,5.12996e-02,4.68627e-01,2.17113e-01,1.54341e-01,-8.26316e-01,2.44667e-01,
6.81647e-01,
4.94217e-03,
3.54471e-01,
-6.44467e-01,
2.53253e-02,
-8.84198e-02,
2.74466e-01,
-3.70073e-02,
4.96866e-01,
-6.71205e-01,
3.43375e-01,
2.25500e-01,
3.42267e-02,
-1.67163e-01,
-6.19086e-01,
-2.62926e-01,
6.05616e-01,
-9.81210e-01,
-7.99917e-02,
2.19630e-01,
-3.53087e-01,
-2.05806e-01,
2.80811e-01,
-4.54026e-01,
1.33120e-01,
-2.04068e-01,2.92951e-01,-1.74560e-01,4.31387e-01,9.82957e-01,6.87256e-01,2.85783e-01,8.40824e-03,2.90721e-01,2.28046e-01,1.09615e-01,-4.68030e-01,-3.12960e-01,-5.59709e-02,-2.82329e-01,4.75927e-02,-4.13412e-01,1.06335e+00,-4.67843e-02,4.79963e-01,5.75675e-01,3.42031e-01,-7.93061e-02,1.58307e-01,3.43827e-01,
1.24480e-01,5.56493e-02,-2.95778e-01,-6.97903e-02,6.61364e-02,7.56799e-01,6.00941e-01,-7.37676e-02,-1.69304e-01,6.60411e-02,2.63675e-01,-5.30178e-01,-6.25931e-01,1.71046e-01,1.26066e-01,2.84441e-01,7.77561e-02,2.04850e-02,4.73705e-02,-1.62743e-01,2.06543e-01,-5.47013e-02,2.10052e-01,-5.72198e-01,-4.41096e-02,
5.59269e-02,1.39926e+00,6.40785e-01,-2.18526e-01,1.11095e-01,5.28900e-02,-9.41721e-02,-4.34262e-01,-9.29428e-01,-3.56204e+00,2.42678e-01,-3.57620e-01,-7.37425e-01,-7.65482e-01,-5.94552e-01,2.04642e-01,-4.06891e-01,-2.14354e+00,8.66353e-01,3.47888e-01,6.71586e-01,-2.05478e-01,-2.51819e-01,6.50961e-01,-6.59592e-02,
5.44967e-02,-1.69182e-01,1.47750e-01,3.84875e-02,4.54542e-02,3.58708e-02,-1.29573e-01,2.40653e-02,-2.14540e-01,1.30417e-01,-1.39686e-01,-7.46144e-02,1.63161e-01,-6.60814e-02,4.43653e-02,2.49003e-01,4.35433e-01,-1.61754e-01,-3.19905e-01,1.12980e-01,-7.68916e-03,-6.70640e-02,2.08182e-01,8.38238e-01,-2.48983e-01,
1.93012e-02,3.55357e-01,1.23629e-01,-1.18849e-02,-2.15781e-01,1.60678e-02,8.59337e-02,2.60698e-02,-6.14375e-02,-1.15753e-01,-5.87819e-02,3.02004e-02,1.38437e-01,3.18603e-01,-1.02348e-01,-9.88084e-02,2.46218e-01,-1.95465e-01,1.15750e-01,-3.35152e-01,2.31698e-01,-2.46909e-02,5.57667e-02,-2.77182e-02,4.99615e-02,
-2.86188e-02,2.21409e-01,6.63818e-02,-1.96808e-01,5.23633e-02,2.08490e-01,-8.19930e-02,-1.84171e-01,1.41347e-01,-2.15231e-01,-7.58135e-02,-1.13099e-01,-2.47170e-01,1.62690e-02,-1.70177e-01,-1.83886e-01,-9.05319e-02,-1.36201e-01,-3.19222e-01,1.48937e-01,1.86249e-01,2.43153e-01,-1.46597e-01,-2.89371e-01,2.86320e-01,
7.98217e-03,1.53191e-02,-1.65215e-01,3.46392e-01,-9.18254e-01,-1.63192e-02,1.03306e-01,3.55632e-02,2.14305e-01,5.45124e-02,-1.11653e-01,-3.38317e-01,1.59065e-01,-7.86237e-02,2.94865e-01,5.06781e-02,-2.40963e-01,1.02224e+00,-1.01291e-01,6.03484e-01,3.49168e-01,2.50753e-01,-1.45093e-01,4.18195e-01,-1.22744e-01,
6.39527e-01,3.83754e-01,6.54989e-02,5.08239e-01,6.92535e-02,-6.29257e-02,-2.92868e-01,1.31899e-02,-6.00971e-01,-8.75800e-02,3.80335e-01,2.99915e-01,-5.01189e-02,-3.60917e-01,-1.13029e-01,3.08300e-01,-9.97958e-02,-9.97907e-02,3.88596e-01,-2.70633e-01,-1.21188e-01,4.25725e-02,-1.14612e-01,5.87143e-01,1.40772e-01,
8.27215e-02,-5.35324e-02,-1.11526e-01,-1.45504e-01,6.47079e-03,-6.73258e-03,-9.46916e-02,1.41937e-01,2.36834e-01,-2.48662e-02,1.81295e-01,-3.64833e-01,1.15810e-02,1.94315e-01,1.37717e-01,-4.25025e-01,-2.77916e-01,-2.89866e-01,-1.58942e-01,2.30050e-01,-2.19100e-01,-4.75362e-02,-7.53730e-02,2.73574e-01,6.64727e-02,
1.62128e-02,3.09360e-01,-2.40007e-01,8.96803e-03,2.11869e-01,7.24970e-02,1.46651e-01,-5.47772e-02,4.32043e-02,-3.92166e-02,2.54277e-01,-3.90193e-02,-2.38921e-01,1.20471e-01,8.37151e-02,4.76565e-03,2.05445e-02,-4.85589e-01,7.67686e-02,-6.40518e-03,8.25007e-02,-2.03298e-01,-1.17009e-01,3.10025e-01,3.38917e-02,
-4.03402e-01,3.71892e-02,-1.94867e-01,2.16390e-01,-1.92067e-02,-2.26147e-01,-2.10460e-01,9.83358e-02,-2.86174e-02,-1.23159e-01,-3.60112e-01,-1.30861e-01,-2.34943e-01,-3.74410e-01,-3.65292e-01,2.55775e-01,1.75027e-01,-1.78942e-01,-5.06621e-02,-2.13884e-01,-7.03921e-02,3.12787e-01,1.93132e-01,-1.31004e-01,-1.65513e-01,
9.07369e-02,-2.17915e-01,1.98619e-01,-4.06088e-02,8.09318e-02,-2.43683e-01,7.03693e-02,-2.51478e-01,-1.23638e-01,1.11505e-01,2.45846e-01,-4.32685e-02,2.13200e-01,-3.83526e-01,-9.41626e-02,-8.46132e-02,-3.03232e-01,-6.34373e-02,4.80666e-02,-7.41502e-02,-1.98505e-01,1.82234e-01,-1.54175e-02,-3.00250e-01,1.33380e-01,
-1.75389e-02,9.09885e-02,-3.16291e-01,2.39535e-01,-9.85421e-01,2.72272e-01,3.64130e-01,-7.24611e-02,2.36582e-01,7.57923e-02,-1.19123e-01,-8.99899e-02,-3.19045e-01,7.76110e-02,5.29200e-01,-5.83443e-02,-2.57524e-01,4.93286e-01,-3.40232e-02,4.22155e-01,3.27291e-01,1.85537e-01,1.45449e-01,3.68856e-01,-2.07592e-01,
-4.57083e-01,1.90465e-02,-4.05435e-01,-4.12206e-01,-2.51389e-01,-1.93999e-01,5.03071e-01,-1.45474e-01,1.29529e-01,-1.42963e-01,2.66025e-01,-1.30618e-01,-1.21440e-01,4.74169e-02,1.77606e-01,2.62345e-01,3.90463e-01,4.38332e-01,2.28859e-01,-4.72717e-01,-1.76215e-01,2.95629e-01,-3.98620e-01,-3.99802e-01,-1.94540e-01,
5.59957e-01,-2.41964e+00,-4.25990e-01,6.00997e-01,-3.36716e-01,4.72381e-01,3.56119e-01,2.80453e-01,-4.09355e-01,6.07919e-01,-3.39306e-01,-4.92990e-01,1.77775e-01,-3.56802e-02,-8.44039e-03,1.93262e-01,7.39575e-01,-1.10960e+00,-5.90487e-01,-4.59604e-01,7.36888e-01,1.82119e-01,-6.87998e-01,8.47625e-01,-2.44995e-01,
4.87538e-01,4.52743e-01,1.88707e-01,-1.45838e-01,-2.52497e-01,4.84478e-02,3.48453e-01,-2.06255e-01,-7.57923e-01,-1.05293e+00,8.09360e-02,-2.61390e-01,3.97147e-01,2.92581e-01,-1.15694e+00,-8.48895e-02,3.37165e-01,6.27998e-01,3.05505e-01,-4.84900e-01,4.30378e-01,1.27165e-01,-3.66047e-01,2.22769e-01,-4.41887e-01,
4.32211e-01,6.55514e-01,5.06679e-01,-1.22689e+00,3.37585e-01,1.20266e-01,-7.80078e-01,-3.23947e-02,2.65044e-01,-1.23397e+00,-6.02027e-01,-5.85679e-01,-1.29409e-01,-5.00977e-01,-1.74724e+00,-5.18775e-01,7.02992e-01,1.43457e+00,4.17132e-01,1.93246e-01,-4.52050e-01,1.70881e-02,5.43412e-01,-4.66746e-01,-5.31708e-01,
-1.90249e-01,-9.73277e-03,-3.77586e-03,4.81586e-01,1.06299e-02,6.10608e-02,-8.38810e-02,5.34405e-02,2.39187e-01,1.09847e-01,1.06328e-01,-2.41652e-01,-2.63036e-02,-4.45598e-01,-2.86774e-01,2.31828e-01,-3.09846e-01,4.45801e-01,1.97096e-02,1.94568e-01,1.78132e-01,1.52324e-01,1.38283e-02,-2.61796e-01,6.09523e-02,
6.01371e-01,4.95631e-01,-1.80286e-01,3.87991e-01,1.29940e-01,8.71157e-02,-1.70136e-02,-1.28163e-02,-5.76057e-01,-5.11318e-02,3.97648e-01,6.22997e-02,-1.43612e-01,-3.77497e-01,1.22802e-01,2.22958e-01,-1.19920e-01,-4.13056e-01,4.12864e-01,-2.55590e-01,-5.30508e-02,-3.01914e-01,-3.27344e-01,7.16812e-01,9.38736e-02,
-3.40587e-01,-6.52247e-01,-7.88937e-02,-1.94020e-01,-1.82573e-01,1.37795e-01,-6.51548e-02,-1.63471e-01,5.63658e-01,1.17829e-01,3.21527e-01,1.71275e-01,-6.00144e-01,6.21775e-02,-5.84294e-01,1.73673e-01,1.95836e-01,-1.40290e-01,1.74811e-01,2.56522e-01,-2.02826e-01,-2.96282e-01,6.03481e-01,-5.53610e-02,-8.96597e-02,
-8.80169e-02,1.95689e-02,-2.79060e-02,4.84168e-01,2.04194e-01,-1.06150e-01,-1.31701e-01,-8.59383e-04,4.11532e-01,9.77735e-02,-2.35502e-02,4.18768e-02,-5.95861e-02,8.21353e-02,-1.40999e-01,-2.27285e-01,-3.68289e-01,-3.36116e-01,-9.16910e-02,3.22166e-01,4.00296e-01,-3.05130e-01,1.37350e-01,9.46094e-01,6.95629e-02,
4.31249e-01,-7.06305e-02,1.42114e+00,5.56573e-01,1.01909e+00,-1.83138e-01,3.76380e-02,-1.91210e-01,3.78701e-01,-2.70559e-01,4.01963e-01,-5.58096e-01,3.39342e-01,-1.15669e+00,-1.21168e-01,1.40728e+00,-7.21577e-01,2.47389e+00,-6.01011e-01,2.49127e-01,6.12915e-01,7.83930e-02,3.23002e-01,-5.04081e-01,-1.33245e+00,
4.71830e-01,1.64169e-01,1.26028e-01,2.71445e-01,1.68296e-01,7.17776e-01,1.04256e-01,-1.01046e+00,-7.44562e-01,2.74345e-01,4.96898e-02,-2.74969e-01,-2.80052e-01,-9.11015e-02,-2.98843e-01,2.20372e-01,-7.22492e-04,-1.69096e-01,-1.19585e-02,-7.32940e-02,-1.75144e-01,-2.26849e-02,1.52080e-02,-4.15190e-01,7.82954e-01,
-7.42582e-02,7.15140e-01,-2.91830e-01,-1.26919e-01,4.53653e-01,6.35197e-02,1.07513e-01,-5.13685e-02,1.56014e-01,-1.91504e-01,6.75062e-01,-1.06339e-01,-7.73259e-01,2.86951e-01,-1.19813e-01,2.16726e-02,1.06518e-01,-9.05134e-01,1.94665e-01,9.09618e-02,1.73985e-01,3.34576e-01,-6.26127e-02,-1.04549e-01,1.25491e-01,
3.31147e-01,1.35567e-02,8.94672e-02,1.49766e-01,3.28458e-02,1.57910e-01,-5.35188e-02,-1.96964e-02,-2.26450e-01,-6.44877e-01,-1.16228e-01,-2.52783e-01,2.43548e-01,-1.09529e-01,1.39474e-01,1.23874e-01,2.61314e-01,2.42645e-01,-8.11492e-02,6.04573e-02,1.02193e-01,-1.23476e-01,1.59513e-01,7.01934e-01,-3.67321e-01,
-6.01449e-02,
-6.96151e-02,
-3.31145e-02,
4.12466e-02,
-2.32453e-01,
-3.06146e-01,
1.60052e-01,
9.91730e-02,
1.69684e-01,
4.25396e-01,
-2.47295e-01,
-3.73752e-01,
2.69873e-02,
3.91929e-02,
-4.79977e-01,
-2.74241e-01,
-6.95647e-01,
2.10714e-01,
1.43581e-01,
-1.13162e-01,
9.61328e-02,
-5.22082e-01,
-1.15353e-01,
-1.12672e-01,
4.85225e-02,
2.39890e-02,-2.56194e-02,-2.79196e-02,-9.08777e-02,-5.60151e-03,5.11195e-02,-3.05809e-02,6.12458e-02,3.54079e-02,1.99223e-01,2.33940e-01,9.93416e-03,8.70482e-03,-1.89063e-02,-1.17991e-01,-3.47439e-02,-6.25112e-02,1.17259e-02,-7.25636e-02,2.35352e-02,-3.69029e-02,-1.18088e-01,-1.73788e-02,-7.46039e-02,-1.41389e-01,
-4.29358e-02,4.62219e-03,3.47249e-02,-8.52534e-02,3.95621e-02,9.98106e-01,1.48029e-01,-1.01760e-01,-1.11253e-01,3.31347e-01,1.43675e-01,7.40237e-01,-1.36457e-01,-8.87968e-02,-2.67323e-02,4.54424e-02,6.30367e-02,-4.62026e-03,4.78279e-02,8.26777e-02,-5.22883e-02,-1.23030e-01,-1.24834e-02,-8.82374e-02,-1.19050e-01,
-4.08490e-02,2.15897e-02,3.48111e-02,-7.36238e-02,-1.72852e-01,6.38139e-01,-3.13279e-02,-2.61903e-02,-1.69161e-02,9.89244e-02,-8.62659e-02,6.99642e-01,2.99366e-02,-4.85649e-02,-2.06871e-02,-1.47267e-02,1.57992e-02,1.20955e-01,-1.84068e-02,-2.70695e-02,1.20933e-02,-1.32943e-01,4.39473e-03,-2.82920e-02,-6.38350e-02,
-4.20979e-02,-3.87424e-02,1.01297e-02,-1.07602e-01,-2.29261e-03,6.76580e-01,4.48829e-02,-6.85045e-02,-8.00451e-02,2.64964e-01,1.83267e-01,6.60912e-01,-5.79226e-02,-1.51695e-02,-4.03785e-02,1.32444e-02,-2.69823e-03,-1.38983e-02,-2.90002e-04,4.89648e-02,3.42148e-02,-1.03576e-01,5.30652e-02,-5.24947e-02,-9.50015e-02,
-7.24483e-02,5.22762e-02,1.41488e-02,-4.36354e-02,-1.31399e-01,-3.00072e-01,3.44083e-02,1.00202e-02,-2.37487e-02,2.39709e-01,8.30899e-02,-1.12976e-01,-5.67696e-02,1.25798e-02,-9.70793e-02,-1.11604e-01,1.05878e-01,2.70069e-02,-2.79015e-02,1.24496e-02,1.39575e-01,-2.59725e-02,4.34153e-03,-7.91343e-02,-7.79532e-02,
-6.04049e-02,-8.55422e-02,5.32365e-02,-7.11703e-02,-3.06114e-02,5.01895e-01,-3.37354e-02,-7.05392e-02,-5.70666e-02,3.07166e-01,-3.25546e-01,6.01420e-01,-5.86200e-03,2.36183e-02,-1.32155e-02,5.51786e-02,-1.14427e-01,5.03508e-02,-2.36709e-02,-1.64702e-02,4.21750e-02,-1.29263e-01,1.62724e-01,-5.57869e-02,-7.63959e-02,
-5.48647e-02,9.77175e-03,1.88855e-02,-8.89412e-02,-1.10441e-01,4.65835e-01,-1.08559e-02,-5.06872e-02,-3.50642e-02,1.05510e-01,3.14924e-01,4.53219e-01,-9.22248e-03,-4.62236e-03,-5.37435e-02,-4.28592e-03,2.83052e-02,6.49646e-02,2.30459e-02,-1.92326e-02,8.13627e-02,-1.13679e-01,2.40653e-02,-2.04532e-02,-9.03668e-02,
-4.29079e-02,-4.31085e-02,8.26015e-03,-1.05999e-01,-1.09033e-02,5.90998e-01,1.58781e-02,-5.92642e-02,-6.95288e-02,2.61186e-01,-2.76117e-01,6.21300e-01,-3.99695e-02,-3.63371e-03,-3.52255e-02,1.73892e-02,2.78590e-03,-1.40293e-02,-1.21560e-02,4.05343e-02,4.47677e-02,-1.01777e-01,6.40067e-02,-5.27463e-02,-9.69517e-02,
-6.65404e-02,2.48413e-02,-3.59100e-02,-5.31262e-02,-2.46101e-02,4.55575e-01,-2.67789e-02,-1.82711e-01,-2.72641e-02,-8.83395e-02,-3.26624e-01,5.23710e-01,-4.32857e-02,-2.24689e-02,-1.82260e-02,-5.31629e-02,5.65116e-02,-3.51553e-02,1.81306e-01,2.00038e-02,1.92846e-01,-6.37776e-02,3.71462e-03,2.48761e-02,-1.80194e-01,
6.67185e-02,
6.06736e-03,
9.97261e-02,
-3.05494e-01,
1.87397e-02,
6.73976e-04,
-2.44094e-01,
-3.04972e-01,
1.70641e-01,
