// Neural Network File Format by Kyle Julian, Stanford 2016
6,4,9,25,
4,25,25,25,25,25,9,
0,
-8000.000000,-100.000000,-100.000000,0.000000
8000.000000,100.000000,100.000000,40.000000
0.000000,0.000000,0.000000,20.000000,-4.683445
16000.000000,200.000000,200.000000,40.000000,30.305804
9.23412e-02,1.71411e-01,2.97513e-02,1.01433e-01,
-3.67811e+00,-4.67673e-02,1.49737e-01,-7.69244e-01,
1.13090e+00,1.19714e-01,-2.67240e-01,8.54719e-01,
-2.19104e-01,-9.67655e-02,2.49110e-02,-1.26164e-01,
-1.96223e+00,-5.74648e-02,2.63708e-01,-2.27546e-02,
1.69375e+00,2.09692e-02,1.80849e-01,-9.16439e-01,
2.22545e+00,9.04383e-01,6.52174e-02,-2.73407e-02,
-1.84680e-02,-6.60409e-01,6.50670e-01,-4.79635e-02,
3.40005e+00,-2.58035e-01,6.95285e-01,1.80566e-02,
-3.85677e+00,3.33046e-02,7.94111e-02,-5.88289e-01,
-1.65821e-01,9.60635e-01,-4.21290e-02,-8.65921e-03,
2.63002e+00,-1.23004e-01,4.00115e-02,-7.45820e-01,
-4.73343e+00,3.75155e-01,-3.36913e-01,-3.14622e-01,
6.25595e+00,-1.40570e-02,1.31440e-02,4.62988e-03,
3.60677e+00,-8.68426e-01,7.31043e-01,-1.79727e-01,
3.87186e+00,-3.85353e-01,6.94280e-01,-1.09406e-01,
4.66314e-01,1.41124e-01,2.50840e-01,4.04819e-01,
-1.56221e+00,-3.79764e-01,7.13393e-01,8.70627e-02,
-2.85819e+00,-5.13481e-01,2.71232e-01,1.37879e-01,
-1.04692e+00,-3.22643e-01,3.22405e-01,6.86049e-01,
1.57708e-01,8.88329e-01,1.62731e-01,-1.81026e-02,
7.05537e-01,2.76026e-01,-2.67363e-01,-1.05061e+00,
2.51025e-01,-6.93988e-01,6.81611e-01,2.16638e-02,
-2.43602e+00,1.26840e-01,-6.79877e-02,-9.58958e-01,
-3.24167e-02,-8.69875e-01,-5.39393e-02,3.46355e-02,
-3.38251e-01,
-2.56491e-01,
3.92598e-01,
-3.44502e-01,
1.11778e-01,
-2.23511e-01,
-1.14281e-01,
1.46012e-01,
2.19594e-01,
-7.19922e-02,
4.69570e-01,
4.39968e-02,
1.18398e-01,
2.73222e-01,
-1.62212e-01,
3.50064e-02,
1.59896e-01,
-1.92227e-01,
-3.21621e-02,
1.84861e-01,
2.09899e-01,
-4.47820e-01,
5.05190e-02,
-4.06658e-01,
1.82180e-02,
-8.71459e-02,5.41970e-01,3.61232e-01,-2.70547e-01,-1.51661e-01,-2.27598e-01,3.98202e-01,2.48963e-01,6.09000e-01,7.15318e-01,6.69049e-01,-2.22488e-01,2.46354e-01,1.14032e-01,-1.63080e+00,-2.15157e-01,-2.53949e-01,-7.92499e-01,3.29933e-01,-2.79758e-01,-8.04318e-01,-2.30311e-01,-9.32954e-01,-2.44092e-01,1.31607e+00,
-8.92386e-02,4.75227e-01,9.72992e-01,-2.14103e-01,3.81341e-01,-6.97508e-01,2.33589e-01,2.29550e-03,2.06191e-01,-1.23999e-01,5.12379e-01,5.80439e-02,-2.43808e-01,-1.87846e+00,1.13019e+00,-6.06154e-01,4.16039e-01,6.00324e-01,5.98793e-01,-1.22080e+00,-3.76390e-01,-1.10713e+00,9.87780e-02,5.27098e-01,-8.84934e-01,
4.13518e-02,1.40881e-01,-1.97977e-01,-2.29045e-01,-9.27791e-02,6.34466e-01,7.75705e-02,2.48954e-01,-6.25181e-01,-5.66788e-02,-2.00605e-01,-1.62981e-01,8.67418e-02,-2.83896e+01,-8.19984e+00,-1.00798e+00,-4.59169e-01,-4.35206e-01,-5.01749e-01,7.94557e-01,2.45875e-01,-5.43848e-01,-1.07860e+00,-2.47339e-01,7.54637e-02,
-2.25109e-01,-3.44961e-01,-1.17671e+00,-1.38898e-01,-3.10918e-01,8.51627e-02,2.37354e-01,-4.81235e-01,2.44704e-01,1.94458e-01,5.62960e-01,1.56160e-01,-6.27463e-01,4.48184e-01,-9.40226e-01,6.20419e-01,3.89511e-01,-6.50809e-01,4.64765e-01,8.98260e-01,-4.21993e-01,6.70287e-01,7.76889e-01,6.41588e-01,-1.13064e+00,
-3.29374e-01,-1.99492e-02,-3.98006e-01,-3.83360e-02,1.92035e-01,-9.26713e-02,1.06469e-01,2.85205e-01,-4.22656e-02,6.01990e-01,-1.36383e-01,9.34176e-01,3.55747e-01,-1.26186e-01,-6.01865e-01,8.05779e-01,6.33291e-01,-1.19932e-01,2.78850e-01,2.22982e-01,8.68921e-01,1.61508e-01,-7.34792e-01,1.12564e-01,9.95552e-01,
9.98531e-02,2.54961e-01,6.30888e-01,-2.76389e-01,-5.68886e-01,5.05423e-01,6.66518e-01,-2.08646e-01,-6.18979e-01,4.64265e-01,9.22096e-01,-6.20626e-02,8.20746e-01,-4.43608e-01,5.86737e-01,-2.03078e-01,6.61976e-01,-4.15430e-01,1.92256e-01,-9.85526e-01,7.66852e-01,-3.23919e-01,-9.23580e-01,-1.92241e-02,2.01180e+00,
-1.00502e-01,-6.23693e-01,-3.83828e-02,-2.34608e-01,-1.96484e-01,-1.86782e-04,-1.18609e+00,-1.95041e-01,3.02923e-01,9.29823e-02,1.14793e+00,-5.73416e-02,6.59449e-03,-2.15616e+00,5.67153e-02,4.47948e-02,-9.67153e-02,8.64301e-02,-1.54708e-01,3.84631e-02,-9.33823e-03,-5.09301e-02,1.02105e-01,-8.25422e-02,1.16442e+00,
2.98498e-01,-8.97383e-01,-5.12825e-01,-2.82227e-01,-4.10722e-01,3.21323e-01,-7.45325e-01,1.07412e+00,-5.15711e-01,-3.27534e-01,-2.86871e-01,2.23602e-01,-3.19100e-01,4.37864e-02,8.15544e-01,5.21590e-01,8.88595e-01,2.88222e-01,1.00077e+00,2.99764e-01,4.78637e-01,2.33099e-04,-3.23131e-01,-1.24741e-01,-8.62766e-01,
-9.98288e-02,1.76133e-01,2.45567e-01,2.35926e-02,-4.32787e-01,-2.23170e-01,4.14252e-01,-1.82249e-01,1.01235e-01,-2.88192e-02,3.11146e-01,-1.54107e-01,4.51936e-01,-1.69082e-01,-1.01400e-01,-6.59789e-01,-2.17522e-01,6.73509e-01,4.33114e-02,5.42504e-02,8.33428e-01,-3.99152e-01,7.81539e-01,1.67072e-01,2.01957e+00,
2.49300e-01,8.89979e-02,-3.24988e-01,1.96931e-01,8.67256e-01,-3.11698e-01,7.32842e-01,1.21326e+00,-1.65039e-01,-1.09974e+00,4.04973e-01,-3.70012e-01,-1.34735e+00,1.31024e-01,-6.09498e-01,7.65433e-02,-7.72116e-02,5.81252e-01,6.88608e-01,3.36254e-01,4.10294e-01,-1.61893e-02,-8.16922e-01,-4.36816e+00,-3.61109e-01,
3.91084e-02,1.56509e-01,7.20874e-01,-6.06458e-02,6.26015e-01,6.62350e-01,5.36408e-01,-3.35576e-01,-6.91423e-01,3.87076e-01,8.97635e-02,-7.88768e-01,1.12108e+00,-3.49671e-02,1.82045e+00,-5.53629e-01,3.58178e-02,-8.03076e-01,-8.43313e-01,-1.82232e-01,3.87144e-01,-9.23232e-02,-1.51797e-01,1.08112e-01,2.17763e-01,
-1.14263e-01,3.64843e-01,4.11382e-01,3.06924e-02,4.32835e-01,-3.93272e-01,-3.89631e-01,8.82217e-01,1.88612e-01,5.83863e-01,-3.58687e-01,-1.55115e+00,5.70273e-01,3.87705e-01,6.90588e-01,-1.19489e+00,4.11311e-01,-2.03824e-01,-1.62185e-01,-9.83494e-01,6.68199e-01,1.20626e+00,-1.17136e-01,-2.77482e-01,4.04009e-01,
-2.81164e-01,-9.23820e-01,2.53972e-01,-8.06358e-02,-1.83901e-01,-1.17562e+00,-1.60000e+00,3.55333e-01,1.94151e-01,1.60255e-01,-7.17619e-01,-3.70801e-01,-7.23705e-01,-7.53933e-02,1.34380e-01,2.60000e-01,-2.11290e-01,8.12884e-01,-1.82835e-01,4.29108e-02,-7.50319e-01,-2.26397e-01,1.76639e-01,-5.44603e-02,3.70123e-02,
-2.44716e-01,-8.31336e-01,-1.22895e+00,5.78428e-02,-1.04995e-01,-4.26203e-02,-2.74315e-01,8.49505e-01,4.43023e-01,-7.16984e-01,-4.21349e-01,1.63870e-01,-1.36759e+00,4.65450e-01,-1.37223e+00,6.35897e-01,1.94948e-01,2.95979e-01,8.05352e-01,1.01133e+00,-2.11410e-01,9.78973e-01,-3.89819e-01,-1.94147e-01,-2.92675e-01,
-2.72523e-01,-4.02190e-01,-6.00870e-01,-3.04260e-01,6.23752e-01,-1.64042e-02,1.20887e+00,-1.42733e-01,3.43245e-01,-7.22238e-01,4.42618e-01,2.40454e-01,-1.00845e+00,-3.40655e-01,-3.30160e-01,3.61379e-01,4.90939e-01,-8.74790e-01,-1.81680e-01,3.49073e-01,1.03092e+00,4.04919e-01,1.69430e-01,2.39130e-01,-1.83727e+01,
1.23007e-01,-5.22074e-01,-4.93925e-01,-3.25859e-01,-7.13361e-01,-1.25758e-01,4.66574e-03,2.96995e-01,-2.85884e-02,-6.07001e-01,-1.91051e-01,3.22885e-01,-4.93288e-01,8.76993e-01,-1.30260e-02,9.06840e-01,-3.65200e-01,-1.39424e+00,3.60933e-01,5.81142e-01,4.01405e-01,8.03794e-01,-5.87752e-02,-6.54023e-01,-1.69847e-01,
2.67924e-01,-2.47207e-01,1.19685e-01,-8.60812e-02,2.84646e-01,-4.15520e-01,2.00998e-01,-2.25855e-01,-2.07209e-01,2.05533e-02,1.04663e+00,1.65359e-01,1.31696e-01,-2.74852e-02,6.62287e-01,7.36007e-01,3.97742e-01,-5.41367e-02,-4.61066e-01,1.33429e-01,-1.15450e-01,-1.25661e-01,5.43782e-01,5.19050e-01,1.26437e+00,
-1.79190e-01,1.20950e+00,1.08376e+00,2.48424e-01,2.61261e-01,-1.06916e+00,1.58306e-01,-2.67112e-02,-2.70575e-01,7.67916e-01,1.04022e-01,-1.50173e-01,3.26712e-01,-4.59213e-01,-3.60192e-01,-2.21610e-01,-2.20077e-01,9.25552e-01,2.93198e-01,-8.10823e-01,9.23767e-02,-7.05171e-01,4.18021e-01,2.34477e-01,-9.57702e-02,
-3.92959e-02,4.04427e-02,6.52601e-02,2.47015e-01,-2.38164e-01,1.06037e-01,2.15020e-01,2.67881e-01,-1.46380e-01,2.05544e-02,1.12014e+00,-9.39908e-02,-1.41151e-01,6.77141e-03,-4.43255e-02,1.17856e-01,1.08346e-01,-8.24931e-02,3.66457e-01,-1.56910e-01,1.41914e+00,-3.29672e-01,-4.06882e-01,-2.11313e-01,-2.33630e-01,
2.11408e-01,-1.06139e-02,5.69844e-01,-1.74015e-01,-1.84037e+00,-1.83000e-01,6.55318e-01,2.11074e-01,-2.25499e+00,4.75989e-01,-1.11875e+00,-6.43581e-01,3.88030e-01,-6.47567e-02,1.45748e+00,-2.07392e-01,-5.39146e-01,-3.09763e-01,1.12987e+00,-3.43065e-01,-1.15441e+01,2.63362e-01,-8.56429e-01,-3.21448e+00,1.01474e+00,
-3.45808e-01,1.44090e-01,-3.90359e-01,-1.39057e-01,-3.12559e-02,-4.68903e-02,-3.69181e-01,-3.89174e-01,-1.29971e+00,-8.59470e-02,-6.13278e+00,-3.07849e-01,-2.83603e-01,3.47149e-01,1.63659e+00,-3.30107e-01,-4.23547e-01,1.58129e-01,1.63157e-01,3.67215e-01,-6.02794e+00,-2.26190e-01,-7.14220e-02,2.00045e-01,2.08614e+00,
2.75355e-01,9.09644e-01,-7.83700e-02,3.17494e-01,-4.05723e-01,1.60536e-01,8.94293e-01,-1.30677e-01,-6.42866e-01,4.69440e-01,5.13959e-01,-8.05334e-03,3.83443e-01,5.11742e-01,4.54729e-01,-8.20537e-01,-7.66733e-01,7.02478e-03,2.43236e-01,-2.27915e-01,-3.52791e-01,-1.65626e-01,1.06869e+00,-8.62316e-01,-5.72975e-01,
4.40911e-02,-3.28072e-01,-3.07004e-01,-1.12630e-01,6.18173e-01,1.11705e+00,6.12792e-01,-1.13242e-01,9.11372e-01,-8.35501e-01,-3.17774e-02,9.28267e-01,-9.09582e-01,-8.48377e-01,8.94089e-01,2.73584e-01,5.50776e-01,-1.59686e+00,-3.93600e-01,-3.85684e-02,2.80435e-01,3.53258e-02,-9.47806e-02,-7.94244e-01,1.92689e-01,
5.38688e-02,2.20887e-01,1.12809e-01,-1.68751e-01,2.79115e-02,-4.80903e-01,4.19106e-01,4.22066e-01,-8.66296e-01,3.68904e-01,-3.56561e-01,4.65811e-01,-5.37458e-01,1.92854e-01,-1.35245e-01,5.12100e-01,-1.11065e+00,-9.07605e-01,4.75356e-01,6.49528e-01,6.21117e-01,2.05939e-02,7.41149e-01,-3.48437e-01,3.68387e-01,
1.49599e-01,-1.76873e-02,-6.02556e-01,-1.51795e-01,-1.44114e-01,-2.83219e-01,3.39974e-01,6.12523e-01,1.82376e-01,1.44189e-01,1.16854e-01,3.57547e-01,8.72620e-01,2.89362e-01,-1.00032e-01,-3.35846e-01,1.05375e-02,3.40481e-01,-8.32544e-01,1.10661e+00,9.41815e-01,-2.70590e-01,-4.82775e-01,1.24162e-01,-3.06189e-02,
-3.21864e-01,
2.18484e-01,
3.84134e-01,
1.78788e-01,
3.90339e-02,
-1.06580e+00,
5.78034e-01,
4.49004e-02,
-8.12955e-01,
-2.25534e-01,
2.22908e-01,
-2.64003e-01,
-2.60942e-01,
4.20312e-01,
-1.39685e+00,
-5.92737e-02,
-5.85210e-01,
3.36299e-02,
-4.52211e-01,
-1.84999e-01,
-3.65188e-01,
2.62462e-01,
1.30184e-01,
-2.92202e-01,
-5.14879e-01,
-8.47157e-02,-1.35424e-01,6.08693e-01,-4.89618e-01,8.52107e-01,-2.76817e-01,-6.77780e-02,2.04223e-01,-3.21294e-01,4.19023e-03,-2.20728e-01,6.31745e-01,8.57787e-02,-2.15346e-01,-1.95832e+00,-6.93788e-02,8.78631e-02,-1.68120e-01,9.64107e-04,5.75338e-02,1.15942e+00,5.22420e-01,1.31634e-01,-6.44344e-02,-5.82784e-01,
-5.97672e-01,5.67414e-01,1.57139e+00,-1.59535e+00,6.09613e-01,5.01476e-02,-2.65581e-01,-7.37428e-01,-8.58173e-01,-4.67589e-01,3.31918e-01,1.55101e-01,-1.04025e+00,1.28594e+00,2.31879e+00,-8.98163e-01,-8.51575e-01,-4.88146e-01,4.43160e-02,5.08856e-02,-8.71509e+00,3.83338e-01,5.59840e-01,9.19428e-01,2.21272e-01,
-3.62687e-01,-4.85062e-02,3.37441e-01,-1.28266e-01,5.58019e-01,-1.15231e-01,-3.37866e-01,-1.38468e-01,-1.69817e-01,8.72874e-01,5.42166e-01,-1.86650e-02,3.88777e-01,7.73021e-02,1.05757e+00,1.86512e-01,-4.75106e-02,-1.38533e-02,1.52231e-01,1.45162e+00,-1.34550e+00,1.34978e-02,-8.88882e-01,-5.84239e-01,-5.06330e-01,
-9.36231e-01,1.87748e-01,4.40124e-01,5.46761e-02,2.80863e-01,-6.00144e-01,-2.72784e-01,4.28880e-01,-4.15029e-01,-2.29220e-02,-8.67292e-01,7.36487e-01,1.71920e-01,-9.67486e-02,-1.23439e+00,1.63472e-01,2.75625e-01,-5.03008e-02,7.20663e-02,-9.52241e-01,1.62125e+00,-8.93529e-01,6.49101e-01,4.22554e-01,1.61779e-03,
3.26798e-02,-5.67879e-01,6.13867e-02,8.11317e-01,4.19314e-01,-1.20357e+00,7.82349e-01,-4.11216e-01,1.22210e-01,1.38359e+00,8.43173e-02,7.07801e-01,7.23656e-02,-1.10342e+00,-3.81580e-01,4.66219e-01,-1.13074e+00,4.47213e-01,2.06417e-01,2.32119e-01,-8.51757e-01,-1.25649e+00,5.91260e-02,4.52195e-01,-3.28903e-02,
1.49274e-01,7.53110e-01,1.79631e+00,8.10576e-02,4.78245e-01,3.05431e-02,-3.15033e-01,-1.67160e-01,2.58160e-01,-1.34773e-01,3.97368e-03,2.64166e-02,-1.29712e-01,-3.52831e-02,1.03944e+00,-1.79882e-01,1.50491e-01,-7.08998e-01,-1.64708e-01,2.20779e-01,-2.70820e-01,1.65950e-01,4.98121e-01,-3.92729e-01,-1.78439e-02,
1.93095e-01,-1.65665e-01,-3.99469e-01,-6.01546e-02,1.07111e-01,-3.36108e-02,-1.07864e-01,1.81193e-01,-1.53747e-01,8.00965e-02,3.16958e-01,3.57952e-02,-2.76641e-01,5.57153e-01,1.93979e+00,-1.33068e-01,4.13996e-01,1.72750e-01,2.16727e-01,2.72079e-01,2.45893e+00,1.16003e-01,-2.69116e-01,-2.89999e-02,-9.94113e-02,
3.80283e-02,-3.88388e-01,4.11831e-01,2.95166e-02,-5.53619e-01,6.99327e-01,2.01974e-01,-1.54406e-01,2.63167e-01,1.52285e-01,-6.15883e-01,-1.16832e-01,1.73097e-01,-4.65362e-01,2.03228e+00,-4.60169e-02,1.42492e-01,4.15121e-01,1.76144e-01,-6.27664e-01,1.17326e-01,5.85786e-02,3.22400e-01,-2.37584e-01,1.54651e-02,
-4.10326e-01,2.95842e-02,-3.80707e-01,-3.05480e-03,-3.49400e-01,-6.56177e-01,-2.64090e-01,-4.86840e-01,8.81409e-01,5.41243e-01,8.81899e-02,1.47575e-01,-5.17855e-01,-4.50325e-02,-9.86023e-01,-2.08815e-02,1.08159e+00,-8.24571e-02,-3.83594e-01,-9.87764e-01,-2.39266e-01,3.29294e-01,8.99340e-02,-2.70682e-01,9.31782e-02,
3.36725e-01,-1.52449e+00,7.53474e-01,1.71660e+00,-4.48409e-01,4.41717e-01,-6.12561e-01,-4.00455e-01,2.13234e+00,-2.03348e-02,-1.65484e-01,-3.89232e-01,2.39289e-01,-5.05331e-01,2.24221e+00,-5.39876e-03,1.04019e-03,-1.80218e-01,2.24336e-01,2.09123e+00,-1.23170e+00,2.35314e-02,-2.30856e-01,-1.20047e+00,-6.31899e-01,
-2.46744e-01,-4.64020e-02,6.42668e-02,2.50670e-01,2.77995e-02,3.02076e-02,-2.53136e-01,-3.10610e-01,-3.31939e-01,-3.00595e-01,5.15307e-02,-3.10789e-01,1.45459e-01,-1.79420e-01,1.75570e-01,-1.58701e-01,1.07539e-01,-2.91066e-01,-3.56739e-01,-2.57776e-02,-2.04434e-01,1.79361e-01,8.69058e-02,1.36635e-01,-2.54929e-01,
1.27030e-01,-5.31077e-02,-2.64352e-01,2.40619e-02,6.81316e-02,-9.39641e-02,1.72605e-02,2.69769e-01,2.11004e-01,-1.76347e-01,-5.82390e-02,1.19770e-01,8.13069e-02,-3.39780e-01,-1.35522e-01,4.37434e-03,-2.00325e-01,-1.47772e-01,-8.62078e-02,1.45096e-01,-2.74139e-02,-3.16419e-02,8.17833e-02,-6.21587e-02,-2.51484e-01,
1.21326e-01,4.49191e-01,2.94575e-02,-1.06533e+00,7.02714e-01,-3.30621e-01,3.02077e-01,-5.16152e-01,-4.34396e-01,4.34552e-01,-5.60715e-01,7.08023e-01,-1.37190e-01,3.11113e-02,1.35329e-01,1.81201e-01,2.95616e-01,-1.00720e-01,-7.36658e+00,-3.02551e-01,-8.67593e-01,-5.24382e-01,-6.78656e-02,3.38175e-01,-1.16715e-02,
4.83054e-02,-9.73028e-02,8.10500e-02,-2.36562e-01,-2.75542e-01,6.14001e-01,-6.01263e-02,4.64749e-01,8.68405e-02,5.56889e-01,4.32288e-01,-2.04451e-02,2.84743e-02,-6.52825e-01,-2.16247e+00,6.66236e-01,-7.64865e-02,2.47349e-01,-3.72430e-02,-5.15309e-01,-1.55413e-01,-3.59035e-03,2.05393e-02,-2.14976e-01,3.74981e-02,
-6.02841e-02,2.55311e-01,-1.87280e+00,-2.32932e-01,-5.51289e-01,3.20547e-01,-9.91873e+00,4.78928e-01,-4.40546e-01,-1.60713e-01,-9.47122e-02,-2.45612e-01,8.04504e-02,2.82877e-02,3.62500e-01,8.59032e-01,-6.18481e-01,3.38800e-01,4.66373e-01,5.69122e-01,2.35317e+00,-3.19311e-01,-1.95972e-01,-5.93335e-02,4.37606e-01,
3.01868e-01,-6.43833e-01,1.36808e+00,-7.47232e-01,2.87611e-01,1.04478e+00,-1.11318e-01,-2.38058e-01,1.97563e+00,-3.25576e-01,-5.95454e-01,4.03271e-01,3.09432e-01,1.95724e-01,6.36558e-01,-1.29808e-01,3.08347e-01,-2.95306e-01,9.34507e-01,-3.21843e-01,2.67901e+00,-7.23315e-01,4.01395e-02,3.86728e-01,-3.55243e-01,
5.87344e-01,-1.05883e-01,1.15000e+00,-9.99183e-01,2.28564e-02,3.01086e-02,3.77319e-01,-2.16369e-01,1.21804e-01,3.96704e-01,1.11586e-01,-4.10841e-01,1.85320e-01,4.39490e-01,-1.29049e+00,-4.01918e-02,-2.00598e-02,4.35335e-01,3.54718e-01,-1.04728e+00,-5.03132e-01,5.67086e-02,2.08084e-01,-4.99115e-02,-7.61878e-01,
-3.27553e-01,-6.35402e-02,-2.82100e-01,2.99257e-01,-1.01886e-01,-1.63171e-02,2.14907e-01,2.93697e-01,1.03523e-01,6.67558e-01,-2.66936e-01,-4.25641e-02,-4.50041e-02,-3.34006e-01,-2.51514e+00,1.35050e-01,6.05412e-02,2.84094e-01,1.10520e-01,7.20252e-02,4.22735e-01,-8.12787e-03,4.94122e-01,1.73902e-01,1.15894e-01,
-4.13843e-01,-1.06442e+01,3.30846e-02,4.55784e-01,-1.15003e+00,6.86389e-01,-9.99222e+00,-4.88858e-01,2.61091e+00,1.83261e-01,-7.63359e-01,8.14899e-01,2.79287e-01,-2.90990e-01,-1.11487e+00,5.10760e-01,1.06372e+00,-6.42897e-01,4.50019e-02,-5.48791e+00,4.60337e-01,-2.46198e-02,-1.11238e-01,3.41845e-02,1.12275e+00,
8.48504e-02,9.86650e-01,-9.86158e+00,4.64591e-01,2.11568e-01,-6.19019e-01,-9.81638e-02,-2.10479e+00,-1.41844e-01,1.05705e-02,-1.16267e+00,7.60802e-01,5.84354e-01,-5.83132e-01,-2.79115e+00,1.45683e-02,4.64337e-01,-7.44845e-01,6.52291e-01,8.14376e-01,5.01602e-01,-5.18278e-01,7.98251e-01,2.45623e-01,-9.77888e-01,
3.09298e-01,-3.89255e-01,2.81542e-01,-1.66147e-02,-7.36462e-02,1.28546e-01,-4.28292e-02,1.84207e-01,1.38123e-01,1.50938e-01,7.31726e-01,-4.19438e-01,-7.09957e-02,1.23297e-01,3.02775e-01,1.91359e-01,-5.98122e-01,8.73706e-01,-2.97776e-01,-2.20657e-01,-2.47716e-01,-7.52969e-02,3.08118e-01,-6.89124e-02,1.30673e-01,
2.69175e-01,1.34006e-01,-2.12649e+00,4.42224e-01,-8.60214e-01,1.79558e-01,-2.11540e-01,7.18085e-03,4.89090e-01,1.46574e-01,1.26203e+00,-3.41908e-01,-1.17279e+00,7.38145e-01,-1.01411e+00,-4.46040e-01,-7.50994e-01,1.22109e-01,-5.09395e-01,-4.46585e-01,4.22054e-02,-1.18356e-01,-9.12247e-01,3.71012e-01,9.28820e-01,
2.01039e-01,-1.88977e-01,-7.15533e-01,-4.19623e-01,2.06830e-01,-2.73114e-01,-1.68222e-01,-9.46508e-02,6.72405e-02,4.72822e-01,2.68563e-02,-4.92230e-01,-5.63728e-02,-2.53012e-03,7.80285e-01,-2.48317e-01,-1.74291e-02,-4.02440e-01,2.42586e-01,8.68691e-01,-3.90597e-01,1.83486e-01,1.51590e-01,-1.77426e-01,4.87238e-01,
-4.32334e-01,-7.52824e-01,-9.00812e-01,3.80726e-01,2.04339e-01,-1.07314e+00,-2.05240e-02,2.97742e-01,-3.72932e-02,-8.08774e-03,3.41438e-01,2.03365e-01,1.11621e-01,1.06470e+00,-2.91487e-01,4.41582e-01,1.86808e-01,7.84516e-02,3.83208e-01,3.87108e-02,8.12520e-02,-8.81948e-03,-5.35770e-01,-5.85791e-01,2.42048e-01,
-3.71085e-01,2.35236e-01,-1.00083e+00,1.80242e-01,4.62198e-01,-7.71973e+00,-3.45058e-01,5.07453e-01,-3.76281e-01,2.68067e-01,-1.48782e-01,2.45270e-01,2.93730e-01,-2.00420e-01,-2.38700e-01,3.69066e-01,-4.58421e-01,1.33144e-01,-2.32371e+01,9.28367e-02,5.87538e-01,-6.45375e-01,-5.07915e-01,3.65505e-01,2.44283e-02,
5.46959e-02,
-5.13906e-01,
-8.93494e-02,
6.90238e-01,
-8.71100e-01,
1.76206e-01,
-3.26069e-01,
5.61105e-01,
4.07112e-01,
-5.69870e-01,
-2.69163e-01,
-3.30651e-01,
-1.84815e-01,
2.43664e-01,
2.77967e-01,
-1.09385e+00,
1.35401e-01,
1.90262e-01,
-5.28132e-01,
3.80284e-01,
-2.25209e-01,
-4.12896e-01,
3.96312e-01,
-9.19370e-02,
2.14365e-01,
5.52738e-01,-2.75803e-02,-4.54231e-01,-2.25833e-01,-2.48743e-01,1.02611e+00,4.86061e-02,-7.88910e-01,5.05264e-01,3.81787e-01,1.69384e-01,-2.20720e-02,4.81869e-01,-2.52407e-02,9.97796e-01,2.14992e-01,-4.81269e-02,-1.74250e-01,-1.33754e+00,2.66762e-01,8.39866e-02,-1.24051e+00,-4.64899e-01,2.71562e-01,2.45933e-01,
-2.16586e-01,-3.11612e-01,1.31720e-01,-2.75939e-01,-1.68528e-02,-2.00076e-01,7.91922e-02,-6.62517e-02,-3.46417e-01,1.31662e-01,1.23619e-02,-9.91027e-02,6.26228e-02,-2.54404e-01,-2.57572e-01,1.88255e-01,-7.15986e-02,-1.57923e-01,-2.94725e-01,1.97087e-01,7.40303e-02,-1.43523e-01,-2.25067e-01,1.11506e-01,1.65186e-01,
1.91450e-01,-2.66801e-01,1.96642e-02,1.99596e-01,-2.07760e-01,5.45981e-01,-1.40003e-01,1.42055e-01,3.35824e-02,-4.09776e-01,-1.39997e-01,4.17368e-03,-7.73566e-01,-2.15038e-01,-1.65955e-02,-2.07293e-03,2.40916e-01,5.47259e-02,-3.12695e-01,1.44505e-01,-9.20553e-03,9.93177e-02,-2.00723e-01,3.84044e-01,6.90560e-01,
-4.41775e-01,-4.47011e-02,-2.64088e-01,1.58428e-01,-1.28804e-01,-1.12985e-02,2.20037e-01,-2.57334e-01,-1.02248e-01,2.63218e-01,-5.46186e-02,2.95870e-01,1.74500e-02,4.01559e-01,-6.47773e-01,8.37329e-02,3.68868e-01,-1.14856e-01,3.02959e-01,7.76013e-02,3.84202e-01,-6.15231e-01,5.86638e-02,3.27792e-01,2.54086e-01,
1.05039e-02,-4.03908e-01,2.17717e-01,-2.59965e-01,1.38117e-01,3.51001e-01,4.50757e-01,5.07463e-01,4.35325e-02,-7.57193e-01,5.73773e-02,-1.42745e-01,-3.32883e-01,-2.73322e-01,-4.75833e-01,2.09928e-01,3.96897e-02,6.13998e-03,-4.73075e-02,-6.26147e-02,8.34184e-02,-1.33996e-01,-2.46143e-01,-4.55732e-02,-1.69976e-01,
-2.31292e-03,6.67875e-03,4.72149e-01,5.19591e-01,-3.39890e-01,-8.25371e-02,-2.14397e-01,4.06126e-01,3.21067e-01,-5.40697e-01,1.28960e-01,-2.99672e-01,-3.58422e-01,-2.84431e-01,-2.57599e-01,9.39925e-02,2.01283e-01,-5.28681e-01,-4.93969e-02,1.36780e-01,1.23226e-01,-8.67060e-02,2.10413e-01,1.01825e-01,-6.23513e-01,
-3.20452e-01,4.85910e-01,-3.10431e-02,3.92171e-01,1.63727e-01,6.93781e-02,2.12012e-01,4.52873e-02,-2.73585e-02,-7.61142e-02,2.70374e-01,-5.61913e-02,-4.38233e-01,7.74467e-02,1.09260e-01,-3.20075e-01,-3.42599e-01,2.38482e-01,-3.23983e-01,5.89637e-01,2.49676e-02,-2.42859e-02,-1.04236e-01,-2.54430e-01,-4.86522e-01,
6.10570e-01,-1.52698e-01,-4.37465e-01,-7.46525e-01,-2.37785e-02,7.49137e-02,-2.44581e-01,1.91440e-01,-2.21823e-01,1.67243e-02,5.26944e-03,-2.84860e-01,2.99923e-01,-1.26780e-01,-5.86251e-01,1.97426e-01,-4.48567e-01,1.41450e-01,8.91876e-02,-6.33765e-02,-5.07836e-01,2.27699e-01,3.06290e-01,1.85288e-01,5.72806e-02,
2.20256e-01,1.79479e-02,4.22548e-02,-2.25617e-01,6.59938e-02,-1.86141e-01,-2.95445e-01,-2.56105e-01,-8.91346e-02,5.99294e-01,-1.45872e-01,-2.85766e-02,-2.44896e-01,-2.89407e-01,1.09062e+00,6.32878e-01,1.92754e-01,4.94916e-01,-3.39767e-01,7.25538e-01,-1.81872e-01,1.26702e-01,8.86282e-02,4.15175e-02,-3.26265e-01,
3.37377e-01,-3.82047e-01,-1.09922e+00,-5.67603e-01,8.34880e-01,-3.10134e-01,5.47849e-01,-5.51179e-01,4.29402e-01,2.67139e-01,-6.80605e-03,-2.34876e-01,-5.10883e-01,1.21543e-01,1.49427e-01,-1.28632e+00,-5.66402e-01,-1.26232e+00,-7.15869e+00,1.72778e-01,1.31988e-01,-1.81267e-01,9.77406e-01,-1.46317e-01,-1.14869e+00,
-1.15991e-01,1.17610e-01,-3.21768e-01,3.00460e-01,-1.23503e-01,-1.73772e-02,4.29777e-01,-8.40563e-01,-1.56333e-01,3.08185e-01,2.20541e-01,1.52940e-01,-5.80321e-01,1.20807e-01,6.40939e-01,-4.00715e-01,4.29016e-01,-2.87488e-02,-1.88814e-01,1.24206e-01,-1.51993e-01,-1.70923e-01,6.89003e-01,-2.12525e-01,-3.97469e-01,
-1.08946e-01,7.02844e-02,-4.59036e-01,-4.16808e-01,-3.64331e-02,3.85047e-01,-8.47364e-02,-2.99363e-01,8.24593e-02,5.72502e-01,1.26801e-01,2.17158e-01,6.50692e-01,2.34965e-01,3.58392e-01,2.63065e-01,6.69770e-02,3.32608e-02,-7.48221e-02,-2.12124e-01,1.78301e-03,-3.68823e-02,5.21586e-01,-3.67083e-02,5.58282e-01,
-1.08867e+00,2.72477e-01,4.24117e-01,5.26915e-01,-1.91304e-01,-4.90851e-01,7.58022e-02,-5.42449e-01,-6.08114e-01,5.06250e-01,2.16191e-02,7.77947e-02,3.08374e+00,3.05592e-01,1.02843e-01,-5.31558e-01,-1.46002e+00,1.89856e-01,-1.80506e-01,6.61416e-01,4.00501e-01,-2.66612e+00,4.94592e-01,-6.77543e-01,-3.16549e+00,
-1.91707e-01,3.90832e-01,-3.60828e-01,5.25556e-02,-1.45855e-01,3.96594e-01,7.74812e-01,-1.91873e-01,-3.18719e-01,-4.12061e-01,-1.56006e-01,3.30247e-01,7.85240e-01,2.95238e-01,5.30582e-02,-1.50270e-01,-4.04214e-01,-6.49227e-02,2.92648e-01,-1.85799e-01,-1.95648e-01,4.29181e-02,2.63043e-01,-1.56643e-01,-2.97944e-01,
-2.07695e-01,1.05203e-01,-3.06217e-01,5.47682e-01,1.89584e-01,3.09220e-01,5.63140e-01,2.33057e-01,-1.31317e-01,-3.35313e-01,3.82313e-01,4.02405e-02,1.59537e-01,2.83957e-01,3.28031e-01,-1.67436e-01,-1.37622e-01,3.32308e-02,-8.45176e-01,1.01380e-01,-8.72482e-02,-1.36911e-01,-4.80658e-02,-4.12239e-02,-8.89243e-02,
8.42065e-01,-1.68095e-01,1.83526e-01,-1.03144e+00,8.17476e-02,-7.50737e-01,-7.58736e-01,9.46796e-02,-3.63220e-01,1.12480e-01,-1.37982e-01,3.06246e-01,-4.85918e-02,-1.50957e+00,-7.24191e+00,-1.39308e-01,-8.94377e-01,4.49939e-01,3.30162e-01,3.88022e-01,-1.42463e+00,2.31937e+00,1.22031e+00,-1.16279e+00,-9.66684e-02,
1.08514e-01,-1.51301e-01,3.17756e-01,4.80476e-02,-3.72861e-01,4.35266e-02,5.07226e-01,-6.89332e-01,2.30000e-01,1.16422e+00,2.72810e-01,3.43825e-01,2.31867e-01,4.52940e-01,-9.79746e-01,-5.51152e-02,-2.46710e-01,-8.63653e-01,-2.02130e+01,-1.91077e-01,1.12067e-01,-6.41692e-01,-3.35917e-01,-3.56601e-01,-2.16589e-01,
-2.49571e-01,1.04484e-01,-9.69358e-02,7.00841e-02,7.00291e-02,-1.48176e-01,1.06015e-01,-2.46932e-02,9.56400e-02,3.57948e-01,-3.08946e-01,-1.03686e-01,1.96456e-01,3.80533e-01,1.23024e+00,-5.66413e-02,-1.05334e-01,1.52787e-02,-8.65537e-01,1.53855e-01,-2.51471e-02,-4.95367e-02,-1.33886e-01,-1.31649e-02,-3.12153e-01,
2.68174e-02,1.51731e-01,-2.97176e-01,1.64716e-01,2.75896e-01,4.98877e-01,7.14447e-01,6.62656e-02,-1.23305e-01,-1.48423e-01,1.58010e-01,-6.41585e-02,4.24128e-01,8.38592e-02,2.10255e-01,-2.37942e-02,-3.53092e-02,4.24070e-01,-9.48617e-01,1.30503e-01,-3.88309e-01,2.04914e-01,1.14948e-01,-1.22451e-01,-1.38813e-01,
-2.78841e-01,-8.45401e-02,-1.74848e-01,-3.33960e-01,-8.02534e-01,-2.11071e-01,-7.53523e-01,-6.50266e-01,-4.26939e-01,-1.49080e+00,1.86674e-01,3.19040e-02,5.96409e-01,-1.62641e-01,-3.01993e+00,-4.38058e+00,1.55983e-01,1.16009e+00,5.43096e-02,-1.23168e+01,3.40410e-02,2.74243e-01,-1.26344e+00,-4.05838e-02,-2.60743e-01,
-4.32920e-01,-3.50677e-01,-5.94308e-02,2.18982e-01,5.92634e-02,1.16456e-01,1.46631e-01,-1.78536e-02,-2.79483e-02,-5.45879e-02,-1.09046e-01,-2.70944e-03,1.37381e-02,5.61039e-01,2.92358e-02,2.24165e-01,3.77413e-01,-2.78548e-01,-2.69131e-01,1.12221e-01,5.47552e-01,-8.82079e-01,-2.18065e-01,5.07441e-01,2.92876e-02,
1.69147e-02,-8.22152e-01,3.90935e-01,-8.04751e-01,-7.88371e-01,4.29953e-02,-1.66509e-01,2.92671e-01,-8.00242e-01,5.57144e-02,2.60876e-01,-2.73195e-02,-6.21565e+00,-2.01998e-01,2.89725e-01,-4.24710e-01,-5.04770e-01,7.56116e-02,5.76638e-01,-3.30019e-01,1.28915e-01,2.54779e-01,4.22621e-01,-3.23038e-01,1.54275e+00,
3.79676e-01,-3.18275e-01,-5.62364e-01,-1.36233e-01,3.88027e-01,1.22433e-01,5.01113e-01,6.85585e-01,4.19591e-02,-1.03555e+00,7.72374e-02,-2.56609e-02,5.65687e-01,-1.10869e+00,-1.40769e+01,-2.48767e-01,-3.27444e-01,-7.77903e-01,-1.59932e-01,-3.57601e-01,-4.53436e-02,2.31769e-01,2.55793e-01,-6.10992e-01,5.89825e-01,
-2.19265e-01,3.41527e-01,-1.21820e-01,-7.56110e-02,-4.06515e-03,-1.89125e-01,5.52562e-02,-1.58263e-01,1.18648e-02,-2.20232e-01,-4.44565e-02,-5.23697e-02,6.38891e-01,1.90698e-02,1.77814e-01,2.53787e-01,-1.15062e-03,3.47773e-01,4.08170e-01,1.45453e-01,-8.36764e-02,2.54314e-01,-1.54656e-01,-2.89018e-01,-7.96681e-02,
2.62350e-01,-2.39869e-01,7.75719e-02,-1.07982e-01,4.26354e-02,-9.76056e-02,-2.23540e-01,2.76097e-01,-2.15258e-01,-1.70020e-01,-8.67172e-02,1.69078e-01,-5.44157e-02,-5.76723e-02,-1.48606e-01,-3.38061e-02,-1.41402e-02,-1.82645e-01,7.26616e-02,-3.40225e-01,-2.84481e-01,1.97124e-01,-1.27433e-01,-9.64222e-02,1.65281e-03,
-9.32503e-01,
-2.21382e-01,
-1.46728e-01,
1.87883e-01,
2.26605e-01,
5.97498e-02,
3.35861e-01,
3.82119e-01,
1.12458e-01,
1.63114e-01,
-7.39964e-02,
2.82818e-02,
3.17926e-01,
1.97121e-01,
-1.78289e-01,
6.68018e-01,
1.21084e-01,
2.91992e-01,
9.32256e-03,
-1.12523e-01,
-4.71872e-01,
-1.76237e-01,
-6.42160e-02,
3.62549e-01,
-1.01732e-01,
2.55044e-01,-8.63306e-02,-1.76571e-01,2.35674e-02,2.43478e-01,-5.26084e-01,-4.61347e-01,3.09641e-01,-8.57434e-01,4.54545e-01,1.22091e-01,9.18965e-02,-5.73036e-01,-1.54834e-01,3.12325e-01,6.91495e-02,-1.83612e-02,-6.39468e-01,-5.28845e-02,1.71600e-01,4.15363e-02,4.30227e-01,-1.73357e+00,2.05903e-01,3.20071e-01,
-1.20774e-01,-1.08678e-02,1.66809e-01,-3.50229e-01,1.33513e-01,-7.61300e-02,-1.13545e-01,1.37726e-01,7.56676e-02,1.29613e-01,1.09228e-01,7.93657e-02,2.45910e-01,1.19006e-01,-8.69095e-02,5.13257e-03,1.49400e-01,-1.53667e-01,-4.32383e-02,2.36000e+00,1.67146e-01,-5.75682e-01,3.00273e+00,1.88286e-02,-1.09363e-01,
-5.64699e-03,2.68743e-01,-9.46554e-02,-4.93641e-01,-6.26819e-01,2.10849e-02,-1.20306e-01,-1.83313e-01,1.13559e-01,2.13222e-03,2.23552e-01,1.95841e-01,-9.11295e-02,1.17388e-03,8.67315e-02,4.75937e-01,2.58370e-02,-2.18444e-01,-1.11239e-01,1.92149e-01,3.69285e-01,-1.62146e-01,1.25486e+00,3.96829e-03,-1.93752e-01,
6.53099e-02,2.08169e-01,-1.17861e-01,1.98768e-01,2.01781e-01,-3.80728e-01,1.86021e-02,-3.48749e-02,-5.08636e-02,-4.19239e-01,-5.46938e-01,1.59291e-01,-5.83216e-02,-3.52720e-01,1.80220e-01,-4.85346e-02,5.57671e-02,-1.30931e-01,1.63638e-01,2.73824e-02,-4.77391e-03,-5.74161e-01,-4.40095e-01,-3.53280e-01,-8.32616e-02,
4.97138e-01,1.49238e-01,-1.22753e+00,3.86247e-01,8.40842e-01,-3.28886e+00,5.32959e-01,-9.25512e-01,-2.46143e-01,-2.19805e-01,-1.75757e-01,-5.62697e-01,-6.09922e+00,-8.50836e-01,8.90882e-01,2.26786e+00,5.13324e-01,-1.96923e+00,1.12237e-01,-1.97008e+00,-4.99767e-01,-7.77927e+00,-8.76077e-02,8.05986e-01,-8.62102e-02,
-5.22395e-01,5.56433e-02,1.17803e-01,1.65871e-01,6.61886e-02,2.34631e-01,-1.80801e-01,-2.56990e-02,5.88380e-01,-2.68130e-01,-1.25368e-01,3.18186e-01,-7.46471e-01,-3.29122e-01,5.86501e-01,6.99566e-02,2.94452e-01,9.08928e-02,-2.80734e-01,-2.42402e-01,5.78793e-03,-1.25097e+00,5.82060e-01,1.90139e-01,1.51591e-01,
-4.49510e-01,-1.48418e-01,2.62325e-01,-6.95495e-02,-6.05564e-02,2.12073e-01,-2.86642e-01,1.49567e-01,4.96990e-01,-7.45443e-02,-8.33372e-02,2.86645e-01,-5.45754e-01,-1.55108e-01,2.19908e-01,-3.51516e-02,2.99391e-01,2.32917e-01,-8.72270e-02,-4.85601e-02,1.44535e-01,-5.48550e-02,-1.53306e-01,1.98683e-01,6.88751e-02,
-5.07439e-03,1.20800e-01,2.47296e-01,-3.44716e-01,-1.65224e-01,1.02209e-01,-3.44320e-02,9.07343e-02,-1.66075e-01,-3.45403e-02,1.70081e-01,8.21054e-03,3.76204e-01,2.73101e-01,-4.85514e-01,3.08242e-01,-4.13388e-02,1.03861e-01,2.29921e-01,4.00359e-01,1.71093e-01,6.36230e-01,-3.30797e+00,-2.67080e-02,-3.45969e-01,
-2.05449e-01,2.99302e-01,-1.41198e-01,1.53257e-01,-8.18281e-02,-1.79675e-01,-1.92869e-01,1.22715e-01,6.04348e-02,-3.17166e-01,-3.46049e-01,2.22390e-01,1.69117e-01,-1.57981e-01,-5.99715e-03,2.91578e-01,-1.54946e-01,-4.54368e-02,-1.52303e-01,-3.42976e-02,-1.57802e-01,2.03204e-01,2.37810e-01,7.61242e-02,-1.73065e-01,
-4.31309e-01,2.05073e-01,1.12718e-01,-2.99830e-01,-1.34625e-02,-5.97365e-02,-8.55338e-01,7.07418e-02,2.29285e-02,-2.87934e-01,1.29560e-01,1.45551e-01,-7.45070e-03,1.92060e-01,-2.82024e-01,2.78253e-01,2.65846e-02,-9.74468e-02,4.67928e-01,5.31254e-01,1.51563e-01,7.83328e-01,-2.91995e-02,-5.48353e-02,-2.78774e-01,
-2.86687e-01,3.21073e-02,-2.23349e-01,-4.81317e-02,-2.34687e-01,-3.80361e-01,1.46710e-01,-3.22320e-01,-4.58887e-01,4.40043e-03,-2.90232e-01,-4.44112e-02,2.42389e-01,-6.91754e-02,-1.93177e-01,-2.67801e-01,1.63224e-01,3.02464e-02,-1.58080e-01,-3.22029e-01,-3.97241e-01,-2.44808e-01,2.45789e-01,-1.31145e-01,3.13638e-01,
7.92304e-02,2.36590e-01,-1.27611e-01,5.85142e-02,-1.08844e-01,6.05334e-02,-6.78366e-02,2.74837e-01,-4.87576e-02,3.08784e-01,2.92701e-02,-6.50194e-03,-4.24270e-02,9.34086e-03,1.52332e-01,1.22730e-01,-2.31349e-02,1.47967e-01,-1.35957e-01,6.27042e-01,-3.39869e-01,2.47376e-01,-1.66877e-01,1.43183e-01,-7.57899e-02,
-2.11621e-01,1.64579e-01,-5.84520e-01,-7.24680e-01,5.34662e-01,-4.64243e-01,-7.18272e-01,3.48716e-01,-4.40995e-02,-3.50283e-01,2.27164e-01,-2.79461e-01,7.91624e-01,5.12084e-01,-3.63427e-01,1.01954e-01,-2.29270e-01,5.21857e-01,-4.98170e-01,-3.70392e-01,-1.07790e-01,4.11255e-01,2.20998e+00,-2.41636e-01,-1.80711e-01,
-7.90311e-02,1.49082e-01,-2.42415e-01,-7.95201e-01,1.59879e-01,-1.35515e-01,1.76593e-01,2.48160e-01,7.79276e-02,-3.46046e-02,1.90388e-01,1.50995e-01,1.94748e-01,-7.61301e-02,1.33637e-01,1.04439e+00,-3.10149e-01,-3.66285e-01,-1.52806e-01,-1.65994e-01,4.59792e-01,1.59002e-01,8.67387e-01,-5.10668e-02,3.04725e-01,
4.19104e-02,1.30703e-02,1.27804e-01,1.55312e-01,-1.47559e-01,-1.00755e-01,2.29712e-01,2.76134e-01,-5.97869e-02,1.66545e-01,-3.56075e-01,6.43312e-02,1.52372e-01,2.31714e-01,-6.37521e-01,4.05815e-01,7.78529e-03,6.95567e-02,3.72147e-01,-4.44666e-02,-1.04559e-01,2.46506e-01,1.09506e+00,-1.18901e-01,-3.23652e-01,
7.73204e-01,-6.84284e-02,-1.59169e+00,-1.59933e-01,8.96227e-01,-4.61021e+00,1.49550e+00,-1.55081e+00,-4.92565e-01,-4.02346e-01,-2.07771e-01,-7.89989e-01,1.67837e+00,-8.82335e-01,-4.77982e-02,-1.42939e-02,6.31581e-01,-2.27376e+00,4.72613e-01,2.79560e+00,1.04489e-01,3.56320e+00,1.50943e+00,7.55281e-01,-9.91647e-02,
4.57095e-01,1.41809e-01,-3.77594e-01,5.71385e-01,4.57968e-01,-3.45716e-01,-1.72920e-01,-7.66502e-02,-9.11522e-01,5.05534e-01,4.51348e-01,3.22990e-04,4.24255e-02,-4.09048e-01,5.57736e-01,6.70619e-01,-1.72901e-02,-3.96058e-01,-2.78331e-01,3.71117e-01,-4.82456e-01,1.34169e-01,-1.59771e+00,5.55771e-02,-1.05631e-01,
2.22394e-01,2.65404e-01,-5.59811e-01,5.90035e-03,-2.45306e-01,-8.30408e-01,-1.32644e-01,3.99694e-01,-2.94005e-01,-9.46580e-02,2.12222e-01,-1.77714e-01,1.69640e-01,-1.77390e-01,4.00838e-02,5.45951e-01,2.48328e-01,-3.50837e-03,-3.37618e-01,-3.22499e-01,4.00208e-02,8.05156e-01,5.98424e-01,-2.75081e-01,-2.91109e-01,
-6.58685e-02,1.63914e-01,-1.67017e-01,-4.19453e-01,-2.03338e-01,-1.30976e-01,4.85061e-02,4.46228e-01,1.28960e-01,6.48375e-03,-6.76260e-02,5.87349e-02,8.44976e-02,2.26301e-01,-9.07493e-02,-1.43804e+00,-2.50371e-01,-4.55813e-01,8.28942e-02,1.45569e-02,2.71313e-01,7.45495e-01,-6.89955e-01,-2.93516e-01,3.55187e-02,
1.80747e-02,2.31101e-01,3.85138e-02,2.63437e-01,1.28896e-01,5.36769e-02,1.45790e-01,1.18750e-03,-1.34849e-01,-1.10755e-01,-1.34147e-01,3.93771e-02,-7.21892e-02,-6.29790e-02,-2.34676e-02,2.49320e-01,1.62434e-01,9.07407e-02,4.55799e-02,1.61639e+00,-2.58090e-01,-6.22133e-01,-2.38808e-01,-7.57571e-02,9.66890e-02,
-9.36254e-02,-2.55806e-01,3.88389e-01,-4.00309e-01,-7.24443e-01,3.10342e-02,-8.64740e-02,-1.08181e-01,-9.20161e-02,7.46949e-01,8.36562e-02,4.40929e-01,9.63374e-02,-1.41670e-01,-1.54831e-02,-3.75666e+00,-5.75939e-01,3.08362e-01,-2.27886e-01,-1.24784e-01,5.55136e-02,4.40684e-01,1.82223e+00,4.35746e-02,4.81502e-02,
-2.70238e-01,-1.72575e-02,8.29905e-02,-3.19900e-01,1.47482e-01,-3.63868e-01,6.28720e-02,2.26895e-01,9.24654e-02,-4.60870e-01,-3.57500e-01,8.69583e-02,2.11226e-01,7.24132e-02,-3.46826e-02,7.05493e-02,-5.63930e-02,-8.57950e-02,1.24717e-02,5.88195e-01,2.36576e-01,-4.48072e-02,-6.45379e-01,-2.84838e-01,-9.58594e-02,
-3.27296e-01,-6.41621e-02,-2.10304e-01,-2.48105e-01,1.47931e-01,-7.00950e-02,-8.22760e-02,1.47501e-01,-7.71973e-02,2.66427e-01,-3.19984e-01,-3.20530e-01,-7.06009e-02,1.88032e-01,-8.60653e-02,-2.84038e-01,-2.20972e-01,-2.69985e-02,-1.92295e-02,3.46002e-01,-2.91529e-01,-2.94223e-02,-2.92021e-01,-1.96272e-01,-1.42396e-01,
2.50830e-01,-3.73492e-03,-7.48627e-02,-2.68913e-01,-2.20050e-01,2.50669e-02,-3.01964e-01,-1.66120e-01,-1.78524e-02,3.13330e-01,2.09963e-01,-2.63546e-01,2.08064e-01,-3.78121e-01,2.95562e-01,-5.11428e-02,-1.94856e-01,-6.23143e-02,-3.25687e-01,2.13407e-02,-3.32376e-02,7.54177e-02,3.26945e-01,2.42449e-01,-6.64107e-02,
-7.19291e-02,-2.60181e-01,1.03027e-02,-1.94914e-01,2.16197e-02,1.30662e-01,-1.09170e-01,3.41308e-01,-2.24444e-01,-1.43290e-01,3.30991e-01,-7.41648e-01,-1.32689e-01,1.35432e-01,-1.36972e+00,-2.55835e-02,-1.24125e-01,4.03566e-01,1.07889e+00,2.94878e-01,2.62424e-01,4.84886e-01,1.39888e+00,-3.68407e-01,7.55743e-02,
4.18455e-01,
2.41121e-01,
4.95557e-01,
1.70189e-01,
-4.74134e-01,
-2.88959e-01,
-7.82180e-02,
1.65135e-01,
-3.70496e-01,
1.21218e-01,
1.02851e-01,
-4.16045e-01,
4.43044e-01,
4.37441e-01,
6.37570e-02,
-3.44718e-01,
-4.56537e-02,
-5.78898e-01,
5.75976e-01,
-7.22228e-02,
-7.70221e-02,
4.36468e-01,
-2.73100e-01,
-2.44916e-01,
-1.66091e-01,
7.29542e-03,-3.39320e-02,-3.25709e-02,3.43683e-02,-2.08923e-01,-9.47563e-02,1.10280e-01,-1.67350e-02,1.11004e-01,5.45724e-02,-3.72532e-01,-8.68827e-01,9.94735e-03,-2.14827e-01,-4.48824e-02,2.10376e-01,-2.47979e-02,2.90719e+00,-1.19804e-01,5.49261e-02,-2.52501e-02,-3.93355e-02,-7.62319e-02,4.05913e-01,-1.18083e-02,
-9.34921e-02,-1.49428e-01,5.66766e-02,2.89736e-02,-3.06465e-01,2.51518e-02,-4.12582e-02,-9.57758e-03,6.00394e-02,-8.02326e-02,-3.66801e-02,1.80580e+00,4.42401e-02,-1.24914e-01,5.02342e-02,2.33019e-01,7.18779e-02,2.32663e+00,-2.49696e-02,2.71654e-03,-9.10427e-03,-6.97740e-02,-3.05628e-01,-3.40821e-01,-4.11834e-02,
6.80561e-02,1.82801e-03,-3.73418e-02,-5.99372e-03,-1.47428e-02,1.14257e-01,-1.73393e-01,-4.55345e-02,5.05198e-02,-3.34485e-02,1.36044e-02,7.25786e-01,4.82999e-03,-1.54087e-01,1.57751e-02,-1.20369e-01,-5.63759e-02,-4.17920e+00,-7.58681e-02,4.57679e-02,1.40646e-01,-5.91945e-02,-3.02195e-01,-1.75107e-01,1.74902e-02,
-4.91785e-02,-8.96337e-02,-2.96137e-02,-3.78576e-02,-2.66099e-01,-2.91399e-02,3.01414e-02,-3.23550e-02,-1.66504e-01,-1.06689e-01,4.10932e-01,1.42428e+00,5.36808e-03,-1.12890e-01,-9.16202e-04,1.82971e-01,3.49831e-02,2.72227e+00,-6.68603e-02,4.64958e-02,1.69913e-02,-1.80177e-02,4.06257e-01,-7.62006e-02,-2.99683e-02,
4.20817e-02,-5.17785e-02,-2.48346e-02,-1.34696e-02,-3.04158e-01,1.20185e-02,-4.10736e-02,-7.41426e-02,-2.29977e-01,-5.56032e-02,-2.31528e-01,1.43154e+00,-1.60837e-03,-1.04449e-01,-3.43945e-02,1.95749e-01,-4.35821e-02,2.64926e+00,-5.46540e-02,9.62125e-02,6.76486e-02,-1.55063e-02,3.11002e-01,-1.08622e-01,-7.74917e-02,
-1.20147e-01,-3.73607e-02,-6.67424e-02,-5.53291e-02,-2.68828e-01,-3.68004e-02,4.74475e-02,-3.19743e-02,-1.18313e-01,-1.99217e-01,3.61754e-01,1.04904e+00,-7.64878e-02,-7.95242e-02,4.35321e-02,1.63020e-01,9.35394e-02,2.04881e+00,-7.84380e-02,4.90282e-02,3.66690e-02,3.40173e-02,-3.91733e-01,2.10464e-01,-1.15165e-02,
6.64905e-02,-3.89775e-02,1.25726e-02,-5.09698e-02,-3.49499e-01,8.05855e-03,-4.58101e-02,-1.30498e-01,-1.47598e-01,-5.72873e-02,2.58280e-01,1.18345e+00,1.05552e-01,-3.70276e-02,-7.68988e-02,2.54535e-01,-7.82144e-02,2.44806e+00,-2.51431e-02,6.07987e-02,5.68101e-02,2.68786e-02,3.29653e-01,2.21218e-01,-2.49333e-01,
-5.10117e-02,-8.21692e-02,-2.42166e-02,-3.67259e-02,-2.58517e-01,-3.63224e-02,3.71934e-02,-3.17761e-02,-2.69184e-01,-1.12467e-01,-1.45433e-01,1.26189e+00,-4.42544e-04,-1.22437e-01,1.25484e-03,1.70871e-01,3.56318e-02,2.69716e+00,-7.27343e-02,4.99952e-02,6.96475e-03,-9.97937e-03,-3.41973e-01,2.99408e-01,-1.96941e-02,
4.66266e-02,-5.19163e-02,-2.07467e-02,-3.10412e-02,-2.92037e-01,9.50303e-03,-3.05002e-02,-7.30820e-02,1.92218e-01,-4.50495e-02,-2.83000e-01,1.40548e+00,3.15810e-02,-1.21513e-01,-4.55536e-02,1.94607e-01,-4.67083e-02,2.50214e+00,-6.44141e-02,8.99249e-02,5.42521e-02,-1.45534e-03,-4.00048e-01,-3.78395e-01,-8.69207e-02,
1.41830e-01,
1.51524e-01,
1.68138e-01,
-1.86626e-01,
-1.82465e-01,
1.34312e-01,
1.61344e-01,
-1.89090e-01,
-1.82803e-01,
