// Neural Network File Format by Kyle Julian, Stanford 2016
6,4,9,25,
4,25,25,25,25,25,9,
0,
-8000.000000,-100.000000,-100.000000,0.000000
8000.000000,100.000000,100.000000,40.000000
0.000000,0.000000,0.000000,20.000000,-4.683445
16000.000000,200.000000,200.000000,40.000000,30.305804
2.49969e-01,2.22125e+00,1.30810e-01,-2.36327e-02,
1.03079e+00,4.30476e-01,3.13214e-01,1.33551e-02,
3.99749e-01,1.64642e-01,1.80838e-01,3.16623e-01,
-9.09590e-01,6.07116e-01,-5.23077e-01,-6.65651e-02,
2.64198e+00,-6.24321e-01,7.69098e-01,-1.53632e-02,
-9.73389e-01,-6.56228e-01,-3.94117e-01,2.24333e-01,
-1.59040e+00,-2.50714e-01,4.15209e-01,-7.50617e-01,
-4.64015e+00,1.67747e-01,1.19462e-01,5.74503e-04,
3.53177e+00,6.32389e-02,-1.78451e-01,-4.40068e-01,
2.49618e+00,1.27614e-01,-1.40764e-01,-9.85933e-01,
-3.39569e-01,-3.30951e-01,9.12970e-03,3.15339e-01,
1.33000e+00,-2.44464e-02,4.88649e-01,-4.25007e-01,
-4.10263e+00,1.38755e-01,-1.11224e-01,-6.70362e-02,
1.00199e-01,-2.32146e-01,3.82675e-01,-2.76006e-01,
-1.75940e+00,2.07210e+00,1.42276e-01,1.18981e-01,
-6.19103e-01,-1.95612e+00,-1.29298e-01,6.68160e-02,
-2.11647e+00,5.46868e-02,3.50710e-01,4.49354e-01,
-1.05262e+00,1.40167e-02,-4.18587e-03,6.99704e-01,
1.67170e-01,7.73471e-01,1.22140e-01,-5.78139e-02,
-2.66898e+00,-1.17346e-01,2.96099e-01,-5.45266e-01,
-2.02206e+00,1.36572e-01,-5.18558e-01,-1.45139e-01,
3.73321e-01,1.58358e-01,-2.07911e-01,6.40515e-01,
-9.87764e-01,5.66721e-01,-5.02080e-01,-3.90765e-02,
6.68317e-01,-6.92021e-01,1.18008e-01,-4.87792e-02,
-5.47048e+00,-8.52237e-02,-4.46310e-02,-1.90007e-02,
-1.01364e+00,
3.25651e-01,
1.96525e-01,
2.12911e-01,
2.39041e-01,
5.74170e-02,
-2.56778e-01,
2.23896e-01,
-9.96827e-02,
-3.71345e-01,
1.64199e-01,
1.84838e-01,
2.66403e-01,
1.91885e-01,
-1.00462e+00,
-9.05966e-01,
-5.13488e-02,
3.20435e-01,
1.77682e-01,
-5.69635e-02,
1.10037e-02,
2.89513e-01,
4.83980e-02,
2.44177e-01,
5.43267e-02,
-9.55199e-01,-1.19222e+00,4.89500e-01,-1.90465e-01,8.87713e-01,-6.11580e-01,-9.15719e-01,2.00746e-01,5.95837e-01,2.77178e-01,7.30768e-02,4.25887e-01,-1.17951e+00,4.39679e-01,-1.20528e+00,4.40357e+00,9.64209e-01,6.88081e-01,3.47959e-01,-8.21228e-01,-6.20407e-01,-1.33712e+00,-5.04160e-01,-5.90417e-01,-7.65400e-02,
3.10220e+00,6.68696e-02,-5.72801e-01,4.24335e-01,-2.15556e-01,-1.45413e-01,2.06368e-01,-5.40299e-01,5.01455e-02,2.70952e-01,2.60713e-01,-1.32705e-01,9.99893e-01,4.65954e-01,3.53835e+00,5.58345e+00,1.40230e-01,4.06994e-01,-9.58451e-03,1.39045e-01,5.24247e-01,3.78279e-02,-1.44193e+00,-5.55645e-01,-3.29725e-01,
1.09745e+00,-1.92847e-01,4.26331e-01,-1.07359e-01,-1.23736e-01,2.00023e-01,-2.65837e-01,5.09079e-01,1.53596e-02,-1.03791e-01,1.45312e-01,5.18427e-01,3.86948e-01,-1.95810e-02,2.15891e+00,-3.08591e+00,5.70710e-01,3.97033e-01,1.88743e-01,-1.61782e-01,4.21306e-01,-4.56525e-01,-7.79067e-02,2.72592e-01,4.89538e-01,
6.79308e+00,-4.88588e-01,-7.22068e-02,5.02302e-01,-5.79660e-02,-2.06786e+00,-1.53394e+00,-7.66832e-01,1.24202e-01,8.36105e-03,6.80685e-01,2.20630e-02,-3.27778e-02,1.26582e-01,3.33741e+00,5.45266e-02,-4.65574e-01,4.42956e-01,1.65068e-01,1.33223e+00,9.37203e-03,1.66106e-01,6.26083e-01,-1.34361e-01,-4.90895e-01,
4.37760e-01,-4.69349e-01,-3.46156e-01,6.52463e-01,-1.17698e+00,6.68084e-02,5.60823e-01,1.28594e-01,-2.49982e-01,-4.66838e-01,1.79451e-01,8.45416e-01,6.26861e-01,7.29411e-01,3.52172e-01,-2.48951e+00,2.43623e-01,7.89661e-02,-5.12712e-01,-9.39597e-02,2.04390e-01,7.50531e-01,-3.99041e-01,-4.16024e-01,-8.98809e-01,
3.84119e-01,4.72889e-01,-6.67843e-01,-5.12484e-01,-7.55843e-02,2.50480e-01,-1.25425e-01,-3.97934e+00,-4.47421e-01,3.67957e-02,-1.61995e-01,3.64311e-01,-5.74009e-01,-2.88660e-01,-5.39610e+00,-6.90411e-01,2.92189e-01,-8.71023e-02,1.31881e+00,2.30026e-01,4.89217e-01,4.16111e-01,-2.27416e-01,2.04416e-01,3.62111e+00,
-1.58082e-01,2.18405e-01,-1.41777e-01,4.28155e-01,-7.02048e-01,5.26738e-01,3.18443e-01,1.56883e-02,-6.46778e-01,-4.50794e-01,-6.29562e-01,6.72701e-01,4.40579e-01,5.68504e-02,-1.57363e+00,4.86342e-02,-4.70774e-01,-1.05409e+00,-1.13757e+00,7.37238e-01,2.00477e-01,1.18836e+00,5.28210e-01,-4.33666e-02,6.94978e-01,
-1.85275e-01,-7.47915e-01,7.46333e-02,-1.31332e+00,3.40970e-01,-3.80661e-01,-9.09277e-02,-1.01013e+00,-4.10614e-01,1.16362e-01,-4.02880e-01,2.08794e-01,7.78991e-01,1.14072e+00,1.73766e+00,-1.38949e+00,-3.30037e-01,2.01431e-01,7.12929e-01,-3.74604e-01,-7.70392e-02,2.08032e-01,-2.46376e-01,-4.98480e-01,-5.72773e-01,
2.89012e-01,6.32750e-01,3.98362e-01,3.19283e-01,-3.52874e-01,2.20275e-01,-1.55064e-01,-1.09790e+00,-4.14165e-01,1.99668e-01,-6.69967e-01,3.46100e-01,1.07478e+00,3.49487e-01,5.05835e-01,-4.17882e-01,9.88410e-02,-9.84933e-02,-5.62241e-01,7.19192e-02,2.40827e-01,5.24294e-01,-3.25098e-01,-7.07976e-01,3.37249e-01,
2.06758e+00,1.05459e+00,-3.35069e-01,1.05126e-02,-9.84430e-03,3.46589e-01,-3.88464e-01,-5.03258e-01,-1.08590e-01,-1.06520e-01,2.51693e-01,3.18832e-01,-4.48471e-01,-3.32081e-01,4.63065e-01,1.27246e-01,5.56163e-01,1.61138e-01,-7.50888e-01,4.30016e-01,6.35628e-01,-3.39666e-01,6.13744e-01,8.24706e-01,-6.65334e-02,
4.39379e-02,-9.04721e-03,1.44105e-01,-3.14632e-01,-1.38153e-01,-5.75265e-02,-2.46039e-01,6.90158e-02,-4.42325e-02,-2.05092e-01,-3.01770e-01,-7.92740e-02,-9.81042e-02,1.17352e-01,-2.92853e-01,2.37404e-01,-4.34826e-02,-1.41223e-01,-7.62770e-02,2.06729e-01,-2.11974e-01,2.94785e-01,1.62065e-01,1.54035e-01,-2.14454e-01,
2.99205e-01,-8.51371e-02,-8.15582e-02,-1.71563e-01,-1.27920e-01,-4.44973e-02,-8.70689e-02,-1.51160e-01,-1.04594e-01,2.09807e-01,-1.91122e-01,-7.57214e-03,-1.61862e-01,1.60131e-01,1.48446e-01,-2.22343e-01,2.06838e-01,-2.35695e-01,-7.36755e-02,-3.27241e-01,-1.02196e-02,3.06710e-01,2.27468e-01,-2.48041e-01,-2.00756e-01,
3.94641e+00,1.28790e+00,-3.70871e-01,4.72823e-01,-1.03869e+00,2.68617e-01,4.87310e-01,-2.11693e-02,-8.30401e-01,1.73938e-01,7.19539e-01,-4.56077e-01,7.79916e-01,-4.78735e-01,6.78520e-01,-5.77604e-01,-7.83656e-01,-1.20209e+00,-1.38736e+00,5.36904e-01,-1.49375e-01,1.17944e+00,7.24044e-01,5.30710e-01,1.18711e-02,
1.79194e+00,-4.48882e-01,2.73968e-01,-2.35227e-01,4.43821e-01,4.68020e-01,-3.27091e-01,-3.78517e-02,-2.61785e-01,3.61519e-01,-1.49242e-01,4.22124e-01,-5.73565e-01,7.87947e-01,2.68431e-01,3.39782e+00,7.25141e-01,-4.35719e-01,-3.37730e+00,-1.45963e-01,-3.91220e-03,2.03090e-01,-5.04740e-02,7.89247e-01,4.07295e-01,
-1.32627e+00,2.65477e-01,-2.96279e-03,7.53978e-01,-4.40239e-01,7.90771e-01,-3.83104e-01,9.54141e-02,-5.19403e-01,-5.48080e-01,6.77648e-01,3.63143e-01,8.62831e-01,-1.11589e+00,3.68914e+00,-1.26126e+00,6.04217e-01,-1.13179e+00,-3.85159e-01,9.82006e-01,-3.54526e-01,-4.85516e-01,7.10405e-01,-3.68551e-01,-1.14188e-01,
-1.11100e+00,2.53235e-01,-2.37964e-01,2.25100e-01,-1.19476e-01,4.10352e-01,1.18274e-02,-2.30418e-01,2.81245e-01,-5.08350e-01,-2.56579e-01,1.51932e-01,-1.14770e+00,9.76102e-02,2.62804e+00,-2.99340e-01,8.84968e-02,9.34428e-02,-1.13766e-01,-5.68391e-02,-1.54781e-01,-1.02744e-01,1.36832e-01,-1.23109e-01,-9.70749e-01,
-2.70549e-01,4.20724e-01,2.67467e-01,5.75886e-01,-8.51334e-01,3.97705e-01,7.74770e-01,6.61474e-01,-8.51532e-01,-1.42414e+00,-9.09279e-01,-1.87383e-01,-3.80686e-01,1.66897e-01,2.25215e-01,-7.56776e-01,-4.07507e-01,-6.01512e-02,-5.30479e-01,8.64265e-01,2.41079e-01,1.01408e+00,7.67674e-01,3.53601e-01,8.98035e-01,
-1.81949e+00,9.78334e-01,3.56607e-02,-9.09752e-02,-6.15934e-01,1.03861e-01,5.36898e-01,3.90878e-01,-3.24826e-01,-5.34232e-01,-1.48383e-01,-5.39104e-01,4.30056e-01,-2.29289e-02,8.94779e-01,1.48756e+00,-6.91290e-01,-4.93274e-01,-6.52729e-01,3.12601e-01,2.42193e-02,6.23594e-01,9.63812e-01,9.27871e-01,2.66650e-01,
7.14995e-01,3.93413e-01,3.27856e-01,9.24839e-02,1.11805e-01,3.33864e-02,1.16189e-01,-6.20766e-01,4.63401e-02,-4.48334e-03,-1.11418e+00,-3.59474e-01,1.62930e-01,1.25309e-01,-1.66888e+00,-9.55881e-01,4.89768e-02,1.51111e-01,3.85142e-01,1.46831e-01,-6.02049e-01,1.29298e-01,5.44218e-01,-1.19614e+00,4.11742e-01,
5.04662e+00,4.67617e-01,4.35878e-01,3.72566e-01,-7.58460e-01,-4.37440e-01,-5.46920e-01,2.00301e-01,1.16570e-01,-2.71416e-02,2.02004e-01,-1.78794e+00,-3.09906e-01,2.59192e-01,-9.08772e-01,-1.90218e+01,-6.84963e-01,-1.04754e+00,-5.16675e-01,3.06179e-01,-1.04202e+00,6.15977e-01,3.25536e-01,6.53688e-01,-2.68985e-01,
-7.52709e-02,2.23782e-02,-3.00097e-01,-5.91691e-02,8.71969e-01,5.34768e-02,-4.38094e-01,3.69396e-01,1.00817e+00,3.33006e-01,6.50239e-02,-5.59501e-01,-9.29967e-01,1.98364e-01,-3.95223e+00,-4.02330e-02,9.55773e-01,7.59079e-01,1.06092e-01,-5.10158e-01,-3.85267e-01,-7.06995e-01,1.85773e-01,-2.81781e-01,-2.46352e-02,
-6.71147e-01,-2.61708e-01,-5.69286e-01,-1.07170e+00,-6.08988e-01,1.46946e-01,3.27115e-01,6.56790e-02,8.04140e-01,-1.90189e-01,-4.70672e-01,6.61127e-01,-3.04843e-01,-1.74181e-01,-1.86848e+00,3.06573e+00,5.25399e-02,5.39947e-01,2.83255e-01,-2.94906e-02,-3.54714e-01,-2.54392e-01,2.60616e-02,-3.62477e-01,4.24962e-01,
-1.52034e-01,-3.84186e-02,-3.09573e-01,-4.02331e-01,6.44037e-01,4.13168e-02,-8.16235e-01,-1.02426e-01,1.92575e-01,-1.23014e-01,-5.03051e-01,-5.70866e-01,-2.12711e-01,3.52665e-01,1.33230e-01,-1.02862e+00,5.31211e-01,-1.04457e+00,1.56767e-01,-5.16196e-01,-5.06537e-01,-9.39581e-01,1.83734e-01,-2.75991e-01,-6.22990e-01,
-3.93071e-01,-1.86216e-01,-1.26430e-01,4.10078e-01,5.19014e-01,1.55668e-01,-3.74967e-01,5.88632e-01,1.85616e-01,2.06056e-04,-2.35292e-01,-1.05705e-01,9.96791e-02,3.21146e-02,1.11981e+00,3.68488e+00,1.23686e+00,-3.99426e-01,-3.97773e-02,7.44398e-01,-6.16476e-01,-4.03077e-01,1.36229e-02,-2.83792e-01,1.16551e-01,
3.67951e+00,-1.54834e-01,-3.53966e-01,-6.54581e-01,-1.92066e-01,2.20713e-02,2.05270e-03,6.18804e-01,-4.20776e-01,2.53161e+00,6.99478e-01,-8.14411e-02,-1.49742e-01,3.63862e-01,-4.47705e-01,5.44907e-01,2.07675e-01,-1.56181e-01,1.13513e-01,2.87696e-01,7.12312e-01,1.39147e-01,-5.10772e-01,-1.04012e+00,1.11555e+00,
4.99094e-01,
1.17522e-02,
-8.51993e-02,
-3.60329e-01,
4.31976e-01,
-1.10207e-01,
1.19850e-01,
3.74481e-01,
5.96714e-02,
1.49765e-01,
-2.35165e-01,
-1.17216e-01,
-4.26608e-01,
-3.15550e-01,
4.77710e-02,
8.25699e-01,
-2.66773e-01,
6.61369e-02,
1.50514e-01,
1.60929e-01,
2.32651e-01,
6.56335e-01,
7.89565e-01,
3.25907e-01,
-2.77100e-01,
-1.13828e+00,-1.77954e-01,3.23105e-01,2.99702e-02,3.40597e-01,6.61315e-02,2.62368e-02,1.11618e+00,-2.87183e-01,-4.17376e-01,-1.31584e-01,-3.27546e-01,1.56873e+00,5.00539e-01,-5.23050e-01,5.97923e-01,-4.59876e-01,-4.96552e-01,4.45146e-01,-5.41579e-02,1.35602e-01,7.34975e-02,-7.06918e-02,7.03123e-01,-1.00961e-01,
-1.15802e-01,2.04122e-01,-3.07904e-01,-2.19768e-01,2.36137e-01,6.59649e-02,-1.77722e-01,-2.23314e-01,-4.91067e-02,-2.36308e-01,2.32684e-01,-2.29357e-01,-6.46076e-02,2.44369e-02,2.39621e-01,-1.34894e-01,-7.33596e-03,-2.88694e-01,-3.21924e-01,-4.35135e-02,3.93930e-02,-2.46021e-01,2.84323e-01,4.81290e-03,-1.82218e-02,
8.35690e-02,1.02616e-01,8.22624e-02,2.80122e-01,-2.30014e-01,-4.54928e-02,-1.17081e-01,1.40784e-01,-3.46128e-01,-3.93176e-01,-1.56255e-01,4.91068e-03,-1.75445e-01,-2.25173e-01,1.54843e-01,-3.30714e-01,2.54533e-01,-4.06264e-01,-2.39135e-01,-2.53570e-01,2.43115e-01,-4.66362e-02,-2.61723e-01,-1.19570e-01,-2.71482e-01,
-4.04235e-01,4.15890e-01,4.12232e-01,5.83539e-01,-7.60966e-01,-2.49640e-01,-3.33095e-01,2.30207e-01,-5.38887e-01,-9.93499e-02,3.29358e-01,-7.62266e-02,2.04514e-01,5.10627e-01,-4.74306e-02,3.84067e-01,-4.72643e-01,3.73361e-01,1.91215e-01,-1.74204e+00,1.55752e-01,3.21880e-01,4.30318e-01,1.74080e-01,3.62855e-01,
-4.21779e-02,3.53257e-01,-1.11747e-01,3.78887e-01,8.45146e-02,8.77047e-01,-1.78099e-02,1.87708e-01,-6.15095e-02,-7.93733e-01,3.44659e-01,-1.22450e-01,3.08003e-01,-3.38709e-01,3.56344e-01,4.94771e-01,9.49402e-02,-6.45450e-01,7.87650e-01,-2.93651e-01,8.58545e-02,1.68659e-01,1.13979e-02,-2.49955e-01,1.22770e-01,
8.50370e-02,3.71784e-01,4.83933e-01,-9.34131e-01,1.31987e-01,-8.40411e-01,7.85711e-02,4.70239e-01,-6.54775e-01,4.60411e-01,1.38977e-01,-1.15886e-01,-2.33648e-01,-7.73797e-01,-6.21942e-01,-6.73465e-02,-2.45506e-01,5.00818e-01,2.64097e-01,-3.99178e-01,1.49568e-02,-2.98890e-01,3.34224e-01,-2.63315e-01,1.67883e-01,
6.61878e-02,2.07512e-01,-4.17089e-01,-4.75309e-02,2.15240e-01,3.45760e+00,1.85813e-01,2.50888e-02,-2.50494e-01,2.42096e-01,-3.05433e-01,-9.22673e-02,-3.45966e-01,-6.61585e-02,-3.31687e-02,1.64659e+00,-2.58603e-01,1.28075e-02,7.53292e-01,6.78025e-01,-8.19365e-02,-6.30877e-02,-9.74914e-01,-2.36363e-01,7.56615e-01,
-1.38767e+00,-7.08628e-01,1.06246e+00,-4.02205e-01,-1.38462e-01,2.15932e-01,1.66616e+00,-2.19174e-01,-5.03280e-01,-2.97262e-01,1.20642e-01,-4.35959e-02,-4.78689e-01,-2.16865e+00,-1.48246e+00,5.66074e-01,-7.20449e-01,-1.85153e+00,3.45954e-01,-4.34068e-01,-2.86261e-01,-3.63468e-01,8.75029e-02,4.55726e-01,-1.10003e-01,
4.46839e-01,2.21829e-01,1.27995e-01,6.05510e-02,-3.92547e-01,-5.46394e-01,-1.62843e-01,1.44786e-02,8.53632e-01,5.59646e-01,-1.46792e-01,2.89079e-01,-4.08043e-01,9.22863e-01,-9.53720e+00,-1.32331e-01,-3.11559e-01,-2.33143e-01,5.34924e-02,-4.46269e-01,3.06248e-01,-1.36782e-01,-1.99097e-01,-5.91467e-01,-1.66014e-01,
-4.84332e-02,-3.74457e-01,3.73447e-02,1.05608e-01,-4.28073e-01,-2.14659e-01,1.16872e-03,9.90185e-02,-2.94613e-01,-2.77864e-01,-9.32935e-03,-2.41024e-01,2.06088e-01,-2.48125e-01,-1.93370e-01,-3.13006e-02,4.88110e-02,-7.42237e-02,4.33062e-02,1.98192e-01,-2.31722e-01,1.09011e-04,2.12618e-01,-4.76071e-02,1.60669e-01,
-1.54755e+00,3.54337e-01,-8.79792e-01,8.88585e-01,-8.28545e-01,-1.34558e-01,2.65459e-01,-3.51598e-01,-2.99999e-01,5.27801e-02,8.80367e-02,-7.44170e-02,-1.69558e+00,6.34087e-01,-1.32090e+00,6.37037e-01,-4.39453e-01,1.32206e-02,4.10432e-01,-6.72052e-01,-2.17512e+00,3.85930e-01,1.15099e+00,1.06606e+00,2.64785e-01,
-3.54508e-01,6.28179e-01,3.56997e-01,2.99157e-01,5.00917e-01,2.79620e-01,8.02470e-01,9.37528e-03,-9.29868e-01,2.02571e-01,-8.67096e-02,-9.22076e-02,-7.69967e-01,-1.80716e-01,3.36362e-01,-9.35448e-02,-5.47153e-01,-2.17324e-01,3.29336e-01,-4.12833e-02,-2.98970e-01,-1.66573e-01,2.10681e-01,1.61566e-01,-4.98912e-01,
-2.48076e+00,8.44836e-01,-1.22921e-01,3.02677e-01,-4.52290e-01,1.23013e+00,7.86138e-02,-4.78403e-01,-3.56091e-01,3.85139e-02,1.72082e-01,2.57125e-01,3.62427e-01,1.16953e-01,2.74634e-01,3.49921e-01,-1.72557e-01,-1.07873e-01,-1.47184e-01,-1.48251e+00,-3.06272e+00,6.88023e-01,4.03212e-01,1.48534e-01,-8.01813e-01,
-2.94966e-01,1.74130e-01,8.66910e-03,-2.72108e-01,5.21752e-01,-2.52184e-01,-1.27662e-01,1.57475e-02,-9.07828e-02,-1.43077e-01,-3.35026e-02,2.33481e-01,-5.38558e-01,-5.15494e-02,4.42408e-01,4.51138e-01,-7.45347e-02,-1.12631e-01,-3.18252e-02,4.38298e-01,-2.52181e-01,-4.18829e-01,-5.26373e-01,4.27273e-01,-3.54140e-01,
9.17014e-02,5.63063e-01,4.64593e-01,7.45836e-01,2.44892e-01,-9.32618e-02,8.71654e-02,2.45726e-01,3.00017e-01,-3.55505e-01,-2.25105e-01,-1.65272e-01,-3.53125e-02,1.71346e-01,4.52478e-02,5.64628e-02,1.76897e-01,8.60420e-01,1.08920e-01,1.61459e-01,1.30023e-01,7.83495e-02,-1.13804e-01,8.60565e-02,-6.86126e-01,
9.43080e-01,3.21177e-01,2.95645e-01,1.02451e+00,-7.17788e-01,-1.03592e-01,-7.48489e-01,5.11438e-01,4.25745e-01,2.79655e-01,-2.03602e-01,-3.00365e-01,3.00482e-01,-1.92027e-01,-1.30052e-01,-6.76463e-02,1.30853e+00,3.97234e-01,-2.49362e-01,-3.81973e-02,2.95981e-01,-1.20322e-01,4.67921e-03,-8.63163e-01,-1.92611e-01,
8.37172e-01,2.97534e-01,3.64060e-01,7.73859e-01,-4.91199e-01,8.92616e-03,-6.11822e-01,2.74804e-01,1.76374e-01,5.32345e-01,3.29071e-01,3.42981e-01,4.70035e-01,-3.01282e-02,2.78868e-01,-8.86959e-02,5.58647e-01,2.12763e-01,-7.64817e-03,-2.71434e-01,2.47912e-01,-3.50744e-01,3.56229e-02,-8.44354e-01,-1.05236e-01,
-4.49675e-01,5.23012e-01,-1.24843e-01,-3.99418e-01,6.56331e-01,-5.23126e+00,1.29728e+00,-1.23664e+00,-6.78741e-01,-2.69945e-01,-1.02288e-01,1.38685e-01,-2.08157e+00,-5.09967e-01,5.78493e-02,-4.10352e-01,-1.13209e+00,4.49816e-01,5.93524e-01,8.28601e-01,-7.10909e-01,-8.47134e-01,-3.65699e-01,-1.79397e-01,5.97161e-01,
-6.51764e-01,6.03456e-01,5.96945e-01,7.83026e-01,2.69147e-02,-2.16387e-01,3.30400e-01,-1.94436e-01,7.60668e-02,-2.29972e-01,2.80009e-01,3.01113e-01,-2.19445e-01,-1.10466e-01,1.03691e+00,6.84667e-01,-2.48582e-01,-3.36230e-01,-1.33693e-01,2.48532e-01,-8.43340e-01,8.35980e-01,-4.15186e-02,8.74242e-02,-1.08578e+00,
-2.81132e-01,-2.03374e-02,1.99928e-01,5.08341e-01,1.45783e-01,1.43502e+00,3.13636e-01,-6.25951e-01,3.86051e-01,-5.45580e-02,2.03565e-01,3.32772e-01,-1.06384e-02,-7.08127e-02,1.30774e-01,3.99610e-01,-2.22970e-01,3.02472e-01,3.62231e-01,-9.52149e-01,3.33131e-01,4.20878e-01,3.59508e-01,-5.65647e-01,6.22116e-02,
-2.83763e-01,2.97345e-01,4.05688e-01,-1.11031e-02,-6.23088e-01,1.06242e+00,-5.07228e-02,8.33198e-01,4.17920e-01,1.21910e-01,-1.77874e-01,-9.78749e-02,1.15516e+00,-1.13219e+00,-4.16736e-01,2.46212e-01,-8.65568e-02,1.14723e-01,4.02934e-01,-7.26424e-01,4.23438e-01,5.30932e-01,4.85272e-01,1.79913e-01,-2.68315e-01,
-1.72379e-01,-7.48637e-01,-1.34049e-01,7.24126e-01,3.57906e-01,-1.57489e-01,-1.93916e-01,6.54447e-01,-2.88534e-01,3.99522e-01,-2.87683e-01,3.07701e-01,-4.67905e-01,7.45421e-01,-5.29006e-01,-2.86767e-01,-1.76275e-01,7.66500e-01,2.30957e-01,-4.67929e-01,1.13939e-01,-5.54276e-02,4.10636e-01,2.47142e-01,3.56220e-01,
3.44823e-01,9.16763e-02,-1.16861e+00,-3.01517e+01,5.20498e-01,2.08547e+00,-2.78569e-01,-1.77527e-01,-4.31269e-01,6.52607e-01,-3.03299e-01,-2.36614e-01,-1.19084e+00,-2.16855e-01,4.93182e-01,6.01569e-01,-1.37694e-01,4.00771e-01,-1.82163e+00,5.67656e-01,-3.35241e-01,2.61076e-03,-7.09689e-02,-4.85698e-01,2.63062e-01,
-7.58907e-01,-2.85326e-01,3.97630e-01,-5.49166e-01,3.62340e-01,9.28763e-01,-5.97486e-01,5.05096e-01,3.54541e-01,-4.96917e-01,3.31458e-01,-1.65783e-01,-1.93063e+00,9.03134e-01,-5.23401e-01,1.24208e-01,-1.75677e-01,-3.05842e-01,-1.40215e+00,1.94983e+00,4.59946e-01,4.25267e-01,-1.42913e+00,7.51599e-01,-2.82517e-01,
-9.13891e-02,1.15551e-01,1.14710e-01,-9.49380e-01,4.77768e-02,-4.48260e-01,2.58421e-01,2.33246e-01,-8.59022e-01,-1.20327e-01,-2.48606e-01,-7.12227e-02,4.78712e-01,-4.84501e-01,1.78423e-01,-9.42189e-01,-1.22925e+00,3.57799e-01,7.36052e-01,-1.13015e+00,-3.86802e-01,7.42603e-02,1.57561e+00,-4.31673e-01,8.27616e-01,
-1.36165e-01,
-2.40670e-01,
-2.30549e-01,
-2.55676e-01,
7.72950e-02,
2.24911e-01,
4.35952e-01,
3.17122e-01,
-2.76108e-01,
-5.55386e-03,
-3.72221e-02,
3.77073e-01,
4.94150e-02,
1.50685e-01,
-4.00200e-01,
-1.45539e-01,
5.03966e-01,
2.55987e-01,
-2.46843e-01,
-7.94337e-01,
-2.68138e-01,
-3.28542e-03,
-2.61205e-01,
-7.17980e-01,
4.76814e-01,
2.78033e-01,-3.44484e-01,-9.00715e-02,4.38047e-01,-2.63942e-04,4.29669e-01,-1.68625e-01,1.38600e-01,4.19935e-01,-2.31531e-01,2.63890e-01,-3.18481e-01,-4.88460e-01,3.27282e-01,-4.38690e-01,-3.53693e-01,3.05457e-01,-1.15706e-01,-3.82532e-03,9.14877e-01,-1.94324e-01,-1.39879e-01,5.13416e-01,-1.36615e-01,-4.82987e-02,
7.54501e-01,2.99926e-01,1.94774e-01,2.25420e-01,4.00476e-01,3.50954e-01,-3.39500e-01,-3.19445e-02,3.49026e-01,-1.58376e-01,6.21191e-01,2.13406e-01,-1.86617e-02,-1.24233e-02,-4.79328e-01,1.68389e-01,-1.32060e-02,4.00273e-01,2.94455e-02,3.33305e-01,-2.39834e-01,-4.39606e-01,6.75393e-01,1.22472e-01,-1.00599e-01,
1.57322e-01,-2.14981e-01,-2.14572e-01,2.08893e-01,6.48375e-02,-2.86288e-01,-3.82530e-01,2.97629e-01,-2.89193e-01,-1.22777e-01,-1.68048e-01,-2.91875e-01,2.55959e-02,-7.68999e-02,-3.30365e-01,-3.64494e-01,-7.92421e-02,-2.75309e-01,-3.45812e-01,1.39078e-01,1.30396e-01,2.17126e-02,-3.56385e-02,-2.16369e-01,8.71138e-02,
5.34142e-03,1.93602e-01,-5.25752e-02,1.76509e-01,-5.68152e-01,-2.69263e-01,1.86446e-01,6.64950e-01,6.31080e-02,2.97041e-01,-1.08013e+00,3.77537e-01,6.91281e-02,-2.46739e-01,-1.86119e-01,3.10516e-02,-3.09556e-02,7.40659e-01,-8.62716e-02,-3.82228e-01,-3.24821e-02,-2.07744e-01,7.17898e-02,-1.19532e-01,-1.59823e-01,
-8.44466e-02,2.05194e-01,7.79254e-02,-4.78914e-01,6.10090e-01,-1.16539e+00,2.13305e-01,1.09648e-01,7.48411e-02,2.09992e-01,4.03003e-01,-1.24658e-01,1.26506e+00,-4.75261e-01,8.97600e-01,3.82377e-01,-2.24206e-01,-3.78953e-01,-6.96768e-02,-1.48928e-01,-1.20804e+00,-7.15881e-02,-5.47057e+00,2.40403e-01,2.22053e-01,
3.04031e-01,-3.29246e-01,-2.50162e-01,-8.95312e-02,-7.15545e-01,-6.44021e-01,2.31666e-01,2.20237e-01,-2.12656e-01,-1.09233e-01,3.96614e-01,6.59902e-01,-7.13490e-01,-3.51127e-01,-4.64653e-01,6.64787e-01,-3.85867e-01,-1.57508e+00,-6.70486e-02,-1.42628e-01,7.19767e-02,1.35181e-01,-5.63880e-01,1.57615e-01,-4.47179e-02,
1.03216e+00,8.35072e-02,8.19837e-02,-3.73331e-01,1.05668e-01,-3.77382e-01,-5.62308e-01,1.02675e-01,-1.93019e-01,3.16952e-01,5.20538e-01,5.86337e-01,1.40891e-01,-7.12406e-01,-9.46053e-01,4.09980e-01,6.13108e-01,7.37415e-01,-4.32716e-01,5.35530e-01,3.46583e-02,-8.02196e-01,1.38182e+00,-1.85214e-01,3.90070e-01,
-1.92214e-01,1.51307e-01,7.30503e-02,3.85470e-01,1.95521e+00,6.16310e-01,-2.25625e+00,-3.19338e+00,1.10766e+00,1.95150e-01,2.01190e-01,-9.96291e-02,-7.73663e-02,-1.75854e-01,5.48582e-01,-4.60384e-02,-1.78477e-01,1.80833e-01,2.18169e-01,1.75826e-01,-2.24333e-01,7.84405e-02,3.94196e+00,-5.47831e-01,3.41679e-01,
2.37054e-01,-2.03238e-01,-2.58952e-01,7.94023e-01,-6.36366e-01,-1.37888e-01,-1.04384e-01,-1.25370e+00,-1.13980e+00,-9.35025e-02,6.89420e-02,6.79063e-01,-2.20433e+00,1.57231e-01,-5.20273e-01,1.61190e-01,1.58765e+00,1.19634e+00,-3.25201e-01,-6.40367e-01,9.13912e-01,-1.55015e+00,-8.35040e-01,3.37631e-01,3.09762e-02,
-3.58672e-01,7.30787e-02,-2.67924e-01,-4.49819e-01,2.95548e-01,-2.64409e-01,1.59462e-02,1.38264e+00,1.32989e-01,-9.21478e-02,-9.54492e-02,9.32525e-01,-6.91961e-02,3.36018e-01,-1.04248e+00,6.02624e-01,-4.47940e-01,-8.46435e-01,2.08424e-01,-8.82368e-02,3.32540e-02,1.89965e-01,5.41693e-02,7.13329e-01,1.85847e-01,
-1.15826e-01,-2.81922e-01,2.04570e-01,-1.67720e-01,-7.15291e-01,-7.05971e-01,1.69267e-01,-2.27272e-01,-6.98223e-02,2.50976e-01,9.55991e-02,-4.32641e-01,4.72269e-01,-7.86509e-02,1.52325e-01,-4.75062e-01,2.72995e-01,-1.28750e-02,9.73480e-02,4.22674e-01,4.31377e-01,4.33454e-01,-3.91790e-01,-2.53405e-01,-2.86323e-01,
-1.48615e-02,2.84950e-01,2.01844e-01,-3.37665e-02,4.15856e-01,1.03997e-01,2.78144e-01,1.37897e+00,-8.72037e-01,3.68674e-02,1.03260e+00,4.38643e-01,3.04710e-01,-2.67027e-01,1.48463e-01,1.48764e-01,1.53101e-01,-4.29109e-01,-1.79775e-01,-4.17681e-01,-3.40735e-01,1.46419e-01,-6.34492e-01,1.87351e-01,9.11784e-03,
-1.93046e-01,2.37320e-01,2.07330e-01,9.66927e-02,3.72596e-01,6.46606e-02,7.34887e-02,7.31230e-01,-2.74133e+00,-5.68030e-03,-5.51784e-01,1.63769e-02,1.54582e-01,6.39394e-02,6.21825e-01,-5.40549e-01,5.26310e-02,2.12027e-01,4.78536e-01,4.94523e-02,-5.40662e-01,-8.21977e-01,-9.35516e-03,1.11738e-01,-4.02594e-01,
3.48214e-01,-8.28713e-02,-1.35294e-01,-7.51894e-02,-5.38452e-01,1.18954e-01,1.99850e-02,-7.26470e-02,9.41806e-02,-1.34933e-01,1.46726e-01,-8.34625e-02,5.13169e-02,4.36023e-01,1.37542e-01,-2.72806e-01,3.87852e-01,5.46146e-01,3.14593e-02,-1.32567e-01,4.45064e-01,5.22869e-02,-2.88079e-02,-3.46068e-01,5.90168e-02,
2.29441e-01,-2.78148e-01,9.33193e-02,2.44936e-01,-5.80760e-01,-4.62854e-01,-1.40854e-01,4.76825e-01,-5.48738e-01,2.94503e-01,3.18108e-01,-7.90312e-02,1.87572e+00,8.12316e-01,-1.19316e+00,-3.60614e-01,7.23257e-01,5.70876e-01,-3.93748e-01,7.07478e-01,-3.41742e-02,-1.46526e-01,-2.66129e-02,-6.96414e-01,-1.92238e-01,
-5.33096e-02,-7.01088e-02,-1.64687e-01,6.48604e-01,2.71244e+00,6.80068e-01,-2.87288e+00,2.61866e-01,1.17016e+00,2.11243e-01,2.85270e-01,3.53448e-01,3.84723e-01,-3.42956e-01,7.32841e-01,-2.78164e-01,1.49014e-01,2.02685e-01,-8.78590e-02,5.45448e-01,-2.16201e-01,2.77132e-02,-6.63036e-01,-4.59789e-01,-2.32496e-01,
5.87707e-01,-3.19837e-01,1.75326e-01,5.50268e-01,2.34860e-01,-3.89019e-02,-1.47012e-01,1.99442e+00,-4.23419e-01,-3.09099e-01,6.10887e-02,3.06551e-01,1.01288e+00,4.35500e-01,-4.32393e-01,1.88753e-01,5.54161e-01,-2.33718e-01,3.34383e-02,3.30699e-01,-4.82032e-01,-5.17719e-01,-1.07803e-01,1.36994e-01,-1.52351e-01,
-1.19153e-01,1.96965e-01,-2.98181e-01,-1.44982e-01,8.08346e-01,-4.74192e-01,6.63099e-02,-3.49440e-01,1.26444e-02,7.07251e-02,-1.63243e+00,-1.86959e-01,1.65538e-01,-5.24586e-02,2.16065e-01,1.38912e-01,-2.16273e-01,-1.22018e-01,-1.43711e-01,-6.35257e-01,-3.75524e-01,2.22791e-01,-8.13734e-01,-2.75272e-01,1.14113e+00,
7.25057e-01,1.29048e-01,1.67869e-01,-1.08590e-01,-7.10900e-01,-6.08751e-02,-2.09804e-01,-9.70295e-02,1.67405e-01,-5.38978e-02,1.30508e+00,-3.23054e-01,-3.90366e-01,-3.41197e-01,-2.72473e-01,-1.95411e-01,1.44228e-01,-1.54711e+00,-1.29565e-01,1.31252e+00,1.45873e-01,1.22182e-01,-5.69473e-01,-3.01272e-01,-3.46592e-02,
-9.27667e-02,-5.55514e-02,2.59346e-01,-6.18184e-04,1.10176e-01,-2.82386e-01,2.78641e-01,-1.53813e+00,-1.89520e+00,8.97892e-02,6.37706e-01,1.02242e+00,-1.55276e+00,-8.64151e-01,2.81759e-01,3.92027e-01,-1.74608e-01,-6.45076e-01,-3.81677e-01,1.96789e-01,-1.29521e+00,4.14050e-01,-5.68257e-02,5.30166e-01,3.04141e-01,
-2.37792e-01,6.16185e-02,2.56043e-01,-2.27485e-01,-1.43487e-01,4.63676e-01,2.52745e-02,-8.41556e-01,-1.85885e-01,-1.89948e-01,-4.12156e-01,-6.72564e-01,-2.43821e-01,-1.90270e-01,2.17915e-01,-8.58902e-02,-6.64997e-01,-4.13022e-01,1.07220e+00,7.79349e-01,-2.95596e-01,5.12437e-01,1.48996e-01,-4.21761e-01,3.82424e-01,
7.78597e-02,-1.68727e-01,2.32093e-01,3.03000e-01,3.37212e-01,-2.80724e-01,3.32538e-02,-6.53831e-03,-1.04693e+00,2.09339e-01,-1.19552e+00,2.58271e-01,-2.81705e-01,-3.05832e-01,5.91791e-01,-7.06454e-01,9.23559e-01,-3.87496e-01,8.46849e-02,-1.14541e-01,-6.98502e-01,9.14808e-03,1.22502e-01,-3.77152e-01,-8.06660e-02,
1.29285e-01,-1.06071e-01,1.78887e-01,3.50634e-01,-1.46565e-01,-4.79606e-01,1.97916e-01,-5.25440e-01,-4.33501e-01,-2.66235e-01,-1.27720e-01,7.86002e-01,1.52297e-01,-3.37162e-01,-6.89756e-02,1.33581e-01,4.67489e-01,-2.26710e-01,3.37224e-01,-3.35554e-01,-3.83367e-01,2.37003e-02,-5.23198e-02,1.75206e-01,2.52154e-01,
2.93510e-01,-3.26948e-01,2.53345e-02,3.57249e-01,-7.11146e-01,4.23235e-03,-2.33509e-01,5.28647e-01,-8.14120e-01,-2.98047e-02,1.72903e-01,2.89943e-01,-4.50753e-01,-2.25393e-01,-1.71918e-01,-2.32232e-01,3.61670e-01,-2.10103e-01,2.14710e-01,-2.75011e-03,-6.09314e-01,9.79136e-02,7.58868e-01,1.33227e-01,1.94220e-02,
2.23223e-01,-2.86056e-01,-9.78290e-02,-3.04955e-02,-8.01530e-02,2.24971e-01,8.98040e-02,1.43496e+00,3.36960e-01,-2.92229e-01,1.59973e+00,-8.92962e-02,5.08242e-01,2.76589e-01,-3.70568e-01,2.43927e-01,-7.46749e-01,-7.83244e-01,9.01468e-01,8.54285e-01,2.25186e-02,3.46123e-01,-3.57297e-01,-2.40268e-01,2.76301e-01,
4.42801e-01,
7.09907e-01,
-3.08831e-02,
5.01796e-01,
-3.15481e-01,
5.82246e-01,
1.05930e-01,
-5.87728e-01,
-1.43976e+00,
4.75972e-01,
3.05614e-01,
-2.76469e-01,
-8.88008e-02,
-5.86176e-01,
6.85846e-02,
-8.04399e-01,
1.89936e-01,
4.55227e-01,
2.71601e-01,
-1.85189e-01,
3.67981e-01,
-6.30511e-01,
-1.49413e-01,
-4.74261e-01,
5.58528e-01,
6.67320e-02,1.05046e-01,2.92824e-01,-2.07688e-01,-3.01230e-01,4.71779e-02,2.82675e-01,1.12608e-01,-1.32396e-01,1.68662e-01,-2.51496e-01,-2.90250e-01,2.49060e-01,-4.77947e-01,-3.81130e-02,5.09321e-02,-2.44605e-01,-1.96088e-01,-2.71916e-01,9.45543e-02,1.54031e-01,-2.59181e-01,-2.63544e-01,-1.95288e-01,-3.68461e-02,
-3.81356e-01,1.98041e-01,-1.78887e-01,-3.00856e-02,-4.11476e-04,-2.59825e-01,-3.88761e-03,-5.65010e-01,2.56741e-02,2.63531e-01,1.83628e-01,-6.07445e-02,1.23877e-01,1.17795e-02,2.64598e-01,5.34625e-01,-1.39623e-01,1.97235e-01,1.37981e-01,1.65778e-01,1.87536e-01,-5.44963e-01,3.47882e-01,-2.44691e-01,-3.47238e-02,
-2.42213e-01,-3.65394e-01,-1.64501e-01,-3.29048e-01,-7.33956e-02,-1.60094e-01,1.76204e-01,-4.55777e-02,1.71261e-01,5.62463e-02,-7.50579e-02,-3.16004e-01,-2.82961e-01,-1.21239e-01,-2.67096e-01,-1.21563e-01,2.51789e-01,3.07483e-03,-1.27127e-01,-2.46465e-04,1.07342e-01,-1.24602e-01,9.62106e-02,-1.55562e-02,-7.96540e-02,
2.03077e-01,-3.64249e-01,-2.51750e-01,-1.80025e-01,9.99213e-02,2.82449e-01,2.24233e-02,-8.04694e-02,5.45760e-02,-1.75093e-02,-2.68709e-01,1.03861e-01,1.70187e-01,2.79143e-01,3.75732e-02,-3.31583e-01,1.04848e-02,-6.14733e-02,-1.50136e-01,2.64368e-01,-1.77747e-01,1.25117e-01,-3.45938e-01,-2.93805e-01,-1.53495e-01,
2.55884e-01,-9.15727e-01,1.43340e-01,3.73337e-01,1.98687e-01,-7.26150e-01,4.36521e-01,1.12722e-01,-1.76388e-01,-2.55591e-01,-2.04947e-01,-2.54023e-01,-1.42643e-01,2.39443e-01,-3.16240e-01,-1.99079e-01,3.14112e-01,-5.11474e-01,-2.16145e-01,1.92718e-01,1.46241e-02,-2.09500e-02,1.25455e-01,-4.27109e-02,-8.79358e-02,
4.09973e-02,1.66959e-01,-1.49243e-01,-3.15705e-01,-1.46310e-01,-1.18942e-01,2.62801e-01,-3.63016e-01,2.00446e-01,-4.82177e-03,-3.09994e-01,-3.41078e-01,-3.72040e-01,-4.22697e-01,1.65762e-01,9.86601e-02,-3.81593e-01,1.50085e-01,-2.80297e-02,1.97583e-01,2.21994e-01,2.22195e-01,-1.94035e-01,8.30504e-02,-1.16875e-01,
7.94027e-01,-7.06024e-02,1.14497e-01,-7.32022e-01,2.05701e-01,3.68532e-01,-1.40320e-02,-4.16099e-01,1.39575e-01,-3.10019e-01,4.01870e-01,4.75903e-01,7.19416e-01,1.81620e-01,1.12857e-01,2.14286e-01,1.12815e-01,1.48252e-01,-7.85398e-02,5.74731e-02,3.10211e-01,-8.26331e-01,2.20023e-01,-2.74799e-01,-1.09149e+00,
-7.65823e-02,-3.18095e-01,3.17256e-01,-3.60496e-01,1.54745e-01,3.36661e-02,8.31502e-02,-1.20490e-01,-2.69998e-01,-1.32874e-01,-3.28209e-01,-2.07402e-01,-5.15440e-02,-4.31041e-01,-3.26160e-01,9.19668e-02,-2.70428e-01,9.04105e-02,-1.44479e-01,1.87917e-01,9.12630e-02,-3.96077e-01,5.23167e-02,3.04426e-01,1.13423e-01,
-1.03679e+00,-2.13106e-02,4.20417e-02,8.57560e-01,-1.88461e-01,-9.42399e-01,-5.31422e+00,1.06640e+00,-6.17334e-01,4.36982e-02,-6.96378e-02,-2.14552e-01,-1.02405e+00,-1.51722e-01,3.79888e-01,-7.43047e-01,4.55190e-01,-3.38717e-01,9.78877e-01,-9.64559e-02,5.73020e-01,2.87488e-01,3.85000e-01,8.94772e-01,-1.01063e-01,
-3.99449e-01,6.26349e-01,-1.89295e-02,2.28517e-01,-8.22115e-01,-1.94321e-02,-1.76665e+00,-1.12499e-01,-8.28647e-01,-2.05861e-01,2.26037e-01,4.86796e-01,-5.61409e-01,-1.87746e-01,4.22197e-01,-2.96836e-01,3.05737e-01,-1.67010e-01,-1.28271e-01,-2.37132e-01,9.03345e-01,-1.17632e-01,4.98216e-01,-4.48956e-02,-8.35664e-02,
-1.05280e-01,-3.90588e-01,2.85219e-01,3.97480e-01,1.18001e-01,-8.35199e-02,4.88526e-02,-6.09450e-02,-7.99768e-02,4.55696e-02,-1.91853e-01,-4.09992e-02,-1.69246e-01,1.35036e-01,-3.01262e-01,9.15904e-03,1.64888e-02,-3.36077e-01,1.22241e-01,2.84732e-02,4.13433e-02,7.71050e-02,2.47133e-02,-1.14032e-01,1.38793e-01,
-6.50513e-02,-3.35633e-01,1.06727e-01,-9.03495e-02,-2.55409e-01,-5.86023e-02,1.97976e-01,-3.23115e-01,-1.45109e-01,-1.16080e-01,-4.36942e-01,-7.50514e-02,-2.75408e-01,1.43033e-01,4.81136e-02,-3.48378e-01,2.41234e-03,-1.00715e-01,2.14821e-01,1.25038e-03,-3.87367e-02,1.75796e-01,-3.51914e-01,-3.36752e-01,-3.79109e-01,
3.07860e-01,-1.90509e-02,-3.31609e-01,5.98494e-02,-4.16722e-02,1.49634e-01,-1.64945e-01,2.71728e-01,-4.32486e-02,-1.68796e-01,-4.68033e-02,1.40795e-01,-1.78886e-01,1.45893e-01,-4.71024e-01,-2.97102e-01,2.32409e-02,-3.69065e-01,-2.87991e-01,-2.82283e-02,-7.91103e-02,5.29015e-01,-2.23471e-01,-8.17705e-02,5.37268e-02,
-2.58209e-01,-3.41934e-01,-1.91527e-01,8.56561e-03,-1.16700e-01,-1.93842e-02,1.01078e-01,7.50664e-02,-1.14890e-01,-3.13574e-01,1.29059e-01,7.79010e-02,1.75039e-01,-1.89269e-01,2.16315e-01,-2.97598e-01,-3.03085e-01,-2.36412e-01,1.67795e-02,-2.41402e-01,2.50346e-01,-1.85537e-02,-4.54998e-02,-3.21400e-01,-2.99096e-01,
5.35529e-01,9.12340e-02,3.22287e-01,-4.19079e-02,-2.21702e-01,-3.92243e-01,3.97167e-02,1.82845e-01,7.46953e-02,-3.64231e-01,3.43921e-02,2.19587e-01,-1.19675e-01,-1.17463e-01,-2.01717e-01,-2.36297e-01,-8.88716e-02,-2.11707e-01,3.79447e-01,-1.25334e-01,-7.09277e-02,6.81895e-01,-2.46463e-01,3.54958e-01,1.33141e-02,
5.64694e-01,-9.67471e-02,3.14019e-02,-4.45159e-01,5.10922e-01,1.54073e-01,5.56091e-01,-1.79432e-01,7.90112e-02,1.94074e-03,-6.23339e-01,-3.77991e-01,2.30047e-02,-3.34064e-01,4.82531e-01,-3.02527e-01,-6.02268e-02,1.74381e-01,2.51229e-01,4.68195e-01,2.65527e-01,-6.94578e-02,-4.93260e-01,-2.50649e-01,-1.15533e-01,
-5.78134e-02,2.45218e-01,3.14352e-01,-3.01337e-02,3.03472e-02,4.10140e-01,-2.64953e-01,-5.04918e-01,1.97962e-02,1.87353e-01,-1.24649e-01,1.43739e-01,-2.68271e-02,8.15443e-03,1.61443e-01,4.03935e-01,-3.50431e-01,4.23577e-02,-5.42445e-01,-2.97756e-01,-1.33147e-01,1.83666e-01,-1.05136e-01,2.29742e-01,2.85151e-01,
-6.31407e-02,-2.99534e-01,1.64970e-01,4.98287e-03,8.76586e-02,-1.06766e-01,-2.36349e-01,2.04157e-01,1.10579e-02,2.61251e-01,-7.19000e-02,-3.30963e-01,4.90962e-02,-1.34453e-01,2.34771e-01,-3.67428e-01,1.28051e-01,-1.80981e-01,1.11212e-01,-1.56648e-01,-3.26055e-01,1.89954e-01,5.39009e-02,1.35508e-01,-2.46969e-01,
-1.17070e-01,8.28322e-02,2.53681e-01,3.69219e-02,-8.24673e-02,1.00583e-01,7.50142e-02,1.19120e+00,-5.76516e-02,5.37768e-02,6.84956e-02,-1.72453e-01,-1.14430e-01,-4.39678e-04,1.13705e-01,-9.09671e-01,7.58491e-02,5.87580e-02,-2.88203e-01,4.09577e-02,-1.62639e-01,1.87362e-01,-1.71479e-01,-4.70032e-02,2.15224e-01,
-2.65190e-02,-4.28403e-01,-2.53338e-01,-2.81605e-01,-3.38167e-01,-2.66348e-01,-2.23355e-01,2.33967e-01,-2.39830e-01,5.34942e-02,-9.16873e-02,-1.27422e-01,7.65148e-02,-2.08921e-01,-9.17766e-02,-1.47823e-02,-2.64373e-01,-4.00769e-01,4.03013e-02,1.25726e-02,1.81354e-01,6.65868e-02,-3.93826e-01,7.41667e-02,-3.05292e-01,
-4.50217e-01,2.66940e-01,-3.86720e-02,2.47864e-01,-8.29830e-02,5.06220e-02,-9.75661e-02,1.90127e-01,-1.52627e-02,2.27382e-01,-7.10613e-02,-1.75067e-01,-2.33856e-01,-1.54971e-01,1.20189e-01,-6.63207e-02,-8.58808e-02,3.24575e-02,-2.40408e-01,1.47262e-02,-1.00678e-01,1.75115e-01,-4.40795e-02,-2.41875e-01,5.05039e-01,
1.09376e-01,2.87567e-01,-1.06693e-01,-4.40301e-01,3.33580e-02,5.12321e-01,-3.12342e-01,-2.16034e-01,1.12049e-01,1.77959e-02,3.36302e-01,1.75779e-01,2.95670e-01,1.08104e-01,2.02205e-02,1.70993e-01,-1.06330e-01,7.30941e-02,-7.46860e-01,1.78015e-01,-4.31706e-02,-5.11113e-01,2.62004e-01,-4.88437e-01,-2.24011e-01,
-2.90024e-01,3.23684e-01,2.18718e-01,2.37954e-01,1.63424e-01,-3.66226e-02,-1.41123e-01,5.06408e-01,3.06411e-02,1.91882e-01,4.56848e-01,2.49896e-02,3.78199e-01,-2.46747e-01,1.17903e-02,-2.28806e-01,4.01591e-02,2.23379e-02,1.67774e-02,2.73902e-01,-1.31156e-02,-4.73669e-01,-1.17989e-03,-2.44066e+00,-2.38117e-01,
-3.30019e-01,9.36423e-02,3.00032e-01,-2.67213e-01,6.53687e-03,-5.89142e-02,2.41301e-01,-3.67710e-03,-1.39658e-01,1.29518e-01,-2.12360e-01,-3.67409e-01,1.23119e-01,-2.17975e-01,-2.37824e-02,8.99323e-02,-5.80182e-02,-2.23230e-01,-2.14817e-01,-6.85211e-02,1.40165e-02,1.14085e-01,-2.56454e-01,2.68853e-01,1.78849e-01,
-5.28002e-01,3.96613e-01,-6.17688e-01,-6.98951e-02,-5.38105e-01,-4.56689e-01,-5.24563e-01,-1.02905e+00,-3.61893e-01,7.09287e-01,3.45758e-01,2.58987e-01,-3.87134e-01,4.74436e-01,3.49185e-01,8.18961e-01,-7.93049e-02,-1.09765e-02,4.51680e-02,-7.53238e-02,5.19912e-01,-6.62013e-02,1.43729e-01,2.21033e-01,-1.82915e-01,
-1.75451e-01,
1.50072e-01,
-5.36747e-02,
-3.15423e-01,
3.20053e-01,
-2.10184e-01,
-1.57522e-01,
-4.04281e-01,
-3.48661e-03,
-7.02513e-01,
3.11550e-01,
6.49364e-02,
-1.72094e-02,
-3.31158e-01,
-1.66181e-01,
-7.97035e-01,
6.68812e-02,
-2.33265e-01,
1.44552e-01,
1.10388e-01,
2.24040e-01,
-6.29662e-02,
-2.26456e-01,
-2.88399e-01,
-2.25673e-01,
-1.59936e-01,2.39522e-02,4.49327e-02,-4.18685e-01,-5.68166e-03,-5.49813e-01,-4.27674e-02,-2.34671e-01,-5.73986e-02,-1.83562e-01,-7.42712e-03,-2.18174e-01,4.34663e-03,2.73784e-01,-9.71297e-04,3.37686e-01,5.56441e-04,2.42706e-01,2.51596e-02,-2.78131e-01,-1.32334e-01,5.08944e-02,4.35496e-03,2.90120e-02,-2.59262e-02,
1.36996e-01,-6.35128e-02,-7.87364e-02,2.41030e-01,5.38198e-03,3.01937e-01,-3.85611e-02,-1.22918e-01,-1.28108e-02,-1.49177e-01,-3.46394e-03,1.38007e-01,-3.16253e-02,-8.03041e-02,-1.29789e-02,1.01818e+00,-6.61613e-02,4.54165e-02,1.38129e-01,4.71902e-01,-7.09366e-02,2.27345e-02,3.90317e-02,-2.13852e-03,-9.27135e-02,
1.86509e-03,7.39979e-02,-1.26051e-01,3.41266e-01,3.14064e-02,3.57631e-01,-4.02409e-02,-7.97676e-02,-4.83933e-02,-1.47326e-01,-1.89028e-01,1.85402e-01,2.48038e-01,-3.63612e-01,-1.59480e-01,1.05809e+00,-3.91686e-02,-3.22030e-02,-5.07814e-02,9.00678e-02,-7.38840e-02,-1.14638e-01,2.14173e-02,-3.03658e-01,-3.21540e-02,
4.55372e-01,-1.18380e-01,-2.38416e-01,3.66126e-01,-9.70978e-03,5.47058e-01,-4.03885e-02,-4.17453e-02,-3.67075e-03,5.45171e-02,-3.69511e-02,1.13983e-01,-3.59269e-02,-3.25296e-01,-2.51992e-02,2.01198e-01,-2.60414e-02,-1.84194e-01,-5.56213e-02,1.41970e-01,-2.35079e-02,3.51797e-02,6.73804e-02,-1.18537e-01,-2.49841e-01,
2.06652e-01,-8.31400e-03,8.11411e-02,3.30532e-01,-1.92462e-02,5.29092e-01,-2.19644e-02,-4.46603e-02,-8.01319e-03,-1.45032e-01,-2.00116e-02,3.74909e-01,7.09062e-02,-9.70297e-02,-9.92200e-02,9.79623e-01,-1.88201e-02,3.60071e-01,-4.80319e-02,8.82082e-02,-8.81825e-02,-5.29893e-02,3.00351e-02,2.39799e-01,-4.48480e-02,
4.95092e-01,-8.20650e-02,5.11324e-02,9.24925e-02,-5.38335e-03,3.23597e-01,-3.51526e-02,1.19701e-02,2.67859e-03,-1.42521e-01,-5.17903e-03,-1.42065e-01,-2.39096e-02,-5.22808e-02,-1.88775e-02,7.71748e-01,-1.99666e-02,-9.86817e-02,4.12157e-02,8.48940e-02,-6.95658e-02,1.33620e-02,5.55135e-02,1.36370e-01,-9.09207e-02,
1.47733e-01,-4.28088e-02,4.04940e-02,5.29462e-01,-9.51671e-02,5.62768e-01,-2.02099e-02,-1.06516e-01,5.20074e-02,-1.46070e-01,1.37433e-01,-1.13991e-01,-1.61788e-02,2.87128e-01,-6.52769e-02,1.38378e+00,-8.77791e-02,-2.26449e-01,-5.58007e-02,1.34145e-01,-7.37587e-02,-3.42845e-02,4.91810e-03,-2.92591e-01,-1.84394e-02,
4.50078e-02,-1.43225e-01,1.47543e-01,4.19017e-01,1.52817e-02,6.81888e-01,-3.09752e-02,-1.54784e-01,-2.88128e-02,-1.53381e-01,-3.74280e-02,1.88301e-01,-5.93536e-02,3.73810e-02,-2.89170e-02,1.19033e+00,1.63464e-01,-1.54381e-01,-8.80335e-03,3.09498e-01,-1.42687e-01,-7.41832e-02,1.51932e-01,-4.26968e-01,-4.00886e-02,
-4.20171e-03,-9.83376e-03,-3.67466e-01,4.72415e-01,-4.11237e-02,3.77306e-01,-2.55363e-02,1.94846e-01,-5.11275e-03,-1.41099e-01,2.00040e-02,4.76188e-02,4.47178e-02,3.61456e-01,-8.76985e-02,1.03751e+00,-1.93850e-02,-9.69872e-02,-2.76323e-02,-2.56842e-03,-1.03312e-01,-4.03660e-02,2.59616e-02,-1.78000e-01,-4.91167e-02,
1.72797e-01,
1.61020e-01,
1.87285e-01,
1.90837e-01,
-1.53025e-01,
-1.58126e-01,
1.71146e-01,
1.96220e-01,
-1.55863e-01,
