// Neural Network File Format by Kyle Julian, Stanford 2016
7,4,9,45,
4,45,45,45,45,45,45,9,
0,
-8000.0,-100.0,-100.0,0.0,
8000.0,100.0,100.0,40.0,
0.0,0.0,0.0,20.0,-0.432599379632,
16000.0,200.0,200.0,40.0,3.102300001,
-3.73011e-01,-1.16891e+00,1.16852e-02,-1.07354e-03,
-1.14851e+00,8.82046e-01,-1.88272e-02,-6.64723e-02,
-2.07097e+00,-3.32572e-01,3.56419e-01,7.90589e-02,
-5.25748e+00,-2.29596e-01,1.03342e-01,5.38419e-02,
-1.45747e-01,7.21238e-01,-3.15525e-02,-4.47936e-03,
-4.68080e-01,-1.69525e-01,-2.08492e-01,-1.33469e-02,
-1.12937e-01,4.65076e-01,1.58674e-01,1.47890e-02,
-6.07158e-02,8.65031e-01,-1.37602e-02,6.81175e-03,
5.40591e-01,-5.03430e-02,1.17603e-01,1.53040e-01,
6.05394e-02,-1.17652e+00,-1.03366e-02,1.96268e-04,
3.04424e+00,-4.43043e-01,4.88887e-01,3.49617e-02,
1.61191e+00,-1.65162e-01,4.87881e-02,-1.86958e-02,
-6.59885e-01,-1.35740e-01,1.44383e-01,-8.77107e-01,
-1.85040e-01,1.92334e-02,-1.84539e-01,-7.40369e-03,
5.84080e-02,-1.34884e-02,-2.12426e-02,1.25647e-02,
-1.88219e-01,2.76288e-02,-1.80180e-02,-6.09109e-01,
2.40199e-02,-9.63744e-01,-3.87717e-03,-1.36757e-03,
9.36321e-02,1.36122e-02,-2.49598e-01,1.15096e-01,
-2.05687e+00,-1.22754e-02,4.02256e-02,1.81825e-01,
1.78508e+00,1.46881e-01,-1.92360e-01,8.74278e-02,
-8.47170e-01,-3.00985e-01,5.17704e-02,1.94519e-01,
-5.07864e-01,-8.97960e-01,-1.90829e-01,3.77360e-02,
3.28374e-03,6.61086e-01,-6.66016e-01,4.41867e-03,
-1.04817e+00,-4.61348e-01,5.54690e-01,2.87580e-01,
5.59590e-01,-1.02862e-01,8.76663e-02,-6.93102e-01,
-1.25636e+00,-1.79972e-01,1.78994e-01,-8.31876e-01,
-1.19402e-02,-7.31049e-01,6.97558e-01,-1.47140e-03,
8.91523e-01,-1.34760e-01,1.89729e-02,1.25109e-01,
-4.21725e+00,-1.39506e-02,1.00232e-02,1.79917e-03,
-2.15216e+00,1.93082e-02,-1.40095e-02,-3.66460e-05,
2.90385e+00,-2.12934e-01,2.25115e-01,-5.80445e-02,
-2.40141e+00,-1.51329e-01,1.33842e-01,-7.41959e-01,
-3.72974e+00,-1.16622e-01,9.92348e-02,-5.72572e-01,
2.53789e+00,-1.92239e-01,1.46497e-01,-6.40126e-01,
-1.21619e+01,-1.22410e-01,7.32362e-02,-5.35994e-02,
-3.42985e+00,2.73534e-01,-3.62272e-01,8.46121e-02,
-1.18390e+00,1.01153e-01,-2.16636e-01,2.22088e-01,
-1.76105e-02,-6.43062e-01,6.43762e-01,8.21513e-04,
-8.57686e-01,1.03082e-01,-1.73484e-01,2.15978e-01,
3.81240e-01,8.35712e-02,-8.65366e-02,-9.00024e-01,
-4.61260e-01,1.46695e-01,1.15616e-01,2.54885e-02,
1.27654e-02,-1.43694e+00,6.78190e-03,2.40419e-03,
-1.37881e+00,8.24318e-02,-2.57784e-01,-7.38007e-03,
-4.67093e+00,2.06034e-01,-8.10571e-03,1.63668e-02,
1.48883e+00,-5.70716e-03,-5.80651e-02,-8.41576e-01,
-1.41043e-01,
-4.11089e-01,
-1.94486e-01,
2.26956e-01,
-1.29442e-01,
-7.82975e-02,
-6.79228e-02,
-3.88785e-01,
2.56389e-03,
-5.38569e-01,
1.08405e-01,
-7.98106e-02,
-4.30423e-01,
-1.17222e-02,
-5.64916e-02,
-1.31653e-01,
2.15822e-01,
-6.29763e-02,
-1.82252e-02,
9.09378e-02,
-2.20802e-01,
-4.34519e-01,
-1.06523e-01,
1.57329e-01,
-6.00179e-02,
-3.86551e-01,
-1.67327e-01,
3.56668e-02,
1.85310e-01,
9.61949e-02,
4.68013e-02,
-2.94599e-01,
-1.76057e-01,
-1.85597e-01,
1.33726e-01,
8.87076e-02,
3.30691e-03,
-1.02958e-01,
6.38006e-02,
-4.26822e-01,
-1.49617e-01,
1.94352e-01,
2.27730e-03,
-3.14827e-02,
-3.28883e-01,
-1.93031e-01,-4.13826e-01,1.52802e+00,1.55780e-01,-1.70431e-01,-2.96637e-01,2.96014e-01,-3.11078e-01,1.76437e-01,-4.28252e-01,2.75026e-01,2.96711e-02,-1.30132e+00,-4.58090e-01,2.53696e-01,1.35856e-01,-6.83351e-02,2.58955e-02,-2.90850e-01,3.84670e-01,-6.90999e-01,7.10782e-02,-8.80247e-02,-5.04284e-01,2.19914e-01,-1.29664e+00,-2.32483e-01,4.36265e-01,-5.09592e-01,-3.28111e-01,5.72540e-01,1.33903e-01,3.40459e-01,3.69893e-01,3.99239e-01,1.99916e-01,-1.37893e-02,2.51876e-01,2.70230e-01,2.46586e+00,-1.04294e+00,2.13398e-01,-3.36090e-01,2.92818e-01,9.92317e-02,
-1.34106e-01,-1.08809e+00,9.12643e-01,-7.95441e-01,3.35303e-02,-7.47877e-01,-2.06362e-01,1.36204e+00,5.89221e-01,-4.81696e+00,-5.94055e-01,3.89122e-01,-1.89285e+00,8.42296e-03,1.27927e-01,-1.41786e-01,5.43388e-01,-2.91483e-01,6.05152e-01,7.71314e-02,-7.10159e-01,-6.22146e-01,6.33890e-02,5.98081e-02,1.37399e-02,-7.91898e-02,-2.44967e-01,-2.86535e-01,1.88749e-01,2.70529e-01,1.10620e-01,-2.99013e-01,-1.40410e-01,3.86282e-01,-9.22853e-02,-1.98728e-01,-3.53969e-01,6.70968e-01,2.68619e-01,1.14942e-01,4.60190e-01,2.51610e-01,2.00081e-01,-7.98009e-01,-1.63963e-01,
1.37070e-01,5.52231e-01,-4.18281e-01,3.24612e-01,1.36259e-01,1.13354e+00,-4.80461e-02,1.99901e+00,-4.66689e-01,2.41344e-01,3.80314e-01,-9.87184e-01,4.62404e-01,2.16151e-01,4.41397e-02,2.46654e-01,-2.49015e-01,1.37963e+00,-9.57346e-01,3.32317e-01,-1.37346e+00,2.09733e-01,6.10314e-01,-6.55150e-02,1.44959e-01,3.71527e-01,-4.65710e-01,1.45833e-01,-7.30335e-03,-1.09827e-01,-3.63786e-03,5.76632e-01,-2.37641e-01,6.05295e-01,2.16936e-01,3.57080e-01,2.42393e-01,2.34966e-01,5.88911e-02,4.19538e-02,-1.23494e+00,-1.16809e-01,-2.76276e-01,-2.08807e-01,-3.87194e-01,
2.30878e-01,-7.42906e-01,-3.86947e-01,3.08306e-01,-2.80478e-02,-1.49355e-01,1.21233e-01,-1.42663e+00,-8.01439e-01,-8.39604e-01,-5.18605e-01,-2.40101e+00,1.27998e+00,9.63257e-03,-5.11472e-04,3.19888e-01,-1.05702e-01,1.25139e+00,-2.02470e-01,-3.46083e-01,2.53426e-01,4.90269e-01,-1.37173e-01,-4.42864e-01,4.90415e-01,7.71631e-01,-1.37398e-01,-6.45929e-01,5.73197e-01,3.79681e-01,-6.32497e-01,7.79364e-01,1.23630e-01,-1.88813e-01,-6.42031e-02,5.98418e-02,-7.91972e-02,-4.65922e-01,-4.29410e-01,-2.96762e-01,2.01935e-01,4.68797e-02,-4.24109e-02,-4.87079e-01,-7.20230e-01,
-7.37950e-01,-2.77730e-01,-5.32808e-01,-4.02879e-01,1.97145e-01,5.01406e-01,-1.94489e-01,-3.38070e+00,1.12056e-01,1.28182e+00,-7.15604e-01,2.30770e+00,5.63968e-01,1.28811e-02,-1.09686e-01,4.40928e-01,2.23638e-01,-4.00467e-02,-5.38530e-02,-1.05381e-01,1.21255e-01,-2.76221e-01,-5.65591e-01,3.46772e-01,3.31556e-01,4.92993e-01,5.62785e-01,2.74435e-01,-2.72372e-01,-1.39834e-01,-5.35734e-01,6.30976e-02,-7.40436e-02,1.24779e-02,4.10477e-02,6.68716e-02,-1.23064e-01,3.93319e-01,1.23260e-01,-9.63093e-01,-1.79288e-02,-4.62127e-02,6.01679e-01,1.10793e-01,1.78829e-02,
-3.26228e-02,-5.31885e-01,-1.75951e-01,1.64339e-01,2.95173e-01,-6.84245e-01,3.78583e-01,-6.45487e+00,-1.30054e-02,5.14490e-01,-6.17420e-02,1.68463e+00,1.23981e+00,-7.22040e-01,-2.09999e-01,-7.47121e-02,3.11816e-01,-8.09161e-01,-4.62315e-01,3.89737e-01,1.63982e-02,-1.36868e+00,-9.41395e-01,-1.12159e-01,3.45050e-02,8.46198e-01,1.01730e+00,-1.78303e-01,-7.53317e-01,-3.37297e-01,-7.35746e-02,3.68542e-01,8.83126e-02,-5.26551e-02,2.80601e-01,6.01623e-01,7.82453e-01,-1.14769e+00,2.07205e-01,1.37718e-01,-9.97028e-02,4.35990e-02,2.38013e-01,-3.09619e-01,3.10993e-01,
8.75497e-02,-3.83445e-01,-1.30911e-02,-1.55240e-01,8.15416e-01,3.92446e-01,7.01364e-02,1.56568e+00,1.02867e+00,1.26440e+00,-2.56128e-01,-9.86663e-01,1.45235e+00,1.80876e-01,1.37902e-01,1.42048e-01,-4.55124e-01,1.59894e-01,-2.06518e-02,4.29776e-01,-1.05531e-01,4.42513e-01,-4.70956e-01,7.18330e-01,7.29017e-02,3.47872e-01,-4.02499e-01,-3.39373e-01,-7.17064e-02,-2.81066e-02,1.29997e-01,6.38469e-02,-2.45651e-01,4.97290e-01,2.68867e-01,-7.59459e-02,-6.92509e-01,-1.00822e+00,3.60552e-02,5.18595e-01,-4.32301e-02,2.53235e-01,2.83700e-01,3.27621e-02,4.45938e-01,
-5.99800e-01,1.11339e+00,1.36902e-01,8.63099e-02,4.94672e-01,-8.33203e-02,4.27673e-01,4.93249e+00,1.01640e+00,1.17938e+00,1.99801e-01,2.01445e-01,-4.51865e-01,-1.28323e-01,3.05363e-01,5.73178e-01,5.06463e-01,6.18937e-01,2.04294e-01,-3.72113e-01,-5.01147e-01,1.67275e-01,1.65654e-01,2.09858e-01,2.04509e-01,-5.34649e-01,2.45708e-01,-5.95132e-01,-1.27722e-01,-1.15825e-01,3.70806e-01,-1.49756e-02,5.03315e-02,4.79591e-01,-2.62518e-01,6.71090e-02,-6.57047e-01,5.60954e-02,9.47287e-02,5.88779e-01,5.36921e-01,2.92164e-01,3.33217e-01,3.26092e-01,1.28277e+00,
-1.17177e-01,2.55232e-02,7.41320e-01,-9.25792e-02,-2.29106e-01,-1.28204e-01,-1.11780e-01,-3.29062e+00,-7.82008e-01,4.27414e+00,-5.78428e-01,3.54057e-01,-3.00558e-01,2.35981e-01,2.13005e-01,2.50335e-01,-1.91372e-01,-3.63070e-01,-4.56073e-03,1.90574e-01,1.82433e-01,8.92056e-01,6.38194e-01,8.11882e-01,2.32934e-01,-2.93079e-01,-5.85137e-01,-1.32087e-01,7.98721e-02,1.69774e-01,-4.63688e-01,1.43425e-02,5.94150e-01,1.77886e-01,-4.07832e-01,-8.90644e-01,1.88079e-01,1.24655e-01,-5.08110e-01,-1.66519e-01,-2.38609e-02,2.83984e-01,-4.72503e-01,9.38216e-01,-1.29244e+00,
-1.93300e-01,2.90952e-01,6.94053e-01,5.36625e-02,2.80873e-01,-4.69022e-01,-3.00815e-01,5.30665e-01,-4.64550e-02,-9.53453e-01,-1.91468e-01,-5.10754e-01,1.17154e+00,-3.89512e-01,1.67335e-01,-1.46478e-01,8.56327e-02,2.05861e-01,1.38664e-01,1.91158e-01,-4.78908e-01,-3.43515e-02,2.12517e-01,-6.08809e-01,-3.19991e-01,-4.85163e-01,2.85957e-01,-2.80603e-02,3.92692e-02,1.43568e-01,-8.45033e-03,-5.59886e-01,-7.91876e-01,-8.26186e-01,-9.10705e-02,1.64748e-01,2.82922e-01,2.95387e-01,5.39776e-01,6.03607e-01,4.14494e-01,2.19733e-01,-1.91123e-01,5.65364e-01,-1.40541e+00,
1.08615e-01,-3.96748e-01,-2.59101e-01,2.17014e-02,-2.26565e-01,-8.70647e-01,-9.09263e-02,-1.74192e-01,2.45074e-01,1.52613e+00,-2.05817e-01,-3.51644e-01,8.70859e-01,1.33671e-01,4.26377e-01,3.70786e-01,3.64853e-01,-1.08262e+00,-2.36739e-02,3.55932e-01,5.07176e-02,3.65804e-01,6.91186e-01,-4.45513e-01,1.41099e-01,8.88891e-01,4.73170e-01,1.14179e-01,4.02709e-01,1.46882e-01,5.16999e-02,3.00276e-01,2.32255e-01,5.23333e-02,-4.08418e-02,-1.89353e-02,-2.36097e-01,4.25173e-01,1.97560e-01,-8.31543e-01,-6.43517e-02,-7.54489e-02,5.96110e-01,-5.88112e-02,1.13855e-01,
-1.88025e-01,-1.68813e-01,2.71704e-01,-5.98564e-02,-3.45932e-01,2.86673e-01,3.22860e-01,-4.33993e-01,5.10594e-01,-1.11315e+00,-3.64457e-01,1.34871e+00,2.59561e+00,1.73545e-01,1.69814e-02,1.59321e-01,1.80167e-02,-4.30304e-03,-5.50067e-01,2.13494e-01,1.29579e-01,4.31548e-01,-6.16134e-02,-2.58544e-01,8.75834e-02,1.87724e+00,-2.32306e-01,6.69191e-01,-3.03971e-01,-1.53447e-01,-4.38912e-01,1.15349e+00,4.88345e-01,-2.17387e-01,2.98806e-01,6.68691e-01,-7.61552e-01,-6.21988e-01,-1.94134e-01,-6.75300e-01,-7.96124e-02,7.43918e-02,5.29821e-02,-5.53818e-01,-4.97412e-01,
2.54066e-01,-2.53600e-01,4.17033e-02,2.48939e-01,6.23017e-01,9.40501e-02,3.95261e-01,1.15533e-01,-2.03492e-01,-3.75303e-01,-1.77708e-01,3.70388e-01,1.37249e+00,-4.29275e-01,-5.41776e-02,3.36829e-01,-4.06315e-01,3.49748e-01,5.35568e-02,3.09692e-01,3.60996e-01,1.69338e+00,-1.66671e-01,-5.68944e-01,5.31811e-01,6.25087e-01,-4.05180e-01,-1.66119e-01,5.42692e-02,-3.94246e-02,-2.63985e-01,1.15048e-01,3.61066e-01,5.01343e-01,2.96422e-01,1.32621e-02,1.96708e-01,-1.08472e-01,-4.22222e-01,8.92221e-01,2.04223e-02,-1.29782e-02,-7.64034e-01,3.11436e-01,4.86332e-01,
2.47518e-01,9.18753e-02,-4.16882e-01,5.08056e-01,-9.44463e-01,5.12690e-01,-4.65877e-01,-3.34405e+00,-3.50719e-01,-4.58610e+00,2.90156e-01,2.41437e-01,-2.85781e-01,-3.50544e-01,1.12490e-01,-3.02778e-01,1.10949e+00,6.60805e-02,-1.31846e-01,-5.53142e-01,-7.66645e-01,5.13766e-01,7.14712e-01,6.88986e-01,2.57059e-02,8.78182e-02,1.31254e-01,-9.76057e-02,4.24736e-01,2.15686e-01,2.51909e-01,-6.71303e-01,-3.74961e-01,-3.18460e-02,4.79971e-02,-3.13060e-01,8.31364e-03,1.65099e+00,-1.29468e-01,-5.31610e-03,-6.16841e-01,1.00331e+00,-6.19487e-01,-2.24403e-01,-1.65944e-01,
1.11906e-01,1.80870e+00,-2.98683e+00,-2.40569e-02,-1.00974e-01,-3.33481e-01,-3.66318e-02,-2.18908e+00,1.37137e-01,-4.92944e+00,1.51868e-01,-4.14734e-01,1.33974e+00,-9.30990e-01,2.97238e-01,1.55853e-01,7.29341e-03,2.92020e-01,-1.15694e+00,-1.87035e-01,1.69522e-01,-1.38705e+00,-5.41192e-01,-1.42381e+00,4.50226e-02,1.11241e+00,5.31023e-01,6.69470e-01,4.16129e-01,2.23352e-01,5.22014e-01,-3.38895e-01,-4.58627e-01,-4.45658e-01,-1.29100e-01,-1.22229e-01,-2.34088e+00,-4.12824e-01,-2.45668e-01,-1.10532e+00,1.35377e-01,1.95431e-01,-1.25990e-01,3.29244e-01,1.29963e-01,
1.91415e+00,-3.99467e-02,-7.29121e-02,8.01128e-02,1.44368e+00,-3.29493e-01,1.33379e+00,5.49212e+00,2.69837e-01,6.28386e+00,-2.15287e-02,-5.55859e-01,-1.21664e-01,-1.41070e-01,4.11097e-01,1.26817e-01,4.17030e-01,-5.53715e-01,-2.29692e-02,1.70236e-01,-4.74295e-02,9.92503e-02,1.97218e-01,-8.60977e-02,-1.57392e-01,-2.39838e-02,2.55709e-01,3.86977e-01,-3.36140e-02,-3.73353e-02,2.61236e-01,-3.05416e-02,-1.51565e-02,-5.94972e-02,-2.59175e-02,-1.47219e-02,-1.32143e-03,-2.54548e-01,-1.42019e-01,-7.82317e-01,-3.98432e-01,4.24464e-01,2.07158e-01,5.90245e-03,-3.69837e-02,
-4.00984e-02,3.28362e-01,-1.28172e+00,3.70489e-02,1.62789e-01,1.38677e-01,-2.38870e-01,-1.44529e+00,5.28056e-01,2.38243e+00,-1.46606e-01,-3.47068e+00,2.88442e+00,3.14101e-01,4.30467e-03,1.20046e-01,-1.61232e-02,5.32361e-01,7.53496e-02,-4.91542e-01,-1.35213e-01,4.93321e-01,2.98137e-01,-4.95142e-02,7.02567e-02,1.57550e+00,-4.99894e-01,4.77537e-02,1.05680e-01,1.64748e-01,-2.90704e-01,2.56103e-01,1.20534e-01,-6.14224e-01,5.34225e-01,3.84846e-01,-3.29473e-01,-3.65764e-01,3.51504e-02,2.30286e+00,-9.91075e-03,7.30944e-02,5.51714e-02,4.13134e-01,2.27401e-01,
-3.26447e-02,-3.84141e-02,-5.43124e-02,-2.93075e-02,5.62515e-03,2.08172e-02,-3.00131e-02,-5.83195e-03,3.94952e-03,-9.22294e-03,-4.25019e-02,3.25364e-02,9.34913e-03,-1.30889e-02,-6.07940e-03,7.35727e-03,-5.22008e-03,1.91742e-02,2.29136e-02,-3.37849e-02,-9.42728e-03,3.04717e-02,-1.12222e-02,-3.06101e-02,1.64855e-02,-2.28640e-03,-1.53347e-02,-4.09326e-02,1.02279e-02,-2.75696e-02,2.45351e-02,3.63076e-02,-4.33044e-02,1.24960e-02,-1.87051e-02,-1.90648e-02,-3.35373e-02,-2.41535e-02,-1.79535e-03,-1.56927e-02,-2.74231e-02,-3.03198e-02,-1.99298e-03,1.09660e-02,1.24667e-02,
-1.57257e-01,-2.36904e-03,9.91489e-02,-2.52498e-01,3.60385e-01,2.31586e-02,-2.34964e-01,4.13796e-01,5.00024e-01,-1.28916e+01,-9.60940e-01,1.57050e+00,3.10682e+00,5.93635e-01,2.65564e-01,2.96675e-01,9.77775e-02,1.05468e-01,-5.69560e-01,1.24945e-01,2.52875e-01,1.13947e+00,-1.67795e-01,5.60104e-01,8.18745e-02,1.81241e+00,6.58155e+00,8.07373e-01,-2.75881e-01,-2.22183e-01,-5.65184e-01,1.02668e+00,1.67309e-01,-3.87497e-02,2.52819e-01,1.91141e-01,-7.60600e-01,-9.08590e+00,1.45129e-01,-1.16219e-01,3.83375e-01,-2.88339e-02,-3.62355e-02,3.05868e-01,6.51433e-01,
-3.67339e-01,6.66318e-02,1.20622e-01,-2.55926e-02,-7.44057e-02,-2.15600e-01,-4.77751e-01,6.83777e-01,-1.58400e-01,3.97120e+00,2.95141e-01,-4.57457e+00,-2.30275e-01,-3.12851e-01,4.02441e-02,-1.95606e-01,-1.22473e-01,9.31287e-01,-2.83692e-01,-6.72622e-01,-5.57372e-01,3.57854e-01,5.07100e-01,2.08851e-01,1.25631e-01,5.00327e-02,-4.36929e-01,-3.17624e-01,-7.30908e-02,-2.39218e-01,-2.48496e-01,-9.01776e-01,-5.67623e-01,-4.43765e-01,5.17020e-01,-1.13126e-01,-1.96350e-01,1.15178e-01,2.42458e-01,1.66298e+00,-7.74122e-02,-1.01261e-01,-2.65534e-01,4.80544e-01,-1.24750e-02,
2.19058e+00,-6.25878e-01,1.84262e-01,1.29993e-01,-1.31925e+00,3.20979e-01,4.02154e-01,2.20054e+00,-1.71837e-01,-2.23971e+00,5.69736e-02,-8.61804e-02,-1.61759e+00,4.36469e-01,2.04016e-02,-1.43244e-01,1.46920e+00,5.91506e-01,-1.12441e-01,-6.36089e-02,3.13742e-01,-6.80865e-01,-1.39528e-02,-2.90933e-02,5.02241e-02,-6.93437e-01,6.38033e-01,-2.33656e-02,9.74602e-02,1.25334e-01,7.03633e-02,-2.08346e-01,4.74559e-02,3.02785e-02,2.84133e-02,2.03618e-01,-1.75806e-01,-2.19007e-02,2.43233e-01,1.16707e+00,4.21407e-02,1.65366e+00,3.33676e-02,2.68007e-01,4.41241e-02,
1.95780e-01,8.03263e-02,-3.92748e-01,3.95850e-02,-1.33304e-01,-9.36757e-01,1.32670e-01,2.20752e+00,2.01916e-02,-2.61209e+00,-6.67156e-01,-1.24684e+00,2.24802e+00,1.30136e-01,5.70016e-01,-4.31874e-01,5.41106e-01,1.00950e-01,2.24283e-01,8.26115e-01,4.36690e-01,-3.21973e+00,-2.75596e-01,-1.35143e-01,2.67865e-02,5.26872e-01,2.67562e-02,-1.26846e-01,-1.64820e-01,-8.27186e-02,4.35594e-01,1.12140e-01,-1.65539e-01,4.02080e-01,1.00179e-01,-1.67253e-01,4.04500e-02,-3.75215e-01,-1.89551e-01,4.86995e-01,-6.42867e-02,-3.80849e-02,-1.75799e-01,4.43811e-01,1.90773e-01,
-2.91253e-02,-4.46380e-01,-9.64647e-03,2.62002e-02,-1.31471e-01,-2.40534e-01,1.71098e-01,8.21698e-01,1.28813e-01,-3.23212e+00,-5.06232e-01,2.23799e+00,2.84504e-01,-2.57845e-01,-7.42282e-03,2.39012e-01,1.86756e-01,-2.24590e-02,-3.91318e-01,-1.91021e-01,7.77085e-02,-6.08178e-01,-7.95636e-02,-7.69155e-01,4.47809e-01,5.59054e-01,2.66631e-01,-3.11006e-01,3.27631e-01,1.52672e-01,-3.91782e-01,-1.46104e-01,4.40086e-02,-4.45503e-02,4.43637e-03,-1.61888e-01,2.17147e-01,2.06641e-01,-2.40746e-01,-5.16295e-01,1.89306e-01,-9.78757e-03,-6.16091e-02,7.94557e-02,-3.56421e-01,
2.44361e-01,1.09642e-01,-1.10548e+00,2.16758e-01,4.71575e-01,-1.67938e-01,-4.87694e-01,-9.11863e-01,2.48603e+00,2.51964e-01,-5.77023e-01,-2.23210e+00,2.28629e+00,2.75747e-01,3.77230e-02,4.30274e-01,-1.22785e-01,3.52582e-01,-3.57661e-02,-1.15604e+00,-8.56878e-01,1.58295e+00,6.07023e-02,-2.56523e-01,7.22526e-01,6.78054e-01,-2.45141e-01,-6.54019e-01,3.36097e-01,1.67281e-01,-5.53708e-01,-3.24273e-01,1.42211e-01,2.71829e-01,2.80229e-01,2.44802e-02,2.76227e-01,8.72385e-03,-3.82401e-01,1.26971e-01,3.50242e-01,-5.26312e-02,-4.47493e-01,-2.73439e-01,6.36313e-01,
-2.80817e-01,-6.56092e-01,-1.34650e-01,-3.02868e-02,5.91942e-02,1.84527e-01,-5.10048e-01,-2.26745e+00,4.46886e-01,-5.74851e-01,-9.53638e-01,-1.08286e+00,1.09904e+00,5.81688e-02,1.38384e-01,2.40670e-01,2.94506e-01,6.52046e-01,-3.14876e-03,1.29378e-01,8.10443e-01,3.76171e-01,-1.30066e-01,-2.07855e-01,1.23539e-01,1.05618e+00,-3.42357e-02,-4.59097e-01,3.90986e-03,1.69828e-02,-8.87929e-01,1.96279e-01,4.09636e-01,-1.18744e+00,-8.40123e-02,3.15458e-01,-5.37546e-01,3.54478e-01,-1.21353e-01,-7.73732e-01,1.58372e-01,4.64127e-02,1.47611e-01,-2.27186e-01,-5.30838e-01,
5.42875e-02,2.09240e-01,-9.73907e-01,1.68732e-01,-5.67979e-01,-3.74098e-01,1.70065e-01,-5.50963e-01,1.69424e-01,-1.59618e+01,5.65910e-01,9.58263e-02,2.16242e+00,2.61976e-01,1.73983e-02,-1.68030e-01,4.42622e-01,3.26981e-01,2.55507e-01,3.85525e-02,-4.97335e-01,-6.42654e-01,-1.41796e-01,-1.30835e-01,4.54223e-02,-3.05131e+00,-4.28952e+00,3.13720e-01,-5.79095e-01,-2.11104e-01,4.16281e-01,-1.28349e+00,-9.40599e-01,6.21933e-01,-2.49476e-03,6.20222e-01,-7.79210e-01,-3.04066e+00,4.74374e-02,3.52757e-01,6.56508e-01,-1.76117e-01,1.16323e-01,1.11632e-01,-5.26465e-01,
-1.00993e+00,6.30239e-01,-4.92876e-01,1.29430e-01,-4.07974e-02,-1.34489e+00,2.29022e-01,4.90797e-01,-4.99251e-03,-3.10638e+00,-3.68779e-01,1.30077e-01,1.60166e-01,7.80034e-01,4.27940e-01,4.59325e-02,-5.47031e-01,3.65552e-01,1.62668e-01,1.42429e-01,-9.63201e-02,4.25018e-01,-4.29006e-01,3.14139e-01,-5.82317e-02,-8.00167e-02,-2.16449e+01,-3.95429e-01,-4.36396e-01,-1.93137e-01,3.95582e-01,-1.02522e-01,-3.76238e-02,3.73982e-01,-1.84454e-01,1.29522e-01,-6.66144e-01,5.30226e-01,1.31336e-01,-3.95747e+00,4.17574e-01,4.02385e-01,2.00005e-01,1.06393e+00,-1.61282e-01,
3.85357e-02,1.70935e-02,-5.20027e-02,-5.56906e-02,-2.75483e-02,-1.36784e-02,-2.02628e-03,-1.88804e-02,2.84547e-02,1.71383e-02,-4.82304e-02,3.76251e-02,-3.78925e-02,2.75668e-02,2.67617e-02,7.37583e-03,-5.51676e-02,3.46120e-02,1.77128e-02,-5.20114e-02,-1.39958e-02,2.69980e-02,-3.71692e-02,1.60916e-02,1.67951e-02,-4.45078e-02,-4.78112e-03,-5.79807e-02,-1.24833e-02,-5.38327e-02,-9.17957e-04,-4.08004e-02,4.35094e-02,-4.28430e-02,1.54291e-02,2.77544e-02,-6.51902e-03,3.32291e-02,-2.37418e-02,-3.09136e-02,2.72745e-02,2.55429e-02,-8.74361e-03,-5.30467e-03,-5.01831e-03,
-1.94838e-02,2.74805e-01,3.20635e-01,-1.05977e-01,2.56765e-02,5.43599e-01,-2.25022e-02,-2.15318e+00,3.74355e-01,5.58574e-01,-2.70038e-01,-9.26657e-01,2.32797e+00,-1.02277e-01,-1.72878e-01,2.17003e-01,-1.59534e-02,-1.32751e+00,1.69173e-01,2.51209e-01,-7.92886e-01,5.76287e-01,-6.30164e-01,-2.93541e-01,-1.41656e-01,2.49053e-01,6.00250e-02,6.67890e-01,2.24616e-01,-5.38577e-02,-2.91907e-01,3.31269e-01,3.02356e-01,4.08965e-01,-3.68853e-01,-2.25719e-01,5.47696e-01,-3.43334e-01,9.61445e-02,-3.49086e-01,-2.39184e-02,1.57993e-01,-3.78627e-01,4.32662e-01,1.06213e+00,
9.31360e-02,2.44739e-01,1.31074e-01,-1.61685e-01,-2.08246e-01,4.41809e-01,5.31166e-01,-1.14091e+00,-1.27028e+00,-2.30479e+00,-2.33354e-02,-3.72831e-01,-6.81240e-01,1.70646e-01,2.23676e-01,8.37852e-01,-1.55060e-01,-1.90381e-01,1.59213e+00,-2.02256e-01,-8.56767e-02,-3.34262e-01,-5.53787e-02,5.73041e-01,6.25905e-01,-1.09785e+00,1.45716e-01,-3.71493e-01,2.76093e-02,-1.71385e-01,5.54194e-01,-4.91747e-01,-4.11888e-01,2.86447e-01,-2.96214e-01,-9.50878e-01,-1.69725e-02,1.56742e-01,-1.17726e+00,9.44305e-01,1.06065e-01,9.77340e-02,-8.00011e-02,-8.14800e-02,1.51256e-01,
5.60271e-01,4.76703e-01,-2.24997e-01,9.78479e-02,-3.17182e-01,-4.12202e-01,-6.78420e-01,2.65538e+00,-2.16099e-01,-6.21023e+00,1.60452e-01,-2.59053e-01,-6.50840e-01,-3.64451e-01,2.60759e-02,1.99577e-01,1.68901e+00,4.37945e-01,-7.93541e-02,-2.03332e-01,-4.57210e-01,-6.67918e-01,-5.47871e-02,1.84557e-01,1.46390e-01,-4.01984e-01,-1.20022e+00,-2.14134e-01,5.09825e-02,2.48909e-02,7.97526e-02,-2.34058e-02,1.11670e-01,1.55133e-01,1.10137e-01,6.60891e-02,-2.25380e-02,-1.01579e+00,8.29682e-02,2.87300e-01,6.01688e-02,2.33042e+00,-3.26775e-01,-3.91025e-01,4.38233e-01,
-2.02864e-01,8.32054e-01,-3.59425e-01,-8.10677e-01,1.24107e-01,5.69044e-01,1.48840e-01,2.12797e+00,-8.74552e-02,-5.04729e-01,1.88431e-01,-1.94487e-01,8.74327e-01,-1.72829e-01,1.44774e-02,4.91118e-03,5.17186e-01,1.57188e-01,-3.79207e-01,3.18006e-01,-6.19657e-01,2.73872e-01,1.07447e-01,-4.44676e-02,1.03608e-01,5.69514e-01,2.25211e-01,2.21804e-02,-4.71097e-01,-1.47163e-01,1.70601e-01,4.52980e-01,-3.17815e-01,-2.23122e-02,-2.85298e+00,-2.80022e-01,-1.72830e-01,4.64816e-01,-6.66779e-02,-5.68348e-01,1.65917e-01,2.49774e-02,-2.51674e-01,-1.43272e+00,1.68326e-01,
-5.37260e-03,-6.94305e-02,-2.63646e-02,2.55182e-02,-2.46117e-02,2.65802e-02,-2.71383e-02,-1.89599e-02,-1.01930e-02,2.37684e-02,4.25772e-02,1.32466e-02,3.98580e-02,-5.49678e-02,-2.78098e-02,9.65704e-03,8.84685e-03,8.30267e-03,-4.38402e-03,-5.11383e-03,1.94125e-02,8.46592e-03,1.71522e-02,1.82319e-02,-5.87765e-03,3.51529e-02,-1.79657e-02,-4.13069e-03,-2.31068e-02,-5.29068e-02,-2.94677e-02,1.42328e-02,-8.00035e-03,-2.63976e-02,-1.30721e-02,-4.39277e-02,-1.29698e-02,-1.29556e-02,-6.84753e-02,6.35417e-03,5.77222e-04,-3.71656e-02,-2.72239e-02,-1.33867e-03,-2.87899e-02,
2.10398e-01,-2.11937e-01,-4.07704e-01,-6.57140e-02,1.13058e-01,-2.78691e-01,-1.36096e-01,-1.37949e+00,3.11302e-01,3.35628e+00,7.47804e-01,-6.02863e-01,-1.55650e+00,1.01800e-01,8.54696e-03,3.70309e-01,-7.50480e-02,6.26025e-01,-4.16318e-02,2.81594e-01,-1.07662e+00,4.51467e-01,6.67316e-01,-1.99714e-01,7.01851e-01,4.20363e-02,-4.57368e-01,4.39693e-03,3.54454e-01,3.88727e-01,9.96483e-02,-1.07719e+00,-1.25255e-01,1.02491e+00,-8.32901e-01,-3.50633e-01,6.83524e-02,4.05891e-01,-7.15958e-02,2.02452e+00,1.58690e-01,-6.70946e-02,-5.11269e-02,-9.31456e-01,9.67007e-01,
1.23556e+00,-5.38931e-01,1.93658e-01,-8.93924e-02,-6.65436e-01,7.97984e-01,6.78703e-01,4.74865e+00,1.28977e-01,-8.00624e-01,-1.51332e-02,-1.15739e-01,2.20099e+00,-7.30275e-03,4.37898e-02,5.92791e-02,1.11784e+00,5.87075e-01,1.14665e-01,-2.80080e-02,-6.09837e-02,-1.57705e-01,5.70310e-01,-4.51017e-02,-6.88630e-02,9.51485e-01,3.11822e-01,-5.81054e-02,2.12137e-01,1.30092e-01,2.03114e-01,-4.17117e-01,-2.83229e-01,6.20361e-02,-8.03553e-02,6.63950e-02,4.20864e-02,8.00959e-01,3.09878e-02,9.84177e-01,2.56809e-01,1.85265e+00,-2.72712e-01,4.82888e-01,8.74601e-01,
4.84092e-02,-3.30595e-01,7.84019e-01,-3.71416e-01,-8.08850e-02,-1.73272e-01,-1.00102e-01,-1.59914e-02,3.14132e-01,1.55791e+00,-1.54713e-01,-7.62547e-02,3.96768e-01,-3.07084e-01,-4.88072e-02,9.06983e-01,1.66917e-01,-7.19494e-02,1.16458e+00,1.48547e-01,2.73483e+00,5.06793e-01,-8.58993e-02,-8.48378e-02,8.34645e-01,-1.21403e+00,-4.87254e-01,2.80597e-02,-1.05415e+00,-2.79097e-01,8.16343e-02,-1.64967e-01,4.15141e-02,3.43381e-01,-1.90378e-01,-2.51673e-01,3.69656e-01,1.46507e-01,-2.78022e-01,7.59535e-01,1.87319e-01,2.75767e-02,-4.10923e-01,4.41875e-01,6.28552e-01,
7.19483e-01,3.10458e-01,4.65813e-01,-2.00161e-01,-1.39265e+00,1.09505e+00,-2.22516e+00,-5.91280e-01,1.62830e-01,3.87957e+00,-1.64893e-01,6.79936e-01,-2.10503e+00,6.79124e-01,2.08533e-02,-1.09305e+00,9.72971e-02,-2.73841e-01,7.40221e-02,4.99403e-01,9.77485e-01,1.42019e+00,1.21374e+00,1.32124e-01,-6.40030e-02,-1.71142e+00,5.50478e-01,-5.89068e-01,-3.95164e-01,-4.57045e-01,-7.12185e-02,-8.15035e-01,2.66114e-02,3.53433e-01,-3.28408e-01,4.22317e-01,2.57299e-01,5.90888e-01,4.66303e-01,-4.39780e+00,2.77130e-02,3.96474e-01,6.26185e-01,-4.43836e-01,-1.05924e+00,
-2.49293e-01,3.65936e-01,2.04741e-01,1.85070e-01,1.91480e-01,5.10835e-01,1.71775e-01,1.62435e+00,3.23803e-01,-3.41892e+00,-1.76896e-01,4.73320e-01,-9.87346e-01,-1.85271e-01,1.87496e-01,-9.53387e-02,-9.72594e-02,4.08447e-01,-7.96701e-02,4.40582e-01,-6.82026e-01,-2.53298e+00,1.56961e+00,-2.79182e-02,1.76099e-01,-5.88500e-01,-4.58122e-01,3.63372e-01,1.59893e-01,-4.59484e-02,-1.03823e-01,-3.28578e-01,-2.46053e-01,-3.40328e-01,2.69821e-01,-3.54073e-01,-4.01600e-01,7.42817e-02,-2.29747e-01,8.99965e-01,5.88218e-02,1.42712e-01,-8.01188e-01,2.07364e-01,-4.01240e-01,
2.99491e-01,2.87753e-01,8.67167e-02,-5.98814e-02,6.52972e-01,1.04510e-01,8.88284e-01,3.70477e+00,3.53394e-01,1.54908e+00,-2.21203e-01,-1.95845e+00,1.36449e+00,1.17219e-01,9.91479e-02,2.78738e-01,-2.03284e-01,1.06871e+00,-1.94649e-01,6.22209e-01,-3.95924e-02,-7.68518e-01,4.12297e-02,-2.60446e-01,3.23327e-02,9.39138e-01,-6.19783e-01,-9.64408e-01,1.58072e-01,7.61229e-02,-6.75882e-01,1.31132e+00,5.13776e-01,-3.04672e-01,-1.74807e-01,1.80594e-01,6.28870e-01,-2.50083e-01,3.25506e-01,-7.65582e-01,-1.85804e-02,6.03607e-01,1.92980e-01,5.14421e-02,2.64305e-01,
-1.11078e-01,-3.33872e-01,-2.35945e-01,2.47314e-02,1.96878e-01,1.01512e+00,-1.46450e-01,-2.40261e+00,-1.45601e-01,7.63565e-02,-6.17324e-02,-4.44283e-01,3.32140e-01,-5.13064e-01,3.63374e-02,3.78815e-01,6.57064e-02,4.21351e-01,-1.50899e-01,-1.56066e-01,-2.12977e-01,5.72586e-02,-7.76703e+00,-2.90601e-01,-2.51871e-01,3.99506e-01,1.55498e+00,-8.10727e-02,-4.98724e-01,-2.54051e-01,-1.81220e-01,-4.34059e-02,-4.69079e-03,2.98626e-01,3.59554e-01,3.48445e-01,-4.31791e-02,-9.27573e-01,1.58517e-01,-9.94020e-01,-9.41548e-02,-7.85017e-02,8.63452e-02,2.69814e-02,8.91352e-01,
-1.53516e-01,9.22976e-01,-5.48953e-01,1.29588e-01,-1.51712e-01,2.01657e-02,-1.75505e-02,-1.34261e-01,9.57173e-01,-3.34198e-01,-1.10028e-01,1.29711e-01,-2.89808e+00,-5.24796e-02,-6.13852e-02,6.95484e-01,-4.10877e-02,-3.77141e-01,-6.71891e-01,-2.04082e-01,1.52277e-01,-1.72536e-01,-1.94529e-01,-4.41816e-01,2.81240e-01,1.91620e-01,-3.77652e-02,5.15912e-01,-2.90967e-01,-3.68100e-01,-1.81935e-01,4.92187e-01,4.25994e-01,-1.98328e-01,3.34677e-01,4.96956e-01,3.23262e-01,-1.93658e-01,1.92819e-01,-4.51495e-01,-1.26842e-01,5.51720e-02,-1.40213e-01,-2.65024e-01,-1.02749e+00,
-9.20118e-03,-8.28981e-01,-7.67088e-01,2.18078e-01,-2.91983e-01,-3.95340e-01,-1.49721e-01,2.69513e-01,-9.91992e-01,1.58866e+00,3.35360e-01,2.34663e+00,2.36384e-01,-2.64158e-01,1.77800e-01,-5.48715e-01,-8.37045e-02,-1.00136e+00,3.15035e-01,-2.78432e-01,-6.43025e-01,-9.23772e-01,4.66856e-01,2.97716e-01,-4.32035e-01,-1.94508e-01,1.51609e-01,-3.46613e-01,3.51968e-01,1.74294e-01,7.85230e-01,-8.87371e-01,-5.83272e-01,-8.82097e-01,-1.90497e-01,-3.12178e-02,2.28400e-01,1.80195e-01,-3.10201e-01,-5.76109e+00,-5.78925e-01,2.30984e-01,-3.44137e-01,-3.19003e-01,-2.63389e+00,
-4.87669e-02,-5.30380e-02,-4.33482e-02,-5.23816e-03,-5.14627e-02,2.29981e-02,1.29549e-02,2.51442e-02,-3.27220e-02,-3.14009e-02,1.04067e-03,-3.83917e-02,-6.81642e-02,-2.94113e-02,3.66369e-02,-4.55146e-03,1.35475e-02,6.57187e-03,-5.03885e-02,-4.72445e-02,-1.97255e-02,-2.78903e-02,-7.83003e-03,-2.65139e-02,-4.61181e-02,-5.82688e-03,3.55881e-02,-3.18094e-02,-1.37413e-02,-5.81729e-02,-3.49783e-03,-5.75257e-03,4.23131e-02,9.95504e-03,2.15638e-02,1.06133e-02,-4.99324e-02,1.17721e-02,1.15570e-03,2.36240e-02,-5.01718e-02,-1.67102e-03,-9.44254e-03,-5.12733e-02,3.41858e-03,
-1.60283e-02,-1.06394e-02,-1.35122e+00,8.15756e-02,2.57962e-01,1.99089e-01,1.86724e-01,3.28339e+00,4.30566e-01,-7.60166e-01,-8.81004e-01,3.71008e+00,5.34478e-01,-4.48777e-01,-7.44755e-02,1.05669e-02,-9.69335e-02,7.28530e-01,-2.19981e-01,3.21168e-01,-3.36957e-01,-7.28047e-01,-7.11407e-01,3.78564e-02,-1.69907e-01,1.44862e+00,-7.68015e-01,3.02659e-01,-4.28423e-03,-3.20667e-02,-1.35401e+00,6.63524e-01,2.25685e-02,-6.23560e-01,4.11645e-01,-2.07877e-02,-7.18311e-01,-7.06334e-02,2.13646e-01,-3.25345e+00,-2.15514e-02,1.50574e-01,-2.50754e-01,4.91050e-01,-1.43309e+00,
5.92407e-03,-5.14689e-02,-3.67896e-02,-2.05342e-02,-1.92346e-02,-1.52784e-02,-1.22572e-02,-5.08428e-02,2.56450e-02,1.39852e-02,1.96826e-02,-4.04244e-02,-4.49838e-02,-2.02020e-02,3.98389e-03,-2.69951e-02,-6.66438e-02,1.69293e-02,2.31339e-02,-2.22555e-02,-3.26409e-02,-3.04803e-03,-1.31595e-02,9.02102e-03,3.00283e-02,-1.86077e-02,-4.17034e-02,-3.59996e-02,2.64649e-02,-3.86757e-02,-2.28167e-02,-8.90086e-03,-3.15640e-02,-2.86434e-02,-6.56781e-02,8.92002e-03,2.59660e-02,-5.30017e-02,2.71130e-02,7.82134e-03,2.02478e-02,-5.80152e-02,1.37575e-02,-3.62913e-02,1.03935e-02,
-1.81498e-01,
1.38045e-01,
-1.26438e-01,
2.56912e-02,
1.63079e-01,
4.55540e-02,
-2.79533e-02,
-2.41451e-01,
8.84916e-02,
1.91360e-01,
-1.45564e-02,
1.44002e-01,
-1.49589e-02,
-3.52107e-03,
5.70449e-02,
-5.26188e-01,
-4.40732e-01,
-9.63552e-03,
2.37073e-02,
9.33471e-02,
-1.62444e-02,
-9.33167e-02,
2.06826e-01,
-1.33474e-01,
1.56182e-01,
1.56280e-01,
9.42843e-02,
-9.68013e-03,
1.52797e-02,
1.60331e-01,
8.35517e-02,
5.93195e-01,
-2.70724e-02,
1.97585e-02,
-1.56947e-01,
6.45616e-02,
-8.07871e-01,
-7.87711e-02,
-1.04448e-01,
2.26453e-01,
8.32982e-02,
2.16380e-01,
-1.89152e-02,
1.26120e-01,
-1.94798e-02,
-2.78714e-01,-2.73455e-02,-2.14827e-01,3.23586e-01,1.48358e-01,-2.81942e-01,-2.56116e-01,8.38705e-02,9.12199e-02,6.85935e-01,1.38074e-01,2.98386e-01,4.21163e-02,-4.00150e-01,-1.11141e-01,-6.48351e-02,-2.57955e-02,3.58381e-03,-5.38784e-02,-2.06094e-01,6.02492e-02,-4.56184e-01,7.52038e-01,2.43303e-02,4.33699e-01,1.03835e-02,2.56185e-01,3.85332e-02,-2.91088e-01,-2.15434e-01,2.47006e-01,-1.57817e-01,2.15585e-02,-2.57204e-01,-4.34387e-02,-1.33531e+00,1.94519e-03,9.94757e-02,1.70844e-01,3.29923e-01,2.64472e-01,-5.91628e-01,3.68239e-02,-1.60675e-01,1.67259e-02,
-1.79659e+00,-3.26515e-01,-5.01106e-01,3.53698e-01,-1.29393e-01,5.74323e-01,-2.80915e-01,-3.29392e-03,-6.31564e-01,5.84595e-02,-1.50683e+00,-1.94273e-01,1.52319e-01,-2.28834e-01,-1.19958e-01,1.54607e-01,-1.29414e+00,-9.62167e-03,9.00897e-01,-2.80808e-01,5.40791e-02,-7.95617e-01,1.39964e-01,3.72321e-01,4.62722e-01,2.27952e-01,-7.97799e-02,1.23515e-02,2.93683e-01,-3.42410e-01,2.63618e-01,3.59000e-02,-1.86915e-02,-7.53873e-01,-9.48292e-02,-3.46768e+00,4.14467e-01,-7.82059e-01,-3.36214e-01,-1.52933e-01,1.68007e-01,7.85750e-02,3.70607e-02,1.38112e-01,1.50244e-02,
5.28801e-03,1.04978e-02,-4.62375e-02,-3.78114e-02,-4.79725e-03,-2.40497e-02,3.33926e-02,-2.35916e-02,1.28210e-02,2.19415e-03,-4.03342e-02,-5.15127e-02,-5.68394e-02,-4.35559e-02,3.03815e-02,-3.44944e-02,2.29752e-02,-4.01638e-02,-3.15787e-02,-3.15914e-02,1.32102e-02,-3.02275e-02,3.05469e-02,-1.29566e-02,1.06161e-02,-4.25702e-02,-5.06753e-02,-3.02992e-02,1.71765e-02,-2.58718e-02,-4.08272e-02,1.34237e-02,1.58962e-02,-8.46047e-03,-2.30326e-02,1.12976e-02,-3.34351e-02,-3.14674e-02,2.36141e-02,-4.95712e-02,2.90785e-02,-4.50261e-02,-6.57493e-03,2.02299e-02,-8.01968e-03,
-9.69887e-01,1.90522e-01,6.90636e-02,1.82681e-01,4.26432e-01,-2.54640e-01,-1.35786e-01,-1.21307e-01,7.28098e-01,-9.99163e-02,8.62653e-02,2.57930e-01,2.90586e-02,-3.05017e-01,-1.29834e+00,-1.36473e-01,-1.09698e+00,1.76087e-02,7.44843e-02,-3.52495e-01,-1.71452e-01,4.67329e-01,5.12388e-01,-7.75567e-01,-6.68738e-01,9.97186e-02,-4.20564e-01,-4.34874e-02,1.66773e-01,5.89686e-02,2.23958e-01,-2.66289e-01,-5.13401e-02,-3.84272e-01,9.91868e-02,-6.89944e-01,-1.98511e+00,5.79887e-01,4.51889e-01,1.26439e+00,-2.47397e-01,-2.61523e-01,1.99686e-03,2.15567e-01,-3.69176e-02,
-2.90267e-01,-2.72932e-01,4.17358e-01,4.84523e-02,2.79526e-01,1.36447e-01,-4.06600e-01,2.51990e-01,-1.42378e+00,7.90926e-01,7.72410e-01,1.82592e-01,4.67791e-01,-4.26271e-01,5.67996e-01,3.13369e-01,-7.39066e-01,1.46219e-03,-3.50577e-01,3.39076e-02,-2.31611e-01,5.90691e-01,4.95251e-02,6.34863e-01,-6.51194e-01,-1.96917e-01,1.80359e-01,-2.91060e-02,1.96200e-01,-8.39894e-02,8.83913e-03,2.00118e-01,-4.68413e-02,-3.21053e-01,2.62454e-01,-7.56775e-01,-1.43199e+00,4.82501e-01,-3.45437e-01,-9.25216e-02,6.76838e-01,1.65124e-02,-9.74576e-03,1.43856e-01,-2.92194e-02,
-3.48531e-03,1.95228e-02,-4.49451e-03,-1.23517e-02,3.88704e-02,-4.24969e-02,-4.46775e-02,-1.83109e-02,-1.47418e-02,2.11997e-02,-2.47096e-02,-2.90595e-03,-1.71685e-02,-2.18432e-03,-1.33738e-02,-3.60369e-02,-7.47350e-03,-1.99962e-02,1.95425e-02,-3.97429e-03,-1.34438e-02,-5.79175e-03,-6.72319e-03,-4.99874e-02,7.52941e-04,-1.53047e-02,1.38181e-03,5.09109e-03,-4.61728e-02,1.27995e-02,-4.18878e-02,-3.19056e-03,2.26046e-02,-2.10014e-02,-1.53992e-02,-3.50378e-02,4.45575e-02,2.19702e-02,-3.50767e-02,1.73518e-02,3.10134e-02,1.76028e-03,1.07326e-02,-2.19140e-02,8.51690e-03,
-3.65421e-01,-2.74102e-02,-2.24040e-01,2.40156e-01,3.06244e-01,-2.16463e-01,1.46948e-01,2.09860e-01,4.93478e-01,9.25011e-02,2.39133e-01,2.24999e-01,9.83830e-02,-1.43125e-01,-2.00578e-01,1.58168e-01,-1.24409e-01,1.35186e-02,-2.92510e-01,2.51524e-01,-9.28300e-02,2.46748e-01,2.15081e-01,-3.15903e-02,-4.67289e-03,7.58288e-02,-1.57550e-01,-2.75430e-02,6.24956e-01,3.43991e-01,-7.22454e-02,-2.04180e-01,-2.29224e-02,-1.62116e-01,1.40123e-01,-3.77357e-01,4.76621e-01,3.46970e-02,3.92727e-02,1.64487e-02,2.57682e-01,-3.57425e-01,1.01346e-02,-3.32523e-01,1.58194e-03,
3.71281e-02,1.00789e-01,2.29954e-01,-1.63847e-01,-6.09785e-02,-6.48087e-01,-5.04837e-01,-8.25318e-02,1.13571e+00,-5.75819e-02,8.34918e-01,5.85459e-01,1.96415e-01,9.80975e-02,5.42173e-01,-2.17665e-01,-2.24059e-01,-1.09743e-02,-7.75821e-01,3.26744e-01,7.51180e-02,1.16163e+00,-2.73567e-01,-2.47554e-02,-4.85368e-01,1.08624e-01,-2.28279e-01,-4.62556e-02,4.33541e-01,-4.08005e-01,-4.33974e-02,-1.16392e-01,-3.46445e-02,-1.75456e-01,6.67786e-02,-5.24714e-01,1.51628e-01,2.93393e-03,-3.01762e-02,-2.68467e-01,3.70823e-02,-5.53619e-02,7.18976e-03,1.86034e-01,6.42024e-02,
-4.62278e-03,2.01859e-02,1.98586e-02,-5.31089e-02,-5.09697e-02,4.77553e-03,-1.73198e-02,-3.09367e-02,-2.81061e-02,-1.75406e-02,-6.90370e-02,2.09005e-02,1.20281e-02,2.17918e-02,-6.67612e-02,-3.92371e-02,2.56847e-02,-2.09910e-02,-1.54581e-02,-1.12620e-02,2.42535e-02,2.33315e-02,-6.26040e-02,-6.67982e-03,-6.67562e-03,9.76624e-03,8.85156e-03,1.32548e-03,1.17306e-02,-1.52750e-02,-4.03312e-02,-8.52537e-03,3.78628e-02,-2.28128e-02,7.10335e-04,-1.69342e-02,3.07098e-02,-4.64814e-03,-6.31359e-02,-5.60669e-02,-5.56250e-02,-3.02733e-02,-2.45402e-02,1.36408e-03,2.79493e-02,
-9.78640e-02,1.64306e-01,-1.12076e-01,5.05056e-01,5.66303e-01,-5.53515e-02,1.92566e-01,-7.43385e-01,-7.00353e-02,7.14086e-01,4.05266e-01,2.60732e-01,-4.23200e-03,-1.27565e-01,-1.55144e-01,-1.93564e-01,-4.45805e-01,-5.64702e-02,-3.05806e-01,2.55322e-01,3.48182e-02,2.31120e-01,5.59537e-01,3.83495e-01,-3.68597e-02,1.89715e-01,1.19711e-01,-3.99077e-02,-2.65105e-01,-6.57881e-01,-1.35397e-01,4.11081e-01,-2.38621e-02,-1.03883e+00,2.52368e-01,-1.47721e+00,6.77783e-01,7.56704e-01,9.73035e-02,-1.78960e-01,5.26914e-02,-4.29008e-01,3.25179e-02,8.54476e-02,4.00838e-02,
-4.99887e-01,1.36048e-01,-4.83745e-02,-5.97723e-01,-6.25559e-02,1.53415e-01,3.04807e-01,-1.04100e-01,-1.45430e-01,-8.26597e-01,-1.62100e-01,-4.90402e-01,-2.36813e-01,4.63501e-01,3.54419e-01,-3.51111e+00,-3.67667e+00,2.40333e-02,3.09553e-01,1.50350e-01,-2.47149e-01,1.72356e-01,1.88200e-01,-1.08061e+00,-5.76892e-01,1.13010e-01,-5.99749e-01,-3.95357e-02,-4.72282e-02,1.19107e-01,-1.26153e-01,-2.32565e-01,-1.46644e-02,3.83807e-01,-1.87180e-01,4.32275e-02,-1.35377e-01,2.58628e-01,8.42966e-02,-1.34548e-01,-1.59025e-01,-1.38407e-02,1.20130e-02,-4.08752e-01,5.72186e-03,
2.78550e-03,3.64339e-02,2.15576e-02,-1.56450e-02,-1.17029e-02,2.12375e-02,-4.39262e-02,-6.61877e-03,-1.27014e-02,-6.10964e-03,-2.96118e-02,-5.24229e-02,1.59510e-02,-1.98976e-02,-4.51003e-02,-2.05678e-02,2.34503e-02,4.36932e-02,-6.34174e-03,1.52939e-02,-3.21210e-03,1.41543e-02,-2.37112e-02,-5.14296e-02,-6.91202e-03,3.00895e-02,-5.39096e-02,1.41399e-02,-6.17498e-03,2.89174e-02,1.19141e-02,-1.80453e-03,2.62681e-03,-4.99193e-02,-5.44738e-02,2.61434e-02,1.93232e-02,-3.10076e-02,-3.29696e-02,1.47330e-02,-1.42485e-02,-5.29194e-02,-4.30167e-02,-3.18771e-04,3.93034e-03,
-2.03970e+00,-3.18677e-02,-3.87255e-02,6.97006e-01,4.98460e-01,-9.76045e-02,-1.00227e-02,1.18554e-01,-3.50212e-01,-6.65377e-01,-8.17706e-01,4.81874e-02,-1.36742e-01,-1.65222e-01,7.24972e-01,7.92184e-02,-3.73915e-01,4.70961e-02,-1.38553e+00,7.74091e-02,-3.32611e-01,2.84912e-02,2.71194e-01,4.07287e-01,-2.39458e-01,-8.20764e-01,-1.32876e-01,-3.29034e-02,7.18148e-01,-1.24531e-01,1.85371e-01,-1.12365e+00,-3.53386e-03,-5.82460e-01,3.20563e-01,-1.40528e+00,1.56997e+00,-1.22468e-01,-2.22301e-01,-4.98675e-02,-1.02112e-01,5.37043e-01,3.57426e-04,7.15310e-01,-2.38643e-02,
1.87372e-02,-1.70422e-01,-2.33838e-01,2.09787e-01,1.65851e-01,5.37804e-01,2.76151e-01,-1.57492e-01,4.81868e-01,5.99774e-01,-1.35820e-01,-8.49434e-02,-1.85349e-01,-3.04200e-01,2.37261e-01,1.47019e-02,-4.19498e-01,7.03474e-04,2.51535e-01,-1.22212e-01,2.29125e-01,6.27239e-01,-5.17851e-01,4.69975e-01,-2.47993e-01,1.80256e-01,2.33647e-01,4.04018e-02,-2.01585e-01,-1.36801e-01,2.85879e-01,8.37788e-02,-3.40952e-02,-3.58339e-01,-4.28141e-01,6.59343e-01,5.97896e-01,-3.25906e-01,-3.02724e-01,8.30113e-01,3.45966e-01,-2.60831e-02,5.42561e-02,1.19385e-01,1.78110e-02,
-3.14802e-01,-3.91600e-02,-3.86838e-01,-6.85547e-01,2.58090e-01,-4.76892e-01,2.78468e-01,-1.68348e-01,1.76190e-02,1.95442e-01,2.22034e-02,-1.09484e+00,-3.18016e-01,5.01951e-02,2.06942e-01,2.75466e-02,1.56816e-01,-3.18225e-03,1.15301e-01,3.73440e-01,9.31984e-02,-2.44409e-01,1.75778e-01,-8.23255e-01,-1.10462e+00,-1.77533e-01,2.63723e-01,2.22308e-02,-3.48152e-01,-5.67008e-02,1.49949e-01,3.57237e-03,-4.09579e-02,4.59996e-01,8.02361e-02,2.90929e-01,-4.98521e-01,2.91306e-02,-2.70536e-01,1.59926e-01,-6.34970e-01,5.09580e-01,-3.46359e-02,-6.58901e-01,-4.43274e-02,
-1.45661e-01,-3.35647e-01,6.62972e-02,-1.71566e-02,3.15538e-01,-2.81624e-01,7.90496e-01,-2.94777e-01,-4.64566e-01,1.90443e-01,4.38308e-02,3.85885e-01,-1.75936e-01,8.40489e-02,-8.59767e-02,-8.47537e-01,-1.79763e-01,6.18352e-03,1.94313e-01,4.75280e-01,1.11797e-01,-1.60466e-02,1.86432e-01,-2.05069e-01,-4.70142e-02,6.93679e-03,1.44206e-01,1.74020e-02,9.02952e-02,1.33795e-01,8.35892e-02,-3.73474e-02,1.66055e-02,2.15334e-01,1.53631e-01,1.67651e-01,4.85336e-01,-3.23568e-01,-3.16616e-02,6.24581e-02,5.54937e-01,-4.58487e-01,-1.78898e-02,-7.34073e-01,2.79760e-02,
-2.49739e-01,3.61181e-01,6.20178e-01,4.79188e-01,1.02667e-01,-1.54260e-01,-2.30975e-01,7.02176e-01,2.65499e-01,4.75562e-01,9.74219e-01,4.25522e-01,5.58022e-01,-3.28590e-01,-2.90951e-01,1.35079e+00,-9.15436e-01,2.13175e-02,-1.00277e+00,3.12770e-02,4.04228e-01,5.59649e-01,3.72754e-02,4.29387e-01,1.28466e-01,1.97379e-01,2.41227e-01,-4.83240e-02,-4.37446e-01,-1.25205e+00,-1.74876e-01,3.63683e-01,-7.23167e-03,-1.81725e+00,4.05324e-01,-3.07349e+00,-1.53916e+00,5.71482e-01,9.37885e-01,-3.50640e-01,1.72772e-01,-7.30381e-01,-4.65349e-02,-2.08960e-01,1.96179e-02,
-7.11000e-02,-6.42504e-01,8.18546e-02,-1.49607e-01,-5.23434e-02,-1.39948e-02,3.64885e-01,5.22565e-01,8.28662e-01,3.62221e-01,5.47571e-01,-1.26615e-01,-2.30297e-01,-2.49382e-01,3.85401e-01,3.66645e-01,-1.59527e-01,-1.95176e-02,-1.16591e-01,1.95554e-01,1.65061e-01,-6.34218e-01,2.65557e-01,1.46401e-02,2.32733e-01,-5.02247e-01,9.44944e-01,-3.31492e-02,5.86080e-02,-1.97352e-01,-2.24342e-01,-8.87187e-02,-2.31313e-02,-6.41589e-01,1.03302e-01,-1.69117e+00,-5.83200e-01,6.12909e-03,9.72711e-01,-3.09369e-01,-2.02066e-01,1.91669e-01,1.65765e-02,-4.40649e-01,-2.43200e-02,
2.09436e-02,-5.04263e-01,-1.96141e-01,1.90365e-01,-1.52738e-01,-1.67551e-01,6.86715e-01,-2.91016e+00,1.73696e-01,3.48477e-01,5.49135e-02,3.66099e-02,1.37406e-01,-2.11032e-01,2.78395e-02,-2.99658e+00,1.52960e-02,-2.78951e-02,-3.81593e-01,6.48909e-01,-1.41069e+00,-1.17883e+00,6.80523e-03,5.04099e-01,-1.75140e-01,-6.15818e-01,5.13083e-01,-4.53802e-02,-6.65541e-02,-3.57793e-01,-1.04757e+00,-1.89119e-01,-1.41217e-02,5.65171e-01,-9.85106e-01,-4.30410e-01,-3.05382e+00,3.06533e-01,9.42599e-02,1.45989e-01,3.57563e-02,3.70547e-02,4.01502e-02,3.36642e-01,-4.39759e-03,
-2.10590e-01,1.18880e-01,-2.72226e-01,3.36015e-01,-9.34049e-02,-1.06205e-01,2.92095e-01,2.12501e-01,-3.27314e-01,-1.78726e-01,-1.99796e-01,-2.26831e-02,3.12692e-01,-2.86007e-01,-1.35460e-01,2.64381e+00,-3.97146e-01,-3.42059e-02,-2.81324e-02,-5.01373e-02,1.73050e-01,-4.35935e-01,2.89063e-01,2.82900e-01,-4.31230e-01,-1.16895e-01,2.00994e+00,-1.80912e-02,-4.62070e-01,-2.22177e-01,-1.51853e-01,-2.15438e-01,9.27937e-03,4.96822e-02,4.26475e-01,-3.02622e-01,1.33836e-01,1.10586e-01,2.07516e-01,4.47224e-02,-2.50239e-01,-1.83966e-01,-4.56802e-02,1.13788e-01,1.70778e-02,
-1.90479e-01,1.37343e-01,-1.71419e-01,2.46549e-03,-2.24133e-01,-4.16668e-01,-6.20336e-01,-7.93056e-02,-2.10328e-01,2.37607e-01,4.59938e-01,7.25911e-03,-2.23403e-02,1.64674e-01,2.51993e-01,-1.68155e-01,1.82605e-01,-5.49825e-02,2.49604e-03,1.05005e-01,1.20101e-01,-7.41876e-02,4.13714e-01,-2.17658e-01,-4.05935e-02,3.80708e-01,-1.31780e-01,-3.85512e-02,1.45085e-01,9.56032e-02,-1.82331e-01,-2.90088e-01,6.24006e-03,-6.44308e-02,-1.17292e-01,5.24071e-01,-1.20298e+00,1.16241e-01,4.03232e-01,-6.69532e-01,-7.08985e-02,-2.40411e-01,1.37895e-02,-5.50484e-02,-4.71120e-02,
2.85584e-01,-1.13841e-01,7.03791e-02,-3.67681e-01,5.83409e-01,2.74766e-01,-7.74812e-01,-1.91221e-01,2.07105e-01,3.16575e-01,4.81367e-01,2.90265e-01,-4.85925e-01,-2.16851e-01,7.32674e-02,-6.44593e-01,-6.98242e-02,2.90922e-03,9.01315e-02,3.04066e-01,-5.02524e-02,1.31452e-01,1.27296e-01,2.31736e-01,-2.19934e-01,2.04693e-02,-1.78677e-01,-2.10720e-02,-1.61274e-01,1.12573e-01,1.98770e-01,9.07423e-02,1.64226e-02,-1.13963e-02,9.46544e-03,-2.01374e+00,-2.83346e-02,-5.39813e-01,-4.34361e-01,1.45739e-01,3.35700e-02,-2.16869e-01,5.20118e-02,1.81336e-01,-2.76078e-03,
7.10504e-02,-4.80271e-01,6.88137e-01,-2.40925e-01,2.64312e-01,1.83789e-01,1.01349e-01,2.85808e-02,-2.27884e-01,8.79412e-02,7.05200e-01,-1.14794e-01,1.48735e-01,3.24500e-01,2.01472e-01,1.46346e-01,-2.03411e+00,4.37566e-02,4.29455e-01,2.83134e-01,6.30492e-02,-8.27306e-01,1.78102e-01,2.63971e-01,-2.81749e-02,-1.28989e-01,-1.70113e-01,3.70929e-02,-4.42977e-01,-1.33330e-02,-1.68803e-01,-3.42666e+00,1.99308e-02,-6.20616e-01,-4.27350e-03,-1.78762e-02,-3.16604e-01,6.42848e-01,4.49288e-02,9.79904e-02,-1.40889e-02,-1.41121e-01,-1.80381e-02,1.26538e-01,4.07770e-02,
1.91885e-02,-3.22124e-02,-6.29336e-02,-4.07410e-02,8.81015e-03,-1.99473e-02,3.29764e-02,2.75285e-02,-4.10907e-02,-1.78608e-02,2.61391e-02,-4.15406e-02,-3.90707e-02,-6.06165e-02,-2.26005e-02,1.43972e-03,-2.22601e-02,2.00762e-02,1.95576e-02,1.78701e-02,-2.32850e-02,9.30364e-03,-2.63855e-02,-9.91228e-03,1.79712e-02,-2.33713e-02,-2.78266e-02,-1.48977e-02,1.30474e-02,-7.55040e-03,8.73374e-03,-5.87777e-02,-1.90774e-02,2.48966e-03,-3.38872e-03,-3.66236e-03,-2.85159e-02,-3.65312e-02,-4.12868e-02,1.62125e-02,1.67564e-02,2.88209e-02,-5.00934e-02,-6.14566e-02,1.11349e-03,
3.81584e-02,-2.87622e-01,-6.09641e-02,4.99808e-01,1.05895e-01,-2.93030e-02,-5.15586e-02,2.77258e-01,-1.48902e-02,-6.62974e-01,1.23757e-01,1.44759e-01,3.66350e-01,7.42642e-02,1.40800e-01,-2.42982e-02,-1.82037e-01,3.35161e-03,-4.37145e-01,1.53264e-02,-1.17744e-01,-7.61073e-02,2.25445e-01,5.71780e-01,-1.58596e-01,3.29540e-01,-4.24066e-02,7.34910e-03,-4.83866e-01,2.21695e-03,2.31946e-01,4.40208e-02,-6.06886e-04,-3.47851e-01,-1.11290e-01,-5.77995e-01,-3.08172e-01,3.03287e-01,-7.82086e-02,-1.36773e-02,3.14084e-02,-5.03789e-01,5.29957e-03,4.65086e-02,-1.61208e-02,
2.22782e-01,7.79679e-01,2.46825e-01,-1.04244e+00,3.96731e-01,-3.44502e-01,1.06024e-01,1.70481e-01,2.28161e-01,-8.77464e-01,1.76304e-01,-4.51191e-01,-4.11794e-01,3.02178e-02,-1.28540e-01,-6.15833e-02,1.03101e+00,-1.00754e-02,1.98334e-01,1.98522e-01,-2.86997e-02,-5.90163e-02,2.57450e-01,-1.19761e+00,-1.87935e+00,-3.55831e-01,9.94787e-02,-8.38216e-03,7.68530e-02,3.22582e-01,1.94532e-01,1.41270e-01,3.22749e-02,4.60336e-02,-2.76029e-01,2.38767e-01,-1.96719e-01,1.56186e-01,2.76142e-01,-9.48061e-02,-9.81690e-01,2.58191e-01,-3.28963e-02,-3.87347e-01,1.19310e-02,
3.16336e-01,-5.55246e-01,-1.10649e-02,2.99497e-01,-5.59032e-01,-8.53907e-01,4.54488e-01,-2.03332e-01,-5.33618e-01,4.43513e-01,-9.81537e-01,4.88653e-01,-1.76781e-01,-2.48865e-01,-5.42362e-01,-1.23044e-01,-5.19419e-01,-4.83465e-03,3.10123e-01,2.24815e-01,-2.77432e-01,-4.90227e-01,3.05802e-01,4.37763e-01,-2.61239e-01,-1.43719e-01,1.90371e-01,-2.78335e-02,-1.87048e-02,-4.23144e-01,4.86870e-01,5.91150e-01,-2.01263e-02,-8.48442e-01,2.95133e-02,-2.55045e+00,3.23353e-01,3.54660e-01,4.43606e-01,3.73454e-01,-1.38278e-01,-3.58861e-02,-4.33445e-02,-3.32427e-02,2.95593e-02,
-2.74709e-04,-4.27073e-03,4.24438e-03,2.22768e-02,-3.57158e-02,-5.01860e-02,-3.00558e-02,-5.06648e-02,1.60481e-04,-3.48608e-02,6.61611e-03,2.06383e-02,1.33934e-04,1.40645e-02,-3.79264e-02,3.49724e-03,-3.24215e-02,2.04842e-02,3.19503e-02,-5.29465e-02,9.03932e-03,-3.25815e-02,8.82328e-03,2.62433e-02,-1.24143e-02,-4.10706e-02,-1.43732e-02,-4.27163e-02,2.67354e-03,-2.98542e-02,-2.76953e-02,2.68526e-02,3.66810e-02,-4.21089e-02,-2.93641e-02,-4.24607e-02,-2.33656e-03,-4.33793e-02,-4.54507e-02,2.21599e-02,-4.72000e-02,2.37918e-02,-3.22814e-02,5.48752e-03,4.75081e-02,
-4.79579e-02,3.41101e-01,2.06762e-01,1.39779e-01,-6.43032e-02,1.47053e-01,-3.27260e-02,-4.10557e-01,1.68437e-01,4.85261e-01,7.42138e-02,1.14388e-01,1.82308e-01,-3.51360e-02,-7.95216e-01,-3.34505e-01,2.62907e-01,3.93175e-02,-1.46979e-01,-3.55000e-01,1.69450e-01,-4.11617e-01,-1.19414e-01,-3.05128e-01,-4.34810e-02,4.69615e-01,-2.66915e-01,-6.00067e-02,5.77565e-01,-6.47821e-01,3.36488e-02,1.32723e-01,4.00073e-02,8.12632e-03,-1.75870e-01,-6.16223e-01,-1.13951e+00,6.85072e-03,-2.43674e-01,-1.00036e+00,1.86335e-01,-1.46168e-01,3.39898e-02,-4.62791e-02,-1.11121e-02,
-5.87798e-02,-3.01527e-02,1.36576e-02,-3.64493e-02,-3.77963e-02,-3.54585e-04,-2.51750e-02,-8.45718e-03,3.91957e-02,-3.70679e-03,-4.11887e-02,2.79387e-02,1.47058e-02,-3.23024e-02,1.35811e-02,-3.48564e-03,-3.64252e-02,4.29188e-02,2.58648e-03,-2.68958e-02,1.83194e-02,-5.58865e-02,3.11271e-03,-4.88314e-02,-4.52321e-02,2.81224e-02,-4.92754e-02,-4.76277e-02,8.95920e-03,-1.78977e-02,-9.22354e-03,-2.28011e-02,-1.66071e-02,-8.40084e-03,-5.10317e-02,9.47840e-04,3.46713e-02,-9.24889e-04,-2.06300e-02,-1.60039e-02,-1.40881e-05,2.84021e-02,-2.26855e-02,-5.31126e-02,2.44339e-02,
2.22583e-01,3.69458e-01,5.19665e-01,8.06287e-01,2.43638e-01,6.57645e-01,-6.56175e-02,-3.97372e-01,3.06008e-01,4.01782e-01,3.35076e-01,5.75383e-01,3.41224e-01,-1.31005e-01,-3.60575e-01,1.65457e-01,-3.24619e+00,-7.62209e-03,-6.83793e-01,-4.71775e-01,5.99203e-02,1.31521e-01,5.65466e-01,3.17969e-01,4.52857e-01,-4.42331e-02,-3.20793e-02,2.95151e-03,9.52494e-01,-1.34479e-01,1.99715e-02,3.72749e-02,-2.07939e-02,-6.26606e-01,-1.68225e-01,-9.80145e-01,-4.14131e-01,3.19378e-01,-3.30530e-02,1.26367e-01,8.93292e-01,-4.90520e-01,2.09505e-03,-9.09255e-01,3.97809e-02,
-1.59673e-01,1.71203e-01,-2.36038e-01,4.80047e-01,1.71186e-02,-4.56935e-01,6.29222e-01,1.69525e-01,4.65582e-01,-5.63868e-01,-2.52944e-01,-1.80169e-01,-2.46473e-01,1.55845e-01,1.38358e-01,7.26433e-02,-2.07397e+00,-1.93744e-02,-5.40299e-01,4.43068e-01,1.99235e-01,6.83820e-01,4.04675e-01,1.80363e-01,-4.02874e-01,-1.75788e-01,6.46342e-01,-2.92240e-02,-1.04981e-01,-2.60568e-01,5.45276e-02,-1.41349e-01,1.07436e-02,-3.25529e-02,-2.00646e-01,4.79467e-01,-5.62902e-01,2.76898e-01,-2.27640e-01,-4.68108e-01,2.99255e-01,9.82807e-02,-4.25356e-02,-6.20849e-01,-2.26143e-02,
-7.48323e-01,3.92483e-01,-1.14509e-01,1.00766e-01,4.46660e-01,-2.68267e-01,9.79238e-02,-1.37179e-01,2.76266e-01,-1.30098e-01,-4.40199e-02,-2.40217e-01,-1.33553e-01,-8.33407e-02,3.24948e-01,-5.42460e-02,-6.07506e+00,-2.84150e-02,1.54126e-02,-4.55103e-01,-3.79042e-02,-3.67235e-01,3.06344e-01,-2.81004e-01,-7.95492e-01,-1.17234e-01,2.12685e-01,-2.23982e-02,2.31249e-01,6.26939e-01,3.73865e-01,1.13202e-01,6.45163e-02,-7.86877e-02,-1.73249e-01,-1.16012e+00,6.27820e-01,-2.14950e-01,-6.80745e-02,1.23707e-01,-3.74994e-01,-4.95573e-01,2.39199e-02,-7.95380e-01,3.03818e-02,
-1.08429e-01,2.09385e-01,-1.41662e-01,1.53077e-01,8.89166e-02,1.38400e-01,-9.17325e-02,-1.37423e-01,-1.45343e-01,1.79040e-02,5.00649e-01,1.30845e-01,-3.09343e-01,2.60853e-01,5.37401e-01,-1.96013e+00,-1.74020e-01,-4.78386e-02,-1.39206e-03,-7.33336e-01,9.35928e-01,1.12990e-01,1.02736e-01,-1.13119e-01,5.24068e-02,7.39841e-03,2.52074e-01,-2.30985e-02,7.05295e-02,2.77647e-01,1.30524e+00,2.50978e-01,-3.72137e-02,-3.74785e-01,7.64168e-01,2.48204e-02,3.28526e-01,-1.34998e-01,1.38002e-01,-1.39048e-01,1.30379e-01,1.59759e-01,3.24531e-02,-2.44223e-01,-8.97308e-03,
5.52666e-01,-2.75554e-01,-1.62895e-01,2.84913e-01,3.38776e-01,3.35832e-01,-1.48420e-01,-1.33035e-01,8.67111e-02,2.39838e-01,-8.54895e-01,1.38527e-01,9.94667e-03,1.37317e-01,3.02419e-01,1.47740e-01,-5.33952e-01,4.09901e-02,9.66395e-03,1.93575e-01,-2.26645e-01,1.44058e-01,2.92347e-01,-1.53622e-01,2.73454e-01,-5.51633e-02,1.03029e+00,-3.86350e-02,2.22621e-01,6.17938e-01,2.09450e-01,-8.15225e-01,-2.28300e-02,-5.22111e-01,-2.85387e-02,5.47305e-01,-2.19837e+00,-7.47541e-01,-2.29216e-01,-4.85544e-02,1.96587e-01,-1.41078e-01,-1.57751e-02,5.79643e-01,2.10229e-02,
6.86919e-01,-2.21770e-01,-3.84206e-01,-3.83125e-02,-2.48859e-01,-2.44258e-01,1.57399e-01,-3.02879e-01,1.82732e-01,-2.38441e-01,2.50718e-01,2.75165e-02,1.83790e-01,1.79950e-01,-7.68354e-01,1.85748e-01,-6.95972e-01,2.44387e-02,2.39041e-01,-1.36744e-01,1.07509e-01,-4.10447e-01,-1.99216e-01,-4.76223e-01,5.58367e-02,4.82894e-01,4.79065e-01,3.17047e-03,-5.79939e-01,2.51596e-01,-1.96220e-02,-4.56375e-01,-2.09370e-02,-1.90972e-01,-2.73611e-02,-1.57383e+00,-4.22583e-01,3.67669e-01,-4.79021e-01,2.62215e-01,-2.90316e-01,-3.53611e-01,-1.74944e-02,-3.78713e-01,6.03438e-02,
-3.48250e-01,1.23530e-01,9.30119e-02,6.97432e-01,3.00006e-01,6.56299e-02,1.58058e-02,-5.58234e-01,-1.66868e-01,2.28060e-01,3.28899e-01,2.45753e-01,5.31796e-01,7.28024e-02,1.22347e-02,-6.79526e-01,-9.97541e-01,3.23195e-02,-2.67202e-02,-2.06017e-01,1.52463e-01,9.57223e-02,1.34794e-01,3.82145e-02,7.70494e-01,1.77190e-01,-8.58041e-01,-3.15474e-03,2.86198e-01,9.94705e-02,1.87534e-01,-1.31477e-01,2.33173e-02,-3.37070e-01,-3.61456e-01,-8.06290e-01,-2.01059e+00,4.11303e-01,-4.55000e-02,6.68088e-02,2.58479e-01,-8.66708e-01,-4.02364e-02,-4.46273e-01,-1.04356e-02,
6.65092e-03,3.08457e-02,-1.95693e-02,-1.47218e-02,-3.90112e-03,-1.95881e-03,-4.47494e-02,1.59969e-02,-2.08349e-02,-6.20106e-03,-4.30263e-02,-4.19484e-02,-2.80586e-02,4.42065e-03,-3.46880e-02,2.55524e-03,-3.19011e-02,3.63751e-03,1.47921e-02,-2.46788e-02,-7.63887e-03,-1.00104e-02,-2.08374e-02,-9.64365e-04,4.43308e-03,-4.42797e-02,3.57047e-02,-1.08324e-02,-4.02821e-02,-9.28648e-03,-1.86744e-02,1.70584e-02,-3.72232e-02,-3.61977e-02,-4.66253e-02,6.57011e-03,-2.28559e-02,-5.75280e-02,-2.54950e-02,-7.25675e-03,-3.73682e-02,-3.31837e-02,-9.32481e-03,-4.40577e-02,3.76692e-02,
-7.64499e-01,3.62121e-01,-1.79466e-03,3.42397e-02,2.35954e-01,1.23166e-01,7.72651e-02,-2.88469e-01,3.32814e-01,-4.16986e-01,3.98263e-01,-2.30107e-01,-2.50953e-02,-2.70732e-01,5.53279e-01,-2.03237e-02,1.65904e-01,-2.26543e-02,4.53265e-01,1.57421e-01,1.98235e-01,2.11720e-01,5.85498e-01,-3.82795e-01,-4.24983e-01,1.82010e-02,-1.49224e-01,2.85939e-02,-1.02910e+00,7.93923e-01,3.11018e-02,-2.09064e-02,-4.44308e-02,3.76491e-01,-1.38793e-01,9.53817e-01,3.13199e-01,8.38673e-02,-5.07974e-02,5.18744e-01,-1.84428e-02,3.83362e-01,-3.29844e-02,-4.40785e-01,9.61914e-04,
4.47804e-03,1.16755e-02,-4.40175e-02,-6.16053e-02,3.54263e-03,2.66001e-02,4.31069e-04,-1.94171e-02,2.16734e-03,3.46026e-03,4.92344e-02,-2.11006e-02,-2.29027e-02,-6.43632e-02,-4.51650e-02,-2.92611e-02,1.24119e-02,4.66668e-02,-2.06593e-02,-2.47747e-02,-5.07361e-02,-2.06071e-02,-1.69401e-02,-4.17094e-02,-3.98066e-03,-2.98506e-02,-6.56436e-02,4.17014e-02,-3.95179e-03,-3.23416e-02,-3.41790e-02,2.69770e-02,-2.22459e-02,-7.13209e-04,-4.47276e-02,-1.75093e-02,2.12547e-02,-4.94716e-02,-1.05637e-02,-1.88661e-03,1.20317e-02,-6.26513e-03,3.76268e-02,-9.23633e-03,-4.28114e-02,
1.66997e-01,-6.14882e-01,-3.19323e-01,3.45201e-01,-1.24811e-01,1.20781e-01,3.87886e-01,-1.60211e-01,1.13308e+00,-5.26477e-01,-1.30520e+00,3.01188e-01,-5.49120e-02,-2.54450e-01,-3.48665e-01,-1.20492e-01,-1.13759e+01,1.31246e-02,4.67960e-02,2.08443e-01,2.01713e-01,-2.21017e-01,-2.10354e-01,4.63576e-01,-8.62329e-01,6.23680e-01,-3.97467e-02,-3.33508e-03,1.01125e-01,4.19334e-02,5.10903e-01,-4.17562e-03,-1.27927e-02,-5.05926e-01,-4.88295e-01,4.67337e-01,-7.59313e-02,-8.09277e-01,-3.47926e-01,3.70103e-01,3.55295e-01,-4.50753e-02,-4.56998e-02,9.29046e-02,5.59187e-03,
8.22430e-02,-7.00532e-01,6.04574e-01,-1.38532e-01,4.49396e-01,1.33178e-01,5.63725e-01,4.08471e-01,-4.13516e-01,1.27977e-01,4.93401e-01,1.15575e-01,6.49459e-01,7.44598e-02,-5.13648e-01,-1.83943e-01,-9.46046e-01,-2.48214e-02,-4.67629e-01,4.02881e-01,2.55574e-02,1.26369e-01,-7.94498e-02,4.83392e-01,-3.18056e-01,-7.69167e-01,-3.22959e-01,2.46534e-02,-4.00222e-01,-1.92795e-01,-1.47317e-01,-5.06952e+00,-1.79358e-03,-8.42938e-02,4.28550e-01,-2.15389e+00,-4.27772e-01,7.19852e-01,2.23522e-01,1.09035e-02,-1.07025e-01,-1.60633e-01,-4.09594e-02,7.36105e-01,-2.29480e-02,
1.73555e-01,-5.62582e-02,-2.38251e-01,-8.00795e-02,-1.18166e-02,-3.29518e-01,-3.07623e-01,-6.50333e-01,-1.32933e-01,1.67648e-01,-3.18978e-02,2.54432e-01,2.81017e-02,-6.54231e-02,1.96997e-01,-6.12221e-02,-3.66528e+00,-4.00409e-02,4.66963e-01,-3.08987e-01,-6.93359e-03,-3.14688e-01,-1.94435e-01,3.48346e-01,2.54701e-01,5.45704e-01,2.10455e-01,-4.95354e-02,-3.26463e-01,-7.75109e-01,1.63112e-01,1.38547e-01,4.02832e-02,-1.02080e+00,-6.27111e-02,-8.87830e-01,-7.59385e-01,4.62828e-01,6.14256e-02,4.93248e-01,-2.42459e-01,-5.93365e-01,4.95080e-02,1.56236e-01,7.95874e-03,
-3.13205e-01,-2.64256e-01,1.47550e-01,-5.26077e-01,6.15988e-01,-7.93966e-01,1.31031e-01,1.56202e-01,-6.91371e-02,-3.76420e-01,5.55326e-01,-4.15820e-02,3.35512e-01,-1.44081e-01,3.03834e-01,9.46267e-01,-1.49112e-01,-4.06492e-02,4.06816e-02,2.35835e-02,-1.29861e-02,-3.96547e-01,-1.25988e-01,-8.64115e-02,9.63386e-02,-1.33002e+00,2.63087e-01,-3.93885e-02,8.87644e-01,4.57738e-01,-9.84722e-02,-4.37202e-01,4.02640e-02,1.23661e+00,2.65881e-01,-2.56943e-01,1.46670e-02,-2.66047e-01,4.36304e-01,-2.51154e-01,9.96902e-02,4.99507e-01,-4.55205e-02,-2.05401e-01,-1.34451e-02,
4.55035e-01,2.98352e-01,2.04266e-01,-2.59996e-01,7.18622e-02,1.06230e-01,-1.61484e-01,2.06960e-01,1.14986e-01,-2.92904e-01,3.90064e-01,3.07002e-01,9.48484e-02,1.70511e-01,1.13140e-01,-6.11224e-01,-7.25997e-01,-2.01646e-02,2.30949e-01,-6.81965e-01,-5.76168e-03,-6.74277e-02,1.42833e-01,-1.51046e-01,3.79399e-01,-3.81828e-01,-1.42954e-01,-5.13187e-02,6.82221e-02,1.32506e-01,1.41377e-01,-1.53383e-01,-3.70723e-02,-3.54347e-01,7.21985e-02,-1.89203e-01,4.65459e-01,5.25764e-01,2.58173e-02,-7.35061e-02,3.92007e-02,-1.49831e-01,-2.99939e-02,-5.21921e-01,-1.23214e-02,
5.64732e-01,
3.66763e-01,
-1.24162e-02,
3.39204e-01,
6.63152e-03,
-9.71734e-03,
-1.36128e-01,
7.75748e-02,
-2.02259e-02,
-1.41468e-01,
9.14258e-01,
-2.55111e-02,
1.70606e-01,
-6.82323e-02,
-4.37244e-01,
-3.93605e-01,
-1.46709e-01,
2.59001e-01,
2.21346e-01,
-2.67095e-03,
1.43340e-01,
3.40786e-02,
1.82541e-01,
-1.85220e-02,
4.90751e-02,
-1.71016e-01,
1.33904e-01,
-2.16556e-02,
1.69731e-01,
-1.62850e-02,
2.60061e-01,
1.49671e-01,
2.84327e-01,
-3.28685e-01,
-1.39733e-01,
1.62401e-01,
3.81651e-02,
-9.95949e-03,
-1.11572e-02,
-2.23787e-02,
-7.48274e-03,
2.29188e-01,
4.59462e-01,
7.81238e-02,
-3.25821e-01,
-3.02173e-01,-3.52500e-01,3.80129e-02,-1.04301e-01,1.03890e+00,2.72792e-02,1.80548e-01,3.58807e-02,2.89347e-02,-6.18743e-01,-8.70554e-01,-2.46110e-02,-1.24850e-01,-2.23995e-01,4.91736e-01,2.33504e-01,-1.22253e-01,1.03249e-01,-1.40204e+00,-8.92107e-02,4.24447e-01,-3.17833e-01,-1.21497e-01,2.84462e-03,9.86313e-02,-8.68299e-01,1.06363e+00,1.04099e-02,-2.75256e-01,4.72759e-02,-1.62579e-01,9.53847e-02,1.51942e-01,9.76354e-03,7.71326e-02,4.39367e-02,-1.81594e-01,3.08253e-03,5.10804e-01,-8.12966e-02,-1.50278e-01,1.04674e-01,3.37234e-01,4.12494e-01,3.49683e-01,
1.10441e-01,-1.15008e+00,1.09179e-02,1.34309e-01,-3.02628e-01,4.15030e-02,5.13621e-01,1.61626e-01,4.50398e-02,-2.43449e-01,1.88032e-02,4.61383e-03,4.07315e-02,3.77589e-02,1.73082e-01,-3.21831e-01,1.37234e-01,-2.66742e-01,-5.00040e-01,-1.98352e-02,-4.28158e-01,1.28031e-01,-6.86877e-02,-4.78001e-02,2.62962e-01,-3.40469e-01,9.29157e-01,1.05598e-02,4.67263e-01,-5.28044e-02,2.58541e-01,-8.61156e-01,-8.85813e-01,-7.90578e-03,-1.10607e-01,-6.78132e-01,1.45391e-02,-1.20327e-02,-3.57890e-02,-2.70545e-02,3.37867e-01,-4.96546e-02,1.08770e-01,-1.21745e-01,3.33814e-01,
3.58149e-01,5.32345e-03,-1.24708e-02,1.27470e-02,3.14571e-02,3.70021e-04,-7.11969e-01,1.66619e-01,1.67813e-02,1.23703e-01,1.78793e-01,4.94920e-03,5.03771e-01,-7.22253e-02,1.50104e+00,-2.18447e-02,-4.05352e-01,-5.71537e-02,2.23989e-02,5.90147e-02,-1.53584e-02,2.51404e-01,-2.96818e-01,-5.06340e-02,-1.38560e-01,9.53234e-02,9.99122e-02,-2.72139e-02,-9.46512e-02,-3.73578e-02,-4.81055e-01,-5.11674e-01,3.56663e-01,2.18145e-02,1.99562e-01,1.81871e-01,-1.80377e-01,-4.43406e-02,-3.05440e-02,3.40686e-03,1.53275e-01,6.49425e-02,5.14724e-01,2.65815e-01,-8.08277e-01,
-6.00197e-01,-3.61979e-01,3.70803e-02,-3.84169e-01,3.45642e-01,1.57103e-02,-4.24170e-01,-2.49468e-01,-1.12555e-02,-4.25490e-02,5.41990e-02,-4.36547e-02,5.04911e-01,7.29591e-01,9.63527e-01,1.07685e+00,-6.32567e-02,2.28576e-01,-1.70744e+00,4.83338e-01,5.96020e-01,7.59827e-01,1.58287e-01,4.20222e-02,3.08549e-01,3.04898e-01,4.65763e-01,4.92882e-02,1.90640e-01,-9.29357e-03,-3.68830e-01,-1.28375e-01,3.42606e-01,-1.67978e-01,-1.53711e-01,4.91364e-01,8.51111e-01,7.28900e-03,2.22713e-01,3.01112e-02,8.90404e-01,-2.18429e-01,3.32547e-02,-6.67239e-02,3.09032e-01,
4.79063e-01,9.83339e-02,-1.43432e-02,1.67762e-01,4.54130e-01,4.58630e-02,4.52653e-01,5.29204e-01,-1.94044e-02,-1.45251e-01,2.79875e-01,-8.05448e-03,-3.44885e-01,7.16681e-01,-4.28738e-01,2.55859e-01,-5.22957e-01,-6.98523e-02,-9.57918e-02,2.21661e-01,-3.87789e-02,-2.16820e-01,-8.37631e-02,2.68341e-02,2.88421e-01,-4.00808e-01,-8.22624e-01,2.77646e-02,3.67921e-01,9.62244e-03,-2.34322e-01,-9.60351e-02,-3.59269e-01,1.05714e-01,2.35716e-01,-3.05485e-01,1.51577e-01,-8.28169e-03,3.52954e-01,1.51124e-02,1.38478e-01,-1.58429e-03,-1.14462e-01,7.63614e-03,-1.39360e-01,
-9.72701e-01,-1.99138e-01,-3.44675e-03,5.72173e-02,1.02705e-02,-2.32399e-02,-9.28824e-01,-3.39170e-02,2.25685e-02,3.21379e-01,1.02994e-01,-4.37334e-04,2.78769e-01,-9.19838e-02,3.49638e-01,-3.73520e-01,-9.97660e-02,-8.99855e-03,8.13598e-02,7.10322e-02,-4.48418e-01,6.21470e-02,3.08026e-01,1.05905e-02,-1.27783e+00,4.12733e-01,-2.88451e-01,-1.21631e-02,1.49290e-01,5.21001e-02,-4.78252e-01,-1.14032e-01,4.69667e-01,6.75628e-02,-4.28623e-01,7.23390e-01,-1.41888e-02,-2.94879e-02,3.23151e-02,-2.79875e-02,3.41123e-01,-2.00075e-01,2.44147e-01,-1.94214e-01,-1.37820e-01,
5.13700e-01,-3.62945e-01,4.47662e-03,6.63087e-02,-6.99091e-02,-6.46861e-03,-9.50832e-02,4.58783e-01,2.70150e-02,-5.78435e-01,1.76801e-01,-2.98442e-02,3.54058e-01,-7.41742e-02,-6.52134e-01,-2.16203e-01,-1.55847e-01,-3.11477e-01,-5.28223e-01,1.42778e-01,6.65583e-02,-8.59116e-04,1.84044e-01,-5.16781e-02,-1.71403e-01,4.81051e-02,-5.71930e-04,-4.70063e-02,3.30190e-01,4.36751e-02,6.74569e-02,5.80443e-01,3.58417e-01,7.04944e-02,8.17998e-02,2.51420e-01,-2.06394e-01,2.49083e-02,8.46206e-02,-5.60564e-03,2.19675e-01,-1.20991e-01,-3.13944e-02,-4.11017e-01,2.49494e-01,
-7.27842e-02,-4.10704e-03,-1.48570e-02,-2.09852e-02,3.77268e-03,2.08531e-02,2.31957e-02,-4.25373e-02,4.00077e-02,-1.78633e-02,9.13560e-03,-4.54185e-02,3.12070e-02,8.39898e-03,-2.10298e-02,-3.59155e-02,-3.22870e-02,3.50991e-03,7.37581e-03,-4.20983e-02,-3.08809e-02,-2.75589e-02,7.61297e-03,1.20268e-02,8.46955e-03,1.40797e-02,-5.54295e-02,-1.55022e-02,-3.88923e-03,3.09695e-02,-1.01893e-02,-6.44579e-02,6.28089e-03,1.99774e-03,-2.84027e-02,-5.83223e-02,2.23516e-02,1.22803e-02,-5.38021e-02,3.12333e-02,-1.79311e-02,-1.98693e-02,2.60107e-02,-7.31487e-03,1.03246e-02,
1.89946e-01,-3.16782e-01,-5.48817e-03,-1.34046e-01,8.49751e-01,-6.30060e-03,5.07091e-01,3.23761e-01,-4.25434e-02,1.19583e-01,-5.22636e-03,-3.13965e-02,-3.48539e-01,3.49874e-01,-5.41247e-02,5.62512e-01,7.86948e-01,4.85012e-02,1.19523e-01,5.87447e-01,4.66639e-01,-3.61246e-01,-8.89669e-02,4.84708e-02,3.20284e-01,-1.97243e-01,4.22330e-01,1.60929e-02,8.63674e-02,1.73348e-02,6.31614e-01,-7.03135e-02,-3.41642e-02,1.52935e-01,-1.77371e-01,-3.86757e-01,4.56956e-01,-4.23580e-02,6.56663e-02,2.47337e-02,-3.42423e-03,7.27810e-01,-4.08645e-01,7.18771e-01,1.09061e+00,
-4.95280e-02,4.04172e-02,4.43087e-02,-2.05990e-02,-2.07557e-03,4.64388e-02,8.14290e-03,-4.67009e-02,-5.70289e-04,-1.35155e-02,-4.83844e-02,-3.10157e-02,-4.98351e-03,-1.16727e-02,-4.95429e-02,-8.62525e-03,1.92264e-02,-5.44567e-02,2.81979e-02,2.10302e-02,2.37426e-02,-1.83222e-02,1.49045e-02,-4.92430e-02,1.60022e-04,2.98614e-02,-3.27327e-02,3.98397e-02,-3.15036e-02,2.76966e-02,-3.51961e-02,-2.82482e-02,4.34494e-02,-4.74023e-02,-4.92940e-02,-2.04189e-03,-1.92597e-02,2.51442e-03,-3.05036e-02,2.38540e-02,-1.37756e-02,-1.94848e-02,8.60312e-03,-4.32307e-02,-4.28870e-02,
5.35726e-01,1.31964e-01,-1.41161e-02,1.22177e-01,-2.48594e-01,4.84733e-03,-1.42550e-01,3.71151e-01,-2.45012e-03,-4.00593e-01,-5.16410e-01,-2.64529e-02,1.91703e-02,2.49690e-01,-1.12313e+00,1.35329e-01,-3.22886e-01,-1.28070e-01,-9.68038e-01,2.65200e-01,3.32020e-01,2.36899e-01,1.06535e-01,-3.77456e-02,-1.98790e-01,-4.72782e-01,4.12996e-03,-2.66020e-02,2.46075e-01,1.48684e-02,1.51271e-01,5.56483e-02,1.37238e-02,2.21843e-02,6.13780e-02,-8.34200e-02,-5.34510e-02,-3.50048e-02,-6.10601e-01,1.88410e-02,1.50503e-01,-3.54143e-02,-9.48198e-02,-2.02075e-01,8.60263e-02,
-6.06008e-01,-6.12435e-02,2.28689e-02,2.98199e-01,4.04102e-01,-4.57062e-02,1.05271e+00,-4.12704e-02,4.16738e-03,-1.56778e-01,4.71384e-01,-1.33495e-02,9.29773e-01,4.91253e-01,6.10748e-01,6.33427e-01,-2.50752e-01,1.65248e-01,5.51703e-02,5.48873e-01,8.28261e-01,-6.18941e-01,4.54215e-01,2.86003e-02,3.93300e-01,1.07499e+00,6.44396e-01,-5.83604e-03,8.78599e-01,-4.61124e-02,-2.13019e-01,2.58875e-03,1.12175e+00,-2.90986e-01,-2.85419e-01,8.61777e-01,6.61563e-01,3.12851e-02,-2.37674e-01,-2.87756e-02,-1.70783e-01,-4.35972e-01,-2.78577e-01,-2.51885e-01,7.69197e-01,
-9.35376e-02,-6.11349e-01,9.64468e-03,3.50387e-02,1.95311e-01,-3.09613e-02,1.49554e-01,-1.29603e-01,-2.31270e-02,5.35253e-02,1.02855e-01,4.16218e-02,-3.86619e-01,-1.01033e-01,-1.68070e+00,3.51728e-01,-3.28914e-02,2.36181e-01,1.26845e-01,4.07436e-02,7.13047e-02,-8.39556e-03,1.83269e-01,1.33904e-02,-7.40694e-02,-3.96739e-01,-2.09217e-01,-1.56146e-02,3.84331e-01,4.69338e-02,-6.45411e-02,-4.25381e-02,-2.12981e-01,2.16973e-05,-6.15033e-01,1.55239e-02,2.30195e-01,-1.13728e-03,1.33694e-02,-1.59634e-02,-7.70321e-01,-2.49977e-02,2.28307e-01,-1.99668e-01,-1.95822e-02,
4.02979e-02,9.50849e-01,-3.13956e-02,-3.29721e-01,-5.07779e-02,4.46420e-02,-2.30466e-01,-3.53508e-01,4.86227e-02,-1.12676e-01,-1.54148e-01,2.24091e-02,1.68498e-01,-1.58726e-01,-1.60376e-01,3.00526e-01,6.98266e-02,-1.95317e-01,2.62918e-02,-5.26652e-02,1.21787e-02,-4.03709e-01,6.74065e-02,6.60087e-03,-9.75985e-02,-5.06319e-01,3.54038e-01,-4.69325e-02,-6.78938e-01,2.07458e-02,1.44793e-01,2.99534e-01,7.19759e-02,-2.02668e-02,3.27255e-01,4.43405e-01,1.79890e-01,-4.12425e-04,5.88063e-02,-3.14886e-02,2.38945e-01,-5.84974e-02,-2.28893e-01,1.70505e-01,-7.13599e-02,
1.28817e-01,-5.92518e-02,2.13737e-02,-5.06548e-02,4.67602e-01,1.50948e-02,6.77611e-01,-8.40112e-02,-3.90473e-02,-6.68210e-02,-5.55444e-02,2.84680e-02,-5.79608e-01,4.91641e-01,-7.48614e-02,-5.10439e-01,8.73591e-02,-1.77170e-01,1.61944e-01,8.79809e-03,1.30567e-01,7.07482e-01,1.74748e-02,-1.83685e-02,-2.40882e-01,8.70190e-02,-2.63423e-01,3.59567e-02,5.86121e-01,-9.61177e-03,-1.30782e-01,-2.73790e-01,-1.53040e-02,9.91973e-02,2.43780e-01,1.18330e-01,-1.10468e-01,-8.66604e-03,4.67467e-01,-1.04940e-02,-5.58667e-01,-1.39076e-01,3.92025e-01,-4.87289e-03,-1.54462e-01,
2.32942e-02,1.50915e-01,1.88022e-02,-2.43651e-01,-2.36540e-01,-3.67378e-02,9.43091e-01,4.63246e-02,3.72200e-02,1.57335e-01,2.36748e-02,1.96365e-02,1.33303e+00,2.74268e-01,7.41094e-01,3.76935e-01,-1.28958e-01,1.17532e-01,-2.55873e+00,3.19362e-01,2.16622e-01,4.52227e-01,-4.06343e+00,-2.93135e-02,1.22218e-01,6.07978e-02,-6.49657e-02,1.29568e-02,1.82829e-01,-1.19098e-02,-8.20070e-02,-8.20573e-02,1.37379e-01,1.77087e-01,5.21934e-01,4.60784e-01,1.08200e-01,-3.45099e-02,-6.45437e-02,7.53076e-02,4.21644e-01,-4.08279e+00,2.46702e-01,1.35484e-01,-2.36114e-01,
-2.62694e-01,3.96153e-01,-2.60791e-02,-2.20843e-01,4.19674e-01,-2.90207e-02,-2.29058e-01,-4.47774e-01,-2.53808e-02,9.50630e-02,-2.59102e-01,-4.80546e-03,4.16277e-01,1.91569e-01,5.14008e-01,1.38325e-01,-8.08018e-02,-6.35227e-02,-1.67100e-01,1.57979e-01,3.40477e-01,-2.74877e-03,1.30728e-01,4.07526e-02,-7.03931e-01,7.00956e-02,4.64935e-02,1.85286e-02,-2.66010e-01,-2.24013e-02,-4.29662e-01,-3.24275e-01,-1.23147e-01,-1.42112e-02,1.06818e-01,2.27851e-01,-4.00332e-01,2.42361e-02,-7.84453e-03,-4.57644e-02,-6.92543e-01,-1.08591e-02,3.78294e-01,1.25389e-01,2.50627e-01,
7.56180e-03,-4.51648e-01,-5.32022e-03,-1.66517e-01,1.14473e-01,3.05620e-02,2.68358e-01,-3.95442e-01,3.01504e-02,9.75860e-02,-2.06019e-01,1.60483e-02,2.90293e-01,8.17862e-01,1.06802e-01,2.52597e-01,-6.99751e-02,9.44432e-02,-1.38254e-01,3.01853e-02,2.00539e-01,6.24250e-02,2.71428e-02,1.93574e-02,8.91059e-03,-1.88359e-01,4.39601e-03,-3.49679e-02,-8.62187e-02,3.23575e-04,-9.11673e-02,-2.58952e-01,-2.66245e-01,-3.36881e-02,-4.90900e-02,1.20308e-01,5.43590e-02,2.57652e-03,-2.91925e-01,-1.80090e-02,-3.70086e-01,1.97879e-01,-2.43834e-01,7.20709e-02,1.49044e-01,
-2.78744e-01,1.11651e-01,3.66268e-02,-6.05538e-02,-1.49474e-01,2.73923e-03,-9.29516e-02,5.21886e-02,-3.76254e-02,2.30241e-02,6.90936e-02,7.47421e-03,-5.00519e-01,3.60261e-01,6.18029e-01,-1.57887e-01,-7.74345e-02,-2.26959e-01,-8.09676e-02,2.44271e-01,-2.70460e-01,-8.71994e-02,3.03986e-02,-1.81123e-02,7.01956e-02,1.21228e+00,-4.02021e-01,-1.64674e-02,1.64811e-01,-1.71780e-02,3.28729e-01,-5.02412e-02,-4.76813e-01,-8.06204e-03,3.82242e-01,-7.72593e-01,1.32024e-01,1.31007e-02,-7.98345e-01,-4.63659e-02,2.83096e-01,1.35717e-01,-1.13709e-01,-1.13118e-01,-1.20472e-01,
-1.95696e-01,-3.87023e-01,4.82242e-02,1.21874e-01,-4.92250e-02,-2.73049e-02,4.52573e-02,1.09895e-02,-1.98815e-02,6.27170e-02,9.46306e-02,-3.91832e-02,-4.16728e-01,-9.54038e-04,1.19927e-01,1.81512e-01,-2.25634e-01,3.16897e-01,2.50514e-01,1.58214e-01,4.15409e-01,7.95457e-02,1.41917e-01,-5.35139e-02,1.95961e-01,-2.87842e-01,2.53608e-01,-3.85411e-02,1.33854e-01,3.33598e-02,3.02082e-01,-3.52887e-01,-2.96192e-01,-2.23757e-02,3.62591e-01,-2.69359e-01,2.35752e-01,7.96841e-03,-2.87661e-02,-4.05369e-02,-1.35147e-03,-8.24018e-02,-8.25684e-02,2.48380e-01,-1.30697e-01,
-6.87698e-02,-3.82215e-02,-3.97211e-02,-9.21080e-03,3.22684e-01,6.92531e-03,5.50161e-01,-4.55639e-01,-3.18429e-03,2.45726e-01,-1.44123e-01,-3.37264e-02,7.28586e-01,1.56291e-01,-2.34528e-01,-5.30897e-01,-1.12552e-01,1.07011e-01,1.72473e-01,7.34424e-02,3.57170e-02,-5.36449e-01,-6.20131e-02,3.38560e-02,7.04224e-03,-3.14323e-01,-1.15301e-01,-2.06414e-02,3.14119e-01,5.19482e-02,7.19605e-02,4.44082e-01,-1.33469e-01,2.40282e-02,-1.33942e-01,-2.99370e-01,-1.75150e-01,4.51124e-02,1.69233e-01,2.13968e-02,2.70685e-01,-3.77246e-01,1.81696e-01,-1.02043e-01,1.28026e-01,
-1.51799e-01,3.83363e-01,-3.56643e-02,-2.40773e-02,-1.36578e-01,-4.65579e-02,1.15819e+00,-9.39912e-02,-3.18309e-02,-1.94663e-01,3.26239e-02,4.66342e-02,6.51954e-03,5.18848e-01,8.69358e-01,3.49003e-01,4.77691e-01,-1.64681e-01,1.90544e-01,-3.11504e-01,2.23102e-03,3.87998e-02,-1.89976e-01,1.97390e-02,-3.15743e-01,-3.47722e-01,2.63791e-02,2.74232e-03,1.35698e-01,1.77092e-02,-1.16572e-01,2.98838e-02,6.45012e-01,-3.89495e-02,1.80943e-01,3.01742e-02,1.30276e-01,3.55728e-03,-2.00220e-01,3.11592e-02,1.80033e-01,-1.06704e-01,1.67728e-01,-1.32000e-02,-3.95291e-01,
-1.01413e-02,8.61517e-01,-2.95062e-02,-4.17811e-01,2.00136e-01,1.93443e-02,1.06921e+00,2.10560e-01,1.22928e-02,-2.71517e-02,3.50012e-02,-1.30852e-02,2.62531e-01,7.09996e-01,1.71252e-01,6.02481e-01,-5.33878e-01,-8.20861e-01,-1.31773e-01,-3.60369e-03,4.57469e-01,-2.26152e-02,2.83382e-01,3.42399e-02,4.50372e-01,2.27097e-01,-1.74384e-01,1.02697e-02,5.22368e-01,2.65904e-02,5.31778e-02,1.65219e-01,-9.40571e-02,-1.15212e-03,2.86538e-01,1.05618e+00,-2.46638e-01,2.79763e-02,-1.04344e-01,-4.84237e-02,-1.03492e+00,9.20421e-02,-7.22077e-02,-2.09609e-01,9.67565e-02,
-1.21497e+00,1.50777e-01,-3.68942e-02,-5.22420e-01,-3.40451e-01,-1.74741e-02,-1.14569e+00,-7.94897e-02,-1.82661e-04,1.31557e-01,2.09362e-01,2.13378e-02,1.65116e-01,-1.10150e-01,-7.25081e-01,-1.65268e-01,-2.79054e-01,-4.62786e-02,4.04782e-02,4.92728e-02,3.02261e-01,2.50103e-01,3.45076e-01,1.32506e-02,-1.89741e+00,-5.95494e-03,1.78928e-01,-2.98199e-03,-7.75668e-01,-2.95108e-02,-1.22468e+00,2.55032e-01,3.90350e-02,1.31937e-02,-8.50656e-02,9.39701e-02,-3.10155e+00,4.69340e-02,1.50385e-01,-1.83768e-02,-1.74399e+00,-1.27128e-01,3.60756e-01,1.48388e-04,2.70796e-01,
2.75109e-01,5.06838e-01,3.52161e-02,-1.82765e-01,4.26063e-01,-4.41774e-02,5.53189e-01,5.53995e-02,-1.63552e-03,5.49440e-02,2.98397e-01,-1.56576e-04,1.36924e-01,1.55996e-01,1.43880e-01,5.65209e-02,-2.23198e-01,2.75760e-01,2.79201e-01,-4.05798e-01,2.83683e-01,4.02729e-01,1.47351e-02,-3.39253e-02,2.64097e-01,-4.06298e-01,-3.41587e-02,-3.38588e-02,2.93609e-01,-2.78909e-02,2.19568e-02,6.46821e-02,1.55185e-01,-3.78556e-01,6.28359e-02,1.95723e-01,1.37408e-01,2.24281e-03,2.30283e-01,4.91719e-03,2.86852e-02,1.69648e-01,1.05897e-01,1.43316e-01,9.07859e-02,
5.06680e-02,2.69541e-01,8.38818e-03,5.13696e-02,1.79698e-01,-3.20520e-02,-5.73394e-01,2.32104e-02,-5.86429e-03,-9.18871e-02,-4.85544e-01,3.50684e-02,-2.23340e-01,-3.61744e-01,-2.36762e-01,-4.49643e-01,6.10002e-02,3.61282e-01,-1.08647e+00,7.89154e-01,-5.86947e-02,9.53970e-02,-1.26850e-01,-2.11404e-02,-6.37065e-01,3.66844e-01,-4.00331e-01,3.48239e-02,-4.79355e-01,-3.18619e-02,2.13313e-03,-1.02228e-01,2.55247e-02,1.94666e-01,1.42584e-01,-1.84435e-01,7.59431e-03,-7.65045e-03,-3.78641e-01,-4.76630e-02,2.42230e-01,-4.44197e-02,-1.26823e-01,8.50656e-02,-2.99721e-01,
-1.77561e-02,-3.67016e-01,-2.45658e-02,1.25767e-01,-2.20840e-01,-1.12457e-02,1.62460e-01,-3.43734e-01,4.18761e-02,-2.38202e-01,-3.36591e-01,3.84719e-02,5.82152e-02,6.06999e-01,-2.23177e-01,-7.93030e-02,-4.11240e-02,-4.48907e-01,2.13591e-01,1.64797e-01,-9.13991e-02,4.76903e-01,2.20790e-01,3.14477e-02,2.06942e-01,6.82662e-01,4.09484e-01,-1.69255e-02,1.80076e-02,-4.03194e-02,1.47833e-03,-1.11665e-01,1.47878e-01,1.18276e-02,7.86265e-02,4.65056e-01,-4.90766e-02,3.13460e-02,6.52654e-01,1.45988e-02,7.95087e-01,-4.31084e-01,-1.13501e+00,5.16127e-03,5.00458e-01,
2.12237e-01,1.25585e-01,3.80519e-02,3.37853e-01,-2.45326e-01,2.44982e-02,6.15808e-02,-1.87787e-01,1.50116e-02,-2.46799e-01,1.98344e-02,1.18940e-02,-8.81735e-01,9.23725e-02,-1.47006e-03,8.37521e-02,-3.13254e-01,-3.21768e-01,9.51893e-04,2.11338e-01,-3.67755e-01,-2.29657e-01,-2.08558e-02,-2.45377e-02,4.21333e-02,-1.96143e+00,1.74193e-01,1.79118e-02,-7.38642e-01,1.62007e-02,3.93118e-02,-3.21654e-02,2.00496e-01,1.94979e-02,6.90765e-02,-4.95956e-01,1.94053e-02,2.26548e-03,3.49720e-01,-9.65338e-03,-6.60209e-01,1.98827e-01,-3.37394e+00,2.41467e-01,2.06226e-01,
-1.16300e-02,-1.61178e-02,1.05153e-02,-7.91552e-02,6.18476e-03,-1.99427e-03,2.43285e-02,-2.72462e-02,2.60751e-03,-2.43897e-02,-3.77725e-02,-4.71894e-02,1.67413e-03,-7.74933e-02,-1.32642e-02,-1.75354e-02,-4.57265e-02,-4.79245e-03,1.80038e-02,-1.84622e-02,2.81541e-02,-5.80225e-02,5.43172e-02,-5.96407e-03,-8.64037e-02,2.13215e-02,-8.01391e-02,-4.13488e-03,1.72426e-02,2.48554e-03,-1.12718e-02,-3.25660e-02,9.96294e-03,-4.39349e-02,1.24189e-02,-6.69635e-03,3.65925e-03,-4.79165e-02,5.78621e-03,1.30789e-02,4.90923e-03,-1.17342e-04,-1.70595e-02,-4.39034e-02,-7.38321e-02,
5.99996e-01,5.31072e-01,-4.83722e-02,-2.12927e-01,-1.38013e-01,-3.17603e-02,3.03419e-01,6.21909e-01,1.04146e-03,4.08039e-01,4.13869e-01,-3.38061e-02,-5.54816e-02,-6.45219e-02,1.55072e-01,3.28724e-02,-8.32782e-01,-1.91078e-01,-3.60178e+00,-1.21765e+00,1.93604e-01,5.91721e-01,-1.47015e-01,-4.03521e-02,4.22483e-01,-6.65097e-02,2.92740e-02,-3.05217e-02,4.24132e-01,-1.71336e-02,4.19262e-02,2.26880e-01,-1.35430e-01,4.84947e-01,-1.53370e-01,3.09936e-01,-2.66425e-02,-1.23681e-02,-7.93853e-03,-2.20573e-02,4.30959e-01,6.59568e-01,2.49250e-01,1.15477e-02,-2.25992e-01,
3.73291e-01,1.66436e-01,-2.91395e-02,2.20390e-01,1.72734e-01,-4.11910e-02,6.88726e-02,2.31098e-01,2.73331e-02,4.96859e-01,2.35559e-01,1.32667e-02,-5.71109e-01,2.48462e-01,3.82410e-01,-7.76890e-02,4.43217e-01,1.79809e-01,1.82356e-01,-1.65335e-01,-2.04755e-01,5.15271e-02,-1.08493e-01,-3.29011e-02,6.30472e-02,4.44161e-01,8.61119e-02,-4.41461e-02,6.25641e-01,1.23859e-02,2.31272e-01,-5.08331e-01,-7.91703e-01,-7.00983e-02,1.80949e-01,-7.18695e-01,6.46544e-02,4.53562e-02,-7.18648e-01,5.72264e-02,-1.53928e-01,1.39797e-02,-1.16335e-01,-3.52563e-01,-3.58009e-01,
-1.72500e-01,8.89272e-02,8.12650e-05,-7.04925e-02,-3.31990e-01,-4.02986e-02,-5.55680e-01,5.46561e-01,-3.93982e-02,5.84344e-01,-3.60442e-01,-1.99546e-02,1.81460e-01,1.38809e-02,-1.17158e-01,4.00810e-03,-1.47595e-01,-2.00854e-01,-4.68823e-01,2.92380e-01,-5.99799e-01,-7.75023e-02,1.73704e-01,-1.24758e-02,2.53734e-01,6.28535e-01,-2.30537e-01,2.98498e-02,4.35247e-01,-2.61735e-02,-3.12894e-01,-2.42513e-01,1.47071e-01,-1.29923e-01,-1.27969e-01,-5.26240e-02,5.43379e-02,-1.99244e-03,4.02196e-01,-3.53949e-02,4.46409e-01,1.21826e-01,5.99569e-01,-4.94039e-03,2.94717e-01,
-2.90304e-01,-3.26425e-02,-3.14602e-02,9.72542e-02,9.71687e-02,2.44830e-02,-1.18396e+00,7.51528e-02,-8.86487e-03,-9.81786e-01,7.52352e-01,4.51315e-02,4.43431e-02,-2.20097e-01,-1.12355e+00,1.95456e-01,-4.09695e-01,2.38214e-01,-8.69960e-03,-1.84532e-01,3.28049e-02,7.07628e-02,-6.34598e-02,1.95774e-02,-7.37283e-01,3.23948e-01,1.15012e-01,4.46798e-03,-5.36896e-01,5.35727e-03,-2.46603e-01,2.38786e-01,3.79165e-01,-1.56196e-02,-3.09159e-01,2.47058e-01,-1.20298e+00,3.61818e-02,-2.34633e-01,1.06448e-03,-3.02210e-01,1.13564e-01,-2.49994e-01,-6.77695e-01,-9.29028e-02,
-1.58883e-01,1.01748e+00,1.15077e-02,-9.25938e-02,3.61090e-01,4.20963e-03,5.13993e-01,-4.15899e-01,-9.44760e-03,2.45003e-01,-1.33967e-01,1.57136e-02,2.14379e-01,-2.94650e-03,-5.66229e-01,-8.12002e-02,-3.25170e-01,6.29060e-01,1.72583e-01,1.95546e-01,5.09513e-01,1.29766e-01,-1.23609e-01,4.62475e-02,-3.60769e-01,-1.55590e-01,-1.95729e-01,2.99096e-02,1.38833e-01,-6.45103e-03,-5.29538e-02,-1.51358e-01,4.29900e-01,1.04054e-01,3.10545e-01,2.53026e-01,2.81356e-01,4.04923e-02,-1.42503e-01,-2.22074e-02,-4.32132e-01,2.44835e-01,1.00137e-01,-6.94617e-02,-2.50805e-01,
5.16504e-01,1.64474e-01,4.57633e-02,2.47198e-01,4.96714e-01,1.95442e-02,-1.98797e-01,1.34371e-01,4.14900e-02,2.47242e-01,2.15591e-01,2.13055e-02,-6.87735e-01,9.73758e-03,7.11740e-01,6.18382e-02,-6.18794e-01,9.08086e-01,1.07792e-01,-7.57941e-01,1.66978e-02,6.96778e-01,-4.72913e-01,-2.56280e-02,2.16364e-02,-2.38657e-01,-2.22871e-01,1.31533e-03,3.58960e-01,-2.25411e-02,9.38835e-02,-8.12661e-01,8.44150e-02,1.25275e+00,-2.13265e-02,-2.22876e-01,2.00037e-01,1.22251e-02,-1.22058e-01,-3.10359e-02,-2.02890e-02,2.50073e-01,2.80584e-01,4.79823e-01,-5.26037e-02,
1.08278e-01,7.53953e-02,8.83844e-03,3.13516e-01,-3.94493e-01,-4.44439e-02,1.43629e-01,1.07168e-01,2.91844e-02,3.78114e-02,-1.20298e-01,-2.49280e-02,2.10905e-01,-6.17852e-01,6.92196e-01,2.75867e-01,-7.24898e-02,-5.31263e-02,-2.90265e-02,-4.75453e-02,7.92702e-02,1.94365e-02,-5.94422e-02,2.02966e-02,2.22493e-01,5.76072e-01,9.79628e-02,3.16247e-02,-9.20463e-03,-3.65079e-02,-1.56950e-02,-2.05621e-01,-1.81968e-01,-5.72083e-02,3.77067e-01,-1.19379e-01,3.67687e-03,8.43838e-04,-5.00160e-01,-4.03440e-04,-1.87100e-01,1.94321e-02,-3.98785e-01,-2.09880e-02,6.49758e-02,
1.36118e-02,3.40544e-02,2.99758e-02,-5.54496e-02,-2.78111e-03,-1.46110e-02,2.41556e-02,4.19975e-03,3.34650e-02,2.96510e-02,-2.84437e-02,1.25017e-02,3.35497e-03,-5.54383e-02,3.25873e-02,-5.78756e-04,-5.75267e-02,-1.59002e-02,-4.02336e-02,-2.23954e-02,-4.31915e-02,2.41464e-02,-6.22328e-03,-2.26255e-02,-5.58898e-02,3.46559e-02,8.21580e-03,-1.49367e-02,-5.29293e-02,-2.95699e-02,-2.53067e-02,2.19910e-03,1.41627e-02,-1.34958e-02,-6.73440e-02,-4.89407e-02,1.13994e-02,2.11620e-02,-2.32115e-02,-4.53558e-03,-3.34881e-02,-1.27129e-02,-2.11684e-02,-4.01332e-02,-9.23667e-03,
3.55719e-01,-1.44727e+00,2.42975e-02,5.61742e-01,3.57842e-01,4.52334e-02,2.47277e-01,2.90052e-01,3.91802e-02,-1.81165e-01,2.76737e-01,-2.74607e-02,-1.29230e+00,-2.91105e-01,-6.81718e-01,9.63296e-03,-9.98019e-02,-1.11920e-01,-2.28450e+00,-5.31139e-02,-7.07705e-03,-6.71099e-01,-8.30635e+00,2.96363e-02,1.03337e-01,3.30224e-01,-1.47439e-01,-7.02866e-03,3.66761e-01,1.89985e-02,4.04642e-01,-3.27026e-01,-6.71440e-01,-1.91945e-02,1.67968e-01,-1.60739e+00,-4.84147e-01,1.13561e-02,-7.52240e-04,7.34980e-02,-3.70949e-02,-2.24488e-01,3.19294e-01,3.59162e-01,-8.49309e-01,
-5.89577e-02,1.77057e-01,-1.85653e-02,1.19703e-01,-9.19682e-02,1.62994e-03,5.29811e-01,-3.11205e-01,-1.81323e-02,-3.24878e-01,-3.39253e-02,4.87903e-02,6.63724e-01,-6.02544e-01,5.52676e-01,5.75498e-01,-3.38860e-01,-1.38124e-01,6.82935e-01,-4.15267e-01,-8.44483e-04,3.59729e-01,-1.07146e-01,-1.61541e-02,3.37165e-01,-7.44885e-02,-2.20691e-01,2.56951e-02,4.06279e-01,-7.66948e-03,1.69591e-01,-1.71987e-01,1.55922e-01,-1.24994e-01,2.92441e-01,1.29732e+00,4.77647e-02,-2.77879e-02,4.69988e-01,3.81017e-02,-1.13316e+00,-3.07350e-02,2.66662e-01,-1.35793e-01,2.15587e-01,
-9.77629e-01,-1.42029e+00,-4.85930e-02,-5.47622e-01,1.13448e-01,2.16071e-02,-1.10215e+00,-1.89341e-01,2.69252e-02,-1.29297e-01,2.13921e-02,-3.58430e-02,-3.84803e-01,1.05316e+00,-5.02073e-01,3.50648e-01,1.30575e-01,5.67459e-01,2.48731e-01,2.35904e-01,-3.47569e-01,5.24346e-02,-2.62845e-02,-7.87769e-03,2.76828e-01,-7.40996e-01,-4.19491e-01,-2.55308e-02,-2.65498e-01,1.35229e-02,2.06281e-01,-3.52091e-01,-6.27672e-01,-1.06903e-01,-1.02894e+00,-5.98493e-02,3.43983e-01,4.36344e-02,2.87238e-01,-1.68318e-02,1.44235e+00,-3.48553e-01,1.00572e+00,5.47565e-01,-6.40674e-01,
-4.32203e-02,-1.33825e-01,2.24589e-02,1.93921e-01,-1.13812e-01,-2.29775e-02,-5.09243e-01,-1.40741e-02,5.76996e-02,-7.28720e-01,-2.01470e-01,-4.91877e-02,7.01813e-03,-4.01605e-01,-2.57589e-01,-9.01028e-02,6.32680e-02,-1.63912e-01,-4.40446e-02,-2.16147e-02,1.45914e-01,-1.40145e-01,2.57482e-01,1.69697e-03,1.97944e-01,-4.92296e-01,-2.63592e-01,3.29453e-02,-7.36461e-02,1.73908e-02,8.52256e-02,-9.54729e-03,1.43526e-01,-4.02013e-02,-1.31830e-01,-1.39800e-01,-1.58917e-01,1.88147e-02,2.67851e-01,1.72403e-03,-2.37955e-01,-2.18045e-02,2.12420e-01,-3.49822e-02,-9.68752e-02,
5.95180e-02,-3.06811e-01,-3.28052e-02,3.03291e-02,3.56880e-01,-4.09130e-02,-1.08609e-01,-3.25093e-01,-2.69987e-02,5.53702e-02,3.51822e-01,3.24265e-02,-2.05316e+00,-1.90901e-01,-2.41564e+00,-1.32112e+00,-1.08562e-01,4.35472e-01,4.46865e-01,2.97363e-01,-3.04498e-02,4.82119e-02,-3.03569e+00,1.26289e-02,-9.45273e-01,-6.25399e-01,-3.31668e-02,1.72605e-03,-3.48251e-01,-3.36306e-02,6.90672e-02,-1.22116e-01,-2.61653e-01,-1.53171e+00,-1.49466e+00,-9.92171e-01,1.72585e-01,4.82148e-02,5.23620e-02,-9.85900e-02,-5.10142e-01,-3.68857e+00,-2.87121e-01,2.81058e-01,-2.04332e-01,
-3.15783e-01,5.08184e-02,3.74271e-04,1.77880e-01,1.45719e-02,-4.26258e-02,3.82347e-01,-2.02606e-02,-9.27354e-03,1.28015e-01,1.53592e-01,7.67889e-03,1.07346e-01,3.50306e-01,5.30998e-01,-1.77479e-02,1.78467e-01,-8.52952e-02,1.47849e-01,-3.45976e-02,-2.55301e-01,-2.54735e-01,4.23248e-02,-1.76533e-02,-1.62743e-01,2.38334e-01,1.99181e-01,-1.70660e-02,2.85741e-01,-1.56206e-02,-1.13096e-01,3.26292e-02,8.26267e-02,-1.97842e-01,3.94941e-01,1.94550e-01,-5.14320e-02,-8.14103e-03,5.60274e-03,-4.87798e-02,8.01938e-01,-1.36451e-01,1.71035e-01,5.84991e-02,1.01303e+00,
-7.64043e-01,-1.78155e-01,-4.35395e-02,6.83829e-01,-4.00007e-01,-4.12651e-02,-2.90330e+00,-4.46890e-01,-2.55530e-02,-8.27895e-02,1.02050e-02,-3.77411e-02,1.08639e+00,3.09417e-01,8.90788e-03,4.81789e-01,1.59249e-01,2.00336e-01,1.49719e-01,5.97124e-02,-3.78709e-02,4.44207e-01,-3.04581e-01,2.69346e-02,-5.09800e-01,4.07097e-01,2.20288e-01,-2.23222e-02,4.03682e-01,5.67668e-02,-3.20020e-01,-8.23813e-02,6.05862e-01,1.89297e-02,-1.86659e+00,-6.50542e-01,-1.12299e+00,2.57849e-02,2.68069e-01,3.15052e-02,1.09974e+00,5.79315e-02,-6.87869e-02,-2.37877e-01,7.46668e-01,
-2.08066e-01,-4.42743e-02,4.63883e-03,4.07579e-02,-1.70119e-01,-1.71075e-02,-6.19712e-01,2.13432e-01,-4.41018e-02,-9.72785e-01,1.62928e-01,2.07241e-02,1.01240e-01,-3.49374e-01,-2.45805e-01,4.01400e-01,-2.87546e-01,4.20901e-01,-3.52569e-01,2.18535e-01,2.25077e-01,-2.33600e-01,1.05683e-01,1.52417e-02,1.52535e-02,-2.14636e-01,2.70070e-01,-2.30145e-02,-2.93521e-01,1.41800e-02,-2.28322e-02,1.51096e-01,6.50868e-01,-1.04418e-01,-1.45400e-01,3.60540e-01,1.83153e-03,2.84015e-02,4.37609e-01,5.96623e-02,6.62121e-01,7.05123e-02,-5.78258e-01,4.77967e-01,2.67478e-01,
-3.92753e-01,
2.23677e-01,
-1.44689e-01,
-6.02818e-01,
-7.34110e-01,
5.53256e-01,
-2.29523e-01,
-2.23320e-02,
-5.55211e-01,
-2.61831e-02,
3.27049e-01,
-1.27266e+00,
-1.99456e-01,
1.35068e-01,
-5.48213e-01,
-2.82009e-01,
-1.27133e-01,
1.48907e-01,
4.39809e-01,
8.80236e-02,
-1.00472e-01,
-1.24838e-02,
-2.68701e-01,
4.13107e-01,
1.55806e+00,
-3.48838e-01,
1.81606e-01,
6.66310e-02,
-3.37562e-02,
-3.82648e-01,
-1.39883e-02,
2.68898e-01,
6.67992e-01,
-4.15424e-01,
-2.04964e-02,
3.89696e-01,
-1.92727e-02,
9.97559e-01,
-2.79314e-01,
5.77762e-01,
3.24623e-01,
8.97928e-01,
-2.59347e-01,
-4.60846e-01,
2.74576e-01,
1.27254e-02,3.87907e-02,2.24861e-02,-4.49007e-02,-3.38128e-02,3.89446e-02,-3.21380e-02,1.85633e-02,-4.43800e-02,2.76556e-02,-2.23119e-02,4.38352e-02,-8.11641e-03,8.13790e-03,-5.30710e-02,-2.27968e-02,-3.32038e-02,1.86112e-04,8.38940e-03,1.49403e-02,-1.20169e-02,4.51151e-02,-6.21091e-02,4.53891e-02,-1.99692e-02,-4.08474e-02,-3.19440e-02,-3.66336e-02,2.11168e-02,3.05086e-02,-5.33492e-02,-4.86341e-02,-4.48787e-02,3.21013e-02,-4.79485e-02,5.82582e-04,2.71975e-02,4.62599e-03,1.99894e-02,-6.06254e-02,-6.28746e-02,-1.16768e-02,-6.04297e-03,3.51703e-03,-4.49675e-03,
-2.85155e-01,5.86155e-02,-2.70981e-01,-8.41100e-02,-8.19814e-02,-4.24376e-01,2.92817e-01,8.42638e-03,-4.93728e-05,3.16470e-02,3.06259e-01,1.27691e+00,3.65610e-01,-1.28227e-01,-1.58369e-01,-3.20933e-02,2.47865e-01,1.82070e-02,-1.76453e-01,1.78587e-01,-5.19608e-01,5.27232e-01,-4.37796e-02,7.19223e-01,-2.75261e-02,2.04462e-01,-2.34644e-01,-4.18895e-01,1.56266e-02,1.61778e-01,5.51952e-02,-2.00331e-01,-7.67207e-01,2.39852e-01,-9.53125e-02,-1.49682e-01,3.54698e-02,-2.02089e-03,-7.36693e-02,-1.79465e-01,-1.23105e-01,-1.18744e-01,-1.38624e-02,4.81271e-01,-5.39999e-01,
-6.42802e-01,-1.69001e-01,-1.57192e-01,-2.38492e-01,-3.50175e-02,-2.49886e-02,-1.71491e-01,-3.97889e-02,-1.95418e-01,-4.64655e-02,2.87064e-01,-1.64236e+00,1.05242e+00,-2.09588e-01,-3.61260e-02,2.08997e-01,7.51302e-01,-3.12889e-01,4.37385e-02,2.09305e-01,-2.67775e-01,-1.26479e-01,-3.61133e-01,-1.50303e-01,6.50369e-01,-1.29324e+00,-1.25279e-01,9.60332e-02,-4.02934e-02,1.77114e-01,-2.96357e-02,-2.48388e-02,3.73882e-01,-2.64979e-01,4.91980e-02,4.73965e-02,-3.24944e-02,3.02737e-02,-5.03155e-01,-1.49887e+00,-3.85505e-02,-2.67575e-01,-8.23124e-01,-5.95294e-01,-1.29455e-01,
-3.73395e-01,-3.02517e-01,9.55077e-02,-3.83757e-01,1.81694e-01,-3.73094e-01,2.24773e-01,-2.39884e-03,-3.34712e-02,2.92821e-02,-1.40193e-01,-6.92829e-01,-1.99193e+00,6.53319e-02,-2.60611e-02,3.26101e-03,-3.17691e-01,-2.28355e-01,8.77716e-03,-7.98946e-02,-7.28197e-02,1.86445e-01,-1.91415e-02,-6.33184e-01,-6.62331e-02,-2.24217e-02,-7.49910e-02,-1.05325e-01,2.83711e-02,2.68727e-02,-2.66702e-01,6.42333e-02,7.11730e-02,2.68856e-02,-2.40592e-02,-2.02283e-01,2.94859e-02,2.60222e-02,8.23534e-01,-4.80434e-02,4.73889e-01,1.57971e-03,2.56661e-01,2.00886e-01,2.11662e-01,
3.52811e-01,2.96531e-01,9.98711e-02,5.18195e-01,6.80189e-02,-1.03829e-01,-4.96054e-01,-1.97098e-03,-4.15083e-02,2.03502e-02,1.50930e-01,-5.43273e-01,-2.02527e+00,-1.62198e-01,3.92352e-01,2.91939e-01,-1.12122e-01,4.03687e-01,-3.50389e-02,5.87092e-01,-6.38441e-01,2.03657e-01,-4.32878e-01,-1.88479e-01,-1.13636e-01,2.40879e-01,-1.41053e-01,3.09928e-01,4.78096e-02,2.18686e-01,3.05329e-01,-3.28328e-01,3.45022e-02,2.13093e-01,-1.38449e-01,-3.27271e-01,-4.60523e-02,2.90691e-02,-6.41848e-01,1.88576e-01,4.30384e-01,-4.61187e-01,-1.10269e-01,3.55172e-01,2.85777e-01,
2.90145e-01,-2.09721e-01,6.05115e-01,3.22705e-01,-6.02800e-02,4.06930e-01,-4.61557e-01,8.05741e-02,-2.68738e-02,-3.20420e-02,1.75231e-01,8.46830e-01,1.13879e+00,-2.23398e-01,-4.40375e-01,1.79707e-01,1.20024e-01,-3.77363e-01,-2.07198e-01,-1.07540e-01,-5.50288e-01,-4.14950e-01,-3.32315e-01,4.75739e-01,2.00806e-01,3.47151e-01,5.86125e-03,-1.82245e-01,-3.28823e-03,9.77588e-02,-5.78055e-02,3.34948e-01,1.34465e-01,-1.14522e-01,4.49175e-02,1.71561e-01,-2.77650e-02,-8.24421e-02,5.67482e-01,1.61500e-03,4.27349e-01,5.06074e-02,-2.14807e-01,-1.62615e-01,-1.38416e-01,
6.05860e-01,1.01356e+00,6.43831e-01,-2.89808e-01,-2.14473e-01,1.39207e+00,-2.87438e-01,2.47058e-02,2.61953e-01,-8.18288e-03,-7.93651e-02,2.43104e+00,1.16797e+00,-1.35311e-02,-3.33772e-01,-2.10923e-02,1.02076e+00,-5.55984e-01,1.89795e-01,6.54281e-01,-7.24170e-01,-3.15476e-01,4.22487e-01,1.38371e-01,-1.21626e-01,-6.18337e-01,-1.73059e+00,-3.81843e-01,8.32947e-02,-2.52844e-01,4.36656e-01,-1.53481e-01,-9.67869e-01,1.01056e-01,-3.73110e-02,-1.59544e-02,-2.77004e-02,2.77111e-02,-2.06821e+00,2.36834e-01,-1.06273e+00,2.80643e-01,-1.37218e+00,-1.41577e+00,-7.45318e-01,
1.13869e+00,5.44444e-02,8.57508e-01,-1.71150e+00,2.40888e-01,5.58707e-01,8.29821e-03,-2.30493e-02,-2.00301e-01,1.68196e-02,7.09759e-01,1.61454e+00,1.82315e+00,-1.89624e-01,-1.85357e+00,1.26400e-01,-3.05611e-01,5.03109e-01,9.76029e-01,3.89500e-01,1.29616e+00,2.84885e-01,3.98200e-01,-3.70720e-01,-3.33226e-01,1.79697e-01,1.18391e-01,-3.70871e-02,4.59741e-02,2.48928e-01,6.26254e-01,3.80371e-01,1.13036e-01,3.19152e-01,-2.81151e-01,3.07096e-01,3.05487e-02,-1.32720e+00,1.12486e+00,-3.52693e-01,9.37359e-01,-1.31951e-01,-1.41488e-01,-4.25204e-01,4.49399e-01,
-8.94798e-04,-1.26894e-02,9.90416e-03,1.71526e-02,-2.29671e-02,1.71690e-03,2.00715e-03,2.21796e-02,-8.70295e-02,-1.67778e-02,-1.72275e-02,-2.33210e-02,-2.45793e-02,-2.40126e-02,-6.05558e-02,2.01157e-02,3.06339e-02,-3.66246e-02,-5.15540e-02,-2.20523e-02,-3.29385e-02,-2.08173e-02,-5.45468e-02,-6.17766e-03,2.33009e-02,1.44379e-02,-3.94012e-02,-3.24500e-03,4.42726e-02,-4.91362e-02,-5.26698e-02,-6.13042e-02,-4.95858e-02,-2.24658e-02,-2.35994e-03,-6.27665e-02,2.13038e-02,-7.89037e-03,1.92756e-03,-4.13026e-02,-2.02072e-03,-1.09910e-02,-2.36337e-02,-3.66873e-02,-2.71483e-02,
-1.09981e+00,-2.34914e-01,-1.82175e-01,-2.70019e+00,-1.30349e-01,-2.17754e-01,-1.74060e-01,-2.41514e-02,1.51285e-01,4.52145e-02,4.37172e-01,1.25797e+00,-2.17963e+00,2.74728e-01,4.91257e-01,1.32943e-02,-5.76373e-01,-1.78613e-01,1.08619e-01,3.05252e-01,1.13260e+00,3.45232e-02,-2.29115e-01,-1.73931e+00,-2.01522e-02,-4.87379e-01,-5.25721e-01,-4.09905e+00,-9.19380e-03,-3.78987e-01,-5.01439e-01,-1.64377e-03,1.17597e-01,-2.80358e-01,1.56840e-01,7.92481e-01,1.36164e-02,-5.01702e-01,-6.98216e-01,-9.78934e-01,-5.57024e-01,-1.45449e+00,-2.07152e-02,-1.84308e+00,-5.13685e-01,
-1.34200e+00,2.43251e-01,-4.33876e-01,2.01284e+00,-2.79239e-02,-1.30293e-01,-5.84789e-02,-1.89691e-02,6.92470e-02,2.85349e-02,3.04756e-01,5.50442e-03,-2.24024e+00,-8.40858e-01,8.96473e-01,-2.55565e-01,3.24480e-03,4.61766e-01,4.41477e-01,8.60054e-01,-7.52579e-01,1.17046e-01,-5.17552e-01,7.08436e-01,-1.47404e-01,-1.55854e-01,-2.01420e+00,-1.17998e+00,-2.20564e-02,-1.32240e-01,-7.00735e-02,-5.52483e-02,-2.10001e-01,3.58526e-01,1.00230e-01,4.72949e-01,3.54427e-02,4.63674e-02,-8.82262e-01,-3.61227e-01,-4.88179e-01,-2.19608e-02,-3.32479e-01,3.57703e-01,-4.97193e-01,
1.61914e-02,5.32471e-02,-1.00578e-01,1.47525e-01,-4.00605e-01,6.93741e-01,-5.65363e-01,-1.85502e-02,-7.42650e-02,9.30967e-03,-1.38897e-04,6.99268e-01,-2.09189e+00,-1.76827e-01,-3.74984e-01,-2.39203e-01,4.85785e-01,-1.73588e-01,-1.45400e-02,-1.98018e-01,-2.61308e-01,6.26721e-02,5.94165e-02,4.95611e-01,6.35701e-02,4.28028e-02,-2.33798e-01,-8.82626e-02,-6.94344e-02,-1.42793e-01,1.53915e-01,1.64401e-03,-6.36727e-01,2.85285e-02,4.82305e-02,-3.99585e-02,7.87457e-03,-9.36437e-02,2.37628e-02,-4.08153e-01,-5.53602e-01,-3.36862e+00,1.22623e-01,1.27058e+00,-1.44467e-01,
-3.05972e-02,1.61081e-02,2.63382e-02,1.18673e-02,-6.50033e-02,-2.42668e-02,-6.18801e-02,1.92557e-02,-6.68536e-02,4.77133e-03,1.42991e-02,-1.44176e-02,9.92432e-03,2.32347e-02,-5.63168e-02,-4.97213e-02,-4.35418e-02,-5.14728e-02,-2.15244e-02,-2.93054e-02,6.15194e-03,-5.00089e-02,-1.28728e-02,-4.10115e-03,-6.44971e-03,3.80994e-04,-2.70366e-03,1.68211e-02,-1.23049e-02,-1.16569e-02,1.45119e-02,3.98764e-02,-1.86671e-03,5.22439e-03,-5.43838e-02,-6.85652e-02,3.91602e-02,7.62575e-03,-2.78408e-02,-3.92187e-02,-4.52628e-02,-1.38563e-02,-5.21847e-03,1.37169e-03,-2.38248e-02,
3.29541e-01,7.79721e-01,-5.26531e-01,-3.46159e-01,6.61348e-01,8.07441e-01,-5.10967e-01,1.52861e-02,-1.27666e-01,-6.11277e-03,-2.85923e-01,2.46202e+00,3.11238e+00,8.97031e-01,-1.22743e-01,4.25092e-01,-2.31072e-01,-4.75032e-01,-4.31128e-01,-5.55074e-02,-1.00169e+00,4.27989e-01,-1.22094e+00,7.76942e-01,-1.44403e-01,-8.85001e-02,2.28212e-01,-1.89446e-01,4.10150e-02,3.39190e-01,-2.92920e-01,-1.26807e-01,-3.52068e-01,2.96036e-01,-2.37155e-01,9.06170e-01,3.70100e-02,2.23330e-01,5.85532e-01,5.44334e-01,2.92958e-01,-2.07260e-01,-3.30752e-01,-2.72847e-01,3.24928e-02,
-1.26425e+00,9.20396e-03,-3.10683e-01,-8.63205e-02,2.99770e-01,-2.60593e-01,3.99358e-01,4.73653e-02,8.22646e-03,2.66837e-02,-2.14545e-01,-2.72361e-01,-5.46901e-01,-2.70991e-01,-5.06825e-02,1.45699e-01,5.39424e-02,-3.52796e-01,2.12909e-01,3.72189e-01,1.36758e-01,2.92849e-01,1.08967e-01,5.73608e-01,-4.07419e-02,-3.71432e-01,-3.54917e-01,-1.01190e-01,-7.23764e-02,-2.75454e-01,1.46295e-01,1.88330e-01,-5.45477e-02,4.27111e-01,9.25541e-02,-4.13708e-02,1.28101e-02,-7.24488e-02,-3.42518e-01,-1.44918e-01,2.71949e-01,-1.40681e-01,-2.74687e-01,1.31299e-02,3.08096e-01,
1.36051e+00,-6.37476e-02,3.08596e-01,5.28700e-01,-3.92742e-01,2.74724e-02,3.26882e-01,5.04303e-03,-1.79792e-01,-4.60397e-03,3.53445e-01,4.23533e-01,3.31361e-01,4.26756e-01,-5.42005e-01,-2.76674e-01,8.02474e-02,2.92176e-01,-7.68918e-02,7.63795e-01,1.87433e-01,-3.33940e-01,1.79823e-01,4.36653e-01,-2.04992e-01,6.85847e-02,-2.27348e+00,-2.27625e+00,5.50610e-02,-2.22436e-02,3.40769e-01,4.92784e-02,2.83062e-01,-3.90869e-01,1.62147e-02,-2.02974e-01,-1.86632e-03,-3.29620e-01,-2.54340e-01,-1.05717e-01,-1.68600e+00,-6.73119e-01,-6.81944e-01,8.93233e-01,-1.13926e+00,
-4.58754e-01,7.63966e-02,-3.00081e-01,-1.76884e-01,-1.28975e-01,-5.04810e-02,-3.77150e-02,-5.82785e-04,-2.09908e-02,3.74436e-02,-7.30591e-02,2.29263e+00,-3.26934e-01,-2.16052e-01,-1.07059e-01,-7.14735e-02,-3.07902e-01,-2.16270e-01,-1.26519e-01,8.09416e-02,3.18075e-01,-8.63577e-02,1.03319e-02,2.33149e-01,4.75624e-01,5.72337e-02,7.14609e-02,-5.33649e-02,1.27353e-02,6.66458e-02,-1.57166e-01,-1.22467e-02,-3.29044e-01,-3.32443e-01,1.03844e-01,2.63895e-02,-3.90319e-02,1.19757e-01,3.45329e-01,-5.69392e-01,5.09480e-01,-6.72880e-03,5.71622e-02,-7.62584e-02,8.23827e-02,
1.80219e-01,1.25881e-01,-3.98949e-02,-2.66517e+00,1.98229e-01,-4.82684e-01,6.18226e-02,-3.93745e-02,1.26487e-01,-2.08991e-02,-7.71308e-02,-1.55123e+00,3.13491e-01,9.76981e-02,-1.53365e-01,-2.29248e-01,-8.83105e-01,-2.07248e-01,1.10591e-01,-8.39296e-02,-7.68698e-01,3.11970e-02,-8.01049e-02,-3.81659e-01,-3.74096e-03,-2.74088e-01,1.19676e-01,-2.31462e-01,-1.18377e-02,-9.74903e-02,-3.00319e-01,-4.36317e-02,-2.72095e-01,-1.68295e-01,6.22811e-02,7.39136e-02,-2.91227e-02,5.11329e-02,-6.89249e-01,2.64787e-02,5.01802e-01,7.77599e-02,-6.33434e-01,4.67150e-01,2.60822e-01,
-3.97280e-02,-6.18126e-02,-3.09890e-02,-1.51180e-02,2.81970e-02,-4.84998e-02,-1.77928e-02,-3.99908e-02,-5.04227e-02,3.63820e-02,-4.93533e-02,3.84888e-03,-1.53736e-02,2.86223e-02,1.13756e-02,-1.67598e-02,3.93482e-02,-1.95217e-02,1.52219e-03,1.81864e-02,-1.20764e-02,-3.75032e-02,-2.73886e-02,-3.76682e-02,-9.79709e-03,7.50820e-04,-3.08042e-02,-5.30875e-02,3.52099e-03,-2.88899e-02,9.01631e-05,-2.46687e-02,4.36207e-03,2.51405e-02,7.66440e-03,-5.90274e-02,-4.45216e-02,-4.37382e-02,-6.66133e-03,-2.85138e-02,-6.25953e-02,-4.71516e-03,-3.14820e-02,-3.77434e-03,2.70778e-02,
7.33196e-01,-5.81085e-02,-2.16666e-02,-1.07788e+00,9.71911e-02,-8.91634e-01,8.20938e-02,4.02457e-02,8.54846e-03,-5.53492e-03,-1.42163e-01,-1.48819e+00,-7.39285e-02,3.74986e-01,1.30069e-02,-2.08313e-01,-3.09517e-02,6.99736e-02,-9.89397e-02,3.19931e-01,7.68570e-02,4.19427e-03,2.31037e-02,-8.94719e-01,-2.16529e-01,2.10113e-01,-3.50901e-01,1.85535e-01,-6.88502e-02,1.57108e-01,-7.99100e-02,-1.06113e-02,-1.58348e+00,1.93526e-01,-7.30992e-02,3.53280e-01,-4.94478e-03,1.44218e-01,3.85718e-01,3.56176e-01,2.19185e-01,2.06441e-02,-5.53422e-01,1.93629e+00,3.15976e-01,
-6.04650e-02,-2.83803e-02,-2.57170e-02,1.11472e-02,-5.12917e-02,8.57468e-03,-6.95941e-03,-2.43738e-02,-2.62742e-02,-1.19351e-02,-6.78370e-02,-2.64889e-02,2.55164e-02,3.07964e-02,-6.00938e-02,-3.67892e-02,-4.00454e-03,2.06244e-02,-1.25372e-02,9.58425e-03,2.69477e-02,-1.20534e-02,7.72669e-03,6.28532e-03,5.20218e-04,-8.24044e-02,-2.60027e-02,-2.95158e-02,3.88290e-02,4.05249e-03,-2.89642e-03,-8.53570e-03,7.75781e-03,1.11249e-02,-2.22507e-02,-4.89671e-02,3.37056e-02,-7.01465e-02,3.23694e-02,-2.75139e-02,-5.22113e-02,-4.64574e-02,-4.67844e-02,7.10621e-03,-2.68023e-02,
-1.49733e+00,-2.14332e-01,-2.61774e-01,-1.35994e-01,2.18813e-01,-3.68037e-01,7.35792e-02,-2.00807e-02,-1.85317e-01,-4.56092e-03,-1.31163e-01,-3.40842e-01,-5.49795e-01,-7.75178e-02,6.03272e-01,-5.58135e-02,3.18369e-01,-2.94302e-01,1.52104e-01,2.72969e-01,-3.37565e-01,1.26131e-01,6.76175e-02,-3.22363e-01,-6.05374e-03,2.30205e-01,-2.70943e-01,-8.70964e-02,7.75985e-02,4.26673e-02,-2.84657e-01,-2.18110e-01,-2.25292e-01,2.14755e-01,-5.45043e-02,9.29643e-02,1.13017e-02,-6.50425e-02,6.67271e-02,-2.62947e-01,3.97982e-01,4.62352e-02,-2.92950e-01,1.92455e-01,2.21127e-01,
2.84217e-01,-3.49093e-01,-6.69323e-01,-1.22606e+00,2.25468e-01,-8.13183e-01,-2.30273e-01,5.50503e-02,7.15457e-02,1.10546e-02,7.20310e-01,-5.20692e+00,-3.37240e+00,2.09383e-03,2.78153e-01,4.17088e-02,-2.61571e-01,-1.34008e-01,-1.97478e-01,2.35426e-01,4.14859e-01,2.91457e-01,-1.02407e-01,-1.01870e+00,8.29493e-03,-1.06221e-01,9.63310e-02,1.45882e-01,-1.10360e-02,-1.33415e-01,-4.63076e-01,-2.54497e-01,-3.38022e-01,2.60190e-01,7.78748e-02,2.47400e-01,4.37889e-02,-2.59522e-02,4.77310e-01,5.13302e-01,3.22468e-01,4.33888e-02,5.39428e-02,-7.54023e-01,4.43175e-01,
-1.02734e+00,-3.60977e-01,-6.01375e-01,1.37831e+00,4.16743e-01,-1.87173e-01,-2.51381e-01,2.98290e-02,4.56858e-01,8.77133e-03,-8.63079e-01,-4.96147e-01,-2.95866e+00,-3.89594e-01,-9.75292e-01,-2.54245e+00,7.20726e-01,-1.48715e+00,-3.99573e-01,-1.09662e+00,-1.37667e+00,-5.44718e-01,2.08808e-01,-6.80279e-01,-3.19164e+00,-7.74573e-01,-4.50161e-01,-2.86809e-01,-8.96914e-03,5.86667e-01,-1.33765e-01,-1.09565e+00,-4.57113e-01,-2.77006e-01,8.30048e-01,-1.06010e+00,-2.12395e-02,-9.49416e-01,-2.90495e+00,4.22682e-01,-2.76464e+00,-4.27717e-03,1.11129e+00,5.42352e-01,-2.05361e-01,
7.56194e-02,-5.51529e-02,-1.88699e-01,-5.33776e-01,-5.94373e-02,5.13355e-01,-9.44284e-02,3.53144e-02,-8.40331e-02,-1.83472e-02,-3.10883e-01,-1.49420e+00,8.13372e-01,-2.87485e-02,-5.10091e-02,-2.95931e-01,-1.57701e-01,8.38880e-01,-6.25747e-02,1.49650e-01,3.00246e-01,-7.77365e-01,-1.70921e-02,1.78772e+00,-9.96515e-02,-3.99817e-01,7.59619e-02,-6.16241e-01,-5.79376e-03,-4.43542e-01,5.29779e-01,-1.04283e-01,-1.12481e+00,-6.11759e-01,2.37077e-01,4.45617e-01,5.53880e-02,-1.32224e-01,1.98076e-01,-3.75712e-02,-8.01989e-02,4.65773e-02,-6.09013e-01,-2.49295e-02,4.10477e-01,
1.65208e-03,-4.18698e-02,-7.85688e-03,2.93771e-03,-3.74583e-02,-1.19176e-02,-8.39033e-04,-7.86715e-03,-1.56680e-02,2.43717e-02,2.89541e-03,2.05578e-02,2.34701e-02,1.75712e-02,-9.89769e-03,-3.39121e-02,2.11022e-03,-5.55791e-02,2.60408e-02,1.15997e-02,-1.85025e-02,-4.68027e-02,-1.19874e-02,-2.90578e-02,1.34408e-03,-4.71110e-02,-1.65607e-02,1.64621e-02,-4.00174e-02,-4.92501e-02,-3.59365e-02,-4.79400e-02,-2.06402e-02,-6.30344e-03,-4.11568e-02,-5.63976e-02,4.82617e-02,2.56774e-03,2.07416e-02,-9.51352e-03,-5.68971e-02,1.23346e-02,-4.90205e-02,-1.44282e-02,-4.41894e-02,
6.38903e-01,4.75853e-01,-3.69738e-01,2.50391e-01,-2.60573e-02,6.73955e-02,1.86232e-01,2.16895e-02,-4.63847e-01,-2.00730e-02,4.76206e-01,1.81104e+00,3.24938e+00,3.87389e-01,1.30262e-01,2.44944e+00,3.14196e-02,9.45157e-01,-1.93992e-01,3.81417e-01,2.42092e+00,1.25567e+00,3.78934e-01,8.72083e-01,-7.74538e-01,5.77427e-01,9.83366e-02,5.14112e-01,-2.58746e-02,4.87493e-01,1.58957e-01,-2.55603e-01,-7.20983e-01,8.63728e-01,-1.84445e-01,2.05202e+00,-1.64223e-02,6.19479e-01,-5.66022e-01,4.54997e-01,4.12911e-01,1.73016e+00,5.50739e-02,1.79010e+00,1.89030e-01,
-1.40953e+00,1.00109e-01,-1.83978e-01,6.21257e-01,-5.87120e-01,-8.09307e-02,2.11726e-01,-4.54052e-02,2.88099e-02,-1.45031e-02,4.26310e-01,2.29786e+00,1.39998e+00,9.15555e-01,2.18445e-01,3.27856e-02,3.80574e-01,-3.81950e-01,-2.89810e-02,5.99201e-02,2.85245e-01,6.44708e-02,-1.32122e-01,6.85473e-01,-9.17017e-02,-4.60482e-01,-3.76358e-01,2.05688e-01,-8.96288e-03,-2.67300e-01,-2.93681e-01,9.88011e-03,1.64130e-01,-6.39544e-01,1.23934e-01,-1.99348e-01,4.74965e-02,-3.15092e-02,-3.11296e-01,4.68699e-01,1.07639e-01,-8.34955e+00,-2.78873e-01,-9.68278e-02,-8.74548e-02,
-3.55010e-02,2.19874e-01,-9.78344e-02,9.05156e-01,1.70267e-02,-8.44775e-02,1.31119e-01,5.21653e-02,-1.43022e-01,1.77576e-02,5.29336e-02,-9.10189e-01,-4.08325e+00,-1.48507e-01,-3.59424e-01,7.20705e-02,-7.15297e-01,5.28359e-01,1.83618e-01,1.28065e-01,-8.90470e-02,2.55341e-01,5.07198e-02,-5.41100e-01,6.37870e-02,2.95263e-01,3.08417e-02,-4.21209e-01,-1.07216e-02,1.53404e-01,1.11656e-01,4.67572e-02,-1.67908e-01,4.21152e-01,-7.76901e-02,-3.53045e-01,-1.46706e-02,5.12490e-02,-4.00707e-01,-9.08628e-02,2.93156e-01,-2.51083e-02,-1.68375e-01,-3.34844e-01,1.66806e-01,
-9.67498e-01,-5.59067e-02,3.78652e-01,-1.89860e-01,1.30482e-01,-3.31544e-01,5.53716e-01,-4.13944e-02,1.30579e-01,2.18211e-02,3.24008e-01,-1.15485e+00,-1.26305e+00,-4.31919e-01,2.79300e-01,1.90451e-02,2.41718e-01,-5.07598e-01,-1.71650e-01,5.51957e-01,-8.64322e-01,3.84024e-01,2.07157e-01,5.82326e-01,-7.71234e-02,-1.02688e-01,-4.44628e-01,-1.47397e+00,-4.57315e-02,2.51299e-02,-2.36202e-01,2.20134e-01,-3.03467e-01,1.75160e-01,-4.85187e-02,-6.48433e-02,1.04981e-02,2.88682e-02,-8.28710e-01,-3.59868e-01,1.88637e-01,-1.78447e-01,-7.77574e-01,6.79978e-01,-5.51801e-01,
3.20078e-01,-3.34019e-01,-1.27899e-01,-1.98081e-01,3.67865e-01,-2.58237e-01,3.08691e-01,-2.37937e-03,-1.91923e-01,8.55675e-03,-3.27006e-01,-1.17285e-01,1.59317e+00,-1.83412e-01,-9.89493e-02,-1.55474e-01,-3.67770e-01,-2.99315e-01,-3.06295e-01,-9.44501e-01,1.06300e+00,4.39012e-02,3.35867e-02,-2.47545e-01,-2.48276e-01,4.68971e-01,-2.55550e-01,-4.00391e-01,-1.06531e-02,-3.53866e-02,-2.66036e-02,6.26924e-01,-3.89031e-01,-6.84443e-02,8.26184e-02,-9.96697e-02,1.80610e-02,1.25914e-01,-3.79670e+00,2.33611e-01,2.13307e-01,-1.17996e-01,-1.45043e+00,3.07844e-01,-2.08116e-01,
4.98990e-01,1.39139e-01,-3.83765e-01,-1.25622e-01,-2.30478e-01,-3.70606e-01,3.98890e-01,1.58788e-02,-8.25507e-02,-3.93633e-02,-5.23061e-01,1.18375e+00,-7.89651e-01,-8.14986e-01,5.96536e-01,2.43908e-02,-4.99423e-01,7.47165e-02,-6.55638e-01,1.35533e-01,1.63703e-01,5.15649e-01,-8.85454e-02,-8.34184e-01,-7.52512e-02,-7.20965e-02,7.74676e-02,-3.14090e-01,-4.89160e-03,-3.38614e-02,3.08050e-01,2.72873e-01,3.43720e-01,5.79251e-01,5.60317e-02,-4.51246e-01,1.12340e-03,-6.17004e-02,-6.06684e-01,-1.40078e-01,3.35459e-01,4.97190e-02,2.10644e-01,8.30440e-01,1.53036e-01,
-1.48000e+00,-6.89161e-03,-4.55517e-01,9.35662e-01,-4.83385e-01,-1.48651e-03,-5.57128e-02,1.35888e-02,-6.11228e-02,4.61153e-02,1.94490e-01,1.17102e+00,2.22433e-01,-3.69553e-02,-1.92168e-01,-5.40627e+00,-2.98442e-01,-9.19396e-01,-5.06958e-02,-8.45997e-02,3.01205e-01,3.71708e-01,-8.80128e-02,5.64065e-01,-4.72498e-01,-7.86769e-01,-1.26031e-02,1.11509e-01,-3.30004e-02,1.05484e+00,-7.31835e-02,-1.61428e-01,3.70431e-01,-3.83015e-01,7.21439e-01,8.03908e-03,-2.38109e-02,1.20853e-01,5.17427e-01,2.47775e-01,6.86063e-01,-5.90106e-01,4.40463e-01,2.24039e-01,-2.59410e-01,
