// Neural Network File Format by Kyle Julian, Stanford 2016
7,4,9,45,
4,45,45,45,45,45,45,9,
0,
-8000.0,-100.0,-100.0,0.0,
8000.0,100.0,100.0,40.0,
0.0,0.0,0.0,20.0,-0.432599379632,
16000.0,200.0,200.0,40.0,3.102300001,
-3.77211e+00,-2.77976e-02,-4.22041e-02,-3.26906e-01,
2.53126e-01,-1.41980e+00,-1.64129e-02,-1.01762e-02,
3.66352e+00,8.07955e-02,-1.05541e-01,-4.70474e-01,
8.05636e-01,-2.29868e-01,2.74996e-01,4.79768e-01,
2.08715e-02,-7.31198e-01,2.15898e-03,1.96058e-02,
-3.59263e+00,2.85079e-01,-3.08025e-01,-2.48201e-01,
-1.00295e+00,-6.20769e-02,-2.27159e-01,9.22353e-02,
-2.92766e+00,1.48109e-01,-1.37954e-01,7.61086e-03,
3.81354e-01,-1.47618e+00,6.25822e-04,-9.07407e-03,
-1.71505e+00,1.33923e-01,-3.43645e-01,8.89691e-02,
-2.18126e+00,-1.11180e-03,-1.33949e-01,2.41798e-02,
-3.39817e+00,-4.32015e-02,-2.83627e-02,1.33723e-01,
-1.07249e+00,-5.99662e-01,-1.13051e-01,1.68145e-02,
-3.63798e-01,-6.22459e-01,-1.07379e-01,8.14968e-02,
-1.61091e-02,-1.10102e-01,3.73604e-01,2.66621e-02,
2.17299e-01,-7.64842e-02,8.70351e-02,-9.19170e-01,
-2.19259e+00,-5.33543e-02,5.04760e-02,1.17935e-01,
-2.23875e+00,8.02085e-02,-7.02512e-02,-1.05666e+00,
-9.45394e-02,1.25875e+00,7.04349e-03,8.81141e-03,
-3.40250e+00,1.16428e-01,-1.08062e-01,4.51768e-02,
-1.72548e+00,1.24323e-01,1.02620e-01,1.92381e-01,
-1.47222e+00,3.05676e-01,-3.66980e-01,5.50468e-01,
-1.22262e-01,-1.49100e+00,1.88727e-02,2.77762e-03,
-2.48238e-01,-6.00526e-01,6.10994e-01,3.40562e-02,
-6.17304e+00,-1.82247e-02,1.28142e-02,-6.73682e-02,
2.38667e+00,-2.84416e-01,9.89621e-02,-1.24491e-02,
-4.79788e+00,2.20820e-03,-4.67585e-03,-5.65568e-04,
1.11721e+00,-1.88279e-01,1.89004e-01,-2.29270e-01,
-4.45114e-01,3.47071e-02,-4.56857e-01,9.40589e-02,
-8.44845e-01,1.90194e+00,-3.94384e-02,2.51752e-02,
-7.55117e-02,-3.98598e-01,3.90230e-01,1.99414e-02,
-2.34388e+00,-1.09286e-01,9.81925e-02,-3.94342e-02,
2.96298e-01,1.27547e-02,-2.79038e-02,-1.19640e+00,
-2.44768e+00,1.87887e-01,-1.24889e-01,-4.23939e-01,
1.79415e-01,-2.98031e-01,3.39464e-01,2.64579e-01,
-2.27142e+00,1.38355e-01,-2.15144e-01,8.42305e-02,
-2.02032e+00,-3.71025e-01,3.36254e-01,5.56684e-02,
-1.12893e+00,-1.04299e-01,1.28425e-01,5.29336e-01,
9.20570e-01,2.72778e-01,-2.61860e-01,8.21383e-02,
3.43524e+00,-9.29677e-03,-2.03727e-02,-6.92009e-01,
7.74033e-01,-2.58882e-02,-3.54130e-01,2.45740e-01,
2.53645e-01,1.26187e-01,-1.64753e-01,5.93352e-01,
-1.04978e+00,1.90066e-01,-2.18987e-01,4.68007e-02,
-2.29184e+00,1.13391e-01,-1.17667e-01,2.10953e-01,
-1.11989e+01,-3.19290e-02,4.16306e-02,1.01802e-02,
-3.71902e-02,
1.89352e-01,
-7.48300e-02,
2.24812e-01,
1.70108e-01,
-1.98434e-02,
-4.74318e-02,
-1.55324e-01,
2.01232e-01,
3.55891e-02,
-8.94001e-02,
-1.05467e-01,
-2.93871e-01,
4.42674e-03,
-1.74543e-04,
-1.52654e-01,
1.18523e-01,
-3.49727e-01,
-5.81697e-01,
1.41549e-01,
-3.06398e-02,
1.92528e-01,
-1.77336e-01,
9.60775e-02,
5.30537e-02,
4.29137e-04,
2.10044e-01,
-3.64140e-03,
-1.14573e-01,
-2.00925e-01,
1.05171e-01,
-2.13386e-01,
-4.63662e-01,
-3.86872e-01,
2.04239e-01,
6.37168e-02,
-5.37576e-03,
2.05725e-01,
6.10758e-03,
-2.12664e-01,
2.85790e-02,
2.48787e-01,
-6.58398e-02,
1.55655e-01,
5.04835e-02,
3.75976e-02,4.12728e-02,2.74830e-02,-5.82781e-02,3.57242e-02,8.09837e-03,1.41777e-02,5.57543e-03,-1.92577e-02,-4.33928e-02,1.24904e-02,-2.00810e-02,5.47126e-03,-3.83178e-02,-6.44624e-02,-4.75717e-02,1.26267e-02,-1.00191e-02,-6.68753e-02,-1.14910e-02,1.92288e-02,1.83862e-02,-5.89401e-02,-9.81392e-03,4.88771e-02,1.01393e-03,1.89192e-04,-3.15779e-02,1.39567e-02,1.08024e-02,1.31188e-02,-5.16422e-02,-4.22338e-02,-1.45109e-02,6.94077e-03,-2.36223e-04,-2.32412e-02,6.88131e-03,1.54596e-02,-2.80148e-02,-2.95602e-02,-3.30563e-02,-1.85673e-02,-3.12637e-02,-2.94456e-02,
1.92105e-02,4.20678e-02,-1.12509e-02,1.27630e-02,-6.69691e-02,-8.04093e-03,7.54062e-04,1.95916e-02,-3.27161e-02,-3.86373e-02,2.02075e-02,2.23719e-02,-3.88902e-02,-1.98402e-02,-2.70138e-02,-2.23261e-02,8.16415e-03,3.01692e-03,-3.27584e-03,-4.32844e-03,-3.17271e-02,-1.07493e-02,-4.59504e-02,1.39983e-03,5.54649e-04,-2.56756e-02,-3.90063e-02,-1.94727e-02,7.19884e-03,-2.77244e-02,-6.45491e-02,1.55537e-02,1.99513e-02,2.38404e-03,-9.43001e-03,-4.60390e-03,2.44013e-02,2.58288e-02,-5.30285e-02,-2.36030e-02,-4.61537e-02,-5.83761e-02,-6.40788e-02,6.57445e-03,-1.78922e-02,
2.87799e-01,-9.52731e-02,1.23827e-02,6.27307e-02,8.05225e-02,5.85334e-01,-1.49936e-01,1.45446e+00,-7.54392e-02,1.22273e-01,1.82610e-01,2.49376e-01,-4.62041e-01,4.35754e-01,-6.88895e-01,-5.47495e-01,3.44899e-01,-4.91571e-01,2.95030e+00,2.73904e-02,4.51757e-01,1.75113e-01,1.01222e-02,-1.68825e-01,5.87539e-01,7.63644e-01,1.71172e-01,4.49527e-01,4.78244e-01,2.31351e-01,1.87620e-01,1.94977e-01,-7.46201e-01,1.17112e+00,7.98500e-03,2.96297e-01,-1.04878e+00,-1.49056e-01,3.85663e-01,3.94873e-02,-1.53160e-01,6.43840e-01,9.69697e-01,4.06769e-01,-1.10871e+00,
1.81274e-01,-5.35198e-02,-4.71802e-01,-6.11451e-01,-9.25450e-02,3.62024e-01,6.37686e-01,-2.89975e-01,-5.91476e-02,-1.44499e-01,1.66942e-01,-1.88683e-01,-1.34775e+00,-1.46186e-01,-3.06377e-02,4.43094e-01,1.62921e-01,2.32213e-01,1.33791e+00,1.32796e-02,-5.53676e-01,6.17643e-01,3.74717e-01,-3.63908e-01,1.13862e-01,-6.10969e-01,8.78939e-02,7.62065e-01,-8.06129e-01,-4.43516e-01,1.26374e-01,-2.87733e-02,-6.27080e-01,-1.40450e-01,3.59199e-01,1.79808e-01,6.28913e-02,-5.39485e-01,-1.25035e+00,-4.58341e-01,1.51795e-01,1.09290e+00,-6.02347e-01,-1.40486e-02,-1.06243e-01,
4.32688e-01,-2.06835e-01,1.42457e-01,-1.38924e-01,-2.25913e-01,6.77276e-01,1.47041e-01,-3.63071e-01,-2.10120e-01,-4.04673e-02,-1.74891e-02,-5.53685e-01,-1.22315e+00,5.20677e-01,2.18700e-01,-3.07403e-01,-8.35780e-02,1.59197e-01,8.40522e-01,-3.55484e-01,-6.29503e-01,3.20614e-01,1.67932e+00,-1.04420e+00,5.10987e-01,1.95945e-01,-3.75475e-01,2.44398e-01,-1.20053e+00,-1.45738e-01,3.09760e-01,5.50454e-01,-4.15021e-01,-3.67382e-01,-7.24146e-02,2.28158e-01,-3.46556e-01,-2.43157e-01,-5.96168e-01,-2.14885e-01,-5.20071e-01,3.19764e-01,-2.49585e-01,7.77736e-02,6.28447e-01,
-2.15188e-01,-1.50233e-02,4.14128e-02,6.84532e-01,-3.63256e-02,-7.48956e-01,5.95686e-01,-7.27863e-01,-7.18890e-02,-1.31709e-01,2.53766e-01,-1.79910e+00,4.46978e-01,3.02858e-02,-1.69851e-01,-5.67579e-01,3.84842e-01,-1.18115e+00,8.03765e-01,-2.51347e-01,-3.13147e-01,-1.17066e-01,1.61889e-02,-1.63707e-01,3.75559e-01,3.89327e-01,-3.22733e-01,-1.85061e-01,1.49388e-02,1.11201e-02,2.63172e-01,5.42907e-01,-5.47405e-01,5.65240e-01,2.97918e-01,5.30782e-01,8.98299e-02,1.06386e-01,-4.08235e-01,-1.83080e-01,-1.35375e-01,1.35793e-01,7.82481e-01,1.36021e-01,1.39648e+00,
-2.38631e-01,4.30235e-02,5.39213e-02,4.48740e-01,-1.04098e-01,-1.96752e-01,4.64815e-01,-1.13528e+00,-9.92586e-03,-1.33707e-01,1.07967e-02,1.74918e+00,6.28574e-01,1.74773e-01,-4.33674e-02,-1.03164e-01,1.06416e-01,-2.94361e-01,3.77261e+00,1.14460e-01,2.57981e-01,-9.41538e-01,-6.13309e-02,2.32659e-01,8.27516e-02,-9.28210e-01,8.84234e-03,-1.73117e-01,-2.99052e-01,-1.23936e-01,7.39984e-02,-2.25579e-01,8.84537e-01,-2.17181e-01,7.59954e-02,4.50303e-01,1.57073e-01,6.00282e-01,3.32140e+00,-5.47728e-01,-2.24128e-01,-1.06254e+00,1.96860e-01,4.56920e-01,1.60730e-01,
-6.14173e-03,4.90312e-02,-4.28036e-02,-2.56615e-03,2.80205e-02,-2.97328e-02,-2.20773e-02,-8.49738e-03,-3.64010e-02,-2.69952e-03,-5.56540e-02,9.79377e-03,-3.34750e-02,-3.72863e-02,2.58026e-02,-3.66427e-02,-6.03092e-02,-5.33506e-03,2.18140e-02,-6.16180e-02,3.29415e-02,-1.19745e-02,-2.34649e-03,-2.69928e-02,-5.03295e-03,5.54861e-03,-4.33729e-02,-1.15848e-02,-1.25404e-02,-4.40460e-02,-4.09071e-02,-2.45948e-03,-2.12810e-02,-1.34178e-02,-1.96232e-03,2.55284e-02,-2.77592e-02,-2.88511e-02,-3.93277e-02,-3.59605e-02,3.51415e-02,2.67654e-02,-1.48542e-02,-1.97807e-02,4.46900e-03,
-5.61695e-01,-1.36753e-01,9.90337e-01,1.42410e+00,1.18661e-01,-3.99176e-01,-3.63226e-02,1.35391e+00,1.67073e-01,-2.46031e-01,-1.32531e-01,5.37421e-01,5.45551e-01,3.50848e-01,3.67354e-01,3.79176e-01,-4.89373e-01,3.47505e-02,1.93570e-02,-4.80296e-01,1.21413e+00,-9.60813e-01,4.66107e-02,6.65790e-01,-7.82215e-01,5.43631e-01,-6.49026e-01,5.55727e-01,2.41809e-01,-5.65152e-02,3.27706e-01,1.05256e+00,1.26540e+00,3.48553e-02,6.15800e-01,-1.84458e-01,2.98586e-02,9.68214e-01,-1.16585e-01,1.32164e+00,-6.37484e-01,-6.98413e-01,1.03035e-01,-4.76750e-01,-2.29196e-01,
-3.10902e-01,1.70006e-01,-2.94914e-01,4.43607e-02,-6.73400e-02,-4.17309e-02,-9.23989e-02,9.44070e-01,2.09975e-03,6.31381e-01,4.70753e-01,8.36102e-01,4.28765e-01,2.17715e-01,8.16173e-01,-4.87655e-01,-2.18783e-01,-6.29154e-01,-2.53387e+00,2.40547e-01,6.14730e-01,-4.74699e-01,-9.20446e-01,4.95021e-01,-5.22012e-01,4.89530e-03,3.56428e-01,-3.71356e-01,-4.79296e-01,5.18364e-01,6.70278e-01,-1.23459e-02,1.39121e+00,6.32960e-01,3.99421e-01,-2.01411e-01,-5.48078e-01,2.73606e-02,-5.29079e-01,4.36940e-01,-8.80790e-02,3.23877e-01,8.38215e-01,-3.37501e-01,-2.13385e-01,
2.33243e-01,1.22965e-01,-5.28233e-01,-4.40768e-01,4.25801e-01,5.26380e-01,1.49291e-01,-1.60688e-01,2.47478e-01,3.03910e-01,-2.35028e-01,-3.02428e-01,-7.69231e-01,-1.86920e-01,-5.99358e-01,1.40278e-02,-2.43970e-01,-3.82141e-01,3.12469e+00,5.87330e-02,-4.56663e-01,5.85045e-01,-5.42264e-01,5.25645e-01,-1.32202e-01,-3.48995e-01,1.44210e-01,-9.62089e-01,2.59023e-01,1.42988e-03,-6.16972e-01,-8.21015e-01,-1.15832e+00,1.70006e-01,-7.39761e-01,5.87089e-02,-7.80051e-01,-1.83823e-01,7.25491e-01,-1.23428e+00,8.20276e-02,3.33493e-01,-4.84841e-01,-1.34350e-01,5.76876e-01,
4.19817e-02,2.56660e-01,2.40195e-01,-3.52136e-01,1.40364e-01,4.48051e-01,-7.68935e-02,-1.24719e+00,1.76696e-01,5.45200e-01,-1.22537e-01,-1.84055e-01,-2.42332e+00,5.35557e-01,2.65003e-01,9.13163e-02,6.01992e-01,1.47806e+00,-4.63225e+00,1.82520e-01,2.05423e-01,1.36200e-01,1.36173e+00,2.58215e-01,5.23926e-02,4.79898e-01,4.38049e-01,-3.34923e-01,1.05629e-01,1.15654e-01,-2.78357e-01,-1.20866e+00,1.18774e+00,-1.95506e+00,-3.12661e-01,1.84091e-01,6.76294e-01,-2.36300e-01,-1.26818e+00,8.30572e-02,-2.96780e-01,3.53033e-01,-2.67391e-01,1.29981e-01,8.44745e-02,
1.51148e-03,-5.44184e-02,1.30392e-03,-1.46683e-02,-4.83290e-02,-5.66803e-02,-2.78645e-02,-1.14884e-03,-6.72758e-02,2.35674e-02,1.90874e-02,1.00431e-02,-4.01703e-02,-9.23842e-05,-1.29095e-03,-5.26733e-02,-1.64368e-02,9.48401e-03,-3.43630e-02,-3.61607e-02,-4.79840e-02,-6.62922e-02,-5.49188e-02,-1.44095e-02,-2.94296e-02,4.11675e-02,2.83880e-02,-5.26591e-02,6.62392e-04,3.48023e-02,-2.68530e-02,-2.40723e-02,-3.96112e-02,3.42008e-02,3.66992e-03,-4.42356e-02,-1.73172e-02,-6.18172e-02,-4.22095e-02,8.79827e-03,-9.54321e-03,-2.84500e-02,-4.57941e-03,-3.14239e-02,3.66266e-02,
8.96754e-01,1.09291e-01,-3.01167e-02,3.79135e-01,-2.86689e-01,4.34445e-01,2.99968e-01,-6.93410e-01,1.73765e-01,-4.13842e-01,-4.58517e-01,-3.25360e-01,7.48078e-01,-1.00676e-01,-1.31408e-02,1.93437e-01,-1.82847e-01,6.83138e-01,-3.39679e+00,-3.20396e-01,3.01619e-01,-6.32591e-02,-9.95606e-02,-7.18039e-01,6.38304e-01,1.15379e-01,-4.38400e-01,1.96665e-01,7.72126e-03,-2.00806e-01,1.05967e-01,-8.36596e-02,-9.17798e-02,7.24959e-01,-1.04596e-01,4.08931e-01,8.85191e-02,-1.06022e-01,-3.33754e-01,-2.81012e-02,-6.12303e-02,-1.58401e-02,2.15697e-02,-4.88084e-02,2.35119e-02,
-7.11994e-03,8.22294e-02,-9.23974e-02,-2.82691e-01,-9.27778e-02,2.07079e-01,3.06525e-01,1.02037e+00,-2.26198e-01,3.27059e-01,2.78496e-01,5.70497e-01,-4.36868e-01,2.26104e-02,1.28643e+00,3.93090e-02,-2.01182e-01,1.06316e-01,-1.80880e+00,4.14804e-01,1.87268e-04,8.03102e-01,-1.40729e-03,-2.69756e+00,6.66606e-02,-3.63627e-01,3.09303e-01,-1.28297e+00,-1.51446e-01,4.73410e-02,-3.19948e+00,-5.32126e-01,-1.13614e+00,2.04116e-01,-1.45077e+00,3.55619e-01,-1.05409e+00,-7.01567e-01,-1.81077e-01,-2.03271e+00,4.90822e-02,7.81370e-01,9.92668e-02,4.08565e-01,-7.85226e-01,
2.47505e-01,-1.80559e-02,-3.20842e-01,-2.36801e-01,4.04808e-02,3.69961e-01,-1.08467e-02,-6.29740e-01,2.60365e-02,-5.47600e-02,-2.37606e-01,1.13844e+00,-2.48643e-01,2.55024e-01,-2.01656e-01,6.35647e-01,-4.32120e-01,1.25374e+00,4.07687e+00,2.34536e-02,4.95793e-01,2.86376e-02,-1.11443e-01,4.58387e-01,1.24750e-01,-1.56655e-01,-3.26620e-03,2.44674e-01,3.35264e-01,6.97418e-03,-6.98107e-01,-2.21579e+00,1.11908e+00,-1.35607e+00,-5.56068e-01,8.99356e-02,-3.18064e-01,-4.82555e-01,8.42096e-01,3.24052e-02,1.32288e-01,7.50377e-01,2.66892e-02,-2.29187e-01,6.10226e-01,
-2.83202e-02,2.55430e-04,-5.10011e-02,2.36945e-04,-2.43970e-02,2.74878e-02,-3.00103e-02,3.97878e-02,-5.00125e-02,4.51151e-02,-6.25162e-03,-4.07153e-02,2.29226e-02,3.58634e-02,-3.89002e-02,-4.67069e-02,2.01119e-02,3.22150e-02,2.83284e-02,-2.04810e-02,-1.79732e-02,-4.26416e-02,2.71111e-02,-1.45051e-02,3.75111e-03,8.14565e-03,-4.67869e-02,6.93610e-03,-2.15367e-02,-1.45046e-02,-2.04865e-02,-3.27068e-02,-4.21027e-03,-1.51259e-03,2.81273e-02,-2.90421e-02,-1.59129e-02,-2.27914e-02,-3.36683e-02,2.18367e-02,-4.54666e-02,-4.79840e-02,-3.64431e-02,2.88335e-02,-2.19946e-02,
-1.07864e-01,-1.89083e-01,-6.66312e-01,-1.25196e-01,-6.39369e-02,3.05861e-01,2.07076e-01,-1.67123e+00,-8.07513e-02,-3.15120e-01,-2.23012e-01,4.43850e-01,-1.47990e+00,6.29702e-02,-2.39306e-01,7.49771e-01,-4.48387e-02,1.04815e+00,3.17154e+00,-2.18524e-02,-7.39009e-03,2.59928e-01,7.96649e-02,5.47982e-01,2.03682e-01,1.59981e-01,1.69350e-01,3.86230e-01,-9.23098e-01,1.51863e-01,1.03552e-01,-2.05502e-01,1.09520e+00,-8.21174e-01,4.04058e-02,-1.39529e-01,8.34309e-02,-2.12521e-01,1.43345e-01,-6.14778e-02,-2.17613e-01,5.77338e-01,-2.09922e-01,-1.43721e-01,8.49112e-01,
9.85102e-02,1.21675e+00,-2.55580e-01,-3.55179e-01,7.43360e-01,-5.96958e-02,-9.11554e-02,-1.30254e-01,1.26869e+00,-8.15586e-02,-4.85610e-02,1.19365e-01,6.15064e-01,1.28942e+00,1.01999e-01,1.71022e-02,8.73196e-02,-2.69570e-02,4.39226e+00,1.61533e-01,-3.21789e-01,1.12839e-02,2.79094e+00,2.62620e-01,3.16797e-02,7.15784e-01,2.24468e-01,-4.07977e-01,-1.23578e-01,-3.51757e+00,-1.40533e-01,-1.03330e-01,-5.23619e-02,-4.64404e-01,-1.98775e-01,-4.87689e-02,2.56599e-01,2.33505e-01,-2.83568e-02,1.50546e-01,-6.53142e-02,-1.45922e-01,-1.82278e-01,6.53350e-02,3.70773e-01,
2.44630e-03,1.33116e+00,-1.13293e-02,-2.09186e-01,9.45048e-01,7.68377e-02,1.81714e-01,-4.42891e-01,1.44861e+00,3.92510e-01,-2.11966e-01,-2.80740e-01,4.88433e-01,3.87382e-01,1.03310e-01,-1.12573e-01,2.62157e-01,-1.65827e-02,5.08511e+00,2.93310e-01,-1.72501e-01,1.82411e-01,6.12468e-01,1.06745e-01,-2.27200e-02,5.60507e-01,2.42005e-01,1.18755e-01,-2.60682e-01,-2.76538e+00,-1.72998e-01,-5.05031e-01,2.34071e-01,-5.08714e-01,-1.51120e-01,2.63231e-01,3.04139e-02,7.63320e-02,-1.47531e-01,-5.73636e-02,1.34559e-03,-1.26678e-01,-2.15845e-01,6.12652e-01,1.58146e-01,
-3.02722e-01,-1.96750e-01,2.13390e-02,-9.75456e-02,3.23429e-01,3.32100e-01,3.50801e-02,9.73941e-01,-2.16171e-01,9.34947e-02,-4.18385e-01,-1.08805e+00,4.41636e-01,7.12707e-01,-7.68064e-01,-4.20505e-01,6.52281e-02,8.92487e-02,1.42355e+00,2.22053e-01,-2.07452e-02,3.59073e-01,-3.68658e-01,9.19686e-02,-2.36842e-01,5.63827e-01,2.30539e-01,-6.04790e-01,-7.97395e-01,1.02167e-01,-3.04009e-01,-5.57567e-01,-4.38538e-01,-8.56084e-01,-7.75672e-01,1.89134e-01,-1.19323e+00,-4.88361e-01,5.42042e-01,-5.14021e-01,5.73344e-01,2.62956e-01,-3.07690e-02,3.53839e-01,4.73319e-01,
-1.21235e-02,1.54920e-01,-2.06832e-02,-2.61475e-01,4.28103e-01,4.89972e-02,-2.76663e-01,-3.39514e-01,4.08906e-01,-1.54542e-01,2.50400e-02,-9.06739e-02,-8.33370e-01,-6.32083e-01,1.53146e-01,9.41687e-02,1.71128e-03,-3.47913e-01,5.74600e+00,1.04091e-01,1.44582e-01,4.18821e-02,-1.45171e+00,6.31760e-02,-1.29135e-01,1.75816e-01,8.12738e-02,-2.14700e-02,3.43990e-01,-1.48211e+00,1.45250e-01,4.91196e-01,-1.04552e-01,7.63360e-01,1.49716e-01,1.36961e-01,-2.76253e-01,-3.05205e-02,-5.54565e-02,9.38790e-02,3.69277e-02,6.59497e-02,-1.40983e-03,2.50697e-01,9.98448e-02,
-7.65214e-01,7.60456e-02,-2.46371e-03,8.72668e-02,-6.56180e-02,-8.70353e-02,-3.41644e-01,1.20841e+00,1.83323e-01,-5.11636e-02,-1.75409e-01,-6.38447e-01,1.86754e-01,-6.29920e-02,4.64904e-01,6.58626e-02,-5.36040e-01,-8.30770e-02,-5.59574e+00,2.25923e-01,2.43266e-01,2.54924e-01,7.63398e-02,-3.75600e-01,-2.02721e-01,-8.35783e-01,8.34864e-01,3.93862e-01,-6.59438e-02,-8.14865e-02,-1.58892e-01,-1.52483e-01,1.36459e-01,1.51224e-01,-8.46671e-02,-1.11350e+00,-6.74549e-01,-1.23671e-01,1.07277e-02,-4.88416e-01,-7.04361e-02,-8.95287e-02,6.45448e-01,-7.85981e-02,3.83695e-01,
1.84775e-01,9.38276e-02,3.82169e-03,-3.34630e-01,7.76092e-02,-1.52031e-01,1.18215e-01,2.18414e-02,1.54063e-01,3.20589e-01,-2.05131e-01,-5.94413e-01,-9.63594e-01,4.04309e-01,5.82435e-01,3.96718e-01,3.35128e-01,-1.09655e+00,1.08368e+01,2.82481e-01,-1.12942e-01,-1.60343e-01,1.40814e+00,9.64290e-02,-6.32746e-03,-4.05256e-01,3.45816e-01,4.35830e-01,8.10431e-01,3.15440e-01,4.88415e-02,2.21764e-01,-1.09302e+00,-4.07301e-01,-1.30507e-01,-3.02316e-02,-3.24417e-01,-2.47568e-01,1.04621e+00,-2.58799e-01,3.67443e-01,-3.96509e-01,-3.21903e-01,2.63188e-01,1.18394e-01,
-7.22719e-01,1.71268e-01,2.79841e-01,-4.34572e-02,-2.52596e-01,-2.91163e-01,4.74682e-01,-9.07980e+00,2.66714e-01,-9.98746e-02,1.89778e+00,1.42870e+00,-2.89373e-01,5.26564e-02,-1.93716e-01,2.18118e-01,-1.07653e-01,7.23450e-02,6.19836e-01,9.76107e-02,-3.32686e-01,-3.43448e-01,-5.63968e-01,2.11219e-01,-5.57267e-01,4.93984e-02,1.68599e-01,-4.50918e-02,-6.48522e-01,-3.43228e-02,-4.44906e-02,-2.47659e+00,-9.03967e-01,-4.43911e+00,-1.41890e-01,-4.94353e-01,-5.93233e-01,-1.21488e-01,-1.88637e-01,-1.95575e-01,-3.37761e-01,-6.00118e-02,1.24486e+00,2.22104e-02,5.79744e-01,
1.42011e-01,-1.55529e-02,-4.61942e-01,1.50680e-03,1.98432e-01,8.07314e-02,-1.21451e-01,-1.28975e+00,-2.70536e-02,-4.12027e-02,-2.93085e-01,-4.63604e-01,7.75428e-01,-3.49225e-02,-3.53262e-02,1.84319e-01,9.69917e-02,6.03968e-01,1.70798e+00,1.75316e-02,-1.33953e-01,-5.79709e-02,-2.90099e-01,7.32708e-02,2.97367e-01,-1.06779e-01,1.80665e-01,1.20095e-01,-6.30125e-02,2.92482e-02,1.47850e-01,-8.75120e-01,4.73450e-01,-1.70045e+00,1.56572e-01,-4.95421e-02,-5.07708e-01,-3.46104e-02,5.16632e-02,-2.60304e-01,1.67327e-01,-6.49305e-03,2.78625e-02,-4.48740e-03,2.08422e+00,
2.16111e-02,-5.50706e-02,-2.36296e-02,1.51825e-02,-2.32811e-02,-3.96940e-02,-4.20108e-02,-1.57952e-02,3.60489e-02,-2.79837e-02,-1.82480e-02,-4.26001e-02,2.94616e-02,7.04092e-03,1.95606e-02,-2.31485e-02,2.31689e-02,7.97915e-03,-2.26832e-02,-3.06865e-02,-6.11221e-02,1.82829e-02,-5.02636e-02,-3.21080e-02,9.90357e-03,-2.45458e-02,-3.65054e-02,3.84686e-02,-2.76293e-03,-1.96419e-02,1.98861e-03,-3.14925e-02,-4.69861e-02,-3.19343e-02,-2.74187e-02,-4.29054e-02,-2.01461e-02,-1.75805e-02,-1.94584e-02,-2.73438e-02,-5.06488e-02,2.15086e-02,-5.36685e-02,-2.89605e-02,-3.28405e-03,
3.14427e-01,7.89709e-02,-3.66287e-01,4.46676e-01,1.02792e-01,5.61964e-01,-3.95912e-01,-4.78872e+00,8.43559e-03,3.83475e-01,2.70619e-01,-3.30694e+00,6.59076e-02,3.41656e-01,-6.86404e-01,4.21676e-01,1.57997e-01,6.67755e-01,4.47468e+00,-2.88063e-01,1.31673e+00,-5.48872e-01,9.73675e-02,-4.00672e-01,-6.88037e-01,-4.10894e-01,-3.24160e-01,1.39274e-01,-2.10599e-01,1.83955e-01,5.33689e-01,-4.66115e+00,9.76243e-01,-1.76441e+00,3.58263e-02,-1.56565e-01,-6.57946e-01,3.08296e-01,5.28877e-01,1.81679e-03,4.52078e-01,-6.05979e-01,7.86814e-01,-1.22344e-01,-8.84597e-01,
-2.33131e-01,-2.12145e-01,1.80551e-01,1.86339e-01,2.71941e-02,4.48143e-02,-2.84239e-01,-1.44364e+00,-1.77750e-01,-9.45973e-02,-7.71648e-01,-1.03563e+00,-1.60436e+00,7.37675e-02,2.05670e-01,-1.49834e-01,-3.25192e-03,-8.45649e-01,-1.39830e+00,-1.71717e-01,1.02291e-01,-1.82676e-02,5.11755e-01,4.96764e-02,3.37363e-01,1.85580e-01,-8.36219e-02,-1.39267e-01,1.62600e-01,1.58611e-01,2.86138e-01,-1.53616e+00,1.17677e-01,-1.54062e+00,1.60285e-01,-6.23631e-02,-3.34314e-01,3.10849e-01,3.10744e-01,8.70739e-02,-2.40714e-01,2.35479e-03,5.10480e-02,-1.90252e-02,3.03652e+00,
-3.52652e-01,6.69403e-03,-1.04477e+00,-1.26757e-01,1.09792e-01,2.76665e-01,2.59690e-01,7.96038e-01,8.72046e-02,8.32989e-02,-7.59037e-02,-5.97108e-01,-2.75247e-01,3.03940e-01,-3.63653e-01,4.16432e-01,-3.88428e-01,1.33412e-01,-1.80172e+00,-1.32636e-01,-1.96831e-01,1.50124e-01,-4.34300e-01,-1.21825e-01,-1.19534e-01,-1.34465e+00,-3.22294e-02,2.00063e-01,6.23215e-01,8.04842e-02,-1.30480e-01,-6.36580e-01,1.22011e+00,-5.32610e-01,3.81193e-02,-1.64998e-01,-8.10485e-01,1.15905e-01,-1.02201e+00,-2.89758e-01,-4.17571e-01,2.05308e-01,-1.97568e-02,-9.35352e-02,6.17564e-01,
4.21590e-02,2.64571e-02,-4.97071e-01,2.15164e-01,-5.30462e-02,2.97392e-01,-3.41318e-02,-4.70472e-01,-5.11559e-02,-2.49120e-01,6.47714e-01,-4.16982e-01,4.95263e-01,-5.14881e-01,-4.57488e-01,-3.39937e-01,4.22996e-01,4.50858e-01,-8.67399e-01,7.08118e-02,-1.20660e+00,4.10629e-02,-3.07721e-01,2.25724e-01,-6.13947e-01,1.93341e-02,2.17449e-02,-2.68095e-01,1.98176e-01,-4.45381e-02,4.50111e-01,-5.88956e-02,-1.06406e+00,6.64537e-01,-4.59121e-02,1.23778e-01,-1.28356e-01,-3.18283e-01,6.45328e-02,-3.97720e-01,2.09790e-02,5.15469e-01,-4.31008e-01,-6.12882e-02,3.46580e-01,
9.92513e-02,2.46449e-02,-3.48262e-01,-8.99636e-02,1.49707e-01,-2.30626e-01,-2.22572e-01,7.39773e-01,5.16599e-02,7.01783e-03,-4.17739e-01,-1.18788e-01,-2.81998e+00,2.36926e-01,2.04245e-01,3.03970e-01,-1.68926e-01,1.57669e-01,2.14909e+00,3.16496e-02,2.30619e-02,7.45706e-02,-2.12060e-01,-3.57930e-01,6.18303e-01,-7.62802e-02,2.42781e-01,1.25039e-01,-2.11332e-01,4.59052e-02,1.29865e-01,2.21395e-01,8.37416e-01,-2.28878e-01,-1.17659e-01,-1.86450e-02,-5.87813e-01,-4.71159e-01,-6.31785e-01,-1.54113e-01,-3.32994e-01,1.89068e-01,-3.64546e-01,-1.11729e-01,-5.59113e-02,
-2.98509e-01,5.80443e-02,-2.96653e-01,1.23392e-01,8.17178e-02,-7.38701e-01,3.72863e-01,2.10674e-01,3.66542e-02,1.01355e+00,9.93884e-02,-2.08772e-01,3.36541e+00,-2.29722e-01,5.72694e-01,-5.02754e-01,-6.64310e-02,1.55986e+00,-4.59441e-01,6.07747e-01,2.26720e-01,-3.93395e-01,1.84716e-01,7.29553e-01,-2.14375e-01,6.50996e-01,4.40777e-01,6.38464e-02,-1.19967e-01,1.89612e-01,5.59316e-01,-1.65064e+00,1.92766e+00,-1.07988e+00,4.44265e-01,8.87503e-01,-1.18550e-01,-5.00724e-02,-2.05544e+00,4.64651e-01,-3.02203e-01,4.46024e-01,-1.70380e+00,3.86513e-02,-2.93529e-01,
-3.90007e-01,3.06009e-01,-6.45752e-02,4.01519e-02,2.51755e-01,-2.50351e-02,1.05422e-01,8.85936e-01,3.52803e-01,3.42780e-01,1.74602e-01,-4.65837e-01,-2.17066e+00,-3.49607e-01,-2.58541e-01,5.49778e-02,-2.66854e-01,-5.63001e-01,1.40056e+00,-5.64419e-01,-1.01923e-01,-4.15836e-01,-6.79635e-01,-4.13048e-01,2.46047e-01,2.76188e-01,-7.55825e-01,3.30211e-01,-1.96348e+00,6.84960e-01,3.56550e-01,-5.75329e-01,-7.46789e-03,-7.20300e-02,1.55208e-01,7.21207e-01,1.64738e-01,1.99461e-01,-4.77528e-01,-6.72490e-02,-5.07626e-02,1.75469e-01,-1.92933e-01,1.24228e-01,2.25807e-01,
-8.90338e-03,-5.11132e-02,2.32646e-02,-5.27009e-02,-3.83908e-02,-5.12251e-02,2.29865e-02,-7.05470e-02,8.82988e-03,-8.86039e-03,-1.36057e-03,-4.90760e-03,-3.42246e-02,5.52309e-02,-1.10595e-02,-6.46827e-02,3.97288e-02,-2.30994e-02,2.13484e-02,-5.52266e-02,3.67559e-02,2.19281e-02,-1.20698e-02,-1.87800e-02,2.28347e-02,-1.53009e-02,-1.63133e-02,-2.06987e-03,-3.85466e-02,2.61964e-03,2.70356e-02,2.00579e-02,-3.29278e-02,2.39595e-02,1.66692e-02,-5.09271e-02,-5.31584e-02,-5.51996e-02,-2.22722e-02,1.00058e-02,-2.02739e-02,1.56425e-02,-4.57073e-02,-6.79606e-02,9.24633e-03,
2.57709e-01,5.66912e-02,2.71180e-01,-3.53956e-01,8.90460e-03,1.38955e-01,-1.33943e-01,1.13546e+00,3.30768e-02,-6.45856e-01,-2.11885e+00,-7.33520e-01,2.74256e+00,3.95472e-02,2.71482e-01,7.79864e-01,3.17277e-01,7.00566e-01,-6.31227e+00,1.63976e-01,4.61835e-01,-3.59624e-01,3.65034e-01,8.41722e-02,5.82574e-02,-5.11972e-01,3.17140e-01,-9.88832e-02,5.09030e-01,-1.42580e-01,4.77506e-02,9.10646e-01,6.41028e-01,-7.63706e+00,-4.39567e-02,-9.72906e-02,5.95560e-01,-3.85422e-03,3.31146e-01,4.13278e-01,-1.60554e-01,3.95365e-01,-7.21258e-01,1.91237e-01,-6.21962e-01,
4.17251e-01,-4.34620e-02,-3.73075e-01,-1.39740e+00,-9.53119e-02,5.84943e-01,-2.00538e-01,-5.17350e-01,4.12700e-02,2.91446e-01,-5.75602e-01,-1.84586e+00,6.22556e-01,4.33217e-02,1.77920e-01,4.37511e-01,3.30665e-01,5.71378e-01,-1.86961e+00,7.96938e-03,-2.52350e-05,7.35160e-02,7.24091e-02,-1.85455e-01,3.96283e-01,-3.62170e-02,2.82169e-01,4.14322e-02,-1.04953e-02,7.97651e-02,1.32128e-01,-1.58139e-01,2.15643e-01,-2.44566e+00,-3.48502e-01,2.91166e-01,3.70762e-01,-1.38261e+00,-1.29535e-01,-5.91190e-01,-2.15505e-01,6.68862e-01,-5.70143e-01,-2.56879e-01,4.54189e-01,
8.21558e-03,-3.73500e-02,1.73117e-02,1.14369e-02,3.58746e-02,2.05887e-02,1.52941e-02,-2.01762e-02,1.09385e-02,-4.41854e-02,3.02587e-02,1.19787e-04,-2.38281e-02,4.13682e-02,1.34992e-02,-2.90822e-02,1.73409e-02,-2.57437e-03,-6.71193e-02,-3.66986e-02,-5.38231e-02,3.39468e-02,1.19729e-02,-1.96906e-02,-4.17677e-02,-4.92079e-02,-1.17150e-02,-3.82325e-02,-3.63297e-02,-3.12560e-02,2.54152e-02,-1.63232e-02,-2.87287e-02,-2.06921e-02,-1.05297e-02,1.13967e-02,-9.35218e-04,-6.18993e-03,2.26928e-02,4.26944e-03,-8.53735e-03,-6.10158e-02,3.14833e-02,-3.71312e-02,2.92802e-02,
-5.00030e-01,3.29027e-02,-2.00416e-01,-2.35889e-02,4.40227e-02,-3.12337e-01,4.14607e-02,4.03588e-01,1.42356e-01,4.05326e-01,-6.32745e-02,-3.35765e-01,-3.49116e+00,2.61542e-01,2.85375e-01,-5.37627e-01,-4.27062e-03,2.29608e-01,-3.65623e+00,-7.88602e-02,-3.95213e-01,1.55715e-01,6.31230e-01,3.03575e-02,-2.11118e-01,-3.06360e-01,-1.71924e-01,1.79094e-02,-2.28999e-01,-1.71913e-01,-7.30112e-02,-2.12816e-01,1.37999e-01,2.86423e-01,-2.50026e-02,4.23955e-01,1.69657e-02,-2.09845e-01,-8.96157e-01,4.15080e-01,-9.63150e-02,1.49630e-01,1.80510e-01,8.04112e-02,4.84553e-01,
-4.32825e-01,6.26082e-03,2.84504e-01,4.53858e-01,6.61074e-02,1.07279e+00,-4.23626e-01,-3.52282e+00,-8.72054e-02,4.05754e-01,-1.66199e+00,-2.78984e+00,6.53292e-01,1.13716e-01,-6.53736e-01,8.25177e-01,-1.51908e+00,6.58944e-01,4.00378e-01,-4.88902e-01,9.47529e-02,-6.57124e-01,-1.78426e-02,-3.93981e-01,-1.94071e+00,-5.20337e-02,-8.98139e-01,7.96318e-02,-2.90816e-01,1.88190e-02,-1.04617e+00,-7.53342e-02,6.36646e-01,-3.36002e-01,1.73873e-01,9.00488e-02,1.10419e+00,1.08562e+00,-4.63079e-01,2.70496e-01,3.63018e-01,-4.04837e-01,6.95222e-02,-3.14677e-01,-4.88832e-01,
-4.08541e-01,1.81177e-01,3.24571e-02,2.55086e-02,1.37499e-01,-9.51764e-02,6.02886e-02,1.42881e+00,1.45182e-01,-6.09883e-01,3.31813e-01,-1.41935e+00,-2.95413e+00,-2.86672e-01,2.66496e-01,-5.31488e-02,1.05063e-02,-1.04637e+00,-5.62513e+00,4.04232e-01,-2.62334e-02,-3.28702e-02,-1.90027e-01,5.51203e-01,-8.20239e-01,3.27505e-01,5.10734e-01,-1.50491e-01,2.99509e-01,-3.03444e-01,-3.07310e-01,3.08432e-01,-1.19860e+00,1.33484e+00,-7.49885e-02,-7.71108e-02,-1.12649e-01,1.04142e-02,4.47132e-01,2.03199e-02,-4.72364e-02,-7.14050e-02,7.05942e-01,-3.81355e-01,4.44533e-01,
-8.92184e-02,1.03795e-02,8.33342e-02,-1.35420e-02,1.35935e-01,3.92180e-01,-2.13137e-01,-2.70832e+00,9.75871e-02,-8.83471e-03,-8.39068e-01,-1.02603e+00,-2.69136e-01,-2.02146e-01,-3.85722e-01,1.44377e-01,7.68123e-04,4.84672e-01,7.61355e-01,-5.86455e-02,4.53345e-01,2.00932e-02,-1.80128e-02,-3.85046e-01,2.43656e-01,-1.82559e-01,7.70040e-04,3.19075e-02,2.48660e-01,-2.55015e-01,-2.79533e-02,-1.50179e+00,-1.88049e-01,-2.54789e+00,1.14351e-01,9.57319e-03,-1.15422e-01,-7.61953e-02,1.34252e-01,-2.22995e-01,-2.12923e-01,6.60976e-03,9.23999e-01,-4.81560e-02,3.04227e+00,
-1.20573e-01,-7.97234e-02,-6.10599e-01,-3.21180e-01,7.43972e-02,2.90835e-01,-1.37043e-01,-6.77963e-01,3.61123e-02,2.77274e-01,-3.68324e-01,-3.77656e-01,1.98940e+00,-3.69105e-01,4.61093e-01,-1.04151e-01,-2.72339e-01,-1.47899e-01,7.28675e+00,-4.53614e-01,-4.21429e-01,6.36475e-01,4.55403e-01,-5.03832e-01,8.59627e-03,6.72849e-01,-9.82889e-01,4.38188e-01,2.94026e-01,7.68264e-02,4.77546e-01,5.59214e-01,-1.09136e+00,-5.75164e-01,-6.82025e-03,4.67022e-01,1.47218e-01,-3.15268e-01,5.39962e-01,-2.69545e-01,9.27364e-02,6.38091e-02,-1.34748e-01,1.06531e-01,7.77370e-01,
-8.01850e-02,6.55617e-02,1.50914e-01,3.33770e-01,3.34004e-01,1.21825e-01,2.74819e-01,-1.48194e+00,1.67974e-01,1.67428e-01,3.31232e-01,-1.03395e+00,4.65058e-01,-5.25923e-01,1.63126e-02,-1.26272e-01,6.83938e-02,2.15427e-01,5.69047e+00,-3.42148e-02,1.19980e-02,3.18578e-02,-8.67803e-02,-1.17230e-01,-1.60328e-01,-1.05088e+00,-5.14419e-04,-2.84731e-03,-9.95431e-02,-7.00240e-02,1.58946e-01,-7.59890e-02,-4.29976e-01,-4.23541e-01,3.65166e-02,1.94580e-01,-8.48871e-01,3.30146e-02,2.90998e-01,-8.84839e-02,-2.18429e-01,-1.97017e-01,1.04567e-01,-4.31348e-02,7.51200e-01,
-1.16830e-01,-3.78511e-02,-1.56206e-01,-2.79157e-01,1.36761e-01,2.58959e-01,5.40397e-01,-4.11213e-02,-4.63045e-02,1.40966e-01,-9.43778e-01,-3.05376e-01,-4.83850e-01,-1.71621e-01,-4.53702e-02,4.85006e-01,-7.10417e-01,1.10420e+00,7.79450e-01,-4.80933e-01,-4.43465e-01,2.53184e-01,7.45139e-02,3.37498e-01,-6.37338e-02,-4.17306e-01,-5.88744e-01,-1.83118e-01,-7.03612e-02,7.85152e-02,-1.66119e-02,-8.41488e-01,2.23356e+00,-6.54737e-01,-4.08026e-02,-1.22435e-01,8.93750e-01,2.88476e-01,4.41603e-01,7.35677e-01,-3.54309e-02,2.88149e-01,-1.76870e-01,-4.50209e-01,6.64332e-01,
-2.83274e-02,
-2.47483e-02,
1.71814e-01,
-1.13610e-01,
2.48410e-01,
5.22174e-02,
-3.03944e-01,
-1.78075e-02,
2.40456e-01,
-1.28276e-01,
8.33891e-02,
-6.40115e-01,
-1.52257e-02,
8.51052e-02,
3.75227e-02,
-1.18523e-01,
-1.71934e-02,
-2.92500e-01,
-5.93451e-01,
-8.36772e-02,
8.80438e-02,
2.50897e-01,
1.46550e-01,
-1.54149e-01,
2.01032e-01,
-7.33698e-02,
-2.39027e-02,
3.95544e-02,
1.09452e-01,
1.15877e-01,
1.56292e-01,
6.54927e-02,
-5.74713e-01,
-1.09584e-01,
-1.95733e-02,
-1.77121e-01,
1.50116e-02,
-2.54404e-02,
2.77526e-02,
1.60394e-01,
5.69030e-02,
6.49734e-02,
9.71702e-03,
-9.98996e-02,
-4.47253e-01,
9.08355e-03,-7.26039e-03,-7.88371e-01,-7.95865e-01,-4.49408e-01,2.52938e-01,8.82270e-01,-1.32778e-02,-1.55884e-01,8.40824e-01,6.68959e-01,-1.06737e-01,1.24476e-02,1.81834e-01,2.12874e-01,4.56125e-01,8.16704e-03,1.96872e-01,8.70524e-02,-6.09527e-03,2.72243e-01,2.47268e-01,3.69013e-01,-4.06234e-01,-1.47436e-01,-2.29589e-01,4.94953e-02,6.47457e-01,8.78872e-02,6.63245e-01,-1.01121e-01,2.62807e-01,6.55334e-01,-2.36063e-01,3.31592e-03,-2.44251e-01,-5.94088e-01,4.64026e-02,1.43977e-01,2.46583e-01,5.55101e-01,-1.32915e-01,-5.14638e-01,-6.90400e-01,1.01243e-01,
-7.48434e-03,-2.49403e-03,2.57499e-01,-3.18871e-02,1.06829e-01,7.25867e-02,2.30119e-02,4.32469e-03,-2.79533e-01,3.76638e-02,6.07364e-01,-2.76161e-01,-1.31856e-02,-7.63931e-02,2.97072e-02,2.42945e-01,-2.51480e-02,2.37909e-02,-3.58010e-02,9.37166e-02,7.29071e-01,-1.09199e-01,-2.48352e-02,-6.48330e-02,-7.66455e-01,-5.26976e-02,-4.64764e-02,-4.23844e-01,6.93114e-02,4.74907e-01,1.97530e-01,-9.75025e-02,-3.64415e-01,-7.38154e-02,-9.96410e-03,-6.53471e-01,4.22605e-01,-3.24379e-02,1.07730e-01,-8.47470e-01,5.05198e-02,1.80902e-02,6.66606e-02,-8.85942e-02,-1.26360e+00,
-5.20832e-03,3.32758e-02,1.37765e-01,-4.35541e-01,-1.77625e-01,-5.87739e-01,1.99187e-01,5.63155e-02,-5.96368e-01,-6.35848e-02,-6.60683e-01,-1.97197e-01,1.92057e-02,1.02702e-01,-5.98260e-01,-1.40920e-01,3.05138e-02,4.21440e-01,7.52650e-02,-3.46064e-02,5.32325e-01,7.07168e-02,2.81311e-01,3.93794e-01,4.37736e-02,4.31062e-01,-3.05776e-02,-6.44939e-03,-3.15822e-01,-4.17880e-01,-4.20616e-01,6.56751e-01,-1.10121e-01,-1.70515e-01,-3.63490e-02,1.75744e-01,3.01804e-01,-3.35682e-02,-4.24260e-01,-2.22265e-01,-6.92161e-03,1.60064e-01,8.72837e-01,-1.07101e-01,-8.58638e-01,
-2.11041e-02,-4.08695e-03,3.01604e-01,1.08137e-01,-1.73175e-01,-6.09931e-02,-5.29420e-01,-2.48625e-02,-4.73330e-01,3.65797e-01,2.64423e-01,-5.98043e-02,6.22278e-03,1.55015e-01,-5.38607e-01,-1.96177e-02,-1.98506e-02,-9.59795e-03,-1.02940e-01,-1.16046e-01,-1.64908e-01,-5.23304e-02,-1.44470e-01,-5.77015e-02,-4.02761e-02,9.25749e-02,-3.10018e-02,7.66475e-01,1.25671e-01,1.57839e-01,-7.78475e-01,-5.33292e-01,6.85863e-01,1.30501e-01,2.95838e-02,4.48338e-01,-5.52769e-03,3.01692e-03,7.09734e-01,-1.85525e-01,-4.08992e-01,-1.87099e-02,-1.24162e+00,-1.46728e-01,-1.06228e+00,
-2.43690e-02,-2.56783e-02,6.99604e-01,-6.31363e-01,4.93297e-02,3.91753e-02,-3.56865e-02,-9.98004e-03,-1.73457e-01,-1.78825e-01,-2.68162e-03,-1.65975e-02,-1.44670e-02,-2.97033e-02,-7.12194e-01,-4.96607e-01,-3.26034e-03,-3.24887e-01,7.68913e-01,2.90279e-01,-1.90568e-02,-3.38950e-01,-5.86481e-01,3.97846e-02,8.16558e-02,2.57244e-01,-2.94028e-02,-3.85912e-01,-5.72818e-02,6.71934e-02,1.31881e-01,-1.27857e-01,-9.25929e-01,6.50242e-01,-3.85841e-02,-4.56975e-01,-1.60398e-01,-1.36707e-02,-6.12959e-02,5.57014e-02,-2.53372e-01,-1.58526e-01,-1.86120e-01,3.15405e-01,1.18922e-01,
9.90834e-04,-3.80181e-02,-5.94060e-02,-5.58792e-02,3.52639e-02,-3.19427e-02,6.91890e-03,1.94881e-03,-9.55584e-04,-4.76318e-04,-3.79339e-03,-1.48088e-02,4.26919e-02,-5.76741e-02,2.45442e-02,1.51779e-02,-1.92500e-03,1.50264e-02,-5.14941e-02,-2.65386e-02,-5.77402e-02,-5.69686e-02,-4.74121e-02,1.21018e-02,2.53266e-03,-3.78228e-02,-7.78439e-03,-3.46866e-02,-2.09322e-02,2.31991e-03,3.92148e-02,-1.70298e-02,1.05901e-02,-1.88208e-02,-6.76942e-03,-5.64411e-04,-6.38334e-03,-6.35591e-03,-3.62498e-03,-1.65621e-02,3.60642e-02,2.59387e-03,5.22430e-03,3.42429e-02,-2.54910e-02,
-4.45501e-02,-7.60389e-03,-3.20594e-02,-4.31421e-02,2.31501e-02,-4.46267e-03,2.01650e-02,8.06656e-03,-5.79118e-02,1.70823e-02,-5.31630e-02,-3.73347e-02,1.64222e-02,2.66541e-02,2.89976e-02,-1.05171e-02,-1.66807e-02,3.23200e-02,2.55234e-02,-2.28500e-02,-1.38501e-02,2.39302e-02,-2.92776e-02,1.29632e-02,2.71061e-02,-3.47386e-02,-3.69680e-02,-2.18288e-02,1.80250e-02,2.09311e-03,-2.58939e-02,-4.88276e-03,-2.16604e-02,-4.78255e-02,3.63169e-02,-6.48081e-02,-5.01876e-02,-1.48961e-02,-7.85557e-04,-3.55879e-02,1.73108e-03,-5.55655e-02,2.20361e-02,-5.00332e-02,1.65558e-02,
5.21611e-03,-3.60195e-03,-1.76889e-02,8.84541e-03,-2.23956e-02,-8.49894e-03,4.55634e-02,-3.64564e-02,1.22427e-02,-3.05106e-02,-4.58560e-02,-3.70574e-02,1.07408e-02,-5.75653e-02,3.25493e-02,-9.47769e-03,-4.65634e-02,-6.71839e-02,2.00137e-02,-5.14660e-02,1.19798e-02,1.00879e-02,2.99368e-02,-6.04747e-02,-2.75867e-02,-1.29731e-02,1.11418e-02,-3.57228e-02,8.09347e-03,-5.26735e-02,-2.13086e-03,7.74848e-03,-4.67279e-02,-3.79097e-03,2.95936e-02,-4.20167e-02,-5.35198e-02,3.44277e-02,-5.17814e-02,-5.52090e-02,-3.02082e-02,-7.74792e-04,1.45943e-02,2.03113e-02,-7.27669e-02,
-1.20895e-03,4.47320e-02,-7.46098e-01,-6.81456e-01,-2.62963e-01,4.12141e-01,3.47755e-01,4.23347e-02,1.56912e-01,2.14119e-01,-1.72010e+00,-8.84540e-01,3.35547e-02,-4.74640e-01,-9.44905e-02,-2.96696e-01,-4.73113e-02,-4.13215e-01,3.16593e-01,2.54611e-01,-1.14070e-01,7.50440e-03,3.60179e-01,2.06432e-01,5.15284e-01,-4.21152e-01,2.41714e-02,7.27813e-01,4.31665e-01,-6.03840e-01,9.52428e-02,-5.63961e-01,-5.69766e-01,-5.54711e-02,2.45558e-02,-2.08131e-01,-1.79325e+00,-1.22836e-02,-1.31224e-01,2.63963e-01,4.39928e-01,-4.76275e-02,-3.05040e-01,3.01988e-01,-2.15848e-01,
-2.64027e-02,3.39857e-02,8.46095e-03,2.20563e-02,-1.61158e-02,-4.58246e-02,-1.63874e-02,4.41833e-02,-3.55871e-02,-3.60768e-02,-5.94943e-02,-1.70907e-02,2.32353e-02,-2.65689e-02,1.02134e-02,-5.39747e-02,2.50078e-02,-5.33004e-02,-3.34513e-02,-1.57067e-02,-1.41791e-02,3.08878e-02,-2.65209e-02,-3.89986e-02,-7.24640e-03,-4.52121e-02,1.50554e-02,-4.08289e-02,2.82890e-02,-3.99183e-02,-5.41201e-02,-2.89942e-02,3.29754e-02,-1.52792e-02,1.44654e-02,-5.50730e-02,2.49653e-02,-1.41980e-02,1.75210e-02,-8.81366e-03,-5.38200e-02,2.88478e-02,-4.87914e-02,1.28352e-02,-1.96940e-03,
1.70332e-02,-2.26517e-02,2.44462e-01,1.91499e-01,-5.27252e-01,-3.67810e-01,-3.80685e-01,3.38706e-02,-1.72703e-01,2.53672e-01,-9.86336e-02,-1.93214e+00,-3.56011e-02,-5.18524e-01,-1.08691e+00,-9.34434e-02,3.30438e-02,3.33684e-01,2.06705e-01,8.31463e-02,-3.20374e-01,-1.29912e-01,-5.36842e-01,-3.86250e-02,-3.58974e-01,4.83632e-01,-1.35231e-02,-2.87695e-01,-1.03644e-01,-1.61959e+00,-1.92647e-01,3.75080e-01,-6.49736e-01,-3.68304e-01,5.82307e-03,8.95786e-02,-2.71443e-01,2.94580e-02,-1.28038e+00,7.37061e-01,8.28423e-02,2.08646e-01,1.14668e+00,3.42845e-01,2.83656e-01,
4.32935e-03,1.73640e-03,-5.36175e-02,-1.25479e-01,1.41111e-01,-6.78738e-02,-4.04875e-01,2.85430e-02,-2.22049e-02,8.30825e-02,-1.14245e-01,-9.19826e-02,-2.95210e-02,4.63752e-02,1.64924e+00,3.62005e-01,1.43208e-02,1.40642e-01,-4.99943e-02,2.09366e-02,-6.90120e-01,-9.60131e-02,4.09563e-01,1.16801e-01,5.18460e-01,1.91221e-01,1.51532e-02,5.94454e-01,-1.72686e-01,5.48487e-01,-2.40034e-01,3.18205e-01,1.76972e-01,-4.21404e-01,-4.42918e-02,8.68484e-01,-7.56579e-02,2.35267e-02,-2.41029e-01,-1.91332e+00,-3.50067e-01,1.59070e-01,-8.29251e-02,3.53723e-01,1.79995e+00,
-1.86883e-03,6.42250e-02,9.70096e-01,1.22317e-01,-1.18588e-01,-7.11875e-01,-3.37030e-01,-6.38046e-03,-9.82162e-01,8.56618e-02,4.74981e-01,-5.90065e-01,-2.07837e-02,5.90458e-02,-9.59622e-01,1.33509e-02,2.52341e-02,3.93348e-01,1.21376e-01,5.35780e-02,2.25718e-01,-2.98629e-01,1.32228e-01,4.51647e-01,5.38811e-01,8.56073e-02,-2.57284e-02,-7.57393e-01,-9.81681e-02,-1.03087e-01,-4.90839e-01,2.10773e-01,1.14577e+00,2.83516e-01,-7.61441e-03,3.47883e-01,4.96650e-01,-3.77214e-02,2.55090e-02,-1.40269e-01,-2.42775e-01,2.38485e-01,3.79235e-02,6.57438e-01,-5.92995e-01,
-5.67354e-02,6.86033e-03,2.21359e-01,4.63488e-01,2.08255e-01,-1.13296e-01,-8.72489e-01,3.47873e-02,-6.69505e-01,1.31510e-01,4.12470e-01,-9.22114e-02,1.88306e-02,-1.97080e-01,-1.55524e-01,1.51743e-01,5.11983e-02,-3.83827e-02,1.68867e-02,7.77266e-02,6.48591e-01,2.68430e-01,3.78219e-01,-2.87554e-01,-4.95966e-01,-1.79634e-01,-5.18082e-02,-5.41988e-01,2.67654e-01,3.43783e-01,-1.07374e-01,-2.98676e-01,7.31275e-01,-3.31829e-02,-5.53783e-02,-5.59881e-01,1.48883e-01,-2.95256e-03,4.77043e-01,-1.04921e+00,-3.66113e-01,-4.24442e-02,2.54658e-01,-7.06270e-02,-7.53114e-01,
4.86955e-02,-5.00232e-02,6.40379e-01,8.32530e-01,-4.75165e-02,-3.73016e-01,-4.35063e-01,1.55357e-02,-4.95736e-01,4.94143e-01,-7.27122e-01,5.63011e-02,-4.51506e-02,-2.18972e-01,-1.11690e+00,-1.39425e-01,1.31825e-02,-1.68831e-01,1.08130e-01,5.54171e-02,4.69628e-02,3.11002e-02,1.16841e-01,-2.52258e-01,1.49999e-01,6.77712e-02,-9.69984e-05,-6.43466e-01,4.28582e-01,-2.16352e-01,-4.13483e-01,-1.92935e-01,-2.44312e-01,-4.33369e-01,1.77441e-02,-3.53647e-01,4.75328e-01,1.79251e-02,4.96491e-01,1.48009e-01,-3.95286e-02,4.48458e-03,-1.70073e+00,-1.98563e-01,3.75557e-01,
-1.79842e-02,1.89466e-02,-5.71895e-01,-3.23367e-01,3.74778e-02,-3.82239e-01,9.22276e-01,-3.22139e-02,-3.79417e-01,1.58204e-01,-6.59976e-02,-5.88812e-01,-4.00579e-02,-1.50657e-01,-1.57596e+00,2.58256e-01,-1.45944e-02,3.76866e-01,2.14874e-01,-7.34380e-02,-6.17882e-02,2.28929e-01,2.51743e-02,1.34080e-01,-1.95557e-03,1.10763e-01,-4.62640e-02,-8.92515e-02,-8.54673e-02,-5.60259e-02,-1.92807e-01,-1.11614e-01,3.32107e-01,-2.82308e-01,1.21076e-02,-1.57228e-01,6.39318e-01,1.57757e-02,3.27627e-01,3.61080e-01,4.46036e-01,-4.48696e-02,-1.11019e+00,-1.06823e-01,-8.43833e-01,
-6.75734e-03,-4.60526e-02,-8.96443e-02,2.30335e-01,1.42635e-01,-2.74526e-02,-1.97732e+00,-5.22030e-03,-4.15560e-01,3.67273e-01,-2.21508e-01,-7.56046e-02,-3.20537e-02,-2.15383e-01,-1.07752e+01,-5.69768e-02,-1.24696e-02,6.10498e-01,1.32390e-01,-3.46167e-02,-8.35441e-01,-4.42689e-02,-8.19656e-02,5.73840e-02,9.33067e-01,4.62013e-01,4.49979e-02,-3.25414e-01,-8.60312e-03,6.12637e-05,3.61926e-01,1.03935e-02,7.33173e-01,-5.82010e-01,1.93683e-02,8.95459e-01,-9.66349e-02,-2.86573e-02,-2.16930e-01,7.63207e-01,-6.23288e-01,2.17022e-01,1.06551e+00,4.96631e-01,3.57476e-01,
-4.36504e-02,-3.99506e-02,-1.00070e-01,3.31073e-01,2.50819e-01,9.90785e-02,-1.68762e+00,3.11229e-03,2.72548e-02,5.05516e-01,-2.10230e-01,1.22228e-01,3.32516e-03,1.13096e+00,2.84694e-02,-4.56184e-01,-4.86014e-02,1.39296e-01,1.25615e-02,1.74272e-02,-2.88381e-01,-4.59148e-02,-1.04149e+00,-4.33486e-01,2.88464e-02,4.29408e-01,1.32220e-03,1.56341e-01,-4.57340e-02,-3.33052e-01,6.01920e-02,-2.19485e-01,-9.35520e-01,2.25900e-01,-7.20327e-03,-2.14581e-01,-5.44710e-01,4.48201e-02,2.44951e-01,2.46468e-01,-3.52648e-01,-2.69778e-01,1.98243e-01,5.04220e-01,-7.56890e-02,
4.23517e-02,3.54772e-02,-1.33501e-04,2.58368e-02,1.71366e-02,-3.70615e-02,2.70019e-02,1.01333e-02,-2.17169e-02,3.55303e-02,2.21944e-02,-2.37183e-02,-3.85287e-02,-2.29883e-02,-3.47355e-02,-5.26909e-02,-4.55375e-03,-5.85863e-02,4.63166e-02,-2.18159e-02,2.78187e-02,-6.60212e-02,-5.70513e-02,-4.82988e-02,-4.83445e-02,-3.41192e-02,4.93543e-02,-6.61542e-02,-3.16168e-03,-4.48964e-02,-3.81511e-02,1.89798e-02,-1.47916e-02,1.89649e-02,1.02501e-02,4.89324e-03,-1.40685e-02,4.85214e-02,-1.91752e-02,4.26391e-03,-9.83540e-03,-6.39023e-02,-4.31934e-02,-5.05416e-02,-3.61366e-02,
-5.66934e-03,1.90247e-02,6.71593e-02,-3.24893e-01,-8.55355e-03,-3.87524e-01,3.69138e-01,-5.82460e-03,-1.19150e+00,-1.88535e-01,-1.05053e-01,-7.74910e-01,2.91751e-02,-1.13124e-01,6.13521e-01,9.63880e-02,-2.05787e-02,-1.30030e-01,1.92994e-01,3.64261e-02,4.27886e-01,4.10573e-01,-3.57882e-02,5.75345e-01,3.97799e-01,-1.08317e-01,5.58087e-02,6.44433e-01,6.17795e-02,-2.83692e-01,-2.39500e-01,-1.84054e-02,-7.09496e-01,4.37306e-02,-3.75492e-02,-2.51221e-01,1.77915e-02,-3.09169e-02,2.37169e-01,3.29573e-01,-1.82658e-02,4.85198e-02,1.60561e-01,4.84194e-01,-1.79806e+00,
-2.66636e-02,-7.31436e-02,6.77858e-02,6.09918e-01,2.65185e-01,-3.36616e-01,3.45982e-01,4.31487e-02,-6.42126e-01,2.68100e-01,6.00356e-01,-4.97087e-01,-4.87816e-04,9.05053e-02,-1.23953e+00,-5.57391e-01,-1.41782e-02,3.82204e-01,-8.47657e-02,3.13616e-01,-2.89245e-01,1.55461e-02,2.53877e-01,6.19318e-02,5.57684e-01,-1.22247e-01,2.18687e-03,1.43426e-01,2.16943e-02,-6.50571e-01,-4.20684e-01,-2.18645e-01,-6.26790e-01,-3.06859e-02,1.56061e-02,2.82749e-01,-1.47386e-01,-2.69897e-02,7.59830e-01,1.10438e-01,-2.78910e-01,1.05483e-01,-1.40196e+00,-4.64227e-01,-4.68972e-02,
4.70349e-02,2.95676e-02,-5.92023e-02,-2.83107e-02,-3.97323e-02,-3.89813e-02,-4.87597e-02,-1.11142e-02,-1.64124e-02,-1.40135e-03,2.58921e-02,-4.41536e-02,-1.73114e-02,-6.93650e-02,-5.72385e-03,-3.32987e-02,-3.36854e-03,1.30560e-02,-5.98120e-02,1.82108e-02,-1.22168e-02,-7.31339e-02,-2.43455e-02,1.61571e-02,-2.19498e-02,2.64061e-03,1.07056e-02,4.78760e-02,1.63830e-02,-2.70631e-02,2.30986e-02,-5.10521e-02,-9.21019e-03,1.70378e-02,-2.93088e-02,-6.15462e-02,-6.22540e-02,-9.36521e-03,-7.41337e-02,-1.56853e-03,4.58655e-03,-1.76740e-02,3.59467e-02,1.56425e-02,-6.59442e-02,
3.83436e-02,-2.87138e-03,-2.04171e-01,-5.27545e-01,1.96357e-01,-3.81410e-01,1.22731e-01,-2.82725e-02,-5.04535e-01,-1.57425e-01,-3.13272e-01,1.85379e-02,6.12983e-02,4.49178e-02,-1.03754e+00,-4.04260e-01,2.92410e-02,-2.83079e-01,-2.39537e-02,-3.32237e-02,5.43866e-01,7.90449e-02,4.93539e-01,1.33588e-01,2.78662e-01,4.78449e-02,1.07403e-02,4.74802e-01,2.06267e-01,4.30901e-01,-4.89382e-01,2.69661e-01,-1.62846e+00,-3.15883e-01,-3.42832e-02,6.99574e-02,8.00891e-03,-1.18612e-02,1.31835e-01,-4.54200e-01,-2.38597e-01,9.30540e-02,-9.95951e-01,-1.34371e-01,-5.56624e-01,
-2.61213e-02,-2.66376e-02,1.14746e-01,-9.44578e-01,1.70630e-01,1.64518e-01,4.72361e-01,1.85295e-02,8.80637e-02,-1.39252e+00,2.28624e-01,2.77165e-01,-4.33055e-02,-2.13108e-01,-7.05809e-01,2.34749e-01,2.20844e-02,4.17578e-01,-3.14439e-02,5.03927e-02,-3.03818e-01,3.55188e-01,-7.25184e-01,-3.16363e-02,-6.22460e-02,-1.49281e+00,1.14902e-02,-7.96716e-01,-3.51337e-01,-7.12321e-01,1.85097e-01,-9.35394e-02,-1.31841e+00,1.90650e-02,3.89814e-02,-7.41769e-01,-5.13946e-01,-3.41295e-02,9.20608e-02,-6.46560e-01,-4.11231e-01,7.11791e-01,5.77723e-01,-5.50502e-01,1.10930e+00,
-5.95648e-02,4.86519e-02,-5.44154e-02,3.71881e-02,-9.18956e-02,-2.09547e-01,5.42086e-02,5.66876e-03,1.77897e-01,3.41644e-01,3.94793e-02,-1.97555e-01,-2.33648e-02,3.68880e-01,9.56842e-01,6.26712e-01,-3.83029e-02,-1.27387e-01,5.25089e-01,-6.38545e-02,1.89130e-01,-9.48374e-01,5.05332e-01,-2.10095e-01,1.81114e-01,7.15328e-02,3.08634e-02,-3.39840e-01,2.20871e-01,3.58318e-01,2.20789e-01,-3.46042e-01,1.37405e-01,3.81001e-01,-3.33216e-02,-3.60221e-01,6.01610e-01,-4.06169e-04,-2.21194e-01,-9.37664e-02,2.19484e-01,-1.99648e-01,5.27954e-01,-2.25299e-01,1.67910e-01,
3.32929e-02,2.09673e-02,-3.12098e-02,1.55500e-02,3.51129e-02,-3.78764e-02,1.84155e-02,3.35449e-02,-3.65188e-02,2.58751e-02,-3.65733e-02,3.40297e-03,-5.92729e-03,-1.98805e-02,1.06307e-02,-6.08442e-02,-4.34728e-02,3.42241e-02,4.12365e-02,-4.49995e-02,-3.10741e-02,-3.51865e-02,-3.61116e-02,3.06584e-04,4.50051e-03,-4.75667e-02,-1.47548e-02,-2.12349e-02,4.19240e-02,1.51215e-03,-2.90474e-02,-2.97579e-02,-4.28308e-02,4.05446e-03,-7.87718e-03,-3.26192e-02,2.52911e-02,1.58777e-03,-5.56714e-02,4.03215e-02,-1.60975e-02,-5.92135e-02,3.64516e-02,-7.05336e-05,-2.49373e-02,
-1.15979e-02,5.54617e-02,1.75438e-01,-7.90523e-01,1.84660e-01,-4.01453e-01,-1.14685e+00,-2.71165e-02,-8.10822e-01,2.78200e-01,4.88541e-01,-4.95703e-01,-1.92517e-02,3.72854e-01,-1.09583e+00,-1.33954e-01,-2.07139e-02,-3.21163e-01,6.20270e-02,8.16742e-02,-7.17993e-01,-1.06444e-01,-1.24692e-01,5.97965e-02,3.33729e-01,3.44105e-01,-3.19201e-02,1.42716e-01,5.18186e-02,5.74299e-02,2.47524e-01,4.73682e-01,6.01827e-01,-5.47558e-01,-4.46188e-02,-4.23489e-01,1.32648e-01,9.26326e-03,-2.82597e-01,3.34603e-01,-2.68244e-01,-6.09348e-02,1.93039e-01,2.94001e-01,-2.81576e-01,
-3.54613e-02,-2.26929e-02,-9.43484e-03,3.07303e-02,-6.55723e-02,-1.41538e-02,-3.93481e-02,1.84150e-02,-2.41702e-02,1.66555e-02,1.03553e-02,-6.35489e-03,3.09264e-02,-4.37419e-02,1.76962e-02,-3.50297e-02,1.49762e-02,3.32460e-02,-1.56189e-02,-4.73352e-02,-5.71689e-04,-5.43342e-02,-4.38111e-02,-3.19067e-02,-7.73815e-03,-5.65830e-03,7.40331e-03,-4.82012e-02,-1.88956e-02,-3.92808e-02,-6.78278e-02,1.58077e-02,-1.09458e-02,-1.00156e-03,3.07659e-02,3.64455e-02,1.53864e-02,-4.57598e-02,-2.35238e-02,-3.72504e-02,1.70286e-02,-6.28923e-02,1.30840e-02,-5.60821e-03,4.11373e-02,
-2.05438e-02,-2.75839e-02,5.58099e-01,-2.97495e-01,1.26022e-01,-3.41612e-01,-6.25085e-01,5.67253e-03,-6.21975e-01,-2.56111e-02,2.46418e-02,-1.01598e-01,4.70711e-02,5.25382e-01,-2.52751e-01,-1.68994e-01,-2.24838e-02,7.81852e-03,1.76944e-02,-1.84252e-02,4.26205e-01,1.31960e-01,4.89525e-01,-6.87181e-02,-3.35699e-01,6.39529e-01,-7.44592e-03,-3.90980e-02,6.59732e-02,3.93012e-01,-2.89446e-01,6.60959e-01,1.34215e+00,5.31192e-01,-6.03027e-02,1.07009e-01,6.33714e-01,-3.69834e-02,7.94906e-04,-2.50324e-01,8.61263e-02,-2.56205e-01,5.11346e-01,1.89264e-02,-6.79894e-01,
4.31182e-02,2.93218e-02,-1.35963e-01,-9.22502e-02,-2.98954e-01,2.63458e-01,-7.25935e-01,-2.23875e-02,-8.25986e-03,3.78025e-01,4.40241e-01,-1.37865e+00,-3.94239e-02,5.46265e-01,1.56693e-01,6.31831e-02,1.73894e-02,-1.41535e-02,7.40247e-01,1.38216e+00,9.94519e-02,6.77918e-01,1.49681e-01,-9.19158e-01,5.95074e-01,7.47525e-02,-1.32582e-02,-3.06213e-03,-4.51606e-01,1.01386e-01,2.41418e-01,-2.46458e-01,-2.53147e-01,7.24114e-01,3.48854e-02,-2.52673e-01,-7.03814e-02,-3.09333e-02,-8.03977e-01,-2.93172e-02,3.10838e-01,3.64106e-01,7.49514e-01,-1.36316e-01,3.80954e-01,
-3.78231e-02,-3.93168e-02,-3.24214e-02,-3.00981e-02,-5.29815e-02,-1.54194e-02,1.92882e-02,4.37748e-02,-2.31841e-02,-4.67742e-02,2.59889e-02,3.58230e-02,-4.55466e-02,-7.46428e-03,-2.58793e-02,-2.61093e-02,-5.01052e-02,-2.11880e-03,-5.58835e-02,8.43333e-04,1.36357e-02,1.20206e-02,-3.48367e-02,-1.07427e-02,5.20227e-03,3.97592e-03,2.85923e-02,-3.23765e-02,-5.35102e-02,-2.67635e-03,-1.87037e-02,-4.68007e-02,-3.16620e-02,3.24501e-02,-3.40001e-02,-3.73336e-03,-4.26968e-02,2.34463e-02,1.03846e-03,-4.65830e-02,-5.95843e-02,-2.32203e-02,1.54513e-02,-5.16947e-02,-2.29766e-02,
-3.91454e-02,-1.72435e-02,-3.27388e-01,-3.56894e-01,-8.59894e-02,2.31675e-01,3.16587e-01,1.90130e-02,1.01567e-01,-2.16148e-01,-5.97451e-01,-2.45778e-01,-4.53067e-02,-3.95433e-01,-1.79403e-01,1.51662e-01,-1.19576e-02,8.86835e-04,2.24980e-02,3.31051e-02,6.88827e-01,-6.48066e-01,6.04669e-02,1.71677e-01,8.43121e-01,1.46229e-01,-1.49952e-03,8.26160e-01,-1.95327e-01,-7.60980e-01,-1.13158e-01,6.13359e-01,2.74979e-01,3.38018e-01,-2.19782e-02,3.90819e-01,-3.43358e-01,-1.07249e-02,-6.38979e-01,-5.94680e-01,-5.73158e-01,-1.54730e-01,8.37070e-01,6.31966e-01,-7.00796e-01,
-3.27195e-02,4.05958e-02,3.66625e-01,2.76472e-01,2.31682e-01,2.19801e-01,5.80696e-01,3.30962e-02,3.88677e-02,-1.64276e-01,1.60838e-02,-3.06132e-02,-4.90436e-03,-4.98633e-01,-1.78467e+00,4.28381e-02,3.09733e-03,1.82176e-01,-3.31670e-02,1.92661e-01,1.12457e-01,9.60301e-02,-1.53286e-01,-1.13012e-01,-3.24936e-01,1.96314e-01,3.12974e-02,-5.35584e-01,-2.70261e-03,-2.45494e-02,5.46468e-01,-4.15429e-01,-3.11464e-01,-1.06888e-01,-3.56293e-02,-1.25257e+00,-2.52782e-01,4.89628e-02,-2.06517e-01,-1.02313e+00,-4.88123e-01,-1.90688e-01,-3.86148e-01,2.76452e-01,7.50911e-01,
1.36801e-02,3.88532e-02,-1.44485e-02,-5.81137e-02,-1.67682e-02,9.09100e-03,-2.60272e-02,-1.52168e-02,-3.81167e-03,-6.43877e-02,-3.03738e-02,3.48544e-02,-2.57289e-02,-1.98195e-02,2.66749e-02,-7.21416e-03,3.66904e-02,-8.78065e-02,9.41019e-05,-5.38989e-02,1.40344e-03,1.29144e-02,-2.03279e-02,1.49038e-02,-1.44658e-02,-3.93210e-02,-1.27552e-02,-3.30574e-02,-6.37695e-02,-4.98930e-02,1.15094e-02,-5.78921e-03,-7.06505e-02,-5.33488e-02,-1.29256e-03,-2.72941e-02,-3.08356e-02,-3.25597e-02,-7.33853e-02,2.25968e-02,1.86777e-02,3.19782e-04,1.59258e-02,1.70813e-02,-9.11286e-03,
-1.36464e-02,-1.25926e-02,-5.44568e-02,-6.37838e-02,-4.77836e-02,3.54964e-03,1.69661e-02,2.73895e-02,1.23579e-02,-8.86872e-03,3.69257e-03,-1.33611e-03,4.51141e-02,-5.69839e-02,-4.80613e-02,-7.16572e-02,-4.39526e-02,-8.57987e-03,-4.11527e-02,1.46666e-02,2.19206e-03,-5.02512e-02,-1.08594e-02,9.08938e-03,-4.05590e-02,-2.76079e-03,-5.01847e-02,-1.10458e-02,-7.78417e-03,-1.10947e-02,-2.40586e-02,-2.01353e-03,-4.30297e-02,-7.47006e-02,-3.59469e-02,-1.77717e-02,-4.33676e-02,-4.22939e-02,-6.92206e-02,3.46741e-03,-6.11918e-02,1.94278e-02,-3.00452e-02,-3.05248e-03,-1.77213e-02,
-1.11044e-02,5.19198e-03,-3.15701e-01,2.13206e-01,1.89029e-01,1.31903e-01,1.02722e+00,-1.29814e-02,-2.60830e-02,-5.51846e-02,-7.26212e-01,-1.14047e+00,4.04255e-02,-2.10481e-01,-1.77027e+00,-1.11778e+00,4.46356e-03,-1.18801e-01,1.91672e-01,1.31482e-01,-1.06041e-01,-3.09855e-03,3.55362e-01,4.08245e-01,3.21442e-01,-1.90145e-01,6.59318e-02,-4.43962e-01,4.07865e-02,3.55235e-01,-7.57950e-02,3.61389e-01,1.14366e-01,-2.73330e-01,-1.38113e-02,2.09735e-01,-9.28983e-02,2.89422e-02,-5.65113e-02,1.52411e-01,1.93553e-02,-8.15215e-02,7.58190e-02,3.70226e-01,-4.53296e-01,
-5.89150e-02,-2.06422e-02,-1.76390e-01,2.66813e-01,1.29667e-01,3.57286e-01,4.72229e-01,-3.30029e-02,1.81154e-02,1.62754e-01,1.70595e-01,6.77763e-01,-6.44531e-04,-1.17859e-01,-1.42708e-02,3.86810e-01,-3.35187e-02,3.34421e-01,1.81690e+00,1.03842e+00,1.46940e-01,1.99130e-01,2.54261e-01,5.91433e-01,1.21155e-01,3.70343e-01,-6.46873e-02,8.40107e-01,1.96438e-01,2.69250e-01,1.37490e-01,-1.04549e-01,-5.41803e-02,-1.69423e-01,-2.81607e-02,2.79345e-01,-3.40964e-03,-3.60535e-02,7.98844e-01,5.20942e-01,-1.93330e-01,4.63195e-01,-1.35647e-01,5.11019e-01,8.28206e-02,
-6.33590e-03,-3.82996e-02,2.03153e-01,-7.42543e-02,2.32855e-01,2.88466e-01,5.46643e-01,3.16360e-02,3.76627e-01,6.53393e-02,8.38716e-02,5.89010e-01,-2.31020e-02,1.87876e-01,5.43937e-01,4.20295e-02,1.71479e-02,-3.61153e-02,-3.75112e-01,-3.78361e-01,2.62797e-02,5.07458e-02,-6.50296e-02,5.43736e-01,3.87584e-01,-1.09189e-01,-4.90072e-03,1.03270e+00,-1.62715e-02,-5.15317e-01,3.17198e-01,5.78291e-02,-7.77125e-01,6.86211e-02,-2.20976e-02,4.14003e-01,-1.89640e-01,-4.15512e-02,1.96160e-01,3.71804e-01,5.75280e-04,-2.51738e-01,5.93672e-01,3.18808e-01,2.10712e-01,
-1.72755e-02,3.11819e-02,3.73592e-01,-4.96588e-01,-1.41970e-01,-1.97545e-01,-9.71156e-01,3.32269e-02,-6.46340e-01,-9.34609e-02,-4.03874e-01,-5.83369e-01,2.97815e-02,-5.21545e-01,2.63744e-01,-1.80552e-01,4.33337e-02,-1.33885e-01,2.27611e-01,-1.80010e-01,1.42675e-01,-8.13055e-01,-9.82524e-02,-1.05751e-01,-4.19260e-01,5.33038e-01,3.75442e-02,-9.76633e-02,2.87492e-01,9.17117e-01,2.05807e-01,8.62637e-01,1.18192e+00,-4.27878e-01,1.37207e-02,2.83468e-02,-4.38524e-01,1.53483e-02,7.52930e-02,-3.52113e-01,-3.90712e-01,-5.23035e-03,-2.27402e-01,-1.87041e-01,4.87641e-02,
-4.44303e-02,3.19656e-02,-4.02760e-01,-1.96242e-02,2.12783e-02,4.24203e-02,-1.87366e-02,3.68571e-02,-2.89054e-01,5.07565e-02,-1.04921e-01,-9.40463e-02,3.65875e-02,-3.26764e-01,3.15859e-01,-4.61365e-02,-3.42357e-02,-3.29053e-02,2.18788e-02,4.09059e-02,9.55314e-02,-1.94755e-01,-5.69998e-02,1.13999e-03,-1.29309e-01,1.01064e+00,-4.53755e-02,-1.57007e-01,9.62347e-01,3.14779e-03,-3.91221e-02,-2.47566e-02,1.16268e-01,4.13652e-02,3.97551e-04,7.65391e-02,1.41384e-01,-1.82073e-02,4.99203e-02,2.96062e-01,-3.42581e-02,9.04206e-01,2.74579e-01,1.22970e-01,1.89233e-02,
-4.15857e-02,-1.43643e-02,-4.55943e-01,4.69339e-01,-4.26184e-01,2.21367e-02,3.82976e-01,3.18688e-03,-1.59196e-01,1.28974e-01,3.71091e-01,-7.08276e-01,-1.27100e-02,-5.64805e-02,-2.47520e-01,-6.84063e-02,-2.46805e-02,-3.61436e-02,-1.32662e+00,-1.40318e-01,1.82579e-01,1.96659e-01,8.18084e-02,-4.05830e-01,3.25400e-01,3.83559e-01,-4.67764e-02,6.30505e-01,4.78952e-02,6.18542e-01,2.13662e-01,2.33049e-02,2.37402e-01,-8.43642e-01,4.30077e-03,2.42866e-02,2.26440e-01,-1.07425e-02,4.81425e-01,-9.65681e-02,7.00603e-01,1.76272e-01,8.25099e-02,7.64532e-01,4.82554e-01,
3.56576e-02,3.52790e-02,-3.49186e-02,3.43726e-02,-2.21048e-02,-1.70349e-02,-2.00864e-02,-2.90039e-02,-1.39833e-02,-4.41396e-02,2.23915e-02,7.57651e-03,-2.37874e-02,2.96567e-02,1.11342e-02,-4.94982e-02,-4.53456e-03,-1.43754e-02,1.28826e-02,-3.11833e-02,-2.41484e-02,-1.51351e-02,-2.15573e-02,-5.73883e-02,-6.82314e-03,-2.69169e-02,-5.02049e-02,3.58200e-03,-5.00175e-03,2.56123e-02,-4.17110e-02,-2.75747e-02,-2.78683e-02,3.76931e-02,-4.77025e-04,-4.69924e-02,3.38866e-02,-4.53517e-02,1.55880e-02,3.84744e-02,-4.94872e-03,2.46041e-02,4.06908e-02,2.50011e-02,-3.02769e-03,
1.71453e-02,-1.49261e-02,-7.00207e-02,-6.92400e-02,2.19365e-02,7.81764e-03,1.86782e-02,-9.28927e-03,-3.98838e-02,3.88220e-02,-4.52767e-02,-4.87549e-02,8.17380e-03,-1.89783e-02,1.95217e-03,1.90518e-02,4.43666e-02,-6.86622e-02,-6.32587e-03,-1.86128e-02,1.27196e-03,-5.70100e-03,-1.14586e-02,-6.95830e-02,-2.40496e-02,3.60644e-03,-4.23035e-02,2.52097e-02,1.97136e-02,-5.93101e-02,3.26813e-02,-1.78329e-02,-2.06218e-02,2.44732e-02,3.04244e-02,-1.11747e-02,-4.44066e-02,-3.93909e-02,1.82804e-02,1.67562e-03,-1.35353e-03,-1.74037e-02,-5.16999e-02,-2.23272e-02,-3.44139e-03,
1.94571e-02,-2.25162e-02,-1.23795e-02,2.29298e-02,3.73136e-02,-5.17617e-02,-3.44507e-02,-3.91377e-02,-2.56013e-02,1.17245e-02,-2.50017e-02,-2.89553e-02,1.32377e-02,-4.66490e-02,1.10249e-02,-2.15171e-02,3.21214e-02,3.48199e-02,-2.11909e-02,1.43641e-02,6.98249e-03,1.64453e-02,-4.15618e-02,-4.14487e-02,9.95802e-03,2.95043e-03,-4.58085e-02,-2.91046e-03,-1.89015e-02,9.82022e-03,-4.91553e-02,-5.52539e-02,2.81400e-02,-2.79562e-02,-3.52963e-02,-3.14259e-02,-5.41565e-02,2.21892e-02,2.69799e-02,8.14545e-03,2.33615e-02,-3.54104e-02,-1.31125e-02,-3.06797e-03,-3.83300e-02,
5.35032e-02,-3.35559e-02,8.04460e-01,5.42100e-01,-1.28355e-01,-5.43080e-01,-1.06919e+00,-3.96854e-02,-2.98230e-01,4.79031e-01,-4.04800e-01,-4.43098e-01,-4.24345e-02,-5.21572e-01,-9.76783e-01,5.83599e-01,7.11055e-03,5.01787e-01,1.93344e-01,-5.63032e-02,-1.47395e-01,2.02660e-01,-5.33184e-01,6.14581e-01,-9.96713e-03,4.15307e-01,2.30152e-02,-5.68893e-01,-1.79045e-01,1.77049e-01,-6.43903e-03,2.00842e-01,9.47318e-01,7.79819e-01,-4.33902e-02,-1.61622e-01,7.53746e-02,-2.55329e-02,-2.32598e-01,6.08956e-01,-4.81491e-01,-4.99632e-03,5.53680e-05,5.56641e-01,2.53080e-01,
2.80395e-02,
4.10781e-02,
4.07445e-01,
3.02029e-01,
-7.30971e-02,
-8.96362e-03,
-1.88466e-02,
-3.39400e-02,
5.23849e-01,
-1.66826e-02,
2.69815e-01,
-2.60035e-01,
-5.07594e-02,
3.40836e-01,
2.11561e-01,
2.38138e-01,
-5.00660e-01,
8.82171e-02,
-2.57675e-02,
3.53700e-01,
3.13195e-01,
-2.26615e-02,
5.74171e-01,
2.84296e-01,
-1.87390e-02,
-1.42850e-02,
5.46142e-01,
-1.34515e-02,
2.66098e-01,
-3.71467e-02,
-1.86885e-02,
3.27990e-01,
3.55207e-01,
-3.12965e-02,
-3.43702e-02,
5.51379e-01,
-3.08079e-01,
6.86397e-01,
3.75797e-01,
-2.98712e-01,
2.33910e-02,
-1.47173e-02,
-2.02333e-02,
-1.43199e-02,
-3.47352e-01,
-6.28974e-01,-1.94917e-01,7.85922e-02,-7.06080e-01,1.94824e-01,-5.18634e-02,-6.17167e-03,3.94565e-02,-4.32621e-01,-2.16954e-02,-4.74919e-01,4.87065e-01,5.17254e-02,5.80625e-02,2.32945e-01,1.87812e-01,-4.70770e-01,5.46100e-01,-7.23264e-03,5.50358e-01,-6.56003e-01,-3.82191e-02,-3.15511e-01,-1.75000e-02,-4.63147e-01,2.68623e-02,6.23456e-02,3.82845e-02,-4.36765e-02,1.65079e-01,-1.58505e-02,2.34842e-01,3.99250e-01,5.26210e-03,-2.24197e-02,4.57290e-01,-5.48312e-02,2.64445e-01,2.09655e-01,3.67574e-02,-2.40461e-01,6.12223e-04,1.27855e-02,1.76209e-02,1.17807e-01,
4.11572e-02,-4.15399e-02,-2.26369e-03,-3.32330e-02,-1.73007e-02,-4.87366e-02,-2.26105e-02,-1.37041e-02,2.05891e-02,4.93930e-02,-4.91295e-02,-4.04592e-02,-1.68386e-02,2.61375e-03,3.34151e-02,1.97462e-02,-4.58324e-03,2.66765e-02,-3.19543e-02,-4.24059e-02,-7.35193e-03,-2.89035e-02,-2.83960e-02,4.92752e-02,-3.31744e-02,3.71885e-03,8.66847e-03,-1.69157e-02,-1.77445e-03,-5.05197e-02,-4.62644e-02,3.15353e-02,-4.62633e-02,2.93944e-02,-3.60359e-02,1.96656e-02,-7.82826e-03,-5.15060e-02,6.91511e-03,-1.99826e-02,-3.03411e-02,5.20089e-03,2.23261e-02,8.16211e-03,-3.16971e-02,
-6.23877e-02,-4.37375e-02,-3.67164e-02,1.95930e-02,1.82111e-02,5.74818e-03,-4.44446e-02,-4.81468e-02,2.24432e-02,-1.23442e-03,-5.49606e-02,1.67983e-02,-5.07234e-02,-1.75433e-02,7.76610e-03,-2.38637e-02,5.81928e-03,-7.41780e-03,9.38495e-03,3.68309e-02,1.43941e-02,-2.21451e-02,-5.60883e-02,1.76050e-02,-6.24694e-03,3.38483e-02,2.31014e-02,4.38441e-02,-1.49894e-02,-1.67888e-02,-4.62404e-02,-5.97206e-02,-3.80111e-02,-4.10285e-02,-3.62971e-02,9.68953e-03,-3.17331e-02,-2.20373e-02,2.10479e-02,-1.79948e-02,-6.25600e-03,2.35318e-02,-4.93578e-03,2.97897e-02,-5.51730e-02,
1.68160e-01,-7.89600e-01,-3.89791e-01,-3.01649e-01,2.52765e-01,-2.18343e-02,3.26778e-02,-3.46016e-02,-3.53783e-01,-1.41487e-02,-8.08673e-02,-4.24586e-01,-6.35489e-01,-1.52732e-01,4.79505e-01,4.72297e-01,3.30145e-02,-7.26936e-01,4.15639e-02,2.61153e-01,-1.94911e-01,1.22805e-02,7.10671e-01,4.66987e-01,1.68191e-01,-2.53473e-02,5.26073e-01,2.94715e-02,8.74999e-03,1.28147e-01,-3.85755e-02,3.82070e-01,6.25025e-02,-2.46500e-02,1.51620e-02,-2.91988e-01,-1.71898e-01,-2.76612e-01,1.18261e-01,3.03619e-01,-5.14823e-02,-1.40763e-02,1.82072e-02,8.51172e-03,3.54472e-01,
-3.06741e-01,2.78987e-01,-4.03512e-01,-5.11611e-01,1.34260e-01,-4.13576e-02,-2.28839e-02,3.79342e-03,2.64581e-01,-3.07232e-03,-8.46942e-02,3.58579e-01,-1.47537e-01,2.12481e-01,7.30900e-01,5.19530e-01,2.01525e-01,-5.55285e-01,-1.41145e-02,-4.13938e-01,2.66305e-01,1.87836e-02,1.08991e-01,1.47024e-01,-2.50756e-01,-5.37936e-02,1.03452e-01,1.17666e-02,2.34938e-01,1.34195e-01,1.43569e-02,-7.97561e-01,1.89570e-01,1.29840e-02,1.64824e-02,-1.26011e-01,-2.95414e-01,6.52595e-02,-1.99146e-01,1.18475e-01,2.46797e-01,2.71723e-02,-4.17424e-02,3.79091e-02,-1.17112e-01,
1.58005e-01,-2.28971e-01,-6.54982e-02,6.75247e-02,9.23147e-03,-3.62719e-02,-4.99945e-02,3.18785e-02,1.40076e-02,1.67955e-02,3.16808e-01,2.51515e-01,3.06784e-01,1.47631e-01,-2.50354e-01,5.60118e-01,-1.74786e-01,2.31988e-01,2.19569e-02,-9.97054e-03,-1.93397e-01,1.46763e-02,-1.67323e-01,4.32753e-02,3.69109e-01,2.69823e-02,-7.06568e-02,-3.16206e-02,-1.86651e-02,-2.33147e-01,-1.12104e-03,1.13885e-01,-9.55739e-02,-2.34301e-02,1.38401e-02,1.59261e-01,4.49231e-02,6.66676e-01,4.61341e-01,-8.72378e+00,8.61499e-01,-4.82344e-02,-5.49547e-02,4.24018e-02,6.25245e-02,
-3.25325e-02,2.53338e-02,-1.73820e-02,1.92605e-02,-4.74589e-02,-2.52679e-02,-3.01216e-02,-1.79293e-02,-3.42514e-02,4.91252e-02,-4.50169e-02,-1.85400e-02,-6.65576e-02,-8.64085e-03,2.22303e-02,-6.79557e-02,-8.03225e-02,1.99167e-02,-2.12526e-02,-4.72310e-02,-2.78595e-02,-8.58538e-04,-6.12907e-02,-9.96096e-03,-2.72546e-02,4.08995e-02,-7.13525e-02,2.67972e-02,-1.64207e-02,-2.60914e-02,2.54814e-03,2.53907e-02,-6.45856e-02,-2.95739e-02,-1.05068e-02,1.57842e-02,-4.81236e-03,-4.42984e-02,-4.18590e-02,1.55420e-02,4.59286e-03,-9.48699e-03,2.39695e-03,8.42817e-03,-5.58100e-02,
1.53612e-02,-4.26841e-02,-7.99304e-03,-3.63488e-02,-3.91328e-02,1.85570e-03,6.70642e-03,-3.91867e-02,5.06996e-03,1.07549e-02,3.33678e-02,1.62329e-02,-1.13867e-02,4.06296e-03,2.63063e-02,-3.81517e-02,-5.76003e-03,2.66807e-03,-4.14644e-02,-3.30026e-02,6.11837e-03,-1.41403e-02,-1.56926e-02,3.69833e-02,-2.30715e-02,2.87661e-02,-2.17412e-02,-2.10413e-03,-8.94319e-03,1.98083e-02,2.05040e-02,-2.03287e-02,-2.48681e-02,6.04765e-03,-1.37555e-02,-5.24948e-02,-2.96466e-02,-2.69228e-02,3.32519e-02,4.15667e-03,1.48565e-03,3.75492e-02,-4.05170e-02,1.36408e-02,1.82708e-02,
-4.07009e-02,-1.81800e-02,-5.11290e-02,-4.16572e-02,-6.86481e-02,-3.27025e-02,-4.76947e-02,-4.10421e-02,4.81518e-02,2.64707e-02,-5.13757e-02,-2.80094e-02,-3.67994e-02,-3.19873e-02,-3.33938e-02,2.23592e-03,1.71904e-02,1.09061e-02,9.77047e-03,-3.07249e-02,-1.29203e-02,-1.98684e-03,-1.57858e-02,-4.21588e-02,1.14483e-02,-8.38307e-03,-4.58484e-02,-4.57846e-03,1.58817e-02,-9.65290e-04,4.28294e-02,-7.14824e-02,-3.96730e-02,3.24793e-02,-3.17990e-02,3.37108e-02,-3.15902e-02,-6.99243e-02,2.56231e-03,3.60544e-03,-6.74010e-02,9.08706e-04,-1.12558e-02,-2.45311e-02,4.78585e-03,
-2.47337e-02,2.16389e-03,-2.60961e-01,-8.06641e-02,-7.11196e-02,-4.58096e-02,-1.92865e-02,-2.55670e-02,7.14889e-02,5.33244e-02,-3.19376e-01,6.72569e-01,-8.24668e-01,2.94247e-01,3.95298e-02,-4.12649e-01,4.77126e-01,2.64660e-01,-3.19982e-02,4.18047e-01,1.13808e-01,-4.77517e-02,2.48630e-01,4.71774e-01,4.27729e-02,1.67965e-02,5.72652e-01,1.35651e-02,-3.29981e-01,1.05161e-01,-1.70642e-02,3.02303e-01,-5.85275e-02,-4.62538e-03,-3.81146e-02,3.71179e-01,-7.37284e-02,5.72710e-02,1.44766e-01,-1.37843e-01,3.01223e-01,-3.97287e-02,-3.73421e-03,-3.35410e-03,2.89582e-01,
1.77285e-01,7.83513e-02,-2.76058e-03,-3.42473e-01,-3.07371e-01,1.07541e-02,-3.28393e-02,1.52293e-03,-4.15902e-02,-4.16846e-02,-1.62570e-01,3.38792e-01,-2.79802e-04,1.22138e-01,-9.04988e-02,2.42422e-01,-4.95376e-01,-1.55953e-01,-1.21769e-02,2.16615e-01,-1.21423e-01,2.20847e-02,1.19348e-02,1.92509e-02,-9.34343e-01,2.21200e-02,-7.97937e-02,7.77357e-03,1.75343e-01,7.18615e-01,3.21411e-03,-2.65410e-01,6.66946e-02,-1.05876e-02,-8.20897e-03,-3.54173e-02,1.56223e-01,-1.03906e-01,-4.42303e-01,-1.19648e-01,-4.04879e-01,2.44159e-02,-1.73385e-03,9.27161e-03,-1.29277e-01,
1.61071e-01,-7.23487e-01,-5.18919e-02,5.44092e-01,-2.23935e-02,-5.44480e-02,-3.75436e-02,3.33764e-02,-6.59636e-01,-4.35100e-03,2.48538e-01,2.68581e-02,-9.47211e-05,-1.93032e-01,5.68962e-02,-1.52865e-01,7.24890e-02,1.15940e+00,-9.76722e-03,3.05155e-01,-3.87426e-02,1.60928e-04,1.53824e-01,1.79803e-01,-2.85666e-03,1.24822e-02,1.20184e-01,2.77504e-02,-3.38785e-01,1.01966e-01,3.35252e-02,1.66862e-01,-5.00400e-01,-5.77915e-03,3.32624e-03,1.71125e-01,-5.33373e-03,-3.38902e-02,-7.55275e-01,1.56874e-01,-1.14532e-01,5.54358e-03,1.84257e-02,-9.98909e-03,-3.34311e-02,
-1.53327e-01,-7.34414e-01,7.64288e-02,-1.02338e+00,2.35020e-01,3.20070e-02,1.55668e-02,4.12527e-05,-4.01917e-01,1.14316e-02,-1.03765e-01,-4.18530e-01,-1.70952e-01,-1.86617e-01,2.32857e-01,-1.92414e-02,-3.65605e-02,-1.81145e+00,-9.79129e-03,1.09522e-01,-1.64613e-02,2.25735e-02,7.49374e-02,-8.29956e-01,1.55180e-01,4.70679e-02,1.63350e-02,5.56202e-02,-4.49278e-02,1.61700e-01,7.45593e-03,6.90924e-01,-2.76625e-01,-5.84269e-02,2.38182e-02,-5.11647e-02,8.29126e-01,-9.21809e-01,-1.26286e-01,-4.75396e-01,-1.41370e+00,-4.95948e-03,3.95765e-02,3.28592e-02,-1.35641e-01,
-2.06728e-01,-4.98837e-01,2.94125e-01,-7.02196e-01,2.33467e-01,-2.72970e-03,2.86189e-02,3.90498e-02,-1.79079e-01,2.71681e-02,7.41488e-01,-1.28979e-01,-4.95442e-01,1.57253e-01,-2.68427e-01,-2.56782e-01,-4.18497e-01,-2.12835e+00,-1.17039e-02,6.68629e-01,-1.25579e-01,-5.25252e-02,2.57279e-01,-8.41648e-01,-4.19107e-01,-2.74922e-02,2.27104e-02,3.67881e-02,6.06908e-01,3.47829e-02,3.78377e-02,-8.17068e-03,-2.95540e-01,-1.30793e-02,-4.94939e-02,5.76428e-01,-2.53047e-01,1.83852e-01,-8.70025e-02,2.54266e-01,-2.26472e-01,2.66777e-02,5.54022e-02,7.13703e-03,-8.33936e-02,
4.83686e-02,3.44127e-01,1.03434e-01,-6.46629e-02,-3.51666e-01,2.27724e-04,-3.92292e-02,-3.09977e-02,-8.25917e-01,3.68019e-02,2.26299e-01,-6.15250e-01,-5.34261e-01,-3.22138e-01,4.93682e-01,7.18004e-01,2.57674e-02,-6.94290e-01,5.49744e-02,2.23445e-01,1.16556e-01,-1.74775e-03,2.89545e-01,-2.76007e-01,4.61295e-02,1.13357e-02,1.41530e-01,2.44767e-02,1.64420e-01,2.87370e-01,-1.18234e-02,3.49482e-01,-4.74223e-01,6.01591e-02,-3.05893e-02,6.04812e-01,2.97438e-02,-2.36696e-01,1.20937e-01,-9.46955e-02,-2.54949e-01,-3.33932e-02,-1.96281e-03,-4.53433e-02,-2.16498e-01,
2.20636e-01,9.22614e-01,-2.17713e-01,4.86681e-01,1.41807e-01,3.17673e-02,-2.57804e-02,1.57870e-02,3.34554e-01,-3.84510e-02,4.26849e-01,-1.96438e-01,-5.07202e-01,3.67592e-01,-1.68915e-01,-8.64874e-02,-6.57884e-01,-5.66385e-01,2.25034e-02,-1.47173e-01,1.20208e-02,-1.39311e-02,-2.43703e-01,4.43693e-02,-2.78225e-01,-2.36961e-02,-1.78652e-01,3.83145e-03,1.62804e-01,1.33783e-01,4.09521e-02,8.65379e-03,5.38865e-02,1.14367e-02,9.69274e-03,2.38046e-01,1.47660e-02,3.60643e-01,2.85508e-01,-7.15640e-02,-8.01995e-02,2.48958e-02,1.06707e-02,3.64724e-02,-5.53516e-01,
6.79935e-01,-5.33680e-01,-1.38644e+00,-4.76258e-01,-1.59273e-01,-1.90996e-02,3.38267e-02,-1.74566e-03,4.47381e-01,2.27605e-02,4.33549e-01,-2.11697e+00,-2.53975e-01,4.98168e-01,7.75538e-02,1.10608e-01,2.83275e-01,-1.35028e+00,-3.18612e-02,-3.57325e-01,-2.08991e-01,-2.67576e-03,-9.57113e-01,7.63917e-02,-1.93057e-01,5.28538e-02,-6.24191e-01,5.10982e-02,-1.50677e+00,-7.19803e-02,1.27634e-02,5.60586e-01,-2.65884e-01,1.51243e-02,-2.77410e-02,7.15091e-01,8.60046e-02,2.83168e-01,4.87408e-01,7.74824e-02,3.29707e-01,-1.07299e-02,-6.24040e-02,3.64484e-02,2.25059e-01,
1.42483e-01,1.27871e-01,-2.45113e-01,5.10447e-01,1.66523e-02,6.97379e-03,4.40233e-02,-1.43535e-02,-5.07589e-03,-3.86461e-02,2.15517e-01,2.46422e-01,2.65893e-01,-1.57174e-01,-2.08205e-01,2.28903e-01,6.76604e-02,1.80273e+00,3.08152e-02,-1.68766e-01,-1.08341e-02,-3.02574e-03,-1.22000e-01,6.76541e-01,4.32223e-01,-4.89336e-02,3.74430e-01,2.99625e-02,-2.32585e-01,1.65347e-01,-2.25279e-02,5.98321e-01,-1.28143e-01,1.86001e-02,2.83804e-02,-1.33270e-01,4.19616e-01,5.69836e-02,4.53692e-01,-3.66874e-01,9.69295e-02,2.57313e-02,-9.42196e-03,-1.45510e-02,7.06519e-01,
9.87856e-02,-3.46654e-01,3.26151e-01,-4.40407e-02,-1.20810e-02,-6.72423e-03,6.60607e-03,6.14560e-03,-5.13451e-01,4.31715e-02,-5.11480e-02,-1.87205e-01,-4.38660e-01,-1.69101e-01,5.86535e-02,1.09260e-01,-3.75079e-01,2.28889e-01,2.57283e-02,-3.36112e-01,5.57026e-01,-2.26671e-02,3.80372e-01,-1.93336e-01,-3.43097e-01,1.81878e-02,-3.19196e-01,-7.41617e-03,-1.78645e-01,2.27428e-01,3.57852e-02,4.75487e-01,-3.59633e-01,3.49153e-02,-6.01029e-02,1.75176e-02,2.10381e-02,-2.61547e-02,4.05040e-01,-5.28871e-02,2.50627e-01,-1.19331e-02,8.08885e-03,-4.78363e-02,-5.21663e-01,
-8.06520e-02,1.11545e-01,5.74754e-01,1.84774e-02,-4.00957e-02,-5.05980e-02,1.69853e-02,2.27207e-02,-4.85849e-01,6.98483e-03,1.94973e-01,7.98774e-02,1.45976e-01,4.97721e-02,-4.52804e-01,3.11669e-02,-3.33130e-02,1.62399e+00,3.48980e-02,4.44946e-01,-3.54900e-02,2.74661e-02,-1.86762e-01,5.06776e-01,-1.79922e-01,1.80259e-02,2.50718e-02,-2.55867e-02,3.34133e-01,7.97913e-02,-7.23473e-03,4.44838e-01,-3.68188e-01,-1.11689e-02,-1.05188e-02,1.19218e-01,4.18151e-02,2.04245e-01,-3.04271e-02,-1.30630e-02,-4.22301e-02,7.07259e-03,2.09010e-02,-4.16401e-02,7.79006e-02,
-1.78500e-01,5.82111e-01,1.21930e-01,1.64218e-01,3.07522e-01,-3.48569e-02,7.81809e-03,-1.61057e-02,6.10042e-01,6.81653e-04,8.89092e-01,1.22322e-02,-3.37606e-01,-3.83904e-01,-1.95526e-01,1.73098e-01,-9.20932e-01,6.34317e-01,-4.56546e-02,3.41708e-01,1.72976e-01,-5.67036e-03,-3.11633e-02,6.41471e-01,6.24902e-01,2.87887e-03,3.49899e-01,3.73575e-02,1.46246e-01,-1.30078e-01,-2.27513e-02,4.34607e-02,2.27726e-01,-5.37641e-03,2.43210e-02,5.65437e-03,-1.52725e-01,3.25319e-01,2.04574e-01,-7.87092e+00,3.03252e-01,1.48392e-03,-3.04135e-02,-3.01976e-02,4.42388e-01,
-2.46445e-02,-3.36878e-02,-4.57003e-02,-6.87513e-02,-3.94360e-02,4.20242e-04,4.31691e-02,3.57810e-02,8.14721e-03,2.82469e-02,-8.72604e-03,-3.58561e-02,7.59384e-03,-3.96721e-02,-6.15032e-02,2.95817e-02,1.03976e-02,-2.31870e-02,-3.58945e-02,-3.76593e-02,4.37036e-03,3.34462e-02,-5.38474e-02,-1.63977e-02,-3.90489e-02,-1.48758e-02,2.29082e-02,9.41599e-03,-3.87498e-02,6.60620e-03,-7.72254e-03,-9.55291e-03,4.98581e-03,2.59697e-02,-9.17365e-03,1.91197e-02,-2.28295e-03,-3.17957e-02,-9.98088e-03,-3.05687e-02,-3.38102e-02,4.80658e-02,-1.84289e-03,4.47388e-02,1.84606e-02,
2.43370e-02,1.65880e-01,-2.05847e-01,-1.22966e+00,6.46257e-01,-1.05770e-02,-1.63089e-02,7.92413e-03,-1.93276e-01,-2.99822e-02,-3.47736e-01,5.33839e-01,6.43922e-03,2.96129e-01,-1.57965e-01,6.30013e-02,-1.36458e-01,-1.30279e+00,-5.39947e-02,7.56034e-02,7.73956e-01,2.79575e-02,1.02389e-01,1.83695e-01,-4.28692e-01,-4.52212e-03,6.00205e-01,-3.67440e-02,-4.43434e-01,1.73471e-02,1.23126e-02,-9.73097e-01,4.17470e-01,9.59170e-03,5.16668e-03,-4.56866e-01,-1.13886e-01,-4.04060e-01,-2.98954e-01,1.00960e-01,-1.57854e-01,-3.97185e-03,-1.29052e-02,-2.18040e-02,3.92505e-01,
2.11995e-01,-2.64589e-01,-4.41788e-02,-5.03705e-01,6.25832e-01,-3.33240e-02,3.88709e-02,-2.84723e-02,-5.20337e-01,-1.37552e-02,2.34693e-02,2.97780e-01,6.82941e-02,1.47536e-01,-8.92215e-01,-1.70665e-01,7.59651e-01,8.48664e-01,3.81640e-03,7.03264e-01,1.35511e-01,-6.63629e-02,-1.02510e-01,1.06263e-01,-2.64625e-01,1.91469e-02,4.90811e-01,-1.03586e-03,-1.21973e-01,6.74262e-02,-4.06083e-02,2.65559e-01,1.46871e-01,-2.20701e-02,-3.33164e-02,2.05644e-01,-1.22612e-01,2.40202e-01,9.11924e-03,4.80304e-02,3.63731e-01,-1.17562e-02,-1.57229e-02,2.58438e-02,4.06199e-01,
-2.23652e-01,-1.91978e-01,-1.18835e-01,8.44949e-03,-2.50139e-02,2.88193e-02,1.53445e-02,-1.42710e-02,2.77035e-01,2.17276e-02,-5.49182e-02,-1.11563e+00,2.70018e-01,-3.44307e-01,-5.74398e-02,-2.27467e-03,1.39822e+00,-1.04004e+00,-9.00327e-04,-2.19162e-01,4.72194e-02,-1.96830e-02,3.40845e-01,1.77375e+00,-1.82491e-01,3.08659e-02,-3.30166e-01,-3.26741e-02,-2.14793e-01,1.28017e-01,3.92111e-02,5.95381e-01,-2.66538e-01,1.65503e-02,2.61680e-02,-1.13792e+00,-4.01797e-02,8.86806e-02,-3.85234e-01,2.18958e-01,3.78415e-02,2.11362e-02,-2.49967e-02,-4.01261e-02,3.68931e-02,
-2.00929e-01,-1.85199e-01,6.51660e-02,2.09664e-01,-5.61671e-02,1.94973e-02,-3.01013e-02,3.26232e-02,-5.50017e-01,-2.91065e-02,1.74811e-01,4.94521e-01,2.06182e-01,2.94229e-01,3.48625e-01,-2.74124e-01,7.11709e-01,3.15715e+00,-3.18710e-02,4.93199e-01,1.91142e-01,-1.46152e-02,1.47722e-01,1.91522e+00,2.06162e-01,2.28092e-02,2.27596e-01,4.82591e-02,1.23136e-01,-8.17550e-02,-3.19195e-02,-5.77120e-01,-2.58328e-01,-2.19470e-02,2.61941e-02,-2.12856e+00,-4.19068e-02,-6.72077e-01,2.76582e-01,2.53607e-01,-1.71476e-01,-2.99235e-02,-6.59060e-03,2.11669e-02,3.38542e-01,
-5.56384e-01,-3.32879e-01,1.22267e-01,3.34948e-01,3.98317e-01,-4.61546e-02,7.84497e-04,2.56406e-02,-6.38665e-01,4.05967e-02,-6.23762e-02,2.01180e-01,6.20734e-01,9.61603e-01,1.51032e-01,-3.97791e-02,5.37809e-01,1.94835e+00,-2.82546e-02,1.07862e+00,3.91945e-01,-1.69315e-02,4.95985e-02,6.49157e-01,-1.57628e-01,-3.55994e-02,5.53767e-03,4.92979e-02,7.69598e-02,1.35473e-01,-9.82184e-03,-8.07087e-01,4.89485e-01,1.39767e-02,2.56799e-02,-3.23730e-01,-1.39216e-01,-5.82238e-01,-4.56486e-01,1.89424e-01,1.43999e-01,-3.27311e-02,4.75205e-02,1.19066e-03,3.55484e-01,
7.61606e-02,3.67255e-01,4.22424e-01,9.23750e-02,6.00654e-02,-2.58676e-03,1.42347e-02,-2.39783e-02,-1.07281e+00,-1.54980e-02,2.75299e-01,2.48325e-01,-3.69646e-02,-1.34218e-01,-2.08470e-01,4.98476e-01,-9.89757e-02,6.91872e-01,3.52475e-02,4.64402e-01,-1.10564e-01,-1.06299e-02,2.35866e-01,-5.84650e-01,2.10350e-01,-1.86919e-02,1.24322e-01,-2.10334e-02,-5.18733e-02,1.22895e-01,-2.32710e-02,2.51970e-01,-1.52360e-01,-2.16333e-02,1.02336e-02,1.99502e-01,-5.10986e-02,3.15713e-02,-1.98031e-01,7.25308e-02,1.84733e-02,-1.90314e-02,-1.63531e-02,2.09860e-02,7.86159e-02,
-5.54960e-02,-8.82094e-03,2.33544e-02,-2.62484e-02,5.75920e-03,-1.60543e-02,3.89610e-02,4.87511e-02,2.17984e-02,-5.29082e-04,-5.45488e-02,-1.12839e-02,2.07061e-02,-4.22162e-02,-2.56953e-02,-3.94506e-02,-3.30467e-02,-2.56565e-02,2.75339e-02,1.94963e-02,2.89657e-02,4.94417e-02,-2.05983e-03,-9.89643e-03,-5.33959e-02,-3.07033e-02,-1.48017e-02,3.66312e-02,-5.31146e-02,2.42442e-02,2.21957e-02,-4.58135e-02,-5.48222e-02,-3.10774e-02,5.41748e-03,-5.40978e-02,-2.09475e-02,-3.63130e-02,-1.03319e-02,1.02488e-02,4.43821e-02,-3.65484e-02,1.14042e-02,4.45278e-02,1.13419e-02,
1.01475e-03,-3.20196e-02,-5.03697e-02,1.32533e-02,-5.85458e-02,2.07892e-02,1.04005e-02,-1.78878e-02,1.73974e-03,-1.93976e-02,1.89240e-02,-8.94963e-03,-7.75304e-02,-9.23045e-03,-1.43329e-02,-6.00631e-02,2.06074e-02,9.96340e-03,-3.35735e-02,-3.61005e-02,-3.61834e-02,-1.08130e-02,-4.35305e-02,-3.54572e-03,-7.80147e-02,2.26922e-02,7.64782e-03,-3.23538e-02,-7.33480e-02,-6.16554e-02,3.80707e-02,-4.68347e-02,-1.31167e-02,1.11434e-02,4.20778e-02,-1.19146e-02,-5.29486e-03,-2.51792e-02,-2.01930e-02,-5.30986e-03,-4.08043e-03,2.16155e-02,-1.55084e-02,4.28329e-02,-2.47980e-02,
-7.31544e-02,-3.42486e-02,-2.06318e-02,-6.23634e-02,-5.29148e-02,-2.53476e-02,1.15300e-02,-4.51858e-02,-4.56172e-02,-1.19535e-02,-4.79130e-02,-8.47444e-03,-5.13495e-02,-1.43073e-03,-4.82481e-03,-1.56071e-02,-3.24540e-02,-2.91981e-02,4.21483e-02,1.91248e-02,-4.04689e-02,1.97486e-02,-3.59162e-03,-8.89231e-04,-1.09648e-02,2.52211e-02,-1.01199e-02,1.74435e-02,-2.21576e-02,-6.77169e-02,-1.38479e-02,-4.53992e-02,-6.27598e-02,1.23884e-02,4.15702e-03,8.15817e-03,2.42714e-03,-5.03122e-02,-4.10525e-03,5.03802e-03,1.54228e-02,1.37081e-02,3.36679e-02,4.73830e-02,2.87412e-02,
-6.56114e-02,3.88983e-03,2.31043e-01,-1.92322e-01,1.27294e-02,2.75978e-02,-4.17595e-02,4.29253e-02,3.19077e-01,3.56106e-02,4.24014e-03,8.31644e-02,4.37892e-01,3.18472e-01,2.48888e-01,-5.54872e-03,1.18315e-01,-9.78878e-02,2.79880e-02,3.45019e-01,-2.13895e-01,7.35042e-03,3.29756e-01,4.94146e-01,-3.70632e-02,-4.89838e-02,6.32219e-02,-1.15770e-02,1.89210e-01,-4.02077e-02,2.66773e-02,7.83409e-01,3.57857e-01,7.04943e-03,3.05559e-02,-7.87507e-01,6.16502e-02,-4.56843e-01,4.08114e-01,9.57090e-02,-9.97122e-03,-3.34290e-02,3.06808e-02,-9.19879e-03,5.20832e-01,
2.46074e-01,8.88486e-02,-2.37214e-01,-1.39103e-01,2.12979e-01,3.90280e-02,6.95149e-03,5.09264e-02,-3.13183e-01,3.20455e-02,-5.37501e-02,4.77603e-01,6.31155e-01,-5.89757e-02,-1.18918e+00,2.65531e-01,1.04327e-01,1.73120e+00,2.26486e-02,-2.98152e-03,-2.72031e-02,-4.32711e-02,1.44659e-01,5.86998e-01,-5.12621e-01,2.07939e-02,1.38191e-01,-6.49904e-03,-1.59973e-02,2.89862e-02,-2.06922e-02,-5.69115e-02,-1.16395e-01,-1.10623e-03,-3.22893e-02,3.34708e-01,5.21174e-02,1.57795e-01,-1.02221e-01,-2.86512e-02,-5.57136e-01,-3.11133e-02,5.53420e-02,-4.56929e-02,7.39824e-01,
5.83696e-02,5.80387e-01,2.20906e-01,-2.84916e-01,7.96532e-02,3.01421e-02,5.70146e-02,-5.25375e-02,-1.10163e+00,-4.92966e-02,-1.31259e-02,2.84113e-01,-1.66107e-01,4.72688e-01,-4.47722e-01,4.20056e-01,5.95435e-01,3.29638e+00,4.90367e-02,6.64342e-01,2.95980e-01,1.75616e-02,6.93275e-02,3.16327e-01,-3.70960e-01,6.95455e-03,3.21859e-01,8.93000e-03,1.85829e-01,-2.16923e-02,3.65109e-02,5.94233e-01,-2.68227e-01,-2.72981e-02,-1.95126e-02,-2.82894e-02,9.12029e-02,-3.76850e-02,-5.98360e-01,2.13027e-02,-1.86748e-01,7.82222e-03,3.60567e-02,-1.41741e-02,-4.09756e-01,
1.63422e-01,-1.24225e+00,1.69135e-01,-7.13673e-02,1.52231e-01,-5.25644e-03,4.58342e-02,-2.53639e-02,2.09360e-01,4.53086e-02,1.49408e-01,-5.02009e-01,-1.97776e-01,-5.42651e-01,5.85351e-02,8.41006e-01,2.97224e-01,-3.24036e-01,-2.16144e-02,3.45826e-01,-1.67869e-02,-4.86610e-02,-9.00025e-02,-3.47940e-01,-1.95560e-01,1.64660e-02,1.02206e-03,1.40821e-02,-1.88296e-01,-1.42508e-02,-1.03782e-02,2.82438e-01,-1.66270e-01,2.35983e-02,1.35568e-02,3.02098e-01,-3.80419e-02,2.99195e-02,-2.39089e-01,2.74482e-01,-2.77196e-02,5.72826e-02,-1.85298e-02,-2.70912e-02,1.77769e-01,
-8.01610e-02,1.87408e-01,-1.66347e-02,2.96305e-01,-3.69589e-01,-2.93057e-03,-2.35228e-02,2.15454e-02,2.00422e-02,-2.84786e-02,-2.36444e-01,1.36397e-01,5.13639e-02,2.74369e-01,-4.03087e-02,-5.84324e-02,6.82201e-02,-1.09339e+00,-2.66491e-02,-2.28044e-02,-4.84734e-02,4.49414e-02,2.26258e-01,-5.05289e-01,-1.09845e-01,8.30672e-03,-3.96388e-02,-5.17636e-02,-1.78003e-01,-5.07994e-01,-1.81367e-02,-2.17140e-01,-3.67768e-03,4.00414e-02,-5.61442e-03,-1.11522e-02,-5.38842e-01,4.16407e-01,-5.04378e-02,3.72116e-01,4.24757e-01,1.70317e-02,-4.24236e-02,-8.46844e-06,6.26448e-02,
-2.85447e-03,-7.61261e-01,-1.01058e-02,2.02387e-01,1.43529e-01,4.14797e-02,-2.17717e-02,-2.55024e-02,-3.60216e-01,-1.61588e-02,2.72140e-01,3.77102e-01,-1.48335e-01,-5.19816e-01,-2.08011e-01,3.87149e-01,3.06859e-01,-4.36675e-01,3.09427e-02,-1.20425e-01,-7.74187e-02,-5.54232e-02,-3.64286e-01,-7.90176e-01,-2.77523e-02,-1.04520e-02,1.47285e-01,2.73457e-02,3.28539e-01,9.60502e-02,2.07595e-02,1.69418e-01,3.48363e-01,1.00533e-02,-4.68298e-02,-2.06380e-01,-3.12615e-02,-3.11588e-02,-1.35714e-01,-8.75215e-02,8.50014e-03,-2.71121e-02,1.07231e-03,-2.31972e-02,2.55999e-02,
-3.43813e-01,-4.50584e-02,-7.31667e-02,2.15190e-01,8.24353e-02,-2.82757e-02,-6.34256e-03,2.15228e-02,7.64973e-02,2.73780e-02,-5.98425e-01,1.49505e-01,4.40883e-02,5.39529e-01,-9.75885e-01,-1.21542e-01,-1.80540e-02,6.54744e-01,5.15588e-03,3.24673e-01,-2.97926e-01,-4.26966e-02,-1.78341e-01,1.92582e-01,-3.28773e-01,-3.82851e-02,-2.86544e-02,2.75457e-02,-5.00512e-02,-4.02887e-02,-1.69216e-03,-2.64860e-01,-1.88475e-01,-4.74064e-02,-2.24716e-02,4.69545e-01,-7.45115e-03,1.77082e-01,1.85386e-01,7.30045e-02,1.93928e-01,5.05909e-02,1.13630e-02,4.42568e-02,8.63454e-02,
-2.83085e-03,3.63054e-02,-2.61132e-02,-2.85915e-02,-4.93436e-02,2.54789e-02,3.45866e-02,-7.79750e-03,-4.44602e-02,6.24825e-03,-1.11879e-02,2.34731e-03,-1.10829e-02,-3.38789e-02,-4.22001e-02,-1.66037e-02,4.17008e-02,-3.14261e-02,4.41711e-02,-5.31251e-03,4.78771e-02,-1.45715e-03,6.18462e-03,-1.04484e-03,-4.39391e-02,-1.16928e-02,-1.34215e-02,-4.55081e-02,-9.56378e-03,8.33242e-03,4.15544e-02,-1.94011e-02,-6.48140e-03,4.38663e-02,2.81759e-02,3.50133e-02,-2.49110e-02,-3.65325e-02,-2.04232e-02,-3.32198e-02,1.92373e-03,-2.97606e-02,2.52702e-02,4.13394e-02,3.75329e-02,
-8.99852e-02,-1.12718e+00,1.72248e-01,8.60349e-01,-1.59533e-02,-2.91940e-02,-6.78658e-03,4.11952e-02,-5.69353e-01,6.59089e-03,4.92353e-01,-6.32338e-01,-3.12778e-01,-5.49310e-02,-5.42038e-03,-2.07195e-02,-2.16948e-01,-9.48296e-01,4.30462e-02,2.05985e-01,2.33015e-01,-1.92632e-02,-5.63100e-02,4.20783e-02,-3.60235e-01,-2.37827e-02,8.40458e-02,-6.73196e-03,1.60912e-01,4.71073e-02,1.74313e-02,2.80577e-01,-4.15823e-01,-1.54365e-02,3.29900e-02,1.16947e-01,7.22973e-02,-1.09888e-01,2.73010e-01,-2.50227e-02,-1.11501e-01,1.44618e-02,-2.11719e-02,1.28021e-02,-4.06661e-02,
-4.43292e-01,-5.39589e-01,-6.73295e-01,1.29319e+00,8.66601e-02,3.67883e-02,-3.05670e-02,-8.03056e-03,-2.97203e-01,1.45159e-02,8.92873e-01,-3.69296e-01,-3.03319e-01,2.34688e-01,2.46349e-01,-3.70349e-01,1.75882e-01,1.02385e+00,-3.48890e-02,1.26958e-02,-5.42131e-01,-4.81539e-02,1.35183e-01,7.68854e-01,1.43403e-01,3.81118e-02,2.48588e-01,4.47244e-02,1.13550e-01,1.48362e-01,-2.01900e-02,3.35349e-02,-1.68610e-01,1.60267e-02,1.65955e-03,4.25798e-01,-1.07158e-01,-1.06286e-01,-5.02970e-01,4.92406e-02,5.02647e-01,4.08999e-03,2.87345e-02,3.74896e-02,-5.05284e-01,
-1.69439e-02,-4.81086e-01,3.82475e-01,1.42257e-01,-6.01988e-02,-5.92459e-02,4.78220e-02,-1.26628e-02,5.49855e-01,-4.10340e-02,1.61134e-01,-5.01648e-01,-4.17388e-01,1.06517e-01,2.31215e-01,-6.27979e-01,6.55907e-02,-4.41078e-01,2.54238e-02,-2.29181e-01,-1.14822e-01,-3.02297e-02,1.06497e-01,-9.44234e-01,-1.47874e-01,-2.27870e-02,6.81889e-02,9.50878e-03,1.12688e-01,2.36084e-02,1.05202e-02,-4.69386e-02,2.55438e-01,-6.14031e-03,8.96103e-04,-2.57335e-01,-9.45934e-02,-2.63336e-01,-2.15310e-01,1.93586e-01,9.56653e-02,2.88290e-02,-2.13385e-02,2.78274e-02,7.55033e-02,
-6.26960e-03,2.92558e-02,2.06136e-02,-5.29540e-02,-4.47561e-02,4.39735e-02,-2.85052e-02,2.14169e-02,-3.59079e-02,-3.87973e-03,-3.84232e-02,4.12948e-03,-2.38757e-02,-5.61493e-02,-8.87405e-03,1.81036e-02,-4.34547e-02,2.17059e-02,4.47462e-02,7.47588e-03,2.79632e-02,-4.42783e-02,-2.55145e-03,1.76216e-02,8.25066e-03,-3.65585e-02,-3.04969e-02,2.59806e-02,-3.56130e-02,2.83059e-02,1.52781e-02,-1.47807e-02,-2.74611e-02,-1.34316e-02,2.66470e-02,3.02468e-02,-4.30976e-02,-2.93242e-02,2.16767e-02,-1.14323e-02,3.69461e-02,-4.27953e-02,4.82049e-02,1.35289e-02,-1.47345e-02,
-6.67344e-02,-5.44534e-02,1.25037e-02,-4.24575e-02,5.66990e-03,-1.51488e-02,3.30477e-02,8.79792e-03,8.53794e-03,1.13289e-03,-2.62156e-02,-1.03745e-02,1.05806e-02,-3.15489e-02,-9.95994e-03,-1.69777e-02,-3.14768e-02,-2.76513e-02,7.58781e-03,-4.36329e-02,1.97218e-02,3.12475e-02,-2.13412e-02,1.10827e-02,-2.94377e-02,2.86325e-03,2.63906e-02,-2.34956e-02,-5.70044e-02,-6.54971e-02,-9.73788e-03,-4.48130e-02,1.43110e-02,3.68819e-02,-2.25376e-02,2.64528e-03,-4.85709e-02,-1.79722e-02,1.99859e-02,7.27452e-03,2.30556e-02,-3.23166e-02,-2.12225e-02,4.00591e-02,-3.96964e-02,
2.79058e-01,-7.27198e-01,-1.68566e-01,1.28517e-01,1.85096e-01,1.83011e-02,-1.36197e-02,-7.53062e-03,1.61561e-01,-2.43594e-02,-3.88357e-02,2.54842e-01,-1.60022e-01,2.64590e-01,1.18102e-01,1.23709e+00,-3.74175e-01,7.87640e-01,-2.35146e-02,2.07493e-01,1.98993e-01,-2.33784e-02,-1.49140e-01,8.89552e-01,-2.82259e-02,-3.61902e-02,1.27555e-01,-3.40417e-02,4.15298e-02,-6.41045e-02,4.48860e-02,-5.14610e-01,-1.23832e-01,-1.90583e-02,2.80802e-02,1.42208e-01,-1.69671e-01,1.85813e-01,-1.74504e-01,-4.94245e-02,1.52765e-01,-2.01898e-02,3.74717e-02,-3.65126e-03,6.26244e-01,
-1.02132e-01,
-1.63549e-02,
-1.37277e-02,
4.17105e-01,
-1.45531e-02,
4.77073e-02,
-2.34515e-02,
-1.00977e-02,
-4.53451e-02,
-4.55168e-01,
4.16699e-01,
3.60935e-01,
-1.40396e+00,
2.72792e-01,
6.68314e-02,
3.45661e-01,
1.07344e-01,
-5.04565e-01,
4.22542e-01,
-9.21852e-02,
7.27318e-02,
-2.65147e-02,
2.34506e-01,
-3.13891e-01,
2.96101e-02,
-5.90189e-01,
-2.84766e-02,
-8.39625e-02,
-6.27230e-03,
-2.40367e-02,
-2.80577e-02,
-6.58197e-01,
-4.13758e-01,
-4.05315e-01,
8.74091e-02,
7.28837e-01,
6.07013e-02,
-9.29007e-02,
-6.94538e-04,
6.08423e-01,
-1.54122e-01,
6.55644e-01,
-1.74143e-02,
-2.31994e-02,
4.75228e-03,
1.10940e-01,2.13338e-02,-2.12529e-02,1.14985e-02,-1.44835e-01,1.40737e-01,-7.68347e-03,1.18951e-02,3.57063e-02,1.26928e-01,4.00360e-02,-1.21272e-01,3.55010e-03,-1.86025e-02,3.22411e-01,-2.41036e-01,2.83273e-01,2.07511e-02,1.46747e-01,-6.25688e-01,-8.62596e-03,-3.54415e-02,-5.46698e-02,2.81511e-01,3.00409e-01,1.20173e-01,-8.42227e-02,4.99480e-01,-4.39831e-02,-6.13751e-03,-5.10558e-03,-1.17112e-01,-2.24562e-01,-1.87327e-01,3.21937e-01,-3.01392e-02,3.79412e-01,-2.65249e-01,2.60755e-02,-6.29436e-02,-1.89601e-01,1.31409e-01,-4.42575e-02,-5.55100e-02,2.20506e-01,
-3.33421e-03,-4.83148e-03,3.24338e-02,3.87598e-01,-1.03607e-01,2.18432e-01,-2.58794e-02,-6.28741e-03,-3.37830e-02,5.30824e-02,3.98409e-01,-5.56804e-04,3.83190e-02,2.37592e-01,1.65128e-01,-1.94243e-01,-1.11985e-02,-1.68367e-01,1.78164e-01,-1.92929e-02,-8.60526e-03,-2.47313e-02,-1.74215e-01,-2.19248e-01,-1.94111e-01,2.80266e-01,6.50911e-02,-3.55866e-01,2.29220e-02,6.08736e-02,-3.50353e-02,-1.08155e-01,-4.10087e-01,5.07623e-02,-9.60190e-02,-2.64553e-01,2.97125e-01,3.71030e-01,-1.36217e-02,-6.07448e-02,3.76977e-01,-1.58620e-01,2.16984e-03,-1.32213e-03,2.09884e-02,
-3.35784e-02,-1.37204e-02,3.29017e-02,-3.31931e-02,1.26071e-02,-5.99211e-02,-3.59633e-02,-1.36487e-02,4.79533e-02,-2.35680e-02,-1.43443e-02,-6.34281e-02,-3.48685e-02,1.47956e-02,-8.32108e-03,4.83312e-03,-4.11321e-02,1.66976e-02,-5.41092e-02,-3.25813e-02,-4.05586e-02,2.24748e-02,3.30850e-02,-1.81755e-02,2.93482e-02,-1.10470e-02,-1.06199e-02,-1.86767e-02,2.90194e-02,-1.77090e-02,3.79316e-02,-2.33509e-02,-5.73574e-02,-1.93102e-02,1.04779e-02,9.93616e-03,-6.56159e-02,-3.19045e-02,1.73651e-02,6.54211e-03,-5.56227e-02,-3.78873e-02,-2.88985e-02,-1.22957e-02,-3.62509e-04,
-4.69285e-01,1.56576e-02,-5.28134e-02,-2.10098e+00,-1.07007e-01,6.53960e-02,1.45399e-02,-7.93672e-03,9.69368e-02,-7.08398e-01,-6.99138e-03,1.81704e-01,-1.82390e-01,-3.65978e-01,-5.30763e-01,3.08606e-01,1.16312e+00,4.24798e-02,-6.72266e-01,1.14098e-01,-9.05007e-04,-4.15726e-02,5.55492e-01,2.91772e-01,-5.56194e-01,-2.88556e-01,4.40293e-01,-5.67304e-02,2.15459e-02,3.98271e-02,3.37403e-02,-9.78276e-02,1.15344e-01,-6.69447e-03,-7.59641e-01,-1.55099e-01,-1.54562e+00,-3.63347e-01,-8.25853e-03,2.36830e-01,-3.60785e-01,-1.65258e+00,1.42796e-02,4.19540e-02,-1.17066e-01,
1.06827e-01,2.49611e-02,1.31410e-02,-2.60096e-01,1.48270e-01,1.78498e-02,-2.92301e-02,4.17796e-02,2.67226e-02,3.18496e-02,1.12103e-01,2.39918e-01,1.99945e-02,-7.38835e-02,3.02105e-01,-7.34910e-01,-2.70688e-01,1.16038e-02,2.74528e-01,2.40566e-01,-1.02946e-01,2.00060e-02,1.09346e-01,-1.53485e-01,-1.84032e-01,-5.01245e-01,-9.59751e-01,1.54662e-01,1.97368e-02,-5.68594e-02,-3.32026e-02,-4.78112e-02,5.20086e-01,-6.95009e-01,4.39725e-02,1.80868e-01,6.69404e-02,-4.75735e-01,-3.08193e-02,3.69932e-01,1.64043e-01,-6.41709e-02,-1.61485e-02,1.69390e-02,3.96535e-02,
-3.87139e-02,1.98303e-02,-1.11839e-02,-4.05691e-02,2.75800e-02,3.27876e-02,-3.91714e-02,-3.49976e-02,2.62691e-02,-9.26160e-03,3.42110e-02,-6.53441e-03,-3.14458e-02,-5.20671e-02,-5.80775e-02,-5.86666e-02,3.13053e-04,-5.30510e-02,-1.00612e-02,-2.11181e-02,-4.71409e-02,1.33071e-03,2.10803e-02,-2.18905e-03,-5.48572e-02,-3.53933e-02,8.02326e-03,-5.45128e-02,2.11026e-02,4.94950e-02,1.89075e-02,-1.44689e-02,-1.05134e-02,-4.69939e-03,-1.19179e-03,1.48279e-03,-1.71055e-02,-2.37613e-02,-1.78053e-03,1.43835e-02,2.33654e-02,-3.91657e-02,4.50135e-03,4.17213e-02,2.18418e-03,
-7.67028e-02,2.47979e-02,1.55751e-02,-1.04402e+00,-2.19461e-01,-1.43639e-02,2.00081e-02,-1.45770e-02,4.75446e-02,-4.65072e-02,3.53346e-03,-1.02834e+00,-1.54194e-02,-8.41276e-02,-1.81888e-01,1.34664e-01,-2.11593e-01,-2.01191e-01,3.68948e-01,-4.64009e-02,5.41659e-02,-3.59966e-02,3.27651e-01,-2.18620e-01,1.59741e-01,-3.90271e-01,5.61669e-01,-6.80054e-01,-3.19743e-02,-2.13799e-02,-1.63224e-02,-1.10729e-01,-9.41586e-01,-3.37647e-02,-1.09376e+00,4.29048e-02,-2.22739e+00,-9.90467e-02,1.08282e-02,9.29460e-01,-5.23779e-01,-3.65606e-01,3.97364e-02,-2.28982e-02,5.89974e-01,
1.44339e-01,1.63053e-02,1.08438e-03,-6.09244e-01,2.42902e-01,4.43212e-02,-7.99109e-03,-6.64497e-03,7.46273e-02,2.01209e-01,-8.29267e-04,-1.59867e-01,3.23062e-02,-2.61488e-01,1.52272e-01,2.14724e-02,8.70846e-01,-9.18050e-02,-6.10951e-01,3.25668e-01,-4.22606e-02,-3.74244e-02,-9.63698e-02,-4.15616e-02,1.05185e-01,-8.39610e-01,2.41616e-03,4.20772e-01,-2.39466e-03,1.30948e-02,-1.73400e-02,3.90954e-01,-3.03359e-01,-1.95363e-01,-3.11871e-01,1.13629e-01,-7.47348e-01,-1.47036e-01,4.46447e-02,6.71684e-02,-3.35772e-01,8.22470e-02,-2.52424e-02,-3.89306e-02,-3.64099e-01,
1.49433e-01,6.60642e-03,3.53770e-02,-5.67412e-02,2.14849e-02,1.95500e-01,-4.58054e-02,3.56040e-03,3.45583e-02,6.51792e-02,1.60274e-01,-1.70425e-01,9.23786e-02,-1.62091e-01,4.48203e-02,-4.57732e-01,-1.50712e-01,-1.04571e-01,2.85132e-02,2.81881e-01,-1.85844e-01,3.82577e-02,4.64710e-02,1.01606e-01,8.82352e-02,-5.37005e-01,-7.86391e-01,1.46097e-01,6.33726e-03,2.89731e-02,5.02033e-02,-1.81080e-01,3.16151e-01,-4.68529e-01,-9.15314e-02,1.70873e-01,2.55725e-01,-5.13186e-01,-1.23670e-02,2.87365e-01,2.00562e-01,-1.78766e-01,8.14728e-03,3.01446e-02,2.38109e-01,
-5.19723e-02,2.59020e-02,2.71593e-02,4.09989e-01,-9.75035e-02,-1.29029e-01,4.91417e-02,2.25350e-02,-1.27345e-02,6.63151e-01,-2.46402e-03,-3.36151e-01,-1.88865e-02,3.02155e-01,-1.50733e-01,-4.98344e-01,-4.88004e-01,-7.07369e-02,1.39109e-01,-1.89553e-01,2.04957e-02,-1.50471e-02,-1.95946e-01,-2.02743e-01,1.26974e-01,-5.62939e-01,-1.07714e-01,-6.75511e-01,9.74389e-03,1.79034e-02,-3.02586e-02,-6.39698e-01,9.76322e-02,4.75716e-01,-3.30817e-01,-8.60348e-02,2.35831e-01,-1.22716e-01,-4.73798e-02,4.44861e-01,-9.19022e-02,5.23638e-01,-4.11243e-02,-4.68707e-02,4.32539e-01,
-2.00161e-02,1.53233e-02,1.65695e-02,-3.62500e-02,-2.80824e-02,-3.72416e-02,-4.58294e-02,2.73437e-02,4.95885e-02,3.06837e-02,-1.71532e-02,-2.71491e-02,-3.99937e-02,1.73362e-02,-3.63840e-03,-9.12661e-03,-2.68863e-02,-3.51820e-02,-3.48846e-02,-4.91961e-02,-2.66755e-02,1.39351e-02,1.77140e-02,-1.00288e-02,-4.39720e-03,-7.58228e-03,-1.53813e-02,-3.47901e-02,-1.75038e-02,1.02916e-02,-4.78852e-02,-1.53635e-02,3.41185e-04,-5.54961e-02,-2.87762e-02,2.78013e-02,-1.40016e-02,-4.12045e-02,6.94184e-03,-6.21386e-02,-1.06803e-02,2.17225e-03,3.74081e-03,3.74499e-03,1.18329e-02,
-5.75550e-02,5.47583e-02,-3.88091e-02,1.79059e-01,-1.86572e-01,2.09750e-02,-1.60638e-02,2.23226e-02,-2.32221e-02,5.35030e-01,1.21846e-01,2.81100e-02,2.56698e-02,-1.87795e-03,8.70746e-02,1.04325e-01,1.03017e-01,-6.20130e-02,7.24849e-02,1.90268e-01,-3.45413e-01,2.09329e-02,1.98220e-01,-5.44776e-02,2.11572e-01,-1.48515e-01,6.58197e-02,-2.09084e-01,1.32494e-02,-9.56240e-03,-4.28299e-03,1.46390e-01,-5.02056e-01,4.56114e-02,-6.18604e-01,4.28135e-02,6.90364e-02,1.55790e-01,4.09870e-02,1.24826e-01,2.97665e-01,-4.32346e-02,-4.34885e-02,1.63127e-02,4.20315e-01,
-3.15938e-01,3.30847e-02,-8.71954e-03,2.00412e-01,9.26834e-02,5.01735e-02,-4.94378e-02,-7.39750e-03,3.95573e-02,-5.68721e-02,-5.94574e-02,7.67454e-03,-3.36382e-02,3.81880e-01,-1.35743e-01,-9.11946e-02,-2.12833e-01,-8.24125e-02,9.11840e-02,-1.38169e-01,5.85736e-02,-6.76341e-03,-3.82214e-01,2.15119e-01,1.69141e-01,-1.48978e-01,2.05877e-02,-5.27173e-01,1.98278e-02,2.54832e-02,1.25331e-02,-1.50359e-01,-1.87766e+00,3.06535e-02,1.32950e-01,-5.64449e-03,-5.10681e-01,-1.28330e-02,4.73456e-02,2.92560e-01,2.65935e-02,1.18426e-01,3.20588e-02,2.59503e-02,-3.13746e-01,
3.03549e-01,2.30540e-03,1.62898e-02,-1.22336e-01,7.30575e-02,-9.17049e-02,-1.23320e-02,-5.01911e-03,-5.42772e-03,-3.79263e-02,1.10698e-01,5.20657e-01,-3.82929e-02,8.13186e-02,9.21863e-02,-3.35828e-01,-4.45600e-01,1.21073e-01,2.23664e-01,-4.94550e-01,-9.03104e-02,-2.12284e-02,1.68746e-01,1.55824e-01,-1.08876e-01,-3.11173e-01,1.91184e-01,-3.77904e-01,3.02292e-02,-3.23391e-02,4.44356e-02,-4.90159e-01,-3.15150e-01,-6.00494e-02,1.73463e-01,9.87771e-02,-1.27452e-01,4.51565e-02,-3.23587e-02,1.77453e-01,-1.81213e-01,1.15886e-01,-4.28169e-02,4.27516e-04,-9.53348e-02,
-1.54186e-01,-6.51581e-03,3.98168e-04,-6.73334e-01,-1.51571e-01,2.41145e-02,5.18377e-02,-3.87496e-02,-7.36976e-02,1.53285e-01,1.49135e-01,-5.42294e-01,-6.48818e-03,-5.45483e-01,-9.59739e-02,-5.69788e-03,1.51615e-01,-3.04795e-02,4.48120e-02,6.34365e-01,-1.61992e-01,-4.76186e-03,-4.86776e-01,7.16694e-01,-1.95236e-01,-4.27736e-01,3.62308e-02,2.51437e-01,-2.79200e-03,-1.40348e-02,-2.77393e-02,1.91662e-03,5.59081e-01,-3.91134e-01,2.90765e-01,5.45524e-02,-7.39946e-01,2.41653e-01,-4.44750e-02,-4.66825e-01,4.42965e-02,-2.77833e-01,-4.13022e-02,2.00421e-03,2.16185e-01,
-1.17740e-02,3.25376e-02,-2.42228e-02,2.67541e-01,-9.63221e-02,-1.37788e-01,-3.71802e-03,-1.84099e-02,1.63270e-02,-2.52286e-02,-2.58543e-02,3.15812e-01,1.76542e-01,-2.77196e-01,2.81107e-01,1.16454e-01,-5.45798e-01,-3.31341e-01,-3.91824e-02,6.14366e-02,-2.23103e-03,3.04850e-03,-1.42971e-02,-5.09547e-02,7.13876e-03,-2.61972e-02,4.62553e-01,-1.18200e-02,4.63661e-02,1.40400e-02,-2.40076e-02,3.70216e-01,5.78905e-02,-3.45587e-01,-2.42877e-01,3.66834e-02,4.40882e-01,1.80837e-01,-1.17992e-02,2.02033e-01,-1.98728e-01,1.66938e-01,2.21246e-02,-2.66138e-02,-2.25935e-01,
-6.96858e-02,4.15617e-02,1.61761e-02,1.84031e-01,2.68008e-01,-2.11868e-01,3.13580e-02,-4.27338e-02,-1.50284e-02,-3.45428e-02,-6.99570e-02,7.50143e-01,2.89820e-02,9.75819e-02,6.07469e-02,5.92631e-02,-1.92788e-01,8.41730e-03,-1.85002e-01,6.13341e-01,2.54375e-01,-2.34131e-02,-2.24001e-02,-7.49326e-02,-1.41012e-01,2.08975e-01,7.75908e-02,2.40906e-01,-1.02429e-02,1.47970e-02,3.56483e-02,-2.85905e-01,3.03899e-01,1.46443e-01,-5.76333e-02,-1.98016e-02,5.74232e-01,2.02486e-01,-6.74918e-03,-3.61521e-01,-1.84357e-01,-5.30260e-02,-5.97215e-03,-1.91732e-02,-1.90585e-01,
-1.32215e-01,-5.36867e-02,-5.45570e-02,-3.76214e-03,-4.74442e-02,-4.96816e-01,3.97093e-02,1.27301e-02,8.75549e-02,6.38342e-02,-2.69286e-02,2.83985e-01,1.88071e-02,2.64233e-01,1.57246e-01,-4.82271e-01,-6.31716e-01,-3.68123e-02,4.20160e-01,1.97543e-01,3.97660e-01,5.93230e-02,2.18310e-01,-3.99566e-01,-1.34142e-01,-1.20912e+00,9.24160e-02,-5.65457e-01,-1.33674e-02,1.46226e-02,3.42399e-03,-1.11226e-01,3.49856e-01,-3.61192e-01,-2.93571e-02,1.22938e-02,6.14616e-01,1.47514e-01,8.71998e-05,3.85347e-01,-8.63071e-03,-5.67404e-02,3.59238e-02,5.15247e-02,-1.57611e-01,
-1.54497e-01,2.41885e-02,-1.60852e-02,5.46596e-02,4.41874e-02,-4.41825e-02,2.25586e-02,1.73366e-02,4.40729e-04,-4.71625e-03,-4.94445e-02,4.86481e-02,-5.71848e-02,1.84822e-01,1.56616e-01,-9.82665e-02,2.72074e-01,-6.02246e-02,-3.65628e-02,6.61532e-02,2.71602e-02,-1.75217e-02,-1.00373e-01,-5.60606e-02,-5.51875e-02,-1.15419e-01,-1.17494e-01,1.32678e-02,-1.53758e-02,2.92527e-02,1.94318e-02,1.31293e-01,2.63287e-01,1.32503e-01,-6.14238e-02,4.59802e-02,4.05795e-01,-1.59635e-01,-2.94713e-02,-8.48443e-02,-1.91159e-01,-1.98328e-01,-2.56542e-02,5.49291e-02,-4.19988e-01,
1.01548e-03,-3.27875e-02,-7.87749e-03,-3.01490e-02,-8.30385e-03,-2.07301e+01,1.81433e-02,5.57760e-03,-6.04828e-02,-4.70672e-02,1.01865e-02,8.49839e-07,-8.52214e-03,6.08926e-03,-1.64945e-02,1.20843e-02,-1.31260e-02,2.83405e-02,-1.03463e-02,-7.03271e-03,-6.51235e+00,2.79496e-03,5.13989e-03,6.59470e-03,1.52981e-02,8.67492e-03,-1.70673e-02,1.98768e-02,2.35842e-03,-5.19285e-02,4.72594e-02,-1.51261e-02,1.16048e-02,1.72065e-02,2.84718e-02,-2.32134e+01,-6.18264e-03,-7.91078e-03,3.78498e-03,-3.18241e-03,4.02382e-02,1.07577e-02,-9.44244e-03,1.21691e-02,2.34209e-04,
-4.79101e-02,3.37353e-02,-3.24170e-02,-9.36013e-03,-5.05764e-02,-5.19442e-02,-1.04642e-02,1.55243e-02,3.01850e-03,-2.59102e-02,-4.21277e-02,1.25455e-02,-2.64627e-02,-3.72139e-02,1.20240e-02,-2.47441e-02,2.48992e-02,-4.61046e-02,-3.93223e-02,-4.12825e-02,1.46030e-02,-4.78787e-02,8.91116e-03,1.75394e-02,3.33449e-02,-1.74123e-02,2.56696e-02,-3.65893e-02,4.41291e-02,-3.20456e-02,1.49878e-02,-3.65612e-02,1.01715e-02,2.25506e-02,-6.29342e-02,3.26606e-02,1.31460e-02,-1.27103e-02,3.91898e-02,-6.28622e-02,1.49814e-02,-1.21947e-02,-5.01286e-02,2.66581e-02,4.87114e-03,
4.99039e-03,-2.32944e-03,1.17224e-02,-5.64980e-03,-1.21486e-02,1.69865e-02,-1.91868e-02,2.09143e-02,1.59612e-02,-4.23636e-02,-4.03877e-02,-5.10301e-02,2.09058e-02,-3.82173e-02,2.43321e-02,-1.73310e-02,-1.76955e-02,-4.66462e-02,-1.51959e-02,-6.32887e-02,-5.64749e-02,1.05589e-02,-7.74428e-03,1.56792e-02,-3.52606e-02,-1.49311e-02,-1.84961e-02,1.31408e-02,2.52534e-02,-2.96486e-02,3.53463e-02,-2.50402e-02,-4.03569e-02,-7.93495e-03,-4.51879e-02,-9.03516e-03,-1.92435e-02,-7.33427e-03,3.49820e-02,-2.05460e-02,1.32543e-02,6.83209e-03,-1.41752e-02,2.60119e-02,1.00862e-02,
3.25206e-01,1.47615e-02,-1.69579e-02,-2.56307e-02,-3.56919e-02,3.01625e-01,-2.68487e-02,-2.98329e-02,1.74894e-02,-6.39309e-01,2.55429e-01,1.59424e-01,7.57453e-02,-1.34863e-01,3.80142e-01,-1.83619e-01,-1.24910e-02,-1.39046e-01,1.57920e-01,-8.74493e-02,5.48026e-01,-6.70490e-03,-2.97837e-01,3.72518e-01,-1.35267e-01,-3.60978e-02,-1.17542e-01,-2.13092e-01,2.14899e-02,-1.75573e-02,1.58679e-02,2.43377e-01,5.90910e-01,1.29526e-01,4.36331e-02,-2.53691e-01,3.01639e-01,3.46499e-01,1.21682e-02,-2.54818e-01,-3.15045e-01,-1.88093e-02,-2.64588e-02,3.54885e-02,3.42010e-01,
2.52756e-03,3.30614e-02,2.79069e-02,-5.80966e-02,-1.76361e-01,-1.07132e+00,-2.37682e-03,-3.99230e-02,6.51203e-03,-1.59411e-01,4.92526e-01,-3.77678e-01,-6.98812e-01,2.17532e-02,4.98198e-02,-2.26884e-02,1.28965e-01,1.03673e+00,1.45460e-01,-1.64736e-01,-3.60557e-01,9.70834e-03,7.64180e-02,-1.44350e-01,5.97359e-02,-1.56915e-03,-1.11974e-01,5.73106e-02,7.06209e-03,-1.86090e-02,-3.04792e-02,1.97620e-01,7.62833e-02,-4.70085e-02,8.11564e-02,7.90461e-01,-1.31975e-01,-4.51579e-02,-1.20382e-02,-2.76681e-03,2.66106e-01,9.59781e-02,-4.17475e-02,-3.75377e-02,-1.35618e-01,
2.12219e-02,-4.39090e-02,-9.59578e-04,2.10105e-02,-5.18916e-02,2.83582e-02,-2.13309e-02,3.81499e-02,1.85655e-02,9.37791e-03,-5.58461e-02,-1.72242e-02,-2.12566e-02,-4.91588e-02,1.66583e-02,-3.71388e-02,3.02135e-02,-3.45239e-02,2.52049e-02,-2.15657e-02,-2.51030e-02,-4.47333e-02,-3.02777e-02,-7.27054e-03,-5.10926e-02,-4.22057e-02,2.39850e-02,-1.11176e-02,1.29892e-02,5.49610e-03,4.32292e-02,9.97751e-04,-4.78882e-02,1.90249e-02,-1.00354e-02,-1.83518e-02,-5.66052e-02,-5.19195e-02,-5.39830e-03,3.92665e-03,-2.12931e-03,1.16080e-02,4.11133e-02,-1.81116e-02,-1.67580e-02,
-1.39372e-02,-3.14630e-02,-4.91474e-02,-2.41897e-02,2.14298e-02,-1.47572e-02,-3.05582e-02,-7.85272e-03,2.57057e-02,-9.48338e-03,2.00801e-02,1.30261e-02,-3.11180e-02,-1.21188e-03,-4.84687e-02,-3.21419e-02,-3.79849e-02,-6.35922e-03,-7.14291e-02,-6.86791e-02,7.60595e-03,-3.39479e-02,-2.87877e-02,-1.05044e-02,1.47371e-02,-2.58497e-02,-4.57684e-03,1.16088e-02,-4.56274e-02,2.28658e-02,4.71691e-02,-3.43837e-02,-3.86916e-02,-5.00435e-02,-7.07004e-02,-4.02489e-02,2.13047e-02,-2.18552e-02,6.07836e-04,-1.75869e-02,7.40171e-03,-5.18771e-02,4.38757e-02,-3.49029e-02,-6.05667e-02,
2.53101e-01,-3.63920e-03,-9.76362e-03,4.44007e-01,-7.39958e-02,1.97210e-01,-6.94394e-03,-3.49654e-02,-2.83316e-02,2.53435e-01,-2.12325e-01,-8.42521e-01,-6.01455e-02,-3.57861e-01,1.50826e-01,-2.84140e-01,5.86679e-01,1.36078e-01,-1.61405e-01,7.90419e-02,-5.19973e-02,-5.96292e-02,9.69318e-02,3.30097e-02,5.38851e-03,-3.23092e-01,3.09382e-01,-2.34833e-01,-4.76111e-02,2.63437e-03,1.63890e-02,2.89091e-01,1.32529e-01,-8.70960e-02,-2.70555e-01,3.76862e-02,-4.24116e-01,-4.35693e-01,3.65735e-02,-1.86013e-01,-2.52774e-02,1.44103e-01,-2.53563e-02,-2.13190e-02,3.56002e-01,
2.24154e-01,-2.65742e-02,-4.84689e-03,-2.64398e-02,2.05819e-01,-4.89972e-02,1.25180e-02,-2.38515e-02,-7.97416e-03,-3.04853e-01,9.05841e-02,3.94274e-01,2.96396e-02,3.54457e-01,-3.83631e-01,3.13376e-01,2.00423e-01,-6.46000e-02,6.61352e-02,-6.09652e-01,2.01766e-01,-2.21931e-02,-7.25982e-02,3.15487e-01,2.69758e-01,9.69883e-02,8.34688e-03,-3.34805e-01,5.62160e-02,2.38574e-02,4.57430e-02,-5.26250e-01,-1.48789e-01,4.28659e-01,1.76164e-02,4.76232e-02,-1.13594e+00,-1.26548e-01,-7.52025e-03,-5.79648e-01,-8.09205e-02,-2.60724e-01,3.81703e-02,-1.61164e-02,-2.13987e-01,
2.85086e-02,1.09523e-02,-1.48599e-02,3.83257e-01,-2.76871e-01,1.87297e-01,-4.12244e-02,-1.33101e-02,-3.07678e-03,-9.30963e-02,2.08766e-01,4.13256e-02,1.19760e-01,-5.62495e-02,2.46234e-01,-6.10331e-01,-4.84002e-01,-7.09297e-02,-1.79576e-01,6.07902e-01,-2.30880e-01,2.84581e-02,-1.53389e-01,3.63362e-01,1.66690e-01,-7.86218e-01,1.13152e-01,-2.95227e-01,3.82313e-02,-4.69918e-02,2.79454e-02,-4.92791e-01,2.64593e-01,-6.32014e-01,-2.49044e-01,4.46829e-02,4.15587e-01,-4.87519e-01,5.97661e-03,1.00164e-01,-1.35261e-02,-2.01883e-03,3.70510e-02,1.44712e-02,1.57901e-01,
-4.11052e-02,3.71080e-02,5.31100e-02,-1.98264e-02,2.99024e-02,6.60025e-02,1.41979e-02,6.51197e-04,4.00138e-03,-1.54870e-01,-3.52972e-03,3.49588e-01,-7.86626e-02,-3.22056e-02,-7.09752e-02,-1.04860e-01,2.63496e-01,1.41434e-01,-4.60560e-01,-2.70350e-01,1.19626e-01,2.50606e-02,-1.52382e-01,1.41908e-01,-8.09691e-02,-3.92242e-02,2.84375e-01,-3.56825e-02,-4.49962e-02,-1.24701e-02,6.72812e-03,-1.03528e-01,1.53298e-01,1.45951e-01,-1.89568e+00,2.20477e-01,6.23721e-01,-2.08938e-01,-2.31023e-04,-1.60968e-01,6.64709e-02,4.11435e-01,-2.97043e-02,6.94822e-03,-1.70497e-01,
1.41369e-01,1.39238e-02,-1.89109e-02,-1.84341e-01,-1.05090e-01,2.02051e-01,-3.80250e-03,3.59308e-02,3.89754e-02,2.04713e-01,-1.90338e-01,1.61756e-01,1.15957e-01,-3.49256e-01,4.37915e-01,-3.23867e-02,-4.69015e-01,-1.11868e-01,2.96175e-01,2.29626e-01,-1.92698e-01,-1.89000e-02,9.87264e-01,2.43317e-01,-5.17787e-01,-2.51851e+00,-7.31582e-02,1.21627e+00,-3.46866e-03,-2.83727e-02,1.73646e-02,-3.39740e-01,-5.57541e-01,-1.24578e+00,7.26387e-02,8.80294e-04,3.03047e-01,-8.46157e-02,-2.47548e-02,1.50103e-01,2.84088e-01,2.59258e-01,2.40999e-03,-1.76665e-02,3.26009e-01,
-2.11133e-01,3.65231e-02,2.97737e-02,-4.13253e-01,5.13572e-02,-2.72430e-01,-3.67864e-02,-4.89485e-02,-4.51844e-03,1.41650e-01,2.86489e-02,-1.04996e-01,8.75247e-03,-3.19037e-01,-2.09957e-01,6.79774e-02,-1.26545e-01,9.47204e-02,1.30126e-02,3.87769e-01,-1.20874e-01,-1.37469e-02,-8.48994e-01,4.98714e-01,-1.72871e-02,1.88650e-01,-1.74985e-01,-2.15946e-01,2.72848e-03,2.61047e-02,1.76642e-02,-2.34345e-01,8.70599e-01,-8.21655e-03,1.14563e-01,-4.33874e-02,1.61426e-01,-5.53323e-02,2.42801e-02,3.03341e-02,1.03770e-01,4.73258e-01,-3.78623e-02,-1.47724e-02,3.65443e-01,
-4.64664e-02,7.93220e-03,4.80472e-02,-1.33753e-01,1.26114e-01,-1.33327e-01,4.76483e-02,9.80342e-03,9.52664e-04,2.21987e-01,5.87424e-01,1.40379e-01,-1.88439e-01,6.06431e-02,-8.17271e-02,-6.00078e-02,1.20033e-01,-1.23838e-01,1.90045e-01,-1.46496e-01,-8.11821e-02,3.51550e-02,2.50713e-02,-1.45679e-01,7.47469e-02,2.25848e-01,1.77443e-01,8.17078e-02,-4.31167e-02,4.33960e-02,-1.83022e-02,4.78378e-02,2.59946e-02,-1.02966e-01,5.63897e-02,-9.56250e-01,3.26543e-01,2.58684e-01,-1.52182e-02,6.11238e-02,1.17248e-01,2.05113e-01,2.59899e-02,-2.98733e-02,-1.80072e-01,
