// Neural Network File Format by Kyle Julian, Stanford 2016
7,4,9,45,
4,45,45,45,45,45,45,9,
0,
-8000.0,-100.0,-100.0,0.0,
8000.0,100.0,100.0,40.0,
0.0,0.0,0.0,20.0,-0.432599379632,
16000.0,200.0,200.0,40.0,3.102300001,
3.75258e-03,-5.58014e-02,-8.42212e-02,1.16064e-01,
-1.58841e+00,4.57247e-01,-4.54146e-01,-9.83613e-02,
-4.36168e-03,-2.87913e-01,-6.88801e-03,-1.49648e-02,
1.27468e+00,-1.60237e-01,1.95048e-01,2.41428e-01,
3.00317e+00,-1.34870e-01,-3.42166e-03,8.88716e-02,
5.35349e-03,1.84006e+00,3.61248e-03,1.92103e-03,
6.12465e-02,1.67050e+00,-1.45612e-02,-1.39935e-02,
-1.47445e+00,-2.40020e-01,2.30763e-01,-2.78007e-02,
4.30866e-02,1.12326e-01,-5.63505e-01,7.70144e-02,
-2.66285e+00,-1.39716e-01,1.91493e-01,5.90403e-03,
-5.88707e+00,1.17766e-02,-2.96638e-03,-1.12227e-01,
-1.43115e+00,-5.80148e-02,9.64949e-02,-1.01100e+00,
-8.33931e-03,4.65560e-01,-4.61538e-01,-3.82729e-03,
-5.56551e+00,4.50616e-04,1.29950e-01,1.15351e-01,
1.94591e-01,1.82721e+00,-3.31028e-03,8.42372e-03,
7.18418e-01,2.24349e-01,-1.16521e-01,-9.37925e-01,
1.42176e+00,-5.89824e-02,-6.12809e-02,-6.56087e-02,
-4.68221e-03,-6.68967e-01,6.62001e-01,-1.13733e-02,
1.57845e+00,1.29014e-01,-1.50309e-01,3.66376e-02,
-9.23870e-02,-1.26972e+00,1.20969e-03,-2.80045e-04,
-1.65122e-01,1.06952e-01,2.82736e-01,2.60563e-02,
-1.51406e-02,-1.93178e-01,1.14041e-02,-1.42533e-02,
-5.84985e+00,1.91154e-01,-1.82170e-01,2.97885e-02,
-2.62432e-01,-7.10482e-02,1.02640e-01,1.29126e-01,
-5.03775e-02,7.81856e-03,3.79234e-02,1.71864e-01,
9.10934e-01,6.27043e-01,-5.78323e-01,2.96909e-02,
-5.01010e+00,2.55510e-02,-2.38692e-02,-4.18437e-03,
1.00938e+00,-2.07547e-01,2.84949e-02,-8.56031e-02,
7.63624e-01,3.15103e-01,-3.80937e-01,-3.24717e-04,
2.22491e+00,1.23824e-01,-1.28452e-01,-6.79754e-01,
-9.53845e-02,-1.48888e-01,-2.81393e-02,9.59528e-03,
-7.27935e-02,-4.16823e-02,5.11848e-01,3.66767e-03,
4.63576e+00,3.83492e-01,-3.57904e-01,3.65714e-02,
9.84347e-01,1.95411e-01,-2.04664e-01,-9.49115e-01,
-2.79531e+00,3.10670e-01,-3.01070e-01,8.05092e-02,
1.97300e-02,-3.41500e-01,3.41389e-01,1.18440e-01,
-4.32748e-01,1.80838e+00,-2.26061e-02,1.22425e-03,
1.45937e+00,-2.13559e-01,2.52930e-01,-4.66728e-01,
3.35719e+00,-4.89215e-02,3.76889e-02,-7.93611e-02,
-1.60963e+00,3.80108e-01,-3.72573e-01,2.44794e-01,
-1.08131e-03,-6.36359e-02,4.77543e-05,-5.62618e-03,
2.26840e+00,-2.41192e-01,2.27561e-01,3.28867e-01,
-1.28360e+00,4.19181e-02,-3.36661e-02,-1.13004e+00,
-6.57338e-01,1.49438e-01,-2.25596e-01,2.12077e-01,
2.33292e+00,-9.63929e-02,2.36754e-01,6.97318e-02,
1.61293e-02,
8.19196e-02,
1.20581e-01,
8.86880e-03,
1.04588e-01,
4.17170e-01,
3.22281e-01,
3.99842e-02,
5.20922e-04,
1.68693e-01,
5.39249e-02,
-4.02557e-01,
6.77972e-02,
1.07578e-01,
-3.80774e-01,
-2.28106e-01,
6.15341e-02,
9.96298e-02,
-4.67705e-02,
-2.99995e-01,
-1.16900e-01,
6.84753e-02,
1.18664e-01,
-6.95919e-04,
4.17528e-02,
-1.19872e-03,
2.21608e-01,
-9.81418e-02,
5.04457e-02,
-2.72542e-01,
6.79638e-02,
3.20181e-02,
2.66458e-01,
-4.26937e-01,
1.48145e-01,
-7.68064e-02,
3.66949e-02,
-2.28698e-02,
2.39541e-02,
4.94444e-02,
-3.52259e-02,
1.95844e-01,
-2.46753e-01,
-5.11855e-02,
7.09416e-02,
-1.26968e-01,3.50611e-01,3.22315e-01,-1.27474e+00,1.61673e-01,7.17530e-02,3.73217e-01,2.47929e-01,-5.69592e-02,9.69410e-02,4.41052e-01,1.23218e+00,-1.86109e-01,5.82847e-02,-5.91815e-01,-4.99883e-01,1.83962e-01,-4.81859e-01,1.95135e-01,2.52351e-01,5.13027e-03,3.83698e-01,-1.57677e-01,-5.81998e-01,-3.10005e-01,1.56481e-01,1.55345e-01,-1.84044e+00,-4.63431e-02,1.02776e+00,3.09312e-01,-7.05359e-01,-2.35582e-02,-3.75082e+00,-2.86741e-01,3.24178e-01,-3.51368e-02,-1.07014e+00,-4.58631e-01,-8.13882e-01,1.71331e-02,-1.75418e-01,9.78509e-02,4.80743e-01,1.00884e-01,
-2.15128e-01,-4.78098e-01,-2.57190e-01,-7.08024e-01,4.63717e-01,1.62845e-01,-3.01343e-01,4.01621e-01,-2.57066e-01,2.23857e-01,-8.46391e-01,-2.09008e+00,8.36996e-02,-1.15030e-01,-7.09824e-02,7.93460e-02,3.89542e-01,4.85091e-01,1.29689e-01,2.78226e-01,8.97738e-01,-1.33450e-01,-7.52443e-01,7.22927e-01,9.45833e-01,-2.87878e-01,-4.71258e-02,-2.72777e-01,-1.40548e-01,9.43088e-01,-1.36286e-01,1.37123e-01,4.61984e-01,2.24952e+00,-8.26933e-02,2.87123e-01,2.32552e-01,4.75380e-01,7.40087e-01,-1.03119e+00,1.15122e-01,6.61358e-01,-2.87224e-01,-5.53613e-01,4.79776e-01,
8.52097e-01,3.53523e-01,3.54354e-01,-5.56254e-01,-1.98337e-01,-4.03293e-01,2.69754e-01,1.46773e-01,-1.23125e-01,-2.57852e-01,-4.45467e-01,1.55150e-01,-6.10540e-01,1.87835e-01,1.79571e-01,2.26587e-01,-1.04621e-01,-1.62487e-01,4.48622e-01,-3.41064e-01,9.17277e-01,3.15712e-01,-7.52783e-02,-6.49667e-01,3.18861e-01,-9.41540e-02,1.41552e-01,-7.22465e-01,-1.06507e-02,6.12315e-01,2.32553e-01,8.03236e-01,-9.29588e-02,2.91434e+00,5.72858e-03,-2.03437e+00,1.47513e-01,-4.85050e-01,-1.24584e-01,-1.80371e-02,1.51202e-02,6.08833e-01,6.43292e-01,-8.68930e-01,9.50365e-01,
-5.80414e-02,-1.17579e-02,-4.97334e-03,-5.55498e-02,2.50163e-02,-4.54876e-02,-1.96090e-02,-4.92584e-02,-6.53328e-03,-2.23307e-02,-3.32429e-02,1.78650e-02,-6.87652e-04,-8.60014e-04,-5.20730e-02,-4.95030e-02,-5.57801e-02,1.63527e-02,1.51471e-02,1.83300e-02,-1.84394e-03,-1.51877e-02,-1.59426e-03,1.56358e-02,2.09712e-02,-6.49223e-02,-2.63322e-02,2.50851e-02,3.14513e-02,-3.73200e-03,1.22919e-02,1.86476e-02,7.13949e-03,-2.09983e-02,-1.97068e-03,1.57773e-02,-5.20151e-03,-5.34934e-02,1.87320e-02,-4.78863e-03,6.57335e-03,-8.50817e-03,-1.93980e-02,-5.96708e-02,-4.48567e-03,
2.85808e-01,4.03557e-01,9.45690e-02,3.14179e-01,1.29018e-01,-2.74618e-01,1.67731e-01,-1.96937e-01,-3.22774e-02,1.65204e-01,3.56092e-02,4.92052e-01,5.00543e-01,-4.53882e-01,-1.70889e-01,1.66374e-01,5.22992e-01,-6.34149e-03,1.64800e-01,8.75554e-02,1.27340e+00,4.34763e-02,3.33882e-01,-1.84599e-01,-2.03942e-01,3.60604e-01,5.32468e-01,2.08638e-02,3.83212e-01,-7.54772e-01,-1.03760e-02,-3.33198e-01,3.67335e-01,-2.59075e-01,3.08146e-01,-8.73789e-01,4.32197e-03,6.15902e-01,-2.27830e-01,-1.23229e-01,2.32428e-02,-1.40163e-01,3.98172e-01,3.77000e-01,-6.03190e-01,
1.78160e-01,2.94190e-02,7.32975e-01,-1.45578e-01,3.32106e-01,-1.39660e+00,8.97863e-01,1.73965e-01,1.79210e-01,3.04854e-01,-2.17573e-01,-1.37641e-01,3.63154e-03,-1.15226e-01,1.63200e+00,-3.19437e-01,3.52606e-01,4.67246e-02,2.39531e-01,4.76220e-01,-4.40433e-01,6.62151e-01,5.16802e-02,-2.28669e-01,-1.42743e-01,-1.87231e-01,2.08282e-01,-1.29424e-01,7.66888e-02,-1.17497e-01,5.01511e-01,-3.20667e-01,2.67562e-02,1.80963e-01,1.30528e-01,3.02350e-01,4.91402e-01,1.99510e-01,-4.41808e-01,-5.23879e-02,1.13135e-01,2.91548e-01,-3.92539e-01,-2.16952e-01,-2.64752e-01,
2.19540e-01,-2.13125e-01,5.25478e-01,2.48378e-01,-2.66044e-01,-3.96982e-01,1.70172e-01,4.79198e-01,1.65859e-01,2.96021e-02,1.39563e-01,-7.06111e-01,6.11658e-01,-8.33388e-03,2.25046e-01,-5.17527e-01,-5.86543e-02,1.30736e-01,9.57957e-01,-3.68272e-01,-5.14224e-01,5.07879e-01,1.91974e-01,-1.16479e+00,-1.10346e+00,8.65580e-01,2.39637e-01,-5.97662e-01,1.58166e-01,-1.37393e+00,4.00420e-01,4.23474e-02,2.50508e-01,-3.99942e-01,-1.01322e+00,-7.37655e-01,4.23431e-01,3.91572e-01,-5.52962e-01,-2.10414e-01,-2.07628e-03,5.82540e-02,-2.80266e-03,-1.58252e-01,-1.04174e+00,
1.97875e-02,-1.62512e-02,1.51677e-03,-3.24460e-02,-1.98420e-02,-1.53551e-02,-4.23705e-02,-3.03057e-02,-8.11422e-04,-2.94636e-02,4.80555e-02,-1.63647e-02,-4.20400e-02,8.36774e-03,3.44509e-02,-6.75694e-03,1.16272e-02,-4.76515e-02,4.20976e-02,-2.57969e-02,-4.40194e-02,2.11923e-03,-2.98296e-02,-9.23046e-03,-2.09476e-02,-4.95332e-02,-4.86045e-02,-1.37587e-02,-2.49636e-02,-3.82775e-02,2.49703e-02,1.30988e-02,8.36769e-03,-3.55952e-02,-2.51247e-02,-1.89428e-02,-4.27845e-03,-1.66332e-02,2.50861e-02,-4.94894e-03,-3.57336e-02,-4.07305e-02,1.41871e-03,-1.99109e-02,-4.77667e-02,
-6.53655e-01,2.90007e-01,4.48365e-01,9.17069e-01,-1.37179e-01,1.17708e-01,6.06597e-02,2.28408e-01,-1.75733e-01,-4.65081e-01,7.54886e-01,-3.48366e-01,-5.15723e-01,3.30911e-02,2.70115e-01,2.36609e-01,2.63103e-01,-5.37192e-02,1.58579e-01,-3.63798e-01,-1.08040e+00,4.76722e-01,7.64501e-01,-3.38348e-02,-7.65124e-01,1.22534e-01,-6.98918e-01,5.61758e-01,-8.59054e-02,-2.78450e-01,4.05064e-01,-1.32441e-01,1.32599e-01,-7.84080e-01,-4.13962e-01,-7.48662e-01,-1.55297e-01,1.99735e-01,1.51540e-01,6.39584e-02,5.09085e-02,-5.10077e-01,3.25912e-02,-1.01283e-01,1.02404e-01,
2.82744e-01,1.09678e-01,6.02973e-01,2.34893e-01,-4.07919e-01,-1.31057e-03,2.75667e-01,9.53437e-02,-9.95358e-02,4.62317e-02,1.45899e-01,2.52702e-01,-5.22833e-01,7.38301e-02,-1.76242e-01,-1.03287e-01,-4.75582e-01,-4.25337e-01,1.38963e-01,-6.07170e-01,-3.09929e-02,5.48281e-01,9.93703e-02,-4.30913e-01,1.21902e-01,5.16936e-02,-4.69563e-01,7.19901e-02,2.82424e-01,8.50062e-01,4.94879e-01,1.59688e-01,-3.18925e-01,1.14288e+00,-3.40684e-01,-1.35020e-01,-8.27244e-03,-1.77598e-01,1.61328e-01,-2.95266e-01,-1.25977e-01,4.74879e-01,1.79345e-01,-6.83656e-03,-2.66973e-02,
1.88204e-01,4.48870e-01,8.52337e-02,-1.26015e-01,-6.02132e-01,1.09059e-01,-7.17104e-02,4.04414e-01,-1.78359e-02,3.52113e-01,1.34352e+00,7.73407e-01,-8.52845e-02,1.04546e+00,-4.41756e-03,6.24977e-01,-4.30115e-01,-1.63683e-01,8.09442e-02,1.80093e-01,3.48995e-01,8.93504e-02,9.83702e-01,3.27624e-01,2.95638e-01,-3.02300e-01,8.00434e-01,1.98674e-01,4.00544e-01,-1.02624e+00,9.95231e-02,-9.87713e-02,-1.04045e+00,-3.59211e-01,7.80203e-02,-7.83745e-02,-1.32934e-01,3.08649e-01,-1.24221e+00,-1.00221e-01,-1.76316e-03,-3.86135e-01,8.80327e-01,2.71024e-01,-6.00067e-01,
2.97977e-02,-7.17423e-02,-1.73525e-02,1.81954e-02,1.61340e-02,-5.72161e-02,-1.01728e-01,3.13679e-02,-1.21846e-02,2.31002e-02,-5.03343e-02,8.06232e-03,-7.97771e-02,-3.11024e-02,-6.30777e-03,-1.00482e-02,-1.64329e-02,-1.11907e-02,-3.59692e-02,2.02238e-02,2.37408e-03,2.55321e-02,-7.36406e-02,-1.92867e-02,7.28516e-03,-3.12642e-02,-1.95744e-02,-7.23840e-02,-3.22005e-02,1.96395e-02,-2.12107e-02,-4.21102e-02,8.17008e-03,-4.34031e-02,-7.57483e-03,1.96586e-02,-4.24821e-02,-5.14426e-02,-4.82190e-02,-1.87309e-02,-3.26309e-02,-3.23319e-03,3.00276e-02,-3.03736e-02,2.88244e-03,
-2.12058e-02,2.82151e-01,2.93008e-01,-2.73207e-01,-5.55871e-04,-9.08580e-02,1.54498e-01,5.25081e-01,-1.68029e-02,-2.75800e-01,3.02300e-02,-9.79883e-01,4.63346e-01,-5.60895e-01,2.62066e-02,-4.25279e-01,1.75632e-01,8.82012e-01,3.81432e-01,-3.24769e-01,-8.05760e-01,2.73183e-01,-1.53133e-01,4.66915e-01,-5.68591e-01,1.56638e-01,4.88724e-02,-6.60643e-01,2.62068e-01,-1.11546e+00,2.22376e-01,3.57389e-02,3.54458e-01,-1.02508e+00,3.76999e-01,-6.32012e-01,1.71422e-01,-7.50793e-01,-1.58696e-01,-7.21732e-02,4.14588e-02,-5.81239e-01,-6.64230e-01,6.00710e-01,-5.50800e-01,
1.38255e-01,2.30322e-02,5.76800e-01,-1.93329e-01,6.99399e-03,6.98455e-02,3.36931e-01,2.93349e-01,1.03460e-01,-2.63711e-01,-2.56235e+00,5.20573e-01,6.27714e-02,-8.33332e-01,2.02629e-01,4.98758e-01,2.27918e-02,9.18824e-02,1.00440e-01,-4.93622e-01,2.95142e-02,5.39692e-01,-1.12984e+00,5.11747e-02,-1.54971e-02,-4.34373e-01,-8.41401e-01,7.96705e-03,5.04011e-01,-9.76544e-01,5.14069e-01,-2.54374e-01,3.68271e-01,-4.01595e-01,-9.89045e-02,6.59484e-01,-6.64775e-02,4.76357e-01,-2.68757e-01,-2.90249e-01,1.12930e-01,-1.06536e-01,8.93992e-01,-2.31957e-01,-2.36885e-01,
2.70245e-02,-6.03833e-02,2.06625e-03,-6.50817e-03,-6.72149e-02,2.14149e-02,2.48315e-02,-1.22104e-02,-2.63111e-02,-3.53496e-02,-3.26510e-02,-3.21432e-02,-5.69041e-02,1.09851e-02,-1.12623e-02,-1.43766e-02,1.13433e-02,1.75176e-02,1.11393e-02,-3.60783e-02,1.46787e-02,9.99589e-04,-2.68026e-02,-3.03848e-02,-4.72462e-02,-3.33735e-02,-1.46394e-02,-5.08994e-02,2.71208e-02,1.67522e-03,-1.67531e-02,-1.78927e-03,-5.59403e-02,7.18063e-03,-2.56563e-02,-5.85613e-03,-3.03675e-02,-3.62982e-02,-5.02374e-02,8.05939e-03,-1.75493e-04,-4.65733e-02,-2.06277e-03,-5.66890e-03,3.10745e-02,
6.64213e-03,-4.14245e-03,3.74192e-01,-5.20894e-01,2.62649e-01,-2.36272e-03,1.90726e-01,2.15791e-01,3.07872e-02,5.30473e-01,1.28359e-01,-8.62074e-01,-6.07414e-01,4.50162e-01,5.08198e-02,-1.35774e-01,-6.46356e-02,-5.34061e-01,2.76051e-01,-9.88443e-02,-7.72464e-01,2.96105e-01,1.95258e-02,1.96547e-01,-1.09411e-01,-2.89872e-01,3.36639e-01,-3.28010e-01,5.09969e-01,5.02245e-01,2.60191e-01,2.52771e-01,-7.14962e-02,-1.88927e+00,-1.18813e-02,5.30898e-01,-8.30454e-02,-2.82616e-01,1.14726e-01,4.38724e-02,-1.14403e-02,1.01882e-01,-8.81015e-01,6.48430e-01,2.56691e-01,
2.52470e-01,-4.95633e-02,1.70751e-01,7.98818e-02,2.05001e-01,-2.57162e-01,2.62992e-01,4.90582e-01,3.53375e-01,2.42051e-01,2.13475e-01,-8.87286e-01,5.11634e-01,1.65356e-01,-1.67005e-01,-4.22451e-01,3.19470e-02,1.01494e+00,-1.94290e-01,1.82180e-01,4.59237e-01,9.12506e-02,-1.52257e-01,3.22251e-01,-1.53588e-01,6.37911e-01,2.20641e-02,-6.95937e-01,3.98181e-01,-9.24249e-01,7.64207e-02,-6.55037e-01,4.91846e-01,-1.11249e+00,-2.29660e-01,-3.35142e-01,1.75049e-01,-4.50942e-01,-4.70530e-01,-1.37472e-01,2.63907e-02,-3.81568e-01,-2.89029e-01,-6.78927e-02,-8.12512e-01,
-3.19860e-02,-3.56691e-02,1.99703e-02,-3.97753e-02,9.04729e-03,2.03951e-02,-4.53992e-03,-2.41455e-02,2.77712e-02,-4.09752e-02,-9.53062e-03,-4.11083e-02,-5.35886e-02,-5.36190e-02,-1.65739e-02,-1.66267e-02,-3.08216e-02,1.51005e-02,3.51693e-02,3.04938e-02,-6.37456e-02,6.22305e-03,3.21499e-02,-1.05345e-02,-2.69913e-02,-1.78751e-02,-2.73299e-02,-4.25520e-02,-5.19383e-02,-5.67974e-03,-2.37864e-02,-3.82768e-02,-3.51065e-02,-2.45460e-02,1.77221e-02,-1.99464e-02,3.01455e-02,-1.64692e-02,-1.45475e-02,1.33164e-02,1.72540e-02,6.34141e-03,-2.45097e-02,-4.27185e-02,1.00642e-02,
7.01216e-01,-3.56754e-01,4.64271e-01,-1.32669e+00,-5.00085e-01,6.40885e-02,1.28221e-01,-5.59384e-01,1.88259e-01,-2.60976e-01,1.70295e-02,1.91136e+00,4.94375e-02,-8.88002e-02,-1.07963e-01,-4.23933e-01,-6.46817e-01,6.29518e-02,-5.22799e-01,-2.76245e-01,-4.68881e-01,4.37418e-01,3.70042e-02,-5.71975e-01,7.63006e-01,3.75486e-01,7.37361e-02,-5.04872e-01,5.97025e-01,4.60246e-01,4.42047e-01,-3.04462e-01,-2.62563e-01,3.24712e-01,2.13989e-01,7.69288e-01,1.11853e-02,-1.80472e+00,-3.83163e-01,7.58191e-01,9.58565e-02,2.66960e-01,-5.27701e-03,-7.47488e-01,-5.85913e-01,
5.65785e-02,1.10359e-01,5.95970e-01,2.54731e-02,1.23236e-01,-2.56681e-01,-3.54991e-01,-1.29135e-01,7.80207e-02,1.35547e-01,-4.21798e-02,-1.51767e+00,2.86848e-01,8.86861e-02,1.04195e+00,-3.45940e-01,-1.13399e-01,-2.14550e-01,-5.56565e-01,-4.83999e-01,3.53805e-01,5.85626e-01,1.99659e-02,1.13885e-01,-4.16665e-01,-3.09901e-01,1.52096e-01,2.60339e-01,-1.50450e-01,1.13565e-01,5.27204e-01,1.99548e-01,-1.06073e-01,9.85801e-01,-1.93553e-01,1.35964e-01,-6.14651e-02,-1.86758e-01,4.48006e-01,-4.14647e-01,5.27419e-02,1.23496e-01,-1.61473e-01,-4.88547e-01,-1.33125e-01,
1.42322e-01,-2.38236e-01,7.02936e-01,-6.70377e-01,-1.26252e-01,-1.54333e-01,6.16151e-01,2.95337e-01,4.28774e-01,-1.18365e-01,-4.05669e-01,-5.63297e-01,2.29271e-01,-9.71368e-02,-2.84629e-01,-2.31678e-01,4.22394e-02,3.71250e-01,7.35368e-01,-4.51080e-01,2.57682e-01,7.03972e-01,-3.18251e-01,3.94062e-01,3.42719e-01,-5.89716e-01,-4.10133e-01,8.24473e-01,1.62423e-01,5.43279e-01,5.91689e-01,2.35336e-01,1.50973e-01,5.62981e-01,-2.16328e-01,-5.33657e-01,-8.23936e-02,-3.44911e-01,2.75190e-01,-5.11842e-01,-2.42180e-02,-8.51851e-02,-8.20032e-01,-1.63389e-02,-7.15339e-01,
1.03354e-01,3.62332e-01,2.91801e-01,-4.36479e-01,2.30653e-01,-6.06059e-01,2.34199e-01,4.68044e-02,-2.21991e-02,2.68991e-01,-7.98299e-02,2.48587e-01,5.79707e-01,-8.84935e-02,1.08194e+00,-3.11579e-01,2.23846e-01,5.66660e-01,-3.89089e-01,-7.23956e-01,6.89613e-01,2.80049e-01,2.03536e-01,4.02431e-02,1.17206e-01,2.22706e-01,3.50448e-01,2.64165e-02,4.40530e-01,-4.89869e-01,2.14578e-01,-1.59763e-01,-2.14844e-02,-1.04650e+00,3.16825e-01,6.08156e-01,9.49591e-03,-4.33671e-01,6.72380e-02,4.86786e-01,1.96722e-02,5.36629e-01,-4.28297e-01,9.45113e-02,6.01628e-01,
1.22596e-01,3.13457e-01,4.34658e-01,5.65571e-02,-6.99646e-02,-6.77309e-01,4.07752e-01,-9.83357e-02,6.53878e-01,-6.25131e-02,-1.89687e-01,7.55564e-01,1.05690e-01,-5.34271e-02,1.14844e+00,1.93829e-01,1.46967e-01,6.46652e-02,-3.00099e+00,-6.77295e-01,4.37293e-01,4.33763e-01,2.29040e-02,3.58645e-01,5.75594e-01,-1.42367e+00,6.90720e-02,7.35834e-01,3.17622e-01,4.90411e-01,4.00069e-01,-3.99489e-01,-9.82914e-01,-5.73544e-01,7.65902e-02,-7.05950e-01,1.68350e-01,-9.65743e-02,-5.12628e-01,2.42302e-01,1.26806e-01,-9.32895e-02,-1.04309e-01,-4.81043e-01,2.08519e-01,
1.23255e-01,1.24324e-01,-8.26722e-02,-9.79404e-01,8.76879e-01,1.94536e-01,-1.32923e-01,1.78151e-01,1.46175e-01,-1.25120e-01,2.47599e-01,1.99713e-01,5.01071e-01,9.15945e-02,2.25536e-01,-6.54077e-01,7.58903e-01,6.04671e-01,1.65430e-01,1.14511e-02,7.36018e-02,-3.70339e-02,2.25777e-01,-3.08344e-01,-8.85066e-02,6.84208e-01,-1.29059e-03,-9.27884e-01,2.85346e-01,-2.13426e-01,4.78442e-02,-7.69303e-03,5.49932e-02,-9.08002e-01,1.41240e-01,1.19181e+00,-1.44348e-01,-7.42147e-01,-8.77490e-01,7.72711e-02,6.34629e-02,4.48341e-01,-4.87125e-01,-6.22050e-01,-7.62268e-01,
-1.56911e-01,-7.77563e-01,1.02616e-01,-2.51847e-01,-3.04216e-02,-2.59391e-01,2.74078e-01,3.64408e-01,3.62987e-01,1.92393e-01,9.93830e-02,3.89406e-01,-6.40669e-02,6.36919e-03,3.19739e-01,-6.25481e-01,-4.68481e-02,1.32132e-01,6.34178e-01,-9.90193e-01,4.94873e-01,1.16234e-01,-4.97920e-01,8.37945e-01,3.57530e-01,6.17325e-01,4.55680e-01,7.69107e-01,6.12764e-01,5.41654e-02,1.27093e-01,2.91570e-01,2.52916e-01,1.47342e-01,-1.07933e-01,-1.35206e+00,2.05701e-01,-1.08182e-01,-3.43615e-01,-4.45248e-01,1.36540e-01,-4.54289e-02,-2.75449e-01,-1.15257e-02,-8.82000e-01,
-1.01684e-01,-2.46317e-02,7.77396e-01,6.98238e-01,-2.20234e-02,-8.71027e-01,-9.68626e-01,7.71310e-02,-6.57659e-02,3.00023e-01,-2.05568e-01,-4.62250e-01,-9.47691e-02,3.52658e-03,1.85681e+00,5.45947e-02,-8.75647e-02,-1.52681e-02,-1.72345e-03,-1.41828e+00,-4.87816e-01,6.70717e-01,9.29739e-02,-2.60624e-01,-1.73198e-01,2.93277e-01,2.20869e-01,1.47628e-01,2.61065e-02,2.06316e-01,6.98188e-01,1.36519e-01,1.24091e-03,5.01334e-01,1.48355e-01,-5.34070e-01,-2.83680e+00,-1.06701e-03,-1.10924e-01,2.55302e-01,1.97985e-03,-1.20789e-01,1.14428e-01,-4.42762e-01,1.12497e-01,
4.28295e-01,4.95687e-01,3.08166e-01,1.01607e-01,-3.36652e-01,5.77077e-02,1.65747e-01,4.48722e-01,4.31990e-01,-1.23491e-02,-1.13854e-01,1.58101e+00,4.78021e-01,-2.44161e-01,3.53920e-02,6.28023e-01,4.59545e-02,6.08996e-02,-2.20975e-01,3.23586e-01,-3.07694e-01,3.34545e-01,2.68187e-02,4.60927e-01,-1.35925e-01,-1.11027e-01,3.62732e-01,6.83987e-02,4.19344e-01,-4.41317e-01,2.64783e-01,2.43836e-01,-5.53844e-01,-2.33767e+00,3.39521e-01,1.28139e-01,-8.48629e-02,4.26494e-01,-2.36271e-02,1.05767e-01,1.63442e-01,-7.60644e-01,5.76917e-01,6.28349e-01,-4.46304e-01,
8.01350e-01,-1.82969e-01,2.39021e-01,-2.10569e+00,-1.54998e-01,-3.04969e-01,-7.14482e-02,-6.24100e-02,1.31060e-01,2.66009e-02,-2.44998e-01,4.81450e-01,-2.36380e-01,-2.07005e-01,1.22312e-01,9.14532e-01,3.05134e-01,3.68676e-02,-9.08485e-01,7.23352e-01,2.92650e-01,2.28493e-01,3.80046e-01,8.08425e-01,1.09130e+00,-2.46061e-01,-4.71976e-01,-7.96687e-01,2.04031e-01,1.03271e+00,2.45992e-01,-4.34653e-02,2.37115e-01,1.73097e+00,-3.20304e-01,6.15286e-01,2.12145e-01,6.89205e-01,1.12847e-01,-1.05081e+00,2.61104e-01,7.13939e-01,9.77501e-01,8.64262e-01,-3.70703e-01,
-2.02747e-02,-5.13078e-01,4.66047e-01,-6.74410e-01,2.86754e-01,1.91519e-01,2.59084e-02,1.27056e-01,-7.87981e-02,4.25577e-01,-7.02874e-03,1.22998e-01,-2.21795e+00,4.29031e-02,8.05303e-02,-3.22014e-01,3.36552e-01,-2.21534e+00,-4.65824e-01,-2.79180e-01,2.25796e-02,4.15673e-01,2.17363e-01,4.82323e-02,-5.07588e-02,-9.23207e-01,-2.01537e-01,-1.46531e-02,1.74156e-01,5.91517e-03,3.18390e-01,-1.39827e-01,2.21077e-01,1.83559e-01,-3.12859e-01,-4.15048e-01,-4.11122e-02,-1.83704e-01,-4.28097e-01,3.79382e-01,5.46745e-02,3.97696e-01,-2.43242e-01,-5.20339e-01,3.47904e-01,
2.59089e-01,2.74534e-01,2.42834e-02,7.10255e-01,-9.09541e-02,-3.97884e-02,8.89049e-02,5.18217e-01,2.46759e-01,-2.26172e+00,3.13256e-01,2.01669e+00,-2.36161e-01,-2.13846e-01,-5.36202e-02,2.08914e-01,1.65890e-01,-5.02868e-01,-1.09960e-02,-1.83675e-01,1.76308e-01,-7.68410e-02,1.12932e+00,-2.96287e-01,-5.55635e-02,1.62037e-01,-1.53312e+00,-7.01716e-02,1.28678e-01,-6.08677e-01,1.97480e-02,-4.79429e-03,9.43001e-02,2.83567e-01,-6.80679e-01,-2.91262e-01,9.25784e-03,2.93885e-01,-2.53956e-01,-3.41532e-01,-2.40659e-02,2.42687e-01,5.01357e-01,2.11165e-02,-2.13487e-01,
4.01631e-01,-2.37305e-01,3.25277e-01,-8.56577e-02,2.56766e-01,-1.80115e-01,-2.46902e-01,-2.29369e-01,8.20451e-03,-1.47731e-01,-1.45009e-01,3.54104e-01,-1.73383e-01,3.44322e-02,-1.08499e+01,1.72493e-01,1.25874e-01,-8.46134e-02,-3.05602e-02,-1.49750e+00,7.23703e-01,1.76953e-01,8.09069e-02,1.34169e-01,-2.56156e-01,-7.89205e-02,2.77270e-01,1.50691e-01,2.84911e-02,9.21694e-02,1.06772e-01,-3.95193e-01,2.42039e-01,1.19847e-01,1.75352e-01,7.22440e-01,3.32574e-02,-1.08079e-01,1.78358e-01,-3.81263e-02,9.07224e-02,2.88726e-02,1.48919e-02,-1.44695e-01,5.37360e-02,
2.62048e-01,2.56692e-01,-6.37155e-01,-4.24806e-02,-4.11613e-01,7.24307e-01,-7.02854e-01,-1.72613e-01,-2.82737e-01,-2.41220e-01,2.26724e-01,5.58978e-01,5.82787e-01,8.68391e-02,-3.64213e-02,-2.38222e-01,1.72500e-01,4.27846e-01,8.40731e-01,1.60549e-01,-7.81655e-01,-4.80688e-01,2.40327e-01,-5.00406e-02,5.65648e-02,5.09797e-01,-2.98009e-02,2.03734e+00,-6.45445e-02,-1.59857e+00,-2.47349e-01,1.05015e-01,-2.94052e-01,-1.15476e+00,-4.97936e-04,-2.31462e-01,-2.45118e-01,-4.66265e-01,-1.05772e+00,4.94204e-01,-1.68235e-01,-2.56795e-01,-5.47949e-02,-1.17426e-01,-8.00304e-01,
4.28977e-01,-1.42020e-01,4.39344e-01,8.21116e-01,6.17221e-03,7.35052e-02,1.93857e-01,-1.60254e-01,7.25093e-02,-1.09900e-01,1.84026e-01,-2.78014e+00,6.26385e-01,5.75662e-02,-2.67135e-02,-3.10637e-01,1.23046e-01,-2.24513e-01,-1.36359e-01,-4.61862e-01,-4.18030e-01,4.17786e-01,3.34688e-01,-3.54364e-02,-4.15554e-01,-1.08342e-01,1.66619e-01,-2.59280e-01,5.33205e-01,-7.95976e-01,3.97379e-01,-1.39880e-01,9.54707e-04,-1.53943e+00,2.49005e-02,-5.02636e-01,2.68311e-02,-5.16209e-01,-6.37356e-01,3.06319e-02,9.21922e-02,-3.43782e-01,-2.42952e-01,-8.24484e-01,-2.47468e-01,
3.46933e-01,-7.60394e-02,5.70062e-01,-1.05114e+00,1.72448e-01,6.23018e-02,2.45649e-01,7.50747e-02,8.26332e-02,-3.64362e-01,-3.53338e-02,-2.84594e+00,9.94296e-01,2.73047e-01,8.76651e-03,-5.10420e-01,2.28738e-01,4.69452e-01,3.87326e-01,1.37749e-02,-7.01598e-02,5.44305e-01,1.17758e-01,4.73022e-02,-7.92232e-02,-1.76557e-01,-5.72136e-01,3.34641e-02,5.40907e-01,4.82514e-01,4.93639e-01,5.02941e-01,-3.54106e-01,-1.00106e-01,-7.99779e-01,-3.22406e-01,-9.55745e-02,-5.33983e-01,1.28306e-01,3.64891e-01,9.13167e-02,2.99621e-01,-6.83652e-01,-6.80567e-02,5.32854e-01,
-4.92107e-02,-4.13104e-02,3.30021e-03,2.30071e-02,-4.75955e-02,1.25231e-02,-1.47571e-02,-1.68190e-02,-5.96587e-02,-1.46397e-02,-1.03029e-02,3.01844e-02,7.93480e-03,3.96530e-02,-1.83727e-02,1.98046e-02,-2.92620e-02,2.31809e-02,3.50977e-02,-6.11411e-02,1.88872e-02,-5.10801e-02,-5.35789e-02,3.04777e-02,-2.34318e-02,-1.49398e-02,-1.11535e-03,1.41238e-02,2.12603e-02,2.31378e-02,-2.77360e-02,-1.40699e-02,-5.11280e-03,-3.73752e-03,3.65549e-02,-1.76920e-02,-3.83803e-03,8.38210e-03,-5.44275e-02,-1.04501e-02,-3.73100e-02,2.12816e-04,2.07967e-02,-2.02930e-02,6.34817e-03,
6.82975e-01,-7.83981e-02,8.55296e-01,3.16850e-01,9.06887e-03,-1.04738e+00,4.85118e-01,-7.78966e-02,-1.35944e-01,1.05919e-01,1.78768e-02,-7.77872e-01,1.95575e-01,7.37598e-02,2.14568e+00,-3.11728e-01,-1.74965e-01,5.77576e-02,1.14559e+00,-4.56236e-01,-1.72512e-01,7.93675e-01,8.92092e-02,2.04194e-01,2.51049e-01,6.34913e-01,1.76964e-01,6.97222e-01,-2.44939e-01,-2.06586e-01,6.70995e-01,-8.21354e-02,-5.06008e-01,-2.80019e-01,-1.70313e-01,-1.99503e-01,2.83673e-01,1.29704e-01,9.40260e-04,-3.74009e-01,3.69060e-02,-4.76535e-01,7.07887e-02,-3.34534e-01,-7.95534e-02,
-1.78291e-01,-6.41670e-01,1.14168e-01,-1.15213e+00,-2.24900e-01,-3.21767e-02,4.45630e-02,4.56668e-01,1.24540e-01,-2.63407e-01,2.66615e-01,-1.65652e+00,1.39344e-01,5.28523e-01,-1.39604e-01,-5.17954e-01,1.26367e-01,5.03659e-01,1.08960e-01,-7.63528e-02,-3.40788e-01,1.04299e-01,-2.99039e-01,2.33605e-01,5.23945e-01,3.85357e-01,-3.35143e-01,-7.39274e-01,-9.21763e-01,4.21975e-01,1.62291e-01,8.73945e-02,8.03224e-03,1.37171e+00,-1.43784e+00,-5.38980e-02,9.60714e-02,-7.25426e-01,1.77989e-01,7.12019e-01,5.57442e-02,7.78860e-01,-9.67896e-01,-8.32319e-01,1.99768e-01,
-6.10753e-02,-3.74097e-03,9.96589e-03,-3.51337e-02,-6.28480e-02,3.63554e-03,-1.04102e-02,-3.38941e-02,2.62865e-02,1.96202e-02,-4.34461e-02,-4.26343e-02,-5.12684e-02,-6.53253e-02,8.97507e-03,-5.87445e-03,-4.58887e-02,2.19365e-02,-3.65122e-02,-2.27538e-02,-4.98651e-02,-4.94602e-02,-3.03167e-02,3.06176e-02,-3.94634e-02,-1.98708e-02,3.02939e-02,2.35784e-02,-3.43217e-02,-3.28086e-02,1.98734e-02,-5.64086e-02,7.65008e-03,-3.62540e-02,-4.19826e-02,1.34568e-03,-5.65861e-03,-5.79233e-02,-1.93878e-02,-4.50194e-03,2.87911e-02,-5.56933e-02,3.15254e-03,1.64562e-05,6.04312e-03,
-1.55168e-01,-4.67500e-02,-6.43071e-02,-1.00286e-01,-7.03065e-02,1.08667e+00,1.42496e+00,2.44463e-01,-1.88201e-01,1.78306e-01,2.22103e-01,4.25888e-01,-4.84650e-01,1.94335e-01,-1.74355e+00,8.05899e-02,8.18251e-02,-7.67449e-02,2.41788e-01,2.30375e-01,-4.10787e-01,2.36022e-02,7.25587e-02,4.10745e-01,2.10708e-01,2.84535e-01,-3.16453e-02,-6.37474e-02,3.21694e-01,-3.88907e-01,2.18921e-02,1.00592e-02,2.54455e-01,-5.94935e-01,-2.62748e-01,1.52434e-01,-4.16895e-01,-2.55235e-02,-2.20293e-01,3.54289e-01,-1.91412e-03,-1.29856e-01,-2.41648e-01,6.48871e-02,-2.42428e-01,
-4.32184e-01,-4.52412e-01,5.90789e-01,-1.89620e-01,-1.79374e-01,-1.21326e-02,4.21378e-01,8.77052e-01,-1.33296e-01,-4.75356e-02,-6.96620e-01,-3.06980e-01,-1.90495e-01,2.15543e-01,-1.26551e-01,5.97981e-01,-1.58299e-01,1.66084e-01,1.08944e-01,-5.80573e-01,-6.43023e-02,5.13150e-01,-9.16149e-02,9.69589e-01,5.88856e-01,-3.32071e-01,-8.05700e-01,-1.22070e-01,3.38245e-01,8.02733e-01,3.96209e-01,-3.70759e-01,-7.94585e-02,6.87312e-01,-8.53302e-01,5.82940e-01,-1.05241e-01,4.94964e-01,3.38458e-01,-8.04847e-01,3.24082e-02,-2.43120e-01,5.52357e-01,6.25011e-01,-3.41990e-01,
6.66260e-01,-4.43155e-01,3.29992e-01,3.83333e-01,3.33666e-01,-5.98549e-02,5.00883e-01,2.41228e-02,-2.75605e-01,-3.11830e-01,-1.18610e-01,3.88904e-01,8.70832e-02,6.30502e-02,-3.50296e-01,3.86858e-01,-1.18163e-01,9.72729e-02,-4.40338e-01,3.00616e-01,8.03271e-01,3.67167e-01,2.00459e-03,2.09093e-01,-8.95068e-02,4.30421e-01,9.25104e-02,-8.61566e-01,1.00160e-01,-2.73388e-01,3.99349e-01,-3.86977e-02,-5.93517e-01,8.00161e-01,1.81233e-01,-4.67254e-01,9.32134e-02,-5.69337e-02,-4.05786e-01,5.88232e-01,6.63908e-02,1.04649e-01,8.73347e-01,-5.96407e-01,8.23255e-02,
-3.38539e-01,-7.01837e-01,2.92206e-01,-5.65246e-01,-1.16455e-01,4.34129e-02,9.00420e-02,-9.22798e-02,-7.45913e-01,2.58115e-01,-6.77103e-02,-1.64386e+00,4.33793e-01,4.49796e-01,-1.82069e-01,-5.11260e-01,1.01705e-01,3.86460e-01,-1.24231e-01,-3.10602e-02,2.37566e-02,2.23941e-01,-1.23204e-01,2.53837e-01,-3.50003e-01,4.77685e-01,2.21773e-01,3.98483e-01,-3.98090e-01,-5.91977e-01,2.36235e-01,3.50048e-02,-3.03757e-01,1.63084e+00,-9.50709e-01,-9.63362e-01,-3.93156e-02,-1.04089e-01,2.48888e-01,4.54049e-01,-1.11645e-02,2.76433e-01,-9.10751e-01,-1.10002e-01,2.17636e-01,
-7.14420e-02,-9.20909e-03,-3.55976e-01,1.72701e-01,1.44395e-02,3.26958e-01,4.32749e-01,8.34179e-03,1.25924e-01,-2.84326e-01,1.15666e-01,-8.47298e-02,-4.09635e-01,1.28877e-01,-4.75468e-01,7.94180e-02,-3.80749e-02,-1.07182e-01,5.99431e-04,2.75205e+00,-6.14062e-03,-3.61366e-01,5.39701e-02,-3.63498e-01,-3.97759e-01,3.33382e-02,-1.54936e-02,-1.32630e-01,1.10603e-01,1.45905e-02,-4.07669e-01,4.82832e-03,9.70810e-02,-6.23686e-02,-1.43835e-01,2.13894e-02,6.96920e-01,2.57516e-02,-2.28768e-01,3.26718e-02,-7.44809e-02,1.01812e-01,-7.54026e-02,-7.90448e-02,1.55549e-02,
-4.08570e-01,3.54386e-01,6.66682e-01,1.93252e-01,-2.59924e-01,-1.33317e+00,4.64143e-01,-1.85002e-02,-1.72276e-01,-5.70291e-02,-2.57290e-01,9.15981e-01,-8.01521e-04,-2.05056e-01,1.78129e+00,-1.97326e-02,3.24417e-01,-5.08252e-02,6.90070e-01,-8.69351e-01,-9.24472e-02,6.78852e-01,1.96247e-01,2.84362e-01,5.89916e-01,6.19966e-02,2.46476e-01,-4.89092e-01,-3.53027e-02,-7.23296e-01,5.04044e-01,2.68221e-01,6.83390e-02,-7.73976e-02,1.59333e-01,1.58765e-01,2.82545e-01,3.39404e-01,9.18647e-02,-2.62412e-01,9.67633e-02,-1.13724e-01,4.86516e-01,3.24009e-02,7.10999e-02,
1.68671e-01,6.89856e-02,2.92502e-01,3.68034e-01,2.76333e-01,-1.64042e-01,1.70442e-01,1.25051e-02,-7.77787e-02,3.40895e-01,-3.42582e-01,1.05762e+00,-1.45532e+00,-3.48011e-02,-2.62368e-02,-2.53312e-03,-2.60858e-01,-7.08427e-01,2.47743e-01,-1.29231e-01,8.30892e-01,2.67226e-01,1.30708e-01,6.53727e-01,-6.97562e-02,5.30068e-01,-1.08211e-01,-9.66031e-02,-2.07361e-01,-1.22530e-01,2.14652e-01,-6.85347e-01,2.72399e-01,-1.65592e-01,-1.34315e-02,-8.15732e-01,4.25192e-02,-5.09106e-02,-3.42453e-01,5.32418e-01,4.89092e-02,-2.58130e-01,7.29240e-02,1.44155e-01,-2.53366e-02,
-2.51645e-02,
3.10727e-01,
-3.47927e-01,
-2.16057e-02,
-2.03642e-01,
-2.24675e-01,
-1.11679e-01,
0.00000e+00,
4.13928e-02,
6.59514e-02,
-3.82155e-02,
-1.61342e-02,
-5.89936e-02,
3.16548e-01,
-2.24864e-02,
2.00637e-01,
-2.47493e-02,
-2.65415e-02,
1.57486e-01,
2.25943e-01,
3.34644e-01,
-1.33111e-01,
5.49173e-02,
-4.01237e-01,
-8.74538e-02,
5.57452e-01,
-6.85164e-02,
-3.07598e-01,
2.98688e-01,
2.42193e-01,
4.03155e-01,
3.16307e-01,
2.59639e-01,
-1.32330e-01,
-1.74101e-02,
-1.55138e-01,
2.69657e-01,
-1.69593e-02,
-3.49930e-01,
2.11603e-01,
-2.00329e-01,
1.95971e-01,
-4.81872e-01,
-7.22933e-02,
1.77168e-01,
5.97266e-02,1.19619e-01,4.76438e-01,2.75561e-03,4.50738e-02,5.21307e-01,-1.08821e-01,-8.37339e-03,-1.52756e-01,4.96089e-01,2.34671e-02,-1.79251e-03,1.38006e-01,1.82177e-01,-1.42164e-04,3.18599e-01,-4.01321e-01,3.58298e-02,1.64225e-01,-5.04192e-02,-1.38542e-01,1.10672e-01,1.86413e-01,-1.43659e-01,-1.49025e-01,2.31380e-01,4.56491e-02,9.98801e-02,1.97258e+00,-5.60472e-03,-5.89308e-01,-4.86650e-01,-1.95966e-02,-4.96066e-01,-2.16610e-02,-8.34327e-02,-3.08548e-01,-8.75112e-03,6.97739e-02,2.25625e-01,-3.48660e-01,2.14397e-04,6.17976e-01,1.83084e-01,1.71976e-01,
-2.06529e-01,1.11167e-01,2.56893e-01,5.60738e-03,-3.54565e-03,-4.88413e-02,5.79616e-01,-3.92635e-02,-2.22287e-01,3.53051e-02,1.12243e-01,1.37086e-03,-6.63526e-01,4.47990e-01,4.60229e-02,1.23832e-01,-1.06708e-02,-3.75169e-02,7.14228e-01,-1.11550e-01,-1.00938e+00,-2.12822e-01,6.00507e-02,-1.46695e-01,-3.53589e-02,-1.64861e-01,-4.75063e-03,-3.78695e-01,-5.54175e-01,-1.12241e-01,-1.01343e-02,-1.96353e-01,1.74248e-01,7.04962e-01,4.95851e-02,5.68574e-02,-1.76941e-01,-1.36398e-02,-7.37468e-02,5.40615e-01,6.44712e-02,3.13249e-01,-2.16772e-01,-4.65356e-01,1.51229e-01,
3.18794e-02,4.67958e-03,2.09662e-02,-2.81745e-02,1.57222e-02,-3.02363e-02,-4.55011e-02,-2.14921e-02,-4.85332e-02,-5.79645e-02,1.84049e-02,2.44973e-02,-2.78499e-02,-2.79631e-02,-1.96358e-02,3.34071e-03,-5.55620e-02,-2.24421e-02,-5.94867e-02,-6.15824e-02,-5.37666e-02,-5.46014e-02,-1.93404e-02,-5.03152e-02,3.36222e-02,-5.44228e-03,-2.41991e-02,1.37935e-02,-2.78963e-02,3.63238e-02,3.56559e-03,-4.13798e-02,2.72844e-02,-7.58742e-03,3.52902e-03,-1.13958e-02,-2.46767e-02,4.30739e-02,-1.65512e-02,-4.57311e-02,9.13245e-03,-5.06022e-02,-3.14080e-02,8.06109e-03,-3.50331e-02,
-2.73668e-01,-4.65688e-01,4.98616e-01,1.13498e-02,-3.45312e-02,-1.17702e-01,4.45935e-02,-3.54506e-02,-4.02304e-02,1.63179e-01,4.47180e-01,-9.35123e-03,4.94192e-01,-2.60107e-01,1.38185e-02,-2.63546e-01,-9.40571e-02,7.33629e-03,-1.28856e-02,6.26021e-02,-5.27130e-01,-3.61371e-02,-9.03284e-02,-1.10379e+00,-4.31503e-02,1.69769e-02,1.58514e-01,7.09327e-01,1.18122e+00,-8.25002e-01,-5.76626e-02,-9.21511e-03,4.86062e-01,1.67785e+00,4.05576e-02,-2.76232e-01,-9.52675e-01,3.27590e-03,1.44405e-02,4.69210e-01,1.81208e-01,-5.67136e-01,-9.66411e-02,1.09362e-02,-9.11786e-02,
4.44784e-03,1.05184e-02,-3.12642e-02,-2.55084e-02,3.27187e-03,9.42364e-03,-2.49768e-02,-4.97376e-02,-2.76669e-02,-3.87760e-02,-3.00201e-02,3.61176e-02,7.02527e-03,2.21545e-02,-1.79427e-02,-5.28261e-02,3.19489e-02,1.34103e-02,7.52131e-03,-2.18659e-02,-3.52859e-02,1.15500e-02,-9.36383e-03,-4.85278e-02,-1.56543e-02,1.63044e-02,-6.50411e-02,2.39077e-02,-2.15888e-02,-3.55985e-02,-5.64605e-02,1.99774e-02,3.52619e-03,1.42570e-02,4.75361e-02,-1.72104e-02,-5.14106e-02,1.54743e-02,-1.87703e-02,-3.59589e-02,-4.66479e-02,-6.11071e-02,-4.31645e-02,-8.49644e-03,2.34596e-02,
2.60984e-02,-3.19485e-03,6.73344e-03,3.69853e-02,-2.01709e-02,1.18477e-02,-3.24553e-02,3.19414e-03,-5.80795e-02,8.74794e-06,1.25591e-02,-2.98521e-02,1.17668e-02,-6.02208e-02,7.67919e-03,-4.42896e-02,-5.98789e-02,-2.98408e-02,-3.43601e-02,-6.88719e-02,2.63379e-02,-4.47597e-02,1.12003e-02,-4.82723e-03,-1.54185e-02,2.26230e-02,-5.37244e-02,-4.24673e-02,-2.87634e-02,-2.91769e-04,1.84340e-02,-2.29904e-02,-5.98148e-02,-3.76106e-02,3.61299e-02,-1.57637e-02,-3.16828e-02,-5.40293e-03,-1.59813e-02,-1.05310e-02,2.22125e-02,-3.75578e-02,-6.10243e-02,-6.19926e-02,-1.53730e-04,
-1.10620e-02,-5.20842e-02,-1.74039e-02,-3.38174e-02,-1.74597e-02,-1.91875e-02,-4.50435e-02,-3.45045e-02,-1.03164e-02,7.36849e-03,-2.04132e-02,-3.34988e-02,-2.83618e-02,3.85900e-02,1.53998e-02,3.10056e-02,-3.93930e-02,3.03710e-02,2.78589e-02,-3.96453e-02,-2.48434e-02,-2.89555e-02,-3.23838e-02,2.82816e-02,8.27397e-03,-3.03293e-02,-4.11117e-02,2.27421e-02,-5.17077e-02,-4.01314e-02,1.36846e-03,1.03620e-02,3.73395e-02,1.60557e-02,-2.98190e-02,-4.60658e-02,-1.94614e-02,3.94914e-02,-2.80987e-02,1.59088e-04,-1.28472e-02,-3.26866e-02,-3.72144e-02,8.65268e-04,-1.51261e-02,
1.46802e-01,7.33675e-02,-1.60171e-01,-4.09587e-02,-2.83392e-01,1.09088e-01,-2.99122e-01,2.70075e-02,-3.94855e-01,-3.09731e-01,-1.58161e-01,2.18472e-04,-7.61327e-01,1.68058e-01,-6.40691e-03,3.20361e-01,8.45720e-02,1.73052e-02,3.89669e-02,1.92826e-01,2.24137e-01,4.07430e-02,-3.37144e-01,1.38027e-01,1.71861e-01,-5.91445e-02,-2.95790e-01,-7.25935e-02,-5.28274e-01,3.17268e-01,8.68403e-03,-2.80583e-01,-3.34854e-01,-4.02694e-01,1.66486e-02,-2.27476e-01,3.59077e-01,-4.21294e-02,-2.75670e-04,3.47929e-01,-2.68644e-01,4.58440e-01,-2.45599e-03,-1.78474e-01,-1.34885e-01,
-1.27040e-01,8.45223e-01,6.50200e-01,2.23452e-02,6.71882e-02,-5.64206e-01,1.02756e+00,-3.24271e-02,-1.40355e-01,4.71333e-01,-3.19361e-01,-1.28727e-02,-1.80837e-01,6.65272e-01,8.35919e-03,2.99612e-01,-2.75047e-01,1.86688e-02,-1.28238e-01,-1.00107e-01,6.43571e-02,-1.71959e-01,6.59032e-01,5.99495e-01,-3.31790e-02,-2.83905e-01,-6.15597e-01,7.84557e-01,7.58078e-01,3.55259e-01,-1.39304e-01,2.10363e+00,2.44071e-02,-3.90834e-01,-4.52100e-02,5.63304e-01,-4.53283e-01,-2.07997e-02,-1.74924e-01,-1.58343e-01,9.05775e-02,-8.69128e-02,-2.29613e-01,-3.39069e-01,4.37155e-01,
-5.35025e-02,1.74148e-02,-4.71629e-02,2.91597e-02,-3.72590e-02,-4.16823e-02,-4.79853e-02,-9.24401e-03,-1.25642e-02,-2.19863e-02,-8.72743e-03,-4.85288e-02,-1.65124e-02,2.76198e-03,-1.50936e-02,-2.82749e-02,-3.37011e-02,-3.73287e-02,-3.32014e-02,1.01030e-02,1.19824e-02,-2.90547e-03,1.23874e-02,1.62962e-02,-4.64294e-02,1.49684e-02,-1.23497e-02,-4.99531e-02,-6.39331e-02,-4.77368e-02,-7.61703e-02,1.96333e-04,5.77784e-03,-2.68348e-02,-4.45660e-02,5.15302e-03,-3.83861e-02,4.13253e-02,-3.47392e-02,4.63280e-03,-5.02512e-02,2.06185e-02,1.82211e-02,-3.25653e-02,-6.62384e-02,
-7.72459e-03,-3.98232e-02,-6.26191e-02,-4.48415e-02,1.47385e-02,-2.17669e-04,-5.38969e-02,-4.12490e-02,2.08685e-02,-3.41285e-02,-4.80775e-02,4.46231e-02,-4.01094e-02,-5.46781e-02,4.12926e-02,1.27393e-02,-5.25011e-03,-2.03663e-02,-5.08253e-02,-4.54112e-02,-8.87805e-03,-7.11180e-03,2.73073e-02,-2.82952e-03,3.22103e-02,2.56403e-02,-2.30383e-02,-3.91184e-02,-3.73069e-02,-8.23337e-03,-1.59838e-02,-2.99404e-02,2.87128e-02,-1.24384e-02,9.45953e-03,2.53945e-02,-5.17734e-03,-3.68440e-02,1.53323e-02,-2.87310e-03,-5.91280e-02,5.10968e-03,-3.29756e-02,2.61851e-02,-1.89942e-03,
4.20086e-02,-2.74352e-02,-4.54379e-02,-6.84082e-03,1.12095e-02,1.42929e-02,2.62065e-02,2.81593e-02,3.09784e-02,-4.32247e-02,-2.31490e-02,-4.37503e-02,-2.58046e-02,-4.54559e-02,4.78022e-02,-1.48111e-02,-5.16798e-03,3.09285e-02,-1.82863e-02,-5.45812e-02,2.69656e-02,-5.31226e-02,3.83396e-02,-1.59735e-02,1.18656e-02,-4.72624e-02,-4.08732e-03,-2.73106e-02,-5.20254e-03,-2.14032e-02,-2.21332e-02,-5.13243e-02,-5.09012e-03,-6.81907e-03,-9.88137e-03,5.43908e-03,-4.40736e-02,-1.10671e-02,6.37546e-03,-5.88490e-03,-4.38017e-03,-2.56039e-03,1.08408e-02,-6.03331e-02,-4.57735e-02,
7.92046e-02,-4.35186e-01,9.72878e-01,2.01538e-02,1.67175e-01,6.37213e-01,1.64241e-01,1.12456e-02,2.67859e-01,7.39288e-01,-2.03587e-01,2.87285e-02,-8.28172e-01,3.13503e-01,5.08130e-02,2.00085e-01,2.70193e-02,-3.36369e-02,-2.77166e-02,-1.84986e-01,-1.12874e-01,2.41676e-01,2.26233e-03,1.29900e-01,-8.14015e-02,-1.83634e-01,3.13659e-01,-2.40518e-02,8.31591e-02,2.77571e-01,1.88486e-01,-3.14813e-01,-1.23519e-02,7.34076e-01,-4.30902e-02,1.33544e+00,-5.29731e-01,-9.24704e-03,-2.52252e-01,1.00436e+00,1.33398e-01,-8.55971e-02,4.11658e-01,4.07036e-01,-4.94640e-02,
-8.27060e-04,-1.13208e-02,1.52363e-02,-2.74528e-02,-5.09380e-02,2.63503e-02,1.43692e-03,2.71565e-02,-4.53620e-02,2.38422e-04,-3.08607e-02,4.11940e-02,1.99286e-03,-2.77223e-03,3.96884e-02,-1.81796e-02,-3.42280e-02,-3.98252e-02,1.28987e-02,-1.85494e-02,-3.34248e-02,-4.77909e-02,2.15373e-02,-5.15578e-02,1.02686e-02,3.59934e-02,3.77449e-02,3.19551e-02,-5.56598e-02,-5.56649e-02,-1.20039e-02,4.64684e-04,-2.72436e-02,-1.91631e-02,-3.96315e-02,-2.84510e-02,1.66304e-02,-3.66531e-02,-1.82868e-02,-3.91965e-02,-3.89254e-02,-5.51684e-03,-1.89564e-03,-5.70479e-02,-1.85983e-02,
-4.53597e-01,-3.48476e-01,7.65349e-01,8.70866e-03,5.55988e-01,3.13221e-01,1.09076e+00,-7.56507e-03,3.37897e-01,5.34221e-02,-3.54849e-02,8.19289e-03,-3.02221e-01,2.99124e-01,-3.41209e-02,-4.57294e-01,4.11820e-01,-3.86391e-02,-6.57287e-02,1.58720e-01,-1.09660e-02,2.65047e-01,-1.30114e-01,-3.80642e-01,3.75695e-01,-1.90941e-01,-9.54551e-02,4.44523e-02,1.11006e+00,-1.59029e-01,-2.77753e-02,3.50289e-02,-3.94426e-02,-7.54023e-01,-1.99455e-02,1.32049e+00,2.52066e-01,3.90669e-02,8.63974e-02,1.87657e-01,7.97543e-01,1.99014e-01,1.13846e-01,-3.01106e-01,6.24498e-01,
-4.87526e-02,-2.97030e-03,-4.02389e-02,3.29662e-02,-5.57039e-02,4.80987e-03,5.83239e-03,-1.91627e-02,2.11559e-02,-4.23458e-02,-4.17955e-02,-8.15069e-03,-2.48077e-02,-5.18956e-02,-5.03193e-02,2.09584e-02,2.39531e-02,1.78437e-02,-6.07555e-03,-7.62160e-02,-5.57860e-02,-1.89688e-02,1.48432e-03,2.02816e-02,-4.48032e-02,4.64270e-03,-8.99978e-03,-6.24163e-02,1.44406e-02,1.48036e-02,1.66735e-02,-1.93991e-02,-5.43966e-02,2.18866e-02,2.02048e-02,-4.54382e-02,-4.11020e-02,-3.19883e-02,-6.59547e-02,-1.95781e-02,-4.39669e-02,7.53393e-03,-1.79043e-02,4.65122e-03,2.30887e-02,
-2.42007e-01,-8.01500e-01,7.87432e-01,1.05467e-02,-8.98651e-01,4.98411e-01,4.30176e-01,-1.39890e-03,4.51418e-01,-3.37300e-01,-8.87157e-04,3.57029e-03,2.04080e-01,-2.17782e+00,3.91842e-02,1.35801e-01,5.16957e-01,5.25455e-03,-8.44716e-01,1.00785e-02,-2.11365e-01,-4.78415e-01,-5.53990e-01,1.06550e-01,9.14923e-01,5.53409e-02,-3.22266e-02,5.06716e-01,2.76782e-02,2.13667e+00,-2.82541e-02,1.96113e-01,-1.90762e-01,-8.57261e-01,4.41143e-02,-2.33394e-01,-4.90944e-01,4.60263e-02,2.76437e-01,7.63657e-01,-5.60253e-01,3.36020e-01,-2.20017e-01,4.36476e-01,3.35101e-01,
-3.20046e-01,-2.81712e-01,5.23324e-01,1.62194e-03,-3.27124e-01,2.67468e-01,6.66739e-01,1.76979e-02,3.21451e-01,-3.46984e-01,-3.85291e-01,3.50808e-03,-5.09042e-01,4.48034e-01,4.05135e-02,3.27672e-01,-3.87915e-01,4.13849e-02,1.78857e-01,-3.82335e-01,5.01227e-01,1.26225e-01,8.21991e-01,-3.56261e-01,-3.18307e-02,3.28222e-01,-3.15052e-01,-2.05431e-01,8.25382e-01,1.76482e-01,-5.84616e-02,-6.99094e-01,-2.09591e-01,1.58177e-01,-4.26911e-02,2.27687e+00,-2.26606e-02,-4.15996e-02,1.03579e-01,6.23802e-01,-2.72006e-01,-3.70134e-02,-2.17158e-01,4.02403e-01,-1.01380e-01,
4.25709e-02,-6.69903e-02,5.89820e-02,2.07237e-02,2.71091e-01,1.86293e-02,8.95408e-02,-2.56169e-02,-5.21331e-01,-1.63472e-01,-3.39141e-02,-5.27285e-02,-4.01337e-01,-1.00705e-01,-7.30062e-03,6.74900e-02,-5.28789e-02,2.20544e-02,2.26493e-01,-5.38685e-02,1.35862e-01,1.46223e-01,-4.89649e-01,2.26799e-01,8.27680e-02,-1.42147e-01,5.12982e-01,-1.59348e-01,4.28452e-01,-1.04929e-02,7.53223e-01,-7.05357e-01,-1.85684e-01,2.02729e-01,-4.21284e-02,2.31864e-01,-3.85694e-02,5.19219e-02,1.98604e-02,5.61883e-01,2.74130e-02,1.06352e-01,-1.70606e-01,-6.89731e-01,-1.82291e-01,
-2.14155e-01,-3.72656e-01,5.60645e-02,-1.90227e-02,1.94173e-01,1.76811e-01,-3.09047e-01,2.94804e-02,2.09280e-03,-4.60528e-01,-8.28859e-03,2.93402e-02,1.05041e-01,-1.55980e-01,2.63490e-02,-3.20345e-01,-2.67811e-01,2.06890e-02,-4.66732e-01,-6.28520e-02,3.25381e-01,-1.20046e-01,3.90898e-01,5.32966e-01,1.23387e-01,-7.68009e-02,4.95779e-01,-2.96062e-01,-2.22398e-01,-1.25851e-01,-1.93792e-02,-7.60869e-01,4.28883e-01,-9.67425e-02,-2.10263e-02,3.17125e-01,-1.88681e-01,2.66011e-02,1.97933e-02,-3.38778e-01,-4.60157e-02,-2.71352e-01,1.25245e-01,3.14758e-01,1.16996e-01,
8.63517e-02,-1.19830e-01,1.81034e-01,-1.24117e-02,7.89023e-02,9.34181e-01,4.17373e-01,-2.73948e-02,-1.48293e-01,-1.11156e-01,8.14666e-02,-4.75540e-02,8.38797e-02,2.01579e-01,-4.71026e-02,5.93669e-01,1.73630e-01,-1.14199e-03,3.63799e-02,3.32525e-01,5.72063e-02,-2.97199e-01,1.87162e-01,-5.68300e-01,-8.50255e-01,1.84078e-01,-1.26434e-01,5.02957e-01,6.95143e-01,-3.41163e-01,-2.78665e-01,-5.55881e-01,-6.74995e-02,7.24475e-01,2.07682e-02,7.83147e-02,-4.83959e-01,-1.92957e-02,-3.74620e-01,-4.70067e-01,4.63564e-01,-2.67118e-01,-1.02473e-02,7.81467e-01,6.30900e-01,
1.16200e-01,-3.18268e-02,-3.40223e-01,2.29710e-02,-4.11042e-02,5.07655e-01,1.68732e-01,-1.34968e-02,-3.18557e-01,5.18193e-02,-3.53151e-02,-2.87118e-03,-9.30628e-02,7.53933e-03,4.41260e-02,-4.28900e-01,-5.59261e-02,1.82006e-03,2.93604e-02,-7.10376e-01,1.70973e-01,4.30154e-01,-1.08697e-01,3.80031e-01,6.87227e-02,1.81525e-01,2.71590e-01,-3.52669e-01,-2.86019e-01,-1.01496e-01,-1.11898e-01,-2.14825e-01,5.16260e-01,2.59477e-01,-1.43035e-02,-3.04163e-01,1.94236e-01,-2.74246e-02,-7.24071e-02,3.72261e-02,1.33984e-01,-7.26191e-01,1.43846e-01,-9.89905e-02,-1.20342e-01,
-1.84149e-02,9.00911e-03,-4.94814e-02,2.58017e-02,-3.47343e-03,2.14012e-02,-3.16933e-02,-1.04697e-02,3.30379e-02,-4.77195e-02,-4.76130e-02,-1.47013e-02,2.88447e-02,-4.98650e-03,-1.56076e-02,3.50583e-02,-4.08558e-02,-2.41855e-02,-2.09064e-02,-1.31308e-02,1.43906e-02,-3.61035e-02,-4.61993e-03,-3.10170e-02,2.43207e-02,-1.24787e-02,-1.50320e-02,2.19392e-02,-2.74934e-02,-2.15786e-03,-2.61514e-02,4.74502e-03,-4.86736e-02,-3.04872e-02,2.66553e-02,-2.41028e-02,-5.21856e-02,-1.16777e-02,-1.76036e-02,-1.19497e-02,1.29312e-02,-3.74164e-02,-2.98021e-02,-1.40020e-02,-2.86311e-02,
1.67964e-02,-1.48361e-02,-2.71657e-02,-2.33447e-02,3.35337e-03,-4.53347e-02,1.17267e-02,2.46387e-02,-4.84831e-02,-1.23400e-02,-6.75916e-03,3.78975e-02,-4.00468e-02,-5.07545e-02,3.06773e-03,2.31990e-02,-6.24019e-02,1.19444e-02,2.19708e-02,-2.09252e-02,-1.25684e-02,1.18586e-02,2.31346e-02,-5.10548e-02,-4.51711e-02,-4.39791e-02,-4.29319e-02,1.09360e-02,-7.04127e-03,-5.39168e-02,3.90463e-02,-1.63900e-02,-2.70620e-02,-4.44474e-03,1.76852e-02,-3.57133e-02,-2.48469e-02,-2.53081e-02,-8.41881e-04,-5.38175e-03,1.57313e-02,-1.16377e-02,3.62775e-03,1.80253e-02,-5.95281e-02,
-5.61957e-02,-1.18888e-01,1.93368e-01,1.58239e-02,-4.86574e-02,1.96940e-01,1.55921e-01,-3.35208e-02,-4.65542e-03,1.72187e-01,1.68786e-02,-4.08365e-02,5.20099e-01,2.08819e-01,-2.82884e-02,1.06153e-01,1.54370e-01,8.92247e-03,-1.46295e-01,-6.29053e-02,2.73982e-01,2.78529e-01,-2.19268e-01,-1.62088e-01,3.98619e-01,1.49383e+00,2.55887e-01,1.99666e-01,7.47563e-01,3.57248e-01,5.20588e-01,-3.21767e-01,-1.38386e-01,8.18812e-02,2.14338e-02,-4.43799e-01,6.08190e-02,-4.03057e-02,-7.92796e-01,2.59763e-01,-3.76343e-01,-1.23974e-01,-9.18820e+00,1.92478e-01,1.69262e-01,
-4.25434e-02,-6.77419e-01,-6.34086e-01,5.46807e-02,1.13135e-01,-2.31866e-01,3.61413e-01,4.04177e-02,1.60892e-01,-1.28494e-02,1.65739e-01,4.24549e-02,4.78876e-01,-1.13067e-01,-1.66198e-02,-6.61632e-01,2.44067e-01,1.91620e-02,-2.67154e-02,1.48970e-01,-2.33199e-01,-2.27858e-01,-2.06694e-01,-2.10838e-01,4.34483e-03,5.04980e-03,2.71184e-01,-3.50965e-02,-4.91062e-01,-3.11766e-01,4.51849e-03,-3.20871e-01,2.86481e-01,3.45627e-01,-4.16993e-02,8.38417e-02,-4.27868e-01,-5.73975e-03,3.48802e-02,6.43188e-02,-5.04449e-03,-3.93990e-01,6.11767e-02,-1.51481e-01,-2.77202e-01,
1.41148e-01,-1.16255e-01,1.67058e-01,6.22684e-03,-4.64644e-01,-4.94854e-01,-2.81304e-01,2.05525e-02,3.10733e-01,2.16267e-01,1.57974e-01,9.64005e-03,-2.01875e-01,-7.48638e-02,-9.18885e-03,2.29458e-01,-6.83308e-01,2.89972e-02,2.17446e-01,-2.26500e-01,-7.73374e-04,-1.45593e-01,7.26527e-02,4.17402e-02,1.61992e-01,6.29869e-02,-4.33963e-01,2.49334e-01,3.43822e-01,-9.69783e-01,1.04616e-01,-6.70809e-01,-1.50799e-02,-7.21434e-01,2.94210e-02,8.72675e-02,1.28576e-01,-3.51603e-02,5.28368e-02,-4.41639e-01,1.59450e-01,2.15866e-01,-1.33592e-01,-6.46110e-02,5.26546e-02,
-2.03273e-01,-6.76018e-02,1.72072e-01,-1.44345e-02,2.79142e-02,-2.59519e-01,-1.96302e-01,6.50103e-03,-4.51644e-02,-2.83454e-01,-2.46272e+00,1.06987e-01,1.91094e-01,2.29466e+00,-1.06363e-02,-2.87085e-01,1.25229e-01,-3.47584e-02,-9.36490e-03,-1.24962e-01,3.00875e-01,-1.05723e-01,-4.07800e-01,-3.87407e-01,-1.04217e-02,9.59583e-02,1.54157e-01,9.78463e-02,1.58241e-01,-5.54804e-01,4.48448e-02,-3.34088e-01,3.40300e-02,1.78029e-01,-3.21667e-02,2.25939e-01,-2.99892e-02,-8.01698e-03,8.45290e-02,4.91596e-01,-3.26481e-02,6.56967e-02,1.06853e-01,-8.56329e-02,7.58465e-02,
-5.37478e-02,2.09844e-02,1.01586e-03,-4.58602e-02,-6.70914e-04,3.48266e-04,-6.39629e-03,4.44425e-02,-1.98503e-02,-3.45861e-02,-7.91271e-03,8.10173e-03,-6.13253e-03,-8.29453e-02,-9.98235e-03,-3.95757e-02,-2.67948e-02,3.60946e-02,-4.28573e-02,-1.42945e-03,1.62221e-02,-2.90503e-02,1.06637e-03,-8.12354e-02,-2.81993e-02,8.76488e-03,-4.81601e-02,-1.71546e-02,-6.72030e-02,-1.67984e-03,-4.62098e-02,-5.66160e-02,-4.28656e-02,-4.04077e-02,4.52259e-02,-8.57453e-03,-1.38837e-02,3.86559e-02,1.42168e-02,-4.01657e-02,-9.81384e-03,-5.69792e-02,-1.27608e-02,-8.92712e-03,-8.76135e-03,
-1.68830e-02,-5.13762e-02,2.83586e-02,3.21721e-02,-2.61708e-02,-3.93813e-02,1.80101e-02,4.71353e-02,-5.28667e-02,1.00739e-02,-3.72043e-02,-3.72014e-02,-4.58890e-02,3.47793e-02,-2.80893e-02,2.42135e-02,1.44897e-02,-1.05554e-03,-4.39146e-02,-4.75604e-02,-4.83202e-02,-4.34773e-02,4.65118e-02,-9.50371e-03,-7.29262e-03,-2.14137e-02,-4.57721e-02,-2.84540e-02,1.91989e-02,-2.52301e-02,-1.29538e-02,3.09968e-02,-3.26731e-02,3.75200e-03,-2.00021e-02,-3.06774e-02,-2.55889e-02,-2.48559e-03,-2.27968e-02,3.83578e-02,-3.03238e-02,4.99064e-03,-3.98186e-02,-1.93803e-02,3.95295e-02,
-8.07100e-03,-4.79105e-01,-8.57157e-01,-1.78834e-02,-1.53551e-01,3.78747e-01,-3.19531e-01,-3.56064e-02,-1.31293e-01,-1.11952e-01,3.36758e-01,2.54332e-02,9.49504e-01,-4.05414e-02,2.59084e-02,-2.04422e-01,2.85448e-01,-1.13365e-02,3.61736e-01,-3.11832e-01,-5.44883e-02,3.69229e-01,1.48079e-01,-7.73387e-01,-2.92892e-02,-1.02349e-01,3.10531e-01,-4.51564e-01,9.16987e-01,-2.45431e-01,8.30183e-02,-4.05135e-01,6.30579e-01,6.20184e-01,-4.17735e-02,7.56800e-01,3.56574e-01,-4.81402e-02,1.03977e-01,-6.43731e-01,-3.31261e-02,1.74848e-02,3.63394e-01,6.74599e-01,9.47754e-02,
3.73660e-02,3.17283e-01,3.17371e-02,2.64715e-02,-4.16619e-02,-3.09695e-01,-1.52651e-01,2.06772e-02,-4.70168e-02,-1.84864e-02,1.06809e-01,1.68123e-02,-9.74815e-02,4.42293e-02,-2.69195e-02,2.72194e-01,-2.48776e-01,-2.05220e-02,-1.42709e-02,1.49808e-01,-2.49784e-01,-2.88807e-03,1.17547e-01,2.06784e-01,3.72629e-02,7.22294e-02,3.04353e-01,1.99970e-01,-1.31541e-01,1.69533e+00,-1.79943e-01,1.22971e-01,-1.48580e-01,1.32601e-01,-2.41675e-02,-7.81668e-02,4.28066e-01,-5.24281e-02,1.55276e-02,2.72256e-01,-8.79998e-02,6.24995e-01,8.83486e-02,-6.50863e-02,-2.74175e-01,
1.30585e-03,-2.86764e-02,1.17007e-02,3.42196e-02,-2.33025e-03,-4.50526e-02,2.39927e-02,-1.50302e-02,-9.42905e-03,-1.76575e-02,-5.11651e-02,-2.76978e-02,2.96066e-02,-4.93463e-02,6.32968e-03,3.03471e-02,-4.14733e-02,4.01262e-02,-6.02301e-03,-2.79608e-02,-2.35408e-02,-4.52464e-03,-4.00737e-02,3.57212e-02,-4.70105e-02,9.64799e-03,-1.72119e-02,-4.11053e-02,-3.26207e-02,4.51362e-02,-8.82407e-03,2.42837e-02,-5.03969e-02,2.55561e-02,-7.12193e-04,1.00678e-02,-1.33649e-04,1.68064e-02,-1.91793e-02,-1.60142e-02,2.76919e-02,1.10021e-02,-4.48303e-02,-5.00565e-02,-5.42155e-02,
2.51513e-02,-1.05927e-02,1.80092e-02,3.69428e-02,-4.68536e-02,3.12035e-03,-5.86134e-02,1.43053e-02,2.88324e-02,3.02055e-02,-4.67002e-03,-4.64928e-03,3.58149e-02,-4.35897e-02,4.24097e-02,-6.27245e-02,-2.24020e-02,3.12994e-02,-2.80513e-02,-4.02358e-02,-6.13887e-02,1.18378e-02,-3.97642e-02,2.43306e-02,-4.53525e-02,6.04055e-03,-3.04803e-03,-9.04859e-04,-3.25131e-03,2.36460e-02,-5.70363e-04,-4.19966e-02,-3.02164e-02,2.74401e-02,4.81868e-02,8.80940e-03,-1.43522e-02,8.60060e-03,-5.00285e-02,-1.08587e-02,-2.99336e-02,-2.57538e-02,3.30398e-02,5.08150e-03,1.03547e-02,
-6.25749e-01,2.77742e-02,3.16936e-01,1.55863e-02,7.27541e-01,2.02794e+00,5.24270e-01,1.19071e-02,-2.50149e-01,-1.33865e-01,-4.20889e-02,-4.31013e-03,4.29230e-01,1.58976e-01,-5.02604e-02,-2.35451e-01,2.47939e-01,-2.70630e-02,4.84077e-01,1.25580e-01,9.63789e-02,9.64363e-01,3.95131e-01,3.22657e-01,3.53164e-01,4.13668e-01,2.13215e-01,1.96322e-01,-1.51397e+00,-1.02892e+00,-4.76435e-01,-7.61373e-01,1.29736e-01,7.20799e-01,-3.14472e-02,9.67238e-01,2.54663e-01,2.23676e-02,3.80307e-01,6.96041e-01,2.55038e-01,6.50554e-02,6.82359e-01,1.55104e+00,-2.36984e-01,
-5.97906e-02,-1.22329e-01,1.77860e-01,-1.23506e-02,1.68005e-02,1.76163e-03,5.45906e-01,-2.08162e-03,2.32018e-01,3.63914e-01,-8.55419e-02,1.07157e-02,1.80791e-01,3.53394e-01,-5.24584e-02,-5.65304e-02,1.95485e-01,5.13495e-02,-2.86014e-01,1.33776e-02,-3.80991e-01,1.07775e-01,1.75120e-02,1.89137e-01,5.31204e-02,-3.08472e-02,1.51363e-01,-2.61945e-01,3.95448e-01,5.33039e-01,1.78523e-01,-6.92628e-01,4.51927e-01,3.65779e-02,-2.70987e-02,-6.58941e-02,6.15612e-01,2.63649e-02,2.05600e-01,2.90592e-01,-3.66293e-01,-8.79084e-02,1.61732e-03,5.08253e-02,4.33607e-01,
-1.78442e-02,-4.17992e-02,-4.68366e-03,4.69235e-02,-4.58161e-02,-2.53950e-02,-2.88073e-02,-2.80927e-02,2.44661e-02,5.13109e-03,-4.50400e-03,7.40161e-04,-3.23978e-02,-2.54638e-02,-4.44017e-02,-5.35974e-02,-4.13144e-02,-3.47313e-02,8.82860e-03,1.65300e-02,4.06955e-02,2.25114e-02,-2.00723e-03,4.92793e-03,-2.45771e-02,-3.41056e-02,2.59768e-03,-2.84691e-02,-1.02822e-02,3.05543e-02,-3.40766e-02,-2.66212e-02,2.98152e-02,-1.01923e-02,2.61096e-03,-4.55337e-02,-7.80854e-03,3.72839e-02,1.62849e-02,-4.70158e-02,2.37265e-02,1.56061e-02,-4.12152e-02,-1.08290e-02,-5.02792e-02,
-4.94922e-01,-4.18576e-02,3.14357e-02,-4.64118e-02,-5.01115e-01,9.85427e-02,3.06112e-01,3.68305e-02,-3.73683e-01,2.42941e-01,2.72203e-01,-5.29671e-02,2.31021e-01,1.74534e-01,2.57198e-02,-1.75795e-01,-1.00738e-01,-5.82847e-03,5.53327e-02,-7.21856e-01,-1.76230e-01,-1.68557e-01,9.01252e-02,1.35198e-01,1.03784e+00,-1.98172e-01,-2.78866e-01,7.84954e-01,1.21841e-01,1.36069e-02,-2.31545e-02,1.81413e-01,-2.22966e-01,-2.99867e-03,-4.25810e-02,4.81199e-01,-5.91641e-01,3.19967e-02,5.56077e-02,3.61750e-01,-1.59576e-01,-8.05818e-02,1.32792e-01,3.03063e-01,1.74635e-01,
-3.08579e-01,-3.68548e-01,-1.33777e+00,1.41003e-02,-5.01586e-02,-2.46165e-01,-3.61286e-01,2.90493e-02,-4.05697e-02,-8.52785e-01,-1.35803e-02,2.11753e-02,5.81904e-02,-2.87440e-02,-1.23195e-02,-3.06893e-01,1.15040e-01,-1.84757e-02,7.07882e-01,-2.22447e-01,-1.31978e-01,3.80508e-01,-1.31002e-01,3.32803e-01,-2.43270e-01,-2.05146e-02,-2.54489e-01,-3.19677e-01,-1.03736e-01,-5.14152e-01,6.11838e-02,-5.80530e-02,5.40717e-01,1.00209e-01,5.45014e-02,-7.35578e-03,9.52083e-01,-3.47202e-02,1.15260e-01,-5.12512e-01,-3.71574e-02,-5.05305e-01,-7.32715e-02,-9.71565e-02,3.75621e-01,
-1.76730e-02,-2.09392e-02,-5.82403e-03,2.82684e-02,-4.76057e-02,-7.67453e-03,-5.41134e-02,1.04601e-02,2.00466e-02,2.88001e-02,-7.37293e-03,-1.18854e-02,3.66412e-02,1.20895e-02,-3.31479e-02,2.02877e-03,2.63414e-02,3.70387e-03,-5.77866e-02,3.69285e-02,3.41779e-02,-5.65595e-02,2.54492e-02,-5.96934e-04,-2.02533e-02,-2.87059e-02,-2.83679e-02,2.13130e-03,-3.42702e-02,-4.83663e-02,-2.31222e-02,4.24986e-03,-4.86641e-03,3.99301e-02,-1.30663e-02,-2.43617e-02,-2.15121e-02,-3.20010e-02,-5.86204e-02,-5.11212e-02,-7.81940e-03,1.86366e-02,3.63217e-02,-5.32828e-02,1.29511e-02,
-4.58046e-02,-1.59469e-02,1.85525e-02,-2.56413e-02,7.92037e-03,-9.80792e-03,1.28395e-02,-9.38771e-03,-1.88404e-02,2.50189e-02,-2.99944e-02,-3.85851e-02,-2.35979e-02,-4.71915e-02,3.40045e-02,-4.41557e-02,2.84434e-02,-4.09447e-03,-4.03054e-02,1.84474e-02,-2.41213e-02,-4.70858e-02,-1.91209e-02,-1.73860e-02,2.77496e-02,-2.76097e-02,2.16873e-02,-4.50422e-02,-4.11835e-02,-2.64338e-02,-3.96389e-02,-3.42329e-02,2.44981e-02,-1.39767e-02,3.96774e-02,-3.96277e-02,-4.31479e-02,-4.47274e-02,-3.13260e-02,-1.99876e-02,-1.34429e-02,-3.76071e-03,1.10846e-02,-4.80682e-02,-3.90102e-03,
1.16769e-02,-5.16701e-01,-3.08804e-01,-1.65513e-02,2.52184e-01,3.81263e-01,3.22842e-01,-4.47717e-02,-1.67582e-01,5.09232e-01,-1.20595e-01,9.05743e-03,3.94138e-01,-1.67072e-02,-3.37354e-02,5.78618e-02,-2.73460e-01,-2.50744e-02,4.24765e-01,5.00435e-01,1.47819e-01,-2.40426e-02,-7.03466e-01,-7.00252e-01,-8.87219e-02,3.71076e-02,-2.20934e-01,-1.06748e+00,-4.19550e-02,-8.43962e-01,1.82350e-01,-2.69550e-01,2.17273e-01,9.12386e-01,3.14894e-02,-9.88412e-01,-1.11443e-01,2.02128e-02,-1.29036e-01,-1.34864e+00,3.84737e-01,8.67126e-03,-6.20425e-01,-1.17143e-01,-1.22994e-01,
-3.92058e-01,-3.16205e-01,-5.05068e-01,2.71909e-02,3.25138e-01,5.83873e-01,-2.03140e-01,1.95986e-02,-3.87402e-02,7.13468e-02,7.42093e-02,1.07771e-02,5.95167e-02,-1.12637e-01,2.46025e-03,-1.62193e-01,1.71282e-01,5.03859e-02,2.43609e-01,8.20991e-02,1.41464e-01,-2.32983e-02,-3.56060e-01,1.47599e-01,1.22391e-01,4.73223e-02,3.28339e-01,6.15628e-02,-5.60475e-01,-1.79081e-01,3.39544e-01,-1.35351e+00,-9.52437e-02,8.41972e-02,1.81381e-02,-1.18601e-02,4.74940e-01,-9.90222e-03,-1.03224e-01,-8.40661e-02,2.17629e-01,-3.99974e-02,3.54859e-01,2.06998e-01,-1.15856e-01,
2.48276e-01,-7.18952e-02,-6.67347e-01,6.07235e-02,2.76270e-01,8.72295e-01,1.64016e-01,-3.90863e-02,3.16432e-02,-7.93442e-02,1.02174e-01,4.53353e-02,-1.10917e-01,-1.95496e-01,1.27386e-02,-7.91898e-02,8.46155e-02,-1.84372e-02,-1.90067e-01,7.21314e-03,3.42098e-01,3.27902e-01,3.00075e-01,4.35232e-01,-1.56843e-01,-9.96191e-02,3.57826e-01,-5.36626e-01,2.26751e-02,3.02016e-02,2.34703e-01,-2.38297e-01,3.64469e-01,5.11016e-02,-2.34245e-02,-6.56594e-02,-3.75031e-01,-1.59525e-02,5.39504e-02,-5.18882e-01,5.57207e-02,-2.75468e-01,-2.34828e-01,7.64649e-03,-1.06412e-01,
-3.29124e-02,-4.28088e-02,3.89642e-02,2.43169e-02,-1.63943e-02,-4.86018e-02,-4.04264e-02,3.54616e-02,-2.06328e-02,3.36229e-02,-3.40567e-02,-1.91790e-02,2.84505e-02,1.35176e-02,-4.77820e-02,1.07116e-03,-1.74719e-02,-1.49441e-02,-4.05126e-02,-2.04529e-02,-2.65589e-03,1.63276e-02,3.77283e-02,3.09684e-02,-7.25865e-03,-1.95485e-04,1.56053e-02,-2.43755e-02,-3.03367e-02,1.77947e-02,-2.09880e-02,1.75558e-02,-5.30602e-02,5.20184e-03,2.79433e-02,2.99001e-02,-1.39705e-04,3.36957e-02,-5.61674e-02,-2.87707e-02,-3.60062e-02,-3.49772e-02,6.81922e-03,-4.09730e-02,-4.29070e-02,
9.15574e-02,
1.75276e-01,
-2.27411e-02,
-1.26181e-01,
-1.17920e-02,
-2.36123e-02,
-7.78972e-03,
9.67864e-02,
-2.64225e-02,
-2.48788e-02,
-1.52209e-02,
-1.63649e-02,
-1.51242e-01,
-1.06657e-02,
-1.17568e-01,
-2.48462e-02,
9.76535e-02,
-4.18354e-01,
9.52491e-02,
4.96871e-01,
3.33586e-01,
-8.03775e-02,
-2.03901e-02,
-2.05961e-02,
5.91570e-01,
6.35061e-01,
5.15876e-01,
1.13108e-01,
-3.10606e-02,
-9.77432e-03,
-1.22025e-01,
-2.55998e-01,
-1.01164e-02,
-7.62140e-03,
-8.13822e-02,
-2.56133e-01,
-1.02933e-02,
-2.83528e-01,
2.80406e-01,
-8.55205e-03,
-1.51593e-02,
4.12145e-01,
-2.40556e-01,
-1.03937e-01,
-9.05733e-03,
8.84697e-02,-1.67628e-01,3.98820e-02,-8.62562e-01,1.41857e-02,-3.54458e-02,1.04407e-02,-1.11845e-01,-1.15593e-03,3.09796e-02,2.05980e-02,2.21105e-02,-1.71196e-01,1.74458e-03,-3.13524e-01,2.50153e-02,3.14865e-01,-7.83354e-01,4.06194e-02,-3.13779e-01,-2.52477e-01,-3.02246e-01,3.22259e-02,4.58516e-03,-1.46126e-02,-1.04002e+00,3.98275e-01,1.46005e-01,1.12593e-03,-2.34053e-02,-6.15677e-02,-2.91030e-01,2.24011e-02,5.43511e-02,8.92046e-02,9.94670e-02,-2.21625e-02,-3.79031e-01,-5.03577e-01,2.46403e-03,-9.56672e-03,-4.81134e-01,-1.16285e+00,-3.15457e-01,1.12714e-02,
-2.67653e-01,-2.05402e-01,1.04399e-03,-1.23899e-02,-4.27141e-02,5.15148e-02,-1.93139e-02,-3.01928e-02,-3.85885e-01,-2.59582e-02,1.68141e-02,-2.45082e-02,-4.35481e-01,1.95255e-02,3.59294e-01,3.04946e-02,2.87538e-01,1.19330e-01,2.77730e-01,-3.26811e-01,-2.21211e-01,-6.06621e-01,2.60461e-02,-1.59372e-02,-7.05338e-03,-3.07622e-01,-2.32378e-01,9.73329e-02,-2.32670e-02,-1.01753e-02,1.25104e-01,-4.33915e-01,1.14541e-03,2.98044e-03,-1.02352e-01,1.19587e-01,3.09240e-02,-9.31478e-02,-2.42555e-01,2.40165e-02,-1.40953e-03,5.53564e-01,-1.47801e+00,3.58329e-01,-1.44469e-03,
-1.03619e-01,-5.58978e-01,-2.77070e-03,6.86518e-01,1.47874e-02,-7.74456e-03,1.81251e-02,-1.35041e+00,1.26297e-01,4.76949e-02,-6.32153e-03,6.94480e-04,-3.22979e-01,4.67927e-02,4.61626e-01,3.78890e-02,4.15470e-01,3.71953e-01,-3.24401e-01,5.38643e-02,4.88217e-03,7.06683e-01,-4.16977e-02,-8.93648e-03,2.82705e-02,2.96891e-01,-3.12510e-01,-5.45398e-02,4.75740e-02,-4.37246e-02,3.18867e-01,-2.58131e-01,5.79778e-03,3.13101e-02,-2.99746e-01,1.78083e-01,3.45361e-02,7.38690e-01,-2.18467e-01,2.78930e-02,3.03109e-03,4.55420e-01,-3.12455e-02,8.36488e-02,-3.92011e-02,
-1.04119e-01,1.64570e-01,2.47476e-02,9.32040e-02,1.89929e-03,-4.06210e-02,2.62132e-02,-2.65419e-01,1.67277e-03,2.76685e-03,-4.19949e-02,1.61379e-02,2.37545e-01,2.99706e-02,1.15854e-01,7.84732e-03,-1.27409e-01,-3.75298e-01,-2.68137e-01,-2.30168e-01,-2.64244e-02,1.37845e-01,-2.80159e-02,1.60544e-02,8.32339e-02,3.58978e-02,-3.85138e-02,-2.28575e-02,3.97388e-02,-2.74191e-02,3.40336e-02,-2.25836e-01,4.09022e-02,-4.19834e-02,-1.19864e-01,-1.62542e-01,4.62586e-02,7.13060e-02,-1.88277e-01,-3.42243e-02,-7.07423e-03,-1.75768e-01,-3.06758e-01,1.32030e-01,1.45066e-02,
-3.74252e-01,-3.00520e-01,-4.63483e-02,2.46864e-01,1.54066e-02,1.17710e-02,3.35882e-02,2.00739e-01,6.49508e-04,4.08707e-02,4.30889e-02,1.06550e-02,2.86753e-01,-2.62334e-02,-1.27706e-01,2.02062e-02,4.85194e-01,1.86636e-01,-1.20428e-01,2.00453e-04,1.21917e-01,5.21435e-01,1.12369e-02,1.85127e-02,-1.10104e-01,1.74380e-02,1.13710e-01,1.67086e-01,3.60487e-02,-4.91101e-02,-1.44407e-01,2.92924e-02,-4.63522e-03,-1.13004e-02,-1.05712e-01,1.41805e-01,4.58595e-02,-1.89116e-01,1.56691e-01,-4.01009e-02,-4.84607e-02,4.36667e-01,7.78275e-01,5.53687e-02,-1.70492e-02,
-3.42637e-02,-7.27141e-02,4.18910e-02,-4.86205e-02,-2.85616e-02,-3.59345e-02,2.21105e-02,-4.09789e-02,-5.56814e-02,-4.15146e-02,-1.34470e-02,-3.97908e-02,-6.27604e-02,5.19437e-03,-2.36386e-03,4.60355e-02,-6.80690e-03,-4.79516e-02,-2.21118e-02,-4.53181e-03,-2.70765e-02,-6.86451e-03,-1.84997e-02,-1.53347e-04,-3.60458e-02,2.29244e-02,-4.56470e-03,7.72858e-03,-4.26068e-02,3.15345e-03,-1.92388e-03,-1.85660e-03,-7.42508e-03,7.05268e-03,1.51696e-02,-2.22158e-02,3.61531e-02,9.85163e-03,-2.12932e-02,1.89997e-02,-2.71942e-02,-2.84979e-02,-2.99808e-02,-4.20471e-02,-2.56665e-02,
-8.33031e-03,1.62439e-03,2.01861e-02,1.06702e-02,-1.77835e-02,4.33670e-02,2.47130e-02,-1.23208e-02,-4.38112e-02,9.79049e-03,2.94475e-03,4.62797e-02,2.97719e-02,-3.28322e-03,-5.38309e-02,2.96020e-02,-3.10856e-03,2.60788e-02,-4.07410e-02,-1.99200e-03,-5.37993e-02,9.13562e-04,2.76268e-02,-2.28161e-02,-5.08307e-02,-5.63569e-02,-3.62479e-02,-3.41344e-02,-4.63493e-02,2.22069e-02,-3.79013e-02,-9.92705e-04,3.87841e-02,-5.04592e-02,-1.89810e-02,1.49715e-02,-2.93736e-02,-1.42834e-02,-3.47383e-02,-1.77421e-03,2.52820e-03,3.39545e-02,-4.67031e-02,-3.05460e-04,-1.43967e-02,
-1.29670e-01,3.60176e-01,-1.48396e-02,4.93753e-02,-3.33418e-03,-1.36618e-02,-2.94536e-03,5.37818e-01,6.08959e-02,2.37092e-02,9.34375e-03,4.36953e-02,-1.12393e-01,-7.26561e-03,-9.07596e-03,3.20623e-02,-3.14057e-01,-1.80150e-01,-1.36587e-01,9.92006e-02,1.72062e-01,-1.00695e-01,3.66695e-02,-1.05335e-02,1.62879e-03,1.66210e-01,5.29848e-01,-2.45048e-02,-5.00166e-04,-4.86039e-02,-4.04979e-02,1.10846e-01,-2.78769e-02,-3.79391e-02,9.57840e-02,-1.38842e-01,-1.56336e-02,-8.40810e-02,-2.22911e-01,-2.15632e-02,-7.56585e-03,-1.99667e-01,-2.42636e-01,7.40493e-02,4.50791e-02,
-1.12525e-02,-4.46089e-02,3.22527e-02,-2.47938e-02,-3.90790e-02,1.59963e-02,4.41845e-02,-4.29529e-02,-5.77035e-02,-6.05870e-03,-3.38592e-03,-4.54127e-02,6.92663e-03,-4.39763e-02,2.26423e-02,2.42220e-02,1.00559e-02,-3.73166e-03,-5.96940e-02,-4.84898e-02,-2.49722e-02,-4.95592e-02,2.43649e-02,-8.00738e-03,1.71753e-03,-3.16306e-02,1.80740e-02,-4.43443e-02,1.17044e-02,2.15160e-03,1.67869e-02,-2.90761e-02,-3.31099e-02,-1.40526e-02,-1.07157e-02,-2.23381e-02,3.37486e-02,2.66953e-02,-4.35472e-04,4.56026e-02,-2.27310e-03,3.97750e-02,-4.03190e-03,-1.27880e-02,-4.54028e-02,
-3.65195e-02,1.03082e-02,-4.17553e-02,-4.45652e-02,2.39727e-02,-3.97556e-02,-2.96264e-02,-3.59895e-02,-2.52126e-02,8.17175e-05,2.05004e-02,-4.91872e-02,1.47072e-02,4.23912e-02,-5.79149e-02,-1.94965e-02,-4.39889e-02,-2.12753e-02,7.20833e-03,-5.68885e-02,1.43637e-02,-9.42630e-03,1.93581e-02,5.33572e-03,-1.03286e-02,-9.77180e-03,-2.37304e-02,-2.34070e-02,2.24008e-02,-2.42578e-02,-3.64487e-02,7.19372e-03,1.16714e-02,9.08473e-03,-5.38669e-02,-9.00667e-03,-4.08302e-02,-1.24431e-02,2.35560e-02,-2.30016e-02,-2.13911e-02,-1.96488e-02,-3.55297e-02,2.16780e-02,-7.05288e-03,
-1.72885e-02,-4.71502e-02,3.00965e-02,-1.85695e-01,-1.05729e-02,-2.31330e-02,-4.70765e-02,7.23874e-02,1.50693e-02,-3.48202e-02,5.96300e-03,-6.54117e-03,7.49825e-02,-2.76436e-02,2.81491e-01,-1.12089e-02,2.29742e-01,2.95437e-01,2.18921e-02,-3.32823e-01,-1.43501e-01,-5.56934e-01,9.19430e-03,1.20508e-02,2.81893e-02,4.91565e-01,-8.95816e-02,3.85002e-02,1.05933e-02,-1.72382e-02,-4.34813e-02,-1.16796e-02,-2.37722e-02,-5.54474e-03,2.41209e-02,-2.95567e-01,3.70311e-02,-5.82656e-02,-4.53145e-01,-2.81129e-02,-3.11543e-02,-3.47332e-02,-3.86223e-01,1.80447e-01,4.25896e-02,
4.14192e-02,2.59971e-01,3.68386e-02,-4.51255e+00,1.61154e-03,-4.31058e-02,-3.81639e-02,-3.26409e-01,-1.37000e-01,-1.30957e-02,3.50913e-02,1.28852e-02,2.12695e-01,-4.00246e-02,1.61621e-01,-4.24264e-02,-1.33987e-01,1.48794e-01,2.41986e-01,-1.32465e+00,-1.14735e-01,-1.49527e+00,-1.64879e-02,2.11291e-02,2.92774e-02,-2.74356e+00,1.37999e-01,1.04477e-01,4.31604e-02,-3.03817e-02,-4.56109e-01,8.34285e-02,3.03624e-02,-3.00653e-02,2.13762e-01,-4.65117e-01,4.74055e-02,-1.94247e-01,-2.54891e-01,-3.00167e-02,-2.07382e-02,-4.42178e-01,7.32468e-01,-4.53157e-02,-3.22652e-02,
-2.45585e-02,-1.81078e-02,4.29466e-02,1.49865e-02,4.78006e-02,1.77117e-02,4.36690e-04,2.93917e-02,-1.11432e-02,3.11074e-02,1.92449e-02,3.65106e-02,-2.72854e-02,3.28332e-02,-2.75398e-02,2.30034e-03,3.30878e-02,-2.86413e-02,1.98516e-02,-5.80048e-02,3.40360e-02,-3.31274e-03,-3.27023e-04,-2.77321e-02,4.12482e-03,-4.95198e-02,-3.50952e-02,-4.11238e-02,4.23548e-02,2.14178e-02,-2.75119e-03,-5.01938e-02,1.54316e-02,4.97713e-03,-4.15320e-02,1.24537e-04,-3.69849e-02,6.27329e-03,-2.21378e-02,-4.55617e-02,3.89398e-02,9.68686e-03,-4.92490e-03,3.66039e-03,-8.29933e-03,
-5.83281e-01,2.16741e-01,-2.51686e-02,2.57403e-01,3.72593e-02,-7.99732e-03,2.65444e-02,3.53372e-01,1.96801e-01,2.78224e-02,-2.37636e-02,-1.42906e-02,-2.28376e-01,4.27848e-02,-3.16852e-01,8.55886e-03,2.25190e-01,-3.44311e-01,1.11645e+00,-5.24405e-02,-2.18802e-01,-2.94334e-01,-3.71381e-02,5.16830e-02,-8.33899e-02,5.13046e-01,5.77241e-02,1.16523e-01,9.00111e-03,3.07161e-02,1.51050e-01,8.24709e-02,2.81940e-02,4.33130e-03,-6.93298e-01,2.42435e-01,3.19320e-03,2.92635e-01,4.55726e-01,-5.23786e-02,3.62599e-02,-2.16739e-01,8.64356e-01,8.19313e-01,-3.79002e-02,
1.88838e-01,1.37168e-01,2.49006e-02,-4.75957e-01,5.18425e-03,1.40285e-02,-4.56431e-02,-1.86738e-01,-3.12561e-01,-2.62950e-02,1.75855e-02,3.23390e-02,5.34302e-02,-8.10842e-03,-2.14281e-01,3.85762e-02,-1.32663e-02,-1.16184e+00,-3.00168e-01,7.00979e-02,-2.10902e-01,2.94303e-01,-3.71424e-02,1.17908e-02,-1.07413e-02,1.69809e-01,2.17817e-01,3.75319e-02,-5.16695e-02,2.26934e-02,-4.03556e-02,2.57884e-01,-1.13128e-02,3.74551e-02,-3.22238e-02,4.50233e-03,1.07206e-03,3.05997e-01,-9.88023e-02,-2.28633e-03,-4.36551e-02,-7.97252e-02,6.40432e-01,-1.01385e-01,-4.88845e-02,
-3.64791e-01,4.44593e-01,-2.29340e-02,1.84518e-02,-6.58790e-03,2.82739e-02,5.24222e-02,3.25034e-01,-2.69433e-01,-9.87042e-03,-4.34999e-02,-4.62253e-03,2.00230e-01,-1.59425e-02,-2.29799e-01,4.20657e-02,6.09556e-01,2.49577e-01,5.40709e-02,1.48647e-01,-1.46438e-01,3.08843e-01,3.91176e-02,-2.80550e-02,1.05958e+00,4.04176e-03,3.82598e-01,3.69461e-02,2.21022e-02,1.86508e-02,-4.47305e-01,8.69925e-03,1.15755e-02,1.91281e-02,-4.96932e-01,1.92737e-01,-4.26568e-02,-4.05574e-02,5.49669e-01,1.45533e-02,3.34212e-03,4.01052e-01,2.79119e-01,2.67456e-01,-4.13444e-02,
-5.20116e-02,-4.94797e-02,-4.12431e-02,-3.03289e-02,-3.61710e-02,8.16063e-03,2.71801e-02,-4.37611e-02,-4.03009e-02,3.48773e-02,3.94132e-02,1.60631e-02,-3.60417e-02,8.84975e-03,-4.93299e-02,4.21484e-02,-2.17392e-02,-2.52763e-02,2.58839e-02,1.07811e-02,3.06183e-02,-6.31488e-02,2.33416e-02,-2.81909e-02,-1.41163e-02,1.24885e-02,-1.57264e-02,-5.63103e-02,-1.71472e-02,4.87601e-02,1.17195e-02,-3.85980e-03,-7.08629e-03,2.92301e-02,-3.62796e-02,-3.91738e-02,-4.68072e-02,3.92328e-02,-5.08965e-02,-4.96536e-02,-1.00094e-02,1.43405e-02,3.92024e-02,-5.21018e-03,2.29586e-02,
1.78326e-01,2.76561e-01,4.38922e-02,-3.04351e-01,-1.98683e-02,-2.08238e-03,3.87691e-02,-3.17766e-01,-4.58473e-02,2.57634e-02,-4.81432e-02,2.41895e-02,1.26684e-01,4.41549e-02,1.10370e-01,1.75746e-02,-2.90068e-01,4.09271e-02,1.69745e-01,-4.01774e-01,1.75898e-01,-6.57560e-01,2.49255e-02,-5.69862e-02,-2.46034e-04,1.63098e-01,-4.15593e-01,3.56770e-02,4.70223e-02,-3.88592e-02,-6.40285e-01,2.08883e-02,4.02616e-03,2.39981e-03,1.07463e-02,3.51139e-01,-4.05345e-02,-3.03995e-01,6.74226e-02,-1.22342e-02,-3.11054e-02,-1.58798e-01,1.28701e-01,-6.03369e-01,3.83364e-02,
-4.08209e-02,-1.32043e-01,3.00080e-02,2.74215e-01,4.21951e-02,4.00085e-02,-4.20613e-02,8.65957e-01,-3.72589e-02,-1.70828e-02,2.31710e-02,-3.58287e-02,-1.69984e-01,1.11681e-02,2.27798e-01,3.78869e-02,1.39435e-01,-2.58336e-01,-1.67191e-01,2.82597e-02,-1.20265e-01,5.06363e-01,8.95234e-03,3.66691e-02,-6.02814e-02,1.15643e-01,4.02630e-01,-4.27856e-03,-2.63541e-02,-4.06348e-02,2.48134e-01,-6.98814e-02,-2.40501e-02,4.13853e-02,-1.62920e-02,-2.84439e-01,-4.33204e-02,1.19720e-01,3.17677e-01,1.11803e-02,1.99061e-02,6.03188e-01,-8.29596e-01,-4.98415e-01,4.98521e-02,
-5.80312e-02,4.80836e-03,-3.08845e-02,-1.82197e-03,3.49883e-02,1.48879e-02,4.04771e-02,2.91536e-02,-1.20303e-02,-1.69369e-02,-4.51944e-02,3.78655e-02,-2.99337e-02,-1.87365e-02,-2.50226e-02,9.41588e-03,-6.74762e-02,-1.96435e-03,-8.46234e-03,-5.41174e-02,-1.48708e-03,-1.07075e-02,-4.18909e-02,-8.05355e-03,-2.50295e-02,-3.14093e-02,-7.03882e-02,-1.07515e-02,-3.74372e-02,-3.10318e-02,2.99840e-02,-3.84464e-02,2.61300e-02,2.61343e-03,-1.62078e-02,-2.91854e-02,4.74496e-02,-3.86238e-02,-2.57886e-02,-3.63823e-02,3.29632e-02,-6.37130e-02,2.80155e-02,-1.32187e-02,3.76027e-02,
6.90333e-01,-3.44298e-01,1.27675e-03,-3.59115e-01,-4.74631e-02,7.22099e-03,3.04265e-02,2.80713e-01,1.31487e-01,-2.19015e-02,-3.26247e-02,5.10230e-02,-7.51372e-02,-2.00213e-02,6.48052e-02,7.62732e-03,-7.85153e-02,4.68150e-01,2.52533e-02,2.97429e-02,1.33900e-01,9.38478e-02,-3.47141e-02,-1.97487e-02,-2.31969e-02,1.74917e-01,2.50755e-01,-1.32661e-01,-2.68862e-03,-1.64235e-02,-7.84875e-02,-1.64642e+00,-4.24613e-02,-3.07623e-02,-2.72182e-01,-3.18795e-01,-3.55088e-02,3.23626e-01,-1.79922e-01,-2.70785e-02,9.65230e-03,3.75361e-01,5.24881e-02,-4.11522e-01,2.03105e-02,
8.09412e-02,-2.90722e-02,3.54199e-02,1.89188e-01,-7.01303e-04,3.93296e-02,-4.58946e-02,1.37206e-01,-3.95239e-02,3.19253e-03,3.54529e-02,2.12911e-03,-1.10419e-01,4.32564e-02,2.32768e-02,-1.45063e-02,-5.83030e-01,1.62248e-01,-1.69964e-01,2.52429e-01,-7.28769e-01,2.01647e-01,4.88992e-02,1.34856e-02,-4.33882e-02,-5.37308e-02,5.19468e-01,-3.53304e-02,3.73666e-02,-1.42356e-02,5.88387e-02,-6.75435e-02,-2.15780e-02,-4.31833e-02,1.16701e-01,4.47604e-02,-1.13407e-02,-1.35349e-01,-3.17055e-01,4.66943e-02,1.33564e-02,3.25741e-02,-6.32662e+00,-6.32164e-01,7.91295e-04,
2.81396e-01,2.86483e-01,-8.49699e-03,-8.96468e-01,-4.26498e-03,3.56328e-03,1.79033e-03,-9.33809e-01,-2.39755e-01,2.07598e-02,1.97108e-02,1.26555e-02,3.31039e-01,7.95242e-03,-1.06571e-01,3.38601e-02,-1.06636e-01,-1.24227e-02,4.12488e-01,7.90072e-02,-8.92665e-02,1.28229e-01,-3.78116e-02,-8.17384e-03,9.23067e-03,-4.00996e-01,-1.40299e-01,3.79326e-02,-4.31951e-02,1.17158e-02,-5.37774e-01,8.17325e-02,-3.50010e-02,6.14590e-03,8.09105e-02,-2.62721e-01,-4.40518e-02,-4.64183e-02,-3.77964e-01,1.63616e-02,2.40733e-02,-4.03543e-01,3.08698e-01,-2.99699e-01,3.72754e-02,
1.22363e-01,2.11132e-01,-2.03051e-02,-9.88279e-02,2.72719e-02,-1.06851e-02,7.48789e-03,-9.71295e-01,-1.49693e-01,-1.21351e-03,1.67182e-02,-6.62916e-03,4.77620e-01,-2.63478e-02,-4.72601e-02,-4.12921e-02,-8.20121e-01,4.52860e-01,7.94662e-02,-2.66127e-01,4.56341e-01,8.95460e-01,5.21589e-02,8.44011e-03,-1.42701e-01,2.36549e-01,2.31645e-01,3.36679e-02,-2.18028e-02,2.54518e-02,3.85902e-01,2.23277e-01,1.47714e-02,3.84051e-02,-1.67700e-01,-2.27741e-01,-4.21724e-02,2.29411e-01,-4.81499e-01,-2.44735e-02,-4.09308e-03,2.14936e-01,1.94127e-01,-3.54059e-01,2.19649e-02,
1.98669e-01,1.14321e-01,-3.88940e-02,4.27733e-03,2.37285e-02,-2.52482e-02,3.22509e-02,-2.07750e-01,-3.62200e-02,-2.04801e-02,-3.53870e-02,1.18885e-02,-2.34327e-01,7.82534e-03,1.60565e-01,-4.68971e-02,4.54373e-01,2.03663e-01,1.46477e-01,2.40321e-01,2.62877e-01,-4.78007e-01,1.55894e-02,-1.55214e-02,2.16759e-02,-1.12799e-01,-7.83471e-01,1.61631e-02,-2.63558e-02,6.50715e-04,3.04886e-02,6.22922e-02,-1.75188e-02,-5.39315e-02,-1.40480e-01,3.38703e-01,-2.82545e-02,2.98404e-01,6.82293e-01,5.15180e-02,-4.56751e-02,2.09201e-01,-1.81792e-01,9.90596e-03,1.68214e-02,
-3.66654e-02,1.07088e-02,4.64377e-03,-1.19864e-02,1.40355e-02,1.19145e-02,-4.66891e-02,-1.54105e-02,-3.55062e-02,-1.80945e-02,4.98181e-02,-1.56229e-02,-1.34698e-02,-2.49243e-02,-7.45662e-03,1.85007e-02,4.54972e-02,-3.24434e-02,3.07222e-02,-8.13072e-03,-3.14620e-03,2.06055e-02,-4.03975e-02,-3.02433e-02,-4.47934e-02,-1.77924e-02,-3.85680e-02,-1.11234e-01,-4.68254e-02,4.01236e-02,-5.60178e-02,-1.73239e-02,1.58731e-02,8.01374e-03,5.99027e-03,1.34231e-02,-3.02867e-02,-2.99333e-02,-3.82901e-02,-4.47854e-02,1.85586e-03,-3.85498e-02,-3.41325e-03,-2.91472e-02,-2.93085e-02,
-4.77512e-02,2.19696e-02,2.10421e-02,-5.79053e-02,-2.21553e-02,-3.15358e-02,-3.89107e-03,-3.15669e-02,-3.86860e-02,-4.77239e-02,-3.99979e-02,-4.49685e-02,-9.03514e-03,-3.22696e-02,-3.20765e-02,-4.45568e-02,-4.43283e-02,-1.80098e-03,3.99364e-02,4.80443e-03,-1.93431e-02,2.92163e-02,8.03917e-03,-4.54549e-02,-6.02737e-03,-1.32258e-02,-1.63674e-02,-3.59610e-03,1.98151e-02,-4.56320e-02,-1.58092e-02,-1.58470e-02,1.66366e-02,2.86882e-02,-1.03095e-02,2.23165e-02,2.54474e-02,-2.67632e-02,-2.36177e-03,-4.05541e-02,-4.81447e-02,-3.07854e-02,-5.76947e-02,-5.01977e-02,1.25258e-02,
5.27129e-02,-1.94037e-01,-1.26161e-02,-5.58684e-01,2.43002e-02,-3.64323e-02,2.49300e-02,7.01160e-01,-6.44576e-01,4.59045e-02,2.99147e-02,-3.24552e-02,7.81285e-01,1.37800e-02,7.12799e-02,-3.43962e-03,8.60062e-02,1.07894e+00,-1.15828e-02,1.64248e-01,2.79775e-01,-7.21671e-01,-2.70640e-02,-5.01573e-02,1.00658e-02,-2.94757e-01,2.06731e-02,-4.56557e+00,1.39190e-02,3.03831e-03,5.74406e-01,-7.69221e-01,-1.15275e-02,3.12832e-02,5.67623e-01,1.38858e-02,2.54903e-02,2.76756e-01,-3.16464e-01,3.84953e-02,4.62559e-03,1.01794e-02,5.02780e-01,-6.39584e-02,4.74606e-02,
-4.47615e-02,-1.13290e-02,-1.37483e-02,-9.52220e-03,4.36812e-02,-2.36163e-02,-5.63279e-03,2.61072e-02,-2.70992e-02,1.29408e-02,3.85080e-02,-2.14670e-02,-2.54792e-02,2.85033e-02,1.24363e-02,7.98091e-03,-2.21773e-02,-3.72988e-02,9.76365e-04,-2.57732e-02,1.71060e-02,4.75349e-02,4.45029e-02,2.68976e-02,-2.24645e-02,-3.12194e-02,2.43200e-02,2.81405e-03,-1.96479e-02,-3.97668e-02,-3.40170e-02,-1.50525e-02,-1.57546e-02,-4.10498e-02,-3.93433e-02,-1.31149e-02,1.41820e-02,-2.47169e-02,-1.26722e-02,-8.64129e-03,5.43292e-03,-4.92367e-02,-2.30059e-02,-3.98040e-02,-4.33461e-03,
1.00799e-01,-2.40142e-01,-3.26859e-02,-8.62265e-01,-4.98779e-02,-3.92023e-02,3.57267e-02,-2.59468e-02,1.82792e-01,-1.05982e-02,-3.08078e-02,2.65749e-03,-4.86479e-01,-2.45157e-02,2.57357e-01,-6.91024e-03,1.32721e+00,9.29619e-02,-3.83718e-01,2.33594e-01,-2.04050e-02,2.55663e-01,2.12203e-02,-2.53487e-02,1.94461e-02,-5.23000e-02,-1.15773e+00,1.10111e-01,3.52365e-02,1.79658e-02,1.80234e-01,6.53973e-02,4.09274e-02,-3.42341e-02,-2.69151e-01,3.45428e-02,1.30316e-02,1.27604e-01,-8.53700e-01,1.10510e-02,4.92479e-02,2.63659e-01,2.78803e-01,-1.48612e-01,-5.49621e-03,
4.41131e-03,-5.26462e-02,1.24562e-02,-3.69204e-02,-1.00350e-02,3.35736e-02,-1.24339e-02,1.86152e-03,-6.16845e-03,2.11594e-02,-5.42409e-03,-4.85366e-02,-1.37775e-02,-2.83844e-02,-2.37647e-02,4.05099e-02,-3.18575e-02,4.42455e-03,-5.24433e-02,-4.51852e-02,-1.41735e-02,1.46838e-02,3.64002e-02,1.63801e-02,4.87313e-03,8.19428e-03,-2.10765e-02,-3.68051e-03,4.68733e-03,4.57449e-04,4.46931e-03,-1.75931e-02,4.74862e-02,4.83235e-02,9.22440e-03,-1.97892e-02,1.62336e-02,-2.29071e-02,-4.27479e-02,-9.36389e-03,-3.21876e-02,2.22614e-02,2.02291e-02,-2.36734e-02,-1.06884e-02,
3.10055e-01,-8.51999e-02,-3.19535e-02,2.42047e-01,4.57011e-02,-2.70493e-02,-1.33787e-02,-2.66417e-01,-2.32454e-01,3.72498e-02,1.26321e-02,5.80454e-03,-1.26821e-01,-3.57352e-02,1.82306e-01,-3.94003e-02,-2.25767e-02,-1.57941e-01,3.36971e-01,1.98460e-02,-1.57744e-01,2.13491e-01,-3.41209e-03,6.62156e-02,5.23324e-02,2.47760e-01,-4.71029e-01,2.48602e-02,-3.67584e-02,2.90192e-02,-1.25286e-01,9.78281e-02,-2.92551e-02,-3.54738e-02,4.54893e-02,-1.94144e-01,-8.52848e-04,6.45200e-02,-6.80255e-02,-2.04404e-02,-4.92257e-02,2.37307e-01,-6.87371e-02,-3.67651e-01,4.59225e-02,
3.43606e-01,5.33838e-01,-6.29576e-03,-2.22590e+00,3.37838e-02,1.65590e-02,-2.05517e-02,-4.45242e-01,-1.02368e-01,1.01180e-02,-3.71358e-02,-1.90304e-03,5.06278e-01,3.10715e-02,2.50241e-01,1.75347e-02,5.81041e-01,2.11805e-02,2.22202e-01,4.22734e-01,-8.14645e-03,-1.00580e+00,4.31704e-02,4.87073e-02,-1.48296e-01,4.26254e-01,3.82521e-01,1.15378e-02,-1.18976e-02,-5.14380e-03,-8.81010e-01,8.37346e-02,1.84154e-02,-2.25793e-02,2.79611e-01,6.79237e-02,-2.84258e-02,-9.71061e-01,-1.36922e+00,1.52102e-02,1.45964e-02,2.47010e-01,-1.77412e-01,-5.29404e-01,3.83288e-02,
1.46155e-01,-5.22900e-02,3.27288e-02,-9.28776e-02,-3.73973e-03,-5.38541e-02,3.03095e-02,2.08768e-01,-5.58464e-02,4.31222e-02,3.07379e-02,-2.01311e-02,-1.58754e-01,4.38183e-02,-7.47629e-02,-3.05395e-03,3.37477e-03,-1.55032e-02,6.92876e-02,-1.62913e-03,4.72155e-01,-2.50866e-01,3.70099e-02,2.87991e-02,4.33502e-03,1.52639e-01,-4.13229e-01,3.30154e-03,-2.07868e-02,-1.28727e-02,1.57241e-01,1.04235e-01,-6.85722e-03,-8.72632e-03,7.49085e-03,6.94992e-02,-4.81900e-02,5.34301e-02,-1.94999e-01,7.25852e-03,8.16786e-03,1.83222e-02,-1.56827e-01,-4.45751e-02,-3.47853e-02,
5.36553e-02,-1.15179e-01,-4.57408e-03,4.63416e-01,-1.41837e-02,4.43926e-02,3.55444e-02,-7.11256e-01,-1.88252e-02,-3.00817e-02,-1.97989e-02,-3.17949e-02,-2.15398e-01,-3.54745e-02,-1.82585e-01,-4.44934e-02,4.53638e-01,1.75120e-01,-1.40723e-02,3.40226e-01,1.49949e-01,-5.25015e-02,9.38645e-03,5.46878e-03,2.89863e-02,1.16623e-01,6.76878e-02,1.52711e-01,-3.83955e-02,4.64056e-03,-2.66724e-01,1.85425e-02,-5.16651e-02,4.13443e-02,-1.17856e-02,-2.52133e-01,1.07718e-02,1.10181e-01,-3.71850e-01,2.10988e-02,-6.94701e-03,-3.66137e-01,4.60044e-01,-9.71112e-02,-7.43009e-03,
-5.90899e-02,9.11676e-03,-3.43945e-02,1.55455e-02,-1.77793e-02,7.06414e-03,-3.49909e-02,-7.73501e-03,1.45212e-02,4.46744e-02,-6.84624e-04,-2.56048e-02,-3.13172e-02,-4.82159e-02,-6.09145e-03,-4.25515e-02,-3.45948e-02,-3.75484e-02,-3.66862e-02,-4.08806e-03,-3.01175e-02,-3.26144e-02,-2.18648e-02,-2.40603e-03,1.42954e-02,-5.36288e-02,-3.36176e-02,-2.12797e-02,1.54982e-02,1.79838e-02,-1.32140e-04,-2.00085e-02,-4.39744e-02,4.61447e-02,-3.20240e-03,1.44283e-02,1.22272e-02,1.75965e-02,1.62473e-02,-1.77845e-02,-1.23795e-02,2.85608e-03,8.50299e-03,-3.08812e-02,2.23168e-02,
-3.13649e-01,-1.03591e-01,1.13430e-02,-9.76811e-01,-3.16383e-03,4.59694e-02,1.30516e-02,-7.28191e-01,-2.63321e-01,4.56603e-02,-4.88796e-02,-5.44302e-03,-3.51789e-01,-3.21206e-02,2.26346e-01,4.98401e-02,2.78761e-01,2.19931e-01,2.57686e-02,-1.70367e-01,3.42727e-01,6.06613e-03,-3.88949e-03,3.74111e-02,6.72747e-02,5.92677e-03,-2.84772e-01,1.38009e-01,5.97997e-03,-3.58296e-02,-1.33499e-01,-1.27657e-01,-1.96297e-02,4.58218e-02,-2.52111e-01,4.85516e-02,1.16328e-02,-1.11072e-01,-1.47443e-01,-2.68563e-02,3.10118e-03,3.80159e-02,-3.37456e-01,1.49633e-01,-2.30054e-02,
-3.80907e-02,4.50457e-04,-4.73371e-02,-4.85094e-02,-8.16351e-03,3.34352e-02,4.45081e-02,-2.74255e-02,-4.86203e-02,-3.27170e-03,2.58150e-02,-2.17095e-02,7.86920e-03,1.56695e-02,-1.73015e-02,4.06231e-02,-1.71867e-02,2.94650e-02,-5.72968e-02,3.09656e-02,-2.42401e-02,-2.02331e-02,2.28051e-02,-4.57351e-02,-2.84572e-02,-1.54870e-02,-3.24990e-02,3.30978e-02,6.29832e-03,-9.62945e-03,-2.71753e-02,-2.04333e-02,-3.08010e-02,3.12641e-02,-1.89974e-02,-3.88904e-02,3.40534e-02,2.02132e-02,-3.41953e-02,-6.63313e-03,-4.35701e-02,4.45194e-03,2.75496e-02,7.73416e-03,2.40294e-02,
1.02440e-01,4.40609e-01,-8.61672e-03,-1.87397e-01,2.59800e-02,-4.85542e-02,5.40838e-02,7.41607e-01,-6.88793e-03,3.32405e-03,-3.81145e-02,-1.04521e-02,1.98709e-01,-4.37927e-02,7.58344e-02,-4.77547e-02,-1.02349e-01,3.39781e-01,-1.10478e-01,4.90048e-01,-3.17864e-01,5.77715e-01,1.14990e-02,-4.22755e-02,8.86488e-02,1.29732e-01,1.42260e-01,-2.67214e+00,2.85201e-02,2.97573e-02,2.68428e-01,1.25395e-01,-6.65898e-03,6.06625e-02,-1.99726e-01,-4.42655e-01,-2.03964e-02,1.71890e-01,-3.50694e-02,-1.78145e-02,-2.45210e-02,2.12192e-01,1.96960e-01,-1.01484e-01,2.14081e-02,
-4.71246e-01,-1.64548e-01,-1.26162e-02,7.18666e-02,-2.22235e-02,3.58471e-02,-4.93760e-03,-6.47519e-01,-3.25384e-01,3.99713e-02,-6.06234e-03,-2.96001e-03,-1.19749e+00,4.25007e-02,2.19048e-01,4.90739e-03,-2.13317e-01,-2.06657e+00,2.99769e-01,-4.36424e-01,3.18417e-01,-1.03838e+00,-3.50890e-02,-8.64052e-04,1.50740e+00,-1.55378e-01,-5.40237e-03,-1.47505e+01,4.66828e-02,-2.84959e-02,9.74362e-02,-3.87697e-01,-6.30182e-03,-8.27328e-03,4.09446e-01,-7.40054e-01,1.75059e-02,-2.53887e-01,-4.66807e-01,-2.66420e-02,-5.27212e-03,-3.64314e-01,-1.17390e+00,3.08687e-02,4.90007e-02,
-2.47171e-01,1.91782e-01,-3.97422e-02,6.95588e-02,1.36438e-03,-2.43848e-02,3.09064e-02,-1.01920e+00,-2.01946e-02,-3.51545e-02,-2.40803e-03,-3.94151e-02,-2.01921e-01,-3.18411e-02,7.74732e-03,-4.62818e-02,3.73625e-01,-7.28010e-01,-5.99588e-02,-1.40897e-01,1.19476e-01,-9.54915e-03,2.69251e-02,8.73006e-03,1.89546e-01,2.67676e-01,-1.14313e-01,3.20598e-03,9.87976e-03,4.42328e-02,1.37036e-02,-5.04300e-01,-3.47465e-02,-5.09864e-03,-1.69090e-01,-8.55374e-02,-3.19173e-02,5.57384e-01,-2.39781e-01,-2.57973e-02,-2.55341e-02,5.96675e-01,-1.22549e-01,5.09045e-01,1.92427e-02,
-8.90355e-02,1.96746e-01,-5.44029e-03,-6.93468e-01,-4.08293e-02,-7.12967e-03,-3.60480e-02,-1.47504e+00,-4.96638e-01,-3.78755e-02,9.99663e-03,-4.02028e-02,-9.69955e-02,-4.20149e-02,5.74870e-02,-2.31112e-02,1.79678e-01,-2.40344e-01,1.42787e-02,1.87102e-02,2.49990e-02,-3.51964e-01,-3.77511e-02,1.65604e-02,1.02641e-02,-1.36314e-01,9.05388e-02,4.06961e-02,3.94075e-03,-2.15594e-02,-4.74103e-01,-3.26907e-01,2.20177e-02,-1.42663e-03,9.36537e-02,3.46515e-01,-2.74420e-02,-6.32001e-02,-7.70800e-01,-3.56802e-02,-8.01751e-04,-1.67952e-01,-3.42891e-02,-3.68868e-01,-6.82591e-03,
8.07811e-01,-1.78033e-01,-7.17715e-03,1.00965e-01,-1.12574e-02,2.11610e-02,3.45612e-02,1.54833e-01,2.02057e-01,-4.86298e-02,4.49088e-02,1.26082e-02,-2.00821e-01,1.40026e-02,8.93453e-02,3.21068e-03,3.30673e-01,5.01280e-01,1.11497e-01,1.76058e-01,4.42436e-01,-1.91360e-01,4.37728e-02,3.46102e-02,4.63512e-02,-8.19241e-02,3.75781e-01,-7.24895e-02,2.47103e-03,4.03101e-02,1.53166e-01,-5.16942e-01,4.91561e-02,-4.61011e-02,-5.22124e-01,2.63463e-01,4.52880e-02,2.77056e-01,-6.34919e-02,-2.68903e-02,-1.43121e-02,7.14503e-02,-4.15871e-02,3.10498e-01,-3.51873e-02,
-1.40430e-01,3.84882e-01,4.43981e-02,2.16128e-01,-1.41844e-02,-4.58394e-02,1.40197e-02,-8.60363e-01,-1.66110e-01,1.32285e-03,-2.72965e-02,3.16091e-02,-5.01470e-01,-1.61604e-02,3.21859e-01,-3.61607e-02,-1.13568e-01,-1.81568e-01,-8.85300e-02,1.97430e-01,8.93316e-02,-7.57100e-01,-1.10237e-02,-4.93962e-02,2.92182e-02,-5.00969e-01,2.55502e-01,-3.55696e-02,-3.70345e-02,-4.08743e-02,-1.37360e-01,-1.26329e-01,5.66598e-02,5.70779e-04,5.63427e-03,4.68728e-01,2.53544e-02,4.53981e-02,-2.97830e-01,-2.29748e-02,-7.08563e-03,-3.02167e-01,-1.23242e-01,6.46902e-02,4.19347e-02,
-1.74768e-02,1.31785e-02,3.67514e-02,-1.82897e-02,4.03179e-03,9.12892e-03,-2.13194e-02,2.76265e-03,-7.97372e-03,-5.82276e-03,-3.55121e-02,-3.54554e-02,-5.93077e-02,-3.27457e-02,-1.45006e-02,-1.39678e-02,3.59792e-02,-2.60280e-02,-6.18607e-02,1.93314e-02,-5.00570e-02,-1.76583e-03,-7.20867e-03,4.07214e-02,-6.66121e-02,2.79612e-02,6.01966e-03,2.35225e-02,-2.90033e-02,1.96612e-02,-8.36287e-03,-3.57281e-02,2.52377e-03,-3.92752e-02,-4.74070e-02,2.62725e-02,3.01374e-02,-3.65250e-02,-3.67551e-02,2.46280e-02,3.67228e-03,3.77438e-02,-5.78778e-03,-4.60614e-02,-4.00347e-02,
5.58972e-01,
5.44363e-01,
-2.64457e-02,
4.73774e-01,
-3.63133e-01,
-4.93564e-02,
-1.49797e-03,
-2.29239e-01,
-1.87268e-02,
-1.36751e-02,
6.74821e-03,
3.32792e-01,
-2.87300e-02,
3.01301e-01,
2.84751e-01,
-8.07388e-02,
-2.58886e-02,
1.61398e-01,
-3.71598e-01,
-3.83368e-02,
6.23704e-01,
-1.35211e-01,
7.03394e-01,
-1.01340e-01,
-1.31754e-01,
-1.82928e-02,
-8.01058e-03,
-1.40738e+00,
-9.51865e-03,
1.82152e-01,
-2.58487e-02,
9.17911e-02,
1.20963e+00,
-8.18287e-02,
4.01581e-01,
-1.97578e-02,
4.99888e-01,
-1.02153e-02,
-1.93112e-02,
1.21744e-01,
9.05999e-02,
7.24153e-01,
1.52256e-01,
5.20641e-01,
-1.63365e-02,
3.07002e-01,4.96680e-01,-4.93088e-01,6.35718e-01,3.08014e-02,9.23302e-03,-1.84832e-02,-3.66184e-01,-2.27163e-02,-6.60325e-03,-6.56756e-01,-6.33267e-01,3.88672e-02,1.19866e-02,-2.47360e-01,-5.64661e-03,-3.74284e-02,-3.82247e-01,-1.26467e-02,1.71738e-02,2.56962e-01,5.29221e-01,2.03612e-01,-5.89744e-01,-1.83283e-01,1.72385e-02,3.97852e-02,-5.50466e-02,1.79662e-02,4.05912e-01,1.35423e-02,1.84513e-02,1.96804e-01,7.49262e-02,2.47956e-01,1.78250e-02,2.76914e-01,-3.78900e-02,5.57751e-02,-1.79756e-02,-3.33620e-01,6.96425e-01,-2.30181e-01,3.05167e-01,2.99757e-02,
4.90731e-01,-1.67633e+00,1.57566e-01,-3.92286e-02,-4.48465e-01,-2.42316e-02,4.22133e-02,-4.47778e-01,-3.36298e-02,9.84173e-03,3.76573e-01,9.19081e-01,-3.96774e-02,4.26324e-02,-6.28134e-01,1.28574e-02,-3.85163e-02,3.76306e-01,5.10230e-01,8.76014e-02,-6.43060e-01,7.41682e-01,6.52170e-03,3.78164e-01,-3.72536e-02,-2.13251e-02,3.14408e-02,3.68920e-01,4.98427e-02,3.68485e-01,-6.67735e-03,-1.50318e-01,-2.07314e-01,-1.91747e-01,7.62266e-02,4.16569e-02,-2.58311e-01,1.81176e-04,-3.12936e-02,-6.40819e-02,-8.30295e-01,-6.00627e-01,-6.89110e-01,-4.50127e-01,-3.90242e-02,
8.43715e-01,4.55657e-01,-5.70951e-02,9.56160e-01,2.13503e+00,-1.72880e-02,2.01111e-02,6.39749e-01,-4.39556e-02,9.84480e-03,7.75524e-01,8.89515e-01,-1.53336e-02,1.67794e-01,9.91243e-01,-5.86311e-02,3.56308e-02,4.42522e-01,9.03465e-02,-4.73234e-03,6.00633e-01,5.40198e-01,-2.30118e-01,5.82580e-01,5.02199e-01,5.37735e-02,2.04679e-02,1.51540e+00,-1.05516e-02,-1.03854e+00,-2.93613e-02,6.46716e-01,-5.71602e-01,4.67548e-01,1.05045e-01,-1.15616e-02,2.14430e-01,1.32433e-02,2.77561e+00,-1.16464e-01,-1.54895e-01,1.49708e+00,-1.66959e-01,4.95212e-01,1.79580e-02,
7.90358e-01,2.16792e-01,-4.15448e-01,3.94863e-01,1.82793e-01,2.39587e-02,-3.13310e-02,1.13001e-01,1.61289e-04,-7.15037e-03,1.37723e-01,-1.48530e+00,-8.25980e-03,7.33988e-02,-5.14393e-02,-5.10735e-02,2.74812e-03,-1.47285e-01,3.88359e-01,6.98043e-02,-1.68380e-02,-1.52148e-01,6.62404e-01,-7.26339e-02,1.60450e-01,2.63261e-02,-1.86494e-03,1.96979e-01,-4.55882e-02,1.52579e-01,-4.18810e-02,-4.19255e-02,3.88224e-02,-1.55163e-01,8.70648e-02,-3.38589e-02,1.19628e-01,3.86712e-02,7.09621e-02,2.63132e-02,7.49072e-01,1.50308e+00,4.98762e-02,3.13274e-01,2.04263e-02,
-6.47776e-01,6.78434e-01,-6.35766e-01,1.16429e+00,-8.99386e-02,2.98127e-02,1.19047e-03,-9.62864e-01,3.77621e-02,1.64302e-02,2.14367e-01,2.05666e-01,-6.94181e-03,3.07051e-01,7.03804e-02,-1.98219e-01,-4.05464e-02,5.65987e-01,1.27758e-02,-3.67947e-03,-2.50730e-01,8.36193e-01,-4.30762e-01,-2.22366e-01,-2.75660e-01,-9.55628e-03,-3.81396e-02,5.99053e-02,4.00181e-02,3.68045e-01,4.84015e-02,4.86727e-01,1.79366e-02,3.92879e-01,3.02498e-01,2.00216e-02,-2.01449e-01,-2.11205e-02,-6.48369e-02,-6.94080e-01,-5.85928e-02,-2.77710e-01,3.40307e-01,-4.31802e-02,4.82986e-03,
-1.46153e-01,-2.75779e-03,-1.87221e-01,4.21889e-01,4.59931e-01,-1.98576e-02,-4.66713e-02,-8.11254e-02,-1.80923e-02,-4.52101e-02,1.15057e-01,-5.31701e-02,3.68303e-02,-1.91809e-02,-6.25507e-01,-1.96076e-01,4.63691e-02,-3.28308e-01,2.80611e-01,-3.56984e-02,2.97266e-01,5.93519e-01,3.37609e-02,5.00796e-01,5.17963e-01,-3.22924e-02,2.90975e-02,1.06898e-01,4.21729e-02,1.75326e-01,4.67012e-03,-2.62822e-01,1.34101e-01,3.03034e-01,-2.20233e-01,4.89829e-02,-6.33907e-02,-4.67089e-02,-1.23085e-01,-4.53854e-02,-3.38335e-02,-1.46086e+00,-6.43403e-02,-3.89919e-02,4.34529e-02,
9.34984e-02,-2.16416e-01,1.06538e-02,1.56438e-01,3.57997e-01,-1.37933e-02,-4.61518e-02,2.11979e-01,3.62998e-02,-1.64015e-02,8.58758e-01,-5.25846e-01,2.61442e-03,1.38575e-01,-2.56924e-01,3.98956e-02,-1.10846e-02,-3.12276e-01,-6.90034e-01,-3.38754e-02,-2.38893e-01,-1.39238e+00,2.29205e-01,-4.14899e-01,1.00912e+00,-1.69064e-02,-4.20315e-02,6.18871e-02,-2.52529e-02,-1.00861e+00,-9.91072e-03,3.92709e-01,1.86918e-01,8.35052e-02,-1.39788e-01,2.25179e-02,1.04150e-01,-2.30453e-02,-2.19787e-01,2.69920e-02,3.14007e-01,7.00920e-02,5.62548e-02,-4.74536e-01,-6.76335e-03,
1.88058e-01,-3.12269e-01,-1.85304e-01,6.47014e-01,3.75725e-01,-3.07296e-02,1.62120e-02,-1.04551e-01,-2.76961e-02,-3.09679e-02,1.88614e-01,-8.06334e+00,4.39956e-02,-1.26441e-02,-9.80906e-01,-1.10829e-01,3.30463e-02,-9.04079e-01,-1.19410e-01,-6.36649e-02,-1.27530e-01,-1.70991e+00,9.77961e-01,5.81686e-02,5.80004e-01,-9.08285e-03,-2.66184e-02,-4.48378e-02,1.68874e-02,-2.38416e+00,3.82912e-02,3.96175e-01,7.30978e-02,-1.03530e-02,-2.89963e-01,-6.72715e-03,2.18632e-01,1.73625e-03,-8.28553e-02,2.19473e-02,3.39142e-01,-1.07902e+00,7.69437e-02,-4.74540e-01,-4.66729e-02,
2.36397e-02,6.13244e-03,-4.07558e-02,-5.32152e-02,-1.66833e-03,-8.34091e-03,2.23275e-02,7.15772e-04,4.03825e-02,5.77496e-04,2.53452e-02,2.51553e-02,-4.62106e-02,-5.37000e-02,2.17069e-02,8.09301e-03,-3.25577e-02,-1.58327e-02,1.36880e-03,3.17158e-02,-4.90891e-02,1.26275e-02,-3.86769e-02,1.63896e-02,-2.99282e-02,-3.27137e-03,-1.99831e-02,-2.60578e-03,3.30160e-02,5.92224e-02,-3.26182e-02,-6.24619e-02,-4.85982e-02,-7.92645e-02,-2.09891e-02,-1.20030e-02,-5.53969e-03,-2.13795e-02,-2.36302e-02,-2.98660e-03,-2.15330e-02,3.30548e-03,-2.67691e-02,3.18333e-02,4.51932e-02,
1.11354e-02,2.00926e-02,1.20871e-02,-2.59093e-03,3.45781e-02,-3.43131e-02,-3.88052e-02,-2.42908e-02,-2.97418e-02,3.42853e-02,1.10328e-02,-2.07162e-02,-1.65779e-02,-5.40809e-03,-3.64640e-02,4.35974e-03,-2.94013e-02,-5.08145e-02,-6.89843e-03,-3.76118e-02,-1.33598e-02,-1.97824e-02,-1.04278e-02,1.40362e-02,6.85094e-03,-3.97941e-02,-1.51262e-02,7.18931e-03,1.89712e-02,1.42272e-02,-3.22110e-02,-6.41343e-02,-3.10053e-02,-3.55058e-02,-5.74105e-03,-2.48996e-02,-5.85115e-04,-3.79080e-02,-3.10377e-02,-6.54575e-02,-3.78487e-02,2.19512e-02,-2.30930e-02,-4.60425e-02,-4.73247e-02,
-8.94600e-01,3.38937e-01,-4.68011e-01,-5.25820e-02,-1.75565e-01,-3.88219e-02,-1.34906e-02,-4.10688e-01,2.58363e-02,-2.45468e-02,9.19126e-03,-6.80808e-01,1.13043e-02,-4.39088e-02,-2.41487e-01,-6.20938e-02,-5.47139e-02,-4.20148e-01,-5.74156e-01,-4.82547e-02,-1.11596e-01,6.85953e-01,3.69502e-01,6.30982e-01,-2.30626e-01,2.84490e-02,-2.12691e-02,2.04713e-01,-1.64022e-02,-9.60955e-02,4.43023e-02,4.69732e-01,9.63957e-02,-1.98297e-02,5.35148e-01,4.63465e-02,-2.48458e-01,1.99540e-02,-3.70575e-02,-7.48035e-03,2.59553e-01,3.82995e-01,3.97923e-02,1.39620e-01,3.01896e-02,
5.21834e-01,9.41899e-02,2.44723e-02,-1.54009e-02,1.85812e-01,2.40147e-02,-3.33613e-02,3.19749e-01,2.92716e-02,1.88777e-02,-1.88744e-02,8.99781e-02,2.02810e-02,-6.69769e-02,4.12001e-02,4.54880e-02,-3.64998e-02,-5.40623e-02,2.43104e-01,3.97718e-02,-4.01641e-02,-2.00668e-01,1.33639e-01,-1.56821e-01,7.65262e-02,-4.85451e-02,5.28151e-02,-1.15419e+01,3.88458e-02,-2.65632e-02,-1.00039e-02,-1.14929e-01,3.10785e-03,-6.62317e-02,7.67898e-02,-1.53792e-02,2.02643e-02,-5.74208e-02,1.75789e-01,5.33796e-02,-1.68738e-01,-4.19000e-03,2.38072e-02,-1.99698e-01,-3.40436e-02,
5.72321e-02,-5.09133e-02,1.40467e-02,1.16448e-02,4.09893e-02,5.17579e-03,-7.85084e-03,1.25605e-02,1.77760e-02,1.90365e-02,-4.57337e-02,4.77439e-02,3.15822e-02,-2.63747e-02,-2.32643e-02,-1.33800e+01,-1.17205e-02,-4.14113e-02,3.32630e-02,-2.57680e-02,1.13753e-01,3.78825e-02,-1.72247e-02,9.29016e-03,5.07790e-02,-8.52633e-02,3.80231e-02,-1.41569e+00,3.48124e-02,-1.65546e-02,-3.65496e-03,7.66861e-02,-1.49831e-03,-2.96137e-02,-3.11392e-02,-4.37964e-02,7.16711e-02,6.47122e-03,-2.95338e+00,-4.87322e+00,6.86357e-02,-1.99397e-02,-4.90886e-02,-8.13208e-03,-1.51609e-02,
4.73009e-01,-3.39625e-01,2.62608e-01,3.95319e-01,-1.16263e-01,-1.49145e-02,3.09829e-02,-2.52855e-01,3.71603e-02,8.87449e-03,-6.95083e-02,6.78697e-02,2.54292e-02,-1.82725e-01,-7.36246e-01,3.11728e-02,5.68518e-02,-1.31986e-01,2.53002e-01,-2.73436e-02,-1.14511e-01,4.75471e-01,4.29574e-01,1.53928e-01,-1.52627e-02,4.83034e-02,-3.97391e-02,-4.12502e-01,-3.47624e-02,3.53124e-02,2.96300e-04,-8.77467e-02,4.98735e-02,3.09335e-01,-5.82743e-01,3.33509e-02,-1.53757e-01,3.02608e-02,-2.42308e-01,6.63035e-02,2.88841e-01,-7.17413e-01,9.40028e-02,-1.31134e-01,-1.74216e-02,
-8.08644e-02,-4.38316e-01,-7.34582e-02,1.30448e-01,3.99062e-02,1.82523e-02,3.91007e-02,-1.91135e-01,1.65015e-02,3.48982e-02,-2.23468e-01,-5.27434e-02,-2.27494e-02,2.03387e-01,-3.80799e-02,2.08912e-01,9.75891e-03,1.13780e-01,1.23220e-01,-8.43221e-02,7.63110e-02,-8.26323e-03,-2.52445e-01,1.01744e-01,5.15144e-02,5.05656e-02,-3.79890e-02,-1.21000e+00,-3.35901e-02,-4.91200e-02,4.80022e-03,-1.28322e-02,-7.83823e-02,-6.56073e-01,-1.37889e-02,-2.37208e-02,1.52846e-01,3.48805e-02,1.68581e-01,6.42056e-01,1.31042e-01,-5.67019e-02,-2.96357e-02,2.15699e-01,-1.75419e-03,
-1.33452e+00,3.54058e-01,-5.26677e-01,4.76605e-01,-8.08971e-01,-2.11188e-03,2.84639e-02,-1.08313e+00,3.24373e-02,-3.39403e-02,-1.75142e-01,-8.84810e-01,2.61913e-02,1.85231e-01,1.59278e-01,-2.63388e-02,4.01493e-02,-1.71214e+00,-6.61664e-01,2.85558e-02,-7.23513e-02,-1.90741e+00,-6.22048e-01,-3.16125e-01,-1.63603e-03,-1.60683e-02,2.81092e-02,1.88516e-01,-4.31410e-02,-5.79180e-01,1.97594e-02,-1.80113e-01,1.81557e-01,-1.58930e-02,4.27962e-01,-1.86889e-02,1.24715e+00,2.10445e-02,2.03131e-01,1.62611e-02,4.28757e-01,-9.40543e-01,1.07241e-01,7.84022e-01,-3.40710e-02,
4.27157e-01,-8.43896e-01,-3.34278e-02,2.52525e-01,2.14815e-01,-2.85475e-02,-7.15050e-03,-2.17104e-01,-4.74827e-02,-2.16496e-02,-3.18960e-01,-4.71809e-01,-3.26462e-02,5.29345e-02,-5.19340e-01,1.39403e-01,-1.17954e-02,-3.93591e-01,3.12521e-01,7.57520e-03,-6.98462e-02,-8.01916e-01,1.18559e-02,-2.31048e-01,-3.02693e-01,4.45945e-03,4.78836e-02,2.21210e-01,-4.15891e-02,-6.77209e-02,2.42290e-02,4.15817e-01,-3.61216e-03,6.43152e-02,2.77095e-01,-4.50421e-02,-9.82403e-01,-2.31427e-02,5.05298e-02,-9.59591e-03,3.06543e-01,1.55999e-01,2.58679e-01,-3.85998e-02,2.98687e-02,
6.29607e-02,-3.00190e-01,-7.28239e-02,5.60407e-02,-6.04642e-02,-2.63445e-02,-6.79232e-03,-9.82907e-03,3.72136e-02,-1.45499e-02,-2.56751e-01,-8.41967e-02,7.27462e-03,6.39938e-03,-1.56060e-01,2.08701e-01,-1.40828e-03,1.65808e-01,3.40745e-03,-1.81094e-02,-2.34473e-02,3.12309e-02,-1.42663e-01,-1.42093e-02,5.56768e-02,4.51381e-02,3.26853e-02,-1.06659e+00,5.12557e-02,-2.38046e-02,-3.23109e-02,-6.73800e-02,-9.77659e-02,-4.42257e-01,2.69591e-03,-4.14450e-02,6.70841e-02,-1.73328e-02,3.32455e-01,6.65900e-01,1.56980e-02,6.05857e-02,-1.51957e-02,-1.61811e-02,-2.98997e-02,
-4.62996e-01,2.60984e-01,-3.79512e-01,-5.31335e-01,-1.99709e-01,-4.94819e-02,4.27187e-02,-2.33362e-01,-1.15539e-02,-5.88460e-04,4.45493e-02,-8.09214e-02,-3.17023e-02,9.27683e-02,3.89619e-01,-4.17276e-01,-3.02124e-03,-3.64086e-01,-1.07000e+00,-9.52140e-03,7.08322e-02,1.72829e-01,-3.39709e-01,3.96666e-01,2.62222e-01,-1.00672e-02,4.72163e-02,-5.74603e-02,6.08856e-03,-9.54502e-03,3.54150e-02,-6.60600e-02,1.29751e-01,-1.03549e+00,4.95707e-01,4.71909e-02,-3.02976e-01,-2.59867e-02,-2.55273e-02,2.27215e-01,-1.29235e-01,1.24503e-02,1.01225e-01,5.49389e-02,-1.12931e-02,
-1.00447e+00,-2.78998e-01,1.34893e-01,-5.59615e-01,4.12011e-01,5.48711e-02,4.64424e-03,-4.44216e-01,2.87729e-03,2.73439e-02,-2.78693e-01,2.43666e-01,-1.98656e-02,5.95710e-02,4.52497e-01,-3.71964e-02,-3.11708e-02,-1.95437e-02,-2.71133e-01,-1.24736e-03,2.47175e-01,-6.75636e-01,-4.71104e-01,1.00920e-01,4.57223e-01,-1.27297e-03,-3.56462e-02,-2.54045e-01,-3.11094e-02,8.37666e-01,2.17569e-02,4.76147e-01,2.69545e-01,-9.50659e-02,-9.66948e-01,-4.49666e-02,-3.03481e-01,-3.37685e-02,-8.65181e-02,9.16159e-02,2.10690e-01,-5.98014e-01,-8.59144e-01,1.79586e-02,-2.99018e-02,
-4.83453e-01,3.68087e-01,-1.00926e-01,5.67668e-01,4.58326e-02,6.86336e-02,2.12517e-02,8.06617e-01,-3.89498e-03,1.62033e-03,5.58816e-01,-1.00581e+00,-4.15036e-02,6.49041e-02,-5.88891e-01,1.07637e-01,-1.03172e-03,-4.25409e-01,-4.58632e-01,5.41771e-02,-2.36501e-01,-2.59846e-01,-1.74367e+00,6.28372e-02,-1.98897e-01,-3.10968e-03,4.32439e-02,3.13208e-01,4.72588e-03,-1.53236e+00,2.58500e-02,3.85266e-01,-5.20412e-01,2.45806e-01,8.90863e-01,2.34117e-02,6.60291e-01,2.56591e-02,5.83140e-01,-1.23894e-01,2.60481e-01,-4.38434e+00,1.73700e-01,-1.85780e-02,3.21692e-02,
-1.74260e-02,-1.17964e-02,-1.64653e-02,-4.83719e-02,-3.06853e-02,-4.99354e-02,-9.21970e-03,-2.29217e-02,2.02244e-02,-1.36451e-02,-3.17008e-02,-2.17163e-02,-2.89349e-02,-1.74315e-02,1.50635e-02,-5.00130e-02,-4.11669e-02,3.68717e-04,1.54974e-02,-2.84704e-02,-1.57276e-02,-6.19569e-02,-3.36694e-02,-2.18518e-02,-7.00214e-02,-6.03182e-03,1.54811e-02,-3.18041e-02,3.23084e-02,-1.88499e-02,-1.54305e-02,-3.92945e-03,-3.89611e-02,-1.35807e-02,-2.70468e-02,-7.02850e-03,-4.43231e-02,1.39199e-02,-1.81929e-02,-2.15129e-02,-3.88128e-02,-8.62904e-03,1.54602e-02,-1.32184e-02,-1.67518e-02,
2.19654e-01,5.98040e-01,-2.78662e-01,1.50493e-01,4.82892e-01,5.70041e-02,-7.52428e-03,2.64909e-01,2.55186e-02,-2.91457e-02,2.29750e-01,-4.80400e-02,-2.27193e-02,6.09704e-01,-1.68502e-01,2.83787e-01,2.53229e-03,1.37065e-01,-2.09037e-02,6.84379e-03,2.59827e-02,4.80873e-01,3.73391e-01,1.00738e-01,1.30396e-01,7.95729e-02,-5.15404e-02,4.56440e-01,3.76130e-02,2.64422e-01,-8.59854e-03,2.71265e-02,-1.83404e-01,-4.77879e-01,-2.02693e-01,-4.31741e-02,2.37485e-01,-6.65033e-03,5.25291e-02,2.42292e-02,-5.03757e-01,1.56598e-01,-4.79527e-03,1.42958e-01,-2.74444e-02,
5.85400e-01,8.43137e-02,-3.79227e-01,5.31848e-01,1.43473e-01,-3.48192e-02,5.83027e-03,-3.77737e-01,-8.11545e-03,5.50443e-02,-6.30531e-01,-4.74913e-01,-1.73768e-02,9.76822e-02,-9.57521e-02,4.76468e-02,-2.51500e-02,-6.20482e-01,1.50925e-02,-1.55734e-02,3.80905e-03,-1.37061e+00,8.81873e-02,-2.16780e-01,-7.77607e-02,-1.73536e-02,-4.65636e-03,2.29848e-01,4.82033e-02,1.46566e-01,-3.20895e-02,-2.75899e-01,7.20732e-02,1.48182e-01,4.02830e-01,-3.45322e-02,5.15020e-01,-3.81983e-02,4.11484e-02,-3.88133e-02,3.36807e-01,-6.90883e-01,-9.32261e-02,7.13032e-01,-3.00332e-02,
1.14184e+00,-1.05492e+00,3.15851e-01,1.29687e-01,-4.05978e-01,7.45520e-03,1.13701e-02,-5.48734e-02,1.25953e-02,-3.16999e-02,5.96187e-01,-7.78715e-02,-1.05005e-02,8.93734e-02,-4.34835e-01,-3.83457e-02,-3.32224e-02,5.45613e-01,-9.23946e-01,-8.09572e-03,-1.58179e+00,1.48827e+00,-1.19117e+00,7.17700e-01,-1.82040e-01,-4.02187e-02,-2.76156e-02,1.69551e-01,2.90955e-02,-5.01038e-01,-2.85937e-02,8.56550e-01,-4.47356e-01,-2.79126e-01,6.05642e-01,3.34713e-02,-5.85178e-01,-2.07252e-02,1.51855e-01,1.16070e-02,8.37582e-01,-2.88235e+00,5.96640e-01,-3.32898e-02,1.96963e-03,
1.79624e-01,-1.60560e-01,-1.32253e+00,2.47084e-01,-1.74889e-01,7.29430e-03,-4.00608e-03,-4.51311e-03,3.50075e-02,-1.96590e-02,3.43195e-01,-6.19117e-01,5.08226e-03,9.02299e-03,2.46158e-01,-1.15754e-02,1.47469e-02,-2.87553e-02,-9.78504e-02,-4.73016e-03,-3.20903e-01,1.95145e-01,4.98368e-01,1.13275e-01,9.92731e-02,-1.61276e-02,1.97401e-02,-2.42603e-03,5.85137e-03,-7.33882e-02,1.01363e-02,5.78530e-01,5.82693e-02,1.80069e-01,7.01263e-02,2.58028e-02,-3.03465e-01,-1.30743e-02,-1.28567e-01,-2.69765e-02,-3.57917e-01,3.43614e-01,2.23058e-01,1.65754e-01,-2.38045e-03,
5.42122e-02,1.05769e-01,-2.30734e-02,-8.59447e-02,4.23860e-01,-3.67906e-04,-5.61285e-03,1.33507e-01,-3.78653e-02,2.02104e-02,-4.95099e-02,1.50802e+00,4.86912e-03,5.27866e-02,-6.27771e-01,-1.31982e-01,2.22739e-02,-7.06920e-01,2.83642e-01,6.49254e-03,3.70249e-01,-1.60979e+00,-2.95900e-01,5.31277e-02,2.37248e-01,7.34199e-02,-4.65243e-02,-7.63931e-02,-3.55804e-02,-2.16674e+00,7.15563e-03,4.36047e-01,-5.95252e-01,-4.37692e-01,9.34080e-01,-3.73412e-02,-5.83279e-01,-3.37869e-03,1.25330e+00,1.23046e-01,-5.71390e-01,-2.21959e+00,-9.36637e-01,2.95674e-01,-2.12052e-02,
2.14894e-01,-2.24640e-01,2.01490e-01,5.69899e-01,8.85861e-03,-1.47004e-02,-1.17834e-02,-6.30712e-02,3.13360e-02,5.18634e-02,2.94308e-01,-8.86208e-02,-1.36890e-02,-1.09607e-01,-1.47750e-01,-1.68640e-02,-1.86233e-02,-3.50604e-02,-1.21253e-01,-1.48612e-02,3.20164e-01,1.92831e-01,2.33922e-01,6.84607e-02,-8.09884e-02,2.70356e-02,3.61291e-02,2.46292e-02,1.21071e-02,2.45534e-01,-5.73050e-03,4.28899e-01,-1.14592e-02,-1.18065e-01,1.21144e-01,-2.65446e-02,-1.34854e-01,2.62560e-02,5.36181e-02,2.67573e-02,7.86449e-03,-8.13414e-01,-3.42295e-01,-2.72480e-01,3.83585e-02,
9.43151e-02,1.92135e-01,-3.35225e-01,1.57481e-02,-3.59488e-01,-3.34132e-02,2.71701e-02,-1.27152e-01,4.08903e-02,3.81796e-02,-2.97083e-02,-2.48571e-01,3.91000e-02,3.72933e-02,3.27381e-03,-2.76174e-02,4.15340e-02,-2.11127e-01,1.13579e-01,-2.62373e-02,9.79115e-01,-5.25848e-01,1.59167e-01,-7.50936e-01,-1.32277e-01,-4.41313e-02,1.40964e-02,1.38450e-01,-1.28621e-02,3.99167e-01,1.88425e-02,3.45577e-02,2.09397e-01,-1.00458e-01,2.59515e-02,-1.22053e-02,2.77462e-01,5.05179e-02,-1.16502e-02,2.70495e-02,1.41710e-01,-1.65366e-01,-9.33404e-02,1.66658e-01,-2.86876e-03,
-7.72882e-02,3.50125e-02,-1.30133e-01,9.62530e-03,-2.61038e-01,-3.16360e-02,-3.89036e-02,-1.59060e-01,-1.57551e-02,-4.93579e-02,1.81752e-01,-3.51253e-01,2.80721e-02,4.79638e-02,1.58961e-01,2.40998e-02,-1.78856e-03,1.71499e-01,-1.20996e-01,1.22808e-02,-8.92560e-02,-6.80584e-01,3.16344e-01,-3.19957e-03,-9.60702e-02,1.31051e-03,-2.95815e-02,-2.54634e-02,-2.18120e-02,2.24222e-01,2.12798e-02,2.46982e-02,1.16920e-01,1.95616e-01,5.46055e-02,-2.27696e-02,-2.12459e-01,5.13249e-02,1.42961e-02,-3.93581e-02,-3.14340e-01,3.88747e-01,-1.18484e-01,2.78510e-01,3.21012e-02,
-4.73711e-01,-3.34056e-01,7.03434e-02,-3.09488e-01,-1.11458e-02,4.26455e-02,-1.09903e-02,4.14996e-01,3.12736e-02,1.68877e-02,-7.64984e-01,4.19702e-01,-2.94622e-02,-1.48505e-01,2.94749e-01,-1.95092e-02,2.11163e-03,-2.84972e-01,3.40062e-02,-6.49309e-02,1.33385e-01,-5.30619e-01,-5.05563e-01,-4.30541e-01,3.45047e-01,6.85948e-02,-2.85595e-03,6.00164e-02,-4.76651e-02,4.10815e-02,2.76724e-02,7.28748e-01,-5.41090e-03,-3.18770e-01,-4.51553e-01,9.28242e-03,1.25979e-01,-4.52256e-02,-1.22111e-01,3.92691e-02,-5.77186e-01,-4.98070e-01,-1.59740e-01,4.11858e-01,4.37151e-02,
-3.47452e-02,-5.62877e-01,-7.59964e-02,3.00511e-01,-5.12008e-01,-7.71803e-03,-4.60177e-02,-2.21924e-01,-1.86938e-02,-3.69566e-02,5.83793e-02,3.09748e-01,4.47468e-02,8.09130e-02,-1.09278e-01,-6.24338e-03,-4.47756e-02,-2.51275e+00,1.96380e-02,4.91442e-02,-9.87974e-02,5.88258e-01,-4.51370e-01,-5.19407e-01,-2.60791e-01,-2.38945e-04,7.01440e-03,-7.99386e-02,4.19571e-02,-6.99578e-02,-2.79666e-02,5.54071e-01,-5.82477e-02,1.12388e-01,4.14031e-01,4.15861e-02,-6.93064e-01,-3.73466e-02,1.35605e-01,3.40611e-02,3.15413e-01,-1.75090e+00,1.84140e-01,-1.60688e-02,-1.57526e-02,
-1.38434e-01,9.11129e-03,-9.01217e-02,-1.49529e-01,-3.41018e-01,-2.70413e-02,-2.00497e-02,-1.53481e-01,-3.59699e-02,5.50610e-02,-1.03600e+00,3.87556e-01,2.18425e-02,-2.64735e-02,1.16356e-01,-2.39612e-02,2.66114e-02,6.53456e-01,-2.00280e-01,-5.22265e-02,1.37945e+00,-1.09744e+00,-1.02896e-01,-3.10493e-01,2.06924e-01,-2.36830e-02,1.37816e-02,-8.22573e-02,-4.38402e-02,3.73843e-01,-4.14282e-02,-8.15492e-02,-5.60787e-02,-4.09418e-02,-1.73546e-01,-6.39418e-03,2.91761e-01,-2.79942e-02,3.35993e-02,8.01063e-03,-4.26322e-02,-1.60489e+00,-5.75866e-01,-1.79767e-01,-2.36223e-02,
