// Neural Network File Format by Kyle Julian, Stanford 2016
7,4,9,45,
4,45,45,45,45,45,45,9,
0,
-8000.0,-100.0,-100.0,0.0,
8000.0,100.0,100.0,40.0,
0.0,0.0,0.0,20.0,-0.432599379632,
16000.0,200.0,200.0,40.0,3.102300001,
-1.17220e-03,-7.77634e-04,-5.89716e-03,4.63146e-04,
-1.29463e+00,-6.47670e-02,1.06945e-01,3.08930e-01,
2.13165e+00,4.66049e-02,-4.30243e-02,-6.89290e-01,
3.09677e+00,-6.00785e-03,1.26444e-02,1.61777e-03,
-3.66355e-02,-1.52415e-01,4.44507e-01,3.68932e-02,
-8.79585e-02,-1.13875e+00,2.26156e-02,9.15495e-03,
-2.16611e-01,1.00683e+00,-6.88137e-02,7.68615e-02,
2.06228e+00,-2.33345e-01,2.63995e-01,2.81902e-01,
2.18345e-02,3.11977e-01,-3.28702e-01,-7.31373e-03,
-5.95344e-01,-5.77707e-01,8.59087e-03,3.36887e-02,
6.99509e-01,-7.10298e-02,1.08958e-02,6.21568e-02,
1.49283e-01,8.14265e-02,2.35460e-01,2.54703e-02,
-2.81786e+00,-1.07892e-01,1.60339e-01,-5.92784e-01,
-2.07432e-02,-8.39028e-01,8.42862e-01,9.61804e-03,
-8.62456e-01,2.72956e-01,-2.50244e-01,1.57143e-01,
7.06336e-01,9.87772e-01,2.15409e-01,1.11119e-01,
-2.94807e+00,2.80152e-01,-2.58211e-01,-1.68371e-01,
-2.89716e+00,2.26458e-01,-2.04743e-01,3.50907e-01,
3.57520e-01,4.70576e-02,-9.21896e-03,-8.67659e-01,
-2.07307e+00,4.41667e-02,-1.07669e-02,-9.21550e-01,
3.02025e+00,5.29533e-02,-3.92096e-02,1.17134e-02,
7.81334e+00,-1.04366e-02,-2.83145e-03,-2.00020e-04,
-3.46904e+00,6.65783e-02,3.79136e-03,8.62025e-02,
-2.03602e+00,3.28091e-01,-2.49619e-01,-1.30992e-02,
-4.94936e-02,1.24896e-01,-1.36283e-01,2.48674e-01,
4.65208e-01,-1.16265e-02,1.09998e-02,-5.78371e-01,
-1.36704e+00,1.90814e-01,1.38609e-01,-1.41077e-02,
1.37024e-02,1.14173e+00,1.08881e-02,-6.11463e-03,
-2.87072e-01,2.20301e-01,1.34525e-01,2.40177e-01,
-1.95378e+00,5.38861e-01,-5.23283e-01,8.11827e-02,
-2.75527e+00,1.64843e-01,-1.43522e-01,-3.75548e-01,
1.06875e-02,1.58794e+00,1.23258e-04,-5.19667e-03,
5.15002e-02,-3.78781e-01,8.14074e-02,3.09163e-01,
-2.19032e-02,8.87580e-01,-8.87059e-01,8.62036e-03,
-5.20445e-02,1.43993e+00,-6.30410e-03,-6.16835e-03,
-2.15304e-02,1.19730e+00,4.79635e-03,7.21918e-03,
-1.41046e-01,8.26415e-01,1.94673e-02,-7.00579e-02,
-1.19938e+00,-3.36739e-02,4.74260e-02,-8.76635e-01,
7.85785e-01,2.74240e-01,-2.67006e-01,3.28488e-02,
1.97580e-01,-1.71755e-01,1.59049e-01,-1.18878e-02,
-2.91098e+00,1.16118e-01,-1.06067e-01,-8.04503e-01,
-2.23749e+00,-8.40952e-02,1.52422e-01,2.79642e-01,
1.60637e-01,1.17055e-01,-4.11854e-01,1.30170e-01,
4.03910e-01,2.69228e-02,-8.49998e-02,3.18232e-01,
6.22896e-01,2.31244e-01,-2.47526e-01,-8.66822e-01,
-5.68344e-03,
8.46298e-02,
-2.34020e-01,
1.39284e-01,
-3.39431e-03,
3.41863e-02,
1.18391e-02,
7.53623e-02,
4.60419e-02,
1.02331e-01,
1.15554e-02,
1.15340e-02,
-2.42376e-01,
-1.34346e-01,
2.52601e-02,
-5.24745e-01,
1.22991e-02,
1.89580e-01,
-2.61864e-01,
-3.89034e-01,
1.41810e-01,
6.96135e-03,
1.23132e-01,
-1.61379e-01,
9.49437e-02,
-1.14850e-01,
-8.53324e-02,
-2.62500e-01,
-1.01702e-01,
6.27535e-02,
-9.29615e-02,
-2.30880e-01,
1.86969e-03,
-1.46354e-01,
3.20220e-01,
-5.48176e-01,
3.34085e-01,
-4.20790e-01,
7.70479e-02,
2.78343e-02,
-2.89139e-01,
1.40728e-02,
3.97715e-02,
-2.28542e-02,
-4.06985e-01,
-6.14308e-03,-3.55412e-02,-1.28704e+00,2.02419e-01,1.20791e-01,3.81555e-01,-2.82493e-01,-3.33401e-02,-2.30895e-01,1.90697e-01,4.26086e-01,1.28181e+00,7.14430e-02,-2.42253e-02,2.38262e-01,-9.36391e-01,3.27911e-01,-8.73893e-02,-2.16399e-01,-2.14199e-01,4.55054e-01,-2.28395e-01,3.08169e-02,1.15775e+00,1.05450e-01,-2.29886e-02,-9.49113e-01,-6.08410e-01,-1.18710e-01,5.35194e-01,-1.56064e-01,1.68554e-01,3.31811e-01,9.41575e-01,8.75900e-02,5.06101e+00,4.52141e-01,-1.10225e-01,-1.09938e+00,3.79195e-01,-2.04018e-01,-3.51116e-01,-1.89781e-01,8.41373e-02,-1.23228e+00,
2.72067e-02,-5.92875e-01,-5.74104e-01,-5.89137e-01,-4.09187e-01,-1.16524e-01,-2.29577e-01,2.40442e-01,3.30669e-01,2.92683e-01,4.25064e-01,-3.61682e-01,8.44387e-01,-3.59207e-01,-2.35843e-01,9.48300e-01,2.31909e-01,5.88479e-02,-8.54047e-02,-4.41830e-01,-4.48404e-01,2.07448e-01,-2.90486e-01,-5.92068e-01,3.45392e-01,5.04796e-01,-2.24644e-01,-2.21566e-01,4.75463e-01,2.58301e-02,4.83093e-01,-1.26812e-01,2.77554e-01,-1.39594e-01,-4.71710e-03,-6.48041e-01,4.97881e-01,6.54552e-02,8.36647e-02,3.13232e-01,1.06745e-01,-2.60674e-01,4.10698e-01,-4.01241e-01,-8.12944e-01,
-2.88560e-02,-6.29802e-02,-2.96763e-01,3.08408e-01,-2.58158e-01,1.66996e-01,-4.42377e-02,2.27194e-01,2.90226e-01,4.08615e-01,-2.21824e-01,-3.11955e-02,1.27840e-01,2.47577e-02,1.16145e-02,-5.51744e-02,-3.98284e-01,-2.24883e-01,1.84372e-01,5.16216e-02,2.49847e-01,-1.54741e+01,1.55794e-01,8.21364e-01,-4.75113e-02,-1.74780e-01,-1.79214e-01,-1.09700e-01,5.46440e-02,-1.26239e-01,-2.28062e-01,-2.41829e-01,2.38799e-01,-3.71631e-03,2.65212e-01,-6.48045e-01,2.59293e-01,-4.52548e-02,6.37762e-02,-3.31853e-01,-4.45570e-01,-1.29462e-01,-3.60083e-02,1.39394e-01,5.53250e-01,
-5.04428e-02,-6.77413e-02,-5.94904e-02,5.27323e-02,9.83605e-02,-1.82764e-01,-1.74978e-01,1.27613e-01,-8.18469e-01,-3.41726e-02,2.39865e-01,2.34604e-01,-3.21082e-01,-3.78068e-02,5.11747e-01,-7.05097e-01,-3.16891e-02,-5.00123e-03,3.61879e-01,3.27802e-01,3.18021e-02,-4.51011e-01,-2.08984e-01,-5.86556e-01,8.60859e-01,8.15637e-02,2.95135e-01,2.26395e-02,-3.36065e-01,1.04019e+00,-1.18645e-02,-9.65641e-02,4.36344e-02,-1.40964e+00,-9.26182e-02,-3.61988e-02,-1.21753e-01,7.41642e-01,6.41245e-02,-5.33791e-02,3.86091e-01,-5.01292e-02,-3.78804e-01,-9.56636e-01,1.74511e+00,
3.72379e-02,6.13275e-02,4.61172e-01,-6.38971e-01,-1.15871e-02,2.87383e-01,1.39509e-01,-8.74744e-02,-1.12734e+00,2.58007e-01,2.49086e-01,-9.65314e-02,-2.25701e-01,-2.77554e+00,-1.10807e-01,1.97355e-02,2.27785e-01,-1.66694e-02,4.51738e-01,-1.98471e-01,-4.21881e-01,5.55216e-01,-8.13103e-02,-7.66290e-02,3.34957e-01,-2.35600e-01,-1.52479e-01,2.27244e-01,2.16278e-01,2.67884e-01,3.02936e-03,-4.28000e-01,7.77110e-02,-6.33934e+00,4.17396e-01,-4.62897e+00,4.16721e-01,4.25250e-01,-8.42002e-01,-6.18060e-01,1.18848e-02,3.18285e-02,-2.27023e-01,1.28323e-02,-2.30378e-01,
-4.31883e-02,-4.21667e-01,-4.10643e-01,-2.92928e-01,2.72388e-01,2.04785e-01,4.55928e-01,-4.33646e-01,-3.43783e-01,5.22128e-01,-4.45079e-01,-2.91118e-01,7.87987e-01,-3.29700e-01,-1.93288e-01,-2.93263e-01,2.12065e-01,-4.83822e-01,1.90961e-01,-2.58339e-01,-7.04470e-02,3.33692e-01,5.70998e-02,2.79734e-01,-2.24115e-02,4.35708e-01,6.66696e-02,-5.24690e-01,-3.90535e-01,7.21782e-02,-2.01148e-01,-9.22079e-02,-6.93659e-01,-5.95105e-01,6.47585e-02,-5.43401e+00,2.03198e-01,6.40530e-01,2.19087e-01,2.12768e-01,4.57089e-01,-4.62641e-01,8.35238e-02,1.02620e+00,1.22286e+00,
8.27191e-03,-5.02298e-02,-6.83668e-01,-3.05511e-01,-5.32689e-01,3.66714e-01,-2.54201e-01,4.42096e-02,-8.34349e-02,3.34256e-01,8.74639e-02,-6.40808e-01,9.23143e-02,1.98762e-01,1.46854e-01,-5.92314e-01,6.37167e-01,-3.05201e-01,5.54282e-01,-1.04793e-01,-3.53697e-01,3.30018e-01,-4.52685e-02,-9.72758e-01,1.05186e-01,1.35172e-01,9.10171e-02,1.98666e-01,2.24093e-01,-3.36543e-02,-3.94288e-02,-5.23097e-01,5.41054e-01,-1.94940e-01,4.19812e-01,-3.22111e+00,3.02213e-01,8.91654e-01,2.93565e-01,1.26471e-01,-7.54817e-01,1.20425e-01,-1.96271e-02,-1.63581e-01,3.42152e-01,
-1.63763e-02,-1.66938e-01,-4.16238e-01,7.62511e-02,-5.30984e-01,-4.31551e-02,-1.97880e-02,-4.62263e-01,-1.36614e-01,1.70245e-01,-1.37329e-01,-5.02139e-01,-2.21643e+00,1.03733e-01,-1.05775e-02,-1.01387e+00,-1.36081e-01,2.40509e-02,7.90718e-02,5.84297e-02,6.39166e-02,1.55153e-01,-4.44496e-01,5.76497e-01,2.62736e-01,-1.89409e-01,1.39224e+00,2.49512e-01,7.00856e-01,-2.32732e-01,-8.72935e-02,-3.40030e-01,1.72724e-02,-1.34034e-01,1.70737e-01,-1.42649e+00,3.75636e-02,-8.84002e+00,-4.27150e-02,-3.32215e-01,3.50309e-01,-3.96807e-02,-1.88253e-02,2.78145e-02,2.81031e-01,
1.13576e-02,-3.02651e-01,-3.86906e-01,1.29175e-01,-4.60071e-01,-6.33015e-02,1.09436e-01,2.89407e-01,2.13153e-01,-3.61304e-01,3.15320e-01,-9.82877e-01,1.49648e+00,-2.80937e-01,4.21410e-01,-2.64327e-01,-1.63968e-01,3.27135e-01,-9.86564e-02,-1.29767e+00,1.67984e-01,-5.32469e-02,-8.87488e-01,-4.96458e-01,3.45441e-01,-2.60609e-01,1.67597e-01,2.24444e-01,9.96922e-02,9.87775e-02,-2.82942e-01,2.03075e-01,-2.24123e-01,9.17825e-02,-5.40864e-02,3.36512e+00,-1.28735e-01,3.21276e+00,2.58058e-01,5.69270e-01,-2.61173e-01,-2.39179e-01,4.07800e-01,-4.53237e-01,-5.89082e-01,
-1.55224e-02,3.25680e-01,4.99168e-01,-1.30584e-01,-4.85753e-01,-7.62369e-02,9.51095e-02,2.02049e-01,-2.89289e-02,1.60358e-01,3.45391e-01,-1.91721e-01,-1.12083e+00,-5.91930e-02,-6.09529e-01,-1.62522e-01,-4.14945e-01,-1.21105e+00,5.18751e-01,7.86510e-01,-1.48407e-01,-4.70299e-02,-7.62605e-01,-3.12342e-01,-2.79162e-01,4.09890e-01,-4.15382e-01,5.85725e-02,1.21213e-01,-8.39361e-01,-2.31345e-01,-4.89650e-02,3.51335e-02,5.55749e-02,-6.72070e-02,1.57762e+00,3.12700e-01,-3.00699e-01,-3.39579e-01,3.28922e-02,3.01668e-01,7.24181e-01,1.02667e-01,-3.09544e-01,2.07208e+00,
-3.44783e-02,6.09349e-01,6.23324e-01,-1.76730e-01,3.80390e-01,7.11439e-02,1.87583e-01,5.74731e-02,2.32436e-01,4.39147e-02,-6.76665e-01,-2.80388e-01,-3.74453e-01,-2.94764e-01,-4.50416e-01,-7.51181e-01,-7.86145e-02,-3.55566e-01,1.00934e-01,-2.20677e-01,-9.97862e-02,2.64663e-01,5.73230e-01,3.29056e-01,-6.48207e-02,3.65819e-01,-9.15537e-02,-3.61497e-01,-8.32639e-02,-3.85060e-01,8.19778e-02,7.76099e-02,-2.20283e-01,-8.44890e-02,-1.42171e-01,1.77056e-01,2.02345e-01,-1.57520e-01,-2.38983e-01,-6.51971e-01,-4.24695e-02,7.31307e-01,-3.15434e-01,-5.22043e-01,5.80253e-01,
4.91824e-02,-2.15948e-01,-6.53184e-01,-3.69134e-02,3.96593e-01,4.80436e-01,-4.04786e-01,1.02578e-01,4.98753e-01,3.07721e-01,4.93196e-01,5.10316e-01,7.00160e-01,-2.95958e-01,2.47179e-01,4.14209e-01,1.69735e-01,2.82557e-01,-2.03945e-01,3.82504e-01,-1.52673e-01,-5.61431e-01,-3.81009e-02,-5.13286e-01,5.21306e-01,2.28027e-01,4.75059e-03,-7.96155e-01,-4.47613e-02,2.34863e-01,-1.18576e-01,8.79131e-01,-6.98908e-01,6.89642e-01,-1.41376e-01,-5.41758e-01,1.69028e-01,1.37244e+00,2.07518e-01,-4.95346e-01,1.13149e-01,-5.33632e-01,6.12595e-01,-1.39101e-01,-1.74886e+00,
-3.23718e-02,-3.03255e-01,9.98457e-02,3.42975e-01,5.64973e-01,3.59669e-02,3.02275e-01,4.60782e-01,7.15422e-02,1.50681e-01,5.89770e-01,1.79500e-01,-5.67634e-01,-1.60793e-01,-3.42492e-02,-8.94494e-01,-3.86604e-01,6.01615e-01,-3.00078e-01,-7.37184e-01,3.98697e-01,-2.73866e-01,1.62596e-01,-1.66013e+00,7.04021e-01,-3.93599e-01,9.20931e-02,-3.83451e-01,3.49643e-02,-6.61722e-02,8.56653e-02,9.85950e-02,2.17490e-01,2.33462e-01,-4.19080e-02,3.20906e+00,-4.08087e-04,-1.00848e+00,-2.70805e-01,2.18044e-01,1.16981e+00,-7.88902e-01,2.73003e-01,-9.43584e-01,-3.35116e+00,
2.09827e-02,1.18106e+00,9.63337e-01,5.43644e-01,1.01683e-01,1.99652e-01,-1.60235e-01,-7.90504e-01,-1.25018e-01,8.36970e-02,-6.25474e-01,3.50365e-01,-3.50647e-01,-5.43503e-02,-3.36330e-01,5.89705e-01,-2.86413e-01,-1.83256e+00,2.48611e-01,-1.88944e+00,5.07897e-01,-3.96892e-01,-4.82373e-01,-2.72521e-01,-6.02173e-01,7.62108e-01,-8.22048e-02,-1.79509e-01,4.31082e-01,-4.45427e-01,-6.88543e-01,-5.92637e-02,-7.15300e-02,-3.39971e-01,1.35390e-01,-8.08175e-01,2.98162e-01,-1.97526e+00,3.15754e-01,2.17526e-01,-5.30842e-01,1.20090e+00,-3.79665e-03,5.04814e-01,1.52209e+00,
2.51569e-02,2.37559e-01,-6.17511e-01,2.15370e-02,-1.43681e-01,2.33484e-01,-2.64083e-01,1.43744e-01,1.98730e-01,3.62350e-01,-3.12279e-01,-6.37100e-02,-6.18059e-02,-2.08580e-01,-1.67555e-01,-5.25208e-01,7.06478e-01,-5.93468e-03,2.10404e-01,-5.36245e-01,9.07728e-02,-1.72884e+00,5.08792e-02,-1.35002e+00,9.12703e-02,5.34331e-01,5.20511e-02,1.97003e-02,5.20863e-01,1.46019e-01,4.08911e-01,-1.33493e-01,2.05859e-02,3.62274e-01,1.29810e-02,-1.03383e+00,5.38318e-01,7.74346e-01,8.86861e-02,2.18519e-01,3.10015e-02,1.42974e-01,3.99777e-03,-3.21177e-01,-1.98317e+00,
2.71934e-02,1.85246e-02,4.13709e-03,-6.00792e-03,1.27113e-02,2.30241e-02,-4.82240e-02,-4.60929e-02,2.92998e-02,-6.85994e-03,-5.57009e-03,-5.11992e-02,1.88764e-02,-2.05051e-02,1.95417e-03,-2.12429e-02,-2.97644e-02,-3.57307e-03,1.71901e-02,4.78951e-03,-3.40732e-02,-4.74442e-02,-2.74814e-02,2.74220e-03,-1.46906e-02,-1.77253e-02,-2.58514e-02,-3.48908e-02,-4.22208e-02,-6.22088e-03,1.94824e-02,-8.35840e-03,-1.82919e-02,-3.74340e-02,-3.61086e-02,-4.05271e-02,-3.23264e-02,-5.22943e-02,-1.87095e-02,-5.74049e-03,-6.79921e-03,-2.14684e-02,-3.42324e-02,-5.12879e-02,-4.31226e-02,
-1.33473e-02,1.25501e-01,6.13437e-01,-4.79551e-01,2.10984e-02,2.55802e-01,1.64224e-01,1.76803e-01,-1.08245e+00,4.28974e-01,-3.15867e-01,-3.54077e-01,7.30546e-01,-1.74850e+00,3.76072e-01,-2.23682e-01,8.08746e-02,-1.20084e-02,-8.96913e-01,-4.94460e-01,-2.70682e-01,2.46088e-01,8.94683e-02,-1.56444e-04,3.33704e-01,-2.27933e-01,-7.04181e-01,4.23594e-01,7.41826e-02,-1.23905e-01,1.47253e-02,-1.28644e-01,-4.12044e-01,-1.55557e+00,-1.13884e-01,-2.47135e+00,4.29362e-01,-4.18208e-01,2.99754e-01,-2.62445e-01,-1.42577e-01,-3.15945e-01,8.54467e-01,1.72355e-01,2.73933e+00,
9.72433e-03,9.30515e-01,1.65382e+00,3.25589e-01,1.42382e-01,2.90984e-01,7.00524e-02,-3.12612e-01,3.17186e-01,-1.29720e-01,-9.09873e-01,1.38133e-01,-1.00293e+00,6.83183e-02,-8.38551e-01,1.23081e+00,5.63754e-02,-4.45843e-01,8.43330e-02,-5.95605e-01,4.75881e-01,-6.35426e-01,-7.12969e-01,-7.64340e-02,-9.81427e-01,2.18723e-01,1.00577e+00,-1.87030e-01,-1.00973e-01,5.27167e-02,-8.44647e-02,1.39793e-02,-8.44977e-01,3.27067e-02,1.56011e-01,-8.62983e-01,1.04692e-01,6.11316e-01,8.78937e-02,1.34297e-01,-4.56179e-01,1.37003e+00,-7.09629e-02,1.68027e+00,1.17461e+00,
-3.70579e-02,4.33588e-02,-6.64167e-02,-1.27571e-01,1.96980e-01,1.32378e-01,-6.25269e-02,7.55923e-02,-2.88940e-01,1.58880e-01,-1.10502e-01,-3.96618e-01,-4.25650e-02,-2.26918e-01,-3.44421e-01,-4.79805e-01,-2.79430e-01,-5.34770e-01,-4.36051e-01,-8.91655e-01,-1.67526e-01,2.99538e-01,-3.91493e-01,-1.01282e+00,-1.47278e-01,2.90105e-01,-3.91238e-02,1.01309e-01,6.33711e-01,2.60106e-01,-5.09307e-01,-2.53132e-01,1.03804e-01,-4.87273e-01,7.53717e-03,-1.91408e+00,4.06860e-01,-1.05676e+00,1.27799e-01,-3.44277e-01,-9.25493e-01,-1.23466e-01,2.78405e-01,-3.85027e-02,-2.03367e+00,
-3.68857e-02,1.46189e-01,-1.51461e-01,1.69159e-01,-1.07750e-01,6.58786e-01,-3.61708e-02,-3.50145e-01,1.60827e-01,1.61032e-01,-5.45141e-01,3.41148e-03,4.35975e-01,-9.74564e-03,-4.97079e-01,1.46452e-01,-2.78690e-01,-1.55155e-01,-8.74080e-02,-1.92993e-01,2.59937e-01,-5.80320e-02,9.08715e-02,1.37083e-01,-6.83464e-02,-4.10643e-01,1.86682e-02,-1.68190e+00,-3.28686e-01,-5.80678e-01,-2.61798e-01,1.10137e+00,-2.01884e-01,-5.55936e-03,3.04356e-01,-7.50574e+00,4.46295e-01,-8.69478e-01,3.66165e-01,-1.32188e-01,-1.47815e-01,8.41120e-01,1.46229e-01,4.08515e-02,3.60128e-01,
-8.96664e-03,7.13391e-01,1.62367e-01,1.25923e-01,-4.18568e-01,-6.02114e-02,8.59544e-02,4.64918e-01,1.03200e-01,1.24746e-01,3.68419e-02,-5.04480e-01,-6.78643e-01,-8.14123e-01,2.86602e-01,-7.21073e-02,3.66168e-01,-7.78638e-01,1.09675e+00,1.23187e+00,1.96212e-01,-1.09463e-01,-1.72252e+00,-1.88630e-01,1.59325e-01,3.36218e-01,9.12132e-02,-1.05011e-01,3.30041e-01,-3.92860e-01,5.65721e-01,-1.10236e-03,2.18372e-01,-1.72685e-01,4.11764e-02,-1.41657e+00,1.19692e-01,1.47797e+00,3.14487e-01,-1.03546e+00,7.79037e-01,-4.15210e-01,2.07647e-01,-1.51290e-02,8.77627e-01,
-1.57915e-02,2.76713e-01,-2.08664e-01,3.07294e-02,-1.79934e-01,-2.38407e-02,7.12902e-02,-3.50399e-02,-5.02067e-01,2.56174e-01,-2.22741e-01,-3.39305e-01,8.91051e-01,2.58916e-01,-6.38644e-01,1.93189e-01,-7.09245e-01,2.66394e-01,-9.25176e-02,-2.12289e+00,5.47966e-02,1.39206e-01,1.01143e-01,-7.61773e-01,2.00935e-01,-1.68859e-01,2.35774e-01,8.58582e-02,-1.37810e-01,-8.70365e-01,-1.02186e+00,-1.66366e-01,-2.05787e-03,-1.06387e+01,9.78282e-02,-2.79519e+00,4.78192e-02,-5.40513e-01,-4.44240e-01,1.90011e-01,-1.97574e+00,4.10954e-01,-5.31003e-02,-9.19987e-02,9.61866e-01,
-1.59712e-02,5.79637e-03,7.29725e-01,1.39714e-01,7.58568e-02,1.21735e-02,2.78659e-01,-4.86236e-02,1.73764e-01,-1.72729e-01,-2.96186e-01,4.42913e-01,-1.18425e+00,3.03184e-01,-3.50389e-02,6.60042e-01,-9.10993e-01,-3.37131e-01,8.92556e-02,2.30445e+00,9.20864e-02,-2.58943e-01,-1.65775e-01,3.67711e-01,-1.18923e-02,3.49614e-01,5.14258e-01,-1.03024e-01,-4.76217e-01,-7.09827e-01,-1.62000e-01,-2.54209e-01,-2.48111e-01,8.54926e-02,-8.74359e-02,1.02724e+00,2.11304e-01,4.20552e-01,-3.46198e-01,4.45191e-01,8.16722e-01,-2.41212e-02,1.66976e-01,4.74631e-01,5.26588e-01,
1.73007e-02,2.20571e-02,1.36693e-02,1.70121e-02,-2.28393e-03,-5.25857e-02,-4.35933e-02,6.85510e-03,-2.68024e-02,1.35732e-02,1.96634e-02,-3.95055e-02,-2.64491e-02,-6.00534e-03,1.11358e-02,2.41600e-02,-5.61146e-02,-5.59384e-02,-5.11475e-02,1.38624e-02,-1.94971e-02,-2.70965e-02,-3.42447e-02,-2.44986e-04,1.17103e-02,2.17983e-02,5.90071e-03,-3.38017e-02,4.02474e-02,-1.63885e-02,3.84420e-02,-2.91290e-02,-5.87563e-02,-2.86511e-02,-7.78468e-03,-1.56288e-02,7.76473e-03,-3.35328e-02,-1.95307e-02,-2.35699e-02,-3.34583e-02,-5.32165e-02,-3.47405e-02,1.43394e-03,-3.70993e-02,
-2.54616e-02,9.51053e-02,-3.59154e-01,4.24381e-02,-1.85432e+00,-2.15748e-01,-6.39037e-02,4.48925e-01,-4.31059e-01,1.62870e-01,-5.33153e-01,-3.12907e-01,2.95055e-01,-1.16239e+00,5.91552e-01,1.10347e-01,1.38227e-01,2.99717e-01,-1.30908e-01,-3.07236e-01,6.22924e-02,6.90671e-03,5.39528e-02,-7.50962e-03,1.09443e-01,1.01383e-01,-6.05790e-01,-1.56080e+00,-2.25903e-01,-2.10662e-01,-3.82689e-02,1.47249e+00,-3.78268e-01,6.80251e-02,-4.89821e-01,3.84804e+00,4.78790e-01,-1.54727e-01,-2.96106e-03,3.73101e-01,-2.22554e-01,-3.47912e-02,-2.81246e-01,-1.74757e-01,3.11537e-01,
-2.88910e-02,4.36570e-02,-6.58171e-02,1.50172e-01,1.11181e-02,-1.83864e-01,-1.96311e-01,9.85438e-02,4.48688e-01,4.93192e-02,-4.55757e-03,5.07721e-02,-2.26813e-01,-3.55901e-02,-7.95319e-02,-3.22253e-01,-2.76912e+00,3.83874e-01,7.79050e-01,1.13895e+00,1.65496e-02,1.23727e-01,-3.54907e-01,-2.66202e+00,5.67770e-02,-1.20546e-01,5.16423e-01,1.01150e+00,2.26559e-01,-8.43969e-01,-2.37141e+00,3.74483e-01,6.26984e-02,4.43497e-01,8.29368e-03,-6.66361e+00,-3.79356e-01,2.10241e+00,-9.54715e-01,1.26447e-01,2.38442e-02,4.54664e-01,-5.33793e-01,-4.92791e-01,3.26174e-01,
-4.25230e-02,2.69730e-02,-3.62562e-01,8.18185e-02,4.42584e-02,-4.98568e-01,1.29419e-01,1.13467e-01,1.41242e-01,1.80348e-01,1.25754e-01,8.24967e-01,2.44682e-01,-7.83797e-01,1.00666e-01,4.50458e-01,1.67127e-01,-1.28867e-01,9.08688e-02,1.94269e-01,1.03691e-02,-1.54662e-02,-1.64923e-02,-8.52980e-02,4.47617e-01,1.97199e-01,1.35978e-02,4.69284e-02,2.25861e-01,4.52522e-02,8.58998e-02,-1.38337e+00,1.56140e-02,1.03933e-02,4.81974e-01,-1.71036e+00,5.48819e-02,1.67223e-01,2.35533e-01,-2.99034e-02,-1.10948e-01,-9.58738e-02,3.43204e-01,-1.25410e-02,-1.06294e+00,
-3.12174e-02,1.26365e-01,-3.47921e-01,-5.27979e-02,4.32215e-01,4.56134e-02,4.60923e-01,1.91112e-01,-1.54500e-01,8.98262e-02,-7.82561e-01,2.86282e-01,-5.05440e-02,9.76725e-02,-5.72564e-02,-1.76538e-01,-2.97443e-01,6.27856e-02,-9.56234e-02,-2.87669e+00,-1.60790e-01,1.34504e-01,1.98473e-01,-1.74519e-01,3.32493e-01,4.15276e-01,-5.99820e-01,-4.05312e-01,4.82737e-01,4.54360e-01,-5.86876e-01,1.00546e-01,-7.07837e-01,3.63302e-01,-3.40378e-01,-5.57149e+00,1.02445e-01,-1.92594e+00,3.41872e-01,3.10125e-01,-2.05301e+00,9.89445e-02,5.54071e-02,-2.77671e-01,8.08869e-01,
4.80676e-02,-4.80806e-01,-6.08892e-01,-1.89042e-01,-2.50332e-01,2.32301e-01,-1.19972e-02,-8.22253e-01,4.90355e-01,3.64260e-01,-1.00240e-01,-4.56745e-01,2.30194e-01,-2.28451e-01,-1.55554e-01,1.99349e+00,3.78537e-01,3.25680e-02,5.47478e-01,4.15878e-01,-3.85366e-02,-1.74039e+00,2.04083e-01,-1.14438e+00,5.15757e-01,3.26474e-01,-5.25083e-02,-3.31298e-02,8.43901e-01,-7.17372e-02,7.80833e-01,-1.45209e-01,-4.04239e-01,-3.74974e-01,1.23248e-01,-1.18852e-01,2.89485e-01,1.05212e+00,1.33150e-01,-8.39905e-02,6.44217e-01,-6.49318e-01,-2.47245e-02,1.51320e+00,-8.60576e-01,
-3.38125e-04,-4.17511e-02,-3.64567e-02,-7.35324e-03,-1.25094e-02,-1.34371e-02,-3.54374e-02,-2.45764e-03,4.10860e-02,5.21689e-03,1.72926e-02,4.23750e-02,-3.79742e-02,-4.81769e-02,-3.97119e-02,-2.46583e-02,1.85715e-04,-5.64677e-03,-8.68383e-03,1.10959e-02,-1.77652e-02,5.57910e-03,-4.09745e-02,-4.64397e-02,9.67372e-04,-3.44205e-03,-3.02528e-02,-4.23757e-02,2.00043e-05,-1.19515e-02,-1.06098e-02,1.97230e-02,-3.98397e-02,-3.44650e-02,-4.73120e-02,3.77010e-02,2.96819e-02,3.69293e-02,6.33299e-03,-2.51107e-02,1.76976e-02,-1.96117e-02,1.03802e-02,7.21370e-03,-3.72943e-02,
-4.64493e-02,-6.57525e-02,-7.72751e-01,4.19848e-01,-1.19570e+00,2.87474e-01,-1.82364e-01,6.63624e-01,-5.03400e-01,-4.79245e-02,-2.20977e-01,4.13817e-01,3.23109e-01,-1.67508e-01,1.99602e-01,-3.97933e+00,1.13092e-01,2.61568e-01,8.65540e-02,1.50672e-01,4.41264e-01,-8.19337e-01,3.76326e-02,-3.72036e-01,2.62319e-01,6.86886e-02,6.17185e-02,1.08024e+00,1.11608e-01,-2.40110e-01,5.10321e-02,-1.21151e+00,5.53894e-02,5.36771e-01,2.08519e-01,-2.02067e+00,4.32590e-01,2.16353e-01,1.99984e-01,9.18673e-01,-3.88756e-01,1.51057e-03,-1.34623e-01,-5.74446e-01,2.01001e-01,
4.98187e-02,1.10099e-01,-3.35745e-01,2.48176e-01,-3.81013e-02,-2.46329e+00,6.22937e-01,2.64094e-01,2.28195e-01,-8.28110e-01,-7.66969e-02,2.35844e-02,-1.17464e-02,5.18335e-02,7.94457e-03,-6.67372e-01,-4.31059e-02,1.91509e-01,-7.96506e-02,9.17960e-02,2.10194e-01,-2.66506e-01,3.23109e-01,6.32649e-03,2.08653e-01,1.93719e-01,-1.69696e-01,4.35161e-01,8.48047e-02,-2.58446e-01,1.28772e-01,-2.72400e+00,-3.22589e-01,-2.30256e-02,1.73572e+00,-8.75496e+00,9.33684e-01,5.42043e-01,-3.30221e-02,5.44360e-01,-1.59306e-01,-2.55975e-02,-9.12797e-02,4.18253e-02,-8.27186e-01,
3.92976e-02,-2.95433e-01,-2.82992e-01,-1.84102e-01,-9.32540e-02,1.20082e-01,3.41356e-02,1.28771e-02,-8.71355e-01,1.95018e-01,-1.89705e-01,-1.13358e-01,-6.99896e-02,-3.54271e-03,2.37179e-01,4.11386e-01,-8.39571e-01,1.58756e-01,-8.85089e-03,-1.67137e+00,-1.45024e-01,2.47158e-01,3.57483e-02,8.06186e-01,2.37833e-01,3.37818e-02,4.82353e-01,2.53379e-01,-1.60160e-01,-6.81985e-01,-1.19719e+00,-5.98611e-01,-4.78910e-01,3.56864e-01,1.65073e-01,-3.60215e+00,2.23933e-01,-8.62029e-01,-6.87762e-01,3.14448e-01,-1.57624e+00,-1.27918e-01,-4.30805e-01,1.73329e-01,8.16875e-01,
3.44289e-02,-9.35194e-02,-1.07237e-01,-1.91057e+00,9.32703e-02,5.51335e-02,-8.81362e-02,-3.39753e-01,-7.78762e-02,2.72833e-01,8.78796e-04,3.74434e-01,-5.33535e-01,-3.38073e-01,-6.85297e-02,-3.01317e-01,7.07970e-01,2.78063e-01,4.56661e-01,7.15071e-01,-1.78812e+00,-8.69155e+00,1.34489e-01,-8.19739e-01,1.57640e-01,5.79385e-01,1.52894e-01,-3.50858e-01,4.52639e-01,4.38341e-01,2.34346e-01,-6.52364e-02,2.14801e-02,-1.34498e-03,2.76082e-01,1.56265e+00,2.44320e-01,1.94599e+00,-4.75595e-01,-1.19271e-01,7.28268e-02,-6.67638e-02,2.52631e-01,9.93030e-02,-1.68704e+00,
4.48385e-02,-2.30001e-01,-8.12033e-02,-1.78006e-03,4.25104e-02,2.78515e-01,-2.17220e-02,-1.56161e-01,6.91548e-03,-2.07054e-01,-1.80937e-01,-2.00673e-01,-4.17770e-02,1.04813e-02,2.03463e-01,5.09761e-01,2.10750e-01,-2.31269e-03,-6.07005e-01,1.21523e-01,-9.97120e-03,-2.71393e-01,-1.41979e-01,6.98548e-02,1.22461e-01,-8.66911e-01,4.47364e-02,1.17319e-01,6.38436e-01,-1.20279e-01,5.36376e-02,-6.04177e-01,-4.64788e-03,-4.28830e-01,2.41574e-01,-1.03787e+01,5.74270e-01,1.35559e-01,1.84151e-02,-2.71026e-01,2.52384e-02,1.24068e-01,4.80153e-01,-1.30263e-01,3.13004e-01,
-1.90964e-02,-7.50724e-01,-1.05118e+00,1.56376e-01,-7.27417e-01,-7.22893e-02,1.26874e-01,1.76585e-01,4.97078e-01,9.22076e-03,7.93335e-01,-2.55221e-01,7.80786e-01,-1.40168e-02,-3.70956e-01,3.19918e-01,3.43211e-01,2.62926e-01,-8.18237e-01,-8.40215e-01,9.64356e-02,-4.74244e-01,5.71794e-02,-1.40606e-01,3.00029e-01,-3.23216e-01,4.17924e-01,-1.21840e-01,-3.86434e-01,6.08367e-02,5.18665e-02,-1.40320e-01,3.42282e-01,2.58350e-01,-1.05189e-03,-8.16371e-02,2.95549e-01,-1.98116e-01,2.55776e-01,-7.13818e-01,-1.07404e-01,-5.67503e-01,3.25776e-01,8.89848e-02,-8.51294e-01,
-1.83945e-02,-5.72809e-02,-7.44931e-01,-2.63397e-01,-3.72908e-01,9.12295e-02,-1.27133e-01,-1.18703e-01,-4.01369e-02,-2.00483e-01,2.57750e-01,-9.92388e-02,-6.19911e-01,2.92743e-01,1.85076e-01,-4.45426e-01,2.45191e-01,-6.95205e-02,-2.73249e-01,9.70719e-03,-1.98600e-01,3.94363e-01,-4.86986e-01,2.99253e-02,7.06242e-01,-1.38517e-01,4.40564e-01,-1.00527e+00,4.66464e-01,-3.26578e-04,1.87295e-01,4.26441e-01,4.25970e-01,-3.15334e-01,1.06167e-01,5.99742e+00,5.08216e-01,-3.13772e-01,-5.93257e-01,2.86876e-02,4.88616e-01,2.52645e-03,9.58990e-02,2.60538e-02,-1.16440e-01,
-6.20335e-03,7.12254e-02,-2.83915e-01,-1.33569e-02,-1.80421e-01,8.51435e-01,1.37952e-02,7.95586e-02,2.41726e-01,2.96922e-01,3.30100e-02,-1.15949e-01,-3.76796e-02,-5.09391e-02,-2.77081e-01,1.34724e+00,-2.31490e-01,1.61303e-01,7.42017e-03,-1.15009e-03,9.40161e-02,-3.78536e-01,1.81536e-01,8.17135e-02,-1.80176e-01,-1.04896e-01,-2.41483e-01,2.00467e+00,8.02175e-02,-7.26712e-04,-1.93120e-02,1.22466e+00,2.05430e-01,-5.53255e-02,-1.77501e+00,5.05550e+00,1.12516e+00,3.49030e-02,7.97542e-02,4.88685e-02,3.54907e-02,-1.27138e-01,2.44712e-01,-2.38504e-01,-1.87414e-01,
-3.10332e-02,-4.33907e-03,-4.26861e-02,5.81362e-02,2.65174e-01,8.94666e-01,1.57645e-02,1.47387e-01,1.11861e-01,3.77050e-01,-4.65806e-02,-1.97770e-01,-7.17115e-03,-1.78889e-01,2.64593e-01,-1.95706e-01,-1.96447e-02,-1.50598e-01,2.81091e-02,-1.30809e-02,1.16599e-01,-8.52733e-02,-8.27847e-02,-5.30296e-02,3.90956e-02,3.48513e-01,3.06716e-01,-2.15579e+00,1.40027e-01,-2.88630e-02,5.33191e-02,2.15207e+00,-1.51133e-01,-4.86465e-02,-2.79690e-01,9.26366e-01,4.02311e-01,5.56542e-02,-4.10421e-02,3.51098e-02,-4.98549e-02,7.03901e-02,-6.67625e-02,8.90864e-02,-2.46194e-01,
-9.58908e-03,-1.40725e-01,8.79379e-03,1.06469e-02,-1.02947e-01,1.10585e+00,4.13243e-01,9.69515e-02,-1.69509e-01,3.43446e-02,4.93935e-02,4.46248e-03,-6.74095e-03,2.37628e-02,-6.30772e-02,-1.80354e-01,-3.48038e-02,5.74126e-03,3.47478e-02,3.52348e-03,1.10258e-02,-1.57898e-02,-2.48548e-02,-5.34046e-02,-1.11196e-01,-1.72434e-02,2.54006e-01,-8.75303e-01,7.76703e-02,-2.91805e-03,-2.57075e-02,-9.73519e-01,1.16413e-01,-6.87018e-02,8.68750e-01,-1.99193e+00,3.63218e-01,-5.42391e-02,1.08509e-01,-6.34336e-02,-2.50353e-02,4.17950e-02,1.23794e-01,-1.02613e-01,-4.53530e-02,
8.85036e-03,-2.67063e-01,1.37618e-01,1.51454e-01,-1.50975e-01,5.57098e-01,4.54300e-01,2.69266e-01,1.31708e-01,-6.75630e-04,2.85065e-01,1.76030e-01,1.66970e-01,-1.28635e-02,1.50226e-02,4.38222e-01,-3.46109e-01,1.33180e-01,5.33749e-02,7.79523e-01,1.35393e-01,2.78970e-01,1.98649e-01,-4.13110e-01,5.41655e-02,7.37145e-02,-3.82279e-01,-4.90480e-01,2.11781e-01,1.90510e-02,3.72499e-02,-8.06656e-01,-1.31288e-01,1.33978e-01,5.73205e-01,-2.73659e+00,1.94350e-01,1.35378e+00,1.05660e-01,1.22478e-01,3.25217e-01,-2.63241e-01,1.20292e-01,-1.12847e-01,-1.98435e-01,
-3.65919e-02,-3.14445e-02,-4.21236e-02,-5.28978e-02,2.45687e-02,-1.30034e-02,2.91005e-02,1.80154e-02,-8.15259e-03,1.08581e-03,1.36915e-02,-3.25794e-02,3.43113e-02,-3.87361e-02,8.39950e-03,5.87642e-03,-1.94791e-02,2.29790e-02,-2.91797e-02,-2.04034e-03,-4.00778e-02,-1.56901e-02,-4.41002e-02,-2.19464e-03,-3.10209e-02,2.38128e-02,5.47611e-03,-4.89964e-02,3.66807e-02,-4.33981e-02,-2.41889e-02,-2.01671e-02,-5.51665e-02,1.11763e-02,-2.55552e-02,2.12120e-02,-2.05732e-02,-3.18882e-02,4.79869e-03,-1.63407e-02,1.12690e-02,-3.13114e-02,3.17694e-02,-4.76452e-02,-1.08188e-03,
3.57047e-02,1.99340e-01,-3.80442e-01,2.61108e-02,8.95971e-01,6.94788e-01,2.52096e-01,2.72032e-01,-1.28801e-01,4.08029e-01,-3.01859e-01,7.90818e-01,2.22680e-01,-9.29761e-01,4.61410e-01,-3.56349e-01,-7.79920e-02,-1.30956e-01,8.37830e-01,-3.24084e+00,-6.24412e-03,-1.54989e-01,-2.33424e-01,-2.93497e-01,4.88512e-01,6.44526e-01,-9.50547e-01,-1.14769e+00,2.86378e-01,-3.64571e-01,8.28998e-02,4.15773e-02,-1.40841e-01,3.91691e-03,5.52802e-01,-3.88590e+00,3.73910e-01,-5.03072e+00,4.39241e-01,1.11041e-01,-1.02909e+00,-1.16202e+00,-2.09562e-01,-2.09827e-01,-1.89248e-02,
2.92096e-02,-1.94782e-02,-1.23753e-02,-4.48182e-03,-4.22720e-02,2.99184e-02,-2.10712e-02,1.05647e-02,-4.37064e-02,6.50750e-03,3.33664e-03,4.15146e-02,-3.47878e-02,-5.97648e-02,-1.46906e-02,-2.69865e-02,-5.65151e-02,-1.91075e-02,-2.82705e-02,-4.95340e-02,-3.08444e-03,-2.15593e-02,-4.99638e-02,-1.33268e-03,-3.52519e-02,4.06569e-03,3.01872e-02,4.24703e-02,-1.43247e-02,-1.72748e-02,-5.16635e-02,-2.70559e-02,-3.44438e-02,-2.32925e-02,2.29645e-03,4.24253e-02,-5.47563e-02,3.01575e-02,1.53373e-02,-5.39589e-02,5.08733e-03,1.74046e-02,2.80031e-03,-5.84131e-02,3.86570e-02,
-2.10488e-02,4.87049e-01,-9.19990e-01,9.23949e-01,-1.43658e-01,-8.55905e-02,-4.79132e-02,7.52169e-01,5.77385e-01,1.55247e-01,-2.92932e-01,2.52361e-01,-7.14542e-02,3.79367e-01,-2.79296e-01,2.34902e-01,2.22174e-01,7.84241e-01,-1.13295e+00,-4.92767e-01,9.90713e-01,-1.49186e+00,3.03026e-01,-6.67915e-01,-1.73695e-01,-6.80307e-01,-2.53500e-01,-4.89717e-01,-1.35686e-01,4.00796e-01,-1.10838e-01,1.88283e-01,-2.24838e-01,2.39218e-01,-2.18713e-01,-1.10226e+00,1.40445e-01,-7.39325e-01,2.93885e-01,4.16730e-01,-3.64168e-01,-1.44581e-01,-1.27533e+00,-4.62496e-01,-5.08313e-01,
-2.93243e-01,
1.11915e-02,
-6.09863e-02,
2.38878e-01,
-1.22856e-02,
-1.57481e-02,
-1.79225e-01,
1.92909e-01,
1.04964e-01,
2.33985e-01,
4.74565e-02,
-1.49616e-01,
5.97718e-02,
1.46437e-01,
3.15235e-01,
-1.93459e-02,
1.62816e-01,
-3.78967e-02,
3.18798e-01,
-3.45622e-01,
-1.23382e-01,
1.18886e-01,
5.67776e-02,
-2.26139e-02,
9.58620e-02,
-1.94050e-02,
-4.26582e-02,
-3.27273e-02,
-6.85111e-03,
-1.03935e-02,
-2.88308e-01,
5.02649e-01,
3.08762e-01,
1.39144e-01,
-3.89809e-02,
5.19456e-02,
-8.72772e-02,
-2.65524e-01,
-2.34249e-01,
-5.96076e-01,
-3.25810e-01,
-5.64505e-03,
-5.66517e-01,
-1.87694e-02,
-1.33509e-02,
2.49452e-02,-2.89438e-02,2.59894e-02,-3.81132e-02,-5.57059e-03,-5.54976e-02,-5.85765e-02,-4.08773e-03,2.87936e-02,1.11164e-02,-4.75403e-02,-6.79744e-02,1.27899e-02,-5.03872e-02,-1.95454e-02,-4.72181e-03,6.42683e-03,1.52910e-02,-1.93953e-02,-1.02427e-02,-4.83180e-02,-4.60272e-02,-4.82443e-02,1.96716e-02,-2.98097e-02,3.92275e-02,-6.64933e-02,-4.22247e-02,-5.49842e-02,1.98312e-02,-6.46447e-02,-2.41590e-02,2.17767e-02,2.78985e-02,-3.37123e-02,-3.06580e-02,-4.24895e-02,-3.19060e-02,-1.02927e-02,4.36902e-02,-2.61201e-02,-4.79223e-02,-2.72240e-02,-4.21771e-02,3.96959e-02,
2.83043e-01,-9.64661e-02,9.87801e-01,-2.98999e-01,-8.55193e-01,1.28987e-01,5.43023e-02,-2.61341e-01,-9.41621e-01,4.49204e-01,1.48192e-01,5.37628e-01,3.77682e-01,3.20947e-01,2.62833e-01,5.46717e-02,-7.42561e-01,1.19408e-01,-3.02637e-01,4.77905e-01,4.62346e-01,2.87065e-01,1.17670e-01,4.36804e-02,-1.58652e-01,-1.26271e-01,-3.09929e-01,3.93559e-01,-1.75459e-02,6.98084e-03,-3.41433e-01,7.39893e-02,2.87481e-01,-6.88699e-02,-9.85251e-03,1.92556e-01,3.68264e-01,-4.88433e-02,-5.48066e-02,5.57398e-01,3.37494e-01,-1.84060e-02,3.32743e-01,-3.53813e-02,5.34912e-01,
-3.64580e-02,-7.28655e-02,2.69127e-01,-1.25363e-02,4.67841e-02,-6.06934e-02,2.16864e-01,-1.39519e-01,-6.20804e-01,7.11573e-01,1.73472e-01,-1.33753e-01,3.23011e-01,1.63289e-01,-3.74722e-01,2.55753e-02,-1.33868e-01,2.39563e-01,5.97506e-01,8.37904e-02,4.42777e-01,2.44602e-01,4.35054e-01,8.48956e-03,-5.97122e-02,-7.67972e-01,2.94954e-02,-7.31811e-02,-6.11238e-01,1.17887e-02,2.79553e-01,-2.88779e-02,1.41027e-01,-1.26974e-01,-1.35629e-01,-3.28633e-01,4.24452e-02,2.36701e-02,-1.09179e-01,-1.21861e-02,-1.84802e-01,6.53159e-04,-8.78010e-02,-2.53895e-02,2.05660e-01,
1.69190e-01,-2.73485e-01,-1.63711e+00,1.85433e-01,1.10345e-01,5.42502e-02,2.61188e-01,-2.02768e-01,-2.87749e-01,2.82186e-01,2.83641e-01,-1.97645e-01,1.42466e-01,5.29094e-01,7.05178e-01,-2.86968e-02,-3.99250e-01,3.07178e-01,-1.71064e-02,-2.17165e-01,-2.06200e-01,-7.53555e-03,9.14405e-02,2.62104e-02,2.49541e-02,-1.14251e+00,2.70267e-01,-1.13611e-02,2.04258e-01,1.79473e-02,-3.09430e-01,2.52762e-02,-2.91386e-01,-1.01654e+00,2.24487e-01,-8.25148e-02,-1.69633e-01,-2.02170e-01,4.74721e-01,4.20122e-01,-2.02726e-01,-5.19898e-03,2.86115e-01,-1.82712e-02,-2.54405e-01,
-2.97964e-02,2.90689e-02,-6.42992e-02,-2.85257e-02,-2.64211e-02,-4.36781e-02,-5.99503e-02,1.29279e-03,-2.55763e-02,-2.95174e-02,1.15519e-02,-2.19619e-02,1.94681e-02,-2.61177e-03,-6.39782e-02,-2.48817e-02,-1.74785e-02,2.10013e-03,-5.35617e-02,-3.43591e-02,-3.92945e-02,2.98020e-02,1.76299e-03,3.08191e-02,-5.25453e-02,-5.89686e-03,2.35781e-02,6.85290e-03,-6.56451e-02,-4.13155e-02,-4.18700e-02,-2.64307e-02,1.79394e-02,3.60211e-02,-1.19312e-02,-2.32199e-02,2.07669e-02,1.14694e-02,-7.22400e-02,-1.07672e-02,-6.53669e-03,1.57332e-04,-6.99574e-03,-3.81507e-02,-3.72306e-03,
2.46457e-02,-6.31145e-02,-8.77536e-02,4.40023e-01,4.80574e-02,-9.76104e-02,4.10538e-02,-2.13692e-01,4.79825e-01,-2.68579e-01,2.79268e-01,-2.17680e-01,-2.84084e-01,-4.99958e-01,2.03377e-01,2.50689e-03,1.51094e-02,8.81913e-02,-4.42485e-01,-1.50112e-01,-3.29552e-01,-4.47009e-01,6.27090e-01,-3.19082e-02,-1.54744e-01,1.09759e+00,-7.09897e-02,7.44792e-02,4.71662e-01,-8.85422e-03,5.20976e-02,8.67148e-02,-4.05076e-01,-1.66086e-01,-1.65981e-01,4.78796e-01,1.38416e-01,1.59686e+00,2.38990e-02,3.59772e-01,-1.00114e-01,1.28932e-02,2.33083e-01,-2.03527e-02,-5.64624e-01,
-1.92330e-01,-6.28947e-02,-3.79514e-01,-2.09837e-02,1.60624e-01,-1.39561e-01,-1.75746e-01,1.29401e-01,1.18245e-01,4.97845e-01,8.16947e-03,-1.51597e-01,5.41192e-01,2.94908e-01,-2.57120e-01,-8.20313e-03,1.33843e-01,2.75663e-01,4.12122e-01,-1.28615e-01,4.35060e-01,6.56546e-01,-4.75679e-01,8.19167e-03,1.41955e-01,-3.93505e-01,8.18153e-02,-5.05391e-02,-3.18640e-01,4.90223e-02,5.10605e-02,3.40026e-02,5.80232e-01,5.08395e-01,6.37362e-02,-4.07169e-01,2.66302e-01,-3.66295e-01,-1.47218e-01,-3.65716e-01,2.52777e-02,6.46864e-03,-2.65015e-01,6.96430e-06,4.32392e-01,
5.94089e-01,4.90783e-01,2.78553e-01,-1.75272e+00,2.26964e-01,9.80154e-02,5.49745e-01,-1.45120e-01,6.05532e-01,3.91630e-01,8.64074e-01,-8.36208e-01,5.32652e-01,-4.03850e-01,-4.31565e-01,3.40755e-02,4.14199e-01,3.28883e-01,1.76904e-01,-3.94214e-01,-1.12921e-01,-2.55855e-01,4.67336e-01,5.13467e-03,6.63943e-01,-5.70970e-02,1.43125e-01,-3.88234e-01,6.42450e-01,-2.01826e-02,5.33538e-01,-4.83143e-02,1.45649e-01,-9.13427e-01,-4.98721e-01,3.49773e-01,8.58732e-01,3.93706e-02,-5.11408e-01,-6.95091e-01,-1.38766e-01,4.45272e-02,-3.72474e-02,2.12200e-02,-1.38678e+00,
-4.57104e-01,1.66017e-01,1.26638e+00,1.38498e-01,-2.03652e-01,-4.37789e-01,3.21005e-02,1.52411e-01,6.78507e-01,-3.77355e-01,-6.10886e-02,8.40248e-02,-1.66497e-01,-3.44127e-02,3.84707e-01,-3.69719e-02,5.61017e-01,3.24642e-02,-3.47234e-01,-3.05416e-01,-8.19042e-01,-4.15768e-02,1.89961e-01,-8.47331e-03,6.89598e-02,1.32398e+00,1.21710e-01,1.45443e-01,-1.44881e-01,1.13717e-02,-5.23114e-01,-6.67432e-01,-7.34012e-02,7.55707e-01,7.20077e-02,-5.32793e-03,-2.55107e-01,1.57541e-01,-2.23453e-01,1.44408e-01,2.71128e-02,2.58988e-02,7.14180e-01,-3.38431e-02,-1.53746e-01,
1.66210e-01,2.60950e-01,-4.55669e-01,-6.07577e-02,4.03262e-01,1.11160e-01,6.82692e-02,-1.63784e-01,1.37028e-01,8.16698e-02,1.30943e-01,7.93491e-02,5.02120e-02,-1.78446e-01,-6.33496e-02,-9.55061e-03,5.63749e-02,7.53637e-02,-2.15260e-01,-2.98204e-01,4.07310e-02,-1.09418e-01,3.78449e-03,-2.74771e-02,-5.43789e-02,2.97176e-02,-2.72129e-01,-1.91144e-01,-8.21208e-02,-4.70380e-02,-2.91961e-01,3.55292e-01,3.48966e-01,1.12168e-01,-4.66739e-03,1.97929e-02,-5.23104e-01,3.10673e-01,1.19090e+00,3.43577e+00,9.06190e-02,-2.84374e-02,1.83774e-01,-2.88356e-02,-2.53208e-01,
-3.18426e-01,1.45932e-01,-2.05563e-01,-4.58576e-01,-4.31991e-01,-5.43913e-01,2.44695e-02,1.60681e-01,8.31852e-02,-3.89875e-02,9.21019e-03,2.10691e-01,-7.26473e-02,2.23143e-01,5.13921e-02,4.05630e-02,-4.45746e-02,-1.61642e-01,-3.96684e-01,1.55352e-01,7.86509e-02,1.84116e-01,1.71968e-01,-1.83187e-02,4.28690e-02,-1.86192e-02,3.29240e-01,3.42767e-01,1.32931e-01,-2.27675e-02,6.65855e-02,2.79900e-01,-2.29987e-01,-2.98929e-02,8.85165e-02,-2.07945e-02,-1.03403e-01,-2.78678e-02,7.71857e-01,2.63431e+00,1.82523e-01,-8.18573e-03,-7.68605e-01,-2.15060e-02,2.77962e-01,
-3.33157e-02,1.46537e-01,1.16501e+00,2.55358e-01,2.30664e-01,8.48979e-02,5.98907e-02,-1.39721e-01,-1.71234e-02,-1.17797e-01,-3.60944e-02,-2.10748e-01,-1.87308e-02,1.14067e-01,-1.73406e-01,3.76240e-02,3.68318e-01,-2.06873e-03,4.06361e-01,7.95696e-02,4.61945e-02,5.53417e-03,-3.90765e-01,1.01919e-02,-2.60072e-02,2.38232e-01,-4.91466e-02,9.92527e-02,-3.14237e-01,-4.19267e-02,-4.17217e-01,5.32977e-01,1.51320e-01,6.35952e-01,9.23775e-02,2.32535e-01,-1.86512e-01,-1.93552e+00,-5.44034e-01,3.41606e-01,-3.72929e-01,-3.86886e-02,-3.65598e-01,3.11697e-02,-3.35454e-01,
-1.84965e-01,2.34024e-01,-1.00100e+00,9.83093e-01,5.42137e-01,4.09248e-01,-1.32551e-01,-1.40614e-01,-7.85277e-01,-3.81030e-01,-3.91990e-01,-1.75480e-01,1.04781e-01,6.27897e-01,-2.39874e-01,1.43436e-02,5.56363e-01,2.23526e-01,-1.92091e-03,9.34501e-01,1.79488e-02,-1.90605e-01,9.37694e-02,-1.84727e-02,7.59592e-01,-2.17940e-01,1.87116e-01,1.37799e-01,7.25023e-02,-6.37804e-03,2.14589e-01,-7.37330e-02,1.26954e-01,-2.57154e-01,1.87444e-01,4.60796e-01,7.04741e-01,4.59141e-01,7.79045e-01,1.12472e+00,2.19037e-01,-4.67920e-02,4.80826e-01,-1.08720e-02,2.83917e-02,
2.37431e-01,-7.96063e-02,-1.39533e+00,-5.28348e-01,-8.60705e-01,1.61415e-02,4.44577e-02,-8.78060e-02,8.45765e-02,1.13910e-01,-9.74821e-02,1.33602e-02,-7.87570e-02,1.60983e-01,5.11865e-01,-1.86986e-02,-2.86188e-01,-4.29246e-01,-1.20407e-01,-3.75390e-01,-2.44382e-01,1.85963e-02,-4.26669e-01,-2.11929e-02,-3.89252e-01,-2.47393e-01,3.40085e-01,4.09292e-01,9.60836e-02,-3.72583e-02,6.15108e-02,-1.85707e-02,1.85258e-01,-1.45829e-01,4.92771e-02,-3.59625e-02,3.07914e-01,9.58251e-01,4.78809e-01,1.10876e+00,3.03541e-01,-3.20859e-02,-4.56919e-01,-7.99446e-03,2.35987e-01,
6.56708e-02,1.67093e-01,2.29735e+00,-3.46352e-01,4.31950e-01,-1.52702e-01,-1.46238e-01,2.37610e-02,3.47547e-01,5.06464e-01,3.78170e-01,9.82803e-02,2.62898e-01,-2.20976e-02,7.60854e-02,3.29114e-02,-2.19738e-01,1.00065e-01,5.55742e-01,-5.39015e-01,-1.79079e-02,-7.25159e-01,4.08590e-01,1.78368e-02,4.14342e-01,-7.75978e-02,2.29090e-01,2.15898e-01,-1.26831e-01,-2.62660e-02,-1.81016e+00,9.00606e-03,-9.62684e-02,4.55157e-01,-8.78161e-01,-3.46031e-03,8.22532e-01,8.30325e-01,7.03983e-02,1.18042e+00,-1.20308e-01,-3.92136e-02,5.78182e-01,-4.44589e-02,-4.15069e-01,
9.44612e-02,5.21334e-02,8.72899e-01,3.13232e-01,-5.57570e-03,-3.57750e-01,5.70582e-02,-5.97143e-01,-5.73204e-01,-2.58373e-01,7.49504e-02,-4.37176e-01,3.20608e-01,9.00257e-01,4.60202e-02,2.08763e-02,-3.38132e-02,1.59782e-01,-2.22687e-01,-5.39773e-03,-2.22538e-02,5.45223e-01,-5.71268e-01,6.69456e-03,-4.06702e-01,-1.20967e+00,-1.96101e-01,7.51457e-01,3.28949e-02,2.02676e-02,-3.43429e-02,1.71921e-01,4.58407e-02,-1.60007e-01,1.83817e-01,3.41600e-02,-6.90569e-01,5.67843e-01,2.80078e-01,4.60242e-01,-3.30499e-01,3.00099e-02,8.34512e-02,5.25240e-02,1.35204e-01,
9.23093e-02,3.19563e-02,1.34076e-01,1.28346e-01,4.76965e-02,-4.75587e-02,-4.72547e-02,7.10043e-02,7.76966e-02,3.78670e-02,1.66411e-02,3.03801e-02,7.28863e-02,2.53460e-02,-3.38658e-02,-2.06633e-02,-1.08825e-01,4.49276e-02,2.15388e-02,-5.54570e-02,5.78169e-02,2.45657e-02,6.25408e-02,1.35756e-02,-2.72920e-02,2.18749e-01,-2.06494e-02,3.25997e-02,4.60438e-02,-3.63242e-02,2.10332e-01,1.54621e-02,-2.85607e-02,7.94288e-02,2.77021e-02,1.08316e-02,9.51058e-02,-3.97891e-03,-1.28775e-01,-3.36771e-01,4.05247e-02,6.22672e-03,-1.84605e-02,1.37590e-02,1.16586e-01,
-8.11676e-02,-7.67814e-01,7.62934e-01,-3.22627e-02,1.70466e-01,-5.07767e-01,-5.30116e-02,-3.38674e-01,1.78279e-02,5.33176e-01,5.24161e-01,-7.08211e-01,-1.41822e-02,6.46292e-01,4.83034e-01,3.31374e-02,-1.08541e-01,-9.13562e-02,5.57653e-01,4.91064e-01,2.41441e-01,-7.44917e-02,-5.12643e-02,-3.45812e-02,-2.52100e-01,-3.27503e-01,2.16892e-01,2.49925e-01,7.81856e-02,-4.69491e-03,-3.23560e-01,8.37103e-02,3.33000e-01,-1.05838e+00,-1.07215e-01,-6.20379e-01,-7.25038e-02,2.03381e-01,4.44573e-01,-1.29090e+00,-3.43238e-01,-3.44849e-02,-5.48980e-01,2.02174e-02,-7.67266e-02,
-1.74689e-01,1.46438e-01,-1.06842e-01,2.65236e-01,8.22729e-02,-8.55245e-03,6.09227e-02,2.00865e-01,4.33374e-01,-3.91308e-01,1.29654e-01,-5.69492e-02,-2.33820e-01,-5.67443e-01,5.04278e-01,3.51480e-02,2.28644e-01,-5.26821e-01,-6.22754e-01,-8.28515e-02,-5.88248e-01,-3.39822e-01,1.90912e-01,8.68497e-03,6.52577e-02,-9.21033e-02,1.89293e-01,2.01647e-01,3.42308e-01,-3.16237e-02,-3.62951e-01,4.30602e-02,-6.44819e-01,-1.61237e-01,-6.47919e-02,4.26528e-01,-6.09053e-02,-3.35417e-01,1.68633e-01,-1.23658e-01,1.03038e-02,4.71880e-02,3.39871e-01,-8.51402e-03,-3.39375e-01,
-1.04986e-02,-2.88223e-02,2.22152e-02,-3.68219e-02,-6.69273e-03,-4.92716e-02,4.48805e-03,1.29379e-02,-4.40127e-02,-1.67145e-02,-4.92226e-02,-1.56425e-02,-5.90042e-02,-6.32040e-02,9.26744e-03,-1.47917e-03,-3.51313e-02,-2.57565e-02,-1.48761e-02,2.23727e-02,1.74061e-02,-3.45834e-02,-7.65265e-03,3.71314e-02,-3.65332e-02,-1.67123e-02,-3.62541e-02,-5.02747e-02,-5.80519e-03,-4.80984e-02,-1.78862e-02,1.82597e-02,2.05704e-02,-3.85102e-02,-3.00640e-02,-2.73387e-02,-2.16170e-02,-1.05210e-02,-3.08703e-02,2.79400e-02,-7.64286e-02,-1.14368e-02,-2.42426e-02,6.39324e-03,-3.43656e-02,
1.48683e-01,9.48808e-01,2.85837e+00,-1.26894e-01,5.50167e-01,8.69044e-02,-1.58225e-01,1.55924e-01,2.92593e-01,-1.71091e-01,-2.24173e-01,-2.20455e-01,1.48584e-01,1.42215e-01,-1.59452e+00,4.62076e-02,1.75219e-01,6.11132e-01,3.35616e-01,3.03594e-01,3.54063e-01,9.59858e-01,-3.94131e-01,1.47374e-02,-5.01241e-01,-2.36544e-01,1.19722e-01,5.22076e-01,4.12383e-01,-2.17511e-02,-1.54367e-01,8.37222e-03,-1.36652e-01,5.20423e-01,4.63918e-01,3.08648e-01,-2.61424e-01,2.35711e-01,-2.95902e-02,9.99562e-02,-6.16407e-01,8.56976e-03,4.04242e-01,-2.18700e-02,8.79913e-02,
-2.29098e-01,1.17794e-02,-2.39921e-01,-7.14162e-02,-4.66728e-02,3.77314e-01,3.44880e-01,9.24368e-02,-3.16142e-01,2.74419e-01,3.13927e-01,1.78187e-02,-4.22839e-01,3.36290e-01,-7.75874e-02,4.70780e-02,2.73785e-01,-5.15203e-01,9.30113e-02,-1.63960e-01,9.44457e-02,3.03816e-01,-3.37399e-01,-3.84786e-02,8.08251e-02,-7.79302e-01,1.09945e-01,-1.25815e-02,-6.55109e-02,-1.43352e-02,-1.93048e-01,1.32472e-01,-2.53905e-02,-5.29293e-01,7.44549e-02,-1.45483e-03,5.80177e-01,-2.82780e-01,-2.48482e-01,-7.98012e-01,7.53989e-02,4.96332e-02,-5.45434e-01,-3.31096e-02,-3.04584e-02,
-2.53184e+00,3.44646e-01,3.26421e-01,2.27547e-01,1.83488e-02,-6.52533e-01,7.10075e-01,1.64163e-01,-5.30066e-01,9.73900e-01,-1.18584e+00,4.08346e-01,3.09614e-01,-2.17641e-01,2.28719e-01,-2.43617e-02,7.04388e-02,-3.17312e-01,-4.50995e-01,-5.58328e-01,-3.16645e-01,2.57682e-01,5.53968e-02,-6.66728e-03,1.04293e+00,-1.57059e+00,3.04851e-01,5.98581e-02,-4.35163e-01,-3.08978e-02,1.66830e-02,-1.81638e-01,4.10686e-01,-1.64884e-01,2.59300e-01,7.08286e-01,-3.07174e-01,2.63260e-01,-6.28539e-01,4.06647e-02,3.33654e-01,-4.58328e-02,9.23168e-02,-4.32025e-02,-3.33826e-01,
-7.85139e-03,-2.71591e-02,-2.34470e-02,-7.67185e-03,8.33584e-03,2.12494e-02,-2.08011e-02,-3.17889e-02,-9.45990e-03,6.85434e-03,-3.41227e-02,-4.84877e-02,-4.94616e-02,-5.87323e-02,-2.85710e-02,3.31589e-02,-9.34921e-03,-4.06606e-02,-5.22245e-02,2.95229e-02,-2.79472e-02,8.12359e-03,2.84846e-02,-4.11904e-02,3.57546e-02,6.73948e-03,2.57916e-02,-6.68144e-02,-8.92857e-03,3.58221e-02,-2.25831e-02,-9.93744e-03,-5.73586e-03,1.30117e-02,-2.21292e-02,1.80705e-02,-5.30331e-02,-4.47324e-02,2.19589e-02,-5.08582e-02,2.12769e-02,2.32867e-02,-4.09475e-02,3.24130e-02,-1.75099e-02,
1.64114e-01,2.06361e-02,3.81788e-01,7.92791e-02,5.71111e-01,-1.82751e-01,-6.47463e-01,2.55288e-01,-1.19674e+00,6.80356e-02,-7.01671e-01,-4.49431e-02,5.39611e-01,-2.33627e-01,5.46477e-01,2.02915e-02,2.54718e-01,3.48785e-01,4.93712e-01,-1.64646e-01,-4.66128e-01,-3.81730e-01,-1.83721e-01,1.15354e-02,1.35011e-01,3.21009e-01,-1.61980e-01,-1.45744e-01,-1.01796e-01,-2.68682e-02,8.96221e-02,3.59573e-02,2.40533e-01,-1.31931e+00,2.77562e-01,3.31513e-01,-8.45817e-02,-2.55961e-01,1.84319e-01,9.90880e-02,6.88556e-02,2.03605e-02,-4.19069e-01,1.99258e-02,-1.62126e-02,
-2.03164e-01,5.21364e-01,2.84812e+00,7.08779e-01,-1.60595e-02,4.34513e-01,4.92901e-01,-4.69076e-01,-4.13927e-01,-9.45491e-01,4.98833e-01,2.96605e-02,1.76409e-02,2.12586e-01,9.07582e-01,9.89162e-04,3.47935e-01,6.73509e-02,-2.67448e-01,9.00039e-03,-4.75984e-01,2.50290e-01,-2.18275e-01,4.73526e-02,2.77032e-01,-1.30328e+00,-5.25914e-02,3.01010e-01,6.99007e-01,-1.66782e-02,-4.16236e-01,-3.99687e-02,-4.23843e-01,2.81219e-04,-1.21073e-01,5.64884e-02,3.14804e-01,-3.28450e-01,-1.04482e-01,-1.89960e-01,-1.59551e-01,-1.78010e-02,-1.88726e-01,-7.54506e-03,-7.52031e-02,
3.14765e-01,-8.76714e-01,-3.02321e-01,7.62254e-01,-1.71324e-01,-5.81663e-01,6.85940e-01,-2.15957e-01,-6.22292e-02,-2.12482e-01,1.77360e-01,-6.41921e-02,5.65431e-02,-1.80274e-01,1.79030e-01,-8.67820e-03,5.10330e-01,-1.34935e-01,1.98272e-01,2.29979e-01,1.08919e-01,3.09707e-01,-5.93721e-01,2.66491e-02,-4.31392e-01,-1.12023e+00,4.46067e-02,1.87332e-01,2.84605e-01,2.14754e-02,-3.30059e-01,1.03108e-01,7.00178e-02,-1.03415e+00,3.43234e-01,3.65142e-01,2.46098e-01,-1.60471e-01,-7.57422e-02,2.56391e-01,-3.23603e-01,5.19339e-02,3.78533e-01,2.35322e-02,-2.21018e-02,
-2.47847e-02,1.58680e-01,4.48216e-01,1.83915e-01,9.53301e-02,2.64966e-02,5.20788e-02,-4.58496e-01,-3.54138e-01,8.17410e-01,1.01168e-01,-1.86221e-01,4.95108e-01,7.83555e-01,1.01499e-02,-1.45381e-02,-4.63025e-01,4.41495e-01,5.25837e-01,-2.79872e-01,7.13617e-01,7.22420e-01,6.10587e-01,-3.44644e-02,1.39201e-01,-3.37298e-01,1.52320e-01,1.48564e-02,-1.92040e-01,-3.31521e-02,-2.78117e-01,8.43004e-02,-1.29955e-01,-4.35362e-01,-1.60095e-01,-2.42393e-01,5.49643e-01,-1.45170e-01,-2.50637e-01,-1.05050e+00,-2.58599e-01,-1.50140e-03,1.96879e-01,3.99042e-02,-2.76932e-01,
3.56193e-01,-7.12136e-01,4.68824e-01,-1.84543e-01,5.10773e-01,-1.52079e-01,-2.73538e-02,7.02710e-02,1.30002e-01,6.84677e-01,8.19451e-02,2.36019e-01,5.12824e-01,1.59172e-01,-2.00894e-02,-4.34937e-03,-2.83758e-01,-2.91393e-01,4.51233e-01,2.45645e-01,7.91309e-01,2.07022e-01,-5.59331e-02,4.92881e-02,-2.85609e-01,4.71230e-02,-1.87131e+00,6.06949e-01,1.03632e-01,-2.31373e-02,5.17095e-01,-3.14618e+00,-8.50303e-02,-2.92652e-01,-1.29965e+00,-4.73844e-02,1.27181e+00,1.04117e+00,3.54901e-01,-5.26981e+00,-2.51577e-02,4.36569e-02,-2.93034e-01,-1.63065e-02,1.74692e-01,
-5.11630e-01,8.59125e-02,-4.92883e-01,6.53702e-01,5.24135e-01,4.54682e-01,-1.98754e-01,-6.72819e-01,-2.35322e-01,4.74077e-01,-4.98257e-01,-1.02908e-02,-3.61010e-02,-3.67999e-01,2.06319e-01,5.33714e-02,1.62380e-01,4.25124e-01,6.76909e-02,1.39431e-01,4.57220e-01,-3.32941e-01,5.27496e-01,-3.62424e-02,4.63063e-01,-1.60736e+00,2.94926e-01,-7.24089e-02,-4.30314e-01,-2.57908e-02,2.13794e-01,3.28606e-02,1.95278e-01,-6.42547e-01,6.81449e-02,-3.70135e-01,-3.77235e-01,-1.13204e-01,2.88565e-01,4.46374e-02,6.74585e-03,3.29404e-02,6.50346e-01,-3.04547e-02,-3.60583e-01,
-3.65837e-02,-5.37028e-02,5.10570e-02,-1.66767e-02,-2.46497e-02,2.13432e-04,2.52092e-03,3.45564e-03,4.80442e-04,8.17255e-03,-9.68921e-03,-1.67730e-02,-5.79223e-02,-4.47883e-02,2.18107e-02,1.40696e-02,-3.27563e-02,-4.86467e-02,-3.44423e-02,-8.67965e-02,1.24912e-02,-5.16596e-02,-3.52207e-02,-2.35035e-02,3.98336e-03,6.90156e-02,-9.51882e-03,1.51897e-02,-1.59373e-02,7.82763e-03,5.38843e-02,-2.86624e-02,-4.88754e-02,2.85904e-02,-5.23909e-02,2.88050e-03,-8.92879e-02,-7.16560e-02,1.22014e-02,-5.48273e-02,-2.61333e-02,4.76637e-02,-1.54384e-02,2.59419e-02,-1.27611e-04,
-1.30267e-01,4.56901e-01,-1.08301e+00,-8.98104e-01,9.02391e-01,5.52778e-01,2.28948e-01,8.71982e-02,-6.27869e-02,3.23706e-01,-1.35002e-01,2.54010e-01,-5.27706e-02,-3.12002e-01,-1.05544e-01,-3.09111e-02,8.70747e-02,-1.45472e-01,1.02576e-01,-2.92937e-02,1.91280e-01,-8.53683e-01,-3.11441e-01,-5.00862e-03,4.10648e-01,-7.08508e-01,-2.43432e-02,-2.01981e-01,-6.59176e-02,-1.89199e-02,7.63770e-01,6.76980e-02,1.86033e-01,-1.80043e-01,1.32837e-02,1.28040e-02,-7.37270e-01,2.49255e-02,9.34673e-02,5.79098e-01,4.04849e-02,-4.89655e-02,-2.83355e-01,1.98564e-02,3.78982e-01,
1.92062e-05,-1.62333e-02,-8.75190e-03,2.07297e-02,-3.58291e-02,-2.28619e-02,-3.39533e-03,-4.08382e-02,-5.38969e-02,-6.08914e-03,9.17270e-03,-1.17204e-02,1.77907e-02,-5.71088e-02,-3.42341e-02,-2.27345e-03,-2.75116e-02,-1.84294e-02,1.22436e-02,-1.62879e-02,-2.24940e-02,-6.66630e-02,2.52547e-03,2.94606e-02,-5.80097e-02,-2.78736e-02,-5.98455e-02,4.42945e-03,-1.76038e-02,-3.41870e-02,-5.86316e-02,2.08907e-02,-3.13344e-02,-4.49105e-02,-4.67659e-02,-2.20943e-02,-1.96527e-02,-4.68574e-02,-1.56938e-03,-5.61472e-02,-1.57128e-03,1.69626e-02,-5.03061e-02,7.46432e-03,4.61604e-04,
-3.51980e-02,-4.30404e-02,-4.20914e-02,7.79193e-03,-4.53280e-02,9.24290e-03,-5.40799e-02,1.32434e-02,3.41985e-02,-4.83702e-05,-2.66249e-02,2.68694e-02,-5.91429e-02,3.51682e-02,-2.63810e-02,9.08310e-03,-4.43069e-02,-4.30533e-02,-2.08408e-02,-4.73564e-02,-1.76244e-02,3.07171e-02,-1.63473e-02,-3.83125e-02,-3.68359e-03,-4.10712e-02,-4.14100e-02,5.99720e-03,-4.50803e-02,-5.63141e-03,-1.17617e-02,-1.18966e-03,-2.66048e-02,7.83327e-03,1.96005e-02,-4.63332e-03,9.10503e-03,3.76574e-02,-5.10762e-02,-1.84237e-02,-5.22078e-02,-2.93361e-02,-1.17515e-02,-3.59233e-02,3.02957e-02,
2.01101e-01,-3.72102e-01,9.11476e-02,-9.50301e-02,-1.07068e-01,3.44586e-01,-1.58053e-01,-1.20627e-01,-2.85003e-01,7.55776e-01,1.34351e-01,-1.95456e-01,2.53442e-01,2.31459e-01,-2.69264e-01,1.71890e-02,-2.33826e-01,4.97385e-02,1.13993e-01,-2.04351e-01,2.92635e-01,2.54545e-01,3.14995e-01,1.17292e-02,-8.32097e-02,-5.95430e-01,1.35224e-01,-1.19427e-01,1.84002e-02,4.80592e-02,-6.64816e-01,9.06369e-02,-8.69403e-02,-6.90072e-01,-3.14370e-02,-1.63618e-01,4.47473e-01,3.39991e-02,2.47468e-01,-1.84944e-02,-3.38197e-02,-4.45442e-02,1.55020e-01,3.12082e-02,1.66883e-01,
-2.16904e-02,1.87979e-02,-1.92190e-02,-2.26035e-02,-1.73576e-02,2.12350e-02,-4.18715e-02,-1.13866e-02,-5.08371e-02,-4.26152e-02,-1.68788e-03,-3.49359e-02,-5.78080e-02,-4.21837e-02,-5.67009e-02,9.81673e-03,8.04804e-03,2.06413e-02,2.30116e-02,1.44540e-03,-1.10389e-02,2.50175e-02,-2.73582e-02,-2.92158e-02,-4.32465e-02,-3.79432e-02,-2.38763e-02,-1.37198e-03,7.09559e-03,3.99891e-02,-3.85267e-04,-4.27838e-02,3.45633e-02,1.53243e-02,-3.94647e-03,8.51422e-03,-3.57763e-02,-3.98653e-02,-3.27129e-02,-6.68712e-03,2.47701e-02,-4.12785e-02,-4.29561e-02,-1.79695e-02,-5.48805e-02,
3.32845e-01,-2.23118e-01,-2.00832e+00,3.02948e-01,-1.23548e-01,2.19809e-01,-6.23012e-02,-9.64523e-02,4.39865e-01,-2.01416e-01,-1.46493e-01,2.35450e-02,-1.23415e-01,-1.64655e-01,-1.19881e-01,-3.74432e-02,3.48879e-01,-7.92149e-02,1.18766e-01,-6.26497e-01,-1.84639e-01,8.76816e-01,6.45337e-02,8.58588e-03,4.74789e-02,5.78419e-02,5.65584e-02,-1.88681e-01,3.82311e-01,2.77686e-03,3.32258e-01,1.26147e-01,9.17265e-02,-7.84642e-01,-1.28407e-01,-6.22796e-02,6.35455e-02,2.17460e-01,8.11195e-01,1.63546e+00,-3.34305e-01,-2.10275e-02,-1.96065e-01,-2.32450e-02,-9.50055e-02,
-3.41782e-02,-5.54078e-02,-4.40106e-02,4.07181e-02,1.79803e-02,-5.36866e-02,2.82428e-02,-1.03283e-02,-5.27656e-04,-6.75450e-02,2.74596e-03,1.31828e-02,-3.55619e-02,-9.26681e-04,-2.93563e-02,-1.98387e-03,2.89886e-02,2.90634e-02,-3.43002e-02,1.20632e-02,2.54842e-02,-2.08992e-03,-2.27306e-02,-5.28612e-04,-9.47401e-03,-4.58751e-02,-1.19657e-02,2.80716e-02,-3.24490e-02,-7.87084e-03,-3.71422e-02,-1.09240e-03,-3.18932e-02,-3.42155e-02,-3.87704e-02,-3.32055e-03,1.12057e-02,5.81602e-03,-9.03303e-03,-5.81600e-03,-3.17429e-02,3.22105e-02,-5.64919e-02,-4.14197e-02,-6.51405e-02,
-1.31232e-01,5.85548e-01,-8.11295e-01,-6.53176e-01,-7.71225e-01,4.48420e-01,4.95564e-01,6.17074e-02,-5.63738e-03,3.53866e-01,6.61872e-01,4.34945e-01,4.12093e-02,-2.86841e-01,-1.17744e-01,-3.05854e-03,-1.39975e-01,9.74144e-02,2.03640e-01,1.28183e-01,5.68055e-01,2.42394e-01,2.16911e-02,-4.06786e-02,5.75958e-02,1.05262e+00,-3.73604e-01,-3.29361e-01,-1.40516e-01,2.25315e-02,-3.52342e-01,1.55463e-01,1.85184e-01,-3.72461e-02,2.62734e-01,-9.21863e-01,-4.16906e-02,-4.15861e-01,2.41155e-01,3.06293e-01,-2.40149e-02,2.03189e-02,2.88802e-02,2.67548e-02,4.28041e-01,
-3.14922e-02,-2.95057e-03,1.44180e-02,-4.51133e-02,-4.97943e-02,2.71464e-02,-2.50816e-02,-3.67836e-02,-5.62694e-02,-4.96144e-02,-6.21704e-02,-3.49007e-02,-3.56765e-02,-2.84295e-02,2.50380e-02,2.29977e-02,-1.44156e-02,-6.65339e-02,2.27041e-02,1.08515e-03,2.40577e-02,-6.40748e-03,1.52802e-02,1.44434e-02,1.06419e-02,7.07700e-03,-1.24317e-02,-3.18709e-02,-6.51337e-02,-3.81296e-03,1.35715e-02,-7.98605e-04,-1.73565e-02,7.59057e-03,-3.75395e-02,-2.12950e-02,1.92232e-02,-2.66447e-02,-2.95207e-02,-3.18842e-02,2.23419e-02,3.91307e-02,2.77937e-04,3.72230e-02,-2.65426e-02,
-6.13748e-02,-5.01525e-03,9.52541e-03,2.64727e-02,-4.78688e-02,1.87120e-02,2.82622e-02,3.48662e-02,-3.17395e-02,-5.29100e-02,-1.86123e-03,-4.69120e-02,-1.38357e-02,2.79802e-02,6.73322e-03,-3.02985e-02,2.05320e-02,-3.81790e-02,-5.21920e-03,2.25563e-03,-7.34430e-03,-1.75209e-02,-4.43292e-02,3.64659e-03,-5.10797e-02,-4.72827e-02,6.31548e-03,-5.28405e-02,-6.64634e-02,-2.15020e-02,3.65041e-02,-5.96650e-02,2.78372e-02,1.61128e-02,1.45517e-02,-3.51387e-02,-4.22716e-03,-3.24772e-03,-5.70359e-02,-5.40457e-02,-2.33505e-02,-3.55963e-02,-4.32542e-02,-2.03086e-02,-9.84659e-03,
-5.26438e-02,1.01391e-01,-7.37445e-01,1.69575e-01,-8.62400e-02,-8.81125e-02,4.48936e-02,-1.28823e-01,-4.32544e-01,-1.31063e-01,1.59126e-02,-1.16228e-01,3.33882e-02,-9.70897e-02,2.25462e-01,4.76188e-02,-6.65598e-02,1.49593e-01,-2.40216e-01,-5.22708e-02,2.91711e-02,-9.88448e-02,-2.23621e-02,-9.86447e-03,-3.79820e-01,-2.85918e-01,1.33569e-02,-1.82436e-01,2.99952e-01,-3.93356e-02,-1.66491e-01,5.69097e-01,6.27008e-03,-1.71220e+00,-1.81291e-01,-2.82018e-01,-1.42520e-01,2.49694e-01,8.42978e-01,2.97851e+00,3.79576e-01,-4.04042e-02,-5.19566e-02,3.67998e-02,1.80712e-01,
5.35622e-02,8.79316e-02,-9.69387e-01,5.50781e-02,6.66597e-02,1.43986e-01,2.00369e-01,-4.92173e-01,-5.58637e-01,-7.78240e-02,2.00747e-01,6.16577e-01,2.71213e-01,-3.22769e-01,-2.06398e-02,-1.96443e-02,-2.32473e-01,1.17688e-01,-3.26323e-01,8.10725e-01,1.79007e-01,-1.49223e-01,-1.23556e-01,-6.44020e-03,6.84846e-01,-1.01987e-01,-4.26891e-01,2.91095e-01,-4.88910e-02,-4.54503e-02,-1.00112e+00,-1.19886e-01,-2.19361e-01,-3.01600e-01,1.10208e-03,7.81693e-02,4.05642e-01,9.94801e-01,2.68193e+00,2.64168e+00,2.47979e-01,1.63643e-02,3.47878e-01,-1.32790e-02,1.60276e-01,
5.52517e-02,-8.69126e-03,-2.59723e-02,-3.14917e-03,-2.83136e-03,-3.43551e-02,8.86644e-04,-1.28385e-01,1.19231e-02,-1.81016e-02,6.52509e-02,1.48802e-02,-3.86850e-02,6.73645e-03,3.92095e-02,-3.24870e-02,-8.74419e-03,-5.31604e-02,-5.09371e-02,7.13881e-02,-2.06714e-02,7.19217e-02,-2.05837e-02,-2.41398e-02,-1.20556e-01,2.29882e-02,-5.15224e-02,-6.31048e-02,4.81038e-03,4.27807e-02,-2.27835e-02,4.20013e-02,-9.86168e-03,4.50511e-02,-1.88293e-02,-4.79356e-02,-1.05994e-01,-2.04010e-02,9.17665e-03,-2.23192e-02,-2.44741e-02,-3.83469e-02,4.95791e-02,-9.70708e-03,-3.09833e-03,
-1.17657e+00,1.12407e-01,4.95556e-01,6.09385e-01,-5.59863e-01,-2.34557e-02,-1.17287e-01,6.94366e-01,-6.71875e-01,-1.95529e-02,-2.22476e-02,-4.19196e-01,-1.52112e-01,-7.90693e-01,-2.93935e-01,-3.11632e-02,4.05754e-01,-1.13997e-01,-5.25335e-01,5.05388e-01,-1.87872e+00,1.25996e-01,5.40054e-01,-1.31566e-02,6.04479e-01,-1.41097e+00,1.18448e-03,-3.39758e-01,3.12309e-01,-4.10925e-02,7.80833e-01,4.30798e-02,1.29829e-01,-1.14460e-01,-1.66618e-01,-4.80202e-02,1.81018e-01,3.23147e-02,7.80042e-03,2.72041e-01,4.73181e-01,-2.56171e-03,2.25971e-01,1.82725e-02,5.15485e-01,
-2.11557e-02,
7.42010e-02,
9.69041e-02,
2.15877e-01,
-3.00269e-02,
3.54229e-02,
2.38386e-02,
-1.28920e-01,
5.56460e-01,
-1.74103e-01,
-2.57243e-01,
-1.38111e-01,
-1.38897e-01,
1.13471e-01,
-1.06642e+00,
-2.99796e-01,
-1.35477e-01,
1.88446e-01,
2.49959e-01,
-1.87439e-02,
-4.99498e-01,
1.58538e-01,
1.45904e-01,
-1.29267e-02,
-4.98569e-02,
5.49994e-01,
-5.65691e-02,
-1.14144e-01,
-4.94771e-01,
6.11022e-03,
-2.38003e-02,
1.12015e-01,
-2.13318e-02,
-1.39513e-02,
-1.79689e-01,
-1.76058e-02,
1.06532e-02,
-2.04144e-02,
-9.36512e-02,
-2.82722e-02,
-1.54624e-02,
-3.13132e-01,
-6.86161e-02,
-3.07253e-02,
-7.83397e-02,
-1.72323e-02,4.22776e-02,-6.95393e-01,-8.29013e-04,-5.49213e-02,6.04821e-02,-4.99985e-01,1.19752e-02,-1.57760e-01,-1.31576e-02,2.45234e-01,5.27329e-02,-1.59781e-01,-1.34340e-01,2.08880e-01,-3.76371e-01,1.34868e-01,1.87147e-01,-2.49303e-01,-9.95506e-03,9.74282e-01,2.32055e-01,8.72469e-01,-1.57888e-02,-4.06846e-02,-2.56135e-02,2.18876e-01,-1.36126e-01,1.56197e-01,-2.14220e-01,-1.35051e-02,-1.00817e-01,-1.81303e-03,-4.42481e-02,1.06419e+00,-3.92687e-02,1.96050e-01,9.50781e-03,-1.89052e-01,-3.02157e-02,4.41923e-02,-9.99169e-02,-4.44055e-02,-1.06605e-01,-2.84801e-01,
-2.89869e-02,-2.70674e-01,-4.63718e-01,-9.83561e-02,3.32179e-02,-9.21329e-02,-3.29033e-01,3.16366e-01,3.09306e-02,-3.96191e-01,-5.14429e-01,-9.04664e-02,1.83318e-02,2.81739e-01,-5.78769e+00,-8.10436e-02,3.30576e-01,-5.59018e-02,-3.29429e-01,1.27609e-02,1.05506e+00,6.17038e-01,4.17735e-01,4.02811e-02,-1.85070e-03,1.02425e-01,-6.53882e-02,-2.31442e-01,-3.09586e-01,-1.28370e+00,7.50823e-02,-8.75241e-02,1.76969e-02,2.12389e-02,-1.07212e+00,-3.17072e-02,1.07355e-01,-1.94780e-02,-4.00934e-01,1.19896e-02,4.09422e-02,-1.48849e-01,-6.64179e-02,-3.95525e-02,-4.85360e-01,
-2.79502e-02,-5.71954e-03,-3.18249e-02,8.62222e-03,-4.02417e-03,6.52234e-03,-6.19726e-02,-1.56328e-02,-8.43265e-02,1.04414e-02,-2.51644e-02,5.51101e-03,-6.54938e-02,1.40079e-03,-4.37202e-02,-4.78862e-03,1.98870e-02,-1.66557e-02,-3.83751e-02,-3.87377e-03,-4.09787e-02,1.37777e-02,1.92670e-02,1.89795e-02,-1.42520e-02,9.33105e-03,-1.07268e-02,-5.07817e-02,1.62168e-02,-3.06117e-02,-1.10482e-02,-7.20304e-02,6.99194e-04,-4.55657e-02,2.75051e-02,-2.03505e-02,-6.28160e-02,-2.10652e-02,-1.35796e-02,3.08287e-02,4.13013e-03,-4.75516e-02,-5.19476e-02,2.65457e-03,-4.34149e-02,
6.65502e-03,3.20012e-01,-5.19749e-02,-1.16349e-01,1.18315e-02,-5.17056e-01,2.72609e-01,1.28764e-01,-2.28045e-01,1.83349e-01,1.26842e+00,2.45881e-01,2.02610e-01,1.91010e-01,-1.91116e-01,1.58816e-01,-5.98349e-03,-2.45761e-01,2.32566e-01,-1.82217e-02,-4.64795e-01,-3.79986e-01,1.92685e-02,-1.98093e-02,1.76601e-01,3.51788e-02,1.35303e-01,-1.23810e-01,-1.94476e-01,2.10131e-01,1.96723e-02,-1.32689e-01,-5.94726e-03,-1.67818e-03,7.32361e-01,-3.49687e-02,2.63981e-01,-6.35246e-02,-1.29814e-01,-3.54363e-02,-1.92229e-02,5.74911e-01,-4.85285e-02,5.05031e-03,6.82708e-01,
-2.09332e-02,1.12195e-01,7.62778e-03,-3.96257e-02,3.80552e-02,-2.11957e+00,9.35183e-02,-3.70665e-01,-4.38836e-01,-1.02576e-02,-2.48532e-01,3.79907e-01,5.57816e-01,-2.75830e-01,1.53342e-01,-5.93280e-02,-8.20335e-02,-1.15418e-02,-1.68908e+00,-2.33030e-02,-6.66205e-01,7.88449e-02,-7.77010e-02,-3.27466e-02,-1.64438e-02,-2.70100e-01,4.26454e-01,1.24866e-01,1.91889e-01,-1.66177e-01,-1.84252e-02,-4.55058e-01,-3.15920e-02,1.60542e-02,-7.90574e-01,1.28223e-02,-4.25484e-02,2.28003e-02,9.95176e-02,3.41258e-03,-2.97502e-02,3.03838e-01,4.37458e-02,5.17196e-02,1.59225e-01,
2.06147e-02,1.97433e-02,-6.93906e-03,1.60525e-02,1.69160e-03,-4.97132e-02,-4.56508e-02,-4.12269e-02,-2.88368e-03,-4.13729e-02,-6.24744e-02,3.65342e-03,-1.94625e-02,2.05895e-02,-3.20655e-02,-2.14873e-02,-3.51093e-02,-4.80660e-02,3.22279e-03,4.56935e-02,3.92406e-02,-1.98426e-02,3.87276e-02,-3.95103e-02,-3.48809e-02,-1.94457e-02,-8.67222e-03,-4.27741e-02,-1.89922e-02,-1.45505e-03,-1.21904e-03,-2.86923e-02,1.95520e-02,4.56152e-03,4.22955e-02,1.21676e-03,2.23710e-02,2.61973e-03,-5.06248e-02,1.77391e-03,-1.37174e-02,-4.11781e-02,8.59216e-03,-1.90256e-02,-3.72265e-02,
-4.64631e-02,-2.03846e-02,-5.18026e-02,-3.97660e-02,2.56418e-02,-5.09456e-02,2.52983e-02,-7.02599e-03,-6.37336e-02,-2.18308e-02,2.61056e-02,-6.59439e-03,-2.55929e-02,-2.27935e-02,4.01358e-02,7.96351e-03,-1.90452e-02,-6.32370e-02,7.17359e-03,4.79052e-02,-4.30062e-02,-4.23877e-02,-5.66241e-03,1.63141e-02,-2.39932e-03,-1.01349e-02,-3.34851e-02,-2.21409e-02,2.64792e-02,3.46047e-03,-4.60485e-02,-6.35946e-03,4.18225e-02,-4.27654e-02,-3.00206e-02,-1.09058e-02,-5.23056e-03,-1.36736e-02,-4.84232e-02,1.02364e-02,-3.27867e-02,-3.73131e-02,-5.68668e-02,-1.31730e-02,-5.39356e-02,
-6.33225e-03,-4.64855e-02,2.58228e-03,-5.21620e-02,2.89585e-02,-6.21742e-02,1.04643e-03,-8.18954e-03,-7.81097e-04,-1.31247e-03,1.72775e-02,-1.30570e-03,-1.83337e-02,-4.94764e-02,2.93170e-02,-4.66534e-02,-2.44223e-02,-3.54295e-02,3.03448e-02,3.72723e-02,7.32342e-05,-4.87205e-03,-1.91889e-02,-2.99439e-03,-2.99213e-03,-1.19671e-02,1.56715e-02,1.81263e-02,3.18705e-02,-1.62282e-02,-3.50787e-02,-6.15597e-02,-3.82111e-02,1.13362e-02,-1.42665e-02,7.57600e-03,-5.69110e-02,-3.56625e-02,-9.29094e-04,-1.67484e-02,-4.53204e-03,3.36221e-02,-2.69624e-03,-7.71524e-03,-3.65470e-02,
3.24538e-02,-4.37295e-01,-5.52139e-01,1.34705e-01,5.33363e-02,-1.02659e-01,1.50830e-01,-1.36710e-01,1.72720e-02,-8.33398e-02,5.36477e-02,2.63754e-02,-2.79828e-01,6.27751e-02,2.81181e-01,-4.53764e-01,1.67139e-02,-1.80795e-01,-1.19365e-01,-4.86844e-02,2.15713e-01,-4.56702e-01,1.15614e-01,-7.91947e-03,-8.96856e-02,3.52559e-01,3.96903e-02,-7.12509e-01,1.19683e-01,-1.84465e-01,-4.86585e-02,4.27461e-02,-2.98051e-02,-1.43137e-02,-2.63160e+00,3.24209e-02,-1.61816e-01,2.47721e-02,-1.38721e-01,5.64027e-03,-4.42200e-02,-9.57068e-02,-1.97516e-02,6.06412e-03,1.01109e-01,
3.82103e-03,-8.02510e-02,-7.06045e-01,2.01400e-01,-1.18251e-02,1.51364e-02,-5.48792e-01,4.88722e-01,-1.53791e-01,-2.00049e-01,-5.78642e-02,6.85710e-02,2.43280e-02,-2.56635e-01,8.32758e-02,-2.25761e-01,6.33951e-02,1.49661e-01,-1.04708e+00,-1.91305e-02,9.18384e-02,-5.60850e-02,2.20625e-02,-4.62120e-03,-3.60585e-02,1.47179e-01,-1.72519e-01,1.41293e-01,3.14416e-01,5.45018e-02,-4.06384e-04,2.66820e-01,-2.59946e-02,-2.99538e-03,2.54662e-01,-4.95154e-03,2.34573e-01,9.55497e-03,1.28731e-01,-1.49183e-02,-4.36687e-02,3.68216e-02,-6.56441e-03,-1.89149e-02,-1.12108e-02,
-8.59262e-03,2.87827e-01,3.15612e-01,2.05514e-01,2.00999e-02,-2.11518e-01,6.93506e-01,-4.59137e-02,1.03719e-01,-2.98175e-02,-1.61515e-02,9.81629e-02,-5.05002e-02,-7.61150e-02,4.05071e-01,5.40640e-01,1.18875e-02,3.84604e-01,6.16092e-01,3.25448e-03,-7.57352e-01,-1.73880e-01,-1.28766e-01,3.38235e-02,1.59883e-01,-4.19196e-01,1.41031e-01,-1.97924e-01,-1.31327e-01,2.91017e-01,-2.54622e-03,1.37013e-01,-1.79003e-02,3.74018e-02,-4.13589e-01,-3.25791e-02,-2.37832e-01,-5.25693e-02,-1.57460e-01,-4.73192e-02,3.20802e-02,-1.04016e-01,1.66946e-01,-3.22288e-02,-6.06498e-02,
-2.63992e-02,-2.55073e-02,-2.34074e-02,2.10440e-02,4.10011e-02,2.07552e-02,3.18816e-02,-4.19562e-02,-6.86627e-02,1.00724e-02,1.26365e-02,-1.84290e-02,-6.62765e-02,4.83178e-03,-7.28866e-03,-5.53017e-02,4.29846e-02,-5.89162e-02,8.96123e-03,4.03711e-02,4.61117e-02,2.47905e-02,-3.06947e-02,5.32422e-03,-1.20780e-02,-8.61769e-03,-6.31153e-02,-1.40583e-02,1.65829e-02,-4.59756e-02,-1.21585e-02,-5.03623e-02,4.14007e-02,-2.89606e-02,-2.51892e-03,-3.05536e-02,-4.50606e-02,1.12082e-02,1.19385e-02,1.09380e-03,-7.36843e-03,1.76365e-02,1.44625e-02,-7.01077e-03,-2.89157e-03,
-4.63790e-04,-7.82488e-02,1.38956e-01,1.42984e-01,-2.46136e-02,-7.12880e-02,-2.10867e-01,2.83403e-01,-3.54747e-01,3.07392e-02,-1.17352e-01,-3.80579e-02,9.28147e-02,1.05467e-01,-6.33681e-01,-6.37761e-02,7.45650e-02,7.64592e-02,1.37105e-01,-1.37113e-02,-2.13567e-01,4.37761e-02,-2.50112e-01,-1.33252e-02,3.41745e-01,-2.39259e-01,3.03389e-01,1.81070e-01,1.48164e+00,3.46594e-01,2.17619e-02,3.43219e-02,-3.36823e-02,-3.53469e-02,-1.05081e+00,3.29075e-02,8.27320e-02,-2.92804e-02,3.46998e-01,-3.23135e-02,-2.29315e-02,-2.42189e-01,-1.84880e-01,-1.37076e-02,3.52123e-01,
2.76846e-02,-8.29790e-03,3.43329e-04,6.07192e-03,3.58268e-02,1.49976e-02,3.14471e-02,7.35876e-02,1.08099e-02,-2.11636e-02,3.76263e-02,1.27424e-02,-1.83551e-02,-6.24594e-02,-2.85012e-03,-3.81919e-02,7.57831e-02,5.23075e-03,-1.23222e-02,-4.11084e-02,-1.88956e-04,6.05705e-03,3.52500e-02,-4.07401e-02,-6.79976e-02,-7.36260e-02,2.07205e-02,-2.27045e-02,7.36496e-02,-1.35214e-02,-5.61271e-03,-2.73810e-02,-2.72981e-02,-7.52434e-03,3.09583e-02,3.30366e-02,-5.10741e-02,-5.00814e-02,2.31708e-02,2.73819e-02,-1.49336e-02,-1.20123e-02,-2.15101e-02,8.17900e-03,7.58476e-03,
3.26277e-02,1.26279e-02,-5.88998e-03,-2.47470e-03,9.45857e-03,-9.94768e-03,-1.02756e-02,3.13768e-02,-2.29817e-02,-1.58248e-02,-2.25898e-02,-1.91281e-02,-6.81986e-02,-3.82493e-02,-2.38934e-03,-4.03284e-02,-5.21934e-03,-4.14996e-02,1.52472e-02,4.90952e-03,-4.35841e-03,3.38431e-02,-4.14729e-02,-3.06975e-02,-3.07318e-02,-9.37615e-03,6.51810e-03,-2.21362e-02,2.45373e-02,-3.89901e-02,1.58480e-02,3.74756e-03,-1.82815e-02,-8.74267e-03,-6.63167e-04,-3.83890e-02,-2.66778e-02,-3.64112e-02,-6.89633e-03,2.96257e-02,4.76798e-02,-7.81419e-03,1.80881e-02,4.44684e-02,4.45554e-02,
3.33568e-02,-3.53430e-01,1.17834e-02,-4.81882e-02,-3.63003e-02,-2.84478e-01,-9.18777e-02,-2.27189e-01,-1.47618e-01,2.53871e-01,-1.37241e-01,2.75024e-01,2.82881e-01,-5.64851e-02,-6.34014e-01,-2.59791e-02,3.68562e-02,-1.56389e-01,-2.89206e-01,9.34952e-03,-6.39899e-04,1.06036e-01,2.36658e-01,2.51749e-02,-2.22018e-01,2.18285e-01,1.77529e-01,2.08616e-01,-3.31183e-01,-2.35417e-02,-2.52707e-02,1.98825e-01,1.16734e-02,1.63980e-02,-6.39721e-01,-1.18589e-02,-1.06688e-01,4.93383e-02,-2.00997e-01,-5.77442e-03,5.94678e-02,-5.36865e-02,5.63222e-02,-6.50869e-02,1.91131e-01,
1.29354e-02,-5.88870e-02,-3.53703e-02,-9.31526e-02,3.88562e-02,-1.97025e-01,3.58631e-01,8.94553e-02,-1.93245e-01,-2.71002e-01,1.69733e-01,2.14839e-03,7.67491e-02,3.20601e-02,4.25357e-02,-3.26132e-01,1.35717e-01,2.82883e-01,-3.91751e-01,-3.16259e-02,7.91018e-01,1.72924e-01,2.36012e-01,2.24784e-03,1.76588e-01,-7.04024e-03,-1.03163e-01,-2.24239e-02,-1.26377e-01,-1.59838e-01,1.85445e-03,-2.65711e-01,-3.16985e-02,-3.62770e-02,-7.56170e-01,6.15265e-03,2.96681e-01,-1.67910e-04,-4.81603e-01,7.68376e-03,-5.58258e-03,-3.80668e-02,-5.39988e-02,-2.67390e-02,7.25046e-01,
-4.83112e-02,-4.91588e-01,-1.57454e-01,1.59731e-02,-1.78785e-02,8.86943e-01,-2.03016e-01,-1.00023e+00,3.81149e-01,-5.36937e-02,-9.12146e-02,2.80124e-01,3.31119e-01,1.27549e-01,1.36019e+00,2.32357e-01,-3.70676e-02,-1.58728e-01,-9.63460e-01,-1.52437e-02,2.69177e-01,6.98291e-01,9.11611e-01,2.36763e-02,-1.02475e-01,1.54946e-01,-5.98906e-02,-2.71113e-02,7.42177e-01,-1.58245e-01,-1.64270e-02,1.35858e-01,8.96659e-03,1.50988e-02,-1.02294e-01,2.09459e-02,-2.24140e-01,6.35743e-03,1.70631e-01,-4.85957e-02,-1.48961e-02,1.48622e-01,1.52413e-01,2.05552e-02,-2.20510e-01,
-2.67218e-02,1.64318e-03,3.29407e-01,-2.79788e-02,-4.10119e-02,1.54260e-01,-5.67024e-02,-1.27663e+00,3.00944e-02,-2.64939e-01,1.66956e-01,-3.18996e-02,1.21771e-01,-4.12906e-02,-5.31135e-01,1.36263e-01,3.09668e-02,-1.82336e-01,4.05365e-01,8.63275e-03,2.56231e-01,-1.60248e-01,7.44494e-01,9.50209e-03,-5.68302e-02,-1.81734e-01,1.80540e-01,4.00598e-01,1.99238e-01,-7.18126e-02,-3.69236e-02,-6.08633e-01,-3.59190e-02,4.33252e-02,-2.33454e-01,-1.57413e-02,6.14102e-01,-2.08162e-02,4.30001e-01,2.58448e-02,7.67878e-03,2.23834e-02,-1.60650e-01,6.50343e-02,2.61245e-01,
-1.85102e-02,-1.77124e-01,6.89294e-01,3.09545e-02,-5.00043e-03,-2.19417e+00,1.45086e-01,3.09986e-01,-3.17572e-01,-7.50022e-01,1.03230e-01,3.10912e-02,-2.73074e-01,2.50594e-01,8.39831e-01,1.43030e-01,2.02176e-01,-4.68106e-02,-2.26398e+00,2.59336e-02,1.22946e+00,6.42696e-03,-1.08335e-01,5.20694e-02,2.54479e-01,1.48429e-01,-4.19239e-02,9.48983e-02,-1.50749e+00,-1.80735e-01,2.33620e-02,1.66834e-01,-6.72558e-03,-2.41338e-02,9.59074e-02,-2.10194e-03,3.07928e-01,-1.75497e-02,1.46562e-01,-6.47404e-04,-8.74441e-03,-4.16963e-01,-3.03386e-01,-7.16576e-02,1.50346e-01,
3.54013e-02,1.88960e-02,2.31241e-02,-3.98797e-02,-4.34939e-03,-5.02149e-02,3.87629e-03,1.04020e-02,2.74641e-02,-5.69946e-03,-4.93168e-02,-1.81307e-02,-6.42063e-02,-2.78515e-03,-4.04709e-02,2.46352e-02,1.89172e-02,-6.68794e-02,1.26068e-02,2.05775e-02,4.00770e-02,-6.32859e-03,2.43309e-02,-2.54915e-02,8.10787e-03,-4.24182e-02,-6.59702e-02,-5.68319e-03,2.04538e-02,-1.69363e-02,2.79346e-02,-3.49628e-02,-1.70481e-02,-9.53339e-03,-4.12143e-02,-3.95598e-02,1.33909e-03,-8.38446e-03,-5.04879e-02,3.04741e-02,2.08648e-02,-1.55309e-02,4.31354e-03,7.48815e-03,-1.58120e-02,
3.89326e-02,-3.70503e-02,-1.63872e-02,-3.30337e-02,-4.98771e-02,2.71022e-02,-1.84661e-02,-9.41973e-03,-2.65384e-02,-1.25599e-02,-4.59791e-02,1.05407e-02,-3.34770e-02,-3.71700e-02,4.00348e-02,-3.48475e-02,4.09756e-02,-4.51153e-02,-1.11503e-02,3.06261e-02,1.90673e-02,-2.87576e-02,8.96311e-03,-2.53836e-02,-4.17451e-02,-4.64805e-02,9.68520e-03,2.36323e-02,-4.08744e-02,-3.07588e-02,1.95080e-02,-4.62893e-02,1.84101e-02,2.55626e-02,3.41984e-02,3.33393e-03,-2.97533e-02,-5.06289e-03,1.73886e-02,-8.78618e-03,4.69991e-02,-1.73425e-03,-5.54494e-02,4.51445e-02,4.28581e-02,
3.42702e-02,1.06962e-01,-2.60506e-01,2.93921e-01,3.92338e-02,2.12174e-01,1.51919e-01,-1.91113e-02,-1.68430e-01,2.38433e-01,-8.79768e-02,1.04635e+00,-3.64906e-01,-3.48179e-01,9.17547e-01,1.88226e-01,6.92814e-03,-4.82122e-02,3.55717e-01,-3.48600e-02,7.76520e-01,1.74939e-01,1.29231e-01,-1.78653e-02,1.42904e-01,-1.28823e-01,1.35703e-01,2.53335e-02,-9.75827e+00,5.69577e-02,6.58681e-02,2.37789e-02,-3.60411e-02,-4.06028e-02,-2.37741e-01,-2.83803e-02,-2.38951e-01,1.23152e-02,6.45110e-01,1.89121e-02,-3.18968e-02,6.64484e-01,-1.10265e+00,1.61925e-01,1.70597e-01,
3.22123e-02,-1.60250e-01,-2.67637e-01,9.20880e-02,-7.59349e-03,-6.68689e-01,-3.84993e-01,6.83527e-01,9.17920e-01,-1.13336e-01,-3.13067e-01,-1.27028e+00,-1.08937e-01,-4.00674e-01,-5.40503e-01,-3.15261e-01,-2.84543e-01,-5.89026e-02,-8.59411e-01,4.07264e-02,-3.48950e-01,-4.15443e-02,-2.05472e-01,-7.26511e-03,-1.07404e-01,5.87741e-01,3.87937e-02,2.12240e-01,-1.07885e+00,-2.08505e-01,-1.04582e-01,-1.68156e-02,5.04336e-02,-3.25669e-03,5.10329e-02,-2.43654e-02,3.27530e-01,-3.36303e-02,-1.75256e-01,-4.62687e-03,-1.03153e-03,8.30431e-02,-1.57302e-01,-5.19618e-02,-1.18682e-01,
-3.93634e-02,-3.35827e-02,3.08119e-02,-2.56509e-02,-2.13387e-02,4.37942e-03,4.82580e-03,-9.89443e-03,-5.90494e-02,-3.47306e-02,1.70277e-02,-1.68358e-02,-4.00375e-02,2.01086e-02,-1.25175e-02,1.81042e-02,3.84559e-03,-6.84492e-03,9.66308e-03,2.27032e-02,-2.28639e-02,-5.49631e-02,-7.17222e-02,-4.52128e-02,-2.47905e-02,1.29102e-02,7.85915e-04,-2.80859e-02,-1.21425e-02,-6.93149e-03,3.54016e-02,1.26017e-02,-3.09014e-02,7.36134e-03,-1.39690e-02,-8.09468e-03,-5.72266e-02,1.09322e-02,2.53058e-02,3.12111e-02,-5.04374e-02,-1.59811e-02,-3.30432e-02,3.51796e-02,-1.50067e-02,
-4.30597e-03,-2.65703e-02,-4.98054e-02,3.99469e-03,-7.58314e-03,-5.83819e-02,-3.37558e-02,-5.05780e-03,-1.89302e-02,1.41588e-02,-3.35571e-02,2.22650e-02,-5.02721e-02,-1.87788e-02,8.80805e-03,-3.38912e-02,4.13705e-03,-2.22388e-03,-2.44140e-02,3.49085e-02,4.09783e-02,2.09833e-02,-4.43805e-02,2.86248e-02,-4.18698e-02,2.94071e-03,-2.39941e-02,2.10662e-03,5.61944e-03,1.20514e-02,-1.55107e-02,-2.13545e-02,-8.58541e-03,-6.69624e-03,3.29043e-02,-4.29718e-02,-3.11359e-02,4.04795e-02,-2.13452e-02,-4.01525e-04,-2.39522e-03,-9.29532e-03,-7.29460e-03,1.17507e-02,-5.83041e-02,
-3.52617e-02,1.57863e-01,1.24751e+00,-4.38622e-03,-2.54718e-02,1.66598e-01,6.55647e-01,4.59685e-01,5.77378e-01,-6.03570e-01,-6.39784e-01,3.32483e-02,-3.61624e-01,-2.48092e-01,7.24861e-02,1.41783e-01,-1.28365e-01,-5.19228e-02,8.36861e-01,1.71447e-02,1.67675e-01,1.31632e-01,5.78755e-01,3.41966e-02,1.73200e-01,3.56559e-01,2.93253e-01,-3.80781e-01,1.04065e-01,3.32216e-01,2.35897e-02,3.57599e-01,-4.38410e-03,-3.83830e-04,3.53752e-01,-3.61755e-02,-2.12069e-01,2.85506e-03,9.54256e-02,1.58810e-02,-1.18532e-02,-5.95148e-01,-1.77125e-01,-1.98149e-02,1.78529e-01,
-4.24301e-02,-2.86213e-01,1.05313e+00,5.99918e-02,-2.25501e-03,4.93377e-02,4.59293e-02,2.82818e-01,-1.82777e-01,-4.42752e-01,-5.86975e-02,-2.40330e-02,-4.40566e-01,-1.18161e-01,-2.50693e-01,-6.09850e-01,-7.69130e-02,-6.96729e-01,4.44456e-01,4.44568e-03,2.93552e-01,2.45298e-02,-4.86568e-01,-1.84891e-02,1.55511e-01,2.38848e-01,2.47764e-01,-2.69401e-01,-3.25464e-01,2.50235e-01,4.56749e-02,9.67895e-02,-4.73328e-02,-1.65674e-02,9.29095e-01,-3.50147e-02,-6.81665e-02,1.76618e-02,-1.92654e-01,-4.19418e-03,3.12150e-02,3.47028e-01,5.13145e-01,-5.19097e-02,1.48956e-01,
2.04959e-02,-1.29551e-01,-2.89694e-01,2.57317e-01,-4.33941e-02,-6.63571e-02,-1.00088e-01,-2.63782e-01,2.06757e-01,1.86005e-01,-7.62215e-02,1.07238e-01,-4.70906e-02,-2.77693e-01,1.42957e-01,-2.17692e-01,9.89426e-02,5.45837e-02,-5.37099e-01,-4.31460e-02,6.43921e-01,2.90501e-01,-1.49948e-01,2.59773e-02,2.28973e-02,-2.09778e-01,3.16325e-01,-1.65734e-01,2.90178e-01,6.99734e-02,-5.57176e-02,2.86117e-01,-2.76172e-03,3.51483e-02,4.40938e-01,-3.74277e-02,3.86148e-01,3.30988e-02,-1.71896e-01,-1.37324e-02,-5.14531e-02,6.40651e-02,-2.54989e-03,-4.86988e-02,-1.47563e-01,
-2.05858e-02,-2.61000e-01,-4.11806e-01,1.44257e-01,1.27723e-02,7.40824e-01,3.46004e-02,-1.49776e+00,3.80272e-01,8.81912e-02,1.33897e-01,-4.97188e-01,-4.80340e-01,2.15071e-02,-3.66635e-01,8.84293e-02,1.93909e-02,-3.82184e-01,-8.51089e-01,-4.67239e-02,2.02768e-01,1.57436e-01,4.11864e-02,-5.96872e-03,9.78664e-02,2.32799e-01,-2.52427e-01,9.81687e-01,4.33613e-01,1.74102e-01,3.79712e-03,2.43665e-01,-4.83004e-02,3.65747e-02,-6.44151e-01,-6.31089e-03,-3.84655e-01,-2.52396e-02,-3.56783e-01,-3.45446e-03,1.49385e-02,-9.08860e-02,3.62395e-01,-8.36529e-03,3.60028e-01,
7.36674e-05,-3.96892e-02,8.32642e-03,-2.80375e-02,-2.95146e-02,-2.68643e-02,-6.28273e-02,-1.50983e-02,-4.84986e-02,-3.26669e-02,2.80617e-02,-2.73114e-03,-4.96067e-02,2.09170e-02,3.24781e-02,3.00199e-03,-5.06986e-03,-3.33146e-02,2.50130e-02,4.36802e-02,-4.91423e-03,1.33787e-02,-1.94475e-02,-3.41268e-02,7.22835e-04,-3.62851e-02,-8.05824e-03,-4.18055e-02,6.91825e-03,-8.36273e-03,-2.29546e-02,-5.98525e-02,-1.11750e-02,3.85039e-02,3.75634e-03,-2.12627e-03,1.07377e-02,3.47713e-02,3.15445e-02,3.63355e-02,-4.76405e-02,-1.91791e-02,-3.58946e-02,3.48652e-02,-2.80793e-02,
1.87803e-02,-2.12436e-02,1.56661e-02,1.35234e-02,-2.96857e-02,-3.16972e-02,-4.08732e-02,2.64807e-02,7.30122e-03,-3.03334e-02,6.60845e-03,2.02554e-02,-2.26189e-02,1.03880e-02,2.75186e-02,-2.62941e-02,4.27296e-02,-3.33493e-02,-4.27498e-02,-3.94199e-02,-1.55003e-02,1.05416e-02,5.93180e-03,-2.70544e-02,-1.85051e-02,5.67174e-03,-3.74887e-02,-2.54286e-03,-6.35796e-03,1.73005e-02,-2.46711e-02,-5.62367e-04,4.20988e-02,6.81545e-03,4.48661e-03,-1.13811e-02,-1.81359e-02,8.98131e-03,-1.69853e-02,3.38787e-02,2.25934e-02,-5.26000e-02,-1.82360e-02,1.97901e-02,-5.63817e-02,
-7.46791e-03,-5.32187e-01,4.10004e-01,6.52989e-01,-6.10984e-03,1.93426e-01,3.36028e-01,2.53522e-01,1.55164e-01,-1.68224e-01,1.77541e-01,2.35340e-01,2.39303e-01,4.11965e-01,3.17469e-01,-1.65562e-01,1.18570e-01,-1.45483e-01,2.36391e-01,5.18189e-03,4.64684e-01,3.66958e-01,3.14908e-02,2.67976e-02,9.50893e-02,-6.50350e-01,5.05906e-01,-1.62017e-02,4.56773e-01,1.01296e-01,-2.78717e-02,8.39481e-01,3.11973e-02,1.05609e-02,-8.28932e-03,-1.31392e-02,7.58327e-01,-4.00479e-02,2.48724e-01,-1.15868e-02,4.10295e-02,6.75993e-01,-4.83317e-01,5.18482e-02,-2.01051e-01,
-3.50226e-02,1.22722e-01,6.73225e-01,-1.25188e-01,-4.36029e-02,-1.73637e-01,-2.82091e-01,1.55198e-01,-6.28594e-03,1.47158e-01,4.79175e-02,-2.98010e-02,-2.27750e-01,-9.47713e-02,-2.53897e-01,3.81817e-03,-1.95028e-02,-1.53499e-01,5.32007e-01,-5.62480e-02,-4.75190e-01,-1.02277e-01,1.97362e-01,-4.52781e-02,1.21827e-01,6.55700e-03,-2.20930e-01,-2.51282e-02,-4.96313e-01,1.56465e-01,-5.52730e-02,1.14117e-01,4.27706e-02,2.72133e-03,9.07351e-02,9.39921e-03,7.14519e-02,-3.51695e-02,1.49274e-01,-3.63293e-03,5.79512e-02,-3.65503e-03,6.35713e-02,3.54751e-02,-6.13850e-02,
-3.19504e-02,-2.00007e-01,-2.09278e-01,-2.36648e-01,-1.15464e-02,-5.03890e-01,9.64643e-02,9.95745e-01,-1.61687e-02,1.53522e-01,2.81031e-01,-2.56596e-02,1.79108e-01,-4.93762e-02,-1.63428e+00,-1.64190e-02,-2.36053e-02,1.38061e-01,3.89511e-01,-2.56137e-03,-5.39940e-01,-8.62389e-02,-1.42798e-01,1.20678e-02,1.22203e-01,6.51028e-03,4.93759e-01,1.05201e-01,-5.19614e-01,3.27256e-02,5.28020e-02,-5.72912e-01,2.16033e-02,-2.85963e-02,4.59774e-02,-1.63729e-03,-1.37534e-01,-6.81126e-03,8.80676e-02,-6.07806e-02,-1.62065e-02,-4.47541e-02,3.74849e-01,6.80123e-02,-5.23748e-01,
-8.88376e-03,-6.43133e-02,-3.01798e-02,-8.14581e-02,1.85265e-02,6.44838e-02,-9.00919e-03,4.08576e-02,1.31435e-02,-2.33233e-02,-4.33692e-02,-1.07010e-02,-8.78703e-02,-4.33508e-02,-2.80828e-02,-4.16763e-02,4.28221e-02,-1.54138e-02,-2.03957e-03,1.05917e-02,3.14260e-02,-5.30789e-02,-1.25025e-02,-2.45418e-02,6.59057e-03,-2.27522e-02,-6.29267e-03,4.55523e-02,2.10035e-02,-2.71380e-02,-1.58452e-02,1.93854e-02,-4.30256e-02,-2.61280e-02,-6.31360e-03,-3.12769e-02,-1.73667e-02,9.08876e-03,-2.42656e-02,-3.88541e-03,-1.44411e-03,-1.50395e-02,-3.44802e-02,1.88212e-02,-3.16282e-02,
2.93323e-02,-1.85248e-01,-4.95953e-01,5.63727e-01,3.61850e-02,-3.30442e-01,-1.96425e-01,-1.92384e-01,-3.01078e+00,1.27354e+00,1.10190e+00,-3.97886e-03,7.38929e-01,3.43941e-01,-1.47417e-01,-5.53362e-01,-2.00113e-01,-3.92298e-02,-5.62001e-01,-3.16684e-02,5.80490e-01,1.36323e-02,-1.36295e-01,2.08183e-02,1.43032e-01,-9.01271e-01,3.24041e-01,2.13878e-02,-2.25772e+00,-8.52897e-02,-9.63858e-03,1.56365e-01,4.37903e-02,-1.53931e-02,-3.23111e-01,3.76508e-02,6.76499e-01,1.68151e-02,3.53734e-01,-1.87714e-02,-3.36220e-02,1.43925e+00,9.25220e-01,-7.49675e-02,-3.76135e-01,
9.97826e-03,8.68773e-01,1.48662e+00,-7.53616e-02,-3.15201e-02,-7.80657e-02,4.95025e-01,5.38062e-01,1.62517e-01,4.24467e-01,4.70341e-01,-4.10188e-01,7.75514e-01,8.31671e-02,1.49580e-01,9.26815e-02,1.67993e-01,-4.09300e-01,1.04164e-01,-2.15100e-02,-3.06917e-02,2.02972e-01,-6.15915e-02,2.84153e-02,6.81085e-01,-3.49102e-01,9.55055e-01,6.75511e-01,-2.90378e-01,2.64531e-01,-5.43433e-02,4.75005e-01,-2.51011e-02,-4.53099e-02,-4.65986e-01,3.75503e-02,3.49520e-01,2.03051e-02,1.29157e-01,-2.00034e-03,2.38218e-02,7.46136e-01,3.05815e-01,-4.70308e-02,3.45092e-01,
-4.29350e-02,2.31145e-01,-5.83395e-01,8.43996e-01,-5.22183e-02,-1.13844e-01,-5.49734e-01,5.98561e-02,-3.59312e-01,-1.38720e-01,-2.23830e-01,-3.20271e-02,-6.22008e-03,3.01451e-02,-1.34334e-01,-1.39501e-01,-1.23731e-01,6.24772e-02,-8.34169e-01,-3.46702e-02,-9.84261e-01,3.08134e-01,1.61592e-01,2.79189e-02,1.20327e+00,2.70344e-01,6.60831e-02,-2.00267e-02,-2.75432e-01,6.55298e-01,-5.50882e-04,-4.95473e-02,-5.19723e-02,-4.44891e-03,-1.40015e+00,9.28457e-03,-2.75186e-01,1.62438e-02,-2.99826e-02,-5.98734e-03,-1.75473e-02,1.93882e-01,1.24702e-02,-4.97908e-03,9.02866e-02,
-1.46790e-02,-4.37089e-02,2.51137e-03,-1.39036e-02,2.09951e-03,-2.29286e-02,-4.09709e-02,3.14939e-02,-3.92034e-02,-4.30493e-02,3.94406e-02,-4.42154e-03,-4.64162e-02,-3.92783e-02,-4.68761e-02,4.51408e-02,1.00804e-02,-4.08215e-03,-4.23675e-02,-3.59847e-02,-3.63963e-02,-9.69831e-03,-2.02562e-02,2.01763e-02,-2.30308e-02,5.99860e-04,1.05515e-02,-1.50515e-02,4.49185e-02,-2.65754e-02,4.25731e-02,4.97397e-02,-1.10256e-03,-2.83009e-02,-3.15575e-02,-3.32055e-02,-8.01629e-03,-1.91374e-02,-3.99646e-02,-1.07283e-03,-4.34266e-02,3.95736e-02,6.51566e-03,3.18602e-02,-3.53732e-02,
-2.04146e-02,2.73905e-02,-1.64212e-02,-5.21259e-02,-1.80457e-02,2.68673e-02,1.00536e-02,3.24971e-02,-2.22025e-02,-4.52516e-02,-3.40526e-02,-4.21546e-02,-2.77638e-02,-3.45233e-02,2.40923e-02,-6.09168e-02,-4.84247e-02,-1.73752e-02,-5.25663e-02,-1.80122e-02,-8.57559e-03,-4.71640e-02,-2.06831e-02,4.22618e-02,-4.91802e-02,-5.24583e-02,1.92549e-02,-5.49987e-02,-8.70591e-03,-2.03522e-02,-2.78329e-02,1.77028e-02,4.91386e-02,3.56918e-02,-1.18972e-02,3.59500e-02,-2.60734e-02,-1.65240e-02,-1.27172e-02,-2.62960e-02,-1.43262e-02,-3.19943e-02,5.19942e-03,-2.83847e-03,-9.84579e-03,
-2.70987e-02,-1.77416e-01,3.78327e-01,-3.39935e-01,4.96392e-02,5.99038e-02,-3.35213e-01,-1.92986e-01,2.54046e-01,-3.29153e-01,-2.65446e-01,2.31603e-02,-4.54946e-01,8.77808e-02,-1.70846e-01,7.24545e-02,4.00315e-02,-7.52783e-02,2.00616e-01,-5.03047e-02,-4.65828e-01,3.21511e-02,1.79127e-01,2.52266e-02,2.87132e-01,-1.32746e-01,1.07219e-01,3.25387e-02,5.99854e-01,6.04476e-01,2.91331e-02,2.46868e-01,-2.95927e-02,1.18182e-03,-6.42297e-01,2.69644e-03,3.67112e-01,3.41868e-02,3.98561e-01,3.06780e-02,2.74175e-02,-3.40477e-01,1.58704e-01,1.72731e-01,3.93038e-01,
-1.22194e-02,4.32118e-01,5.21845e-02,-6.30658e-02,-3.75082e-02,-2.59527e-01,-1.52578e-01,7.77837e-03,-1.33283e-01,-1.65831e-01,1.96734e-01,-6.53366e-02,-2.82772e-01,6.42003e-01,-5.29429e-01,-1.36560e-01,-5.93869e-02,2.37534e-01,1.57493e-01,2.00679e-02,-2.22132e-01,-2.04804e-01,2.27470e-02,-4.26791e-03,7.50827e-01,-6.34152e-02,1.97311e-02,-4.50032e-01,2.50778e-01,-4.04872e-01,9.69543e-03,-5.27096e-03,-1.89834e-02,-4.02113e-02,2.96312e-01,-4.89071e-02,-3.59914e-01,4.22442e-03,3.97992e-01,-2.81484e-02,-1.52221e-02,1.63646e-01,-6.57281e-02,1.33321e-03,7.07938e-02,
-3.59897e-02,2.56077e-02,-6.15138e-02,-6.08493e-02,2.70181e-02,-4.90112e-02,-4.86821e-02,3.65095e-02,-5.29531e-02,-5.65842e-02,1.06190e-02,1.65564e-02,-3.41318e-02,-5.66476e-02,4.08053e-02,1.23215e-02,-3.92649e-02,8.38976e-03,-8.56113e-03,4.73473e-03,2.19106e-02,-1.92290e-02,1.93461e-02,-4.60446e-02,-4.72863e-02,-1.85679e-02,-3.70996e-02,2.88975e-02,-3.52355e-03,-5.53670e-02,4.55474e-02,-3.91909e-02,-1.29223e-03,2.45202e-02,-1.94679e-02,4.86977e-02,-3.09658e-02,-2.83763e-02,4.93353e-03,-9.84517e-03,4.38322e-02,-8.06271e-03,2.41661e-02,3.06542e-02,-4.87677e-02,
1.10182e-02,1.13921e-01,-7.77192e-01,4.97482e-01,-5.23235e-02,-4.00488e-01,-1.50970e-01,-1.14256e-01,5.08580e-02,-1.23203e-01,4.05184e-02,1.89092e-01,5.51149e-02,-8.15668e-03,2.63788e-01,-4.58036e-01,1.26417e-02,2.95403e-01,-1.02529e+00,-2.49767e-02,6.73826e-01,-9.70812e-02,1.30096e-01,-4.06592e-02,-3.66156e-01,1.77096e-02,-3.89826e-01,8.10217e-02,-4.63416e-01,2.19385e-01,-5.32959e-03,-3.74392e-02,3.47473e-02,-8.13594e-03,-1.46078e+00,3.98293e-02,-1.58993e-01,-2.43925e-04,-2.41933e-01,-4.99542e-02,-2.27313e-02,4.89386e-02,-1.39332e-01,1.75533e-02,2.20508e-01,
4.11476e-01,
3.04898e-01,
-3.16221e-02,
-2.15970e-01,
3.07231e-01,
-1.11607e-02,
-2.38868e-02,
-2.12869e-02,
4.57159e-01,
5.05035e-01,
-4.31397e-01,
-2.41093e-02,
2.42601e-01,
3.84376e-03,
-2.81109e-02,
9.75757e-02,
1.80714e-01,
1.40770e-01,
6.00446e-02,
1.94691e-02,
-3.70194e-02,
-4.77544e-03,
-4.31009e-01,
1.06017e+00,
-2.50404e-02,
-1.97345e-02,
8.55478e-01,
-2.08531e-01,
6.66776e-01,
8.74683e-02,
-2.50396e-02,
-1.46447e-02,
1.40593e-01,
8.17054e-02,
4.68935e-02,
-7.15048e-02,
-5.99251e-01,
-5.47180e-02,
5.34368e-01,
0.00000e+00,
-5.17379e-03,
-1.69681e-01,
3.19275e-01,
-1.85862e-02,
4.83288e-01,
-3.79871e-02,-4.08560e-02,1.41033e-02,3.62039e-02,1.90864e-03,-3.12552e-02,-3.52200e-03,-3.62978e-02,-7.27018e-03,3.98180e-02,-4.23003e-02,-8.20918e-03,2.34198e-02,3.71313e-02,2.64050e-02,-2.33352e-02,1.72865e-02,-2.90943e-02,1.00338e-03,-2.53405e-02,-2.61451e-02,-6.96512e-03,-3.32521e-02,-2.08171e-02,-4.75446e-02,4.42295e-02,-5.24443e-02,2.28025e-02,-3.77446e-02,-3.86849e-02,-2.80164e-02,-9.16839e-03,-1.05793e-02,6.20463e-03,2.27318e-02,-4.95174e-02,-4.10496e-02,-2.24006e-03,2.98282e-04,-3.65422e-02,1.52120e-02,2.59792e-02,-3.53549e-02,1.32191e-02,-2.44626e-02,
-8.91186e-02,1.01110e-01,3.97956e-02,-1.40445e-02,1.49835e-01,-1.26848e-02,2.71994e-02,4.23138e-03,-3.21939e-01,5.05610e-01,-6.20550e-01,-5.21508e-02,-1.64734e-01,-4.87167e-03,4.91167e-02,-2.74514e-03,-2.82558e-01,-9.45801e-03,-6.28165e-02,-3.37632e-01,1.24090e-02,1.77372e-02,1.74103e-02,1.42890e-01,-1.00420e-02,-3.93000e-02,-3.10372e-01,-5.39268e-01,3.73638e-01,1.19578e-01,1.90879e-02,-1.40490e-02,-1.10485e-01,-2.79129e-01,-1.39312e-02,-1.47104e-02,2.64534e-02,-2.44940e-01,4.73493e-01,2.00222e-02,1.59014e-02,2.50073e-02,-1.55838e-01,3.57164e-02,6.91571e-01,
2.14644e-01,4.18764e-01,-4.49921e-02,5.37671e-01,4.18521e-01,-1.91582e-02,7.31848e-02,1.34426e-02,8.35146e-01,1.23223e+00,8.46668e-01,-7.89888e-03,-1.40152e-01,8.38337e-03,-5.61255e-03,8.04316e-01,3.61663e-01,-4.64314e-01,6.57864e-03,4.89959e-01,4.64249e-02,4.06072e-02,3.88578e-01,-1.51207e+00,2.45674e-02,-4.07526e-02,-4.57607e-01,2.28270e-01,-9.90492e-02,5.22950e-01,-1.33654e-02,-2.24101e-03,-2.95271e-01,6.41030e-01,4.42099e-01,1.24989e-01,-3.54292e-01,-3.38692e-01,9.66491e-02,4.87116e-02,-9.77612e-03,1.66794e+00,1.10117e-02,2.91604e-02,1.51865e-01,
-3.89411e-02,7.39225e-03,4.14265e-02,-5.36765e-02,-1.53232e-02,4.04660e-02,-3.25034e-03,-4.60432e-02,2.67167e-02,3.18983e-02,-3.42138e-02,4.41015e-02,4.67885e-02,1.67381e-02,3.19044e-02,-2.12727e-02,-6.14780e-02,-2.14399e-02,-5.16884e-02,1.78063e-02,-1.22532e-02,1.13936e-02,-2.30156e-02,-6.00511e-02,-4.36289e-03,2.19528e-02,-3.69670e-02,-4.26573e-02,-3.62131e-02,-2.48977e-02,2.81692e-02,4.67095e-02,-2.82672e-02,-4.76521e-02,-5.99935e-02,9.92328e-03,-4.28780e-02,-1.36316e-02,1.67873e-02,2.73701e-03,3.22066e-02,4.58527e-02,3.93424e-02,-8.73595e-03,-3.52225e-02,
-4.04992e-01,7.24481e-01,-9.92789e-03,-2.97409e-01,2.42322e-01,-4.32118e-02,7.10793e-03,-1.90186e-02,4.98912e-01,-5.47505e-01,2.09906e-01,-3.03313e-02,2.68770e-01,-8.42453e-02,1.34684e-02,7.95718e-01,2.83419e-01,2.41659e-01,-5.43038e-01,2.10540e-01,2.08005e-02,4.87595e-02,-7.50915e-02,-3.59524e-02,3.35166e-02,9.64389e-03,-3.16041e-02,6.38066e-02,2.73400e-01,-2.11004e-01,-4.00179e-02,1.28935e-03,4.11114e-01,-1.86914e-01,1.05725e-02,-2.49701e-02,1.08692e-01,-4.45974e-02,-2.86005e+00,-3.62207e-02,-4.57662e-02,3.34906e-01,-1.95391e+00,4.04977e-02,5.36324e-01,
-2.13677e-01,-6.33605e-02,-1.16819e-02,8.62642e-03,-4.51616e-01,-1.61497e-02,-3.74937e-03,3.33161e-02,-1.50320e-01,-8.00449e-01,-3.85080e-01,-5.44331e-03,-4.14977e-02,4.66663e-02,-4.73581e-02,4.02416e-01,3.81075e-01,-2.16698e-01,2.12344e-03,2.70802e-01,-4.75297e-02,-2.26129e-02,-4.42605e-02,1.38437e-01,1.16937e-02,-1.85813e-02,-1.91444e-01,-2.20667e-01,7.38359e-02,4.65830e-01,-2.72826e-02,-3.66713e-03,1.06763e-01,1.75839e-01,-2.36676e-01,-1.58687e-02,2.79885e-02,-1.93499e-01,2.42180e-01,2.59007e-03,4.79487e-02,-1.64447e-02,-5.05885e-02,4.94379e-02,4.16864e-01,
-2.89102e-01,-2.86954e-01,-3.54233e-02,-2.68043e-01,-2.05713e-01,4.70916e-02,4.98354e-02,-3.04309e-02,-5.74928e-01,1.26687e-01,2.33441e-02,2.13710e-02,-3.50072e-01,2.68792e-02,4.82209e-02,-3.97251e-01,-1.82447e-01,9.74422e-01,-1.40814e-01,1.23149e-01,-1.77819e-02,-2.15815e-02,4.23268e-01,-1.48540e-01,-2.57523e-03,-3.00453e-02,-4.17721e-01,6.93522e-02,9.55695e-02,1.02245e+00,4.25068e-02,-9.36596e-03,-2.07752e-01,-7.27885e-01,5.68694e-02,3.09436e-02,-8.37203e-02,1.76623e-01,-1.84213e-02,2.61773e-02,7.76024e-03,5.19120e-01,3.59868e-01,2.61262e-02,3.66016e-01,
3.90942e-01,-7.25134e-01,-1.30163e-02,4.18855e-02,-8.17150e-01,-3.59892e-02,-6.10098e-03,3.72067e-02,-1.34994e+00,7.40682e-02,-4.82398e-01,-2.55448e-02,1.75809e-02,-2.99652e-02,3.58482e-02,1.20867e-01,-5.58839e-01,-2.03119e-01,-3.76720e-02,-3.61851e-01,-7.87307e-03,3.86009e-02,-1.91818e-01,3.05986e-01,2.16663e-02,-5.41249e-03,-5.75706e-01,-5.78480e-01,-1.90594e-01,1.31228e+00,1.82028e-02,2.48870e-02,1.46657e-01,7.11073e-01,-6.05032e-02,1.19158e-01,2.56389e-03,-4.69392e-02,4.39723e-01,-2.95563e-02,3.84389e-02,1.87480e-02,-3.94356e-01,1.69989e-02,-3.28564e-01,
1.38531e-01,-5.81316e-01,-5.69611e-02,-2.25795e-01,-5.94339e-01,2.94937e-02,2.80245e-02,-4.85110e-02,-2.85903e-01,1.27818e-01,1.59831e-01,8.72068e-03,3.73547e-01,4.90453e-02,2.90857e-03,5.21441e-03,-9.21432e-02,5.05870e-01,9.00194e-02,-9.31538e-02,-1.61087e-02,-7.11368e-03,3.28987e-01,7.33449e-01,3.24964e-02,-2.11136e-02,-4.02790e-01,-2.34449e-01,-4.71195e-01,7.58054e-01,-1.57808e-02,2.31884e-02,-8.88479e-02,5.16946e-02,2.23342e-01,1.70389e-02,1.30091e-01,4.54417e-02,3.42604e-02,-3.79423e-02,-1.62637e-02,-3.39830e-01,1.48117e-01,-2.85651e-02,1.50075e-01,
6.06640e-01,-3.37768e+00,3.47982e-02,-5.25777e-01,5.14943e-01,-3.04603e-02,-4.98468e-02,7.61139e-03,3.00432e-01,1.44486e+00,5.96655e-01,-1.26684e-03,7.44633e-01,1.45000e-02,-3.68507e-02,3.28063e-01,9.77111e-01,-1.71398e-01,6.46106e-01,1.42507e+00,-1.99923e-02,2.09364e-02,-2.01185e-01,-2.80882e-01,6.65562e-04,-3.65627e-02,5.30345e-01,9.80093e-01,7.27005e-01,5.29039e-01,-4.09331e-02,-4.51768e-02,-1.21279e-01,6.04688e-01,3.46426e-01,6.45200e-02,-9.57496e-01,-6.54630e-01,2.34153e-02,1.48740e-02,-3.88452e-02,-1.32395e+00,4.85636e-01,4.91616e-02,4.38558e-01,
-1.16110e-02,2.21629e-02,3.06319e-02,2.05105e-03,7.36368e-03,3.38263e-02,4.84881e-02,-1.14408e-02,-1.96656e-02,-4.18807e-02,-2.01881e-03,-2.39908e-02,3.49027e-02,4.99123e-02,-3.58483e-02,1.18186e-02,-3.70751e-02,-1.28538e-02,-4.57996e-02,-1.86258e-02,4.90696e-02,4.07295e-02,3.86866e-02,-7.85242e-03,-3.33685e-02,3.64749e-02,-3.21193e-02,9.36745e-03,-4.89390e-02,-7.21485e-03,-2.46270e-02,-4.73605e-02,-2.13148e-02,-3.58473e-02,-1.84848e-02,2.76625e-02,3.80667e-02,-5.55287e-02,-5.05826e-02,3.82504e-03,1.58804e-02,3.70993e-02,6.55043e-03,3.82916e-03,-1.94469e-02,
-4.39197e-02,2.84598e-02,-7.60922e-03,1.30463e-02,2.49050e-02,8.89615e-03,2.03554e-02,4.13073e-02,-2.50015e-02,2.15721e-03,2.04859e-03,2.91627e-02,-3.34083e-02,6.65618e-03,-4.20654e-05,-5.43818e-02,-3.97276e-03,-2.13607e-02,-3.89518e-03,-1.57524e-04,-1.97328e-02,1.73189e-02,-2.46072e-02,2.08724e-02,-3.88797e-02,3.75427e-03,3.53785e-03,-1.34623e-02,-3.25997e-02,-2.52140e-02,4.84496e-02,-2.64731e-02,1.72087e-02,-3.42372e-02,-4.28467e-02,-2.99416e-02,-3.84795e-02,-5.69883e-02,-3.66365e-02,1.48936e-02,1.60218e-02,-3.93865e-02,-5.61695e-02,4.40893e-03,3.16812e-02,
-4.22264e-01,-1.49965e+00,1.32920e-02,5.04467e-02,7.35410e-01,-4.64155e-02,-1.42001e-02,8.89017e-03,-9.90690e-01,3.34370e-01,-9.62072e-02,1.22072e-02,3.63430e-01,-2.07261e-02,2.52323e-02,-1.97825e-01,5.39919e-01,-1.76805e-01,6.00852e-01,-1.32379e-01,-4.59222e-02,1.79882e-02,-6.86763e-02,4.85943e-02,1.99790e-02,3.43676e-02,-2.56910e-02,7.89484e-01,-1.29144e-01,4.82115e-01,2.65582e-02,-3.56417e-02,-3.66310e-02,2.11736e-01,-4.92751e-01,-3.41505e-02,1.05962e-01,-1.94637e-01,2.26418e-01,3.05164e-03,-1.52854e-02,-9.47052e-01,-4.94841e-01,-2.01475e-02,-3.03998e-01,
-1.30592e+00,-5.89109e-01,-2.92056e-02,-4.09891e-01,1.09577e-01,2.71789e-02,1.33726e-02,-2.33525e-02,5.28763e-01,-5.38805e-01,-1.27527e-01,-3.08873e-02,9.02588e-01,4.98816e-02,2.66097e-02,6.04144e-03,9.43477e-02,-3.25350e-01,3.45577e-01,1.15722e+00,5.79593e-03,4.06990e-02,-3.54491e-02,-6.87390e-03,-1.54444e-02,-2.93958e-02,1.41107e-01,-4.67806e-01,-2.62888e-01,6.38938e-01,-3.98006e-02,-8.87811e-03,-1.53790e-01,3.75697e-02,-2.11012e-01,1.33326e-01,4.45781e-01,-1.89910e-01,-1.49260e-01,4.96364e-02,1.46193e-02,-6.99139e-01,9.23635e-02,-3.74817e-02,-9.98375e-01,
-3.11581e-01,-1.62227e-01,-2.29788e-02,-1.61887e-01,3.08727e-01,1.62721e-02,1.35076e-02,4.10346e-02,-5.13245e-01,2.78131e-01,1.91973e-02,-5.68102e-02,-4.30105e-01,3.94043e-02,2.08295e-02,2.57493e-01,-8.61669e-02,-1.32435e-01,8.85137e-02,1.80793e-01,2.70977e-02,-4.73866e-02,3.01598e-01,3.34752e-02,-8.03286e-03,-5.11098e-02,-1.59320e-01,2.82532e-01,3.71857e-01,-1.63253e-01,-6.96852e-03,-4.59803e-02,-1.05495e-01,-3.70121e-01,1.64157e-01,-2.41245e-02,2.90439e-02,-2.27904e-01,1.27569e-01,-1.12086e-02,-2.71167e-03,6.12159e-01,3.87357e-01,-4.42455e-02,7.84820e-01,
-5.33257e-01,3.96186e-01,-2.97602e-02,4.81566e-01,-4.78635e-01,-2.19416e-02,8.04489e-03,4.45942e-03,-7.10268e-01,6.08915e-01,3.34738e-01,-3.77556e-02,-3.07103e-01,5.13586e-02,1.07533e-02,2.85776e-01,5.73732e-01,8.29978e-02,-1.50660e-01,-2.34960e-01,-4.91326e-02,3.37437e-02,-2.09488e-01,8.70286e-02,6.21173e-03,2.04378e-03,-6.35185e-02,-9.73096e-03,-2.12520e-01,-1.97125e-01,-4.66920e-02,-5.96797e-02,2.36062e-01,-7.12254e-02,-1.15191e-01,-3.77063e-02,-3.53717e-02,-4.49168e-01,3.97894e-01,-2.93047e-02,3.25658e-02,-4.04950e-01,-7.48709e-02,3.38533e-02,7.03939e-01,
-1.11523e-01,-9.26428e-01,-4.53103e-02,-5.25280e-02,-3.33919e-01,-8.24742e-03,2.85279e-02,9.03909e-04,-9.64683e-02,-1.20139e-01,-1.33896e+00,1.21909e-02,-8.58938e-02,1.28395e-03,-1.91972e-02,1.41202e-01,2.76737e-01,4.90194e-01,9.89230e-01,4.81506e-01,1.50949e-02,3.52914e-02,1.18420e-02,5.98228e-02,3.25897e-02,-1.19868e-02,-2.07675e-01,-4.17655e-01,3.48167e-01,1.56074e-01,-2.37647e-02,1.14372e-02,2.11558e-01,6.25636e-02,1.69675e-01,3.30259e-02,-4.38736e-02,-4.54406e-01,2.80552e-01,-1.64137e-03,3.50517e-02,-3.98852e-01,4.55529e-01,1.31391e-03,-3.43832e-01,
-5.03581e-01,-3.54382e-01,5.68749e-02,2.54162e-01,1.25454e-01,3.59317e-02,1.12314e-02,1.42240e-03,1.23064e-01,4.98268e-01,-7.36149e-02,-5.71109e-02,-8.22394e-04,-2.85774e-02,-4.17735e-02,-5.58206e-02,-1.69852e-01,-6.20831e-02,-6.79625e-01,1.05762e-01,-3.58254e-02,4.56400e-02,1.08370e-01,7.82984e-02,8.13569e-03,3.23214e-05,-7.68939e-03,-6.23401e-01,1.77233e-02,3.68702e-01,-4.20720e-02,-3.70086e-02,-2.96067e-02,2.47602e-02,-4.37635e-01,5.29785e-02,6.48363e-02,-2.34923e-01,2.44866e-01,3.59609e-02,1.72003e-02,9.45826e-02,-4.35638e-02,1.91802e-02,5.12268e-01,
-6.62119e-01,5.57397e-01,2.69176e-02,1.95947e-01,2.45957e-01,-1.13655e-03,-1.00557e-03,-9.51112e-04,-4.57900e-01,-1.69180e-01,-5.75687e-01,-2.62774e-02,-5.16961e-01,6.65251e-03,2.65331e-02,-2.93494e-01,5.00652e-01,-3.05945e-01,1.66258e-02,2.62335e-01,-1.90360e-02,-7.46344e-03,-6.83182e-02,5.99161e-02,7.65840e-03,3.06655e-02,3.00305e-02,-8.06615e-01,6.26651e-01,4.33806e-01,3.10080e-02,-4.57856e-02,-4.66612e-02,-3.89431e-01,-1.24426e-01,-1.58323e-02,1.38026e-01,-2.67200e-01,2.30241e-01,-2.43451e-02,-3.94103e-02,4.75912e-01,1.74052e-02,-5.95686e-02,-3.17836e-01,
1.87461e-01,-7.46535e-02,-1.90199e-02,-1.66383e-01,-3.90925e+00,2.57016e-02,2.79675e-02,-2.44740e-02,-4.24359e-01,-1.00100e+00,4.06574e-02,3.47630e-03,-2.24258e-01,-5.79197e-02,1.65668e-02,-6.36978e-01,-1.58887e-01,-9.22284e-02,-3.78341e-01,-7.93017e-01,-4.50298e-02,2.24436e-03,2.35006e-02,-1.14762e-01,5.26290e-02,-1.33295e-03,1.33060e-01,-1.37984e-01,-2.34460e-01,-2.61140e-02,7.65156e-03,-4.10215e-03,7.71005e-02,2.11065e-01,-3.45705e-01,5.68455e-02,1.49987e-01,9.25227e-02,-1.39982e-02,2.60720e-02,-2.87802e-02,9.85821e-02,-1.59778e-01,7.01302e-03,-1.10470e+00,
4.70192e-02,-1.27558e+00,-1.49249e-02,-1.06207e-01,-1.97280e-01,-1.09057e-03,5.89584e-03,-1.61125e-02,-2.02998e+00,3.30723e-01,-7.66346e-02,-1.78693e-02,2.94672e-01,3.42844e-02,4.21586e-03,-8.76809e-02,2.84704e-03,1.06499e-01,4.53614e-02,1.05020e-01,-5.32743e-02,3.29632e-02,-1.29982e-01,8.83988e-03,-1.48701e-02,-4.44483e-02,-1.96165e-02,-1.33521e-02,1.93734e-02,1.36091e-01,2.19147e-02,8.23657e-03,-8.20880e-04,4.49765e-01,-3.11222e-01,1.12424e-02,-4.16895e-02,-2.92640e-02,2.54502e-02,-4.87938e-02,-3.51238e-02,-4.73947e-01,1.31295e-01,-3.14217e-02,6.08171e-02,
-1.25536e-01,3.17619e-01,-8.29990e-02,5.37244e-02,-4.80788e-02,4.14507e-02,-3.14231e-02,-2.74405e-02,3.20719e-01,3.91573e-01,-3.38690e-01,-2.35652e-02,1.27144e-01,-3.21939e-02,-1.17105e-02,-2.12283e-01,-6.69799e-02,3.20045e-02,-2.63101e-01,-2.39216e-01,-1.91118e-02,-6.02363e-03,-8.52744e-02,1.85288e-02,3.03647e-02,3.00032e-02,-1.59357e-01,-4.37154e-01,7.81368e-01,6.53319e-02,-9.37514e-04,-6.77641e-02,-1.03488e-01,3.25892e-01,2.36069e-01,3.09171e-02,-7.19071e-02,-8.22851e-02,2.88992e-01,-9.76269e-04,1.32985e-02,-2.55530e-01,-2.98888e-02,-1.89596e-02,7.07879e-01,
3.29823e-01,5.12768e-01,1.69491e-02,-6.53878e-02,-2.23128e-01,-2.88232e-02,-5.17145e-02,-4.19888e-02,7.55368e-01,8.14936e-01,1.48062e+00,-2.82150e-02,1.15445e+00,3.32889e-02,-3.62959e-02,3.31441e-01,5.90037e-01,-3.92630e-02,9.81985e-01,5.48616e-01,1.22710e-02,3.07598e-02,-2.93915e-01,3.66227e-01,-1.50147e-02,-5.02153e-02,-7.02967e-01,1.13776e+00,6.02521e-01,-2.54825e-01,-4.54648e-02,-5.37888e-02,7.31588e-01,1.08545e+00,-2.06762e-02,7.96579e-03,7.63627e-02,-1.94563e-01,-2.13261e-02,1.42178e-02,-1.47649e-02,7.58789e-01,5.12963e-02,8.42276e-03,3.20509e-01,
2.52623e-01,-4.88626e-01,4.06280e-02,5.51693e-02,2.39410e-02,-2.58634e-02,4.01686e-02,2.22732e-02,-4.30839e-01,2.37639e-01,-9.31119e-01,3.82709e-02,1.83711e-01,3.10913e-02,-2.98905e-03,-4.91443e-02,3.27725e-01,6.36347e-02,1.47414e-01,-7.39201e-02,2.92159e-02,3.96463e-02,-1.17036e-01,-4.59071e-03,-4.79339e-02,2.32152e-02,9.57258e-02,-1.91050e-01,-2.79280e-01,6.12126e-02,6.00165e-03,5.11786e-02,1.09938e-01,-4.39460e-01,7.51886e-02,-2.13075e-02,1.65312e-02,-8.12264e-02,7.53803e-02,4.30887e-02,-6.56093e-04,3.65571e-01,-1.29092e-01,9.26654e-03,-3.36417e-01,
7.32739e-03,-4.30280e-01,2.76031e-02,-8.82459e-02,2.02524e-01,3.92877e-02,-2.85381e-02,1.82811e-02,-1.30973e-01,4.39866e-01,8.35335e-02,3.37926e-02,-2.01341e-01,6.44049e-02,-3.94879e-02,2.86059e-01,3.02136e-02,8.76607e-02,-1.45977e-01,-2.73921e-01,-2.63654e-02,2.66617e-03,-1.00644e-01,3.04313e-01,-3.63596e-02,2.48239e-02,-1.16488e-01,-3.45697e-01,-2.91038e-01,1.25574e-01,-4.07322e-03,-3.97208e-02,2.81985e-02,-2.57014e-01,1.90029e-01,-3.79870e-02,-1.15385e-03,-1.48641e-02,-5.11166e-02,1.08833e-02,-6.19484e-03,-6.90691e-01,2.13848e-01,-2.12265e-02,-3.54657e-01,
-9.13946e-02,-6.40239e-02,2.12463e-02,-4.56350e-02,2.45513e-02,7.18474e-03,3.45206e-02,1.46694e-02,-7.53688e-02,5.46467e-02,-1.45294e-02,-4.89285e-02,3.63196e-02,4.72716e-02,-4.56040e-03,2.19520e-02,2.01067e-03,-3.64259e-02,1.41565e-02,1.04931e-01,9.49567e-03,-3.60179e-02,-7.18005e-02,3.32860e-02,2.45101e-02,3.85947e-02,-6.00849e-02,9.60542e-02,-1.48890e-02,5.06546e-02,-1.98178e-02,3.87289e-02,-3.32665e-02,-7.95510e-02,-1.12938e-01,-3.79977e-02,4.59398e-02,-5.07529e-02,2.98605e-02,-5.99642e-03,-2.43741e-02,1.53026e-01,-8.42019e-02,1.87646e-02,6.85758e-03,
8.66639e-02,-1.30754e-01,-1.82991e-02,1.33777e-01,-6.57672e-01,-2.09053e-02,3.87039e-02,-3.06595e-02,-2.16256e-01,8.20133e-01,-6.92836e-02,3.82115e-02,-5.77082e-02,-6.82907e-03,3.50995e-02,-1.70819e-01,-4.26282e-01,1.18651e-01,5.72035e-01,-5.19381e-01,3.09997e-02,-3.45920e-02,1.70560e-01,8.64893e-02,8.58742e-03,2.15389e-02,-7.32973e-02,-1.53028e-01,2.54118e-02,-3.27202e-02,9.91772e-03,1.38367e-02,-2.12550e-01,-3.97400e-01,1.54567e-01,-1.24252e-03,1.07688e-01,-2.05638e-01,1.99955e-01,-3.84604e-02,2.54514e-02,-4.85424e-01,-1.65082e-01,2.69472e-02,4.51628e-01,
3.32111e-01,7.37241e-02,-1.45773e-02,7.04043e-03,1.85498e-01,5.60898e-03,3.04708e-03,-4.05441e-02,7.23813e-02,2.99676e-01,3.13641e-01,-4.23484e-02,2.33370e-01,-3.51141e-02,-4.56448e-02,3.38148e-01,1.12959e-01,3.25775e-01,-4.88195e-01,2.75605e-01,3.74539e-02,-2.26391e-02,-8.99255e-02,-1.05523e-02,8.59142e-03,1.91461e-03,-8.04621e-02,7.78631e-02,3.05795e-01,4.20400e-02,6.34497e-03,-5.32622e-02,-4.34689e-01,1.25309e-01,2.89681e-02,3.53016e-03,9.82857e-03,-2.15596e-02,-1.68519e-01,5.32763e-03,-4.57183e-02,4.14254e-01,1.59701e-01,-3.49658e-02,3.42161e-02,
6.57696e-02,-1.57434e-01,2.42344e-02,-2.76618e-01,-3.48731e-01,4.24639e-02,1.70065e-02,-4.55094e-02,-3.21375e-01,-2.98791e-01,4.50384e-01,-1.25411e-02,5.50067e-01,-5.37941e-03,7.45331e-03,6.37434e-03,-7.54175e-02,7.57488e-01,6.79947e-02,-2.04727e-01,-2.00934e-03,-2.49300e-02,4.00981e-01,8.87178e-01,1.00391e-02,4.69148e-02,-5.74199e-01,-1.69933e-02,-5.61787e-01,1.10488e+00,-2.98679e-02,3.60139e-02,-1.57455e-01,-1.36295e-01,2.33631e-01,4.85782e-02,6.16369e-02,9.67888e-02,4.28001e-02,-4.98750e-02,-4.69739e-04,-6.40702e-02,2.63889e-01,1.08488e-02,1.82692e-01,
1.03465e-02,6.03361e-02,-2.80240e-02,-1.51859e-01,-8.51802e-02,-4.24317e-02,-2.38658e-02,2.38541e-02,-1.89906e-01,-3.07062e-01,2.88958e-01,-1.12239e-02,2.90817e-01,3.12813e-02,4.16274e-02,-3.25391e-02,-5.56517e-02,4.36380e-01,6.00877e-02,-1.75448e-01,-4.69472e-03,-2.61553e-02,-1.32568e+01,4.77240e-01,2.21868e-02,1.02054e-02,-3.31558e-01,4.15421e-02,-2.98888e-01,6.67799e-01,3.36939e-02,-3.00628e-02,-4.65660e+00,-1.21457e-01,1.09533e-01,7.45434e-03,9.74760e-03,7.52888e-02,4.03511e-02,-3.55155e-02,3.05518e-02,7.24455e-02,1.52693e-01,-2.93803e-02,7.20209e-02,
-1.75257e-01,-3.36581e-01,5.31705e-03,-1.74424e-01,-1.81008e+00,-1.69226e-02,-3.21225e-02,-5.80702e-02,-4.99169e-01,-5.26582e-02,-1.09541e-01,2.98917e-03,-4.06937e-01,-1.62794e-02,-8.57273e-03,-3.24413e-01,-1.00410e-01,6.02883e-01,-6.86195e-02,-2.03039e+00,-2.48423e-02,-2.75918e-02,2.01376e-01,-6.24310e-02,-1.05194e-02,1.73554e-02,-2.55963e-01,6.85089e-03,8.67162e-02,6.54721e-01,-1.74805e-02,-4.73990e-02,-1.64105e-01,-4.17209e-01,-3.97850e-02,-9.24065e-02,-6.03585e-02,1.12742e-01,4.45093e-02,-3.25042e-02,-5.01345e-02,1.43707e-01,2.51657e-01,5.08259e-03,1.79466e-01,
9.87579e-02,-5.05212e-01,1.21884e-02,4.61395e-01,-5.61651e-03,-3.92562e-03,8.36691e-03,-3.62701e-02,-6.44063e-01,2.91170e-02,-4.11861e-01,3.21636e-02,-6.00240e-01,-1.29200e-01,-2.49754e-03,1.32965e-01,-1.67910e-01,-6.91563e-02,1.59013e-02,-5.42527e-02,1.43310e-02,3.96204e-02,1.00145e+00,-4.77440e-01,4.96152e-02,2.56641e-02,-5.17136e-01,-3.57384e-01,8.85835e-03,-4.26255e-02,2.12485e-02,-3.87633e-02,8.37769e-01,1.40966e-01,7.32738e-02,3.18328e-02,-1.19340e+00,-4.20103e-02,5.53060e-02,-2.49762e-02,2.01893e-02,-1.47024e+00,2.70617e-02,4.39210e-02,6.17599e-02,
1.21572e-02,-7.74389e-01,-5.11612e-02,6.79149e-02,3.79578e-01,3.97153e-03,1.51865e-02,1.30451e-02,-3.66866e-01,-6.68255e-01,-2.44548e-01,9.01814e-03,-2.21460e-01,2.11760e-02,2.03863e-02,5.87670e-02,2.25823e-01,-1.83125e-01,-3.56375e-01,-1.94099e-01,-3.19892e-02,2.16763e-02,-1.30430e-02,2.42581e-02,-2.90202e-02,-5.02252e-02,2.53158e-01,-2.82541e-02,2.92403e-01,-3.06236e-01,-3.43996e-02,-1.42817e-02,5.11288e-02,-6.29470e-01,-1.49279e-02,3.44310e-02,-2.56823e-02,-2.33888e-02,-1.33734e-02,4.17965e-02,9.92552e-03,-8.02227e-01,-1.71667e-01,8.76197e-03,4.77873e-01,
