// Neural Network File Format by Kyle Julian, Stanford 2016
7,4,9,45,
4,45,45,45,45,45,45,9,
0,
-8000.0,-100.0,-100.0,0.0,
8000.0,100.0,100.0,40.0,
0.0,0.0,0.0,20.0,-0.432599379632,
16000.0,200.0,200.0,40.0,3.102300001,
2.79279e+00,-3.89309e-01,4.12857e-01,-5.73830e-01,
-1.41452e+00,-3.25131e-01,-4.86011e-01,-4.15786e-02,
-1.63682e-02,3.89413e-01,-4.41934e-01,5.59889e-02,
-2.43186e+00,1.00733e-01,-9.51907e-02,-7.88639e-01,
-1.98148e+00,2.03075e-01,-2.24271e-01,-4.99528e-01,
-3.00062e+00,-4.74737e-04,7.11640e-03,1.99186e-03,
-1.44766e+00,-9.21066e-02,1.35716e-01,-4.57599e-01,
1.26074e+01,-2.66058e-02,1.69006e-02,-1.28788e-01,
-4.10523e-03,-5.95322e-01,5.92343e-01,9.93676e-03,
1.00202e-01,-5.45737e-01,3.04021e-02,-3.78999e-03,
5.97663e-05,-2.39940e-02,-6.45312e-04,1.09552e-02,
2.42928e+00,1.51478e-02,-2.08332e-02,-1.02148e+00,
-1.53996e-03,1.26868e+00,-4.07290e-03,2.96327e-03,
-2.78187e-01,-1.26445e-01,5.04531e-01,1.05544e-01,
-1.79940e+00,4.36814e-01,-4.24324e-01,-1.64819e-02,
4.10902e+00,-1.42734e-02,1.26582e-02,-8.19186e-07,
-2.23530e+00,-9.01689e-02,1.05779e-01,1.77059e-01,
7.38337e-01,-2.54415e-01,2.43021e-01,-8.90296e-02,
-1.30171e+00,2.15474e-01,-3.62134e-01,-1.56435e-01,
-7.60982e-01,1.91766e-01,-2.01542e-01,-3.59894e-01,
-1.41971e+00,-4.89367e-01,-1.11430e-01,-5.44222e-02,
1.45773e+00,3.17225e-01,-3.11602e-01,9.18274e-04,
-9.29661e-04,-3.18893e-03,4.77334e-04,2.72022e-03,
-2.39178e-02,-1.53493e+00,-7.47679e-04,-3.66057e-03,
-1.90497e-02,-5.96976e-01,5.96718e-01,9.18865e-03,
-9.68626e-01,-1.04270e+00,-1.46554e-01,1.58353e-02,
-1.24326e+00,-7.96610e-02,3.48465e-01,-9.78329e-02,
2.46661e+00,-1.77211e-01,1.04215e-01,-7.22431e-01,
1.05366e-02,-1.05030e+00,1.13017e-03,6.40478e-03,
-3.79028e+00,-2.66207e-02,2.62548e-02,-4.79375e-01,
-9.63911e-02,-2.25316e-01,2.17265e-01,-5.79117e-01,
8.47972e-01,-1.83581e-03,-2.30435e-01,1.13594e-01,
-5.22948e+00,-1.11331e-02,-6.26774e-03,-7.28519e-02,
1.03139e+00,-6.43636e-01,4.07628e-02,5.35446e-03,
2.54265e-02,-1.30317e-02,-1.52688e-02,-1.66700e-02,
-6.86352e-01,5.81657e-02,-2.25413e-01,2.27408e-01,
-2.18598e+00,2.63074e-02,-2.71372e-02,-9.78111e-01,
-1.42218e-01,-1.03292e+00,-1.48351e-01,2.14478e-02,
-3.59620e+00,3.78956e-01,-3.60825e-01,-1.72197e-01,
-4.01275e-04,7.59563e-04,-4.41031e-03,-1.62972e-02,
-1.77550e-01,-3.57439e-01,3.19591e-01,1.75894e-01,
-3.32585e-01,2.27825e-01,-1.40044e-01,4.65900e-01,
2.66804e+00,-2.26879e-01,3.20737e-01,5.30460e-03,
-1.39827e+00,-4.26455e-01,4.16331e-01,-2.20234e-03,
3.06852e+00,-1.93197e-01,1.69119e-01,-7.63534e-01,
-2.53381e-02,
-1.69895e-01,
3.08967e-02,
-2.73430e-01,
-1.05575e-01,
1.29314e-01,
-8.29324e-02,
9.93067e-02,
8.48284e-02,
2.29814e-01,
-1.87120e-02,
-4.49422e-01,
-1.57824e-01,
-6.35590e-02,
-1.40315e-01,
1.79744e-01,
9.37653e-02,
1.82702e-03,
2.71480e-02,
-1.33259e-01,
-1.46277e-01,
1.12323e-01,
-9.70616e-03,
-1.88314e-01,
-9.63838e-02,
-5.20198e-01,
-3.44036e-05,
-1.70135e-01,
-4.78627e-01,
-1.86343e-01,
-1.97906e-01,
2.18037e-02,
3.97341e-02,
-6.00351e-02,
-3.95921e-02,
6.86124e-02,
-4.00838e-01,
1.40832e-01,
3.18007e-02,
-1.18107e-02,
-6.96942e-02,
1.13668e-01,
1.49175e-02,
-2.50184e-02,
-2.46883e-01,
1.43382e-02,-2.62351e-02,1.12712e-04,-6.98013e-02,-6.16664e-02,1.73409e-02,3.10153e-02,-3.62514e-02,-4.17847e-02,-3.16740e-04,3.87129e-03,2.64295e-02,-7.08638e-04,6.16682e-04,-4.66288e-02,-2.06723e-02,-5.86584e-02,6.92032e-03,2.30908e-02,-6.63809e-02,3.66060e-04,-1.58890e-02,-2.52811e-02,9.52175e-04,1.18974e-02,-1.79385e-02,-5.71103e-02,-3.10068e-02,1.92436e-02,-3.77352e-03,2.14472e-02,-5.06550e-02,1.15295e-03,-9.45708e-03,-1.03771e-02,-3.18128e-02,2.49235e-02,-1.48886e-02,2.27581e-02,-3.42828e-02,1.62507e-02,-4.01026e-02,-3.73812e-02,2.30343e-02,-4.59056e-02,
-4.30630e-04,5.73855e-01,-6.17636e-01,-1.66619e-02,-1.57060e-01,-6.11174e-02,-7.01106e-01,-1.07902e-01,-2.22549e-01,-4.20125e-01,-9.47262e-02,-3.51904e-01,-9.36568e-01,2.45138e-01,5.19324e-01,3.00473e-01,3.61572e-01,7.62891e-02,-3.48317e-01,4.80117e-03,3.11085e-02,3.13296e-01,4.47114e-02,2.27019e-01,-7.11899e-02,-1.40341e+00,-3.71922e-01,8.22450e-02,-7.07822e+00,-4.88492e-01,4.06911e-01,-6.89731e-01,1.14192e-01,1.09348e-01,-6.37057e-02,4.36735e-01,2.32053e-01,-6.27758e-02,4.59289e-01,2.95601e-02,-5.89766e-01,1.65117e-01,2.76840e-01,3.40421e-02,4.08887e-01,
4.55544e-01,3.62009e-01,-3.06103e-01,-2.61496e+00,-1.54292e+00,4.63543e-01,-1.98442e-01,-7.01233e-03,1.24541e-01,-8.55892e-01,-1.62408e-01,-2.33000e+00,-3.73157e-01,-3.38767e-01,2.78442e+00,1.91916e-01,3.77761e-01,-5.29789e-01,-7.75333e-01,-2.19968e-01,3.29440e-01,2.63665e-01,5.20791e-02,-7.78611e+00,7.96774e-02,-1.64945e+00,1.82366e-01,9.05433e-01,9.41079e-02,2.34489e-01,6.03145e-01,1.04406e-01,-2.44069e-01,-4.54930e-01,-3.72674e-03,-1.69591e-01,-5.54860e+00,-1.07055e-01,-5.92536e-01,2.29381e-02,1.47302e-01,-7.13578e-02,-6.65869e-01,1.94776e-01,-6.98910e-01,
-4.19497e-02,6.35716e-03,1.43135e-02,-8.71497e-04,-3.15407e-02,9.20379e-03,1.35495e-02,6.29588e-04,4.70456e-03,-4.96193e-02,1.61118e-02,-2.49563e-02,-3.54215e-02,3.30825e-02,-4.74337e-02,-4.12455e-02,-4.30315e-02,-3.71173e-02,-3.72181e-02,-2.66175e-02,8.45714e-03,7.25071e-03,4.27669e-02,6.91359e-03,-4.66469e-02,-5.05174e-02,-2.21392e-03,-1.67158e-02,-8.23098e-03,4.62897e-03,-9.79302e-03,-6.84218e-03,-5.00941e-02,9.22078e-03,3.32029e-02,-1.79359e-02,1.16878e-02,3.61747e-03,2.60020e-02,-1.97424e-02,-5.72081e-03,2.89241e-02,-3.19470e-02,-3.39053e-02,2.16441e-02,
1.11757e-01,2.15200e-01,-7.41874e-01,-1.29385e-01,3.85156e-02,-1.02360e+01,-7.43219e-01,-2.40310e-02,-1.37538e+00,5.35990e-01,-9.16301e-03,4.74893e-02,1.68515e-02,4.86958e-02,6.73526e-01,-1.82775e-01,6.05333e-02,5.67728e-01,-2.33161e-01,1.48063e+00,2.07366e-01,-4.95968e-01,-2.45163e-02,-4.04647e-02,-7.52560e+00,1.05849e+01,5.46467e-01,-2.96390e-02,2.34126e+00,3.49983e-01,1.09601e-01,-3.79429e-01,-1.36729e+00,-4.87466e-02,3.24279e-02,-1.34106e-01,-3.09738e+00,-2.22422e-02,-7.71385e-01,-4.70868e-02,2.89121e-01,3.29251e-01,6.44132e-01,-2.22337e+00,1.43770e-01,
-1.61209e-01,-5.55489e-03,2.08868e-01,4.73055e-01,3.62291e-01,-1.45382e-01,-4.56738e-01,-6.63197e-01,-9.67413e-02,2.12651e-01,4.82772e-04,-2.86548e+00,4.44994e-02,2.75636e-01,-6.08116e-01,-4.42946e-02,-7.07197e-01,-2.88566e-01,7.65107e-02,-5.46084e-01,1.98180e-01,4.24089e-01,9.13789e-02,-2.09934e-01,1.82453e-01,-4.53243e-01,-2.10696e-01,-5.38592e-01,-4.27087e-01,4.57745e-02,2.04848e-01,-3.14306e-01,4.90462e-01,-5.28406e-03,6.85972e-02,-6.76191e-02,-7.82447e-01,6.32759e-02,4.05225e-01,-1.90829e-02,-7.19372e-02,2.54868e-01,1.10741e+00,-4.14034e-01,-2.11005e+00,
1.46468e-01,6.26220e-02,-2.68117e-01,3.20430e-01,-2.61456e-03,4.78279e-01,3.34543e-01,-3.06115e+00,-1.12960e-01,-1.00322e-01,-5.44665e-02,5.53068e+00,-2.17845e-01,-7.70629e-02,-1.11274e+00,1.65784e-01,-6.93051e-02,-3.36348e-03,2.90364e-02,-5.43296e-01,1.06034e-01,2.25877e-01,3.61021e-02,1.01708e-01,7.05076e-02,-4.76814e-01,3.95381e-01,-5.30367e-02,9.67128e-02,-6.97483e-01,4.28741e-01,-4.28164e-01,1.96452e-01,3.17119e-03,-9.73919e-03,-1.94881e-01,-3.76362e-02,1.71560e-02,9.72346e-02,-2.61383e-03,-1.47352e-01,-4.86583e-01,-3.43812e-01,2.89552e-01,8.43354e-02,
4.56078e-02,1.38705e-01,4.32605e-01,-4.61145e-02,5.15952e-01,6.82925e-01,3.76038e-01,-1.09063e+00,-5.12466e-01,3.19540e-01,-4.85675e-03,-3.47834e+00,2.82301e-01,2.85798e-01,-2.50475e-02,-4.39822e-02,3.19150e-01,-5.84777e-01,7.40009e-01,5.43087e-01,-3.42802e-01,-1.97918e-01,3.71622e-02,1.89128e-01,5.40862e-03,-8.22038e-01,8.32059e-02,1.55539e-01,1.02902e-01,-3.44128e-01,-3.25627e-01,-2.57955e-01,4.46571e-01,-1.41330e-01,9.35510e-02,1.16920e-01,-3.93363e-01,-2.23923e-01,6.02224e-01,3.48202e-03,-2.53052e-01,-1.67778e-01,-4.59308e-01,2.31584e-01,6.19766e-02,
1.34515e-01,2.18103e-01,3.04062e-01,2.94661e-01,-1.16471e-01,-6.76272e-02,-2.80611e-01,-2.21927e+00,2.00172e-01,-5.17837e-01,-1.06948e-01,-6.03100e-01,-1.69527e-01,2.41078e-02,2.23348e-01,3.96646e-01,-1.93981e-01,-3.18636e-01,-1.55134e-01,-3.36766e-01,3.86095e-02,-8.99011e-03,1.66844e-02,-1.55482e+01,-3.70573e-01,6.42047e-01,-2.11284e-01,4.90808e-01,4.51145e-02,1.25448e-01,7.35221e-02,4.39030e-02,4.24425e-01,3.52571e-02,2.00829e-02,-4.53528e-01,4.02126e-01,2.68118e-01,-1.33463e-01,-4.19800e-03,4.14298e-01,-4.96445e-01,2.84167e-02,5.78834e-02,4.46151e-02,
2.10420e-01,-4.38932e-02,-1.69374e-01,3.50549e-01,1.92515e-01,1.01396e-01,1.23740e-01,-2.33341e-02,-3.00030e-01,-2.10131e-01,8.99101e-02,-8.04216e-03,-5.07877e-02,-2.71931e-02,7.05227e-01,-2.00741e-01,-9.44509e-01,-5.97876e-01,1.65491e-01,-1.19106e-01,-1.92284e-01,-1.10924e-01,2.64246e-02,1.13382e-01,1.63375e-01,-4.20912e+00,-1.54750e-01,3.90502e-01,5.42522e-01,-1.23774e+00,4.40332e-01,1.70304e-01,-1.43402e-01,-1.25382e-01,1.02571e-01,-8.93574e-02,6.16445e-01,3.91104e-02,4.24679e-01,-1.56887e-02,-7.90663e-01,2.64498e-01,-5.48768e-01,2.36817e-01,5.57567e-01,
-5.73230e-01,6.81591e-01,1.53345e+00,1.67394e-01,1.71320e-01,1.31758e-01,4.72444e-02,-7.51369e-02,3.61557e-01,-2.77551e-01,9.52314e-02,-5.38665e-01,-8.86878e-01,-3.61695e+00,-6.03545e-01,-5.81634e-01,-9.55158e-01,-5.25427e-01,-3.51320e-01,1.46844e-02,2.88084e-01,2.23987e-01,1.19964e-01,-2.20663e-01,-3.42434e+00,1.50819e+00,-4.17933e-01,-3.74584e-01,-1.27573e+00,-3.06161e-01,-5.74150e-01,6.83184e-01,-8.15702e-03,2.41440e-01,-1.08579e-01,5.74412e-01,3.17681e-02,2.38724e-01,-9.07169e-02,1.69627e-02,-6.11023e-01,-1.33769e-01,9.00698e-01,3.48619e-01,1.17566e+00,
-5.27579e-01,-6.35065e-02,-1.09462e+00,-7.72265e-02,1.53565e-01,2.46898e-01,5.66815e-02,-5.21553e-01,-2.30207e+00,1.07746e-01,-6.93729e-03,7.13501e-01,-7.65701e-02,1.88648e-01,-1.30044e+00,-2.20317e-01,1.59507e-01,1.19974e-01,-8.38640e-01,3.04036e-03,1.72284e-02,-1.21844e-01,3.77932e-02,-1.88188e-01,-5.12488e+00,3.32770e-01,2.30975e-02,4.60952e-02,1.27581e+00,1.19649e-01,6.18174e-01,-7.72371e-02,2.76685e-01,7.54979e-01,-8.01672e-02,-2.53762e-02,-2.71191e-01,4.32561e-02,7.55064e-02,-2.54343e-02,3.24092e-01,-2.88839e-01,2.06818e-01,4.72831e-01,-1.33100e+00,
1.89060e-01,4.39131e-03,1.92686e-01,2.38529e-01,2.34411e-01,-7.66077e-02,-2.54679e-01,-1.48557e+00,-2.30582e-01,-3.97271e-01,-2.01746e-01,-2.38710e-01,-3.13193e-01,-8.06939e-02,-2.72930e-01,-1.21157e+00,-3.53174e-01,-1.73782e-01,1.76458e-01,-1.94476e-01,1.24774e-01,-2.14994e-01,-5.19732e-03,7.00046e-02,-5.28408e-01,2.48093e-01,-3.64676e-01,8.07694e-03,3.30404e-02,4.36354e-01,4.07525e-01,1.16144e-01,7.19740e-02,-2.08909e-01,4.76127e-02,-4.09278e-01,1.75362e-01,-8.99241e-02,1.12024e-01,1.55922e-02,6.58443e-01,5.92709e-02,-8.46175e-01,-4.20456e-01,-7.68266e-01,
-3.27770e-02,-6.07350e-02,1.00296e-01,1.50822e-01,-1.16476e-01,2.29495e-01,3.20144e-01,-3.88096e-02,1.04598e-02,3.28446e-01,1.18642e-01,-1.85473e+00,-1.49041e+00,1.08119e+00,-1.82748e-01,3.39763e-02,-1.07560e-01,3.92673e-01,-1.24787e-01,-9.77551e-02,2.03376e+00,2.92966e-01,3.29648e-02,-8.31963e-01,1.71908e-05,-1.21250e+00,3.44915e-01,-5.70078e-01,-3.83966e+00,-6.10265e-01,-6.19719e-01,3.42836e-01,7.68473e-02,-9.29990e-01,1.02829e-01,1.72563e-01,-1.43391e-01,4.12211e-01,2.99246e-01,-3.69492e-02,-2.96819e-02,-9.29547e-02,-9.63804e-02,-5.44422e-01,-1.01835e-01,
1.24278e-01,6.73159e-03,5.12598e-01,2.98696e-01,2.77131e-01,2.32329e-01,-3.26519e-01,-8.60332e-02,3.25429e-01,1.66636e-01,4.35503e-02,-4.19400e-01,-1.00226e+01,9.21891e-02,-1.27703e+00,-2.01954e-01,1.76847e-01,1.70656e-01,1.78230e-01,5.37755e-02,-2.02587e-01,-3.51767e-01,6.57476e-02,8.64642e-02,1.20595e-01,6.20012e-01,-1.42814e+00,-1.21831e-01,1.30413e+00,4.29835e-01,-1.24065e-01,4.90066e-02,-3.87082e-01,-1.20219e-01,3.34337e-02,3.66315e-01,3.05839e-01,-1.81050e-01,-1.75846e-01,4.29830e-03,4.71498e-01,-2.67362e-01,1.44252e-01,-6.57438e-01,4.52819e-01,
1.79690e-01,4.02644e-01,4.59810e-01,-4.83092e-02,-1.38863e-01,1.35532e-02,-1.33665e-01,-1.55600e-01,4.92194e-01,-1.19928e+00,-9.18852e-02,-3.74101e+00,-4.94365e-01,6.65777e-02,-3.70945e-01,-2.58971e-01,1.51772e-01,-1.03480e-01,6.39767e-02,3.57216e-01,3.67361e-01,2.23040e-01,2.56650e-02,-1.11580e+01,-3.36884e-01,-1.23611e+00,-2.17324e-02,1.58387e-01,-3.79950e-01,-2.56942e-01,-5.75934e-01,-3.58576e-01,2.61318e-01,-4.23550e-01,-8.93784e-02,-5.31693e-01,2.84815e-01,8.27435e-01,1.57868e-02,4.41173e-02,-1.25995e-01,2.50271e-01,4.53862e-01,2.07267e-01,-2.30679e-01,
-2.07191e-01,3.25211e-01,1.44279e+00,-3.84136e+00,-1.16438e+00,-2.42676e-03,-2.15878e-01,-5.94105e-01,3.79019e-01,1.04807e-01,5.38014e-02,-3.46192e+00,1.00333e-01,3.55742e-01,1.18896e-01,-2.27991e-02,-7.22547e-02,1.93367e-01,2.46328e-01,1.03818e+00,8.58120e-01,-1.33691e-02,2.54912e-02,-4.83729e-01,-4.49767e-01,-1.24774e+00,2.69349e-01,3.26123e-01,4.45016e-01,-7.87233e-01,-4.59599e-02,4.03170e-01,6.39194e-01,-5.25239e-01,-1.19061e-02,2.99303e-01,-2.44921e+00,2.39231e-01,-1.57075e+00,-1.27663e-02,1.83188e-01,-8.02943e-01,-1.25719e-01,3.04429e-01,6.69385e-01,
-1.28997e-01,-2.19225e-01,7.45358e-01,-5.69343e-02,-1.68467e-01,1.52490e-01,-3.26274e-02,-4.26965e-01,1.41667e-01,-3.60003e-01,-4.07922e-02,-3.73033e+00,-7.71490e-01,4.84292e-02,-4.33310e-01,-7.48040e-02,-6.36966e-03,-3.99473e-01,3.00424e-01,3.93254e-01,7.67087e-02,6.49916e-01,4.37680e-02,-1.13626e+01,9.25944e-01,-5.56944e-02,3.29880e-02,-3.68983e-01,4.11535e-02,1.80664e-01,3.39311e-01,2.45139e-01,3.19840e-01,-6.08599e-01,8.32013e-02,-5.33197e-01,2.55538e-01,3.50809e-02,-2.15081e-01,2.66815e-02,-1.93568e-02,6.71157e-02,6.66303e-01,-1.12767e-01,-1.62686e+00,
2.82991e-01,1.57555e-01,-5.58263e-01,-4.11687e-01,4.00460e-01,-8.85613e-01,-6.82947e-03,7.41344e-02,3.60826e-01,1.99256e-01,-3.98622e-03,-2.17494e-01,3.68226e-02,2.16091e-01,7.56772e-01,9.18541e-02,1.64935e-01,-7.39942e-01,-4.04718e-01,5.44300e-01,1.17628e-03,-1.40458e-02,2.04797e-02,-2.06472e-02,3.53115e-01,-1.99531e+00,2.00286e-02,3.49294e-01,-1.44011e+00,-2.88390e+00,-4.14127e-02,-2.59808e-01,-4.12293e+00,-3.40206e-01,9.26993e-02,-4.68027e-01,-2.19306e+00,1.92119e-01,-1.11095e+00,2.89244e-02,-3.92787e-01,-5.35116e-01,-6.25933e-01,-4.50203e-02,5.49315e-01,
2.83616e-01,1.01554e-01,-9.47613e-01,-1.97564e+00,-3.02436e-01,-1.61698e-01,3.13981e-01,1.74030e-01,1.58903e-02,1.01568e-01,5.07677e-02,-8.46479e-01,-4.70783e-02,-3.03476e-01,-1.19515e+00,-1.92975e-01,-1.13964e-01,-2.74222e-01,-3.46342e-01,8.49815e-01,3.90305e-02,-1.47857e-01,3.26651e-02,-1.85919e-02,1.15786e-01,2.90759e+00,2.62753e-01,2.30439e-01,-1.60458e+00,-1.42914e+00,1.59162e-01,9.27451e-02,-1.28221e+00,-1.57718e-01,1.40043e-01,-7.69583e-01,-3.23445e+00,5.99614e-02,-2.37935e-01,4.74331e-02,-1.89158e-02,-1.35235e-01,-2.93488e-01,6.20620e-01,7.31235e-02,
-8.92695e-02,2.12177e-01,5.01891e-01,-1.04598e+00,-7.04618e-01,1.57283e-01,-1.93155e-01,-1.10504e-02,1.64342e-01,4.09656e-01,7.24033e-02,-4.19026e-01,3.55009e-01,-2.17826e-01,3.33954e-01,4.88205e-01,-4.88651e-01,7.38125e-01,-3.32972e-01,1.21301e-01,6.67403e-02,3.66945e-01,6.93330e-02,-1.98679e-01,4.47978e-01,-1.00429e+00,-1.67227e-03,-1.31666e-02,6.17550e-01,-6.93805e-01,-2.46898e-01,-8.71741e-02,1.16269e-02,3.06518e-02,-3.53559e-02,7.65123e-01,-1.61716e+00,-1.77557e-01,3.47757e-01,3.39357e-02,4.06421e-01,-1.06527e-01,-3.27731e-01,1.11589e+00,-3.69008e-01,
-8.89430e-01,2.27935e-02,2.18131e-01,-5.26418e-01,2.14380e-01,3.69167e-01,4.18112e-01,-2.39905e-01,-1.78560e-01,-2.83065e-01,-1.40834e-02,-1.64503e+00,-6.62376e-02,-4.05758e-01,-4.46785e-01,3.84851e-01,-7.87520e-01,2.02235e-01,-1.08815e-01,-4.69868e-02,-2.45625e-01,3.85496e-01,-5.99404e-02,-1.59852e-01,-6.65925e-01,-1.68932e+00,1.71673e-02,-4.31203e-01,-3.36701e+00,3.68328e-01,4.27371e-01,9.94732e-02,3.63977e-01,-6.12159e-02,-2.35330e-02,6.53245e-02,-5.31862e-01,3.57262e-01,7.53493e-02,-2.33717e-02,1.49057e-01,2.40423e-01,-6.37168e-01,-5.05044e-01,-1.68580e+00,
3.34459e-01,-1.55081e-01,4.02138e-01,-5.31136e-01,-2.21657e-02,3.09531e-01,3.27589e-01,1.67170e-02,3.46353e-01,2.75022e-02,2.96295e-02,-1.11504e+00,-1.95793e-01,9.34482e-03,-6.30334e-02,-2.44465e-01,-3.52177e-01,9.80922e-01,8.27626e-02,3.10615e-01,-4.23294e-01,3.58545e-01,1.13406e-01,3.13526e-01,2.38958e-01,-4.23963e-01,-1.19837e-02,-3.92920e-02,-5.42772e-01,-1.02092e+00,3.43558e-01,-8.74605e-02,-5.45580e-01,1.46844e-01,7.41026e-02,-7.56714e-01,-1.51218e+00,-1.20735e-01,-1.87337e-01,-2.54136e-02,-2.97835e-01,-1.43807e-01,-5.02663e-01,-5.50998e-01,-6.61410e-01,
1.93917e-01,3.89405e-01,-2.84782e-01,5.01503e-01,1.50303e-01,-5.41272e-01,-2.48754e-01,-1.79228e-01,4.83043e-02,1.33740e-01,1.20636e-02,8.73511e-01,1.17186e-01,-1.28306e+00,3.25502e-01,2.85863e-01,4.61054e-01,-1.33362e+00,3.05031e-02,4.43087e-01,-9.51780e-03,1.18201e-01,6.49431e-02,-1.67524e-01,-1.07600e+00,4.43580e-01,1.27062e-01,1.87852e-01,-3.89781e+00,-3.32969e+00,-2.00576e-01,-1.74672e-02,-1.12273e+00,-1.46689e-02,1.06955e-02,-1.21419e-01,-5.35581e-01,1.39553e-02,-2.13998e-01,3.48786e-03,-2.59964e-02,-1.31015e-01,-9.31866e-02,6.44002e-02,2.30604e-01,
-4.89970e-01,-1.59381e+00,-4.72513e-01,3.47282e-01,6.29018e-02,-8.01836e-01,-6.69498e-01,-3.33398e-01,5.54848e-01,-5.64930e-01,-4.77768e-02,-3.13869e-01,-3.58934e-02,-7.52516e-01,-1.40498e+01,5.18533e-02,8.51171e-02,2.13236e-01,8.98950e-01,-1.13400e+00,1.21644e+00,-7.34873e-01,7.27705e-02,-6.44130e-01,5.91125e-01,-2.53733e+00,-3.24370e-01,-1.03978e+00,-3.99751e-02,1.05104e+00,2.25089e-01,-1.51446e+00,-4.00381e-02,-2.70857e-01,3.15139e-02,1.58701e-01,-3.56922e-01,-5.71376e-02,-1.06305e-01,4.79281e-02,3.31352e-01,2.58312e-01,9.60733e-01,-1.44876e+00,1.06770e+00,
-4.08370e-02,-5.74372e-02,-3.82136e-02,-6.28166e-02,-7.35242e-02,3.66178e-02,2.35398e-02,-3.93980e-02,-3.25047e-02,2.57205e-02,2.46186e-02,-5.67312e-03,-2.85649e-02,1.61472e-03,-5.57747e-02,2.23732e-02,-2.56737e-02,-6.67594e-03,-2.18920e-02,-1.89039e-02,1.36899e-02,-2.29942e-02,-5.12466e-02,-8.47056e-03,-8.14409e-03,-7.67696e-03,3.05342e-02,2.73565e-02,-4.44383e-02,-8.10422e-03,1.82067e-02,1.72447e-02,-6.10832e-03,-4.67610e-02,-4.86971e-02,-1.28340e-02,-6.11320e-02,-5.00104e-02,-1.63987e-02,4.35497e-02,3.76484e-02,-3.94317e-02,-5.83435e-02,-3.98662e-03,-1.04674e-03,
1.65586e-01,3.56936e-01,-1.58525e-01,-4.99913e-02,5.01547e-02,4.91107e-01,-1.79021e-01,-1.13922e-01,2.25095e-01,-1.47580e-01,1.06518e-01,1.35436e-01,-9.75281e-02,-3.45279e-01,3.86112e-01,9.53091e-02,-5.12041e-01,1.79651e-01,-7.32051e-02,5.25689e-02,-9.25138e-01,1.10488e-01,1.29352e-01,2.77321e-01,4.24138e-01,8.64401e-01,-2.06959e-01,2.70541e-01,7.11187e+00,3.66622e-01,-2.35004e-02,-1.81954e-01,7.24099e-02,3.51486e-01,1.52025e-01,1.34330e-01,2.05829e-01,-6.77092e-02,5.25565e-02,-3.20661e-02,1.08503e+00,2.76216e-02,-1.57322e-01,-1.45122e+00,-3.98809e-01,
-6.89891e-01,-7.56762e-01,5.24928e-01,1.56658e-01,-3.16145e-01,1.15260e-01,-1.25106e-01,-5.06239e-02,5.71923e-01,-4.68165e-01,-4.21284e-02,-1.75549e+00,-3.77180e-01,-5.65302e-01,9.54209e-03,3.23150e-01,8.10181e-02,-3.70455e-01,-2.83537e-01,8.35140e-02,5.33440e-01,-2.33829e-01,-3.34451e-03,-2.79597e-01,-6.15964e-02,-1.16320e-01,6.10961e-02,-2.57556e-01,2.97410e-01,8.50293e-02,-8.76891e-01,-2.42331e-02,2.42718e-01,5.40956e-01,1.66120e-01,-1.04911e-01,4.88625e-02,-2.13739e-01,-2.45234e-01,-9.56091e-03,1.48895e-01,-1.42607e-01,-3.76720e-01,-3.28251e-01,-3.30883e-01,
1.05675e-01,3.81139e-02,-1.02748e-01,2.93190e-02,-9.71942e-03,1.77885e-02,-6.70211e-02,-1.74445e+00,-1.27770e+00,-7.26072e-02,6.58410e-02,-3.24821e+00,-6.31573e-02,-1.74927e-02,-9.31904e-02,6.00057e-02,-2.62788e-01,-6.20845e-01,3.75441e-02,-1.99637e-03,-3.56261e-01,1.63671e-01,1.14760e-02,1.49417e-01,-1.01160e+01,-4.97428e-01,1.70492e-01,2.14080e-01,3.22634e-01,-7.66790e-01,-9.43577e-01,1.07441e-01,6.79102e-01,3.50040e-02,-1.73006e-02,-2.20952e-01,-2.43721e-01,-2.13083e-02,9.68392e-02,6.83704e-03,7.01483e-01,-1.08596e-01,-9.12563e-01,-2.58247e-02,1.66523e-01,
-9.29290e-02,-3.95354e-01,7.32431e-02,3.56133e-02,-8.53589e-02,-8.20503e-02,5.06394e-01,-1.11363e-01,-3.05395e-01,6.59113e-01,4.13701e-02,-3.33352e+00,-1.09328e-01,-7.06955e-01,-3.27224e-01,-4.62702e-01,2.74319e-02,-6.35895e-01,2.80683e-01,-4.48673e-01,-7.54955e-01,2.92821e-01,6.64228e-02,1.23562e-01,-3.68372e-01,2.27838e-01,7.74342e-02,-2.10582e-01,-6.54375e+00,6.98278e-01,5.20699e-01,7.61020e-01,2.77577e-01,-2.26828e-01,8.01410e-02,6.35347e-01,-2.75398e-02,1.93607e-02,-2.02532e-01,6.22541e-03,5.08928e-01,-7.09344e-01,-1.81055e+00,-8.84435e-01,-2.00275e+00,
-4.77911e-02,2.07921e-02,1.69256e-02,1.75298e-02,-1.65147e-02,-4.56918e-02,2.51415e-02,2.47474e-02,-3.75069e-02,-2.27874e-02,-5.55258e-02,-3.88904e-02,-4.52172e-02,3.45631e-02,2.68060e-02,-4.26581e-02,-3.43504e-02,-2.93754e-02,1.49904e-02,-6.18188e-02,-9.57607e-03,-3.41937e-02,-4.07144e-02,1.08098e-02,1.73789e-02,-2.67494e-02,1.12560e-02,2.22339e-02,-2.70854e-02,-2.13670e-02,1.90002e-02,-3.27299e-02,-4.78348e-02,-1.21256e-03,1.23463e-02,1.75208e-02,2.65076e-02,-1.50848e-02,-5.06667e-02,4.74060e-02,-1.13747e-02,8.09532e-03,-3.24321e-02,2.43881e-02,7.31208e-03,
-1.19674e-03,-5.64959e-02,-5.64030e-02,-6.86653e-02,2.34789e-02,2.12748e-02,-1.50532e-02,3.66515e-03,-5.43942e-02,-1.42598e-02,-1.57701e-02,-4.10429e-02,-1.93155e-02,1.50105e-03,2.21686e-02,2.33908e-02,-1.56638e-02,-1.86826e-02,-2.49783e-02,-8.74592e-03,-8.89734e-03,-3.27007e-02,-5.65141e-02,-1.90983e-02,-4.39593e-02,2.88891e-02,-4.77159e-02,-1.54421e-02,-4.22207e-02,-4.27629e-02,-2.93780e-02,-3.89543e-02,6.49048e-03,1.80347e-02,-2.90661e-02,-5.25358e-02,-1.47694e-02,-5.26284e-02,3.79719e-02,-9.02554e-04,-9.58737e-04,2.57966e-03,-3.42289e-02,-4.84969e-03,-4.89040e-02,
1.74495e-01,1.51860e-01,-1.06567e-01,9.87280e-01,7.79625e-01,2.29353e-01,4.49206e-01,-2.17415e+00,-4.69429e-01,-8.00650e-02,2.24650e-02,-3.59844e+00,-7.95425e-02,-3.25478e-02,-6.91023e+00,-1.10960e+00,-2.67732e-01,2.17427e-01,3.52294e-01,-4.98613e-01,-3.74612e-01,-1.22945e+00,3.35959e-03,1.42883e-02,-2.54003e-01,-3.66526e+00,1.29207e-01,1.80133e-01,-1.29817e+00,-6.66018e-02,6.06680e-01,-1.70527e-01,9.91807e-02,1.45527e-01,5.40568e-02,4.97074e-01,1.40445e+00,1.53972e-01,3.01058e-01,7.66370e-03,-2.55920e-01,3.44941e-01,-1.09950e+00,-7.08955e-02,-6.74909e-01,
2.30283e-01,-2.05032e-03,-3.00592e-01,-2.31012e+00,-7.04886e-01,3.95181e-01,-1.37098e-01,4.23480e-02,2.94607e-01,-1.52848e-01,-5.74322e-02,-8.02649e-01,-2.11230e-01,3.98443e-01,-1.28889e+00,2.02383e-02,3.58363e-01,1.46252e-01,-1.01700e+00,7.51063e-01,4.27540e-01,1.18250e-02,1.66425e-02,-3.58425e-02,3.79688e-01,-8.03422e-01,2.31384e-01,4.33987e-01,8.48661e-02,-2.46235e+00,-2.40268e-01,-3.36019e-02,1.74529e-01,1.08692e-01,1.34593e-02,-4.35082e-01,-3.04428e+00,1.11648e-01,-1.81979e+00,-1.33291e-02,-5.57206e-02,-1.85179e-01,-1.54963e-01,1.39181e-02,-8.22881e-01,
4.20269e-01,3.80487e-01,3.80950e-01,-6.47284e-02,4.89650e-02,3.05658e-01,3.02890e-01,-3.63755e-02,1.62505e-01,-1.39998e+00,-6.96954e-02,-3.11313e-01,-1.44023e+00,5.78664e-01,-3.11207e-01,3.07292e-01,2.59959e-01,-8.31527e-03,5.07982e-02,-8.47937e-02,-3.11601e-01,4.94198e-01,-2.58969e-02,-7.41241e+00,-7.67971e-01,5.86538e-01,3.29277e-01,1.20892e-01,-5.11793e-01,-1.81616e-01,-1.09250e-01,-4.72618e-01,1.00198e-01,-2.19380e+00,5.50203e-02,-3.74869e-01,1.03582e-01,-1.57045e+00,-1.70467e-01,-2.93705e-02,-1.70834e-01,2.43276e-02,1.67665e-01,-2.49542e-02,-1.03463e-01,
4.65292e-01,-3.30152e-02,4.74197e-02,5.03095e-01,-1.17930e-01,1.63327e-02,1.95224e-01,-5.00930e+00,-1.04843e-01,-9.28348e-03,6.11116e-02,7.10793e+00,-4.57248e+00,-2.07431e-01,-1.41257e+00,-3.02088e+00,-2.04990e-01,5.89116e-01,6.17385e-01,-1.78742e+00,2.32622e-02,-2.64299e+00,5.57327e-02,-7.92378e-02,-5.93967e-03,4.03575e-01,-1.89184e-01,2.98273e-01,-1.48141e+00,1.62104e-01,6.03397e-01,-1.05602e-01,-6.79682e-02,9.72655e-02,-2.99455e-02,3.59613e-01,2.21331e-01,-7.45202e-02,5.76117e-01,-2.90334e-03,-2.78006e-03,3.69977e-01,-4.72133e-01,-4.95648e-01,7.15231e-01,
-2.15174e-01,5.19741e-01,4.28139e-01,-8.94588e-02,2.37106e-01,2.08631e-01,4.16220e-01,2.34586e-02,2.43604e-01,1.96582e-01,4.11478e-02,2.32409e-01,-2.40305e+01,4.48972e-02,4.04754e-02,1.55935e-01,-8.48207e-01,3.44937e-01,-1.60903e-01,1.26970e-01,-2.28308e-01,1.00742e-01,3.33638e-02,8.98793e-02,2.18032e-02,-9.73760e+00,-2.49221e-01,-3.59046e-02,-8.71483e+00,-2.26554e+00,3.02936e-01,-6.70145e-02,-1.70867e+00,-1.97319e-01,2.60346e-02,2.01382e-01,6.39782e-01,-1.89318e-01,-3.82944e-01,2.39593e-02,-6.02698e-02,-1.15935e-01,-1.07358e-01,3.22017e-01,-1.34924e-01,
-2.93504e-01,-1.02610e-01,3.68557e-01,-3.64913e-01,-7.58849e-01,3.26849e-01,6.90510e-02,4.41346e-01,8.05784e-01,-2.95627e-01,4.55108e-02,4.86941e-01,-7.37887e-02,1.75758e-01,-6.67976e-01,-3.07643e-01,5.06964e-01,1.00010e+00,1.43441e-02,1.05245e+00,5.17602e-01,-2.64167e-01,1.19300e-01,-1.27246e-01,2.25626e-01,-1.39382e+00,-5.22534e-02,-1.44641e-01,1.10491e+00,-1.29136e+00,6.30629e-02,-9.49692e-02,3.20390e-02,2.08834e-01,-7.07108e-02,6.75534e-01,-1.72538e+00,1.38643e-01,-1.13570e-01,-3.61289e-02,2.36054e-01,1.05596e-01,1.62287e-01,-3.62529e-01,-2.55344e-01,
3.93857e-01,8.82663e-02,6.45727e-02,-5.05495e-01,-3.22673e-01,-1.14153e-01,2.71449e-01,2.97532e-01,5.66849e-01,-2.79622e-01,-5.63684e-02,-5.89356e-01,-1.11036e-01,-2.86785e-01,1.27104e+00,-2.84779e-01,4.49361e-02,-8.00771e-02,7.56168e-01,3.61768e-01,4.45664e-01,-2.78728e-01,-1.85692e-02,-4.32734e-01,-4.81677e-01,-2.84777e-01,2.85391e-01,9.33100e-01,-2.48880e+00,-8.70315e-01,-5.15442e-02,-3.10017e-01,-2.05312e-01,3.03945e-03,4.07543e-02,-8.19612e-01,-1.78209e+00,2.74548e-01,-3.27553e-01,3.95960e-02,4.80434e-01,-2.09939e-01,-9.04131e-01,-6.52108e-03,-5.23454e-01,
-2.55356e-01,-4.97848e-01,1.50510e+00,2.05657e-01,1.32250e-01,2.79544e-01,1.05266e-01,-2.30401e-01,1.18137e-01,-1.87185e-01,1.02263e-01,-7.06690e-01,-5.61516e-01,1.15813e+00,-8.40002e-01,5.51191e-01,-1.00324e-01,3.91495e-01,4.36101e-02,-2.92944e-02,-2.46160e-01,2.83916e-01,1.18009e-01,-1.20976e-01,-1.38367e-01,-1.10388e+00,-2.29757e-01,-1.05389e+00,-3.44743e-01,5.52966e-02,7.86364e-01,7.50594e-01,4.52910e-01,1.59285e-01,-1.12242e-01,4.61588e-01,-2.28149e-01,5.46295e-01,5.45285e-02,-3.78754e-02,-1.84536e-01,-3.90079e-01,-2.95982e-01,5.40729e-01,-1.07731e+00,
-1.36946e-01,3.80630e-01,1.88325e+00,1.81432e-02,2.47898e-01,-2.14320e-01,-5.84899e-01,5.34677e-02,1.11777e+00,-1.06655e-01,1.88700e-02,6.90938e-01,5.79564e-02,2.79521e-02,-7.64493e-01,-1.59520e-01,2.30141e-01,4.54149e-01,2.92308e-01,6.35089e-01,-6.70739e-02,4.51343e-01,6.29487e-02,8.34528e-02,1.33286e+00,1.23951e+00,7.83131e-02,3.98906e-01,2.80420e+00,-1.40700e+00,-1.22065e-01,6.90282e-02,-1.06529e-01,-4.40263e-02,1.62744e-01,-1.93619e-01,8.66147e-01,-6.75180e-02,-4.45680e-02,-3.04419e-02,5.07284e-01,-8.55833e-02,7.18919e-02,3.71602e-01,2.52136e-01,
-5.01914e-02,3.66935e-01,4.74402e-01,2.39074e-01,2.78692e-01,3.68000e-01,4.57730e-01,2.94302e-01,5.90169e-01,5.80045e-01,2.88971e-01,4.32608e-01,-2.28159e+01,-1.38474e-01,-1.19720e+00,-2.93960e-01,2.90226e-01,-6.66096e-01,-3.50825e-02,-1.48044e-01,1.10411e-02,-8.56815e-01,1.28214e-01,-1.08263e+00,-3.13425e-01,1.20687e+00,2.93073e-01,6.53325e-02,-4.38167e-01,-3.56338e-01,1.59483e-01,-3.87436e-01,-8.36567e-02,-6.45630e-01,3.22450e-02,9.95713e-02,-2.11012e-01,1.52035e+00,1.14865e-01,-3.27351e-02,8.06005e-02,-1.05193e-01,1.47901e-01,-6.64733e-02,-7.56528e-02,
3.35282e-02,2.64228e-01,1.83389e-01,-2.13104e-01,3.31176e-01,5.44746e-01,2.32055e-01,-4.57989e-01,-6.56817e-01,-8.82520e-02,4.09272e-02,-2.78259e+00,2.22827e-02,-4.64750e-01,5.00856e-01,9.35668e-02,-4.48083e-01,1.90165e-01,1.52637e-01,8.71584e-02,5.13718e-01,1.39710e-01,5.09042e-02,-2.17249e-01,2.19917e-01,-6.84249e-01,9.95995e-02,-4.95645e-02,-6.62766e-01,-4.43820e-01,5.97636e-01,3.47309e-01,-1.45781e-01,5.34838e-02,1.55366e-01,-1.29589e-03,-3.14468e-02,-1.69821e-02,-2.16424e-01,-2.19608e-03,-1.01679e+00,2.62598e-01,-5.99972e-01,-5.88368e-01,-9.54581e-01,
-1.06169e-01,-3.51019e-02,3.60579e-01,2.99064e-01,4.75205e-02,1.73742e-01,2.53827e-01,2.24413e-01,4.68604e-01,1.50920e+00,3.28343e-01,1.15395e-01,1.20355e+00,3.08845e-01,7.32550e-02,-3.94208e-01,-9.35569e-02,-2.41544e-01,1.93626e-01,-6.44807e-01,-1.85890e-01,-5.34482e-01,4.89491e-02,-3.02790e-02,-7.39239e-01,1.73915e-01,-7.52303e-02,6.94275e-02,2.95987e+00,3.32397e-02,6.02568e-01,9.37423e-03,-1.12028e-01,-5.21016e-01,1.32089e-01,-4.13227e-01,1.63940e-01,-2.41193e-01,7.63688e-02,4.44532e-02,3.32370e-02,3.01457e-01,1.58785e-01,-3.48288e-01,1.24392e-02,
-4.97096e-02,-2.95633e-01,-2.52966e-01,9.06516e-01,8.58770e-01,-1.56062e+00,5.39699e-01,2.14453e-01,1.78984e-01,-1.75580e-01,-9.90478e-02,-3.74068e-01,-3.07519e-01,2.93975e-01,-9.69828e-01,-1.70774e-01,-1.22593e+00,2.44015e-01,-2.69543e-02,-4.10309e-01,4.71060e-02,1.54570e-01,1.34193e-01,9.79101e-02,1.17255e-01,-2.70569e+00,5.58512e-01,2.88078e-01,-4.47979e+00,-4.36646e-01,3.74936e-01,-2.79510e-01,-8.37342e-01,-3.14022e-01,1.45151e-01,-2.01071e-01,1.41656e+00,2.70559e-01,5.86120e-01,-8.85496e-03,3.26698e-01,6.85494e-01,-2.29767e-01,2.74548e-01,-2.50428e-01,
-2.01868e-02,
3.06805e-01,
2.42586e-01,
-9.22811e-03,
1.25853e-01,
1.06254e-01,
3.47241e-01,
2.05523e-01,
3.79663e-01,
2.14961e-01,
-1.01860e-02,
3.29563e-01,
5.03951e-01,
8.60318e-02,
1.02238e-01,
1.51843e-01,
7.11097e-03,
8.95626e-02,
2.45281e-01,
1.65271e-01,
-2.25984e-01,
4.69133e-02,
2.12965e-01,
2.53832e-01,
4.02646e-01,
-1.93350e-02,
-1.97129e-02,
3.90576e-01,
1.81839e-01,
4.09078e-02,
-1.39734e-02,
-2.27415e-02,
5.33834e-02,
9.87618e-02,
4.93759e-01,
3.72749e-02,
1.65220e-01,
7.88136e-02,
2.11625e-01,
-2.68683e-01,
-2.69815e-01,
-2.85900e-01,
3.92511e-01,
-4.42018e-01,
-2.07711e-02,
1.54759e-02,1.70635e-01,-5.95952e-02,4.82927e-02,-4.55299e-01,-5.55093e-01,5.07592e-01,-3.67260e-01,-9.08019e-02,3.31180e-01,2.55814e-02,-1.28987e+00,-3.14223e-01,6.93053e-01,2.23932e-02,2.45033e-01,-5.56142e-01,3.72999e-01,1.01945e+00,-2.27205e-01,-2.11333e-02,-5.30544e-03,-3.46970e-02,3.49516e-01,-3.02782e-01,-4.61527e-02,7.96295e-01,-3.15666e-01,5.43750e-01,4.95856e-01,1.95727e-02,-3.30260e-02,1.28696e-01,-4.62024e-02,2.66412e-01,-2.84043e-01,1.13459e-01,-4.12116e-02,-1.66273e-01,4.20409e-01,-2.34067e-01,1.15182e+00,-1.13633e-01,-1.18536e+00,-2.25344e-01,
2.78118e-02,-4.82335e-02,-5.78066e-02,-2.90701e-02,-7.83682e-02,-7.41288e-02,2.60028e-02,-5.29339e-02,2.28595e-02,-4.46598e-02,5.32874e-03,-5.70742e-02,-6.10924e-02,-1.91610e-02,5.13770e-02,-2.46099e-02,2.18729e-02,-5.86188e-03,-1.59321e-02,-2.74058e-03,-3.46841e-02,-8.41585e-03,-6.19169e-02,-5.40789e-02,-1.09526e-02,-9.87367e-04,-3.56088e-02,3.95064e-02,7.93019e-03,-2.14908e-02,4.20493e-02,3.53351e-02,9.35921e-03,3.54731e-02,-5.73422e-04,5.60098e-03,-2.94980e-03,3.98975e-03,2.20458e-02,1.70560e-02,-2.41246e-02,-1.01045e-02,-4.43447e-02,2.75838e-02,-3.18485e-02,
-3.21964e-02,3.10813e-02,-4.55291e-03,2.83861e-02,4.65662e-02,1.07892e-02,-2.07372e-02,-3.07324e-02,-3.84835e-02,3.38855e-02,-3.93294e-02,-3.33714e-02,-1.33640e-02,-4.42774e-02,1.86223e-02,1.53007e-02,-4.92433e-02,3.89007e-02,-4.82177e-02,7.00448e-03,-1.36788e-02,4.01939e-03,-3.54758e-02,-5.34627e-02,-2.35891e-02,-3.15844e-02,-5.22851e-02,-5.32281e-02,-3.60088e-02,2.63675e-02,-2.74037e-02,4.31341e-02,-1.81644e-02,-2.57295e-02,3.25419e-02,-2.39935e-02,-2.98786e-03,8.37507e-03,-3.67166e-02,-4.86767e-02,-2.04853e-02,1.77562e-02,2.14471e-02,-3.71170e-02,-4.39844e-02,
1.30235e-02,-4.23760e-01,4.08095e-01,1.82903e-02,-1.11902e+00,-1.07223e-01,-6.67402e-02,2.46040e-02,-2.34814e-01,-8.82169e-01,-6.70627e-01,2.33888e-01,4.82975e-01,6.02081e-02,-2.70607e-01,1.09773e+00,-2.48786e-01,-2.12986e-01,4.95900e-01,-5.37158e-01,-5.19401e-01,-1.99154e+00,-3.20186e-01,1.58205e-01,6.20660e-02,-3.56422e-02,1.74000e-01,-6.75016e-02,4.62727e-01,-7.46263e-02,-2.69129e-02,1.50298e-02,6.07646e-01,4.73335e-01,3.39287e-01,1.53822e+00,2.73963e-01,-4.33569e-01,-1.85314e-01,-1.27664e-01,2.72938e-02,1.14878e-01,2.82447e-02,-1.04550e+00,2.67469e-01,
1.23817e-02,-3.18091e-02,-1.50241e-02,6.08882e-03,-2.01243e-02,-3.41138e-03,-5.90766e-02,-2.37421e-02,-5.64965e-03,8.66407e-03,4.76099e-03,-1.35559e-02,-8.09291e-03,-6.41799e-02,-6.38368e-02,-3.62226e-02,-4.35299e-02,1.51462e-02,2.83361e-02,1.05001e-02,7.05043e-03,-4.48740e-02,-3.97674e-03,-7.76378e-03,-2.93951e-02,-4.71296e-02,1.47934e-02,-2.23126e-02,-2.17741e-02,2.88648e-02,-3.28149e-02,1.31478e-02,1.11586e-02,-4.56026e-02,2.29492e-02,-1.92823e-02,-4.21133e-02,-5.14723e-02,-5.17791e-02,2.69166e-02,-2.56186e-02,-8.88538e-03,-2.60353e-02,-1.61232e-03,-1.71775e-02,
-3.49238e-02,4.77331e-01,-1.67147e-01,-4.17726e-03,-1.54398e+00,-4.94063e-02,-6.67351e-02,-3.62254e-01,-2.68092e-01,1.22510e-01,5.37477e-01,-7.19181e-02,9.12603e-02,8.50824e-01,2.01438e-01,3.32810e-02,1.43773e+00,-6.86852e-02,1.62541e-01,2.15690e-01,-5.57242e-01,5.37192e-01,3.60824e-01,2.84785e-01,2.50156e-01,1.44253e-03,7.39685e-01,1.08246e-02,5.33573e-01,6.30123e-01,2.12669e-02,-7.99902e-03,2.01760e-01,8.33885e-01,4.52416e-01,1.78770e+00,-6.45378e-01,-4.91589e-02,2.17114e-02,2.04475e-01,3.39447e-03,-4.91306e-02,-6.81573e-01,3.67487e-01,-2.89276e-01,
-3.22538e-03,-1.96797e-01,-2.38221e-01,2.93564e-02,6.68141e-01,-1.62706e-01,-9.20197e-01,8.64929e-02,1.09774e-01,2.29114e-01,4.10371e-01,2.15649e+00,5.23169e-01,6.24128e-02,7.46113e-01,-2.73058e-01,1.53623e+00,2.05976e-02,2.43085e-02,7.27800e-01,9.02571e-02,9.12072e-01,-6.21414e-01,6.64769e-01,8.53642e-01,-1.03953e-02,-5.14082e-01,1.65388e-01,1.18553e+00,3.65030e-01,-1.89738e-02,-2.05016e-02,5.56027e-01,9.14508e-01,3.22142e-01,-1.97592e+00,-2.87837e-01,-1.11285e-02,2.99895e-01,-5.95213e-01,-2.56935e+00,5.04315e-02,-3.83835e-01,1.43010e-01,1.34704e-01,
-2.85753e-02,4.61397e-01,1.09204e+00,7.34934e-03,2.66416e-01,6.32684e-01,1.64885e-01,-1.69795e-01,1.79808e-01,-1.18889e-02,-4.24662e-01,-6.40184e-01,2.81298e-01,1.77464e-01,5.66242e-01,-4.66361e-02,6.60315e-01,-6.99070e-01,1.93906e-01,3.64540e-01,-2.51085e-01,5.94234e-01,-2.26155e-01,-1.61552e-02,-1.94517e-01,-3.13844e-02,9.34989e-02,4.32862e-01,1.73840e+00,6.23829e-01,1.75580e-02,-3.76455e-02,1.22107e-02,5.48326e-01,5.69816e-02,-3.29193e+00,1.31972e+00,-2.18069e-01,3.70370e-01,-3.29500e-01,4.82826e-02,1.60372e-01,2.02631e-01,1.48656e-01,-1.42380e-01,
-3.34850e-02,-1.26753e-01,-3.11907e-01,-5.71413e-03,1.97752e-01,1.96045e-01,-3.28761e-01,-3.91167e-01,1.17763e+00,3.31927e-01,3.11890e-01,1.38780e+00,2.51638e-02,4.68146e-01,-4.79504e-01,1.36307e+00,7.23805e-01,6.87595e-01,1.20387e-01,9.23878e-01,-6.12682e-01,1.73908e+00,-3.49020e-02,4.90391e-01,-9.95899e-01,-5.03377e-02,-5.37614e-01,-3.87708e-01,1.13773e+00,-1.17150e-01,1.02199e-02,-3.36058e-02,2.01516e-01,7.45775e-01,9.24305e-02,2.19675e+00,-3.00158e-01,4.31779e-02,-1.45043e-01,-6.26530e-01,-1.29721e-01,2.39470e-01,-3.10074e-01,-8.62554e-02,6.41813e-01,
4.77855e-03,6.34681e-01,-1.77166e-01,-2.93071e-02,2.22437e-02,-5.89804e-01,-5.02622e-01,-4.78947e-02,-5.85628e-02,7.01391e-01,-2.85002e-01,2.89396e-01,-3.15657e-01,-1.76445e-01,1.31373e-01,-2.71157e-01,-3.39961e-01,3.07219e-02,-6.96236e-01,-1.94114e-01,3.17983e-02,1.36800e+00,5.25590e-01,1.88091e-01,-2.02743e-01,-2.41234e-02,-1.73024e-01,3.06410e-01,6.75340e-02,6.81185e-01,-4.51073e-02,2.31962e-02,-1.11793e+00,-4.44009e-01,9.78068e-02,-2.68046e+00,-2.05855e-01,8.14185e-01,3.43221e-01,1.66776e-01,-1.65612e-01,3.25140e-01,-1.64259e-01,-7.75280e-01,-5.93376e-01,
-1.17507e-02,7.84483e-02,6.95146e-01,1.72641e-02,6.32391e-01,5.99226e-01,-3.86466e-01,-1.86461e-01,-1.75976e-02,-1.74057e-01,3.33956e-01,2.76957e-01,7.02950e-01,1.05506e+00,-6.61064e-01,2.37888e-01,-5.17543e-01,7.38839e-01,6.57193e-01,6.15816e-01,5.06922e-01,3.12807e-01,1.27120e-01,-4.61221e-01,-2.16045e-01,-2.69932e-02,4.66576e-01,1.11279e+00,2.49093e-01,1.69048e-01,-2.77882e-02,1.13629e-02,5.53680e-01,5.97305e-01,1.74546e-01,3.95474e-01,-5.83526e-02,5.01918e-01,-1.43888e-01,-1.98826e-01,-6.23457e-01,-6.49103e-03,1.09327e-01,-9.08498e-01,-7.64959e-01,
-2.52315e-02,-1.27041e-02,9.51852e-03,-4.30751e-02,-4.05681e-02,1.25851e-02,-2.50785e-03,-2.43791e-02,-5.03527e-03,2.32319e-02,-3.18052e-02,-2.54285e-02,-3.38607e-02,1.48290e-02,-2.27266e-02,2.86584e-02,-2.22537e-02,-1.30406e-02,1.31154e-02,-1.23685e-02,1.43022e-02,-2.74403e-02,7.82851e-03,8.84562e-04,-5.66719e-02,2.12375e-02,-4.23252e-02,4.97421e-03,5.84272e-04,3.89892e-02,8.42192e-03,-4.11808e-02,-4.79331e-02,-2.58300e-02,-1.44981e-03,2.71730e-02,-4.77491e-02,-5.63528e-03,-4.44374e-02,-4.78750e-02,-4.12824e-02,-8.91401e-03,-5.49108e-02,-3.53944e-02,-5.36876e-03,
2.47195e-03,-2.67782e-01,4.89234e-02,-3.11148e-02,-4.29039e+00,-7.64657e-01,1.00520e-01,-2.43957e-01,3.75155e-01,-5.50167e-02,-4.43376e-01,1.19548e+00,-3.13214e-01,5.74900e-01,9.06402e-03,2.90317e-01,-1.15691e-01,1.53202e-01,-1.69580e-01,-1.17600e+00,-4.49065e-01,2.11155e-01,6.17253e-01,6.97353e-01,-2.75147e-01,-2.28948e-02,-2.40613e-01,-2.15146e-01,1.26704e+00,1.14263e+00,-2.95673e-02,-5.44748e-02,8.28482e-01,-1.21960e+00,3.91289e-01,9.01478e-01,-4.72857e-02,2.47995e-01,6.54685e-01,-6.79132e-02,-4.98435e-01,2.52458e-01,-2.95513e-01,-3.63667e-01,-9.56160e-02,
-2.77347e-02,1.33491e-01,-2.43214e-02,-9.59411e-03,-2.06030e+00,1.14607e-01,-2.58355e-02,-7.46255e-01,-2.86242e-02,3.66610e-01,-1.17878e-01,7.94042e-01,1.19350e+00,2.57572e-01,4.61125e-01,6.35968e-01,8.06032e-01,-9.64415e-01,1.10200e+00,-8.86033e-02,-1.00275e+00,-7.20146e-01,-6.93379e-01,-1.13116e-01,-5.14878e-01,1.36234e-02,4.01508e-02,2.40199e-01,7.21581e-01,-3.35927e-01,-3.94104e-02,-3.04282e-02,1.11568e+00,7.34004e-02,2.15128e-02,1.24556e+00,-2.33325e-01,-2.26037e-01,-1.01112e-01,-3.09014e-01,5.38113e-01,2.41967e-02,-9.45757e-02,-2.73670e-01,1.60369e-01,
-2.51910e-02,-3.43505e-02,-1.71718e-02,2.36527e-02,3.27506e-02,-5.21145e-02,3.19723e-03,1.01166e-02,-1.20101e-03,-1.74803e-02,1.41248e-02,-2.73688e-02,-4.96347e-02,-4.04890e-02,-1.76473e-02,-2.12952e-02,-1.15157e-02,-4.20414e-02,-4.53276e-02,-2.20027e-02,-2.37428e-02,-3.09279e-03,-4.52340e-02,-3.69992e-02,-3.99894e-02,-3.17851e-02,1.38021e-02,-6.71005e-03,-3.83604e-02,-3.63296e-02,-7.50998e-03,1.53423e-02,5.35732e-03,-1.97129e-02,1.72078e-02,7.87861e-03,-4.28682e-02,1.72042e-02,-2.95665e-02,4.61717e-03,-4.66992e-02,-3.24900e-02,3.40213e-04,-3.79081e-02,-2.80927e-02,
-2.99074e-02,3.38356e-01,4.82239e-01,1.78427e-02,-4.06770e+00,2.34732e-01,-1.12243e-01,-3.83329e-01,1.26196e+00,-3.54706e-02,-9.59992e-01,-2.62955e-01,2.94725e-01,-2.89475e-02,6.91325e-01,1.20883e+00,2.77445e-01,9.09068e-01,-1.46375e-02,1.61825e-01,4.78982e-02,2.84699e-01,-5.56236e-01,2.35372e-01,6.05846e-01,2.17230e-02,2.51238e-01,-1.39780e-01,1.02187e+00,4.90671e-01,-4.33210e-02,-3.66929e-02,2.45082e-01,6.54080e-01,5.63683e-02,1.27000e+00,-3.00121e-01,3.62805e-03,-5.00625e-01,5.28614e-02,-7.95475e-01,7.83170e-02,5.90722e-01,-1.39372e+00,-3.00160e+00,
-3.34080e-02,2.41003e-01,7.37867e-01,2.97877e-02,5.61659e-02,1.44413e-01,-1.86929e-01,-2.82640e-01,-2.75227e-02,-8.62902e-01,7.49167e-01,1.31007e+00,4.69249e-01,2.89867e-01,-2.61535e-01,4.20955e-01,-1.79338e-01,-2.02199e-01,1.64111e-01,-1.46190e-02,6.92460e-01,-4.79510e-01,-4.59662e-01,5.34350e-01,3.53206e-01,3.22596e-02,4.06746e-02,-1.62772e-01,1.56753e-01,6.50691e-01,-2.39901e-02,4.56541e-02,-1.27043e-03,5.27676e-01,-1.54283e-01,6.02663e-01,4.77329e-01,-1.62858e-01,-3.12974e-01,1.17019e-01,-2.46921e-01,1.02541e+00,2.47320e-01,-1.61037e+00,5.74979e-01,
-3.20149e-02,-8.46637e-02,1.03627e+00,2.65225e-02,-7.80970e-01,4.74338e-01,-1.02716e+00,-9.19778e-02,1.27128e+00,-8.20129e-01,-6.10375e-01,1.32139e+00,6.08384e-01,2.12678e-02,-7.93048e-02,7.75899e-01,7.69837e-01,1.22639e-01,5.97765e-01,5.82430e-01,-4.17216e-01,-1.83853e-01,-5.84662e-01,6.04585e-01,3.54874e-01,-3.01237e-02,-5.88258e-01,1.30657e-02,7.98742e-01,-3.24988e-01,-1.61429e-02,9.04379e-03,1.14566e-01,9.74338e-01,2.96759e-01,1.87770e+00,2.22721e-01,8.18633e-01,3.65026e-01,1.72712e-01,-3.56050e-01,-2.31890e-01,-8.32369e-01,-1.70220e-01,-4.26352e-01,
2.14208e-03,1.49411e-02,-7.75823e-02,-1.23256e-02,9.81892e-01,2.09181e-01,3.55851e-01,-4.94505e-01,-1.16071e+00,2.89861e-01,8.63059e-01,1.37781e+00,-1.35549e-01,-2.53704e-01,4.99830e-01,1.03024e+00,4.35616e-01,9.02819e-01,1.13891e-01,7.03891e-01,6.50735e-01,1.54107e+00,1.14533e-01,1.14473e+00,1.66059e+00,-2.50251e-02,1.21643e+00,1.30525e+00,7.12291e-01,1.37044e-01,3.23100e-02,3.74352e-02,-5.00865e-02,1.13485e+00,-2.33500e-01,1.02260e+00,9.87155e-01,-2.19847e-01,8.33164e-01,1.11333e-01,-8.01131e-01,2.98516e-01,-5.74659e-01,1.23808e+00,5.27525e-01,
-2.68296e-03,4.54577e-03,-2.11759e-02,-2.74678e-02,3.17807e-02,-5.60987e-02,-4.44072e-02,-5.09505e-02,2.65988e-02,-3.49114e-02,1.35291e-04,-4.43283e-02,1.70454e-02,-3.69951e-02,-4.56393e-02,-3.24330e-02,2.20348e-02,1.23110e-02,2.57089e-02,-3.94943e-02,-9.88644e-03,1.25511e-02,2.26358e-02,-9.42641e-03,-1.89830e-02,2.90920e-02,1.49197e-02,-6.54688e-03,-3.78567e-02,-7.70831e-03,4.25382e-02,3.13968e-02,-5.91750e-03,-1.99856e-02,-1.54789e-02,-2.62017e-02,-8.93310e-03,-3.73652e-02,-2.35860e-02,-2.35917e-02,-8.37183e-03,-5.50974e-02,1.28238e-02,-5.01452e-02,-5.02468e-02,
3.95693e-02,-3.66234e-02,-6.94041e-02,1.16545e-02,9.40779e-03,1.42885e-02,3.13252e-02,1.85459e-02,-7.46111e-03,-4.40745e-02,3.21602e-03,3.83191e-02,-4.08098e-02,6.04316e-04,1.59751e-02,-4.56041e-02,5.17644e-04,7.04283e-03,2.13362e-02,-2.47268e-02,-2.28821e-02,-3.88227e-02,-5.56743e-02,-4.10393e-02,-2.69682e-02,-4.81449e-02,-2.84686e-03,-5.27604e-02,-1.08332e-02,-5.63417e-02,-2.10745e-02,1.22369e-02,1.46932e-02,1.64896e-02,1.28064e-02,1.95073e-02,-2.20793e-02,-2.20669e-02,1.69282e-02,-3.36710e-02,-4.48947e-02,-4.70435e-02,-4.29153e-02,-4.80927e-02,2.26024e-02,
3.54772e-02,3.02121e-01,-1.41383e-01,2.60027e-02,6.49145e-01,1.03649e+00,-2.80117e-01,2.37704e-01,1.60125e-01,-2.52936e-01,7.45230e-02,-2.77318e-01,5.62140e-01,-3.18835e-01,3.09364e-01,-3.34669e-01,7.89052e-01,4.51200e-02,5.19879e-01,5.51310e-01,4.84724e-01,1.61782e+00,-1.22085e-01,2.67369e-01,-3.99762e-01,-4.46422e-02,8.10987e-02,1.39657e-01,9.23182e-01,-4.68443e-02,-4.07794e-02,3.44923e-02,4.25573e-01,-1.09085e-01,-1.17739e-01,-3.14857e-01,-7.13415e-02,2.72569e-01,-2.92773e-01,1.97189e-01,-2.21984e-01,-7.20809e-02,-6.38990e-01,-4.71899e-02,-4.75440e-01,
1.79735e-02,-4.75461e-03,1.82844e-02,6.89996e-04,-1.14430e-02,1.14781e-02,-4.75574e-02,-3.12428e-02,-1.64040e-02,1.19672e-03,-3.12740e-02,-1.13257e-02,-4.92363e-02,-4.83391e-03,-2.77658e-02,-3.98726e-03,-5.58402e-02,-1.68635e-02,3.92834e-02,1.19402e-02,1.44495e-02,3.37490e-02,-9.75117e-03,-3.09913e-02,-5.20758e-02,4.08857e-03,-5.48626e-03,2.60720e-02,-7.19221e-03,9.25958e-03,8.15002e-04,3.14580e-03,-1.02813e-02,1.48285e-02,-2.25082e-02,3.74478e-02,-6.20958e-03,-4.58598e-02,-3.28684e-02,-1.61609e-02,-1.61499e-02,1.13194e-02,-3.54341e-02,-3.40354e-02,1.25108e-02,
-2.02198e-03,-4.00932e-02,-1.69168e-01,-2.35443e-02,-4.03227e-01,-2.02062e-01,-2.22921e-01,-4.02370e-01,7.72519e-01,2.54195e-01,-1.65284e-01,5.67912e-01,2.51280e-01,4.13708e-01,2.14523e-01,-2.52415e-01,1.54560e+00,3.80774e-01,5.43665e-01,3.42191e-02,-3.97505e-01,-1.92586e-01,-4.16298e-01,-4.81943e-01,5.70988e-01,-5.31909e-03,1.21148e-01,3.21893e-02,1.48901e-02,-2.52740e-01,-2.75332e-03,2.46336e-02,4.61668e-01,2.26861e-01,-2.34566e-01,-1.33311e-01,9.22001e-01,-1.68340e-01,2.91930e-01,4.39274e-01,6.15668e-02,-6.13655e-02,4.57608e-01,-3.98064e-01,4.92234e-02,
-2.00474e-02,4.94931e-01,8.21406e-01,-3.67646e-02,-1.01737e+00,4.56563e-01,-3.90895e-01,-4.11401e-01,-6.51483e-01,-3.22948e-01,1.33960e-01,7.12237e-01,7.32519e-01,2.04588e-01,-9.82060e-01,5.52033e-01,1.46591e+00,1.03521e+00,3.15051e-01,-3.92623e-01,-2.81828e-01,1.12089e+00,-8.09026e-01,2.12400e-02,4.66892e-01,2.12972e-02,8.24195e-01,5.61816e-01,1.38951e+00,1.53029e+00,3.79275e-02,2.47806e-02,7.75615e-01,1.88997e-01,1.94100e+00,1.89137e+00,1.96162e-01,4.10443e-01,-3.84057e-01,-6.46101e-02,-2.21050e-01,-7.74370e-01,1.60329e-01,-1.08208e+00,-2.06677e-01,
1.11644e-03,9.72381e-03,5.94256e-01,-3.72665e-02,6.76339e-01,8.80034e-01,-4.46616e-01,-1.81829e-01,3.62424e-01,-6.58430e-02,-2.25075e-01,-4.23620e-01,-2.60918e-01,6.86398e-02,-3.66551e-02,-3.09287e-01,1.54923e+00,1.36073e-01,-4.88269e-01,1.89434e-02,4.15350e-01,1.84964e-01,-1.63503e-01,3.12304e-01,-1.67053e-01,-3.49859e-02,-5.40935e-01,3.39648e-01,-2.76126e-01,6.85490e-01,-3.71648e-02,-2.89141e-02,8.78971e-01,-8.25605e-02,1.93398e-01,5.95356e-01,1.51523e+00,-3.00766e-01,-2.62798e-01,-4.90053e-01,2.88763e-02,3.16976e-01,-5.83436e-01,-1.06781e-01,1.44753e-01,
2.86391e-02,-4.88526e-01,1.54135e-03,-1.44407e-02,-6.41286e-01,2.67738e-01,5.37584e-01,-1.22020e-02,8.79816e-01,6.20396e-01,1.42717e-01,-7.86738e-01,1.40682e-01,6.61822e-02,4.66154e-01,4.47405e-01,-8.52553e-01,1.52059e-01,-5.00412e-01,1.24935e-01,6.40487e-01,7.50633e-01,-6.29932e-02,5.04298e-02,6.65583e-02,-1.52550e-02,1.03089e-01,4.25961e-01,7.34160e-01,-3.65590e-01,4.63402e-02,-4.81483e-02,1.34177e-01,1.67361e-01,4.26866e-01,6.85395e-01,2.92528e-03,2.31384e-01,4.00069e-01,-1.27718e-01,1.73315e-01,3.01846e-01,-1.18062e-01,-9.05351e-01,-8.35739e-01,
3.30316e-02,-5.18782e-01,2.89878e-01,-2.10381e-03,6.09823e-01,5.84264e-01,-8.09619e-02,-2.22290e-01,-1.53936e-01,-3.98637e-02,-3.51388e-01,2.51387e-01,-2.32763e-02,3.57386e-01,-2.19597e-01,3.20053e-01,4.72176e-01,-4.70088e-02,-1.84542e-01,-3.13096e-01,2.94877e-01,7.50953e-01,-1.64016e-01,-1.33120e-01,7.72136e-01,3.92941e-02,-6.24182e-01,-2.78617e-01,7.78274e-01,3.32374e-02,1.61669e-02,4.50883e-02,2.13689e-01,7.86265e-01,4.30899e-01,6.08946e-01,-8.83264e-01,3.28750e-01,-1.84359e-03,1.08563e-01,-2.38507e-01,-2.92509e-01,2.32669e-01,1.58666e-01,2.09040e-01,
4.15426e-03,-2.14979e-01,-1.95179e-01,1.11855e-02,-6.80487e+00,-1.98583e-01,2.84301e-02,-7.54881e-02,-2.37405e-01,1.13201e-01,1.41429e-01,-4.05049e-01,8.66317e-01,8.63678e-02,1.77655e-01,2.37005e-01,3.64041e-01,1.33265e-01,1.71427e-01,-3.20360e-01,4.03770e-01,1.02546e-01,-6.30283e-03,3.16864e-01,-8.52821e-01,4.06101e-02,3.71641e-01,1.55983e-01,7.26646e-01,-6.93567e-01,-2.59976e-02,-1.47123e-02,1.27941e-03,6.01793e-02,5.58436e-01,-4.77072e-01,3.31884e-01,-3.12851e-01,-2.39227e-01,-7.30597e-03,-2.63764e-01,2.46661e-01,-7.81781e-02,3.31500e-02,-6.64868e-01,
-1.71220e-02,5.35378e-02,-6.65373e-01,-3.28808e-02,-7.85663e-01,5.38991e-01,-3.30489e+00,-5.64308e-01,3.78416e-01,8.36083e-02,4.85364e-01,9.79561e-01,1.99348e+00,2.99049e-02,3.54718e-01,9.13771e-01,-1.38253e-01,-3.48063e-01,3.21803e-01,3.70164e-01,4.95289e-01,7.12618e-01,4.37109e-01,1.28479e-01,8.02004e-02,-1.64928e-02,-6.32588e-02,-7.77284e-02,7.09866e-01,5.46075e-01,-1.34704e-02,3.15486e-02,-1.08687e+00,8.88292e-02,3.96314e-01,-6.41382e-01,1.16124e-01,2.59963e-01,3.20075e-01,-6.85279e-01,3.74075e-02,3.01964e-01,-1.17195e-01,1.70717e-01,-5.93844e-01,
4.28850e-02,-5.63218e-02,1.19659e-01,1.31949e-02,-3.48527e+00,-9.75629e-01,-1.67406e-01,-2.20530e-01,1.13276e-01,3.54911e-01,-3.36332e-01,2.20011e+00,-4.70534e-01,3.13374e-01,1.78665e-01,1.96648e-01,6.59723e-02,-4.18259e-01,-1.39187e-01,2.07909e-01,-2.30270e-01,3.49351e-01,6.35851e-02,-2.04363e-01,4.94689e-01,-5.55437e-03,-2.40426e-01,5.37353e-02,3.16634e-02,1.21068e-02,-4.38151e-02,-3.08353e-02,-2.84754e-02,6.12334e-02,2.26729e-01,-3.52757e+00,-1.30462e-01,-7.21399e-02,-2.41542e-01,-8.69387e-02,-2.48001e-02,3.16709e-01,-1.49459e-01,-2.29869e-01,-1.22664e-01,
4.27477e-02,-2.80694e-02,-2.43564e-02,4.30355e-02,5.23366e-02,-1.29120e-01,-7.65146e-02,-6.05975e-02,-9.07414e-02,-8.76662e-02,-2.89400e-02,-3.01839e-02,-4.95061e-02,-6.96971e-02,5.12303e-02,5.06140e-02,-1.49855e-02,-2.85596e-02,-7.96509e-03,2.28860e-02,-1.96600e-02,-5.44445e-02,-4.75709e-02,-2.21911e-03,-8.72389e-02,-8.56980e-04,-2.29917e-02,-7.82561e-02,4.52977e-02,-1.02818e-01,-2.13101e-02,-3.70382e-02,1.45261e-02,7.40336e-02,-6.53033e-03,-2.32879e-02,-2.70345e-02,-3.34007e-03,1.94322e-02,-5.35082e-02,-5.68568e-03,-1.55243e-03,-7.03539e-02,-6.31206e-02,-5.13817e-02,
-4.07837e-02,-5.05917e-01,1.22041e+00,-3.79741e-02,1.04268e-01,8.79826e-01,-1.04598e+00,-4.67131e-01,-2.05242e+00,3.84047e-01,2.93200e-02,-2.11703e+00,-5.88614e+00,4.63348e-01,-3.12287e-01,9.30752e-01,3.84518e-01,1.15614e+00,7.62133e-01,6.11824e-01,-2.35315e-02,1.67806e-01,-3.95090e-01,3.04227e-01,-2.05543e-01,6.12518e-02,-3.43645e-02,1.31528e-01,-7.44179e+00,-3.82406e-01,1.89303e-02,-1.38657e-02,-1.99435e+00,-5.06128e-01,4.21464e-01,-1.85988e+00,-2.03018e+00,6.13323e-02,-9.35315e-02,-1.00166e-01,3.35944e-01,1.45982e-01,-8.82647e-02,1.10190e-01,1.33784e-01,
7.84712e-04,-1.07674e-01,-7.30467e-01,-2.72536e-02,-6.06961e+00,2.23748e-01,4.91014e-01,2.06914e-01,1.61964e-01,-3.78689e-01,-3.91753e-01,2.36082e-01,-7.74611e-02,2.39294e-01,3.65619e-01,-5.99024e-01,4.29558e-01,2.73698e-01,-8.00352e-01,2.31931e-02,1.27063e-01,7.32540e-01,-4.97265e-02,-1.15351e-01,-1.50428e-01,-2.49248e-03,-4.85373e-01,5.51150e-02,1.58994e+00,1.29837e+00,1.07542e-02,-1.58300e-02,9.97600e-01,4.28615e-01,-3.42887e-02,7.74645e-01,4.72866e-01,-3.54051e-02,-4.07760e-02,-2.59591e-02,1.97197e-01,7.76207e-02,4.02829e-01,6.19996e-01,-4.24547e-01,
-1.55680e-02,-3.16045e-02,4.81365e-03,4.02285e-03,3.10385e-02,1.08379e-03,-2.98392e-02,-6.69052e-02,-5.60853e-02,-2.63696e-02,5.40093e-04,-4.65115e-02,-1.60633e-02,-4.28303e-02,3.39895e-02,7.71356e-03,-5.17974e-02,1.15412e-02,4.08395e-03,-2.14641e-02,2.08167e-02,-2.79737e-02,-1.18011e-03,-1.79919e-02,-7.05319e-02,3.27518e-02,-1.38707e-02,3.54776e-02,-5.55349e-03,3.10663e-02,-4.21702e-02,1.96339e-02,4.59712e-02,1.37503e-02,9.97239e-03,-5.72426e-02,-7.33963e-03,-6.21521e-02,1.67576e-02,3.44556e-02,9.52111e-03,-6.80341e-02,-5.42819e-03,-3.46447e-02,-4.22507e-02,
-4.31917e-02,-8.32446e-02,-2.57593e-01,3.80271e-02,7.08867e-01,-2.21854e-01,1.17366e+00,5.21659e-02,1.56280e-01,-7.48951e-01,-8.51754e-03,4.82351e-01,2.67575e-01,1.67758e-01,-6.12328e-01,-2.61556e-01,-2.89756e-01,1.96276e-02,1.26762e+00,-1.96185e+00,-1.17406e+00,-5.87266e-01,-4.21846e-01,-2.28499e-01,7.41278e-01,-6.94695e-02,-1.17625e-01,-1.36097e-01,7.18324e-01,6.91743e-01,-2.94425e-02,-4.48048e-02,-1.59831e-02,-3.38843e-01,-3.27285e-01,-3.48167e-01,-4.26188e+00,-6.39741e-01,-6.49192e-02,-5.35836e-01,2.20519e-02,-5.03776e-03,-3.61752e-01,1.08220e-01,1.63647e-01,
-4.57533e-02,2.32410e-01,1.10589e+00,-2.32398e-02,-2.73068e-02,7.79006e-01,-2.57876e-01,-2.26103e-01,1.15914e+00,5.52782e-01,1.09988e+00,-1.02687e+00,3.41553e-01,-2.11061e-01,-4.80549e-01,8.93915e-01,3.40208e-01,8.55389e-01,9.36743e-01,2.64079e-01,3.10679e-02,1.94478e-01,2.64691e-01,-3.92660e-01,7.82722e-01,4.39286e-02,9.52128e-01,-5.37660e-01,1.19334e+00,-5.03713e-02,2.31202e-02,-3.97098e-02,-2.48642e-01,4.75533e-01,-3.38496e-01,8.35983e-01,-4.89491e-02,1.13309e-02,9.78781e-02,-1.90776e-01,2.48878e-01,3.48658e-01,-3.83265e-01,4.19260e-02,-4.28124e-01,
-4.29837e-02,3.96690e-01,-5.91875e-02,-2.77977e-02,-1.93495e-01,-7.43737e-01,-2.44771e-01,-6.05333e-02,1.74932e-01,-2.32524e-01,-3.32250e-01,2.14557e+00,-6.76279e-01,-5.35126e-02,2.56157e-01,-1.69304e-01,-3.17034e-01,-4.13809e-01,-6.56272e-01,-3.07627e-03,-5.24274e-01,-6.40540e-01,1.48890e-01,3.51078e-01,2.28263e-01,-2.54087e-02,-5.30670e-01,1.42018e-01,7.02112e-01,6.02870e-01,-3.18641e-02,1.77581e-02,4.48901e-01,1.68258e-01,-6.84686e-02,-1.21914e+00,4.36812e-01,-3.96445e-02,2.43932e-01,-7.67739e-01,1.12982e-01,5.82224e-02,3.69200e-01,-1.74203e-01,7.20063e-01,
-7.68250e-03,-2.29415e-01,-1.49095e-01,-1.77724e-02,-2.11227e+00,4.75151e-01,-1.32456e-01,1.57762e-01,5.87697e-01,3.35978e-02,-4.00876e-01,2.26417e-01,-1.89305e+00,-2.11054e-01,-6.31505e-03,-5.43988e-01,6.88284e-01,-5.92604e-01,1.30142e-02,1.63599e-02,1.25357e-01,3.11918e-01,2.84233e-01,-9.17799e-03,-5.20028e-01,2.41787e-02,9.67053e-01,2.24216e-01,-9.56991e-01,-9.33980e-01,-2.75078e-02,-4.80021e-02,-4.18927e-02,8.68171e-01,1.33291e-01,-2.84070e-01,2.35569e-01,2.48382e-01,1.76401e-01,3.58775e-01,-1.71065e-01,-5.52657e-01,4.71291e-01,5.80547e-01,1.29616e-01,
-4.05692e-02,2.83882e-01,-1.52421e-01,-3.85329e-02,-9.88013e-01,4.77455e-01,4.57442e-01,-3.49089e-01,9.20680e-01,7.42784e-01,2.74466e-01,7.60655e-03,-1.64882e-01,6.12216e-01,4.82533e-01,-1.52765e-01,-9.58828e-02,1.96794e-01,-3.53525e-01,-7.46722e-01,-1.94003e-01,1.00609e+00,4.63311e-02,-8.60292e-02,3.93360e-01,-3.86095e-02,8.56603e-01,4.47895e-01,1.26143e+00,1.90514e+00,-2.33124e-02,-2.64660e-02,1.08939e+00,8.51638e-01,2.74839e+00,1.11252e+00,1.38969e+00,6.35573e-02,3.68656e-01,5.03478e-01,3.89964e-01,-2.36257e-01,5.55828e-01,-1.15648e+00,-1.48050e-01,
2.32732e-02,1.03689e-01,-2.43312e-02,-3.95923e-02,7.58311e-01,1.11801e-01,-1.80454e-01,-1.42586e-01,-3.64142e-02,-2.47317e-01,-3.76096e-01,2.29358e-01,8.35733e-01,-2.56297e-01,-3.14438e-01,-2.35044e-01,-3.84615e-02,1.95422e-01,7.52114e-01,5.65072e-01,1.09645e-02,-3.83243e-01,-3.78160e-01,4.57451e-01,-7.78183e-02,3.70441e-02,2.36792e-01,-1.62829e-01,1.16827e+00,5.10042e-03,2.66522e-02,-4.67414e-02,2.19211e-01,1.31733e+00,-2.21435e-01,5.21184e-01,1.18435e+00,-4.46630e-01,-2.69924e-01,3.07820e-01,-2.45769e-01,-2.43643e-01,-6.09801e-01,6.18588e-01,1.24371e-01,
-1.60301e-02,-3.55778e-01,1.26157e-01,1.30186e-02,-2.26562e-01,1.00402e+00,-9.86690e-02,-3.03701e-01,4.19516e-01,-1.65741e-02,2.10839e-01,-1.74223e+00,3.82079e-01,1.39561e-01,-2.79621e-02,6.45278e-02,1.22318e+00,8.49086e-02,6.66134e-01,9.44077e-01,-3.62426e-01,3.11017e+00,-4.96580e-01,6.27157e-01,-1.21738e+00,2.71491e-02,3.55398e-02,-2.31385e-01,1.36450e+00,4.60161e-01,-3.85079e-02,3.19782e-02,1.25758e+00,-4.61703e-02,1.53268e-01,-5.60762e-02,1.20677e-02,-8.08083e-01,2.39035e-01,-5.37467e-02,2.59903e-01,-2.02524e-01,-1.22510e+00,1.42412e-01,-1.71027e-01,
-1.25606e-02,-4.76933e-02,5.63382e-03,4.19747e-02,2.44806e-02,-6.84632e-03,2.77381e-02,-4.19283e-02,3.37773e-02,-4.26902e-02,3.22621e-03,6.47732e-03,-5.95459e-03,-1.14285e-02,-2.11191e-03,-6.18377e-02,1.11425e-02,3.35568e-02,1.10916e-02,-2.64410e-02,-4.00921e-02,-1.71931e-02,-2.19038e-02,-3.92128e-02,-3.08440e-02,-4.56890e-02,-8.10863e-03,3.26440e-02,-1.81871e-02,-5.45852e-03,4.56487e-03,1.95728e-02,1.12838e-02,-4.82965e-02,-1.23036e-02,1.17005e-02,-2.91993e-02,-2.86954e-02,-3.14260e-03,-3.86151e-02,-3.19085e-02,-1.73882e-02,4.08441e-03,-2.62028e-02,1.89349e-02,
-3.39262e-02,2.58411e-02,2.21847e-02,-1.48394e-02,4.87352e-03,1.48833e-02,-4.02341e-02,-2.44825e-02,-1.62300e-02,-3.32699e-02,-5.67731e-03,3.72129e-02,-1.27292e-02,-4.60694e-02,-4.43375e-02,-5.02459e-02,-5.14799e-02,-8.57868e-03,-2.25166e-02,-2.03593e-02,-7.56791e-03,-3.06977e-02,1.63035e-02,3.40074e-02,2.98293e-02,-1.02625e-02,-1.85403e-02,-4.17246e-02,4.09652e-02,3.28696e-02,-1.54342e-02,-3.13015e-02,-2.85762e-02,1.84744e-02,-1.13977e-02,-5.59128e-03,5.63021e-03,-3.62878e-02,-3.27221e-02,-3.01250e-02,-5.30131e-02,-2.78042e-02,-2.24936e-02,2.08400e-02,-1.60382e-02,
-2.30664e-02,-7.67372e-03,3.52129e-01,-4.34110e-03,1.51019e+00,2.81305e-01,5.11009e-01,-2.20571e-03,3.55540e-01,-8.10450e-02,5.81479e-01,2.97323e-01,4.46069e-01,-1.39870e-01,-4.95073e-01,-2.56192e-01,-5.09555e-02,3.17408e-01,-2.74101e-01,8.04826e-03,-1.28436e-01,5.45924e-01,3.73076e-01,-1.76781e-02,-9.92823e-02,-1.10021e-02,3.31520e-01,2.09957e-01,9.26280e-01,-2.86838e-01,2.42907e-02,-2.17690e-02,-1.91616e-01,3.99215e-01,7.15184e-01,1.25532e+00,8.27772e-01,5.85561e-01,3.42935e-01,-6.93638e-01,-6.19658e-01,4.45089e-02,-2.53366e-01,-4.16257e-01,-3.67958e-01,
-7.54657e-03,
-1.86127e-02,
-2.92057e-02,
1.91118e-01,
-2.04688e-02,
-1.57150e-01,
-6.95660e-02,
-2.56524e-01,
5.86412e-02,
1.54465e-01,
3.39870e-01,
-1.90847e-02,
2.48225e-01,
1.25571e-02,
-1.18221e-02,
3.84391e-02,
-1.05032e-01,
3.92547e-01,
-1.39067e+00,
-1.01993e-02,
-3.38512e-02,
1.92257e-01,
-1.02503e-02,
2.17822e-01,
-4.61620e-01,
1.35976e-01,
4.00001e-02,
-2.85257e-01,
5.27292e-02,
2.39654e-02,
9.87097e-02,
-5.08805e-02,
3.55534e-01,
-3.25621e-03,
-1.69202e-02,
-2.20882e-01,
1.99725e-01,
1.03683e-02,
-5.25185e-02,
1.14489e-01,
4.82717e-01,
-8.04302e-02,
-9.98277e-03,
-1.68431e-02,
-1.14234e-01,
-3.20274e-01,5.67969e-02,-4.24848e-02,2.00441e-01,-3.66438e-02,-1.98599e-01,1.62464e-01,4.72174e-01,8.41178e-02,1.74330e-01,-9.62676e-03,-5.23651e-02,4.33171e-01,8.84763e-01,-1.29217e-02,3.35552e-01,3.94508e-01,7.85703e-02,2.68588e-01,-1.64092e-02,5.44167e-02,6.59811e-01,2.06082e-02,-3.43286e-01,-2.28358e-02,8.48344e-02,1.56023e-01,1.64863e-01,-4.08764e-01,9.41705e-02,6.87181e-01,4.79443e-02,-9.57519e-01,7.03307e-01,4.67834e-02,-3.19085e-01,2.59742e-03,-9.62770e-02,2.84313e-01,-1.57025e-01,3.13073e-01,1.07862e+00,-6.06189e-03,2.22035e-02,5.51464e-01,
4.88421e-01,-1.63358e-02,-3.99653e-02,-2.24927e-01,2.53930e-02,-1.64637e+00,-2.22863e-01,3.32141e-01,-3.96231e-01,-1.19550e+00,1.32655e-01,6.83803e-03,6.69222e-01,-4.07576e-01,-3.75237e-02,1.87242e-01,-2.68694e-02,-1.46386e-01,-5.49798e-01,3.81794e-02,-2.50200e-02,2.18165e-01,2.93080e-02,4.09124e-01,8.20644e-03,-9.00837e-01,1.95276e-01,7.74737e-01,2.54524e-02,1.89542e+00,-1.75761e+00,-7.80857e-02,-1.54158e+00,-4.45594e-02,2.13814e-02,-3.88315e-01,-1.97956e-01,-1.05483e+00,-1.45555e+00,4.39646e-02,-6.67444e-01,-2.31373e-01,3.31955e-02,-3.41324e-02,3.16122e-02,
-1.86035e-01,2.34168e-02,3.85548e-02,-6.39225e-02,3.19140e-02,-8.97862e-02,-1.34685e-01,-3.38068e-01,5.71535e-02,1.39402e-01,-1.02169e-01,1.82684e-02,5.63482e-01,-4.11383e-01,2.80837e-02,1.00149e-01,1.37549e-01,-9.12221e-02,-4.18840e-02,2.06965e-02,-2.52358e-02,3.14076e-01,-4.12628e-02,6.87166e-01,-4.57278e-02,-1.29610e-01,-8.06129e-02,-4.48745e-01,3.56607e-01,1.69529e-01,5.40712e-02,-2.43294e-03,1.48926e-01,-2.79241e-01,-3.50019e-02,-4.61976e-01,-9.73909e-02,-3.67275e-01,-1.18952e-01,-1.12239e-01,3.20658e-01,7.98335e-01,-2.96052e-02,-3.10192e-02,3.53919e-01,
4.08746e-01,-2.71450e-02,3.75868e-02,-4.31240e-01,4.83217e-02,-1.27221e-01,2.62812e-01,1.05470e-01,2.17597e-01,2.93993e-01,-6.17237e-02,-3.75064e-02,-4.00286e-01,-2.01031e-01,-2.35851e-02,8.24523e-01,-2.76962e-01,1.16177e-01,9.63330e-03,2.22786e-03,-3.05772e-02,-6.91208e-01,-4.24342e-02,-5.74974e-01,-2.47387e-01,2.75629e-01,-4.41426e-01,4.73393e-01,5.48918e-02,-9.46322e-02,3.33078e-01,-7.98118e-02,-4.17149e-01,6.59257e-01,3.49939e-03,5.31443e-02,4.82439e-02,-5.93111e-01,2.21115e-01,1.10604e-01,-2.35108e-01,6.72540e-01,4.00682e-02,5.72410e-02,1.73675e-01,
1.05442e-01,3.96829e-02,-4.72907e-02,-1.08052e+00,-2.99589e-02,3.33832e-01,1.61504e+00,2.81374e-01,2.05492e-01,-3.09372e-01,-8.88403e-01,3.99563e-02,-2.90550e-02,2.11443e-01,-2.29106e-02,-1.97682e+00,1.28813e-01,-4.49478e-01,-8.72171e-01,3.61153e-02,3.33519e-02,-8.77891e-01,2.62587e-02,5.65512e-02,3.67610e-01,6.43291e-01,-6.40759e-01,1.68560e+00,6.82559e-01,-5.00481e-01,5.82322e-01,-2.28955e-02,7.58015e-01,2.33304e-01,2.02391e-02,-1.62784e+00,3.52710e-01,6.69677e-01,7.83115e-01,-2.89231e-01,-1.83113e-01,-1.67381e+00,4.77167e-03,4.16966e-02,4.28394e-01,
-6.95024e-01,1.68330e-02,1.75058e-02,4.07512e-01,3.92663e-02,-2.30077e-01,3.14677e-02,-5.56638e-02,-2.65984e-01,1.10626e-03,-1.77764e-02,4.32221e-02,-3.83869e-01,-5.45933e-02,-3.13008e-02,-1.09435e-01,-6.37671e-01,5.22841e-02,5.51965e-01,-4.80809e-02,3.13483e-02,7.15925e-02,-1.91218e-03,-2.96381e-01,5.82960e-01,-2.21226e-01,2.55722e-01,1.53949e-01,4.65841e-01,5.16641e-02,-4.77986e-02,-1.23657e-01,-9.99490e-02,-3.37151e-01,6.66146e-03,8.85216e-02,-4.05137e-01,6.84187e-02,5.81128e-02,3.74487e-01,3.48355e-02,2.33609e-02,4.90350e-02,4.77334e-02,3.70677e-01,
2.99180e-01,-3.59240e-02,1.68953e-03,-6.97288e-01,-1.83799e-02,-9.47005e-02,1.26317e-01,4.21450e-01,-5.04511e-01,-5.74697e-01,-6.60684e-01,4.13267e-02,7.81847e-02,-7.42333e-01,-4.75653e-02,-1.50109e-01,6.04641e-02,2.09204e-01,5.24292e-01,-1.28385e-02,2.73528e-02,-8.27238e-01,-2.79542e-03,4.26541e-01,1.51234e-01,-1.23368e-01,5.48628e-01,-3.44390e-01,-7.18191e-01,5.87084e-02,3.96667e-01,-7.66295e-02,1.36989e-01,-3.65314e-02,-4.70823e-02,-3.97845e-01,2.36896e-01,8.22468e-01,-1.68937e-01,5.30436e-02,-5.35924e-01,-1.44589e+00,-2.21346e-02,-3.66141e-02,1.05636e-01,
-2.39648e-01,4.09727e-02,-1.74015e-02,6.80921e-02,-4.85372e-02,4.27477e-01,-5.17028e-01,7.14150e-01,3.66919e-01,-7.10326e-02,4.57654e-01,-5.04768e-02,-1.73122e-01,-1.06803e+00,2.45163e-02,4.21099e-01,-2.50515e-01,1.23374e-01,1.46964e+00,1.62095e-02,-5.02089e-03,-1.17409e-01,-4.61619e-02,7.61901e-01,-1.64177e-01,1.80561e-01,4.79675e-01,-2.52656e-01,-3.72144e-01,-1.40556e+00,-1.14645e-01,-1.34675e-01,-1.76884e+00,6.82343e-01,-1.38498e-02,-9.43953e-01,-7.61618e-02,-1.57660e-01,1.05024e-01,-3.15073e-02,-2.11996e-01,3.07465e-01,-3.33669e-02,9.46865e-03,2.45159e-01,
5.93577e-02,2.67949e-02,-2.59168e-03,2.07454e-01,1.93641e-02,-3.88147e-01,3.77984e-01,1.20204e-01,-1.14598e-01,-1.63402e-01,1.46343e-02,-1.86790e-02,-1.92759e-01,3.02414e-01,4.00004e-02,-2.58536e-04,2.19904e-01,-3.38169e-01,6.17814e-01,2.78773e-02,1.56781e-02,-6.92580e-02,3.75023e-03,9.48192e-02,-1.46904e-01,1.96375e-01,1.26794e-01,-9.74983e-01,2.55572e-01,-5.07077e-01,4.93436e-01,1.05722e-02,3.54146e-02,2.54494e-01,-3.98700e-02,-3.39789e-02,1.31048e-01,5.01154e-01,-6.16676e-01,3.28269e-02,-4.30669e-02,-2.84934e-01,-3.78610e-02,-3.64313e-03,-3.79334e-01,
2.06089e-01,-4.93835e-02,3.77116e-02,2.75619e-01,-2.38304e-02,-4.16658e-02,6.84152e-01,-4.74373e-01,4.77253e-01,4.96517e-01,1.81007e-01,-8.25990e-03,-2.82855e-01,2.41650e-01,8.65172e-03,1.14905e+00,-8.86073e-02,-1.41367e-02,-5.22645e-01,-4.05431e-02,3.83744e-02,-5.73514e-01,9.90525e-03,1.60613e-01,3.97009e-01,2.89413e-01,-2.06790e-01,2.00812e-01,2.29726e-01,1.70413e+00,4.74182e-01,-2.31430e-02,3.16962e-01,-8.60321e-01,3.13085e-02,5.32355e-01,6.83724e-02,1.25535e-01,-4.46523e-02,6.21482e-01,-1.10601e-01,7.10021e-01,1.04856e-02,3.30732e-02,2.77429e-01,
2.03384e-02,-5.02280e-02,-1.03434e-02,-6.96246e-01,3.84159e-02,-5.43380e-01,6.30475e-01,3.19107e-01,-7.34603e-01,-6.12009e-01,-3.14797e-01,-1.08130e-03,-6.33624e-02,-1.17639e+00,4.99422e-02,7.15062e-01,-1.68064e-01,4.75257e-01,5.42073e-01,-4.48188e-02,4.56148e-02,6.10426e-01,9.67106e-03,1.69368e-01,7.82835e-01,-8.47843e-02,4.06123e-01,7.72320e-01,-1.34139e-01,7.60458e-01,1.19984e+00,-8.06370e-02,6.47809e-01,-2.81807e-01,3.14459e-02,8.19630e-03,-2.82873e-01,3.20587e-01,-1.42534e-01,3.48940e-01,-6.16324e-01,3.51113e-01,-4.74222e-02,-3.60051e-02,-7.83255e-02,
-2.21748e-01,-3.81025e-02,3.56589e-02,-8.43451e-01,1.75287e-02,2.32299e-01,3.14193e-01,-4.44451e-01,-9.29183e-01,3.23493e-01,-3.54641e-02,-7.65541e-03,-3.06095e-01,-1.17325e+00,-3.68213e-02,-4.59987e-01,1.44994e-01,2.34712e-01,4.62951e-01,-1.07947e-02,5.44099e-02,-2.66129e-01,1.60600e-02,2.08918e-02,2.51355e-01,2.83847e-01,-3.84115e-01,1.05696e-01,-8.48100e-01,9.68745e-01,-4.86439e-01,5.07162e-02,7.70653e-01,-2.89677e-01,-2.73316e-02,6.00636e-01,-4.29571e-01,-5.04361e-01,-4.87509e-02,6.83733e-01,6.26382e-01,6.16921e-01,-1.91626e-04,5.48157e-03,4.19446e-02,
-3.28723e-02,-3.26005e-03,-3.20061e-02,-5.74899e-02,-9.69742e-03,-5.73048e-02,5.74803e-04,-4.27341e-02,-3.19245e-02,-3.68668e-02,-2.68207e-02,6.65935e-03,1.85936e-02,-4.98593e-02,-4.76131e-02,-1.83616e-02,-3.09648e-02,-8.38761e-03,-3.94365e-02,-3.23096e-02,-3.24458e-02,-7.55939e-03,-4.99704e-02,-1.12045e-03,-5.22358e-02,6.48482e-03,-9.24244e-03,4.05328e-02,-3.02731e-02,3.97016e-02,-4.29358e-02,1.22965e-03,-4.69565e-02,-3.98178e-04,4.29923e-02,-5.81849e-02,-4.36974e-02,-2.17194e-02,1.30909e-02,1.81978e-03,-1.90132e-03,-4.10187e-02,-1.85928e-02,2.57903e-03,-3.32750e-02,
-1.43413e-01,4.58432e-02,-1.14432e-02,-3.50400e-02,6.58363e-03,-9.64449e-02,7.50866e-02,-4.76669e-02,7.87208e-02,-1.74790e-01,-1.77379e-01,3.37510e-02,3.75750e-02,-2.33801e-01,-1.49702e-03,4.04373e-01,-1.03671e-01,6.88551e-02,6.07625e-01,5.09708e-03,-6.22657e-04,1.04811e-01,4.42209e-02,3.56494e-02,2.67458e-02,-1.56932e-01,1.88200e-01,2.36688e-01,6.29263e-02,-3.03960e-01,3.28418e-01,-9.67794e-02,-1.65558e+00,7.75058e-02,-1.72771e-02,-3.39375e-03,2.32047e-02,-1.37789e-01,4.09471e-02,6.30596e-03,-4.12317e-01,-3.34649e-02,2.62263e-02,-2.60607e-02,-7.89482e-02,
-9.95020e-02,-1.64495e-02,5.44728e-02,3.69085e-01,-4.00743e-02,-1.28482e-01,-4.94156e-01,-1.63009e-01,-3.42058e-01,2.79016e-01,-5.84321e-01,3.53531e-02,-1.07907e+00,2.99849e-01,4.36883e-03,-4.02346e-01,1.61284e-01,-1.11265e-01,-1.28644e-01,-1.22722e-02,3.32271e-02,6.88965e-01,-3.83248e-02,2.00557e-01,9.05498e-02,1.88956e-01,5.10316e-01,2.77848e-01,5.86908e-01,8.27214e-01,8.31892e-01,5.94818e-02,8.65604e-02,1.11549e+00,3.46866e-02,2.82045e-01,5.55805e-01,6.71055e-01,7.10067e-01,1.15833e-02,1.20538e+00,2.51476e-01,-2.85881e-02,-4.63083e-03,1.84844e-02,
2.03114e-02,4.53099e-03,-4.40666e-02,1.46056e+00,2.75242e-02,5.40226e-01,-3.61602e-01,6.66318e-01,3.10100e-01,5.36500e-01,-2.50166e-01,1.22798e-03,-2.54885e-02,-1.53851e-01,-4.40129e-02,3.37726e-01,3.32548e-01,-4.40131e-01,9.14199e-01,-4.77102e-03,2.40478e-02,6.61793e-01,4.17257e-02,-2.99413e-01,-2.11934e-01,3.61349e-01,1.89827e-01,1.53993e+00,5.79148e-01,-2.42200e-01,9.71254e-02,-2.64772e-02,-9.38760e-01,2.56981e+00,5.74620e-02,1.45227e-01,2.46380e-01,-9.73503e-01,2.02326e-01,1.12395e-01,2.49946e-01,-1.90876e-01,-2.43266e-02,-4.21592e-02,-8.66663e-01,
-3.82843e-02,2.01270e-02,-1.57228e-02,2.53348e-01,-3.95122e-02,1.69570e-01,6.64882e-01,4.65632e-01,-2.56416e-01,3.55034e-01,7.82724e-03,6.13437e-03,2.46899e-01,1.30013e-01,1.31574e-03,5.13780e-01,-1.97100e-02,-2.62178e-01,-1.32270e-01,2.82114e-02,2.82523e-02,-2.31906e-02,-3.10084e-02,2.55953e-01,-1.56629e-01,-4.74037e-04,-3.18267e-01,1.09365e+00,-3.87718e-02,3.10570e-01,1.01731e+00,-2.45433e-02,2.68190e-01,3.07575e-02,2.51284e-02,2.50954e-01,-9.95646e-04,-2.33459e+00,1.34081e-01,-3.89314e-01,-3.35962e-02,4.14715e-01,3.48666e-02,-1.58338e-03,5.10925e-01,
-1.32803e-01,-5.00239e-02,1.30976e-02,3.01070e-01,-4.90290e-02,2.12569e-01,-1.58826e-01,-2.47908e-01,2.37763e-01,6.64626e-01,4.21068e-01,-1.46630e-02,-8.52546e-01,4.76186e-01,2.54323e-02,2.83695e-01,1.08118e-01,-2.18093e-01,9.10854e-01,1.05958e-02,-3.07792e-02,3.77130e-01,3.71867e-02,-2.64197e-01,-1.41694e-01,4.21710e-01,3.69950e-01,-6.36091e-01,-1.60703e-01,-2.90841e-01,2.66336e-01,-1.06527e-01,-1.30737e-03,4.79416e-01,3.55308e-02,4.86419e-01,-2.74138e-01,-5.28423e-04,1.97190e-02,-3.15973e-02,3.22543e-01,2.04659e+00,3.54312e-02,2.22331e-02,1.29368e-01,
7.15529e-04,-1.11711e-03,4.59314e-03,7.77012e-03,2.05237e-02,-1.64506e-02,-1.23859e-02,-6.61151e-02,-4.90514e-02,-4.28791e-02,-2.96101e-02,4.46907e-03,-8.38013e-03,-1.40483e-02,2.38256e-02,4.45467e-02,-1.08944e-02,-5.33073e-03,-1.78670e-02,-1.92112e-02,3.66706e-02,-5.73076e-04,2.09137e-02,-2.46834e-02,-4.55024e-03,3.51387e-03,1.29177e-02,4.10867e-02,1.19969e-03,4.49764e-04,-5.39206e-02,1.81992e-02,-3.16778e-02,-5.70545e-03,-4.08160e-02,2.68319e-02,-2.71676e-03,-4.01324e-02,-5.20029e-03,-1.14465e-02,8.62118e-03,-1.80901e-02,-3.12769e-02,-3.01674e-02,-9.97992e-04,
4.72355e-01,3.01870e-02,-2.56015e-02,3.21064e-01,3.94169e-02,4.45131e-01,-4.03756e-01,-7.81530e-02,-9.51640e-01,-1.47534e-01,-1.48850e-02,2.36261e-03,-2.77609e-01,-1.44696e+00,1.59699e-02,8.80574e-01,-8.65922e-01,-5.57278e-01,7.07388e-01,-3.13638e-02,-1.26556e-02,1.60282e-01,4.14465e-02,-1.15152e-01,-8.30769e-02,1.28821e-01,3.95128e-01,6.42929e-02,1.18952e+00,7.48260e-01,1.05735e+00,1.88338e-02,6.90577e-02,1.26786e-01,-1.02944e-02,-3.32281e-01,4.68989e-01,5.92832e-01,1.34545e-01,-1.90944e-02,-2.47625e-01,4.47013e-01,-2.54758e-02,-1.56118e-02,-2.19300e-01,
-5.29639e-01,4.69961e-02,-8.07146e-03,-4.37627e-01,-3.05681e-02,-1.01436e+00,6.90568e-03,-1.28042e-01,-3.15736e-01,-3.15610e-01,-1.48161e-01,-4.02269e-02,2.28439e-01,6.72465e-01,1.94519e-02,1.21148e-01,2.71296e-01,2.65704e-01,3.69957e-01,1.49121e-02,-1.29341e-02,1.11379e-01,-1.28709e-03,-2.49272e-02,-3.73882e-01,3.39176e-01,2.07239e-01,1.01940e+00,-9.85110e-02,3.06336e-01,-9.15252e-01,-1.61637e-02,2.65721e-01,5.20268e-01,-2.22977e-02,-3.12877e-01,1.85530e-01,4.85978e-01,7.88481e-01,-6.43838e-01,3.78783e-01,9.43037e-02,3.69856e-02,-4.60368e-02,-8.53734e-02,
1.35679e-01,-1.64070e-02,7.19699e-03,-2.34144e-01,8.30117e-03,-4.13404e-01,-5.93135e-01,4.54956e-01,3.22735e-01,-1.09089e-01,8.46822e-02,-4.31119e-02,1.12466e-01,-3.45936e-02,4.71977e-02,5.04638e-01,1.38296e-01,5.80121e-01,-5.75972e-01,-1.17671e-02,-6.73108e-03,-3.55737e-01,4.95467e-03,6.52533e-01,-7.11257e-01,7.51074e-01,8.19059e-02,-3.97554e-01,-2.26608e-03,4.72220e-01,-3.55136e-01,-5.77066e-03,-7.39741e-01,2.07288e-01,3.00370e-02,6.43193e-01,4.68990e-05,1.91755e-01,-6.67009e-01,4.47894e-02,-4.43911e-01,-2.49433e-01,3.83187e-02,-2.26324e-02,3.07215e-01,
3.66289e-03,-4.95956e-03,-4.71924e-02,-2.50072e-02,-1.62170e-02,-7.29109e-03,-2.82496e-02,-3.29127e-02,-1.92694e-02,-3.37449e-02,-3.83552e-02,-3.85064e-02,1.93849e-02,2.42328e-03,2.95258e-02,-3.54954e-02,-2.90914e-02,-4.21861e-02,4.55309e-02,2.49786e-02,2.58863e-02,8.64812e-04,3.44771e-02,-4.83015e-02,-4.03222e-02,1.19932e-03,2.22865e-02,-3.12010e-02,-2.78341e-02,-4.73171e-03,-2.76559e-02,-4.48862e-02,1.11006e-02,-2.78670e-03,-1.99523e-02,-4.51536e-02,-3.75280e-02,-1.12575e-02,2.06695e-02,-2.80844e-02,-1.43982e-02,-3.68999e-02,2.09890e-02,2.00272e-02,3.15153e-02,
-1.73248e-02,4.45816e-02,-1.68725e-02,2.02300e-02,-3.73399e-02,-4.10479e-02,4.72445e-03,1.26047e-02,-5.00056e-02,-4.87779e-02,2.89287e-02,-8.13561e-03,5.57835e-03,-5.32105e-02,-2.05028e-03,3.57015e-02,-4.75728e-02,-3.85607e-02,2.81584e-02,7.84295e-03,3.08526e-02,-4.62493e-02,-3.87784e-02,3.44153e-02,6.53585e-03,-1.31473e-02,2.11594e-03,-9.15879e-03,-2.67440e-02,-5.39685e-02,-1.24827e-02,6.26048e-03,-2.08798e-03,-4.54754e-02,2.57723e-02,-3.54318e-02,1.42394e-02,2.86644e-02,-1.70807e-02,-9.22914e-03,6.73910e-03,1.12322e-02,1.57086e-02,-1.11256e-02,-4.21451e-02,
-4.44616e-02,-2.72933e-02,2.43762e-02,3.55470e-01,-3.42932e-04,3.42858e-01,-7.39125e-01,-1.76114e-01,-8.95909e-02,3.95478e-01,6.63610e-01,8.66823e-03,-5.28112e-01,1.45691e+00,1.78463e-02,-9.75898e-02,-9.72535e-02,6.98475e-01,-5.96236e-01,1.86838e-02,3.02887e-02,7.62496e-01,-2.67318e-02,-4.06549e-02,7.55605e-02,4.04353e-01,-1.93312e-01,7.16841e-01,-5.68374e-01,2.78058e-01,-1.90038e-01,-7.23949e-02,2.95000e-01,6.47521e-01,-2.48532e-02,7.64730e-01,7.88649e-02,3.08918e-01,1.70729e-01,-1.47843e-01,4.64120e-01,2.31225e+00,-1.60486e-02,-2.01818e-02,1.88790e-01,
-5.67714e-02,-1.97239e-02,2.07231e-02,6.57526e-01,-4.49335e-02,-3.60825e-02,-1.39781e+00,-4.07761e-01,3.45205e-01,3.26517e-01,-9.44187e-02,2.83057e-02,-3.13835e-01,1.11208e+00,-3.78707e-02,9.75497e-02,-1.63641e-01,2.61750e-01,5.63156e-01,-1.42633e-02,3.73187e-02,1.22922e-01,-4.40503e-03,2.65331e-01,1.81246e-01,1.08293e-01,-3.27179e-01,-2.12571e-01,-5.53282e-01,3.72408e-01,1.70157e-01,6.00011e-02,2.21838e-02,7.57931e-02,-3.03568e-02,9.67017e-01,-4.15043e-01,-8.23818e-01,6.92421e-01,1.19712e-01,8.41022e-02,1.19373e+00,-1.75328e-03,1.74531e-02,-4.57785e-02,
2.13334e-01,-1.52025e-02,4.82649e-04,3.19530e-01,-2.24473e-02,-3.60153e-01,8.02743e-01,-2.38316e-01,4.16564e-01,-1.16186e-01,-2.09682e-01,-6.28079e-03,-8.18983e-02,4.23672e-01,-3.53282e-02,8.59177e-02,1.87578e-01,4.46054e-01,-4.25580e+00,3.71243e-02,1.55674e-02,-7.48887e-02,-2.65773e-03,-4.66307e-01,4.38641e-01,-2.02751e-01,-6.53516e-02,-8.01201e-01,9.46826e-01,-5.89199e-01,-5.69457e-01,9.75724e-02,-2.07505e-01,-1.94290e-01,-1.89080e-02,4.01846e-01,-3.55293e-01,1.72102e-01,7.56616e-02,-3.88707e-01,-7.85122e-02,-9.60000e-02,4.41487e-02,1.13412e-02,3.54056e-01,
3.34037e-01,-2.07629e-03,-3.80689e-02,2.83659e-01,2.43465e-02,7.47185e-02,3.16275e-01,-7.74639e-02,2.23014e-01,4.33233e-01,3.21354e-01,4.16373e-02,-1.41185e-01,-3.33715e-01,2.80180e-02,-1.50025e-01,-1.91401e-01,-3.99918e-01,4.43401e-01,3.74666e-02,-6.93763e-03,-1.75713e-01,-3.36638e-02,-2.67502e-01,1.17285e-02,1.87549e-01,-6.64473e-01,4.78614e-01,-4.08089e-01,-1.25834e-01,-4.55590e-01,-2.54717e-02,3.94021e-01,-9.76666e-02,2.40307e-02,3.00959e-01,-3.87731e-01,-3.52220e-01,-6.83705e-01,-8.01494e-02,3.08850e-01,1.72943e-01,3.32405e-02,-3.69552e-02,5.39610e-01,
4.67923e-02,5.34995e-02,1.00773e-02,-3.70736e-01,3.06428e-02,5.93013e-02,4.75279e-02,2.60586e-01,1.59350e-02,2.65289e-01,5.52206e-01,2.53978e-02,-2.26588e-01,5.59511e-01,-3.97655e-02,-1.84540e-01,-1.40693e-01,6.98007e-01,-1.35955e-01,-1.20826e-02,1.08785e-02,-5.99354e-01,-4.24289e-02,1.32973e-01,3.26850e-01,1.57261e-01,9.25320e-02,9.70633e-03,-2.04681e-01,1.16659e+00,-1.17177e+00,3.32933e-02,5.96114e-01,-1.00350e-01,-1.17089e-02,-1.55240e-01,-2.70541e-01,3.52985e-01,-2.24507e-01,-2.13611e-01,2.38149e-01,6.54607e-01,-1.32078e-02,4.84984e-02,2.00864e-01,
1.91275e-01,-2.29899e-02,-5.59199e-02,-1.38263e-01,4.67378e-03,2.65333e-01,8.74805e-01,-1.26468e-01,-2.61017e-01,-1.77862e-01,-1.40171e-01,1.26533e-02,-5.53696e-02,-1.70168e-01,1.29172e-03,-2.33965e-01,1.89138e-01,-4.06381e-01,2.32886e-01,4.24513e-02,-1.74657e-02,1.01748e-01,-3.89819e-02,1.27161e-01,3.37133e-01,-1.88616e-02,2.27402e-01,-2.21763e-01,-2.12018e-01,3.85728e-01,-3.93199e-01,-6.64679e-02,-8.05268e-02,-1.14613e-01,2.03318e-02,2.49273e-02,3.98293e-01,5.83094e-01,1.02024e-01,-2.59209e-01,-1.28575e-01,-1.81143e-01,-4.57462e-02,-3.29689e-02,3.52562e-01,
4.98225e-02,6.28364e-03,1.68169e-02,-5.70384e-01,6.56711e-03,3.10340e-01,-3.78204e-01,2.12010e-01,2.46949e-01,7.97794e-02,-3.54910e-01,-4.58408e-02,-1.33414e-01,5.38722e-02,-1.33216e-02,5.11129e-01,3.15350e-01,-1.10332e-01,3.83622e-01,-1.59104e-04,-1.26707e-02,-2.20877e-02,3.47944e-02,1.10183e-01,3.37058e-01,1.92795e-01,1.97922e-01,-5.35385e-01,3.02126e-02,4.86788e-01,7.03587e-01,6.79899e-02,1.08734e-01,-7.30727e-01,1.65499e-03,6.66111e-01,2.57670e-03,3.87637e-01,7.96532e-01,8.74813e-02,-7.56332e-02,2.85690e-01,-3.92054e-02,1.48069e-02,-5.31004e-01,
-1.66567e-01,-2.29578e-03,-1.31969e-02,4.00248e-02,-1.01306e-02,3.74627e-01,-2.21850e-01,-4.47257e-01,8.37431e-01,-4.72210e-01,7.93115e-03,-4.31919e-02,4.22290e-01,1.62136e-01,-4.50581e-02,4.47955e-01,-6.88422e-03,4.19641e-01,2.76848e-02,1.62307e-02,-3.57831e-02,1.77907e-01,-3.17461e-02,6.66809e-02,8.09560e-02,-3.14641e-01,1.58559e-01,2.17992e-01,1.58730e-02,-1.93450e-01,2.17916e-02,-1.22077e-02,-4.32360e-02,-3.94958e-01,-6.88667e-04,-7.32382e-02,2.43454e-01,2.37351e-01,-1.14341e-01,1.60450e-01,-8.64441e-01,6.07668e-01,-3.82714e-02,3.99053e-02,-8.55691e-02,
-4.17885e-03,1.60094e-02,-5.78552e-04,-2.62267e-02,7.77315e-03,-3.76942e-03,1.95170e-03,-1.22055e-02,-2.94757e-02,-4.46418e-02,-6.74222e-02,1.56608e-02,-2.81306e-02,-2.08874e-02,-9.35010e-03,6.49960e-03,2.92912e-02,-4.15645e-03,3.98722e-03,9.98057e-03,-3.83361e-02,-2.27435e-02,1.81053e-02,-1.07160e-02,-1.01827e-02,-9.03589e-02,-2.25781e-03,4.19506e-02,-1.86260e-02,-1.78531e-02,-5.83884e-02,-4.73374e-02,4.07412e-02,-4.29415e-03,-4.83338e-02,-1.08783e-02,-1.12646e-02,3.14823e-02,2.89288e-02,-8.15549e-02,-4.74297e-02,1.74132e-02,-2.95069e-02,-6.85478e-03,1.97240e-02,
2.96620e-01,-3.83912e-02,8.46628e-03,-8.88587e-01,-3.23052e-02,7.73040e-01,-2.03726e-01,-6.70839e-01,-1.09537e-01,2.02172e-02,3.44315e-01,-5.73905e-02,-2.75553e-01,5.50526e-01,3.23286e-02,3.53354e-01,4.66511e-01,3.26621e-01,7.77694e-01,3.20951e-02,-3.26842e-03,-3.46836e-02,-3.52287e-02,4.59668e-01,2.73803e-02,-3.56858e-02,5.41034e-01,2.12087e-01,-1.42883e-01,7.01712e-02,1.25400e+00,4.37818e-02,-1.08526e-01,2.50466e-01,-2.47212e-02,-3.46522e-01,7.87121e-01,-1.95819e-01,6.42250e-01,-1.39975e-01,7.22146e-02,3.43097e+00,3.15820e-02,-3.79967e-02,-2.40573e-01,
-7.19780e-01,1.72972e-02,-2.99815e-02,1.26098e+00,-5.24306e-03,-2.81997e-01,-1.12159e-01,3.50652e-01,4.45452e-01,-4.06699e-02,1.80457e-01,-1.63245e-02,-1.01232e-02,7.47242e-01,-3.03186e-02,-1.75042e-01,-4.99153e-01,2.76095e-02,-4.15497e-01,1.10893e-02,-1.56005e-02,-1.21604e-01,2.34154e-02,-3.76484e-01,3.14821e-01,6.26865e-01,4.94734e-01,-1.33625e-01,4.09428e-01,4.30384e-01,7.99178e-02,3.60494e-02,5.45497e-02,1.04720e-01,-9.59579e-03,9.31752e-01,2.99861e-01,-4.53357e-01,-4.37877e-01,3.60071e-01,-5.40545e-02,2.22297e+00,-1.29895e-02,-1.75789e-02,-3.50896e-01,
-5.04668e-02,8.34206e-04,2.07744e-02,-8.84335e-01,3.11023e-02,-4.39714e-02,1.10923e-01,-4.88674e-01,3.19247e-01,-4.56081e-01,1.32137e-01,4.33621e-02,2.54684e-02,9.32897e-01,-1.00811e-02,-1.99602e-01,5.94880e-01,2.21629e-01,-8.73248e-01,9.14126e-03,3.14870e-02,-1.79349e-01,-1.39985e-02,-5.27851e-02,-3.10060e-01,-6.59305e-02,-2.16362e-01,-6.58394e-02,1.09136e-01,-2.05347e+00,-1.02453e+00,2.48865e-03,3.72673e-01,8.04951e-02,3.08611e-02,3.28124e-01,1.81806e-01,1.99997e-01,-1.58948e-02,1.54964e-01,6.45341e-01,-8.26422e-01,-7.66736e-03,3.24600e-02,1.69125e-01,
-9.89049e-03,3.47019e-02,-3.49324e-02,2.10395e-02,3.73589e-02,-1.84669e-02,-7.58300e-02,-1.78823e-02,-4.96073e-02,-1.68500e-02,6.07896e-03,4.40583e-02,-1.26522e-02,1.09928e-02,-1.80136e-02,-5.68335e-02,-6.74207e-02,-7.49564e-02,2.31809e-02,4.54498e-02,-1.61875e-03,-6.12028e-02,2.07490e-02,1.98593e-02,-8.09238e-04,-6.70298e-03,1.83886e-02,-1.47181e-02,-2.21402e-02,-4.20616e-02,2.28596e-02,2.00125e-02,3.86854e-02,8.84131e-03,8.19554e-05,2.25177e-02,-3.51129e-02,-4.65578e-02,-1.37119e-02,-4.45301e-02,-1.85035e-02,-5.35872e-02,-4.65627e-02,4.14107e-02,-1.03751e-02,
-3.63560e-02,-1.96818e-02,4.36106e-02,1.05987e-02,1.67208e-02,1.32102e-03,-1.70017e-02,-6.86094e-03,-9.60440e-03,-1.82071e-02,-1.72841e-02,3.95064e-02,-2.00631e-02,3.45043e-02,4.82600e-02,5.92041e-03,3.07943e-02,-1.03686e-02,2.01918e-02,-4.67724e-02,-3.88105e-02,-5.65568e-04,-4.22641e-02,-4.61558e-02,-4.66454e-02,-1.43881e-02,-2.11517e-02,-4.79307e-02,-4.61181e-02,-4.52151e-02,-3.67579e-02,-5.71289e-03,-2.65913e-02,-4.81412e-02,3.06194e-02,3.97962e-02,-2.10178e-02,2.11316e-02,-4.42203e-02,-4.68691e-02,2.06135e-02,1.01290e-02,-2.89528e-02,-3.81228e-04,-4.47381e-02,
2.09550e-01,4.41690e-02,-4.15119e-02,1.07570e-01,-1.06645e-02,1.46593e-01,9.21133e-01,-3.45627e-01,-7.76081e-02,8.99327e-02,6.35089e-02,4.03269e-02,-4.24160e-01,7.17577e-01,-4.06107e-02,1.98952e-02,4.66171e-01,-1.95017e-02,1.26405e+00,-6.52489e-03,1.95152e-03,-3.82982e-01,3.76194e-02,1.14835e-01,6.02793e-01,5.22805e-01,4.98033e-01,2.58327e-01,7.71712e-01,1.03309e+00,2.20135e+00,4.26318e-02,2.14295e-01,4.04081e-01,-3.47645e-02,-2.28693e+00,-3.66791e-01,7.53826e-01,8.06233e-01,-1.26387e+00,-2.86587e-01,1.68041e+00,-4.48127e-02,4.24799e-02,4.90377e-01,
-4.07261e-01,4.48183e-03,5.91693e-02,-4.10227e-02,3.98725e-03,1.26120e-02,5.03522e-02,-4.20678e-02,-2.71628e-01,-2.98174e-01,1.28818e-01,3.02013e-02,3.46985e-01,1.88253e-01,1.52056e-02,5.29088e-01,-3.16048e-01,4.98855e-01,-3.80214e-01,4.70655e-02,5.27055e-02,2.76554e-01,-4.48954e-03,3.22340e-01,-4.29072e-01,-3.40175e-01,3.75638e-03,6.38540e-01,5.82226e-01,3.72717e-02,9.12411e-01,-2.16217e-02,1.86530e-01,-1.17242e-01,-3.94387e-02,-6.98494e-02,-3.46123e-01,-6.86552e-01,5.38561e-01,-8.51975e-02,2.25295e-01,-3.47814e-01,-1.78640e-02,3.24465e-02,-4.43286e-01,
1.42994e-02,1.71001e-02,1.00673e-02,3.57224e-02,-2.87807e-02,1.60539e-02,-8.06670e-04,-4.06363e-02,-2.27907e-02,1.82607e-02,-4.83330e-02,-5.01274e-02,2.67860e-02,-1.08543e-02,-3.54458e-02,-3.27575e-02,-1.68940e-02,-1.69922e-02,2.21481e-02,9.90423e-03,2.78585e-03,3.38795e-02,-2.45581e-02,-2.89904e-02,3.25067e-02,-3.96805e-02,2.02149e-02,-1.13564e-02,-3.32837e-02,-3.08954e-02,3.00685e-02,-2.84552e-02,-4.34620e-02,-6.24797e-02,3.56135e-02,-3.25227e-02,-5.55655e-02,-4.70216e-02,-2.79499e-02,-3.77008e-02,2.83148e-02,2.16003e-03,-3.72368e-02,3.01118e-02,-4.89675e-02,
-3.65176e-02,-1.86738e-02,-6.52923e-03,-1.10747e-03,4.85643e-02,2.39299e-02,-1.13003e-03,-2.57835e-02,-1.59148e-02,1.58784e-02,-1.45384e-02,2.84647e-02,-3.33343e-02,-3.12293e-02,-1.71189e-02,-4.07614e-02,2.11441e-02,-4.88647e-02,4.87816e-02,4.54886e-02,-3.24449e-02,-3.87211e-02,-1.50755e-02,4.19180e-04,9.20634e-03,-3.59814e-02,-8.81375e-03,-4.93270e-02,-5.12854e-03,-4.45040e-02,4.66937e-02,4.30869e-02,-1.40566e-03,-2.33221e-02,1.65114e-02,-8.46903e-03,-4.38799e-02,1.10483e-02,-4.38516e-02,-3.96569e-02,-5.05756e-03,-4.47224e-03,-3.73238e-03,5.32857e-03,1.59934e-03,
7.62665e-02,4.98770e-03,6.21736e-03,6.62249e-01,2.69649e-02,-3.37607e-01,-4.09530e-01,4.05727e-01,-2.39435e-01,2.40544e-01,3.17854e-01,8.05705e-03,2.63590e-01,-7.92360e-01,4.66305e-02,7.47736e-01,-3.96026e-01,-4.78095e-01,1.18773e-01,-9.60129e-06,-4.20255e-02,4.36882e-01,1.40915e-02,4.88058e-01,-4.58307e-01,-1.81070e-01,-7.68420e-02,-1.21662e-01,-1.18365e-01,1.15588e+00,1.58940e-01,1.04249e-01,-3.00646e-01,2.58624e-01,-1.25953e-02,1.43727e-01,1.29114e-01,2.08997e-02,-3.32812e-01,-2.28114e-01,4.13051e-01,-3.47628e-01,1.72937e-02,5.59287e-02,-2.40451e-01,
2.88904e-01,-2.60748e-02,-2.13999e-02,9.86781e-02,-2.04167e-02,-3.36401e-02,-9.04974e-01,5.14850e-01,-4.11673e-01,-1.39748e-01,-2.07869e-01,-5.07006e-03,-3.62381e-02,-8.79216e-01,-2.11505e-02,2.88536e-01,-1.09453e+00,5.08271e-01,-4.14753e-01,9.97454e-03,-2.33388e-02,4.57027e-01,-1.24446e-02,5.19660e-01,-2.28573e-01,-4.26712e-02,-4.88240e-01,1.09726e+00,2.82927e-01,-2.30140e-01,-6.89452e-01,-4.59755e-05,5.76113e-02,7.84369e-02,3.26110e-02,-9.35395e-01,-4.34241e-01,6.74387e-01,1.55712e-01,8.95874e-02,-1.79412e-01,7.49022e-01,-5.68246e-02,5.51838e-02,3.77970e-01,
-1.83405e-01,-9.66012e-03,-1.61149e-02,-2.14745e-01,-1.30695e-03,5.00221e-02,-4.28029e-02,1.02508e-01,3.31177e-01,1.02426e-01,2.05769e-01,3.18501e-02,8.61982e-02,-4.66043e-01,3.33601e-02,-1.61445e-01,-5.07891e-02,-3.18193e-01,1.17573e+00,1.94656e-02,-5.16536e-02,7.96484e-02,1.56917e-03,1.81430e-01,-1.06136e-01,1.49269e-01,3.96319e-01,1.07691e-01,-5.14817e-01,8.47804e-02,4.80116e-01,1.14957e-01,1.63172e-01,9.46065e-02,-1.38268e-02,1.45060e-01,-1.48874e-01,-2.03284e-01,6.78747e-03,1.20282e-01,-7.57776e-02,-6.03427e-01,2.25500e-02,-2.07272e-02,-2.16529e-01,
-1.02576e+00,
-6.32538e-01,
2.23906e-01,
-2.42795e-01,
-4.64574e-01,
-1.76324e-01,
7.25112e-01,
1.37225e-01,
-2.62848e-01,
-4.41372e-01,
-9.25563e-02,
2.89180e-02,
-3.79000e-02,
-1.19311e-01,
-1.93672e-01,
-2.38679e-01,
-2.96835e-01,
-2.90035e-01,
-1.56731e-02,
2.22624e-01,
-4.52918e-02,
-1.06452e-01,
-2.35376e-02,
-1.02109e-02,
-6.21719e-01,
-2.51129e-01,
-9.39365e-02,
-4.76609e-02,
1.52568e-01,
3.70229e-01,
-6.41482e-02,
-2.74837e-02,
-4.60482e-02,
-1.42627e-01,
1.07438e-01,
-2.11588e-01,
-2.83205e-02,
-9.39187e-03,
-9.72472e-01,
5.62936e-01,
-1.25590e-02,
-1.02128e-02,
9.64743e-02,
1.63317e-01,
-3.42070e-01,
-1.42278e-01,-2.38824e-01,-1.10684e-01,-4.77202e+00,7.69101e-01,-2.14514e-01,-1.31200e+00,-5.23010e-01,-4.16015e-01,1.95306e-01,-3.55848e-01,5.38335e-01,-4.24762e-02,1.30427e+00,-6.16442e-03,-7.49492e-02,1.18707e+00,8.63339e-01,1.99869e-02,4.82066e-02,1.51492e+00,-3.38751e-01,1.29124e-02,1.01155e-02,-6.92810e-01,4.89856e-01,7.52450e-01,-2.36995e+00,4.81644e-01,1.67219e-01,-1.03250e-01,6.70048e-01,2.88756e-02,-4.72715e-02,-3.64311e-01,2.99422e-01,-4.32486e-02,-1.66150e-02,-8.28079e-01,-8.90504e-02,2.27198e-02,-1.60433e-02,-3.33224e-01,-6.51843e-02,1.48187e+00,
-8.29211e-02,3.98203e-02,-5.35860e-02,-4.64159e-02,9.41684e-02,3.52221e-03,-3.14895e-02,-2.75699e-02,-3.88258e-02,-6.79728e-03,-4.09953e-02,-2.13478e-02,2.58905e-02,-5.37773e-02,-6.86047e-02,-3.72893e-02,8.41106e-02,8.43159e-03,1.46957e-02,-6.57456e-02,9.77938e-04,-6.46449e-02,1.47285e-02,1.17863e-02,1.63233e-02,-2.45836e-02,-1.92810e-02,-2.18167e-02,2.32479e-03,-7.65609e-02,-6.68264e-02,-1.05170e-02,3.28420e-02,-2.34309e-02,-1.07512e-02,1.24983e-01,-1.15645e-02,-1.68505e-03,6.20966e-02,2.40059e-02,1.88837e-02,-1.47823e-02,1.46650e-02,-1.08460e-02,-4.79028e-02,
-2.92988e-01,-6.08036e-02,5.02561e-01,9.32044e-01,3.32325e+00,6.91287e-01,-4.19935e-02,-2.55654e-01,1.89310e+00,4.38824e-01,-5.22107e-01,8.00835e-01,-4.54681e-02,1.75249e+00,9.31646e-02,-3.84428e-01,1.85244e+00,5.29888e-02,3.42536e-02,-3.87919e-02,1.51429e+00,3.30006e-01,-3.27879e-02,-3.02120e-02,-2.91429e-01,1.35259e+00,1.02273e-01,2.06185e+00,1.76491e-01,5.22470e-02,8.59682e-01,-6.06486e-01,5.72577e-03,-2.62869e-01,-3.59235e-02,-9.34549e-01,-4.08672e-02,-4.95985e-02,8.15640e-01,2.98956e-01,5.63869e-02,-3.72473e-02,5.13812e-01,-1.10541e-01,8.88803e-01,
3.45245e-01,-1.24766e+00,-7.77485e-03,2.26406e-01,-8.57030e-01,3.82140e-01,7.07840e-01,1.22897e-01,-5.34578e-01,-1.00462e-01,-2.34986e-02,1.43023e-01,-8.61225e-03,1.78451e-01,3.68395e-02,-5.75234e-01,2.15235e-01,5.33756e-01,-5.75940e-03,3.26774e-01,-1.37780e-01,1.48114e-01,-2.94615e-02,1.00022e-02,3.20897e-01,2.36224e-01,-9.15813e-01,8.72502e-01,-3.58576e-01,8.32225e-01,-2.92229e-01,1.98833e-01,1.91512e-02,-4.89773e-01,-6.71892e-02,1.50586e-01,-4.61389e-02,3.25691e-02,9.40192e-02,6.07684e-01,-2.76324e-02,2.51635e-02,9.10249e-02,-1.09712e-01,4.63666e-02,
-3.23571e-01,1.88425e-01,-1.30886e-01,-3.48022e-01,-2.00280e+00,-7.48889e-01,-2.93110e-02,6.03441e-01,-8.05647e-01,-1.54180e-01,3.34168e-02,7.13823e-01,2.17519e-02,9.42429e-01,-2.75455e-01,1.10950e-01,3.19900e-03,-1.07925e-01,6.97787e-03,4.65192e-02,-1.11495e+00,2.01336e-01,-1.79282e-02,4.54176e-02,-9.48482e-01,3.34443e-02,-4.71202e+00,-1.64632e-01,6.33418e-01,3.52591e-02,-8.56954e-01,-6.01795e-01,1.03077e-02,-5.22122e-02,-2.15476e-01,1.73751e-01,-3.63892e-02,-3.30840e-02,-2.15334e+00,3.62039e-02,1.14357e-02,-2.91426e-02,2.91982e-01,-1.01126e+00,-7.86284e-01,
6.18462e-01,-7.37013e-01,-2.14311e-01,3.34597e-01,-1.59395e+00,-1.12018e-01,6.84115e-01,1.17984e-01,-3.56925e-01,-1.64110e-01,-1.06203e-01,8.87249e-02,2.70700e-02,3.63306e-01,-2.54281e-01,-6.82710e-01,-1.15199e+00,-5.88202e-02,4.60074e-03,-1.25269e-01,-3.22051e+00,1.95173e-01,-1.33232e-02,-8.25624e-03,-8.77221e-01,-1.63697e+00,-1.38818e+00,-1.84075e+00,8.14025e-01,6.99594e-03,-3.11196e-01,-7.10576e-02,2.91953e-02,5.16518e-01,2.32463e-01,-5.33732e-01,-2.26260e-02,-1.71411e-02,1.49298e-01,3.92021e-01,-2.19640e-02,3.30115e-02,-5.37282e-01,1.68602e-01,-8.39545e-01,
-4.58942e-03,2.51262e-01,-1.35832e-01,3.78275e-02,9.50371e-02,2.80526e-01,1.85547e-01,3.21336e-02,-6.04503e-01,-1.18099e-01,7.30430e-02,-2.27785e-01,-3.02367e-02,-7.05902e-01,-2.61295e-01,1.21788e-01,-4.34825e-01,2.64893e-01,-2.95928e-02,6.15038e-02,-1.37973e+00,-9.09463e-02,-2.23385e-02,4.26534e-02,6.56692e-02,-2.99189e-01,-4.09877e-01,-7.38502e-01,3.75517e-01,-3.60726e-01,9.07923e-02,8.41038e-02,-3.04086e-02,-8.33419e-02,7.33831e-03,1.13297e-01,3.07188e-02,2.83811e-02,-9.10548e-02,5.58005e-01,5.21973e-02,-1.58705e-03,4.09901e-02,-4.10895e-02,7.91238e-03,
3.90144e-01,-7.35016e-01,-3.05034e-01,-1.00315e-02,-8.79394e-01,1.35830e-01,2.65286e-01,2.47348e-02,4.70407e-01,-1.34499e-01,-1.94067e-01,2.04828e-01,1.20040e-02,-3.53842e-02,-1.68243e-01,-2.00168e-01,-1.62081e+00,-9.90623e-01,-5.79101e-02,2.30794e-01,1.59031e+00,2.17158e-01,-1.44237e-02,1.95338e-02,-1.22657e+00,-3.77377e-01,-9.57158e-01,-6.13524e-01,4.66918e-01,3.39564e-01,-3.87838e-01,1.77642e-01,3.37020e-02,-9.44423e-02,1.77324e-01,8.90105e-03,-5.11027e-03,3.01866e-03,9.45884e-01,3.62293e-01,3.97220e-02,-3.92007e-02,-1.79467e-01,1.91182e-02,-1.24493e-01,
-8.30606e-02,1.99449e-01,6.99948e-02,1.97424e-01,-1.54966e+00,-1.63421e+00,2.35262e-01,2.85993e-01,5.87212e-01,2.47154e-01,8.99628e-02,3.45260e-02,2.05538e-02,-2.10738e-01,-2.53926e-01,-3.19083e-01,6.31634e-01,6.24533e-02,-2.52632e-02,-5.57974e-02,-5.43872e-01,2.86113e-01,2.90548e-02,-3.83037e-02,-9.47483e-02,1.54215e-01,8.97366e-01,-3.45567e-01,-7.70625e-02,-6.14139e-02,1.83634e-01,4.84463e-01,2.35957e-02,1.15734e-02,1.76979e-01,2.16901e-01,1.80515e-02,-3.70592e-02,1.14108e+00,4.93667e-03,-2.53588e-02,8.97725e-03,1.12050e-01,2.98198e-02,4.09963e-01,
1.50963e-02,-4.10340e-03,6.60050e-03,-4.66314e-02,1.15462e-02,-3.32469e-02,-1.20482e-02,-3.92741e-02,-1.33313e-02,-4.36185e-02,-3.96851e-02,-2.51180e-02,-2.86682e-02,3.08168e-02,-1.88581e-02,-3.43102e-02,4.13788e-02,-1.55139e-02,4.44259e-02,1.31510e-02,2.33447e-03,-1.22612e-02,3.72067e-02,-2.40870e-02,-5.87165e-03,-3.75255e-02,2.16285e-02,2.90098e-02,4.47028e-03,1.03825e-02,-4.30691e-02,-1.43468e-02,-3.78282e-02,-7.14816e-02,1.46413e-02,2.96410e-03,1.31290e-02,-5.48803e-03,-3.40621e-02,2.24622e-02,-1.79739e-02,4.02811e-02,-1.75479e-03,-1.51542e-03,-1.14947e-02,
-3.27518e-01,6.00126e-02,-4.69970e-01,-1.02792e-03,-1.08759e+00,1.07247e-01,-3.09957e-01,7.02450e-02,7.17423e-02,1.03904e-01,7.58050e-02,-9.16370e-02,3.72739e-02,-1.16862e-01,8.60177e-02,-4.23251e-02,-1.53574e-01,1.35526e-01,-3.62072e-02,-1.49086e-01,-2.92054e-01,9.49341e-02,3.56660e-02,3.92201e-02,1.44937e-02,-8.59263e-02,-1.02001e+00,-1.17174e+00,-1.90732e-01,1.39340e-01,-9.80819e-02,-1.22898e-01,-4.94276e-02,2.11422e-01,1.54734e-02,-2.16564e-01,-8.37187e-03,-4.26779e-02,6.82548e-02,-1.27212e-01,-6.00205e-03,2.54013e-02,2.14895e-01,8.97723e-02,2.00634e-01,
-2.59565e-01,5.10035e-01,4.60094e-01,-1.31357e-01,-4.04825e-01,-3.17973e-03,5.73072e-01,2.23264e-01,4.50153e-01,2.87739e-01,2.02336e-01,-1.13938e-02,-1.65011e-02,-4.02402e-01,-2.86572e-01,1.69848e-01,8.95940e-01,-2.94141e-01,-2.06705e-02,-8.77914e-01,-1.84834e+00,-1.80089e-01,4.35824e-02,3.43365e-02,-3.60094e-01,-1.07428e-01,-4.54078e-01,-8.76759e-01,-3.91207e-01,-4.72517e-01,-1.77292e-02,-5.15915e-01,4.08197e-03,2.70924e-01,1.68552e-01,-4.32813e-01,-6.43255e-03,3.12884e-02,2.26850e-02,2.83242e-01,-6.22882e-02,-5.03989e-02,5.82568e-01,2.81989e-01,-2.75452e-02,
-6.47587e-03,-2.00590e-02,-2.41032e-02,4.38474e-02,1.68298e-02,6.94488e-03,-3.25292e-02,-2.42161e-02,2.66178e-02,-2.32599e-02,-3.93642e-02,-5.55328e-02,2.22795e-02,-8.17794e-03,-4.13400e-02,-5.53970e-02,-3.58232e-02,3.71549e-02,3.48412e-02,2.55097e-02,1.61913e-02,-3.53744e-02,9.74327e-03,-4.29160e-02,-2.09434e-02,1.04376e-02,3.65094e-02,2.76749e-02,-3.72736e-02,-1.60033e-02,-3.62104e-02,-2.11258e-02,-3.98494e-02,2.34897e-02,-5.28647e-03,-1.74601e-02,-1.06400e-02,1.84458e-02,3.71570e-02,-4.49518e-02,1.18302e-02,1.41286e-02,-4.33782e-02,-2.90873e-03,-2.49942e-03,
-1.04918e-02,1.60674e-02,2.26977e-03,-2.27619e-02,-4.54221e-02,1.74878e-02,-5.27444e-02,2.11742e-02,-5.86044e-03,-2.83405e-02,-4.34252e-02,6.20951e-03,-1.00736e-02,3.69393e-02,-1.01863e-02,-3.80012e-02,3.17778e-02,-5.27979e-02,3.94463e-02,1.01895e-02,-4.13250e-02,1.43228e-02,-1.97207e-02,1.14642e-02,1.55784e-02,-4.59513e-02,-3.11608e-02,-4.91131e-02,7.76020e-03,-2.24832e-03,-3.05741e-02,-4.41597e-03,3.87967e-02,-5.32239e-02,-4.17935e-02,-1.02538e-02,-5.14060e-03,2.08237e-02,-1.86885e-02,2.93189e-02,-8.94150e-03,8.06944e-03,9.19620e-03,-5.08523e-02,-3.43901e-02,
-1.96868e-01,-1.87435e-01,1.20442e-01,4.44633e-01,-5.15753e-01,-4.88006e-02,-1.26514e-02,5.58202e-02,2.23298e-01,-1.34327e-02,-2.49228e-01,2.97810e-01,-4.25385e-02,2.25474e-01,1.71654e-01,-2.59817e-02,3.35218e-01,-8.68215e-02,2.26751e-02,-1.60912e-01,3.90332e-01,-1.27829e-01,8.90144e-03,-3.05562e-02,-1.76203e-01,-1.61792e-01,9.45661e-02,-2.23923e-01,-3.08069e-02,-2.51702e-01,-5.99393e-01,5.52643e-02,-6.87903e-02,-8.04347e-02,2.88055e-01,-6.21827e-01,-1.40485e-02,1.42019e-02,-3.49167e-01,2.02186e-01,6.59348e-03,-1.94667e-02,-2.38433e-01,1.24909e-01,-6.23951e-02,
-1.87975e-02,1.05355e-02,-5.28812e-02,-3.96489e-02,-4.72726e-02,2.08590e-02,-1.53317e-02,-1.67303e-02,-4.21214e-02,-1.30670e-02,1.73660e-02,-6.38811e-03,-1.86277e-02,4.91678e-03,-2.10488e-02,-6.03398e-02,3.53683e-02,-2.17755e-02,-4.78522e-03,-4.27675e-02,-4.28333e-02,7.22178e-03,2.70451e-02,-1.09051e-03,-4.71715e-05,-2.21561e-02,-4.57264e-02,-4.34298e-02,-4.18650e-02,-2.82514e-02,-3.44992e-04,-1.66960e-02,1.50844e-03,-1.88631e-03,2.35136e-02,3.10050e-02,5.11347e-03,-4.39482e-02,-2.01301e-02,-6.55451e-02,4.27534e-02,-3.61237e-02,3.00071e-02,-5.81483e-02,-3.73046e-02,
-1.11317e-01,4.05105e-02,2.47547e-01,3.23683e-01,-1.67353e+00,1.64749e-01,-9.85633e-02,-1.27790e-01,-8.81206e-01,-2.49245e-01,-2.11078e-01,4.21686e-01,-2.85051e-02,5.89625e-01,-3.98298e-01,2.43489e-01,-1.75975e-01,2.54154e-01,-4.38228e-02,-1.04072e+00,-1.42367e+00,-1.91219e-02,-3.73708e-02,2.84703e-03,-8.39233e-01,-2.36582e-01,-3.76423e+00,-3.40091e-01,3.28106e-01,5.63048e-01,1.31829e-01,-2.00858e-01,2.18592e-03,2.36826e-01,3.94502e-01,-6.32239e-01,-2.75218e-02,1.39008e-02,-1.10434e-01,1.57987e-01,-7.25058e-03,1.25170e-02,8.84953e-02,8.86986e-02,-2.05321e-01,
-2.02271e-01,1.42430e-02,1.28331e-01,5.29472e-02,6.53273e-01,1.30739e-01,3.40657e-01,-2.21695e-02,2.10578e-01,-4.26870e-02,-2.09615e-01,1.85738e-01,4.76000e-02,3.13513e-01,-2.11348e-01,9.51280e-02,1.00912e+00,-6.08168e-01,-3.13008e-02,1.84038e-01,1.53782e+00,2.29599e-02,3.97518e-02,-4.75361e-02,-5.53915e-02,1.31490e-01,7.76702e-01,1.51467e+00,-4.00980e-01,2.34734e-02,7.34768e-02,-9.19844e-02,6.09056e-03,-3.85955e-01,1.58015e-02,4.27575e-01,3.77661e-02,-3.35849e-02,6.19170e-01,-1.09805e-02,2.67248e-02,2.94385e-03,1.96005e-01,-2.03021e-01,7.35039e-02,
-2.22366e-01,-3.81603e-01,-3.65679e-01,9.77031e-03,-2.00552e-01,4.01780e-02,1.28097e-01,1.22291e-01,1.78099e-01,-9.39532e-03,-1.31773e-01,-6.24228e-03,-2.04609e-02,-1.71790e-01,3.32292e-01,-9.89000e-04,4.40765e-02,-1.43191e-01,7.59074e-03,1.67153e-02,8.60765e-02,-4.55964e-02,-8.73330e-03,1.07912e-02,-2.04092e-01,-1.00641e-01,1.84935e-01,2.77473e-01,2.98225e-02,-6.91632e-02,3.34912e-02,-4.69413e-02,3.84615e-02,2.07239e-01,3.73558e-01,1.47797e-01,-2.34804e-02,-2.23068e-02,2.88584e-01,-1.83473e-03,-2.46256e-03,-1.07084e-02,1.53348e-01,-1.00518e-01,2.43676e-01,
-2.62327e-02,2.41384e-02,-5.84273e-03,1.81505e-02,3.46171e-02,-1.47550e-02,-6.86699e-02,-1.67992e-02,-3.55190e-02,1.07487e-02,2.91372e-02,-6.76077e-02,4.01767e-02,2.67840e-02,-3.96085e-02,-1.54448e-02,-1.31431e-03,-1.47414e-02,8.20999e-03,-7.05294e-02,-2.62397e-02,-2.17595e-02,4.93822e-02,-3.92499e-02,-1.10949e-02,1.22244e-02,-3.40245e-02,-9.32564e-03,-3.08252e-02,-3.11297e-02,-3.20163e-02,3.42063e-02,-2.99247e-03,-5.54706e-02,8.00814e-04,-1.59768e-02,4.03980e-02,-4.72697e-02,1.51507e-02,-7.40137e-03,1.96338e-02,-2.79545e-02,-6.49534e-02,-1.58679e-02,-6.41376e-02,
6.64894e-01,-4.19658e-01,-1.29621e-01,2.02921e-01,4.38465e-01,1.87884e-01,6.93133e-01,9.17196e-02,1.61180e-01,4.58049e-02,-3.30618e-01,-2.46218e-02,4.83354e-02,4.46623e-01,-1.08459e-01,-3.50699e-01,-2.76484e+00,-2.33402e+00,2.76269e-02,4.39554e-01,1.45062e+00,-2.72356e-02,-8.02442e-03,-1.52025e-02,-9.16562e-01,-1.06066e+00,-9.53045e+00,1.27975e-02,-1.14797e-01,1.46674e-01,2.79923e-01,-5.50380e-02,-1.53557e-02,-2.46394e-01,6.85569e-02,6.09683e-01,1.96782e-02,-1.52607e-02,-3.24088e+00,6.00752e-01,-5.53248e-03,-2.93966e-02,-2.90801e-01,-3.31531e-01,-1.25598e-01,
3.76461e-01,-7.31149e-01,-2.07424e-02,-7.85274e-01,1.77737e+00,-3.02040e-01,7.65886e-01,2.49783e-01,9.40093e-02,1.72189e-01,4.77278e-02,4.94507e-02,-1.01501e-02,-8.40884e-01,-8.67188e-01,9.34343e-02,-1.72336e+00,-1.36042e+00,2.18932e-02,3.07098e-01,-1.15478e+00,2.40232e-01,-1.09749e-02,-1.16357e-02,-1.00646e-01,-7.26717e-01,-2.26646e-01,-2.32350e+00,1.74464e-01,-2.07272e-01,7.35012e-02,-3.44705e-02,1.36020e-02,-2.10499e-01,1.10892e-01,-8.20505e-01,-1.42687e-02,1.12477e-02,2.50600e+00,5.18066e-01,2.09362e-02,-2.36993e-02,-2.04812e-01,1.71377e-01,-7.83963e-01,
-6.41404e-02,6.42749e-01,6.80778e-01,1.65401e-01,-1.39161e-01,2.11182e-01,5.74610e-01,4.00783e-01,-2.24729e-01,1.66421e-02,-3.12224e-01,1.67007e-01,4.51152e-02,3.20088e-01,-6.99029e-02,-2.53152e-01,8.67672e-01,-4.27506e-01,-3.62975e-02,-1.21629e-01,-2.23317e+00,-1.51295e-01,-2.45813e-02,5.03320e-02,-6.04512e-01,-6.96500e-01,1.49653e+00,-7.65699e-01,3.11630e-01,4.35308e-01,-1.30453e-01,-1.47018e-01,9.76669e-03,1.13046e-01,1.05461e-01,-5.43800e-01,1.04620e-03,-5.24253e-03,1.96759e-01,-1.58315e-01,-3.59572e-02,-2.52243e-02,-4.43771e-02,-1.21926e-01,-6.35726e-01,
-2.65838e-02,-4.60824e-02,2.23165e-01,1.09583e-01,2.93753e+00,1.08261e+00,2.82232e-01,-3.29985e-01,6.59431e-01,9.89477e-02,-5.15177e-02,7.21898e-02,3.91156e-03,1.78184e+00,3.22546e-02,-1.61340e-01,3.69044e-01,3.01047e-01,-2.93174e-02,-1.03474e-01,-2.12444e+00,5.26628e-02,-1.01531e-02,3.73462e-02,-7.10163e-02,2.64110e-01,6.77675e-01,-2.16994e+00,3.55962e-01,-4.06891e-03,2.71048e-01,-5.34736e-01,2.06490e-02,-1.83478e-01,4.47843e-02,-1.26837e-01,6.54272e-02,-2.90428e-03,6.57839e-01,2.21189e-01,6.18169e-02,-4.59047e-02,2.38461e-01,2.50978e-01,9.17567e-01,
1.95424e-01,-2.44025e-01,2.94412e-01,8.81431e-01,1.57321e+00,1.81774e-01,1.65740e-01,-3.86883e-02,-4.09192e-02,2.29055e-01,1.55293e-02,1.31999e-01,-6.23367e-03,-6.21700e-02,-4.02256e-01,2.67022e-02,2.50466e-01,3.23042e-01,4.06142e-02,-2.49192e-01,-2.12801e-01,1.07247e-01,9.69756e-03,-2.17971e-02,-2.00203e-01,-1.59074e-01,-2.82238e-01,9.72102e-01,6.77877e-02,-4.92259e-02,-7.99866e-02,-4.71809e-01,2.56975e-02,5.42713e-03,-4.59384e-01,-5.10701e-01,2.44672e-02,-2.20960e-02,-8.07626e-02,7.38708e-02,-1.67560e-02,-2.33444e-02,-4.40195e-02,3.80077e-01,-4.41514e-01,
1.21694e-02,2.59050e-02,5.29667e-03,-8.06048e-02,2.49393e-02,-3.80658e-02,1.94362e-02,-7.03484e-02,-2.34149e-02,-7.22168e-03,2.25611e-02,-6.86250e-02,-4.60233e-02,1.18249e-02,-2.68828e-02,-4.08834e-02,3.25268e-02,-6.88292e-02,2.35611e-02,-4.86835e-02,3.09542e-03,-4.50277e-02,3.49634e-02,2.86034e-02,2.57020e-02,4.19381e-03,3.17495e-02,9.48773e-03,-2.48488e-02,-3.73048e-02,-3.07300e-02,-3.05757e-02,-1.86155e-02,2.82950e-03,-5.43692e-02,5.24095e-02,3.52810e-02,2.45561e-02,1.62082e-02,-7.73444e-03,3.53488e-02,1.02815e-02,-3.38709e-02,1.10907e-02,4.32061e-02,
-5.08429e+00,1.58936e+00,-2.08340e-03,-7.20213e+00,-1.75960e-01,5.24318e-02,-4.21259e-02,-4.05301e+00,-4.16124e+00,3.43643e-02,2.59975e-03,2.23095e-02,-2.11188e-03,-3.62635e+00,1.71561e-02,-3.89402e-02,1.19595e-01,8.73679e-02,-1.74386e-02,-1.12431e-01,-1.25837e-02,-2.85515e+00,5.14409e-03,-3.25313e-02,1.03646e-02,-3.26925e-02,-5.02724e+00,-1.95753e-01,-6.54027e-02,4.18389e-02,8.52322e-02,5.76899e-02,-3.85770e-02,-1.25864e-02,-3.28155e-02,-6.73658e-02,2.91892e-02,-4.22696e-02,-1.96852e-02,8.17450e-02,1.10075e-02,6.38301e-03,3.55850e-02,-1.77422e-02,2.03458e-01,
2.50349e-02,1.23052e-02,2.08954e-02,-9.40741e-03,-7.02010e-03,1.55593e-02,-1.78347e-02,-5.94846e-02,-1.86598e-02,5.83972e-03,-4.03877e-02,6.20756e-03,-8.48534e-03,-4.81439e-02,1.28428e-02,-4.61294e-02,-3.06437e-02,-3.81991e-02,-3.38835e-02,-3.44795e-02,7.20598e-04,7.52198e-03,1.98013e-02,1.88381e-02,1.00799e-03,-9.27396e-03,-4.03137e-02,-1.95664e-02,-5.42059e-02,-6.14038e-02,-6.01385e-03,-4.56312e-03,-4.93512e-02,2.63055e-03,-1.56868e-02,2.03775e-02,5.41532e-03,-1.91466e-02,9.64636e-03,-1.71316e-03,3.34174e-02,-1.17717e-02,-3.85943e-02,1.96969e-02,-3.56805e-02,
3.45400e-01,6.85020e-03,-2.19814e+00,-4.35863e-01,2.66123e-02,-1.45536e-01,-1.30706e+00,1.23293e-01,-3.88117e-05,-1.78918e-01,-8.30931e-01,-8.98516e-01,-3.15493e-02,-8.33434e-02,-7.82571e-03,-3.92573e-01,-3.93174e-02,1.38294e-01,-2.64702e-02,-1.44723e+00,7.50247e-02,-1.26125e-01,-1.29661e-02,-4.87006e-02,1.61726e-01,-1.53412e-01,-6.56387e-02,3.53334e-02,2.45741e-01,-2.95381e-01,3.41302e-01,7.75287e-01,3.63634e-02,-2.42298e-01,1.01194e-01,-3.18408e-01,-9.84781e-03,-1.71739e-03,2.78001e-03,-2.77518e+00,3.77536e-02,-2.65690e-02,-7.70025e-02,2.63479e-02,-3.54649e-01,
-1.15535e-01,-7.54011e-01,1.17672e-01,-6.34318e-01,1.51141e+00,1.41550e-01,1.04919e-01,-2.27422e-02,9.21438e-02,-2.37935e-01,-2.48006e-01,2.68762e-01,-3.62159e-02,8.65916e-01,-1.19507e-01,-4.23289e-02,-2.27059e-01,-1.14696e-02,4.06342e-02,-1.55946e-01,-2.12973e-02,-1.46561e-01,-4.66618e-02,3.11321e-02,2.73138e-01,1.98041e-01,-8.92908e-01,8.88946e-02,6.76649e-02,3.18571e-01,-1.18637e-01,-2.58138e-02,-1.51836e-02,-7.67563e-02,-1.46281e-01,2.60253e-01,1.22200e-02,-4.53635e-02,-5.13866e-02,-2.95689e-01,4.85487e-02,-2.57667e-02,-1.37908e-01,1.90176e-01,-1.27562e+00,
1.45375e-01,-1.45735e-01,1.81271e-01,5.11432e-01,2.20077e+00,-2.41533e-01,4.23448e-01,-2.56752e-02,1.86557e-01,-2.63994e-01,4.21053e-01,3.43953e-03,3.90372e-02,3.32753e-01,-3.46187e-01,-3.52045e-01,-5.36322e-01,7.39741e-01,4.83321e-02,2.27485e-01,-4.64831e-01,2.81912e-01,3.83731e-02,5.06281e-02,1.78592e-01,-4.10646e-01,-7.58962e-01,-1.26246e+00,6.85755e-02,6.50837e-01,1.39640e-01,1.88644e-01,-2.64455e-02,-5.27672e-01,-1.40594e-01,-1.13276e-01,-1.52473e-02,-1.21382e-02,6.33411e-01,2.37441e-01,1.24628e-02,1.01135e-02,-2.68829e-02,1.73943e-01,-1.21214e-01,
-2.63230e-01,-2.74027e-01,-2.88864e-02,1.68632e+00,8.55111e-01,1.95990e-01,5.57161e-01,-1.95949e-01,2.07207e-01,-3.01331e-01,3.08901e-01,-2.29081e-01,-1.81347e-02,6.52544e-01,5.30203e-01,-8.42555e-01,-3.31330e-01,-1.40560e+00,-1.05506e-02,1.59451e-01,7.60888e-01,-9.21936e-02,1.49641e-02,-1.95996e-02,-1.77043e-01,-1.69615e+00,1.82458e+00,-1.57556e+00,-1.71542e-01,1.81990e-01,-6.68338e-02,2.35055e-01,5.35466e-02,-9.77665e-02,-5.71671e-02,6.63871e-01,1.84265e-03,2.91050e-02,3.79267e-02,6.43868e-02,6.56502e-03,1.90495e-02,-4.20445e-02,2.73372e-01,-9.53289e-02,
2.60492e-02,3.48781e-02,-4.64581e-02,3.11223e-03,4.43332e-02,-1.46881e-02,-4.34245e-02,2.33081e-02,-1.40131e-02,-6.85440e-02,1.07590e-02,-3.07804e-02,2.91042e-02,-3.35067e-02,-6.19372e-02,-2.38046e-02,-2.41650e-02,-4.44402e-02,3.67854e-02,-3.89748e-02,4.23063e-02,-4.93426e-02,-4.57666e-02,3.28323e-02,-1.12812e-02,1.14434e-03,2.81420e-02,-4.13307e-02,1.77316e-02,-2.54685e-03,-4.29167e-02,-3.95421e-02,-4.82146e-02,-6.63780e-02,2.12906e-02,-2.60764e-02,1.15659e-02,-1.93287e-02,4.38435e-02,2.35556e-02,-1.88348e-02,-1.17517e-02,-3.46915e-02,-4.66171e-02,1.73935e-02,
