// Neural Network File Format by Kyle Julian, Stanford 2016
7,4,9,45,
4,45,45,45,45,45,45,9,
0,
-8000.0,-100.0,-100.0,0.0,
8000.0,100.0,100.0,40.0,
0.0,0.0,0.0,20.0,-0.432599379632,
16000.0,200.0,200.0,40.0,3.102300001,
2.73850e+00,-1.48243e-01,1.44716e-01,-2.51476e-01,
1.52938e+00,1.70558e-01,-1.56577e-01,-9.10574e-01,
-1.78352e+00,2.18614e-01,-2.21753e-01,-3.91705e-03,
9.88368e-04,6.72319e-03,1.76133e-03,3.50685e-03,
-9.26120e-01,4.40900e-01,3.22328e-03,-5.78476e-01,
-3.04187e+00,7.57979e-02,-4.60208e-02,-4.27243e-01,
-6.64101e-02,-9.93720e-01,-2.05292e-03,-9.11423e-04,
-2.43882e+00,1.03945e-01,-1.02403e-01,3.47436e-02,
-1.09048e+01,-2.36470e-02,4.74697e-02,-1.03182e-01,
4.37285e-02,-7.05254e-04,-1.74801e-02,-8.36522e-01,
-2.39930e+00,1.40739e+00,1.29072e-02,1.59558e-01,
-9.62848e-01,-4.06118e-01,-2.08277e-01,6.50323e-02,
-1.10530e+00,1.98857e-01,-4.96530e-02,7.77105e-02,
-9.68960e-02,-2.71618e-02,3.73129e-01,6.05028e-02,
-2.33818e+00,2.42464e-01,-2.76007e-01,1.83121e-01,
-1.15215e+00,-6.91268e-01,6.81579e-01,6.15966e-02,
-3.87431e-01,4.02125e-01,-3.92286e-01,2.41328e-01,
-1.70664e+00,-1.91826e-01,2.38951e-01,-8.75253e-01,
-1.39668e+00,-4.75662e-02,7.74851e-02,7.30026e-03,
-7.12115e+00,5.00470e-03,8.58886e-03,1.31327e-01,
-1.06673e-02,4.98935e-01,-5.59733e-01,5.51136e-02,
-3.13289e+00,-1.75253e-02,6.78490e-02,-8.32116e-03,
-1.44282e+00,4.22631e-01,6.83791e-03,-4.21931e-02,
-2.26071e+00,1.79584e-01,-2.77621e-01,-2.23224e-01,
-1.20982e+00,-2.74948e-01,2.87798e-01,5.17005e-02,
-1.58511e+00,2.40026e-01,-2.11604e-01,1.35490e-02,
-6.91621e-03,1.72511e+00,4.20678e-04,-7.63076e-04,
-2.70037e+00,-1.27392e-01,1.01929e-01,1.59546e-02,
6.98780e-01,1.33775e+00,5.95255e-03,5.06162e-03,
-1.71190e+00,-4.96778e-02,3.23669e-02,-9.43679e-01,
-3.49308e+00,1.00521e-02,-7.61826e-03,-3.47628e-04,
-2.71060e+00,-1.44348e-03,-2.78473e-02,2.66203e-03,
1.49322e+00,-6.22758e-01,7.07503e-01,9.01479e-02,
-3.63140e+00,-7.21704e-03,7.87778e-03,-6.08728e-01,
-2.77616e-02,1.96154e-01,-1.86282e-01,-8.78127e-01,
-1.83444e+00,-1.20224e-01,1.37773e-01,-2.81409e-02,
-5.23175e-03,1.58206e+00,-6.16441e-03,7.08934e-03,
6.94841e-02,-3.27316e-02,5.74231e-02,2.16923e-01,
-1.86107e-03,4.35046e-01,-4.33255e-01,-5.41535e-02,
-6.00493e-02,1.10761e+00,-8.59504e-03,3.67325e-03,
-5.04987e-01,-1.50668e-01,1.51189e-01,-8.89464e-01,
-2.81107e-02,-6.74804e-01,6.66180e-01,-2.43288e-02,
2.66030e+00,2.15175e-01,-2.27179e-01,-7.47137e-01,
-1.67466e-02,-1.12414e+00,-6.00651e-03,9.40325e-03,
1.28473e-01,7.42994e-02,9.50076e-02,3.25571e-02,
-3.83896e-02,
-4.07171e-01,
1.12618e-01,
-7.29882e-03,
-2.01840e-01,
-1.18911e-01,
-1.19396e-01,
-7.48388e-02,
1.01431e-01,
-1.87089e-01,
-5.49992e-01,
-2.50438e-01,
2.05442e-02,
-6.36378e-03,
7.66722e-02,
-1.62644e-01,
2.79731e-02,
-3.92927e-01,
9.37639e-02,
8.73184e-02,
6.03169e-02,
1.02532e-01,
-6.05315e-02,
2.75390e-03,
1.07705e-03,
-4.50082e-03,
2.34456e-01,
-1.39421e-01,
1.59827e-01,
-4.03043e-01,
1.53997e-01,
3.81077e-03,
6.87438e-02,
-2.24476e-01,
-4.56866e-01,
-2.01840e-01,
-1.95247e-01,
7.16330e-02,
-3.83715e-02,
-5.02032e-01,
-4.57594e-01,
9.78113e-02,
-2.87752e-01,
-5.16741e-01,
4.86401e-04,
-1.77691e-02,-9.68028e-03,-2.11562e-02,7.35052e-03,-3.68722e-02,1.51233e-03,-3.49311e-02,-1.81454e-02,-2.07217e-02,-3.98760e-02,2.81847e-02,1.91132e-02,-5.39364e-02,-4.07143e-02,2.18721e-02,-3.98808e-02,1.47021e-02,-1.70554e-02,-2.97743e-02,-7.22100e-03,3.35809e-02,1.68488e-02,-4.27653e-02,2.73452e-02,2.51393e-02,1.24005e-02,-5.20943e-02,1.73046e-02,-4.75987e-02,-1.87271e-02,-3.18499e-02,4.31498e-02,-2.45440e-02,3.97596e-02,-1.24059e-02,-2.35374e-02,-4.15894e-02,-4.61572e-02,-4.40567e-03,4.39879e-02,-2.18573e-02,-4.40226e-02,3.20577e-02,-2.66316e-02,2.32594e-02,
-7.42379e-01,1.23263e+00,4.34228e-02,3.33929e-02,1.91484e-01,3.69612e-01,6.59151e-02,-3.01332e-01,2.29605e-01,3.59830e-01,4.45738e-01,4.93026e-01,3.33291e-01,-8.39218e-02,4.83310e-01,-8.05838e-01,-7.65847e-02,9.65038e-01,2.15158e-02,-1.33118e-02,7.00941e-01,-8.19747e-02,4.08068e-01,2.88455e-01,-2.11977e-01,2.83112e-01,7.69123e-02,-7.38452e-01,-2.89124e-01,1.36137e+00,-2.61826e-02,-4.64681e-02,-1.15163e-01,8.05574e-01,-1.79520e-01,-9.70595e-01,7.03025e-02,-3.92557e-01,-2.15509e+00,-1.95958e+00,1.19546e+00,1.39588e-01,-1.04897e+00,5.73555e-01,-7.17083e-01,
-8.54089e-01,-1.58684e+00,3.52807e-01,6.43978e-03,-3.80614e-01,4.57716e-01,-9.05430e-01,-2.40695e-01,5.25295e-01,3.04076e-01,-1.08308e+00,6.16815e-01,2.21100e-01,4.92481e-01,-4.08400e-02,7.78761e-03,3.79668e-01,4.29187e-01,-1.72406e-01,-8.59511e-02,3.58541e-01,3.76408e-01,-3.09004e-01,5.15118e-01,-2.86097e-01,1.60926e-01,5.58807e-02,1.94231e-01,-4.44103e-01,5.37401e-02,2.69979e-01,-1.09740e-01,-5.63882e-01,2.60918e-01,-1.85028e+00,7.38209e-01,-1.25850e+00,-4.66873e-01,3.47343e-01,-2.55378e+00,6.09261e-01,-2.44409e-01,-2.65592e-01,-2.16119e+00,4.93998e-01,
-7.92531e-01,-1.61699e+00,7.49719e-01,-3.74920e-02,1.18120e+00,4.76287e-01,5.13161e-01,-3.72609e-01,2.35242e-01,8.78505e-01,2.82088e-01,1.65445e+00,-1.70917e-01,-2.17465e-01,4.77851e-01,2.53739e-01,4.60546e-01,1.08602e+00,2.73914e-01,-1.21403e-01,2.41654e-01,4.18708e-01,-2.24588e-01,1.13842e+00,-4.26007e-01,7.40432e-02,-5.01188e-01,-6.92527e-01,4.41151e-01,1.30402e+00,5.28205e-01,-2.25170e-01,-5.03082e-01,-8.84524e-02,-4.78276e-01,-1.20187e+00,4.83383e-02,-9.58577e-01,4.50846e-01,2.47447e+00,3.97188e+00,-2.61475e-01,-3.58917e-01,-1.48036e-01,-5.19242e-01,
2.94623e-02,3.63223e-02,2.47603e-01,-8.00823e-03,-3.84593e-01,2.78337e-01,-1.32235e-01,3.83821e+00,-2.48296e-01,-1.47985e-01,-7.06470e-01,8.22147e-01,-1.99770e-01,8.04632e-01,-4.63809e-01,-8.93444e-01,-1.10687e-01,-7.29978e-01,-8.94465e-01,3.85918e-01,3.95433e-01,-2.64885e-01,6.78719e-01,3.47988e-01,5.82815e-01,-1.60209e-01,-2.61632e-01,8.01751e-01,2.85310e-01,1.25752e+00,1.85823e-01,3.56166e-01,-5.87290e-02,-8.58670e-01,-2.03494e+00,-3.03490e+00,-1.71576e-01,-1.66546e-01,-3.17065e-01,-3.99980e+00,-1.24765e-01,5.78631e-01,-9.74178e-02,-2.83751e+00,-6.09222e-02,
-1.32648e-01,-1.97276e+00,7.26925e-01,-2.87980e-02,-2.45543e-01,1.73314e-01,1.26155e-01,-1.50309e-02,1.98879e-01,-2.83082e-01,3.14739e-01,4.07203e-01,1.56259e-02,1.14573e-01,2.19756e-01,-9.24661e-02,-1.14202e-01,2.34724e-01,4.38228e-01,-6.25710e-02,-5.17361e-01,-8.98256e-02,3.76412e-01,-4.99984e-01,-8.10735e-01,-9.40190e-01,-3.96699e-01,-3.37433e-01,5.32341e-01,-2.99301e-01,1.15386e+00,-6.28766e-02,4.94477e-02,2.57399e-01,-3.20987e+00,-1.47027e-01,-9.20050e-02,-1.60094e-01,-9.36049e-01,2.09345e+00,8.03105e-01,-1.14129e-01,2.45012e-02,-4.88537e-01,-1.48905e-01,
-3.47865e-01,-3.10363e-01,7.30180e-01,-4.24945e-02,-1.79594e-01,-7.17447e-01,-1.57063e+00,9.97871e-02,-1.73150e-01,7.56153e-02,1.14429e-01,2.05292e+00,3.12723e-01,1.39472e-01,9.37759e-02,-9.52456e-02,-8.31492e-02,2.09370e-01,9.19279e-01,-4.33670e-01,1.82675e-02,-1.40642e-01,-2.48056e-01,-3.53248e-01,-1.46774e-01,-8.16697e-01,1.97913e-01,6.47060e-01,-2.64808e-01,-7.55472e-01,1.30983e+00,-6.68434e-01,1.01620e-01,-6.13016e-02,-3.61921e-01,9.86857e-01,-3.24272e-02,-3.07573e-01,3.67933e-01,-4.49022e+00,2.07928e-02,5.80346e-01,8.98078e-02,5.12187e+00,-9.96571e-02,
1.41462e-03,1.83842e-02,2.95743e-02,-1.65080e-02,1.64502e-02,-4.89313e-02,-2.87223e-02,-4.14572e-02,-5.42037e-02,-4.72064e-02,1.85417e-02,7.45735e-06,-4.41665e-02,2.53962e-02,-6.37607e-03,9.55538e-03,-2.41679e-02,5.23496e-03,2.27843e-02,-4.25654e-02,2.11846e-02,-2.47511e-03,2.09968e-02,2.01580e-02,-5.64586e-02,-2.84519e-02,-2.85081e-02,-4.32805e-02,-4.29656e-02,-1.81114e-02,-7.88421e-03,-1.85932e-02,-6.43125e-02,2.32508e-02,-3.04702e-02,-4.10569e-02,3.55156e-03,2.02695e-02,-3.09441e-02,4.71300e-03,3.20490e-03,-4.10351e-02,-1.37634e-02,1.04189e-02,-1.19365e-02,
-2.05917e-01,4.86434e-01,7.33223e-01,3.08677e-04,1.00164e+00,7.20656e-01,1.86994e+00,-2.64555e-01,-1.09459e-01,-6.39795e-01,1.94374e-03,-9.86043e-03,1.78958e-01,-3.24402e-01,2.21441e-01,1.04792e-01,9.37501e-02,8.77104e-01,1.36356e-01,-2.30348e-01,5.30771e-01,1.65438e-01,2.16664e-01,9.49787e-01,-9.58092e-02,3.33595e-01,-3.85668e-01,-1.08326e+00,2.67886e-01,4.97901e-01,3.39944e-01,-3.22156e-01,7.20705e-02,2.30065e-01,-4.47107e-01,-1.24531e+00,-8.44500e-02,-4.06134e-01,5.49717e-02,6.83167e+00,1.96541e+00,-3.41735e-01,-2.15236e-01,-4.05177e+00,-5.83646e-01,
1.64320e-01,5.12145e-02,5.32337e-02,-2.20541e-02,-5.29555e-01,1.82801e-01,2.29482e-01,3.24358e-01,2.29571e-01,1.41813e-01,-2.63909e+00,1.37004e+00,-3.28747e-01,-5.02240e-02,-1.80192e-01,3.03530e-01,-2.92565e-02,-2.91872e-01,1.30091e-01,8.43382e-02,2.43958e-01,1.20421e-01,-1.23745e+00,8.96398e-02,-2.35282e-01,-2.28347e-02,-2.48810e+00,1.68016e-01,-1.42700e-01,8.09742e-02,3.08303e-01,6.63526e-02,-1.54095e-01,-4.09940e-02,-1.04957e+00,-2.19211e-01,-1.40262e+01,4.10331e-01,1.46271e-01,2.26848e+00,-5.28651e-01,2.31281e-01,-5.77879e-02,-6.50655e+00,-5.31814e-02,
-4.36849e-01,-2.12265e+00,2.97406e-01,-2.42683e-04,-7.04553e-02,-5.24857e-03,1.34003e+00,4.57428e-01,3.03075e-01,-3.24217e-01,3.87691e-01,6.24007e-01,4.07876e-01,9.94666e-01,-3.16333e-01,-5.59660e-01,2.16714e-01,-5.72725e-01,3.33952e-02,-5.65832e-02,-4.52395e-01,3.32763e-01,-2.84329e-02,5.67481e-01,-3.26468e-01,8.58614e-01,-1.21946e+00,2.12676e-02,1.48539e+00,-1.42767e+00,4.96717e-01,-2.33180e-01,2.31554e-01,-2.79087e-01,-1.82717e+00,-2.80872e-01,-2.33183e-01,2.77931e-01,-2.05733e-01,5.28740e+00,1.03699e+00,-3.11230e-01,-1.26130e-01,-8.00578e-01,1.90689e-01,
1.47014e-01,-9.20011e-03,2.46014e-01,5.24324e-02,-3.14224e-02,8.39073e-02,-8.37423e-01,-3.14753e-01,-9.37258e-02,1.81274e-01,-1.35450e-01,4.67537e-01,-8.70812e-02,3.10446e-02,3.29592e-02,1.30197e-01,9.33381e-02,2.83341e-01,8.34243e-02,-2.23307e-01,1.08241e-01,-7.90787e-02,-8.69305e-01,1.96844e-01,7.05206e-02,1.31144e-01,-5.71558e-01,5.91451e-01,-2.28655e-01,-1.35380e-01,3.24068e-01,-4.97022e-01,-2.00880e-01,-1.02401e-01,1.53359e-01,7.25162e-01,-1.21126e+01,4.02527e-01,2.31605e-01,2.75464e+00,1.34007e+00,2.40584e-01,4.68840e-02,-5.84738e+00,3.01059e-01,
-2.16700e-01,1.12988e-01,1.74197e-01,-1.33679e-02,4.04187e-01,-4.55477e-03,-8.78140e-02,1.04626e+00,4.79396e-02,1.09806e-01,-4.72911e-01,-4.29663e-01,4.70711e-01,6.78623e-01,5.45836e-01,-7.91231e-01,1.42070e-01,-1.05403e+00,-2.80608e-02,6.07373e-02,1.05368e+00,-4.44334e-01,5.07243e-01,6.73194e-01,-5.62970e-01,1.19653e+00,-2.95927e-01,-4.33691e-02,1.19357e-01,3.47418e-01,-2.05600e-01,-1.17184e-01,6.11592e-01,-2.42393e-01,8.00799e-01,2.42934e-01,4.08443e-02,-2.86931e-01,4.53724e-01,2.53631e-01,-4.77807e-02,1.66997e+00,-1.85437e-01,-1.24440e+00,-7.52450e-04,
-9.63951e-02,-5.16066e-01,4.84344e-01,-3.32478e-04,4.96378e-01,6.35934e-01,-7.72224e-02,-3.80730e-01,1.97555e-01,9.84895e-01,7.83142e-01,2.01584e+00,-3.28109e-01,-4.17478e-02,5.76650e-02,-5.93091e-01,1.22558e+00,4.99843e-01,-2.04364e-01,3.01693e-01,-4.00614e-01,-1.77112e-01,-5.48322e-02,4.53175e-02,-3.45942e-01,-5.12128e-02,-8.65418e-03,-2.08562e+00,-9.47818e-02,3.15671e-01,1.04428e-01,-5.83070e-02,1.72612e-01,1.10468e+00,6.77976e-02,-2.07364e+00,-4.96239e-02,-1.16991e+00,-2.27704e-01,-3.07394e+00,1.34596e+00,2.11193e-01,-1.75922e-01,-2.81094e+00,4.48358e-02,
-7.98442e-01,-8.89496e-01,-1.69689e-01,4.27997e-03,-2.04150e-01,9.48452e-01,-1.17782e-01,7.94111e-01,6.27951e-01,5.95948e-01,-2.55540e-01,4.48648e-01,-3.50312e-01,-1.86535e-01,-3.11891e-01,-2.18779e-01,-2.51566e-01,-1.08722e-01,1.01800e-01,-7.23349e-01,-6.63662e-02,1.14497e-01,-9.50295e-02,1.75409e-01,-4.71095e-01,-2.92231e-01,5.60662e-02,-2.10356e-01,-3.46379e-04,6.11205e-02,2.57936e-01,-3.34770e-01,-2.89445e-01,6.04854e-01,1.37921e+00,-4.87659e-01,5.03107e-02,-7.48338e-01,-2.03117e-01,-2.59189e+00,-6.05716e-01,7.95549e-02,-1.39698e-01,-1.64361e+00,-3.57275e-02,
-4.55872e-02,1.44449e-02,1.78907e-02,-3.53340e-02,5.09601e-03,-2.85664e-03,-3.30334e-02,-5.44961e-02,-3.86591e-03,-2.58770e-02,-1.22343e-03,1.83911e-02,8.12694e-03,6.90190e-04,-4.04218e-03,-3.12495e-02,2.10511e-03,2.75782e-02,1.49992e-02,2.75814e-02,-1.14155e-02,-5.16605e-02,3.06202e-02,-3.15667e-02,8.34708e-04,-6.52988e-02,2.48645e-03,-1.07834e-02,-9.85670e-03,-3.53864e-02,-6.44278e-03,1.76997e-02,-1.13606e-02,4.91037e-04,1.93055e-02,-1.98568e-02,-5.13575e-03,-1.56705e-02,-1.68759e-02,-1.16617e-02,8.28241e-03,-3.42864e-02,-3.72243e-03,4.17595e-02,-3.26511e-02,
7.09986e-02,2.14575e-01,-4.50993e-02,-1.70021e-02,1.10959e-01,1.04103e-01,1.52096e-01,-8.35545e-02,2.10340e+00,-3.14568e-03,4.49151e-02,-5.49575e-01,5.94413e-02,-8.31043e-02,8.30861e-02,1.71333e-02,-8.40105e-03,7.11020e-02,1.84490e-01,1.34853e+00,1.48026e-01,2.07108e-01,-4.51573e-02,5.77071e-02,-1.94772e-02,1.45348e-01,-2.29008e-01,-7.46795e-01,3.95607e-01,-2.45924e-01,1.69654e-01,2.43473e-01,-1.65442e-01,1.86965e-02,1.50596e-02,-6.18792e-01,-8.16221e-02,2.58359e-01,5.60727e-02,1.61734e-01,-6.78919e-01,6.27590e-02,-3.84437e-02,9.00147e-01,1.41809e-02,
-1.09736e+00,-2.00215e+00,1.22295e-01,4.96064e-02,-1.42619e-01,4.13383e-01,4.35709e-01,-4.56221e-01,6.82804e-01,-8.72130e-01,-4.33958e-01,-6.67334e-01,5.27380e-01,1.67749e-02,2.89950e-01,9.02270e-01,1.12312e+00,1.08356e+00,9.44322e-02,1.95820e-01,1.15101e+00,6.63185e-01,4.59618e-01,3.43120e-01,5.80296e-02,8.84563e-01,-5.36771e-01,3.14755e-02,7.92194e-01,1.05561e+00,6.32648e-01,3.36607e-01,-7.03021e-01,4.85315e-01,-1.09421e+00,-1.68208e-01,-1.34220e-01,1.28264e-01,6.05785e-01,8.60642e-01,1.39369e+00,-1.58958e-01,-1.13981e+00,-1.07573e+00,1.75512e-01,
-2.22849e+00,-1.34907e+00,4.57846e-01,-3.80222e-03,4.47127e-01,-3.35246e-01,-1.75862e-02,1.71762e-01,3.80298e-01,2.91603e-02,-1.49385e-01,-1.64111e+00,7.56964e-03,-5.83396e-02,6.54417e-01,-1.26921e+00,4.49821e-01,-6.62249e-01,-1.22808e-01,-2.78766e-01,1.17391e-01,7.48999e-01,-4.75942e-01,-3.67953e-01,-5.40557e-01,-1.23720e-01,-1.78305e-01,8.98054e-01,1.03720e-02,-1.63472e+00,1.98488e-01,-2.92709e-01,-1.96704e-01,-7.36661e-01,-1.30090e+00,9.31662e-01,1.50406e-01,-1.08630e+00,4.41888e-01,4.27232e-01,4.89230e+00,2.78339e-01,-2.30790e-01,-1.88487e+00,-2.62075e-01,
-4.62569e-02,7.77954e-02,-4.33587e-01,4.30571e-02,-1.97931e-01,3.07788e-01,-1.94262e-01,-1.27899e-01,1.67558e-01,-5.47377e-02,-5.55189e-01,-9.00758e-01,-1.28983e-01,-5.15570e-02,-9.47838e-02,-3.31921e-01,-6.53482e-02,-1.51929e+00,-3.53633e-01,2.22202e-01,3.13260e-01,2.43741e-01,-3.50942e-02,2.87192e-02,-9.19289e-01,-3.41307e-01,-5.58189e-01,-4.29889e-03,3.40356e-01,-6.38182e-01,7.26872e-01,4.01708e-02,5.07768e-02,4.42534e-02,1.63086e+00,-6.69876e-01,1.34097e+00,8.64227e-01,1.56353e-01,7.83164e+00,1.38635e+00,-1.21499e-01,-1.26917e-01,3.41415e+00,-7.47367e-02,
-9.89181e-01,-1.54927e+00,4.61369e-01,-2.58938e-02,7.50895e-02,3.28714e-01,5.99334e-01,2.70233e-01,5.43932e-01,8.66555e-01,-2.86436e-01,5.91465e-01,3.18213e-01,-8.79516e-02,3.57189e-01,-4.67820e-01,4.71492e-01,-1.87940e-01,3.63410e-01,3.77305e-01,-3.71946e-01,3.98010e-01,-2.28118e-02,4.01456e-01,-1.54000e-01,1.67177e-01,-4.91790e+00,-2.19786e-01,8.60169e-01,1.30686e-01,5.04565e-01,2.06858e-01,-4.55605e-01,2.15046e-01,-1.62363e+00,-5.49936e-01,2.28504e+00,-2.25513e-01,-2.19494e+00,1.01158e+01,3.68480e-01,-5.79726e-01,-1.71405e+00,1.70689e+00,-9.75315e-01,
-9.25842e-01,4.97411e-01,2.95795e-01,-1.58806e-02,-9.54367e-02,6.69031e-02,5.96286e-02,8.27435e-01,4.28386e-02,-6.20791e-01,6.13640e-01,8.01735e-01,-2.89756e-01,2.32373e-01,4.86625e-01,-2.72161e+00,-3.52940e-01,1.09831e+00,6.98452e-02,-2.15105e-01,-1.50739e-01,9.78909e-02,6.76477e-01,-3.32242e-01,1.32335e-01,-2.20234e-01,-1.10305e-01,-3.57892e-01,3.40812e-03,-4.42645e-01,1.45783e-01,-1.67935e-01,-3.15359e-01,-5.34500e-01,5.64579e-01,2.56446e+00,-3.68012e-01,2.73128e-01,2.55266e-01,-5.28484e-01,1.00426e+00,-3.98002e-01,2.22165e-01,-5.04416e+00,-4.66052e-01,
-3.59442e-01,-1.80652e+00,1.31682e-01,4.66713e-02,2.50010e-01,7.19780e-01,-1.01549e-01,-9.03548e-01,3.23068e-01,-1.50219e-01,1.55737e+00,2.58716e+00,-4.03094e-01,3.81164e-03,1.95534e-02,2.65860e-01,5.28387e-01,9.43106e-01,5.20915e-01,-4.70765e-01,-1.90548e-01,5.99362e-01,-1.77764e+00,1.87884e-01,-1.03868e+00,-1.16513e+00,-4.27292e-02,-8.25452e-01,-5.80469e-02,6.10694e-02,5.00515e-01,-6.18416e-01,-1.21546e-01,-4.08995e-03,-6.69208e-01,1.89452e-01,1.74875e-01,-6.96278e-02,5.76732e-02,-2.46996e-01,1.86556e-01,-8.60075e-02,-9.47693e-01,-3.67694e+00,4.04046e-01,
-7.51728e-01,-7.14024e-01,2.82076e-01,-3.36090e-02,-3.69569e-02,2.94246e-01,1.19375e-01,-7.28792e-01,4.13922e-01,-1.54534e-01,-1.10251e-02,-1.70100e-01,-2.70083e-01,2.37089e-01,9.71495e-04,4.50551e-01,5.00915e-01,4.82218e-01,5.51013e-01,-9.47728e-01,5.29459e-01,7.66855e-01,9.35525e-02,-1.43455e-01,4.25871e-01,-5.93699e-01,-1.52821e-02,-2.58699e-01,4.46477e-02,-4.00781e-01,5.18306e-01,-6.72825e-01,-8.80011e-01,7.38344e-01,-9.09105e-01,-2.16583e-01,3.36088e-02,-1.81126e+00,1.26178e-01,-3.72613e-01,7.10655e-01,-1.45572e-01,-2.61157e-01,-9.12664e-01,-1.14248e-01,
-5.94574e-01,-1.44774e+00,3.04207e-01,-3.44091e-02,-9.05140e-01,2.35440e-02,1.24869e-01,-6.96588e-02,1.90049e-01,1.47392e-01,8.40292e-01,2.88446e-01,-2.42708e-01,2.62456e-01,-2.53211e-01,-6.04509e-02,-9.83932e-01,-1.74045e-01,3.39332e-01,2.26045e-02,5.38924e-02,2.70184e-01,-9.10616e-02,4.20967e-01,1.33419e-01,-6.88899e-02,-1.13432e+00,1.27237e-01,1.36841e+00,9.55306e-01,4.30870e-01,-2.95230e-02,5.36627e-03,2.69337e-01,2.00795e-01,1.28228e-01,6.54529e-01,6.80985e-02,3.71239e-02,1.21787e+01,1.40938e+00,-2.09287e-01,4.46836e-01,2.42266e+00,-1.52514e-01,
-4.32171e-02,-8.75497e-01,3.00603e-01,-2.83855e-02,3.60681e-01,5.88254e-01,-5.03935e-02,-1.34849e-01,7.94925e-01,6.48450e-01,4.22984e-01,9.05673e-01,5.07512e-01,-5.64000e-02,3.73706e-01,2.71693e-01,5.37245e-01,7.37290e-01,1.98945e-01,-2.34358e-01,-3.73882e-01,2.91908e-01,-2.76531e-01,2.39565e-01,-1.04458e+00,-5.24876e-01,-7.08427e-01,-2.45795e-01,7.23048e-01,1.36529e+00,3.98662e-01,-4.82821e-01,-3.53890e-01,6.03035e-01,-3.29182e+00,-4.36008e-02,2.57344e-02,7.37220e-02,-1.69149e+00,-1.42568e+00,1.48631e+00,-1.42323e-01,-1.39981e+00,1.18601e+00,3.31310e-01,
-1.63240e-01,6.65210e-02,2.69942e-01,4.54715e-03,-1.87227e-01,3.56029e-01,5.89174e-01,7.42483e-01,-3.77955e-02,-2.36177e-01,2.46517e-01,9.33538e-01,4.31217e-02,-9.51387e-02,3.54487e-01,2.72912e-01,-1.48209e-01,-5.44152e-01,2.21976e-01,-1.27187e-01,-9.66355e-02,3.98252e-01,-6.25094e-01,6.85361e-01,2.12770e-01,4.34308e-01,-9.84525e-02,-1.82326e-02,3.95081e-01,1.18327e+00,3.20569e-01,-1.06137e-01,1.30103e-01,3.52746e-01,-1.78288e+00,-6.36782e-01,1.28733e+00,-3.43951e-01,8.35369e-02,1.09353e+01,9.14678e-01,2.82277e-01,-4.72454e-02,1.00967e+01,-1.22504e-01,
-1.46823e-03,-3.07388e-02,3.34883e-02,-3.62946e-02,-6.11963e-02,1.10133e-02,-2.29109e-02,2.38012e-02,2.59844e-02,-4.52045e-02,-3.26166e-02,1.86420e-02,-2.86013e-02,1.35000e-02,-1.46634e-03,-1.74807e-02,9.77225e-03,-2.41117e-03,2.62445e-02,-4.02265e-02,-1.10855e-02,-4.06637e-02,-4.76054e-02,-4.22048e-02,3.94391e-02,-5.49801e-02,-7.94182e-03,-1.68628e-02,-1.64888e-03,1.12142e-02,3.47561e-02,-6.29504e-02,-5.46744e-02,-2.24640e-02,-5.93410e-02,-3.98791e-02,2.39398e-02,4.38123e-03,-5.17334e-02,-1.11399e-03,-4.48645e-02,1.73140e-03,-4.93286e-02,-1.15479e-02,6.80399e-03,
1.81160e-01,-3.88259e+00,3.37916e-01,-2.19607e-02,-4.72947e-01,3.96965e-01,-2.47024e-02,1.24593e-01,-5.54825e-02,2.99121e-01,3.36603e-01,2.88575e-01,2.37749e-01,-4.75979e-01,-3.51017e-01,-4.20142e-01,2.06968e-01,8.47163e-01,3.96073e-01,-3.45528e-01,5.77626e-01,2.59382e-01,-1.14968e+00,1.15182e+00,7.02405e-01,9.92378e-01,-2.85408e-01,-1.80921e+00,4.41719e-01,-6.94923e-01,-2.47135e-01,1.09768e-01,-2.44281e-01,4.62508e-01,6.58076e-01,-2.56857e+00,2.52163e-01,-7.01433e-01,-3.07444e-01,6.54300e+00,4.88319e-01,4.96401e-02,-9.09319e-01,-2.46316e-01,-3.23861e-01,
-6.65319e-04,-4.49084e-02,2.66107e-02,-3.92163e-02,-2.77537e-02,1.24433e-02,-3.07807e-02,2.39528e-02,2.96310e-02,-2.91358e-02,-5.04942e-02,-9.75480e-03,-1.54627e-02,-1.83443e-02,2.82661e-02,-9.76525e-03,-2.31670e-02,6.70171e-03,-6.68632e-02,-3.50634e-02,-2.98769e-02,-3.73956e-02,-3.14135e-02,-4.57951e-02,-3.79266e-02,2.25873e-02,-4.49206e-02,1.92781e-02,-4.71318e-02,-4.54736e-02,-1.88269e-02,-5.53233e-02,-1.67748e-02,-3.12573e-02,3.13248e-02,2.15815e-02,-5.19394e-02,1.62604e-02,6.93322e-03,-6.92729e-03,-1.90618e-02,-1.02192e-05,1.13172e-02,4.62514e-02,1.61161e-02,
-8.83193e-01,-7.85427e-01,1.89755e-01,2.77269e-02,-6.85850e-02,2.69482e-01,-8.80328e-02,-5.61287e-01,6.56803e-01,2.40927e-01,-9.95447e-03,-9.11737e-01,-6.20282e-02,-2.08678e-01,5.53144e-01,-4.21383e-02,3.23983e-01,8.04317e-01,4.63637e-02,-4.06565e-01,6.50025e-02,4.55603e-02,-4.40665e-01,7.56876e-04,-4.24991e-01,1.83229e-01,-1.38762e-01,-4.53032e-01,1.58224e-01,6.63656e-01,1.51163e-01,-4.05751e-01,-3.97156e-01,6.93055e-01,-6.33927e-01,-1.68386e+00,1.52673e-01,-4.42954e-01,-8.13103e-01,1.36208e+00,1.62692e+00,-2.66100e-01,-1.74534e-01,2.28302e-01,5.52739e-01,
-8.33256e-01,-5.71789e-01,-6.35429e-02,-7.29210e-03,8.54311e-02,-2.87888e-01,3.91061e-02,-4.75579e-01,3.34417e-01,-8.59772e-01,6.31972e-01,1.97926e-03,-3.31924e-01,-2.74064e-01,2.12360e-01,-6.13602e-01,5.71944e-01,1.68762e+00,2.54248e-01,3.35619e-01,4.67253e-01,3.95912e-01,-1.09360e-01,7.17819e-01,-8.62036e-01,5.40039e-01,-3.06339e-01,-1.40212e+00,2.73243e-01,-2.71197e-01,2.90288e-01,6.42087e-01,-4.00265e-01,3.57267e-01,-9.89855e-01,-1.30640e+00,2.08687e-01,-1.70160e+00,2.71818e-01,1.44368e+00,-1.15417e+00,-1.73102e-01,-3.47211e-01,-3.33537e+00,-4.29026e-01,
-5.00204e-01,-6.25978e-01,1.57453e-01,2.80409e-03,-1.45014e-01,1.66714e-01,-4.53138e-01,-5.25943e-01,-6.91186e-02,-3.90092e-01,-3.77427e-01,-9.32292e-01,-6.66601e-02,-5.69597e-01,-9.37259e-02,6.35410e-01,2.40715e-01,-2.55047e-01,2.79993e-01,1.84077e-01,6.01755e-01,-2.03864e-01,-4.71393e-01,3.32736e-01,-5.83668e-01,4.55107e-01,-1.56221e-01,5.92894e-01,2.43921e-01,-4.33099e-01,-1.66304e-01,1.78193e-01,1.20022e-02,-1.10410e-01,3.16317e-03,6.78379e-01,2.30812e-01,9.66459e-02,4.80593e-01,-1.38608e+00,-6.18393e-01,3.70358e-01,-4.18404e-01,1.53023e+00,1.03386e-01,
-4.86702e-02,5.00276e-02,-5.76973e-01,5.42309e-03,7.39151e-02,-1.01568e+00,1.21381e-01,2.37053e+00,2.81836e-01,-9.55881e-02,-1.20421e-01,4.81551e-01,2.38984e-01,8.15701e-03,-2.61742e-01,4.32696e-01,-5.01936e-02,-2.94150e-01,4.42889e-01,-1.50423e-01,-7.76999e-01,4.17148e-01,9.38142e-02,-8.69558e-01,3.85991e-01,1.68353e+00,-2.37147e-01,-1.50539e+00,2.04477e-01,-3.15842e+00,1.77548e-01,-3.15499e-01,4.27056e-02,-1.53366e+00,3.49213e-01,-8.98288e-01,-2.00312e-02,5.51835e-02,-9.94321e+00,3.04410e+00,-2.71230e-01,5.20313e-01,-4.07352e-02,2.48366e+00,-1.79900e-01,
-4.37240e-02,-1.06031e-01,5.68925e-01,-3.06835e-02,-1.72894e+00,-2.41580e-03,5.65530e-01,3.61543e-01,2.59490e-02,-6.20134e-01,-7.81578e-01,-8.75292e-02,3.11422e-01,-1.84097e+00,4.05049e-01,2.14652e-01,4.43675e-01,7.31615e-01,4.82765e-01,-3.32011e-01,6.38004e-01,3.02997e-01,-4.66386e-02,-2.45197e-01,-9.95172e-01,-3.69581e-03,-8.65367e-01,-2.18599e-01,5.37612e-01,-1.67009e-01,4.29327e-01,-8.35263e-02,2.72200e-01,2.88671e-01,-2.19782e+00,1.96388e-02,-3.56824e-01,-3.49112e-01,-2.33216e-01,6.89097e+00,1.00276e+00,-1.78415e-01,-8.60155e-02,-5.77968e+00,-1.13889e+00,
3.64568e-01,2.32347e-02,-1.10692e-01,-3.27835e-02,-2.16347e-01,-1.57971e-01,-2.54983e-01,-4.64267e-01,2.15129e-01,-4.40608e-01,1.09290e+00,1.85044e+00,-4.84952e-01,-2.17155e+00,-3.93415e-01,-3.09094e+00,1.61755e-01,4.06258e-01,-3.23561e-01,-1.32896e-02,5.01233e-01,-5.83879e-02,1.33049e+00,-4.55810e-01,-2.29247e+00,1.86907e-02,8.84644e-02,-8.18152e-02,-1.88567e-02,-4.45417e-01,6.92875e-01,-8.13710e-02,-5.94616e-01,-5.66148e-01,-6.45839e-01,1.62178e+00,-3.96111e-01,2.54911e-01,6.17437e-03,2.59731e+00,1.77116e+00,5.07813e-01,-6.33981e-02,-1.29917e+00,-4.87828e-02,
6.73214e-02,-1.13353e-01,7.11444e-01,-2.99247e-02,4.81403e-01,1.01953e+00,1.86714e-02,7.87425e-01,-8.91999e-03,4.44132e-01,-1.61613e-01,1.07652e+00,-4.74262e-01,-1.82890e-01,-6.01723e-03,-7.00415e-01,1.81912e-01,1.08588e+00,-1.01326e+00,-5.58315e-02,7.21173e-01,-5.00543e-01,-4.39031e-01,7.39766e-01,-5.54197e-01,4.30639e-01,1.08084e-01,-6.44049e-01,-6.44589e-02,1.33981e+00,7.90586e-01,5.23486e-01,-2.56893e-01,9.57136e-01,-7.86021e-02,-1.50537e+00,-2.94260e-02,-2.25477e-01,9.01412e-01,6.88449e+00,6.69709e-02,9.09004e-01,1.34619e-01,2.83191e+00,3.49844e-01,
-1.27976e+00,-1.12938e+00,2.06213e-03,2.99100e-02,-8.02745e-02,2.07142e-01,-6.40327e-01,-5.52575e-02,2.86695e-01,1.46439e-02,5.15069e-01,6.10622e-01,-2.03021e-01,3.64499e-02,-1.92750e-01,-1.82216e-01,-2.71435e-01,3.31867e-01,-4.04514e-01,1.93595e-01,2.71380e-01,-1.69750e-01,4.11653e-02,1.94294e-01,-3.24125e-01,5.67821e-02,1.21218e+00,2.18014e-02,-1.46469e+00,1.22045e+00,-1.46701e-01,7.45268e-03,2.87613e-01,3.96665e-01,-1.08739e+00,5.38816e-01,-2.80173e-01,-1.20021e-02,3.98257e-01,-5.15904e+00,1.38034e+00,-1.39612e-01,-4.22474e-01,2.67358e+00,-5.05215e-01,
-4.27340e-01,-1.27625e-01,3.81277e-01,-2.46391e-02,4.19542e-01,-3.29519e-01,1.79507e+00,1.41238e-01,-3.65375e-03,-3.71150e-02,4.18660e-01,2.27521e-01,-7.48693e-02,-3.38748e-01,1.40370e-01,-4.44678e-01,5.96096e-02,-1.69114e-02,6.17810e-01,1.81437e-01,-7.43950e-02,2.13516e-01,-1.88433e-01,-2.01114e-01,1.52202e-01,1.94140e-01,-8.31133e-01,7.11819e-01,8.61924e-01,-3.52846e-01,4.03169e-01,9.66628e-02,2.62021e-02,-1.27366e-01,-1.06747e+00,6.23784e-01,4.57290e-02,-3.66135e-01,-5.98769e-02,9.66151e+00,-3.71282e-01,6.53848e-01,2.67916e-01,1.61646e-01,1.56776e-01,
-1.31101e-01,-1.23756e+00,-1.87498e-01,4.11776e-02,-7.71835e-02,-3.55372e-01,3.59682e-02,-1.62515e-01,1.78529e+00,5.61161e-02,-3.55059e-01,1.08640e-01,-1.50380e-01,-1.01724e-02,7.21355e-03,-1.56065e-01,-5.52924e-02,-4.69316e-01,-7.65193e-03,5.55100e-01,2.94704e-01,1.13506e-01,-1.52831e-01,-1.74524e-01,7.59882e-02,3.13334e-02,-1.25078e-01,-9.47824e-01,2.12703e-01,-3.33843e-01,9.74202e-02,-3.79724e-01,3.02810e-02,-5.83601e-01,1.99245e-01,-4.81963e-01,1.66926e-01,3.22288e-01,3.05332e-01,-6.08315e-01,-1.16513e+00,-1.34140e-01,-5.02394e-02,5.58820e-01,1.45213e-02,
-2.09262e-01,-9.41843e-01,-4.91522e-03,2.15431e-02,-5.18689e-02,3.41499e-01,-7.10943e-02,-1.12375e+00,3.48904e-01,-3.26826e-01,-2.53231e-02,-9.85831e-01,6.39333e-02,3.20735e-01,1.43493e+00,2.49332e-01,6.35369e-01,-2.81100e-01,4.28702e-01,-5.42219e-01,5.90189e-01,2.58552e-01,-1.37603e-01,-2.64042e-01,-1.31529e+00,6.55036e-02,-2.55913e-01,-8.84724e-02,3.62024e-01,-5.25020e-02,4.21618e-01,-4.70240e-01,-1.05679e-01,6.47355e-02,-1.97675e+00,-2.12827e-01,4.18850e-02,2.30325e-01,2.60921e-01,5.37543e-01,4.62180e-01,2.77418e-01,-7.38258e-01,3.43471e+00,-3.76448e-01,
-2.35311e-01,1.08813e+00,6.02209e-01,8.69486e-03,4.44312e-02,2.37859e-01,5.95810e-02,-5.96181e-01,6.37997e-01,-2.41283e-02,3.13151e-01,2.74669e+00,3.99745e-01,6.50960e-01,4.07683e-01,-8.85807e-01,5.84177e-01,1.47981e+00,2.12123e-01,-1.95332e-01,-8.66669e-01,2.31657e-01,9.34572e-01,3.66713e-01,1.63952e-01,-4.29778e-01,-4.64238e-01,-1.44809e+00,3.74758e-01,1.80854e+00,2.85858e-01,1.66386e-01,-2.59838e-01,3.77283e-01,3.26217e+00,-1.71759e+00,-2.09800e-01,2.17680e-01,-1.28115e+00,1.63480e+00,1.59765e+00,4.87778e-02,-5.94320e-01,-7.87499e-01,1.48171e-01,
-8.59503e-01,-1.13638e+00,5.17438e-01,7.47669e-03,2.24800e-02,-1.62242e-01,3.79491e-01,-5.76484e-01,1.34722e-01,-2.20111e-01,5.09320e-02,-1.55864e+00,1.16158e-01,1.48394e-02,3.25449e-01,3.93794e-01,-3.94332e-01,4.71755e-01,-5.35387e-01,-5.51914e-01,-1.20293e-01,-3.37275e-02,2.73431e-01,4.72909e-01,-5.33108e-01,6.42476e-01,-1.53021e-01,-1.86582e-01,2.23801e-01,-8.25283e-01,6.50813e-01,-5.34706e-01,-2.86659e-01,-1.87951e-01,-9.49196e-01,5.70756e-01,6.68584e-02,-7.41291e-01,1.18723e-02,8.83085e-01,9.31936e-01,1.33602e-01,-3.80642e-01,1.06751e+00,-8.19381e-02,
-5.01004e-01,-1.67738e+00,4.15767e-01,-2.49958e-02,-1.53191e-01,4.40808e-01,-7.70514e-02,-8.04883e-01,7.61569e-01,-6.76692e-01,-9.40633e-02,7.57196e-02,5.42228e-01,-2.24590e-01,1.01773e+00,6.51948e-01,6.33450e-01,4.30815e-01,2.78824e-01,-3.65108e-01,3.41774e-01,7.58943e-01,1.50107e-01,5.19061e-01,-2.13030e-01,7.27440e-01,-4.02542e-02,-1.15098e+00,1.19985e-01,8.15407e-01,9.76249e-01,-4.01310e-01,-3.11848e-01,2.16820e-01,-1.16324e+00,-1.08570e+00,-8.59147e-02,-8.50672e-02,8.24487e-02,1.34295e+00,1.26582e+00,-1.22281e-01,-6.17539e-01,-4.58248e-01,1.71754e-01,
-1.14583e+00,-1.94682e-02,1.47672e-01,1.52713e-02,-3.09996e-01,3.27058e-01,-4.04029e+00,-2.38609e-02,3.26089e-01,-9.04451e-02,-1.29499e-01,1.10703e+00,2.60024e-01,-5.02194e-02,1.73336e-01,6.37951e-02,5.84282e-02,-1.05190e-01,-3.65712e-02,1.40908e-01,5.58095e-03,7.39241e-02,3.35449e-01,3.65792e-01,-4.24901e-01,4.09099e-01,1.67959e+00,-7.38747e-02,-1.78266e+00,6.49483e-01,1.32265e-01,-2.01452e-01,1.76211e-01,1.48008e-01,-4.43761e-01,1.41582e-01,-3.94165e-01,-5.85421e-01,1.10774e-01,-7.69794e+00,1.31861e+00,4.19576e-01,-5.88098e-01,9.53961e+00,-3.65359e-02,
-1.39461e-02,
-2.24628e-01,
1.13131e-01,
-1.94189e-01,
-3.01660e-02,
5.17896e-02,
-3.04578e-02,
-2.43860e-02,
1.02894e-01,
5.17120e-01,
-3.04128e-02,
3.46888e-01,
-4.21871e-01,
-2.20344e-01,
4.68032e-02,
-1.76055e-02,
-4.18045e-01,
-3.35426e-01,
1.09790e-01,
8.08973e-02,
-4.35300e-02,
1.36684e-01,
-4.92034e-02,
-1.08943e-02,
-1.31516e-01,
-8.05016e-02,
-7.01055e-02,
-3.27789e-02,
-4.74104e-02,
-2.00782e-02,
-1.54767e-01,
-1.86007e-02,
-1.51540e-03,
-1.75291e-01,
-1.18044e-01,
2.55531e-02,
-6.08566e-02,
6.76026e-03,
-8.17029e-02,
-2.44593e-01,
-1.52705e-01,
-2.21746e-01,
2.10033e-01,
8.39276e-02,
-1.26794e-01,
1.30529e-02,-9.77423e-01,2.83140e-01,1.99517e-01,-9.92078e-01,4.05469e-01,-3.03612e-01,-1.94132e-02,2.64752e-01,8.57662e-01,-5.24384e-02,2.47099e-01,5.29486e-01,-1.66440e-01,6.34924e-01,1.67413e-02,-5.50578e-02,2.97326e-02,3.93424e-01,-1.48365e-01,-4.29143e-01,3.26070e-01,-1.90014e-01,1.75803e-01,5.84393e-01,1.01501e-01,1.91613e-02,-2.39622e-02,-1.73597e-01,-3.78469e-02,-4.77995e-01,2.55542e-01,-2.13006e-01,-7.87480e-01,8.83301e-01,2.49407e-01,2.54184e-01,-6.03438e-01,1.39389e-01,-8.87317e-03,-4.48409e-01,2.25678e-01,-8.24066e-02,-9.88429e-02,-1.16267e+00,
-2.08991e-02,-1.99083e+00,5.29256e-01,-2.52579e-01,-2.33167e-01,5.10140e-01,-3.34031e-04,-1.51266e-02,4.58373e-01,3.06755e-01,7.39732e-02,1.76661e-01,-2.85893e-01,-1.73153e-01,7.53596e-02,1.57399e-02,2.43414e-01,-6.16669e-01,-3.64671e-01,3.62694e-01,-3.11848e-01,3.90979e-01,5.88148e-01,5.97290e-02,-2.10253e-01,1.83231e-01,-3.29298e-01,-1.03521e-02,-1.49397e-01,3.15908e-02,-1.18755e+00,-3.07909e-01,6.95298e-01,-2.23379e+00,1.47544e-01,-4.47785e-02,-3.36596e-01,-1.71199e-01,-2.64898e-01,-2.20182e-02,-4.63738e-01,3.09291e-01,1.87312e-01,3.52584e-01,-1.91835e-01,
-3.99444e-02,1.95782e-03,1.81088e-02,2.89085e-02,-2.42003e-02,2.28175e-02,1.58970e-02,-2.27612e-02,-1.83090e-02,-2.24721e-02,-3.63174e-02,-2.22395e-02,3.01778e-02,-4.76620e-02,-1.71840e-02,1.11160e-02,-3.82401e-02,-5.75594e-02,2.50866e-02,-3.17338e-02,-3.87995e-02,-1.78491e-02,2.69749e-02,-3.47319e-02,-4.17660e-02,-2.60908e-02,-5.33836e-02,3.63453e-02,-5.79554e-02,1.34969e-02,-4.99026e-02,2.29098e-02,-6.76090e-02,-3.35423e-02,-5.46279e-02,-2.27847e-02,1.68089e-02,-4.70667e-03,-3.45767e-03,-2.47845e-02,1.53896e-02,3.78471e-04,-5.13386e-02,1.67154e-02,2.76217e-02,
-8.41928e-03,4.57965e-02,5.06465e-02,-3.72941e-02,6.08842e-02,-1.29289e-02,-1.73788e-02,2.11694e-02,1.85999e-03,-5.31466e-02,5.10740e-03,2.74081e-02,1.52932e-02,-1.52213e-02,3.23570e-02,-3.22682e-02,-2.37007e-02,-3.18471e-02,4.18319e-02,-4.61104e-02,-6.66662e-03,6.04226e-03,-5.33142e-02,3.02024e-02,2.00157e-02,-5.82045e-02,-4.10466e-02,3.78304e-02,8.78391e-03,9.53431e-03,-2.01242e-02,1.84062e-02,2.02902e-02,8.82584e-02,-2.81471e-02,-2.91907e-02,-7.97439e-02,4.02058e-02,7.59321e-03,-1.69032e-02,3.43409e-02,-1.10701e-02,-4.93991e-03,-5.44250e-02,-2.54577e-02,
-3.70824e-03,-1.69315e+00,1.74804e-02,-4.27293e-02,1.58797e+00,1.24399e-02,1.15597e+00,2.58371e-02,1.32346e-01,-1.78701e-01,6.02081e-02,2.42947e-01,4.91033e-01,-1.82278e-01,4.29106e-01,-2.18726e-02,1.34820e-01,-4.16775e-01,-3.30136e-01,-9.15112e-02,-1.30810e-01,1.74533e-01,1.10653e-01,9.55814e-02,-2.28856e-01,6.43119e-02,4.36770e-02,5.18095e-02,-9.08220e-02,-1.67369e-02,-1.07865e+00,3.78546e-01,-1.99848e-01,-4.54315e-01,3.02928e-01,-1.16790e+00,4.50776e-01,-9.68119e-01,-6.45768e-01,1.25574e-03,-4.83543e-01,2.50089e-01,4.33683e-01,7.69888e-01,-1.15141e+00,
-3.47442e-02,-1.26113e-01,-2.39257e-01,-3.36374e-02,-2.72180e-02,-1.86165e-01,-2.67808e-01,-2.62349e-02,1.92203e-01,1.23842e-02,1.26879e-01,-9.31286e-02,-2.01784e-01,3.93252e-02,3.78863e-01,-2.85613e-02,4.37935e-01,-3.11077e-01,-8.61992e-02,-1.60933e-01,1.42082e-02,-2.01340e-01,-1.60583e-01,8.01147e-01,-5.35386e-01,3.30082e-01,-1.18273e-01,-2.24939e-02,-5.36891e-01,-3.35871e-02,1.30721e-01,3.02039e-01,3.00431e-01,-1.73389e-01,-1.68502e-01,-7.76427e-01,-1.22792e-01,-1.03624e-01,-4.66195e-01,1.00586e-01,-7.38728e-01,-9.91089e-03,8.05990e-01,2.52836e-01,-4.41065e-01,
-3.67928e-02,1.53189e-01,5.21543e-01,-1.29228e-01,4.86271e-01,-1.74435e-01,-2.03979e-01,-2.11378e-03,-5.96089e-03,-2.87120e-01,-2.18072e-01,3.79033e-01,-6.08229e-02,5.56509e-02,2.16218e-01,-1.85244e-02,2.65971e-01,-2.74708e-01,-2.89403e-02,5.81579e-01,1.55904e-01,7.89192e-02,-1.12028e-01,4.26643e-01,7.93686e-01,1.67300e-01,-1.57470e-01,8.46690e-03,-2.17253e-02,1.44993e-02,3.59841e-01,-9.68418e-02,3.53190e-01,7.38163e-01,3.34041e-01,-8.19414e-02,-8.67403e-01,-5.48964e-01,-9.81247e-01,-6.92031e-02,1.59817e-01,2.46120e-01,5.24601e-01,2.69271e-02,-2.03982e-01,
3.08753e-02,7.48335e-02,-6.94612e-02,2.87343e-02,2.59263e-02,-5.57928e-03,-8.93141e-02,3.57591e-02,-4.69786e-02,-6.46061e-02,-1.91440e-02,3.71587e-02,-4.33041e-02,5.39504e-02,-6.48818e-02,-1.17707e-02,-2.65127e-02,2.65721e-02,-1.27408e-02,2.03362e-03,1.51395e-02,3.00337e-02,-6.55477e-02,1.53007e-02,4.91209e-02,-6.49865e-02,3.51270e-03,2.56748e-02,-9.78009e-03,2.26955e-02,2.60470e-02,-1.70734e-02,-8.05199e-02,-1.83985e-02,2.05530e-02,1.16053e-02,-1.47661e-02,3.09884e-02,-1.47364e-02,-1.01921e-03,-1.84489e-03,3.63542e-02,-3.27536e-03,-3.62837e-02,-3.06407e-02,
-4.28726e-02,-7.19285e-01,1.35714e-01,8.57214e-02,1.24934e+00,1.60002e-01,4.22475e-01,1.70060e-02,-9.91172e-03,3.32467e-01,9.68619e-02,-8.70479e-02,5.57591e-01,1.01192e+00,1.60918e-01,3.80827e-02,-2.57148e-01,-1.18183e-02,2.33762e-01,-3.61535e-01,-4.33835e-02,4.15934e-01,-1.38030e-01,4.34244e-01,7.31324e-03,-4.86073e-02,-4.46144e-01,5.27481e-03,1.54527e-01,1.65002e-02,-1.65478e+00,9.57572e-02,3.04414e-01,5.80191e-01,3.08513e-01,3.50771e-01,-2.20340e-01,1.56982e-01,-5.55445e-02,-7.67943e-02,1.98812e-01,1.76572e-02,6.37196e-02,-2.99118e-01,9.43720e-02,
-2.07962e-02,-1.50448e-01,2.63242e-01,4.28231e-01,-9.09622e-01,-7.09589e-01,7.26380e-02,-9.03440e-03,-1.36021e-02,1.13690e-01,-4.04121e-02,-1.05066e-01,2.29953e-01,2.15472e-01,7.32120e-01,4.59706e-02,-3.75393e-01,-5.38106e-01,-4.86808e-01,-9.16453e-03,-1.34864e-01,-8.08622e-02,-6.45132e-02,1.66212e-01,-2.26934e-01,-9.13575e-02,1.79280e-02,4.27166e-02,-4.82993e-01,-4.18732e-02,-5.46955e-01,-2.75893e-01,-8.98087e-02,-2.04452e+00,3.19517e-01,-1.95960e-01,-6.57637e-02,-1.08468e+00,-1.99298e-02,-1.41360e+00,2.38508e-01,1.05618e+00,-4.11202e-02,4.00997e-02,-4.03264e-02,
-1.75048e-02,-1.09557e+00,6.10490e-02,-1.34623e-01,-2.29385e+00,9.51112e-02,-1.17697e-01,-2.94244e-02,5.79891e-02,1.58383e-01,-1.52056e-01,-1.67275e-01,-8.00097e-01,3.45088e-01,6.42142e-02,-1.93480e-02,-4.11864e-02,3.33068e-01,9.20078e-02,1.13164e-01,-2.13251e-01,4.91845e-01,1.58018e-01,1.57386e-01,-3.95947e-01,-4.40285e-01,-1.70304e-01,5.49789e-02,1.65169e-01,-3.57458e-02,2.08023e-01,-1.86027e-02,-6.99820e-01,4.07744e-01,9.30435e-01,-3.44051e-01,5.20700e-01,-5.11946e-01,-2.84203e-01,-1.73130e-01,8.32677e-02,3.82440e-01,4.96076e-01,-1.14516e-01,-3.18351e-01,
-3.32639e-02,1.62693e-02,-8.45719e-02,1.29906e-02,-4.56677e-02,-4.02109e-02,3.92921e-03,-1.28085e-02,-5.89501e-02,-1.18938e-02,-3.07432e-02,-5.06347e-02,-2.00901e-02,1.57687e-02,3.96067e-02,-5.17209e-03,-4.92029e-02,7.36369e-03,-5.54209e-02,-4.12444e-02,1.75756e-02,-5.81581e-02,-4.73344e-03,-6.43651e-02,1.76255e-02,1.22302e-02,-6.20255e-04,-5.01521e-02,-4.14380e-02,2.68181e-02,-5.22691e-02,-8.39216e-02,-5.43144e-02,-2.97275e-03,-2.13392e-02,-6.83386e-02,-1.05721e-02,-7.02022e-02,2.76178e-02,-2.72840e-02,-2.58095e-02,-3.60460e-03,-3.01425e-02,9.04812e-03,-5.55893e-02,
-1.33221e-02,3.33614e-01,4.79594e-01,-9.65954e-02,7.10221e-02,-4.08154e-01,6.44619e-02,6.92631e-03,-2.26945e-01,-4.02760e-01,-1.63202e-01,6.82204e-01,-1.12990e-01,8.71820e-02,2.14189e-01,2.64137e-02,2.79479e-01,-1.36265e-01,1.95305e-01,2.72504e-02,-8.36269e-02,1.72199e-02,-1.36665e-01,-2.81148e-01,-5.79594e-01,3.13384e-02,-4.71988e-01,-2.81475e-02,3.59136e-01,1.17462e-04,4.04400e-01,7.50109e-03,6.51067e-02,2.30196e-01,-3.88937e-01,1.92145e-01,-1.60951e-01,4.16481e-01,-5.35998e-01,9.68456e-02,1.94142e-01,-1.35831e-01,-2.23326e-01,-2.89337e-01,1.07195e+00,
4.41362e-02,-2.55771e+00,-1.84032e-01,1.76940e-01,2.68361e-01,4.18933e-01,2.76801e-01,-3.85214e-02,6.52802e-02,1.76216e-01,1.48577e-01,1.13297e-02,-1.66761e-01,1.71553e-01,1.80969e-01,-8.86489e-03,9.74176e-02,-5.96483e-01,-5.51621e-01,-5.54811e-02,-1.70420e-01,2.60104e-02,3.49883e-01,4.37926e-01,-2.52587e-01,5.12651e-01,1.03690e-01,2.53423e-02,3.21357e-01,-1.31860e-02,-1.72886e+00,-7.12702e-01,1.84305e-01,-3.56481e-01,-5.32293e-01,1.41716e-01,3.60020e-02,-4.60061e-01,1.69166e-02,-6.52502e-02,-3.43943e-01,-9.76153e-02,7.47780e-02,1.39224e-01,-2.53973e-01,
2.98681e-02,5.04036e-02,1.11213e-01,7.89974e-02,-5.09940e-01,4.40618e-01,7.38511e-01,-6.07905e-04,1.44305e-01,-1.15924e-01,1.00221e-01,9.63523e-02,9.21145e-02,-1.30437e+00,-2.26452e-01,-3.40402e-02,2.92139e-01,-2.24283e-01,-2.50658e-01,-5.52536e-01,-6.30749e-02,-1.31174e+00,4.41310e-01,-1.85951e-01,4.69028e-01,1.62484e-01,2.26471e-01,-2.40971e-02,-1.10194e-01,-2.28114e-02,2.26885e-01,-7.91241e-01,-5.67407e-01,-2.44743e-02,-1.03417e-01,1.64197e-01,3.01992e-01,-2.42037e-01,-3.02490e-01,-9.26021e-02,-5.24130e-01,-8.40761e-02,3.45901e-01,2.41833e-01,-1.30742e-01,
-2.96406e-02,3.13616e-01,3.99532e-02,-2.27034e-01,-3.07419e-01,-1.43198e-01,4.82210e-01,6.03493e-04,-5.60564e-02,4.99759e-01,-8.99165e-01,1.12819e+00,1.19671e+00,6.77164e-01,-3.01765e-01,4.69049e-03,1.85384e-01,6.85620e-02,2.62450e-01,-1.94061e-01,-2.32059e-01,-8.84958e-03,-5.65543e-01,-2.79762e-01,-1.14243e-03,-3.77598e-01,3.14133e-01,2.97006e-02,-5.44672e-02,-1.81370e-03,6.72028e-01,8.56032e-02,-3.79176e-02,-2.10259e-01,-3.90003e-01,5.56049e-01,4.32083e-01,-3.42339e-01,2.29240e-01,3.20939e-01,7.89816e-02,-2.00457e-01,2.52354e-01,-2.30268e-01,-1.46634e-01,
-2.98969e-02,-6.99632e-01,7.39442e-02,1.34120e-01,1.40761e-01,-1.61772e-01,-2.51422e-02,-9.86582e-03,1.82018e-01,-3.83174e-01,-2.42745e-01,3.91498e-01,-5.94851e-02,3.30552e-02,6.30896e-01,4.84476e-02,4.77819e-01,-6.34619e-01,1.19424e-01,1.68489e-01,-3.27987e-01,3.31295e-01,-2.96635e-01,-2.44566e-01,2.48552e-01,3.60977e-01,-3.47581e-02,-7.84652e-03,1.08911e-01,2.08260e-02,-6.41266e-01,5.44927e-01,5.78108e-01,9.36483e-01,-2.89888e-01,7.23729e-01,7.45870e-02,-4.00792e-01,-1.65678e-01,3.26352e-02,-1.84773e-01,1.33331e-01,-3.22197e-01,2.21689e-01,-3.02470e-01,
6.02790e-03,6.09267e-02,1.43426e-02,4.07648e-04,-2.16995e-02,-5.88258e-02,-2.12925e-02,4.78769e-02,9.69145e-03,-3.19213e-02,-5.00897e-02,-6.55941e-02,-5.28192e-02,1.35976e-02,-2.70927e-02,-3.90745e-02,-3.98410e-02,1.42167e-02,-2.01351e-02,-4.68272e-02,-1.66095e-03,4.41144e-02,-1.82788e-02,2.27716e-02,-2.41152e-02,-3.69967e-04,1.94651e-02,3.39823e-02,-1.16091e-02,-3.64057e-02,1.88485e-02,-6.36097e-03,-6.60182e-02,-1.13977e-02,-3.00602e-02,1.64774e-02,-3.63928e-02,-4.87320e-03,-2.60603e-02,5.52909e-03,-2.69708e-02,-2.64022e-02,-3.33771e-02,-9.55516e-03,3.79135e-02,
-3.94568e-02,8.02634e-02,4.63212e-02,-1.11148e-01,8.34118e-02,-2.32840e-02,-2.20728e-02,-2.66660e-02,-5.87249e-02,-9.64736e-02,-3.74375e-02,-1.12274e-01,3.45865e-02,7.35975e-02,2.59234e-02,-3.41308e-02,-1.65867e-02,1.44238e-02,-3.77453e-02,-1.03866e-01,9.31710e-02,-1.48744e-02,-1.84422e-02,-6.33990e-02,-1.69145e-02,-5.19061e-02,-7.34371e-02,2.24804e-03,1.27625e-01,-1.58612e-02,8.30301e-03,-1.65271e-02,-2.66330e-02,2.84351e-01,6.19943e-02,1.07599e-01,-8.23891e-02,5.44114e-02,-4.68981e-02,-1.58516e-02,-3.22027e-03,2.79784e-03,6.44051e-02,-6.60813e-02,6.67531e-02,
2.19630e-02,-1.13065e+00,3.22279e-01,4.42292e-01,1.60773e-01,-2.26290e-01,-1.76350e-01,-4.08610e-02,2.00099e-01,-1.65894e-01,-1.56991e-01,-2.33998e-01,-2.97561e-01,1.41339e-01,5.59725e-01,-4.04655e-02,1.65836e-01,-1.05820e-01,3.91595e-01,1.45618e-01,-1.56816e-01,5.21201e-01,2.78984e-01,2.85253e-01,9.10322e-02,4.56290e-01,-1.45031e-01,1.91448e-02,-1.26933e-01,4.20536e-02,4.93789e-02,4.91200e-02,3.72599e-01,-5.45206e-01,-1.42219e-01,2.09490e-01,-3.93946e-02,-6.90998e-01,-3.50430e-01,-1.98682e-01,2.57680e-01,4.74029e-01,4.54148e-01,2.27443e-01,-4.87105e-01,
-2.10430e-02,-4.11048e-01,4.94050e-01,9.97669e-02,7.38664e-01,-8.71202e-02,3.68332e-01,3.35433e-03,-7.06792e-02,-1.03304e-01,1.12897e-02,9.37974e-02,5.30614e-01,6.77579e-02,-1.12772e-01,7.16406e-03,3.20687e-02,-1.83368e-01,2.83567e-01,1.77157e-01,2.90599e-02,-6.70542e-01,-3.37636e-01,-3.77127e-01,5.04922e-02,-8.46835e-01,4.49101e-02,-6.52963e-03,1.88662e-01,2.74847e-02,1.07258e+00,-4.63384e-01,5.48194e-03,2.75959e-01,5.65401e-01,5.11337e-01,2.73965e-01,4.27710e-02,2.67787e-01,8.36247e-02,1.85653e-01,-2.82758e-01,-2.63506e-01,9.77051e-03,-5.13461e-01,
-2.62322e-02,-1.44206e-02,-4.56634e-03,-4.11608e-02,-4.45168e-02,-3.67900e-02,-4.14604e-03,-4.22445e-04,-1.52417e-02,-1.33159e-02,1.84547e-02,1.91488e-02,5.85904e-04,-1.82610e-02,4.48100e-02,-4.73698e-02,-7.59216e-04,-4.53613e-02,3.41008e-02,-5.12711e-02,2.23108e-02,-3.26095e-02,-4.51476e-02,-8.50561e-03,-3.91776e-02,-5.49490e-02,2.12908e-02,1.59077e-02,5.13052e-03,3.25716e-02,-5.65693e-04,-6.12762e-04,-5.79020e-02,3.49631e-03,6.52330e-03,-2.75058e-02,-3.37171e-02,-1.66120e-02,-4.33208e-02,3.62270e-02,-3.84756e-02,3.60973e-02,-2.06745e-03,9.90262e-03,-3.73798e-02,
-2.37592e-02,-2.44722e-02,3.59324e-02,-2.49487e-02,9.56380e-03,-5.55659e-02,-9.90497e-03,-4.50685e-02,3.01582e-02,-4.94388e-02,-9.51383e-03,-4.20916e-02,7.12097e-03,-4.15399e-02,-3.68854e-03,1.54524e-02,-4.83063e-02,-1.16785e-02,-8.46048e-03,2.04519e-02,1.94781e-02,-4.57518e-02,2.48564e-02,2.78195e-02,-6.35305e-03,2.35064e-02,-4.28159e-02,7.82717e-03,2.90137e-02,-1.80581e-02,-4.04360e-02,-5.10635e-02,-2.26841e-02,2.41504e-02,-6.18775e-02,-5.29595e-02,-1.73697e-02,-2.30831e-02,5.14905e-03,-4.44217e-02,-5.75441e-02,7.51742e-03,-1.54130e-02,-1.24798e-02,4.11876e-02,
-2.96942e-02,-3.57700e+00,-7.72171e-02,5.34784e-01,-1.02936e+00,-2.68924e-01,1.48790e-01,-3.48797e-02,-1.54924e-01,-1.89172e-01,-3.18756e-01,-1.36272e+00,-1.58287e-01,3.77605e-02,9.60411e-01,5.12902e-02,-3.53504e-01,-3.89783e-01,-6.79950e-02,3.52683e-01,4.76604e-01,-9.40316e-01,3.70036e-01,4.16324e-02,-2.21922e-01,6.87898e-01,8.85054e-01,6.92783e-04,-1.91285e-01,1.50244e-02,-2.71582e+00,-1.70934e-01,-2.63378e-01,-4.95609e-01,-8.57390e-01,-6.84993e-01,6.55102e-01,-7.80532e-01,2.43758e-01,-1.89367e-01,-9.04107e-02,9.11449e-01,-4.71137e-02,4.02217e-01,-2.10549e-02,
2.30030e-02,-1.04687e-01,-1.26820e-02,8.48271e-03,1.70773e-02,-2.29382e-02,8.07915e-03,2.77134e-02,2.90514e-02,-3.60996e-02,-1.87807e-02,-4.96154e-02,-1.11057e-01,-1.20142e-01,-4.48262e-03,-3.96539e-02,2.40067e-02,-1.46817e-02,-3.74123e-02,-3.78549e-02,-5.33325e-02,-7.64882e-02,-6.14560e-02,1.94207e-02,1.68314e-02,-1.83177e-02,-7.10455e-02,9.69432e-03,-7.91310e-02,1.54822e-02,-1.05000e-02,-5.83907e-02,-2.94351e-02,3.17763e-02,3.12048e-03,-3.80879e-02,2.06124e-02,3.12348e-02,-7.01699e-02,-6.30817e-03,-4.08897e-02,-7.97846e-02,-7.39540e-03,-4.46140e-02,4.93132e-03,
-2.39197e-02,-2.82409e-02,-3.81593e-02,1.66913e-04,-2.82419e-02,-7.03322e-03,2.55818e-02,-2.99389e-02,2.86677e-02,-1.07397e-02,-5.50654e-02,-1.21977e-03,-6.16947e-02,-4.74356e-02,-2.62657e-02,-4.69242e-02,6.22094e-03,-1.13208e-02,-7.86359e-04,7.39560e-03,-1.55899e-02,-3.02393e-03,-4.04940e-02,-5.18660e-02,-5.31011e-02,-6.02031e-03,-2.03654e-02,2.63009e-02,1.80077e-02,3.87653e-02,2.03217e-02,-4.27596e-02,5.13938e-03,-3.54594e-02,-3.67239e-02,-1.24457e-02,1.93314e-02,-2.11170e-02,2.27681e-03,-7.36503e-03,-5.90417e-02,2.65542e-03,-3.19007e-02,8.64016e-03,-1.12193e-03,
-3.42213e-02,-8.87449e-01,9.15681e-02,5.63620e-01,-3.64540e-01,-5.61808e-01,6.47192e-02,1.36105e-04,3.37281e-01,-8.86200e-02,-6.85924e-02,-7.91187e-02,-2.37379e-01,6.43239e-01,6.27498e-02,-3.19475e-02,-5.83857e-02,-2.03645e-02,3.56271e-01,1.04737e-01,-1.49161e-01,5.39103e-01,5.30436e-01,1.10567e-01,5.96780e-02,3.97400e-01,-1.80018e-01,-1.09285e-02,9.37270e-02,4.65356e-02,-6.96148e-01,1.19855e-01,3.41719e-01,8.38456e-02,8.07590e-01,-1.59082e-01,-4.12568e-01,-2.88087e-01,-1.46298e-01,-2.63227e-02,-2.80222e-01,1.58719e-01,-2.45007e-01,-6.44569e-03,2.04084e-02,
7.63367e-03,-2.03603e+00,-1.70291e-01,-6.33306e-02,4.43783e-01,2.81950e-01,4.07766e-01,1.57079e-02,-2.26884e-01,7.85171e-02,3.90862e-03,1.26251e-01,2.58733e-01,-6.32095e-01,-3.33465e-01,-9.22271e-03,-3.34464e-02,-2.14761e-01,-3.13566e-01,-2.79506e-01,-3.00933e-01,2.08026e-03,1.66397e-02,-2.66648e-02,-4.99104e-01,6.80463e-02,-8.14773e-03,-4.06143e-02,-3.37657e-01,2.18275e-03,-1.23090e-01,-1.99327e-01,7.68267e-01,6.10222e-02,6.97255e-02,-5.76556e-01,-1.88296e-01,-4.03481e-01,3.90751e-01,3.34932e-01,1.58724e-01,-2.08734e-01,3.04380e-01,8.18094e-02,-6.39248e-01,
-3.99803e-02,-1.94982e-01,1.35541e-01,2.98778e-01,-4.85232e-01,1.10136e-01,-5.53082e-02,3.59182e-02,4.54403e-01,1.42764e+00,1.65241e-01,1.14694e+00,-1.33738e-01,-1.75451e-01,2.29105e-02,-3.67529e-02,-6.70315e-02,8.77155e-02,-5.33397e-03,-2.08428e-01,4.09355e-01,1.82172e-01,4.75725e-01,-7.77571e-02,9.99942e-01,1.29951e-02,2.75653e-01,4.13296e-02,2.29827e-01,4.49653e-02,3.27544e-01,1.26679e-01,-1.81454e-01,5.15704e-01,1.72771e-01,3.18601e-01,-1.68267e-02,-6.11474e-01,8.68500e-01,-3.68675e-01,-5.43776e-01,1.04088e-01,8.85553e-02,3.65446e-01,-1.30083e+00,
-1.14984e-03,5.48161e-01,-4.61369e-01,8.81639e-02,-1.10249e+00,5.49779e-01,5.01495e-01,-7.39299e-03,2.35844e-01,-1.34087e-02,-5.99107e-02,-1.75231e-01,-3.47435e-01,-5.55398e-02,-3.96264e-01,6.55711e-03,3.93471e-01,-1.03409e-02,-2.06949e-05,1.96606e-01,1.16003e-01,6.55582e-01,-2.16144e-01,-3.62588e-01,-8.22885e-02,2.25828e-02,-1.99694e-01,-1.19498e-02,-4.02631e-01,5.01342e-02,1.27367e+00,-7.20271e-02,-5.02931e-02,1.09929e-01,2.63541e-01,-8.49600e-02,4.05458e-02,-7.18777e-02,-4.22848e-01,-1.49207e-01,5.00093e-01,-9.52422e-02,3.85682e-01,-7.65933e-02,-5.92087e-01,
-3.54188e-02,1.01398e+00,-7.46016e-02,-3.06048e-01,-8.28325e-01,1.88609e-01,3.33047e-01,3.99573e-03,4.99600e-02,-1.45119e-01,6.96665e-01,-1.47405e-01,-2.62050e-01,-2.82463e-01,-1.32096e-01,4.39823e-02,2.57772e-01,-3.44664e-01,-3.81264e-01,1.44768e-01,1.23113e-01,8.54971e-01,3.24850e-01,5.61870e-01,-5.63503e-01,5.07198e-01,-1.47144e-01,-3.04105e-02,3.11098e-01,6.26506e-03,1.36004e+00,-1.12607e-01,7.10437e-01,1.69604e-01,-1.17333e+00,-2.68827e-03,-5.68624e-01,-4.82014e-01,-2.49375e-02,2.55817e-02,-3.46559e-01,2.65291e-01,3.46603e-01,1.30174e-01,-5.66066e-01,
1.04246e-02,-3.36202e-01,-4.97229e-01,3.60530e-01,-2.07876e-01,1.56896e-01,-2.67808e-01,1.16948e-03,2.26479e-01,7.20704e-01,3.56830e-02,3.31630e-01,8.60147e-02,1.61901e-01,1.07623e-01,-5.05880e-04,2.93388e-02,-1.68980e-02,3.10924e-02,1.12594e-01,3.87321e-01,2.34370e-01,-1.03269e-01,-7.75226e-02,1.01382e+00,2.01361e-01,6.07402e-01,8.35038e-04,-5.39869e-02,-4.12644e-02,-1.28903e-01,-4.36951e-02,-6.83991e-02,2.24632e-01,-2.66894e-01,1.59507e-01,5.10849e-02,-9.08698e-01,3.97231e-01,-8.01817e-02,1.32725e-01,1.15221e-01,-1.32248e-01,-7.87868e-02,-1.73231e+00,
3.66920e-02,-1.92126e+00,1.60824e-01,-1.78368e-01,8.83593e-02,2.98611e-02,-2.14867e-01,3.33084e-02,3.12490e-01,5.83795e-02,-2.29107e-01,3.64781e-01,1.22960e-01,-4.19380e-02,1.49980e-01,-2.69978e-02,2.08877e-01,-4.01999e-01,-2.95236e-01,-6.72953e-01,1.66114e-01,-7.75687e-02,-6.01231e-02,1.41703e-01,9.38590e-02,-6.31096e-03,-1.11731e-01,-3.36625e-02,-2.82239e-01,-2.49029e-02,-1.14707e+00,6.82151e-01,3.97539e-01,-1.09041e+00,-6.27286e-01,5.59804e-01,2.18326e-01,-3.34113e-01,4.01550e-01,1.00329e-01,-1.35657e-01,1.36473e-01,4.60510e-01,2.90227e-01,-5.39826e-01,
3.67420e-02,-3.05060e-02,1.90319e-02,1.96490e-02,3.20180e-02,1.48468e-02,-2.01595e-02,3.57239e-02,-5.21140e-02,-5.40362e-02,-5.46409e-02,-3.90121e-03,1.07134e-02,-1.48567e-02,-8.97557e-03,9.13711e-03,-5.50667e-02,2.05879e-02,-2.49145e-02,1.28377e-02,-4.74290e-02,-4.29816e-02,-2.57482e-02,-3.62652e-02,-1.01897e-02,-6.00442e-02,-3.37476e-02,3.05943e-02,-1.34002e-02,2.33620e-02,-4.05431e-02,-2.96660e-02,5.94546e-03,2.22159e-03,2.79561e-02,2.37433e-02,9.85591e-03,-2.48703e-02,-2.72699e-02,-3.22971e-02,6.24281e-03,2.71851e-02,-2.71134e-02,-3.47121e-02,2.28412e-02,
-4.01530e-02,-3.54629e-01,1.80912e-01,1.43214e-01,2.27724e-01,-1.15050e-01,-1.34676e-01,2.55558e-03,1.88289e-01,-9.68632e-02,-1.13506e-01,5.31360e-02,-1.34491e-01,-1.20687e-01,3.31864e-02,-2.98517e-02,5.77276e-02,-1.00187e+00,-8.60623e-01,1.70795e-01,2.54060e-02,-4.28292e-01,1.70204e-01,1.86359e-01,4.51281e-02,5.26886e-01,-6.60016e-02,-3.31781e-03,1.70196e-01,-1.19937e-02,8.24690e-02,-8.31136e-01,7.72178e-01,-3.87437e-01,1.25639e-01,1.47451e-01,3.45689e-01,-1.32658e-01,-2.80773e-01,-2.43227e-02,-1.31839e+00,-3.43191e-01,5.30008e-01,1.70819e-01,-3.71332e-01,
-3.08301e-02,-1.39604e+00,6.64042e-02,3.52390e-01,3.68521e-02,5.30887e-02,1.74068e-01,-2.78304e-02,5.19725e-01,-7.05895e-02,-2.51289e-01,4.11062e-01,-5.23793e-01,6.54537e-01,1.22239e+00,-3.02004e-02,-1.29608e-02,-4.96379e-01,-1.00648e-01,4.43357e-01,-5.09255e-02,6.17669e-01,-1.29205e-02,9.04875e-01,2.16753e-01,6.80518e-01,-7.00712e-02,2.20060e-02,-1.73182e-02,2.01951e-02,-2.08593e-01,-7.57060e-02,6.92417e-01,-1.29053e+00,-2.62091e-01,5.70673e-01,5.22337e-01,-7.29861e-01,2.01718e-02,-2.03913e-01,1.07934e-02,9.93115e-02,8.95792e-02,2.37136e-01,-5.97977e-01,
3.19222e-02,-5.04377e-02,-1.17840e-02,3.52909e-02,-3.39665e-02,-4.98939e-03,-3.21478e-02,-3.72573e-03,-1.26260e-02,-7.00809e-03,-6.23654e-02,4.29679e-02,-1.49518e-02,3.38790e-02,-4.50406e-02,-2.29195e-02,-3.16588e-02,5.62180e-02,9.46669e-03,-1.55722e-02,-1.69091e-02,-6.32390e-02,2.97758e-02,-6.54070e-02,3.19943e-02,-1.87329e-02,-3.87746e-02,-4.78464e-02,-1.44057e-03,-1.56541e-02,-5.87005e-02,-4.11203e-03,-5.74072e-02,-4.17779e-02,-2.89796e-02,-4.85362e-02,-5.16785e-02,1.51549e-03,1.48412e-02,-3.41263e-02,1.90878e-02,-8.69393e-03,-4.68884e-02,2.09763e-02,-5.85869e-02,
-3.27766e-02,1.23843e-01,-8.74048e-02,1.17122e-02,2.65594e-01,-9.24455e-02,-1.91692e-01,-1.63012e-02,-1.83076e-01,2.07222e-01,-9.90612e-02,-7.56352e-01,1.13649e+00,-1.93644e-01,-1.38322e-01,3.37065e-02,1.13009e-01,2.29765e-01,-9.32805e-02,3.49608e-01,1.73559e-02,-4.53405e-01,-6.07985e-02,2.69720e-02,-4.14634e-01,-8.74568e-02,1.02440e+00,-4.09241e-02,-8.95111e-02,6.76769e-03,4.23179e-01,-4.85808e-01,5.61001e-02,4.07347e-01,-5.43255e-02,3.80380e-01,5.56483e-01,4.16156e-01,-3.36954e-01,-1.41568e-01,-1.47626e-01,-3.28377e-01,-4.09296e-02,-6.58693e-02,-2.28366e-01,
1.27049e-02,-8.27201e-01,-3.05959e-01,5.18807e-01,-3.15888e-01,1.55678e-01,1.27592e-01,-4.95150e-02,6.38398e-01,2.86728e+00,-5.49132e-01,7.04455e-01,1.69409e-01,1.02050e-01,9.14516e-02,1.67591e-02,1.91791e-01,-2.78151e-01,-4.35073e-02,7.07774e-01,1.91450e-01,-9.63967e-02,-3.62566e-01,-6.82386e-02,7.74531e-01,3.66579e-01,6.21521e-01,4.81970e-02,-7.51481e-02,1.70813e-02,1.34823e-01,-2.42460e-03,4.95249e-01,1.19948e-01,-2.62831e-01,4.22601e-01,2.97003e-01,-8.11219e-01,1.07725e-01,2.02097e-02,-5.25659e-01,2.24929e-01,1.06219e-01,3.77873e-01,-9.79251e-01,
-4.20025e-02,-1.85764e-02,1.33884e-02,-5.88793e-02,1.87999e-02,5.82384e-03,-2.79572e-02,2.60227e-02,2.18237e-02,-6.48215e-02,-2.77708e-02,-4.93792e-02,-6.15878e-02,-9.76565e-03,-5.67722e-02,3.00835e-02,2.62191e-02,5.85817e-03,-9.01022e-03,3.08369e-03,-5.26441e-03,-2.70493e-02,-1.26519e-02,-5.50943e-03,-6.27064e-03,3.69820e-02,2.16487e-02,-2.79442e-03,-6.23461e-02,3.99697e-02,-6.05404e-02,-1.46032e-02,-5.68923e-02,-7.10213e-02,1.28296e-02,-5.05944e-02,-7.99247e-03,-7.26272e-03,-4.63272e-02,-9.75887e-04,-6.43907e-02,8.39891e-03,-5.67163e-02,-5.18040e-02,3.09575e-03,
5.19218e-02,4.07402e-01,-1.05467e+00,7.55410e-02,4.47378e-02,-4.43022e-01,-6.24183e-01,-2.40227e-02,4.16987e-01,1.58838e-01,-4.86560e-01,2.21839e-01,2.52177e-01,4.48692e-01,4.20828e-01,-1.85341e-04,4.53958e-01,-3.19359e-03,3.93169e-01,-1.55614e-01,1.09133e-01,3.66885e-01,-8.91045e-02,-1.40969e-01,-4.28332e-01,-1.30547e-01,-6.10871e-02,-3.14672e-02,1.14266e-01,-3.20708e-02,-2.67808e-01,-1.34569e-01,3.40451e-01,-4.21111e-01,-3.00463e-01,3.19425e-01,-4.79147e-01,6.93259e-02,1.47889e-01,-3.59182e-01,-2.00203e-01,-3.83398e-02,3.18027e-01,1.79997e-01,2.10112e-01,
-1.00585e-02,1.35030e+00,-1.49932e-01,-2.82969e-01,-5.75136e-01,-6.95879e-01,-1.71668e-01,2.77353e-02,1.62468e-01,8.75837e-02,3.04481e-02,-2.87503e-01,1.30731e-01,9.41995e-02,1.33677e-01,3.77432e-02,-8.73525e+00,4.75501e-02,1.75854e-01,1.58562e-01,-3.59262e-02,6.42294e-02,-3.21270e-01,-1.58267e-01,6.06158e-02,1.18047e-02,3.09169e-01,-1.66407e-02,2.44548e-01,-3.84740e-02,-9.44426e-01,-1.89582e-01,-2.81168e-02,3.60935e-01,-4.89321e-02,-7.46430e-02,2.88220e-01,-5.10850e-01,4.19372e-01,-3.29051e+00,1.75637e-02,-4.40315e-01,-4.57353e-02,4.34360e-02,-5.09160e-01,
3.57734e-02,-4.82792e-01,5.24169e-02,-1.04602e-01,1.59854e+00,6.34527e-01,-2.10309e-01,4.32146e-02,8.51949e-01,2.19626e-02,3.38967e-01,1.19628e-01,3.76710e-01,5.58991e-01,-1.98155e-01,-1.41158e-02,1.28882e-01,-3.69819e-01,6.14786e-01,2.25510e-01,1.90649e-01,-2.02851e+00,2.21399e+00,-1.00028e+00,3.73863e-02,3.68323e-01,-9.58601e-02,-3.45624e-02,9.24442e-01,8.07208e-03,1.02862e+00,-2.42624e+00,-8.13986e-01,8.79776e-01,2.12887e-01,-4.02398e-01,5.35287e-01,6.56006e-01,-2.37476e-01,2.26809e-01,-2.18081e-01,-3.03659e+00,-3.58071e-01,-1.35153e+00,2.53672e-01,
-3.27771e-02,-1.10398e+00,-4.23908e-01,3.89669e-01,-2.01878e+00,1.24463e+00,-2.78300e-01,-3.88551e-02,1.70564e-01,1.87919e-01,-3.33511e-01,2.87924e-01,-4.59734e-01,-8.20245e-01,-7.32029e-01,3.75570e-02,6.69641e-02,-6.71697e-02,-3.35956e-01,1.83449e-01,6.40024e-01,1.59641e+00,9.92625e-01,2.47125e-01,2.27873e-01,-3.06471e-01,1.01185e-01,4.75812e-02,4.28026e-01,2.00479e-02,1.03028e+00,-4.97999e-01,4.63785e-01,1.51008e+00,6.09391e-01,1.14258e+00,4.80300e-01,1.40485e+00,-5.21939e-01,2.32599e-01,5.50679e-01,-1.00393e+00,-3.59643e-01,-9.61507e-01,-1.00690e+00,
-3.28779e-02,-5.80644e-02,2.90496e-01,1.59258e-03,4.59111e-01,-1.09800e-01,-3.74293e-02,1.28972e-03,-4.63740e-02,3.58652e-01,1.53067e-01,1.71170e-01,-5.85443e-01,-1.70635e-01,-6.61094e-02,3.64060e-03,3.08328e-01,-1.41581e-01,2.14391e-02,-3.41029e-01,-1.39700e-01,3.53448e-01,-5.21953e-02,-5.35408e-01,-4.48469e-02,-3.43815e-01,3.49359e-01,-3.70430e-02,-4.53205e-02,2.69561e-02,1.07087e+00,-2.53706e-01,-4.92287e-01,-1.59114e-01,-2.02884e-02,-2.31219e-01,6.22102e-02,-1.65533e-01,-5.11809e-01,1.10254e-01,1.10478e-01,5.49584e-02,-3.28273e-01,-2.06214e-01,7.45311e-02,
-5.64319e-01,
1.53267e-01,
-1.69446e-02,
-3.89835e-02,
-4.90090e-02,
8.17830e-02,
1.35992e-02,
-6.54225e-02,
-1.18158e-01,
5.08049e-02,
1.53357e-01,
-1.10617e-02,
3.48608e-01,
4.20027e-02,
1.71019e-01,
-7.37207e-02,
-8.44915e-02,
-3.17967e-03,
-9.58084e-02,
-3.23920e-01,
-9.98602e-02,
-1.26644e-02,
-1.55332e-02,
3.38403e-01,
-3.30780e-02,
-3.22445e-02,
1.19007e-01,
2.45934e-02,
-4.78868e-01,
3.33807e-02,
-7.37856e-02,
-6.78466e-01,
3.40262e-02,
-2.98633e-02,
-1.45280e-01,
-3.30354e-01,
-1.04999e-02,
8.98997e-02,
-8.96911e-02,
-3.22804e-02,
4.41798e-02,
4.66174e-01,
-2.35905e-01,
-3.98136e-01,
2.13907e-01,
-3.88577e-04,2.06339e-02,1.99006e-02,4.34335e-02,-2.57600e-02,-2.76761e-02,1.55885e-02,4.57012e-02,4.45118e-02,4.65550e-03,-5.62219e-02,-1.21990e-02,-5.53828e-02,-4.23789e-02,-1.42714e-02,1.06807e-02,2.53090e-02,-1.50362e-02,7.51937e-03,-2.72434e-02,2.13930e-02,3.90940e-02,-1.10124e-02,-5.04019e-03,2.67626e-02,4.85773e-02,2.85983e-02,-2.54658e-02,-3.58716e-02,-6.26215e-02,-1.06727e-02,4.57949e-03,1.78424e-02,4.65826e-02,-4.71258e-02,-4.54156e-02,4.60733e-02,-1.61729e-02,-4.10216e-02,5.73647e-03,-2.68422e-02,-3.73127e-02,-1.31415e-03,1.46752e-02,-5.45154e-02,
1.87693e-02,-4.64982e-02,2.88522e-02,4.19987e-02,2.19940e-01,1.21623e-01,-2.33087e-02,-6.55755e-02,1.30900e-01,7.48271e-01,5.78135e-02,2.18213e-02,1.10410e-01,4.76208e-01,-3.46817e-01,-2.58247e-01,3.01857e-01,1.26144e-02,-8.91973e-02,-2.00718e-01,8.66551e-02,4.04645e-02,-3.25633e-02,1.32901e-01,1.94579e-03,4.54839e-03,2.85152e-01,3.72183e-02,4.94624e-02,2.35849e-01,3.87060e-01,-2.10345e-01,1.89585e-01,-4.05221e-02,6.20959e-01,1.16957e-01,-2.58618e-02,1.35588e-01,5.46893e-03,-2.69118e-02,1.69517e-01,-5.94606e-01,1.55916e-02,-5.99256e-01,5.15404e-01,
5.21245e-01,-1.42851e+00,-4.34593e-02,-1.67761e-02,-4.88610e-01,3.89839e-01,1.00262e+00,-1.12132e-01,1.31953e+00,8.84760e-01,3.41499e-01,2.38981e-02,5.19418e-01,-3.97763e-01,8.01377e-02,-3.63168e-01,-1.84186e-01,-1.98156e-02,-3.72756e-01,-3.42661e-01,3.87568e-01,-2.80997e-02,-9.47390e-03,4.07812e-01,4.61843e-02,3.16163e-02,5.32318e-01,2.74004e-01,-1.87031e-01,4.98229e-01,1.51880e-01,2.62082e-01,3.85924e-01,4.10546e-02,4.33357e-01,4.63734e-01,1.39397e-02,6.68949e-02,-4.09557e-01,-1.00337e-02,8.13401e-01,-3.58303e-01,3.05959e-01,1.53647e-01,-3.65033e-01,
-1.08148e-01,-6.49848e-01,-2.84479e-02,4.86909e-02,1.30960e-01,2.48582e-01,-1.61945e-01,3.30924e-02,5.59107e-01,-6.10031e-01,-3.42086e-01,-8.63240e-03,-3.51334e-02,-2.69068e-01,8.39563e-02,-1.72362e-01,1.23652e-01,1.49543e-02,6.12253e-02,1.49818e-01,-8.80033e-02,4.12395e-02,-3.19153e-02,1.75314e-01,-2.93473e-04,-7.75181e-03,-6.65681e-03,6.43867e-02,-2.27594e-01,6.53782e-02,-1.50199e-01,5.94850e-02,8.34795e-02,2.96228e-02,-4.28927e-01,3.49296e-02,-5.04870e-03,-2.70623e-01,2.13781e-01,-1.83792e-02,-6.33273e-02,2.35466e-01,2.30747e-01,1.62550e-01,3.89492e-01,
2.07051e-01,-1.13420e-02,-5.24857e-02,-6.12716e-03,1.64034e-01,6.79578e-01,-1.22637e-01,2.40638e-02,-1.06839e-01,-5.75095e-01,1.45131e-01,7.24301e-02,-1.64040e-01,-1.33542e-01,-1.14963e-01,-1.03526e-01,3.09448e-01,-3.61281e-02,1.79282e-02,-1.44614e-01,-5.95929e-02,-3.45004e-02,5.49828e-03,1.16117e-01,-5.54214e-02,1.44579e-02,-7.25659e-01,-3.88673e-01,4.79024e-02,1.33325e-01,-2.08359e-03,-2.86098e-01,-1.90023e-01,2.60929e-02,-6.52177e-01,4.80230e-01,-6.96321e-02,-2.67720e-01,2.44433e-02,-3.43184e-03,-9.38211e-02,2.99317e-02,1.02811e-01,-6.41569e-01,5.82211e-02,
-3.46335e-02,3.18599e-02,4.79436e-02,-4.69375e-02,-5.35456e-02,-3.00898e-02,-7.28493e-02,-3.26565e-02,-3.28523e-02,-2.30691e-02,-2.42122e-04,-1.43994e-02,-1.46348e-02,2.14053e-02,-2.59228e-02,-2.04129e-02,-4.27482e-02,3.79458e-02,-1.47310e-02,-5.86475e-03,-4.79293e-02,3.22366e-02,-3.00950e-02,-3.72025e-02,-2.92435e-02,2.08706e-03,1.06880e-02,-3.92458e-02,-5.63879e-02,1.99025e-02,-3.03215e-02,-3.11332e-02,3.01898e-02,-1.96569e-03,-2.58654e-02,-1.26443e-02,1.63727e-02,-7.43516e-02,2.69694e-03,4.14801e-02,-5.67266e-03,4.02116e-02,-4.35112e-02,4.23971e-03,5.07937e-03,
3.71729e-01,-8.59517e-01,3.43281e-02,-2.35687e-02,8.89318e-02,-1.92896e-01,-5.71327e-01,-2.20413e-02,3.96339e-01,-1.68908e+00,1.25139e-01,4.55023e-03,-2.71469e+00,-7.61895e-02,-3.40819e-01,-7.06319e-02,-1.99549e-01,-1.74824e-02,-2.95183e-01,1.07137e-01,3.31255e-01,2.27318e-02,1.48332e-02,-2.46005e-01,-5.14611e-03,1.96848e-02,-9.04335e-01,8.38146e-01,6.12138e-01,-3.13089e-01,1.63736e-01,1.97537e+00,-2.62669e-01,-8.20713e-03,-8.24068e-01,4.95788e-01,-3.54666e-02,-3.12141e-01,5.20268e-01,-2.05020e-02,1.15722e-01,-3.63279e+00,1.89535e-01,-4.53370e-01,-2.38947e-01,
2.74250e-01,2.21489e-01,2.54876e-02,-1.13726e-03,7.02033e-02,-2.92930e-03,9.56819e-02,3.00784e-02,-1.02095e-01,5.58183e-02,2.58984e-01,4.09384e-02,-2.62270e-02,-1.36707e-01,1.50638e-02,7.34162e-02,2.40287e-01,3.81980e-02,6.06399e-02,-1.59558e-01,-2.19854e-01,3.85216e-03,-3.66897e-02,6.77042e-02,1.48650e-03,-2.77761e-02,2.33489e-01,-6.59819e-01,5.89042e-02,4.52053e-01,-5.75081e-01,-1.01321e-01,3.65238e-01,-2.45275e-02,1.94752e-01,1.14256e-01,-1.40363e-02,-2.02405e-02,-4.52691e-02,-7.62725e-03,4.73557e-01,7.87807e-02,-5.92794e-01,4.54356e-01,9.07609e-02,
3.36362e-02,2.80892e-01,-4.26166e-02,2.06236e-02,2.67861e-02,2.57392e-01,-5.51477e-03,-2.05786e-02,5.10738e-01,4.69797e-01,-1.98937e-01,-4.80272e-02,1.82173e-01,-1.49760e-01,1.37428e-01,-6.62153e-02,-6.13251e-02,4.45721e-02,-4.72001e-02,1.22957e-01,3.88196e-01,4.43471e-02,-9.31108e-03,2.33586e-01,2.51162e-02,-1.14559e-02,2.46255e-01,-4.64791e-01,-1.50537e-01,-2.84198e-01,-2.05732e-01,8.52820e-02,4.47072e-01,1.14723e-02,-1.69466e-02,-1.27645e-01,2.11759e-03,-1.09903e-01,9.82068e-02,2.76558e-02,-3.39605e-01,3.43383e-01,-3.73812e-01,-2.02977e-01,-1.31420e-01,
1.39766e-01,1.44530e-01,1.49888e-02,-4.99241e-02,3.22981e-01,1.57102e-01,-2.96077e-01,-3.95718e-02,-5.57282e-01,1.04293e+00,8.01275e-03,-2.34074e-02,7.11774e-01,-2.63320e-01,-1.50937e-01,-1.98281e-01,7.83968e-02,-3.06998e-02,3.66631e-03,4.57147e-01,5.12586e-03,-4.52983e-03,-1.71724e-02,-4.13997e-02,5.68118e-02,3.24233e-02,-3.33796e-02,-3.79884e-01,5.50569e-01,-2.25248e-01,-4.26639e-02,-5.11099e-02,-7.85689e-03,-4.82297e-04,1.81571e+00,2.55219e-01,1.21579e-02,-4.76029e-01,4.31122e-01,-2.54919e-02,-2.78194e-01,-1.18283e+00,-3.04086e-03,-2.73280e-02,6.07984e-01,
8.24159e-01,9.46546e-02,3.70246e-02,2.92806e-02,-6.85452e-03,-6.71497e-01,1.38654e+00,-6.07464e-02,-2.10840e-01,3.71356e-01,5.34808e-01,5.22443e-02,7.75507e-01,6.27538e-01,-1.83831e-01,-7.29593e-02,-2.81011e-01,-1.41168e-02,-1.76554e-03,6.89557e-01,8.68111e-02,-5.56519e-03,3.58994e-02,5.57818e-01,1.93464e-02,7.47096e-03,-1.43281e-01,5.51265e-01,3.63290e-01,-6.26445e-02,6.37845e-01,9.51911e-01,3.53648e-01,-3.95449e-02,1.60808e+00,-2.22508e-01,5.06819e-02,-7.83917e-01,-6.02437e-01,-1.01182e-02,5.55580e-01,7.59190e-01,2.59752e-01,2.31016e+00,1.56605e+00,
2.34707e-01,4.99668e-02,-4.06690e-02,-4.64620e-02,5.70290e-03,-1.67931e-01,-4.49746e-01,1.56450e-01,-1.55880e-01,-1.14344e+00,1.47003e-01,-1.95068e-02,1.19773e-01,2.76046e-01,-2.66922e-01,-2.13921e-01,2.23767e-01,-2.82954e-02,1.41878e-01,1.76742e-01,2.60128e-01,6.67292e-03,3.12224e-02,-1.38776e-01,1.66412e-03,-6.72193e-03,-5.47477e-01,1.55997e-01,-4.31302e-02,1.88239e-01,-2.74899e-01,-5.00221e-01,2.67716e-02,4.36090e-02,6.99143e-02,9.32117e-02,-3.52315e-02,8.23187e-02,9.82391e-02,1.88573e-02,-3.01627e-01,1.42769e-01,-7.38649e-02,1.17933e-01,-2.46273e-01,
-1.18696e-02,1.16599e-02,-4.87205e-02,4.03748e-02,1.02869e-02,2.30744e-02,-1.93372e-02,-1.86607e-02,-1.47751e-02,1.18283e-02,-4.90733e-02,-6.13406e-04,-4.27687e-03,-4.89464e-02,-2.28955e-02,-1.46311e-02,-3.93990e-02,3.27849e-02,-2.37380e-02,-6.75574e-02,-4.64380e-02,-4.69706e-02,-1.96066e-02,-2.24427e-02,-1.14882e-03,3.80330e-02,-1.57655e-02,-7.69682e-03,-9.80409e-03,-5.99958e-02,-1.92450e-02,-2.01069e-02,3.54414e-02,-2.54196e-02,1.34239e-02,-5.59191e-02,-2.36725e-02,-7.76460e-02,-4.06526e-02,-4.35687e-03,-3.72452e-02,-4.91530e-02,3.42994e-02,2.87533e-02,1.83213e-03,
-2.97492e-01,8.90482e-02,-3.45707e-02,1.12916e-02,5.35292e-02,3.15669e-01,5.47451e-01,-2.41706e-02,-3.98276e-02,2.57338e-01,1.07202e-01,6.15534e-02,8.37766e-01,1.13593e-02,-8.79048e-02,9.91298e-02,4.36628e-01,-2.47981e-02,6.50511e-03,6.46195e-02,2.09382e-01,-4.02518e-02,2.67646e-02,-3.19447e-01,8.04574e-03,1.87044e-02,1.10383e-01,2.82228e-01,-7.17196e-02,-1.65682e-01,3.55374e-01,-5.09168e-01,-3.00987e-01,-4.21191e-02,-5.12356e-01,1.38293e-01,-4.09238e-02,-9.29265e-02,4.97693e-01,-7.02266e-02,-3.00194e-03,-2.31758e-01,5.00725e-01,4.73854e-01,2.73571e-01,
1.18360e-02,-8.92584e-01,-1.74876e-02,-1.96981e-02,1.43843e+00,3.22707e-01,4.52904e-01,7.47077e-03,-2.07993e-01,8.15465e-01,5.49926e-01,5.25490e-03,7.98282e-03,-4.85405e-01,8.38111e-01,1.03852e-01,1.19815e+00,-3.15339e-02,-2.48330e-02,1.03540e+00,1.29696e+00,1.67382e-02,1.62236e-02,1.57103e+00,6.12991e-02,1.14570e-02,1.11824e+00,-2.03366e+00,3.71613e-01,1.04693e+00,-6.54448e-01,7.27380e-01,6.35978e-01,3.48460e-02,-9.45520e-02,2.08753e+00,-4.77562e-02,1.47328e+00,-1.34750e-01,-1.30722e-02,-9.72534e-01,-1.65830e-01,-1.43025e+00,-1.55561e+00,-7.64619e-01,
-7.03306e-01,1.03176e+00,2.29626e-04,1.85263e-01,-6.29465e-01,1.21951e+00,1.89930e+00,5.46488e-02,9.22465e-01,1.34392e+00,6.22894e-01,4.59984e-02,1.07940e+00,2.38578e-02,3.98893e-01,-2.10294e-02,2.58378e-01,3.74223e-02,2.60929e-01,8.52513e-01,1.30421e+00,-3.72672e-02,1.42454e-02,-8.88677e-03,-1.21548e-02,4.76709e-02,1.46807e+00,3.32847e+00,-1.51127e+00,5.33249e-01,1.01472e+00,2.57963e+00,8.00121e-01,-3.61783e-03,1.00736e+00,7.69606e-01,3.18301e-02,7.67825e-01,-1.74092e+00,4.22202e-02,2.18906e-01,-3.32364e+00,6.09699e-01,1.47335e-01,7.37637e-01,
-8.13413e-02,-1.59371e-01,-9.31093e-03,-3.27631e-02,5.29977e-01,-2.62824e-01,-1.81500e-01,3.56937e-02,-2.39930e-01,2.57951e-01,8.65461e-01,2.35595e-02,-2.74750e-01,-2.47239e-02,3.00424e-01,2.61884e-01,-4.36923e-02,3.84812e-02,1.10161e-01,-4.99268e-01,4.57572e-01,-3.07247e-02,-1.75106e-02,8.76433e-01,-1.29854e-02,-5.91370e-02,-2.92073e-01,3.38542e-02,-1.68153e-01,-2.51466e-02,5.27558e-01,-5.93489e-01,3.66637e-01,3.80631e-02,9.29755e-01,3.17601e-01,-4.59709e-02,7.68709e-01,-3.10056e-01,4.48059e-02,-6.56210e-01,2.93035e+00,-1.27722e+00,-6.38556e-01,-3.87122e-01,
-2.46576e-03,3.35957e-01,1.27984e-02,4.58473e-02,2.57735e-01,5.17134e-01,-9.65532e-02,1.19552e-02,-8.94240e-02,-6.72345e-02,1.65509e-01,-1.97453e-02,-2.07842e-01,3.88400e-01,3.47053e-01,-2.01460e-01,2.42405e-01,1.25645e-02,1.57961e-02,-1.15922e+00,-1.24435e-01,3.10940e-02,-4.27342e-02,1.07257e-01,-2.91997e-03,-4.93044e-03,-1.85963e-01,-7.71294e-01,8.16050e-03,-5.14928e-01,-2.26279e-01,-4.61289e-02,2.83967e-01,2.24488e-02,1.36997e-01,2.08783e-01,-3.67939e-02,7.74413e-04,1.54076e-02,-9.26984e-04,4.20648e-02,-9.22793e-02,-6.19042e-01,1.82876e-01,-2.61380e-01,
-3.60418e-01,7.43658e-01,-3.34558e-02,5.11709e-03,1.27685e-01,3.64044e-01,1.22423e-01,-3.02558e-02,1.21798e-02,9.44772e-01,5.21738e-01,4.74483e-03,-2.79287e-01,-2.67241e-01,-5.22478e-01,1.06999e-01,-4.22676e-01,-6.79225e-03,3.77389e-01,-1.61693e-01,-9.93923e-01,-3.02438e-02,-3.13515e-02,2.59069e-01,-4.99029e-02,-3.94354e-02,3.08980e-01,1.44232e+00,-9.34262e-02,4.27311e-01,1.23949e-02,8.44872e-02,-9.98397e-02,-2.67476e-02,-1.11330e-01,-1.58793e-02,-3.54788e-02,4.94143e-02,3.46223e-02,6.29174e-02,-7.13274e-01,8.13176e-01,-3.14324e-02,6.76556e-01,-9.42886e-01,
-1.95259e-02,-3.49410e-02,2.50705e-03,4.11063e-02,-2.79544e-02,-1.54364e-02,-3.22934e-03,2.55238e-02,1.40184e-02,1.48865e-02,-6.21448e-02,3.98453e-02,-6.38896e-02,-3.28043e-04,-1.57214e-03,2.72406e-02,-6.90214e-02,-2.49516e-02,1.45756e-02,1.11946e-02,-3.04944e-02,2.70592e-02,4.05298e-02,-4.67986e-02,1.94916e-02,1.39073e-02,-7.56417e-02,-8.79306e-03,-4.44904e-03,-1.95487e-02,-5.74563e-02,-7.79292e-03,2.98593e-02,1.43365e-02,-3.68296e-02,-2.91634e-02,-3.01325e-02,-1.18201e-02,-4.01753e-02,3.35071e-03,-2.48210e-02,2.53910e-02,-3.45570e-03,-1.75926e-02,2.17461e-02,
-2.14801e-02,-8.88368e-03,3.51859e-02,-2.82475e-02,2.40397e-02,5.31717e-03,-1.70904e-02,5.52729e-04,-2.95758e-02,-3.34967e-02,-3.00340e-02,1.46214e-02,-1.46502e-02,-1.31544e-02,6.56216e-03,-4.50804e-02,-5.24932e-02,3.80258e-02,-1.63226e-02,-6.19511e-02,-4.25052e-02,2.91650e-03,-7.17037e-03,-1.63343e-02,1.91623e-02,1.86901e-02,-6.29358e-03,-9.69938e-03,-4.33858e-02,2.98839e-02,-1.12628e-02,-7.63093e-03,-5.91191e-02,4.37029e-02,-3.82258e-02,-5.41179e-02,2.34008e-02,1.32646e-02,-4.49287e-03,-3.14333e-02,-3.73785e-02,-2.99227e-02,5.20808e-02,1.61557e-03,-5.57660e-02,
-3.04693e-01,1.66180e-01,2.37287e-02,-2.62144e-02,-2.73239e-02,1.41505e-01,2.48124e-02,1.58214e-02,-2.01332e-01,1.56159e-01,1.45627e-01,1.34020e-03,4.24253e-01,-3.87092e-01,1.66538e-01,8.98107e-02,1.98804e-01,-4.71456e-04,4.29761e-02,5.76978e-01,1.52333e-01,3.34284e-02,2.31646e-02,-1.78144e-01,3.08146e-02,-2.52545e-02,7.01144e-01,2.49213e-01,1.97482e-02,-1.17207e-01,-1.60263e-01,1.22547e-01,7.03808e-01,-2.74455e-02,-5.07642e-01,-1.03547e-02,-6.58066e-03,-3.01762e-01,-2.19765e-01,1.20930e-02,-2.88522e-02,-3.41508e-02,8.69093e-01,5.10468e-01,-4.16791e-01,
7.63449e-02,-3.25761e-01,7.41389e-03,-4.58558e-02,3.32997e-02,-2.99935e-01,-2.88552e-01,9.85766e-02,-2.96934e-01,-3.73748e-01,1.78962e-01,-4.61282e-02,-6.77854e-02,-8.26772e-01,3.98009e-01,1.58707e-01,-2.27322e-01,-4.15238e-03,2.75216e-03,3.54323e-01,4.50445e-02,-3.71253e-02,-1.34548e-02,6.89623e-02,-5.69411e-02,3.51662e-02,1.71691e-01,7.51191e-03,-1.17866e-02,-4.10498e-01,1.89558e-01,-6.23169e-02,-2.96634e-01,-3.41099e-03,-5.36618e-01,-1.77270e-02,-2.92820e-02,-5.99450e-02,3.26825e-02,-1.77872e-02,3.83241e-02,-2.88669e-02,4.78998e-01,8.35514e-02,-4.22318e-02,
-3.28910e-01,-7.93618e-02,-5.65344e-02,8.22865e-03,-2.03000e-01,-3.59274e-02,3.42315e-01,1.14846e-03,2.62812e-01,-4.06736e-01,-1.38086e-01,3.46680e-02,5.87194e-01,1.94550e-01,-1.03766e-01,5.96221e-02,-2.59475e-01,-4.22116e-02,6.84703e-02,-5.58463e-01,2.96263e-01,5.19505e-02,1.56205e-02,1.90405e-01,4.28521e-02,-3.91999e-02,5.66854e-01,-5.06936e-01,-1.14974e-01,-8.16287e-01,-2.93908e-01,-1.27766e-01,-1.07478e-01,-4.23422e-02,9.11702e-01,-1.17211e-01,1.64886e-03,-1.76567e-01,1.95409e-01,1.04285e-02,2.83482e-02,-1.11451e+00,7.85677e-01,-1.28504e+00,2.26891e-01,
7.05968e-03,2.96350e-03,-1.57069e-02,3.16698e-02,1.58445e-03,1.89365e-02,-6.91308e-02,8.12367e-03,3.13649e-02,3.21919e-02,-4.74321e-02,3.19651e-03,-2.29505e-02,9.71239e-03,1.03288e-02,-2.28416e-02,-8.26738e-02,-6.64379e-03,3.99947e-02,-2.91378e-02,-2.21043e-02,4.60773e-02,1.24887e-02,-8.95292e-03,-3.76571e-02,2.87834e-02,-8.35129e-02,-6.33631e-02,-2.92676e-02,-4.14913e-02,-5.38867e-03,7.30714e-03,-2.64791e-02,-4.38092e-02,1.49927e-02,-5.08721e-02,-2.67017e-03,-4.13119e-02,-3.34979e-02,-6.49837e-04,-6.17543e-02,-1.72264e-02,1.58578e-02,-4.50740e-02,-6.35990e-02,
1.97119e-02,1.63538e-01,-2.21334e-02,-2.98657e-02,-3.42586e-01,1.58172e-01,-9.68225e-01,-1.28372e-02,-2.18716e-01,6.16619e-02,2.66071e-01,-3.54534e-02,-2.93271e-01,-2.93629e-01,-1.63453e-01,-2.25025e-01,-7.76848e-02,-1.38822e-02,1.80504e-01,-6.69875e-01,-3.19642e-01,-3.14502e-02,-4.19010e-02,2.10665e-01,1.97153e-02,-2.90615e-02,4.96221e-02,5.56281e-01,1.28491e-01,-1.41530e-01,3.79151e-01,1.65639e-01,-2.03178e-02,6.29745e-03,-7.06426e-01,-4.48156e-01,-2.11883e-02,-5.48023e-02,-2.58618e-02,1.93481e-02,2.82237e-01,2.31709e-01,5.65537e-03,-9.57885e-01,7.55478e-01,
-1.48268e-01,2.80521e-02,-1.45059e-02,7.22863e-02,-1.67151e-01,-1.58500e-01,5.36957e-02,-1.18201e-01,3.65447e-01,9.87449e-01,7.66336e-02,8.21108e-03,3.45297e-01,9.02529e-02,1.68418e-01,2.55462e-01,4.64861e-02,-5.59529e-02,-2.06287e-01,-6.71313e-01,3.66030e-01,1.04807e-02,1.63462e-02,2.99152e-01,5.39024e-03,2.53017e-02,2.00631e-01,4.63158e-01,2.19380e-01,2.64852e-01,-2.11167e-01,1.63811e-01,-1.21951e-01,4.09878e-02,1.67314e-01,4.53259e-01,-2.69347e-02,-1.27074e-01,-1.30157e-01,3.27973e-02,-4.65642e-02,3.48465e-02,-4.38177e-01,-6.67231e-01,-3.50701e-02,
-3.48004e-01,6.99376e-01,2.09167e-03,7.19025e-03,-6.18490e-02,-6.14581e-01,-2.20367e-01,-4.65935e-02,7.80304e-01,3.31165e-01,1.49389e+00,2.80244e-02,-4.57375e-01,8.21973e-01,5.04321e-01,2.07328e-01,-2.47089e-01,-2.39949e-02,-1.39795e-01,-5.52698e-01,6.50874e-01,4.92627e-02,-2.89509e-02,-2.37141e-01,2.39557e-02,2.45685e-02,5.13248e-01,6.51718e-01,1.76669e-02,4.90264e-01,-2.63835e-01,9.09324e-01,3.71758e-01,-2.18862e-02,-3.46244e-02,2.96733e-01,-4.04753e-02,7.98296e-01,-3.45053e-01,2.60954e-02,3.36226e-01,-2.24119e-01,-4.39458e-01,1.32918e+00,-6.19949e-01,
2.85959e-02,-4.82671e-02,-3.04525e-02,1.92156e-02,-1.05152e-03,-4.25624e-02,3.98125e-03,1.99529e-02,-1.58065e-02,3.18372e-02,1.59522e-02,4.08030e-02,-2.56854e-02,-8.98852e-03,-5.43519e-02,1.35113e-02,5.99252e-03,4.46015e-02,-2.73153e-02,-2.48530e-02,-3.85395e-02,2.81739e-02,-1.85480e-02,-5.79447e-03,-3.40209e-02,4.25259e-02,6.28118e-04,2.41143e-02,-5.36309e-02,-2.35510e-02,-6.11873e-03,1.09573e-02,-6.09474e-02,3.33228e-02,-5.27405e-02,3.68808e-03,5.66137e-03,-1.55981e-02,-1.40820e-02,-1.38849e-03,1.59745e-03,-2.93350e-02,1.91184e-02,-1.87029e-02,-3.30503e-02,
-1.99550e-01,4.16081e-01,2.77291e-02,3.32349e-02,6.35043e-01,-6.59055e-01,3.85828e-01,3.94843e-03,1.33045e-01,-1.26923e-01,-1.77398e-01,2.43439e-02,-7.63095e-01,-2.82323e-01,2.73304e-01,2.34697e-03,1.97491e-01,-5.13409e-02,1.34162e-01,3.95820e-01,-2.25027e-01,-1.45896e-02,-2.04383e-02,1.52973e-01,-6.37278e-03,-2.58355e-02,-7.27984e-01,-2.19041e-01,-1.58551e-01,1.99324e-01,3.75201e-01,-4.48033e-01,-1.52692e-02,-8.60675e-03,1.06603e+00,-2.38525e-01,-6.52240e-02,8.93502e-02,6.62242e-02,3.50877e-02,-1.04961e+00,-2.02951e-02,-1.59792e-01,1.04210e+00,9.62683e-02,
-1.88176e-02,-7.84903e-02,2.14718e-02,-3.14087e-02,-3.93229e-02,-3.87672e-02,5.90278e-02,-1.27506e-02,-5.64355e-02,2.63037e-02,-5.92243e-02,-4.76168e-02,-4.67929e-02,-1.53717e-02,-1.78583e-02,-4.33373e-02,-2.40448e-02,-2.08098e-02,-9.56806e-03,4.06404e-02,-4.32340e-02,-2.43501e-02,-1.66369e-03,1.61569e-02,-1.84772e-02,1.13689e-02,-6.03345e-02,-3.80232e-02,-1.56521e-03,-2.31428e-02,-3.01259e-03,4.55032e-02,-3.22725e-02,2.34198e-02,-8.60258e-02,2.44470e-02,-6.53254e-03,-5.51765e-02,-2.01762e-02,-4.65173e-02,3.98669e-04,1.50326e-02,-8.19772e-03,-2.68891e-03,-2.50141e-02,
1.38571e-01,5.01472e-01,-5.76656e-03,-3.03109e-02,5.82687e-01,-5.28228e-01,-8.85628e-02,-7.30816e-02,-2.70685e-02,-8.11066e-01,3.00700e-02,-2.98168e-02,-4.52226e-02,2.13207e-01,1.65860e-01,1.93533e-01,-1.65452e-01,-3.14868e-02,-4.63714e-02,-7.43924e-02,6.57746e-01,-2.60024e-02,-1.57111e-02,-4.56291e-02,4.09747e-03,-3.82380e-02,-4.42344e-01,-1.09071e-01,-1.15898e-02,7.81502e-01,-1.83734e-01,3.30466e-01,-2.45597e-02,-2.52088e-02,6.38066e-01,-1.05889e-02,2.08360e-02,6.43789e-02,-1.72423e-01,3.39626e-02,-1.87435e-01,-2.31663e-01,-1.45100e+00,-1.66172e-01,-2.13820e-01,
7.38805e-01,4.08807e-01,4.39990e-02,8.02349e-02,1.10898e+00,2.26327e-01,8.94720e-01,7.61951e-04,-6.04337e-01,9.92628e-01,-4.68379e-01,6.21269e-02,4.79129e-01,-1.94016e-01,-3.57867e-01,-1.62947e-01,-2.33337e-01,1.72095e-02,2.04075e-01,1.53921e-01,5.15320e-01,-2.35465e-02,2.83313e-03,2.11639e-01,8.75993e-02,-1.58469e-02,-3.45860e-02,8.33416e-01,-1.21190e-01,2.69258e-02,7.21052e-01,4.69944e-01,-1.43860e-01,-1.20522e-02,9.11199e-01,-1.54915e-01,-4.24555e-02,-3.03475e-01,-6.90222e-01,-1.53147e-02,5.14126e-01,7.40799e-01,1.61175e+00,1.24923e+00,1.46187e+00,
2.83775e-01,-2.38669e-01,2.29496e-02,-4.21007e-03,2.99477e-02,-9.77964e-02,3.34995e-01,-4.08501e-02,1.87243e-01,4.45168e-01,4.60874e-01,4.74390e-02,1.50998e-01,1.55215e-01,2.36833e-01,3.04229e-01,-2.14641e-01,-3.01876e-02,1.71123e-01,-1.60226e-01,-3.43708e-01,3.81147e-02,3.91286e-02,6.94456e-02,2.39969e-02,8.53225e-03,1.64064e-01,3.84771e-02,-2.60875e-01,-8.51460e-03,-3.85850e-01,-2.25971e-01,3.48093e-01,-4.67989e-02,-4.02608e-01,-2.19819e-01,3.23534e-02,-2.20263e-01,4.91753e-02,1.58372e-02,2.81413e-02,3.38380e-01,2.63983e-01,4.57640e-01,5.52717e-01,
-4.41490e-02,2.01947e-02,-3.98013e-02,1.50413e-02,-6.16437e-02,2.23503e-02,-3.40159e-02,-2.04429e-02,4.02298e-02,3.75542e-02,-5.56895e-02,3.42811e-02,-6.17026e-02,2.78509e-02,-3.42461e-03,2.00382e-02,2.39905e-03,4.06537e-02,4.28252e-02,-2.07184e-02,-6.21947e-02,4.56092e-02,-4.06312e-03,9.76934e-03,5.82143e-03,1.03378e-02,-4.58335e-02,-1.24168e-02,1.10656e-02,-1.42610e-02,-2.53775e-03,-5.26038e-02,-3.73366e-02,3.98143e-02,-2.36576e-02,-1.34437e-02,4.17857e-02,-1.91831e-02,-3.95262e-02,-4.21357e-02,3.05153e-02,6.85130e-03,-4.70781e-02,-5.00375e-02,9.68715e-03,
7.79340e-03,2.84660e-01,3.37849e-02,-2.64769e-02,-5.44854e-02,4.03694e-01,1.21575e-02,-1.88608e-02,2.72296e-01,-1.14769e+00,-3.04761e-02,-2.98892e-02,4.99578e-02,-5.23552e-01,-1.87551e-01,-5.52972e-02,2.99772e-01,1.42534e-02,-3.51639e-02,2.17495e-01,2.39705e-01,2.95628e-02,7.24577e-03,-2.94565e-02,5.09368e-02,5.04853e-03,4.06731e-01,-3.40675e-01,1.43517e-01,-3.52234e-02,-8.04176e-02,8.82928e-02,-1.06307e-01,1.51023e-02,-8.71028e-01,3.83037e-01,2.32673e-02,-2.38372e-02,6.59745e-03,-1.33115e-02,-1.17319e-01,1.75083e-01,-2.10690e-01,-2.05416e-01,1.61734e-01,
-4.66804e-02,6.59023e-01,3.25952e-02,2.94050e-03,-1.77754e-01,3.48307e-01,-2.46148e-01,9.19136e-02,2.29171e-01,1.02710e-01,4.34351e-01,4.38348e-02,-1.45382e-01,-2.07574e-01,2.27784e-01,-5.51226e-01,3.65988e-01,3.24748e-03,6.66690e-02,-3.87591e-02,3.27847e-01,-2.50033e-02,1.87329e-02,3.85287e-01,-4.53355e-02,-3.94030e-02,9.18799e-02,3.90261e-01,-9.50122e-02,1.45555e-01,-1.64066e-01,5.13338e-02,1.35187e-01,1.97009e-02,-1.16874e+00,6.69587e-02,-1.35029e-02,2.85774e-01,-1.34692e-01,2.38954e-03,8.39801e-01,-2.21382e+00,-2.95952e-01,-4.11568e-01,-1.13011e-01,
3.64892e-01,-1.95021e-01,6.73950e-03,-6.07771e-02,-8.93746e-02,-1.91619e-01,-1.94099e-01,4.59448e-02,1.68057e-01,8.04148e-01,2.12216e-01,2.48853e-02,5.34548e-03,-1.32951e-02,6.95331e-01,2.41035e-01,-2.07011e-01,-5.58915e-02,-2.85677e-02,4.11384e-01,3.77096e-01,-4.12113e-02,-3.05107e-02,-2.61307e-01,-3.37377e-02,-2.79551e-02,-5.90323e-01,7.99878e-01,1.01865e-02,4.13625e-02,1.27897e-01,2.50259e-01,3.82219e-01,-5.61400e-02,-3.79256e-02,1.02386e-01,5.20176e-03,4.03673e-01,8.02427e-02,-3.74622e-02,2.67676e-01,-1.26430e-01,3.04824e-01,4.88746e-01,-1.83071e-01,
3.19639e-02,-4.89995e-02,2.63302e-02,-3.12191e-02,-4.91709e-02,-4.00424e-02,3.59547e-02,2.94045e-02,-3.50448e-02,4.86875e-02,2.95265e-02,-6.83016e-03,-3.83094e-02,-4.17300e-02,-2.76722e-02,-1.37469e-02,3.87549e-02,4.01567e-03,-2.26389e-02,-3.29353e-02,1.47853e-03,-2.80588e-02,9.09440e-03,-2.36616e-02,-4.60731e-02,-2.62312e-02,1.16044e-02,-3.49293e-02,-4.13455e-02,-3.63410e-02,1.44213e-02,2.54881e-02,-2.62299e-02,-3.61313e-02,-3.25716e-03,7.41445e-04,2.66880e-03,-1.93166e-02,-5.34934e-02,4.29455e-02,-3.57153e-02,-2.26616e-02,-2.48784e-02,6.41610e-03,-4.26621e-02,
-1.13325e-01,4.41757e-01,-8.44009e-03,1.39086e-02,-2.34334e-01,5.24175e-03,5.56005e-01,-6.83903e-03,3.03978e-01,-2.21069e-01,-8.22925e-02,-7.97309e-03,-3.11499e-01,4.80607e-01,9.05982e-02,4.95302e-02,-3.84200e-01,2.43667e-02,9.89952e-02,1.04180e-02,1.10781e-01,2.07373e-02,-3.31740e-02,-2.39269e-01,-4.01323e-02,-5.18232e-02,3.06470e-01,5.95269e-01,-3.01052e-01,7.02899e-01,-3.72601e-01,-7.36235e-02,4.41500e-01,-2.22282e-03,-1.75939e-02,4.24687e-03,-5.88544e-02,-3.78198e-01,2.09068e-01,2.19332e-02,6.75112e-01,8.02670e-01,5.92551e-01,-3.86681e-01,6.72737e-01,
5.68858e-01,4.96993e-01,-3.58334e-02,7.61559e-02,1.64154e-01,9.87736e-03,-2.08280e-01,1.81859e-02,-6.02800e-01,2.79358e+00,8.50196e-01,2.41385e-02,1.36757e+00,9.39618e-01,-4.36227e-02,-2.39522e-01,1.75599e-01,-3.02049e-03,3.31906e-01,7.61399e-01,-1.34312e-02,2.85871e-02,-2.90571e-02,6.63762e-01,4.23582e-02,-1.11639e-02,-2.10134e+00,2.31496e+00,2.41063e-01,8.50733e-02,5.76831e-01,1.08980e+00,-5.89550e-02,2.35450e-02,2.34246e+00,-1.93207e+00,1.17044e-03,-2.90356e-01,-8.44873e-01,-2.21359e-02,1.37947e+00,3.09985e-01,-2.09923e-01,1.74262e+00,2.19560e-01,
-2.52374e-01,5.33969e-01,3.53507e-03,-3.50221e-02,-2.62912e-01,1.96208e-01,9.90701e-02,-1.71177e-02,5.62502e-01,-4.61502e+00,-5.70502e-02,-3.65437e-02,1.15127e-01,-1.60986e+00,4.12235e-03,-9.27065e-03,-3.42777e-02,2.66722e-02,-1.05066e-01,2.81383e-01,5.81061e-01,2.92883e-02,-6.58179e-03,-7.72258e-02,-3.48839e-02,-4.84212e-02,4.13742e-01,1.26486e+00,3.41630e-01,-5.55325e-01,1.38944e-01,-4.07366e-01,2.41716e-01,-3.09866e-02,-1.87510e-01,5.23748e-01,-3.60521e-02,-2.32119e-01,5.40712e-01,-1.27254e-02,-6.69338e-01,-7.85423e-01,-2.37539e+00,8.04534e-01,-2.39819e-01,
3.42275e-01,1.95779e-01,-1.27157e-02,2.00240e-02,-5.45372e-02,1.10581e+00,1.18798e+00,1.37992e-01,-3.17720e-02,-1.69469e-01,5.14514e-02,-1.88604e-02,1.01108e+00,-1.05116e+00,2.18965e-01,1.32164e-01,5.98256e-01,9.07198e-03,4.82885e-01,1.83776e-01,3.38876e-01,-7.42752e-04,-4.25182e-02,2.80208e-01,-2.27677e-03,2.07287e-02,1.57076e+00,4.21898e-02,-9.28052e-01,8.23096e-01,8.39101e-01,2.54957e-01,1.87355e-01,1.27010e-02,5.47458e-01,1.53520e-01,2.52459e-02,7.93756e-01,-1.05576e+00,1.20094e-02,1.04017e+00,-3.89724e-01,1.12094e+00,1.45973e+00,7.31336e-01,
7.24743e-02,-1.76686e-01,-5.01906e-02,-2.51177e-02,-2.45595e-01,-2.71146e-01,-7.25184e-02,3.86547e-02,-2.58574e-01,2.07549e-01,4.20933e-02,4.98816e-02,1.66002e-02,-2.05256e-01,-1.13320e-01,-1.36266e-01,-5.49553e-02,2.12238e-02,-5.53003e-02,1.13385e-02,-1.85022e-01,4.40874e-04,3.92317e-02,-1.31527e-01,-1.39521e-02,-1.92791e-02,-3.93129e-01,2.84608e-01,-2.28193e-01,-3.04724e-03,1.14738e-01,2.39404e-02,2.60094e-01,-2.13236e-02,-4.28963e-01,4.42447e-02,5.70484e-03,7.94149e-02,1.82978e-01,-1.12323e-03,-1.97809e-01,-3.33186e-01,8.90318e-03,-3.30342e-01,1.64345e-01,
-4.11333e-02,-4.10434e-02,1.45323e-02,-2.32819e-02,-3.29116e-02,-4.82474e-02,-9.16857e-03,-2.84763e-02,3.34107e-02,1.22892e-02,3.99627e-02,-4.94396e-02,-1.76081e-02,4.20693e-02,-1.45339e-02,-5.71865e-02,2.80293e-02,6.19091e-03,4.68940e-02,7.15020e-03,3.44025e-02,1.12704e-02,-4.05176e-02,-5.44507e-02,4.59918e-02,-3.36732e-02,2.22882e-02,-4.91371e-02,-4.75310e-02,-6.22165e-03,2.26313e-03,3.95891e-02,1.30208e-03,-6.04096e-03,-1.06241e-02,-2.05893e-02,-2.13671e-02,-5.65682e-02,-2.96715e-02,-4.40356e-02,-4.03457e-02,-4.26455e-02,-4.54334e-02,-1.89161e-02,-1.89194e-02,
-1.67460e-02,
-5.56719e-01,
-8.92372e-01,
-1.92256e-01,
1.32958e-01,
-3.33459e-02,
-1.27088e+00,
-3.20985e-01,
-5.34820e-01,
2.69892e-01,
-1.71874e+00,
8.67763e-03,
-2.73968e-02,
-1.97849e-01,
5.19312e-01,
-1.24402e+00,
1.29631e+00,
-2.10901e-01,
9.82620e-02,
-8.90977e-03,
-1.46578e-02,
3.23569e-01,
2.89928e-01,
2.17018e-01,
-1.53183e-02,
-2.78648e-01,
-4.70002e-01,
1.17357e-02,
-1.02974e-02,
1.46561e-01,
-4.58390e-02,
1.41214e-01,
-1.93004e+00,
-2.90546e-01,
-2.32599e-02,
-3.97215e-01,
4.16164e-01,
-1.47715e-02,
-4.92702e-03,
-4.31857e-01,
-1.47773e+00,
1.49891e-01,
-1.27970e+00,
2.74290e-01,
-5.44942e-03,
2.68279e-03,1.11712e-01,1.48840e+00,2.10975e+00,1.56992e-01,-1.97419e-03,-1.13093e-01,2.15677e-01,1.05615e-01,1.36822e-01,-6.10676e-02,3.66522e-01,4.57393e-03,-3.56322e-01,2.69878e-01,-7.95657e-02,-1.51061e-01,1.02877e+00,-2.22173e-01,-7.28076e-03,-2.96722e-02,-8.93459e-01,-1.67204e+00,5.60974e-01,-3.08976e-03,-7.90615e-02,7.98015e-01,2.56113e-01,4.59884e-02,-5.91250e-01,-6.73792e-02,5.80719e-02,-1.23159e+00,2.93216e-01,5.37775e-02,-2.44964e+00,-4.96559e-01,-1.79501e-02,7.17884e-03,3.58456e-01,-2.29554e+00,-4.38819e-01,-1.31486e-01,1.76994e+00,-4.68718e-02,
-1.72150e-02,2.07185e-01,9.10516e-01,-4.21686e-02,1.02337e-01,-4.86176e-02,-2.74431e-02,6.94198e-02,-3.82555e-02,9.75310e-02,-9.31571e-02,-9.68140e-02,1.12874e-02,-3.91924e-01,4.88109e-02,-4.15523e-02,3.26313e-02,-5.71437e-01,-6.88261e-02,1.87141e-02,-3.69932e-02,2.45178e-01,2.91042e-01,1.48692e-01,-1.79131e-02,-2.09929e-02,3.02952e-01,1.09855e-01,-3.60506e-02,-1.45875e-01,1.18970e-02,-1.59829e-01,2.83307e-01,4.06202e-01,2.82342e-03,4.00383e-02,-1.39814e-01,-3.26264e-01,-2.63338e-03,8.83667e-02,1.53673e-01,2.06078e-01,6.06575e-02,2.08417e-01,-5.47989e-02,
2.19735e-02,4.73396e-01,8.49722e-01,5.14178e-01,2.75506e-01,5.91758e-02,1.32145e-01,-4.69094e-01,-7.11375e-01,-1.84800e-01,-1.98424e-01,1.63498e-01,3.36997e-05,3.27578e-01,-9.29076e-02,-2.07886e-02,1.56593e-01,-1.04864e+00,-2.53488e-01,3.64032e-02,2.87212e-02,-2.15546e-03,7.78786e-01,-8.54285e-02,1.13132e-02,-4.93955e-02,-3.29156e-01,2.31405e-01,3.66338e-02,-2.87783e-01,1.97398e-02,-1.06008e-01,2.64470e-01,-2.22699e-01,3.86726e-02,4.09183e-01,5.90146e-02,2.60994e-01,-5.47140e-03,3.56811e-02,-2.27304e-02,-6.32827e-03,2.04903e-01,2.08883e-01,7.65182e-03,
1.83660e-02,-4.77883e-02,3.33532e-02,1.04641e-02,-5.21668e-02,-7.44054e-03,-4.95973e-02,-6.05217e-02,-4.17800e-02,-7.15268e-02,-1.42320e-02,-7.61696e-02,1.75423e-02,6.42826e-03,-2.28450e-02,-3.70961e-02,-2.66164e-02,2.45195e-03,-3.80237e-02,-4.77070e-02,-3.69796e-02,-6.08776e-03,7.72847e-03,-5.51935e-02,1.76769e-02,-1.15262e-02,8.58909e-03,4.01875e-02,4.64374e-02,-2.17003e-02,-6.44797e-03,-2.06108e-02,3.04324e-02,-3.95081e-03,-1.45503e-02,-1.49060e-02,-1.61602e-02,-6.50866e-02,-2.04844e-03,2.22593e-02,3.19496e-02,-6.95000e-02,-2.66023e-03,8.91686e-04,2.47969e-03,
3.22269e-02,-1.80581e-01,7.14727e-01,-1.11549e-02,8.77487e-02,-9.27813e-03,2.34082e-01,1.39366e-01,9.86455e-02,1.71572e-02,1.07918e-01,6.88478e-02,-2.70221e-02,-2.37868e-01,-2.17792e-01,2.40730e-01,-9.39462e-03,4.60925e-02,4.79229e-02,-1.55133e-02,9.38920e-03,-8.22267e-02,2.19000e-01,1.90686e-01,1.82478e-02,-4.16360e-02,1.05129e-01,-4.49098e-02,-9.74312e-04,4.93837e-01,2.39484e-02,7.73967e-02,2.92293e-01,2.95302e-01,-3.46453e-02,-3.82570e-02,-1.36674e-01,-3.28607e-01,1.00507e-02,1.13132e-01,1.24767e-01,-1.73642e-01,8.74659e-02,-1.69278e-01,-4.82722e-02,
-2.34063e-02,-4.86379e-01,-6.75254e+00,-2.13820e-01,-3.72258e-01,-1.09259e-02,3.42824e-02,1.25093e-01,3.67660e-01,2.78762e-01,-1.72387e+00,-7.13113e-01,-3.88654e-02,1.50665e-01,-1.28751e-01,-2.59502e-02,1.92113e-02,2.71296e-01,5.59095e-01,-5.17013e-03,6.91539e-03,2.75693e-01,-5.94768e-01,-1.84925e-02,-3.90991e-02,-1.09827e-01,-5.29662e-02,-4.15692e-01,-3.77156e-02,3.74889e-01,-1.99769e-02,-1.25931e-02,-2.29952e+00,6.17380e-01,-1.52008e-02,-5.47317e-01,4.23374e-02,-1.08768e-02,3.41083e-02,-3.90098e-01,-1.71798e-01,-1.31018e-01,-1.13822e-01,-2.95732e-01,-5.15625e-02,
-1.82738e-02,-8.38231e-01,1.34126e-01,1.47235e-01,4.53319e-01,-6.03919e-02,-2.63773e-01,-1.15279e-01,-1.76506e+00,6.56450e-02,-1.48197e-01,-8.03006e-01,4.23899e-02,1.32388e-02,-7.05375e-03,-2.99454e-01,-4.39701e-02,-1.27610e+00,-7.68331e-03,4.31697e-03,-1.68879e-03,-5.51510e-01,-3.56289e-01,-4.18563e-01,4.78847e-02,-2.49071e-01,-2.74406e-01,-7.22626e-02,3.29749e-02,-1.45828e-01,3.84337e-02,1.59754e+00,-1.89404e+00,2.79865e-02,4.66873e-02,2.96851e-01,4.80795e-02,2.05134e-01,-5.50582e-04,1.63518e-01,-5.76738e-01,-4.61525e-02,-4.23792e-01,-4.40018e-01,1.03735e-02,
3.18814e-02,2.71528e-01,-1.51436e+00,-2.97952e-01,-3.08474e-01,6.37963e-02,5.19630e-02,-7.29511e-01,8.44486e-02,1.64725e-01,-1.79026e-02,-1.48168e-01,-6.00891e-02,-8.57506e-02,1.40961e-01,1.91347e-02,-4.92908e-02,-8.81578e-01,-1.83776e-01,5.20711e-02,1.85712e-03,3.05589e-01,-1.13851e+00,-1.37907e-01,-4.58329e-02,6.02486e-01,1.79060e-02,2.58452e-01,2.69224e-02,3.09090e-01,4.87119e-03,-2.76091e-01,-6.78451e-02,7.30395e-01,2.40042e-02,-1.49687e-01,-1.65715e-01,-7.57365e-01,1.30977e-02,3.77985e-01,-3.06362e-01,-2.01485e-03,-2.12838e-01,3.68772e-01,-1.32284e-02,
-2.16796e-02,4.29376e-01,1.85320e-01,-5.49256e-01,-3.33197e-01,3.03238e-02,-3.50160e-02,-3.94465e-01,-4.81815e-01,4.08727e-02,-2.76426e-01,6.35929e-01,3.74750e-02,5.85992e-02,3.40965e-02,4.20179e-02,-8.78425e-02,4.04500e-01,3.24065e-02,-3.76434e-02,2.92942e-02,-4.08462e-01,-1.32904e-01,1.64886e-01,8.74340e-03,-5.18895e-02,-1.01741e-01,-2.88048e-01,4.27072e-02,-9.87315e-02,-5.47057e-02,4.40797e-03,4.58149e-01,3.63873e-01,3.98774e-02,-5.23098e-01,1.34808e-01,-2.31477e-01,-1.76899e-02,2.76941e-02,-1.06657e-01,5.48042e-02,-3.20969e-02,-2.03206e-01,3.45716e-02,
2.52607e-02,1.01657e+00,1.16438e+00,1.27962e+00,-3.09058e-02,-8.93744e-03,-3.67924e-02,-6.59515e-01,-5.53160e-01,2.72893e-01,6.44879e-01,3.55540e-01,3.67007e-02,-1.16919e-01,7.38930e-02,-4.29298e-02,-5.87701e-01,3.63094e-01,-1.49233e-02,1.25506e-02,-4.52625e-02,1.39340e-01,1.26409e+00,4.56207e-01,1.23454e-02,1.97255e-01,-5.70669e-02,4.14010e-02,1.65350e-02,1.42575e-01,-7.52274e-03,5.20945e-01,-3.15256e-01,5.16089e-01,5.29806e-02,-4.20966e-01,8.03306e-01,-9.79910e-02,5.45399e-03,-3.42870e-01,1.35005e-01,-5.24443e-02,3.05923e-01,1.02466e+00,-2.05690e-02,
-2.35909e-02,-2.50567e-01,3.91491e-01,-4.42734e-01,5.25333e-01,4.73007e-02,-7.30110e-02,-1.30984e-01,3.39621e-01,7.98398e-02,-6.89462e-02,4.82437e-02,5.55965e-02,-2.04825e-01,1.96317e-01,-4.16555e-02,-1.10330e-01,3.79986e-01,-1.97089e-01,-2.46721e-02,4.80127e-02,7.06137e-02,-7.86053e-01,4.65061e-02,-4.97941e-04,-2.97989e-01,3.44041e-01,1.58168e-01,2.40985e-02,-3.71636e-01,2.71325e-02,-3.80372e-01,-6.93281e-01,-6.94474e-02,8.28667e-04,-1.68997e+00,-9.97212e-02,-3.51009e-02,-2.37857e-02,2.75833e-01,1.02398e-01,-2.12644e-02,3.37811e-02,-7.51689e-01,4.85548e-02,
4.63578e-02,-4.64656e-01,1.93859e-01,-2.20881e+00,-3.30396e-01,1.79066e-02,-1.32702e-01,1.93785e-01,7.75464e-02,1.92162e-01,-1.60126e-01,-1.97431e-01,2.59539e-02,-2.25508e-01,1.84098e-01,-5.36765e-02,-4.04602e-02,4.35833e-01,-1.32174e-01,1.36850e-02,-2.56362e-02,-4.59538e-01,-1.28521e+00,2.96993e-01,-3.08016e-02,-2.39369e-01,7.65424e-01,-7.67427e-02,2.29672e-04,-4.37158e-02,-1.06491e-01,-1.34263e-01,-1.39924e+00,3.28250e-01,1.41426e-02,-6.98019e-01,-1.08989e-01,-3.19584e-02,-4.28527e-02,1.05076e-01,-5.78712e+00,-1.99354e-01,-1.87308e-01,-9.99579e-01,4.09903e-02,
-2.31353e-02,4.59890e-01,-1.36019e-01,4.26619e-02,4.39979e-01,-2.07670e-02,-1.73986e-01,-7.96957e-01,2.47103e-01,1.22633e-01,2.08429e-01,-1.77387e-01,2.25388e-02,-1.32287e-01,-1.53685e-01,-1.74439e-02,9.67205e-02,-1.23142e-01,-1.75852e-01,-6.29437e-03,-4.51357e-02,-6.24000e-02,-2.14693e-01,5.22021e-02,3.19644e-02,4.43529e-02,4.80565e-01,-1.93544e-01,-2.67620e-02,3.29611e-01,3.47881e-03,1.62514e-01,-4.19794e-01,4.46437e-01,-1.55229e-02,7.01320e-01,1.56880e-01,7.08642e-01,3.89831e-02,-2.81228e-01,-2.37774e-01,-7.48201e-02,6.09676e-02,1.99074e-01,-1.33074e-02,
-2.71461e-03,4.81466e-02,-8.57501e-01,-1.78231e+00,-4.91301e-01,-4.82430e-02,8.17632e-02,-6.88959e-01,-1.31807e+00,8.81135e-02,-3.78237e-01,-3.48231e-01,1.88326e-02,-3.02790e-01,1.22937e-01,-2.08624e-01,-9.93110e-02,-5.52248e-01,-1.70776e-01,-2.84088e-04,4.90364e-03,-2.99244e-01,-5.05038e-01,-1.68026e-01,-9.69902e-03,-7.39110e-01,-1.16199e-01,2.84052e-01,-9.59926e-04,3.14145e-01,-3.05501e-02,7.73086e-02,4.14001e-02,3.75899e-01,-5.90398e-03,-6.28524e-01,-4.32415e-01,3.05583e-02,3.54455e-02,1.45713e-01,-2.04356e-01,5.08448e-02,3.33877e-01,-1.06952e-01,1.29728e-02,
-5.08688e-03,-1.78300e-01,4.63286e-01,-2.12160e+00,-8.23055e-02,2.18147e-02,-9.34781e-02,3.08713e-02,-3.73787e-01,1.61112e-02,-2.29784e-01,-1.50097e-01,3.96963e-02,-3.39654e-01,1.57027e-01,-1.86868e-03,-9.76713e-02,-1.13091e+00,2.17870e-01,5.54134e-02,2.51241e-02,2.65471e-01,-1.40995e-01,-1.48874e-02,-1.12459e-02,-1.21023e-01,-6.14857e-01,-8.13081e-02,-2.77835e-02,1.35805e-01,5.34620e-02,5.59484e-02,-1.71821e-01,3.93851e-01,3.83365e-02,-9.69633e-01,9.98460e-02,1.16027e-01,-3.16485e-02,1.15771e-01,3.45277e-01,2.27106e-01,-6.74457e-02,-9.80839e-02,-1.99508e-02,
3.26156e-02,2.47098e-01,-6.13109e-01,-8.00447e-02,6.01143e-01,3.89022e-02,-1.54825e-01,3.52338e-01,2.75165e-01,-2.25340e-01,5.09777e-01,1.66990e-01,-1.78541e-02,4.31990e-01,6.70962e-02,-6.46460e-02,1.38138e-01,-6.53089e-01,-3.18417e-01,1.08387e-02,-3.08886e-02,-1.97972e-04,-8.10835e-02,-5.27740e-01,-4.87205e-02,-3.17928e-01,-8.83929e-01,1.34650e-01,-2.18925e-02,-3.30534e-01,-3.63014e-02,-2.30140e-01,1.24639e-01,-4.21830e-01,6.41209e-03,-1.28454e+00,2.36111e-01,-4.86070e-01,-3.86246e-02,5.32706e-02,2.04825e-01,2.21910e-01,-2.01628e-02,4.15904e-01,4.40915e-02,
2.99671e-02,-1.05642e+00,3.83124e-01,-3.95429e-01,8.46755e-01,-1.84546e-02,4.20967e-02,5.95552e-01,-7.54633e-01,-1.25014e-01,3.10692e-02,2.44416e-01,3.48903e-02,6.20905e-02,-8.65186e-02,-2.57473e-02,5.10570e-02,1.29328e-01,2.58377e-01,2.60977e-03,5.77120e-03,-1.82252e-01,-1.28864e-01,2.45983e-01,-2.55286e-02,2.42678e-02,1.17143e+00,-3.62272e-02,3.34142e-02,-1.03418e-01,-1.91587e-02,1.88993e-01,-4.26172e+00,5.64380e-01,-2.61738e-03,9.54696e-02,7.22726e-02,-3.07964e-01,-1.11190e-03,-4.54984e-01,3.36414e-01,3.33951e-03,4.04547e-02,3.89914e-01,-2.58920e-02,
3.83422e-02,-3.21947e-01,-3.58472e+00,-1.40957e+00,1.39762e-01,-5.12091e-02,5.32403e-03,2.31120e-01,3.24814e-01,-1.83337e-01,6.04297e-01,3.81917e-01,1.42040e-02,-2.07113e-01,-4.98339e-02,-1.44983e-02,-5.17970e-02,1.41684e-02,-4.75074e-01,-2.56158e-02,-1.31210e-02,1.28546e-01,7.26522e-01,1.24996e-01,3.74343e-02,-3.12075e+00,3.04729e-01,-2.44189e-01,4.85013e-02,6.56443e-01,-3.94169e-02,1.98079e-01,-2.35670e-02,5.43320e-01,1.21488e-02,8.29685e-01,-6.44502e-02,1.73706e-02,-3.98271e-02,-1.35712e-01,9.17943e-02,2.48747e-01,-2.03691e-01,-7.71791e-01,-4.57518e-02,
3.18159e-02,-5.53133e-01,2.89866e-01,1.65994e-01,6.61717e-01,-3.01448e-02,-9.12345e-02,1.91253e-01,8.67786e-01,1.88159e-01,-6.17542e-01,3.88223e-01,-1.85183e-02,4.76555e-01,-2.99127e-01,-3.08775e-01,-8.96298e-02,5.58592e-01,-3.22504e-01,1.88766e-03,7.31438e-02,1.24353e+00,4.54217e-01,-3.37957e-01,1.86763e-02,3.91688e-01,2.28506e+00,-5.25853e-01,-4.83455e-02,8.18871e-02,-3.71877e-02,9.68531e-01,6.70641e-01,1.04429e+00,-3.47623e-02,-8.95544e-02,-1.29988e-01,1.95634e-01,7.82398e-03,1.22221e-01,-1.21090e-01,1.27308e-01,-7.35030e-02,-6.54753e-01,-2.24220e-02,
-1.22129e-02,2.82599e-01,1.79181e+00,-3.08018e+00,6.53770e-01,-2.96688e-02,-4.56616e-02,2.06545e-01,-3.66474e-01,3.83937e-01,1.81212e-01,-5.04430e-01,4.99559e-02,-3.00037e-01,-8.28581e-02,4.34421e-02,1.83712e-02,3.57029e-01,8.93343e-02,1.29866e-03,-1.38260e-02,-2.51852e-03,-7.31873e-01,3.91389e-01,-2.70529e-02,7.77799e-02,-9.26605e-02,4.19840e-01,3.68349e-02,2.93048e-01,-2.00682e-02,2.13728e-01,-8.46334e-01,-8.25279e-02,-9.44199e-03,-2.57609e-01,-4.30265e-01,2.17437e-01,4.29317e-02,-1.90805e-01,-7.47668e-01,-1.86143e-01,-7.62109e-01,1.33044e-01,-2.13594e-02,
-4.40542e-02,2.30399e-02,-3.44988e-02,1.76903e-02,1.11091e-02,-4.11861e-02,-2.26806e-02,8.27038e-03,-1.36739e-02,5.78241e-03,-2.20852e-02,-2.30430e-03,-2.79009e-02,1.32932e-02,-9.56149e-03,-3.96604e-02,-2.87411e-03,-4.83053e-02,-4.09784e-02,-2.27059e-02,2.90271e-02,-4.17899e-02,2.05955e-02,-6.16332e-02,2.27866e-02,-4.46076e-02,-1.84460e-02,-4.75157e-02,2.62710e-02,-1.87276e-02,-1.72992e-02,1.05938e-02,-3.66181e-02,-4.00892e-02,-3.46350e-02,4.08845e-02,-6.66737e-02,-2.78111e-02,1.06610e-02,1.82005e-02,-4.93656e-02,-3.97413e-02,-2.65121e-02,-5.62263e-02,2.60148e-02,
2.84817e-02,6.49457e-01,5.68367e-01,2.55125e+00,4.90379e-01,1.73980e-02,3.27418e-01,8.24348e-01,-3.22639e-01,-7.78017e-01,4.74950e-01,1.98505e+00,4.40427e-02,-3.34778e-01,-4.72455e-02,1.00688e+00,1.81406e-01,6.63644e-01,-2.59656e-02,2.75398e-02,-4.05898e-02,1.62871e+00,1.74976e+00,-2.11946e-01,6.01218e-02,1.18985e+00,-7.17294e-01,-4.24005e-01,7.29957e-04,8.67523e-01,4.26578e-02,-1.87123e-01,-6.63450e-01,8.57016e-01,-2.17973e-02,8.64376e-01,5.29624e-01,-2.76152e-01,-2.32953e-03,-6.77988e-02,1.71323e-01,-9.30950e-01,1.97228e+00,2.10422e+00,2.67660e-02,
8.29709e-03,-4.51652e-02,2.57993e-02,-1.96100e-02,-6.83259e-02,-3.45495e-02,3.07884e-02,8.44199e-03,4.81135e-02,-2.63330e-02,9.35772e-02,-4.37915e-02,2.62521e-02,-5.42769e-02,-2.83148e-02,-3.61591e-02,-6.25680e-02,3.53230e-02,-1.29135e-02,-4.30380e-02,1.77023e-02,-5.86336e-02,7.26154e-04,-2.42491e-02,2.15504e-02,-3.91618e-02,1.95469e-03,4.56757e-03,-4.17262e-02,2.35034e-02,3.83250e-02,3.01215e-02,1.11008e-01,-1.23474e-02,2.68552e-02,-6.92365e-02,-2.29592e-02,-6.40886e-02,2.84137e-02,-2.33173e-02,9.85972e-02,-6.94131e-02,4.39198e-02,-8.73674e-03,2.14158e-02,
-2.34813e-02,1.19058e-01,2.68024e+00,1.87466e+00,2.57564e-01,-5.18501e-02,-4.49177e-02,-2.51593e-01,6.81524e-01,-5.99174e-02,2.99307e-01,3.53650e-01,-1.57549e-02,-3.20100e-01,-1.92401e-01,6.18467e-01,3.76630e-01,5.36065e-01,4.19418e-01,-5.59622e-02,2.45603e-03,4.34512e-01,7.28100e-01,-2.46928e-01,6.45730e-02,5.09532e-01,-7.27083e-02,4.06335e-02,5.22204e-03,-5.47020e-02,-6.45489e-02,-1.44987e-01,-1.89092e-01,6.97078e-01,-1.88917e-02,5.64360e-01,-4.87182e-01,-8.68951e-02,-4.86143e-02,5.95057e-01,-3.26338e-01,1.22212e-02,7.35679e-03,-6.97901e-01,-6.29366e-03,
-2.67228e-02,-8.33238e-01,4.78647e-01,-1.11081e-01,-1.53085e-01,8.16712e-02,-2.17073e-02,3.49732e-01,-2.97095e-01,-3.15374e-01,-1.54170e-01,3.71187e-01,-3.90983e-02,-5.78112e-02,1.46307e-01,3.68158e-02,-4.87004e-02,6.77795e-02,-2.46334e-01,2.19789e-02,-1.26670e-02,1.38963e-01,6.97302e-01,2.92172e-01,-2.23704e-02,1.58599e-01,2.87892e-01,-8.25017e-02,-1.35292e-02,-1.87005e-01,2.61378e-02,-3.09409e-02,6.43007e-02,1.90833e-01,4.61856e-02,-7.40708e-01,7.27858e-02,3.72163e-01,-1.77589e-02,1.83358e-02,2.60924e-01,3.05816e-01,-2.46261e-02,-2.73091e-01,2.84374e-02,
-2.24055e-02,-2.16245e-01,-3.91945e+00,-1.17015e+00,-3.78432e-01,1.85155e-02,6.38263e-01,1.38903e-01,-2.53902e-01,3.44405e-01,-6.05591e-01,-6.31502e-01,-3.48978e-02,-6.11890e-01,6.96833e-02,-2.56142e+00,-6.19437e-02,-4.20683e-01,-5.68281e-02,1.88518e-02,3.00155e-02,-3.41542e-01,-4.02187e-01,-1.01288e+00,-3.77612e-02,9.98918e-01,-4.18033e-01,6.38218e-01,1.84744e-02,-1.34830e+00,-1.11906e-01,-2.44585e-01,-1.26774e+00,-9.58646e-01,-4.44543e-02,-7.02628e-01,7.64294e-01,5.08537e-02,-5.01447e-02,-3.11597e-01,-2.88074e-01,-2.80061e-01,-2.65690e+00,-7.82245e-01,-4.22882e-02,
1.43505e-02,8.16380e-01,2.08451e+00,2.35523e+00,2.46964e-01,-1.98279e-02,-1.15122e+00,-1.20025e-01,-2.50173e-01,1.12212e-01,1.45190e-01,3.39493e-01,-4.47776e-02,2.01631e-01,-1.48617e-01,2.87947e-03,1.78264e-01,-7.01010e-02,-8.53380e-02,-1.83317e-02,5.60679e-03,-1.69257e-02,6.74285e-01,3.36385e-01,7.33065e-03,-7.30812e-01,7.60179e-03,-2.60117e-01,5.75234e-02,1.98324e-01,2.67662e-02,1.73475e-01,-4.03524e-01,4.94161e-01,4.96761e-02,9.94942e-01,-5.52093e-02,-4.04394e-02,-3.51622e-02,-9.72838e-02,-4.48391e-01,3.18038e-02,-7.01233e-01,3.87177e-01,1.76998e-02,
-3.44505e-02,1.53793e-01,-1.38296e+00,-3.25162e+00,-7.87183e-02,6.31906e-02,2.90664e-02,-3.56297e-01,4.54752e-01,1.24269e-01,-1.96957e-01,3.02347e-01,9.42535e-03,-2.44720e-01,7.05863e-02,8.79784e-02,-3.33244e-02,7.85823e-01,3.64617e-01,-1.41495e-02,-9.36604e-03,2.91516e-01,8.90269e-02,-1.66716e-01,4.58398e-02,-2.16143e-02,-5.51335e-01,-1.23889e-01,-8.92202e-03,-2.22389e-01,-1.00457e-02,1.94019e-01,4.98752e-01,2.11654e-01,-4.00316e-02,-4.77669e-01,-8.32772e-03,-4.34430e-01,-1.98350e-02,1.72891e-01,-4.41341e-01,1.58008e-01,-1.80088e-01,7.74879e-01,1.43854e-02,
3.08647e-02,-3.79963e-01,3.08927e-01,1.60008e-01,5.43144e-01,-6.55139e-03,-1.72111e-01,1.05632e+00,3.83351e-01,9.19616e-02,2.15978e-01,-2.11487e-01,2.36180e-02,-7.88333e-02,2.32581e-01,-1.64061e-03,-2.27237e-01,4.69476e-02,3.34485e-01,-2.15764e-02,-3.69761e-02,4.58802e-01,-1.08065e+00,-9.19821e-02,-1.88839e-02,-2.97497e-01,7.63209e-01,-4.60143e-02,-4.90408e-03,-1.91040e-01,-3.02903e-02,-5.06971e-01,-7.39222e-01,-1.07270e-01,-4.62670e-02,-1.57661e+00,-1.42141e-01,-7.32757e-02,3.50511e-02,6.96590e-02,-1.65959e+00,2.06005e-01,-5.07996e-02,-3.53100e-01,-1.50434e-02,
-1.17889e-04,-8.21226e-02,2.02218e-01,-1.54406e-02,1.63832e-01,-2.98300e-02,3.80725e-03,5.94849e-01,2.53675e-01,1.24502e-01,4.37900e-01,-8.94173e-01,-2.57643e-02,-2.50717e-01,-2.42144e-02,-3.18268e-03,3.94416e-02,5.68602e-02,-2.04283e-01,-1.47428e-02,-3.83699e-02,-1.57769e-01,2.25492e-01,-1.64928e-01,-2.73254e-02,-5.01007e-01,-8.89561e-01,-8.19632e-02,-3.21825e-02,-1.71314e-01,-2.63613e-02,2.34339e-01,4.29537e-01,1.75798e-01,-5.22426e-02,-2.29264e-01,-8.06708e-02,-2.25097e-02,-1.60882e-02,5.99470e-02,-2.58542e-01,7.50938e-02,-3.29578e-02,-3.06823e-01,-2.47890e-02,
2.44876e-02,-1.51740e+00,-2.16919e+00,-8.28178e-01,-5.29735e-01,4.38691e-02,2.95079e-01,5.93823e-01,1.10016e+00,1.52283e-01,-1.02847e-01,-3.53632e+00,1.26921e-02,-3.12719e-01,-2.25131e-01,-1.39304e-01,3.43211e-01,3.44613e-01,-1.40786e-01,1.87943e-02,-3.79456e-02,3.27196e-01,2.77751e-01,2.33901e-01,-3.78934e-02,4.67959e-01,5.77801e-01,-4.90639e-01,5.19141e-02,-4.72459e-01,8.74967e-03,-2.61647e+00,-5.68849e-01,4.57813e-01,-3.04163e-02,6.65421e-01,2.13000e-01,-1.46426e+00,3.87572e-02,3.69488e-01,-4.57196e+00,-1.92455e-01,-9.52947e-01,2.65792e-01,8.93689e-03,
5.26087e-03,-5.22526e-01,9.88443e-01,-1.85641e-01,-1.36732e-01,4.67261e-02,-1.10231e-01,-1.07239e-01,-3.29686e-01,-2.04701e-02,7.25225e-02,2.44052e-01,1.48887e-02,-1.62763e-01,1.35885e-01,-1.58891e-02,-3.17048e-02,3.72735e-01,-3.44633e-01,-3.44900e-03,-5.16693e-02,1.21504e-01,8.55647e-02,-2.54178e-01,6.32520e-02,-2.72904e-02,9.98886e-02,2.56522e-01,1.46085e-02,-2.74187e-01,-3.06248e-02,-3.04563e-02,6.61790e-01,2.61569e-01,-2.62831e-02,-6.67961e-01,-8.76095e-02,9.67741e-02,6.64298e-03,1.07164e-01,1.42228e-01,2.23477e-01,2.29975e-03,-5.69346e-01,4.02281e-02,
3.35014e-02,-1.29560e-03,-3.30802e-02,-5.50465e-02,-1.15948e-02,-1.19752e-02,1.84067e-02,-2.10146e-02,-5.05496e-02,-4.11750e-02,-3.03182e-02,1.46908e-02,1.00851e-02,-3.74640e-02,-4.44305e-02,-4.34637e-02,-1.77752e-02,-1.43451e-03,1.65768e-02,-2.65986e-02,-2.28102e-02,-4.83708e-02,1.35475e-02,-3.43953e-02,-3.14767e-02,-1.30841e-02,1.09288e-02,-3.01892e-02,-3.26483e-03,-5.59738e-02,9.15632e-04,2.55133e-02,9.45183e-03,1.30099e-02,-2.46430e-02,1.50647e-02,-2.28701e-02,-5.33236e-02,-2.64547e-02,-8.07869e-03,-2.33189e-02,-1.32470e-02,-4.05516e-03,-1.89851e-02,-3.56593e-02,
