// Neural Network File Format by Kyle Julian, Stanford 2016
7,4,9,45,
4,45,45,45,45,45,45,9,
0,
-8000.0,-100.0,-100.0,0.0,
8000.0,100.0,100.0,40.0,
0.0,0.0,0.0,20.0,-0.432599379632,
16000.0,200.0,200.0,40.0,3.102300001,
-7.13222e-03,1.18767e+00,1.10902e-03,3.90575e-03,
-3.42106e+00,2.69381e-02,4.84523e-03,-5.27202e-01,
8.80505e-02,1.16946e+00,5.90391e-02,-1.84504e-03,
1.71247e+00,-2.19686e-01,2.52208e-01,-2.50733e-01,
-2.57383e-01,7.07186e-01,-7.31278e-01,5.57022e-02,
-2.09253e+00,1.39095e-02,6.05872e-03,-8.25466e-01,
-4.69974e-02,-5.49629e-01,5.55003e-01,3.16359e-03,
2.22572e-03,-5.96447e-01,6.03513e-01,-5.25122e-03,
1.02525e-01,1.70318e+00,-4.60669e-03,6.81133e-03,
1.04127e+00,8.87395e-02,-1.10503e-01,-7.84334e-01,
2.83739e+00,-1.95676e-02,1.84653e-02,1.15625e-02,
8.04776e-01,5.51483e-01,-4.51826e-01,1.26129e-01,
2.65075e+00,-2.90648e-03,2.84796e-03,8.67597e-03,
2.75168e-01,-1.26526e+00,-2.34221e-02,1.07635e-01,
1.43207e+00,-4.69993e-02,5.17559e-02,-4.85196e-01,
4.84314e-01,1.15409e-01,-1.17925e-01,-8.58379e-01,
1.61577e+00,1.27960e-01,-7.84510e-02,-3.25013e-01,
6.69735e-03,1.10960e+00,1.66088e-01,4.33449e-02,
-2.91238e+00,2.06832e-01,-2.49348e-01,-4.28975e-01,
-3.40678e+00,2.50543e-01,-2.46423e-01,3.18786e-03,
7.44932e-01,-3.10112e-01,-1.89557e-01,-6.89812e-03,
-1.25029e-01,5.23082e-01,-4.95541e-01,1.16928e-01,
7.72090e+00,-4.12794e-03,-4.74769e-03,5.52498e-03,
-5.39375e-02,4.46095e-02,1.20265e-01,1.48154e-02,
4.55861e-01,7.35617e-01,3.10067e-02,3.55859e-02,
-3.51185e-01,4.13345e-01,3.95042e-02,-7.44753e-01,
2.96292e-01,-8.74962e-02,-8.77840e-02,1.84742e-01,
1.22103e+00,3.21588e-01,-3.61584e-01,1.54743e-01,
-1.37539e-02,1.21227e+00,7.97193e-03,-5.65671e-03,
4.40053e+00,1.81709e-02,-1.44121e-02,-4.98710e-02,
2.14634e+00,5.21974e-02,-4.62017e-02,-6.83377e-01,
-1.21638e-02,-1.23023e+00,-2.74491e-03,-1.25415e-03,
6.25063e-01,7.33190e-01,2.94202e-01,1.93753e-01,
-1.40932e+00,6.75807e-03,4.49579e-02,-9.75053e-01,
-5.91471e-01,-8.13988e-01,8.13267e-01,-3.85166e-02,
2.64586e-02,-3.17098e-02,3.76516e-02,2.25407e-01,
1.30129e-03,1.08175e+00,-9.42841e-03,1.79626e-03,
-1.59011e-03,3.64510e-03,-6.68243e-03,7.11327e-04,
8.44576e-01,-1.97374e-01,3.27815e-01,2.34287e-01,
-9.14824e-02,-5.01444e-01,1.90203e-02,1.98619e-02,
-1.02341e+00,4.17898e-01,-3.80684e-01,4.83756e-02,
-5.93870e-01,8.18157e-02,-4.79921e-02,-7.87147e-01,
1.48113e-01,3.67607e-01,-2.92570e-01,-7.12429e-02,
4.82585e-04,4.96254e-02,-1.26896e-02,5.81445e-03,
-1.15497e-02,2.40727e-02,-7.09659e-03,-6.73975e-03,
-5.38789e-01,
-1.77099e-01,
2.94300e-01,
2.76393e-02,
1.12786e-01,
-3.27439e-01,
8.26138e-02,
-1.00790e-01,
5.73903e-02,
-3.23533e-01,
1.21963e-01,
-1.22040e-01,
1.14457e-01,
-5.31092e-01,
-7.82590e-02,
-3.93716e-01,
-7.31203e-02,
-9.87729e-02,
-4.50815e-02,
4.98645e-02,
-8.79350e-02,
-5.42621e-02,
9.39394e-03,
1.06589e-02,
-3.42335e-01,
-3.00979e-01,
-6.65318e-02,
2.27737e-02,
-2.76308e-01,
3.51961e-02,
-2.48197e-01,
-1.53292e-01,
-3.92850e-01,
-4.18739e-01,
-2.32586e-01,
5.56276e-02,
-4.89539e-01,
-6.90231e-03,
1.21030e-01,
7.93916e-02,
-1.42564e-01,
-1.78845e-01,
-3.04920e-02,
-4.42568e-02,
-2.62502e-02,
7.14023e+00,2.80686e-02,1.54628e-01,-3.92234e-01,-6.89344e-01,2.21825e-02,-6.54507e-01,-2.80601e-01,4.16077e-02,6.40383e-01,-2.52330e+00,1.07586e+00,-2.60123e+00,-1.08937e-01,6.26574e-01,-4.66831e-01,4.44340e-01,-9.75323e-02,-1.56570e-01,2.47414e-01,8.27726e-02,-2.18718e-01,-1.90201e+01,1.86841e-01,1.25483e+00,-1.56746e-01,-1.92098e-01,-3.93056e-01,-1.41971e-02,1.26870e+00,1.88959e-02,-4.41805e-02,-4.73610e-01,6.20648e-01,2.00268e-01,3.41464e-01,5.73617e+00,-4.44910e-02,3.74536e-01,2.08017e-01,5.89196e-01,-5.87110e-02,-4.02364e-02,-3.28373e-02,5.12417e-02,
-1.35672e+00,1.37098e-01,2.49925e-02,3.91376e-01,3.73545e-01,-1.00741e+00,5.33291e-01,6.73672e-01,6.98521e-02,-1.05291e+00,9.22422e-02,1.12240e-01,6.81581e-02,2.02804e-01,-8.44406e-02,1.15597e-01,-3.11741e-02,1.59657e-01,-3.77678e-01,-3.37417e-02,-1.08353e-01,8.85723e-01,-8.15052e-01,-1.93006e-01,-8.38522e-01,7.60760e-01,-2.93079e-01,-3.64606e-02,-4.18132e-01,2.66493e-01,-1.12406e+00,-1.10159e-01,7.04831e-01,-1.84411e+00,-1.83623e-01,7.37587e-02,-1.60710e+00,-2.56681e-02,-1.33483e-01,4.51326e-01,-2.59777e+00,-9.03690e-01,1.73211e-01,1.32976e-02,2.46281e-02,
8.54748e-01,-3.17461e-01,1.88558e-01,4.90975e-01,2.79996e-01,7.07115e-01,8.07015e-02,2.48081e-01,-1.32919e-01,1.43523e-01,-2.26203e-01,-1.83505e-01,-2.68865e-01,1.91466e+00,2.77520e-01,-2.61764e-01,-3.45816e-01,9.39770e-02,-3.74668e-01,4.29169e-01,4.15917e-01,6.05687e-02,2.85216e-01,-2.10421e-01,-2.60030e+00,7.47003e-02,-8.84413e-02,6.14680e-02,-1.82797e-01,-5.33581e-01,6.20810e-02,3.46881e-01,-3.82084e+00,1.84471e+00,-2.55136e-01,-9.88187e-02,2.30635e-01,-3.39233e-02,-1.72921e-01,8.60878e-02,-2.98389e-01,4.22802e-01,-3.63188e-01,2.44807e-02,1.04345e-01,
5.63296e-01,1.98414e-01,2.51242e-02,-9.31405e-01,-1.91804e-01,9.52380e-01,6.14157e-01,2.26001e-01,-1.97879e-01,1.34128e+00,-1.52132e-01,1.69198e-01,2.38121e-03,5.75849e-01,-3.13241e-01,1.58571e+00,4.74829e-01,-4.78833e-02,4.11313e-01,1.24191e-01,1.09994e-01,2.52147e-02,-5.91631e-01,-7.04384e-01,9.64974e-01,9.32968e-01,-7.72490e-01,-2.36059e-01,-1.64814e-01,4.16988e-01,1.53283e+00,8.50035e-01,-1.91347e+00,1.28779e-01,-8.13870e-01,5.29877e-01,1.96720e-01,3.90704e-02,-8.14046e-01,1.86234e-01,1.96682e-01,4.21287e-01,4.53146e-03,5.60615e-02,-2.25819e-02,
-2.63436e+00,1.42167e-01,9.41464e-01,1.14539e-01,-2.64777e-01,2.10645e-01,-2.24211e-01,-1.67883e-01,1.68271e+00,-1.77853e-01,1.66191e-01,-1.24364e-01,1.49388e-01,-7.65573e-02,9.93958e-02,-1.54183e-01,-2.45583e-01,9.86846e-01,-1.66866e-01,2.70850e-01,-2.37516e-01,-2.23300e-01,1.86953e-01,-1.11421e-01,-1.30226e-01,-6.74441e-01,4.25859e-02,-1.01981e-01,-3.86511e+00,-1.89353e-01,-5.89038e-02,1.08687e+00,-2.93079e-02,1.35750e-01,-3.59318e-01,-4.15750e-01,-2.28224e+00,-9.60381e-03,1.12724e-01,-4.51484e-01,6.51756e-01,-3.32226e-01,6.28759e-02,5.61843e-02,-4.93247e-03,
-4.62098e+00,2.00734e-01,3.64993e-01,-4.36631e-01,1.73035e-01,7.26912e-02,-9.53524e-02,1.95779e-01,2.52098e-01,-1.85011e-01,9.34495e-03,-8.98270e-01,-4.65728e-02,3.44802e-01,1.72569e-01,-3.77453e-01,8.76986e-02,-6.72999e-01,1.11818e-01,-1.19635e-01,-1.07434e+00,1.63788e-01,-2.44401e+00,-5.43108e-01,1.13249e+00,-2.62821e-01,-3.51980e-02,-2.40727e-01,1.59016e-01,-1.14602e+00,-5.25669e-01,-6.43749e-01,1.44636e+00,3.84653e-01,3.88819e-01,-5.15922e-02,-3.67831e+00,3.19794e-02,-1.16474e-01,-1.63985e-01,-4.38210e-01,-1.30023e-01,8.50753e-01,-2.53184e-01,-2.76858e-02,
3.45913e+00,-1.82466e-01,4.39036e-02,3.83342e-01,-7.57851e-02,7.12824e-02,-7.27893e-01,-4.72334e-02,3.89674e-01,-2.01224e-01,1.59689e-01,-1.95623e-01,2.46121e-01,1.39366e+00,5.31264e-01,6.52135e-01,3.95019e-01,1.54702e+00,3.92275e-01,-1.32765e-01,-4.73986e-01,3.42466e-01,-2.06371e-01,-4.92028e-02,2.29915e+00,4.06253e-01,7.91597e-02,-1.76336e-01,-1.42751e+00,5.26414e-02,-4.49565e-01,4.33821e-01,-5.12869e-01,-2.52539e-01,5.93386e-01,1.26657e-02,3.54382e+00,-3.52930e-02,-6.98519e-02,6.61585e-01,5.54150e-01,6.38995e-02,4.63050e-01,-2.88140e-02,1.60287e-01,
3.66369e+00,-1.89673e-01,3.54801e-01,-2.20374e-01,-4.55281e-01,-1.32721e+00,8.31834e-01,9.53887e-01,-2.63540e-02,1.43027e-01,5.50447e-02,-7.88074e-02,8.61473e-02,7.84994e-01,-6.55669e-02,-9.54684e-02,-6.92870e-01,1.40988e-02,2.02932e-02,2.56862e-01,-9.89177e-02,4.04329e-02,-1.01552e-01,5.35011e-01,1.20124e+00,-6.07904e-01,3.14379e-01,1.57985e-01,-2.11873e-01,1.62396e-01,3.02784e-01,-1.89781e-01,-1.37513e-01,-1.55876e+00,-7.38957e-01,-5.67004e-01,2.53960e+00,4.86490e-02,1.80430e-01,-1.46431e-01,-1.05936e+00,-1.96779e-01,9.15426e-02,-7.18959e-02,9.86275e-02,
1.67350e+00,-8.22495e-01,2.59264e-01,-6.17460e-01,-2.23641e-01,-2.01241e+00,9.17802e-01,1.21639e+00,7.57403e-02,1.12433e-01,1.41173e-01,-1.28204e-02,5.44440e-02,-6.00550e-01,1.18919e-01,-5.13369e-01,4.60915e-01,-1.48032e-01,-6.53637e-01,5.24830e-01,-2.84539e-01,-3.24619e-01,-1.46018e-01,1.76843e-01,-1.06965e+00,-8.64322e-01,-1.97218e-01,-3.65317e-02,-3.64151e-02,3.16468e-02,-7.37802e-02,3.48480e-01,8.28802e-02,-2.28859e+00,-7.10033e-01,-4.67422e-01,1.07357e+00,-5.11237e-02,3.11259e-01,8.56293e-02,-4.47086e+00,1.04491e-01,1.65464e-02,1.90906e-01,5.92333e-02,
-2.55912e+00,1.53772e-01,5.25437e-02,4.29233e-02,-2.65358e-01,-4.26375e-01,8.34863e-02,-3.31897e-01,4.09772e-01,5.67308e-02,-5.05158e-03,-3.99482e-01,-4.74514e-02,5.16734e-01,1.84145e-01,-5.36437e-01,-1.99846e-02,3.62444e-01,5.95568e-01,-5.64472e-01,-1.34454e+00,-2.18541e+00,3.02345e-01,-1.80356e-02,7.46550e-01,-4.22118e-01,8.67637e-02,-9.77809e-01,-7.29723e-01,-1.47026e-01,-3.59636e-02,-3.29680e+00,3.06563e-01,-4.22178e-01,1.72147e-02,7.47092e-01,-1.67636e+00,-8.99385e-03,-2.45588e-01,2.97231e-01,7.54271e-01,4.20919e-01,-1.19293e+00,-3.19858e-01,6.93235e-02,
3.80005e+00,-8.91998e-02,1.56014e-01,-1.09352e-02,-2.50862e-01,5.99285e-01,3.48552e-01,2.65766e-01,3.49923e-01,-2.24433e-01,-4.69573e-01,-3.40097e-02,-5.53909e-01,-1.36995e-01,1.42955e-02,-1.70401e-01,4.97113e-01,-1.39212e-01,-1.56849e-01,-3.76676e-01,-3.30521e-01,-3.40597e-01,3.67391e-01,1.22099e-01,-3.05118e-01,-1.21364e+00,1.47583e-02,-4.01976e-01,-2.64380e-01,5.84913e-03,-1.50552e-01,6.76064e-02,-8.26605e-01,1.92586e+00,-7.87934e-01,5.44229e-01,2.90589e+00,-3.52750e-02,3.15508e-03,2.68129e-01,-3.10386e-01,6.65867e-01,2.50473e-01,2.42281e-01,8.98737e-02,
-1.19477e+00,1.03603e-01,1.37793e-02,-6.30050e-01,-3.76734e-02,-3.55004e-01,-5.13692e-01,9.48074e-02,5.24257e-02,4.48113e-01,4.77578e-02,-5.12641e-03,-1.33699e-01,-2.64107e-01,-5.04866e-01,1.31165e+00,1.53596e-01,4.24292e-02,7.69885e-02,7.49932e-01,1.28074e-01,2.63488e-01,3.76852e-01,2.07000e-01,-6.71859e-01,-2.14298e-01,-1.58187e-01,1.81405e-01,5.08946e-04,-1.05424e-02,1.12575e-01,5.31491e-02,-9.85396e-01,3.33549e-01,7.97912e-01,9.58623e-01,-9.53185e-01,-1.19880e-02,4.96302e-01,5.67652e-02,-6.28946e-01,-5.76928e-01,-4.62346e-01,-1.60033e-02,-1.30258e-02,
2.93320e-01,-5.97237e-01,2.98261e-01,1.71385e-01,-4.08242e-02,-2.47311e-01,-7.12037e-02,2.79851e-02,5.85178e-03,6.31500e-01,8.65909e-02,2.77006e-01,1.18905e-01,-2.64502e+00,7.38836e-01,4.12013e-01,4.89914e-01,-1.45991e-01,-6.56895e-02,-6.37458e-01,-8.32692e-02,2.03719e-01,-4.40359e-01,-3.85783e-01,-3.75054e-01,-3.84194e-01,-6.53966e-01,7.72261e-02,-2.42364e-01,-3.27623e-01,7.52450e-01,-1.87837e-01,7.38908e-01,-1.14025e+00,9.59928e-02,4.65575e-01,1.04368e-02,-2.57385e-02,-2.76938e-01,1.09926e-01,-2.12121e-01,6.57657e-01,-1.66269e-01,9.81737e-02,1.26796e-01,
3.71135e-01,-6.79142e-01,1.60080e-01,8.20586e-01,-3.24788e-01,-1.34524e+00,4.81519e-02,1.87486e-01,7.25976e-02,5.02455e-01,3.39033e-01,2.96721e-01,3.12518e-01,8.46927e-01,5.34283e-01,-1.15778e+00,8.29979e-01,2.64234e-02,-3.48679e-02,-9.80123e-01,5.04063e-01,-3.92120e-01,-6.58646e-01,8.64417e-02,1.58712e+00,1.55891e-01,-2.18674e-01,-4.06956e-01,-3.58486e-01,3.97603e-01,4.57937e-01,1.61257e-01,6.29881e-01,-1.58496e+00,9.61861e-02,-8.49047e-01,1.84515e-02,1.26973e-02,7.80232e-02,2.09125e-01,-8.61905e-01,3.64055e-01,1.07542e-01,1.52544e-01,8.53502e-02,
-1.67880e+00,-7.35739e-01,1.62144e-02,-1.16185e-01,2.65333e-01,3.26692e-01,7.11556e-02,5.00703e-01,6.16756e-02,1.33441e-01,-2.33331e-02,-3.13167e-01,-3.57663e-02,-9.59228e-01,7.50869e-02,1.11314e+00,-3.30359e-02,-8.15532e-02,-4.45863e-01,-3.33881e-01,-2.13664e-01,-1.00872e-01,1.72984e-01,-1.95273e-01,-3.65332e-01,2.17570e-02,-4.78699e-01,-1.78457e-01,3.26877e-02,3.99589e-01,-7.24816e-02,-9.88312e-02,7.56727e-01,7.89093e-02,-4.97624e-01,3.48358e-01,-1.83824e+00,-3.38866e-02,-1.40037e-01,1.51132e-01,1.34760e-01,4.54255e-01,2.12025e-01,2.35153e-01,3.12537e-02,
-1.37725e-01,-5.30598e-01,9.93674e-02,1.23418e-01,2.25949e-02,-4.14207e-01,-6.23752e-01,-1.98003e+00,2.79388e-01,5.08613e-01,-2.21122e-01,-5.71360e-01,-2.92342e-01,-2.11664e-01,-5.41247e-02,1.23404e+00,-6.18748e-02,4.60392e-01,-3.83953e-01,9.89301e-02,3.02523e-01,8.28370e-02,1.15035e-02,2.94732e-01,1.47916e+00,8.63141e-02,-3.84233e-01,-1.62238e-01,-5.94394e-01,2.90672e-02,-1.12182e-02,7.02654e-01,3.26783e-01,-4.38054e-01,-7.75738e-02,1.90577e-01,-3.46639e-01,9.67373e-04,3.49985e-01,4.69818e-01,-9.93653e-01,-2.14054e-01,-1.68157e-01,1.69642e-01,-2.57320e-02,
-4.73947e+00,2.39175e-01,3.05880e-01,2.54153e-01,1.73409e-02,1.29935e-01,-1.15456e-01,-2.18489e-01,-1.57225e-01,-3.08779e-02,-8.78416e-03,1.69930e+00,-2.73746e-02,-1.40076e+00,-7.47740e-02,-9.07224e-02,5.72325e-02,6.85648e-02,3.49072e-01,-3.57631e-01,2.21713e-01,-4.27088e-01,-3.63917e-01,1.33348e-01,2.55694e+00,-1.12602e+00,1.54721e-01,-3.54666e-01,-1.06506e-01,2.11474e-01,-2.52296e-01,7.32172e-02,1.94303e+00,-2.29680e-01,4.45052e-01,-1.01051e+00,-2.99887e+00,-1.67239e-02,-4.78351e-01,3.01203e-01,1.31689e-01,-1.11433e-01,-1.17143e-02,-1.54848e-01,7.21921e-02,
1.61201e+00,-5.91434e-01,-7.34673e-02,-6.30824e-01,5.47570e-01,-1.35935e+00,3.67451e-01,2.49464e-01,2.28554e-01,-1.49059e+00,3.98415e-01,1.01778e-01,3.19260e-01,-3.15096e-01,-4.22812e-01,-5.57021e-01,-3.16727e-01,-1.74479e-01,9.30207e-02,1.04302e-01,-2.95234e-02,2.05193e-01,-2.79719e-01,-3.45409e-01,1.12374e+00,4.82114e-01,1.23959e-01,3.94256e-01,-5.31057e-02,-2.25049e-02,-8.98479e-01,-2.03867e-01,8.16443e-01,-1.67027e+00,-2.38650e-01,-7.63838e-02,1.03062e+00,3.64915e-02,-3.19248e-01,3.98851e-01,-7.38808e-01,6.19922e-02,1.87673e-01,1.19630e-01,5.45637e-02,
-2.20746e+00,-4.29979e-02,9.08048e-02,6.76036e-01,-1.61642e-01,-8.92705e-02,-1.47891e-01,1.34300e-02,2.55597e-01,9.57023e-03,4.26245e-01,4.18475e-01,3.33327e-01,1.15354e+00,6.01296e-01,6.09001e-01,6.21527e-01,-6.53789e-02,2.33362e-01,-1.08266e+00,7.60909e-01,6.50939e-02,-8.15623e-01,-3.02504e-01,-1.49807e+00,-2.39128e-01,-1.08019e-01,1.32442e-01,-5.03142e-01,-9.66677e-02,-2.39352e-01,5.11038e-01,2.55159e+00,-3.37741e-01,-1.07596e-01,-8.16990e-01,-2.30579e+00,-1.59173e-02,-9.52381e-02,-9.77590e-02,-1.22782e+00,4.71571e-01,4.83229e-01,1.11094e-01,8.72370e-02,
-2.19861e+00,-5.97599e-01,-1.88262e-01,-2.00072e-01,9.26239e-02,-1.44981e-01,3.03625e-01,-2.09476e-01,-2.22562e-01,5.98284e-01,-1.68104e-01,6.27806e-01,-1.09337e-01,3.82278e-01,-3.01355e-01,3.50122e-01,-6.77479e-02,1.20046e-01,3.49602e-02,-4.96272e-01,-6.91533e-02,-4.61400e-02,-1.94886e-01,2.24414e-01,7.61625e-01,5.77818e-01,-3.83997e-01,-1.07122e-02,5.80370e-01,2.36061e-02,8.18144e-01,-4.34599e-01,-1.95530e+00,5.67394e-01,5.71506e-02,-1.24373e-01,-2.17110e+00,3.80410e-02,-2.29937e-01,6.58678e-01,-1.45910e+00,2.10570e-01,4.65401e-02,7.48810e-02,5.20720e-02,
4.55252e+00,5.28195e-02,-2.08740e-01,-1.05737e-01,4.52986e-01,3.78692e-01,5.32573e-01,1.32563e+00,1.33673e-01,1.21705e-01,5.88323e-02,-9.30676e-01,1.68413e-02,-9.30046e-02,2.09448e-01,-1.17809e+00,-4.46213e-01,4.73612e-02,-2.06931e-01,1.46631e-01,7.62349e-01,-4.18336e-01,-2.08888e-01,3.47859e-01,-5.08974e-01,1.12305e-01,2.62484e-01,-3.06691e-01,5.74593e-02,3.58362e-01,1.08016e-02,-2.51432e-01,-4.75436e-01,1.74913e-03,-4.32124e-01,9.70534e-02,3.86824e+00,3.41815e-02,-3.97096e-02,-9.58679e-02,-8.37825e-01,-4.64341e-02,2.18712e-01,1.29657e-01,1.16662e-01,
5.46798e-01,6.01159e-01,-1.05523e-01,-7.49804e-03,5.44093e-02,3.99531e-01,-1.00597e-01,-6.17245e-01,1.41479e-01,-4.17621e-01,-2.74781e-01,-1.27529e-01,-2.55593e-01,-4.25014e-01,-2.76226e-01,-1.98280e+00,8.98745e-02,-4.75098e-02,1.11747e+00,5.10824e-01,-2.99248e-01,2.42868e-01,-1.17416e+00,-3.16132e-01,8.68748e-01,1.58630e-01,9.49620e-01,2.53716e-01,-2.23221e-02,-2.88183e-01,-1.29625e+00,1.56957e-01,1.66262e+00,-5.67992e-02,7.34430e-02,-1.47413e+00,3.04098e-02,-3.49712e-02,-3.09553e-01,-1.38158e-01,-5.37836e-01,8.75262e-01,5.36377e-01,2.58573e-01,2.30821e-02,
-1.94506e+00,5.06378e-01,7.65902e-02,2.14272e-01,-1.03866e-01,2.77402e-01,1.85068e-01,1.70833e-01,2.96300e-02,8.00972e-01,-3.36348e-01,-6.59841e-02,-2.15212e-01,-8.44246e-02,5.91502e-01,5.56556e-01,2.44025e-01,-2.99569e-02,2.08561e-01,-1.10821e-01,1.86369e-02,-3.93080e-01,-1.36443e+00,-4.00675e-02,1.06258e+00,-1.06631e-01,1.14365e+00,1.04802e+00,-8.21191e-02,-1.24051e+00,4.54304e-01,-2.17596e-02,1.44748e+00,9.76411e-01,-5.43281e-01,-1.36055e-01,-1.42421e+00,-4.00277e-02,-3.62429e-01,1.65250e-01,-4.71928e-01,5.73467e-01,8.71380e-02,-7.39650e-02,8.74234e-02,
1.40356e+00,1.14046e-01,7.54739e-01,-2.71872e-01,-4.05871e-01,-8.85988e-01,-1.42847e-01,-2.26464e-01,8.43403e-01,-1.26431e-01,4.92476e-02,1.74659e-01,1.80764e-02,2.41954e-02,-1.44438e-01,-3.28311e-01,-8.19448e-03,1.75641e-01,1.26081e-01,-2.19344e-01,-1.11412e-01,4.06751e-01,1.67289e-01,-2.59173e-01,-7.19149e-01,3.07207e-02,-1.25782e-01,1.77075e-01,-2.12453e+00,-7.79147e-02,7.67837e-02,1.89697e+00,-2.11591e-01,-8.24735e-01,5.67707e-01,-1.44455e-01,1.01349e+00,-3.57083e-02,-1.60595e-01,7.78835e-02,7.94270e-02,4.06107e-02,2.29172e-01,1.35294e-01,7.24962e-02,
-1.91311e-01,-8.59587e-02,6.37348e-02,1.59990e-01,-5.75485e-01,-5.31418e-02,-5.57547e-01,-1.31198e+01,-1.52869e-02,-8.84404e-02,-1.94817e-01,-2.69395e-01,-1.10947e-01,-1.34228e-01,1.04822e-01,5.97322e-01,-2.50482e-01,1.16375e-01,7.96977e-02,7.05638e-01,-2.45734e-02,4.70764e-02,2.25455e-01,1.62221e-01,1.30564e+00,-2.32712e-01,2.96009e-02,5.24371e-03,5.89929e-02,4.78678e-01,-2.89866e-01,-2.15358e-02,1.76798e-01,-4.27985e-01,-1.00558e+00,1.73263e-01,1.28127e-02,4.89951e-02,-3.92167e-02,2.07217e-01,-1.43707e+00,5.86605e-01,2.87656e-01,1.49973e-02,1.30080e-01,
-2.47007e+00,-2.79565e-01,-4.89324e-01,2.58239e-01,7.89520e-02,-2.64310e-01,7.82413e-02,6.16038e-01,4.64266e-01,-3.32042e-01,2.03938e-01,1.36193e-02,2.38612e-01,3.44244e-01,1.11594e-01,-2.93887e-02,2.37276e-01,2.37311e-01,9.94315e-01,-4.81858e-01,1.99581e-01,2.79336e-01,-2.58492e-01,-8.10496e-01,-1.00355e+00,1.19409e-02,1.14375e-01,-1.93723e-01,-5.18675e-01,2.82087e-01,4.96639e-02,7.14188e-01,8.44454e-01,-5.02528e-01,-2.14096e-01,6.81042e-01,-2.72328e+00,-8.04465e-03,-3.17793e-01,2.91878e-01,-4.35330e-01,3.92450e-01,6.42566e-01,1.62348e-01,1.10297e-01,
4.48540e+00,-9.51330e-02,1.65730e-01,-6.30093e-03,8.69887e-02,-1.60246e-01,5.32037e-01,1.10082e+00,-8.89158e-02,-1.04996e-01,7.43101e-03,-1.11671e+00,6.78902e-02,1.37102e-01,2.62098e-01,-2.16806e-01,-4.77044e-01,-2.55360e-01,5.99296e-02,2.32072e-01,-5.36447e-01,6.19055e-02,1.64208e-01,-1.56598e-02,-5.22723e-01,1.35141e-01,1.62956e-02,-2.14516e-01,1.28470e-01,2.57157e-01,8.64912e-02,1.18160e-02,1.22648e-01,-8.01002e-02,-1.21296e+00,7.63928e-01,3.46866e+00,-6.59382e-03,-5.79645e-01,7.73129e-02,1.93972e+00,3.36292e-01,-6.17652e-01,4.76537e-02,1.05374e-01,
-5.01014e-01,4.70228e-01,1.06350e-01,3.60531e-01,-1.11799e-01,-3.54423e-01,-7.15445e-01,-3.77467e-01,1.15228e-01,2.65379e-01,-2.88558e-01,-2.97588e-01,-2.52155e-01,-8.87130e-01,-3.02121e-02,1.30827e+00,3.90386e-02,2.24549e-01,-1.66359e-01,4.76299e-02,7.06507e-01,-5.90515e-01,1.35200e-01,1.31229e-01,1.02052e+00,-5.64157e-02,-3.50374e-01,-2.81803e-02,1.18985e-01,8.99954e-02,-6.38907e-01,-2.84509e-01,1.38149e+00,1.77703e-02,2.70753e-01,-1.24366e-01,-4.02742e-01,-2.17749e-02,-8.88079e-02,1.06348e+00,1.05184e+00,-3.23604e-01,-1.27399e-01,6.44734e-02,-5.27162e-04,
2.67558e+00,1.49730e-01,-3.65202e-01,2.06297e-01,6.88562e-01,5.08873e-01,8.07253e-01,6.56605e-02,9.45418e-02,-5.37928e-02,2.50248e-01,2.35809e-01,2.85118e-01,-5.13328e-01,-6.84254e-05,-8.65588e-01,-1.83452e-01,1.26204e-01,3.95279e-02,-3.39367e-02,5.18022e-01,-1.20574e-02,-2.52591e-01,7.08122e-01,1.10309e+00,5.25759e-01,-2.14307e-01,2.66502e-01,4.91761e-01,8.45485e-02,3.97254e-02,-2.25612e-02,-3.91010e-01,1.46551e+00,-9.28918e-01,1.90695e-01,1.79622e+00,1.63960e-02,-2.98453e-01,4.42971e-02,2.41974e-01,1.49788e-01,4.64618e-01,-1.35217e-01,2.98101e-02,
1.85931e+00,2.72956e-01,-9.94245e-01,1.85443e-01,9.68139e-02,1.75470e-01,-3.55664e-01,-1.99660e-01,1.11760e+00,-2.07151e-01,-1.12691e-02,-7.49422e-01,-4.60105e-02,7.05898e-01,-1.56239e-01,-6.05003e-02,-6.97817e-01,1.06178e+00,-1.62563e-01,-1.18149e-01,2.05854e-01,-6.04336e-01,3.19574e-01,-2.53933e-02,-5.30500e-01,7.64193e-01,-8.98947e-02,9.77197e-02,-1.48337e+00,-1.18129e-01,-2.36832e-02,2.44810e+00,-2.08062e-01,-5.73536e-01,8.63926e-02,-4.57714e-01,1.30557e+00,1.28858e-02,-3.55259e-02,8.71303e-01,-2.92235e-01,-2.66889e-02,-4.72085e-01,4.33948e-01,-1.59217e-02,
-2.75554e-01,1.60309e-01,1.54574e-01,-7.75998e-01,7.25610e-01,-5.52473e-01,-2.10457e-01,1.28160e-01,1.55984e-01,-1.31876e+00,-3.34680e-02,1.17618e-01,9.91649e-02,-2.17382e-01,-6.50839e-01,-1.98141e+00,-1.73185e-01,-1.13916e-01,1.38912e-01,3.96607e-01,1.54002e-01,1.63118e-01,-2.77194e-01,-1.31777e-01,2.01048e-01,-2.64767e-01,1.25329e-01,4.01463e-02,-2.17787e-01,-4.94456e-01,-1.08910e+00,-2.04629e-01,1.66204e-04,-1.71035e+00,-1.11482e-01,-2.18448e-01,-4.63907e-01,4.59369e-02,-4.32359e-01,2.13550e-01,-5.41458e-01,-3.05318e-01,4.15063e-01,3.39302e-02,8.64247e-02,
2.23932e+00,-1.46020e+00,9.36230e-02,-5.66674e-01,4.00684e-01,-2.80144e+00,1.04587e+00,1.67413e+00,2.21370e-01,-6.33807e-01,2.56726e-01,1.33230e-01,2.20758e-01,5.38198e-01,-2.58345e-01,4.07496e-01,1.21891e-01,1.34959e-01,-5.27112e-01,3.29751e-01,1.78232e-01,1.93970e-01,1.48126e-01,-1.10071e-01,4.70917e-01,6.25155e-01,-3.82990e-02,-7.59547e-02,-7.57300e-01,1.68472e-01,-1.89767e-01,2.64225e-01,8.46956e-01,-5.66100e+00,-6.27103e-01,-4.50967e-02,8.90312e-01,2.43661e-02,4.28025e-02,5.34163e-01,-1.41833e-01,-1.74376e-01,2.50105e-01,6.54650e-02,2.18288e-03,
-4.49140e-02,-3.56435e-03,-2.34380e-02,1.20404e-04,-5.56976e-02,-1.40562e-02,4.66251e-04,-2.65406e-02,-4.93068e-02,-2.61371e-02,-1.08683e-02,1.69484e-02,-7.91434e-03,-1.69957e-02,-5.72796e-03,3.57162e-03,-2.49388e-02,-9.46899e-03,-4.81810e-02,2.34570e-02,1.12215e-02,3.41201e-02,-1.43270e-02,-3.94172e-02,2.78714e-02,3.45936e-02,-1.73524e-02,-1.92826e-02,-2.35611e-02,-8.65911e-04,3.03401e-02,1.86308e-02,-2.37466e-02,-1.66390e-02,-2.07168e-02,-3.71965e-02,3.02408e-02,-1.87025e-02,-8.91668e-03,-1.74430e-02,-3.67383e-02,2.12746e-02,-1.31703e-02,-2.74593e-02,2.70516e-02,
3.85224e-03,9.27545e-03,-4.08355e-02,2.64912e-02,2.65349e-02,2.21110e-02,1.10936e-02,-1.81879e-04,-5.80686e-03,-4.34942e-02,-5.11537e-03,-3.82256e-02,1.17336e-02,1.00460e-02,-5.16576e-02,-2.57795e-02,-6.54871e-03,-4.10005e-02,-2.89320e-02,7.40576e-03,-1.07180e-03,1.51843e-02,6.34723e-03,-1.37038e-02,1.12230e-02,-4.67798e-02,-9.46113e-03,-8.54305e-03,-4.79864e-03,-2.56327e-02,-4.29105e-02,-5.53679e-02,2.49406e-02,-3.81441e-02,-3.33195e-02,2.36225e-02,4.28163e-02,3.55060e-02,-3.52621e-02,-1.78277e-02,-4.93764e-02,-1.73326e-02,-1.70467e-02,-3.14062e-02,3.18296e-02,
-6.20220e+00,-2.24713e-01,2.52697e-01,3.12814e-01,-3.08170e-03,-5.00783e-01,-2.99145e-01,-1.82278e-01,4.56568e-02,8.39256e-01,-4.29993e-01,-1.85186e-01,-3.09089e-01,-1.39782e+00,5.88220e-01,-8.09695e-01,9.12665e-02,-4.36880e-01,1.92964e-01,-1.27470e-01,4.48023e-01,4.70616e-01,-1.11573e+00,-2.84319e-01,-9.40335e-01,-2.11756e-01,-4.90091e-01,4.97180e-02,4.61631e-02,-3.45038e-01,7.39507e-01,1.84962e-01,-1.52517e+00,1.18028e-01,8.24122e-01,-1.64100e-01,-5.50310e+00,4.03229e-02,-3.38901e-01,-2.77424e-01,1.16636e+00,4.99724e-01,-1.16183e-01,1.23273e-01,5.84354e-02,
1.17013e+00,-1.90617e-01,-1.17980e-01,-8.16636e-02,5.28053e-01,-1.13337e+00,3.13295e-01,-9.88922e-02,-1.28899e-01,-4.31429e-01,1.51224e-01,4.58734e-01,1.18455e-01,-2.98522e-01,-1.60466e-01,3.67270e-01,-8.96024e-02,-2.02442e-01,-7.45481e-01,-4.83325e-01,-4.94507e-02,4.14782e-01,4.89371e-01,1.03313e-01,2.50899e-01,-4.27000e-01,9.96880e-02,2.58394e-01,5.73009e-01,3.79324e-01,2.47172e-01,-2.43929e-01,-8.43164e-01,-2.44213e-01,-6.18956e-02,-6.61686e-01,1.18705e+00,-3.13944e-02,-2.88145e-01,-5.34981e-01,-4.37051e-01,-4.86626e-01,2.23220e-02,-1.30450e-01,6.05751e-02,
-1.91793e+00,-6.08096e-01,3.40583e-01,5.50048e-02,-2.18908e-01,-1.41748e+00,3.17282e-01,-4.78257e-01,-6.19218e-02,-4.52679e-01,-2.03128e-01,5.00337e-02,-2.84589e-01,-3.28210e-01,1.01199e-01,-1.35000e+00,-3.38208e-01,-1.63778e-02,-5.97475e-01,-1.03612e+00,-4.89394e-02,-9.33400e-02,6.54718e-01,8.87805e-02,2.71146e-01,-5.30553e-01,-1.29289e-01,-2.58057e-01,-1.21154e-01,-1.45799e-01,-1.38222e-01,3.15837e-02,-7.47521e-02,-1.08482e+00,-9.43928e-02,-1.30114e-01,-1.32665e+00,3.02237e-02,1.36405e-01,4.00864e-01,-4.30145e-01,3.97934e-01,-5.76537e-02,-1.56945e-01,3.42631e-02,
-5.06105e+00,-2.42142e-02,1.20981e+00,3.08836e-02,-5.02800e-02,4.85008e-02,-1.58903e-01,-1.18321e-01,1.97241e+00,-1.91164e-01,4.16578e-02,2.45283e-01,7.31941e-02,-7.46667e-01,1.34603e-01,-4.56809e-01,-9.91127e-03,-1.96370e-01,-6.77174e-02,2.76641e-01,-4.97120e-01,-1.97356e-01,6.26399e-02,1.76647e-01,-1.81105e+00,4.01915e-02,-1.54947e-01,3.09723e-01,-3.49761e+00,-2.24759e-01,-1.64279e-01,-2.32014e+01,-7.92001e-01,1.33190e-01,-3.09896e-03,6.38610e-02,-4.29158e+00,8.13893e-03,1.19872e-01,-1.64944e+00,2.75269e-01,4.38841e-02,5.28597e-02,4.70047e-02,5.23447e-02,
-5.43655e-01,5.55742e-01,2.59079e-01,3.22492e-01,2.70236e-01,4.11268e-01,1.63142e-01,7.15990e-02,1.33525e-01,-2.07520e-01,-6.08891e-01,-6.13174e-02,-5.73792e-01,3.75321e-02,-3.79562e-04,3.05449e-01,-4.94751e-01,-2.73324e-01,2.46259e-01,6.25636e-01,-5.46197e-02,-2.98687e-02,-7.72560e+00,2.15201e-01,-4.66667e-01,3.84525e-02,-1.97669e-01,-3.65092e-01,-7.05409e-02,-3.28457e+00,-1.01483e+00,1.56121e-01,-1.82554e-01,3.57031e-01,-2.82971e-01,-1.61599e-01,-5.09967e-01,2.45515e-02,-2.25364e-02,2.54807e-01,-1.50320e-02,1.03436e-01,-4.10019e-01,2.12839e-01,5.51096e-02,
-5.05793e-01,-8.27247e-01,1.19748e-01,3.12208e-01,8.56110e-02,4.99427e-01,1.19762e-01,9.30331e-02,-3.83752e-02,-2.00126e-01,7.54081e-02,-4.08508e-01,8.87749e-02,-5.54418e-01,1.62704e-01,1.14889e+00,-5.08321e-02,-1.20651e-01,-2.62257e-01,-9.93504e-01,-1.15725e-01,6.76532e-03,1.95216e-02,-1.73787e-01,-4.08049e-01,7.33780e-02,-3.39843e-02,-6.03202e-02,1.46763e-01,2.38043e-01,-5.17450e-01,-5.99947e-02,7.51994e-02,2.19053e-01,-3.63257e-01,-4.83820e-01,-4.64522e-01,3.03559e-02,-5.07632e-01,1.39073e-01,-3.28621e-01,3.55426e-01,6.71227e-01,1.69437e-01,5.49428e-02,
-5.65607e+00,4.35462e-02,3.17031e-01,1.31298e-01,2.19006e-01,-3.10898e-01,1.16244e-01,3.87814e-01,2.90788e-01,-3.60543e-01,-6.77591e-02,4.56756e-01,7.70959e-02,-3.70158e-01,4.70861e-01,-3.74938e-01,-1.86878e-01,4.20092e-01,2.29854e-01,-4.89955e-01,4.07081e-01,2.89401e-02,-3.24641e-01,2.94439e-01,-1.85374e+00,-8.40570e-01,2.38467e-01,2.21538e-01,-2.73687e-01,-7.57396e-01,-4.22180e-01,2.20685e-02,-9.31962e-01,-3.24285e-01,-1.76673e-02,4.92947e-02,-5.04412e+00,-2.19702e-02,-1.85889e-01,4.11304e-01,4.98063e-01,3.09839e-01,-7.68030e-01,-2.31224e-02,1.09204e-02,
1.71781e+00,-1.54597e-01,-4.12573e-03,2.50444e-01,6.35906e-01,1.58013e-02,1.14297e+00,-2.28611e-01,1.23192e-01,2.86132e-01,3.68660e-02,6.04689e-02,-2.72723e-03,3.31818e-01,-1.02139e-01,8.26275e-01,-1.51816e-02,1.61599e-01,4.53658e-02,6.98475e-01,-4.44712e-01,6.84381e-01,2.59756e-01,-1.78893e-01,1.16902e+00,4.24570e-02,-2.44539e-02,6.55988e-01,-1.83158e-01,2.32566e-01,-1.56695e-01,-5.97499e-04,1.33527e-02,1.12638e+00,-2.85624e-01,-2.44283e-01,1.27277e+00,-3.80109e-02,-6.81737e-01,1.98177e-01,-2.93625e-02,3.25905e-01,3.31331e-01,3.40737e-02,1.46690e-01,
-1.73708e+00,-8.49637e-02,1.00368e+00,9.61098e-02,-1.21093e-01,7.16346e-02,1.83135e-01,-5.33045e-02,1.01995e+00,1.74041e-01,1.25336e-01,3.03999e-01,8.86913e-02,-3.58523e+00,1.77683e-01,8.45891e-01,1.07405e-01,-2.25391e-01,2.62021e-02,1.81401e-01,5.65046e-01,-6.43124e-02,-6.19734e-02,-1.89466e-01,1.44113e+00,-7.00938e-01,1.88191e-01,-4.15273e-02,-1.29625e+00,-3.15853e-01,-2.58932e-01,-4.73247e-01,5.82654e-01,-4.44630e-02,6.28944e-02,-1.93424e-01,-9.49996e-01,-3.07135e-03,1.48100e-01,-5.08631e-01,-1.30807e-02,1.20249e-02,2.06319e-01,-1.40363e-01,1.98872e-02,
-6.00112e+00,1.01916e+00,-8.97552e-02,1.89355e-01,3.03317e-01,-8.21934e-02,-5.56913e-02,-4.01398e-01,-1.31078e-02,-1.61654e+00,-2.88839e-01,-1.82945e-01,-3.04190e-01,5.84816e-02,2.23310e-01,-1.98503e+00,2.45892e-01,-5.01253e-02,3.71772e-01,-6.09776e-01,-1.91490e-01,4.33238e-01,3.00624e-01,7.66805e-02,-8.32424e-01,4.34304e-01,9.00578e-02,5.20138e-01,5.41531e-02,-2.12234e-01,-3.68270e-01,-7.59053e-02,3.67231e-01,-1.90624e+00,-1.00763e-01,-1.86191e-01,-4.16973e+00,-2.31884e-02,-4.93096e-01,1.30696e-01,-1.08550e+00,4.55119e-01,1.18716e-01,-9.24967e-02,1.42296e-01,
9.11271e-01,-5.03417e-01,-1.62818e-01,1.13498e-01,-9.57985e-02,5.43247e-01,-4.13747e-01,2.28436e-01,9.03971e-02,6.37551e-01,3.20913e-01,-1.28293e-01,3.66256e-01,1.02879e+00,2.52346e-01,1.32525e+00,2.93441e-01,1.86256e-02,2.56325e-01,-8.45281e-01,-4.02328e-01,-3.31282e-01,3.79638e-01,-3.95880e-01,6.98101e-01,7.25869e-01,3.93451e-01,1.47624e-01,-1.99107e-01,2.96964e-01,-6.48933e-01,3.14132e-01,1.23768e+00,6.61696e-01,-2.56276e-01,1.67571e-01,7.71066e-01,-2.65654e-02,-3.66208e-01,1.80166e-01,-1.33140e+00,6.80507e-01,1.70830e-01,-1.26904e-02,9.21970e-03,
1.15957e-01,
-3.30549e-02,
-2.50477e-01,
-4.12345e-01,
-1.87704e-01,
-1.38937e-02,
-2.98167e-01,
-7.74439e-02,
-1.13003e-01,
-2.37982e-01,
-4.00899e-02,
9.60530e-03,
7.27612e-02,
3.86251e-02,
4.13570e-02,
-9.66542e-02,
1.76175e-02,
-3.52138e-02,
-1.58096e-01,
8.91460e-02,
-1.17689e-01,
2.16559e-01,
-1.24568e-01,
-6.67429e-01,
-2.18332e-02,
-1.23119e-01,
-1.46502e-01,
2.19984e-02,
-1.04900e-01,
-3.49941e-02,
4.15564e-01,
-3.14123e-01,
-1.50629e-02,
-1.46425e-02,
3.09882e-02,
2.87002e-01,
2.43763e-01,
2.57578e-01,
1.80010e-01,
5.32643e-02,
-1.05555e-01,
-3.59099e-01,
7.84040e-02,
1.44512e-01,
-1.45209e-01,
-3.61385e-01,-3.36078e-01,-4.92381e-03,3.54468e-02,-5.85885e-02,-2.25580e-01,4.35497e-01,-1.27334e-01,-6.80549e-01,-3.29159e-01,1.06699e-01,-5.62597e-01,3.57653e-01,-3.68649e-01,-9.93479e-01,-6.29185e-02,-4.11444e-02,-5.39698e-02,5.08998e-01,2.86301e-01,4.61476e-02,-1.98823e-01,5.51902e-01,-5.64611e-01,-9.63219e-01,-1.04492e-01,3.42014e-01,8.08598e-03,-1.53584e-01,9.91518e-02,1.12175e-01,-3.27215e-01,-2.03869e-03,4.56693e-03,3.77219e-01,-6.80736e-01,-5.58174e-01,4.01943e-02,2.75978e-01,-2.98593e-01,1.14173e-01,-3.97009e-02,2.88504e-02,4.79558e-01,-1.49079e-01,
-8.78422e-01,3.64507e-01,-5.72676e-01,7.28333e-02,7.78316e-01,-7.90289e-01,5.63758e-01,-2.65452e-01,1.13448e-01,1.19009e+00,1.51302e-01,5.77938e-01,1.07298e-01,2.54384e-01,6.01212e-02,-1.25241e-01,-3.92139e-01,-3.10040e-01,-1.16495e-01,-2.70216e-01,-5.53098e-02,3.99127e-01,-8.17015e-01,8.13480e-01,-3.41267e-02,3.86676e-01,-2.92813e-01,-3.97298e-01,1.75574e-01,1.84905e+00,-7.65790e-01,1.98746e-01,-3.51086e-02,2.14867e-03,-2.49755e-01,-4.60820e-01,-2.77353e-01,5.84347e-01,-5.85452e-01,-1.52391e-01,5.48170e-01,1.26342e+00,-8.68832e-01,-6.45505e-01,5.20698e-02,
-5.51499e-02,-5.94445e-02,-2.98607e-02,-8.53460e-03,-2.66276e-02,4.66889e-03,2.01616e-02,1.49374e-02,5.31053e-03,3.57565e-02,-3.52559e-02,-5.28532e-02,-4.37757e-02,-5.71380e-02,7.23894e-03,9.37856e-03,-1.25666e-02,-5.26061e-02,-1.36733e-02,-4.54828e-02,-3.95657e-02,-2.46414e-02,8.85538e-03,-1.66944e-02,4.14090e-02,3.54660e-03,3.71983e-02,-1.15133e-03,-4.93047e-02,-2.13544e-04,-5.22249e-02,-4.47643e-02,2.53771e-02,3.01532e-02,-3.32407e-02,1.15817e-03,-2.35340e-02,-8.85235e-04,3.67580e-02,3.26327e-03,-2.97729e-02,-1.09901e-03,1.96502e-02,8.67147e-03,-2.51551e-03,
-3.18182e-01,-2.38807e-01,-9.32768e-01,7.24811e-03,-4.18673e-02,-1.15961e-02,-1.46003e-02,4.04778e-01,4.98793e-02,-2.08754e-01,2.29163e-01,-8.70577e-02,3.53690e-01,4.25405e-01,-1.69434e-01,-2.78977e-01,-7.94447e-02,-2.58000e-01,8.25364e-02,-1.89634e-01,-2.92944e-01,-2.61060e-01,-5.66051e-01,-2.61889e-01,2.12085e-01,1.46932e-01,4.26115e-02,1.60419e-01,-4.61303e-02,-8.92998e-02,-5.20828e-01,-1.09681e-01,1.38363e-02,-3.44182e-02,1.82358e-01,1.01421e-01,-1.79689e-02,-4.14681e-03,-1.03235e-01,2.16488e-01,7.76461e-02,7.18154e-02,9.04522e-02,1.22427e-01,-2.69452e-01,
-1.21044e-01,-5.24453e-01,-5.05429e-01,5.26007e-01,3.92362e-02,1.46826e-02,-1.56740e-02,-6.11136e-02,1.31727e-01,-7.65627e-01,-3.53317e-01,-1.63992e-01,4.79636e-02,-8.48855e-03,-1.22028e-01,4.92125e-01,7.90060e-02,-2.44512e-01,-9.07783e-02,3.68087e-01,-1.42110e-01,-1.18609e-01,3.48772e-01,-4.22541e-01,1.79088e-01,8.15774e-03,3.91008e-02,2.57005e-02,6.65341e-02,-5.86048e-01,-3.48009e-01,1.79005e-01,4.47071e-02,-9.71140e-03,-1.70510e-01,1.39786e-01,2.49544e-01,-1.52023e-01,-2.30220e-01,1.18352e-02,8.77223e-02,1.62336e-01,1.50285e-01,3.32703e-01,-4.58646e-02,
-4.46206e+00,-3.67602e-01,-1.11272e-01,-3.74603e-01,5.67913e-02,-4.18859e-01,4.60525e-01,6.48172e-01,1.20989e-01,-7.79736e-01,-1.13010e-01,1.46734e-01,3.06911e-01,4.90753e-02,-2.52215e-01,3.85787e-01,3.92716e-01,4.97202e-02,-1.79821e-01,2.95964e-01,-5.42287e-01,-4.51692e-02,3.83218e-01,6.99606e-01,1.29844e-01,1.05223e-01,2.25428e-02,3.08059e-01,1.17959e-01,-2.75798e-02,1.82131e-01,-3.69982e-01,-2.25248e-02,-4.05070e-02,-1.45827e-01,2.46626e-02,2.17232e-01,-1.51196e-02,5.35351e-02,-8.83224e-02,-4.71469e-01,1.08933e-02,1.76487e-01,3.81511e-02,-1.69685e-01,
-3.74367e-01,-1.24699e-01,-2.89737e+00,-4.95268e-01,-1.55606e-01,5.29013e-01,2.16211e-01,-5.54936e-01,5.77262e-02,-2.45027e-01,-7.73423e-01,2.98591e-01,3.54213e-01,2.19491e-02,-2.99787e-02,2.27087e-01,-6.22088e-02,-4.84118e-01,-1.18358e-01,-1.38817e-01,-1.98653e+00,-4.13586e-02,-5.00140e-01,1.05799e+00,-1.25232e-01,-1.14488e-01,-9.88856e-01,-3.61095e-01,-7.42160e-01,5.87264e-02,1.14238e-01,-9.96495e-02,-3.34298e-02,-2.44296e-02,-2.37908e-01,-4.31633e-01,8.20751e-01,8.92823e-03,-6.09800e-01,-2.85325e-01,2.77373e-01,6.09130e-01,1.75121e-01,-4.99285e-01,-2.43485e-02,
-2.60809e+00,4.11330e-01,-9.50982e-01,1.06547e+00,-8.23132e-02,1.58471e+00,-4.72776e-01,3.72179e-01,3.06129e-01,2.05429e+00,5.00176e-01,5.09973e-02,1.16174e-01,-2.79010e-02,4.61684e-02,1.39875e-01,6.18869e-01,2.07946e-01,4.47197e-01,1.10893e+00,-4.75293e-01,2.21528e-01,9.54208e-02,2.83693e-01,4.54896e-01,-4.35369e-01,-3.20528e-02,9.53990e-02,-1.32107e-01,1.92405e-01,-1.30703e-01,-1.35563e-02,-3.21292e-02,-3.78696e-02,5.17992e-01,2.58947e-01,2.71511e-01,1.69058e-01,-4.87611e-01,-1.99361e-01,8.92993e-01,-3.61078e-01,-3.97174e-01,5.70114e-01,8.92307e-02,
-1.61261e+00,7.31184e-02,-1.27415e+00,-5.76871e-01,-2.15680e-01,-5.26112e-02,-4.38380e-01,-2.88218e-02,-1.34727e-01,-5.27021e-01,6.21340e-01,2.63294e-01,-2.69116e-02,-1.09478e-01,3.48909e-01,7.36275e-01,-1.01649e-01,3.68927e-01,-1.03904e-01,2.89030e-02,-1.45282e-01,1.14917e-02,-6.23219e-01,-1.22592e+00,-1.39940e-01,2.27183e-01,-8.49485e-01,-3.68948e-01,4.87122e-01,4.07673e-02,-9.69408e-03,1.96487e-01,-6.75339e-04,-2.47716e-02,1.62586e-01,-3.53411e-01,1.84969e-01,-6.76620e-03,-1.03552e-01,2.33469e-01,1.08288e+00,-1.83413e-01,4.53635e-02,1.85719e-01,4.60914e-01,
8.26084e-02,3.54635e-02,-2.36467e-01,1.15136e-01,-2.68610e-01,-5.39388e-01,-2.13374e-01,-6.14507e-01,5.29820e-01,-3.82660e-01,3.44719e-01,-3.48218e-01,5.99391e-01,8.49275e-02,3.55145e-01,-6.53724e-02,-2.09855e-01,-3.01884e-01,-5.90860e-02,1.49114e-01,4.76113e-01,2.21841e-01,-3.39579e-01,3.33958e-01,2.64066e-01,1.87090e-01,9.21030e-01,-2.78434e-01,2.78713e-01,-5.07146e-02,-2.28859e-01,3.48491e-01,-7.30644e-03,-6.44493e-03,1.69380e-01,-5.31960e-01,-1.46367e-01,2.41067e-01,-7.46033e-01,1.02761e-01,3.13695e-01,5.18369e-02,3.32655e-02,4.67977e-02,8.71139e-02,
1.18273e+00,-5.01475e-03,1.26669e-01,-2.53092e-01,-1.65572e-02,-1.90028e-02,-6.76723e-02,-3.38994e-01,-3.75550e-01,-2.19985e-01,1.23220e-01,-1.20795e-01,-2.32335e-01,-1.51262e-01,3.23933e-01,3.41218e-01,1.03469e-02,1.26536e-01,5.39129e-02,-2.20935e-01,-7.61241e-01,2.03643e-02,1.62245e-01,1.28864e-01,1.10310e+00,-9.81525e-03,-1.34771e+00,3.35189e-01,-6.30169e-02,-4.93488e-02,-1.25484e-01,-1.33496e-01,-1.07500e-02,1.18880e-02,-2.29358e-01,9.48202e-02,-6.81732e-03,-5.73373e-03,-4.40862e-01,-1.13479e-02,-2.88913e-01,-1.56329e+00,9.12473e-02,2.75532e-01,3.12000e-01,
-3.51565e+00,-4.10080e-01,1.33766e+00,-1.99982e-01,6.41404e-04,4.29783e-02,3.10635e-01,-1.51373e-01,5.23143e-01,1.26694e-01,-1.83005e-01,3.76996e-01,2.46157e-02,-6.41683e-03,1.40572e-01,-1.12244e-01,2.29859e-01,-6.36547e-02,1.10898e-01,2.38013e-01,3.77138e-02,1.06394e-01,9.03542e-01,-6.70084e-01,-3.39257e-01,-1.99825e-01,-2.62904e-01,1.76074e-02,6.61528e-02,2.14174e-02,-7.59675e-02,-1.90577e-02,-1.44539e-02,6.60114e-03,4.52910e-01,-1.82097e-01,4.10164e-02,3.49173e-02,-1.52138e+00,1.03923e-01,-8.26388e-01,9.28673e-02,3.06550e-02,-3.59923e-02,-4.12151e-02,
1.39899e-02,-2.31865e-02,-3.98175e-02,3.53949e-03,5.70441e-03,3.20362e-02,1.54307e-02,-2.21021e-02,1.13855e-02,-5.03862e-02,4.47273e-03,-3.78650e-02,-1.12380e-02,-4.14467e-02,3.74878e-02,1.31032e-03,2.74221e-02,4.65865e-02,2.60240e-02,-4.35627e-03,-2.60411e-02,1.85190e-03,1.72024e-02,9.24486e-03,-2.12155e-03,-4.24494e-02,-2.53901e-03,2.28492e-02,-6.14853e-02,5.92184e-03,1.25847e-03,-2.84433e-02,-3.12849e-02,-1.21159e-02,-5.14636e-02,-1.22887e-02,-4.28179e-02,-5.63231e-02,-2.82237e-02,-2.78970e-02,3.00997e-02,-1.27121e-02,4.79651e-03,-9.78766e-03,-1.45535e-02,
-9.62340e-01,1.46947e-01,2.23858e-01,-7.65485e-01,-7.43560e-02,2.59331e-01,1.10691e-01,-8.48773e-01,-5.16485e-01,8.64879e-01,3.75101e-01,5.33263e-02,-3.12208e-01,5.27245e-02,2.06181e-01,-8.46241e-02,-1.91230e-01,2.43899e-01,-2.69823e-01,1.21504e-01,-3.94213e-01,-3.01212e-01,5.09324e-01,3.44768e-04,1.58231e-01,-1.55168e-01,-3.67705e-01,3.23882e-02,-8.65565e-01,2.73512e-02,8.31834e-02,1.70799e-01,-2.65757e-02,-2.36459e-02,4.99195e-01,3.21147e-01,4.20665e-02,-5.56440e-03,-1.66123e-01,-2.57464e-01,-2.86801e-01,-2.45021e-01,-7.87711e-02,5.29098e-01,3.30880e-02,
7.69141e-01,-4.82777e-01,7.44431e-03,7.09742e-02,-1.33256e-01,3.25826e-01,-8.22033e-01,-1.23879e+00,-4.03816e-02,3.00461e-01,-7.64483e-01,9.03640e-02,-1.53685e-01,3.27430e-01,2.88767e-01,1.15244e-01,-4.10740e-01,1.09392e+00,3.31253e-02,-1.01895e-01,-2.18502e+00,-1.78448e-01,4.72213e-01,3.17218e-01,3.37594e-01,-4.44984e-01,6.07771e-01,-1.97937e-03,-1.16684e-01,3.14581e-01,1.77050e-01,3.11754e-02,2.83480e-03,-4.22031e-02,1.02024e-01,-1.70039e-02,-1.23933e-01,4.47228e-02,1.44385e-02,1.91823e-01,-3.19674e-01,-6.23984e-01,-1.01806e-01,2.42933e-01,8.41957e-02,
-5.56857e-01,1.46969e-01,8.61049e-02,2.59357e-02,-1.77694e-01,5.58746e-01,-7.64637e-01,1.82287e-01,2.51419e-01,-1.56481e-01,2.08793e-01,1.00639e-01,-8.50128e-02,-4.89843e-02,-2.79427e-02,-4.03626e-01,4.66351e-02,5.37158e-02,-2.61668e-01,5.51130e-02,2.01658e-03,-4.85776e-02,1.53841e-01,-1.81178e+00,2.11216e-01,-1.99544e-01,1.37209e-01,-1.45558e-02,-5.69040e-02,1.16744e-01,2.17941e-01,-6.44599e-01,3.54402e-02,-4.16016e-02,-5.70474e-03,-6.70006e-02,4.44537e-01,1.34287e+00,-2.78515e-01,-1.42836e-01,-2.87841e-01,1.64690e-01,3.98072e-01,9.14793e-02,2.12962e-03,
6.04797e-01,-1.14509e-01,4.92173e-02,7.12164e-02,-3.36228e-02,2.15900e-02,-2.38591e-01,4.41329e-01,6.31979e-01,-1.42852e+00,-4.73677e-01,-1.78386e-01,-1.32554e-01,-6.28211e-02,-2.81829e-01,5.06176e-01,3.42256e-01,-6.57216e-01,-1.11633e-01,-8.53774e-02,-2.41830e-01,-4.70752e-01,-4.02130e-01,-6.25602e-01,-3.17332e-02,-3.76432e-02,1.03078e-01,5.57047e-02,4.15842e-01,-1.14942e-01,-2.35970e-01,-3.86108e-01,2.74298e-02,-3.25907e-02,2.63147e-01,-1.93494e-01,1.64222e-01,1.16543e-01,2.89406e-01,2.55474e-02,1.50925e-01,-3.30659e-02,2.15295e-01,-1.02824e-01,3.37115e-01,
-2.85811e-02,3.17151e-02,-4.53163e-02,-7.47746e-02,-1.65149e-02,-2.80844e-02,2.18301e-02,-5.74989e-02,3.53000e-02,-4.49043e-02,1.40827e-02,-7.05238e-02,-3.99509e-02,3.35826e-03,8.15673e-05,-1.16028e-02,-4.12035e-02,-3.65582e-02,-1.11263e-02,3.32170e-02,-4.95725e-02,2.82049e-02,8.71805e-03,-4.09079e-02,-1.97793e-02,5.84346e-04,-4.49002e-02,-6.75383e-03,2.24002e-02,1.35869e-02,-4.06698e-02,-5.27716e-02,9.55813e-03,-4.10690e-02,-5.26466e-02,1.73618e-02,1.70685e-03,-6.00466e-02,-1.46785e-02,-5.96564e-02,-3.13449e-02,1.95799e-02,1.86265e-02,-3.86547e-02,-2.58130e-03,
2.85733e-01,9.27021e-01,-1.92292e+00,6.74870e-02,-3.95121e-02,-4.60274e-02,-6.46935e-02,-1.00356e-01,2.62846e-01,1.29742e-01,1.21367e-01,4.55193e-01,-3.74495e-01,1.67770e-01,3.94494e-01,-1.11853e-01,-7.90792e-02,1.71428e-01,3.46202e-03,-1.27690e-01,1.02958e-01,3.74901e-01,-3.42563e-01,-4.98663e-01,-1.39248e-01,1.16444e-01,4.84292e-01,-8.36457e-02,2.88917e-01,-1.18848e-02,-1.17718e-01,1.07782e-02,2.84109e-02,-3.99224e-02,4.41797e-01,2.02219e-01,1.69906e-01,2.48565e-02,-9.04418e-01,3.68940e-01,1.68688e-01,-2.99338e-01,7.95023e-03,1.18820e-01,3.00880e-01,
1.15538e+00,2.90745e-01,-7.65824e-02,2.45353e-01,1.57432e-01,-1.35912e+00,5.73440e-01,5.31076e-01,-3.97211e-01,-7.77816e-01,5.59005e-01,-3.40980e-02,1.50366e-02,3.59555e-02,6.03510e-03,4.44158e-01,-4.51701e-01,-3.12540e-01,9.39214e-02,5.92836e-01,3.98250e-01,-2.86559e-02,-1.13213e+00,5.66712e-01,-1.59425e-01,-5.64158e-01,1.61399e-01,2.94734e-01,4.44419e-01,2.37910e-01,-2.43967e-01,1.69407e-01,1.15691e-02,2.48788e-02,-6.86051e-01,-3.18358e-01,1.25840e-01,-8.52129e-02,-5.97597e-01,4.04421e-01,-1.01547e+00,4.50549e-01,2.13491e-01,-7.89286e-01,4.18029e-01,
-9.45631e+00,1.66421e-01,2.67579e+00,8.64372e-01,1.36446e+00,-5.14707e-01,1.37487e+00,-7.59974e-01,-8.54685e-01,-8.52762e-01,-3.79512e-01,-7.38083e-03,-4.74364e-01,2.85135e-01,-8.99153e-02,1.62908e-01,3.64888e-02,-3.81814e-01,-2.75426e-01,-7.04408e-01,-1.81743e-02,-1.49284e-02,-7.14587e-01,9.62700e-01,-6.31640e-01,1.27921e-01,-1.44687e+00,2.06594e-02,-3.62629e-01,8.04338e-01,-9.50164e-01,4.03961e-01,-2.45015e-02,-4.31461e-02,-4.45593e-01,-7.39448e-01,5.40689e-02,3.99261e-01,-1.53559e+00,-3.30862e-01,-1.75556e-01,5.89953e-01,3.53967e-01,-8.12501e-01,1.77213e-01,
3.74198e-02,7.71688e-01,-1.04611e+00,4.73474e-03,-9.54900e-02,5.96836e-02,1.48078e-01,4.89418e-01,-3.26963e-01,-5.50874e-02,-2.78029e-01,4.45577e-02,8.01634e-02,4.63336e-01,-7.67391e-02,4.89267e-02,3.95902e-02,-3.33307e-01,5.24712e-01,3.13373e-01,1.77942e-01,-1.38510e-01,-8.18371e-01,-4.21837e-01,-1.45091e-01,1.25679e-01,-4.81856e-01,-4.39311e-02,9.14758e-02,-8.28738e-02,-6.82142e-01,-1.56971e-01,-1.06726e-02,-2.99735e-02,-3.71807e-01,-4.10198e-01,1.26296e-01,1.00308e-01,-5.70900e-01,3.76123e-01,-1.63249e-01,4.84757e-02,4.18424e-02,2.88189e-01,1.79184e-01,
-3.47493e-01,-2.61159e-01,-5.25502e-02,4.81452e-01,2.89994e-02,-2.63654e-01,4.37367e-01,-9.21352e-02,3.53008e-01,6.53220e-01,1.40216e-01,-4.97664e-01,-3.41825e-01,-1.60955e-01,-7.14588e-02,1.09264e-01,7.01932e-02,-2.10328e-01,-1.64237e-01,-1.48154e-01,2.25877e-02,-5.05247e-01,1.09013e-01,-9.81240e-01,-1.53479e+00,2.47293e-01,2.52741e-01,4.55813e-01,-3.63811e-01,3.21389e-02,4.57887e-01,-3.44014e-01,-3.52074e-02,3.33885e-02,8.38543e-03,-3.67990e-01,4.16892e-01,-1.13236e-01,-3.77820e-01,3.07989e-01,-2.91344e-01,-3.10851e-01,2.24641e-01,-2.29850e-02,4.61943e-01,
-9.23908e-01,-4.35057e-01,5.16581e-01,-1.67439e-01,1.88629e-01,2.29765e-01,-3.59806e-01,6.17126e-01,-8.23211e-03,-6.18827e-01,-2.14743e-02,7.46460e-02,-2.26084e-01,2.60118e-03,1.23680e-01,-4.68604e-01,-1.41851e-01,5.64967e-01,-8.38172e-02,1.94073e-01,-3.31319e-01,-3.32485e-02,3.33807e-01,-2.99391e-02,1.14897e-01,-2.57600e-01,9.87721e-02,3.19505e-01,1.77184e-01,1.07918e-01,-2.75143e-02,-2.80101e-01,1.97487e-02,3.42410e-02,4.13649e-01,-4.32805e-01,2.61970e-01,-2.59530e-01,-3.33265e-01,-2.89946e-01,7.30486e-02,-1.16680e-01,2.50097e-01,-1.44265e+00,3.43546e-01,
-9.76400e-01,5.50886e-01,1.16230e+00,7.13741e-01,-3.43294e-02,4.01503e-01,1.91018e-01,8.08716e-01,1.45461e+00,4.87614e-01,-4.15628e-02,1.66860e-01,1.00821e+00,6.38350e-01,2.83389e-01,2.47114e-01,-5.81513e-01,-1.44187e+00,7.35809e-01,1.75188e-01,-7.90773e-01,-1.19687e+00,-5.14698e-01,5.70613e-01,-5.17520e-01,5.34854e-01,-9.89324e-01,-1.21336e-01,-1.36124e-01,-5.30729e-01,-9.85895e-01,2.75813e-01,-9.00790e-03,3.10429e-02,-1.10124e-01,-5.84294e-01,1.74601e-01,-4.07462e-02,-4.96398e-01,6.88270e-01,-3.21205e-01,-2.53273e-01,-4.98575e-02,-3.83644e-01,5.52346e-01,
-1.83306e-01,2.70842e-01,-9.91390e-01,-1.91164e-02,-1.93402e-02,4.53209e-01,-3.95879e-02,-1.80134e-02,4.50310e-01,-4.34687e-01,-2.36063e-01,2.26695e-01,-6.15594e-02,6.27672e-02,1.61415e-01,-8.53993e-02,-4.69908e-01,-4.54984e-01,1.93735e-01,1.58775e-01,4.93770e-02,-6.22190e-01,-2.07932e+00,-3.30511e-01,-1.85387e-01,4.13844e-02,4.51182e-02,5.98534e-03,-1.47468e-01,5.25618e-02,-3.37237e-01,7.68046e-02,-2.98219e-02,-9.57708e-03,-5.57488e-01,8.74288e-02,6.70782e-01,4.99660e-02,-6.06579e-03,2.90165e-01,-1.30470e-01,-2.86649e-02,3.84034e-02,-1.01160e+00,2.75275e-01,
-3.51598e-02,3.35070e-02,3.97566e-02,2.45851e-02,2.46532e-02,-3.46674e-02,-1.52688e-02,-1.74600e-02,-3.79772e-02,-4.38478e-02,-6.09058e-02,-3.86724e-02,-2.02146e-02,-1.70978e-02,-5.34670e-02,-5.14063e-02,-2.06894e-02,-1.28952e-02,4.96652e-03,-4.33732e-02,1.76115e-02,-3.23512e-02,-2.47633e-02,-4.15341e-02,-5.20616e-02,-1.15954e-02,5.66801e-03,1.47974e-02,2.06943e-02,-2.82629e-03,-5.17659e-02,-1.12971e-02,3.00575e-02,-4.33391e-03,-5.32503e-02,1.90733e-02,2.62580e-02,-3.67577e-03,-1.47277e-02,4.70195e-03,-2.81471e-02,-3.25610e-02,-2.79162e-02,-5.70363e-02,-2.87914e-02,
-5.43837e+00,4.29679e-01,-7.95781e-01,-7.18106e-01,6.48035e-01,6.74015e-01,6.28165e-01,2.97228e-01,-2.46079e-01,1.93843e-01,8.37089e-02,2.96740e-02,-1.26773e-01,4.83531e-01,-9.73240e-02,-2.42528e-02,-2.47860e-01,2.72403e-01,2.44644e-02,4.36478e-01,1.02349e-01,-1.01051e-02,1.66316e-01,1.32252e+00,-3.50938e-01,9.41079e-03,-2.11768e-01,4.76722e-01,6.32586e-01,9.21752e-01,-2.33296e-01,1.52617e-01,-3.46198e-02,-2.86205e-02,-2.77320e-01,-7.19641e-01,-5.47374e-02,8.96969e-02,-9.07858e-01,7.89107e-03,4.65585e-02,5.94202e-01,-4.38594e-01,1.19016e-01,3.15396e-02,
7.59489e-02,-2.33666e-01,-1.57063e-01,-7.31895e-01,2.60065e-01,6.35338e-01,-1.30055e-01,1.00891e+00,5.66315e-01,1.04003e+00,5.91345e-02,3.66671e-01,2.05537e-01,-3.50572e-02,1.98827e-01,-4.97787e-02,4.87273e-02,-1.49248e-01,1.28361e-02,9.76896e-02,8.57949e-01,2.09523e-01,6.09523e-02,2.10222e-01,-7.39806e-02,5.64940e-01,-4.51497e-01,-1.19443e-01,7.26315e-01,2.78070e-01,4.35872e-01,-8.42300e-02,4.79678e-02,-3.93226e-02,7.98183e-01,1.75900e-01,-1.49715e-01,-3.75818e-01,-3.84220e-01,-8.17725e-02,5.75412e-03,4.37497e-01,5.39626e-02,-1.05505e-01,-2.91399e-01,
-2.25788e-01,-2.93263e-01,7.30411e-01,7.26015e-03,1.24498e+00,3.75636e-01,7.19730e-01,-2.76864e-01,-3.66576e-01,-2.19370e+00,-2.05040e-01,-3.21884e-02,-2.06806e-02,3.18043e-01,2.59128e-01,-1.42878e-01,-9.82456e-02,-4.87530e-01,3.20824e-01,-2.65420e-01,-1.58236e-01,1.28510e-01,-1.99704e-01,8.76911e-01,-3.92739e-01,2.11357e-01,-4.65612e-01,2.51633e-01,-3.90375e-01,-4.92179e-02,-1.54858e-02,6.71788e-01,-4.00129e-02,-4.86807e-02,-5.85003e-03,-7.22215e-02,-9.35688e-02,1.44380e+00,-3.17548e-01,-2.22734e-02,-3.38523e-01,-1.19327e-01,7.85094e-01,7.05802e-02,8.80108e-02,
1.51355e+00,-2.80516e-01,1.93394e-01,-3.40010e-01,4.04888e-01,5.75485e-02,-2.42621e-01,-6.69024e-02,1.55854e-01,3.93279e-01,3.15769e-01,-5.72243e-01,5.21274e-01,9.19208e-02,-1.27829e-01,-4.85361e-01,1.80969e-01,1.61272e-01,4.24285e-01,5.03886e-01,3.28823e-01,-6.34751e-02,-4.45347e-01,1.07850e+00,6.37284e-01,2.04211e-01,-2.26941e-01,-1.60053e-01,-3.70073e-01,6.57083e-01,7.85656e-02,4.50885e-01,3.32358e-03,2.99241e-02,1.20058e-01,-1.55322e-01,-3.04735e-01,-5.47337e-02,1.74506e-01,3.30286e-02,-5.53605e-02,4.72969e-01,-2.82040e-01,4.08318e-01,-8.58661e-02,
2.36646e-01,7.21295e-01,5.44161e-01,-2.76353e-01,2.06130e-01,-4.66706e-01,5.20255e-01,-2.76467e-01,-4.23726e-01,2.44791e-01,-5.56079e-01,-4.08229e-01,-3.05198e-02,-4.49251e-01,-2.13567e-01,1.27173e-01,2.66979e-02,3.76664e-01,4.03628e-01,-1.17187e+00,5.95231e-01,-1.31967e-01,7.56651e-01,5.19976e-01,5.70069e-01,4.75073e-01,1.27300e-02,-3.65164e-01,-4.97413e-01,-1.08954e-01,3.69872e-01,1.35654e-01,-3.72481e-02,1.26138e-02,2.62946e-01,-3.79027e-02,-3.88554e-01,2.05892e-01,3.59261e-01,-4.41398e-01,-1.24577e-01,-6.23525e-02,1.66947e-01,5.46309e-01,-4.50752e-01,
3.42814e-02,-5.84995e-03,1.45982e-02,1.81363e-02,-6.86786e-02,6.65346e-03,2.31340e-02,2.24364e-02,1.55454e-03,1.64392e-02,-1.15418e-02,-2.92818e-02,2.79843e-03,3.59593e-02,-1.12706e-02,-3.90260e-02,-5.67502e-02,-1.12781e-02,-4.50874e-02,-8.52774e-03,-2.87476e-02,1.73144e-02,-1.65135e-02,-1.74618e-02,-4.02919e-02,-5.97814e-02,-3.79010e-02,-2.86703e-02,-2.11423e-02,-1.57587e-02,-2.78223e-02,1.95251e-02,-1.88550e-02,-3.41710e-02,2.61071e-02,1.32427e-03,-1.35727e-02,1.44968e-02,-1.59969e-02,-2.44312e-02,1.42290e-02,-4.54944e-02,-9.97740e-03,-3.02916e-02,3.29459e-02,
1.42100e+00,-5.98349e-01,1.82052e-01,-3.60988e-01,-2.22434e-01,-5.13987e-01,5.43137e-01,-1.56007e-01,-6.58584e-01,-9.89668e-02,2.75270e-02,2.76477e-02,-9.08566e-02,-1.67378e-01,-5.44591e-01,-1.38483e-01,-2.09951e-01,5.78261e-01,3.61936e-01,2.38981e-01,1.91523e-01,-1.52922e-01,1.79838e-01,-5.80521e-01,6.44760e-01,1.31836e-01,-1.03054e-01,5.08359e-02,1.59860e-01,1.26671e-02,1.59247e-01,4.41709e-01,-1.88255e-02,-8.00958e-03,-1.32079e-01,-5.14490e-02,-6.15479e-01,8.93564e-02,1.85292e-01,-2.71257e-01,-3.42554e-01,-2.34786e-01,8.43808e-02,4.78717e-01,-6.51207e-01,
-2.32244e+00,-2.58965e-01,-8.12199e-01,-1.74688e-01,-1.50686e-01,-1.45685e-01,3.96637e-01,-2.72498e-01,2.11253e-01,1.26998e-01,-3.39375e-01,-2.89029e-01,4.47192e-02,5.64481e-02,3.72148e-01,-9.34125e-01,-3.00312e-01,-5.44506e-01,-1.50481e-01,-7.00956e-01,8.64490e-02,-9.95345e-02,-1.55431e-01,-6.23562e-01,2.76559e-01,4.53904e-02,1.01192e+00,1.36976e-01,4.51415e-01,2.55539e-02,-4.58459e-01,-1.99176e-01,-2.23826e-02,3.46533e-03,5.01105e-01,-4.21703e-01,1.58642e-01,1.25941e-01,-3.02375e-01,1.23141e-01,-3.58666e-01,8.73105e-02,8.21639e-02,4.88236e-01,5.58192e-01,
-3.55232e-01,-1.52557e-01,2.72039e-01,-5.68313e-01,1.85571e-02,1.44477e-01,9.16988e-03,-9.61316e-03,2.53675e-02,-4.24431e-01,-1.22965e-01,-2.53445e-01,-1.64209e-02,5.38853e-02,-4.34352e-01,5.48052e-03,2.45802e-01,8.97646e-02,-4.49842e-02,7.38996e-02,-3.92217e-01,3.53839e-01,4.54858e-01,-5.81473e-01,3.08656e-01,2.26310e-01,-5.58825e-01,3.12355e-01,2.02833e-01,-1.45478e-01,3.49962e-01,-2.61467e-01,4.46340e-03,-2.64396e-02,2.46471e-01,-5.36831e-01,-3.59772e-01,-6.88057e-02,-2.34252e-01,-1.20742e-01,-1.73156e-01,1.28520e-01,9.09180e-02,5.34888e-02,-8.44742e-01,
-4.06900e-02,-3.06247e-02,2.85856e-02,-1.41551e-02,3.75345e-02,-4.22378e-02,-4.95235e-02,-4.80906e-02,1.32537e-02,-7.61440e-03,-6.45331e-03,-4.54698e-02,-1.77871e-02,-3.49933e-02,-1.10125e-02,1.58925e-02,-5.78829e-02,9.99298e-03,1.91679e-02,-5.23526e-03,-2.90917e-02,-2.57150e-02,-3.28625e-02,3.17910e-03,-2.80796e-02,1.35592e-02,-2.41910e-02,-1.91133e-02,4.06272e-02,-1.27816e-02,1.89256e-02,-2.77667e-02,-2.68706e-02,-3.81609e-02,1.43851e-02,-4.21024e-02,-1.93469e-02,-4.00849e-02,-2.75521e-02,1.29246e-02,4.46891e-03,-2.97094e-02,3.38942e-02,-2.61924e-02,-2.34514e-03,
-4.47699e-02,-1.75066e-02,-3.89048e-02,-4.60868e-02,-4.50254e-02,-7.00894e-03,-3.42510e-03,-1.54414e-03,-2.10955e-02,-7.78610e-03,-4.09651e-03,7.53280e-03,8.06128e-03,-2.21526e-02,-2.18318e-02,5.71364e-03,1.37545e-02,2.17231e-02,-6.92782e-03,2.06930e-03,5.50651e-03,-3.72413e-02,-2.45888e-02,-1.76675e-02,-4.77601e-02,1.47758e-03,-2.84207e-02,-1.23234e-02,-5.83269e-02,-5.59467e-02,-1.88259e-02,2.63937e-02,4.53348e-02,-8.88430e-03,-1.76224e-02,-4.89574e-02,-3.40203e-02,-2.25163e-03,2.34484e-03,-3.40036e-02,1.75147e-02,-2.12794e-02,-2.82855e-02,3.08049e-02,1.57291e-02,
3.24898e-02,-7.44045e-02,2.31627e-02,-2.82113e-02,-6.60635e-02,1.86363e-02,-1.50843e-02,-5.54712e-02,1.76080e-02,-3.53999e-03,-3.51341e-02,-3.75578e-03,-2.80784e-02,-3.36747e-02,-4.34989e-03,5.00712e-03,3.13960e-02,1.02428e-02,-3.56423e-02,1.89777e-02,-1.40545e-02,8.39222e-03,-6.17064e-02,-2.39190e-02,-5.30622e-02,1.79776e-02,-3.20460e-03,-2.28785e-02,-5.68832e-02,-2.23207e-03,2.02455e-03,2.21422e-05,-2.74329e-02,1.25668e-02,-3.82579e-03,-1.28501e-02,-3.58498e-02,-3.44143e-02,-2.70396e-02,-2.04212e-02,1.10152e-02,-3.98441e-02,2.32676e-02,-6.87577e-02,-4.89785e-02,
-5.32904e+00,2.02598e-01,2.29572e-01,5.60808e-01,1.76258e-01,-5.81687e-01,3.79373e-01,4.72716e-02,3.56955e-01,8.12056e-01,-2.05733e-01,6.31441e-01,1.18325e+00,1.00756e+00,4.74846e-01,1.88563e-01,-1.16778e-01,-1.18457e+00,7.27529e-01,7.98231e-01,-2.32061e-01,-8.64508e-01,9.71609e-02,2.77961e-01,-5.64417e-01,4.23614e-01,-2.43947e-01,-3.71225e-01,-4.31708e-01,9.89667e-02,-8.43488e-01,-1.92960e-01,-3.70377e-02,-2.47943e-03,2.60252e-03,-4.35795e-01,5.21670e-01,7.53287e-02,-9.65339e-02,5.40973e-01,-3.26269e-01,2.64552e-01,1.35750e-01,-3.71294e-01,7.93931e-01,
6.44364e-01,1.40576e-01,-1.01270e-01,2.39077e-01,-4.73092e-01,-3.05124e-01,1.03306e-01,5.85472e-01,1.53893e-01,1.32641e-01,1.52505e-01,-1.98776e-01,-1.14242e-01,-1.28181e-01,1.44216e-01,-4.68637e-02,-9.54247e-02,-3.61351e-04,1.82696e-01,-3.66510e-01,2.35353e-01,2.33646e-02,-6.18041e-01,-4.73774e-01,-2.74203e-01,-3.20253e-01,2.22222e-01,-1.21742e+00,-3.95454e-01,-1.04367e-01,3.93597e-01,3.33716e-01,1.49011e-02,-3.43247e-02,1.96059e-01,-1.03162e-01,1.09273e-01,-1.41058e-01,3.92635e-02,2.06427e-01,5.67745e-02,-2.91760e-01,4.31711e-01,9.64651e-02,5.58787e-01,
5.97237e-01,2.20891e-01,-7.09782e-01,8.75328e-02,-2.68664e-03,-2.42593e-01,-7.68493e-02,-3.32614e-01,-7.20813e-01,9.48026e-01,-1.50029e-02,-1.65449e-01,1.03531e-01,1.52450e-02,1.79158e-01,1.63556e-01,6.01058e-01,-1.12555e+00,2.53043e-03,6.85172e-02,-3.06627e-01,-4.92563e-01,5.10239e-01,-5.55592e-01,3.09639e-01,-1.57986e-02,-2.08053e-02,1.83333e-01,1.94576e-01,8.53243e-02,-3.06722e-01,-3.63728e-01,3.54525e-02,1.25393e-02,2.19923e-01,-4.99682e-02,1.86681e-01,8.12791e-02,-1.70693e-01,-5.43570e-03,2.05852e-01,1.69756e-01,1.53662e-02,4.35081e-01,-8.50442e-02,
-2.27940e-02,-9.02444e-03,-1.63943e-02,1.55684e-02,-9.82382e-03,-1.07902e-05,1.42500e-02,-6.22633e-02,3.18205e-02,3.41810e-02,-4.57845e-02,-2.29012e-02,-6.09766e-02,-5.50874e-02,2.74643e-02,-2.90615e-02,8.38070e-04,-1.75652e-02,2.05476e-02,1.68619e-03,-2.82670e-02,2.56583e-02,1.91592e-02,-3.81199e-02,-1.45886e-02,4.16862e-03,-2.21875e-02,-2.74744e-02,3.66028e-02,-4.49135e-02,-2.23756e-02,1.89221e-02,2.74729e-02,-7.62579e-03,-3.95960e-02,-2.71683e-02,3.34570e-02,3.13286e-03,-4.79937e-02,-3.74538e-02,-5.18353e-02,-3.66699e-02,-1.49002e-02,-3.14855e-02,-6.27862e-02,
-3.26043e-01,3.07070e-01,-2.30382e-01,-6.90219e-02,2.05815e-01,1.91502e-01,-1.42534e-01,-5.13196e-01,1.27854e-01,-9.59043e-01,1.61886e-01,9.94611e-01,-2.41761e-01,2.26432e-01,2.42448e-01,2.26322e-02,1.08090e-01,4.20029e-02,1.65777e-02,1.03424e-01,3.73828e-02,3.91440e-01,-1.24943e-02,2.77721e-01,9.43297e-01,1.71395e-01,5.35202e-01,4.23745e-03,-4.03112e-01,1.03871e-01,-1.68463e-01,-2.33178e-01,-3.44232e-02,-1.25256e-02,4.15427e-01,-1.19111e-01,4.46657e-01,-3.54047e-02,-3.53244e-01,2.28582e-01,-5.85028e-02,-2.11810e+00,-5.03984e-03,-7.17849e-01,6.30780e-02,
-7.56037e-01,6.86807e-02,2.58672e-01,-2.93336e-01,7.43546e-02,-1.41064e-02,2.77444e-01,-1.30752e-01,2.39992e-01,-3.24664e-01,2.61189e-02,1.09634e-01,-1.73145e-01,-2.22666e-01,1.76354e-01,-2.80352e-01,5.77519e-01,8.58361e-02,9.41373e-02,1.78505e-01,5.32820e-01,-3.23898e-01,-9.60414e-01,-9.31056e-02,3.38206e-01,3.29672e-01,-1.32774e-02,3.44288e-01,9.11382e-01,1.71851e-01,-2.82045e-01,1.25645e-02,-2.44777e-02,-1.01795e-03,3.48073e-02,2.53411e-01,-2.58968e-01,2.92752e-02,-8.06000e+00,8.22018e-02,-1.18740e-01,4.93630e-02,1.63652e-01,2.04740e-01,5.57770e-01,
2.90072e-01,
1.88934e-01,
-1.66208e-02,
3.53664e-01,
1.54266e-01,
-2.21540e-01,
3.30511e-01,
-7.77085e-01,
2.20728e-01,
4.35629e-01,
2.53418e-01,
-4.41946e-02,
-1.57199e-02,
2.89145e-01,
-3.12392e-02,
7.03486e-02,
1.48514e-01,
-3.72744e-02,
3.56091e-02,
-1.86712e-01,
-8.50829e-01,
6.04677e-01,
3.28232e-01,
2.24350e-01,
3.42750e-01,
1.74337e-01,
-1.59625e-02,
-3.13271e-01,
-1.25707e-01,
1.93677e-01,
-1.13614e-02,
-8.25753e-01,
-2.49425e-02,
3.27666e-01,
2.16314e-01,
8.81753e-01,
-1.93735e-02,
-1.02175e-02,
-2.48455e-02,
2.72921e-01,
5.99972e-02,
-8.57231e-02,
-2.00166e-02,
1.62869e-01,
2.97909e-01,
3.41835e-03,3.63207e-03,5.11498e-03,-4.74800e-02,-7.22111e-03,9.22275e-03,-3.63202e-02,3.95458e-02,1.55715e-02,-2.17006e-03,-4.53786e-02,-3.52294e-03,-1.37703e-02,-5.63751e-02,-2.22555e-02,-2.03326e-02,-6.30308e-02,1.73562e-02,1.53017e-02,5.93988e-03,-1.42694e-02,-9.19530e-03,1.25817e-02,-3.24206e-02,1.30708e-02,7.08290e-03,-2.54945e-02,-3.95680e-02,-1.96595e-02,-1.57903e-02,-5.35786e-02,-2.42930e-02,3.95167e-02,-4.50397e-03,-5.48686e-02,-2.43426e-02,4.43769e-02,-4.64356e-02,-3.50395e-02,-4.60030e-02,9.22789e-03,-2.84992e-02,1.34534e-02,-5.23980e-02,-6.48095e-02,
-1.14920e-03,-2.87385e-02,3.66316e-02,2.00938e-02,-4.60623e-02,2.28036e-02,-2.95683e-02,4.74374e-03,-4.72573e-02,-5.98617e-02,1.75705e-02,-8.07531e-03,4.22424e-04,2.33482e-02,-4.50574e-02,3.17848e-02,-6.69161e-03,-3.11324e-02,1.55654e-02,-5.59782e-02,1.36801e-02,2.91278e-02,-1.20809e-02,4.10551e-02,-3.63413e-02,-3.86231e-02,3.26722e-02,-2.41117e-02,-4.64279e-02,-3.71438e-02,-3.88079e-02,1.40414e-02,-4.52340e-02,3.08667e-02,-8.49138e-03,-4.12091e-02,4.76329e-02,2.14837e-03,2.51027e-02,-2.87992e-02,-6.97843e-02,-7.55322e-02,-1.47622e-02,-2.45048e-04,3.53357e-02,
-3.73448e-01,1.74592e-02,-4.62484e-02,1.63415e-01,-1.90107e-01,-1.16483e-01,9.69717e-03,5.53603e-01,4.35188e-02,-8.21152e-03,1.11715e+00,-3.31704e-01,2.68284e-02,3.38686e-01,4.73787e-01,9.59361e-02,4.29653e-01,-4.44510e-02,-4.07048e-01,2.83966e-01,-6.00922e-02,1.31194e-01,-4.10689e-02,-1.74970e-01,-1.95462e-01,-4.45494e-02,-8.79994e-03,1.34235e-01,1.49283e-01,-7.08727e-02,3.10721e-02,4.78625e-03,4.56877e-02,3.25196e-01,6.58818e-02,1.77685e-02,-3.49134e-02,-3.74112e-02,1.30450e-02,1.91005e-01,2.00261e-01,6.56937e-01,-7.33970e-03,8.49806e-01,3.79256e-02,
7.76559e-01,-3.31970e-01,-2.57429e-02,1.61064e-01,4.00753e-01,6.63826e-01,4.89262e-01,7.12741e-01,7.82916e-02,6.38953e-02,5.62526e-01,-4.36844e-02,-4.13382e-02,1.45111e-01,1.09099e+00,1.46927e-01,2.47267e-01,-4.33364e-02,-3.42730e-01,-4.27596e-01,6.19834e-01,-2.92777e-01,-8.05270e-01,7.32000e-01,-9.67859e-02,2.55531e-01,-5.38008e-02,6.89582e-01,1.60886e-01,8.29164e-03,-2.17316e-01,1.76506e+00,-8.61879e-03,-6.25842e-01,1.53718e-01,-5.95455e-01,-1.98596e-02,1.44496e-02,4.96754e-02,2.12722e-02,4.57255e-01,-1.83915e-01,3.18615e-02,-3.87100e-01,2.23833e-02,
1.99773e-02,-6.86767e-02,2.66835e-02,-1.92535e-02,-4.48439e-03,-1.81251e-02,-3.11914e-02,2.85326e-02,-4.04996e-02,-4.15387e-02,-2.57465e-02,-4.90119e-02,1.22249e-02,-4.63360e-02,1.69715e-02,-5.54327e-02,9.07204e-04,9.02687e-03,-5.36977e-02,2.87476e-02,2.18671e-02,4.76931e-02,-2.10223e-02,-8.17061e-03,-1.94377e-02,-1.97408e-02,-1.96606e-02,-4.18290e-02,-4.31589e-02,2.21224e-02,-4.75799e-02,1.22450e-02,-2.39281e-02,-1.99500e-02,-8.66440e-05,3.58912e-03,4.58501e-02,-3.37926e-02,-2.59630e-02,-3.89304e-03,2.68226e-02,2.13022e-02,-1.36976e-02,4.84843e-02,2.85987e-02,
6.87059e-01,7.55322e-02,5.32897e-02,-1.72876e-02,-3.79531e-01,1.61696e-01,-1.84451e-01,6.25168e-01,1.91348e-01,4.50663e-01,1.07300e-01,1.05086e+00,8.46802e-03,8.05733e-02,1.66088e-01,-7.18390e-02,-2.22155e-01,-7.54154e-02,-4.15221e-03,-2.96832e-01,-6.05913e-02,1.99740e-02,-2.04588e-01,1.61019e-03,-4.25960e-02,-1.69785e-01,8.22609e-03,2.12350e-01,-1.50459e-01,-1.66714e-02,2.77382e-01,8.31796e-02,-3.09291e-02,1.28427e-01,3.57421e-01,1.51720e-01,4.44999e-02,2.20550e-02,8.06939e-04,-4.48289e-01,-2.49975e-01,-1.86128e-01,-7.59838e-03,1.03628e-01,-6.23474e-02,
8.44374e-04,-1.48147e-02,-3.64042e-02,2.37608e-02,-1.56347e-02,-5.57771e-02,-8.25296e-03,5.58472e-03,-1.51463e-02,-2.56576e-02,1.63469e-02,-3.45682e-02,4.94957e-03,-3.52475e-02,-4.92497e-02,2.90806e-02,-1.50558e-04,2.63361e-02,-3.18836e-02,2.53789e-03,-2.37971e-02,-1.95259e-02,-2.39699e-02,1.29573e-02,-2.18605e-02,-3.46632e-03,-2.59490e-02,-2.57662e-02,-2.58938e-02,-2.53730e-02,-2.28399e-02,-2.83895e-02,2.50515e-02,-3.90020e-02,-3.22684e-02,2.26984e-02,-1.80992e-02,3.66161e-03,-2.38603e-02,-7.59487e-02,7.23982e-03,-4.50702e-03,4.44075e-02,-1.87245e-02,1.24780e-02,
1.41820e-01,-8.74873e-02,-2.41508e-02,-1.25492e-01,2.53664e-01,-2.89257e-01,3.53299e-01,-1.49841e-01,-2.55624e-01,1.15750e-01,9.80218e-02,3.72013e-01,1.44834e-02,-3.90636e-01,2.33375e-01,4.65023e-02,3.15855e-02,4.59064e-02,1.36779e-01,6.71572e-02,-1.05713e-01,-6.72820e-01,-1.83566e-01,3.07957e-01,1.94689e-01,2.61619e-01,5.08299e-03,8.35747e-02,-2.43157e-01,-1.44984e-01,2.29889e-01,5.30259e-01,2.91650e-02,3.85908e-01,-1.04677e-01,1.27219e-01,2.75344e-02,3.39955e-02,1.70190e-02,-5.16606e-02,-1.73803e-01,2.81280e-01,-5.02916e-02,-1.63988e-01,9.97081e-02,
1.77979e-01,-5.00455e-02,8.27497e-02,-1.14985e-01,4.24722e-01,-1.23877e-01,-1.93595e-01,-3.14333e-01,1.60807e-01,5.49296e-01,8.62763e-01,4.64074e-01,-1.15132e-02,-5.00981e-03,-3.35641e-01,-6.13104e-03,5.30249e-01,-3.38947e-02,-4.48811e-01,-1.02208e-01,-7.57970e-02,-1.77616e-01,-4.10734e-01,6.63440e-01,-3.34869e-01,-1.36633e+00,3.00486e-03,1.14270e-01,4.00779e-02,-1.11701e-02,2.49928e-04,-9.73559e-02,-1.90512e-02,2.69955e-02,1.23553e-01,1.29747e-02,-2.16978e-02,-4.37806e-02,5.03042e-03,5.60062e-01,-5.54378e-02,2.75375e-02,-1.34279e-02,-1.20195e-01,-2.26198e-01,
-3.72414e-01,-1.62448e-01,3.96300e-02,1.67287e-01,-7.52470e-01,-1.09988e-02,4.05922e-01,1.07664e-01,2.36688e-01,9.44817e-02,-7.94811e-01,1.74217e-01,1.98890e-02,-1.97937e-01,6.08205e-01,-1.58316e-01,3.54011e-02,2.64276e-02,-1.83514e-01,-3.95968e-01,-1.24271e-01,3.27153e-01,4.99291e-02,-9.61015e-01,-7.39036e-02,2.27312e-01,8.41977e-03,1.13595e-01,-1.57349e-01,1.63994e-01,-1.42953e-02,-8.60022e-03,3.65652e-02,7.89132e-02,-3.55842e-01,-1.67439e-01,3.96756e-02,4.46509e-02,-3.53107e-02,-7.06203e-02,2.32982e-01,-4.99391e-01,5.73998e-02,6.31969e-02,7.34221e-01,
-1.04602e-02,1.71593e-01,2.45847e-02,-1.24707e+00,9.26432e-01,-6.09965e-01,-9.54131e-01,-1.88353e+00,-5.56859e-01,3.39775e-01,9.57159e-01,-1.61564e-01,3.38683e-02,-5.24517e-01,-5.22579e-02,3.89492e-01,-6.99502e-01,1.40578e-02,-3.10133e-01,-5.04498e-01,2.99447e-03,-5.83945e-01,4.43057e-01,2.35194e-01,-7.88643e-01,-8.58493e-01,-1.31984e-02,2.02827e-01,-1.60936e-01,-4.13233e-02,3.86635e-01,2.67288e-01,-2.92938e-03,-6.52222e-02,3.28061e-01,-2.67361e-01,-1.32519e-02,-3.68399e-02,-1.29232e-02,-2.11531e-01,-8.86088e-01,-1.09702e+00,3.90428e-02,-2.73810e-02,-1.38168e-01,
6.35430e-01,-7.42212e-02,-1.99870e-02,-1.12508e+00,-2.42213e-01,1.97371e-01,6.32122e-01,2.56337e-01,3.33379e-02,-2.38494e-01,1.15068e-01,-1.09792e+00,-3.65169e-02,-2.56164e-01,-2.30351e-01,1.39360e-01,-4.53141e-02,3.63808e-02,1.06983e+00,-1.39162e-01,-2.59199e-02,-1.06774e+00,-3.17421e-02,-2.76549e-01,-4.92908e-02,-3.83236e-01,2.20394e-04,1.11147e-01,1.22253e-01,2.33533e-03,6.86942e-02,2.10963e-02,-6.44968e-03,-1.14783e-02,-6.09770e-01,4.24605e-01,3.65329e-02,-2.05115e-02,1.73586e-02,-2.57011e-01,1.17125e-01,-7.46933e-01,-7.39644e-03,-3.63463e-01,1.58614e-01,
-3.63168e-01,-1.28803e-01,-2.77008e-02,2.70164e-01,2.14815e-01,-3.50610e-01,-5.37160e-02,7.09590e-01,-1.76108e-01,-1.31031e-01,7.07598e-01,9.99520e-01,-6.19422e-03,-6.14316e-01,-1.18879e-01,3.19866e-01,4.83909e-01,3.50447e-02,-2.99112e-01,1.05688e+00,7.79950e-02,2.36159e-01,-2.90296e-01,-1.43062e-01,-9.05197e-02,1.27883e-01,3.51321e-02,7.05254e-02,6.45739e-02,-8.54783e-02,2.63548e-01,1.60142e-01,1.94500e-02,5.47051e-01,-5.25001e-03,5.75465e-02,-2.37542e-02,-2.81636e-02,1.10770e-02,-2.07868e-01,2.09002e-01,1.01123e+00,3.31481e-02,2.01529e-01,-1.61823e+00,
1.03777e-01,-1.23748e+00,6.13794e-02,1.92441e-01,7.26396e-01,-5.95802e-01,1.43952e-01,8.25819e-01,1.04921e-01,1.10285e-01,-1.04138e-01,-3.46412e-01,-1.85134e-02,-1.15561e-01,6.34729e-02,9.76080e-01,6.41060e-02,-8.29821e-04,2.56304e-01,-9.79457e-02,-1.44200e+00,1.76132e-01,-2.42675e-01,-1.12067e-01,1.53213e-01,-2.12229e-02,-4.97748e-02,-1.85503e+00,-1.03990e-01,4.70745e-01,-3.92270e-01,-9.80233e-01,-3.34726e-02,2.49446e-01,2.20494e-01,1.20109e-01,6.80210e-03,2.73877e-02,-2.97286e-02,1.23581e-01,2.02800e-01,5.92146e-01,3.17001e-02,1.54040e-02,6.31264e-01,
1.87455e-01,-3.78332e-01,1.58160e-03,7.92105e-01,8.37226e-01,2.06168e-01,4.83377e-01,7.31269e-01,2.21641e-01,8.09573e-02,1.16284e+00,1.10404e+00,-1.03153e-02,8.76149e-01,1.16048e+00,-4.51929e-02,6.31607e-01,-1.40778e-02,3.17201e-01,2.22789e-01,-1.03756e+00,4.16168e-01,4.93163e-01,1.01276e+00,2.66122e-01,5.44153e-01,-2.54782e-02,-2.56877e-01,-2.61699e-01,-9.15861e-01,-2.60544e-01,1.29840e+00,-2.79622e-02,1.11493e+00,1.12605e-01,3.61425e-01,-1.59318e-02,-3.73671e-02,2.08113e-02,-2.65072e-01,4.46134e-01,1.53268e+00,1.14009e-02,1.42359e-01,1.99310e-01,
1.49337e-02,-5.35959e-02,-8.44490e-03,-4.00581e-02,-4.49674e-03,-4.43379e-02,-6.03343e-02,2.29722e-02,6.03782e-03,-4.74062e-02,-8.49721e-02,1.53735e-02,2.11658e-02,-4.54285e-03,-1.39533e-02,-3.67390e-02,-2.05142e-03,-1.63357e-02,4.42359e-03,-4.10642e-02,-3.51943e-02,-7.71678e-02,-1.43470e-02,-1.67751e-02,-9.35064e-02,-4.63938e-03,-2.36286e-02,-7.97878e-02,-3.09727e-02,-5.19929e-03,2.11395e-02,-5.23764e-02,1.48584e-02,-7.14012e-02,-4.69261e-02,-6.63433e-02,-3.10922e-02,-4.34648e-02,-3.87921e-02,2.59928e-02,-6.98371e-02,-4.38756e-02,-9.75673e-03,-1.69486e-02,4.10869e-02,
-7.03150e-01,2.19824e-01,1.38196e-02,4.60335e-01,-6.25764e-01,-3.89167e-01,-7.04327e-01,2.62386e-01,-3.23012e-01,2.78880e-01,1.81588e-01,8.19890e-01,4.55451e-02,6.89789e-01,5.13697e-01,8.57615e-01,1.18966e-01,2.60851e-02,-2.16653e-01,-3.02102e-01,7.53077e-01,4.56685e-01,7.71477e-02,1.85465e+00,1.11228e+00,-5.10282e-01,2.46271e-02,6.46000e-01,1.91459e-01,4.37919e-01,-1.83393e-01,-8.79948e-01,-2.96150e-02,-1.19809e+00,-5.34380e-02,-4.69072e-02,3.40466e-02,-2.07175e-02,8.41810e-03,3.70930e-01,8.10159e-01,2.04603e+00,6.19752e-02,-4.64496e-01,1.59791e+00,
9.32607e-01,-1.01608e-01,2.34126e-02,-4.37180e-01,-7.00446e-01,2.91825e-01,-1.32471e-01,4.01493e-01,2.57411e-01,3.33320e-01,1.26341e-01,6.90239e-01,1.24931e-02,1.26544e-01,-2.71786e-02,-1.34644e-01,-5.57368e-01,-3.90391e-02,-1.51295e-01,-2.58229e-01,-9.31920e-02,-1.64587e-01,-2.33463e-01,-1.43255e-01,1.05525e-01,-4.52293e-01,9.39562e-03,-2.41676e-02,2.29789e-01,1.05783e-01,7.50851e-02,-5.72305e-02,-5.55022e-03,7.59028e-02,8.87555e-02,2.70249e-01,-4.12025e-02,-4.37946e-03,4.40798e-02,-3.37574e-01,2.76189e-02,8.78658e-01,-1.41097e-02,5.52713e-02,9.10280e-02,
-1.77369e-01,-1.39555e-01,3.42908e-02,2.14141e-01,4.39582e-01,2.04223e-01,-2.88800e-01,8.14237e-01,7.85300e-02,1.08803e-01,1.88518e-01,-3.44322e-01,-4.29568e-02,5.87792e-01,-6.66488e-01,-1.67947e-02,-1.19657e-01,-2.83081e-02,-8.29802e-02,2.44494e-01,-3.25965e-02,1.22730e-01,-1.15210e-03,8.86754e-02,-2.11210e-01,-2.88132e-01,-4.37876e-03,-1.43072e-01,-5.18846e-03,-1.43201e-02,2.75725e-01,6.36082e-01,3.07465e-02,-7.27544e-01,-8.01280e-01,1.26208e-01,2.98824e-02,2.19528e-02,4.49002e-02,-3.98383e-02,-4.64409e-01,-5.16969e-01,-1.74795e-02,4.04999e-01,6.79825e-02,
-7.10714e-02,-6.80561e-02,6.98891e-02,1.40654e-01,1.30846e-01,-1.11429e-01,-2.42375e-01,4.49752e-01,1.68095e-01,-5.79605e-02,-9.62119e-01,-2.71394e-01,-1.54826e-02,2.43826e-01,-4.47597e-01,-1.23511e-01,-1.96272e-02,1.13020e-02,6.77986e-02,-2.03847e-01,-2.62587e-02,5.55632e-01,4.35867e-01,-6.18538e-01,-6.38860e-01,-1.10399e+00,3.14090e-02,-2.11390e-01,1.84302e-02,1.50625e-01,3.75401e-01,-5.78221e-01,2.14771e-02,-4.45119e-01,1.23844e-01,1.74178e-01,2.60960e-02,-3.41177e-02,-2.50073e-02,-6.98968e-02,2.68690e-01,2.32279e-02,-6.28168e-03,3.19160e-01,4.69477e-01,
4.60690e-01,3.41265e-02,2.29739e-02,-1.21784e-01,-3.86446e-01,-2.14615e-03,1.88757e-01,3.57801e-01,1.26713e-01,6.30937e-01,-1.55061e-01,-1.51364e-01,-2.56519e-03,-5.08290e-01,-7.69212e-02,-9.31535e-02,-1.34838e-01,-3.19232e-02,-8.60927e-01,-1.78158e-02,-5.53717e-02,3.71743e-01,5.05714e-01,-6.46774e-02,-1.13189e-01,-6.39761e-01,-1.09606e-02,3.60101e-02,-6.89367e-03,9.41750e-03,-1.10455e-02,1.48599e-01,5.59662e-02,2.46758e-01,-1.59202e-01,1.49865e+00,2.06099e-02,-3.72910e-02,-1.96288e-02,-4.59972e-02,-1.99687e-01,-2.25319e-02,3.78424e-02,1.25488e-01,-6.60075e-01,
-3.73281e-01,-1.47112e-02,-1.08945e-02,4.51081e-01,1.33872e-01,3.59342e-02,8.93883e-03,-2.61924e-01,-1.28478e-04,3.74502e-01,-2.53367e-01,-1.56049e-01,4.76667e-02,4.76729e-01,5.39475e-02,-5.96317e-02,3.65276e-02,-4.31865e-02,-5.91582e-01,4.65748e-02,-3.18892e-02,6.19236e-01,2.74174e-02,-3.52008e-01,-4.90367e-01,4.53663e-01,1.80491e-03,-1.03586e-01,1.48662e-01,-2.20150e-03,-9.12481e-03,-2.88789e-02,2.59741e-02,-2.89629e-01,3.01260e-01,-3.07391e-01,-1.49805e-02,2.36742e-02,-3.86134e-02,1.80261e-01,2.26814e-02,3.49272e-02,-3.37879e-02,2.86593e-01,-2.17196e-01,
-5.48252e-03,2.30428e-02,3.21463e-02,-1.37901e-02,1.01603e-02,-3.72970e-02,-1.58012e-03,2.70520e-02,-2.34140e-02,-8.07797e-02,-5.51980e-02,-7.78662e-03,-1.09791e-03,2.97781e-03,-6.64572e-02,1.25912e-02,-6.34863e-02,-8.23150e-03,-3.02718e-02,-1.13736e-02,-4.04039e-02,-2.46869e-02,8.68609e-03,1.60171e-02,2.19226e-02,-3.80853e-02,-2.32792e-02,6.50308e-03,-8.42243e-02,-5.47536e-02,-2.67500e-02,2.88287e-02,4.24219e-02,-2.92290e-02,-1.42656e-02,-7.13701e-02,2.27313e-02,-1.43764e-02,6.25027e-03,2.68920e-02,-4.64831e-03,-4.15472e-03,-4.18311e-02,-5.00551e-02,1.54485e-02,
-1.61950e-01,5.63211e-02,-6.18878e-03,1.54810e-01,3.32858e-01,3.15460e-01,1.26151e-01,5.72573e-01,-1.65979e-01,-1.70581e-01,-3.16483e-01,3.46027e-01,-1.53156e-02,-2.61929e-01,-4.57655e-01,1.53291e-03,3.23359e-02,-4.11880e-02,-1.25744e-01,-3.65884e-01,-1.31241e-01,1.70646e-01,3.40905e-01,2.96442e-01,-1.40091e-01,1.06288e-01,-3.99705e-02,3.38052e-01,-3.25163e-01,9.03505e-02,9.48765e-02,5.03655e-01,-1.14598e-02,-3.21417e-01,-1.69524e-01,-2.42969e-02,-4.40895e-02,-7.27085e-03,-1.90842e-02,-6.69056e-02,6.21260e-01,-7.57056e-01,-3.23707e-02,1.02860e-01,7.12891e-02,
-1.97110e-01,-5.15058e-02,2.54536e-02,-1.16126e-01,6.12106e-02,-1.99917e-01,-2.23745e-02,1.28024e-01,4.02558e-01,1.59914e-01,-1.01680e+00,4.66126e-01,-1.83979e-02,6.83817e-01,-2.06412e-01,-1.22098e-01,3.55927e-01,-9.11679e-03,-2.11245e-01,1.08346e-01,5.71263e-02,1.02529e-01,5.05971e-01,4.66725e-02,1.92614e-01,-7.63403e-01,-3.31939e-02,2.08846e-01,1.05274e-01,6.92831e-02,-4.02004e-02,6.77606e-02,4.70629e-02,-3.03421e-01,-1.05327e-01,-2.50777e-02,6.39146e-02,-4.23135e-02,4.46034e-02,-3.66535e-01,2.75670e-01,8.37492e-01,8.65325e-03,-7.68539e-02,-8.32736e-01,
1.25117e-02,-2.37756e-02,2.80774e-02,-1.70035e-02,-5.72341e-02,8.41123e-03,-1.75687e-02,3.39075e-02,-5.58573e-03,-7.10392e-02,-7.13370e-03,2.92349e-02,-3.03548e-03,-5.32380e-02,-2.52439e-02,-2.18940e-02,1.56661e-02,-3.37113e-02,-2.09475e-02,2.32935e-02,1.31401e-02,1.23035e-02,-4.11066e-03,-6.12098e-02,-2.19831e-02,-2.84762e-02,4.26078e-02,2.47856e-02,-2.61766e-02,-1.36974e-03,4.01288e-03,-4.97895e-02,4.45309e-02,-2.79780e-02,-1.14046e-02,-1.76006e-02,-4.48004e-03,-6.17773e-03,-3.29084e-02,-6.00075e-03,-5.82121e-03,-5.43988e-02,-4.15430e-03,-5.16552e-02,-5.37362e-02,
-4.08136e-01,-3.85722e-02,-1.22744e-02,1.27293e-01,-3.04688e-02,-2.42834e-01,-5.85648e-01,2.48772e-02,5.80280e-01,-2.70376e-01,-2.24798e-01,1.37093e+00,-2.39691e-02,3.87604e-01,8.45539e-01,9.00111e-03,-2.65471e-01,-7.45913e-03,-4.59738e-01,8.52786e-01,1.29398e-01,4.11117e-01,1.90738e-01,-1.55743e-01,-9.44218e-01,5.05398e-01,-2.29760e-02,1.13596e-01,2.16047e-01,-3.02839e-02,-3.52980e-01,6.34459e-01,-3.72965e-02,-2.94178e-02,-8.27168e-01,8.59427e-02,2.69770e-02,1.92857e-02,-6.88887e-03,1.49478e-01,-4.49861e-01,-1.29095e-01,-2.29254e-03,3.61751e-02,-1.88331e-01,
9.94338e-02,2.13816e-02,4.56330e-02,8.86611e-01,-5.12115e-02,7.36345e-02,1.27738e-01,9.62721e-01,-1.03849e-01,1.35480e-01,-5.97411e-01,-1.99920e-01,-1.27722e-02,-4.34359e-01,6.13022e-01,2.44344e-01,-6.22691e-01,1.18644e-02,-4.86990e-01,4.09845e-01,-1.97552e-01,-4.42634e-02,2.16273e-01,-4.02316e-01,-1.99408e-01,-1.00971e+00,3.60279e-02,3.45707e-02,1.84354e-01,2.49939e-02,1.97300e-01,2.70840e-01,3.15280e-03,7.51632e-02,-8.27097e-02,-7.07989e-02,2.09650e-02,-8.76510e-03,2.71856e-02,5.52358e-02,7.59340e-01,-5.76993e-01,-1.23786e-02,-5.80024e-02,7.11505e-02,
1.95307e-02,-3.04655e-02,2.87149e-02,2.56708e-02,-2.83771e-02,-3.56948e-02,-3.73444e-02,-4.52992e-02,-9.43541e-03,1.35299e-02,-5.97430e-02,-4.18961e-02,7.88443e-03,1.87882e-02,-1.50510e-02,-1.62283e-02,2.04830e-02,-1.42574e-02,-2.83902e-02,-2.33188e-02,6.76743e-03,-8.25839e-03,-3.72973e-02,-2.23058e-02,-1.42520e-02,-2.30988e-02,-4.10906e-02,2.46030e-03,-4.28510e-02,-3.45412e-02,2.18466e-02,-8.08768e-03,3.28049e-02,-3.01129e-02,-3.86125e-02,-2.48357e-02,2.38683e-02,-1.97639e-02,-2.33391e-02,1.17501e-02,1.31588e-02,3.88915e-02,-3.99897e-02,-1.02961e-02,3.37701e-02,
-3.30039e-02,-9.44566e-03,4.54117e-02,-8.19278e-03,-3.76984e-02,-7.51836e-03,-3.73276e-03,-4.43818e-04,-2.90869e-02,-1.09822e-02,2.36682e-03,-2.55463e-02,3.14370e-02,-4.75933e-02,-1.38099e-02,-7.13934e-02,-5.04768e-02,8.38253e-03,-3.52775e-02,-2.49066e-03,-1.67410e-02,-1.25311e-02,6.40096e-03,-5.89678e-02,-3.97942e-02,-2.54846e-02,2.65976e-02,-2.51212e-02,-3.83866e-02,3.72061e-02,-3.81843e-02,-2.84415e-02,-1.31067e-02,-4.54983e-02,3.54412e-03,-1.02648e-02,3.47889e-02,-1.91443e-02,-2.96870e-02,1.23288e-02,5.90963e-03,-4.04545e-02,8.41721e-03,-2.23183e-02,-6.78760e-03,
4.32519e-01,-5.12961e-02,-4.34087e-02,-3.12674e-01,-2.57584e-01,6.47783e-02,4.25190e-01,-3.81142e-01,-2.60469e-02,7.94955e-02,1.18073e-01,-2.20927e-01,-1.34272e-02,-3.08357e-01,-1.64570e-01,1.43264e-01,3.90917e-02,3.66765e-02,-2.85841e-01,5.77129e-02,1.15832e-02,-2.61474e-01,3.43040e-01,-3.58367e-01,1.26597e-01,1.63734e-01,2.31750e-02,8.18777e-02,3.14399e-01,-4.06019e-02,3.02709e-02,2.85810e-01,5.02850e-03,9.08788e-01,-2.04942e-01,8.23491e-01,3.45632e-02,3.55129e-02,-5.58794e-02,-3.42925e-01,3.76980e-02,-2.88679e-01,2.50991e-02,5.54724e-01,-5.05006e-01,
4.26843e-01,3.03690e-01,5.68106e-03,-4.71134e-01,-4.32434e-01,-3.19876e-01,-3.45100e-01,-2.80785e-01,-2.54453e-02,9.60129e-02,-4.46178e-01,-4.93672e-01,-4.75691e-02,-4.35937e-01,-1.39717e-01,5.87348e-01,-2.46067e-01,-3.31007e-02,-2.40844e-01,-1.19224e-01,-1.18064e-01,-1.73303e-01,-3.96523e-01,-1.11144e-01,2.05804e-01,-5.29869e-01,-2.45661e-02,-2.86215e-01,2.73311e-01,1.43634e+00,4.68592e-02,5.16815e-01,-2.23363e-02,5.21162e-02,-3.24141e-01,-4.19904e-01,-9.28674e-03,7.42487e-03,-3.32945e-03,1.06362e-01,-4.81121e-01,-7.79898e-01,-3.14107e-02,-8.86400e-02,1.86935e-02,
-9.27561e-02,-1.05936e-01,1.64817e-03,-1.41680e-01,-6.96758e-01,-1.99413e-01,3.28649e-01,-2.47903e-01,1.56960e-01,1.70488e-02,-5.06563e-01,2.72931e-01,-4.68600e-03,4.61059e-01,-5.02255e-01,2.87326e-01,-8.07279e-01,5.79614e-03,-3.50326e-01,-2.08110e-01,-9.88793e-02,3.99485e-02,-1.94325e-01,-1.50614e-01,-1.19997e-01,2.69670e-01,-4.27489e-02,-1.55664e-01,-2.32547e-01,-1.13658e-01,6.78399e-03,-7.49805e-01,-1.10218e-02,8.75390e-02,3.02481e-01,-2.83542e-01,-4.18931e-02,1.20284e-02,-2.72529e-02,2.53225e-01,3.92134e-02,-3.16566e-01,-4.03995e-02,3.72045e-01,9.46495e-02,
-1.79585e-01,5.88864e-02,1.36396e-02,2.04947e-02,-1.67334e-01,-4.23908e-01,-1.46722e-01,-4.32194e-01,-1.82603e-01,1.36657e-02,3.51910e-01,-2.53330e-01,-1.20261e-02,1.40988e-01,7.58718e-02,4.14323e-02,-3.55607e-02,-1.89079e-02,-3.39060e-01,-6.20364e-02,-3.56802e-01,4.90014e-01,3.38784e-01,-3.04873e-01,-4.31225e-01,4.46973e-01,3.27790e-02,1.17055e-01,1.52063e-01,-3.42770e-02,-3.09944e-01,1.31324e-01,-5.72827e-03,-1.70843e-01,-1.74868e-02,1.70880e-01,1.08705e-02,2.41153e-02,5.63292e-03,1.99063e-01,-5.69630e-01,3.22196e-02,3.50489e-02,-2.13143e-01,8.90909e-02,
2.68495e-02,-2.21737e-03,-2.30325e-02,-1.13249e-01,-1.89245e-01,-3.50298e-02,-4.37548e-01,-3.88894e-01,2.77290e-01,3.98084e-01,-7.76632e-01,-2.12393e-01,2.53406e-02,4.46476e-02,-3.84031e-01,-1.92375e-01,2.55598e-01,2.60866e-02,2.12561e-01,8.30090e-02,7.03362e-03,-4.54731e-02,1.09847e-02,-4.31387e-02,1.26531e-04,1.65340e-01,1.98141e-02,-1.26485e-02,4.67711e-01,1.47581e-01,-2.16854e-01,-3.54282e-01,3.49403e-04,2.16480e-01,-1.62825e-01,-6.11299e-01,2.17921e-02,-2.49742e-03,1.46091e-03,-2.19113e-01,9.28180e-02,-5.81755e-01,-7.49664e-03,-5.95833e-01,-7.43691e-02,
7.44348e-01,-1.78836e-01,-5.80353e-02,3.98924e-01,-2.74240e-01,-3.06045e-02,4.30262e-01,6.06499e-01,8.82151e-02,6.08863e-01,8.87001e-01,2.34595e-01,2.60127e-03,5.56202e-01,1.45173e-01,8.62658e-02,-2.53191e-01,1.01367e-02,-9.20164e-01,-3.60664e-01,1.00769e-01,2.54762e-01,6.69971e-01,-7.73565e-01,-2.72182e-01,-1.52896e+00,2.04905e-02,1.86377e-01,3.79604e-01,9.67204e-02,1.68505e-01,4.98545e-03,9.46975e-03,5.52046e-01,3.37717e-01,1.65050e-02,5.88085e-02,2.58988e-02,-8.79447e-04,-6.56801e-01,3.12843e-02,2.33089e-01,-8.87817e-03,5.54681e-01,-4.56190e-02,
-3.02792e-01,-1.82586e-01,4.30909e-02,3.88682e-01,3.67802e-01,-2.11851e-02,1.38665e-01,-2.52845e-01,-2.61977e-02,-1.53556e-01,-9.97439e-02,-4.28710e-01,-2.28157e-03,1.16360e-02,-2.20825e-01,4.24029e-01,-1.34894e-01,-2.98167e-02,-2.65775e-01,1.83090e-01,9.55693e-02,-3.55043e-02,-3.23970e-04,1.25267e-01,-3.00868e-01,2.08150e-01,3.40748e-02,1.11800e-01,-1.88319e-01,8.50165e-03,6.75546e-02,-1.83678e+00,-4.99309e-02,-2.01615e-02,8.39739e-02,-2.33853e-01,3.05146e-02,2.80038e-02,2.03907e-02,5.66499e-01,7.67950e-02,1.15830e-01,-2.40165e-02,-3.19400e-02,-1.04435e-01,
-3.21747e-02,-1.28570e-01,-2.25408e-02,1.51328e-01,-1.15121e-02,-5.04715e-02,-2.72009e-01,1.63608e-01,-2.33742e-01,5.24699e-02,-2.37095e-01,2.44206e-01,-2.44817e-02,1.86615e-01,4.23679e-01,-9.65440e-02,5.46995e-01,2.45980e-02,-8.49512e-02,2.11860e-01,1.11339e-01,-1.75703e-01,1.17691e-01,4.92630e-01,-7.75090e-02,-1.05124e+00,3.84168e-02,1.63022e-01,-7.62819e-02,-7.51409e-03,4.42613e-01,-1.08810e+00,4.10295e-02,2.05174e-01,2.24286e-02,3.60752e-01,-8.02478e-03,1.71647e-02,-2.33757e-02,-5.50895e-02,5.59415e-02,-1.66931e-01,1.30009e-02,-1.33887e-01,-2.47944e-02,
-1.29596e-01,-2.20257e-02,-7.58094e-02,1.89174e-01,-4.26074e-01,6.41235e-01,1.35310e-01,6.49148e-01,1.13145e-01,1.53834e-01,4.34956e-01,4.23035e-01,3.65948e-02,-3.08828e-01,-9.15260e-02,4.07018e-02,-5.50637e-02,-4.44111e-02,-3.38828e-01,-3.63214e-01,8.20776e-02,6.65673e-01,-2.79207e-01,-5.79060e-02,-3.88820e-01,-7.98610e-01,-4.22309e-03,-2.76519e-02,-3.95262e-02,-2.13850e-02,1.87572e-02,-2.47366e-01,-3.01562e-02,-9.70027e-02,-2.29317e-01,2.03448e-01,-4.76170e-03,3.31927e-02,-4.49095e-02,-1.18223e-01,3.18775e-01,2.75312e-01,-6.46566e-04,6.11895e-01,2.40623e-02,
2.92356e-01,-1.06449e-01,-4.21815e-02,-9.53745e-02,1.20615e+00,-3.97545e-01,2.49469e-01,-2.65280e-01,-3.88706e-01,-1.75615e-02,3.48062e-01,-2.61562e-01,5.06108e-02,-3.37438e-01,-4.02029e-01,-2.87753e-01,-5.04522e-01,-3.77862e-02,-3.12723e-01,6.88408e-01,3.55990e-01,-1.27268e-01,-2.80321e-01,-4.62634e-01,1.19393e-01,-1.95883e-02,-2.67229e-03,9.51588e-03,5.82350e-01,-5.63027e-02,1.39334e-01,-6.09247e-02,-1.80244e-02,4.10758e-01,-6.23702e-01,6.18474e-01,-3.06034e-02,3.58900e-02,5.47358e-02,4.16523e-01,4.60877e-01,1.01018e+00,-6.81365e-02,2.46882e-01,-3.66619e+00,
4.45208e-01,-9.35748e-02,-3.63628e-02,2.78179e-01,-2.23074e-01,6.25025e-01,3.12676e-01,-3.31246e-01,-2.47006e-02,-1.26196e-01,3.68499e-01,1.82192e-01,5.69209e-03,4.94792e-01,9.05389e-02,-8.95625e-03,5.95672e-02,1.13455e-02,1.63424e-01,-1.40716e-01,3.99922e-01,-2.83208e-02,2.67855e-01,5.15529e-01,1.36465e-01,8.93295e-02,-4.91942e-02,3.81234e-01,4.84816e-01,-1.88328e-01,9.25501e-02,1.64151e+00,5.38653e-03,-6.62432e-01,2.59001e-01,-3.54790e-01,1.77289e-02,-1.86236e-02,1.19813e-02,5.02282e-02,-5.35625e-02,3.20199e-01,-2.55422e-02,-1.17520e-01,-1.52084e-01,
2.67432e-01,-4.43675e-02,2.23464e-02,3.03727e-01,4.65580e-02,2.91353e-01,-4.55770e-01,1.03161e-01,2.06246e-01,4.59956e-01,1.15129e-01,3.46723e-02,-3.47730e-02,3.51575e-02,-6.59555e-01,-2.71583e-01,-2.62860e-01,-1.59828e-02,-7.36366e-02,-2.44434e-01,-7.38208e-02,3.35833e-01,-2.48947e-02,-6.52350e-02,-1.13209e-01,5.01239e-01,-4.53887e-02,3.73570e-02,3.10316e-02,1.19608e-01,-6.03016e-02,-1.12611e-01,8.80958e-03,-4.83057e-01,1.42603e-01,-2.61623e-01,-5.81401e-02,-3.34649e-02,-1.00176e-02,8.29272e-02,-2.22104e-01,2.56597e-01,3.18146e-02,-6.40658e-02,-9.63908e-02,
3.58670e-02,-2.28653e-02,5.37531e-03,-2.12223e-02,2.47429e-02,-5.13326e-02,4.28931e-02,-3.88471e-02,-3.97969e-02,2.65048e-02,-2.20285e-02,-3.41192e-02,9.33205e-03,4.02129e-02,-1.84313e-02,-3.06703e-02,-3.30769e-02,-4.95424e-02,-5.04365e-02,-4.14831e-02,-6.92765e-03,-5.13271e-02,-2.82917e-02,9.57583e-03,1.61180e-02,3.68352e-02,-1.05331e-02,2.31071e-02,-4.85639e-02,3.20436e-02,-2.49795e-02,-3.15162e-02,-9.74708e-03,-2.76789e-02,3.54885e-05,-4.59341e-02,-1.58387e-02,1.53175e-02,3.64203e-03,-2.91761e-02,-4.97950e-02,-3.54005e-02,-1.60688e-02,-5.63098e-02,-5.92975e-02,
1.08994e-01,1.13693e-01,6.39652e-04,-3.38786e-02,3.32447e-01,-3.33225e-01,2.58204e-02,6.09996e-02,2.26994e-01,-1.61278e-01,1.34528e-01,1.03336e-01,6.50739e-03,2.37415e-01,-7.92129e-02,1.57097e-01,-1.36342e-01,2.37220e-02,1.10823e-01,-4.46623e-02,-1.30487e-01,1.64860e-01,3.83484e-01,2.50039e-01,2.04755e-02,6.90344e-01,1.18607e-02,1.17900e-01,-2.16283e-01,-9.50329e-02,-3.57358e-01,6.53776e-01,-1.76979e-03,8.21919e-02,4.62534e-02,-1.39148e-01,-7.10631e-03,-4.53282e-03,-3.44660e-02,-2.61543e-01,-2.89389e-01,-2.38517e-01,3.05538e-02,-1.36274e-01,-3.08953e-02,
1.92578e-01,-4.02568e-03,-2.09077e-02,2.38339e-01,-7.03504e-02,2.41583e-01,1.37602e-01,1.02863e-01,1.62681e-01,7.15272e-03,3.90737e-03,2.06192e-01,-9.14528e-03,-3.56897e-01,3.42651e-02,1.04166e-01,9.86459e-02,-2.89344e-02,-4.84090e-01,-5.94155e-01,1.30740e-01,3.03168e-01,4.47040e-01,4.49696e-01,1.65097e-01,-1.59767e-01,5.30773e-02,1.33103e-01,3.41464e-01,-3.98422e-02,-3.72214e-01,4.32944e-01,2.71838e-02,3.60382e-01,-1.23514e-01,-7.15407e-01,-1.27112e-02,7.13726e-03,1.27633e-02,-2.13001e-01,-2.38990e-01,-6.99311e-01,1.51703e-02,4.08557e-02,-8.95874e-01,
-1.20949e-02,
-2.93072e-02,
-4.92775e-01,
-3.45707e-01,
-1.70413e-02,
1.82295e-01,
-2.82310e-02,
-1.81691e-01,
1.16161e-01,
-9.59038e-02,
-1.56533e-01,
1.08340e-01,
-1.03655e-01,
-1.22507e-01,
1.20654e+00,
-2.81833e-02,
-9.35972e-02,
1.41997e-01,
2.43981e-01,
2.05372e-02,
7.14110e-01,
5.12906e-02,
-3.71171e-02,
-1.75433e-01,
2.73870e-01,
-2.84910e-02,
-3.72821e-02,
-3.67226e-01,
-9.12487e-03,
-2.32035e-02,
3.92290e-01,
-9.55461e-01,
3.26159e-01,
1.37550e-01,
7.78691e-01,
4.60022e-01,
-1.32924e-01,
6.31907e-02,
-5.96696e-02,
8.30046e-01,
-7.38983e-01,
-5.18525e-02,
-2.40202e-02,
3.26677e-01,
7.67913e-01,
-1.01263e-02,-4.36368e-02,2.43408e-02,-6.76282e-02,-2.41452e-02,2.27058e-02,-4.63916e-02,3.68848e-02,-8.60650e-03,2.02407e-03,-5.72604e-02,-3.86230e-04,1.92619e-02,2.45609e-02,1.91748e-02,-1.66573e-02,-6.66437e-02,1.31176e-02,-4.11182e-02,-1.13917e-02,-5.99621e-02,-2.94488e-02,-2.87358e-02,6.29669e-04,-4.04803e-02,2.34528e-02,-7.52911e-03,-5.26157e-02,-4.38488e-02,-4.58853e-03,-5.02662e-02,-4.54707e-02,-3.25400e-03,7.42335e-03,-3.79056e-02,-1.58202e-02,-5.28351e-02,-1.74416e-02,1.81941e-02,-3.56440e-02,3.52969e-02,-3.30297e-02,3.01796e-02,-3.85775e-02,-4.60121e-02,
-1.62138e-02,9.25589e-04,8.10298e-02,-5.28257e-01,2.37322e-02,-2.43702e-01,3.14038e-03,-1.14178e-01,4.48032e-01,1.87721e-01,5.63690e-01,-8.92980e-01,1.24117e-01,8.29047e-02,2.27599e-02,9.15840e-03,-4.50334e-02,-3.99752e-01,2.12651e-01,-6.21934e-02,2.45468e-01,3.03103e-01,-2.35369e-02,-1.10942e-01,1.83821e-01,3.04722e-03,-7.81964e-03,-3.40842e-01,-9.33981e-03,1.93459e-02,-4.81940e-01,1.83550e-02,-3.14031e-01,3.43333e-01,1.03521e-01,-2.90917e-02,-5.33390e-01,3.94712e-01,-5.41938e-01,1.14493e-01,1.87712e-01,-9.10301e-01,5.08650e-02,-4.02805e-01,-3.97590e-01,
-1.36898e-02,4.80405e-02,2.72234e-01,-3.96769e-01,-1.06625e-02,-1.02175e-01,-2.95044e-02,3.80803e-02,-1.83959e-01,-3.15454e-01,-1.38025e-01,1.25199e+00,-4.95565e-01,2.14292e-02,-3.91614e-02,-3.35027e-02,1.32397e-01,3.12074e-02,-2.98333e-01,-1.25198e+00,4.01629e-02,2.45502e-01,-6.57473e-03,-4.46647e-01,-1.69335e-01,4.46606e-02,8.65702e-01,2.43177e-01,1.55648e-02,-5.16460e-02,6.62052e-02,-7.91029e-02,-3.93873e-01,-5.75883e-01,7.50468e-01,8.69600e-02,-2.58923e-01,-2.62338e-02,-9.30772e-01,1.24509e-02,-1.07536e+00,-1.31221e-01,1.85800e-02,-1.73967e-01,-2.64205e-01,
-1.72998e-02,-2.42936e-02,1.86527e-01,2.28962e-01,2.00491e-02,3.11187e-01,4.23074e-02,-2.01802e-01,2.18495e-01,6.41549e-02,-1.39619e-01,-4.67439e-01,3.52745e-01,-1.15193e-01,-1.18134e-01,3.08335e-02,2.97317e-02,-6.06495e-01,-8.60818e-01,1.36852e-01,-3.57644e-02,6.92906e-01,8.57026e-03,-8.57268e-02,2.71625e-01,1.39240e-02,-6.56554e-01,-4.54175e-01,-3.54293e-02,4.17541e-02,1.41924e-01,6.98334e-02,4.88410e-01,6.78115e-01,3.42232e-01,1.24712e-01,-2.79968e-01,-5.88197e-01,-3.06598e-01,-1.53618e-01,-1.40413e-01,-3.70700e-01,-3.75287e-02,-1.79796e-01,1.39450e-01,
-3.28817e-02,3.97156e-02,9.36642e-02,1.90971e-01,-4.86857e-02,2.53343e-01,-4.52127e-02,-5.52847e-01,-6.43643e-02,-3.35941e-02,-3.01674e-01,-2.01710e-01,3.15435e-01,1.83128e-02,8.78347e-04,-5.89387e-03,-3.34989e-02,-4.68778e-01,-9.59828e-02,2.58910e-01,2.86619e-01,-6.94686e-01,4.24161e-02,5.50602e-01,1.94943e-01,2.29666e-02,7.92331e-01,-2.92964e-02,-3.24671e-02,-2.87984e-02,-5.69375e-01,-2.30661e-02,-3.36110e-01,3.03644e-01,1.61579e-01,1.73376e-01,5.64488e-03,2.80478e-01,2.70731e-01,-1.16794e-01,-5.96702e-01,-5.48418e-01,-3.97086e-02,-8.56285e-02,-2.86805e-01,
-1.84427e-02,-8.20760e-03,-1.73189e-01,-1.51976e-02,2.49756e-02,-3.95591e-01,-1.78491e-02,6.03716e-02,6.75634e-01,-3.59488e-01,-3.77963e-01,-5.35024e-01,3.24635e-01,-6.26241e-03,-1.58182e-02,-2.44695e-02,3.33754e-02,7.31244e-03,-8.43313e-02,2.89066e-01,3.69868e-01,-3.30060e-02,-1.89965e-02,1.07907e-01,-4.01425e-01,4.76134e-02,2.85441e-01,5.07573e-01,2.11939e-02,-2.03527e-02,-5.56558e-01,-2.01374e-02,2.14469e-01,-1.85836e-01,3.07521e-01,2.72514e-01,-3.03597e-01,-6.78302e-01,2.14546e-01,1.17858e-01,-2.25942e-01,-5.18104e-01,-8.37134e-03,-2.28089e-01,-1.34818e-02,
-2.00143e-02,-7.62511e-03,5.57500e-02,-2.59570e-02,3.76070e-03,-1.60389e+00,-1.78452e-02,-7.40614e-02,3.12493e-01,2.60413e-01,6.95594e-01,-8.60689e-01,-1.04205e-01,4.86805e-02,-1.36586e-02,5.98076e-02,5.61799e-02,-2.36749e+00,1.45969e-01,6.53344e-01,2.04366e-02,5.20993e-02,3.61119e-02,4.11800e-01,4.60347e-01,-2.85536e-02,-2.96646e-01,-3.18025e-01,-3.26806e-02,2.53392e-02,-4.30830e-01,-1.23208e-02,-1.80219e-02,-8.02235e-02,-1.67190e-01,3.69318e-01,-7.36464e-02,-6.94100e-01,1.64996e-01,-2.88417e-02,-2.57587e-01,-6.97090e-01,1.37859e-02,-2.39044e-01,5.53170e-01,
-1.07903e-02,-3.46001e-02,-7.13202e-02,-5.20095e-02,-6.77860e-03,-1.16837e-02,-2.58136e-02,4.19414e-02,-1.96968e-02,8.87375e-03,1.13659e-02,1.46663e-03,-5.48387e-02,-1.43599e-02,-3.39791e-02,-3.07538e-02,-4.11157e-02,6.40471e-03,1.00201e-01,-1.71217e-02,-5.68828e-02,-6.92988e-02,-4.40041e-02,-6.01685e-02,-4.76623e-02,-8.54034e-03,6.24230e-02,3.57328e-02,-2.44875e-02,-4.09151e-02,-8.33193e-02,2.33422e-03,-5.40434e-02,2.27395e-02,-6.23672e-02,-4.14574e-02,2.37061e-02,1.13616e-01,-6.22159e-02,5.49466e-02,-4.78936e-02,-2.89320e-02,-1.90171e-03,-8.53887e-02,-3.39707e-02,
3.62686e-02,-2.54325e-02,5.64713e-03,-3.66764e-03,3.94415e-02,-4.82033e-02,-4.04963e-02,-1.45805e-01,5.78051e-02,5.12468e-02,-4.72808e-01,4.95382e-02,-6.39541e-01,3.93454e-02,-1.23537e-02,-1.54178e-02,5.38779e-02,-6.43709e-02,-5.54158e-02,-1.02811e-01,-3.35065e-02,1.73236e-01,4.39447e-02,1.67714e-01,4.05584e-02,3.10600e-02,-8.01127e-02,-7.34328e-02,2.59473e-02,-5.16224e-03,6.68634e-02,-3.99995e-02,-3.91896e-02,6.39838e-02,-7.29070e-02,8.42665e-02,-9.69007e-02,5.83668e-02,-4.18468e-04,-2.10279e-01,-8.59281e-02,-4.44373e-02,-3.38164e-02,-1.36011e-01,-1.47816e-01,
-7.60415e-04,-3.43734e-02,3.73617e-01,8.48021e-02,-3.24953e-02,2.96250e-01,-3.80222e-02,3.81490e-01,1.77889e-01,-1.62534e-01,-1.63435e-01,3.88962e-01,7.70589e-01,1.50588e-01,-3.04263e-01,3.45146e-02,7.30162e-02,3.43244e-01,3.22785e-01,-1.50342e-02,-2.29540e-01,2.55181e-01,-2.73630e-02,5.51598e-01,1.78393e-01,4.86698e-02,3.34879e-01,3.86004e-01,-1.65374e-02,1.94695e-02,5.88542e-02,2.86962e-01,3.23014e-01,3.02816e-01,3.84623e-02,-1.87812e-01,2.68163e-02,5.01001e-02,3.20354e-01,-3.23130e-01,-1.70095e-01,2.69582e-01,-1.35262e-02,5.16291e-01,-1.09078e-01,
3.08395e-02,1.40530e-02,2.18795e-01,-8.63552e-02,8.35005e-03,-1.10941e+00,-1.74018e-02,7.95717e-01,1.39031e-01,5.38389e-02,1.46636e+00,2.44683e-01,-7.08399e-01,2.52668e-01,-5.52637e-01,2.88191e-02,-1.09420e-01,1.67633e-01,3.05529e-01,2.03468e-02,-9.63973e-03,3.38794e-01,3.41716e-02,1.52561e-02,3.40784e-02,1.45062e-02,6.57089e-01,-9.33639e-01,-6.72514e-03,4.85934e-02,2.79183e-02,-6.23020e-02,3.03378e-01,4.66296e-01,2.06048e-01,-2.51452e-01,2.42478e-01,-7.08327e-01,3.72690e-02,-2.50592e-01,-2.04467e-01,5.44515e-01,-1.11956e-02,9.51261e-01,5.57318e-01,
1.42144e-03,1.19882e-02,6.03262e-01,1.04244e-01,4.02247e-02,1.59573e+00,-1.29700e-02,-8.34863e-01,-2.40991e-01,-2.94305e-01,3.49910e-01,-1.48375e-01,-6.81024e-02,7.46085e-05,-9.59604e-03,3.32937e-02,-4.28031e-03,4.28389e-01,6.79401e-01,-7.20838e-01,-9.40352e+00,3.24121e-01,6.03075e-04,-1.25568e-01,5.53406e-01,-1.44862e-02,2.24462e-01,3.70305e-01,-6.17449e-04,-2.07728e-02,3.97399e-01,1.36826e-02,2.34201e-01,3.71961e-01,-2.76435e+00,-1.85890e-01,2.34979e-01,-2.78259e+00,6.08101e-01,-1.53563e+00,-1.24556e-01,-3.67202e-01,4.49914e-02,2.45205e-02,-8.84104e-02,
2.94928e-02,-3.85883e-03,-1.24806e-01,7.99960e-02,6.70237e-03,2.44488e-02,-4.25648e-03,-2.38322e-01,2.42351e-01,1.69612e-02,-8.22475e-02,1.55644e-01,-2.97114e-01,1.67053e-02,3.18521e-02,1.41910e-02,3.25285e-02,-1.08024e-01,5.38003e-02,-6.88233e-02,9.28930e-03,-1.61329e-02,9.78136e-03,-1.47064e-01,-1.41525e-01,-5.66136e-02,2.46569e-01,8.64647e-02,1.49311e-02,1.38976e-02,-2.25100e-02,-2.38279e-02,-2.07832e-01,2.79946e-01,2.95401e-01,1.32403e-01,1.31632e-01,-2.05748e-01,-2.46529e-01,-1.17887e-01,-1.72333e-01,-1.43639e-01,-1.78638e-02,-1.73690e-01,-5.91987e-02,
-4.02621e-02,7.49749e-02,3.11728e-01,-1.02912e+00,-2.65395e-02,5.69100e-01,4.17463e-02,-5.41230e-01,-4.31143e-01,-5.46532e-01,1.18836e+00,-2.31963e-01,-1.47931e+00,-6.85258e+00,4.45644e-01,-1.05676e-02,-3.74913e-01,-6.69435e-01,-1.81307e-01,-1.80914e-01,2.99406e-01,2.56268e-01,-9.59497e-03,-8.06896e-01,-1.24965e-03,3.43993e-02,-6.59996e-01,-2.89902e-01,-2.87947e-02,3.00329e-03,-4.01304e-01,7.08533e-01,-1.09001e+00,-5.69569e-01,-3.06792e-01,-4.34233e-01,-1.23834e+00,5.87960e-03,-3.55224e-01,8.99822e-01,-7.41302e-01,6.31616e-01,8.28787e-03,-5.94317e-01,8.61754e-01,
-4.40639e-02,3.13207e-02,1.19104e-01,6.68079e-01,3.37643e-02,4.58569e-02,-3.06852e-02,1.00657e+00,9.64336e-01,2.52002e-01,-3.06507e+00,9.59501e-01,-2.42675e+00,-2.96168e-01,2.37238e-01,7.01330e-02,-3.14445e-01,6.86035e-02,1.85617e-01,-9.47023e-03,-7.68254e-02,4.31996e-01,5.76130e-02,1.58140e+00,-3.91643e-01,3.62820e-02,2.00856e-01,2.30330e+00,-5.67937e-03,3.81592e-02,4.09186e-02,-3.99178e+00,1.17112e-01,6.90225e-01,1.02638e+00,2.82554e-01,1.44156e-01,-6.44741e-01,-4.35582e-02,-1.14203e+00,1.97079e+00,1.28031e+00,4.41337e-03,5.48744e-01,1.12336e+00,
3.34352e-02,5.14593e-02,1.79387e-01,2.64061e-02,-4.42517e-02,4.30686e-02,1.98576e-02,-4.07951e-01,4.37572e-01,5.53127e-02,2.48585e-01,-1.29299e+00,-1.91140e-01,-5.77207e-03,-3.81766e-02,-2.91882e-02,-7.60650e-02,-4.89888e-01,-5.88968e-02,5.95460e-02,5.17076e-01,-3.49495e-01,-3.02194e-03,-3.61599e-01,1.13451e-01,-2.42736e-03,1.50662e-01,2.07256e-02,-3.02865e-02,5.17182e-03,-8.20681e-01,5.25407e-02,1.85703e-01,-1.85518e-01,3.08121e-01,3.34563e-01,-3.09714e-01,3.62153e-01,6.57451e-02,2.63145e-02,-3.70006e-01,-3.88440e-01,-1.82770e-02,-4.77819e-01,-2.11170e-01,
2.57372e-02,-4.43062e-03,-2.86157e-01,4.28502e-01,4.29974e-02,-8.88114e-01,5.78684e-02,-4.19443e-01,1.50447e+00,-1.88017e-01,1.73251e-02,2.30215e-01,2.45884e-02,8.10732e-02,1.21391e-01,-6.69666e-02,2.02091e-01,-1.27568e-01,7.25978e-02,-5.45506e-01,-1.55770e+00,-4.74794e-01,-1.67092e-02,-1.26202e-01,-5.24268e+00,-4.72874e-02,1.07875e+00,-8.69260e-01,5.46755e-02,3.67450e-02,8.23934e-01,-2.49479e-02,4.75210e-01,-2.89470e-02,-9.35401e-01,-8.63431e-01,9.32986e-03,-8.22513e-01,-1.29315e+00,-7.55643e+00,-9.32967e-01,-2.42416e-01,4.58970e-02,1.33199e-01,-3.58439e+00,
2.63911e-02,3.24274e-02,-2.00978e-01,1.50139e-01,-2.11485e-02,3.81687e-01,-5.77855e-03,-4.24705e-01,7.20696e-02,1.70371e-01,-1.95491e-01,-8.03816e-01,3.24975e-01,-3.18155e-03,5.51050e-03,6.93682e-03,-9.94048e-02,-4.00919e-01,4.11255e-02,6.11336e-01,5.21242e-01,-7.96950e-01,3.45861e-02,2.79038e-01,3.22555e-01,2.58315e-02,-1.16816e-01,1.55583e-02,2.01704e-02,3.25922e-02,-1.12282e+00,-1.90908e-02,-1.61469e-01,3.27390e-01,-1.50943e-01,2.84237e-01,4.19964e-01,-4.42237e-02,3.53085e-01,8.83764e-04,-8.30757e-02,-3.45923e-01,4.57674e-02,-1.49222e-01,1.84083e-01,
2.71674e-02,-4.76900e-02,-1.08294e-01,-4.95212e-03,-4.68661e-02,1.57464e-01,2.39596e-02,-8.64688e-01,3.34213e-01,1.69592e-01,-1.46296e+00,-5.20104e-01,1.80924e-02,1.85742e-01,-1.01649e-02,-1.05158e-02,1.69995e-01,-1.02996e+00,-1.02259e+00,-6.55352e-02,-3.03573e-02,-2.38659e-01,-4.52040e-02,5.47277e-01,-6.34159e-02,3.50361e-02,-5.34053e-01,1.53548e-01,-1.95177e-02,5.60535e-04,-1.45314e-01,-7.19321e-02,-3.37004e-01,-4.09262e-01,-1.12861e-01,-3.64930e-01,1.05511e-01,-1.29303e+00,6.73666e-01,7.98809e-02,-5.88252e-01,-3.46982e-01,1.01141e-02,-2.24376e-01,5.34819e-01,
-2.43825e-02,-8.01200e-03,1.52952e-01,-1.36073e-01,-4.72463e-02,7.83617e-02,-4.44605e-02,-2.64785e-01,1.12836e-01,-2.14662e-01,-7.50346e-03,1.97058e-01,-5.59945e-01,-6.51372e-03,-9.89618e-02,-2.86989e-02,-2.32128e-02,5.10259e-02,3.83343e-01,-5.18639e-02,-6.81888e-02,-2.35384e-01,2.03447e-02,4.72557e-01,4.68205e-01,-5.25903e-02,2.53223e-01,-2.23412e-02,-1.27926e-02,-7.30106e-02,8.77260e-02,-3.33715e-02,-7.65960e-02,2.86666e-01,1.81170e-01,3.77568e-02,1.64004e-01,-2.68406e-01,5.79658e-02,1.77807e-01,-2.03895e-01,2.16799e-01,1.56628e-02,-3.11963e-02,2.15129e-01,
-4.02277e-02,-5.04069e-02,-4.19295e-01,5.95912e-02,5.99824e-03,5.78391e-03,-8.20818e-03,-5.42011e-01,1.04357e-02,-7.97566e-02,4.11696e-01,2.53051e-01,5.55510e-02,3.14853e-02,-3.19259e-03,-9.81927e-03,2.81029e-02,2.98297e-01,-1.12380e-01,1.12168e-01,-5.41300e-02,4.15083e-01,-4.25450e-02,-1.51559e-01,4.53307e-01,1.88958e-02,-5.24279e-02,-2.57842e-01,2.93157e-02,-5.54276e-02,6.79464e-02,-3.06077e-02,-2.44946e-01,3.47294e-02,2.14747e-02,-1.49273e-01,3.02394e-02,9.08006e-02,-2.32517e-01,-5.94421e-02,-2.57484e-02,-2.41413e-02,1.39186e-02,7.69067e-02,2.20730e-01,
1.24864e-02,-2.77862e-03,1.37680e-01,6.67839e-02,4.81102e-02,1.87532e-01,-5.30566e-02,2.99701e-01,-4.75706e-02,-6.35935e-02,1.08476e-01,-3.75382e-02,-5.90862e+00,7.43235e-02,-1.11895e-01,8.28810e-03,-2.25090e-02,1.17476e-01,1.36204e-01,6.01753e-02,-1.74755e-02,-1.38491e-01,1.15197e-02,3.35507e-01,4.34679e-01,-3.93163e-02,1.65774e-01,3.74773e-01,-3.29891e-02,-4.14633e-02,-1.40709e-02,2.32860e-03,1.71324e-01,-2.65858e-01,3.47420e-02,-1.98988e-01,-5.95871e-02,-3.04425e-02,3.67458e-01,-3.81515e-01,1.23314e-01,1.20330e-01,-1.13265e-02,1.93614e-01,3.20829e-01,
4.88844e-02,4.30762e-02,7.90334e-03,-6.29813e-02,-4.29974e-03,9.46166e-03,4.82320e-02,5.13363e-02,-5.52639e-04,-2.84200e-02,-1.41347e-02,-1.91085e-02,-4.55011e-02,2.97109e-02,-3.88160e-02,-2.17955e-02,-1.32736e-02,3.10303e-02,-6.00869e-02,-1.35430e-02,-2.12648e-02,-7.74691e-03,-1.85502e-02,-4.12593e-02,1.49731e-02,6.87735e-03,-4.26860e-02,-3.16246e-02,-2.05426e-03,1.63603e-02,-3.14613e-02,1.19763e-02,-1.39186e-02,-2.65801e-02,-6.48865e-02,-2.49345e-02,-3.18782e-02,4.21185e-02,3.79207e-02,2.56648e-02,-7.70749e-03,-3.69831e-02,-1.29697e-02,-4.28054e-02,-5.63774e-03,
1.43733e-02,2.26105e-02,-3.43190e-02,-1.07534e-02,2.15407e-02,-5.21443e-02,-1.91690e-02,-4.80228e-02,3.33920e-02,2.36722e-02,-1.63557e-02,-6.69496e-02,-1.56282e-02,-2.49308e-02,-2.99778e-02,5.63396e-03,-6.28282e-02,8.76857e-03,2.20140e-02,-3.44312e-02,7.68697e-03,-3.32292e-02,-3.78479e-02,-5.15626e-02,5.92195e-02,1.13331e-02,-5.96059e-03,-3.64663e-02,-1.21207e-02,7.53782e-03,-5.87071e-02,2.48611e-02,-4.46058e-02,5.00846e-04,-2.99434e-02,-2.75681e-02,-8.17619e-03,-1.97386e-02,-1.18051e-02,-8.81785e-03,4.73811e-02,-2.60493e-02,-3.44210e-03,5.52638e-03,-1.05841e-02,
-1.05870e-02,-3.43701e-02,2.57472e-01,-1.53896e+00,1.37632e-02,-1.25353e-01,-3.45476e-02,-5.56233e-01,-1.12507e+00,-5.67447e-01,-1.21597e+00,-1.13667e+00,-1.53903e+01,-3.01440e-01,-2.55985e+00,-2.13285e-02,5.04678e-01,-5.39697e-01,-1.44658e+00,-8.23161e-01,3.60565e-02,-6.92943e-01,-7.33094e-02,-1.30700e+00,-4.23705e+00,-3.13138e-02,-7.86834e-01,-9.44472e-01,1.25899e-02,-3.19792e-02,-1.32171e-01,1.09508e+00,-1.11052e+00,-1.20450e+00,-1.30727e+00,5.13364e-02,-6.28709e-01,-5.73966e-01,-1.10467e+00,-9.25047e+00,-9.63716e-01,-9.88178e-01,2.62096e-02,-9.98536e-01,-2.83045e+00,
1.51642e-02,-1.37572e-02,-4.04304e-02,-4.15091e-03,2.62733e-02,-3.69405e-02,-7.97777e-03,-4.69961e-02,-2.67330e-02,1.48150e-02,1.94850e-02,1.42341e-02,4.92951e-02,-2.98870e-02,1.76111e-02,-3.86078e-02,-3.21406e-02,-9.04179e-03,-2.62156e-02,2.79609e-02,-5.32100e-02,-1.64265e-02,-1.63050e-02,-1.42863e-02,-1.71758e-02,4.05461e-02,-3.69540e-03,-2.82448e-02,8.45811e-03,2.30387e-02,-3.01236e-02,1.17478e-02,-1.26338e-02,-6.25114e-02,-4.78654e-02,-2.65185e-02,-6.73646e-02,3.73641e-02,3.25053e-02,-5.01641e-02,4.87935e-02,2.08206e-02,-2.95576e-02,-4.20612e-02,2.20851e-02,
-8.92076e-03,1.90131e-02,2.91783e-01,5.50212e-02,2.55040e-02,-2.61429e-01,7.80696e-03,4.36145e-01,9.19290e-02,8.09488e-02,1.63746e+00,8.55562e-01,2.13413e-01,-6.98375e-02,-1.80482e-02,-2.05693e-02,4.47106e-02,3.50260e-01,-4.39878e-03,-2.01568e-01,-4.08729e-01,8.15791e-01,3.01986e-02,-6.83075e-01,3.59844e-02,-4.24070e-02,-2.57316e-01,-2.22270e-01,-1.78305e-02,7.55369e-03,7.65008e-01,-1.56251e-02,-2.57281e-01,3.60939e-01,-3.90381e-02,-2.37821e-01,2.22752e-01,-2.72696e-01,-4.49355e-01,-8.10002e-01,-4.53355e-03,-4.04543e-02,-1.41992e-03,-1.02050e-01,3.82326e-01,
-1.77959e-04,4.41004e-02,-7.53372e-02,7.13747e-03,-1.74380e-02,-2.09602e-02,-1.41646e-02,3.51690e-02,-4.20756e-02,2.01905e-02,-3.52543e-02,-7.74784e-03,9.36474e-03,-1.87113e-02,-1.54309e-03,3.44028e-02,-3.60258e-02,3.53112e-02,2.05883e-02,-2.33864e-03,-3.25922e-02,-6.21731e-02,4.37656e-02,-1.56709e-03,-2.12150e-02,-4.70804e-02,-6.42326e-02,-4.56176e-02,1.46857e-02,1.11562e-02,-1.97781e-02,1.72664e-02,-2.69054e-02,-1.03960e-02,-5.63369e-02,-7.82358e-03,7.21395e-03,1.94295e-02,-1.09430e-02,-2.59080e-02,-4.93374e-02,-7.02707e-02,-1.94532e-02,-6.20519e-02,-2.40786e-02,
-3.73967e-03,4.39439e-02,-3.99307e-02,5.91415e-03,3.36135e-02,-3.20227e-02,3.90559e-02,-3.53173e-02,-2.39915e-02,2.89103e-02,1.30539e-02,-4.91659e-02,-5.53577e-02,-1.31133e-02,-3.46189e-02,3.90910e-02,-3.04454e-02,-2.62316e-02,3.55986e-02,-1.87934e-02,1.18265e-02,-9.51157e-03,2.04514e-02,-4.25550e-02,-6.00607e-02,-2.06704e-02,-6.20321e-02,2.02431e-02,-4.34827e-02,-2.84986e-03,6.19985e-05,-9.82184e-03,-4.45798e-02,-5.75200e-02,2.06649e-03,2.71478e-03,-2.23491e-02,-1.34014e-02,-1.89960e-02,-1.30598e-02,-1.76049e-02,-3.31421e-02,-3.26549e-02,-2.69159e-02,-4.86789e-02,
4.73825e-02,-1.77976e-02,-1.34349e-01,-1.35230e+00,-5.67629e-02,3.98922e-01,4.72856e-02,-8.34407e-02,-1.14494e-01,-3.77390e-01,5.29872e-03,5.89533e-02,-3.73887e-01,-5.23480e-01,1.86836e-01,3.86901e-02,-1.02417e-01,-3.53403e-01,3.15763e-02,-6.31677e-02,-5.82666e-02,2.91257e-01,3.48563e-02,1.80467e-01,2.44916e-01,-1.83654e-02,-1.08760e-01,6.46792e-02,-3.97592e-02,1.39935e-02,-1.96813e-01,4.58934e-02,-2.51345e-01,-1.22294e-01,-8.74438e-02,-4.28813e-02,-8.48012e-02,-2.76270e-02,1.34416e-01,5.77648e-01,-6.41164e-02,-3.86619e-02,-3.98369e-02,9.31404e-03,2.08103e-01,
-4.58887e-03,1.58732e-02,-5.10784e-02,-4.81634e-02,-1.70243e-02,-3.74850e-02,-1.04626e-02,4.81277e-02,5.80555e-03,-6.59561e-02,-6.21456e-02,-3.81450e-02,4.23308e-02,7.15497e-03,6.29564e-03,4.12546e-02,2.13162e-03,-4.68468e-02,1.15151e-02,1.29314e-02,-2.97296e-02,-7.63442e-02,-4.03500e-02,-8.65472e-03,-6.57359e-02,-2.70846e-02,-6.65925e-02,-2.82194e-02,2.30318e-02,1.02094e-03,-7.30227e-03,-5.34546e-02,-5.15158e-02,1.70370e-02,-2.55289e-02,2.71833e-02,1.94161e-02,-4.51214e-02,1.60586e-02,-3.57747e-02,-1.61830e-02,-2.67090e-02,1.61361e-03,-3.08203e-02,-7.03155e-02,
-3.55621e-02,-1.65425e-02,5.45118e-02,-1.23148e+00,5.55346e-03,3.90575e-01,4.77630e-02,-2.60016e-01,-1.65209e-01,1.98988e-01,-2.65128e-02,-3.75136e-01,2.50556e-01,1.86479e-02,-1.06250e-01,6.01089e-02,-2.37345e-01,-6.12245e-01,2.82401e-01,3.07981e-01,3.59326e-01,-9.19007e-01,2.14858e-02,-3.30195e-01,-1.80085e-02,2.12885e-02,6.43608e-01,-2.86555e-02,3.54733e-02,3.28033e-02,-3.49114e-01,2.20945e-02,-2.45862e-01,2.74592e-02,4.80464e-01,3.82001e-01,-4.42287e-01,-2.48728e-01,-1.78479e-01,-1.47150e-02,-2.53454e-01,-3.00722e+00,2.37814e-02,-2.46564e-01,-1.53414e-01,
-3.76225e-02,-4.64133e-02,-5.17564e-02,-7.76002e-02,2.45640e-02,-1.63700e-02,-2.62899e-02,-4.35181e-02,1.19582e-02,-2.17681e-03,3.60021e-03,-5.69792e-02,1.52906e-02,2.37410e-02,-2.09344e-02,-3.04343e-02,-6.09392e-02,1.92749e-02,-5.60899e-02,1.17600e-02,-3.31426e-02,-1.73197e-02,-3.58928e-02,-4.93680e-03,-5.81452e-02,2.33732e-02,-1.39800e-02,-2.04418e-02,-1.34107e-02,3.91519e-02,3.18813e-02,-5.76264e-02,2.93735e-02,-1.18870e-03,-2.05789e-02,-4.39819e-03,-2.78961e-02,2.33585e-02,-2.64120e-02,-5.73652e-02,3.19482e-02,-1.97674e-02,2.75673e-02,-1.40739e-02,-3.78334e-02,
